#ifndef PARAMS_CONV2D_0_H
#define PARAMS_CONV2D_0_H
#include "params.h"

const float layer_0_conv2d_weight[UNET_PAR_0_CONV2D_KERNEL_Y*UNET_PAR_0_CONV2D_KERNEL_X*UNET_PAR_0_CONV2D_IN_FILTER*UNET_PAR_0_CONV2D_OUT_FILTER] = {
	 2.0051215589e-01,  2.2256021202e-01, -1.9575774670e-01, -1.9547507167e-01,  1.4816557989e-02, -5.5728838779e-03,  1.0924213566e-03,  1.2426164001e-01, -3.9638310671e-02, -1.4742855728e-01, 
	-9.0229488909e-02, -1.9249181449e-01, -1.9475457072e-01, -6.0168366879e-02,  1.6275830567e-01,  1.5038393438e-01, -1.1260607094e-01,  2.5824315846e-02,  6.6690002568e-03,  1.8659135699e-01, 
	-5.8291638270e-03, -1.6192063689e-01, -2.6763817295e-03, -1.9813850522e-01,  8.2899462432e-03,  1.1344981939e-01, -2.2291567177e-02, -4.3058760464e-02, -1.8901358545e-01, -2.1127416193e-01, 
	 8.8179267943e-02, -2.3075537384e-01, -1.4654995501e-01, -1.8776383996e-01,  1.8661642075e-01,  4.2567983270e-02, -2.8459941968e-02,  2.0326632261e-01, -2.2721897066e-01,  4.1957251728e-02, 
	-2.2122517228e-02,  1.9392545521e-01,  3.1599432230e-02, -1.8719889224e-01, -5.8591593057e-02,  5.1487792283e-02,  1.9899368286e-01, -1.3700027019e-02, -5.0173752010e-02,  2.1309096366e-02, 
	 1.0953440517e-01,  2.1239814162e-01,  2.4903377891e-01, -8.0750256777e-02,  9.7886912525e-02,  1.5733577311e-01,  1.0788004100e-01,  9.6051044762e-02,  4.4515561312e-02,  4.4058557600e-02, 
	 3.7915505469e-02, -2.8695169836e-02,  2.1234905720e-01, -2.2412334383e-01,  1.4436682686e-02,  1.0689722747e-01,  1.4041951299e-01, -1.7123842239e-01, -2.0212514699e-01,  1.9361104071e-01, 
	 1.5808717906e-01, -7.5821890496e-03,  8.8418290019e-02, -1.3799749315e-02,  1.6650658101e-02, -1.4878316224e-01,  6.5612092614e-02,  2.6062345132e-02,  6.3274830580e-02,  1.4458492398e-01, 
	-1.7816221714e-01, -1.5661627054e-01,  7.4591827579e-03,  2.6194846258e-02, -2.1374890208e-01, -1.9733606279e-01,  1.8854036927e-01,  8.9527651668e-02, -1.8524613976e-01, -8.9179398492e-03, 
	 1.3187749684e-01,  1.5035691857e-01, -1.4988991618e-01,  2.0032399893e-01,  8.3893612027e-02,  1.6548812389e-01, -1.2073301524e-01, -1.4734126627e-01, -4.6115156263e-02,  1.9565115869e-01, 
	 9.3915559351e-02, -1.7787803710e-01, -1.0907678306e-01,  6.2891066074e-02,  3.3940334106e-04,  7.2532109916e-02,  9.1002307832e-02,  1.5102052689e-01, -1.9477003813e-01, -1.5250961483e-01, 
	-1.5347080305e-02, -1.6467696056e-02, -4.6980742365e-02,  7.2652727365e-02, -2.5649171323e-02,  1.9497126341e-01,  2.1876280010e-01, -3.2830301672e-02, -4.7689147294e-02, -1.6549515724e-01, 
	-2.2331531346e-01, -1.4983227849e-01,  1.5295504034e-01, -6.4576365054e-02,  7.2222329676e-02,  3.6982644349e-02, -5.4953832179e-02, -2.4434971809e-01,  5.8604497463e-02, -2.1446119249e-01, 
	 1.3496126235e-01,  7.1681335568e-02, -2.3846365511e-01,  5.4351709783e-02, -1.6542077065e-01,  1.3651429117e-01,  6.1566438526e-03, -2.9340228066e-02, -1.8895359337e-01,  1.7849022150e-01, 
	 1.8567122519e-01, -2.2516392637e-03,  1.2280180305e-01,  1.8398539722e-01, -1.3582614064e-01,  1.6496704519e-01, -8.4017263725e-03, -1.1645581573e-01,  7.1456268430e-02, -1.7798346281e-01, 
	 9.9387764931e-02, -1.8137221038e-01,  1.8983802199e-01, -5.9448733926e-02,  1.0252609849e-01, -1.2418798357e-01, -2.2483415902e-01, -1.6593252122e-01,  1.7667497694e-01,  2.2385433316e-01, 
	 2.3365454376e-01, -1.0852599144e-01, -1.4470829070e-01, -1.0143791139e-01, -1.1135983281e-02,  5.9070728719e-02, -1.0504221171e-01,  8.5145123303e-02, -1.4081583917e-01,  6.5782614052e-02, 
	 1.2149882317e-01,  8.9541278780e-02, -1.1460494250e-01, -3.6325152963e-02,  7.2442367673e-02,  1.5013706684e-01, -1.7342005670e-01,  1.5573357046e-01,  1.8871064484e-01, -2.6593191549e-02, 
};

const float layer_0_conv2d_bias[UNET_PAR_0_CONV2D_OUT_FILTER] = {
	 6.4925414335e-05,  1.4511379959e-05,  2.2686621378e-05, -1.9217573936e-05, -4.5969205530e-05,  1.0238829418e-05, -3.2895786717e-05,  8.9636978373e-06, -1.3929276065e-05, -2.3840997528e-05, 
};


#endif
