#ifndef PARAMS_CONV2D_2_H
#define PARAMS_CONV2D_2_H
#include "params.h"

const float layer_2_conv2d_weight[UNET_PAR_2_CONV2D_KERNEL_Y*UNET_PAR_2_CONV2D_KERNEL_X*UNET_PAR_2_CONV2D_IN_FILTER*UNET_PAR_2_CONV2D_OUT_FILTER] = {
	 7.6248943806e-02, -4.3131463230e-02,  1.1919332296e-01,  1.8710549921e-03,  6.7164145410e-02, -2.4813983589e-02,  1.2892479077e-02,  8.4749691188e-02, -1.2994760647e-02, -3.9230361581e-02, 
	-7.2815708816e-02,  1.2100217864e-03, -3.6653388292e-02,  9.6481852233e-02, -1.0979897529e-01,  1.1485999078e-01, -3.5626843572e-02, -1.5369637311e-01,  1.2142043561e-01, -1.6279403865e-01, 
	-7.0173731074e-03, -1.4690634608e-01, -7.6554670930e-02,  1.4364607632e-01, -6.1949118972e-02, -1.2872426212e-01, -8.6202025414e-03, -7.0231504738e-02, -1.7445204780e-02,  9.6355743706e-02, 
	 1.0078152269e-01,  4.8044569790e-02,  9.9715702236e-02,  5.3245875984e-02,  4.8101402819e-02,  1.5251798555e-02,  1.8159320951e-01, -1.1429259181e-01, -1.3717804849e-01, -1.5164994635e-02, 
	 1.5446185134e-02,  1.5643750131e-01,  2.9504492879e-02, -1.7913615704e-01, -1.6893021762e-01, -1.1087964475e-01, -6.4762443304e-02, -9.7898937762e-02, -9.3610122800e-02, -1.8671967089e-02, 
	 2.7862686664e-02, -1.8321505189e-01,  1.3662056625e-01, -1.6778539121e-01, -1.3123540580e-01,  1.6545957327e-01, -1.2183726579e-01,  2.7901520953e-02, -1.0241775960e-01, -1.2817037106e-01, 
	 6.7489102483e-02,  1.3909687102e-01,  1.4958463609e-01, -6.7152865231e-02, -5.6963376701e-02,  8.6992867291e-03,  1.0390231013e-01,  1.7909510434e-01, -3.8023717701e-02, -1.6791367531e-01, 
	-3.5743158311e-02, -1.1873084307e-01, -1.6952365637e-01, -1.5233425796e-01,  3.1642116606e-02, -1.7924752831e-01, -7.8150488436e-02, -1.2112520635e-01,  2.9174864292e-02, -8.1727586687e-02, 
	 1.7632077634e-01,  8.7130829692e-02, -1.3583655655e-01,  5.2743662149e-02, -1.0986979306e-01, -1.6902607679e-01,  1.2594160438e-01, -1.3622328639e-01, -5.9803303331e-02,  6.6371254623e-02, 
	-1.3000528514e-01,  1.2744823098e-01, -1.1667889357e-01,  8.4939353168e-02,  7.5028494000e-02,  1.9970210269e-02, -4.1445948184e-02, -1.6102224588e-01,  1.6073088348e-01, -1.5618364513e-01, 
	 3.6103412509e-02,  1.6207734123e-02, -1.2682604603e-02, -8.5267722607e-02,  2.6815522462e-02, -1.4044824243e-01,  3.1375724822e-02,  1.7354795337e-01, -8.6098171771e-02, -9.9898755550e-02, 
	-4.9094915390e-02,  4.0810834616e-02,  8.9256212115e-02,  6.3730277121e-02, -3.9018165320e-02, -8.4171881899e-03,  2.0685955882e-02,  1.7015522718e-01, -4.9367763102e-02, -1.8757487833e-01, 
	-1.2761963531e-02,  1.1560380459e-01,  1.0978505760e-01,  1.2797659636e-01, -1.8699392676e-01,  5.6694813073e-02,  1.8137429655e-01,  1.3253083825e-01,  3.1005231664e-02, -1.2714417279e-01, 
	 1.4335767925e-01,  1.0450070351e-01, -1.1021733284e-01,  1.0663881898e-01, -5.5025503039e-02,  1.4887934923e-01,  1.2800608575e-01,  1.5813021362e-01,  1.0446507484e-01,  4.4344063848e-02, 
	-1.1870491505e-01,  6.9146163762e-02, -1.4385709167e-01,  1.0306701064e-02, -1.2243649364e-01,  1.1039456725e-01,  1.2904383242e-01,  6.7556820810e-02,  1.3946114480e-01,  6.3027426600e-02, 
	 3.9313398302e-02,  1.7619396746e-01, -1.4839954674e-01, -4.5053653419e-02, -1.7535220087e-01,  9.3634359539e-02,  1.3857261837e-01, -8.4395393729e-02,  2.3879751097e-03, -1.3256600499e-01, 
	-8.9349247515e-02, -1.3028073311e-01,  1.1621066369e-02, -8.9615993202e-02, -6.7055381835e-02, -2.8980590403e-02, -1.6752967238e-01,  1.2566576898e-01,  5.9476234019e-02,  9.3646779656e-02, 
	 7.8572280705e-02, -1.2771026790e-01, -9.4577841461e-02, -9.4765402377e-02, -1.8597534299e-01,  8.6033098400e-02, -8.2621254027e-02, -9.6809908748e-02, -1.2438919395e-01, -1.4367869496e-01, 
	 5.8007810265e-02,  1.3020488434e-02, -1.5541616082e-01, -1.2021029368e-02, -3.5699825734e-02, -5.5314682424e-02, -1.2526485324e-01,  2.8836298734e-02, -8.8193416595e-02, -7.1871079504e-02, 
	 1.5394674242e-01, -1.3004609942e-01, -1.1025423557e-01, -3.5300742835e-02,  1.5058538876e-02,  3.0567502603e-02,  7.8685209155e-02,  1.5441549476e-03,  1.6385239363e-01,  1.4439439774e-01, 
	-1.0737241805e-01,  7.6458923519e-02,  1.4594013989e-01,  1.7304731905e-01,  7.0931665599e-02,  1.7385160923e-01, -3.5356130451e-02, -1.3656102121e-01, -9.2128597200e-02,  1.9831072539e-02, 
	 5.1744308323e-02,  1.0381976515e-01, -4.9898914993e-02,  1.4891305566e-01, -1.5386949480e-01, -1.3469921052e-01, -1.5188364685e-01,  1.2471470982e-01, -1.7105250061e-01,  8.0147914588e-02, 
	-1.8995794654e-01,  1.0174674541e-01,  6.4314232441e-04,  1.2275474519e-01, -4.5739084482e-02, -1.4536859095e-01, -6.2898911536e-02,  9.1514978558e-03, -1.7549468577e-01, -1.7387367785e-01, 
	 7.3414720595e-02, -2.6044005528e-02,  1.4072488248e-01, -1.6316613555e-01, -1.3652820885e-01, -6.0468472540e-02,  3.0818264931e-02,  2.2759446874e-02, -9.3250852078e-03,  1.6225232184e-01, 
	-1.0941373557e-01, -1.5276472270e-01, -5.8442447335e-02, -1.4428426325e-01,  1.7026801407e-01,  1.1065607518e-01, -4.1065454483e-02, -5.5532723665e-02, -1.7238454521e-01,  8.7622769177e-02, 
	-3.6073599011e-02,  4.2207486928e-02,  2.4129541591e-02, -8.4414988756e-02, -8.4657952189e-02,  1.0814636946e-01, -1.2233231217e-01,  4.8111900687e-02, -6.4843080938e-02,  1.7037850618e-01, 
	 1.1602098495e-01,  1.3476954401e-01, -7.6606780291e-02, -7.9951882362e-02, -1.0523702949e-01, -4.2928237468e-02, -5.7711929083e-02, -1.2120413035e-01, -1.7832433805e-02,  3.8826014847e-02, 
	 2.4309614673e-02, -2.4496309459e-02,  3.1958777457e-02,  1.0031964630e-01,  2.2599179298e-02,  2.2245075554e-02,  1.4643761516e-01, -1.5701285005e-01,  1.4515441842e-02,  9.8627328873e-02, 
	-8.9137643576e-02,  1.1319593526e-02,  4.9461849034e-02,  8.3359234035e-02,  3.0927188694e-02,  1.4001940377e-02, -3.7389270961e-02, -5.2884388715e-02,  1.5104031563e-01,  2.3508468643e-02, 
	-9.5721773803e-02, -1.4286825061e-01,  1.8291354179e-01, -5.4880298674e-02,  1.5515767038e-01, -1.4251612127e-01,  1.5972878039e-01, -1.6179221869e-01, -6.4787924290e-02, -1.7695339024e-01, 
	-3.1792752445e-02, -1.5181787312e-01,  2.6449265424e-03,  4.2750425637e-02,  3.1826332211e-02, -1.1023468524e-01, -1.6967619956e-01, -1.2773998082e-01, -1.7545004189e-01,  7.8112363815e-02, 
	-1.8265734613e-01, -1.3203535974e-01, -1.8917745352e-01,  1.9702931866e-02,  1.0649370030e-02, -9.3159206212e-02,  2.3689880967e-02,  1.3117912412e-01,  4.4623415917e-02, -4.7977820039e-02, 
	-6.2187336385e-02, -1.3101890683e-01,  8.6223274469e-02, -1.7557485402e-01, -1.2350361794e-01, -5.4840508848e-02, -9.7311191261e-02,  6.6961064935e-02, -1.2067230791e-01,  4.7281693667e-02, 
	-6.8232499063e-02, -9.0831160545e-02,  7.7290832996e-02, -1.5224830806e-01,  2.7460800484e-02, -1.6974423826e-01,  1.7703333497e-01, -1.1976858974e-01,  7.6467610896e-02,  1.1178656667e-01, 
	-4.5227427036e-02,  5.1191542298e-02,  1.7292812467e-01, -1.7005419731e-01,  8.2596369088e-02, -5.8197207749e-02,  1.5755747259e-01, -7.0573128760e-03, -1.0953324288e-01, -1.6802271828e-02, 
	 5.6096296757e-02, -7.2575353086e-02,  3.7635516375e-02,  9.8703219555e-04, -3.6353912205e-02,  7.9252878204e-03,  8.9695870876e-02,  1.0172515363e-01,  1.5950416028e-01,  6.2573343515e-02, 
	 9.4851471484e-02,  1.7289854586e-02, -1.3010044396e-01,  9.3547292054e-02,  4.4002432376e-02,  6.8686522543e-02,  9.2455953360e-02,  1.5145964921e-01, -2.0076742396e-02,  1.7280824482e-01, 
	 4.0581360459e-02, -1.2901709974e-01,  6.5398484468e-02,  6.5903171897e-02,  6.2079105526e-02, -7.1736290120e-03, -2.2004500031e-02,  3.9143949747e-02, -1.4121378958e-01,  1.4479584061e-02, 
	-1.4539591968e-01,  6.5571233630e-02,  9.4749368727e-02,  7.6038427651e-02,  8.4568470716e-02, -1.2778352201e-01,  7.0036754012e-02,  1.7058174312e-01, -2.3154310882e-02,  1.1297937483e-01, 
	-1.4925897121e-01,  2.7232559398e-02, -1.4044022560e-01,  9.3890435994e-02,  1.0097286850e-01, -1.7628462613e-01,  1.6137166321e-01, -1.7764161527e-01, -1.4441660047e-01,  2.5265589356e-02, 
	-1.3045248389e-01,  1.7745079100e-01,  1.2222509086e-01,  3.8444125676e-04,  1.5221370757e-01,  1.5091682971e-01,  1.2402506173e-01,  1.7540080845e-01,  1.1178018153e-01, -1.5553113818e-01, 
	-1.7594589293e-01,  1.7586481408e-04, -2.5371078402e-02,  1.4931033552e-01, -9.3367531896e-02,  1.3624456525e-01, -4.4241152704e-02,  3.6022290587e-02, -1.4880734682e-01,  5.3286343813e-02, 
	-8.1147454679e-02,  6.5362259746e-02, -4.0360286832e-02, -1.7120689154e-01, -5.2849907428e-02, -1.7732024193e-01,  1.4941531420e-01, -1.8060201406e-01, -5.9877843596e-03,  1.0835290700e-01, 
	 9.8189912736e-02, -6.4494460821e-02, -5.8833934367e-02, -1.1645346135e-01, -1.4376892149e-01,  1.0338194668e-01, -7.1892090142e-02, -1.6803357005e-01, -1.1464100331e-01, -1.7921078205e-01, 
	 1.2799468637e-01, -1.6891093552e-01, -1.9907858223e-02,  1.2672822177e-01, -9.9578455091e-02, -3.8129013032e-02, -4.8050899059e-02,  6.2431827188e-02, -3.6945883185e-02,  3.7501949817e-02, 
	 1.4532287419e-01,  2.0360313356e-02,  5.8680064976e-02, -8.8993497193e-02, -1.5657198429e-01, -2.2812182084e-02, -4.6621371061e-02, -1.0822381824e-01,  1.1763666570e-01,  1.0674129426e-01, 
	-8.5135214031e-03, -1.8517760932e-01, -2.7150882408e-02,  5.0070635974e-02,  1.3845020533e-01,  1.3990586996e-01, -2.1123655140e-02,  1.0660910606e-01,  1.0938851535e-01,  1.4314292371e-01, 
	-1.6127242148e-01,  5.6983061135e-02,  3.8190875202e-02,  1.4788575470e-01,  1.0705616325e-02, -9.0092150494e-03,  9.5978826284e-03,  1.4568801969e-02,  1.0613907129e-01,  1.3786770403e-01, 
	-1.6790167987e-01, -7.1344532073e-02,  5.8303289115e-02, -9.4162477180e-03, -7.9922758043e-02, -1.0347767919e-01, -7.7295586467e-02, -1.6467234492e-01, -1.4308759570e-01, -1.1956144124e-01, 
	-6.9691896439e-02, -1.5661530197e-01, -8.2447223365e-02,  9.6477515996e-02, -1.7718198895e-01,  1.0377418995e-01,  1.2168650329e-01,  4.0579538792e-02,  9.9858336151e-02, -1.4359894395e-01, 
	 1.1597760767e-01,  4.9628622830e-02,  2.8042487800e-02,  7.2725504637e-02,  1.3162291050e-01,  2.9293149710e-03,  6.8872891366e-02, -1.8630291522e-01,  1.3893079758e-01, -1.6289025545e-01, 
	-1.3884760439e-02, -5.3494043648e-02,  1.7611469328e-01,  1.5515688062e-01,  1.4782498777e-01,  1.1420323700e-01,  4.2185317725e-02, -1.2753827870e-01, -6.8862795830e-02,  5.1139447838e-02, 
	-1.6438454390e-01,  6.8295784295e-02,  6.2033977360e-02, -1.2378295511e-01, -1.1855567247e-01,  6.1376944184e-02,  3.8099110126e-02,  1.0075782239e-01, -8.3823308349e-02,  1.0359465331e-01, 
	-1.3876481354e-01,  1.4578355849e-01,  4.6463388950e-02,  5.6461721659e-02,  9.1864727437e-02, -8.3466075361e-02, -9.7605111077e-03, -1.6077257693e-01, -1.0475497693e-02,  1.2846867740e-01, 
	-1.0053345561e-01,  2.2755893879e-03,  6.7108697258e-03, -1.5540091693e-01,  1.2948275544e-02, -9.4387270510e-02,  1.4743873477e-01,  1.4391136356e-02, -7.9543352127e-02,  1.6087482870e-01, 
	 3.4545507282e-02,  1.7304100096e-01, -3.8217063993e-02,  7.0636101067e-02,  1.6997781396e-01, -1.1622266471e-01, -2.6382541284e-02, -1.4866983891e-01,  9.8271816969e-02,  1.0828643292e-01, 
	-1.5258480608e-01,  1.3723261654e-01, -3.1752839684e-02, -1.4740961790e-01, -1.7606525123e-01,  1.6825371981e-01, -1.3773053885e-01, -1.5966622531e-01,  9.8441168666e-03,  1.5298937261e-01, 
	 5.6853327900e-02,  1.1412232369e-01, -1.5008847415e-01, -1.3877345622e-01,  1.5394994617e-01,  1.4669893682e-01,  1.0292709619e-01, -3.5788036883e-02,  1.6328202188e-01,  3.6838546395e-02, 
	-4.2126640677e-02,  1.4750465751e-01, -1.6771991551e-01,  6.2005203217e-02, -4.8544697464e-02,  4.2898088694e-02, -1.7353843153e-01,  1.8505612388e-02,  1.5166139230e-02, -2.4947743863e-02, 
	 1.5212537721e-02, -1.0817463696e-01,  1.0184489191e-01, -1.7318384349e-01,  1.4514043927e-01,  1.7481759191e-01,  5.7069081813e-02,  1.8113856018e-01,  4.1997678578e-02,  1.4509305358e-01, 
	 7.1622438729e-02, -4.9052327871e-02, -1.2888851762e-01, -1.3354541361e-01,  1.1645527184e-01, -6.7997105420e-02,  1.7741587013e-02,  1.3187545538e-01,  1.2637545168e-01,  4.8284497112e-02, 
	 1.4660872519e-01, -1.8820028752e-02, -1.0422920436e-01,  9.6109351143e-03, -1.3640628196e-02, -1.7139527202e-01, -6.9497987628e-02, -1.1624997109e-01, -1.5186366439e-01, -4.2763501406e-02, 
	 5.5552463979e-02, -7.9785082489e-03,  6.6675543785e-02,  1.1679022014e-01, -4.2877960950e-03,  8.0704100430e-02,  1.8036954105e-01,  1.5385445952e-01, -1.1340199970e-02,  9.5123462379e-02, 
	 5.1283244044e-02,  2.5330042467e-02, -1.2494428456e-01, -9.9991373718e-02, -1.4507183433e-01,  5.7202197611e-02, -9.1291069984e-02, -7.2696007788e-02,  6.5659232438e-02,  4.5424237847e-02, 
	 5.6265015155e-02,  8.8341765106e-02, -5.8707945049e-02,  3.5604014993e-02,  1.3931834698e-01, -1.5686473250e-01,  9.8276115954e-02,  9.5223918557e-02,  1.4138048887e-01, -1.2637896836e-01, 
	-1.4678870142e-01, -7.8632580116e-03, -7.6052732766e-02, -1.0794693604e-02, -8.1924103200e-02,  1.7771747708e-01, -1.3643734157e-02, -8.1125758588e-02, -5.7596080005e-02,  1.0781215876e-01, 
	-1.6459915042e-01, -1.3900592923e-01,  5.8782357723e-02, -1.4359270036e-01, -1.1209814250e-01,  5.9392016381e-02,  1.1265707761e-01,  1.6644801199e-01,  7.1513518691e-02,  9.6210449934e-02, 
	-1.4674757421e-01, -1.0660009086e-01, -7.1957699955e-02, -2.4181734771e-02, -1.3980568945e-01,  3.6621607840e-02,  5.5707827210e-02,  1.7590612173e-01, -7.6789386570e-02,  3.9867307991e-02, 
	 1.3614284992e-01, -5.4861288518e-02, -1.6464920342e-01,  1.7840620875e-01,  4.7809697688e-02, -2.3367140442e-02,  1.4645154774e-01,  3.2156270463e-03,  1.7913758755e-01,  1.5870842338e-01, 
	 1.1663412303e-01,  9.2782676220e-02,  1.4953610301e-01,  4.5582719147e-02,  1.1051231995e-02,  2.8517092578e-03, -6.0496740043e-03, -1.4250743389e-01,  1.1381241679e-01, -1.3821001351e-01, 
	 1.0605052859e-01, -1.1221897602e-01,  1.5149271348e-03, -1.5687456727e-01, -1.0377487168e-02, -1.7692670226e-01,  6.5622761846e-02, -7.3763877153e-02,  1.4410428703e-01, -6.4495295286e-02, 
	 8.1673741341e-02, -3.1995423138e-02,  1.1837921292e-01,  1.0025810450e-01, -4.2774740607e-02,  1.4128470421e-01,  1.0980301350e-01, -4.3358121067e-02, -1.4435748756e-01,  1.5298263729e-01, 
	 8.0651879311e-02, -1.1963971704e-01, -1.6447287798e-01, -1.4988337457e-01, -9.5412448049e-02, -9.2275321484e-02,  1.0461323895e-02,  7.3106735945e-03, -7.9809896648e-02, -1.4178326726e-01, 
	 5.2619114518e-02,  1.0214532167e-01, -1.4435425401e-02, -1.4774732292e-01,  1.4026248455e-01,  7.6810106635e-02, -7.1163184941e-02,  1.5167266130e-01, -2.5699447840e-02, -8.2675673068e-02, 
	 7.3503918946e-02,  1.0184627026e-02,  4.3801374733e-02, -7.0798516273e-02,  1.4029592276e-01, -1.0262854397e-01,  8.8352687657e-02, -1.8498370051e-01, -1.8909209967e-01,  5.2973691374e-02, 
	-2.7333315462e-02,  9.3518547714e-02, -1.3262449205e-01, -1.0899433494e-01, -1.9240528345e-02,  1.1949034780e-01,  4.0038559586e-02, -8.9904516935e-02,  2.5773212314e-02, -1.5121234953e-01, 
	 1.1945859343e-01,  3.0758541077e-02, -9.1460179538e-03,  1.2454348058e-01,  3.2501101494e-02, -6.6679708660e-02, -8.3355844021e-02,  6.3027344644e-02, -5.7856127620e-02, -4.0892228484e-02, 
	 1.9018020481e-02, -5.9553839266e-02,  9.3852132559e-02,  1.5434546769e-01, -8.7718844414e-02, -1.3143965602e-01, -1.5830171108e-01,  4.2854789644e-02,  4.5064132661e-02,  1.3301956654e-01, 
	 4.7125164419e-02, -6.3325643539e-02,  1.6601707041e-01,  1.7539246380e-01, -9.7367666662e-02,  1.3893708587e-01,  1.6552789509e-01,  5.9079285711e-02, -5.0940923393e-03, -3.9401318878e-02, 
	-9.5621824265e-02,  7.8980125487e-02,  1.2633086741e-01,  4.0347486734e-02, -1.4790686965e-01, -7.7685751021e-02,  1.6143801808e-01, -1.7899736762e-01,  7.3472268879e-02, -1.2096800655e-01, 
	 6.7601107061e-02,  1.2948644161e-01,  1.2702463567e-01,  5.1856365055e-02, -1.0811299831e-01,  7.0034183562e-02,  5.8749742806e-02, -1.5210007131e-01, -8.5773184896e-02,  4.2921762913e-02, 
	-4.8549324274e-02,  1.4524337836e-02, -1.3922698796e-01,  3.8534838706e-02, -1.0645629466e-01,  1.6420796514e-01,  6.5430350602e-02,  9.9779412150e-02, -6.9650642574e-02, -1.2459089607e-01, 
	 8.1961244345e-02,  1.2033420056e-01,  7.5252510607e-02, -1.7703205347e-01,  1.1736443639e-01,  1.5619878471e-01, -8.9932102710e-03, -5.1384624094e-02,  3.9251305163e-02,  6.0426604003e-02, 
	-7.0403948426e-02,  2.4843910709e-02, -1.0517728329e-01,  1.5754346550e-01, -6.5025657415e-02,  5.3252290934e-02,  1.2819589674e-01, -1.1511663347e-01, -4.3179243803e-02, -1.6497712582e-02, 
	 1.0770040751e-01,  3.1115831807e-02, -1.3332284987e-01, -1.4188306406e-02, -1.7409081757e-01, -5.4176785052e-02, -1.6381645203e-01,  4.7609310597e-02,  4.0407916531e-03, -4.1493917815e-03, 
	 6.6911228001e-02,  7.0476509631e-02,  6.3316576183e-02, -1.3079835474e-01,  1.4124760032e-01, -9.0021833777e-02,  4.4883005321e-02, -1.0604719818e-01, -8.0935321748e-02, -1.4385449700e-02, 
	-3.8122948259e-02, -4.2152706534e-02,  9.5715008676e-02,  5.0854068249e-02, -1.4995437860e-01, -5.9006489813e-02,  1.1794680357e-01,  5.4706264287e-02,  9.1768719256e-02, -1.1990436167e-01, 
	 1.6363057494e-01, -9.7222058102e-03, -1.7246402800e-01,  7.1346275508e-02, -8.5907928646e-02, -1.5405970812e-01,  1.8024387956e-01, -6.2924496830e-02,  1.8650861084e-01, -1.9133195281e-02, 
	 8.5418403149e-02, -1.2616910040e-01,  5.0082504749e-02, -3.5046879202e-03, -8.2706145942e-02,  8.3390444517e-02,  1.0613948852e-01,  1.5498238802e-01, -3.0004512519e-02, -8.5999093950e-02, 
	-5.7352986187e-02,  6.2006585300e-02, -1.2228454649e-01,  1.0652276129e-01,  1.7086744308e-01, -6.4349994063e-02,  1.6977386177e-01, -2.5935288519e-02, -3.8152709603e-02,  1.7071454227e-01, 
};

const float layer_2_conv2d_bias[UNET_PAR_2_CONV2D_OUT_FILTER] = {
	-9.6216581369e-07,  2.4829548693e-06,  1.4141527572e-05, -1.1186996744e-05, -1.1435425222e-05, -5.1163715398e-06,  1.0578785805e-05,  3.6288240608e-06,  3.3191502098e-06,  3.7524418985e-06, 
};


#endif
