#ifndef PARAMS_CONV2D_4_H
#define PARAMS_CONV2D_4_H
#include "params.h"

const float layer_4_conv2d_weight[UNET_PAR_4_CONV2D_KERNEL_Y*UNET_PAR_4_CONV2D_KERNEL_X*UNET_PAR_4_CONV2D_IN_FILTER*UNET_PAR_4_CONV2D_OUT_FILTER] = {
	 4.1136629879e-02, -1.1423853040e-01, -4.0502037853e-02, -8.4822699428e-03, -2.0761789754e-02,  6.8067282438e-02,  4.6763692051e-02, -1.5003381670e-01, -4.5772965997e-02,  8.7042212486e-02, 
	 8.9978776872e-02, -5.2316144109e-02, -7.9357862473e-02,  5.8411449194e-02, -9.9806539714e-02,  6.6645272076e-02, -7.5268812478e-02,  9.3791750260e-04,  1.5504105389e-01,  1.2013110099e-03, 
	-6.2170837075e-02,  4.1824966669e-02, -1.0424903780e-01,  4.0449615568e-02,  1.3616435230e-01, -5.2072867751e-02,  5.9215415968e-04,  4.2492225766e-02, -4.2448442429e-02, -2.1671958268e-02, 
	 9.5304355025e-02,  1.4198295772e-01,  3.9194554090e-02,  4.6959161758e-02,  1.3366878033e-01,  1.2982006371e-01,  3.7875708193e-02,  5.3873829544e-02,  7.5852662325e-02,  6.5370164812e-02, 
	 9.0171322227e-03,  1.2523694336e-01,  1.2961722910e-01,  9.3968458474e-02, -6.7824549973e-02,  9.6897542477e-02, -1.4032387733e-01,  2.7419837192e-02, -5.1081538200e-02, -6.1687707901e-02, 
	-3.2405219972e-02, -1.0737953335e-01, -3.9418030530e-02,  1.1336052418e-01,  2.6287635788e-02, -9.2925749719e-02, -2.4129476398e-02,  1.4238257706e-01,  6.9381885231e-02, -9.0308964252e-02, 
	-1.1823573709e-01,  1.0571391881e-01, -9.3048699200e-02, -8.9370101690e-02,  1.2001588941e-01, -5.4072644562e-02, -7.9341933131e-02,  1.4682963490e-01, -1.4565476775e-01, -1.3746647537e-01, 
	 1.1755362153e-01,  8.3340421319e-02, -1.4516916126e-02,  1.2018901110e-01, -1.4492006600e-01,  2.3923827335e-02,  1.3497301936e-01,  1.3399547338e-01,  9.9633298814e-02,  5.9693701565e-02, 
	-8.6201233789e-03,  1.9139384851e-02,  5.7610321790e-02,  1.2905008160e-02,  1.1839957535e-01, -8.1301935017e-02,  4.6872876585e-02, -1.1134070903e-01,  1.0199943185e-01, -2.6463478804e-02, 
	 7.8174233437e-02,  4.7683324665e-02,  1.1021471582e-02, -4.0587201715e-02, -8.0338791013e-02, -8.6845517159e-02, -5.3523657843e-03, -1.2189832516e-02, -7.5660392642e-02, -3.4116227180e-02, 
	-1.1879095808e-02,  1.4621447027e-01,  2.9359526932e-02, -1.1969262734e-02,  1.8617026508e-02, -1.0161532462e-01,  4.5302968472e-02,  1.5038545430e-01, -7.8027270734e-02, -1.0781953111e-02, 
	 3.5472966731e-02,  7.9469338059e-02, -2.3869885132e-02, -1.3846953213e-01,  3.4859847277e-02, -6.7502200603e-02, -9.2568822205e-02, -4.2646776885e-02, -6.3123025000e-02, -9.2478625476e-02, 
	 1.7669303343e-02, -9.9840745330e-02,  3.9443284273e-02, -1.4628762007e-01, -4.7227632254e-02, -1.0330483317e-01, -1.0369462520e-01,  1.4278140664e-01, -6.1386082321e-02, -7.6838657260e-02, 
	-3.2328348607e-02,  2.2208895534e-02, -1.1306014843e-02, -5.6880112737e-02,  2.0886091515e-02, -1.0087420791e-01,  1.4475733042e-01, -7.6364390552e-02,  7.7578961849e-02,  2.9896447435e-02, 
	-1.3219079375e-01, -6.5755650401e-02,  6.2217917293e-02, -4.2874291539e-02,  1.4193058014e-01,  9.7723051906e-02, -7.1660570800e-02, -8.9645005763e-02,  8.7574377656e-02, -1.3997541368e-01, 
	 5.8472540230e-02,  1.0855312645e-01,  1.5415628254e-01, -9.7188778222e-02, -4.2555008084e-02, -1.1802997440e-01,  1.2969750166e-01, -6.7601742921e-04,  1.1865470558e-01, -4.3777242303e-02, 
	-5.2873503417e-02,  8.8195517659e-02, -9.9770247936e-02,  2.0655918866e-02,  1.0685610771e-01,  1.2831513584e-01,  1.2714472413e-01, -8.7763205171e-02, -1.4119254053e-01, -8.6814083159e-02, 
	 1.1815669388e-01,  6.3418403268e-02, -6.0905061662e-02, -1.3943286240e-01, -1.0120092332e-01,  6.4908146858e-02,  1.2597133219e-01,  6.2557436526e-02,  9.3647420406e-02,  1.1583163589e-01, 
	-1.1848172545e-01, -3.3211320639e-02,  3.3368688077e-02, -1.0305732489e-01,  9.4860531390e-02,  9.1340623796e-02,  1.0810534656e-01, -4.5153860003e-02,  9.2480637133e-02,  7.7007152140e-02, 
	-4.2185544968e-02,  1.4352324605e-01,  1.1525051296e-01, -9.6946120262e-02, -1.3893084228e-01, -1.4082504809e-01,  8.7508305907e-02,  6.7574954592e-03, -8.7157666683e-02, -3.5463709384e-02, 
	-2.0692867693e-03, -3.9773207158e-02, -1.0743792355e-01,  1.2021143734e-01,  1.5542821586e-01,  9.1539144516e-02, -6.3774086535e-02, -6.6014416516e-02,  2.9377380386e-02,  2.5584770367e-02, 
	 1.1417162418e-01, -1.2590296566e-01,  1.3400597870e-01,  1.0465309024e-02,  1.1493181437e-01,  1.1437956244e-02,  7.9679777846e-03, -5.2970969118e-03,  1.4040616155e-01,  1.0726094991e-01, 
	-1.0025419295e-01,  2.8113488108e-02,  4.7168200836e-03, -1.1188410968e-01, -1.3215324283e-01, -1.1336906254e-01, -8.7199352682e-02, -1.1837621778e-01,  1.3361017406e-01, -9.3729406595e-02, 
	-3.0812969431e-02,  1.0770060122e-01,  4.5794151723e-02,  4.4008497149e-02,  1.4961212873e-01, -1.6003584489e-02,  1.2857931852e-01,  4.3863090687e-03,  3.5762045532e-02,  7.6435287483e-03, 
	 3.0270372517e-03, -9.5438890159e-02, -5.6688331068e-02, -8.4022082388e-02, -1.2350106984e-01, -2.0993394777e-02, -1.0468656570e-01,  1.1957014212e-03,  1.2237063050e-01, -3.6258377135e-02, 
	 1.3805209100e-01,  1.3130863011e-01, -6.4145773649e-02, -1.4410656877e-02,  1.1960113794e-01,  6.4556442201e-02,  1.3449987769e-01,  1.3664655387e-01, -6.6201448441e-02,  2.7012990788e-02, 
	-5.1836073399e-02, -1.1534283310e-01,  1.3604043424e-01, -6.1295449734e-02, -6.7304447293e-02,  7.5312145054e-02, -3.5637624562e-02,  7.9646699131e-02, -1.1029084027e-01, -4.2305253446e-02, 
	-2.9012566432e-02,  4.8886794597e-02, -1.0503465682e-01,  1.4431538992e-02,  1.3830684125e-01, -1.3571392000e-01, -6.3237689435e-02, -2.7987496927e-02,  5.6949190795e-02, -4.3764065951e-02, 
	 8.3706472069e-03, -1.1674353480e-01, -1.1806021631e-01, -3.8285396993e-02, -5.3412668407e-02, -1.7289288342e-02,  1.5709420666e-02, -1.0156489164e-01, -1.6169050941e-03,  1.2807691237e-03, 
	-1.0482136905e-01,  3.0590737239e-02,  8.4932193160e-02, -9.0886941180e-03,  2.8095848858e-02,  7.3524497449e-02,  1.3534750044e-01, -1.0897207074e-02,  3.5345755517e-02, -7.4193529785e-02, 
	-1.4365680516e-01, -2.7402428910e-02, -3.6108389497e-02, -1.3477894664e-01,  5.1022000611e-02,  1.7690083012e-02, -6.4601488411e-02,  2.1299526095e-02,  7.2255447507e-02,  4.2218159884e-02, 
	 1.0363908485e-02, -5.7571496814e-02, -3.8708265871e-02,  1.1216216534e-01,  8.0251209438e-02,  6.0466147959e-02,  1.4108173549e-01,  1.0904314369e-01,  1.5327413566e-02,  3.4647550434e-02, 
	 2.1701844409e-02,  1.0487325490e-01,  2.0246135071e-02,  7.5708687305e-02, -9.2258088291e-02, -4.9940295517e-02,  1.2787114084e-01, -8.2210175693e-02, -5.3233667277e-03,  1.3967338204e-01, 
	 3.2573718578e-02,  5.4269317538e-02,  7.1261599660e-02,  5.4499725811e-03,  5.4596710950e-02,  1.5164917707e-01, -1.3202287257e-01, -7.8572377563e-02,  4.8383001238e-02,  1.1807635427e-01, 
	-1.3260014355e-01, -1.5262506902e-01, -1.4019115269e-01,  1.0413100570e-01,  3.4244228154e-02, -9.5095917583e-02, -7.2741280310e-03, -6.7933753133e-02, -3.9189927280e-02,  2.5554137304e-02, 
	-6.8578965962e-02, -1.2792813778e-01,  8.5990153253e-02, -5.6532625109e-02, -1.1024671048e-01, -2.3468260188e-03,  6.6608890891e-02, -3.3897154033e-02,  1.1956442147e-01, -1.4471238852e-01, 
	 4.8822153360e-02, -1.0731426626e-01,  1.1981903762e-01, -2.3600855842e-02, -2.0927488804e-02, -1.0360418260e-01,  1.2499419600e-01,  8.8689520955e-02, -6.7129530013e-02,  6.9094255567e-02, 
	-7.4475958943e-02,  8.3258688450e-02, -5.1394578069e-02,  1.1405336112e-01,  1.0463016480e-01,  1.4152403176e-01, -1.2600946426e-01, -8.3465442061e-02, -9.9202781916e-02, -2.8382418677e-03, 
	 5.9051454067e-02,  1.1312438548e-01,  5.9391885996e-02, -1.5892900527e-02,  9.2345222831e-02, -1.4415788651e-01, -1.3231284916e-01, -6.6527538002e-03,  1.0877307504e-01, -8.4475465119e-02, 
	 7.7871672809e-02, -9.7773231566e-02,  6.9565422833e-02, -9.8822712898e-02, -5.1496304572e-02, -2.6776703075e-02,  7.4816197157e-02, -1.0444263369e-01, -1.3322926126e-02, -1.4168244600e-01, 
	-8.2857050002e-02,  1.0485600680e-01,  8.0647971481e-03, -8.3129480481e-02,  9.7192689776e-02,  1.0541857779e-01, -4.4647730887e-02,  1.3156576082e-02,  9.1654874384e-02, -1.5024121106e-01, 
	-7.6718583703e-02,  8.6079582572e-02, -1.2914767861e-01,  2.7052713558e-02, -8.0303512514e-02, -2.1265631076e-03, -8.2726910710e-02,  2.6081404649e-03, -6.1151400208e-02,  7.9230755568e-02, 
	-1.9209247082e-02,  1.3061074913e-01, -1.4550381340e-02, -9.5743441489e-04, -1.1840506643e-01,  4.6043484472e-03, -1.2631748617e-01,  2.8622567654e-02,  3.7480033934e-02, -6.6739752889e-02, 
	 1.5465460718e-01, -2.6255577803e-02, -1.1489044875e-01,  1.1087629199e-01,  9.4476543367e-02, -4.9930095673e-02, -7.5946316123e-02, -1.0456166416e-01, -1.0409310460e-01, -1.4078524709e-01, 
	-1.0762582719e-01,  1.0558549315e-01, -1.1143805459e-02,  1.5512873232e-01,  4.8593144864e-02,  7.3197595775e-02, -1.3365566730e-01,  1.2638926506e-01, -1.0709241778e-01, -1.3777889311e-01, 
	 1.5260027349e-01,  1.0296925902e-01,  6.1811663210e-02,  1.5289071016e-02,  8.0872215331e-03, -1.2412316352e-01,  5.0366944633e-03,  3.2489083707e-02, -6.8745769560e-02,  9.0783163905e-02, 
	 5.7097423822e-02,  2.3120975122e-02, -1.0799441487e-01,  3.0185243115e-02, -6.5442517400e-02, -4.1418909095e-03,  7.0600233972e-02, -1.2723923661e-02, -7.8560896218e-02,  8.9790068567e-02, 
	 1.1189134419e-01, -4.9343734980e-02,  4.9519661814e-02,  1.2756630778e-01, -9.6215218306e-02, -1.5143197030e-02, -3.7489861250e-02,  1.0972154886e-01,  1.2266392261e-01, -1.1626298726e-01, 
	-9.6596240997e-02,  2.1586840972e-02,  1.0852830112e-01, -7.0686556399e-02,  1.2478107214e-01,  2.5036167353e-02,  1.2058153003e-01, -1.4768551290e-01,  8.5493423045e-02, -3.9284810424e-02, 
	-8.9906573296e-02, -1.1444664747e-01,  9.3887157738e-02, -2.5034571066e-02, -6.8829126656e-02,  1.1155074090e-01,  1.3376119733e-01,  1.2542758882e-01, -9.9615462124e-02,  7.6120048761e-02, 
	 4.2091116309e-02,  9.2847160995e-03,  1.3832254335e-02, -8.6932107806e-02, -7.6863670256e-04,  5.3912058473e-02, -1.2421488762e-01,  1.3366678357e-01, -3.5703022033e-02,  1.2841473520e-01, 
	 3.2318938524e-02, -5.6414082646e-02, -5.3284253925e-02,  1.4555336535e-01, -4.8146575689e-02, -3.6510776728e-02, -1.2793454528e-01, -6.5133377910e-02,  3.9436127990e-02,  1.3843362033e-01, 
	 1.3965575397e-01,  3.3745791763e-02, -1.2717925012e-01, -4.8614062369e-02, -1.4119201899e-01,  9.1631293297e-02,  3.1068451703e-02,  1.1402405053e-01, -6.5696984529e-03,  7.5495384634e-02, 
	 6.2131416053e-02,  3.5256616771e-02,  4.2926594615e-02, -3.8311023265e-02,  1.1980802566e-01,  1.8961364403e-02,  1.2492814660e-01, -1.0595068336e-01,  8.7027877569e-02,  9.6534051001e-02, 
	 1.0019201785e-01, -3.1904749572e-02, -6.3355699182e-02, -1.4263625443e-01, -6.5699294209e-02,  2.1990565583e-02, -9.3147708103e-03, -1.7139298841e-02, -2.0585952327e-02, -1.2101804465e-01, 
	 1.1274070293e-01,  3.9737787098e-02, -1.1503691226e-01, -4.4515207410e-03, -3.9228957146e-02, -2.5500293821e-02, -1.0274992883e-01,  1.2804651260e-01, -7.3975533247e-02,  1.0397163033e-01, 
	 6.5777167038e-06, -1.9505200908e-02, -1.2894155458e-02, -5.1706705242e-02, -1.5190136433e-01, -6.5392213874e-03,  4.0453277528e-02, -1.3606388867e-01,  7.8998669982e-02, -6.0977607965e-02, 
	-1.0830196738e-01,  1.0121078044e-01, -1.3804486021e-02, -7.9707615077e-02, -6.6066652536e-02, -1.0219793767e-02,  1.6176672280e-01, -1.1249098182e-01,  1.2721884064e-02,  7.4082441628e-02, 
	 5.6930553168e-02,  1.0211471468e-01,  1.7549026757e-02,  8.2491301000e-02, -1.3479380310e-01, -4.9092043191e-03,  2.5564430282e-02, -7.6172977686e-02,  1.2766428292e-02,  9.2772170901e-02, 
	 7.7107064426e-03,  9.2433445156e-02,  1.1968501657e-01,  6.3418425620e-02, -3.9890382439e-02,  8.1391081214e-02,  9.7185537219e-02,  7.1042843163e-02,  1.9510334358e-02, -1.3416285627e-02, 
	-4.9487307668e-02, -2.6111830026e-02, -9.2793673277e-02,  8.4331892431e-02,  1.4878757298e-02, -6.5609626472e-02, -1.5060001612e-01,  2.3714618292e-03,  9.4768293202e-02, -3.1885381788e-02, 
	 9.6735171974e-02, -1.0414160788e-03,  1.9559571519e-02, -7.5185336173e-02,  9.4798684120e-02,  4.0202130913e-04, -1.2738935649e-01,  1.1832091212e-01, -1.4696653001e-02,  4.9850896001e-02, 
	-1.3977779448e-01, -1.1368186772e-01, -1.1501979083e-01,  1.2331097573e-01, -1.7556371167e-02,  1.2450157106e-01, -1.4492338896e-01,  1.1345762759e-01,  1.1035750806e-01, -7.4884712696e-02, 
	-3.8607288152e-02, -4.8547305167e-02, -9.9476389587e-02,  1.0030197352e-01, -9.3200780451e-02, -4.3139085174e-02,  1.3895045035e-02, -3.7287037820e-02,  7.6388441026e-02,  2.4027705193e-02, 
	 2.3670418188e-02, -1.2145461887e-01, -5.7984702289e-02,  1.9357265905e-02, -1.3407879509e-02,  1.7506597564e-02, -5.4046702571e-03,  5.1257158630e-03, -5.1009859890e-02, -1.5392272174e-01, 
	 8.7362334132e-02,  5.3376328200e-02, -1.5134419501e-01, -4.3055418879e-02,  1.2262593210e-01,  4.3124243617e-02, -1.4314506948e-01,  6.0737673193e-02, -1.1564001441e-01, -1.3493955135e-01, 
	 9.6626974642e-02, -8.0279447138e-02,  2.4452671409e-02, -7.7092990279e-02, -1.6674065962e-02,  6.8432338536e-02, -8.9518643916e-02,  1.3151738048e-01, -1.9858272746e-02,  1.0142053664e-01, 
	 9.0220250189e-02,  7.0967026055e-02,  4.8642426729e-02,  1.2391656637e-01,  6.8414844573e-02,  7.8176660463e-03, -1.8374415115e-02,  6.0674328357e-02, -4.4776094146e-03, -2.9836028814e-02, 
	 5.9925977141e-02, -3.1301468611e-02, -8.1753842533e-03,  1.1033505201e-01,  1.1766225845e-01,  9.5293544233e-02, -9.6189923584e-02, -8.7969005108e-02,  7.2721051984e-03, -1.1717335135e-01, 
	 9.1922447085e-02,  1.3411293924e-01,  2.6761835441e-02, -7.3513783514e-02, -2.1318241954e-02, -4.1892391164e-04,  1.0035634972e-02,  3.1527642161e-02,  1.3463819027e-01, -1.0086179525e-01, 
	-9.3944378197e-02,  1.0067415982e-01, -1.0486797243e-01, -6.2765315175e-02, -4.9581594765e-02,  4.8043441027e-02,  1.2417387962e-01,  9.7232833505e-02,  9.4251520932e-03,  9.3495734036e-02, 
	-1.5188910067e-01,  8.2322530448e-02, -1.9289152697e-02, -1.2108987197e-02,  8.8845506310e-02, -1.8537010998e-02, -1.2755969167e-01, -8.3731763065e-02, -1.2308038771e-01,  3.3942837268e-02, 
	 3.0089626671e-04, -2.0515285432e-03, -3.8069855422e-02,  1.1491078883e-01, -1.0359764099e-01,  2.4418074638e-02,  6.0265686363e-02,  1.2583066523e-01, -1.6882915050e-02,  1.1693228036e-01, 
	-3.2648701221e-02, -5.0311110914e-02,  1.1351790279e-01, -5.9542603791e-02, -1.1956454813e-01, -1.0917353630e-01, -6.1517762952e-03,  1.2802693248e-01, -5.8443244547e-02,  2.8389099985e-02, 
	-2.5800254196e-02, -1.5109567903e-02,  1.0201278329e-01,  8.3984017372e-02,  9.1074496508e-02,  6.1037216336e-02,  1.0185098648e-01,  1.2112195045e-01, -5.2118171006e-02,  1.2676747143e-01, 
	-5.4336521775e-02, -8.2511492074e-02,  4.9638957717e-03, -1.3044397533e-01, -5.2939057350e-02, -1.3387767971e-01, -4.4389711693e-03, -9.2653937638e-02, -1.2285519391e-01,  1.3427601755e-01, 
	-5.6285392493e-02, -7.6171711087e-02,  9.6797376871e-02,  1.0427757353e-01,  1.2981154025e-01, -1.0605263710e-01,  1.3067758083e-01, -4.4925626367e-02, -1.6212634742e-02,  4.2930711061e-03, 
	-1.9858935848e-02, -6.1885584146e-02, -4.1593570262e-02,  1.2903295457e-01, -9.6726782620e-02, -1.0634472966e-01, -1.1167301983e-01, -9.9696725607e-02,  1.0010139644e-01, -1.7409238499e-03, 
	 5.7835262269e-03,  1.3888813555e-01, -1.4025594294e-01,  9.8605625331e-02, -1.4272390865e-02, -1.4002540708e-01,  4.2874697596e-02,  9.3073680997e-02,  4.7207832336e-02, -1.4635410905e-01, 
	-6.2608353794e-02,  9.5181554556e-02, -1.5740765631e-01,  4.4468607754e-02, -1.2989182770e-01,  6.1118096113e-02, -6.1052381992e-02,  1.9375927746e-02,  8.6428485811e-02, -1.2511555851e-01, 
	 9.3229748309e-02,  4.4310897589e-02,  9.8421007395e-02, -6.7797154188e-02, -1.0414968431e-01, -1.5244971216e-01,  1.2959173322e-01, -2.8760526329e-02, -1.1425955594e-01, -1.7475739587e-03, 
	-2.0387666300e-02,  6.9139957428e-02,  1.3841077685e-01,  3.3194713295e-02,  7.9943343997e-02,  1.0963620245e-01, -5.3385090083e-02, -2.1650960669e-02, -1.2900516391e-01,  1.8172495067e-02, 
	-4.9806378782e-02,  7.5770509429e-03, -1.2860007584e-01, -1.3446730375e-01,  1.4976471663e-01, -9.5433391631e-02, -1.3169106841e-01,  1.0273383930e-02, -8.1736914814e-02,  1.1837704480e-01, 
	-4.8481225967e-02, -2.8743622825e-03, -1.0755388439e-01, -1.3436607085e-02, -1.5049977601e-01, -1.4977218211e-01, -5.6181125343e-02, -2.3470867425e-02,  1.3364750147e-01,  1.2912204862e-01, 
	-6.3118793070e-02, -5.6801315397e-02,  9.0589456260e-02, -8.1291250885e-02,  4.8031728715e-02, -1.1119250208e-01,  1.1643398553e-01, -1.5740567446e-01, -5.4549198598e-02,  1.2309948355e-01, 
	-1.4350431040e-02, -4.4964816421e-02,  7.0010907948e-02, -7.0663787425e-02, -9.9369101226e-02, -1.0567122698e-01,  8.8379688561e-02, -1.5131767094e-01,  4.9223143607e-02, -9.9553383887e-02, 
	-3.8784891367e-02, -3.5193819553e-02, -2.5244669523e-03,  8.5699774325e-02, -6.9780543447e-02,  6.6474135965e-03, -1.1111179739e-01,  1.0805816948e-01,  1.7886411399e-02,  8.4429048002e-02, 
	 1.2937293947e-01,  3.8304116577e-02,  9.9747478962e-02,  9.7032740712e-02, -1.1370342970e-01,  3.7538722157e-02,  9.1254226863e-02,  2.0787855610e-02, -1.4975424111e-01,  5.1657188684e-02, 
	-5.4915219545e-02, -1.9933603704e-02, -1.2314856052e-02, -7.8540004790e-02, -4.6488428488e-03, -2.6001108810e-02,  3.9315972477e-02,  1.3186119497e-01, -3.7772464566e-03,  1.1601874977e-01, 
	-1.2871144712e-01,  2.2786732763e-02,  4.6505801380e-02,  2.6672994718e-02,  1.2648773380e-02,  8.1137528468e-05,  8.7925426662e-02, -1.3050985523e-02, -3.7336770445e-02,  7.9568125308e-02, 
	-3.3623635769e-02,  1.0412033647e-01, -9.2189684510e-03, -1.3723906875e-01,  4.1155654937e-02, -3.6410652101e-02,  2.6823775843e-02, -9.3741267920e-02, -7.3703244328e-02,  6.8896897137e-02, 
	 4.1566334665e-02, -1.4338232577e-01,  8.9145436883e-02, -4.2727950960e-02,  9.1672129929e-03, -1.5303473920e-02,  4.1073698550e-02,  1.3849242032e-01,  2.0914526656e-02, -1.4213037491e-01, 
	-1.3420604169e-01,  2.2184552625e-02, -1.6734609380e-02, -8.7743796408e-02, -1.0802408308e-01,  7.8797981143e-02,  1.0441167653e-01, -1.3435404003e-01,  8.9485406876e-02, -8.9771255851e-02, 
	-1.1363926530e-01, -4.3932352215e-02, -1.5238462016e-02,  1.5158561990e-02, -4.5879502431e-04, -2.3500181735e-02,  8.4999158978e-02, -3.6904462613e-03,  1.2082161754e-01,  3.3064756542e-02, 
	 1.0857779533e-01, -4.8492029309e-02, -2.1275801118e-03, -4.7030206770e-03, -3.7571810186e-02,  4.9928948283e-02,  1.0335872322e-01, -1.3339685393e-04,  1.3204328716e-01, -2.1062828600e-02, 
	 4.3256711215e-02,  8.9137092233e-02,  4.4239737093e-02,  8.4817953408e-02,  1.4869938791e-01, -6.2079623342e-02, -9.5889873803e-02,  4.8847338185e-03,  6.7473217845e-02, -7.3676519096e-02, 
	 4.4534273446e-02,  9.3252405524e-02,  6.0039635748e-02,  1.2334537506e-01,  8.7869234383e-02,  7.6465822756e-02, -5.3546909243e-02, -2.9943850823e-03,  2.0808806643e-02,  2.6358220726e-02, 
	-8.4442660213e-02,  1.3718250394e-01,  4.6090275049e-02, -1.1011712253e-02, -8.5365436971e-02,  5.8124873787e-02,  5.4471977055e-02,  9.6505105495e-02, -2.8330719098e-02,  6.8555690348e-02, 
	 8.4483750165e-02, -4.0734309703e-02,  3.6618176382e-03, -1.0564904660e-01,  1.4472990297e-02, -4.4721756130e-02,  1.4433053136e-01,  1.2073362619e-01,  1.2842403352e-01, -1.1153501272e-01, 
	-4.2408958077e-02, -9.7637921572e-02,  1.2317149341e-01, -1.8284007907e-02,  4.7906287946e-03, -1.9161462784e-02, -4.6743903309e-02, -1.2686979771e-01,  3.4444224089e-02,  6.6250786185e-02, 
	 4.4221878052e-02, -3.5182297230e-02, -2.8910322115e-02, -4.8862181604e-02, -1.7664089799e-02,  9.0253017843e-02, -1.2984061614e-02, -4.0189523250e-02,  8.5142970085e-02, -5.1084931940e-02, 
	 1.2543427944e-01, -5.2514482290e-02, -6.3978739083e-02, -4.1975643486e-02,  7.2963074781e-03, -8.1848412752e-02, -5.5622015148e-02,  8.2399666309e-02,  1.4920879900e-01,  3.1145496294e-02, 
	 3.8299981505e-02,  9.9774509668e-02, -1.2742541730e-01,  4.9617972225e-02,  4.7105137259e-02,  1.0021881014e-01, -9.6171818674e-02, -6.7279478535e-03, -8.6991846561e-02,  4.1357535869e-02, 
	-2.6136221364e-02,  1.0429938138e-01,  9.3805082142e-02, -5.7469986379e-02, -1.6284391284e-02, -1.4109320939e-01, -1.0122480802e-02, -2.6006352156e-02,  2.6929464191e-02, -7.1466855705e-02, 
	 6.5040200949e-02,  8.4402017295e-02, -1.0638786107e-01,  3.7265244871e-02,  1.9771894440e-03, -4.5562233776e-02, -1.4595469832e-01, -3.6460861564e-02, -2.9374137521e-02,  1.2072274834e-01, 
	 1.2365461141e-01,  1.4583617449e-02, -1.3712471724e-01,  4.2401742190e-02, -1.2822024524e-01,  8.7965436280e-02, -1.1449887604e-01, -6.8131253123e-02,  1.0875162482e-01,  1.0969662666e-01, 
	 5.2039850503e-02,  1.3498409092e-01, -1.4193867147e-01, -1.9739415497e-02,  1.0914462805e-01, -1.2228645384e-01,  8.9384734631e-02, -1.0375295579e-01,  8.6888469756e-02,  8.1207439303e-02, 
	-2.2225921974e-02, -1.2497767806e-01,  1.8964471295e-02,  4.4473502785e-02,  1.8106397241e-02,  9.4215147197e-02,  1.0390768200e-01,  1.2488009036e-01,  8.6264908314e-02,  2.2435909137e-02, 
	 2.8902867809e-02,  7.5575083494e-02,  1.1629465222e-01,  2.1002909169e-02,  1.5655158088e-02, -8.7915368378e-02, -2.9287703335e-02,  8.2616440952e-02,  3.4631036222e-02,  1.1652629822e-01, 
	-8.0237008631e-02,  7.4651159346e-02,  3.8617306855e-03, -1.0966020823e-01,  6.0261320323e-02,  3.1844187528e-02,  7.6513513923e-02,  1.2263023108e-01,  6.4087510109e-02, -6.4509153366e-02, 
	 9.0508945286e-02, -1.1016453803e-01, -6.9996528327e-02,  3.8636013865e-02, -2.9714345932e-02, -1.7240611836e-02,  1.4934089780e-01, -7.3008194566e-02, -7.7024608850e-02, -9.1981559992e-02, 
	-6.1052139848e-02, -6.2095284462e-02, -1.2583364546e-01, -4.4019345194e-02, -5.3297873586e-02, -9.6005193889e-02, -1.0309454799e-01,  1.1688462645e-01, -1.1168954521e-01, -4.4700432569e-02, 
	 2.3606196046e-02,  9.7019318491e-03, -1.2427602708e-01, -8.6399547756e-02,  4.1598204523e-02,  8.9585132897e-02,  1.0171417147e-01,  3.9076481014e-02, -9.2255681753e-02,  3.0774885789e-02, 
	-9.2613764107e-02,  1.3394090533e-01,  9.3191392720e-02,  1.0127420723e-01, -1.1067302525e-01, -1.2607078254e-01,  9.5765449107e-02,  1.9387344364e-03,  1.2809103727e-01, -5.8073125780e-02, 
	 1.5605443716e-01,  1.0509122163e-02,  8.1725418568e-04,  5.0699174404e-02, -3.9704190567e-03,  1.9542742521e-03, -3.9142768830e-02, -8.9333735406e-02, -4.1932508349e-02, -1.1067394912e-01, 
	-1.3397911191e-01, -8.3681687713e-02,  1.6515884548e-02, -2.3669069633e-02,  9.6038296819e-02,  1.4447607100e-01,  1.4885161817e-01, -6.2136836350e-02, -1.1157947779e-01, -8.8686861098e-02, 
	 1.0149344802e-01,  6.7179158330e-02, -4.5577127486e-02, -1.2415704876e-01,  7.6836287975e-02, -1.1352710426e-01, -2.8382148594e-03, -4.2731445283e-02,  5.5640522391e-02,  9.8309151828e-02, 
	-8.5622437298e-02,  5.1390476525e-02, -8.4565170109e-03, -2.0522648469e-02,  1.0900333524e-01, -8.2259349525e-02,  1.1319764704e-01,  7.1986183524e-02,  1.0489301756e-02, -9.2120982707e-02, 
	-1.5042881668e-01, -9.4450432807e-03,  1.1636159569e-01,  4.9480706453e-02,  8.4287390113e-02,  8.0927304924e-02,  3.8175173104e-02, -6.3415661454e-02,  1.4124614000e-01,  1.1089801788e-01, 
	 8.3378426731e-02,  1.5256701410e-01,  2.1616967395e-02, -6.7843601108e-02, -1.3028190471e-02, -9.5706969500e-02,  7.9855330288e-02,  1.1422245204e-01, -6.9055736065e-02,  1.4500965178e-01, 
	 8.6037397385e-02, -1.3915975392e-01,  1.0165430605e-01, -1.4405916445e-02,  1.6466233879e-02,  3.3008316532e-03, -1.3441783190e-01,  9.6415221691e-02,  1.2321063131e-01, -1.1936452985e-01, 
	 4.5743580908e-02, -1.3550202549e-01,  7.2966232896e-02, -1.2557457201e-02, -1.5441858768e-01, -5.9194017202e-02,  3.5474408418e-02, -8.2828298211e-02,  9.5142111182e-02,  8.5518889129e-02, 
	-9.1874852777e-02,  2.3363867775e-02,  1.2478289008e-01,  1.0370138101e-02, -6.2096226960e-02,  1.3892932236e-01,  1.4725084603e-01,  5.9812407941e-02,  9.2774234712e-02, -3.8819834590e-02, 
	-1.3155668974e-01,  1.1041364819e-01,  1.1841799319e-01, -1.0428078473e-01,  9.4592273235e-02, -9.7561389208e-02,  9.0889520943e-03, -6.2372423708e-02, -3.5973064601e-02, -1.2479580939e-01, 
	 4.5248400420e-02,  2.4564187974e-02, -7.5098983943e-02, -1.2812313624e-02,  9.8262906075e-02,  1.4940139651e-01, -6.1890780926e-02, -7.9951740801e-02,  1.1105817743e-02, -1.1574072391e-01, 
	-5.6696441025e-02,  6.3775263727e-02,  7.5733080506e-02,  1.2103409320e-01,  1.3671374321e-01,  4.7087233514e-02,  1.0020521004e-03, -4.7790311277e-02,  6.0287471861e-02, -6.7412815988e-02, 
	 1.4236368239e-01, -1.2348889560e-01, -1.0014295578e-02,  7.4803121388e-02, -1.3176318258e-02, -8.5095323622e-02, -1.0365728289e-01, -6.6357359290e-02,  9.9351480603e-02,  7.9481363297e-02, 
	 3.4020315856e-02, -8.2382246852e-02, -1.6232028604e-01,  1.0561718047e-01, -9.2360958457e-02,  1.1927590519e-01, -1.5519239008e-01, -1.3631969690e-01,  8.8285192847e-02,  4.7736957669e-02, 
	 1.4602293074e-01,  1.4031356573e-01,  2.5838127360e-02, -5.0014510751e-02,  5.5136177689e-02,  8.3871437237e-03,  1.3630490005e-01,  1.3254430890e-01,  5.4768450558e-02,  4.6213183552e-02, 
	 1.1591561139e-01, -1.1439504474e-01,  1.3436815143e-01, -7.9118162394e-02, -3.6233391613e-02,  5.9248793870e-02, -4.1890643537e-02, -4.6545840800e-02,  1.1906331778e-01, -1.1588563025e-01, 
	 1.0271616280e-01, -4.1478630155e-02,  1.1049696058e-01,  2.9735404998e-02,  1.2297672778e-01,  8.2302197814e-02,  1.1766789854e-01, -1.1558905244e-01,  3.0546624213e-02, -1.2333224714e-01, 
	 8.7857984006e-02,  2.3306190968e-02, -1.2664411962e-01, -1.3189637661e-01, -1.3137055933e-01, -1.0238785297e-01, -5.9778966010e-02,  1.2782790000e-03, -7.6968483627e-02,  1.2146512419e-01, 
	-1.1110440828e-02, -2.8506945819e-02,  3.1735874712e-02, -1.4707581699e-01, -1.1345454305e-01, -1.1696437001e-01,  2.4245290086e-02,  1.8796416000e-02,  6.7078195512e-02, -7.2965748608e-02, 
	 7.2250492871e-02, -1.0174568743e-02,  2.3634368554e-03,  2.5052720681e-02, -3.4245252609e-02, -3.0232524499e-02,  1.1303232610e-01,  4.6813739464e-03,  9.4872735441e-02,  4.5961104333e-02, 
	 1.5936918557e-01,  1.1711525172e-01, -3.2968111336e-02, -1.8163125962e-02,  1.0240796953e-01,  4.4590327889e-03, -8.2664661109e-02,  4.9266838469e-03, -9.9696345627e-02,  4.6499621123e-02, 
	-1.2516595423e-01, -6.4926758409e-02,  4.8812620342e-02,  9.3312717974e-02, -6.4550332725e-02,  6.5057985485e-02, -9.5386013389e-02,  1.0745624453e-01, -7.6930254698e-02, -1.5541015193e-02, 
	-3.9938200265e-02,  1.4200744033e-01, -7.2260335088e-02,  1.3846683502e-01,  1.4657482505e-01, -1.1559599638e-01, -1.2149483711e-01, -1.1833774298e-01,  1.0500393063e-01, -2.9797678813e-02, 
	 1.3419564068e-01,  7.5400792062e-02, -1.5651901066e-01,  1.0943616927e-01, -1.1651349068e-01, -6.3926242292e-02,  8.3465471864e-02,  1.2534056604e-01, -1.0524465144e-01,  1.4961253852e-02, 
	 1.2133041024e-01,  2.8997633606e-02,  8.5386745632e-02, -1.2059649825e-01,  7.8460700810e-02,  3.9434444159e-02,  7.4967637658e-02,  1.2542951107e-01,  1.0783255845e-01,  9.5401801169e-02, 
	-2.2309688851e-02, -1.0050900280e-02, -1.3794305921e-01,  2.1186015510e-04, -8.4415212041e-04,  3.9388947189e-02, -4.2790129781e-02,  2.2883480415e-02,  9.3650370836e-02, -1.4725218713e-01, 
	-5.3797356784e-02,  4.6442605555e-02, -4.7501061112e-02, -1.9523834810e-02,  1.0518340766e-01,  1.2779638171e-01,  1.0582886636e-01, -5.3712461144e-02,  1.4359323680e-01, -9.4161354005e-02, 
	-7.4488185346e-02, -5.6834090501e-02,  4.4901479036e-02,  1.1962849647e-02,  2.9649343342e-02,  2.0125254989e-02,  6.7527323961e-02,  1.0331054777e-01,  1.6945207492e-02,  6.3291360857e-04, 
	-6.2994528562e-03, -3.5521874670e-03, -1.4850705862e-01,  1.1466436833e-01,  1.3697750866e-01,  6.0383260250e-02,  7.1222446859e-02,  7.5563155115e-02, -9.8635993898e-02, -1.3365986943e-01, 
	 9.7941234708e-02,  1.8895847024e-03, -5.6329113431e-03, -1.0922284424e-01,  8.4540061653e-03,  1.0261225700e-01,  5.5261153728e-02,  1.1833715439e-01, -6.7132480443e-02,  7.2721405886e-03, 
	-1.4427277446e-01, -1.2571004033e-01,  8.2953035831e-02, -4.9632169306e-02, -7.0827953517e-02, -3.7889134139e-02, -2.3811614141e-02, -1.6474167351e-03, -1.2173037976e-01,  8.4112823009e-02, 
	-4.4206216931e-02, -5.9024695307e-02, -5.4940976202e-02, -1.3629141264e-02,  7.2972595692e-02,  1.2126376480e-01,  2.9246790335e-02,  5.4313879460e-02, -3.9351504296e-02, -5.4898332804e-02, 
	 1.5449020267e-01, -7.5971238315e-02, -2.0916173235e-02, -5.6785303168e-03, -1.9392454997e-02, -4.3442659080e-02, -4.1605988517e-03,  3.2285582274e-02, -1.0999447852e-01,  6.5010987222e-02, 
	 6.6808201373e-02,  1.1463685334e-01, -6.8583697081e-02, -1.2085105479e-01, -2.5205006823e-02,  8.3954751492e-02,  3.6612179130e-02, -7.8218638897e-02, -8.0990962684e-02,  1.2515693903e-01, 
	 1.2433186918e-01,  1.3050913811e-01,  1.3753364980e-01, -4.5848865993e-03, -9.9882632494e-02, -2.6115877554e-02,  7.5822740793e-02,  1.3832023740e-01,  1.3307671249e-01,  1.3736612163e-03, 
	-1.0393476486e-01,  3.8331333548e-02, -8.1013984978e-02,  9.8404072225e-02, -9.1020680964e-02,  1.1551507562e-01,  7.0717550814e-02,  3.4769780934e-02, -8.1515729427e-02,  3.3406693488e-02, 
	-7.0447221398e-02,  1.0956415907e-02, -8.4660295397e-03, -6.5368890762e-02, -3.8973532617e-02,  1.2457194924e-01, -5.5577699095e-02,  1.2479691952e-01,  1.3629918918e-02,  6.6806480289e-02, 
	 4.2620163411e-02,  9.3720860779e-02, -1.5436058864e-02, -3.4811053425e-02, -1.4844374359e-01,  8.0874621868e-02,  1.3172714412e-01,  3.5194985103e-03, -4.3132103980e-02,  4.1996177286e-02, 
	 1.1048839241e-01, -1.1765521020e-01, -3.7133313715e-02, -1.1146469414e-01,  1.3180623949e-01, -1.2182610482e-01,  6.0377642512e-02, -1.3129855692e-01,  1.0187170655e-01,  3.7717442960e-02, 
	-9.5772529021e-03,  1.2511877716e-01,  7.8793995082e-02, -2.4762038141e-02, -3.0845709145e-02,  1.4778761566e-01,  1.2989239395e-01, -1.4135459065e-01,  1.1841180921e-01,  6.5124392509e-02, 
	-1.8841447309e-02, -7.4180305004e-02, -1.2419406325e-01, -1.9356619567e-02,  1.0638345033e-01,  3.5123601556e-02, -8.9718766510e-02,  1.7068348825e-02,  9.0886227787e-02, -8.8564224541e-02, 
	-1.1003690958e-01,  9.0894222260e-02, -3.7064190954e-02,  1.1737670004e-01, -8.4735445678e-02,  7.1816541255e-02, -1.1876905710e-01,  6.0363780707e-02,  9.2109076679e-02,  2.7720924467e-02, 
	-5.5074691772e-02, -9.5930211246e-02,  3.6011964083e-02,  7.3232464492e-02,  9.5533296466e-02, -3.9825376123e-02,  1.4974826574e-01, -5.6535325944e-02,  1.0711957514e-01, -8.6759202182e-02, 
	-9.7548082471e-02,  1.4434409142e-01, -1.0044328868e-01, -1.4423915744e-01,  9.8578855395e-02, -3.6774351611e-04,  1.1339130253e-01, -2.3203268647e-02,  3.8053348660e-02,  1.3027119450e-02, 
	 1.1867714673e-01,  3.1108094379e-02,  6.6742829978e-02, -5.1936332136e-02,  1.1503595114e-01, -8.8069200516e-02, -3.5556532443e-02, -8.8277399540e-02, -1.3653668761e-01, -1.2102609873e-01, 
	-1.1709989607e-01, -1.3973097503e-01, -2.5822704658e-02,  2.2223316133e-02,  1.1180482805e-01,  1.0617056489e-01, -1.5419882722e-02, -5.1393713802e-02, -7.1968145669e-02, -3.3104531467e-02, 
	-2.5793256238e-02, -1.2688193470e-02,  1.0685476661e-01, -2.6991346851e-02, -1.1515167356e-01,  1.0259211808e-01, -2.4919699878e-02, -1.3594047725e-01, -1.6068311408e-02, -4.6119786799e-02, 
	 8.3616390824e-02, -7.7913552523e-02,  1.0787565261e-01,  9.2092417181e-02, -7.5465805829e-02, -1.5640018880e-01, -1.3121549785e-01, -1.9134223461e-02, -1.0364218801e-01, -9.7832001746e-02, 
	 1.2756541371e-01, -7.8256659210e-02,  1.3192087412e-01, -8.0385997891e-02, -6.2498435378e-02, -9.0876303613e-02,  5.7906445116e-02,  7.1339957416e-02,  1.2706325948e-01,  2.3937121034e-02, 
	-1.7692925408e-02,  7.8108303249e-02,  6.9000251591e-02,  7.8217975795e-02,  9.3095719814e-02, -4.7876946628e-02,  4.1054390371e-02, -1.1074339598e-01,  8.0780737102e-02, -9.8351724446e-02, 
	 8.4348045290e-02,  2.0207362249e-02,  6.0357641429e-02,  9.2562638223e-02, -4.9293391407e-02, -3.1365066767e-02, -4.9510020763e-02, -9.1248892248e-02,  1.2514461577e-01, -5.4201494902e-02, 
	-4.5358289033e-02, -9.0350463986e-02, -9.0186588466e-02,  1.9030155614e-02, -5.1748654805e-03,  6.9762252271e-02,  1.1955318600e-01,  6.0818344355e-02,  8.3493098617e-02,  4.8617798835e-02, 
	 1.4775899053e-01,  4.8815570772e-02,  8.6913751438e-03, -9.7136437893e-02,  1.4472964406e-01, -8.7198629975e-02, -7.0030868053e-02,  1.0220335424e-01, -5.4363317788e-02, -3.2214645296e-02, 
	 1.0202226229e-02,  6.2802635133e-02, -7.5201295316e-02,  1.4797574282e-01,  1.1542904377e-01,  3.3977292478e-02, -1.3015057147e-01, -3.8962559775e-03, -1.3594099879e-01, -1.4202527702e-01, 
	 3.5182200372e-02, -5.0390705466e-02,  8.6424939334e-02,  1.2374696881e-01,  1.0013259947e-02, -1.0244265944e-01,  1.8849108368e-02,  1.2279574573e-01,  3.1855810434e-02, -1.5984196216e-02, 
	-8.1224866211e-02,  3.4619051963e-02, -3.8717210293e-02, -5.5773969740e-02, -8.7571635842e-02, -8.5907176137e-02,  1.6267859936e-01,  1.5892457962e-01, -2.4654217064e-02, -6.7554309964e-02, 
	 6.1727752909e-03,  1.3120424002e-02,  1.2515760958e-01, -1.1397951096e-01,  4.2954809964e-02,  1.0087178648e-01,  8.3740405738e-02, -6.8272881210e-02,  6.6945128143e-02, -6.2321286649e-02, 
	-2.0820114762e-02, -7.2489745915e-02, -7.9705528915e-02,  7.9960227013e-02,  4.5087937266e-02, -5.7457074523e-02,  5.2845504135e-02,  7.7085845172e-02, -1.2411839515e-01, -9.0912669897e-02, 
	-3.1995903701e-02,  2.9491130263e-02, -8.8337071240e-02, -5.7917598635e-02, -8.4654174745e-02, -1.2902475893e-01,  1.8111338839e-02, -1.9048728049e-02,  1.4615918696e-01,  2.2996190935e-02, 
	-9.3130335212e-02, -8.3274550736e-02, -4.3547589332e-02,  8.6781755090e-02, -2.2771527991e-02, -6.8977102637e-02, -1.0040650517e-01,  2.3563822731e-02,  2.3374551907e-02, -8.1318147480e-02, 
	-1.2596955895e-01,  1.5013952553e-01,  1.4171825349e-01, -3.4136030823e-02,  1.1031721532e-01, -7.0771902800e-02,  3.6332637072e-02, -1.5214683115e-01,  6.3815459609e-02,  6.4782232046e-02, 
	-1.4200355858e-02,  4.9929164350e-02, -1.3967792690e-01, -4.2926222086e-02, -5.9336442500e-02,  1.0479821265e-01,  1.3266110420e-01,  7.3573037982e-02,  1.5113665722e-02, -9.0263942257e-03, 
	 1.2030997872e-01,  5.0633426756e-02, -8.0096706748e-02,  6.7249856889e-02,  2.1164296195e-02, -7.2061508894e-02, -8.9464284480e-02, -7.5479574502e-02,  1.1503540725e-01,  1.0229907930e-02, 
	-1.3924224675e-01, -1.0834284872e-01,  2.9680708423e-02, -1.1499881744e-01, -1.4892855287e-01, -5.0709176809e-02,  7.6471909881e-02, -1.1118309945e-01, -1.5780249238e-01, -3.8276765496e-02, 
	 3.0811036006e-02, -1.4987035096e-01, -5.6809782982e-02, -7.2049275041e-02,  1.3781076670e-01, -6.0125909746e-02,  1.1707032472e-01, -3.2498288900e-02,  1.3919639168e-03, -1.0140994564e-02, 
	 2.5335967541e-02,  7.6888263226e-02, -6.2760584056e-02, -6.5322376788e-02,  2.6370646432e-02,  5.4237172008e-02, -6.7583978176e-02, -1.4980579913e-01,  6.2103278935e-02,  2.7929659933e-02, 
};

const float layer_4_conv2d_bias[UNET_PAR_4_CONV2D_OUT_FILTER] = {
	 1.3602153786e-06,  6.6179168812e-09,  5.3205940276e-06, -1.2977533288e-06, -9.2164245871e-06, -2.6814299758e-07, -1.2866817087e-05, -1.4298118003e-05,  9.1714782684e-06, -3.4141473861e-06, 
	 3.1360091270e-06, -7.9676726727e-07,  1.3137824908e-06,  5.9093999880e-06, -6.8420246180e-07,  4.0500822251e-06, -5.8574283912e-07, -1.1397219168e-06, -5.9207327467e-06,  3.6463411561e-06, 
};


#endif
