#ifndef PARAMS_CONV2D_12_H
#define PARAMS_CONV2D_12_H
#include "params.h"

const float layer_12_conv2d_weight[UNET_PAR_12_CONV2D_KERNEL_Y*UNET_PAR_12_CONV2D_KERNEL_X*UNET_PAR_12_CONV2D_IN_FILTER*UNET_PAR_12_CONV2D_OUT_FILTER] = {
	-2.1091718227e-03,  5.5567305535e-02, -2.2720908746e-02,  7.0834010839e-02, -4.7023534775e-02, -5.0483599305e-02,  2.7873418294e-03,  6.3890136778e-02, -5.0767969340e-02,  3.1126780435e-02, 
	 2.4763477966e-02, -4.5432325453e-02, -3.9348920109e-04,  5.6692283601e-02, -5.6644357741e-02,  8.1055872142e-02, -6.7393735051e-02,  1.1524138041e-02,  6.5448194742e-02,  5.0904039294e-02, 
	 1.6843263060e-02, -3.8735710084e-02, -4.1493657976e-02,  1.0883111507e-02,  4.4321473688e-02,  3.7031143904e-02, -2.9471363872e-02,  6.1283085495e-02,  3.4405913204e-02,  4.7450102866e-02, 
	 6.6012419760e-02, -4.2187053710e-02,  5.0442021340e-02,  7.6488658786e-02, -3.4315316007e-03, -4.1702255607e-02,  2.2754790261e-02,  1.1149177328e-02, -5.2162259817e-02,  5.0037452020e-03, 
	 3.5159487277e-02,  7.4363946915e-03, -5.4510906339e-02, -5.8102793992e-02, -2.7346136048e-02,  4.0317352861e-02, -1.1804146692e-02, -4.3144628406e-02, -1.5172527172e-02, -6.0902349651e-02, 
	 5.3342998028e-02,  7.8153572977e-03,  2.4789156392e-02, -4.0207438171e-02,  2.5816308334e-02,  2.0840508863e-02, -2.7920467779e-02, -3.6162488163e-02,  2.9619118199e-02,  6.0994282365e-02, 
	 5.9067856520e-02, -5.4160390049e-02, -4.8045869917e-02,  1.2654816732e-02,  1.8740400672e-02,  6.3621528447e-02, -6.3770540059e-02, -1.2995067053e-02, -4.0023573674e-03,  5.7894963771e-02, 
	-5.2869923413e-02,  1.9715178758e-02,  6.0931183398e-03, -5.1867350936e-02,  8.5967788473e-03, -4.3738894165e-03, -2.0202182233e-02,  4.0041681379e-02,  5.2862897515e-02, -2.8524458408e-02, 
	 4.0833801031e-02,  7.6440840960e-02, -4.0723837912e-02,  5.0885021687e-02, -2.5231854990e-02,  6.6977567971e-02, -4.8839107156e-02, -4.1019883007e-02, -6.4398109913e-02, -6.2905354425e-03, 
	 1.2696901336e-02, -2.1275909618e-02,  4.8355415463e-02,  4.0080673993e-02,  8.4721080959e-02,  4.7923538834e-02, -6.8882824853e-03,  7.5668327510e-02, -3.3479392529e-02,  4.3318271637e-02, 
	 7.6192252338e-02,  3.0878761783e-02,  1.1009658687e-02,  5.4923605174e-02, -2.5252418593e-02,  2.2804794833e-02,  3.5648200661e-02, -2.9581658542e-02, -6.4540356398e-02,  7.8442975879e-02, 
	-6.0022886842e-02,  1.2190858833e-02, -3.8669038564e-02,  3.4121386707e-02,  3.6966092885e-02, -5.5715907365e-02, -4.0014144033e-02, -4.4196490198e-02,  3.3893797547e-02, -3.7336781621e-02, 
	 5.3198605776e-02,  3.9206143469e-02,  3.6262806505e-02,  6.0846690089e-02, -5.6750334799e-02,  5.1504489034e-02, -3.8076762110e-02, -5.5251620710e-02, -4.1602596641e-02,  3.8366045803e-02, 
	 8.8657792658e-03, -7.5657367706e-02,  5.6136086583e-02, -6.1250023544e-02,  5.1817879081e-02,  4.2057357728e-02,  6.0621943325e-02, -3.1373742968e-03,  3.8064648397e-03, -3.3692244440e-02, 
	 2.7704022825e-02,  2.8310183436e-02, -1.0847614147e-02, -2.6405621320e-02,  6.6051818430e-02, -5.6204892695e-02,  3.6253251135e-02,  5.3472276777e-02,  4.4716943055e-02,  1.9442573190e-02, 
	 4.0471773595e-02,  4.2447995394e-02, -4.5682292432e-02,  3.6670122296e-02,  6.8073138595e-02,  4.0673915297e-02,  2.5585513562e-02,  6.4697653055e-02,  5.2528910339e-02, -6.1858981848e-02, 
	-1.1339364573e-02,  4.4006045908e-02, -4.9147963524e-02, -2.1067474037e-02,  3.7000648677e-02, -4.0986347944e-02, -6.3422569074e-03,  3.7808105350e-02,  5.1560968161e-02,  5.2087947726e-02, 
	-1.0247319937e-02,  2.4336811155e-02,  5.2949368954e-02, -5.8056358248e-02,  7.5478807092e-02,  1.2027305551e-02,  6.4933575690e-02,  6.4355812967e-02,  4.9629297107e-02, -1.7505498603e-02, 
	 7.1282749996e-03,  3.8680534810e-02,  1.7346126959e-02, -2.5874570012e-02,  2.6255695149e-02,  2.4274509400e-02,  7.7382370830e-02,  3.5460107028e-02, -4.4793501496e-02, -3.0792443082e-02, 
	-5.4961983114e-02,  6.4051687717e-02,  6.8854518235e-02, -4.0279321373e-02,  1.1461747810e-02,  1.8080554903e-02, -4.7208551317e-02, -7.3841754347e-03, -9.1087585315e-03,  7.6197661459e-02, 
	 2.8876908123e-02,  4.6889051795e-02,  9.7373938188e-03,  5.1800739020e-02, -5.3101029247e-02, -2.9492719099e-02, -3.8234304637e-02, -2.8479691595e-02,  7.0197112858e-02,  8.4875963628e-02, 
	 7.2808317840e-02,  3.5837594420e-02, -1.0428790934e-02, -2.6440896094e-02,  6.0115449131e-02, -6.1153329909e-02,  3.6393418908e-02,  7.2533115745e-02, -2.4004939944e-02, -4.4682390988e-02, 
	-4.9571491778e-02, -3.4474302083e-02, -6.3581436872e-02, -3.5977181047e-02, -4.9440851435e-03,  4.8688750714e-02,  1.1648274958e-02,  1.3577925973e-02,  1.7681444064e-02, -5.9757754207e-02, 
	 3.6340720952e-02, -5.2987270057e-02,  3.7621243391e-03, -5.7404857129e-02,  1.3685137965e-03, -1.1160391383e-02,  6.6287308931e-02, -9.3328859657e-03, -5.1637206227e-02,  1.2522726320e-02, 
	-1.5413210494e-03,  3.9590112865e-03,  9.8140351474e-04,  3.3947728574e-02,  2.8395412490e-02, -5.1492962986e-02,  1.3884811662e-02,  1.5817444772e-02, -6.3150502741e-02, -2.2742457688e-02, 
	 4.5642131008e-03,  6.8223997951e-02,  1.9140267745e-02,  4.0682619438e-03, -3.4082117490e-03, -6.3387438655e-02,  5.9011451900e-02,  2.1033853292e-02,  3.3389437012e-03,  2.0987758413e-02, 
	-6.2911771238e-03,  4.0183421224e-02,  8.8685331866e-03,  7.2627559304e-02,  5.8146346360e-02, -5.4071038961e-02,  1.8247036263e-02,  7.2988212109e-02,  4.4708177447e-02, -3.5034906119e-02, 
	-5.4967697710e-02,  3.4047402442e-02,  4.4912710786e-02,  6.3977703452e-02,  4.0097776800e-02, -4.9313381314e-02, -5.8596890420e-02,  4.7611150891e-02, -2.9105704278e-02, -7.2804070078e-03, 
	-4.4856816530e-02, -4.1957188398e-02,  8.1428410485e-03,  2.4522650987e-02, -1.7932441086e-02,  3.2998230308e-03, -1.6407112125e-03,  2.2905485705e-02,  6.0524567962e-02, -6.1329830438e-02, 
	-5.9576302767e-02,  3.4021385014e-02,  7.4249334633e-02, -1.7460141331e-02,  4.8206962645e-02, -2.3875119165e-02, -7.2248717770e-03,  1.5924621839e-03, -6.5488733351e-02, -4.7018643469e-02, 
	-1.0313784704e-02,  1.8819745630e-02,  1.6662230715e-02, -2.1677608602e-03, -5.9639778920e-04, -6.5695039928e-02,  4.9368336797e-02,  3.7207618356e-02,  3.9142824709e-02, -2.9790228233e-02, 
	 1.8948435783e-02,  4.3130718172e-02,  4.2426459491e-02, -2.8525428846e-02, -3.6051448435e-02, -4.8620153219e-02,  6.7323759198e-02, -5.3260358982e-03, -4.5392662287e-02,  3.6182455719e-02, 
	-5.6169476360e-02, -1.2482470833e-02,  5.3379040211e-02,  4.4566623867e-02, -5.4106160998e-02,  3.7945292890e-02, -1.4867054299e-02, -1.6184121370e-02,  1.3151109219e-02, -3.9253033698e-02, 
	 5.5937096477e-02, -5.7955380529e-02,  5.0117164850e-02, -2.7289872989e-02, -1.4460361563e-02, -2.3932503536e-02, -4.2221568525e-02, -4.0064062923e-02, -5.7440239936e-02, -4.9516595900e-03, 
	 1.1692466214e-02,  4.8623535782e-02,  6.5693244338e-02,  6.8747848272e-02,  4.1791167110e-02, -6.1648659408e-02,  8.2774944603e-02, -3.2646160573e-02, -8.5801994428e-03, -6.3448414207e-02, 
	-3.1832016539e-03,  3.8912929595e-02, -1.3222673908e-02,  5.7001259178e-02,  4.0526511148e-03, -7.0622876287e-02,  6.4356118441e-02,  4.8184361309e-02, -5.1206957549e-02,  1.6403533518e-02, 
	 1.8480082974e-02, -3.1003592536e-02, -3.7406226620e-03, -3.7493214011e-02, -5.0689235330e-02,  1.7559675500e-02,  3.2611982897e-03,  1.3723732904e-02, -2.9058318585e-02, -5.5760405958e-02, 
	 6.4261339605e-02,  2.7350286022e-02, -1.2865237659e-03,  3.0782297254e-02, -2.4643184617e-02,  2.3055231199e-02, -7.3326043785e-02, -7.5616789982e-03, -1.8525507301e-02,  6.9436557591e-02, 
	-6.4261280000e-02,  4.1561994702e-02,  5.2640247159e-03,  6.4934216440e-02,  1.2788908556e-02, -6.2027495354e-02,  6.8758510053e-02, -5.0303071737e-02,  1.3163576834e-02,  4.3602097780e-02, 
	-5.6704137474e-02, -7.6514691114e-02,  9.2115215957e-03, -6.2004987150e-02, -2.8761109337e-02, -4.9520586617e-04,  5.2848409861e-02,  4.9339109100e-03, -4.0832396597e-02,  2.2238222882e-03, 
	-2.6254668832e-02, -3.6361273378e-02,  1.1584226042e-02, -5.8361925185e-02, -1.7801567912e-02,  4.4511128217e-02,  4.6727299690e-02,  2.0224988461e-02, -3.2831471413e-02, -3.7675317377e-02, 
	 1.7848007381e-02,  5.6376396678e-03,  3.3758480102e-02,  7.0829823613e-02, -2.5435779244e-02,  6.2627509236e-02,  2.2328019142e-02,  9.3664927408e-03, -5.6695040315e-02, -3.6514296662e-03, 
	 5.8973167092e-02, -4.1647113860e-02,  7.3178471066e-03,  2.5077064056e-03,  7.2231754661e-02,  1.9966529682e-02,  1.1385049671e-02,  8.4318377078e-02, -3.5002730787e-02,  1.3700624928e-02, 
	 8.3901710808e-02,  6.9047816098e-02, -2.3770762607e-02,  1.2963208370e-02,  7.4359387159e-02, -5.3329169750e-02, -1.6383957118e-02,  3.3220257610e-02,  4.2755089700e-02,  5.4478716105e-02, 
	 6.7417718470e-02,  1.0852964595e-02, -5.8082081378e-02,  3.3750377595e-02, -5.0169039518e-02,  7.9270601273e-03, -2.5578139350e-02, -3.3525835723e-02,  5.5715780705e-02,  4.3679554015e-02, 
	-7.3344387114e-02, -2.6789164171e-02, -6.9193139672e-02, -2.9341569170e-02, -6.4451992512e-02, -6.3479118049e-02, -6.9000169635e-02, -7.6068416238e-02, -5.3364068270e-02, -5.3834430873e-02, 
	-3.9968613535e-02, -2.2039540112e-02,  4.3167874217e-02,  3.6817695946e-02,  5.9450371191e-03, -4.5229870826e-02,  4.9448829144e-02, -1.1769568548e-02, -6.3402645290e-02, -6.3846707344e-02, 
	 4.0041301399e-02,  1.9447939470e-02, -2.2953066975e-02, -7.7849496156e-03, -2.9388107359e-02,  6.1508417130e-03,  2.3081574589e-02,  4.4742643833e-02,  2.1750643849e-02,  1.9581152126e-02, 
	-3.5601314157e-02, -1.0132998228e-02, -8.4165465087e-03,  4.3829161674e-02,  3.6002423614e-02, -5.7372353971e-02, -1.0449956171e-02,  9.8690912127e-03, -4.5092727989e-02, -4.5451391488e-02, 
	 1.4699092135e-02,  3.8217701018e-02, -8.5593469441e-02,  3.2058939338e-02,  7.5199469924e-02,  1.9888389856e-02,  3.8500942290e-02, -2.2699752823e-02, -6.2473040074e-02, -1.8857738003e-02, 
	-3.4316197038e-02, -7.8716561198e-02, -8.1525400281e-02,  4.3689720333e-02, -7.8464165330e-02, -5.3505752236e-02, -5.9301123023e-02, -2.7392202988e-02,  2.3984249681e-02, -4.6959031373e-02, 
	 5.6520298123e-02,  4.9571517855e-02, -7.4945896864e-02,  6.2959723175e-02,  4.8236928880e-02, -5.2191172726e-03,  2.9706659261e-03, -1.1168678291e-02,  4.1671536863e-02,  7.4880234897e-02, 
	 4.3204218149e-02,  1.0573138483e-02, -2.3839022964e-02, -8.1106044352e-02,  4.4654473662e-02,  5.8370906860e-02, -2.2577187046e-02,  5.0708189607e-02,  5.2223656327e-02, -1.3562644599e-03, 
	-2.2789357230e-02, -6.7629709840e-02,  2.9816605151e-02, -5.9570800513e-02,  1.7015524209e-02,  9.0458448976e-03,  7.6420359313e-02, -7.1687482297e-02,  6.5983721288e-04,  2.3087717593e-02, 
	-3.7828136235e-02, -7.6861507259e-03,  7.2249439545e-03, -1.1775554158e-02, -2.0155103877e-02,  3.3505979925e-02,  4.1001535952e-02, -5.7507671416e-02,  2.6311175898e-02,  4.6102479100e-02, 
	 3.5252193920e-03, -5.0903994590e-02,  2.1960139275e-03, -7.1849331260e-02,  3.9009962231e-02, -3.8546461612e-02,  1.7645943444e-04,  2.8071021661e-02, -2.6515867561e-02,  1.7188727856e-02, 
	 6.5018042922e-02,  1.3632293791e-02,  6.1355143785e-02,  2.0044718985e-04, -4.2439360172e-02, -5.3962960839e-02,  4.3607801199e-02, -1.7785143107e-02,  4.2854249477e-02,  5.3672961891e-02, 
	-7.1367181838e-02, -4.8950601369e-02, -6.0526899993e-02,  4.1026160121e-02,  4.5154760592e-03,  5.0647776574e-02,  2.6362233330e-03, -5.4244488478e-02,  2.8691936284e-02,  7.2455585003e-02, 
	-2.4282945378e-04,  6.4367920160e-02,  5.4354164749e-02,  8.1377886236e-02, -2.9181417078e-02,  4.1838336736e-02,  4.5259982347e-02, -2.4540644139e-02,  3.7480488420e-02,  6.4771279693e-02, 
	-4.2140267789e-02, -2.0160339773e-02,  4.6485614032e-02,  6.4854018390e-02, -5.2317067981e-02,  1.8938235939e-02, -2.5323256850e-03,  6.5305508673e-02,  7.6144129038e-02,  1.5596979298e-02, 
	-3.1244203448e-02, -6.6360682249e-02, -1.6922408715e-02, -8.6130006239e-03,  2.6758754626e-02, -6.0629937798e-02,  8.2636931911e-03, -7.1963220835e-02, -1.8282199744e-03,  6.6631145775e-02, 
	-2.5432461873e-02, -2.5458976626e-02,  2.7949737385e-02, -3.4393146634e-02,  6.1689745635e-02, -3.6880116910e-02,  1.0349359363e-02,  1.7197489506e-03,  1.7618803307e-02,  5.4993137717e-02, 
	 2.8854420409e-02, -6.3814111054e-02,  8.7867811322e-02,  1.3028630055e-03, -1.6426952556e-02,  4.4820241630e-02,  2.5940515101e-02,  5.6714884937e-02,  1.6405850649e-02,  3.2035436481e-02, 
	 5.4228685796e-02, -3.5469010472e-02,  6.5993241966e-02,  3.7492003292e-02,  2.0852487534e-02,  3.1293094158e-02,  1.8284084275e-02,  6.7665591836e-02, -2.0859908313e-02, -1.8476214260e-02, 
	-5.7650129311e-03,  5.2416641265e-02,  1.3843808323e-02, -7.5857965276e-03,  4.4089440256e-02, -4.9176212400e-02, -5.1385570318e-02,  2.1809546277e-02,  4.3357778341e-02,  7.3694125749e-03, 
	-4.8623856157e-02,  5.3911139257e-03,  7.0788078010e-02, -5.4240789264e-02, -5.2631128579e-02,  5.6440234184e-02, -5.0488293171e-02, -8.4576895460e-03, -2.5146288797e-02,  4.8995692283e-02, 
	 1.8947341014e-03, -4.6264193952e-02, -5.5926684290e-02, -8.1065669656e-02, -6.4873427153e-02,  2.8571823612e-02,  5.9342157096e-02, -4.6345401555e-02, -6.7712203600e-03,  4.0420524776e-02, 
	 6.6898062825e-02,  5.6124400347e-02,  2.1902745590e-02, -2.6571530849e-02,  7.0846401155e-02,  2.5740826502e-02,  4.2259067297e-02, -7.2334036231e-02,  5.9698596597e-02, -1.9130852073e-02, 
	 4.3521996588e-02,  2.2708473727e-02, -7.7167831361e-02,  5.4273508489e-02, -2.2168731317e-02,  2.3382429034e-02, -2.2709006444e-02,  7.5336880982e-02,  6.6370874643e-02,  6.2256198376e-02, 
	-5.4086335003e-02,  5.4671797901e-02,  1.7435789108e-02,  4.7619376332e-02, -7.8641638160e-02, -4.5232120901e-02,  2.1699901670e-02, -7.3631338775e-02,  3.9456605911e-02,  5.6495688856e-02, 
	-4.1148316115e-02,  3.9120662957e-02,  4.3348416686e-02, -1.3100448996e-02, -1.7880329862e-02,  4.2367123067e-02, -4.1733037680e-02,  7.1906529367e-02, -2.7268465608e-02, -2.6971498504e-02, 
	 1.3943014666e-02, -1.6733523458e-02, -5.8275979012e-02, -4.6264540404e-02, -6.4455433749e-03, -3.5445146263e-02, -2.3472679779e-02,  1.1244638823e-02, -4.1425094008e-02,  3.4818913788e-02, 
	 4.6550463885e-02,  4.9630675465e-02,  3.9407044649e-02, -8.0907344818e-03,  7.1133501828e-02,  6.5829157829e-02, -7.1888668463e-03, -4.9542255700e-02, -3.6774344742e-02,  5.9877738357e-02, 
	 3.7324983627e-02,  4.8039544374e-02, -2.3048909381e-02,  4.6790532768e-02, -3.9497487247e-02,  2.0567432046e-02, -6.9119945168e-02,  2.2015374154e-02,  1.9220586866e-02,  2.6385469362e-02, 
	-4.9215713516e-03,  5.6466475129e-02,  3.3306844532e-02, -7.9325795174e-02, -8.7770968676e-03,  3.9616957307e-02, -4.0289744735e-02,  4.5315526426e-02,  5.5308868177e-03,  4.3324612081e-02, 
	 5.4524082690e-02, -3.5871498287e-02, -7.5038246810e-02, -9.9831772968e-03, -6.6735297441e-02, -5.7062998414e-02,  4.8639032990e-02,  4.4530536979e-02, -1.0364491493e-02, -7.7542229556e-03, 
	 4.0030465461e-03, -1.7990758643e-02,  4.9600865692e-02,  1.7695771530e-02,  3.4972107969e-03, -3.6389321089e-02, -6.2146838754e-02, -1.2646187097e-02, -6.6920362413e-02,  1.1151445098e-02, 
	 8.5791544989e-03, -6.9103047252e-02, -2.5348991156e-02, -4.5851413161e-02, -6.4843259752e-02,  5.8677125722e-02,  4.0002550930e-02,  5.4625660181e-02,  4.4656995684e-02, -6.8909071386e-02, 
	 2.3746946827e-02,  4.1511278600e-02, -7.8666046262e-02, -2.9363716021e-02, -7.1551399305e-03,  6.8876989186e-02,  1.0811587796e-02,  5.6602243334e-02,  7.2799019516e-02, -1.5138473362e-02, 
	-2.0109834149e-02, -3.4465126693e-02,  5.4895214736e-02,  3.2185759395e-02,  1.2749484740e-02, -5.0537999719e-02,  7.1639664471e-02,  8.5725942627e-03,  2.1454012021e-02,  6.0605343431e-02, 
	-3.2287757844e-02, -1.2632230297e-02, -4.2657595128e-02, -9.8780691624e-03,  9.7251562402e-03, -3.4701121040e-03,  5.9965550900e-02, -1.6154045239e-02,  5.2777055651e-02, -7.3948711157e-02, 
	 7.9099219292e-03,  4.3462347239e-02,  3.1060844660e-02,  7.0906057954e-02,  6.5516375005e-02,  2.1230827551e-03,  7.2370514274e-02, -4.2831048369e-02, -5.4276537150e-02,  6.5514326096e-02, 
	 4.2345616966e-02,  2.8161611408e-02,  6.5196081996e-02,  6.0133378953e-02,  2.8944166377e-02,  9.4475960359e-03, -4.6554654837e-02, -4.7509960830e-02, -1.3926469721e-02, -5.1184520125e-02, 
	-8.7261028588e-02, -5.6932691485e-02,  5.0525065511e-02,  5.1684573293e-02, -6.1306960881e-02, -8.2028321922e-03, -5.5580150336e-02,  1.3984969817e-02,  5.9652149677e-02, -3.7042445038e-03, 
	-4.5462731272e-02,  4.1961774230e-02, -1.4008355327e-02, -3.2858196646e-02,  6.6972292960e-02, -2.7364760637e-02,  6.6423858516e-03, -8.7425984442e-02,  1.7047511414e-02, -5.6504156440e-02, 
	-7.5715193525e-03, -2.7825020254e-02,  7.8770019114e-02,  1.8048025668e-02,  6.6266967915e-03, -4.1654217988e-02, -5.0865244120e-02, -6.7272052169e-02,  3.5607181489e-02,  6.2763378955e-03, 
	-3.1608358026e-02, -1.3749703765e-02,  7.3267906904e-02, -4.7822419554e-02, -1.4461604878e-02,  7.9156532884e-02,  4.8573751003e-02,  2.7250319719e-02,  1.6306709498e-02,  1.8378468230e-02, 
	 9.9892374128e-03, -2.7012700215e-02, -7.6906301081e-02, -3.1188055873e-02, -7.1468437091e-04, -2.7829997241e-02, -3.9227750152e-02,  3.4462023526e-02, -4.2258866131e-02,  4.2342510074e-02, 
	 7.9514412209e-03,  4.4693320990e-02,  1.1610002257e-02, -9.8786093295e-03, -4.4303953648e-02, -1.0168856010e-02,  6.0640536249e-02,  4.5242931694e-02,  2.5784024969e-02,  2.4354975671e-02, 
	 5.3503490984e-02, -6.3202694058e-02,  3.3043321222e-02, -1.4975646511e-02,  7.2363398969e-02,  1.7626766115e-02, -7.5184613466e-02,  6.7574232817e-02,  5.6836854666e-02,  2.4582208134e-03, 
	-5.5526278913e-02, -1.9149551168e-02,  1.6273991205e-03, -5.2315060049e-02,  5.3339127451e-02,  7.8391097486e-03,  5.0719529390e-02, -3.6205597222e-02, -3.0036343262e-02,  6.2289237976e-02, 
	-3.2423291355e-02,  6.6366448998e-02, -4.9322012812e-02, -2.9661053792e-02,  2.7930513024e-02, -2.7091521770e-02, -1.7256004736e-02, -6.6520147026e-02,  1.7522476264e-04,  4.7829672694e-02, 
	 4.7894604504e-02, -5.7899329113e-04,  5.2087321877e-02, -2.5366782211e-03, -5.1064919680e-02, -1.9054304808e-02,  6.7150145769e-02,  7.1298158728e-03, -5.1557466388e-02,  4.2063355446e-02, 
	 2.8794989921e-03,  2.4356938899e-02, -3.1948313117e-02, -4.2744453996e-02, -6.9206438959e-02, -2.9889423400e-02,  7.4762582779e-02,  3.3837512136e-02, -5.5470690131e-02,  2.3596815765e-02, 
	-6.4340285957e-02,  4.2386274785e-02,  6.8092830479e-02,  2.8306661174e-02, -3.0107803643e-02,  6.3948437572e-02, -4.7416027635e-02, -3.4242592752e-02, -4.9623653293e-02,  6.8508073688e-02, 
	 2.8503824025e-02,  3.2085143030e-02, -3.4657519311e-02,  4.8632018268e-02, -1.8605669960e-02, -1.9767301157e-02,  5.2774772048e-02,  1.6046331730e-03, -3.6646392196e-02, -1.2388480827e-02, 
	 1.1183628812e-02, -1.9314358942e-03,  4.6569593251e-02, -7.0202142000e-02,  2.3673597723e-02,  2.8314730152e-02,  4.1522640735e-02, -2.3361654952e-02,  2.1864902228e-02, -7.0506855845e-02, 
	-3.4355331212e-02,  2.7275944129e-02, -1.0753145441e-02, -4.7808669508e-02,  7.5077325106e-02, -4.0332939476e-02, -6.7157656886e-03,  7.1922235191e-02,  5.5185675621e-02,  3.8249548525e-02, 
	-4.0378399193e-02,  5.2176066674e-03, -5.1181860268e-02, -1.6884922981e-02, -4.0547330864e-03, -2.0885180682e-02,  5.2930947393e-02,  3.7394072860e-03, -7.5295776129e-02, -5.7143103331e-02, 
	-5.8781772852e-02, -7.2193048894e-02, -7.9837597907e-02,  2.9522562400e-02, -7.6543434989e-04, -3.4187283367e-02, -7.2936289012e-02,  2.1636003628e-02, -6.4923077822e-02, -3.2213893719e-03, 
	 3.8433760405e-02, -7.6232604682e-02,  6.5366804600e-02,  1.2722647749e-02,  5.4096938111e-03, -5.6406211108e-02,  5.0716422498e-02, -4.2444482446e-02,  1.2744383886e-02,  7.2498932481e-02, 
	 5.3972043097e-02, -4.8101078719e-02,  2.4254845455e-02,  2.3165626451e-02, -2.3688329384e-03, -6.3821136951e-02, -7.3862507939e-02, -7.9722359776e-02, -6.0881707817e-02, -7.0891454816e-02, 
	 5.4750144482e-02, -6.2696598470e-02,  7.4120755307e-03, -2.9226878658e-02,  8.0541029572e-02,  7.6613528654e-03, -6.2469474971e-02, -6.3007734716e-02, -7.3470301926e-02, -6.8278247491e-03, 
	-4.1722577065e-02, -3.7386480719e-02,  3.1433220953e-02, -2.8381295502e-02, -7.4745170772e-02,  1.1620125733e-02, -1.6305904835e-02, -4.1696410626e-02, -2.2210909519e-03, -5.7693395764e-02, 
	-2.6159537956e-02,  6.8114154041e-02, -3.2979149371e-02, -4.7361500561e-02,  1.3132596388e-02, -9.6924701938e-04,  1.3472133316e-02, -1.2536513619e-02, -6.2359530479e-02,  8.3090709522e-03, 
	-5.4818168283e-02, -2.7181010228e-03, -2.2517761216e-02,  6.5972611308e-02, -1.7649585381e-02, -6.6078051925e-02, -5.8594331145e-02, -4.8152003437e-02, -1.4203115366e-02, -1.4847019687e-02, 
	-3.7665788084e-02, -8.4437904879e-03, -3.9819512516e-02,  2.0241640508e-02,  6.3258603215e-02, -7.4371770024e-02,  4.8414543271e-02, -4.6042986214e-02, -2.4078965187e-02,  3.8761332631e-02, 
	 2.5496479124e-02, -2.6876838878e-02,  2.8051794507e-03,  5.4883300327e-03,  4.9965776503e-02,  1.9929070026e-02,  5.3892806172e-03,  3.9456576109e-02, -3.4091714770e-02,  5.8632817119e-02, 
	 4.8047628254e-02, -2.5592537597e-02,  2.7247408405e-02,  2.8647037223e-02,  5.6964617223e-02, -6.5491221845e-02, -5.7981938124e-02,  3.2279130071e-02, -1.7897719517e-02,  6.4406260848e-02, 
	-1.8089745194e-02, -5.1323831081e-02,  3.9139170200e-02, -3.9745893329e-02, -7.5961962342e-02, -4.7699004412e-02, -6.6789276898e-02, -5.6906890124e-02, -2.7695544064e-02,  2.5325993076e-02, 
	 5.5527016521e-02,  5.4349298589e-03, -7.2112172842e-02, -3.6113860551e-03, -4.0000665933e-02,  4.1255280375e-02,  7.2234980762e-02,  2.2254867479e-02, -9.5758801326e-03,  1.3736493886e-02, 
	-4.9697704613e-02, -7.7536143363e-03, -5.0651744008e-02, -5.3670715541e-02,  1.5192770399e-02,  4.6274013817e-02, -9.3966936693e-03,  5.6846379302e-03,  4.0952514857e-02,  2.8203842230e-03, 
	-1.5552523546e-02,  1.2972605415e-02, -2.1758195013e-02, -6.3713096082e-02,  5.2194509655e-02, -3.5096652806e-02,  5.9351466596e-02, -3.4883879125e-02,  1.5921838582e-02, -5.3825836629e-02, 
	 2.2784362081e-03,  4.9950689077e-02, -3.5911936313e-02,  1.5059250407e-02,  4.7480035573e-02, -7.0426329970e-02,  4.3679621071e-02, -3.7845563143e-02, -5.0413981080e-02, -3.6430221051e-02, 
	 7.0651568472e-02, -3.2173756510e-02,  4.0191575885e-02, -1.7453476787e-02,  3.2857682556e-02, -3.8255985826e-02, -6.1832889915e-02, -1.1855555698e-02,  7.8926291317e-03, -5.2926547825e-02, 
	-8.7400134653e-03,  1.7144518206e-03,  3.2818265259e-02,  1.4411816373e-02, -2.1375043318e-02, -7.6209776103e-02, -6.1258718371e-02,  2.2016743198e-02, -2.3179795593e-02,  7.9137552530e-03, 
	-1.2403720059e-02,  5.5152647197e-02, -6.4542949200e-02,  6.6101066768e-02, -2.8384157922e-03, -1.7047785223e-02, -6.7236945033e-02, -2.2893298417e-02,  3.9885628968e-02,  1.2571310624e-02, 
	 7.0060059428e-02, -2.4640126154e-02,  7.5959697366e-02, -1.7169315368e-02,  2.3053826764e-02,  3.0059617013e-02, -3.2840967178e-02,  5.4671701044e-02, -2.1667679772e-02, -5.3518407047e-02, 
	 5.4179639556e-03,  7.2563327849e-02, -7.4498675764e-02,  4.2134810239e-02,  2.5922771543e-02, -2.8957393952e-03,  1.1196373962e-02,  6.3511699438e-02, -5.2392210811e-02, -6.6443282412e-04, 
	 5.6834775954e-02, -6.1301421374e-03,  2.7240209281e-02,  8.1319147721e-03,  3.1399298459e-02,  3.5314708948e-03,  5.6098386645e-02,  5.6470826268e-02, -5.3891200572e-02,  4.8323635012e-02, 
	-1.8914273009e-02,  6.7316265777e-03,  5.7638090104e-02, -1.0081889108e-02, -4.8814184964e-02,  5.1046371460e-02,  1.2618813664e-02,  1.5915324911e-02,  2.2940734401e-02,  5.9352051467e-02, 
	-5.6367747486e-02, -5.8663636446e-02,  3.0429918319e-02, -1.3934027404e-02, -2.9504872859e-02,  4.0665872395e-02,  5.7688739151e-02, -6.6239632666e-02, -5.9468947351e-02, -2.5009283796e-02, 
	 4.3708354235e-02, -2.2068298422e-03, -2.6869887486e-02,  5.1613382995e-02,  4.7492112964e-02,  7.5616948307e-02,  2.3264599964e-02, -4.5031942427e-02,  6.1851974577e-02,  6.6072769463e-02, 
	-1.7972789705e-02,  3.3792447299e-02, -4.7817926854e-02,  4.0432401001e-03,  5.1247738302e-03,  5.1168624312e-02, -6.2034748495e-02,  3.6595124751e-02, -1.7471676692e-02,  1.6335760010e-03, 
	 3.4861128777e-02,  8.4068916738e-02, -2.9867960140e-02,  6.6482946277e-02, -5.9874396771e-02,  1.0646939278e-02,  5.5983457714e-02,  5.3685832769e-02, -5.2018049173e-03, -5.3056452423e-02, 
	-4.0863608592e-04, -7.5210775249e-03,  4.5853536576e-02, -6.7098471336e-03, -9.4664692879e-03,  3.5345956683e-02, -2.3317221552e-02, -4.5445799828e-02, -2.7097521350e-02, -1.9816039130e-02, 
	 5.5754400790e-02,  4.6824835241e-02, -5.5756517686e-03,  1.0194734670e-02, -6.7417688668e-02, -2.4696454406e-02, -2.1426847205e-02, -5.6068804115e-02, -1.0990864830e-03,  3.1106138602e-02, 
	-5.8173172176e-02,  3.5951174796e-02,  4.0328305215e-02, -2.3616353050e-02,  4.2672469281e-03, -1.5230036341e-02, -6.2912471592e-02,  4.9977257848e-02, -1.6466680914e-02, -3.1922243536e-02, 
	 4.7218622640e-03,  7.0953570306e-02,  1.6252031550e-02, -1.3120989315e-02, -4.8699188977e-02, -7.7054873109e-02, -7.4270106852e-02, -5.5280033499e-02, -1.4799078926e-02, -7.0220217109e-02, 
	 6.4288049936e-02, -5.0553426147e-02,  4.3067172170e-02, -3.2742001116e-02, -4.8576887697e-02, -5.5646914989e-02,  1.8264923245e-02,  1.7791299149e-02, -4.7705635428e-02,  5.9904489666e-02, 
	 4.0540099144e-02,  6.0671124607e-02, -2.4267259985e-02, -5.2762385458e-02, -1.9553951919e-02, -3.1156379730e-02, -6.9219935685e-03, -4.6727195382e-02, -4.2954523116e-02, -1.4388825744e-02, 
	 3.0398737639e-02,  1.3317173347e-02, -6.0827445239e-02,  1.1063908227e-02,  7.4694834650e-02, -5.7228796184e-02,  8.3256168291e-03,  5.5050072260e-03, -1.6212170944e-02, -2.7303796378e-04, 
	-3.4703925252e-02, -5.4002292454e-02,  3.2917004079e-02, -4.5814875513e-02, -5.6107141078e-02, -7.1556285024e-02, -4.4267278165e-02, -6.7683510482e-02, -4.0901184082e-02, -2.5569738820e-02, 
	-3.1151212752e-02, -3.7282928824e-02,  5.7117396500e-04,  4.7450758517e-02,  8.3541385829e-02,  2.2888051346e-02,  7.1959577501e-02, -4.7161150724e-02,  1.5213233419e-02, -6.3481992111e-03, 
	-2.9271926731e-02,  2.6112390682e-02,  4.0469888598e-02, -5.0151057541e-02, -6.3939145766e-03,  5.8850947767e-02,  6.1274897307e-02,  3.2514344901e-02, -7.4525624514e-02,  2.7356475592e-02, 
	-5.4983999580e-02,  1.6571588814e-02, -9.8035596311e-03,  3.1314283609e-02, -2.9374700040e-02,  1.6328766942e-02,  3.1897556037e-02, -4.5018877834e-02,  4.8120491207e-02, -2.2126587108e-02, 
	 2.8945529833e-02,  4.2068816721e-02, -7.1378827095e-02, -3.5856597126e-02, -2.7227636427e-02,  5.9709794819e-02, -2.1564137191e-02, -2.3827290162e-02,  5.6427165866e-02, -5.0894550979e-02, 
	 3.9536722004e-02, -1.7269391567e-02,  7.5905430131e-03, -4.3418090791e-02,  4.2312047444e-03, -3.4032769501e-02,  3.3881690353e-02, -8.2718700171e-02,  1.1245927773e-02,  4.5104529709e-02, 
	-3.4673217684e-02,  5.6443501264e-02,  1.6372121172e-03, -6.3332051039e-02, -2.4294612929e-02, -3.8715351373e-02,  1.5119512565e-02,  7.4010238051e-02, -2.9691584408e-02, -4.4670542702e-03, 
	 2.6617081836e-02,  2.9091771692e-02, -3.7130154669e-02,  3.2950323075e-02,  4.1878312826e-02,  1.8632385880e-02,  5.1853079349e-02,  6.3346877694e-02,  2.2962104529e-02, -3.3134347759e-03, 
	-6.7375943065e-02, -2.8282226995e-02, -4.4270683080e-02, -2.1899949759e-02,  2.8841000050e-02,  6.2654860318e-02,  5.2573751658e-02,  4.8003334552e-02,  5.6915250607e-03, -2.9092777520e-02, 
	 7.1618366055e-03, -2.9744802043e-02, -3.5080496222e-02, -7.9889968038e-02,  3.0022086576e-02,  2.4150958285e-02,  5.2028119564e-02, -4.6581536531e-02, -2.1896187216e-02,  5.6024927646e-02, 
	 3.3048526384e-03,  2.4274484895e-04,  5.1337074488e-02, -4.6851780266e-02, -3.6752592772e-02, -2.3600193672e-03, -4.4253438711e-02, -5.9375941753e-02,  5.5830530822e-02, -1.8870726228e-02, 
	 4.7157652676e-02,  5.0131782889e-02,  5.4379433393e-02, -6.9981358945e-02,  6.3030533493e-02,  5.9203516692e-02,  9.5928395167e-03,  8.0602690578e-03,  4.0669016540e-02,  4.1907921433e-02, 
	 6.9285944104e-02,  1.5739129856e-02,  4.3828591704e-02, -2.6241078973e-02,  9.1665284708e-03, -1.5347532462e-03,  4.6116098762e-02,  6.9468200207e-02,  7.6524265110e-02, -2.4174077436e-02, 
	-6.0033697635e-02, -6.0506388545e-02, -2.2802434862e-02,  1.4992645942e-02, -5.5214192718e-02,  1.0760373436e-02, -2.1282022819e-02, -5.4804448038e-02,  3.7758130580e-02,  5.5132675916e-02, 
	-3.7742700428e-02,  6.5886206925e-02,  1.5046737157e-02, -6.6325187683e-02,  2.2781707346e-02, -3.8574565202e-02,  6.8266108632e-02,  1.3109955005e-02, -6.4564928412e-02, -4.7811575234e-02, 
	 2.3449890316e-02,  7.1240887046e-02, -1.1100338772e-02,  6.0691919178e-02, -3.7335280329e-02, -4.7994256020e-03, -6.5981440246e-02,  1.3185541146e-02,  1.5861609951e-02,  6.9297127426e-02, 
	-3.5038951784e-02,  3.7520486861e-02,  1.5005643480e-02,  6.1853125691e-02, -4.5301038772e-02, -3.5289758816e-03, -5.5809881538e-02,  3.3157076687e-02,  5.8346811682e-02, -9.7502283752e-03, 
	-7.0257291198e-02,  4.3118905276e-02,  2.7545800433e-02, -4.5792859048e-02, -3.3737592399e-02,  4.4291734695e-02,  2.5549691170e-02,  1.6840680037e-03,  5.8977253735e-02, -6.3028715551e-02, 
	-2.2176176310e-02,  5.6827973574e-02,  5.7701125741e-02,  1.6323333606e-02,  2.0980298519e-02, -3.9259191602e-02,  2.3877905682e-02,  1.8698042259e-02,  2.1564317867e-03, -7.4184536934e-03, 
	-3.4136608243e-02,  5.4470293224e-02, -2.3789620027e-02, -3.6407150328e-02,  8.3881296450e-04, -1.5612065792e-02, -1.2102120556e-02, -6.5346442163e-02, -1.4646143652e-02,  4.5557446778e-02, 
	-1.3684283011e-02, -7.3619671166e-03, -5.5151481181e-02, -4.3594263494e-02,  5.5146545172e-02, -6.3276164234e-02, -5.2793610841e-02,  4.9662761390e-02,  4.8980738968e-02, -2.2211421281e-02, 
	 5.7526513934e-02,  3.9657656103e-02,  1.5063947998e-02,  2.4252219126e-02,  3.1225329265e-02, -3.6413546652e-02,  5.2068725927e-04,  1.1224381626e-02,  5.8773253113e-02,  6.0291001573e-03, 
	 3.7482816726e-02, -2.4226790294e-02, -6.3602142036e-02, -5.0111033022e-02, -1.3558826409e-02,  8.2689233124e-02,  7.4275210500e-02, -7.0965170860e-02, -1.5115415677e-02,  7.1087062359e-02, 
	-1.2619643472e-02, -1.9902717322e-02, -2.2460816428e-02,  5.6453146040e-02,  6.3550144434e-02,  6.1215400696e-02,  6.8150050938e-02,  1.9283503061e-03,  2.9235929251e-02, -4.6233301982e-03, 
	-1.6192357987e-02,  4.7727461904e-02,  5.8285918087e-02, -7.0240266621e-02,  2.8877390549e-02,  6.5589196980e-02,  6.1311379075e-02, -4.3092738837e-02, -5.6251630187e-02,  6.1006978154e-02, 
	 1.3543607667e-02,  1.4139792882e-02,  2.6187483221e-02,  9.8981531337e-03,  3.2128352672e-02,  4.9647923559e-02,  1.1976438109e-03,  5.3901638836e-02, -5.5322211236e-02,  3.0473312363e-02, 
	 6.8233832717e-02, -3.7188515067e-02, -6.2836207449e-02,  4.1329581290e-02, -7.3443740606e-02,  7.7256704681e-03,  3.9281725883e-02, -7.3401309550e-02,  3.0935171992e-02,  3.4421901219e-03, 
	 5.4950114340e-02, -3.7851434201e-02, -4.9839749932e-02,  4.5483972877e-02, -7.4133992195e-02, -2.8941679746e-02, -1.1977619492e-02,  5.4366562515e-02, -1.5427924693e-02,  4.1307304054e-02, 
	-6.6926948726e-02,  5.5637158453e-02,  6.5006963909e-02, -3.7498909980e-02,  4.5280829072e-02,  6.5880239010e-02,  4.5463144779e-02, -6.6314600408e-02,  7.3086567223e-02,  1.5230749734e-02, 
	-6.5127126873e-02,  2.0048081875e-02,  2.9827046674e-03,  3.4600991756e-02, -4.5726068318e-02, -3.9165269583e-02,  3.5147547722e-02,  6.8090081215e-02, -5.7432476431e-02,  1.5337392688e-02, 
	 2.0388787612e-02,  4.4926300645e-02,  4.0553759784e-02,  3.1450524926e-02, -1.2376165017e-02,  2.6391308755e-02, -1.7138920724e-02, -3.3776760101e-02,  4.5304529369e-02,  5.8712694794e-02, 
	-7.7412389219e-02, -5.4530692287e-03, -4.7912959009e-02,  2.1024871618e-02,  7.3749996722e-02, -2.2438885644e-02, -6.7656181753e-02, -4.5095770620e-03,  1.2978439219e-02,  1.9524861127e-02, 
	 2.2331139073e-02,  3.6197982728e-02, -5.2899185568e-02,  2.8895933181e-02,  4.6269375831e-02,  1.4317396097e-02,  1.7742207274e-02, -4.5012727380e-02,  1.9467378035e-02, -3.2335456461e-02, 
	 4.2036436498e-02,  3.9842631668e-02, -6.7013218999e-02,  1.4640199952e-03,  4.2240861803e-02, -4.6176388860e-02, -5.7928949594e-02, -1.5341327526e-02,  1.7920183018e-02, -1.3239691034e-02, 
	 3.1505964696e-02, -5.6350059807e-02,  3.6351647228e-02, -1.9879737869e-02,  1.8043272197e-02,  3.0951740220e-02,  4.8159703612e-02,  6.0225319117e-02, -5.1005845889e-03,  7.0938527584e-02, 
	 5.4379471112e-04, -4.2719256133e-02, -5.4888732731e-02, -4.4942017645e-02,  5.8658894151e-02, -7.5846258551e-03, -7.6960414648e-02,  6.9756388664e-02,  5.5631298572e-02,  4.8416115344e-02, 
	-7.1089386940e-02,  1.6684355214e-02, -7.2108298540e-02,  4.2400177568e-02,  3.3095218241e-02,  1.3059630059e-02, -3.2252199948e-02,  4.6637739986e-02,  3.7565439939e-02,  3.0680352822e-02, 
	-3.7219744176e-02, -6.7379198968e-02,  3.0510863289e-02,  2.6690721512e-02, -3.9507977664e-02,  3.1240087003e-02,  1.8921343610e-02, -5.8903180063e-02, -2.1650623530e-02, -5.5964078754e-02, 
	 1.0068234056e-02,  6.7217670381e-02,  2.3710433394e-02,  6.3731104136e-02, -3.5419635475e-02,  3.8224123418e-02,  4.8882983625e-02, -5.1217935979e-02,  2.1023936570e-02,  3.0497923493e-02, 
	 3.5979390144e-02, -2.2596441209e-02,  2.1887911484e-02,  5.0585377961e-02, -2.7257118374e-02, -6.2974400818e-02, -4.7510862350e-02,  1.4750859700e-02,  2.4753369391e-02, -5.4075285792e-02, 
	 5.5398631841e-02,  1.2484771200e-02, -3.7016954273e-02, -1.2278536335e-02,  3.2678700984e-02,  5.5720772594e-02, -2.1735200658e-02,  8.5203051567e-03,  1.8504738808e-02, -5.8072123677e-02, 
	-6.1265051365e-02,  7.1036010981e-02,  1.5060917474e-02, -6.1631213874e-02,  2.7127562091e-02, -1.1994009838e-02, -1.1573662050e-02,  4.5438181609e-02,  1.9407583401e-02,  2.8879534453e-02, 
	 1.3449247926e-02,  2.2170191631e-02,  4.2911414057e-02,  6.8805895746e-02,  3.4686852247e-02,  7.1572095156e-02,  3.3329244703e-02, -5.8213446289e-02, -4.2166952044e-02, -4.2032219470e-02, 
	-4.7949083149e-02,  5.3148850799e-02,  6.2218774110e-02,  2.9565654695e-02,  6.7212685943e-02,  2.8061583638e-02,  5.7927288115e-02, -2.8712898493e-02, -5.1324829459e-02,  1.7014317214e-02, 
	-6.5094843507e-02,  4.6471687965e-03,  4.9369685352e-02, -2.6505033020e-04, -7.1060128510e-02,  5.4694642313e-03, -7.6833263040e-02,  2.4559354410e-02, -2.2322695702e-02, -3.3502053469e-02, 
	-1.6665736213e-02,  3.5906542093e-02,  4.2212631553e-02, -4.4677656144e-02,  3.6200210452e-02,  3.6029879004e-02,  6.5212637186e-02,  2.5363801047e-02, -3.3895116299e-02,  2.5811776519e-02, 
	-1.3057978824e-02,  5.6304549798e-03, -2.3931879550e-03, -2.9260402080e-03,  1.4987253584e-02,  1.7783397809e-02,  6.1306864955e-03, -2.5806527585e-02, -3.2439537346e-02, -7.0078612771e-04, 
	 3.1190829352e-02, -1.1761097237e-02, -2.9071804136e-02, -6.0558401048e-02,  2.2599536460e-03, -2.6760110632e-03, -5.5366769433e-02, -4.2588557117e-03, -4.2046368122e-02, -3.5799752921e-02, 
	-5.3410507739e-02,  1.3589751907e-02, -3.7807300687e-02,  5.8299820870e-02, -3.4189354628e-02, -7.1854777634e-02, -1.4252138790e-03, -3.0659217387e-02, -5.5714145303e-02,  4.6018764377e-02, 
	-5.6191314012e-02,  6.4122818410e-02,  3.1828023493e-02, -1.3576489873e-02,  5.8023333549e-02, -9.0470984578e-03, -2.5602193549e-02,  2.3231724277e-02, -6.4727209508e-02,  4.9530986871e-05, 
	 1.9252233906e-03,  2.3240420967e-02,  3.8864210248e-02, -3.9923816919e-02, -7.8579962254e-02, -6.2830043025e-03,  4.3433818966e-02, -7.4638679624e-02,  1.9771635532e-02, -1.4330761507e-02, 
	 3.7932731211e-02,  6.3951008022e-02,  6.5558351576e-02, -6.9717869163e-02, -7.1610070765e-02, -1.1654402129e-02,  1.3451606967e-02, -1.5577781945e-02,  3.5314165056e-02, -7.6673023403e-02, 
	-5.2076928318e-02,  1.4860745519e-02, -6.6121034324e-02, -5.3124327213e-02,  5.6915760040e-02, -1.6146959737e-02,  2.9772851616e-02,  1.8060596660e-02, -7.2924509645e-02, -5.5146854371e-02, 
	-2.8515763581e-02, -7.5389876962e-02, -7.4149198830e-02,  2.2711623460e-02, -6.7922428250e-02, -3.6192849278e-02, -8.6091719568e-03,  4.5443799347e-02,  1.3332237490e-02, -3.0437787995e-02, 
	-5.9674955904e-02, -1.4547037426e-03, -6.1982307583e-02,  4.9344953150e-02, -3.9549056441e-02, -4.1178267449e-02,  2.2432789207e-02,  4.9346730113e-02, -3.2165512443e-02,  8.3101643249e-03, 
	 4.6592377126e-02, -1.1076377705e-02, -3.1300779432e-02, -6.6633015871e-02,  1.3067639433e-02, -1.8031900981e-03,  8.7362239137e-03, -5.5417917669e-02, -5.7982006110e-03,  6.7870044149e-03, 
	-2.4273082614e-02,  5.4989576340e-02, -6.5391637385e-02,  1.7291313270e-03, -4.9248781055e-02, -7.2868429124e-02, -6.5561898053e-02,  1.5937620774e-02, -3.3529877663e-02, -3.1820166856e-02, 
	-4.1907053441e-02,  7.1637989022e-03,  3.2822016627e-02,  6.2090713531e-02, -4.2640164495e-02, -4.1065778583e-02, -4.0333520621e-02,  9.7229853272e-03,  2.3293595761e-02, -6.7811854184e-02, 
	 5.1421198994e-02, -4.3989364058e-02,  2.7205986902e-02, -5.8585079387e-03,  2.3531144485e-02, -7.2601780295e-02, -8.4029324353e-03, -7.4966954999e-03, -5.2032217383e-02, -2.2275185212e-02, 
	-1.4502571896e-02, -6.5453670919e-02, -7.5347952545e-02, -4.6987095266e-04,  7.8645758331e-03,  1.8575735390e-02, -3.9531525224e-02,  3.2116577029e-02,  1.1568623595e-02,  1.0519898497e-02, 
	 7.9521633685e-02, -1.6662748531e-02,  4.0204741061e-02,  5.0008360296e-02, -9.5850601792e-03, -4.6342004091e-02,  4.8807352781e-02,  1.8259078264e-02, -3.9853479713e-02,  3.7683617324e-02, 
	-1.1152795050e-03,  4.7945488244e-02, -5.2368979901e-02, -3.0901798978e-02, -2.8915731236e-02,  4.3325744569e-02,  7.6907649636e-03, -5.9047550894e-03,  2.2464094684e-02,  3.2804299146e-02, 
	 5.0755366683e-02, -7.0666626096e-02, -3.7087041885e-02, -3.4979097545e-02, -4.4637553394e-02,  1.2156015262e-02,  7.0028989576e-03,  5.9284552932e-02, -6.9229334593e-02,  2.9224472120e-02, 
	-2.6654805988e-02,  5.6548196822e-02, -2.3466333747e-02, -3.5339288414e-02, -1.1687736958e-02, -1.5084566548e-02,  1.2833133340e-02, -4.9649979919e-02,  4.8533130437e-02, -4.8140298575e-02, 
	-8.0180726945e-02, -7.3086455464e-02, -2.4644218385e-02,  8.5436301306e-03, -2.3117793724e-02,  1.4933122322e-02, -6.6434048116e-02,  3.3014617860e-02, -7.0220954716e-02, -4.9449760467e-02, 
	 6.2001667917e-02, -5.3622160107e-02,  4.7740433365e-02, -1.3005117886e-02, -4.2246133089e-03, -1.1081650853e-02, -4.0111355484e-02,  1.9955167547e-02, -2.1728720516e-02,  3.5439436324e-03, 
	-7.9895123839e-02, -5.4948147386e-02, -2.3111021146e-02, -5.5564469658e-03, -4.1955493391e-02, -6.4998708665e-02,  7.9880288104e-04,  6.2457609922e-02, -2.6745102368e-03,  4.6977866441e-02, 
	-3.9818465710e-02, -7.3619604111e-02, -4.1694127023e-02,  4.4486638159e-02, -6.2573805451e-02, -5.7220295072e-02,  1.9986247644e-02, -7.7989809215e-02, -2.5452570990e-03,  4.3778937310e-02, 
	-5.9466674924e-02, -9.2321662232e-03, -2.2283000872e-02, -6.0963612050e-02,  3.9151132107e-02, -1.9462110475e-02,  4.3566189706e-02,  6.9807260297e-03,  3.0949888751e-02,  5.7606246322e-02, 
	 3.5942859948e-02,  1.2630269863e-02, -3.4256424755e-02, -4.3112929910e-02,  1.3371338136e-02, -1.4115554281e-02,  6.2932312489e-02,  1.5722551616e-03, -5.9732824564e-02, -2.7648886666e-02, 
	-1.8117386848e-02,  5.6126780808e-02, -6.1660882086e-02,  7.6371915638e-03,  4.4854614884e-02, -1.3524645939e-02,  2.8980055824e-02,  7.2054460645e-02, -5.6103058159e-02,  5.4663188756e-02, 
	 3.9482999593e-02, -4.7374922782e-02, -4.9523532391e-02,  5.4989982396e-02,  2.2434670478e-02,  4.3058566749e-02, -4.6067722142e-02,  3.2185327262e-02,  2.7755465358e-02,  3.2100353390e-02, 
	-5.0102863461e-03, -6.7021802068e-02, -7.6529547572e-02, -7.5552575290e-02,  8.9487060905e-03, -4.8330374062e-02, -5.0141591579e-02,  5.7994570583e-02,  3.4559771419e-02, -5.8684881777e-02, 
	 2.7062043548e-02,  2.4713618681e-02,  3.7085440010e-02, -6.5399864689e-03,  7.3789142072e-02,  5.6136570871e-02, -6.2146011740e-02, -6.0998290777e-02,  1.6274545342e-03, -4.9956765026e-02, 
	 3.5256423056e-02, -7.3316879570e-02,  9.3256980181e-03,  6.5486140549e-02, -2.4275362492e-02, -4.1402418166e-02,  3.5316318274e-02,  6.6762685776e-02,  6.0436591506e-02, -1.9011143595e-02, 
	-8.8020152180e-04, -7.3758348823e-02,  6.4848706126e-02, -6.8797580898e-02,  4.8268217593e-02,  1.8974412233e-02, -2.4888657033e-02, -3.6095060408e-02,  3.9462525398e-02, -3.4193426371e-02, 
	 1.9267983735e-02,  4.4326573610e-02,  1.8177073449e-02, -5.2767030895e-02, -4.2592596263e-02, -3.3758990467e-02, -6.0853138566e-02,  4.1048809886e-02, -4.4202461839e-02,  5.4676719010e-02, 
	-4.8295538872e-02, -3.5748947412e-02,  2.3424636573e-02,  5.0546061248e-02,  4.1645043530e-03, -6.0194749385e-02,  4.8230130225e-02, -1.6138609499e-02, -2.7687713504e-02, -9.2756152153e-03, 
	 5.0968606025e-02, -4.4722598046e-02,  2.8976913542e-02,  3.1856305897e-02,  1.7314657569e-02,  5.9293940663e-02,  2.2348875180e-02,  2.9906924465e-04,  2.5232192129e-02, -2.0777432248e-02, 
	 5.5400799960e-02, -8.2142092288e-02,  5.6145548820e-02, -4.9279864877e-02, -3.6188967526e-02, -1.2393314391e-02,  3.4298077226e-02,  5.8328386396e-02, -5.7854000479e-02, -5.9915773571e-02, 
	 4.4509902596e-02, -1.9992386922e-02, -4.7610431910e-02,  6.7473076284e-02,  1.3863037340e-02, -3.3287577331e-02,  7.7133178711e-03,  2.9520455748e-02, -3.1660944223e-02,  2.5955047458e-02, 
	 4.1979379952e-02, -4.8131208867e-02,  6.6667646170e-02, -4.4604387134e-02, -6.9120042026e-02,  4.3541394174e-02, -4.4346239418e-02,  1.1900474317e-02, -1.3017460704e-02, -5.5221300572e-02, 
	 6.2907248735e-02,  4.2682070285e-02, -7.0722438395e-02,  4.1451595724e-02,  1.5394608490e-03, -3.4810077399e-02, -3.1372651458e-02, -7.4947491288e-02,  6.4321719110e-02,  1.4888275415e-02, 
	 2.9738148674e-02, -4.2857129127e-02, -4.1333485395e-02, -3.2634854317e-02,  6.0954712331e-02, -5.3384839557e-03,  1.2136073783e-03, -3.5023409873e-02,  3.2711515087e-04, -6.3071362674e-02, 
	-1.7365824431e-02,  4.3841503561e-02, -5.9815265238e-02, -7.5539417565e-02,  6.1041388661e-02,  5.2959661931e-02,  1.2402752414e-02,  3.6321647465e-02, -6.7397572100e-02, -3.3017075621e-03, 
	 3.7390660495e-02,  5.5523295887e-03,  3.3006437123e-02,  2.4297999218e-02,  5.2893165499e-02,  1.4488736168e-02, -7.9117178917e-02, -2.9513152316e-02,  5.9140406549e-02, -5.8063562959e-02, 
	-3.8825452328e-02, -2.5994183496e-02, -3.7306260318e-02,  3.8499806076e-02, -7.6287962496e-02, -3.3148463815e-02,  6.0055665672e-03, -4.0784284472e-02, -7.1221562102e-03, -1.8230753019e-02, 
	 6.9397732615e-02, -5.4605893791e-02, -3.6752443761e-02,  6.7851254717e-03, -1.2633143924e-02,  1.0203494690e-02,  2.0612459630e-03,  1.5533894300e-02, -1.9796773791e-02,  3.6673169583e-02, 
	-5.1552999765e-02, -1.3176549226e-02,  5.9399101883e-02, -7.8085340559e-02,  7.0436863462e-04,  1.9021989778e-02,  6.9303393364e-02,  4.3711099774e-02,  2.3719454184e-02, -2.4115977809e-02, 
	 5.1593845710e-03, -6.8172656000e-02, -7.8913465142e-02,  6.0133449733e-02,  3.9301469922e-02, -2.5345668197e-02, -5.8462647721e-03, -2.8107630089e-02,  5.7985406369e-02, -3.7717040628e-02, 
	 3.5377606750e-02,  2.2479355335e-02, -7.4033826590e-02,  1.8527558073e-02, -2.9010809958e-03,  6.1394851655e-02,  4.4093571603e-02, -4.6161141247e-02,  7.4381574988e-02,  2.6517996565e-02, 
	 5.2273597568e-02,  5.7850785553e-02, -9.7514089430e-04, -2.8528861701e-02,  6.0859669000e-02, -3.8859002292e-02, -6.0059569776e-02, -4.8079229891e-02, -1.1398565955e-02, -1.9194081426e-02, 
	-7.9876437783e-02, -3.5821534693e-02, -7.2985805571e-02,  5.2782014012e-02,  3.0106669292e-02, -7.7814377844e-02, -5.3886052221e-02, -2.5475347415e-02, -7.8638136387e-02,  2.6247996837e-02, 
	-2.7719218284e-02, -4.9607008696e-02, -2.7756145224e-02,  3.8637597114e-02, -2.7271872386e-02, -2.4885449558e-02,  3.4480616450e-02, -1.9368089736e-02, -5.5931955576e-02, -6.2181074172e-03, 
	-5.6704107672e-02,  3.9613477886e-02, -2.3376757279e-02,  8.0834422261e-03, -2.4453660473e-02, -6.2214709818e-02, -2.8248611838e-02, -4.1018597782e-02, -2.8365781531e-02,  3.6954265088e-02, 
	-6.2582254410e-02,  3.0475856736e-02,  6.0430027544e-02,  1.6039211303e-02, -1.4796967618e-02,  4.3922744691e-02, -3.2397543546e-03,  2.8327180073e-02,  4.7857884318e-02, -3.0035832897e-02, 
	 7.5239434838e-02, -2.8054529801e-02, -5.7369716465e-02, -5.2399255335e-02,  7.2645433247e-02,  4.8887602985e-02, -6.2863312662e-02, -5.2146092057e-02,  3.6215092987e-02,  1.6652824357e-02, 
	-4.1867893189e-02,  1.6881307587e-02, -1.9170034677e-02,  4.6446774155e-02, -2.8954617679e-02,  1.0147839785e-02,  4.0421057492e-02,  5.4389879107e-02, -3.7976682186e-02, -5.4992986843e-03, 
	-7.1791164577e-02, -6.0523673892e-02, -2.3370718583e-02,  3.3278208226e-02, -3.6425136030e-02,  4.5326467603e-02,  1.0813483037e-02, -5.7013869286e-02,  1.7466261983e-02, -4.7122649848e-02, 
	-3.3706281334e-02,  5.4783355445e-02,  9.5374612138e-03, -3.5319685936e-02, -6.6375099123e-02, -4.0238678455e-02, -3.5875834525e-02,  8.7625477463e-03, -3.7076089531e-02, -1.5872949734e-02, 
	-5.7770768180e-03, -5.8672551066e-02,  6.7262619734e-02,  3.2400693744e-02,  4.7840803862e-02, -6.1045970768e-02,  2.4214953184e-02, -5.2122239023e-02,  1.5688065439e-02, -6.1839587986e-02, 
	-5.9716001153e-02, -6.4945578575e-02,  1.6340851784e-02,  2.8171362355e-02,  5.1582574844e-02, -4.3395841494e-03, -8.5022896528e-03,  1.4882548712e-02,  5.6840408593e-02,  5.8078937232e-02, 
	 3.9309620857e-02,  4.8764599487e-03, -5.3249023855e-02, -2.5643570349e-02, -5.5701281875e-02,  1.6736896709e-02, -1.9112396985e-02,  6.1573486775e-02, -7.5967140496e-02,  1.1370134540e-02, 
	-5.4514436051e-03, -2.6187716052e-02, -2.8446411714e-02,  5.3934238851e-02, -1.2902382761e-02,  4.8251707107e-02, -5.7366486639e-02,  1.4925560390e-04, -6.6756084561e-02,  6.8006232381e-02, 
	-3.4766845405e-02, -7.9774148762e-03, -3.9283197373e-02, -1.1543878354e-02, -3.2277297229e-02,  2.7574324980e-02,  4.1608445346e-02,  2.3385755718e-02, -2.9551491141e-02, -2.0199837163e-02, 
	-5.5255878717e-02,  6.7720012739e-03,  5.6495964527e-02,  1.6072619706e-02, -6.3132181764e-02, -8.1286832690e-02, -5.2923846990e-02,  3.5841606557e-02,  1.9079337362e-03,  2.3420993239e-02, 
	-3.1041395850e-03,  6.0997739434e-02,  1.2313645333e-02,  4.8341806978e-02,  3.1472422183e-02, -8.0286003649e-03,  4.7319125384e-02, -3.3174924552e-02,  6.1151046306e-02, -6.6927529871e-02, 
	-1.2843515724e-02,  6.8479120731e-02,  3.3623827621e-03, -1.9850810990e-02, -6.5883398056e-02,  5.2043348551e-02,  3.0794670805e-02,  7.5692366809e-03, -4.8548065126e-02,  4.7193787992e-02, 
	-5.8850631118e-02,  3.0853411183e-02, -7.2550542653e-02,  4.4098317623e-02, -3.7294521928e-02,  2.4131707847e-02,  7.3176525533e-02,  1.7689708620e-02,  2.0817179233e-02, -7.0957876742e-02, 
	 3.6551710218e-02,  1.9336294383e-02,  7.9917110503e-02,  6.6372446716e-02,  3.9312396199e-02,  5.1633752882e-02, -6.5132446587e-02,  1.3221339323e-02, -5.0518553704e-02,  1.0457064025e-02, 
	 3.9557240903e-02, -1.7774894834e-02,  6.2851540744e-02,  4.6199589968e-02, -5.1540534943e-02,  1.9914729521e-02,  3.0602939427e-02, -5.9587098658e-02, -1.4416750055e-03,  6.8047858775e-02, 
	 2.1346187219e-02,  1.2753652409e-02,  5.7314825244e-03, -8.0086395144e-02, -6.9231018424e-02, -5.7928435504e-02, -1.6318639740e-02, -2.0003268495e-02,  6.0657493770e-02, -3.1812947243e-02, 
	-5.9207260609e-02,  1.6645640135e-02,  1.5515987761e-02,  5.0359763205e-02,  3.9995592088e-02, -5.7610880584e-02, -4.2271673679e-02,  5.5448580533e-02,  7.0761940442e-03, -6.6002659500e-02, 
	-1.2271291576e-02,  5.5703748018e-02, -6.5177649260e-02, -2.2516585886e-02,  2.1332029253e-02,  2.6405330747e-02, -7.7420048416e-02,  1.0885240510e-02, -3.9516676217e-02,  3.6805525422e-02, 
	-5.8858845383e-02,  7.9306736588e-02,  1.9079888240e-02,  2.1783402190e-02,  5.6819573045e-02, -4.0964193642e-02,  1.7185956240e-02, -3.9351992309e-02, -4.7571379691e-02,  5.6668473408e-03, 
	-4.5203153044e-02,  5.6611236185e-02,  5.7463970035e-02, -7.9667441547e-02, -1.0117156431e-02, -4.7287512571e-02, -1.8109738827e-02,  6.4753443003e-02, -6.4060367644e-02, -3.6048281938e-02, 
	 7.5793728232e-02, -6.2337845564e-02,  1.3216693187e-03,  6.3981679268e-03,  6.2179572880e-02, -5.8805069420e-04,  3.8050193340e-02,  3.7736218423e-02,  5.0752978772e-02,  3.8336772472e-02, 
	 2.7120603248e-02,  5.5605480447e-03, -6.2967427075e-02, -5.4012600332e-02,  2.5063686073e-02, -7.0496355183e-03, -6.1813380569e-02, -4.2313046753e-02, -1.2092863210e-02, -4.9373591319e-03, 
	-3.1187020242e-02, -2.9196863994e-02,  8.8346004486e-03,  5.1699407399e-02, -1.1294544674e-02, -5.8510713279e-02, -8.8887270540e-03,  5.2417237312e-02,  3.8481391966e-02,  1.2506985106e-02, 
	-7.0316761732e-02, -4.2975556105e-02, -1.8128715456e-02,  1.0112684220e-02, -4.2971987277e-02,  1.8730144948e-02, -5.6081861258e-02, -5.4215010256e-02,  1.3838631101e-02,  1.0098946950e-04, 
	 5.3837176412e-02, -6.8314611912e-02, -5.3930032998e-02,  1.5737157315e-02,  4.7196280211e-02, -4.5468434691e-02, -6.4787849784e-02, -3.6262881011e-02,  3.9200756699e-02,  3.5376455635e-03, 
	 3.8029316813e-02, -5.8026302606e-02,  3.8795802742e-02,  1.7909197137e-02,  5.9267669916e-02, -5.7881783694e-02, -3.6611340940e-02, -6.6014960408e-02,  1.8611499108e-03,  4.3508014642e-03, 
	 8.4448242560e-03, -6.4291596413e-02,  3.9346296340e-02,  3.6567524076e-02, -3.2370507717e-02,  4.4040929526e-02, -4.9106080085e-02, -6.3322514296e-02, -5.4895360023e-02, -3.0861999840e-02, 
	 3.0549007934e-03, -2.1404176950e-02, -5.8465646580e-03,  5.1777679473e-02,  6.9371392019e-03,  2.5068610907e-02, -6.7787091248e-03,  7.7448271215e-02,  7.8649610281e-02, -3.8017071784e-02, 
	-2.0712371916e-02,  3.4534189850e-02,  5.5154138245e-03,  7.7298276126e-02, -1.4251187444e-02, -2.7545927092e-02, -1.8094545230e-02, -2.9748514295e-02,  5.5043250322e-03,  1.4856033027e-02, 
	 2.3676296696e-02, -2.9590066988e-03,  5.3664915264e-02,  6.0318480246e-03,  2.4750746787e-02,  6.0750856996e-02, -6.5322883427e-02, -1.9586941227e-02, -1.6631153412e-03,  2.7989406139e-02, 
	 6.1390452087e-02, -1.7231934471e-03,  5.9300594032e-02, -6.3700877130e-02,  1.5327743255e-02,  3.9433881640e-02, -4.4825826772e-03, -5.7357318699e-02, -1.1215027422e-02, -2.2159032524e-02, 
	-4.7872371972e-02, -1.9268212840e-02,  5.7203125209e-02,  2.8354259208e-02,  6.2441334128e-02,  2.0021019503e-02, -2.5270892307e-02, -2.6450008154e-02, -5.5288210511e-02, -4.7495577484e-02, 
	-6.1660405481e-04, -1.2243056670e-02, -4.9898698926e-02, -5.4980669171e-02, -4.8414986581e-02,  1.8574854359e-02, -2.8420452029e-02,  2.9004007578e-02,  4.0011428297e-02,  2.6704339311e-02, 
	-7.1630300954e-03, -1.1602065526e-02,  5.4433565587e-02, -7.1654960513e-02, -7.0898406208e-02,  3.6614175886e-02,  4.9353088252e-03, -1.2266249396e-02,  6.6584558226e-03,  6.6117689013e-02, 
	-2.7547037229e-02, -4.4424779713e-02,  1.9425027072e-02, -4.7841370106e-02,  7.2216093540e-02,  1.5503383242e-02,  3.8580033928e-02,  1.4310888946e-02, -3.9287276566e-02,  5.8229207993e-02, 
	-4.5096568763e-02,  7.5533270836e-02,  7.3121562600e-02,  2.9853936285e-02, -6.6380143166e-02, -6.0004457831e-02,  1.3826120645e-02, -5.9492092580e-02,  2.5134179741e-02, -2.5264035910e-02, 
	 7.5462222099e-02, -6.3552603126e-02,  1.6450449824e-02,  2.5479931384e-02, -4.0865160525e-02, -3.9547152817e-02, -3.3858034294e-03,  4.5222558081e-02,  5.7248491794e-02,  2.5052951649e-02, 
	 7.5726464391e-02,  2.7751926333e-02, -6.1648897827e-03, -7.0932693779e-02, -2.8075683862e-02,  3.5175226629e-02, -5.8965250850e-02, -4.7625590116e-02,  3.2762128860e-02,  8.2741238177e-02, 
	 4.3601639569e-02, -5.4839149117e-02, -4.2168367654e-02,  4.5744769275e-02, -1.9096024334e-02,  9.9524846300e-03, -2.5266874582e-02,  3.3750992268e-02, -2.7400683612e-02, -2.4578703567e-02, 
	-1.0878020898e-02,  9.6936346381e-05,  4.2765792459e-02,  6.6219225526e-02, -4.1109386832e-02, -5.3762551397e-02,  4.3283302337e-02,  2.8301838785e-02,  1.9037416205e-02, -9.9331988022e-03, 
	 5.2967225201e-03, -3.9023574442e-02,  6.6618330777e-02, -3.2508175820e-02,  4.3947853148e-02,  2.7451494709e-02, -4.1662018746e-02,  4.2292259634e-02, -6.4748555422e-02, -1.3361674733e-02, 
	 5.7379242033e-02,  3.7094134837e-02,  4.8815071583e-02, -3.5500928760e-02,  2.4737110361e-02,  7.5390227139e-02, -4.1583202779e-02,  5.4944075644e-02, -3.2111264765e-02,  2.0733796060e-02, 
	-8.3346674219e-03, -3.1098168343e-02,  6.8937540054e-02,  1.7477860674e-02,  7.7277183533e-02, -5.3296249360e-02,  3.5189248621e-02, -1.2338968925e-02,  5.4405253381e-02, -6.9767296314e-02, 
	 3.7385262549e-02, -6.4500808716e-02,  1.6898512840e-02, -6.9981463253e-02, -1.4186280780e-02, -6.5723627806e-02,  1.4614915475e-02,  2.7363883331e-02, -1.1441046372e-02,  4.1513379663e-02, 
	-3.5123642534e-02, -3.8400959224e-02, -4.7984719276e-02, -5.3403586149e-02,  5.8255091310e-02,  2.8871346265e-02,  2.3773035500e-03, -1.4656292275e-02, -5.6186676025e-02, -5.7958945632e-02, 
	-3.4946661443e-02, -1.6811318696e-02, -1.7321838066e-02, -6.0473248363e-02, -5.5894780904e-02,  4.6369314194e-02, -6.4511366189e-02, -2.9499366879e-02, -4.1188586503e-02,  2.2221461404e-03, 
	-5.4756671190e-02,  6.1309803277e-02,  1.9669884816e-02, -6.4511246979e-02,  1.8539914861e-02,  4.3013870716e-02, -2.5952789932e-02,  5.3854364902e-02,  6.6008366644e-02, -9.9881999195e-03, 
	-4.1154336184e-02,  2.3642648011e-02,  4.6431630850e-02,  7.9433768988e-02,  7.3375411332e-02, -6.0857959092e-02, -1.1032602051e-03,  1.6525053652e-03,  7.0964664221e-02,  7.4976757169e-02, 
	 6.1275586486e-02,  3.6588091403e-02, -3.4539412707e-02, -4.5413888991e-02,  3.9116613567e-02, -5.8376118541e-02,  5.2660457790e-02,  3.3247344196e-02,  5.5246882141e-02,  6.8539857864e-02, 
	 1.8988633528e-03, -1.9236318767e-03, -5.4250989109e-02, -6.3961476088e-02,  7.6171576977e-02,  2.4552091956e-02,  1.6798906028e-02, -5.1603425294e-02, -1.7096659169e-02,  2.5490690023e-03, 
	 2.5747386739e-02,  3.4386735409e-02, -2.9058706015e-02, -1.0412877426e-02, -2.9970817268e-02, -4.1130069643e-02,  6.9555580616e-02,  3.7618998438e-02, -2.5708058383e-03,  5.8257486671e-02, 
	 6.7731864750e-02, -5.8203361928e-02,  3.1096776947e-02,  6.3818864524e-02, -6.0185439885e-02, -3.0813799240e-03,  1.6663217917e-02,  1.6129243886e-04, -3.4816090018e-02,  2.9162992723e-03, 
	 6.1395186931e-02,  5.9493098408e-02,  5.5460590869e-02,  4.3817408383e-02,  2.1691868082e-02,  5.8253031224e-02,  7.0817641914e-02, -3.0179442838e-02, -6.1037737876e-02,  2.4816224352e-02, 
	 1.5262589790e-02, -6.0225989670e-02,  3.9792422205e-02,  6.0012273490e-02,  8.1872053444e-02, -2.0077653229e-02,  4.7225087881e-02, -3.5853542387e-02, -6.3451603055e-02, -3.3435728401e-02, 
	 3.8316056132e-02,  6.1362717301e-02,  1.6337212874e-03, -1.1695303954e-02,  3.1828295439e-02, -3.7782002240e-02,  5.7255882770e-02,  7.8344680369e-03,  1.2918259948e-02, -2.1372763440e-02, 
	-3.0957190320e-03,  1.4004721306e-02, -6.1910342425e-02,  1.7545565963e-02,  3.4340761602e-02, -2.9743110761e-02, -7.0612314157e-03, -6.8047814071e-02, -5.5057937279e-03, -6.5036341548e-02, 
	-3.9439648390e-02,  7.7394597232e-02, -3.0957872048e-02,  6.4643509686e-02, -5.6599684060e-02, -6.9396803156e-03,  2.3305555806e-02, -3.4551844001e-02,  7.6439455152e-02,  5.0958488137e-02, 
	 4.1040968150e-02,  5.5789034814e-03,  6.4201436937e-02, -4.8088613898e-02,  6.0396306217e-02,  4.1817020625e-02,  1.8765669316e-02,  5.3353484720e-02, -6.6932298243e-02, -1.3035095297e-02, 
	-3.7893790752e-02, -2.8715895023e-03, -1.8523953855e-02, -6.2754847109e-02,  7.1147968993e-03,  4.0208160877e-02,  1.8969107186e-03,  6.3903308474e-03,  2.7893144637e-02, -2.1622419357e-02, 
	-1.5353049152e-02, -6.2259070575e-02, -6.6002115607e-02,  5.9852991253e-02, -2.6456873864e-02, -3.8967721164e-02,  7.4514552951e-02, -6.3204728067e-02, -3.0082158744e-02,  3.2321859151e-02, 
	-4.2036551982e-02, -2.2651161999e-02,  1.4641953632e-02, -4.2004667222e-02, -5.8946278878e-03,  1.4091024175e-02,  4.1253780946e-03,  5.9618007392e-02,  5.4013077170e-02, -6.4034491777e-02, 
	-6.8077504635e-02, -6.6178075969e-02, -1.1005270295e-02,  2.8359327465e-02,  1.3073524460e-02,  2.6350067928e-02,  6.0337621719e-02,  5.4996803403e-02, -4.7924358398e-02, -2.6512729004e-02, 
	-5.8437846601e-02,  2.8868118301e-02,  8.1884656101e-03, -5.2410513163e-02,  4.7737076879e-02,  8.5943331942e-03,  5.2098441869e-02,  6.9963984191e-02,  5.1004651934e-02,  2.2406247444e-03, 
	 3.0739327893e-02, -6.9622784853e-02,  2.3854197934e-02, -5.1670912653e-02, -9.3549545854e-03,  1.5685582533e-02, -6.5492242575e-02,  6.9729276001e-02, -1.2515323469e-03,  2.6504373178e-02, 
	-1.3106729835e-02,  4.7400079668e-02,  2.6958199218e-02, -3.5639028996e-02, -7.7471874654e-02,  4.1632596403e-03,  3.2944563776e-02,  3.3901862800e-02, -6.5922804177e-02, -8.0584473908e-02, 
	-4.3457500637e-02, -1.8723875284e-02, -2.8342097998e-02, -1.0870787315e-02, -2.4088395294e-03, -4.2656827718e-02,  6.6352598369e-02,  3.4034773707e-02, -7.6210059226e-02, -6.7257255316e-02, 
	-2.6333792135e-02,  6.4432155341e-03,  2.9524579644e-02,  3.9680622518e-02, -6.4229562879e-02,  5.4161329754e-03,  1.7597416416e-02,  3.7278619129e-03,  1.1151674204e-02, -5.5841244757e-02, 
	 5.3247477859e-02, -1.7264127731e-02, -6.9725867361e-03, -4.1612148285e-02, -1.1480556801e-02, -4.0806982666e-02,  4.6802591532e-02,  5.0188608468e-02, -6.1825562268e-02, -5.3113125265e-02, 
	-6.6384583712e-02,  5.8026257902e-02, -5.1410375163e-03,  4.8640348017e-02, -7.8677043319e-02,  6.2489185482e-02, -6.2238061801e-03, -3.5601835698e-02, -7.9523518682e-02, -6.0846347362e-02, 
	 3.2864991575e-02, -1.9503230229e-02, -3.5284534097e-02,  5.0786327571e-02, -6.9820307195e-02,  3.1226718798e-02,  3.8188487291e-02,  1.5790682286e-02, -5.5678311735e-02,  3.5249587148e-02, 
	 5.0364620984e-02,  5.9169102460e-02,  7.1587935090e-02,  4.5482316054e-03,  2.7263516560e-02, -6.0402404517e-02, -6.2787257135e-02, -7.7524725348e-03,  4.3086305261e-02,  4.5231827535e-03, 
	 2.7494223788e-02, -6.4985968173e-02,  5.6907162070e-02, -6.6243715584e-02,  9.9534140900e-03,  2.5368927047e-02, -4.3163322844e-03,  2.3808967322e-02, -2.0894233137e-02, -2.8834255412e-02, 
	-4.7656379640e-02, -6.0141880065e-02, -1.1065727100e-02, -1.7992069479e-03, -2.1687520202e-03,  2.3011919111e-03, -1.7540954053e-02,  3.4821424633e-02,  2.4970700964e-02,  4.6854328364e-02, 
	-5.3525906056e-02, -1.1268337257e-02, -1.6989963129e-02,  6.6894866526e-02, -3.6060363054e-02, -2.2638376802e-02, -3.9457049221e-02,  7.0999935269e-02, -2.3090519011e-02, -6.4040355384e-02, 
	-7.0028282702e-02,  2.9549356550e-02,  3.3592019230e-02, -5.3689073771e-02,  3.2710250467e-02, -2.3771608248e-02,  2.2153474391e-02, -6.8108752370e-02, -1.8806757405e-02,  9.9538536742e-03, 
	-3.3151280135e-02, -6.8051099777e-02, -5.9868197888e-02, -7.1951240301e-02, -7.2820492089e-02,  2.9577778652e-02,  5.4484687746e-02, -2.0493013784e-02, -5.7802483439e-02,  3.7944864482e-02, 
	-2.4264795706e-02, -2.3916875944e-03, -2.7648385614e-02, -5.8462820947e-02, -1.2257559225e-02, -4.7561779618e-02,  5.3098987788e-02, -9.0787075460e-03,  2.1369785070e-02,  5.7950090617e-02, 
	-3.2109700143e-02, -7.1541622281e-02, -5.7855501771e-02, -1.4638063498e-02, -3.2551351935e-02,  3.8531646132e-02,  4.0197495371e-02,  6.1489578336e-02, -4.7840490937e-02,  5.2090886980e-02, 
	 6.2076080590e-02, -5.6847088039e-02,  3.9547748864e-02,  1.7134884372e-02, -1.2655403465e-02,  8.2483999431e-03,  5.2491415292e-02, -3.4389950335e-02,  1.4225067571e-03, -3.4831125289e-02, 
	 1.6452090815e-02, -4.1980508715e-02, -5.7194557041e-02, -6.8439334631e-02,  2.5141153485e-02,  1.6101753339e-02,  1.1642133817e-02, -6.6048935056e-02, -6.3309937716e-02, -3.4038808197e-02, 
	-3.4231986851e-02, -4.1492890567e-02,  6.5122149885e-02,  1.4680122025e-02,  1.3448507525e-02,  5.8351643384e-02,  4.4707518071e-02, -7.4560314417e-02,  9.2095686123e-03, -6.4380444586e-02, 
	 1.0441184975e-02,  1.2154191732e-02,  5.6191574782e-02, -7.3281548917e-02, -6.0837164521e-02, -6.9138586521e-02, -3.6414738279e-03,  4.7711160034e-02, -3.3519268036e-02, -3.7931956351e-02, 
	 4.6652078629e-02, -7.1465343237e-02,  3.4855663776e-02, -1.0750940070e-02,  2.5568891317e-02, -6.8322733045e-02,  4.3300095946e-02,  5.7289984077e-02,  3.2046250999e-02,  4.6553973109e-02, 
	 2.4173131213e-02, -1.2862248346e-02, -1.8650805578e-02,  6.9377720356e-03,  1.4699419960e-02,  5.8602996171e-02, -5.6904062629e-02, -6.6909030080e-02,  3.3052105457e-02, -3.8258671761e-02, 
	-6.4487993717e-02, -2.2605434060e-03,  4.9423091114e-02,  5.8994721621e-02, -3.4228204750e-03,  6.4477719367e-02, -5.2798457444e-02, -5.6204464287e-02, -2.7906512842e-02, -2.9433704913e-02, 
	-4.8148047179e-02, -6.4732067287e-02,  5.8521768078e-03,  1.9211009145e-02,  3.6104511470e-02, -1.4629926533e-02,  6.1056584120e-02,  4.6692010015e-02,  3.5412378609e-02, -6.4337372780e-02, 
	 9.0163778514e-03, -6.1637341976e-02, -4.4308053330e-03,  3.3959086984e-02, -7.4356265366e-02, -1.8070533872e-02, -3.2086563297e-03, -5.0697654486e-02,  6.3808403909e-02,  2.1398570389e-02, 
	-6.8295478821e-02, -6.6049486399e-02,  6.8688586354e-02,  2.4245405570e-02, -3.7806835026e-02,  3.5390052944e-02, -6.5728731453e-02, -1.6578139737e-02, -7.5574018061e-02, -6.6061243415e-02, 
	 1.4817856252e-02,  2.4449393153e-02, -2.6621961966e-02, -3.1427415088e-03, -6.0009162873e-02,  6.1810351908e-02, -1.9547797740e-02, -6.9185279310e-02,  1.7716694623e-02,  4.0883101523e-02, 
	-5.3163561970e-02,  6.9132082164e-02,  6.7797899246e-02, -7.4266210198e-02, -6.5464168787e-02,  6.7515216768e-02, -1.7685221508e-02,  7.1434281766e-02, -4.3936017901e-02,  2.7217535302e-02, 
	 2.2455617785e-02,  6.0468062758e-02, -4.8570081592e-02,  5.3785007447e-02,  1.6229020432e-02,  2.9858455062e-02, -3.5498917103e-02, -7.6118251309e-03,  2.1109087393e-02, -4.4632263482e-02, 
	 5.6991348974e-03, -3.4377478063e-02,  3.1862225384e-02,  3.1893238425e-02,  6.1080042273e-02, -2.9153175652e-02, -3.9075866342e-02,  6.0120616108e-02,  3.6771994084e-02, -1.9541904330e-02, 
	 2.7088931529e-04, -2.9038045555e-02,  2.4947270751e-02, -7.6354995370e-02,  3.2448139042e-02,  5.5416163057e-02, -4.7456607223e-02,  2.2623665631e-02,  1.1994265020e-02,  3.1870067120e-02, 
	-3.8462489843e-02, -2.2100033239e-02, -7.0689506829e-02, -5.6228518486e-02, -4.7924347222e-02,  1.4012618922e-02,  5.7567851618e-03, -5.9110764414e-02, -4.3164838105e-02, -6.1034630984e-02, 
	 1.9218757749e-02,  2.7210006956e-03,  3.7452638149e-02, -7.1165785193e-02, -3.4696362913e-02, -3.7747774273e-02, -2.9450936243e-02,  4.3165545911e-02, -3.0264403671e-02,  2.2221453488e-02, 
	-2.7957985178e-02, -4.2052134871e-02,  4.4615447521e-02,  6.6822722554e-02, -5.4587189108e-02, -4.7125108540e-02,  3.2649539411e-02,  2.0980713889e-03,  3.7630774081e-02,  4.8996455967e-02, 
	-4.5705817640e-02, -1.8010444939e-02, -1.3783435570e-03,  1.6843527555e-02, -2.0689785480e-02,  2.7018226683e-04, -3.0804123729e-02,  5.2252020687e-02, -2.0233057439e-02,  1.4721075073e-02, 
	-1.6346905380e-02, -3.8895964622e-02, -7.1141496301e-02, -3.8109108806e-02, -3.0312897637e-02, -1.3226051815e-02,  7.8096161596e-03,  5.5928379297e-02, -6.5747581422e-02, -1.8472492695e-02, 
	-5.7433761656e-02, -5.1530748606e-03,  2.8552275151e-02,  5.7673763484e-02,  5.2624583244e-02,  7.5424171984e-02,  5.4573370144e-03,  1.4699103311e-02, -7.7064901590e-02, -1.2194578536e-02, 
	-3.0451646075e-02,  7.0552773774e-02, -3.8283489645e-02, -6.5072670579e-02,  5.4759673774e-02, -3.5330858082e-02, -2.2236898541e-02, -5.9801749885e-02,  5.9594914317e-02, -4.9329861999e-02, 
	 6.4603924751e-02, -7.5354106724e-02,  2.1740230732e-03, -4.4464148581e-02,  7.6746731997e-02,  5.8956914581e-03, -5.9814959764e-02, -6.1946203932e-03, -3.7600904703e-02, -5.2179988474e-02, 
	-1.8112035468e-02,  1.2612042483e-03, -5.8382968418e-03,  6.5725117922e-02, -7.4416613206e-03, -1.9039867446e-02,  5.7616230100e-02,  5.4727405310e-02, -9.6531808376e-03,  6.0218330473e-02, 
	 1.9373636693e-02,  1.8513562158e-02,  4.1985776275e-02, -4.4358976185e-02, -2.0573621616e-02, -2.1157344803e-02,  3.0569881201e-02, -2.8008250520e-02, -7.7829947695e-03,  5.3423665464e-02, 
	-1.0049839504e-02,  4.2280483991e-02,  2.0158782601e-02, -1.1709442362e-02,  5.7845816016e-02,  7.0291146636e-02, -6.6094107926e-02,  8.2099894062e-03, -2.6928696781e-02,  1.5307525173e-02, 
	-1.4025602490e-02, -5.9791472740e-03,  4.4821679592e-02,  2.0715154707e-02, -5.1076259464e-02, -1.8520653248e-02,  5.9819225222e-02,  3.7168934941e-02, -4.5601852238e-02,  2.0971354097e-02, 
	-1.8050398678e-02,  5.3321886808e-02, -7.8668706119e-02, -8.0359175801e-02,  4.7336280346e-02, -3.2456357032e-02, -2.4459764361e-02,  6.8048723042e-02,  6.6666714847e-02,  6.8675018847e-03, 
	 3.6229912192e-02,  1.2871303596e-02,  2.4285183754e-03,  4.5401528478e-02,  5.2440050989e-02, -5.2894089371e-02, -1.9266694784e-02, -1.5392355621e-02,  6.6906347871e-02,  8.8097816333e-03, 
	-3.4019004670e-04, -4.4847298414e-02, -4.2507652193e-02,  4.8964619637e-02, -2.8449196368e-02,  5.7353522629e-02,  7.1953929961e-02,  2.1636094898e-02, -3.0008107424e-03, -7.1766210021e-04, 
	-1.8940787762e-02, -4.9776222557e-02,  6.1173498631e-02,  7.3499535210e-03, -2.0702511072e-02,  4.1422132403e-02,  5.5262219161e-02,  1.4810940251e-02,  7.3672570288e-02, -3.1861107796e-02, 
	-4.4124638662e-03, -2.1618930623e-02,  5.6499160826e-02, -7.6535660774e-03, -7.2174139321e-02,  2.5724528357e-02,  5.1950884517e-04,  1.0894925334e-02, -4.8326883465e-02,  6.7953191698e-02, 
	-1.8079839647e-02,  4.6848483384e-02, -4.3021302670e-02, -3.8200382143e-02, -4.7292085364e-03, -5.4153192788e-02, -8.3765769377e-03,  5.9139400721e-02,  2.9535882175e-02, -7.9869121313e-02, 
	-6.5461754799e-02, -4.2451553047e-02,  3.4379735589e-02, -1.8198499456e-02,  1.7199447379e-02, -4.9543131143e-02,  9.2332568020e-03, -3.7962745875e-02,  8.1688426435e-02, -1.5315840952e-02, 
	-3.6947514862e-02,  1.1297784746e-02,  2.7778303251e-02,  7.0314727724e-02, -2.9495230410e-03, -1.6853123670e-03,  5.3350124508e-02, -2.3015778512e-02, -4.4021002948e-02,  6.5546713769e-02, 
	 6.2216170132e-02, -6.0534164310e-02,  1.6841491684e-02,  1.9671272486e-02, -2.9623705894e-02, -7.8056722879e-02,  3.5648290068e-02,  2.2071972489e-02,  7.5353078544e-02, -5.9927042574e-02, 
	-7.8057900071e-02,  5.7932067662e-02,  2.4189183488e-02, -7.6265282929e-02, -5.9013906866e-02,  1.4837147668e-02,  8.1056840718e-03,  1.4224175364e-02, -4.6960532665e-02,  6.8848587573e-02, 
	 1.3570847921e-02, -6.4889527857e-02,  3.7443242967e-02,  6.5003968775e-02,  5.8879364282e-02,  1.6861284152e-02,  3.9757546037e-02,  2.3660294712e-02,  9.3976035714e-03,  1.0124546476e-02, 
	-3.5893741995e-02,  1.5742393211e-02,  2.0537922159e-02, -1.4346855693e-02,  1.3019944541e-02, -6.7015267909e-02, -8.1713542342e-02,  4.1667196900e-02, -1.8312476575e-02, -6.4914956689e-02, 
	 3.0737167224e-02,  1.7381299986e-03, -6.0646946076e-04,  4.1905291378e-02,  1.4799708501e-02,  5.3986101411e-03,  2.5197820738e-02,  4.5136783272e-02, -6.0103114694e-02,  2.0447978750e-02, 
	-4.9777686596e-02,  1.2559499592e-02, -5.4561782628e-02, -5.7700257748e-02,  8.4210544825e-02, -6.1793703586e-02,  3.9355434477e-02, -7.6908603311e-02,  4.3685924262e-02,  3.2580606639e-02, 
	 5.4725755006e-02,  4.8533011228e-02,  4.0981575148e-04, -7.9892640933e-03,  1.7933210358e-02,  2.1181307733e-02,  2.5552092120e-03,  6.5164186526e-04, -1.6832841560e-02, -7.2085253894e-02, 
	 4.3471613899e-03, -2.8522148728e-02, -5.9968840331e-02,  5.9020742774e-02,  7.5066335499e-02,  4.8820912838e-02, -3.3609505743e-02, -1.8322620541e-02, -7.5088739395e-02,  2.4732995778e-02, 
	-7.5178109109e-02,  3.9937708527e-02, -6.7348904908e-02, -3.4664887935e-02, -6.5340362489e-02,  4.5410741121e-02,  5.0121635199e-02,  3.1345635653e-03, -7.2574280202e-02, -2.0521681756e-02, 
	-5.8528933674e-02,  5.9136487544e-02, -4.0752619505e-02,  5.4758097976e-02,  5.9196908027e-02, -2.6046946645e-02, -2.6795646176e-02, -6.7230612040e-02, -1.3713646680e-02, -3.4337874502e-02, 
	 4.8988923430e-02, -1.5712935710e-03, -3.9414260536e-02, -5.0267562270e-02, -2.3569619283e-02, -2.9923764989e-02,  1.4132539742e-02,  8.5343178362e-03,  4.3028581887e-02, -1.2746246066e-03, 
	-6.0143105686e-02,  3.3488698304e-02, -9.4872498885e-03,  6.2810792588e-03,  4.2631275952e-02, -3.4883283079e-02,  4.2104307562e-02, -1.5404376201e-02, -3.7640273571e-02, -2.2904073820e-02, 
	 2.4317484349e-02,  3.1905476004e-02,  1.7596034333e-02, -3.8994569331e-02,  8.0012440681e-02,  2.8914181516e-02,  5.5774431676e-02, -8.8450629264e-03, -1.9022883847e-02, -5.6899480522e-02, 
	 5.9550456703e-02,  3.5737375729e-03, -3.2831829041e-02, -5.0077341497e-02, -4.8549238592e-02, -4.8414230347e-02, -3.8449563086e-02,  1.0377389379e-02,  3.0855378136e-03, -3.0506957322e-02, 
	-2.2093504667e-02, -5.7364121079e-02,  7.4880547822e-02,  3.3743530512e-02, -6.5045297146e-02,  5.9316646308e-02,  2.2747753188e-02,  9.5612341538e-03,  4.7529038042e-02,  4.1213076562e-02, 
	-5.1345333457e-02,  7.0511242375e-03,  7.4988208711e-02, -3.8095728960e-03, -5.0237771124e-02,  3.3856637776e-02, -8.2643121481e-02,  1.6952324659e-02,  5.7336930186e-02, -3.9007343352e-02, 
	-4.5593801886e-02, -7.6607004739e-03, -4.2114593089e-02,  4.6013221145e-02,  7.2852864861e-02, -2.8062948957e-02, -1.2037376873e-02,  1.0329875164e-02,  1.0022589006e-02, -6.6367708147e-02, 
	 4.3045494705e-02, -1.4728850685e-02,  6.7258916795e-02,  5.0999693573e-02, -8.2644587383e-03,  5.9012970887e-03, -2.4826504290e-02, -6.4581423067e-03, -3.9628413506e-03, -6.6027224064e-02, 
	 1.3825540431e-02,  7.9143851995e-02,  2.5186361745e-02,  6.4507529140e-02,  4.3285440654e-02, -7.7278561890e-02,  4.6462349594e-02, -6.7759357393e-02, -1.0520342737e-02, -1.6677992418e-02, 
	-4.4052027166e-02,  1.7610369250e-02, -7.4520535767e-02, -4.6510722488e-02, -2.7158329263e-02, -3.4811895341e-02, -2.0021051168e-02,  3.3742112573e-03,  1.8482007086e-02,  4.1761953384e-02, 
	-7.3295965791e-02,  8.0870874226e-03,  1.2938101776e-02, -7.6030373573e-02, -7.1291022003e-02,  4.9984261394e-02,  6.5092039295e-03,  2.9547436163e-02, -3.4981291741e-02, -7.3301538825e-02, 
	 7.9047363251e-03, -1.2136677280e-02, -5.5764163844e-03, -5.3852096200e-02,  4.0582362562e-02,  4.3558457401e-04,  3.8109857589e-02, -2.4581531063e-02, -1.3033418916e-02,  3.9869137108e-02, 
	-5.1316162571e-03, -7.0604391396e-02,  4.4343058020e-02, -1.7743578181e-02,  3.5333447158e-02,  1.3052910566e-02, -3.4568049014e-02, -7.2666265070e-02,  2.4610990658e-03, -5.7013060898e-02, 
	 1.7011964694e-02,  4.8343189061e-02, -3.1711667776e-02,  2.1067816764e-02, -4.2565695941e-02,  4.8458408564e-02, -3.4796699882e-02, -6.6006548703e-02, -2.5256029330e-03, -2.6133678854e-02, 
	 5.4571893066e-02, -6.8280979991e-02,  3.5013540182e-03, -4.0213719010e-02, -5.6299336255e-02,  1.2233490124e-02, -2.3208349943e-02,  3.9245121181e-02, -5.9928189963e-02,  2.7697965503e-02, 
	 5.0563637167e-02,  3.2012622803e-02,  6.2613422051e-03,  4.9154751003e-02,  5.6738693267e-02, -2.9066724703e-02,  4.1695505381e-02, -3.9842873812e-02, -8.1964777783e-03,  1.6731860116e-02, 
	-8.6630389094e-02, -4.7355860472e-02, -4.2803972960e-02,  4.9452163279e-02,  1.6505010426e-02, -4.6746032313e-03,  6.8031954579e-03,  2.0825332031e-02,  1.6823112965e-02,  2.8605800122e-02, 
	-1.5052213334e-02, -5.9535396285e-03, -3.0089460313e-02,  3.4946791828e-02, -1.5100358985e-02, -7.7068738639e-02, -6.3828893006e-02, -1.7123727128e-02,  6.3050530851e-02, -3.4277666360e-02, 
	 5.2651498467e-02,  6.5490685403e-02, -5.2423249930e-02, -6.3313052058e-02, -6.1009377241e-02,  3.2533455640e-02, -5.8999094181e-03,  5.9678878635e-02,  4.2291194201e-02,  2.3326246068e-02, 
	-5.3044047207e-02, -8.0825619400e-02,  4.5385021716e-02, -5.1469787955e-02, -7.0989407599e-02,  3.4564819187e-02, -3.8674846292e-02,  8.5489740595e-03,  2.1569687873e-02, -4.3399211019e-02, 
	 3.9690583944e-02,  4.4400308281e-02,  2.8468417004e-02,  5.7801377028e-02,  3.4188549966e-02, -4.0183883160e-02,  4.8068147153e-02,  5.3141415119e-02,  3.0150697567e-03, -5.7236842811e-02, 
	 3.0154371634e-02, -1.3681335375e-02, -7.7834963799e-02, -7.2973385453e-02, -2.8646210209e-02,  2.1936351433e-02,  4.7517169267e-02, -1.0043059476e-02,  6.2869839370e-02, -2.6133043692e-02, 
	 5.2414331585e-03, -2.4744853377e-02, -6.1118550599e-02, -3.6727633327e-02, -6.8207584321e-02, -3.5458493978e-02, -1.1977113783e-02, -8.3476789296e-02,  9.6439374611e-03, -4.3074358255e-02, 
	-3.9164657937e-04,  3.6887735128e-02, -5.9897884727e-02,  2.2068569437e-02,  5.7043109089e-02, -4.7740995884e-02, -5.9050854295e-02, -3.0418017879e-02,  1.5654889867e-02, -4.6726621687e-02, 
	-3.7092614919e-02, -4.0402036160e-02,  5.0010308623e-02, -1.9543007016e-02, -6.6981241107e-02, -3.6378879100e-02, -5.6906681508e-02,  5.5197656155e-02, -4.3552052230e-02, -3.2982982695e-02, 
	 4.0449790657e-02,  7.0458993316e-02, -7.4142939411e-03, -7.2029963136e-02, -6.2871150672e-02, -5.3857695311e-02,  7.6918318868e-02,  5.4835025221e-02, -1.4724041335e-02,  4.5780740678e-02, 
	 2.8830045834e-02,  5.5018674582e-02, -2.4573065341e-02,  1.9465828314e-02, -6.0060553253e-02,  3.8455524482e-03,  1.0497775860e-02,  1.7593199387e-02, -3.1391430646e-02,  1.5346354339e-03, 
	-6.1758313328e-02, -7.4296072125e-02,  2.9480123892e-02,  1.0918902699e-03, -6.8512901664e-02, -7.1468733251e-02,  4.5498076826e-02,  2.7014235035e-02,  5.0896074623e-02,  4.6741988510e-02, 
	-2.1014606580e-02, -2.1236248314e-02,  6.1162274331e-02,  2.2344021127e-02,  2.1738182753e-02, -9.8182242364e-03, -4.2364414781e-02, -2.8536835685e-02,  3.8773521781e-02,  6.7596337758e-03, 
	-4.7232463956e-02,  3.3857140690e-02, -2.9613027349e-02,  5.0833928399e-03,  9.6035068855e-03,  2.4314201437e-03, -2.8784649447e-02, -1.6936659813e-02,  3.5139683634e-02,  5.3687328473e-03, 
	 2.3809477687e-02,  1.0900973342e-02, -3.0439831316e-02,  4.4610172510e-02, -9.9593121558e-03, -5.3318172693e-02, -6.7748777568e-02, -1.8201220781e-02, -8.2892566919e-02, -3.4483537078e-02, 
	-7.8987687826e-02,  7.8506832942e-03,  2.9267810285e-02, -5.3270671517e-02, -1.7578143626e-02, -3.3508829772e-02, -4.0211588144e-02,  5.5184230208e-02, -2.6823680848e-02,  1.0750471614e-02, 
	-5.4845485836e-02, -6.0208331794e-02,  7.5877690688e-03,  5.2123550326e-02, -2.2011004388e-02, -4.5686431229e-02,  2.7090862859e-03,  5.1105532795e-02, -4.3131099083e-03, -7.8423447907e-02, 
	-4.1245650500e-02, -9.5237763599e-03,  5.4374844767e-03, -3.0751647428e-02, -3.5540316254e-02,  3.2291974872e-02,  6.2564715743e-02, -8.5093798116e-03,  2.2644465789e-02,  5.7292006910e-02, 
	-5.9155706316e-02, -5.6175500154e-02, -2.8299575206e-03, -9.5273284242e-03, -5.5283885449e-02, -2.8461666778e-02, -1.4431884047e-03, -3.2743416727e-02, -7.8570824116e-03,  4.5228630304e-02, 
	-7.5732834637e-02, -2.3543424904e-02, -3.8059454411e-02, -6.5696090460e-02, -7.7610641718e-02,  6.9848641753e-02, -2.2182824090e-02, -3.7691093981e-02, -5.3962908685e-02, -6.2997624278e-02, 
	-4.0533136576e-02,  5.4995682091e-02, -4.2784262449e-02, -4.1030596942e-02,  5.3743362427e-02, -3.9628975093e-02,  5.5573556572e-02, -7.4731014669e-02,  4.6817701310e-02, -7.4106776156e-03, 
	-4.2471587658e-02, -4.8994001001e-02, -8.7174393237e-02,  4.5297343284e-02,  4.0448453277e-02,  6.9174394011e-02, -2.5247612968e-02, -1.9985098392e-02, -7.6703786850e-02,  5.6240387261e-02, 
	-4.2938366532e-02, -1.3354733819e-03,  6.5713562071e-02, -3.5684984177e-02, -5.6361217052e-02,  3.5431392491e-02, -7.9851364717e-03,  7.0427497849e-03,  7.6317682862e-02, -2.3203665391e-02, 
	 3.6167606711e-02,  6.2265295535e-02,  5.9522684664e-02, -5.2346352488e-02,  1.4215390198e-02, -6.0499269515e-02, -2.2768609226e-02, -6.1395701021e-02, -7.7494330704e-02,  2.3970078677e-02, 
	-5.1704619080e-02, -4.3180201203e-02,  2.1144334227e-02,  6.2950052321e-02,  2.9453068972e-02, -3.9283442311e-03, -4.3505650014e-02, -3.7442702800e-02, -4.0808364749e-02, -3.6053784192e-02, 
	 3.3333100379e-02, -7.5385048985e-02,  1.7001602799e-02, -1.6550809145e-02, -3.1390812248e-02, -3.9086282253e-02, -8.1929013133e-02,  1.0509599932e-02, -8.3704009652e-02, -5.0359908491e-02, 
	 9.8153706640e-03,  1.8710704520e-02, -2.2793570533e-02, -1.3007251546e-02,  5.1187369972e-03,  3.7764675915e-02,  5.7588331401e-02, -5.7881767862e-03, -5.0389502198e-02,  4.8618931323e-02, 
	-5.6413516402e-02,  1.2133281678e-02, -6.6739484668e-02,  3.8260512054e-02,  4.2331367731e-02,  3.9120219648e-02,  5.5446874350e-02, -2.1286688745e-02,  4.8308730125e-02,  2.6033069938e-02, 
	 1.9786952063e-02,  4.4399380684e-02, -5.6103207171e-02, -5.8379910886e-02, -6.5641731024e-02, -1.5243973583e-02, -6.6095583141e-02, -3.7020917982e-02, -3.9503797889e-02,  7.0556268096e-02, 
	-3.1472407281e-02,  1.4958438464e-02,  1.7828088254e-02,  3.1524587423e-02,  1.8139047548e-02, -4.4205054641e-02,  2.8496786952e-02,  3.7709794939e-02,  3.9090454578e-02, -3.5305321217e-02, 
	-3.6423441023e-02,  7.3621109128e-02,  5.9387028217e-02,  3.3924236894e-02,  6.1935927719e-02, -2.7127442881e-02,  7.1636866778e-04,  2.6068033651e-02,  6.5773725510e-02, -2.8285475448e-02, 
	-4.6216264367e-02,  5.9749517590e-02, -7.4125871062e-02,  2.0675186068e-02,  1.3382236473e-02,  4.7019831836e-02, -3.5938635468e-02, -5.5951207876e-02, -3.8104853593e-03, -7.6194591820e-03, 
	 6.1041172594e-02,  4.5418512076e-02, -8.7244333699e-03,  1.2927011121e-03, -1.2484981678e-02, -6.1750985682e-02,  1.5990488231e-02,  1.6914032400e-02,  5.8901075274e-02,  4.6327706426e-02, 
	 2.4039406329e-02,  2.3339720443e-02,  2.9974237084e-02, -3.9436556399e-02, -3.3803198487e-02, -7.9447515309e-03,  4.2923979461e-02, -2.1870000288e-02,  2.4501865730e-02,  5.8361671865e-02, 
	-6.8990945816e-02,  3.9387948811e-02, -3.9976150729e-03,  4.9654968083e-02, -6.4382828772e-02, -1.6418894753e-02, -1.5652280301e-02,  2.6967238635e-02,  7.0343919098e-02,  1.1892233975e-02, 
	-6.4974571578e-03,  2.3876870051e-02, -4.5999504626e-02, -4.8817299306e-02,  6.1478982680e-03,  3.7581108510e-02, -4.4079288840e-02, -6.0775708407e-02,  7.5105905533e-02,  1.8592308043e-03, 
	 2.8950769454e-02,  5.1295582205e-02, -5.5579964072e-02,  7.5640879571e-02, -2.4201154709e-02, -4.8872388899e-02,  2.9904177412e-02, -2.1633446217e-02, -5.9969283640e-02, -4.1780538857e-02, 
	 4.7831259668e-02, -6.1185229570e-02,  6.7524068058e-02, -6.0104973614e-02,  1.3021387160e-02,  6.2727890909e-02,  6.4660549164e-02, -3.3309888095e-02,  1.7590863630e-02, -5.8813285083e-02, 
	 3.9455018938e-02, -2.1204419434e-02, -7.5764589012e-02,  2.8468789533e-02,  2.6886342093e-02, -4.9237251282e-02, -2.8532439843e-02,  4.5211445540e-02, -3.8248528726e-03, -2.2127604112e-02, 
	-3.3596694469e-02, -7.7089123428e-02,  3.3312417567e-02, -7.4821553426e-04, -5.8214645833e-02, -4.7114426270e-03, -7.5329065323e-02, -8.0592529848e-03, -1.6693845391e-02,  6.2711238861e-02, 
	-4.3331876397e-02,  4.0212474763e-02,  3.6572162062e-02,  5.6727021933e-02,  1.4488700777e-02,  7.1172177792e-02, -3.8084067404e-02,  3.9267539978e-02,  5.7536084205e-03, -4.9946028739e-03, 
	-7.0209689438e-02,  1.4069819823e-02, -6.3226930797e-02, -7.2633385658e-02,  3.9796993136e-02,  2.6007408276e-02,  2.5102535263e-02,  3.0439753085e-02, -6.0026992112e-02, -3.1702443957e-02, 
	 1.9372915849e-02, -6.9608776830e-03, -6.8145640194e-02, -7.9563133419e-02, -6.9452367723e-02,  2.7600863948e-02, -5.4716128856e-02, -5.1630660892e-02,  1.0937356390e-02,  4.5167878270e-02, 
	 2.5708267465e-02,  2.3000527173e-02,  2.4035915732e-02,  5.6915342808e-02, -2.5293156505e-02, -6.0215534177e-04,  5.8813024312e-02, -3.7617523223e-02, -5.0070323050e-02,  2.3372147232e-02, 
	-3.9554744959e-02,  1.6908135265e-02,  6.6453859210e-02, -2.5717241806e-04, -4.7484911978e-02,  2.9614403844e-02, -2.0623607561e-02, -4.1060261428e-02, -6.7819193006e-02, -5.2151959389e-02, 
	-3.6089763045e-02,  5.5594615638e-02, -8.1373989582e-02, -1.2179842219e-02,  1.0679624975e-02, -3.3473540097e-02, -1.5575896017e-02,  1.0604809970e-02, -5.1465298980e-02,  3.2609876245e-02, 
	 1.3922495767e-02, -2.7073122561e-02,  6.6563708242e-04, -2.3711321875e-02,  2.0074333996e-02,  8.2568619400e-03, -4.3512847275e-02, -6.8101868033e-02, -1.3974187896e-02,  2.3069960997e-02, 
	-2.1687287372e-03,  5.4043877870e-02,  3.6422979087e-02, -4.9380164593e-02, -1.4828003943e-02,  2.2253688425e-02, -7.9331591725e-02,  1.5594195575e-02, -5.9339817613e-02,  5.7177867740e-02, 
	 4.2256653309e-02,  5.7033143938e-02,  6.5987892449e-02, -1.7643647268e-02,  6.9543942809e-02,  5.3892526776e-02, -6.3098780811e-02,  7.8253574669e-02,  1.7360791564e-02,  7.2824537754e-02, 
	 4.6054306440e-03,  7.9324580729e-02, -1.1529780924e-02, -3.4400139004e-02, -3.0069611967e-02,  3.8506746292e-02, -4.1775874794e-02, -1.5818374231e-02, -3.1966220587e-02,  4.9690431915e-03, 
	-7.7940165997e-02, -4.9427688122e-02,  6.0397058725e-02, -7.9682610929e-02, -6.4493075013e-02, -1.1050494388e-02,  5.9650894254e-02, -6.3828930259e-02, -1.6785279149e-03,  7.1740779094e-03, 
	 1.4397911727e-02, -5.8378614485e-02, -2.0593008026e-02, -4.5779738575e-02,  6.5258897841e-02, -3.8318786770e-02, -1.7647629604e-02, -2.7295235544e-02, -2.7613429353e-02,  4.5033204369e-03, 
	-7.7706471086e-02,  3.1580518931e-02, -6.0497563332e-02,  3.5751372576e-02, -4.8485752195e-02,  6.1100106686e-02,  3.2315567136e-02, -8.4277484566e-03, -7.1685180068e-02,  2.1104037762e-02, 
	-4.9665354192e-02,  4.7441639006e-02, -6.9482132792e-02,  7.6258733869e-02,  3.4866891801e-02, -2.7709890157e-02,  2.5694968179e-02, -6.6953860223e-02,  7.7108498663e-03, -2.5361619890e-02, 
	 1.8488861620e-02,  5.2301488817e-02, -5.6261714548e-02,  5.5073712021e-02, -1.0501372162e-04, -1.9345296547e-02, -4.3327722698e-02,  2.1754274145e-02,  5.4054435343e-02, -2.7744824067e-02, 
	-3.9436794817e-02, -4.8201978207e-02,  5.1650736481e-02, -9.8131382838e-03,  3.2981600612e-02,  3.4798990935e-02,  6.7009307444e-02,  3.2479126006e-02,  3.9877064526e-02,  3.5252530128e-02, 
	 1.4679078013e-02,  7.0487260818e-02, -6.4572066069e-02, -3.7081465125e-02,  5.8633513749e-02,  2.7267159894e-02, -4.3371513486e-02,  5.2980940789e-02, -4.3257433921e-02,  2.7086012997e-03, 
	 7.0004329085e-02,  5.3267795593e-03, -5.7653751224e-02,  6.6279582679e-02,  7.1034267545e-02, -1.2275503948e-02, -5.7999316603e-02, -2.8844762594e-02, -2.6061984245e-03,  6.2314841896e-02, 
	 6.1610870063e-02,  1.5511256643e-02, -2.1440885961e-02, -3.7122763693e-02, -3.2106477767e-02, -8.2730561495e-02,  7.8255813569e-03, -8.1169217825e-02,  4.1812371463e-02, -1.5816459432e-02, 
	-1.4051777311e-02,  5.0654802471e-03, -1.1642502621e-02, -1.6182316467e-02, -7.7575561590e-05, -4.7743737698e-02, -2.8345461935e-02,  6.6848121583e-02, -2.0392358303e-02, -1.7899218947e-02, 
	 7.3916278780e-02,  5.2478235215e-02, -1.4012446627e-02,  2.6478625834e-02, -1.8942929804e-02,  1.0809733532e-02,  2.9359525070e-04, -6.4097389579e-02,  8.1116184592e-02, -3.3835086972e-02, 
	 3.5990331322e-02,  3.9006195962e-02,  8.3207108080e-02,  6.5039463341e-02, -1.2711162679e-02,  4.0519073606e-02, -2.2455289960e-02, -4.2457308620e-02, -4.8272419721e-02,  2.4305770174e-02, 
	 2.9717467725e-02, -4.8375323415e-02,  1.9488010556e-02,  2.7944760397e-02,  3.6246482283e-02, -1.6461813822e-02, -6.6702350974e-02, -6.5412721597e-03, -2.4500343949e-02, -8.6554614827e-03, 
	 2.4962233379e-02, -6.4278267324e-02,  6.0866769403e-02, -6.7678563297e-02, -5.7770624757e-02, -5.2556332201e-02,  8.7031610310e-03, -4.4777449220e-02,  2.6315836236e-02, -7.9537881538e-03, 
	-2.0375603810e-02,  2.3392779753e-02,  1.7590720206e-02, -3.2580137253e-02, -4.4360201806e-02,  3.5793740302e-02, -4.4989921153e-02, -6.3455656171e-02,  9.0291230008e-03,  2.2807164118e-02, 
	-2.0452588797e-02, -6.5397530794e-02, -4.3722018600e-02, -6.4817734063e-02,  2.1859398112e-02,  4.0603533387e-02,  6.7123703659e-02, -8.3910692483e-03,  6.4318984747e-02,  4.1928440332e-02, 
	-4.0691909380e-03, -6.5284110606e-02, -6.3274647109e-03,  2.0747689530e-02, -4.1104644537e-02,  6.0713086277e-03,  4.8588324338e-02,  2.8438506648e-02, -3.1516451389e-02, -3.1972851139e-03, 
	 1.2395638973e-02,  1.1346477084e-02,  6.4293132164e-03,  4.2402070016e-02, -5.5013373494e-02,  1.3196171261e-02, -1.3827092946e-02,  1.6870949417e-02,  3.4273378551e-02,  2.2700572386e-02, 
	 4.9159299582e-02,  5.4839387536e-02,  6.7973516881e-02,  1.1202446185e-02,  6.1240639538e-02, -7.1447789669e-02,  5.8055389673e-02, -6.8930730224e-02, -2.7102341875e-02, -3.1001064926e-02, 
	-1.3345222920e-02, -5.7554826140e-02,  3.2825160772e-02,  5.3638868034e-02, -2.0200140774e-02,  5.2930422127e-02, -1.3441627845e-02,  5.6984357536e-02, -7.6117768884e-02,  1.7350157723e-02, 
	 6.1044577509e-02, -2.8865540400e-02, -1.2229266576e-02,  4.5493859798e-02,  4.8254802823e-02,  1.1816676706e-02,  2.3321488872e-02, -6.6117234528e-02,  7.6959118247e-02,  2.9875276610e-02, 
	 6.1077430844e-02,  6.4913049340e-02, -4.1805237532e-02, -4.8598144203e-02, -3.0916433781e-02,  6.0507170856e-02, -3.2462120056e-02, -4.3831571937e-02,  3.7097819149e-02, -5.2346959710e-03, 
	 5.9877283871e-02, -2.0957600325e-02, -5.6704998016e-02, -4.9272004515e-02, -3.9666686207e-02,  3.5722058266e-02,  6.6448546946e-02,  4.2739737779e-02, -2.7945714071e-02, -5.8463573456e-02, 
	-4.2988721281e-02,  5.2176717669e-02,  3.0570322648e-02, -1.1403519660e-02,  5.9788756073e-02,  7.5663238764e-02,  1.7901953310e-02, -2.3784548044e-02, -3.1772401184e-02, -7.4069418013e-02, 
	 1.1521157809e-02,  1.5598054742e-03,  7.0951342583e-02,  2.5151632726e-02, -3.3744782209e-02,  1.4569301158e-02,  4.5184012502e-02, -5.6741651148e-02, -4.3901201338e-02,  5.2339311689e-02, 
	 1.1853901669e-02,  7.2626054287e-02,  9.0098381042e-03,  2.6124909520e-02,  5.9264570475e-02, -2.8239173815e-02, -3.9315599948e-02, -1.6914635897e-02, -2.8309002519e-02, -6.9554643705e-03, 
	-1.1190434918e-02,  1.8238114193e-02,  6.0138847679e-02,  2.2152893245e-02,  3.3325936645e-02,  2.0757617312e-04, -1.3313893229e-02,  7.9303700477e-03,  1.5091206878e-02,  7.5377419591e-02, 
	 4.0064211935e-02,  7.2080632672e-03,  5.1518369466e-02, -7.4174581096e-03,  3.9849363267e-02, -3.3550113440e-02, -2.1718757227e-02,  4.6294849366e-02, -7.3591046035e-02,  4.9080699682e-02, 
	 2.8015445918e-02, -3.4714933485e-02,  2.7713195886e-03,  1.2195394374e-02, -7.7432647347e-02,  5.0504926592e-02, -2.7460502461e-02, -1.4730547555e-02,  4.5772727579e-02, -6.3868455589e-02, 
	 7.5152672827e-02,  5.7183589786e-02, -7.0126350038e-03,  1.0245522484e-02,  6.3986361027e-02,  3.4962762147e-02,  1.5287556686e-02,  4.3443851173e-02,  2.5590939447e-02,  9.9437851459e-03, 
	 4.7185398638e-02,  5.2151907235e-02, -6.9681525230e-02, -7.1643404663e-02,  2.3398410529e-02, -1.5592538752e-02,  8.9682154357e-03, -6.5167255700e-02,  5.9331193566e-02,  5.8508859947e-03, 
	 6.6849052906e-02,  4.1740238667e-03,  4.1565600783e-02,  6.7573584616e-02,  6.8600267172e-02,  2.3484747857e-02, -3.0663188547e-02,  6.4085833728e-02,  1.4278372750e-02,  1.6272518784e-02, 
	-5.3154937923e-02, -7.1663722396e-02, -5.3297072649e-02,  5.1950912923e-02,  3.4306678921e-02,  1.3307402842e-03,  3.6901053041e-02,  2.3551963270e-02,  2.9990368057e-03,  2.6488672942e-02, 
	-5.2072580904e-02, -7.7410109341e-02,  5.5726714432e-02, -4.0020965040e-02,  3.2003104687e-02, -5.8653503656e-02,  2.2006740328e-03,  7.5903241523e-03,  3.5861350596e-02, -5.4693080485e-02, 
	-6.6509820521e-02,  2.9982825741e-02, -6.4563915133e-02,  3.5263426602e-02, -6.5193608403e-02,  1.3474660926e-02, -1.1915503070e-02,  4.0717623197e-03,  8.6979055777e-03,  1.8176555634e-02, 
	-5.3324654698e-02,  5.1559593529e-02,  3.1667549163e-02, -4.8951670527e-02,  5.9541631490e-02,  7.0286512375e-02, -6.3879735768e-02, -3.5896278918e-02, -7.4556067586e-02, -3.6509621888e-02, 
	-9.7869790625e-04, -5.7017996907e-02,  7.4955597520e-02, -7.4341617525e-02,  1.3003220782e-02, -4.9792498350e-02, -3.9506580681e-02,  1.7450638115e-02, -7.0067912340e-02,  3.9915382862e-02, 
	 1.2896941975e-02, -1.7117267475e-02, -5.2018072456e-02, -5.4960735142e-02, -4.6075504273e-02,  3.3271227032e-02, -7.5981282862e-04,  4.6362355351e-02, -2.2158440202e-02, -5.6386198848e-03, 
	-4.2704124004e-02, -3.6998730153e-02, -4.1558630764e-02,  2.4326562881e-02, -5.5615998805e-02, -5.4962817580e-02, -6.2545731664e-02,  3.9387205616e-03, -4.4985264540e-02,  8.0019988120e-02, 
	-5.0974544138e-03, -5.5713136680e-03,  4.5077543706e-02,  3.9352469146e-02,  2.2196481004e-02,  6.3120625913e-02, -9.6715576947e-03,  4.5086190104e-02,  5.7726134546e-03, -7.7650576830e-02, 
	 9.1068836628e-04,  6.6048234701e-02, -6.2965460122e-02,  1.2980332598e-02,  3.7918347865e-02, -4.7965731472e-02, -7.1239009500e-02,  5.7833717437e-04, -1.4998810366e-02,  5.0782054663e-02, 
	 6.8389534950e-02, -1.5850180760e-02, -6.4087100327e-02, -6.6973812878e-02, -6.1659671366e-02, -3.9866242558e-02,  7.8039139509e-02, -6.9669291377e-02,  1.2292700820e-02,  3.7866823375e-02, 
	-4.5252867043e-02, -6.2034621835e-02, -5.5709753186e-02,  5.9978645295e-03, -6.7878089845e-02,  2.7583990246e-02,  3.1189348549e-02,  3.4599900246e-02,  8.9581077918e-04, -9.7238196759e-04, 
	 3.2128985971e-02,  3.9369318634e-02,  6.5577283502e-02,  1.2203214690e-02, -7.1258805692e-03,  3.1628115103e-03,  3.8017924875e-02,  7.0670112967e-02,  4.2455300689e-02, -2.1113369614e-02, 
	 6.2778338790e-02,  5.9507235885e-02, -6.4117141068e-02, -2.8025161475e-02,  4.0876824409e-02,  3.9845645428e-02, -3.5200674087e-02,  3.1050026882e-03,  1.1732675135e-02,  2.2572824731e-02, 
	 2.9704898596e-02, -5.3487554193e-02,  7.0156259462e-03,  1.9141806290e-02,  4.9095559865e-02, -4.1496541351e-02, -5.1993865520e-02, -2.8398999711e-04, -5.1563292742e-02,  2.6587342843e-02, 
	 6.7788258195e-02, -1.1726934463e-02, -2.1309029311e-02, -6.6846869886e-02, -8.0283563584e-03,  3.8247801363e-02, -1.7994128168e-02,  6.7781999707e-02, -5.2833843976e-02, -5.2435519174e-03, 
	-7.8744709492e-02,  7.2002470493e-02,  2.1508635953e-02, -7.2129532695e-02, -4.7943506390e-02,  5.0056796521e-02, -2.9594728723e-02, -3.5336200148e-02, -2.6314484421e-03,  5.4783601314e-02, 
	-4.5231815428e-02, -3.5060010850e-02,  6.8205118179e-02,  4.8365086317e-02, -3.2212898135e-02, -5.8533258736e-02, -5.2589211613e-02, -3.3162150532e-02,  1.1585754342e-02,  3.6023002118e-02, 
	 7.3371700943e-02,  2.6639787480e-02, -6.4093373716e-02,  4.0653903037e-02,  3.4251576290e-03, -3.6589782685e-02,  5.8362808079e-02, -4.2236078531e-02,  2.0940342918e-02,  8.2104846835e-02, 
	 6.5019115806e-02,  3.4719507676e-03, -5.1816206425e-02,  6.6008180380e-02, -5.2673377097e-02,  3.2161753625e-02, -3.6735463887e-02,  6.4286426641e-03,  6.8346060812e-02, -4.4392137788e-03, 
	-6.1793223023e-02, -1.0624029674e-02,  2.3894656450e-02,  1.2474712916e-02, -4.5284170657e-02,  5.3537990898e-02, -4.7197088599e-02, -2.4496095255e-02,  1.6012704000e-02,  2.9035069048e-02, 
	 1.4724770561e-02, -3.1424156623e-04, -7.7411495149e-02, -2.5449167006e-03, -6.9138929248e-02, -5.0409387797e-02,  1.5420709969e-03,  3.0968392268e-02,  1.0437847115e-02, -6.4690471627e-03, 
	-6.9050244987e-02,  6.4988747239e-02, -7.3263660073e-02,  7.6393946074e-03,  5.8228470385e-02, -4.9751318991e-02, -3.3083755523e-02,  3.2551322132e-02,  6.7268215120e-02, -1.1003635824e-02, 
	 5.2587356418e-02,  2.5810752064e-02, -1.0043775663e-02, -4.9511663616e-02, -6.4646311104e-02,  5.0423901528e-02,  1.5711070970e-02,  1.3788134092e-03, -1.4946866781e-02, -4.2285244912e-02, 
	-2.2699445486e-02,  6.0951307416e-02,  6.4582903869e-03,  2.0667565987e-02, -3.2450056169e-03,  2.8097370639e-02, -4.5222800225e-02,  4.5937169343e-02, -6.7910174839e-03, -6.0794074088e-02, 
	-6.6374570131e-02,  5.1239039749e-02, -2.9252581298e-02,  5.1157111302e-03,  1.2502362020e-02, -1.9865658134e-02, -7.1666665375e-02,  6.0664609075e-02, -8.0079957843e-03,  5.0314646214e-02, 
	 3.5592683125e-03, -7.9846017063e-02, -8.7840724736e-03, -6.0778018087e-02, -4.1701365262e-02,  5.7723205537e-02, -5.2998263389e-02,  1.9017014420e-03,  1.8445666879e-02,  6.8563677371e-02, 
	 1.0738788173e-02, -5.6481506675e-02,  4.3311260641e-02, -1.8281808123e-02,  6.6659547389e-02, -2.6362823322e-02, -2.3111285642e-02,  3.4560751170e-02, -4.0461249650e-02, -5.3618535399e-02, 
	 5.2679520100e-02, -5.9477902949e-02,  3.3247906715e-02, -6.8282894790e-03, -7.8455165029e-02,  2.4813632481e-03,  3.3493164927e-02,  9.0816356242e-03,  1.7781117931e-02, -1.7769591650e-03, 
	 3.8898516446e-02, -4.3830625713e-02, -6.4493805170e-02,  6.2713742256e-02,  3.1603060663e-02, -7.2125568986e-02,  2.5076758116e-02, -7.4189186096e-02, -3.8514092565e-02,  2.0887311548e-02, 
	 2.1745571867e-02, -5.6880131364e-02, -5.7565622032e-02,  4.8600461334e-02,  8.0640157685e-03, -2.5796314701e-02, -5.0107035786e-02,  5.8124125004e-02,  3.6342851818e-02, -6.5338611603e-02, 
	 2.3595193401e-02, -7.4723823927e-03,  5.6753996760e-02, -5.4341416806e-02,  3.0310982838e-02,  6.7908152938e-02, -6.4549639821e-02, -6.2035128474e-02, -5.7142578065e-02,  4.2169071734e-02, 
	 1.4542102814e-02,  3.4197092056e-02,  6.0888167471e-02, -4.5358821750e-02, -6.7881368101e-02,  3.1162820756e-02, -7.0113882422e-02, -1.7730046064e-02, -3.2289825380e-02, -4.7165490687e-02, 
	 4.9549981952e-02, -1.6194690019e-02, -7.0347115397e-02, -6.6417075694e-02,  5.7560659945e-02, -3.9660114795e-02, -4.6865496784e-02, -1.9224228337e-02,  5.7063985616e-02, -2.3726733401e-02, 
	-7.8349210322e-02,  6.2814213336e-02, -5.6476709433e-03, -3.5635940731e-02, -1.6930639744e-02, -1.0775024071e-02, -1.8831707537e-02, -5.4011575878e-02, -3.7123087794e-02, -3.7687581498e-03, 
	 4.7482043505e-02,  3.8188219070e-02, -3.4799598157e-02,  6.1026144773e-02, -5.5792205036e-02,  2.4595952127e-03, -5.2537381649e-02, -3.0215630308e-02, -2.8701229021e-03, -8.6054867133e-03, 
	 4.3824547902e-03,  2.9104376212e-02, -5.9246931225e-02, -6.0583325103e-03, -2.6680773124e-02, -1.4909498394e-02, -1.7187897116e-02, -7.6515972614e-02, -3.0681233853e-02,  7.6259681955e-03, 
	 7.3315943591e-03,  5.9088978916e-02,  3.8980461657e-02, -3.1159978360e-02,  6.7558591254e-03, -3.8769233972e-02, -7.3120467365e-02,  4.5851312578e-02, -8.3501115441e-03,  6.7598320544e-02, 
	 6.2061265111e-02,  4.0339492261e-02,  3.0246553943e-02, -3.5089716315e-02, -1.3139300048e-02, -1.5622546896e-02, -3.7039846182e-02,  3.0560540035e-03, -1.6267027706e-02, -1.2136512436e-02, 
	 6.7930586636e-02, -1.9012069330e-02,  2.7153564617e-02, -4.8181694001e-02, -2.3988723755e-02,  5.2997134626e-02,  4.6896174550e-02,  5.3045924753e-02,  2.9520078097e-03,  1.5515950508e-02, 
	-2.5962442160e-02, -2.8487941250e-02, -5.5579196662e-02,  3.4300372005e-02, -3.8829136640e-02,  6.2905219384e-03, -1.1114411987e-02, -2.1286461502e-02,  6.5441444516e-02, -1.4775529504e-02, 
	-4.9907233566e-02,  5.2058976144e-03, -5.5849343538e-02,  4.0681380779e-03,  1.6733679920e-02, -3.0944531783e-02, -4.2754832655e-02, -8.1240339205e-03, -6.1211280525e-02,  2.2719452158e-02, 
	 4.2414769530e-02, -7.5707733631e-02,  5.3071435541e-02, -5.2983410656e-02, -4.0999073535e-02,  3.9937119000e-03,  4.3916277587e-02,  2.3482926190e-02, -7.3091469705e-02,  5.6920435280e-02, 
	 5.9213312343e-03, -4.9423787743e-02,  6.0381148010e-02, -6.2443993986e-02, -3.5371545702e-02,  3.2889362425e-02,  4.6265807003e-02, -1.6758305952e-02, -5.0245635211e-02, -3.2122347504e-02, 
	-6.4121872187e-02,  4.1418951005e-02, -6.3592486084e-02,  4.8045147210e-02, -5.4326578975e-02,  1.9193962216e-02, -1.7654458061e-02, -7.4712209404e-02,  3.8449984044e-02,  9.4396211207e-03, 
	-2.2311095148e-02,  4.7857541591e-02,  2.0841475576e-02, -2.5486195460e-02,  8.2071777433e-03, -4.6151731163e-02, -3.9522781968e-02,  3.1188670546e-02, -3.8709456567e-03, -7.4810117483e-02, 
	-2.3658687249e-02,  6.7736092024e-04,  1.8720144406e-02,  6.0955718160e-02,  2.8927886859e-02,  5.0267457962e-02, -4.4905925170e-03, -2.0595351234e-03,  2.2908244282e-02,  6.2369879335e-02, 
	-1.8163194880e-02,  5.1200639457e-02, -1.8056057394e-02, -1.9120601937e-02,  4.4912528247e-02,  5.7470872998e-02, -2.5665299967e-02, -1.5350514092e-02, -4.2110886425e-02, -4.1277240962e-02, 
	 5.0318893045e-02, -1.8671575934e-02,  2.5381274521e-02,  1.2500348501e-02, -7.8781791031e-02,  5.0234541297e-02,  6.3285417855e-02,  6.5280437469e-02,  4.7991562635e-02,  2.2616354749e-02, 
	-3.5904981196e-02, -5.1284223795e-02, -5.8877009898e-02, -3.8687169552e-02, -2.7670334093e-03, -2.3082660511e-02,  5.2302483469e-02, -6.8914636970e-02,  5.1982268691e-02,  4.4708722271e-03, 
	-7.1065328084e-03, -4.4330660254e-02, -6.0490951873e-03,  7.3856294155e-02, -1.8561290577e-02,  4.5176681131e-02, -4.7266740352e-02, -7.2631336749e-02,  5.9171918780e-02, -2.3529198021e-02, 
	 3.4792821854e-02, -4.8288699239e-02,  5.2067320794e-03, -5.0512704998e-02,  5.0694629550e-02,  2.2685442120e-02,  3.6751184613e-02,  3.1299065799e-02,  5.6051805615e-02, -1.2908830307e-02, 
	-4.2804226279e-02,  2.5841994211e-03,  2.8573321179e-02,  1.8805870786e-02,  2.4273978546e-02, -3.2868538052e-02,  5.9984069318e-02,  4.8534039408e-02, -4.2329151183e-02, -4.0589202195e-02, 
	 1.0197116993e-02,  1.6107706353e-02,  3.1744513661e-02, -1.7823264003e-02,  5.5005331524e-03, -7.2897978127e-02, -4.4917438179e-02, -4.3697807938e-02,  4.2239734903e-03, -3.4943278879e-02, 
	-1.9226534292e-02, -2.3104110733e-02,  1.1665984988e-02, -7.6224105433e-03,  3.0840503052e-02, -1.3168704696e-02, -5.0909221172e-02,  2.2902367637e-02, -2.3040957749e-02, -3.7982132286e-02, 
	 2.0767105743e-02, -7.5321771204e-02,  6.3110344112e-02, -1.9311629236e-02,  1.1474691331e-02,  2.5043118745e-02, -1.2130114250e-02,  4.0332686156e-02, -2.9057797045e-02, -4.8963066190e-02, 
	-4.9602460116e-02,  7.2526693344e-02,  1.0408044793e-02,  6.5941646695e-02, -4.9536984414e-02, -2.2884430364e-02,  4.3778672814e-02,  5.1642913371e-02, -3.8781840354e-02,  1.6864055768e-02, 
	-5.4028227925e-02,  5.4169494659e-02, -2.6432681829e-02,  1.8814979121e-02, -3.3831469715e-02, -2.8805524111e-02, -5.1748145372e-02,  4.8555336893e-02,  4.8115197569e-02,  2.5010835379e-02, 
	-1.2978669256e-02,  1.6053168103e-02,  4.2306883261e-03, -6.7230671644e-02,  7.5270131230e-02, -2.5230836123e-02, -3.8159184158e-02,  3.6092013121e-02,  5.9044786030e-04,  3.2384805381e-02, 
	-5.2464220673e-02, -7.0424109697e-02, -1.8184367567e-02,  4.4833563268e-02, -6.9802135229e-02,  3.0184628442e-02, -7.2664052248e-02,  4.8707395792e-02,  3.0476342887e-02, -5.2731111646e-02, 
	-2.5795731694e-02,  4.1917875409e-02,  6.3515745103e-02,  7.0748567581e-02,  4.1686326265e-02, -3.2414365560e-02, -3.7676554639e-03,  4.0469458327e-03,  4.3473664671e-02, -4.8927247524e-02, 
	-6.7848414183e-02, -3.3964671195e-02, -7.0028699934e-02, -2.0390044665e-04, -2.4295838550e-02,  6.1977453530e-02,  6.8609021604e-02, -7.3553495109e-02, -1.9362114836e-03, -3.3884052187e-02, 
	 6.9074034691e-02,  3.0859736726e-03,  3.3053912222e-02,  4.0069468319e-02,  2.9440056533e-03,  5.6368517689e-03,  2.4592293426e-02,  3.5692974925e-02,  1.0375141166e-02,  8.1635713577e-03, 
	-2.5640852749e-02,  7.6641552150e-02, -7.1931883693e-02, -2.9354460537e-02,  5.0169300288e-02,  4.4099524617e-02,  6.0568705201e-02, -7.0019359700e-03, -3.3990569413e-02, -6.4856998622e-02, 
	 5.1922857761e-02, -1.0243109427e-02, -6.8043661304e-03, -6.8471617997e-02,  1.6870914027e-02, -6.2922313809e-02,  4.0132012218e-02, -7.6501764357e-02, -1.7721174285e-02, -4.7054633498e-02, 
	-7.8166583553e-03, -9.1205816716e-03,  3.9386723191e-02, -1.5515515581e-02, -3.3137161285e-02,  5.7662162930e-02,  5.2195418626e-02, -2.3572614416e-02,  4.4128380716e-02,  3.9964109659e-02, 
	-1.1309063993e-02,  3.4358322620e-02,  8.7811406702e-03,  8.8757993653e-03, -2.6359742507e-02,  2.7795933187e-02, -3.9341490716e-02,  2.7698135003e-02,  3.6564033478e-02, -3.0553806573e-02, 
	-4.0195330977e-02, -8.3334650844e-04,  3.3564162441e-03,  4.9301169813e-02,  7.9091653228e-02, -3.2562535256e-02,  3.1329814345e-02,  6.6108636558e-02,  9.1170019004e-04, -2.5700617582e-02, 
	-1.8249696121e-02,  7.5285941362e-02, -7.3679231107e-02, -7.1280702949e-02, -7.6929911971e-02, -3.6626555026e-02, -5.5492356420e-02, -3.7693817168e-02,  3.0216155574e-02, -4.3025411665e-02, 
	-7.0031590760e-02,  3.0589038506e-02, -3.6624579225e-03,  4.6902596951e-02, -5.8574497700e-02,  3.2232828438e-02,  2.1709728986e-02, -5.4054283537e-03,  3.5522166640e-02, -6.1687350273e-02, 
	 1.5035225078e-02,  6.8699352443e-02, -6.9338478148e-02, -5.7720607147e-03, -5.1312111318e-02, -3.5890515894e-02, -4.8850983381e-02,  5.1766652614e-02, -5.4003377445e-03, -5.9904046357e-02, 
