#ifndef PARAMS_CONV2D_6_H
#define PARAMS_CONV2D_6_H
#include "params.h"

const float layer_6_conv2d_weight[UNET_PAR_6_CONV2D_KERNEL_Y*UNET_PAR_6_CONV2D_KERNEL_X*UNET_PAR_6_CONV2D_IN_FILTER*UNET_PAR_6_CONV2D_OUT_FILTER] = {
	-8.9717067778e-02,  1.5042533632e-03,  2.2984381765e-02,  1.9522809889e-03,  8.1201486290e-02, -5.2111621946e-02,  6.5290205181e-02,  7.1221485734e-02, -5.0106864423e-02, -3.1808305532e-02, 
	-3.0418282375e-02,  1.6699396074e-02,  7.4462862685e-03, -1.0270789266e-01,  1.1184307188e-01, -3.9530724287e-02,  1.6642101109e-02,  4.7872178257e-02, -4.5140460134e-02, -7.4384929612e-03, 
	-6.1651065946e-02, -4.5598141849e-02,  1.0002836585e-02,  6.9062463939e-02,  4.5739404857e-02, -1.2121971697e-01, -7.6947040856e-02,  1.2799240649e-02,  7.3469035327e-02,  5.4789405316e-02, 
	-1.2625075877e-01,  7.1358382702e-02, -3.6130342633e-02, -8.8955253363e-02, -6.6391885281e-02, -8.5260290653e-03, -1.0973930359e-01, -4.0684640408e-02,  3.3285751939e-02, -1.2122463435e-02, 
	-1.3421157002e-01, -4.3696627021e-02,  5.9771090746e-03, -1.0571385175e-01, -7.4682660401e-02, -1.3149197400e-01,  1.0079380125e-01, -2.0245095715e-02, -9.2712253332e-02, -8.8793508708e-02, 
	 1.9861221313e-02,  9.5349423587e-02, -1.3008955121e-01,  1.4614671469e-02, -9.3417860568e-02, -1.0587491095e-01, -2.8040017933e-02,  9.4299226999e-02, -6.8172641098e-02,  9.1574296355e-02, 
	 1.0246086121e-01,  1.1530594528e-01, -1.2186421454e-01, -1.3140939176e-01, -1.4699295163e-02, -6.0545042157e-02,  2.1073253825e-02, -1.2358172238e-01,  8.1337817013e-02, -7.5847633183e-02, 
	 9.4728782773e-02, -1.0112053156e-01, -2.5777563453e-02,  1.3194276392e-01, -6.4687216654e-03, -2.3693177849e-02,  8.7980881333e-02,  1.1646662652e-01,  5.1705397666e-02, -1.1406873167e-01, 
	 9.7877889872e-02, -5.3053140640e-02, -1.1313475668e-01,  1.6455471516e-02,  4.7582350671e-02,  8.4479294717e-02,  2.3815771565e-02, -5.2020560950e-02, -2.3211846128e-02, -1.1622711085e-02, 
	 1.5955911949e-02,  6.7123442888e-02, -6.7709587514e-02, -3.1744532287e-02, -1.7253315076e-02, -9.8239384592e-02, -8.3009423688e-03,  8.2455478609e-02,  8.8658280671e-02, -9.2627465725e-02, 
	 1.0873490013e-02,  1.8925998360e-02, -1.6687072814e-02, -1.0209198296e-01, -1.1462447047e-01, -1.1953462660e-01, -1.2713147327e-02, -5.3021293133e-02,  8.7163746357e-02, -3.6439001560e-02, 
	-1.1194618046e-01,  9.3726716936e-02, -2.6798343286e-02, -9.9202215672e-02, -7.8259795904e-02, -1.0256718099e-01, -5.6972805411e-02, -9.7871739417e-03,  1.0895653069e-01,  4.5691102743e-02, 
	-9.9135242403e-02, -4.7182917595e-02, -6.8778991699e-02, -5.0528969616e-02,  8.6213625968e-02,  4.9501590431e-02,  1.7703179270e-02,  8.3354331553e-02, -1.7313119024e-02, -1.1906601489e-01, 
	 3.4467700869e-02,  9.7848042846e-02,  9.0022020042e-02, -1.1587819085e-02,  7.6052442193e-02,  4.0006987751e-02, -6.1711367220e-02,  1.1797730625e-01,  2.6827299967e-02, -2.9311150312e-02, 
	 1.9148876891e-02, -1.0797541589e-01,  1.2005747855e-01, -8.2410223782e-02, -1.3447970152e-01, -1.0438589752e-01, -9.0757913888e-02, -8.3569653332e-02, -2.7626534924e-02, -3.6101076752e-02, 
	-1.5319403261e-02, -5.2236695774e-03, -1.2160026282e-01, -7.8899502754e-02, -6.0308821499e-02, -6.0947168618e-02, -5.9138260782e-02,  1.1543829739e-01, -6.4386822283e-02,  2.4391053244e-02, 
	 2.6687474921e-02, -1.9868420437e-02,  5.4599843919e-02, -1.2511692941e-01, -1.3763900101e-01,  5.8774258941e-03,  9.2543184757e-02,  4.6446193010e-02, -7.6505497098e-02, -1.0493272543e-01, 
	 8.5810400546e-02,  2.8131389990e-03,  1.1081193388e-01, -1.8376100808e-02, -5.0316438079e-02, -7.4862934649e-02,  9.2673085630e-02, -7.5167387724e-02,  3.9748910815e-02,  4.8461381346e-02, 
	-2.4220544845e-02, -1.0627774149e-01,  1.0144216567e-01,  1.0394908488e-01, -9.1743715107e-02,  9.6923284233e-02, -4.7846317291e-02, -2.8962507844e-02,  5.6702654809e-02, -9.2759996653e-02, 
	 6.3117861748e-02, -5.0749316812e-02, -7.2396486066e-03,  8.0157339573e-02, -1.1706522852e-01, -5.3341310471e-02,  6.3375107944e-02,  2.0158089697e-02,  1.0545199364e-01, -7.6945602894e-02, 
	 4.6447828412e-02, -1.2453266978e-01, -8.3806350827e-02,  5.2079573274e-02, -1.2759622931e-01, -3.4080523998e-02, -6.0534857213e-02, -1.2280975282e-01, -9.8109647632e-02, -9.5633052289e-02, 
	-1.0185681283e-02, -1.2384378165e-01,  1.4487049542e-02,  3.6267247051e-02, -3.4273434430e-02, -1.2647025287e-01,  1.1449852586e-01, -1.0070922971e-01,  2.9940983281e-02,  6.0072895139e-02, 
	-6.0408148915e-02, -1.0670059919e-01,  2.3515338078e-02,  5.9447836131e-02,  3.1040135771e-02,  7.7445946634e-02, -5.3907703608e-02,  8.8946007192e-02, -5.1428917795e-03,  5.4036807269e-02, 
	 1.2203158438e-01, -9.4153165817e-02,  5.0581343472e-02, -5.6793093681e-02,  8.5476242006e-02, -9.9846489727e-02,  7.9713627696e-02,  6.6475339234e-02, -5.0682526082e-02, -8.1387124956e-02, 
	-2.6046290994e-02,  1.1671089381e-01, -2.9466615990e-02,  2.3442141712e-02,  1.2762433849e-02, -5.9143388644e-03,  2.5460973382e-02,  2.5557506830e-02,  1.1700800387e-03,  8.9127868414e-03, 
	-9.1147199273e-02, -2.0484257489e-02,  8.7085723877e-02,  1.9110858440e-02, -7.8162118793e-02,  7.5804874301e-02, -5.7991340756e-02, -1.0139703751e-02, -2.0688861609e-02,  2.1134741604e-02, 
	-1.1261470616e-01, -1.0826108977e-02,  5.7783849537e-02, -6.0053642839e-02,  4.9261488020e-02,  4.4387087226e-02, -1.2598443031e-01, -3.1242154073e-03,  7.1703740396e-03,  5.3091421723e-02, 
	 9.8850488663e-02,  1.2435862795e-02, -7.3710605502e-03,  1.0173679888e-01, -8.7271690369e-02, -9.9536776543e-02,  9.9370650947e-02,  2.7215940645e-04, -1.3280954957e-01, -7.7682256699e-02, 
	-1.0065420717e-01, -2.2464592010e-02,  1.2809240818e-01,  9.4751134515e-02, -3.0681947246e-02,  8.4001515061e-03,  1.1783006787e-01, -1.6448903829e-02,  8.9458927512e-02, -1.2418396771e-01, 
	-3.8613706827e-02, -9.1208145022e-02,  4.9198422581e-02, -8.5277808830e-03,  5.9103641659e-02, -1.4648139477e-02, -1.0248295963e-01, -1.1072721332e-01, -1.2057320774e-01, -1.0319391638e-01, 
	 5.3529287688e-03, -5.7100079954e-02,  1.9238967448e-02, -8.7045244873e-02,  8.8694356382e-02, -1.8977299333e-02,  8.9666843414e-02,  5.2662212402e-02,  3.1027724966e-02,  1.0041284561e-01, 
	 7.1086175740e-02, -7.6747126877e-02,  6.0323670506e-02, -1.0616692714e-02, -8.1803835928e-02,  1.0831137747e-01, -8.9620448649e-02,  1.9661460072e-02, -6.9394424558e-02, -2.7390712872e-02, 
	 6.4720280468e-02, -7.9782838002e-03,  5.0013329834e-02,  6.1819907278e-03, -2.4525785819e-02, -5.9510976076e-02, -4.6020321548e-02,  9.1200232506e-02,  8.1447675824e-02, -3.8644419983e-03, 
	 1.1753986776e-01,  3.4363329411e-02, -3.3362794667e-02, -8.7579684332e-03, -1.0129377246e-01, -2.0168654621e-02, -6.5897569060e-02, -1.1779707670e-01,  1.2977129780e-02,  3.8839746267e-02, 
	-8.1330411136e-02, -9.8685650155e-03,  1.2521675229e-01, -1.1835762858e-01,  8.8400050998e-02, -2.7870237827e-02, -1.0928903520e-01, -6.1747904867e-02,  3.2458172645e-03,  1.2729264796e-01, 
	 2.4853575975e-02,  6.7813590169e-02,  4.6270515770e-02,  2.4653594941e-02, -4.1095394641e-02,  1.3139879331e-02, -1.2033791095e-01,  1.2193839252e-01, -9.1420695186e-02, -8.2978695631e-02, 
	-4.9604453146e-02,  9.2170953751e-02, -6.3548393548e-02, -1.2305821478e-01, -4.9966286868e-02, -7.8472763300e-02,  1.0839486867e-01,  7.0430986583e-02, -4.3662842363e-02, -1.0375989228e-01, 
	-4.0244642645e-02, -5.7910893112e-02,  8.0665230751e-02, -4.6718981117e-02, -3.7003617734e-02,  8.8865898550e-02, -1.3929381035e-02,  7.9461060464e-02, -9.0193413198e-02, -1.7512282357e-02, 
	 1.4569571242e-02,  3.9736986160e-02,  1.4149322174e-02, -4.2723286897e-02, -1.1989954114e-01,  3.4961152822e-02,  9.1363480315e-03, -3.4365091473e-02,  3.8293134421e-02, -4.4191587716e-02, 
	-1.5270566568e-02, -7.5437285006e-02,  1.1612711102e-01, -1.1191923916e-01, -2.3804204538e-02, -9.7234755754e-02, -3.8154877722e-02,  9.1539539397e-02, -9.3445647508e-03, -2.4619771168e-02, 
	 1.0812906176e-01, -1.0293977708e-01,  2.4832898751e-02, -1.1286772788e-01, -1.2470190972e-01,  8.9811891317e-02, -7.5810082257e-02,  4.2371400632e-03, -5.8621827513e-02, -1.2148059905e-01, 
	 6.3431985676e-02, -8.6802862585e-02,  1.6744278371e-02, -8.0814763904e-02, -1.3073900342e-01,  2.6955399662e-02, -1.0685442388e-01, -1.3201129436e-01,  1.1264424771e-01, -5.6713212281e-02, 
	-8.8183768094e-02,  4.3531548232e-02, -1.9632989541e-02,  5.6122839451e-02, -5.8883085847e-02,  5.3852375597e-02, -1.2690237164e-01,  6.8452909589e-02, -1.0809443146e-01,  7.2425566614e-02, 
	-1.0320756584e-01,  3.6919876933e-02,  4.5611098409e-02,  5.3941655904e-02, -1.5497148968e-02, -1.3848239183e-01,  1.7562936991e-02, -4.1408907622e-02,  7.0112325251e-02, -1.1091843992e-01, 
	-7.1015954018e-04,  5.4713509977e-02,  9.8722718656e-02,  5.9162013233e-02,  9.6129275858e-02, -9.6333123744e-02,  5.1705062389e-02,  3.7480942905e-02,  4.4903866947e-02,  5.7473074645e-02, 
	 1.1728935689e-01,  1.2057216465e-01, -2.7619590983e-02, -1.2033270299e-01,  6.4841955900e-02, -9.2107601464e-02,  7.5378321111e-02, -8.7877392769e-02,  1.1916842312e-01,  3.1664524227e-02, 
	 8.1389248371e-02, -9.5518499613e-02,  1.0520125926e-01, -2.1466892213e-03, -1.3119588792e-01, -6.9364868104e-02, -1.2762914412e-03,  1.0720197856e-01,  5.3818095475e-02, -6.7351102829e-02, 
	-5.9063956141e-02, -5.9723645449e-02,  3.1044997275e-02,  1.0354080796e-01,  1.0390581191e-01, -8.2143351436e-02, -7.0286512375e-02, -4.4650487602e-02,  9.7364284098e-02, -8.8647287339e-03, 
	-2.6279911399e-02, -1.1993928254e-01, -8.3396308124e-02, -1.6405038536e-02,  1.0111727752e-02, -1.8676631153e-02, -7.4781528674e-03, -1.1753369868e-01,  5.9319678694e-02, -1.1607587337e-01, 
	-8.8386327028e-02,  2.8911214322e-02,  5.6241258979e-02, -1.7642565072e-02,  7.7607030980e-03, -7.3669970036e-02, -4.4647954404e-02,  6.8168163300e-02,  1.1879359931e-01, -2.2025983781e-02, 
	 5.5916018784e-02, -1.1229726672e-01, -8.9363649487e-02, -2.3737706244e-02,  5.6586887687e-02, -1.1647587642e-02, -9.3165889382e-02, -9.0858362615e-02,  1.1370905675e-02,  1.1784674972e-01, 
	-1.1801305413e-01,  8.7704524398e-02,  4.5773483813e-02, -5.2123147994e-02,  8.2087822258e-02, -1.0296334326e-01, -2.8285825625e-02,  4.1351750493e-02, -2.0683668554e-02, -7.9678319395e-02, 
	 6.7759834230e-02, -7.0909373462e-02,  1.0463553667e-01, -1.1334459484e-01, -1.0023810714e-01, -1.0976918787e-01,  7.6275750995e-02, -2.6737772860e-03, -8.1446714699e-02,  1.1087261140e-01, 
	-4.1845947504e-02, -3.9849646389e-02, -2.8094351292e-02,  3.0615499243e-02,  3.7463556975e-02,  1.1429820210e-01,  1.2602341361e-02,  8.7095573545e-02,  1.6764435917e-02,  1.9599752501e-02, 
	 6.6940315068e-02, -1.2767510116e-01,  6.4065344632e-02,  4.2044673115e-02, -1.2922814488e-01, -1.0663452744e-01, -1.2437653542e-01,  8.0880299211e-02,  6.8858198822e-02, -1.1634691805e-01, 
	-1.9006585702e-02, -1.1314897239e-01,  4.6584759839e-03,  9.7549103200e-02, -9.2009186745e-02, -6.7880779505e-02,  5.4317433387e-02,  5.7020679116e-02, -4.3532741256e-03, -3.8960799575e-02, 
	-1.0648388416e-01,  3.7169422954e-02, -4.8762515187e-02, -2.7808876708e-02,  5.4979886860e-02,  9.8476812243e-02, -7.6987527311e-02, -3.6331883166e-03, -5.1229530945e-03,  1.0324064642e-01, 
	-1.5143808909e-02,  6.8385481834e-02, -1.3543233275e-01, -1.1298755556e-01,  6.8689763546e-02,  3.8126144558e-02,  9.9460147321e-02, -1.8795588985e-02,  4.7894474119e-02, -9.6507899463e-02, 
	-8.9935675263e-02,  8.4171958268e-02, -7.4921391904e-02,  7.4015513062e-02, -2.3437926546e-02,  3.9741471410e-02,  3.8640826941e-02, -9.8138563335e-02, -1.3407106698e-01, -7.7108931728e-03, 
	-1.9901221618e-02, -2.6022849604e-02,  4.8392869532e-02,  7.8205525875e-02,  2.0801853389e-02, -8.2879468799e-02, -1.4230382629e-02, -7.7157445252e-02,  7.0735965855e-03, -9.4399742782e-02, 
	 5.6157797575e-02, -1.1134348810e-01, -1.2855604291e-01,  8.1668511033e-02, -1.1856272817e-01, -5.3078368306e-02, -9.5906615257e-02, -1.0876993835e-01,  6.5012094565e-03,  1.8814697862e-02, 
	 5.1113717258e-02,  7.9100228846e-02, -1.1976175755e-01,  5.5307254195e-02, -1.1243192106e-01, -4.1701517999e-02,  7.3973387480e-02, -7.8798182309e-02, -4.6578869224e-02, -9.3268349767e-02, 
	 2.1914798766e-02,  4.0512792766e-03, -1.0377861559e-01,  1.0881463438e-01, -9.2081211507e-02, -4.6891205013e-02, -1.6587024555e-02,  8.8317975402e-02,  8.0334302038e-03,  7.3889359832e-02, 
	 6.3675269485e-02, -1.0818038881e-01, -1.2540757656e-01,  7.6453603804e-02, -1.4831232838e-02,  4.1240464896e-02,  3.5411342978e-02, -1.0502105206e-01,  7.5924277306e-02,  6.4647956751e-03, 
	 9.5733858645e-02, -1.2584777176e-01,  8.7935537100e-02,  3.4750707448e-02,  7.0735462010e-02, -3.1161528081e-02,  1.2029957026e-01,  6.2997825444e-02, -1.1540313065e-01, -1.0300774127e-01, 
	-8.4058500826e-02, -5.5307239294e-02, -3.6505401134e-02,  8.4300460294e-03, -3.4332819283e-02, -3.0981726944e-02,  5.3083978593e-02, -1.1893609166e-01,  4.9716372043e-02,  1.0235101916e-02, 
	-5.1929526031e-02,  8.9738450944e-02,  1.1596239358e-01,  3.9090398699e-02, -5.0299890339e-02, -4.9671474844e-02, -1.1483202130e-01, -6.9458313286e-02,  9.0886643156e-03, -5.5939029902e-02, 
	-8.8860571384e-02, -9.3572571874e-02, -2.4274900556e-02,  2.3616138846e-02,  9.8314255476e-02, -1.2962572277e-01,  1.0969142616e-01, -1.2948274612e-01, -5.4806314409e-02,  4.6560961753e-02, 
	 8.9119393378e-03, -6.1087541282e-02, -9.1507688165e-02, -8.3379589021e-02,  3.5808082670e-02,  6.7583866417e-02, -3.3605955541e-02,  2.5702428538e-03, -9.1906771064e-02,  5.0297424197e-02, 
	-6.8353742361e-02,  4.4667031616e-02,  9.0317331254e-02, -1.0996247828e-01,  1.1058849841e-01,  7.7374547720e-02, -6.5718770027e-02, -4.0238783695e-03, -2.1215764806e-02, -9.1305010021e-02, 
	-1.1040699482e-01, -3.8790438324e-02,  6.7553063855e-03,  1.1386126280e-01,  1.2987230718e-01, -5.8509994298e-02,  1.8347758800e-02,  7.3061332107e-02, -5.4067902267e-02,  1.4521215111e-02, 
	-3.4415155649e-02,  6.9839634001e-02, -9.7910724580e-02,  6.0003884137e-02,  1.8230665475e-02, -5.7250786573e-02, -4.5937519521e-02, -2.6182107627e-02,  2.8194922954e-02,  8.2471042871e-02, 
	 3.5213410854e-02,  3.9604894817e-02,  5.5553667247e-02,  2.8418684378e-02,  6.9007724524e-02, -4.2721573263e-02, -7.3704078794e-02, -4.9239743501e-02, -3.9807596477e-04,  5.4688364267e-02, 
	-3.6253016442e-02,  1.1994140595e-01, -5.1410086453e-02, -1.1181928962e-01, -1.2739975937e-02, -1.2979200482e-01,  9.0704180300e-02,  1.6159598017e-03,  3.6954950541e-02,  5.9104919434e-02, 
	-9.0814255178e-02, -7.9811684787e-02, -4.7999177128e-02, -9.0136401355e-02,  6.1484114267e-03,  1.0006301850e-01,  1.0077127069e-01,  7.0124261081e-02,  4.7705315053e-02, -7.6124198735e-02, 
	 9.2725299299e-02,  8.8595412672e-02,  1.2281193584e-01,  1.0794533789e-01,  5.8157403022e-02, -2.6974987239e-02,  5.7133842260e-02, -4.3454390019e-02, -2.3158492520e-02,  9.9779367447e-02, 
	 6.7330725491e-02,  6.8053705618e-03, -5.1915291697e-02, -2.4314882234e-02, -1.0465072840e-01, -8.9766450226e-02,  1.0420230776e-01,  1.2593242526e-01, -2.3842521012e-02, -6.0128200799e-02, 
	 3.3478692174e-02, -1.0822904296e-02,  1.0042055696e-01,  1.2496127188e-01,  1.0786714405e-01, -5.1398288459e-02, -6.3355401158e-02,  8.6886800826e-02,  4.7420468181e-02, -7.6693080366e-02, 
	 7.5178317726e-02,  5.5207874626e-02, -3.3839583397e-02, -1.0170539841e-02, -4.4373553246e-02,  1.7718601972e-02, -1.1412601173e-01, -6.9488629699e-02,  5.7691566646e-02, -8.3644747734e-02, 
	-7.6069474220e-02,  2.8101017699e-02, -1.0625104606e-01,  7.1632497013e-02, -8.9787058532e-02, -1.3218761422e-02, -6.1385072768e-02, -9.9702224135e-02,  5.5395260453e-02, -8.1605613232e-02, 
	-9.9801599979e-02,  1.0389718227e-02,  3.4112233669e-02, -2.5558134541e-02, -2.5837117806e-02, -4.3804671615e-02,  7.5085587800e-02, -1.4097687602e-01, -8.3106026053e-02, -1.8433189020e-02, 
	 1.7322059721e-02, -1.3470773399e-01,  2.3048862349e-03,  1.8304415047e-02, -5.2967060357e-02,  8.9354515076e-02,  9.7749680281e-02,  1.0865639150e-01,  1.9888137467e-03, -2.1013937891e-02, 
	-4.0338546038e-02,  3.1414780766e-02, -3.6433082074e-02, -8.3987005055e-02,  1.0468100011e-01, -9.8625592887e-02, -9.2372536659e-02, -7.7094838023e-02, -9.9872685969e-02,  8.8235810399e-02, 
	 7.3896199465e-02,  1.2450034730e-02, -7.6027423143e-02,  1.7055593431e-02,  8.2871668041e-02,  4.4425990433e-02,  1.3054756820e-01, -4.9087058753e-02,  3.0997805297e-02,  2.5823725387e-02, 
	 2.3562740535e-02,  1.1832597107e-01,  1.3587474823e-02,  2.8569031507e-02, -7.9812005162e-02, -5.0898082554e-03, -1.1589311063e-01,  1.1801547371e-02, -2.7346590534e-02, -7.1764171124e-02, 
	-7.8008413315e-02,  4.3435912579e-02,  4.1191961616e-02, -1.1169434525e-02,  1.0744256899e-02,  7.8785769641e-02, -1.0081930459e-01, -6.2298115343e-02,  4.9534805119e-02, -6.3027232885e-02, 
	-1.0232295096e-01, -2.1759027615e-02, -8.3887830377e-02,  9.9261768162e-02, -8.5787013173e-02,  4.1281219572e-02, -7.3111549020e-02, -4.5445300639e-02, -3.6430269480e-02,  6.7172028124e-02, 
	 2.3128010333e-02, -2.1189965308e-02,  2.4449186400e-02, -1.3093708456e-01, -1.0383583605e-01,  8.4808126092e-02,  6.5414138138e-02, -1.1765285581e-01,  6.6327564418e-03,  4.2327951640e-02, 
	 1.1717499234e-02, -3.9609719068e-02, -9.7135817632e-03,  3.4096155316e-02, -2.7501643635e-03,  1.2106429040e-01,  1.6452534124e-02, -1.1365776509e-01, -8.7892673910e-02, -4.3952176347e-03, 
	 7.9639732838e-02,  7.4525058270e-02, -1.1046013981e-01, -7.9421810806e-02, -1.1213102937e-01,  6.2940225005e-02, -1.0575295240e-01,  7.9286359251e-03, -8.8826395571e-02, -1.3468021154e-01, 
	 5.8059141040e-02, -9.1673985124e-02, -1.5392217785e-02,  5.1077812910e-02, -4.1775289923e-02,  1.2471070141e-01, -1.0319492966e-01, -5.7800330222e-02,  8.8429331779e-02,  2.0533753559e-02, 
	-6.5376117826e-02,  2.4276316166e-02, -2.5803884491e-02, -2.1951469535e-05, -9.6936593764e-04, -1.1245074868e-01, -8.5046276450e-02,  3.6070153117e-02,  9.3773864210e-02, -9.6996404231e-02, 
	-7.4263769202e-03, -2.0233582705e-02,  8.4906496108e-02, -2.7315320447e-02,  5.7091962546e-02, -2.7766723186e-02, -9.1872222722e-02,  5.9193570167e-02,  1.1055408418e-01, -1.1736938357e-01, 
	-5.9183191508e-02, -4.2288169265e-02,  6.4688570797e-02, -1.1165885627e-01,  5.9289235622e-02,  6.5197661519e-02,  6.3276790082e-02,  5.5322431028e-02, -1.0374269634e-01, -1.4243088663e-02, 
	 8.5907898843e-02,  1.1124704033e-02, -2.4025663733e-02, -1.1934214085e-01,  1.1733229458e-01,  3.5870008171e-02, -7.4693046510e-02, -5.1660798490e-02,  4.2778900824e-03,  5.6719858199e-02, 
	-7.6434493065e-02,  5.1484249532e-02,  5.0592202693e-02,  8.9333236217e-02, -8.5517935455e-02,  1.0012289137e-01,  9.9560789764e-02,  1.0756392963e-02,  8.2267880440e-02, -4.2410906404e-02, 
	 4.3525185436e-02, -6.3117623329e-02,  1.0561355948e-01,  1.2255711854e-01,  4.5738521963e-02, -1.1175646633e-01,  8.7500773370e-03, -9.0514585376e-02,  7.5660198927e-02,  8.0856665969e-02, 
	-6.1461251229e-02,  8.4008544683e-02, -5.9067700058e-02, -1.1951554567e-01, -8.8424570858e-02,  5.5681329221e-02,  7.9629227519e-02, -6.3534945250e-02, -3.9908874780e-02,  7.7671132982e-02, 
	-8.5531689227e-02, -5.8288089931e-02,  4.3548222631e-02,  1.7954258248e-02, -3.1671021134e-02,  4.3410308659e-02,  6.0514532030e-02,  8.3270154893e-02,  1.1944650859e-01,  3.9073605090e-02, 
	 6.8998924689e-06,  1.1052374542e-01, -1.1967796087e-01, -5.4258309305e-02,  4.0132459253e-02,  4.8758544028e-02,  2.2502860054e-02,  1.0202336311e-01, -8.1317778677e-03, -1.7497414723e-02, 
	-1.1182134971e-02,  9.9010378122e-02,  8.5015989840e-02, -1.2084029615e-02,  1.6627877951e-02, -4.0003109723e-02,  1.0963788629e-01, -6.5451271832e-02,  1.0431561619e-01, -1.1413210630e-01, 
	-3.1473603100e-02,  6.0370959342e-02,  1.1262430251e-01, -9.4563618302e-02, -1.1915458739e-01, -5.5635724217e-02,  1.2121859938e-01,  2.6180285960e-02, -6.2374658883e-02,  8.0270878971e-03, 
	-2.6901409030e-02,  2.4530570954e-02, -1.0652494431e-01,  9.7079239786e-02,  1.2849321961e-01,  5.3234539926e-02,  1.1982765049e-02,  3.5069629550e-02, -1.2611185014e-01, -5.7484172285e-02, 
	 9.1696262360e-02, -1.1240832508e-01,  2.7192939073e-02,  7.4634790421e-02,  5.2982229739e-02,  1.1613294482e-02,  1.2058791518e-01, -8.1972479820e-03, -6.9921582937e-02,  1.2850375473e-01, 
	 6.0234315693e-02,  2.0114086568e-02,  1.2883131206e-01, -4.1777636856e-02, -1.1331466585e-01, -1.0144717246e-01,  7.3944814503e-02,  2.9305964708e-02, -1.1434102803e-01, -1.1656285077e-01, 
	 6.9117963314e-02, -7.0441901684e-02, -8.6457319558e-02, -4.3004184961e-02,  1.9926493987e-02,  4.1905049235e-02, -4.1353836656e-02,  5.1879230887e-02, -5.1343690604e-02,  2.6262814179e-02, 
	-1.4496206306e-02,  1.0378866643e-01, -1.6343450407e-03, -2.7402052656e-02, -1.2886728346e-01,  1.0959192365e-01, -3.6852128804e-02, -4.5236594975e-02, -1.0988816619e-01, -8.1185415387e-02, 
	 7.1795336902e-02, -8.9361257851e-02, -1.2940467894e-01,  1.0024373233e-01, -7.4478708208e-02,  6.4913481474e-02, -8.3911679685e-02, -4.3289758265e-02,  8.6439475417e-02,  7.6736770570e-02, 
	 1.7700143158e-02,  7.8585572541e-02,  2.1776666865e-02,  2.5042554364e-02,  7.6904855669e-02, -3.3541198820e-02, -1.2843713164e-01, -2.7564655989e-02, -2.9476044700e-02, -6.8679355085e-02, 
	-4.8039048910e-02,  1.0009748489e-01,  7.4244529009e-02, -1.7307767645e-02, -9.3284636736e-02,  1.2115396559e-01,  8.1448405981e-02,  1.2998156250e-02,  2.3269364610e-02, -1.2999758124e-01, 
	-1.1279094219e-01, -9.3026543036e-03,  7.4691982009e-03, -3.8040149957e-02, -6.6654749215e-02,  1.2678215280e-02, -5.7658363134e-02,  3.9726726711e-02,  1.2331884354e-02,  1.1911351979e-01, 
	 1.1616159976e-01,  2.3259269074e-02, -1.1124902964e-01,  3.7166051567e-02,  1.0901095718e-01, -7.7920267358e-03,  6.9355085492e-02,  1.3067139685e-01, -8.0766417086e-02,  8.1670485437e-02, 
	-3.0618637800e-02,  1.0249037296e-01, -1.5354509465e-02, -7.7294416726e-02, -5.3836770356e-02, -1.3270752132e-01, -9.9917441607e-02,  7.8953951597e-02, -9.0471431613e-02,  1.2474540621e-01, 
	 1.0372363031e-01, -1.0020338744e-01,  8.3832539618e-02, -1.2599673867e-01, -2.8837716207e-02, -8.5473563522e-03, -3.4642219543e-02,  3.5535030067e-02, -2.1938487887e-02,  1.1067133397e-01, 
	-9.3120187521e-02,  1.2078173459e-02, -1.2798035145e-01,  2.9561152682e-02,  6.6539436579e-02,  4.8664979637e-02,  1.8484427128e-03, -9.5172852278e-02, -3.0299358070e-02,  1.0714370757e-01, 
	 6.8865515292e-02,  1.3733154163e-02, -5.7982426137e-02,  2.9790081084e-02,  1.0294660926e-01, -1.0419690609e-01,  9.2538684607e-02, -1.0605780780e-01, -8.0370202661e-02,  6.2196377665e-02, 
	-7.0717550814e-02, -6.6570974886e-02,  1.3167142868e-01,  1.1975149065e-01, -1.0694172233e-01,  1.8697496504e-02,  8.3920747042e-02,  9.1773726046e-02,  9.7824949771e-03,  8.0094680190e-02, 
	 1.1609284207e-02, -8.0883994699e-02,  8.3111800253e-02, -1.2412208319e-01,  2.3056926148e-04, -6.1529085040e-02,  3.2110989094e-02, -6.5777920187e-02,  3.4125000238e-02, -3.1041063368e-02, 
	-3.9169397205e-03,  4.8785328865e-02, -8.0987907946e-02,  4.0966995060e-02, -5.1270261407e-02, -1.2509644032e-01, -7.9855956137e-02,  5.2022770047e-02, -9.3197807670e-02, -2.1579118446e-02, 
	 2.4744657800e-02, -8.2709819078e-02,  7.5716301799e-02,  6.2004905194e-02, -4.7818012536e-02,  4.1598059237e-02, -2.1907089278e-02,  8.5850350559e-02,  3.1232083216e-02, -1.3586959243e-01, 
	 1.8749158829e-02,  2.5244193152e-02,  9.8247468472e-02, -1.6539718956e-02, -3.5258639604e-02,  2.2735144943e-02,  3.7269216031e-02, -1.1358831078e-01, -2.0752465352e-02, -6.7528165877e-02, 
	-1.2085358053e-01,  2.8376871720e-02, -3.7847146392e-02, -2.3518249393e-02,  7.7193707228e-02, -1.1833852530e-01,  1.1361072212e-01, -6.7505389452e-02,  3.0555142090e-02,  9.3238398433e-02, 
	 8.7821766734e-02,  3.7952315062e-02, -4.8034153879e-02, -1.2169246376e-01,  8.1837907434e-02, -4.7209817916e-02,  7.7860184014e-02, -1.1431213468e-01,  5.2487734705e-02,  4.4199179858e-02, 
	-6.2684595585e-02, -7.2259455919e-02, -1.2102109194e-01, -9.5065280795e-02,  4.3140009046e-02, -9.6984291449e-03,  5.7403609157e-02,  5.4623767734e-02, -2.3861594498e-02,  3.5195024684e-03, 
	-6.7449375987e-02, -1.0368059576e-01,  4.2464554310e-02,  8.4123589098e-02, -5.8989334852e-02,  6.7366652191e-02, -6.7037880421e-02, -1.1792520434e-01,  2.8975392343e-04,  7.6691403985e-02, 
	 4.9987878650e-02,  8.6512394249e-02,  2.5115940720e-02,  5.0115823746e-02,  1.1176729202e-01, -1.2768319249e-01, -9.9318258464e-02,  6.3346356153e-02, -1.8760174513e-02, -3.0986189377e-03, 
	 5.4417900741e-02,  8.8265791535e-02, -7.4287667871e-02, -3.7923846394e-02, -1.2618842535e-02,  1.0304016620e-01,  2.8401419520e-02,  7.0139728487e-02,  1.0420833528e-01,  1.0142208636e-01, 
	 1.1723786592e-02,  2.9554067180e-02,  9.0731687844e-02, -3.8075342774e-02, -6.0066148639e-02,  3.5942472517e-02, -1.2607286870e-01,  4.2186055332e-02,  1.8324775621e-02, -5.4191362113e-02, 
	 7.6339252293e-02, -5.8232679963e-02,  6.5612293780e-02, -1.7791062593e-02, -1.0581565648e-01,  7.4709661305e-02, -9.8931178451e-02, -7.4869416654e-02,  9.6806753427e-03, -3.8271658123e-02, 
	-7.6522096060e-03,  3.0819656327e-02,  5.6202907115e-02, -6.6619710997e-03, -7.4183084071e-02, -9.7445681691e-02, -1.2005930394e-01, -8.1810712814e-02, -1.2666170299e-01, -3.6209624261e-02, 
	-5.2105598152e-02,  1.0739937425e-01, -4.7716055065e-02, -7.4371919036e-02, -1.0967456549e-01,  7.0719346404e-02,  1.2884736061e-01,  1.2102993205e-02,  9.0444810688e-02, -1.1577768624e-01, 
	-7.3544770479e-02, -3.3056642860e-02,  6.3971005380e-02,  8.1063680351e-02,  1.0582225025e-01, -1.0469987243e-01, -6.7897893488e-02,  2.8350709472e-03, -6.7708186805e-02, -4.6442992985e-02, 
	-1.3053095341e-01,  4.5355927199e-02, -3.5657182336e-02,  2.6597894728e-02, -4.7244440764e-02, -7.5228601694e-02, -1.9712185487e-02,  6.2870278955e-02, -1.2417692691e-01,  2.2870460525e-02, 
	-8.1028342247e-03,  3.5982504487e-02, -9.4116434455e-02, -1.1821077019e-01, -2.5271072518e-03, -7.5028970838e-02,  1.0565867275e-01, -1.0076238960e-01, -1.9621080719e-03,  7.0354729891e-02, 
	-3.4366667271e-02,  1.0500987619e-01,  2.0899958909e-02,  3.7645075936e-03,  6.3683144748e-02, -6.6656939685e-02,  4.8649434000e-02,  6.5818861127e-02, -1.1407968588e-02,  8.3567716181e-02, 
	-7.7067844570e-02, -1.2291233242e-01, -1.1328114569e-01, -1.0948528349e-01, -2.5463953614e-02,  9.6649140120e-02,  9.8713904619e-02, -9.7670465708e-02,  1.0396506637e-01,  9.0942613780e-02, 
	 6.8961471319e-02,  5.1483780146e-02,  1.3418944553e-02, -3.0669594184e-02, -3.2493550330e-02, -3.4606259316e-02, -1.1824104190e-01,  2.8057973832e-02,  7.3861323297e-02, -7.3787964880e-02, 
	 8.2788199186e-02,  6.8641859107e-03,  2.4335715920e-02,  1.0083018243e-01,  4.7380894423e-02,  4.6966921538e-02, -1.1896845698e-01,  5.1648221910e-02, -6.5983749926e-02, -9.3269959092e-02, 
	 2.6895252988e-02,  1.0066051781e-01, -3.2437592745e-02,  2.6719676331e-02,  2.6618170086e-03,  3.6145958584e-03,  1.0562840104e-01,  9.4355596229e-03,  1.2348262966e-01,  9.6799656749e-03, 
	 8.4430739284e-02,  9.8584048450e-02,  8.7918631732e-02, -5.3349211812e-02,  1.3028052449e-01,  1.9839301705e-02,  1.7823055387e-02,  9.5692530274e-02,  3.6394257098e-02, -1.0251279175e-01, 
	 4.8286683857e-02, -7.8096114099e-02,  3.4059442580e-02,  1.0321989655e-01,  9.4090290368e-02, -5.1389098167e-02, -1.1823169142e-01, -9.8265074193e-02, -1.2490495294e-01, -9.4478562474e-02, 
	-4.0072657168e-02,  1.0402913392e-01, -1.9481774420e-02,  1.6970849829e-03,  1.0111146420e-01,  5.8058336377e-02,  2.0353656262e-02,  6.3025705516e-02,  3.1178980134e-03,  1.1001161486e-01, 
	-2.5490570813e-02,  3.3909827471e-02, -1.4096419513e-01, -1.4459881186e-01, -9.1031186283e-02, -7.6360933483e-02,  3.7487082183e-02, -1.3741421700e-01, -5.4592296481e-02, -1.3810276985e-01, 
	-9.1855369508e-02,  1.4296566136e-02,  1.1902436614e-01, -1.0525766015e-01,  1.1800243706e-01, -1.0880924761e-01, -1.1310940981e-01,  1.1712916195e-01, -1.0018099099e-01,  7.7100187540e-02, 
	-2.3690951988e-02,  1.0680505075e-02,  7.9760976136e-02, -3.8004098460e-03,  6.9268144667e-02,  1.0732647777e-01, -1.1672116071e-01, -9.7679041326e-02, -9.8610587418e-02, -1.2017742544e-01, 
	 4.5621376485e-02,  8.0252073705e-02,  6.4510755241e-02,  1.2820602953e-01, -1.1038127542e-01, -1.0295168310e-01, -1.6848202795e-02,  7.8042961657e-02,  3.7991616875e-02,  5.3356062621e-02, 
	 7.5972408056e-02, -9.1857463121e-02, -9.9038131535e-02, -1.4933773316e-02, -1.1405328661e-01, -1.0153597593e-01, -2.2820955142e-02,  1.0917653143e-01, -8.9102074504e-02,  6.4992532134e-02, 
	 6.6402070224e-02,  5.1752559841e-02, -2.1895114332e-02,  1.2384721637e-01, -1.1840183288e-01, -6.6371965222e-03,  8.5604377091e-04, -7.7031537890e-02, -9.5219731331e-02,  2.2308190819e-03, 
	-7.0464685559e-02,  3.6154333502e-02, -3.4336764365e-02,  7.3316037655e-02, -6.7226490937e-03,  1.0238988698e-01,  5.2804537117e-02, -3.8118995726e-02,  1.1257236451e-01, -5.1285237074e-02, 
	-5.3030960262e-02, -1.8437938765e-02, -3.8990754634e-02,  1.0086622089e-01,  1.3593521714e-01,  6.7460015416e-02,  9.5873139799e-02,  4.2983379215e-02,  6.6828854382e-02,  1.1637391150e-01, 
	-1.1298290640e-01, -9.7608752549e-02,  8.5478343070e-02,  5.9179719537e-02,  5.6279513985e-02, -7.3613345623e-02,  7.8698799014e-02, -6.1969752423e-03, -5.0333626568e-02,  8.3028212190e-02, 
	-3.2661847770e-02, -8.4196224809e-02, -1.6507953405e-02, -3.1556211412e-02,  9.1641955078e-02, -5.5260568857e-02, -5.7354397140e-03, -1.9946010783e-02, -1.0178688914e-01,  5.0902761519e-02, 
	 9.3700408936e-02, -9.6241079271e-02,  4.0371954441e-02,  5.3016752005e-02,  3.6932472140e-02,  1.1531265825e-01, -6.9539986551e-02, -4.7391492873e-02, -9.9925018847e-02, -6.1585634947e-02, 
	-6.1291232705e-02, -9.7160421312e-02, -1.0571702570e-01,  5.3848302923e-03,  3.6924339831e-02,  2.8920864686e-02,  5.4356534034e-02,  1.1942867935e-01,  1.3448485732e-01,  9.6073843539e-02, 
	 7.4441865087e-02, -7.9555228353e-02,  8.3963058889e-02, -3.1031796709e-02, -5.9595666826e-02, -2.4646729231e-02, -1.1148037016e-01, -8.3572417498e-02, -7.9534880817e-02,  7.5164966285e-02, 
	 4.9934986979e-02,  6.2608949840e-02,  6.6994048655e-02, -4.3692767620e-02,  6.4743809402e-02, -3.6284383386e-02,  9.6474193037e-02, -1.1844918132e-01, -1.2218215317e-01, -1.2201301754e-01, 
	-9.3343898654e-02,  3.2789509743e-02, -2.9467368498e-02,  1.0345017537e-02,  6.3684105873e-02, -8.2962736487e-02,  2.6553003117e-02, -6.9107301533e-02, -1.2165597081e-01,  5.6698027998e-02, 
	-1.0272977501e-01, -1.8763057888e-02,  2.3361060768e-02,  9.7134429961e-03,  9.2839412391e-02,  7.0382490754e-02,  5.8151971549e-02, -8.5699684918e-02,  8.9371420443e-02,  1.0129059106e-01, 
	 7.3101520538e-02, -4.7865945846e-02,  9.4265885651e-02,  1.1448653787e-01, -1.2207703665e-02,  1.3456067536e-03,  1.4189049602e-02,  1.3047705591e-01,  8.1346385181e-02,  3.7999656051e-02, 
	 4.0230885148e-02, -3.6900956184e-02,  6.2341053039e-02,  4.7404229641e-02, -1.0396992415e-01, -6.1770569533e-02,  6.9974422455e-02,  1.1856213212e-02,  7.4153974652e-02, -5.9050428681e-03, 
	 1.2062332779e-01, -4.0191385895e-02, -8.5710346699e-02,  1.2785221636e-01, -1.1550751328e-01,  7.6862953603e-02,  8.9404828846e-02,  1.1817903817e-01, -1.9098715857e-02, -1.1966707557e-01, 
	 5.9015624225e-02,  1.4572475106e-02,  6.4754886553e-03, -2.2352427244e-02, -7.4344612658e-02, -3.1210239977e-02, -3.1194176525e-02, -6.9785332307e-03,  7.6116025448e-02,  6.0814205557e-02, 
	-8.2043461502e-02, -1.2262358516e-01, -2.4342484772e-02, -9.2499420047e-02,  5.9775438160e-02, -1.1047191173e-01, -1.0386980325e-01,  1.2313628197e-01,  1.2710557319e-02,  5.1035679644e-04, 
	-4.0132589638e-02,  2.1256444976e-02,  9.0570962057e-03, -9.0009063482e-02, -1.2059190869e-01,  8.3634398878e-02, -8.8870055974e-02, -4.3778926134e-02,  8.7767593563e-02, -1.3202835619e-01, 
	-6.0949895531e-02, -1.2531369925e-01, -8.2609169185e-02, -6.4003482461e-02,  1.0596255958e-01, -8.6924701929e-02,  5.6445069611e-02,  1.1528414488e-01, -1.1513713747e-01,  1.2994633615e-01, 
	-1.5923092142e-02,  1.2058544159e-01,  4.9554489553e-02, -8.6334928870e-02, -1.0282824934e-01, -2.1489830688e-02, -1.5094082803e-02,  1.0920555890e-01,  8.6762838066e-02,  2.7798123658e-02, 
	-4.5251086354e-02, -6.6495351493e-02,  7.7081754804e-02,  8.3336509764e-02, -1.2631262839e-01, -1.2702907622e-01, -6.2442082912e-02,  4.7513712198e-02, -7.4376799166e-02, -6.2589854002e-02, 
	-7.4485056102e-02, -8.2674724981e-03,  8.4875300527e-02, -8.9610535651e-03, -1.0717336088e-01,  5.9043955058e-02,  4.9465250224e-02,  1.2680795044e-02, -8.6225345731e-02,  3.6896993406e-03, 
	 8.7551452219e-02,  3.0912365764e-02, -5.1872506738e-02,  1.0097010434e-01,  4.8124149442e-02,  1.0483107716e-01,  1.0823443532e-01, -1.3114589266e-02,  5.0537966192e-02,  6.6531769931e-02, 
	-6.8904906511e-02,  1.1620705575e-01,  5.9266529977e-02, -6.9591544569e-02, -9.4195045531e-03, -1.1664048582e-01, -1.0891921073e-01, -9.3384541571e-02,  1.0343393683e-01,  7.4036799371e-02, 
	 1.0418045521e-01, -3.7552274764e-02,  5.4464414716e-02, -6.3752360642e-02, -1.0447254032e-01,  3.8386266679e-02, -1.0718267411e-01,  1.0900938511e-01, -3.1733470969e-03, -7.7426351607e-02, 
	-9.8960414529e-02, -8.9439228177e-02, -2.6763513684e-02,  9.0245194733e-02,  1.2877987325e-01, -9.8785512149e-02, -6.4672857523e-02,  8.7168402970e-03, -4.0411207825e-02, -1.2206414342e-01, 
	-9.7347468138e-02, -5.7406838983e-02, -8.6012139916e-02, -5.2026547492e-02,  6.8761929870e-02,  7.1940593421e-02,  9.2452755198e-03, -6.6007882357e-02,  2.8543308377e-02,  4.5045655221e-02, 
	-6.1796166003e-02, -3.3340085298e-02, -1.1299520731e-01, -1.2036604807e-02,  1.2898306549e-01, -7.5408488512e-02,  6.3004955649e-02, -3.3161960542e-02, -1.1405517161e-01, -3.8282949477e-02, 
	-7.7108420432e-02,  7.4533391744e-03,  4.5577157289e-02, -4.6286631376e-02, -3.3497694880e-02,  1.1311183125e-01, -6.8941622972e-02, -9.2859961092e-02, -3.8777634501e-02, -3.7255220115e-02, 
	-1.3821787201e-02, -9.1844029725e-02, -2.3573424667e-02,  1.8002074212e-02,  8.2972750068e-02, -4.6273268759e-02,  6.0634322464e-02, -1.2623609975e-02,  9.6947789192e-02,  9.8041445017e-02, 
	-1.7793083563e-02,  1.1530253291e-01, -6.7114546895e-02, -1.2258407474e-01, -2.0865567029e-02, -4.0997561067e-02,  2.7267508209e-02,  1.1850614101e-01, -1.1177671701e-01, -9.5912426710e-02, 
	 4.2987752706e-02, -1.5996380243e-03,  2.0512202755e-02,  6.5168105066e-02, -9.0054431930e-03,  1.0899542831e-02,  4.5453034341e-02,  1.1584096402e-01,  9.7758434713e-02,  2.1562984213e-02, 
	 7.1134425700e-02,  1.1741907150e-01,  8.1431649625e-02,  7.1285519516e-04, -2.2992318496e-02,  2.8954178095e-02,  6.6988982260e-02,  2.7890479192e-02, -4.5113969594e-02, -8.3833165467e-02, 
	-2.3623064160e-02, -7.6407454908e-02,  1.1232346296e-01,  2.7611004189e-02, -1.0994568467e-01, -4.6697311103e-02, -1.1587109417e-01, -2.9718823731e-02, -1.1030409485e-02, -1.2174480408e-01, 
	 7.9570217058e-03, -7.3878265917e-02, -5.7507786900e-02,  8.5636675358e-03, -8.3981603384e-03, -7.9796306789e-02,  4.7180101275e-02,  8.4558434784e-02, -4.6841744334e-02, -9.1988928616e-02, 
	 1.3193850219e-01,  3.3284436911e-02, -9.2586785555e-02,  8.2733929157e-02,  7.4523895979e-02,  3.3064488322e-02, -7.4822910130e-02, -6.1074554920e-02,  2.6570122689e-02,  6.3191689551e-02, 
	-7.4990794063e-02,  2.6723863557e-02, -9.3135714531e-02,  1.0310918093e-01,  6.4718514681e-02,  8.1541247666e-02, -9.4519294798e-02, -3.8183484226e-02,  1.1196704954e-01, -3.8306117058e-02, 
	 8.8847599924e-02, -9.7622305155e-02, -4.3709702790e-02,  6.4638331532e-02,  9.9821157753e-02,  1.1102417484e-02,  6.4805127680e-02, -8.4098637104e-02, -6.5104775131e-02,  6.0856007040e-02, 
	 5.0333440304e-02, -5.3660338745e-03,  6.1703905463e-02, -5.2345752716e-02,  9.8439119756e-02,  2.1684721578e-03,  3.3823875710e-03, -8.4069341421e-02, -5.3841102868e-02, -5.6493062526e-02, 
	 8.4146946669e-02, -5.8970976621e-02,  3.5242901649e-03,  1.4336957596e-02,  1.1548259109e-01,  1.0461578146e-02, -2.6910401881e-02, -9.7757495940e-02, -8.4185488522e-02, -6.4809158444e-02, 
	-5.8226101100e-02, -4.4029653072e-03, -4.8265457153e-03,  4.5846167952e-02,  4.1818343103e-02,  1.1998267844e-02,  1.7218364403e-02,  5.3054023534e-02, -7.9351225868e-03, -2.9510041699e-02, 
	-1.1846175045e-01, -1.0382706672e-01, -6.6344633698e-02,  3.8800224662e-02,  8.2337923348e-02, -4.4054556638e-02,  9.0970747173e-02, -1.1131840199e-01, -7.0602633059e-02, -6.5739676356e-02, 
	-1.0887157917e-01,  8.5938625038e-02, -5.1373928785e-02,  3.4153208137e-02, -1.8740419298e-02, -1.5671214089e-02,  8.0950744450e-02, -7.5651526451e-02,  7.0948891342e-02, -1.3354033232e-02, 
	 2.6552626863e-02, -4.2321931571e-02,  8.5099712014e-02, -2.9188724235e-02, -9.8625838757e-02, -1.1158597469e-01, -8.7301507592e-02,  4.1966021061e-02, -6.7162908614e-02,  8.7346971035e-02, 
	 1.1771827936e-01,  7.7952273190e-02, -3.8149550557e-02, -1.2373510003e-01, -1.1252923310e-01,  1.1078919470e-01,  1.1890536547e-01,  6.7037872970e-02,  8.7904602289e-02,  1.8489409238e-02, 
	 9.0410411358e-03,  5.1435369998e-02,  1.0168611258e-01, -5.9438236058e-02, -1.2564601004e-01, -8.2556262612e-02, -8.2143232226e-02,  5.7816985995e-02, -7.8494630754e-02,  2.9062852263e-03, 
	 5.7622112334e-02, -4.4478815049e-02,  1.2174259126e-01, -1.2389446050e-01, -5.3989625303e-04, -5.3185489029e-02, -6.6140279174e-02, -1.0473719239e-01, -1.2365528196e-01,  1.1711588502e-01, 
	-1.2316931039e-01, -2.7073979378e-02, -3.7801727653e-02, -5.2625298500e-02, -1.0939484835e-01, -4.0460344404e-02, -2.6294263080e-02, -9.4961732626e-02, -2.1066956222e-02,  1.1224552244e-01, 
	 8.1046268344e-02, -1.0735707730e-01,  1.0449305922e-01, -2.1594755352e-02, -7.1024708450e-02, -1.0123740882e-01,  7.4057921767e-02,  3.6627735943e-02, -5.4710078984e-02, -1.2465466559e-01, 
	-9.9200353026e-02, -1.0914309323e-01,  9.0518832207e-02, -8.0608330667e-02, -9.9594742060e-02,  1.1895915866e-01,  1.1364989728e-01,  1.2671010196e-01, -2.5773685426e-02,  4.2639579624e-02, 
	-4.5050114393e-02, -1.2253440917e-01, -1.1058392376e-01,  3.1354717910e-02,  9.3589700758e-02, -1.0802783817e-01,  6.6624827683e-02, -9.7635656595e-02, -1.1621865630e-01,  1.4439285733e-02, 
	-2.2074649110e-02,  1.1890306324e-01,  3.2573208213e-02,  4.3574787676e-02,  6.0661420226e-02, -1.0111154057e-02,  4.6407926828e-02, -1.1532712728e-01, -5.8078002185e-02, -8.7601169944e-03, 
	 8.2247436047e-02,  4.4715687633e-02, -5.9598919004e-02, -3.5306827631e-03,  9.8290190101e-02, -8.5084326565e-02, -4.7998558730e-02, -8.7238714099e-02,  3.7418231368e-03, -4.0538255125e-02, 
	 6.1371859163e-02,  6.9366723299e-02, -1.9017076120e-02,  8.3737254143e-02, -7.4900090694e-02,  9.2780962586e-02,  3.7253055722e-02, -2.7028126642e-02,  1.1665991694e-01, -5.4889671504e-02, 
	 2.9299588874e-02, -7.7891103923e-02, -2.9305957258e-02,  8.7360709906e-02,  7.6362835243e-03, -4.6745993197e-02, -9.9805973470e-02, -6.1304263771e-02,  7.5478278100e-02, -9.2106752098e-02, 
	 6.0098838061e-02, -8.2848265767e-02,  1.0475266725e-01,  3.5045105033e-03,  9.1192737222e-02, -1.0127544403e-01,  4.8377467319e-03, -1.8694711849e-02, -1.0987195373e-01, -7.0648200810e-02, 
	 3.4795247484e-03, -1.7676234711e-04, -4.1832167655e-02, -1.1838136613e-01, -5.1380418241e-02, -9.7333401442e-02, -5.3032208234e-02,  1.2682089582e-02, -7.7834211290e-02, -8.0615155399e-02, 
	 1.3104991615e-01,  3.4970402718e-02,  1.1760313064e-01, -7.9648479819e-02,  8.7394356728e-02, -7.8252948821e-02, -1.9609741867e-02, -8.2728654146e-02, -1.4681044267e-03,  4.3218940496e-02, 
	 4.7379367054e-02, -2.8486976400e-02, -9.9110618234e-02, -4.7552507371e-02, -2.8687022626e-02, -1.2455485016e-01, -4.2021088302e-02, -8.3956412971e-02, -9.8770201206e-02, -1.1802942306e-01, 
	 4.2384892702e-02,  9.5717996359e-02,  8.1745021045e-02, -2.3203447461e-02, -1.7208568752e-02,  9.4637665898e-03, -6.1607073992e-02, -1.4542520978e-02, -2.3381471634e-02, -3.1349584460e-02, 
	 1.1411980540e-01,  1.0909030586e-01,  4.9148458987e-02, -1.0554514080e-01, -9.8335303366e-02,  4.3160837144e-02, -3.5315115005e-02, -1.1604508758e-01,  8.2665510476e-02,  7.4023474008e-03, 
	 1.0513485223e-01, -2.2307028994e-02, -1.2954644859e-01,  2.4818100035e-02,  1.2031860650e-01, -7.0870260242e-04,  9.1959789395e-02, -4.7165617347e-02, -2.2486947477e-02, -7.4938267469e-02, 
	 1.1408168077e-01,  3.7264689803e-02, -5.7258382440e-02,  4.6233780682e-02, -1.0970334709e-01,  1.6690056771e-02, -2.5830045342e-02,  7.2328679264e-02, -1.7013877630e-02, -1.0577522218e-01, 
	 4.4547919184e-02,  5.8598048985e-02, -1.3007821143e-01, -3.0371803790e-02,  2.7426585555e-02, -2.2019888274e-03, -8.4072440863e-02,  1.0261713713e-01,  5.8225955814e-02,  1.6290875152e-02, 
	-7.1373000741e-02,  9.2818327248e-02, -5.0813660026e-02, -8.1146374345e-02, -6.6777668893e-02, -2.5514157489e-02,  6.0144718736e-02, -2.4461124092e-02,  9.7199954093e-02,  1.1531579494e-01, 
	-9.2221647501e-03,  1.1601340026e-01,  1.0389459878e-01,  8.9221455157e-02, -2.2081969306e-02, -1.0227645934e-01, -7.1802586317e-03,  1.0785876215e-01,  7.7719159424e-02,  8.9270286262e-02, 
	 2.2262074053e-02,  6.6788934171e-02,  7.3253214359e-02, -3.0344583094e-02,  6.6239632666e-02,  1.2213081867e-01,  8.7278567255e-02,  2.3762857541e-02,  1.0767573863e-01, -1.1763484031e-01, 
	 6.4983524382e-02,  3.8554418832e-02,  7.7585391700e-03, -7.1582041681e-02,  7.6713613234e-03, -5.5902626365e-02, -1.2397105247e-01, -7.2835981846e-02,  8.3650909364e-02,  5.5446196347e-02, 
	-4.6686776914e-03, -1.3344018720e-02,  6.1744976789e-02,  5.0388906151e-02, -1.3393530250e-01,  4.4507733546e-03, -9.3134105206e-02, -9.1706268489e-02,  1.0251502693e-01, -1.0100883245e-01, 
	-2.4557715282e-02,  1.1310023069e-01,  1.1748919636e-01,  1.6628691927e-02, -6.7822389305e-02,  8.6236439645e-02,  9.8388761282e-02,  9.7096964717e-02,  6.5270565450e-02, -8.1514216959e-02, 
	 6.8096280098e-02, -7.0577554405e-02,  9.4655141234e-02,  3.6964874715e-02, -9.4745777547e-02, -9.5906980336e-02, -1.1797467619e-01, -2.5557948276e-02,  1.3143371046e-01,  3.0379109085e-02, 
	-9.5170132816e-02,  8.6121214554e-03, -2.0730039105e-02, -1.1848790944e-01,  2.3250771686e-02, -6.1891224235e-02, -2.6098089293e-02,  1.0437556356e-01, -6.4829893410e-02, -6.3019707799e-02, 
	 1.8992925063e-02, -7.4949853122e-02, -1.1096312851e-01,  5.2943136543e-03,  1.1667037755e-01,  6.3052549958e-02,  3.6461282521e-02, -1.2389694899e-01,  3.6536943167e-02,  1.0865004361e-01, 
	-2.2215450183e-02,  2.6074054185e-03,  4.3186556548e-02, -9.3454726040e-02, -8.7411068380e-02, -8.5950352252e-02,  8.7601356208e-02, -5.7355817407e-02,  2.8864653781e-02, -5.4266866297e-02, 
	 4.2224604636e-02,  8.8587924838e-02, -1.7604174092e-02, -4.6930056065e-02, -4.7285430133e-02,  1.1936864257e-01, -1.0745535791e-01, -4.6775981784e-02,  1.0915558785e-01,  9.3005694449e-02, 
	 8.7694056332e-02, -7.5162298977e-02,  5.4401863366e-02, -9.2103429139e-02, -6.7773193121e-02, -1.2909947336e-01,  9.8460525274e-02, -1.1260381341e-01,  8.9161090553e-02, -1.1314211786e-01, 
	 5.8327862062e-03,  1.0277042538e-01, -6.6039979458e-02, -4.2935516685e-02, -3.4964751452e-02,  4.8354309984e-03, -7.9055242240e-02,  1.6963619739e-02,  1.1336473376e-01, -8.5982978344e-02, 
	 1.0480913520e-01, -3.9540380239e-02,  2.4484535679e-02, -3.5698030144e-02,  3.2278526574e-02,  8.9956030250e-02,  9.7040414810e-02,  3.7886369973e-02,  6.7644171417e-02, -8.1144846976e-02, 
	-1.2766541541e-01, -1.1806414276e-01,  8.2749277353e-02, -1.2221031636e-01,  1.3011838496e-01,  6.5504327416e-02,  4.5174956322e-03, -6.1307061464e-02, -6.2295872718e-02, -3.6541499197e-02, 
	-9.3888767064e-02,  1.0558876395e-01,  8.9912272990e-02, -8.4821447730e-02, -3.7055741996e-02,  1.1272354424e-01, -1.3732545078e-01,  5.5196168832e-03, -9.4791047275e-02,  7.6364085078e-02, 
	 2.6936369017e-02, -7.0522844791e-02,  3.8475353271e-02,  3.9974670857e-02,  2.6041776873e-03, -1.1030127108e-01,  7.4609510601e-02,  8.4286510944e-02,  3.3961040899e-03, -9.7576148808e-02, 
	 9.6021126956e-03,  5.2543450147e-02,  8.3226934075e-02, -2.3978101090e-02,  9.2474132776e-02, -1.1581120640e-01,  9.3307591975e-02, -7.5381085277e-02,  8.6988776922e-02,  8.2589991391e-02, 
	-1.2491938472e-01,  9.9389404058e-02,  2.6811623946e-02,  1.8007326871e-02, -1.8491434166e-03,  2.7806522325e-02,  6.5289318562e-02,  1.2072348595e-01,  3.4751156345e-03,  1.2344855070e-01, 
	 1.7833957449e-02,  9.2417113483e-02,  6.8491958082e-02,  1.0253019631e-01,  2.8230931610e-02, -3.1875723507e-03,  5.1788486540e-02,  4.5544832945e-02, -8.6731232703e-02, -3.2964080572e-02, 
	-1.7458543181e-02, -8.0437779427e-02,  2.8654610738e-02,  9.3182161450e-02, -5.3340647370e-02, -2.9076544568e-02,  1.1026465148e-01,  8.6868427694e-02, -5.3526025265e-02, -1.1461239308e-01, 
	 1.3545266353e-02, -1.2568855286e-01,  8.1909663975e-02,  1.1023363471e-01, -7.4707746506e-02, -8.5313700140e-02,  2.8952632099e-02, -1.0371529311e-01,  1.1728648841e-01, -2.9467355460e-02, 
	 7.7684498392e-03,  3.4444514662e-02, -1.3168840110e-01, -4.5307725668e-02,  9.2692337930e-02,  6.6872805357e-02, -1.1097322404e-01,  6.3516490161e-02, -2.7419012040e-02,  7.9233020544e-02, 
	 1.1020286009e-02, -1.1095320433e-01, -1.1440136284e-01, -1.2048391998e-01, -8.0435514450e-02, -7.1841366589e-02,  1.2213134021e-01,  1.3361538760e-02,  9.7317546606e-02,  7.9233944416e-02, 
	-1.1899615079e-01,  2.4232223630e-02,  1.1230255663e-01, -8.6512723938e-03, -1.0033296794e-01, -4.7858014703e-02,  3.0633367598e-02, -1.5844147652e-02,  6.1893321574e-02, -6.6387705505e-02, 
	-1.0541851074e-01, -1.0553210229e-01, -3.9441756904e-02, -1.2171293050e-01, -6.4573273063e-02, -3.5389099270e-02, -2.1882934496e-02, -1.0790679604e-01, -1.1508886516e-01,  8.6260393262e-02, 
	-1.1532288045e-01,  5.5511083454e-02,  2.0476920530e-02,  4.5441067778e-03,  2.9076777864e-03,  5.9918668121e-03,  4.2313400656e-02, -1.0400422662e-01, -3.7530958652e-02, -1.2247261591e-02, 
	-4.3745961040e-02, -9.8609402776e-02, -8.0298215151e-02,  2.4577728473e-03,  7.5743094087e-02, -3.6704313010e-02, -1.1656720936e-01, -1.0000214726e-01,  1.1906957626e-01,  5.9963308275e-02, 
	 1.1197669059e-01, -6.9420754910e-02,  1.1009199172e-01, -6.3086904585e-02,  7.9135403037e-02, -2.7117062360e-02,  5.3519174457e-02,  5.9374161065e-02,  5.3630422801e-02, -1.1771250516e-01, 
	 8.4919422865e-02, -1.1364813894e-02,  3.3672288060e-02, -9.7668141127e-02, -1.1556577682e-01,  2.4327559397e-02,  1.0637995601e-01,  6.8073235452e-02, -1.2854702771e-01,  8.6660506204e-03, 
	-3.9703037590e-02, -1.2175016105e-01, -4.6810943633e-02, -1.3878241181e-01, -1.1343458295e-01, -6.2095828354e-02,  1.2716062367e-02,  3.6292416044e-03,  4.8740681261e-02, -1.2694635987e-01, 
	-2.9709374532e-02, -4.9452364445e-02, -7.1015767753e-02, -4.8536010087e-02, -3.2060217112e-02, -7.2855846956e-03, -1.0026444495e-01,  6.7189715803e-02,  1.1790838093e-01, -1.1371782422e-01, 
	-1.2071352452e-01, -1.1267769150e-02, -1.2362145633e-01, -1.2343707681e-01, -1.4695561491e-02, -2.2880790755e-02, -8.2363285124e-02, -9.3288242817e-02,  1.0133034736e-01, -2.4826367735e-04, 
	 2.2758824751e-02, -1.3362607360e-01, -1.0406285524e-01, -1.2383835018e-01, -1.3346014544e-02, -6.2492374331e-02,  8.2934550941e-02,  6.6341780126e-02, -4.4115677476e-02,  6.5151695162e-03, 
	-6.1988212168e-02,  4.3182946742e-02,  1.2295185775e-01, -1.2657384388e-02,  3.8335602731e-02,  1.0628835857e-01,  8.2354526967e-03,  4.4058833271e-02,  7.7415548731e-04, -6.3561141491e-02, 
	-1.2258803844e-01,  1.0720852762e-01,  5.8026071638e-02, -3.5674288869e-02,  6.7721232772e-02,  9.9067434669e-02, -5.6579459459e-02, -5.9363421053e-02, -6.5501675010e-02, -8.6792759597e-02, 
	-7.0571154356e-02,  1.1380875111e-01,  2.3431006819e-02, -5.5086940527e-02, -3.5886295140e-02, -9.2695914209e-02, -7.1638181806e-02,  1.2410771102e-01, -9.8879434168e-02, -3.1294934452e-03, 
	 1.2961393595e-01, -4.5030940324e-02,  3.5708448850e-03,  1.2351998128e-02, -1.1128930748e-01,  1.6168117523e-02,  7.7497549355e-02,  5.2520580590e-02, -6.4504735172e-02, -1.9384130836e-02, 
	 5.8602608740e-02, -6.9911025465e-02, -5.9957001358e-02, -4.5978274196e-02, -5.4520137608e-02, -1.0091069154e-02,  2.8026081622e-02, -1.1864933185e-02,  1.0017707199e-01, -1.3552815653e-03, 
	-3.3974014223e-02, -9.3765377998e-02, -4.6785742044e-02, -1.1035981029e-01, -9.7117327154e-02, -8.2460649312e-02,  7.0655748248e-02, -1.3240353204e-02,  1.1715710908e-01,  1.5119892545e-02, 
	-1.1555779725e-01,  7.5028315187e-02, -3.0081700534e-02, -1.3881212473e-01, -1.0580796003e-01, -3.6115378141e-02, -4.4967778027e-02, -1.1556805670e-01,  5.8841787279e-02, -5.9412535280e-02, 
	-1.3626770675e-01, -3.5041745752e-02,  1.2517897785e-01, -4.8817064613e-02,  5.6906964630e-02, -7.7867142856e-02,  4.6420443803e-02, -1.9194440916e-02, -8.2920536399e-02,  7.4792064726e-02, 
	-9.7967684269e-03,  2.3242261261e-02, -2.7100019157e-02,  5.5016536266e-02,  6.3516460359e-02, -1.4569683000e-02, -9.9835045636e-02,  6.4059935510e-02, -5.0571098924e-02, -5.0386106595e-03, 
	-1.1475716531e-01,  1.8569562584e-02, -5.4370179772e-02,  8.8599324226e-02,  4.2748123407e-02,  5.4339546710e-02,  5.1408414729e-03,  6.3262373209e-02, -1.6130508855e-02, -8.1103488803e-02, 
	 8.0920659006e-02, -3.3484599553e-03, -1.0216094553e-01, -8.3075977862e-02, -1.1924023181e-01, -7.6528631151e-02, -2.5244908407e-02, -5.2869383246e-02, -1.9906472415e-02, -1.0366960429e-02, 
	-5.4418459535e-02,  5.2442941815e-02, -1.2536592782e-01, -2.2246973589e-02,  3.2700043172e-02,  9.5167435706e-02, -1.3654616475e-01,  3.7116441876e-02,  8.0905361101e-03, -5.8876178227e-03, 
	 2.3802878335e-02,  1.6214381903e-02,  5.8295227587e-02,  1.1771189421e-01, -1.2375246733e-01,  2.9323786497e-02, -9.1184832156e-02,  5.1419071853e-02, -7.0514515042e-02,  9.6639476717e-02, 
	 5.6817708537e-03, -1.1658820510e-01,  1.2637367472e-02, -3.6017391831e-02, -3.6281025968e-03,  3.3999323845e-02, -8.9798107743e-02, -3.6063905805e-02, -2.9288265854e-02,  7.1129046381e-02, 
	-3.9585907012e-02,  8.6688190699e-02, -4.9607280642e-02, -9.5520853996e-02, -3.5868596286e-02, -3.0412236229e-02,  8.8769719005e-02, -8.7662376463e-02,  8.3429709077e-02, -8.6749494076e-02, 
	 1.0855045915e-01,  6.6646866500e-02, -1.2502250075e-01, -8.8661521673e-02,  2.0250759553e-03,  6.5811306238e-02,  5.2588563412e-02, -4.5222781599e-02, -6.7191928625e-02,  1.2832938135e-01, 
	 1.2941442430e-01,  9.2956781387e-02, -4.7297723591e-02,  5.0172980875e-02,  7.1580290794e-02, -1.0699331015e-01,  6.6709741950e-02,  2.5030584075e-03,  5.3226124495e-02,  7.4410714209e-02, 
	-1.2159880996e-01, -9.6206940711e-02, -4.8962406814e-02,  3.2462030649e-02,  1.1648907512e-01, -6.5282210708e-03,  1.0202416778e-01, -4.5268222690e-02,  5.7311598212e-02, -5.4439090192e-02, 
	-3.3763665706e-03,  7.0599913597e-02, -5.5457301438e-02, -9.9050983787e-02, -9.4388447702e-02, -1.3663917780e-01, -9.6646003425e-02, -6.2565930188e-02, -3.7661079317e-02, -3.1148221344e-02, 
	 6.0040629469e-03,  1.1666926742e-01,  9.1050989926e-02,  7.8921027482e-02, -5.8557920158e-02, -1.2598071992e-01, -1.2583614886e-01, -4.7614324838e-02,  7.2192072868e-02, -1.1690253764e-01, 
	 1.0740367696e-02,  6.2036924064e-02, -5.0628669560e-02,  5.9195358306e-02, -3.8643985987e-02,  1.0146627575e-01,  7.0219606161e-02, -7.8397795558e-02, -2.9824255034e-02,  5.2372198552e-02, 
	 9.1312400997e-02, -6.2431572005e-03, -9.9662646651e-02, -1.2747217715e-01, -1.0413360596e-01,  6.4767293632e-02, -5.5791689083e-03, -1.2419261038e-01, -3.0925385654e-02, -8.2309432328e-02, 
	-9.1979220510e-02, -1.0968141258e-01,  1.0849405080e-01,  3.3852525055e-02,  1.1018396914e-01,  8.0849558115e-02,  1.2966404669e-02, -6.3169822097e-02, -1.8807508051e-02, -5.4296769202e-02, 
	 9.2068932950e-02,  3.3557981253e-02, -8.8805317879e-02, -4.5190189034e-02,  9.6079856157e-02,  5.4131574929e-02, -8.1100583076e-02, -8.9884713292e-02, -1.3675966859e-01, -8.9396629483e-03, 
	 5.4265824147e-03,  1.0958626121e-01, -4.5215100050e-02, -8.8156752288e-02, -5.2839450538e-02, -1.0395941138e-01, -6.2362845987e-02, -8.8544033468e-02,  1.3018460944e-02,  1.1945857108e-01, 
	 8.8028542697e-02, -4.3159827590e-02,  9.6444152296e-02, -9.3259327114e-02,  9.3946509063e-02, -8.9307017624e-02,  8.3525784314e-02,  3.9719857275e-02,  1.1836411804e-01, -5.6529499590e-02, 
	-2.5901073590e-02,  1.0545716435e-01, -9.5874898136e-02,  1.2639261782e-01,  1.1193699390e-01,  1.1759604514e-01,  1.2078877538e-01,  9.9479794502e-02, -4.5606534928e-02, -1.0375339538e-01, 
	 5.5944104679e-03,  1.0358674079e-01,  9.9135823548e-02,  9.1149993241e-02, -9.6208021045e-02,  1.1569583416e-01, -8.2888435572e-03,  1.0524036735e-01,  8.8420018554e-02,  1.9063040614e-02, 
	 6.0624334961e-02, -5.1360603422e-02,  2.5122998282e-02,  5.7091034949e-02,  1.8522655591e-02,  1.1419658363e-01,  7.4246495962e-02, -4.7444272786e-02, -2.0446764305e-02,  2.6072986424e-02, 
	-1.6515953466e-02,  5.1810510457e-02, -7.7959434129e-03,  1.8965644762e-02, -6.3208185136e-02, -5.7514175773e-02, -4.6047843993e-02, -2.0585609600e-02, -2.3508908227e-02,  8.2651712000e-02, 
	-7.6565347612e-02,  3.8681425154e-02,  3.4886237234e-02, -3.1159445643e-02,  4.0214061737e-02,  6.9765381515e-02, -1.4780458994e-02,  5.9513933957e-02,  2.6040475816e-02, -5.4183706641e-02, 
	-1.1284345388e-01,  1.2149648368e-01,  1.4281685650e-01,  6.5341427922e-02,  1.5558276791e-03,  1.0456078500e-01, -3.3216699958e-02,  2.0794754848e-02, -1.1782213300e-01, -4.8935927451e-02, 
	-4.4628396630e-02,  4.4051058590e-02, -8.5807360709e-02, -1.1984569579e-01, -7.3507480323e-02,  1.3197042048e-01, -8.9208588004e-02,  1.3052128255e-01,  1.0715403594e-02,  6.5250205807e-03, 
	 6.8541720510e-02,  1.8161518499e-02,  2.3452481255e-02,  1.0640699416e-01,  2.1843030117e-03, -1.1531507596e-02, -1.1276862770e-01, -8.1409960985e-02, -1.1041192710e-01,  3.9905238897e-02, 
	-2.5298267603e-02, -1.2634316459e-02, -2.8426097706e-03,  8.9285746217e-02, -7.0041236468e-03,  1.2022618204e-01, -2.1132310852e-02,  1.3011108339e-01, -1.0744851828e-01, -8.8545106351e-02, 
	-1.6101190820e-02,  3.3502291888e-02,  1.1922965199e-01, -5.1372196525e-02, -9.9186263978e-02, -6.2513239682e-02,  3.1073056161e-02, -6.6182911396e-02,  4.7541588545e-02, -9.0264044702e-02, 
	 5.2103895694e-02,  1.2968744338e-01,  1.0393735021e-01, -5.1918849349e-02,  4.4248711318e-02,  1.3095044531e-02, -7.0521384478e-02, -8.1513889134e-02, -7.1321867406e-02,  1.1405655742e-01, 
	 2.8793545440e-02, -1.2304309756e-01,  7.4015066028e-02, -5.0778549165e-02, -8.6211293936e-02, -3.9360433817e-02,  2.0551571622e-02, -3.2493725419e-02, -5.0784554332e-02,  1.5342267230e-02, 
	-5.0005141646e-02, -8.7764739990e-02,  2.4591051042e-03, -5.0006159581e-03, -8.8757850230e-02,  8.4849245846e-02, -7.7555060387e-02, -6.8184539676e-02,  2.8845466673e-02, -7.2273738682e-02, 
	 2.0693312399e-03,  1.1993918568e-01, -2.0283600315e-02, -5.1623553038e-02, -5.1680941135e-02, -2.5928162038e-02,  6.4924418926e-02,  1.0911294073e-01,  1.8309568986e-02, -7.1855783463e-02, 
	 1.3800582290e-01,  9.5995023847e-02,  9.2708297074e-02,  3.4619659185e-02,  2.0038885996e-02,  4.6919293702e-02,  6.8732492626e-02,  1.8146345392e-02,  1.3097840548e-01, -1.1616751552e-01, 
	 9.9308460951e-02,  6.5583281219e-02,  6.9579236209e-02,  3.9844088256e-02,  8.6055740714e-02, -1.0974343121e-01,  1.1073694378e-01, -4.0141057223e-02,  1.3031117618e-01, -5.1496263593e-02, 
	 1.1744611710e-01, -1.1345381290e-01, -7.2890050709e-02,  2.9060557485e-02,  9.7336366773e-02,  1.0701189935e-01, -7.4837423861e-02, -1.1278238147e-02,  4.9467859790e-03,  2.3969586473e-03, 
	 1.1762332916e-01,  4.1803721339e-02, -1.0494579375e-01, -4.2635239661e-02, -3.1189274043e-02,  6.3010692596e-02, -5.6387633085e-02,  7.8903123736e-02, -9.2209704220e-02, -1.6870757565e-02, 
	 3.6013118923e-02,  8.1836625934e-02,  1.2332409620e-01, -9.2458859086e-02,  5.5703550577e-02, -3.2129768282e-02,  1.0474709421e-01,  8.3316452801e-02,  4.5961108059e-02,  8.3684846759e-02, 
	 4.5485291630e-02, -5.2366364747e-02, -1.5853203833e-02, -6.1322227120e-02, -6.4567938447e-02, -5.8411397040e-02, -9.4886705279e-02, -6.2805756927e-02,  1.1823040992e-01,  5.4759938270e-02, 
	-1.1946237087e-01, -6.1413235962e-02,  1.0481026955e-02,  1.4158566482e-02,  3.2050002366e-02,  7.8374177217e-02, -3.5338643938e-02, -1.1453253776e-01, -5.7041410357e-02,  5.5956121534e-02, 
	-3.1769994646e-02, -1.9001787528e-02,  9.5179311931e-02,  4.1937168688e-02,  8.9093558490e-02,  1.2632864714e-01, -1.1886376888e-01, -6.4691677690e-03, -6.2816813588e-02, -8.3241432905e-02, 
	-1.8541077152e-02, -8.5732676089e-02,  1.1208467931e-01, -6.9830678403e-02,  7.2674311697e-02,  5.5700324476e-02, -5.1502004266e-02, -1.2671370804e-01,  8.2957245409e-02,  1.2372750789e-01, 
	 1.1574240774e-01, -3.4444298595e-02,  9.9037729204e-02,  7.6654508710e-02, -1.1310591362e-02,  6.7620545626e-02, -9.3270957470e-02, -6.0722749680e-02, -5.5026665330e-02,  3.3508818597e-02, 
	-1.6451144591e-02, -8.7019000202e-03,  1.0463469476e-01, -8.1703081727e-02,  9.2026330531e-02, -8.5353218019e-03,  1.1123656482e-01, -9.3817757443e-03, -9.3886293471e-02, -1.0888179392e-01, 
	-9.6429042518e-02,  3.6827474833e-02, -1.2010056525e-01, -8.0423779786e-02, -2.2448364645e-02,  6.6830269992e-02, -4.1923090816e-02, -1.0241200030e-01, -2.9462538660e-03,  8.9667895809e-03, 
	-1.0029714555e-01, -1.2407218665e-01,  6.9917249493e-03,  5.5754397064e-02,  8.7736546993e-03, -2.3999692872e-02, -3.9714246988e-02, -8.6839906871e-02,  4.6160440892e-02, -2.3448654247e-05, 
	 2.1712638438e-02, -3.9384201169e-02, -1.0642123967e-01, -3.0212480575e-02,  1.0297436267e-01, -7.7414132655e-02, -2.0033869892e-02,  6.5663874149e-02,  1.5270483680e-02,  2.0512325689e-02, 
	-1.5067995526e-02,  2.4571249261e-02, -8.1394024193e-02,  1.1674997211e-01, -1.1694499105e-01,  7.2592079639e-02,  7.7951453626e-02, -1.0464318097e-01,  1.4055340551e-02, -1.0787738860e-01, 
	 8.6304776371e-02,  9.7834514454e-03, -9.6756875515e-02, -9.5959000289e-02,  5.3476095200e-02,  7.3190107942e-02,  1.1876686662e-01, -2.5258956477e-02,  1.0077667981e-01,  3.3398013562e-02, 
	-1.1958132684e-01,  2.5582043454e-02,  1.0425344110e-01,  1.1628361046e-01,  2.3877888918e-02, -3.9866175503e-02, -1.8536085263e-02,  1.3100314140e-01,  5.3204618394e-02, -5.2715625614e-02, 
	 1.4380667359e-02,  5.8112137020e-02,  8.6714327335e-02, -7.2355665267e-02,  1.0169680417e-01, -2.8509929776e-02,  8.6260177195e-02, -6.4940452576e-02, -1.1273263395e-01,  7.5316488743e-02, 
	-2.7056196705e-02, -9.1781638563e-02,  1.2477010489e-02, -8.4940858185e-02, -1.7762999982e-02,  1.1327809095e-01,  2.3171728477e-02,  9.3768529594e-02, -9.5688901842e-02,  1.0202389956e-01, 
	 9.5637306571e-02,  6.4271256328e-02, -1.9749021158e-03,  4.4536285102e-02,  7.5671628118e-02, -6.2229141593e-02, -1.1464655399e-01,  7.9126134515e-02,  6.5982311964e-02, -7.7688246965e-02, 
	-1.4373677550e-03,  6.6554524004e-02, -1.0064057261e-01,  6.2356948853e-02,  9.4662047923e-02,  8.3915695548e-02,  1.1400134861e-01,  1.7138874158e-02, -1.3157798350e-01, -1.2795402110e-01, 
	 6.8699553609e-02,  2.2255232558e-02, -3.1602155417e-02, -4.2941927910e-02, -1.2793086469e-01,  8.3815939724e-02,  6.4421765506e-02,  2.2917186841e-02,  1.0436578095e-01,  1.1723130196e-01, 
	 1.1214214563e-01,  1.3001658022e-02, -8.7472192943e-02, -9.1579325497e-02, -7.0390149951e-02, -9.4318658113e-02, -9.8607003689e-02,  9.0454451740e-02,  3.0819771811e-02,  7.1110785007e-02, 
	-4.5185428113e-02, -6.3224986196e-02,  4.6631479636e-03, -1.1445914954e-01, -7.5922861695e-02,  6.1025261879e-02, -3.2798808068e-02, -6.8780861795e-02,  4.5873053372e-02, -1.1271769553e-01, 
	 6.6633126698e-03, -2.0796965808e-02, -4.6778302640e-02, -2.4958673865e-02, -7.4411295354e-02,  1.7661968246e-02, -1.0030858219e-01, -3.8814410567e-02,  7.6282903552e-02, -1.0653068125e-01, 
	 6.3300736248e-02,  4.2871721089e-02, -1.6688471660e-02,  5.1625310443e-03,  9.9140085280e-02, -1.0724720359e-01, -4.1354808956e-02, -2.0316250622e-02,  1.0295361280e-01, -1.0246518254e-01, 
	-7.7316232026e-02,  1.1407656968e-01, -9.6746467054e-02,  6.2398170121e-03,  2.4102231488e-02, -7.3966391385e-02, -8.6004979908e-02, -6.4307399094e-02, -8.2732491195e-02, -7.7060513198e-02, 
	 6.1706181616e-02, -1.2223660201e-01, -3.2219935209e-02,  7.3331249878e-03, -8.8757224381e-02, -1.4592620544e-02, -1.3709633052e-01, -1.0280706733e-01, -3.9545603096e-02, -1.1026355624e-01, 
	-6.0088183731e-02, -8.9293077588e-02, -2.6213798672e-02, -3.9453241974e-02,  5.4734934121e-02,  9.0031571686e-02, -9.8465912044e-02,  1.0855299979e-01,  1.4986184426e-02, -1.2697775662e-01, 
	 7.3401466012e-02,  9.6101304516e-03, -4.3256130069e-02,  2.2567801178e-02, -1.2336489558e-01,  1.0924866050e-01, -4.6584151685e-02, -5.8317348361e-02, -7.0331208408e-02, -7.5775936246e-02, 
	-3.6275282502e-02,  4.2688243091e-02, -1.2445430458e-01,  1.1582063138e-01,  1.0346098244e-01,  2.7182597667e-02, -1.0027932376e-01,  6.7480191588e-02, -3.0258016195e-03,  7.9019993544e-02, 
	 6.0282133520e-02, -7.5725212693e-02, -1.1063336581e-01,  7.4096657336e-02, -7.0813313127e-02, -5.9100680053e-02,  7.6766215265e-02,  3.4375652671e-02, -1.0445699096e-01, -1.1977680773e-01, 
	 1.0632675141e-01,  1.1270157248e-01,  8.2543477416e-02, -4.8897482455e-02,  1.0759637505e-01, -8.8134489954e-02, -4.5350929722e-03, -4.6346094459e-02, -1.3104896247e-01, -7.9724155366e-02, 
	-6.4498655498e-02,  3.2722286880e-02, -7.8391604125e-02, -5.0779186189e-02,  7.9205788672e-02, -7.8423105180e-02, -1.0149829835e-01,  3.8379054517e-02,  1.1723218113e-01, -1.6389254481e-02, 
	 4.9435216933e-02, -1.2844495475e-01, -6.5172135830e-02, -6.3965357840e-02,  1.0476739705e-01, -9.7246639431e-02,  1.0929191485e-02, -1.0026695579e-01,  1.0589396209e-01, -6.5539456904e-02, 
	-1.0031539202e-01, -7.1885667741e-02, -1.1972597986e-01,  7.6611839235e-02, -7.5379818678e-02,  2.4485561997e-02,  5.3123917431e-02, -5.3760972805e-03,  1.1733932793e-01, -5.2986647934e-02, 
	 4.7881416976e-03, -1.1031459086e-02, -2.7247630060e-02,  4.6777587384e-02, -2.8633708134e-02,  5.7098697871e-02,  5.4602403194e-02, -3.4395635128e-02, -6.6033460200e-02,  6.1506535858e-03, 
	 8.8472902775e-02,  6.9195687771e-02,  9.2231884599e-02,  1.5032856725e-02,  5.9729687870e-02, -1.4320807159e-01, -1.0722017288e-01, -2.3414788768e-02,  3.4361541271e-02, -9.9134594202e-02, 
	-7.3945321143e-02, -1.1418814212e-01,  5.2619777620e-02, -7.5991839170e-02, -4.3175633997e-02,  6.7003272474e-02, -4.3206992559e-03, -2.3847175180e-04,  8.8701412082e-02,  3.2394640148e-02, 
	 4.9452930689e-02,  3.4522470087e-02, -5.2458561957e-02, -3.3357482404e-02,  3.1059322879e-02,  8.2068368793e-02, -4.8121225089e-02, -5.0446901470e-02, -6.6794499755e-02, -8.5863225162e-02, 
	 1.0042518377e-01, -1.1618603766e-01,  9.6961133182e-02,  9.4659864902e-02, -1.1060956120e-01,  1.5611730516e-02,  1.3119097799e-02, -1.2578541040e-01,  9.9467553198e-02, -3.4204319119e-02, 
	-5.8143969625e-02, -8.6082763970e-02,  1.9677221775e-02,  2.6902990416e-02,  2.6857359335e-03,  1.0828126967e-01, -4.0473230183e-02, -4.0654953569e-02,  8.3029724658e-02, -7.4166618288e-02, 
	 1.8745437264e-02, -1.3793678582e-01, -7.1433611214e-02, -6.4256531186e-04, -2.9958132654e-02, -4.4379145838e-03,  1.0274946690e-01,  3.7581816316e-02,  9.5452852547e-02, -1.0458968580e-01, 
	 1.1611899734e-01,  1.0955021530e-01, -1.1511169374e-01,  1.1991462111e-01,  5.6904401630e-02, -1.3092824817e-01, -2.0238129422e-02,  1.3256344199e-01,  1.1315474659e-01,  3.5445552785e-03, 
	 8.6998539045e-03,  6.0320459306e-03, -1.0888304561e-01, -5.0973072648e-02, -1.4702450484e-02, -1.0581620783e-01, -1.0991424322e-01,  1.0590612143e-01, -3.6202378571e-02,  1.6971694306e-02, 
	 3.8418047130e-02, -5.1779858768e-02,  6.2931284308e-02,  6.7964211106e-02,  7.2452656925e-02,  4.7806814313e-02,  4.4061377645e-02, -8.6944073439e-02,  1.2101214379e-02, -1.6224926338e-02, 
	-9.4779729843e-02,  1.0961385816e-01, -9.4097033143e-03, -7.6546810567e-02,  6.9650247693e-02,  1.3341770507e-02,  1.1591012590e-02, -6.1052297242e-03,  7.0913530886e-02, -1.2430502474e-01, 
	 6.4125217497e-02,  1.1573803425e-01,  9.0473026037e-02,  8.5444383323e-02,  8.2357175648e-02, -6.8377115531e-04,  1.3151279651e-02,  3.9164613932e-02,  9.3097649515e-02,  3.9273045957e-02, 
	 9.3327946961e-02, -7.1245014668e-02,  7.9715065658e-02, -7.1072824299e-02, -1.3837084174e-01,  1.0216493905e-01, -8.6731292307e-02,  4.8400770873e-02, -2.9491081834e-02,  3.8601516280e-03, 
	-9.9545665085e-02,  7.5580358505e-02,  5.1133207977e-02, -9.0395756066e-02, -1.9015496597e-02, -1.2528999150e-01,  5.4080799222e-02, -8.5925914347e-02,  1.0926277190e-01, -1.1348199099e-02, 
	-6.1285085976e-02, -3.8988970220e-02,  4.0983598679e-02, -1.1539528519e-01, -1.2817689776e-01,  1.1992160976e-01,  7.5699225068e-02, -1.1047847569e-01, -2.3904200643e-02,  1.1614792794e-01, 
	-3.1699877232e-02,  8.4283307195e-02,  5.1254108548e-02, -9.3963697553e-02, -8.7730310857e-02, -9.0272985399e-02, -1.2406692654e-01, -6.8553842604e-02, -1.2880355120e-01, -5.8338049799e-02, 
	-1.3271634281e-01, -3.8819346577e-02, -1.5448084101e-02, -1.2944850326e-01, -1.3055254519e-01, -2.1949088201e-02,  6.8123459816e-02, -6.6130556166e-02, -1.4802843332e-02,  9.1369524598e-02, 
	-9.3250736594e-02, -7.3078185320e-02,  8.8215187192e-02, -4.5188568532e-02, -7.4680693448e-02,  8.9568071067e-02,  3.2125841826e-02, -6.7823849618e-02, -6.9275356829e-02,  2.2645281628e-02, 
	 1.7569050193e-02,  9.6035718918e-02, -6.5444841981e-02, -1.0782438517e-01,  1.2924928218e-02, -4.0559858084e-02,  5.0554480404e-02,  6.1488557607e-02, -8.9792720973e-02, -9.4995073974e-02, 
	-6.4175561070e-02,  3.8370534778e-02,  1.0866155475e-01, -1.1380545050e-01, -7.4411578476e-02, -7.1951493621e-02,  1.0604035854e-01,  5.9208892286e-02,  7.8609421849e-02,  5.9915684164e-02, 
	 5.9153746814e-02,  1.0729182512e-01, -6.2949702144e-02, -6.9953300059e-02, -9.5773719251e-02,  9.3060225248e-02, -1.6883458942e-02, -3.5981688648e-02, -8.9030869305e-02, -2.2388443351e-02, 
	-1.0833995044e-01,  3.1767692417e-02, -1.3037782907e-01, -1.0686396062e-01,  6.2706626952e-02, -4.9810897559e-02,  8.8762328029e-02, -6.7929960787e-02, -7.5455628335e-02, -2.1043313667e-02, 
	-1.0648382455e-01,  1.1595029384e-01,  9.3718789518e-02,  1.4636031119e-03,  5.3420562297e-02, -7.1291230619e-02,  6.1720213853e-04,  7.6802834868e-02, -1.2315578759e-01,  2.3576507345e-02, 
	 1.0177405924e-01, -1.0164336115e-01,  5.0839461386e-02,  4.2502183467e-02,  1.2652877485e-03,  1.0684826970e-01,  1.8999494612e-02,  1.1395762861e-01,  6.8016551435e-02,  9.6957702190e-03, 
	-1.3778057182e-03,  2.5276998058e-02, -2.0291097462e-02, -5.9048663825e-03, -9.9996633828e-02,  4.9411009997e-02, -6.4050979912e-02,  7.8033506870e-02, -9.3709707260e-02,  1.8584188074e-02, 
	 9.0761430562e-02, -7.4887529016e-02,  1.5136977658e-02, -5.8366291225e-02, -1.0920015723e-01,  2.3736523464e-02, -4.3385392055e-03,  1.3050147891e-01,  1.0032082349e-01,  1.0346858203e-01, 
	-2.9078321531e-02, -5.7624246925e-02,  7.2811894119e-02,  1.2323418260e-01, -8.3902277052e-02, -9.3356817961e-02,  8.9520566165e-02, -8.2429938018e-02, -1.0473909974e-01,  5.2544742823e-02, 
	 7.6217934489e-02,  2.3603286594e-02,  7.9859465361e-02,  4.7122914344e-02, -3.6128282547e-02,  6.1063911766e-02,  1.1161013693e-01,  1.1955165118e-01, -7.3431409895e-02,  1.0972866416e-01, 
	 4.0132026188e-03,  5.3122960962e-03, -1.1914334446e-01,  2.4650523439e-02,  8.2553913817e-03, -6.0426507145e-02,  1.1325006187e-01,  6.5547995269e-02,  7.6871663332e-02,  5.6964926422e-02, 
	 1.1198002845e-01, -1.1980175227e-01,  2.2361770272e-02,  7.0854194462e-02, -7.0516325533e-02, -8.1088125706e-02, -5.6070979685e-02, -1.2363429181e-02, -1.1284797639e-01,  6.9067351520e-02, 
	 8.6129941046e-02,  1.1023860425e-01, -1.0139928758e-01, -1.0920828581e-01, -1.2976326980e-03,  8.0653578043e-02, -6.6379524767e-02, -4.1851159185e-02,  1.0851491243e-01,  1.3471125066e-01, 
	-4.5812893659e-02, -9.6986949444e-02, -6.8588763475e-02, -1.7739618197e-03, -6.8324141204e-02, -1.4023290714e-03, -6.6001728177e-02, -4.0419247001e-02, -8.6925387383e-02,  8.6480908096e-02, 
	 2.6747398078e-02,  1.2531706691e-01,  4.4658016413e-02,  1.3179689646e-01,  4.9071725458e-02,  1.2533378601e-01,  7.2551265359e-02, -2.3715661839e-02, -1.0042187572e-01, -3.7169791758e-02, 
	 1.1414849013e-01,  7.7051818371e-02,  8.4072388709e-02, -1.2052536011e-01, -8.9718811214e-02,  2.0526967943e-02,  4.7385487705e-02,  6.4388260245e-02,  8.8268496096e-02, -3.4069195390e-02, 
	 7.4785756879e-03, -2.2091645747e-02, -7.0077367127e-02,  1.2120875716e-01,  3.8897141814e-02,  5.3279615939e-02,  1.4771783724e-02,  1.9051564857e-02, -4.3510301039e-03,  3.5382669419e-02, 
	-6.1900924891e-02, -1.0839572549e-01,  1.0098446906e-01, -9.0120444074e-03,  4.2459085584e-02,  3.7763353437e-02, -6.6483868286e-03,  4.1687954217e-03, -2.4903271347e-02, -7.8722313046e-03, 
	-5.2591446787e-02, -7.5732983649e-02,  1.0350937396e-01, -9.7933970392e-02, -7.3167622089e-02,  6.8264976144e-02, -8.2300968468e-02, -1.2796850502e-01, -1.8449855968e-02,  1.1440942436e-01, 
	 4.9010176212e-02, -6.8809628487e-02,  3.1862709671e-02,  7.3007732630e-02,  9.7714282572e-02, -4.0006272495e-02, -8.5834071040e-02,  1.2495125830e-01,  5.9838004410e-02, -7.8082233667e-02, 
	-9.6999987960e-02,  6.5615236759e-02, -2.0215783268e-02, -2.4426363409e-02,  7.5202686712e-03, -5.3135290742e-02, -1.4975704253e-02, -1.0439205170e-01, -8.4860831499e-02, -3.6493182182e-02, 
	 9.9928200245e-02, -1.1691669375e-01, -1.1695328355e-01, -7.6555788517e-02, -1.3117798604e-02,  2.1272556856e-02, -8.0476298928e-02,  6.7690134048e-02, -9.6033811569e-02,  6.2400549650e-02, 
};

const float layer_6_conv2d_bias[UNET_PAR_6_CONV2D_OUT_FILTER] = {
	 2.7584396776e-06, -1.3205557252e-06, -5.7810498220e-06, -7.1887143349e-07,  1.0774139128e-06, -1.2720756786e-06, -1.7715738068e-06,  4.4633395646e-07, -1.4412993323e-06, -3.6083918076e-06, 
	-4.9643796274e-07, -4.0999784687e-06, -3.3880937167e-07, -1.9239425910e-06,  2.8736551485e-06,  2.9037471450e-07,  5.9797425820e-06, -2.3152072117e-06,  3.4241747926e-06,  4.6860373004e-06, 
};


#endif
