#ifndef PARAMS_CONV2D_14_H
#define PARAMS_CONV2D_14_H
#include "params.h"

const float layer_14_conv2d_weight[UNET_PAR_14_CONV2D_KERNEL_Y*UNET_PAR_14_CONV2D_KERNEL_X*UNET_PAR_14_CONV2D_IN_FILTER*UNET_PAR_14_CONV2D_OUT_FILTER] = {
	-1.4190563932e-02,  5.4420623928e-03, -4.9810722470e-02,  5.4934073240e-02,  1.5769668971e-04,  5.9983693063e-02,  2.4972185493e-03, -6.5880157053e-02,  1.0814067908e-02,  4.4399690814e-03, 
	-3.3436313272e-02, -5.2149407566e-03,  1.1917044409e-02, -2.1738244221e-02,  4.8135802150e-02, -4.4180836529e-02, -2.9643077403e-02,  1.1998475529e-02,  1.8693637103e-03,  5.2781533450e-02, 
	 1.1415760964e-02, -7.7286483720e-03,  3.8217127323e-02,  3.7324111909e-02, -2.3163467646e-02,  2.1407574415e-02,  4.0155678988e-02,  1.8593333662e-02,  5.5048953742e-02,  3.7484664470e-02, 
	-3.7673953921e-02, -7.4152159505e-03,  4.5699734241e-02,  5.2921846509e-02, -6.4715720713e-02,  5.7860836387e-02, -2.1702297032e-02, -5.4225608706e-02,  3.2156966627e-02, -2.3499079049e-02, 
	-1.3952464797e-02, -3.6710508168e-02, -6.5985880792e-02, -5.3208008409e-02, -4.4912651181e-02,  2.2736301646e-02,  4.7999691218e-02,  2.4194872007e-02, -4.9485877156e-02,  5.1351983100e-02, 
	-3.0330126174e-03,  6.1053009704e-03, -2.3536887020e-02, -3.5312570632e-02,  1.7624525353e-02, -5.4914936423e-02,  3.4158888739e-03, -1.3056778349e-02,  2.4497639388e-02, -5.2545402199e-02, 
	-4.8753768206e-02, -1.8149487674e-02, -2.7405035216e-03,  4.5331917703e-02, -3.6349069327e-02, -5.7528838515e-02,  5.7309877127e-02,  2.7353854850e-02, -1.2706969865e-02, -3.9314154536e-02, 
	-2.7256721631e-02,  7.4771843851e-02,  2.4187240750e-02, -2.6107838377e-02,  5.6297812611e-02,  5.6614167988e-02, -7.1412473917e-03, -1.3922092505e-02, -3.1865987927e-02,  8.3769420162e-03, 
	-1.4639432542e-02, -3.7095260341e-03,  6.5878927708e-02, -5.7942822576e-02, -8.9940512553e-03, -6.1436519027e-02, -4.6051245183e-02,  9.8969778046e-03, -4.8256915063e-02,  2.5038970634e-02, 
	 8.8637964800e-03,  1.0106081143e-02,  5.4209426045e-02,  3.2817730680e-03, -4.8816461116e-02, -5.1058143377e-02,  3.1668197364e-02,  3.0958257616e-02,  5.2916433662e-02, -3.0727159232e-02, 
	-6.0555517673e-02, -4.1093960404e-02, -2.3221818730e-02, -3.9122708142e-02, -3.3715595491e-03,  6.2510021031e-02, -2.6182223111e-02, -4.4644732028e-02,  5.8668915182e-02,  3.1539410353e-02, 
	 5.2264161408e-02, -5.0574868917e-02,  9.0928953141e-03, -5.4993247613e-03,  4.8986416310e-02, -3.0602598563e-02,  6.3908971846e-02,  1.4786951244e-02,  5.4714854807e-02, -1.5699457377e-02, 
	 4.8667408526e-02, -4.0721040219e-02, -4.1766767390e-03, -6.6043034196e-02, -3.4017078578e-02,  2.7999118902e-03, -6.5640634857e-03,  6.1896886677e-02, -6.1957620084e-02,  1.2994660996e-02, 
	-6.5443225205e-02, -6.3790455461e-02,  2.8518335894e-02,  1.5953783877e-03, -5.1879882812e-02, -1.1367137544e-02,  6.3904255629e-02, -3.8320839405e-02,  2.3229565471e-02, -9.1079166159e-03, 
	 4.3476119637e-02,  1.7774073407e-02,  4.3820943683e-02, -3.2365623862e-02,  4.7401063144e-02, -5.9582419693e-02, -2.1416271105e-02,  2.0277634263e-02, -4.6094506979e-02, -3.0595539138e-02, 
	 3.0188854784e-02,  5.3767468780e-02,  5.0565540791e-02, -4.1046556085e-02, -4.2591605335e-02, -6.6643603146e-02,  4.7562710941e-02,  8.6606061086e-03,  6.7448571324e-02,  5.9840213507e-02, 
	 5.5972225964e-02, -2.8781660367e-03,  1.7773783766e-03, -8.6476607248e-03, -9.5277680084e-03,  2.3109910544e-03,  3.3533152193e-02,  4.4644508511e-02,  3.4285418689e-02, -1.2254250236e-02, 
	 2.5693187490e-04, -4.1337851435e-02, -3.0236188322e-02,  2.1030893549e-02,  4.9632694572e-02,  2.7584105730e-02, -6.6386185586e-02,  3.6580812186e-02, -1.1364497244e-02, -4.3490275741e-02, 
	-1.5902802348e-02,  4.6084769070e-02, -1.8249688670e-02, -6.6273286939e-02,  4.1551735252e-02, -8.2259597257e-03,  2.5157475844e-02,  5.1655564457e-02,  4.7514565289e-02,  1.9555559382e-02, 
	-5.8393489569e-02, -3.8568858057e-02,  6.0863465071e-02,  2.3226227611e-02,  7.8082303517e-03, -6.4385792939e-05, -2.0894372836e-02,  1.9021258922e-03,  1.5505132265e-02,  3.5172428936e-02, 
	 3.7648189813e-02,  4.1149307042e-02, -1.9569253549e-02, -5.4085943848e-02,  2.3595966399e-02, -8.0648949370e-03, -3.3511027694e-02,  4.8976134509e-02, -4.0719686076e-03, -1.6130024567e-02, 
	 6.0869693756e-02, -3.1177382916e-02, -4.0617380291e-02, -4.3929360807e-02,  6.7306995392e-02, -2.8451398015e-02,  4.7643173486e-02, -4.0310821496e-03, -1.5745550394e-02, -6.5628565848e-02, 
	 6.3153751194e-02, -3.0252747238e-02,  5.2287422121e-02,  2.2076948080e-03, -4.6141404659e-02, -5.6194350123e-02, -3.4545514733e-02, -1.0783971287e-02,  5.3835742176e-02, -1.9518611953e-02, 
	-4.5063830912e-02, -5.7798661292e-02,  5.3858086467e-02, -5.3935446776e-03,  6.2808692455e-02,  4.2459581047e-02, -2.6880489662e-02,  1.7833279446e-02, -5.7952981442e-02, -3.6474287510e-02, 
	 9.0141659603e-03,  4.0281176567e-02,  4.0883637965e-02, -8.1638777629e-03, -7.6454114169e-03, -1.1597245932e-02, -2.1842006594e-02,  1.4441108331e-02, -6.7937202752e-02, -3.3316861838e-02, 
	-1.3305815868e-02,  5.9033390135e-02,  3.5258531570e-02, -1.4023983851e-02, -2.2238187958e-03, -5.9212416410e-02, -2.5087784976e-02, -1.8968351185e-02,  6.0339994729e-02, -4.2408395559e-02, 
	 7.9391157487e-04,  5.0878822803e-02,  4.4064026326e-02, -4.2221374810e-02,  4.8436611891e-02,  5.3500920534e-02,  1.4760595746e-02,  4.5989412814e-02,  5.8658491820e-02, -2.1928032860e-02, 
	-3.6764726043e-02, -5.5461050943e-03, -6.7961174063e-03,  9.9648418836e-04, -5.4666727781e-02, -7.4980403297e-03, -2.4372430518e-02,  3.4498482943e-02, -2.4789119139e-02, -4.2428787798e-02, 
	-7.2964355350e-02, -1.0885877535e-02,  7.0064760745e-02,  1.7386421561e-02, -5.3318608552e-02, -2.7475543320e-02, -9.8009919748e-03, -5.7682640851e-02, -2.7378894389e-02,  3.1022230163e-02, 
	 3.4799057990e-02, -5.4037563503e-02,  2.8956767172e-02, -5.2670449018e-02, -1.4107990079e-02,  2.8134781867e-02, -5.0264451653e-02,  3.4089121968e-02, -3.3173426986e-02,  5.7529807091e-03, 
	-6.1937268823e-02, -4.1609834880e-02, -5.2931722254e-02,  1.1834563920e-03,  2.0733462647e-02,  5.7821135968e-02, -1.9018465653e-02, -1.6022901982e-02,  3.4914515913e-02,  3.5479459912e-02, 
	 5.8665093035e-02, -4.1979860514e-02,  9.1782109812e-03, -3.2859023660e-02,  1.8373463303e-02, -8.2178320736e-03,  3.7714511156e-02,  5.2873134613e-02, -7.0369899273e-02, -1.0916257743e-03, 
	-5.9145223349e-02, -1.7728170380e-02, -7.0019952953e-02,  3.3048450947e-02,  2.8941293713e-03, -3.7242934108e-02, -2.4980960414e-02, -6.3763119280e-02, -6.0114566237e-02, -1.4312993735e-03, 
	-1.2603473850e-02,  2.4172822013e-02, -1.7888825387e-02, -6.8936042488e-02,  1.8744878471e-03,  2.3601312190e-02, -5.3553275764e-02,  5.5099118501e-02,  5.1027905196e-02,  2.5508930907e-02, 
	-1.3102418743e-02,  2.4861315265e-02,  9.6562440740e-04,  8.4462546511e-04,  2.6962354779e-02, -6.0683600605e-02,  4.7612067312e-02,  3.2379325479e-02, -4.8936140956e-04, -3.2248049974e-02, 
	-4.3602496386e-02, -6.7204073071e-02,  3.5992346704e-02,  2.5017585605e-02, -3.3533223905e-04,  5.2968993783e-02,  6.1536736786e-02, -4.5648418367e-02, -4.3709494174e-02,  5.0256457180e-02, 
	 2.2701591253e-02,  2.0702995826e-03, -1.9178463146e-02, -4.0899820626e-02, -3.8209863007e-02, -3.5873036832e-02, -3.2918043435e-02,  3.4402255551e-06,  3.3646784723e-02, -2.8126984835e-02, 
	 6.2334965914e-02,  5.5848188698e-02, -6.1796564609e-02,  2.1962385625e-02, -2.9408007860e-02, -3.2023742795e-02, -4.3846104294e-02,  7.1590699255e-02,  2.9967172071e-02,  1.2772446498e-02, 
	 5.0211545080e-02,  4.4588213786e-03, -7.0975217968e-03,  6.3599467278e-02,  5.0937488675e-02,  5.1088172942e-02,  2.2047620267e-02, -2.6145026088e-02,  3.6614548415e-02, -7.3802448809e-02, 
	 4.3032191694e-02,  2.6629029308e-03,  2.6091272011e-02, -3.1123679131e-02,  2.3677265272e-02,  4.5816991478e-02,  5.5333737284e-02,  6.3633710146e-02,  1.4602196403e-02, -1.7760859802e-02, 
	-4.6023629606e-02, -9.7539350390e-03,  3.9406608790e-02,  3.0457282439e-02,  6.7960269749e-02,  1.4037363231e-02, -1.8119648099e-02, -2.9728466645e-02, -6.0816362500e-02, -6.5441079438e-02, 
	-1.1820211075e-02, -4.7015910968e-03,  3.1731560826e-02, -7.8286975622e-03,  4.0793471038e-02, -3.0843850225e-02, -4.3317519128e-02,  1.8377032131e-02, -6.3838377595e-02,  4.7426801175e-02, 
	-2.1743198857e-02,  4.2111214250e-02,  3.4555330873e-02, -3.0140969902e-02, -1.8101118505e-02, -5.0234757364e-02, -1.6449030489e-02,  8.7746270001e-03,  3.7797773257e-03, -3.8904987276e-02, 
	 2.5135820732e-02, -8.6459899321e-03, -1.1715925299e-02,  5.7321760803e-02,  5.0259586424e-02, -3.9312690496e-03,  2.5379506871e-02, -1.8093628809e-02,  5.0515975803e-02, -3.4249607474e-02, 
	 4.5262645930e-02, -1.9165648147e-02, -5.0341635942e-02,  3.8620751351e-02,  6.3360959291e-02,  1.9149061292e-02,  4.4576741755e-02, -7.3418684304e-02,  3.7422880530e-02, -4.6835988760e-02, 
	-1.3510477729e-02, -2.9817614704e-02,  5.1119882613e-02,  3.0903555453e-02,  6.5621836111e-03,  4.3124955148e-02, -4.4304426759e-02, -6.3700206578e-02, -2.5933325291e-02,  6.3576139510e-02, 
	-5.0596009940e-02,  6.5293960273e-02, -4.0312740952e-02,  2.4841861799e-02, -5.2182306536e-04, -3.0841438100e-02,  7.6505760662e-03,  6.0814868659e-02,  2.3198312148e-02,  3.5243716091e-02, 
	-1.6699023545e-02,  4.0133170784e-02, -2.3350582924e-03, -5.5297445506e-02, -8.7356884032e-03,  3.7132523954e-02,  1.5315162949e-02, -4.3494053185e-02, -1.0749864392e-02,  2.8453292325e-02, 
	-3.3989224583e-02, -4.4696696103e-02,  6.7434020340e-02,  5.0508983433e-02,  1.1503563263e-02, -3.0976688489e-02,  1.6473338474e-03, -2.1751329303e-02,  2.4239735678e-02, -8.6364587769e-03, 
	-9.1980323195e-03, -1.3296867721e-02, -1.4311833307e-02, -4.3797539547e-03, -2.4953454267e-03, -2.6616651565e-02,  2.6392655447e-02, -4.1266795248e-02,  6.5102338791e-02, -3.9632581174e-02, 
	 7.5093493797e-03,  9.5872897655e-03,  5.0641059875e-02,  3.1946945935e-02,  3.2146438956e-02, -5.3370591253e-02,  3.9896599948e-02, -1.3368723914e-02, -4.3452825397e-02,  1.2731474824e-02, 
	 7.5957542285e-03, -6.0330983251e-02,  4.3339435011e-02, -2.5440433994e-02,  6.2266264111e-02,  3.2187189907e-02, -4.4028297067e-02, -4.8870593309e-02,  5.4077226669e-02,  4.7035929747e-03, 
	 1.6163546592e-02, -2.7944916859e-02,  1.1873704381e-02, -5.3394444287e-02,  4.4906329364e-02, -1.1949803447e-03,  1.9124075770e-02, -4.2539633811e-02, -2.9784215614e-02, -8.1342188641e-03, 
	 1.1574809905e-03, -2.7404325083e-02, -5.1827779971e-03,  5.1255188882e-02,  3.4203245305e-03, -5.3580828011e-02,  4.0228225291e-02, -4.1477065533e-02,  3.4705635160e-02,  1.8471824005e-02, 
	-8.3005037159e-03, -6.1365004629e-02,  3.9473228157e-02, -2.9736420140e-02, -5.5428002961e-03,  6.6244870424e-02, -7.6796496287e-03,  6.1833065003e-02, -1.9708308391e-03, -4.5674931258e-02, 
	-5.7199306786e-02, -4.0369264781e-02, -6.2373168766e-02,  1.7983866856e-02, -6.9652549922e-02, -7.6786023565e-03,  1.6906671226e-02,  5.5670943111e-02, -5.7462953031e-02,  4.6873200685e-02, 
	-3.3308096230e-02,  4.4767670333e-02,  4.6028323472e-02, -4.4808164239e-02,  1.3915380463e-02,  1.4728507958e-02, -1.0635237209e-02,  9.3963602558e-03, -2.0509872586e-02,  2.4425225332e-02, 
	 1.8042203039e-02, -2.2332055494e-02, -3.6825697869e-02, -3.1789410859e-02,  1.9682506099e-02, -5.5485144258e-02,  5.4472718388e-02,  4.5530937612e-02, -4.7188535333e-02, -4.6038541943e-02, 
	-3.5521108657e-02,  1.7284624279e-02, -7.6460777782e-03,  2.7886711061e-02, -5.3208865225e-02,  2.2958902642e-02,  1.7951302230e-02,  5.0385657698e-02,  6.2784828246e-02,  4.2748138309e-02, 
	 4.6673163772e-02, -6.4210511744e-02, -3.0289707705e-02, -4.7909226269e-02, -1.0808741674e-02,  3.4979313612e-02, -2.7960946318e-03, -2.7317078784e-02, -3.3491119742e-02, -3.1561091542e-02, 
	 1.7072118819e-02,  3.6604337394e-02,  4.0554709733e-02, -4.0272373706e-02,  1.7143649980e-02, -5.2804347128e-02,  5.5755414069e-02, -4.4650588185e-02,  7.3338411748e-03,  3.0590990558e-02, 
	 1.6346130520e-02, -4.2896486819e-02, -5.5405512452e-02, -6.6086374223e-02,  4.4823631644e-02,  4.8892941326e-02,  2.5609491859e-03, -3.7407856435e-02,  2.7966836467e-02, -1.0054833256e-03, 
	-7.5521796942e-02,  4.2339742184e-02,  3.7984836847e-02, -2.1648120135e-02, -3.6724258214e-02, -5.3905826062e-02, -5.9981949627e-02,  3.3110335469e-02, -6.5064243972e-02, -6.6638462245e-02, 
	 4.4933874160e-02, -1.5243520960e-02, -3.4202706069e-02,  1.9716387615e-02, -3.0924089253e-02,  6.5079882741e-02,  9.2992102727e-03,  4.5967157930e-02, -6.0024593025e-02, -2.2098021582e-03, 
	-1.2740617618e-02,  5.7369541377e-02, -7.5675114989e-02,  3.6311898381e-02, -5.0020687282e-02, -1.7329750583e-02,  4.9064174294e-02,  5.2366685122e-03,  3.7628181279e-02,  3.1258689705e-03, 
	-2.6306498796e-02,  9.7225904465e-03,  3.3681612462e-02, -6.2291431241e-03, -5.5549584329e-02,  5.2882716060e-02, -1.8997441977e-02,  2.1257889457e-03, -4.3440431356e-02,  1.8984258641e-03, 
	-6.9765135646e-02, -1.9435767084e-02,  1.2511974201e-02, -2.7099234983e-02, -3.7161644548e-02, -6.5823949873e-02,  1.6618084162e-02, -5.3378641605e-02,  4.3804999441e-03,  6.1537958682e-02, 
	-5.7110741735e-02,  6.4283326268e-02,  1.0697492398e-02, -1.2132120319e-02, -1.8291652203e-02,  3.0859172344e-02,  3.8667086512e-02, -4.5698456466e-02, -8.8989810320e-04,  3.7725910544e-02, 
	-1.9138466567e-02,  8.9773489162e-03,  7.7478535241e-04,  3.1873438507e-02, -7.8218141571e-03,  6.2836810946e-02, -1.9952876493e-02,  5.6316368282e-02, -1.5917088836e-02,  3.0943999067e-02, 
	-2.5345850736e-02, -3.3967792988e-02, -1.2622565962e-02,  3.4599781502e-03,  2.3860618472e-02,  1.9967030734e-02,  3.6109812558e-02, -1.9767368212e-02,  4.9942385405e-02, -2.7059417218e-02, 
	-4.5371197164e-02,  2.5026554242e-02,  1.1980643496e-02, -5.3847398609e-02, -9.9889524281e-03, -7.0416275412e-03, -2.0448029973e-03,  6.7608770914e-03,  4.1011054069e-02,  9.0656820685e-03, 
	-4.4622603804e-02,  3.8805618882e-02,  1.0748769157e-02, -6.3376158476e-02, -6.2732800841e-02,  4.2143844068e-02, -2.2867625579e-02, -4.9054697156e-02, -4.9211945385e-02,  4.4515453279e-02, 
	-6.2077045441e-02,  3.6341331899e-02,  1.1015436612e-02,  2.9063483700e-02, -2.1924098954e-02,  4.4669238850e-03,  3.7543434650e-02, -5.8271132410e-02,  4.2626792565e-03, -4.9589544535e-02, 
	 4.6806301922e-02,  2.1444054320e-02, -5.3012669086e-03,  1.0069898330e-02, -4.4774513692e-02,  3.8920417428e-02,  2.6945816353e-02,  2.1379496902e-02, -5.1137734205e-02,  5.6434080005e-02, 
	-4.7661263496e-02, -3.0464582145e-02, -7.2710146196e-03, -3.4061402082e-02, -3.3401943743e-02, -4.4843247160e-03, -1.6734460369e-02,  1.2760432437e-03, -7.2564277798e-03, -1.6381571069e-02, 
	 7.5289732777e-03,  1.7236623913e-02, -1.2284033000e-02,  5.8752384037e-02, -3.0018435791e-02,  3.5942751914e-02, -7.5441487134e-03, -2.2321630269e-02,  4.9420125782e-02,  9.3689654022e-03, 
	-2.6789225638e-02,  1.8235973548e-03,  2.2708468139e-02, -1.4795883559e-02,  2.9387934133e-02,  1.8500424922e-03,  4.1541894898e-03,  3.4957032651e-02,  3.7355490029e-02, -4.8914775252e-03, 
	 8.5875177756e-03,  5.8422652073e-03, -4.6319537796e-03, -2.3844907992e-03, -4.6592745930e-02, -2.2066287696e-02, -1.4083298855e-02,  2.3702947423e-02, -6.8110927939e-02,  6.2392476946e-02, 
	 4.9338757992e-02, -4.0087632835e-02,  3.6583941430e-02, -2.4960724637e-02, -1.5058435500e-02,  3.7924595177e-02,  1.8669383600e-02, -3.7919834256e-02, -2.4745943956e-03, -5.2972491831e-02, 
	 3.0520241708e-02,  3.7850666791e-02, -1.7353773583e-03,  4.7998275608e-02,  4.0517874062e-02, -3.6719005555e-02,  3.5984661430e-02,  2.7412185445e-02,  4.3856173754e-02,  1.3902063947e-03, 
	-2.5680752471e-02,  4.9398683012e-02, -3.6196894944e-02, -6.2433928251e-02,  3.0385900289e-02, -5.2945420146e-02,  4.0716987103e-02,  4.1186944582e-03, -4.5704752207e-02,  4.1231345385e-02, 
	 1.5612797812e-02,  6.0264863074e-02, -1.2218596414e-02,  7.4896658771e-03,  3.2569739968e-02, -2.6861384511e-02, -5.0493214279e-02,  2.6129866019e-02, -4.9787435681e-02, -2.9562558979e-02, 
	-3.6057688296e-02, -1.1778732296e-03, -1.8613882363e-02, -2.0389284473e-03,  5.9408534318e-02,  1.0168705136e-02, -6.5972484648e-02, -5.5733639747e-02, -5.0940074027e-02,  4.6945240349e-02, 
	-5.8365762234e-02, -4.0914442390e-02,  6.1394724995e-02, -5.4475102574e-02, -2.8669156134e-02,  3.1215725467e-02,  5.2872016095e-03,  2.6459643617e-02, -3.1370304525e-02, -2.0331218839e-02, 
	-6.8012595177e-02,  4.6811055392e-02,  6.2585296109e-03, -2.0305877551e-02,  4.3269965798e-02,  7.7742673457e-03,  3.5453215241e-02, -3.1693819910e-02,  1.3861295767e-02, -5.2793689072e-02, 
	-5.1844179630e-02,  4.6002853662e-02, -3.5946842283e-02, -5.8785375208e-02,  2.5064297020e-02, -8.2924766466e-03, -3.2658696175e-02,  2.0905940619e-04, -4.5048166066e-03, -5.7300105691e-02, 
	 3.2274793833e-02, -2.3157900199e-02, -4.1622240096e-02, -6.7936233245e-03, -5.9853032231e-02, -2.4389121681e-03, -2.8171489015e-02,  4.1944369674e-02, -8.9905159548e-03, -5.9378888458e-02, 
	-6.9115266204e-02, -6.4270779490e-02, -2.7028620243e-02,  2.2857327014e-02, -5.0588246435e-02,  1.6030516475e-02, -7.2249700315e-03, -1.6693061218e-02,  2.8423536569e-03,  4.7432854772e-02, 
	-1.5919614583e-02,  1.9002670422e-02,  2.1759435534e-02,  5.2083916962e-02,  2.5826031342e-02,  7.2376457974e-03,  5.9205859900e-02,  1.1254666373e-02, -6.1633929610e-02,  8.0454014242e-03, 
	-5.6769959629e-02,  4.9560822546e-02,  4.6839825809e-02, -5.1875825971e-02, -2.9999284074e-02,  5.0076372921e-02,  2.8307933826e-03, -6.1765927821e-02,  2.4783141911e-02, -1.4516884461e-02, 
	 2.1511882544e-02, -5.0904665142e-02,  4.7764000483e-03, -3.9113156497e-02,  3.8223477895e-04, -3.5810999107e-03,  1.1044707149e-02, -3.2862506807e-02, -1.9052386284e-02,  4.7249801457e-02, 
	-6.0644093901e-02,  3.0789047480e-02,  6.5049313009e-02,  5.1924854517e-02, -5.7528756559e-02, -1.3933544978e-02,  5.6251242757e-02, -4.2307071388e-02, -2.5912867859e-03, -5.9334281832e-03, 
	 1.6578661278e-02, -5.5751301348e-02,  3.3159583807e-02,  9.1303456575e-03, -4.4052261859e-02, -1.1357629672e-02, -6.4356694929e-03, -5.2171606570e-02, -4.8320940696e-03,  4.6060055494e-02, 
	 4.7482419759e-02, -5.7110483758e-03, -9.8856864497e-04,  4.9839295447e-02,  4.6498544514e-02, -1.2372173369e-02,  1.9108142704e-02,  2.5724865496e-02, -1.9137592986e-02, -5.6099992245e-02, 
	 4.0330797434e-02, -4.6803571284e-02,  6.0900498182e-02, -8.4253679961e-03,  1.5636740252e-02, -9.6055930480e-03, -6.2033597380e-02, -5.6211329997e-02,  3.5905729979e-02,  5.8679427020e-03, 
	-4.1840739548e-02, -4.2504172772e-02,  6.1177603900e-02, -4.3986961246e-02, -2.8104104102e-02, -3.1983195804e-03, -3.3569604158e-02,  5.3850740194e-02,  5.8823715895e-02, -1.6917012632e-02, 
	 5.3711377084e-02, -5.3271453828e-02, -5.0007324666e-02, -4.7301422805e-02, -2.4699645117e-02, -4.9428913742e-02,  3.1330373138e-02, -2.6653348468e-03,  1.3796654530e-03, -5.2344482392e-02, 
	-4.9501210451e-02,  4.0397893637e-02, -5.5010914803e-02, -1.5076360665e-02,  4.0831472725e-03, -6.8995952606e-02,  1.6734942794e-02,  7.3265354149e-03,  3.5630062222e-02,  8.2825887948e-03, 
	 4.7755427659e-02,  3.8121450692e-02,  2.4861659855e-02, -1.6922825947e-02,  2.5143777020e-03, -5.9938982129e-02,  2.3129310459e-02,  5.6922346354e-02, -6.0359541327e-02, -4.7858621925e-02, 
	-4.0983196348e-02, -4.0200222284e-02,  2.3961050436e-02, -9.7883865237e-03,  2.3141104728e-02, -4.0651038289e-02,  3.3455900848e-03,  2.5079658255e-02, -2.1486613899e-02,  5.0739217550e-02, 
	 4.7482557595e-02,  1.2016526423e-02,  6.1852544546e-02, -1.9685942680e-02,  3.1305897981e-02,  5.2786897868e-03,  4.2524315417e-02, -4.8130501062e-02, -5.0901290029e-02, -2.0596893504e-02, 
	 2.6707660407e-02, -2.9127845541e-02, -5.9373501688e-02, -5.6969292462e-02, -4.9941949546e-02, -1.3885329477e-02,  2.2113746032e-02, -2.4330830202e-02, -9.5795169473e-03, -2.8607796412e-03, 
	 1.9931821153e-02,  2.2316160612e-03, -6.0736280866e-03, -5.5243685842e-02, -5.8230947703e-02, -4.6162262559e-02, -2.0429592580e-02, -7.0634037256e-02,  1.2160556391e-02, -1.6298528761e-02, 
	 2.6198888663e-03, -3.7737883627e-02, -2.0029179752e-02,  1.5991870314e-02,  4.8344682902e-02,  1.5696514398e-02,  1.3280214742e-02,  4.4095616788e-02,  4.9023129977e-03,  7.0384502411e-02, 
	-1.8095966429e-02, -6.0538023710e-02, -2.0967803895e-02, -3.6697085947e-02,  1.3769377256e-03, -1.3154287823e-02,  3.6722209305e-02,  1.4328328893e-02,  1.8640756607e-02, -6.9918341935e-02, 
	-1.3426022604e-02, -2.2074194625e-02,  4.9452971667e-02, -2.8147108387e-03, -3.8215789944e-02,  2.7693817392e-03,  5.7763545774e-03, -6.5774053335e-02, -5.9622295201e-02, -4.6404290944e-02, 
	-3.0119947623e-03,  8.0951331183e-03, -3.3272549510e-02, -1.5836846083e-02,  3.6207090598e-03, -3.9029289037e-03,  5.0582893193e-02,  1.4925233088e-02,  1.7229968682e-02, -2.0277312025e-02, 
	 3.9813509211e-03,  5.7700132020e-03,  4.8013139516e-02, -2.7640037239e-02, -5.7684272528e-02, -6.0105334967e-02, -4.0058076382e-02, -4.3300192803e-02, -2.5534611195e-02, -2.9637120664e-02, 
	-4.9520328641e-02, -6.1834670603e-02,  4.1629884392e-02,  3.1973470002e-02,  4.6305231750e-02, -6.2758899294e-03,  2.0257029682e-02, -3.3224518411e-03, -9.4634579727e-04, -2.1616091952e-02, 
	-2.4189380929e-02,  1.9146524370e-02, -5.0842441618e-02, -6.5069101751e-02,  1.0667769238e-02,  5.6172840297e-02,  5.9369746596e-02, -6.4039431512e-02, -6.1213877052e-02, -3.5348802805e-02, 
	 5.7450253516e-02,  4.3726958334e-02,  3.0456509441e-02,  3.8277771324e-02, -5.1917955279e-02,  3.0516155064e-02,  2.3081805557e-02,  3.4113470465e-02,  4.0131151676e-02, -2.5857923552e-02, 
	 4.0146555752e-02, -3.9819117635e-02,  2.1438444033e-02,  2.5883497670e-02,  2.7330799028e-02,  6.7183323205e-02,  1.5873030061e-03,  1.4409350231e-02,  3.9358686656e-02,  5.9221200645e-02, 
	 2.6777587831e-02,  4.0194891393e-02,  3.2406818122e-02, -6.7102633417e-02, -5.6022852659e-02, -3.2098188996e-02, -5.1174197346e-02, -8.1083774567e-03,  5.3923126310e-02, -2.3285938427e-02, 
	-5.4053511471e-02,  3.4612592310e-02,  1.6167091671e-03, -2.0429559052e-02, -1.3384845108e-02, -5.2933927625e-02,  4.6844508499e-02, -4.7329343855e-02,  1.3169361278e-02, -5.2134446800e-02, 
	 6.1528485268e-02,  8.9246401330e-04, -1.4388740063e-02, -1.6149679199e-02,  2.1792916581e-02, -4.2047485709e-02,  1.7690940294e-03,  5.5538166314e-02, -4.5389551669e-02, -3.0667187646e-02, 
	-5.0061166286e-02, -2.2092608735e-02,  4.1228339076e-02, -3.8704488426e-02, -3.3770065755e-02, -3.6453694105e-02, -3.5896942019e-02,  4.1681382805e-02,  5.2871648222e-02,  3.1229415908e-03, 
	-1.5215579420e-02,  1.0783274658e-02,  5.2032325417e-02,  4.8840668052e-02, -6.7390557379e-03,  4.5877238736e-03, -6.6640437581e-03, -4.5074582100e-02, -5.1970556378e-03, -3.2167974859e-02, 
	 5.5095300078e-02, -3.2921139151e-02, -3.5695020109e-02,  1.1180629022e-02, -4.5687329024e-02,  1.9390111789e-02, -6.0311984271e-02,  9.8530836403e-03,  3.8857501000e-02, -5.9030152857e-02, 
	 1.0380446911e-02,  3.0140062794e-02,  4.9123264849e-02, -5.5624235421e-02, -3.2604128122e-02,  6.3629664481e-02, -4.0305484086e-02, -4.9307722598e-02, -6.5179660916e-02, -1.7923342064e-02, 
	 2.1467229351e-02, -5.3507637233e-02,  1.6664953902e-02,  5.1044452935e-02, -5.6687954813e-02, -2.6821373031e-02,  4.5399624854e-02, -5.6499708444e-02, -2.3430807516e-02,  3.6891710013e-02, 
	 2.1528853104e-02, -4.3682516553e-03,  2.9047574848e-02, -3.8769658655e-02,  5.5986619554e-03, -3.3628173172e-02, -4.9138437957e-02, -4.5646008104e-02,  1.2226575986e-02,  2.1850328892e-02, 
	-1.1086442508e-02, -1.3135695830e-02, -5.5069532245e-02, -2.1307313815e-02,  5.8048907667e-02,  3.6058716476e-02,  1.4756741934e-02,  1.0573150590e-02,  3.0249228701e-02, -2.2233400494e-02, 
	 4.8550140113e-02,  4.3874453753e-02, -3.3911775798e-02,  5.0489574671e-02,  2.4920545518e-02,  1.5348502435e-02,  2.6118751615e-02, -1.2593391351e-02,  5.5257443339e-02,  2.0951746032e-02, 
	 8.2149691880e-03,  2.8172984719e-02, -5.6644406170e-02, -3.8720503449e-02,  5.5687408894e-03,  8.8038953254e-04,  1.5094016679e-02, -2.5072297081e-02, -4.3041994795e-03, -5.9561684728e-02, 
	-6.3826106489e-02,  3.0352026224e-02,  2.3406339809e-02,  4.0956307203e-02,  6.0153730214e-02,  4.8534989357e-02,  1.2844841694e-03,  4.0535338223e-02, -1.8516086042e-02,  4.3795555830e-02, 
	 5.9398606420e-02,  2.2029621527e-02,  2.5129329413e-02,  1.6259249300e-02, -4.1515263729e-03,  5.1875464618e-02,  3.1026519835e-02, -5.9936918318e-02,  4.1605211794e-02, -6.5318718553e-02, 
	 1.3628470711e-02, -5.7527083904e-02,  3.6680186167e-03, -5.7000987232e-02, -5.1411028951e-02, -3.8994066417e-02,  5.0810206681e-02,  2.3114100099e-02,  1.4138665982e-02, -3.4149225801e-02, 
	-9.2656007037e-03, -5.6911040097e-02,  9.8237600178e-03,  4.2160179466e-02, -4.3625678867e-02,  5.8964878321e-02, -1.6857204959e-02,  6.6499575973e-02,  1.2346508913e-02,  3.7829526700e-03, 
	 2.5831812527e-03, -2.5221262127e-02,  2.0818909630e-02,  3.4179326147e-02, -1.8155742437e-02, -1.3686552644e-02, -6.2021411955e-02, -4.4854020234e-04,  1.9245544448e-02, -3.1381621957e-02, 
	-1.3736964902e-03, -3.7980090827e-02,  4.0672082454e-02, -4.2264056392e-03, -4.8814240843e-02, -1.9363706931e-02, -5.8784171939e-02,  5.9391319752e-02,  2.4436989799e-02, -5.4102458060e-02, 
	 3.9834775031e-02,  5.2732970566e-02, -2.5211403146e-02, -5.2939742804e-02, -3.0982630327e-02, -3.2478183508e-02,  3.6426410079e-02, -8.4938574582e-03,  2.5642514229e-02,  1.5194338746e-02, 
	-1.3934710063e-02,  4.7549352166e-04, -5.8647960424e-02, -2.3863356560e-02,  5.1404267550e-02, -1.3570827432e-02,  1.2750464957e-03,  1.1838614941e-02, -5.6448769756e-03,  1.6655599698e-02, 
	 5.2801198326e-03,  1.4911634848e-02,  6.1068139039e-03, -3.3159954473e-03,  2.7173379436e-02, -2.8050791472e-02,  3.0084855855e-02, -3.6614052951e-02,  4.4231519103e-02, -2.4117561057e-02, 
	-3.6616589874e-02, -1.3865682296e-02, -1.6359338537e-02,  4.3693322688e-02,  1.1779050343e-02,  4.3567329645e-02, -2.8952572029e-03,  3.8078624755e-02,  3.3818788826e-02,  1.5594661236e-02, 
	-6.3606023788e-02,  2.3555545136e-02,  2.2075273097e-02,  6.6665843129e-02, -3.6530580372e-02, -5.2321422845e-02, -2.2289205343e-02, -4.4129393995e-02,  5.4847490042e-02,  1.9012512639e-02, 
	-9.8998993635e-03,  4.2976528406e-02,  5.7083182037e-02, -3.1516363379e-03,  4.8010371625e-02, -4.8526484519e-02,  3.6698017269e-02,  2.1294627339e-02,  6.4567252994e-02, -1.4488856541e-03, 
	-4.5663073659e-02,  5.8205030859e-02, -3.3046558499e-02, -1.3648793101e-02, -2.7553640306e-02,  2.7285847813e-02,  8.7749781087e-03, -3.6855660379e-02, -4.3973281980e-02, -4.5673578978e-02, 
	-1.1746207252e-02, -1.9107878208e-02, -5.9678744525e-02, -3.4289579839e-02,  6.9427546114e-03,  2.5911524892e-02,  6.1812135391e-03, -6.8716011941e-02,  4.5855816454e-02,  1.0539374780e-03, 
	-2.6032155380e-02,  3.9009414613e-02, -2.5656141341e-02,  8.6963465437e-03,  2.2682802752e-02,  3.1760264188e-02,  4.9255322665e-02, -5.9812296182e-02, -5.0208542496e-02, -6.6962748766e-02, 
	-4.6075046994e-03,  5.9863153845e-02, -1.2124622241e-02,  5.9187456965e-02,  3.8793090731e-02, -2.6124663651e-02, -6.5246589482e-02,  2.5294596329e-02, -5.5026531219e-02, -5.3959783167e-02, 
	 3.8594603539e-02, -4.4575363398e-02,  1.6297595575e-02, -3.3056449145e-02,  3.9920907468e-02, -5.9817079455e-02, -5.5647600442e-02,  1.7172221094e-02, -4.7961723059e-02,  2.7062935755e-02, 
	-4.6727035195e-02,  1.8869493157e-02, -4.7341674566e-02, -5.7082254440e-02, -4.2532734573e-02,  1.6286185011e-02, -2.9746996239e-02, -3.1941644847e-02, -6.2829703093e-02, -3.6086631007e-04, 
	-5.0551511347e-02,  1.3800372370e-02,  3.1062358990e-02, -1.0858437046e-02, -7.8640216962e-03,  2.7568953112e-02,  1.6097540036e-02, -3.1107220799e-02, -3.1776834279e-02,  2.2034507245e-02, 
	 2.4486348033e-02,  1.3405747712e-02,  5.0956573337e-02,  1.1883375701e-03, -4.0410142392e-02, -1.5210478567e-02, -1.1862429790e-02,  1.3610327616e-02,  2.6796653867e-02,  2.3403963074e-02, 
	 4.7195278108e-02,  8.8283633813e-03,  1.8325064331e-02,  2.3379588500e-02,  5.5848281831e-02,  5.0102993846e-02,  4.9032919109e-02,  6.0854699463e-02,  7.1568533778e-02, -5.8699600399e-02, 
	-3.9543908089e-02, -6.5780319273e-03, -4.2333777994e-02,  1.4357202686e-02, -2.0914690569e-02, -4.4101428241e-02, -6.5782897174e-02, -2.4756789207e-02,  4.6700347215e-02, -2.9992705211e-02, 
	-5.3180098534e-02,  5.1536191255e-02, -2.9517384246e-02,  3.9164315909e-02, -2.4260684848e-02,  7.2579771280e-02, -3.3036559820e-02,  8.6811473593e-03, -1.0086728260e-02,  5.0874669105e-03, 
	-5.0973095000e-02, -2.4306328967e-02, -7.4183888733e-02, -4.5261394233e-02,  7.3642596602e-02, -5.8677401394e-02, -5.1627125591e-02, -3.9795659482e-02, -4.2522907257e-02, -5.1691468805e-02, 
	-3.0018651858e-02,  2.4549905211e-03,  5.1087476313e-02,  8.2852905616e-03, -2.3727886379e-02,  2.0523412153e-02, -5.4246544838e-02,  4.8530004919e-02,  3.8100011647e-02, -3.6301728338e-02, 
	 3.0179381371e-02,  2.3665973917e-02,  3.1332422048e-02,  5.1970023662e-02,  3.3697918057e-02,  4.3004650623e-02,  5.3201839328e-02,  1.1002575979e-02, -4.7032251954e-02,  9.7458641976e-03, 
	-3.0207157135e-02,  6.2667593360e-02, -1.4379066415e-02,  1.8394118175e-02, -6.1092708260e-02,  3.1830660999e-02, -6.6323585808e-02,  2.1189875901e-02, -5.6793231517e-02,  5.9730359353e-03, 
	 5.0142046064e-02, -3.2580081373e-02,  4.4198479503e-02,  4.7066781670e-02,  5.2661262453e-02, -1.6268448671e-03, -5.4858651012e-02,  5.6226130575e-02, -1.2468631379e-02,  1.1359375902e-02, 
	-1.7860839143e-02,  4.9147382379e-02,  5.9298753738e-02,  4.4590223581e-02,  4.5811332762e-02,  3.2782446593e-02, -4.2864441872e-02,  5.2615609020e-02,  3.9363984019e-02, -5.2406739444e-02, 
	 5.8044176549e-02,  8.7544387206e-03, -2.6383807883e-02, -4.3439179659e-02, -4.4878530316e-03,  4.0896728635e-02,  4.9381233752e-02, -4.7666303813e-02,  7.5614000671e-03,  4.6834029257e-02, 
	-3.5614453256e-02, -3.0717832968e-02, -3.3267591149e-02, -8.9281918481e-03,  4.5604895800e-02,  6.5100565553e-02,  5.3769096732e-02,  6.2804333866e-03, -2.6700587943e-02,  6.4131781459e-02, 
	-2.5133402087e-03,  2.9618147761e-02, -2.0650617778e-02, -2.2579129785e-02, -4.5694433153e-02, -5.1415659487e-02, -4.1473876685e-02,  3.8064807653e-02,  5.5701903999e-02,  2.1399496123e-02, 
	-2.0737154409e-03, -5.4850842804e-02,  6.1160627753e-02,  4.1814055294e-02, -1.0345959105e-02, -5.9115488082e-02, -9.3885371462e-03, -2.5688914582e-02,  6.2350567430e-02, -1.8947491422e-02, 
	-1.6738602892e-02,  4.8992138356e-02,  2.2243015468e-02, -4.9934867769e-02, -2.6104446501e-02, -6.3225321472e-02, -4.7190515324e-03, -5.7646069676e-02,  1.6682183370e-02, -5.8402486145e-02, 
	-5.4419606924e-02,  3.9773419499e-02,  2.6484826580e-02,  4.8836991191e-02, -3.7813823670e-02, -6.6670179367e-03, -4.6488825232e-02,  2.6451895013e-02,  2.7121013030e-02,  1.6594955698e-02, 
	-1.0485603474e-02, -1.1035425588e-02,  9.9217593670e-03,  7.2653949261e-02,  3.7934087217e-02,  1.2899049558e-02, -4.9855370075e-02,  2.0649261773e-02, -6.0158189386e-02,  1.8485765904e-02, 
	 4.6523925848e-03,  3.7178561091e-02, -3.4341681749e-02,  4.7028344125e-02, -1.2008603662e-03, -1.3136190362e-02, -6.2517613173e-02, -3.7858292460e-02,  1.6184365377e-03,  4.3220739812e-02, 
	 3.6572728306e-02, -5.6255697273e-03,  5.9834942222e-03,  2.1263580769e-02,  3.3570524305e-02,  3.5982539412e-03, -1.1199866422e-02, -2.1973580122e-02, -3.6366298795e-02, -6.5390750766e-02, 
	-4.8782653175e-03, -4.2268268764e-02,  9.4238528982e-03,  6.0384992510e-02, -6.3247896731e-02,  6.3034161925e-02,  4.6696763486e-02,  6.6247852519e-03,  7.3268916458e-04, -4.5366678387e-02, 
	 6.1701145023e-02, -6.1807360500e-02, -3.3588185906e-02,  5.1058068871e-02, -6.2349826097e-02, -2.3421095684e-02,  7.8140916303e-03,  1.7380416393e-02, -2.5177601725e-02, -2.4621224031e-02, 
	 5.9519913048e-02, -5.1074646413e-02,  4.7099500895e-02, -5.1234673709e-02, -5.3841292858e-02, -1.7571955919e-02,  7.6632320881e-02,  6.5159410238e-02,  5.5965393782e-02,  3.5617217422e-02, 
	 5.9677235782e-02,  5.7602744550e-02, -4.1321828961e-02,  1.4853511937e-02,  2.0489750430e-02, -2.8859375045e-02, -5.4742868990e-02,  7.4847735465e-02, -2.3077281192e-02, -4.7347642481e-02, 
	 5.6952126324e-02, -3.0501710251e-02, -2.4873496965e-02,  3.5112751648e-03, -3.4923329949e-03,  6.1991675757e-03, -4.3107166886e-02,  6.0067869723e-02,  8.4635866806e-03,  4.9967775121e-03, 
	-5.0043009222e-02, -5.5893197656e-02,  4.2578991503e-02, -4.3511640280e-02,  3.0053807423e-02,  4.9675296992e-02, -4.7258812934e-02,  4.3584018946e-02, -2.4923630059e-02, -4.9474112689e-02, 
	 6.4636045136e-04, -2.2012107074e-02,  6.5339468420e-02,  6.5201237798e-02, -4.8949800432e-02,  1.8979918212e-02, -5.9897951782e-02, -6.6489584744e-02, -3.3426187001e-03,  2.8558773920e-02, 
	 4.2986068875e-02,  4.4188171625e-02, -9.4699980691e-03, -2.2431414574e-02,  2.7232024819e-02, -4.1964750737e-02,  6.3832956366e-03, -1.9906401634e-02,  1.1816393584e-02,  4.7423243523e-02, 
	-5.5519886315e-02, -4.7786727548e-02, -2.6492012665e-02,  6.2266409397e-02, -3.2697301358e-02, -8.1540970132e-03, -3.7663917989e-02,  1.1615531519e-02, -1.9444089383e-02, -3.2272908837e-02, 
	-2.7010394260e-02, -5.2068464458e-02,  2.0539809018e-02,  7.5537054799e-03, -3.9695866406e-02,  2.5821913034e-02,  1.4724342152e-02,  1.2629038654e-02,  6.2867268920e-02, -4.8578131944e-02, 
	-2.6837849990e-02, -2.7596630156e-02,  4.0151763707e-02, -6.8433538079e-02,  2.0288784057e-02,  3.2477505505e-02, -2.1937586367e-02,  2.2644642740e-02, -5.3466749378e-03, -5.9801314026e-02, 
	-4.8685435206e-02,  4.7942665406e-03,  3.5128463060e-02,  2.5663735345e-02, -3.8712102920e-02, -5.4768465459e-02, -5.5757008493e-02,  1.5164955519e-02, -4.1975956410e-02,  1.1733524501e-02, 
	 1.7066229135e-02,  4.9839131534e-02,  1.3394745998e-02, -3.8216959685e-02,  4.1377735324e-03, -2.2508567199e-02, -3.1057398766e-02, -4.2090523057e-03, -2.8947973624e-02, -5.3884465247e-02, 
	-3.9347961545e-02, -4.1099961847e-02, -9.4149337383e-04,  4.9129679799e-02,  3.1403485686e-02,  5.2979677916e-02, -4.1401546448e-02,  4.5269057155e-02, -4.6634141356e-02, -3.2511681318e-02, 
	-2.0098406821e-02, -1.4033412561e-02, -6.1100404710e-02, -3.5351805389e-02,  4.4408878312e-03, -1.5570051037e-02,  4.3139286339e-02, -5.3962826729e-02, -4.2422441766e-04,  3.2582547516e-02, 
	 2.5595443323e-02, -4.2994011194e-02,  5.8890730143e-02, -3.8838841021e-02, -1.5820544213e-02,  4.8147205263e-02,  4.8371203244e-02, -5.6214839220e-02, -6.1465976760e-03,  5.4588384926e-02, 
	 3.4235008061e-02, -4.0773265064e-02, -1.8703797832e-02,  5.8358188719e-02,  4.4071972370e-02, -5.4347764701e-02, -5.3551711142e-02, -4.7469455749e-02, -6.3698507845e-02, -1.7106514424e-02, 
	-2.0846070722e-02,  2.9586080462e-02, -1.3331518276e-03,  3.5969737917e-02, -1.5267918818e-02,  5.1757972687e-02, -4.9791447818e-02,  5.2358999848e-02, -2.5830131024e-02, -3.6614914425e-03, 
	 3.3679194748e-02,  5.2182342857e-02, -4.1059907526e-02,  7.1175508201e-03,  4.0154334158e-02, -4.3476235121e-02, -4.4620417058e-02,  5.0724644214e-02,  2.9725035653e-02,  2.9388319701e-02, 
	 4.3374177068e-02, -3.2420098782e-02, -4.6567983925e-02,  3.1923141330e-02,  2.0066728815e-02, -3.1258955598e-02, -4.3425288051e-02, -4.3058864772e-02,  1.8578043208e-02, -5.2705943584e-02, 
	 1.4353187755e-02,  1.9745906815e-02, -9.8510710523e-03,  4.4141851366e-02, -2.3717183620e-02, -5.2990492433e-02, -4.2103924789e-03, -4.4262394309e-02,  6.3171364367e-02, -3.7319567055e-02, 
	 4.9274262041e-02,  1.0966317728e-02, -4.0288316086e-03,  2.6496008039e-02,  2.7424393920e-06,  3.9835508913e-02, -3.0397154391e-02,  3.2239351422e-02,  1.6208089888e-02,  1.1926900595e-02, 
	-3.8457732648e-02, -1.6065163538e-02, -2.8797679988e-05, -7.5504614506e-04,  4.1887089610e-03, -1.0738200508e-02,  4.6776521951e-02,  2.7370424941e-02,  4.3541416526e-03, -6.6425530240e-03, 
	 3.3756224439e-03,  3.4286219627e-02,  7.6253279112e-03, -5.5257033557e-02,  1.7645856366e-02,  4.4677350670e-02,  1.1568091577e-03, -1.3481764123e-02, -4.9752984196e-02,  1.9415728748e-02, 
	 1.8379978836e-02, -2.0327787846e-02, -5.8859787881e-02,  7.1257747710e-02,  9.5940660685e-03, -2.3220425472e-02,  6.8644650280e-02, -4.7811090946e-02, -5.7664524764e-02,  6.6419512033e-02, 
	 2.8971694410e-03,  4.0274426341e-02, -3.1893339008e-02, -1.7913822085e-02,  9.5573794097e-03, -3.5146087408e-02,  4.9133881927e-02, -2.3322680499e-03,  4.6416025609e-02, -5.3476464003e-02, 
	 1.7340943217e-02,  5.2563432604e-02,  4.8857249320e-02, -1.3359085657e-02, -5.1950674504e-02, -4.4546283782e-02,  4.2910378426e-02,  5.4664943367e-02, -7.1891196072e-02, -1.2639855035e-02, 
	-5.0627663732e-02,  4.5293942094e-02, -2.5964153931e-02, -4.9457166344e-02, -3.3381279558e-02,  7.4811809463e-04,  8.4232706577e-03,  5.7630904019e-02,  1.2994813733e-02,  1.0749365203e-02, 
	-2.3099040613e-02,  2.9811680317e-02, -3.0614653602e-02,  2.7668155730e-02,  2.9408149421e-02, -8.5680577904e-03, -2.9595036060e-02, -4.2552795261e-02,  6.1254359782e-02, -1.3960946351e-02, 
	-3.1259413809e-02, -5.9514228255e-02,  6.8406768143e-02,  5.9111826122e-02,  5.9666421264e-02,  1.3248899952e-02,  2.4999825284e-02, -4.1048463434e-02,  4.6562232077e-02, -2.0197720733e-03, 
	 5.9407524765e-02, -4.6733569354e-02, -3.8942631334e-02,  4.6155601740e-02,  5.5283859372e-02,  4.7504007816e-03,  5.6853272021e-02, -5.9316899627e-02,  5.3368723020e-03,  5.5279582739e-02, 
	-1.6181096435e-02,  2.2792637348e-02, -5.4911807179e-02, -5.4188799113e-02, -3.5459261388e-02,  6.6582195461e-02,  5.5643357337e-02, -3.8291275501e-02, -3.2267883420e-02, -1.2480521575e-02, 
	 7.1620352566e-02, -2.6020782068e-02, -5.2430663258e-02,  5.6561410427e-02, -1.8355227076e-03, -7.0555828512e-02,  3.5116116051e-03, -2.3974452168e-02,  1.6548294807e-03, -3.7103306502e-02, 
	-4.0815848857e-02,  3.3475127071e-02, -1.4293722808e-02, -5.3958725184e-02,  2.5826329365e-02, -8.6488490924e-03,  1.1586885899e-02,  4.4495277107e-02,  3.5742449109e-03, -3.9198834449e-02, 
	-2.3708021268e-02, -1.1097869836e-02, -5.0569314510e-02, -1.2088204734e-02, -1.4525738545e-02, -4.9101584591e-03,  2.3867094889e-02,  5.0254859030e-02,  1.7795279622e-02,  2.4610639084e-03, 
	-3.2290488482e-02,  3.6835726351e-02,  4.3818131089e-02,  5.5061724037e-02, -6.5721818246e-03,  5.6870490313e-02, -9.7928280011e-03, -4.6195402741e-02, -4.8164658248e-02, -2.3720882833e-02, 
	-2.6685114950e-02, -2.5779500604e-02, -3.5714000463e-02, -2.9212132096e-02,  6.6549971700e-02, -9.7038391978e-03,  2.8909243643e-02,  4.5383296907e-02,  2.8800588101e-02,  3.9112709463e-02, 
	 3.7103530020e-02,  4.4739156961e-02, -6.3951313496e-02,  5.6951899081e-02, -7.3737435043e-02, -1.5386424027e-02,  9.2975115404e-03,  4.9673952162e-02, -1.7726657912e-02,  5.8194532990e-02, 
	-4.1369204409e-03, -2.4238349870e-02,  1.3457906432e-02,  3.0303558335e-02,  4.5922584832e-02,  3.0951747671e-02, -2.1374730393e-02,  4.2091578245e-02,  5.9173785150e-02,  6.4525470138e-02, 
	-3.8858696818e-02,  4.5176904649e-02,  5.9699460864e-02, -1.0589094833e-02, -2.7895908803e-02,  3.3165451139e-02, -5.2804760635e-02, -3.7421859801e-02,  5.0554558635e-02, -5.9506896883e-02, 
	-6.4187139273e-02,  6.0480777174e-02,  5.3756725043e-02,  2.4969886988e-02, -1.4048490673e-02, -2.3935804144e-02,  4.0344353765e-02, -2.1258737892e-02,  5.2826840430e-02,  6.3068389893e-02, 
	 4.7014217824e-02, -7.1712495992e-04, -5.1586166024e-02,  5.4879799485e-02,  5.2666872740e-02, -1.2762094848e-02,  3.1254313886e-02, -1.0743475519e-02,  6.1671495438e-02,  1.1203007773e-02, 
	 4.0815058164e-03,  1.4190212823e-02, -4.6192757785e-02, -4.5530136675e-02,  5.2102167159e-02, -1.0737085715e-02,  5.9743102640e-02,  2.6715997956e-04, -1.1245335452e-02, -9.7557343543e-03, 
	 4.9709398299e-02,  2.1692739800e-02, -3.3398568630e-02,  2.4725215044e-03, -2.5704039726e-03, -5.9965122491e-02, -6.3579626381e-02,  1.3740681112e-02,  5.7607274503e-02,  3.7467136979e-02, 
	 7.1344356984e-03, -3.0810641125e-02,  1.7762027681e-02,  4.7518461943e-02, -6.1303254217e-02, -3.4824453294e-02,  5.0234578550e-02, -4.9667995423e-02, -2.4132644758e-03,  1.3620137237e-02, 
	-5.4517950863e-02, -2.9179941863e-02, -6.5307103097e-02, -3.3834990114e-02, -4.1179587133e-03,  1.6515640542e-02,  2.3377584293e-02,  6.3520304859e-02, -1.5772882849e-02, -5.6471165270e-02, 
	 5.7924766093e-02,  6.0215827078e-02, -2.6825224981e-02, -2.6220876724e-02,  3.9382085204e-02, -5.2945289761e-02, -5.4983001202e-02, -2.1138904616e-02, -6.2026970088e-02,  2.3077232763e-02, 
	-7.4383966625e-02,  6.1126910150e-02,  1.6030458733e-02, -3.9164967835e-02,  6.0311093926e-02, -4.4481873512e-02, -1.4364073984e-02, -5.5317390710e-02,  9.5087029040e-03, -1.5296076890e-03, 
	-4.5763604343e-02, -1.4462445863e-02,  5.5825114250e-02, -6.6744983196e-02,  3.9426244795e-02, -5.2588351071e-02,  4.1255656630e-02,  6.8268366158e-02,  5.7636152953e-02, -3.6290958524e-02, 
	-2.0480183885e-02, -2.4183569476e-02, -5.0390169024e-02, -4.5255483128e-03,  3.3599805087e-02,  7.2635044344e-03,  4.5749258250e-02,  3.1559292227e-02, -4.0370397270e-02,  1.7845570110e-03, 
	 3.4920703620e-02, -6.1465896666e-02, -1.7930040136e-02,  4.0384817868e-02,  2.9844772071e-02, -3.0200384557e-02, -2.8013028204e-02, -5.1847238094e-02, -3.3716153353e-02,  2.4464368820e-02, 
	 3.8862816989e-02,  6.3341714442e-02,  7.3550790548e-02, -3.9729911834e-02, -2.8011316434e-02,  2.6399314404e-02, -4.5640394092e-02,  3.2470375299e-02,  4.6917423606e-02,  5.7334870100e-02, 
	-1.7182411626e-02,  9.1658635065e-03,  5.2516716532e-03, -1.6306722537e-02,  4.1861154139e-02,  1.8449587747e-02,  3.4332726151e-02,  3.6449495703e-02,  5.8021810837e-03,  8.1822797656e-03, 
	-1.0986374691e-02,  3.4130766988e-02, -4.7178577632e-02,  3.3501852304e-02,  6.8324334919e-02,  2.5475556031e-02,  8.1789186224e-03, -4.5543648303e-02, -1.5840006992e-02, -4.2164601386e-02, 
	-5.1491063088e-02, -1.4423478395e-02,  4.1490322910e-03, -5.1922049373e-02, -6.3050664961e-02, -7.0429027081e-02,  3.7886131555e-02, -5.7092927396e-02, -1.1021954007e-02, -5.2016008645e-02, 
	 3.4522287548e-02,  5.6581500918e-02, -2.2220797837e-02, -5.0963163376e-02, -4.8770826310e-02,  1.8176972866e-02,  1.7420923337e-02, -4.7933477908e-02,  7.7246786095e-03, -6.1774339527e-02, 
	 3.8279902190e-02, -6.9994270802e-02,  6.2743192539e-03, -5.3116451949e-02,  1.7694786191e-02,  4.8515904695e-02, -1.9692048430e-02, -3.8049414754e-02,  5.6632477790e-02, -1.9385637715e-02, 
	-1.8277060241e-02,  3.4931034315e-04,  2.0680131391e-02, -5.1488444209e-02, -5.5370844901e-02, -3.8703303784e-02, -4.9433447421e-02,  3.6635294557e-02, -4.0656432509e-02,  3.7460837513e-02, 
	-2.5855975226e-02,  1.7190512270e-02, -6.3440255821e-02, -4.1571181267e-02,  3.1746152788e-02, -2.9171528295e-02,  3.1459128950e-03,  4.3952954002e-03,  6.2192626297e-02, -5.7628829032e-02, 
	-5.2598390728e-02, -2.9301404953e-02, -2.2194124758e-02,  4.9002405256e-02,  4.3592240661e-02, -1.5860300511e-02, -4.5206855983e-02, -3.3626671880e-02, -2.8598332778e-02, -5.3078260273e-02, 
	 9.7550675273e-03, -1.6346655786e-02, -1.2922257185e-02, -1.2712721713e-02,  1.9072568044e-02, -6.9824881852e-02,  6.3447788358e-02, -1.1137506925e-02,  6.1966001987e-02, -6.2979474664e-02, 
	 4.0101744235e-02,  1.2217390351e-02, -4.3050538749e-02, -2.5812555104e-02, -1.8776943907e-02,  5.9951730072e-02, -5.4916031659e-02, -1.7294285819e-02,  3.3913165331e-02, -4.3923441321e-02, 
	-4.2544025928e-02, -3.0041240156e-02, -4.2380541563e-02,  2.0291654393e-02, -1.9958944991e-02, -3.0527284369e-02,  4.6175591648e-02, -7.7122524381e-03,  3.6261890084e-02, -3.6267403513e-02, 
	 4.0077179670e-02,  4.1315961629e-02, -5.0913535058e-02,  3.1981751323e-02,  1.6044272110e-02,  4.9814842641e-02,  2.3119185120e-02,  3.9745934308e-02, -7.9744951800e-03,  1.8470741808e-02, 
	 1.7713380978e-02,  1.0644858703e-02, -2.5632323697e-02,  3.1135927420e-03,  1.4048311859e-02,  5.5432599038e-02,  1.3203452108e-03, -5.9964501997e-04, -3.8971662521e-02, -1.2710364535e-02, 
	 3.4410215449e-03, -5.8136984706e-02, -1.0944756679e-02,  5.9425335377e-02, -6.2209233642e-02,  2.9147572815e-02,  3.5809863359e-02, -3.0672926456e-02, -2.5518223643e-02, -4.9655817449e-02, 
	 4.3669499457e-02, -1.5854718164e-02, -1.7611043528e-02, -2.1428974345e-02, -3.9693843573e-02,  3.3591000829e-03,  3.4034937620e-02, -4.8609845340e-02, -1.9049244002e-02, -2.9729910195e-02, 
	 1.5013155527e-02, -2.2710777819e-02,  4.9882240593e-02,  3.8738254458e-02, -3.4853503108e-02, -1.5844226582e-03,  3.8002450019e-03,  1.1936468072e-02, -1.7034584656e-02,  2.7541939169e-02, 
	-2.4434873834e-02,  1.0128184222e-02,  3.5562604666e-02, -4.1172396392e-02,  5.1066083834e-03, -2.7768177912e-02, -2.0092632622e-02, -6.3240803778e-02, -5.6696305983e-03, -3.6589495838e-02, 
	 3.8256727159e-02,  2.3198921233e-02,  7.5208265334e-03, -1.7411703244e-02,  4.7589771450e-02, -2.2181428969e-02, -7.4775726534e-03,  2.3955725133e-02,  4.2673222721e-02,  1.2854115106e-02, 
	 4.9196530133e-02, -5.9235136956e-02,  1.1189405806e-02,  1.3601628132e-02, -3.3459236147e-04, -4.7359596938e-02,  1.6993742436e-02, -1.5535534360e-02, -7.5014526956e-03,  2.2723307833e-02, 
	-7.8265126795e-03,  4.1726298630e-02,  8.3038713783e-03,  6.3325762749e-03,  2.0298710093e-02, -3.9852622896e-02, -2.3276442662e-03,  3.6550417542e-02, -2.9269792140e-02, -5.9278327972e-02, 
	 2.0664593205e-02, -2.1848490462e-02, -5.1255743951e-02,  4.9596514553e-02, -4.7375883907e-02, -4.7189284116e-02, -5.7244442403e-02, -5.9924721718e-02, -4.1193138808e-02, -3.9264980704e-02, 
	-6.2901131809e-02, -4.1551373899e-02, -2.9319621623e-02,  7.4452967383e-03,  5.7393085212e-02,  5.7452782989e-02, -3.5507608205e-02, -5.1932562143e-02, -1.1438812129e-02,  3.5785935819e-02, 
	 3.9089865983e-02,  1.0535901412e-02, -6.9177351892e-02,  6.4670159481e-03,  7.0249410346e-03,  3.6898411810e-02,  2.6833223179e-02, -2.1604696289e-02, -3.3602368087e-02,  3.9949234575e-02, 
	-1.3276861049e-02, -2.0101098344e-02,  1.8039098009e-02,  1.4210605063e-02, -9.6161933616e-03, -6.7452505231e-02, -5.2453529090e-02, -2.6528393850e-02,  2.8370004147e-02, -5.3477790207e-02, 
	-5.7705324143e-02, -6.3130766153e-02, -3.5164985806e-02,  1.7833570018e-02,  6.3246406615e-02,  3.4277662635e-02, -4.3182880618e-03,  2.4866485968e-02, -1.1393721215e-02, -3.1345915049e-02, 
	-3.8087442517e-02, -1.2977025472e-02,  1.8422132358e-02,  3.8550391793e-02, -5.9370361269e-03, -2.7071204968e-03,  6.5598204732e-02, -2.9431771487e-02,  5.3680457175e-02,  1.6828624532e-02, 
	-4.8588402569e-02,  5.7821717113e-02, -1.7431974411e-02,  5.7540278882e-02, -1.9627986476e-02, -6.5782517195e-02,  2.3717124015e-02, -1.6790261492e-02,  1.7615472898e-02, -4.8187311739e-02, 
	-3.4928619862e-02, -6.4589470625e-02, -4.3448291719e-02, -5.2394550294e-02,  1.6412157565e-02,  2.5210683234e-03, -4.0707819164e-02, -4.1935458779e-02,  1.0427591391e-02,  2.4885047227e-02, 
	-1.3421772048e-02,  3.0623732135e-02, -1.9372345880e-02,  4.5238514431e-03, -5.5827479810e-02,  1.8139801687e-03, -5.2316322923e-02,  3.7323854864e-02, -5.2665401250e-02,  3.2036278397e-02, 
	-5.3971465677e-02, -1.2589332648e-02, -6.6586673260e-02,  4.9504820257e-02, -4.6545579098e-03,  7.9149724916e-03,  3.1187152490e-02, -4.5224446803e-02,  4.8666920513e-02, -4.6327810735e-02, 
	-4.1718151420e-02, -1.1647061910e-03,  2.4605892599e-02,  4.2571831495e-02, -1.1809480377e-02, -6.5832525492e-02,  1.7623197287e-02, -3.6837209016e-02, -1.6751175746e-02, -1.3975432143e-02, 
	-1.5619952232e-02,  1.5959827229e-02, -1.4212917536e-02, -1.9421175122e-02, -2.1971980110e-02, -1.2629712932e-02, -3.4235429019e-02,  2.9070748016e-02, -2.5728311390e-02,  5.7855747640e-02, 
	 4.0371656418e-02,  4.9493052065e-02,  1.6457740217e-02, -5.0136603415e-02, -2.4894746020e-02, -5.4083757102e-02,  5.3190153092e-02,  5.3994953632e-02,  7.6762610115e-03,  2.9325890355e-03, 
	 2.2495981306e-02,  1.0749403387e-02,  5.2162483335e-02,  3.6745354533e-02, -5.4716113955e-02, -1.7979325727e-02, -2.5218503550e-02, -3.8733527064e-02, -4.7963708639e-03,  3.6066588014e-02, 
	 9.3317879364e-03, -1.7139846459e-02,  5.0342574716e-02,  4.1754536331e-02,  2.3386944085e-02, -3.9633303881e-02,  4.3749045581e-02, -3.2210309058e-02, -4.0533937514e-02, -1.3026426546e-02, 
	-2.9270462692e-02,  2.5280270725e-02,  1.1176301166e-02,  2.9056234285e-02, -1.6019960167e-03,  3.9584230632e-02, -5.5518902838e-02, -2.5504164398e-02, -1.1808505515e-03,  4.3545186520e-02, 
	-2.1878652275e-02,  1.5444406308e-03, -9.8788682371e-03,  5.7737664320e-03, -3.5795673728e-02,  3.4703925252e-02, -3.4003719687e-02,  5.0706610084e-02, -2.2731926292e-02, -4.6972613782e-02, 
	 5.7877611369e-02, -5.3799562156e-02, -1.1119467206e-02,  1.1307967827e-02,  1.5955382958e-02, -2.9244054109e-02, -9.3636680394e-03, -2.0871497691e-02,  1.3549656607e-02,  5.0763301551e-02, 
	 3.1306508929e-02, -1.5064729378e-02, -5.7547491044e-02,  2.5978589430e-02, -1.1747688055e-02,  3.9212979376e-02, -7.3043905199e-02,  4.9043372273e-02, -4.4346116483e-02, -1.1991304345e-02, 
	-2.5863507763e-02, -5.8554064482e-02,  1.0804641061e-02, -3.9005093277e-02, -8.6078140885e-03, -1.7795145512e-02,  1.1455749162e-02,  6.5233610570e-02, -4.8746153712e-02,  1.0225916049e-03, 
	-1.6548503190e-03, -2.4808596820e-02, -2.1156871691e-02, -1.6061225906e-02, -1.7880048603e-02,  4.7084283084e-02,  6.8070564885e-04, -1.2674312107e-02,  1.9294522703e-02, -6.3424065709e-02, 
	 6.7465558648e-02,  3.8117207587e-02, -1.0651269928e-02, -3.1646501273e-02,  3.4965209663e-02, -5.6522123516e-02, -8.1500783563e-03,  1.1804052629e-02,  3.4359697253e-02,  4.3009124696e-02, 
	-7.0607304573e-02,  6.7062512040e-02,  4.6637527645e-02, -4.2678337544e-02,  5.9839740396e-02, -6.3592053950e-02, -6.5653085709e-02, -5.2863988094e-03,  5.1211766899e-02, -4.3167192489e-02, 
	-2.2216338664e-02,  4.9049880356e-02, -3.7181172520e-02, -5.6964408606e-02,  2.6147302240e-02, -2.6609562337e-03, -1.2375530787e-02, -1.1944537982e-03, -6.2940247357e-02,  4.7145146877e-02, 
	 1.2098922161e-03, -6.0589415953e-03,  5.3416378796e-02,  4.8402730376e-02,  1.7050739378e-02, -3.2902732491e-02, -5.4920171387e-03,  4.0571834892e-02,  3.2687649131e-02,  1.3172487728e-02, 
	-5.1020409912e-02, -1.4291098341e-02,  1.7382226884e-02, -4.5861259103e-02,  4.3870066293e-03, -1.8390929326e-02,  1.3784310780e-02, -5.6301496923e-02,  6.9957207888e-03, -3.4548368305e-02, 
	 3.2603934407e-02,  3.8531497121e-03, -1.0279859416e-02,  4.7292355448e-02,  1.3510463759e-02,  1.0778061114e-02,  3.2669678330e-02, -3.4069713205e-02,  4.4225338846e-02,  6.1193697155e-02, 
	 1.7833376769e-03, -1.0743541643e-02,  4.6878419816e-02, -3.4988228232e-02, -2.5442624465e-02, -2.1391319111e-02, -4.4158715755e-02,  7.6308571734e-03, -5.0318646245e-03,  1.4574181288e-02, 
	 3.4886408597e-02, -3.5182237625e-03,  5.0450231880e-02,  3.3414088190e-02,  5.8502059430e-02,  3.8800074253e-04,  5.6796319783e-02, -3.1674657017e-02,  4.5932497829e-02, -5.8152746409e-02, 
	-4.1964214295e-02, -3.2623212785e-02, -3.8597132079e-03,  4.5207876712e-02,  3.1533852220e-02, -5.4901726544e-02,  5.4672077298e-02, -5.1872871816e-02,  5.1560752094e-02, -4.6440359205e-02, 
	 5.4288793355e-02,  4.6573705971e-02,  5.7981126010e-02, -3.0030956492e-02,  5.0017375499e-02,  1.0389725678e-02,  4.3490353972e-02,  6.8787313998e-02,  2.5790248066e-02,  1.5185719356e-02, 
	-3.3292923123e-02,  2.0010637119e-02, -3.8357917219e-02, -4.3904099613e-02,  4.3254476041e-02,  2.3937901482e-02,  3.8242921233e-02, -5.5922143161e-02,  4.3838698417e-02, -6.0886000283e-03, 
	-3.3204808831e-02, -4.8365246505e-02,  3.6588225514e-02,  2.2515015677e-02, -5.1848109812e-02, -3.5269606858e-02,  5.1659367979e-02,  4.0039222687e-02, -4.0218394250e-02,  2.0577674732e-03, 
	 4.2688701302e-02,  5.1349788904e-02, -3.3365162089e-03,  4.4018585235e-02,  3.3090740442e-02, -7.0546125062e-04,  4.4802993536e-02, -5.8832857758e-02, -3.6160882562e-02,  2.9020167887e-02, 
	 8.7006865069e-03,  4.2380142957e-02, -1.0633243248e-02, -1.5691278502e-02, -4.2483035475e-02, -4.3818291277e-02, -4.0970336646e-02, -1.1895531788e-02, -2.5974409655e-02, -6.5366156399e-02, 
	 7.1749053895e-03, -4.4707931578e-02, -5.7496860623e-02,  1.9902884960e-02,  1.5873517841e-02, -1.2472930364e-02,  4.8985559493e-02, -1.0656092316e-02, -3.3013314009e-02,  4.9003330059e-03, 
	-3.2943733037e-02, -9.7559224814e-03, -1.6353437677e-02, -2.8381338343e-02, -1.7656672746e-02,  6.5152801573e-02,  4.7277014703e-02, -1.2443155050e-02, -5.1083252765e-03,  5.5489923805e-02, 
	-1.5104881488e-02,  3.6069493741e-02, -5.4488394409e-02, -3.8801223040e-02, -5.4021686316e-02, -3.5173572600e-02,  4.8617579043e-02, -4.0601681918e-02, -5.7711042464e-02,  4.2951978743e-02, 
	 1.6912214458e-02,  5.2270278335e-02,  7.2791534476e-03,  1.6718661413e-02,  5.3345479071e-02,  2.3858522996e-02,  2.2015314549e-02, -6.0957581736e-03,  2.5146950036e-02, -4.9665637314e-02, 
	-2.6565957814e-02, -7.5092595071e-03, -5.0316248089e-02, -6.7474134266e-02, -3.1092058867e-02, -1.4062706614e-03,  6.7549720407e-02,  2.8846496716e-03,  3.8275428116e-02,  5.1288455725e-02, 
	-4.8937261105e-02,  4.3254472315e-02,  4.8748899251e-02,  1.6382655129e-02,  3.6160156131e-02,  2.0074598491e-02,  5.4169215262e-02, -4.2041350156e-02,  6.4683690667e-02,  4.8149306327e-02, 
	-3.3664572984e-02, -4.8103120178e-02, -4.8969965428e-02, -2.9864899814e-02,  2.4559093639e-02, -7.2681778111e-03,  4.4040281326e-02, -9.4126146287e-03,  3.0914267525e-02,  3.7231024355e-02, 
	-1.0691502132e-02,  5.3386893123e-02,  2.1332200617e-02, -4.0697794408e-02, -5.0297573209e-02,  5.9488505125e-02,  4.5915275812e-02, -5.8817281388e-03, -4.1135702282e-02,  6.3993647695e-02, 
	 9.0840663761e-03, -2.1333349869e-02, -2.0980946720e-02,  5.9977280907e-03,  1.9237166271e-02,  6.4378924668e-02,  4.5905496925e-02,  3.1307847239e-03, -4.4271457940e-02,  1.1668237858e-02, 
	-4.6698853374e-02,  2.0190287381e-02, -5.4469212890e-02,  4.7977253795e-02,  7.8398091719e-03,  3.8659707643e-03,  4.1945856065e-02,  4.5984320343e-02,  2.9773987830e-02,  4.4426333159e-02, 
	-1.4232466929e-02,  5.1129050553e-02, -2.8590325266e-02,  2.9435770586e-02, -6.8658408709e-03,  3.8510151207e-02,  6.9090873003e-03,  4.3346170336e-02, -1.3536330312e-02,  2.6690633968e-02, 
	-6.7435339093e-02,  5.5168531835e-02,  1.3059887104e-02, -2.8569945134e-03, -1.6223452985e-02,  1.1737243272e-02,  6.9699756801e-02,  1.0078757070e-02, -5.0187883899e-03,  3.1856246293e-02, 
	-1.1263187043e-02, -2.0137226209e-02, -5.9522733092e-02, -1.7798200133e-04,  6.0039378703e-02, -6.4229339361e-02,  9.9090430886e-03,  3.9147093892e-02, -4.2606770992e-02, -6.0786850750e-02, 
	 1.6464723274e-02,  1.9579447806e-02, -4.1479866952e-02, -4.9964778125e-02,  1.9005762413e-02,  3.5993248224e-02, -5.6711699814e-02,  2.0335053559e-03, -1.0499423370e-02,  1.3228688389e-02, 
	 2.7430760674e-03, -2.4274298921e-02,  5.7274062186e-02, -7.9660620540e-03,  4.7822017223e-02, -5.6831490248e-02, -2.7449408546e-02, -5.3279623389e-02, -2.7573833242e-02, -3.1611025333e-03, 
	-5.5555235595e-02,  2.1808920428e-02, -3.3274915069e-02, -4.4357899576e-02, -3.9929106832e-02,  2.0249586552e-02,  3.3795624971e-02, -2.2493544966e-02, -5.1776681095e-02,  7.7785011381e-03, 
	 5.3821925074e-02, -2.5809133425e-02,  5.9597581625e-02,  1.5999349998e-03, -3.6758087575e-02, -1.5759196132e-02, -4.1823856533e-02, -3.2310484676e-04,  1.8428653711e-03,  3.7972290069e-02, 
	 1.8017312512e-02, -4.0645492263e-03, -1.1016144417e-02,  4.7166541219e-02,  2.2697193548e-02,  1.8615897279e-03,  3.2598093152e-02,  4.0377855301e-02,  3.0048655346e-02, -3.5326812416e-02, 
	 5.8674994856e-02, -6.6745221615e-02, -7.3678232729e-03, -2.0772840828e-02,  1.0908924043e-02, -6.1709355563e-02,  3.6784123629e-02, -3.5618085414e-02, -7.2945065796e-02,  2.1745344624e-02, 
	-4.1567046195e-02,  5.6940782815e-02,  1.1537398212e-02, -2.3582782596e-02,  2.2555427626e-02,  3.3967740834e-02, -1.2782948092e-02, -5.4680984467e-02, -3.3300919458e-03,  6.3527204096e-02, 
	-3.8825232536e-02, -4.1909702122e-02,  5.5091254413e-02, -4.2217567563e-02, -2.3592095822e-02, -4.5061625540e-02,  3.1595416367e-02,  5.2625503391e-02,  3.7977349013e-02, -3.6889098585e-02, 
	 6.5289676189e-02, -9.1146683553e-04, -1.3071340509e-02,  6.4849011600e-02,  4.5079447329e-02,  4.9134530127e-02, -6.8200207315e-03, -4.5021336526e-02,  3.6022156477e-02,  3.1233966351e-02, 
	-3.2103583217e-02, -2.0189993083e-02, -4.6021454036e-02,  2.7235239744e-02,  4.2223401368e-02,  2.2996000946e-02,  1.6142601147e-02,  1.0276978835e-02, -5.4154776037e-02,  4.1458676569e-03, 
	-4.7168768942e-03,  8.7181078270e-03,  3.7220098078e-02, -3.7099964917e-02, -6.9561772048e-02,  2.5594778359e-02, -1.9126972184e-02,  6.3193365932e-02, -4.7732599080e-02, -4.8734750599e-02, 
	 4.1534122080e-02,  3.3419474494e-03,  6.2764562666e-02, -2.3505289573e-03, -1.9188523293e-02, -5.6652270257e-02, -1.9374424592e-02, -2.7101526503e-03, -1.1521466076e-02, -1.5737826005e-02, 
	 3.4544166178e-02, -4.9344301224e-02,  4.3471813202e-02, -1.0467489250e-02,  3.6285431124e-03,  1.1282710359e-02,  2.6395248249e-02,  1.9937660545e-02,  3.4995663911e-02, -7.0784360170e-02, 
	 1.6350956634e-02, -5.0946343690e-02, -2.9910603538e-02, -5.4067492485e-02,  2.2265572101e-02,  5.1356256008e-02, -5.3561631590e-02, -5.5423457175e-02,  2.1408433095e-02, -3.6847785115e-02, 
	-4.1656486690e-02,  3.9462808520e-02,  2.5141682476e-02,  3.2036431134e-02, -5.6038266048e-03,  5.5209204555e-02, -1.7079450190e-02,  3.4760076553e-02,  1.2709910981e-02,  4.1404142976e-02, 
	-3.8537763059e-02, -4.0883071721e-02, -3.6341156811e-02, -1.3310534414e-03,  3.6302607507e-02,  4.1778150946e-02, -1.4750103466e-02,  5.5137075484e-02,  6.1392541975e-02, -8.9464714983e-04, 
	 4.5323502272e-02,  6.1014126986e-02,  4.1161052883e-02,  3.5611525178e-02,  2.2906217724e-02, -3.3027975587e-04, -1.9985826686e-02,  4.2834049091e-03,  3.4157950431e-02,  5.1285654306e-02, 
	 4.1383706033e-02, -4.0674585849e-02, -3.3994186670e-02, -5.9615969658e-02, -3.4637354314e-02, -4.8071954399e-02,  1.6141626984e-02,  4.0790170431e-02, -4.1330516338e-02, -3.3904768527e-02, 
	-2.1001474932e-02,  3.1924966723e-02, -3.6492798477e-02, -1.0801748373e-02, -6.2439288944e-02, -3.2207001001e-02,  3.1744897366e-02,  7.7771861106e-03,  2.8065070510e-02,  6.5462484956e-02, 
	-4.7492332757e-02, -7.3838955723e-03, -6.4865131862e-03,  7.0836073719e-03,  2.4526899680e-02,  4.1560478508e-02, -5.5304318666e-02,  3.0979770236e-03,  1.6246104613e-02,  2.4966718629e-02, 
	-4.9487959594e-02, -4.5142333955e-02,  2.1389035508e-02, -5.5335722864e-02,  5.2021522075e-02, -3.3036615700e-02,  1.7897171900e-02,  4.1465729475e-02,  4.8835400492e-02,  3.8085948676e-02, 
	-2.2705236915e-05, -5.9860693291e-03,  4.3567631394e-02,  1.9605934620e-02, -1.1357034091e-03, -3.3564765006e-02,  6.4614340663e-02,  3.7943653762e-02,  1.0288170539e-02, -1.6753843054e-02, 
	-6.0500711203e-02,  7.0857806131e-03, -7.8353369609e-03, -3.4277569503e-02,  2.4204310030e-02, -1.5394053422e-02, -5.7798728347e-02,  2.9635684565e-02,  3.0427584425e-02,  3.4734651446e-02, 
	-3.6385197192e-02,  4.6151101589e-02, -5.5416122079e-02,  2.8565002605e-02, -7.2510898113e-02,  4.8867899925e-02, -5.3689192981e-02, -3.2621871680e-02,  1.4128469862e-02,  2.9054081067e-02, 
	-5.0302863121e-02, -2.4963371456e-02, -2.5147737935e-02,  1.4828315936e-02,  4.2277846485e-02,  1.7460901290e-02, -4.7148779035e-02,  1.6327446327e-02,  1.0408535600e-02,  2.5021547452e-02, 
	-6.2471792102e-02, -3.9548192173e-02,  1.5826474875e-02,  6.3372097909e-02, -4.7121852636e-02,  2.3504609242e-02, -5.0516419113e-02,  4.3643422425e-02, -6.4143359661e-02, -1.2884424999e-02, 
	 2.7582123876e-03,  2.5213455781e-02, -3.2112825662e-02,  2.1852483973e-02, -4.0763383731e-03,  2.3310333490e-02,  6.9320113398e-03,  2.6762489229e-02, -3.5249903798e-02, -4.2186837643e-02, 
	 5.6880727410e-02, -2.7075195685e-02, -4.0569599718e-02,  5.8055717498e-02, -8.1443795934e-03,  5.5546086282e-02,  5.9480674565e-02, -3.4758474212e-03,  6.3058465719e-02,  5.5901519954e-02, 
	-3.5831674933e-02, -3.3091977239e-02,  2.5234136730e-02, -4.9642480910e-02, -3.9783623070e-02,  1.1213040911e-02,  1.8439233303e-02, -3.5726003349e-02,  3.4537952393e-02,  3.2717235386e-02, 
	-3.0562441796e-02, -2.2990470752e-02, -3.0467370525e-02,  6.0207534581e-02,  5.9893280268e-02, -7.0790527388e-03, -5.5574320257e-02,  4.2246803641e-02, -4.1930440813e-02,  5.9771426022e-02, 
	 4.5239433646e-02, -3.9318416268e-02,  4.4440384954e-02, -5.5767018348e-02, -3.0561746098e-03, -5.6145619601e-02, -6.6135384142e-02,  1.7439732328e-02,  1.2709533796e-02,  2.9042635113e-02, 
	-4.1946928948e-02,  7.8570237383e-03, -2.4071345106e-02,  4.1117571294e-02,  4.1458573192e-02, -4.9757175148e-02,  3.4576255828e-02, -5.7233814150e-02,  1.7906576395e-02,  5.4175198078e-02, 
	-4.2910028249e-02, -3.4512542188e-02,  7.1735004894e-03, -1.5044754371e-02,  5.2546458319e-03, -6.1289407313e-02, -3.1880788505e-02,  4.4717751443e-02, -3.5701964051e-02, -6.5677594393e-03, 
	 1.6909962520e-02, -4.2807701975e-02,  1.3702000491e-02,  5.1446400583e-02, -3.5516381264e-02,  4.9958668649e-02, -2.3164466023e-02, -1.5988986706e-03,  4.6313855797e-02, -5.5326957256e-02, 
	-4.5865466818e-03,  3.3087793738e-02,  2.1784149110e-02,  1.5355624491e-03, -2.3771303240e-03,  3.5818986595e-02,  1.1876419187e-02, -1.2776260264e-02, -8.0601442605e-03,  1.3497883454e-02, 
	-2.3130768910e-02, -6.1653293669e-02, -7.0422530174e-02,  4.5462559909e-02, -3.0899833888e-02, -3.6180321127e-02, -5.1256541163e-02, -5.8116763830e-02, -6.0678046197e-02, -3.0279861763e-02, 
	 1.9612012431e-02, -4.3872933835e-02, -5.9152215719e-02,  5.1574017853e-02,  5.5598061532e-02, -5.0634216517e-02,  5.8179732412e-02, -1.1458979920e-02,  4.7478735447e-02,  3.2709453255e-02, 
	 1.1355680414e-02,  2.0031776279e-02,  5.5546471849e-03, -5.8481302112e-02,  4.4634845108e-02, -3.6729626358e-02, -5.4548960179e-03, -4.7232996672e-02, -2.2300300188e-03, -3.1064556912e-02, 
	 4.7921780497e-02, -2.7438847348e-02,  1.6718605533e-02, -3.6483280361e-02,  6.7585229874e-02, -3.3913534135e-02,  5.1550045609e-02, -2.1287575364e-02,  4.4265482575e-02,  3.1811997294e-02, 
	 2.0957943052e-02, -1.1337041855e-02, -1.7821215093e-02,  4.6396829188e-02,  5.0596173853e-02, -9.2125656083e-03,  3.7668000907e-02,  4.1537199169e-02,  4.5274417847e-02,  6.3530483749e-04, 
	-1.2864254415e-02, -1.6348110512e-02, -5.8729656041e-02, -5.4038908333e-02, -1.6642581671e-02,  1.8135676510e-04,  5.1810894161e-02,  2.8192361817e-02, -2.3674711585e-02, -6.4863346517e-02, 
	-6.9527775049e-02, -1.7484538257e-02, -3.7870302796e-02,  4.0923342109e-02, -5.6826055050e-02,  5.4216548800e-02,  2.8480052948e-02, -1.9658632576e-02, -1.4292166568e-02,  4.8006378114e-02, 
	-1.7423175275e-02,  3.8278069347e-02, -3.4539829940e-02,  1.9630696625e-02, -4.6670003794e-03,  5.2466236055e-02,  4.3079432100e-02,  3.3350575715e-02, -7.0201538503e-02, -3.0609151348e-02, 
	 4.8316679895e-02, -2.2114278749e-02,  3.7865053862e-02,  6.8634472787e-02,  1.8642602488e-02, -1.2650076300e-02, -3.5265885293e-02, -6.2055602670e-02, -1.9819710404e-02,  4.7724004835e-02, 
	 2.7356032282e-02, -2.8334358707e-02,  1.4052563347e-02,  3.9020754397e-02, -7.9490675125e-04,  1.9688032568e-02,  5.2416030318e-02, -2.0451320335e-02,  2.9299851507e-02, -6.5417610109e-02, 
	 5.4397948086e-02, -5.3597647697e-02,  9.0616419911e-03,  1.7524249852e-02, -1.9264420494e-02,  2.2637534887e-02, -1.5545488335e-02,  1.7079155892e-02, -4.0302254260e-02, -4.8768043518e-02, 
	 5.4040066898e-02, -3.3353582025e-02, -2.7718296275e-02, -4.7423683107e-02, -6.3691593707e-02,  8.2949651405e-03,  1.3223143294e-02,  2.0243439823e-02, -2.3559262976e-02,  4.3961692601e-02, 
	-2.3705009371e-02, -4.3998356909e-02,  1.0018952889e-03,  1.3103486039e-02,  4.2975578457e-02,  2.0733559504e-03,  2.7173381299e-02,  5.8527807705e-03,  5.3206916898e-02,  3.3851318061e-02, 
	-1.9687721506e-02,  4.1105136275e-02, -3.8609370589e-02,  2.3694260046e-02,  8.7755192071e-03, -2.1831111982e-02, -1.7254190519e-02, -3.0185585842e-02,  7.0984594524e-02,  7.9895062372e-03, 
	 3.0143938959e-02, -5.3136453032e-02, -5.1428969949e-02, -1.3726077043e-02, -5.2861701697e-03, -2.9997326434e-02, -5.5795937777e-02,  4.3676897883e-02, -3.4936841577e-02,  2.4953221902e-02, 
	 3.8163926452e-02,  2.7052011341e-02, -9.2841517180e-03,  8.9940680191e-03,  4.7554600984e-02, -4.3992988765e-02,  5.0957925618e-02,  4.9862980843e-02, -5.2473926917e-04, -2.3659108207e-02, 
	 3.4625072032e-02, -6.4962714911e-02,  1.4154871926e-02,  5.3078524768e-02, -1.1882534251e-02,  5.6426022202e-02,  1.1524138041e-02, -3.9626542479e-02,  3.0678214505e-02,  6.5209646709e-03, 
	 5.3572277538e-03, -4.6046014875e-02,  2.8735918924e-02, -5.5312160403e-02, -1.6372270882e-02, -5.6335769594e-02,  2.4977685884e-02,  2.5507185608e-02,  3.2061092556e-02, -3.2095585018e-02, 
	 2.4216668680e-03, -1.1359168217e-02,  5.9060525149e-02, -7.3853041977e-03, -1.1840157211e-02,  5.5769883096e-02,  6.1688661575e-02,  1.2207414955e-02,  4.4171839952e-02, -6.1142761260e-02, 
	 5.2012771368e-02, -1.8042406067e-02, -5.0303727388e-02,  1.1121551506e-03,  6.8946003914e-02,  1.2523841113e-02,  3.4518692642e-02, -4.5959174633e-02,  1.0239724070e-02, -4.8842560500e-03, 
	-4.0936730802e-02,  3.7721700966e-02,  1.2643999420e-02, -6.9157979451e-03,  1.5374624170e-02,  5.4609503597e-02, -4.7094002366e-02,  3.9625611156e-02,  4.7307226807e-02, -1.8072787672e-02, 
	-2.2873753682e-02,  4.7414626926e-02,  4.8404607922e-02, -2.4214623496e-02, -4.3916117400e-02, -1.0220953263e-02, -5.4153002799e-02, -2.2869536653e-02,  5.6887429208e-02, -7.8445265535e-04, 
	-3.4642554820e-03, -4.5798067003e-02,  2.2654304281e-02, -4.8120110296e-03, -4.1746992618e-02, -2.4984214455e-02, -6.0390003026e-02,  5.0798952579e-02,  9.1659894679e-05, -3.2802794129e-02, 
	-4.1596513242e-02, -3.8823287934e-02, -3.7389058620e-02,  6.3191145658e-02,  6.3662171364e-02,  2.7983253822e-02,  5.8719206601e-02, -5.0088200718e-02, -5.2952761762e-03,  2.3719340563e-02, 
	 1.5887750313e-02,  4.6161644161e-02,  3.1139632687e-02,  5.8895856142e-02,  2.8187585995e-02,  3.0527053401e-02,  5.1278922707e-02,  6.8026654422e-02,  6.0286086053e-02,  1.2394444784e-03, 
	-4.8677999526e-02, -5.0351656973e-02,  3.1715366989e-02, -3.1403101981e-02, -6.9637276232e-02, -8.1093087792e-03,  4.1809263639e-03,  3.9951078594e-02, -5.8928791434e-02,  2.3170171306e-02, 
	-3.1894531101e-02, -5.2960958332e-02, -1.4265547507e-02, -3.6071188748e-02,  3.4757234156e-02,  6.3755828887e-03, -1.6720267013e-02, -2.9361030087e-02,  1.8569596112e-02, -4.1294042021e-02, 
	 4.6049520373e-02,  3.8150351495e-02, -1.9158359617e-02,  4.3916404247e-02, -4.2456287891e-02,  9.4919065014e-03,  4.6331144869e-02, -5.6408211589e-02, -3.9456814528e-02, -2.5334469974e-02, 
	 1.9327402115e-02,  6.2143180519e-02,  4.0676306933e-02, -5.4568532854e-02, -5.2400458604e-02,  4.5622460544e-02, -1.7191709951e-02,  1.8480380997e-02,  1.6773859039e-02, -4.7066595405e-02, 
	 4.6357214451e-02, -1.8636344001e-02,  3.7815263495e-03,  2.0638044924e-02, -4.9250554293e-02,  4.8730529845e-02,  1.8611596897e-02,  4.3275482953e-02,  5.6524682790e-02,  2.2283667699e-02, 
	 6.3552893698e-02,  1.3585072011e-02, -5.6529041380e-02,  2.5545483455e-02,  3.1939886510e-02,  2.3328902200e-02, -4.1847627610e-02, -5.6010582484e-03,  1.1877206154e-02, -6.1379224062e-03, 
	 2.2819105536e-02,  2.5267908350e-02, -5.0085440278e-02, -5.6975636631e-02, -3.1891532242e-02,  5.7023480535e-02, -6.0117918998e-02, -5.3075715899e-02, -2.6414673775e-02, -4.3149780482e-02, 
	-3.8702074438e-02, -3.4884337336e-02,  4.1291262954e-02,  1.9481813535e-02, -1.6626477009e-03, -4.0879745036e-02, -2.7521284297e-02,  4.0604513139e-02,  6.8606808782e-03, -2.9248496518e-02, 
	-4.0283635259e-02,  2.5811947882e-02, -3.5547267646e-02,  1.6497202218e-02,  5.3177967668e-02,  3.5564616323e-02, -6.2016728334e-03, -2.8215577826e-02,  4.6294119209e-02,  5.2623849362e-02, 
	 6.3932068646e-02, -2.4657880887e-02, -3.1364027411e-02,  2.6385938749e-02, -6.0765952803e-03,  5.6392546743e-02,  1.1372040026e-03,  6.0804177076e-02,  7.6275363564e-02, -5.3190920502e-02, 
	 2.1055644378e-02,  2.5678100064e-03,  1.0894401930e-02,  4.1188575327e-02, -3.8118995726e-02,  4.4402398169e-02,  5.5705732666e-03,  1.5933595598e-02,  4.5827265829e-02, -4.3099500239e-02, 
	-1.9416140392e-02, -5.1567658782e-02,  4.7387149185e-02, -6.0180719942e-02,  1.9067110494e-02, -3.6454375833e-02, -3.3126920462e-02,  3.2533176243e-02,  5.5932853371e-02,  4.5508045703e-02, 
	 3.2582975924e-02,  4.8461545259e-02,  6.9273747504e-02, -4.5408941805e-02, -3.1918909401e-02, -5.3055066615e-02,  8.7786149234e-03, -2.6516267098e-03, -2.2029625252e-02,  3.3500332385e-02, 
	 4.9151334912e-02,  5.3918130696e-02, -3.2910369337e-02, -5.7713232934e-02,  2.0155059174e-03, -1.8500966951e-02,  2.3201659322e-02,  3.6842335016e-02, -3.1264126301e-02,  3.9034102112e-02, 
	-3.5888127983e-02,  6.4497664571e-02, -5.8992978185e-02,  3.5470679868e-03,  3.7279430777e-02, -2.2648854181e-02, -4.5773204416e-02,  2.5395987555e-02, -4.1834563017e-02,  1.8242085353e-02, 
	-3.5792298615e-02, -3.2778378576e-02, -2.5334479287e-02,  3.1851399690e-02,  6.3100151718e-02, -1.2959389016e-02, -2.9555043206e-02,  3.0885245651e-02, -6.9882050157e-03,  5.1785308868e-02, 
	-2.4229520932e-02,  3.7508565933e-02, -1.8761415035e-02, -1.4880030416e-02, -4.9915041775e-02,  3.8894988596e-02,  3.0733868480e-03, -5.5048968643e-02, -1.0402709246e-02,  3.2382450998e-02, 
	 4.5201297849e-02, -1.1475289240e-02, -1.3845043257e-02, -4.4453769922e-02, -1.1667123064e-02,  3.6443471909e-02,  4.0674332529e-02, -2.3832086474e-02, -5.2567411214e-02,  5.2429135889e-02, 
	 2.5649996474e-02, -1.0122552048e-03, -2.7958694845e-02,  6.4491699450e-03, -5.3039699793e-02,  4.8422731459e-02,  3.2421149313e-02,  1.7838701606e-02, -4.5313283801e-02,  1.8077915534e-02, 
	 4.5219130814e-02, -3.8403473794e-02,  3.2242253423e-02, -3.5161461681e-02, -4.0136907250e-02, -1.9432576373e-02,  6.7678682506e-02, -3.1915903091e-02, -1.9780147821e-02,  3.9007756859e-02, 
	-6.1266835779e-02,  3.6163263023e-02, -3.1406488270e-02,  3.2596912235e-02,  2.9737010598e-02,  5.8256417513e-02,  2.8726177290e-02,  6.5991573036e-02, -4.5553550124e-02,  1.2052640319e-02, 
	 2.1366296336e-02,  3.8532700390e-02,  6.5560108051e-03,  1.0817529634e-02, -4.7919126227e-03, -2.4150880054e-02,  3.8611367345e-02,  6.3522838056e-02, -1.1774268933e-02,  7.0455104113e-02, 
	 4.9322354607e-03, -4.8590309918e-02,  6.5218381584e-02, -4.1865080595e-02, -6.2675341964e-02, -6.1869062483e-02, -1.8586736172e-02,  7.1987109259e-03,  1.5858566388e-02, -1.5943652019e-02, 
	-4.5102663338e-02,  5.5615222082e-03,  3.6384530365e-02,  4.9057438970e-02, -2.6906434447e-02, -3.5622932017e-02, -2.2398246452e-02,  5.4825771600e-02,  4.1541159153e-02, -7.8989975154e-03, 
	-4.6168457717e-02, -2.0579950884e-02,  4.2407833040e-02,  1.5106267296e-02, -1.1123995297e-02,  1.6239205142e-03,  4.0988780558e-02, -2.7963185683e-02,  4.6896323562e-02, -1.2159164995e-02, 
	 2.6750555262e-02,  2.9589675367e-02, -3.0785549898e-03,  2.4096263573e-02,  2.9649062082e-02,  4.7293514945e-03,  6.6262245178e-02,  3.3069348428e-03,  1.3222862966e-02, -1.2400233187e-02, 
	-1.2049381621e-03,  5.6355472654e-02,  3.4170631319e-02,  8.0920830369e-03,  1.8802294508e-02,  3.2322812825e-02,  5.5701505393e-02,  3.6391638219e-02, -3.8954331540e-03,  6.6017508507e-02, 
	 5.7664912194e-02, -3.6282528192e-02, -2.5913005229e-03,  2.5242069736e-02,  7.5495014898e-03,  4.8440989107e-02, -6.0925189406e-02, -5.8207184076e-02, -7.5525417924e-03, -3.4560143948e-02, 
	-4.9004226923e-02,  4.2397424579e-02,  4.7718960792e-02, -3.1775042415e-02, -3.7550266832e-02,  5.0943825394e-02, -5.3029420087e-04,  3.0899349600e-02, -4.4475443661e-02,  4.4677045196e-02, 
	-4.8602815717e-02, -1.0426263325e-02, -2.2181846201e-02,  4.1415035725e-02, -4.5184221119e-02, -4.6050313860e-02,  3.5467945039e-02, -3.4009613097e-02, -1.9949214533e-02,  3.3083308488e-02, 
	 1.2501577148e-03, -6.2942542136e-02,  6.7795477808e-02, -6.0510918498e-02, -2.2070344537e-02, -4.7889143229e-02,  2.2667660378e-03, -3.3204142004e-02, -3.7025522441e-02,  1.0878444882e-03, 
	-5.8567810804e-02,  4.3702623807e-03,  1.0427411646e-02,  3.2659702003e-02,  2.2074962035e-02, -8.1787128001e-03, -2.9003143311e-02,  7.8586069867e-03,  1.7469579354e-02, -2.7030277997e-02, 
	-4.6126406640e-02, -3.6119475961e-02,  2.6378624141e-02, -6.3146301545e-03, -5.6695591658e-02,  5.3983625025e-02,  5.0022874027e-02,  1.1474516243e-02, -5.2021212876e-02,  3.9326008409e-02, 
	-4.5733790845e-02,  2.3737816140e-02, -3.8717810065e-02, -3.1247936189e-02, -2.4034032598e-02, -5.7239267975e-02,  4.4984519482e-03,  3.2528262585e-02, -3.3695075661e-02,  2.6954850182e-02, 
	 3.7934936583e-02,  2.9843982309e-02, -2.5168066844e-02,  6.8310452625e-03, -1.3970505446e-02, -5.6910917163e-02,  2.9599560425e-02,  1.5489798039e-02, -4.8339180648e-02,  4.1343640536e-02, 
	 4.9301404506e-02, -6.5713964403e-02, -5.0268776715e-02, -6.5767844208e-03,  5.8714263141e-02,  6.6516764462e-02,  4.8613831401e-02,  5.7504024357e-02,  3.5051940940e-03, -3.8587637246e-02, 
	 5.9695687145e-02, -1.0690796189e-02,  5.8353658766e-02, -3.8215171546e-02, -4.8064630479e-02, -2.1984593943e-02, -5.1527250558e-02,  5.6941054761e-02,  6.5144084394e-02,  3.8255091757e-02, 
	 2.5145336986e-02, -3.6366220564e-02,  3.9992213249e-02,  2.6256939396e-02,  6.3322167844e-03,  3.2060588710e-03,  1.6619525850e-02, -5.3366743028e-02,  1.4787922846e-03, -1.6100712121e-02, 
	 2.1826321259e-02, -5.3143750876e-02, -2.2393127903e-02, -4.8675405560e-04,  3.0158238485e-02, -1.4109863900e-02, -3.3756852150e-02,  5.1104906946e-02,  5.4570972919e-02,  1.6884710640e-02, 
	 2.4835620075e-02,  2.4035908282e-02, -6.0109738261e-02,  2.2566782311e-02, -5.4776687175e-03, -3.4039929509e-02, -4.9730323255e-02, -8.6391894147e-03,  1.5088094398e-02,  1.9412985072e-02, 
	-2.2210542113e-02, -7.4205645360e-03, -1.4502458274e-02,  1.5563784167e-02,  3.0831396580e-02, -4.0867149830e-02, -2.5080107152e-02, -3.4174856264e-03,  4.9409568310e-02, -1.9420789555e-02, 
	-4.2316500098e-02,  3.8519978523e-02, -1.5102257952e-02,  2.3532351479e-02,  5.5362038314e-02, -2.2974258289e-02, -1.6671862453e-02, -6.1969969422e-02,  5.0254918635e-02,  1.9037192687e-02, 
	-1.6188887879e-02, -1.2243987061e-02,  1.3549059629e-02,  2.1120088175e-02, -1.7532901838e-03, -1.6047198325e-02, -3.2555058599e-02,  6.6806427203e-03, -5.2893929183e-02,  5.7529471815e-02, 
	-6.6768981516e-02, -4.7049555928e-02,  2.1010253578e-02, -5.5320328102e-03,  1.6489561647e-02, -2.2447980940e-02, -1.6877083108e-02,  3.0829684809e-02, -6.4673341811e-02,  5.0979740918e-02, 
	-3.9233461022e-02,  2.7034396306e-02, -6.7767344415e-02,  6.3556484878e-02,  6.6460803151e-02, -1.9881594926e-02,  3.4198604524e-02, -2.5109073613e-03, -3.5254610702e-03, -2.6007913053e-02, 
	-4.5413258485e-03, -6.5427318215e-02, -3.6897219718e-02, -4.3416086584e-02, -4.1452400386e-02, -3.6143515259e-02, -5.1776811481e-02,  1.7015326302e-03, -5.0826717168e-02,  1.3996575028e-02, 
	-3.4313391894e-02, -3.2436084002e-02,  1.3886847533e-02, -8.9163370430e-03,  4.5776396990e-02,  3.7547804415e-02, -2.6107611135e-02,  5.7431541383e-02, -2.6001553982e-02,  5.5557515472e-02, 
	 5.3910374641e-02,  4.1299048811e-02, -2.3313420825e-03, -3.6671176553e-02,  2.9087962583e-02, -3.6076273769e-02,  5.7597842067e-02,  3.1765028834e-02,  2.2630812600e-02, -1.0755709372e-02, 
	-6.1314988881e-02, -7.9316273332e-03,  1.9250805781e-04, -1.4453021809e-02, -5.4812449962e-02,  1.4199929312e-02, -5.0032231957e-02, -6.6191375256e-02, -2.7523705736e-02, -2.0839067176e-02, 
	-6.3173390925e-02, -5.0450634211e-02, -1.9173514098e-02,  2.9816849157e-02,  1.1298487894e-02,  1.4749997295e-02,  7.0392750204e-02,  4.7002121806e-02, -1.4099547639e-02,  2.6123588905e-02, 
	 3.4926634282e-02,  3.8598585874e-02,  3.2717969269e-02, -9.8701119423e-03,  2.9401413631e-03, -5.9453539550e-02, -4.8540562391e-02, -1.6987057403e-02,  1.3097058982e-02,  2.0859833807e-02, 
	-2.4120779708e-02, -4.2204428464e-02, -8.2606021315e-03,  1.4305689372e-02,  3.7226751447e-02,  1.8035192043e-02,  9.5123723149e-03, -5.0394762307e-02,  4.3214932084e-02, -1.9436528906e-02, 
	-4.1512269527e-02,  1.1666905135e-02,  2.9877306893e-02,  5.2575681359e-02, -2.1345424466e-03,  4.7011937946e-02,  6.2254663557e-02, -2.0496720448e-02, -6.7305341363e-02, -5.7974357158e-02, 
	 5.4049979895e-02, -4.7394853085e-02, -8.7700020522e-03, -4.1857134551e-02,  2.9600956477e-03, -7.4188238941e-03,  2.0945014432e-02,  1.2644227594e-02,  1.9763225690e-02,  4.4456138276e-03, 
	 1.7873113975e-02,  2.6744689792e-02,  3.4528229386e-02, -1.7476022243e-02, -4.2133182287e-02,  2.5653017219e-03,  9.4923039433e-04, -4.6268533915e-02, -1.5623539686e-02,  3.7178885192e-02, 
	 4.1254967451e-02, -6.0892153531e-02,  2.0480935927e-03,  3.2425697893e-02, -7.1572393179e-02, -1.4351842925e-02, -5.4632626474e-02,  3.3773485571e-02, -7.2794742882e-03, -4.8420291394e-02, 
	-1.0318007320e-02, -4.3067719787e-02, -5.4291632026e-02, -3.7388827652e-02,  2.1925318986e-02, -4.9085408449e-02,  3.2892078161e-02,  4.0140181780e-02,  7.0363089442e-02,  6.4350967295e-03, 
	-2.7159819379e-02,  2.4701312184e-02,  4.3937485665e-02,  2.6928154752e-02, -6.0570616275e-02, -1.0021394119e-02,  9.1525325552e-03,  3.0878363177e-02,  2.8886465356e-02, -3.1784989405e-03, 
	-5.4740101099e-02, -6.2328826636e-02,  2.9679739848e-02, -1.5797400847e-02, -2.4544009939e-02, -2.3578746244e-02, -1.6570989043e-02, -4.2352776974e-02, -5.8742925525e-02,  1.4891687781e-02, 
	 1.5006210655e-02,  4.1184075177e-02, -3.2995324582e-02, -9.9162636325e-03,  6.3729276881e-03, -5.8666378260e-02, -2.7994534001e-02,  5.4588541389e-02,  2.4990143720e-03,  1.7730811611e-02, 
	-8.0235935748e-03, -2.8371922672e-02,  5.5803388357e-02,  6.3993148506e-02,  4.3347984552e-02,  3.2274723053e-02,  6.1021358706e-03,  1.3233372010e-02, -5.1372729242e-02,  3.3973701298e-02, 
	-4.9286525697e-02, -1.2914537452e-02, -6.4236983657e-02, -2.7588823810e-02, -2.5510622188e-02, -4.1520390660e-02, -3.4587662667e-02,  5.4608330131e-02, -2.1398158744e-02,  3.9249960333e-02, 
	-4.5452162623e-02, -1.0565115139e-02, -6.7561115138e-03, -5.1958203316e-02,  4.9076423049e-02,  2.3643936962e-02, -2.3165352643e-02, -1.3322032988e-02, -4.4829674065e-02,  5.3665317595e-02, 
	-3.8036156446e-02, -3.5102576017e-02,  6.0726299882e-02, -2.0008528605e-02,  3.2912552357e-02,  5.5430106819e-02,  4.5784063637e-02,  4.1674718261e-02,  2.4997429922e-02, -5.7614479214e-02, 
	-4.6041673049e-03,  4.7480106354e-02, -5.5617436767e-02,  4.3752949685e-02, -6.2879659235e-02,  4.8512592912e-02, -5.9730920941e-02,  1.1355144903e-02, -3.1858403236e-02, -6.9139979780e-02, 
	-4.7788344324e-02, -7.1122050285e-02, -3.3074960113e-02, -5.2383579314e-03, -2.3322092369e-02, -5.2894711494e-02,  4.9133040011e-02,  4.4489078224e-02,  3.3901028335e-02,  2.6137966663e-02, 
	 4.9130454659e-02, -1.8130682409e-02, -2.4126954377e-02,  1.2172308750e-02,  3.4319255501e-02,  3.4762918949e-02,  2.1577574080e-04, -3.9603102952e-02, -4.6478401870e-02,  2.5189667940e-02, 
	-3.9965253323e-02, -1.3056688942e-02, -6.3279263675e-02,  7.2046951391e-03, -1.9919531420e-02,  2.7286982164e-02,  5.8162968606e-02,  4.2007789016e-02, -7.2812237777e-03,  2.0933851600e-02, 
	 2.7801098768e-03,  1.1984330602e-02, -4.8445727676e-02, -5.3161300719e-02, -4.9164377153e-02, -2.0838307217e-02, -4.8277869821e-02, -1.9104361534e-02, -3.4901341423e-03,  4.1034229100e-02, 
	-3.4412946552e-02, -5.1840927452e-02, -3.4652281553e-02,  1.6468554735e-02, -4.6089332551e-02,  4.2296294123e-03, -4.1349601001e-02,  6.3217006624e-02,  6.3600763679e-02,  3.9522230625e-02, 
	-8.0325379968e-03,  6.1060409993e-02, -2.1442098077e-03,  9.0645607561e-03,  2.5052631274e-02,  2.0065886900e-02,  2.8639832512e-02, -7.3965182528e-03, -9.2923566699e-03, -4.8039920628e-02, 
	-5.7831656188e-02, -2.7684126049e-02, -3.0838295817e-02,  3.4713316709e-02,  5.0211727619e-02, -2.6381271891e-03, -1.3479892164e-02, -5.4876539856e-02,  2.6134313084e-03,  4.5402020216e-02, 
	-5.7344842702e-02, -3.1272277236e-02,  5.8300141245e-02, -6.3644424081e-02, -5.0129611045e-02,  4.4302117079e-02,  1.5163083561e-02, -3.6653526127e-02,  1.8297882751e-02, -3.2141689211e-02, 
	 4.2389497161e-02,  4.7613192350e-02, -3.0493065715e-02, -6.6709294915e-02, -2.8879566118e-02, -3.9198070765e-02, -7.2445934638e-03, -1.2644220842e-03,  1.7983663827e-02, -3.9314594120e-02, 
	-3.1325095333e-03, -2.0464757457e-02,  4.6518098563e-02,  5.3436197340e-02,  2.8260068968e-02, -1.2952784309e-03,  4.0455091745e-02,  4.4975202531e-02, -5.6970208883e-02, -2.7668006718e-02, 
	 5.8640100062e-02,  7.8961485997e-03, -3.0138209462e-02, -1.2929338031e-02,  1.4920912683e-02,  3.1980909407e-02,  7.2695977986e-02,  4.1458133608e-02, -2.8356593102e-03, -5.9978593141e-02, 
	 3.0254054815e-02, -7.0752426982e-02, -1.7431521788e-02, -5.9604067355e-03,  6.2788818032e-03, -3.3866118640e-02,  2.7406323701e-02,  2.6575716212e-02, -2.3984014988e-03,  1.4059058391e-02, 
	-5.0956591964e-02,  5.0759226084e-02,  4.7644264996e-02, -3.6313153803e-02, -5.4349482059e-02,  7.9533578828e-03, -2.1706864238e-02,  1.5249247663e-02, -8.3797909319e-03,  1.2171152048e-03, 
	-2.9647352174e-02,  5.2746746689e-02,  1.7206538469e-02, -2.5311123580e-02,  2.6142140850e-02,  4.0922261775e-02, -6.1042844318e-03, -1.9942767918e-02,  1.2598370202e-02, -3.5003304482e-02, 
	-3.3753849566e-02, -5.0957249478e-03,  3.2740317285e-02, -4.8911914229e-02,  3.0950397253e-02, -4.8945499584e-03, -3.7169590592e-02, -1.9869728014e-02, -2.0293224603e-02, -2.5546822697e-02, 
	-1.5380826779e-02, -6.5084688365e-02,  3.1974747777e-02,  3.5981226712e-02,  4.1836906224e-02,  5.6487511843e-02, -1.7550317571e-02,  4.9535371363e-02, -6.2013443559e-02, -4.6768955886e-02, 
	 5.8841273189e-02,  3.1291395426e-02, -3.7215277553e-02, -6.3861101866e-02,  4.0772266686e-02,  2.3504329845e-02,  2.2752672434e-02, -1.2684230693e-02,  1.5151959378e-03, -5.0725966692e-02, 
	-6.3890725374e-02, -6.2091413885e-02,  1.4048245735e-02, -3.5606086254e-02,  1.7582457513e-02,  4.9166347831e-02,  5.3287662566e-02, -4.4369261712e-02,  2.3417053744e-02,  4.8289850354e-02, 
	 5.7639386505e-03, -7.1040261537e-04, -1.8537441501e-03, -4.8819329590e-02,  2.6302136481e-02,  3.2016240060e-02, -5.5421076715e-02,  6.0099080205e-02,  1.4573290944e-02,  1.6952376813e-02, 
	 1.0687332600e-02, -4.7482017428e-02,  4.9307655543e-02, -8.3906678483e-03, -2.9234947637e-02,  2.7114888653e-02,  2.8567118570e-02, -5.6019138545e-02, -3.4141644835e-02, -3.6082524806e-02, 
	 2.5448378175e-02, -3.3232010901e-02, -3.2114360482e-02, -6.2407110818e-05,  2.1923504770e-02, -1.2854759581e-02,  5.2687197924e-02, -4.1130185127e-02,  6.9355659187e-02, -8.1017129123e-03, 
	-4.3524570763e-02, -5.0824098289e-02, -1.4231087640e-02, -4.4597893953e-02,  3.3053390682e-02,  2.7471821755e-02, -6.0870930552e-02, -3.3833961934e-02, -4.2712334543e-02,  5.1478613168e-02, 
	 1.3929410838e-02, -6.2292285264e-02, -7.6045840979e-03, -3.7182942033e-02, -2.8212875128e-02,  2.0196722820e-02, -2.1152406931e-02, -3.1788975000e-02,  1.2561690062e-02,  5.0221588463e-02, 
	 5.8801960200e-02, -4.5464843512e-02,  4.6999569982e-02,  1.7943084240e-02, -3.8956329226e-02, -5.7047910988e-02, -3.0042758211e-02,  2.6369782165e-02,  4.7591507435e-02,  4.7388464212e-02, 
	-6.1540074646e-02, -3.8087710738e-02, -3.0351385474e-02, -4.6643768437e-03,  4.7006510198e-02,  5.3982321173e-02,  4.0607858449e-02, -3.2801631838e-02, -1.1149274185e-02,  5.6302957237e-02, 
	-4.1941918433e-02, -8.2043521106e-03,  2.3632533848e-02,  3.7427056581e-02, -2.0111871418e-03, -1.1131202802e-02,  1.2656725943e-02, -2.9635909945e-02,  1.2852746062e-02,  5.9091072530e-02, 
	 1.9795313478e-02, -2.7068627533e-03, -2.2179709747e-02,  3.7100333720e-02, -4.8765044659e-02, -3.5003449768e-02,  5.0205845386e-02, -4.7587998211e-02,  7.3293452151e-03, -3.6824084818e-02, 
	 4.7782607377e-02,  2.1461699158e-02, -2.7776950970e-02,  1.2498242781e-02,  5.1124684513e-02, -2.3310177028e-02, -1.4002507087e-03, -4.1835084558e-02,  2.1904924884e-02, -1.5736918896e-02, 
	 3.0356582254e-02, -2.1013814956e-02,  4.4613145292e-03,  3.8930479437e-02,  5.3217117675e-03, -1.6770247370e-02, -1.0911148973e-02,  4.2338829488e-02,  3.1874842942e-02,  1.3800940942e-03, 
	 3.2690029591e-02, -4.7619182616e-02, -3.7163179368e-02, -1.1104887351e-02,  3.1089775264e-02,  1.1588391848e-02, -3.7204183638e-02,  3.7804845721e-02,  5.1375050098e-02, -1.3920765370e-02, 
	-4.3879784644e-02,  3.1653329730e-02, -1.6668805853e-02, -5.4706558585e-02,  8.8150920346e-03, -6.9621488452e-02, -8.9123537764e-03, -3.6510705948e-02,  3.7601921707e-02, -5.7985287160e-02, 
	 3.2828178257e-02, -4.5403003693e-02,  3.4755580127e-02,  8.2990890369e-03,  2.3970551789e-02,  1.4083633199e-02, -1.7266135663e-02,  5.4379329085e-02, -5.4783564061e-02, -1.7798142508e-02, 
	-1.0630685836e-02,  2.5661893189e-02,  3.8296803832e-03, -5.6689221412e-02, -6.3471354544e-02, -5.2103009075e-02,  5.2574820817e-02,  2.5948189199e-02, -2.4128612131e-02,  2.2603511810e-02, 
	-1.5958810225e-02,  2.4130292237e-02, -4.0039997548e-03,  3.8662884384e-02,  1.1672336608e-02,  3.1867675483e-02,  3.3243920654e-02,  3.8646787405e-02,  4.5945186168e-02,  1.8466061447e-03, 
	-4.7681555152e-02,  4.0259331465e-02, -1.1593609117e-02, -5.1359876990e-02,  1.3940391131e-02,  4.3293215334e-02,  4.9382735044e-02, -3.5894783214e-03,  7.1886801161e-03, -5.4509416223e-02, 
	-1.8696285784e-02, -2.3689551745e-03, -5.5565908551e-02,  4.3539602309e-02,  5.0704140216e-02,  3.0965765938e-02,  4.2847573757e-02, -4.9723085016e-02, -5.3281560540e-03, -4.3193496764e-02, 
	 5.1988465711e-03,  6.3138112426e-02, -1.3653654605e-02,  5.2128318697e-02, -3.9619196206e-02, -5.4651789367e-02, -1.7926469445e-02, -9.2270430177e-03,  5.2321184427e-02, -5.2463542670e-02, 
	-2.7703624219e-02, -3.7307549268e-02,  3.9632603526e-02,  2.1617667750e-02,  2.9090134427e-02, -6.0340084136e-02, -3.1226808205e-02,  2.2954897955e-02,  5.0575718284e-02, -4.1082287207e-03, 
	 2.8646351770e-02,  3.6005813628e-02, -5.8640912175e-02,  4.5183576643e-02, -4.6020515263e-02, -5.1127769053e-02, -6.1786990613e-02,  2.9040927067e-02, -2.7910815552e-02, -2.9351236299e-02, 
	-1.4864544384e-02,  2.6775725186e-02, -4.9003720284e-02, -3.5169387702e-03,  4.2254687287e-03,  5.7100079954e-02, -3.1456641853e-02, -4.5039039105e-03,  4.5624445193e-03,  3.9388403296e-02, 
	 2.7173841372e-02, -4.7571483999e-02,  6.3585527241e-02, -5.4753050208e-02,  6.3662536442e-02,  5.6844510138e-02,  1.8458131701e-02,  2.4689303711e-02,  2.6156485081e-02, -9.1340737417e-03, 
	 5.6283481419e-02,  1.1374860071e-02, -4.3138504028e-02,  3.8139037788e-03, -1.5326538123e-02,  1.8922884017e-02, -5.0277251750e-02, -9.6435490996e-03,  2.0584430546e-02, -1.4034537598e-03, 
	-5.5572565645e-02, -3.7247985601e-02, -6.5740668215e-03, -4.4247254729e-02, -3.7440311164e-02, -1.9726872444e-02,  7.1076221764e-02,  4.6727165580e-02,  3.1845737249e-03,  5.3718451411e-02, 
	 3.7099480629e-02,  4.4700954109e-02,  4.2359312065e-03, -1.5164946672e-03,  3.6334067583e-02,  3.2432071865e-02, -2.0867949352e-02, -2.7319963556e-03, -5.1483448595e-02,  2.3280352354e-02, 
	 5.0660233945e-02,  4.3446876109e-02,  2.7387576178e-02, -5.0978783518e-02, -1.5058441088e-02,  6.5140048973e-03,  1.1360311182e-03, -9.0389279649e-03,  3.7670440972e-02,  1.3613188639e-02, 
	-5.5119033903e-02,  2.8288561851e-02, -2.5799941272e-02,  9.9264970049e-03,  1.5108946711e-02,  7.6712318696e-03,  3.1701978296e-02, -2.6414350141e-03, -5.6809578091e-03, -2.0366773009e-02, 
	-1.0955743492e-03, -3.7127949297e-02, -6.1188958585e-02,  4.6279266477e-02, -3.0571335927e-02,  1.7544753850e-02,  5.2298102528e-03, -1.0285471566e-02,  7.3628108948e-03, -5.6953348219e-02, 
	-1.2712553144e-02, -5.0238117576e-02,  4.8327594995e-02,  1.3399765827e-02,  5.7884819806e-02, -2.8930172324e-02,  4.8217277974e-02, -5.8085426688e-02,  7.0734769106e-02,  1.1061191559e-02, 
	 4.7149783932e-03,  5.3020112216e-02, -3.0960302800e-02, -6.4600050449e-02, -4.4855168089e-03, -1.3996563852e-02,  1.0980698280e-02, -4.4378209859e-02, -3.2800909132e-02,  5.6156277657e-02, 
	-3.7177398801e-02,  3.2465368509e-02,  3.3256369643e-03, -1.7689760774e-02,  6.7841507494e-02, -8.3144344389e-03,  2.7289513499e-02, -1.1488176882e-02, -4.7822725028e-02, -3.9784260094e-02, 
	 1.4646248892e-02,  3.2023540698e-03, -1.3339990750e-02, -2.0227240399e-02, -3.6231160164e-02,  1.9704714417e-02, -3.8318283856e-02,  5.6432872079e-03, -2.9021827504e-02, -6.9905482233e-02, 
	-6.9678463042e-02, -3.7117198110e-02,  5.6600835174e-02,  4.0475945920e-02,  5.8264024556e-02,  6.9032707252e-03,  4.3443016708e-02, -2.3274773732e-02,  5.6152138859e-02, -6.6070944071e-02, 
	-5.6121088564e-03,  5.1465012133e-02,  2.5783166289e-02, -2.5793344248e-03,  4.1678477079e-02, -1.5054049902e-02, -3.7356078625e-02, -5.6856967509e-02, -2.2908162326e-02,  5.8636348695e-03, 
	-5.1174562424e-02, -1.4635979198e-02, -6.1254404485e-02, -2.5159591809e-02, -2.1786956117e-02,  5.0924837589e-02, -2.3196440190e-02, -5.4262120277e-02,  3.1329516321e-02, -4.3775223196e-02, 
	-4.6387162060e-02,  2.7986360714e-02,  5.7109341025e-02, -1.3308152556e-02,  1.1189712211e-02,  5.1776371896e-02,  4.9759659916e-02, -5.3047850728e-02, -4.4592127204e-02, -6.8878091872e-02, 
	-1.0432383977e-02, -2.0969416946e-02,  1.1075588875e-02,  2.3601379246e-02, -3.2054685056e-02, -2.6680883020e-02,  7.1358300745e-02, -6.2173943967e-02,  1.2419395149e-02, -2.8979724739e-03, 
	 1.9463774515e-03,  3.8500279188e-02,  5.3665257990e-02,  7.2330818512e-03, -5.4703164846e-02,  4.1923526675e-02,  1.2518904172e-02, -2.3757893592e-02,  5.0048973411e-02,  6.1687637120e-02, 
	-7.9928478226e-04,  6.5647084266e-03,  6.0843955725e-03,  4.4674765319e-02,  5.9545189142e-02,  4.8636544496e-02,  4.4911801815e-02,  3.7174401805e-03, -5.2897338755e-03, -4.4921528548e-02, 
	 2.9134145007e-02, -3.6734059453e-02, -2.9806120321e-02,  9.7340997308e-03,  4.2178113014e-02,  5.3554527462e-02,  2.2547589615e-02, -4.6818967909e-02,  1.4203367755e-02, -2.4335501716e-02, 
	 6.6573783755e-02, -2.2118026391e-02, -2.9403228313e-02,  1.7083434388e-02, -2.6306893677e-02, -1.3359673321e-02, -4.3901920319e-02, -4.3992977589e-02, -9.3212835491e-03,  3.9374738932e-02, 
	 3.9186943322e-02, -1.2980916072e-03, -1.0070953518e-02,  1.4041149057e-02, -7.1149691939e-02, -2.9934642836e-02,  3.2831065357e-02,  1.5055005439e-02, -8.5768681020e-03,  2.0001070574e-02, 
	-4.7724861652e-02, -2.6356438175e-02,  4.8101924360e-02, -1.1862154119e-02,  2.4132100865e-02, -2.8194222599e-02, -5.9129357338e-02, -3.3869713545e-02,  2.3742495105e-03,  1.2076011859e-02, 
	-4.2668700218e-02,  3.6073334515e-02,  5.7655829936e-02,  3.7260041572e-03,  4.8140097409e-02, -8.3202356473e-03,  6.6121347249e-02,  3.1652614474e-02,  4.7605961561e-02, -5.0259395503e-03, 
	-1.2483451515e-02,  2.7542438358e-02, -5.5304419249e-02,  5.8931708336e-02,  3.3754248172e-02, -3.9406809956e-02, -7.5364508666e-04,  2.0681436581e-04, -1.8013602123e-02,  2.8975091875e-02, 
	 3.3528614789e-02, -9.5665100962e-03, -2.8768319637e-02, -1.9129035994e-02,  1.1849248782e-02, -5.1845923066e-02,  2.6180213317e-02,  2.0585468039e-02, -6.7958654836e-03, -4.0852461010e-02, 
	 5.5202126503e-02,  2.3800976574e-02, -2.6842495427e-03, -3.3193748444e-02,  3.0778205022e-02,  3.4490197897e-02,  2.8254369274e-02, -2.3157512769e-02,  6.5441913903e-02,  3.1816591509e-03, 
	-2.5847639889e-02,  2.6061514392e-02,  1.3639594428e-02,  9.6358358860e-03,  2.1713906899e-02, -3.3016406000e-02,  5.3308591247e-02,  6.1050653458e-02,  3.4162934870e-02, -3.9110817015e-02, 
	 2.5148699060e-02,  3.0145702884e-02,  7.7050842345e-02,  7.8572714701e-03, -1.1467044242e-03, -6.7082635360e-04, -6.7740648985e-02, -2.5792593136e-02, -5.2489221096e-02,  5.4389916360e-02, 
	 9.6307526110e-04,  1.5619467944e-02, -6.2455479056e-03,  4.0901370347e-02, -3.4847769421e-03,  3.3647689968e-02, -5.0910413265e-02,  2.2831015289e-02,  2.1284583956e-02,  5.8417484164e-02, 
	 5.0509132445e-02,  2.4803368375e-02,  6.5283350646e-02, -3.1336106360e-02,  6.7155256867e-02,  1.5571121126e-02, -4.3326336890e-02, -1.0967105627e-02,  2.3465268314e-02, -3.0764900148e-02, 
	-2.0525002852e-02,  4.3086022139e-02,  5.1628295332e-02,  5.3892891854e-02,  1.3137695380e-02, -6.7436829209e-02,  1.6162918881e-02,  2.5871615857e-02,  6.5076313913e-03, -3.0236732215e-02, 
	-3.3466223627e-02,  4.2527373880e-02,  3.9583068341e-02, -1.3036580058e-03,  7.2218529880e-02,  1.6822149977e-02, -2.2576391697e-02,  6.5493412316e-02,  3.7829402834e-02,  4.0172688663e-02, 
	-4.6722274274e-02,  2.5878192857e-02,  4.5289929956e-02,  5.3563352674e-02,  6.7683562636e-02,  3.3081620932e-02,  8.4228646010e-03,  2.3939661682e-02,  6.3607409596e-02,  1.6829973087e-02, 
	-2.8750266880e-02,  2.6007283013e-03,  1.8595922738e-02,  2.8556359466e-03, -4.1350156069e-02, -4.1974984109e-02, -5.5636607111e-02, -1.1119174771e-02,  1.3918445446e-02,  2.3551989347e-02, 
	-3.9930745959e-02, -2.0927131176e-02, -1.4552352950e-02, -9.9204678554e-04, -4.6850990504e-02, -6.3287913799e-02, -6.2626332045e-02,  1.5121514909e-02, -4.7639895231e-02, -6.1989467591e-02, 
	-3.9665582590e-03,  3.8399681449e-02,  4.1404511780e-02,  5.2063047886e-02,  1.2631734833e-02, -3.5003606230e-02,  2.6053741574e-02, -3.9855986834e-02, -5.1048476249e-02,  4.2804773897e-02, 
	-5.6073926389e-02,  5.0230059773e-02, -3.9941493422e-02, -3.9378967136e-02, -7.2708830703e-04,  6.4625881612e-02, -3.4629048314e-03, -6.9076135755e-02,  1.7695598304e-02,  6.2119044363e-02, 
	-4.6350783668e-03, -2.7713945601e-03,  4.2756862938e-02,  1.0834256187e-02,  2.4358799681e-02,  6.6742070019e-02, -1.1972235516e-02, -8.4823202342e-03,  3.3437713981e-02,  2.4398125242e-03, 
	-6.6429921426e-03,  1.4360082336e-02,  4.1216351092e-02,  8.1674214453e-03, -8.5891358322e-04, -3.2642986625e-02, -1.1310235597e-02, -1.6224330291e-02, -1.3032817282e-02, -4.1013605893e-02, 
	 4.0933437645e-02, -3.6392897367e-02,  3.7305478007e-02, -7.1561641991e-02, -2.9058827087e-02, -3.7170298398e-02,  1.7457863316e-02,  2.1740999073e-02,  4.2067810893e-02,  3.8913145661e-02, 
	 2.1118551493e-02, -4.7041922808e-03, -1.4757536701e-04, -6.1633262783e-02,  1.4440808445e-02,  4.1410863400e-02, -4.3377485126e-02,  7.8948829323e-03, -3.7012152374e-02, -6.0819152743e-02, 
	 3.7419836968e-02,  3.1043147668e-02,  1.6577567905e-02,  2.6646004990e-02, -2.5120934471e-02, -4.9012836069e-02,  9.7479606047e-03,  2.7934407815e-02, -2.1093174815e-02,  3.5839300603e-02, 
	 7.1678362787e-02, -5.2176095545e-02,  1.4249877073e-02,  1.9206017256e-02,  1.5902936459e-02,  2.4448603392e-02, -2.0592808723e-02,  1.2571467087e-02,  3.7024840713e-03,  8.9102046331e-04, 
	 9.5113664865e-03, -5.2235666662e-02, -2.1712703630e-02, -5.1859758794e-02, -3.2802198082e-02, -3.6191169638e-03, -2.2971339524e-02,  1.1879828759e-02, -3.2482344657e-02, -2.4640418589e-02, 
	-8.9328112081e-03,  4.1075468063e-02, -3.9440270513e-02, -3.3845178783e-02, -4.8035108484e-03,  3.5362564027e-02,  2.4111876264e-02,  2.1511889994e-02, -5.7292405516e-02,  4.6662528068e-02, 
	 7.6802992262e-03, -2.6416121051e-02, -1.7488561571e-02,  4.6373050660e-02,  3.2411821187e-02, -4.6526651829e-02, -4.5491516590e-02, -7.1668680757e-03, -5.4191857576e-02,  4.8397764564e-02, 
	-1.7470955849e-02,  3.5857513547e-02, -2.4004179984e-02,  4.6398591250e-02,  2.6777971536e-02,  4.4290958904e-03,  2.1983843297e-02,  6.0644287616e-02, -1.4104332076e-03,  1.9750228152e-02, 
	 3.5782281309e-02,  5.8032255620e-02,  5.0078641623e-02, -1.6326311976e-02,  1.5676589683e-02, -2.5571489707e-02, -2.9343832284e-02,  7.8377733007e-03, -2.7913877741e-02, -2.2650182247e-02, 
	 7.9577637371e-04, -1.3382982463e-02, -5.0875809044e-02, -1.0792416288e-03,  4.7950252891e-02,  3.9212819189e-02,  6.4547277987e-02,  1.4492218383e-02, -1.4282197692e-02,  3.7899117917e-02, 
	 5.4657161236e-02,  1.5202501789e-02,  5.4245624691e-02,  3.8983248174e-02,  4.7703180462e-02, -5.0446938723e-02,  2.8174005449e-02,  6.0379281640e-02, -6.2084630132e-02,  3.1279511750e-02, 
	 2.3649031296e-02,  1.3672783971e-02,  1.9868977368e-02,  5.1336698234e-02, -8.7919775397e-03, -1.2972969562e-02, -6.4732827246e-02, -3.6949545145e-02, -2.5048963726e-03, -5.5430948734e-02, 
	 5.6211682968e-03,  5.2128273994e-02, -1.8735570833e-02,  1.0898660868e-02,  2.9839076102e-02, -9.4142826274e-03,  1.4443909749e-02,  3.0484715477e-02,  9.7819203511e-03,  1.2706782669e-02, 
	 3.9660483599e-02,  5.4252970964e-02, -4.5609757304e-02, -3.8788467646e-02, -1.5551762655e-02, -8.4507288411e-03, -4.5643247664e-02, -2.0256144926e-02, -1.9648376852e-02, -4.0209698491e-03, 
	 2.9045807198e-02,  7.5272573158e-03, -5.4571691900e-02, -1.6981327906e-02,  1.2021573493e-03, -3.4453716129e-02, -3.3188571688e-03,  2.5434385985e-02, -2.5226319209e-02, -1.0781893507e-02, 
	 4.2869266123e-02, -5.4621744901e-02,  5.3379140794e-02,  5.6362953037e-02,  4.2344957590e-02, -1.5632452443e-02, -6.4125820994e-02, -1.7158530682e-05, -6.1552613974e-02,  1.9663073123e-02, 
	 2.2642271593e-02,  6.0320295393e-02,  5.9930426069e-03,  4.2518172413e-03,  1.5654791147e-02, -4.0206540376e-02,  3.0153311789e-02, -1.3685559854e-02, -5.1311604679e-02,  5.2654106170e-02, 
	 7.6746894047e-03,  3.5517904907e-02,  3.1156959012e-02,  5.4875846952e-02, -5.4651051760e-02,  3.1801421195e-02, -1.2633626349e-02, -3.7111431360e-02, -4.2108755559e-02,  7.3810167611e-02, 
	-1.4754143544e-02,  1.2518016156e-03,  2.7892173966e-04, -5.8978527784e-02,  2.3986746091e-03, -4.6719890088e-02,  3.7671901286e-02, -6.1564311385e-02, -5.0238247961e-02,  1.3566075824e-02, 
	-2.7228804305e-02,  2.1846650168e-02,  1.8406972289e-02, -4.8114780337e-02,  2.5295128580e-03,  5.1711924374e-02,  1.8735971535e-03,  1.6273373039e-03, -3.0036333948e-02,  5.0392154604e-02, 
	-5.1060821861e-02, -2.8276057914e-02,  1.6516905278e-02,  2.5170786306e-02, -5.3614649922e-02,  4.1051678360e-02,  6.9525414146e-03, -5.6049123406e-02, -2.5185067207e-02,  6.2863096595e-02, 
	-1.0149164125e-02, -2.1512501407e-03,  1.2575420551e-02, -6.4186304808e-02, -4.9184402451e-03, -5.6107755750e-02, -5.0365000963e-02,  1.0756932199e-02,  5.3385820240e-02,  5.9311569203e-05, 
	 5.3964000195e-02,  1.3199716806e-02, -3.0644688755e-02, -6.1681408435e-02,  1.6795860603e-02,  3.6594267935e-02,  2.8546499088e-02,  2.8475087136e-02,  6.4196377993e-02, -1.0645424947e-02, 
	 3.4865077585e-02, -5.0881739706e-02, -2.3591371253e-02, -5.5422298610e-02, -1.6446743393e-03, -6.9386833347e-03,  6.0234922916e-02,  2.5767995045e-02,  5.8058734983e-02, -1.3929394074e-02, 
	-4.2003337294e-02,  1.5825174749e-02,  4.0444530547e-02,  5.1179368049e-02,  3.9289679378e-02,  7.1419181768e-04,  2.7779754251e-02,  5.4187513888e-02, -5.1896166056e-02,  5.7917265221e-03, 
	 6.0099051334e-03,  8.0184862018e-03, -2.0872617140e-02,  4.7532662749e-02,  3.0305532739e-02, -5.1094621420e-02, -2.8489494696e-02,  1.7869442701e-02,  5.5497884750e-02,  3.9493195713e-02, 
	 9.9787777290e-03, -4.5559227467e-02, -6.0336936265e-02, -3.4352194518e-02,  5.0954904407e-02,  1.3050714508e-02, -2.7904411778e-02,  1.4706209768e-03, -1.5867446782e-03,  7.4843917973e-03, 
	-8.9918412268e-03, -4.1085109115e-02, -1.5235614032e-02,  2.8878256679e-02,  6.3038341701e-02,  1.3821276836e-02,  4.4203281403e-02,  2.7276221663e-02, -3.3667344600e-02, -1.1815906502e-02, 
	-4.2518448085e-02, -1.0366632603e-02, -5.2888922393e-02, -3.7470635027e-02, -1.4953394420e-03, -2.9374821112e-02, -7.1921609342e-03,  5.2228931338e-02,  4.5004416257e-02, -4.8662964255e-02, 
	-2.5608580559e-02,  4.2950227857e-02, -3.2393287867e-02,  4.0876820683e-02, -3.5684570670e-02, -1.2176281773e-02, -4.1328892112e-02, -1.5452519059e-02, -5.1089677960e-02,  6.5209060907e-02, 
	 3.3743593842e-02, -5.4232694209e-02, -9.3220052077e-04, -4.9539968371e-02, -2.9674563557e-02, -3.0803138390e-02, -2.9235295951e-03,  2.9740547761e-02,  4.7853779048e-02,  2.1656930447e-02, 
	 4.9448881298e-02, -4.8349488527e-02,  1.4125941321e-02, -3.5069737583e-02,  8.4651457146e-03, -3.1789343804e-02, -5.2797585726e-02, -1.6269977205e-03, -1.8126713112e-03,  5.4836515337e-02, 
	-3.3764909953e-02,  6.0624413192e-02, -3.5084735602e-02, -2.3133594543e-02, -5.5772885680e-02,  1.0381365428e-03, -7.6178455492e-04, -7.8904218972e-03,  1.3290214352e-02,  7.3828306049e-03, 
