#ifndef PARAMS_CONV2D_30_H
#define PARAMS_CONV2D_30_H
#include "params.h"

const float layer_30_conv2d_weight[UNET_PAR_30_CONV2D_KERNEL_Y*UNET_PAR_30_CONV2D_KERNEL_X*UNET_PAR_30_CONV2D_IN_FILTER*UNET_PAR_30_CONV2D_OUT_FILTER] = {
	 5.3932681680e-02, -3.1262539327e-02, -1.0614127666e-01,  3.2591540366e-02,  9.9931083620e-02,  6.8582884967e-02,  6.6368788481e-02,  1.2408480980e-03, -3.5198714584e-02,  6.2089242041e-02, 
	-2.7426017448e-02,  5.3845271468e-02, -9.4693951309e-02,  4.1460584849e-02,  1.3677271083e-02,  7.1092762053e-02,  9.3375310302e-02, -2.2685281932e-02,  4.3460473418e-02, -6.7558594048e-02, 
	 4.3885108083e-02, -9.7503393888e-02, -1.7103716731e-02,  6.7401781678e-02,  1.5497322194e-02,  7.1074128151e-02,  7.7148221433e-02,  1.3905203901e-02,  8.5311099887e-02, -9.7296386957e-02, 
	 5.6309094653e-03, -4.9554884434e-02, -4.9536027946e-03,  9.9420174956e-02,  4.4458918273e-02, -1.7307933420e-02, -9.3297421932e-02, -8.1677623093e-02,  1.8372341990e-02, -6.0266058892e-02, 
	 2.1650966257e-02, -3.6335866898e-02,  1.1007693596e-02, -1.0569068044e-01,  6.2170125544e-02,  8.8928684592e-02,  7.6326251030e-02, -8.1634081900e-02, -4.3157357723e-02,  1.1258038692e-02, 
	-9.7283750772e-02, -2.6193758473e-02,  6.5321698785e-02,  2.9937615618e-02,  3.2645254396e-03, -5.0470945425e-03,  5.4401211441e-02, -2.5932712480e-02,  9.6534878016e-02,  3.9253283292e-02, 
	 1.8015114591e-02, -1.0411795974e-01, -9.8632469773e-02,  3.8064308465e-02,  7.4806660414e-02,  5.9477716684e-02, -1.2311267201e-03,  5.9683686122e-03, -2.7032952756e-02, -7.2677647695e-03, 
	-5.4912459105e-02,  3.2406110317e-02,  1.0536406934e-01, -4.6739209443e-02, -4.3801028281e-02,  3.3579479903e-02,  9.0999066830e-02,  1.7923897132e-02, -9.1790869832e-02,  1.4476146549e-02, 
	 7.4666589499e-02, -1.0680144653e-02, -4.2322475463e-02, -4.2845074087e-02, -7.2091199458e-02,  6.0811467469e-02, -6.2468405813e-03, -9.7546540201e-02, -7.3647260666e-02,  5.8777719736e-02, 
	-4.1208356619e-02, -1.8793713301e-02, -1.8077196728e-04,  4.1669521481e-02,  5.8120831847e-02,  7.7774986625e-02,  1.3943649537e-04,  3.2957140356e-02,  9.2107970268e-03, -6.8051069975e-02, 
	 4.0019400418e-02,  1.7044199631e-02,  8.5755191743e-02,  5.8805182576e-02,  1.2713907287e-02,  1.0176637024e-01, -6.2491435558e-02,  3.4261990339e-02, -9.1672822833e-02,  4.0907882154e-02, 
	 4.9946356565e-02,  9.2990733683e-02,  6.9254949689e-02, -2.2900796030e-03,  4.0847029537e-02, -7.1972101927e-02, -9.5449052751e-02,  8.4392592311e-02,  3.4603077918e-02, -8.4902830422e-02, 
	-2.8488647193e-02, -2.6133706793e-02,  6.0226913542e-02, -7.3649801314e-02,  7.5651317835e-02,  1.2370007113e-02, -7.8321687877e-02,  5.0692737103e-02, -1.4334707521e-02, -1.1079266667e-01, 
	 4.2761422694e-02, -7.2758339345e-02,  3.9928313345e-02, -1.0949476808e-01,  9.9856048822e-02,  3.5615719855e-02, -6.9147080183e-02, -5.9603657573e-02,  7.6373606920e-02, -2.0080571994e-02, 
	-2.1449020132e-02,  7.8439220786e-02,  9.5456443727e-02, -1.0599224269e-01,  6.3724666834e-02, -5.5372677743e-02, -4.4055588543e-02, -3.6908455193e-02, -7.5567610562e-02,  4.1951477528e-02, 
	 7.7621430159e-02, -1.6280805692e-02,  2.6310052723e-02,  5.3593004122e-03,  5.3760893643e-02,  3.5081904382e-02, -9.3728862703e-02,  2.2686030716e-02, -9.5141686499e-02,  6.8937085569e-02, 
	 2.3228870705e-02, -5.8710936457e-02,  9.6058852971e-02,  1.5611326671e-04, -6.4100675285e-02, -5.3479675204e-02, -7.6752237976e-02,  9.6858806908e-02, -7.0009060204e-02,  6.9037559442e-03, 
	-3.5789076239e-02, -2.1965058520e-02, -4.8434931785e-02, -3.1053623185e-02, -1.2547225691e-02, -1.0118201375e-01, -3.6292355508e-02,  8.8784821332e-02,  9.6428975463e-02, -6.8938843906e-02, 
	 2.1591395140e-02,  5.6145217270e-02,  9.4637066126e-02, -5.0573278219e-02,  4.3176505715e-02,  1.4350140467e-02,  1.1132546514e-01, -7.1320690215e-02,  9.4986446202e-02, -4.1902802885e-02, 
	-8.1715032458e-02, -1.0503251106e-01,  8.5142746568e-02,  5.5723581463e-02, -7.6376430690e-02, -4.9071069807e-02, -8.9110031724e-02, -7.2723843157e-02, -4.1186783463e-02,  1.0188654065e-01, 
	-3.9495814592e-02,  2.6900295168e-02, -5.7273167185e-03, -8.8194876909e-02, -2.1352840122e-03, -2.2072147578e-02, -6.0005687177e-02,  5.1087364554e-02, -9.7869880497e-02, -6.7377083004e-02, 
	-2.7572367340e-02, -9.2626810074e-02,  4.7693975270e-02,  6.1874646693e-02,  9.6660397947e-02, -1.3154366054e-02, -5.9629555792e-02, -1.0642120242e-01,  4.1432529688e-02,  8.2766763866e-02, 
	 3.7118904293e-02,  3.4565456212e-02, -1.0758589953e-01, -2.1068874747e-02,  4.3091177940e-02, -4.2881648988e-02,  3.3919975162e-02, -7.1876384318e-02,  6.1237204820e-02, -1.1037501693e-01, 
	 6.5806522965e-02, -2.2283453494e-02,  6.4740865491e-03,  4.4910918921e-02,  8.7838068604e-02, -2.5276035070e-02,  7.5090501923e-04, -2.8878537938e-02, -8.4530174732e-02, -6.6924467683e-02, 
	 9.4905383885e-02, -7.5260236859e-02, -4.1136331856e-02,  3.5100728273e-02,  2.7015741915e-02,  8.1782571971e-02,  8.2317210734e-02, -1.7167622223e-02,  1.9765181467e-02, -9.6334174275e-02, 
	-8.6290322244e-02, -1.0634392500e-01,  1.0003656149e-01, -8.2383878529e-02,  1.6472918913e-02, -4.2591549456e-02, -9.7162351012e-02,  9.7760342062e-02, -4.0185760707e-02, -1.5354339965e-02, 
	 4.2875017971e-02,  7.3498949409e-02,  5.4511673748e-02,  3.0985227786e-03, -9.0476423502e-02, -8.7317742407e-02, -2.4961309507e-02, -9.5474207774e-03,  1.0808370262e-01,  6.1464283615e-02, 
	-3.3687571995e-03, -7.6787181199e-02,  3.1132115982e-03,  1.0045341402e-01,  7.3234580457e-02,  1.8438793719e-02, -2.4000836536e-02, -5.5637322366e-02, -3.5921558738e-02, -6.5998911858e-02, 
	-1.3827775605e-02,  4.3043021113e-02, -1.5759598464e-02, -9.2753045261e-02,  1.7012085766e-02, -8.0358281732e-02, -5.3416430950e-02, -1.0606392473e-01,  7.7450565994e-02, -4.3939307332e-02, 
	 5.7540070266e-02, -9.5369577408e-02,  6.2596239150e-02,  4.3816167861e-02, -4.9870628864e-02, -5.3842525929e-02, -4.5197542757e-02, -9.4631396234e-02,  6.1958316714e-02,  1.0714081675e-01, 
	-2.9391154647e-02, -5.7290803641e-02, -2.2829316556e-02, -2.2218108177e-02, -1.7426317558e-02, -5.2033546381e-03,  9.9679015577e-02, -4.1496023536e-02,  1.5170695260e-02,  9.8808698356e-02, 
	-1.2665814720e-02,  6.3958682120e-02,  5.0636146218e-02, -5.8893810958e-02,  9.4174794853e-02,  7.1624452248e-03,  4.2183227837e-02, -7.3662638664e-02, -6.6180698574e-02,  2.7760596946e-02, 
	 1.2676091865e-03,  7.8475378454e-02,  4.3304905295e-02,  1.9654978067e-02, -1.0099194944e-01, -1.0283151269e-01,  4.2726866901e-02, -4.3474614620e-02,  5.2164588124e-02, -8.8723503053e-02, 
	-2.4906245992e-02, -3.6563318223e-02, -9.8404265940e-02,  6.7937225103e-02, -1.0139600188e-01,  9.7889460623e-02,  1.5072530136e-02, -1.0074701160e-01,  8.4039181471e-02, -4.9720056355e-02, 
	 6.8663194776e-02,  2.2869169712e-02, -6.8157136440e-02,  1.5318962745e-02, -8.3079718053e-02,  3.9863511920e-02, -9.2005580664e-02,  2.2727122530e-02, -6.6957183182e-02,  7.8317761421e-02, 
	 7.7650826424e-03, -6.2152862549e-02, -9.6486032009e-02, -4.9422405660e-02, -7.3944054544e-02,  7.4408181012e-02,  2.2625861689e-02,  8.8321126997e-02,  7.3319174349e-02, -5.0358376466e-03, 
	 1.0543654859e-01, -2.5758007541e-02,  6.1916604638e-02,  3.5185493529e-02, -1.0833197832e-01, -6.7136302590e-02,  7.4750147760e-02,  1.6295861453e-02, -9.6491416916e-03,  9.3425795436e-02, 
	 2.9710855335e-02,  2.5289779529e-02,  7.4938356876e-02,  9.0684220195e-02,  1.5790693462e-02, -1.2191663263e-03, -4.9147613347e-02,  8.9704059064e-02, -7.9534634948e-02,  1.1494862847e-03, 
	-9.2838503420e-02,  9.0673111379e-02, -5.6071765721e-04, -1.6588937491e-02, -1.1336989701e-01, -8.7185822427e-02, -1.1405872554e-01,  7.6594673097e-02, -2.7292881161e-02, -6.4438022673e-02, 
	-1.1971044354e-02,  3.2145861536e-02, -1.9135098904e-02,  1.8244123086e-02,  6.3127391040e-02,  7.5035966933e-02,  2.8420859948e-02, -1.6100587323e-02,  8.8629879057e-02, -6.4299955964e-02, 
	-2.4076099508e-03, -3.3255867660e-02,  7.9680457711e-03, -3.3924534917e-02,  1.3867090456e-02,  1.8299986841e-03, -7.4709556997e-02, -7.6587729156e-02,  8.8722966611e-02, -8.8193863630e-02, 
	 2.0013609901e-02, -5.4171424359e-02,  2.6260151062e-03, -5.5649425834e-02,  5.8408372104e-02, -1.1259127408e-01, -1.8534118310e-02, -9.1452188790e-02, -1.0287187994e-01,  5.8473940939e-02, 
	 3.1230501831e-02, -3.7825603038e-02, -1.6418929445e-03, -8.7074771523e-02, -2.7752194554e-02, -1.7322931439e-02,  6.0513368808e-03, -8.2119539380e-02,  6.5753914416e-02, -7.7815525234e-02, 
	 6.7849494517e-02, -4.2110655457e-02,  2.1279083565e-02,  7.7262215316e-02,  1.7646795139e-02, -9.9487513304e-02, -5.6492790580e-02,  4.2175192386e-02, -2.9383790679e-03,  3.1240301207e-02, 
	-6.2448561192e-02, -4.8838965595e-02,  1.2099675834e-02, -7.8519552946e-02,  4.6619218774e-03, -4.8196803778e-02, -9.1305673122e-02,  4.5596692711e-02, -9.4317153096e-02, -9.1343998909e-02, 
	 1.8409540877e-02, -8.7188169360e-02,  8.3375945687e-02,  2.3408581037e-03,  5.9831701219e-02,  6.8630717695e-02, -5.5440723896e-02, -7.9785197973e-02,  1.7695864663e-02, -5.9930058196e-03, 
	 8.5641488433e-02,  6.1755258590e-02,  7.9415939748e-02, -2.7550157160e-02,  3.8423534483e-02, -3.9665859193e-02, -5.0586126745e-03, -6.3611812890e-02,  1.5583040193e-02, -7.5492419302e-02, 
	-1.2814977206e-02,  3.9401572198e-02,  4.2114879936e-02,  8.2233197987e-02,  9.2943996191e-02, -7.1641318500e-02, -8.3516962826e-02, -1.1861086637e-01,  8.3000086248e-02,  9.1174520552e-02, 
	-1.0014764220e-01, -1.0574157536e-01, -6.5017111599e-02,  1.0626897216e-02, -3.7433344871e-02,  2.0992426202e-02, -3.6942537874e-02, -1.1213794351e-01, -1.0749382526e-01, -5.6677263230e-02, 
	 7.9852126539e-02,  7.9841628671e-02,  4.9849160016e-02,  3.3126072958e-03,  5.7280633599e-02, -7.5840493664e-03, -2.4261036888e-02, -9.1350108385e-02, -7.2876013815e-02, -4.9808574840e-03, 
	 4.3242643587e-03, -5.0698302686e-02,  7.6723545790e-02,  7.9381003976e-02,  3.9848137647e-02, -8.7433792651e-02, -7.5511783361e-02, -2.5274401531e-02, -1.0509363562e-01,  2.7188794687e-02, 
	-1.1074083298e-01,  5.3472302854e-02, -7.2062291205e-02, -2.7592208236e-02, -9.7772561014e-02, -9.8566643894e-02, -2.2279933095e-02, -4.0672462434e-02,  8.6520366371e-02, -1.5737406909e-02, 
	-1.0543054342e-01, -1.0552619584e-02,  4.0548313409e-02,  3.6563776433e-02,  8.6261309683e-02, -5.3279504180e-02,  9.2966578901e-02, -7.2973459959e-02, -4.9696639180e-03, -1.1716930568e-01, 
	-3.3985715359e-02, -3.3177617937e-02,  9.0660601854e-02,  8.9148491621e-02, -5.7930584997e-02,  7.6909780502e-02,  8.6819939315e-02, -9.2418953776e-02, -8.1845939159e-02, -2.7787867934e-02, 
	-3.1800795346e-02,  1.9846996292e-02,  3.5830084234e-02,  1.8485538021e-04, -7.4880398810e-02,  5.5669820867e-03,  6.4888916910e-02, -6.6124938428e-02, -2.9724191874e-02,  1.4960118569e-02, 
	-7.0501253009e-02, -8.6123719811e-02,  9.8649912979e-04,  7.9845078290e-02,  3.7219502032e-02, -4.7463184455e-04,  9.3818150461e-02,  4.3722208589e-02, -3.1960975379e-02,  6.6835537553e-02, 
	 3.3456847072e-02, -1.9937265664e-02, -9.5624523237e-03, -1.9972102717e-02, -1.1401949078e-01,  2.6180990972e-03,  2.3430090398e-02, -1.3883343898e-02,  9.4647295773e-02,  3.8347426802e-02, 
	 2.8533063829e-02, -1.0017557442e-01,  7.6975338161e-02,  2.3475244641e-02, -2.3026019335e-02,  6.9958835840e-02, -1.0096039623e-01,  7.9706214368e-02,  9.6367195249e-02, -2.8955236077e-02, 
	 5.4469644092e-03, -7.5900167227e-02, -9.4940692186e-02,  6.3055947423e-02,  2.2321602330e-02, -1.3393864967e-02,  7.1116216481e-02, -1.0846416652e-01, -1.0029068589e-01,  2.7000067756e-02, 
	 5.3918637335e-02,  4.6537108719e-02, -4.3719515204e-02,  1.6685683280e-02, -3.4028958529e-02, -5.9415396303e-02, -4.5685064048e-02,  5.0540901721e-02, -4.8799589276e-03, -8.9031659067e-02, 
	-5.9108942747e-02,  1.4178113081e-02,  8.8708855212e-02, -7.2180368006e-03, -2.1018814296e-02, -1.0296208411e-01,  9.6748299897e-02, -1.0583832115e-01,  8.3289273083e-02, -9.2989444733e-02, 
	-3.8844671100e-02, -4.9289178103e-02, -9.3748293817e-02, -7.5207218528e-02,  4.8785891384e-02, -3.8943175226e-02, -4.8762410879e-03,  1.7020367086e-02,  3.2059192657e-02, -4.9681536853e-02, 
	 1.0295898654e-02,  8.3849363029e-02, -8.4667354822e-02,  1.1239705235e-01, -1.7633952200e-02, -3.8254436105e-02,  4.7962922603e-02,  3.7230723538e-03, -1.1098723859e-02,  6.3820771873e-02, 
	 1.0207464546e-01,  1.4752904885e-02, -2.3965281434e-03,  2.3590669036e-02, -1.3110318221e-02, -5.3906045854e-02, -5.3217820823e-02, -5.4188170470e-03, -1.0468684882e-01,  9.3115054071e-02, 
	-3.5663300660e-03,  4.7738634050e-02, -9.7265370190e-02,  4.8139296472e-02, -9.3963451684e-02,  1.9695464522e-02,  7.3405824602e-02,  2.7156244963e-02, -8.2329548895e-02, -3.6175064743e-02, 
	 2.9888914898e-02,  7.8887037933e-02, -1.0263779014e-01,  8.5194110870e-02,  7.4488326907e-02, -3.2756928355e-02, -6.0234896839e-02,  8.8410507888e-03, -3.9339516312e-02,  4.0089003742e-02, 
	-1.0550103337e-01, -7.5776085258e-02, -1.3621135149e-03, -6.3027031720e-02,  3.9089202881e-02, -3.6216195673e-02, -3.7461355329e-02,  8.9344859123e-02, -5.3559552878e-02, -9.5381192863e-02, 
	 8.5864312947e-02,  6.0537006706e-02, -6.9730356336e-02,  3.6809436977e-02, -3.6060374230e-02,  2.6606900617e-02,  7.6302550733e-02,  2.2613966838e-02,  8.3416797221e-02, -1.7267854884e-02, 
	 1.8889242783e-02, -3.9790544659e-02, -3.5457603633e-02, -7.9490713775e-02, -8.1395477057e-02, -3.3538576216e-02, -3.7202350795e-02, -9.1395154595e-02,  7.8260257840e-02,  7.0362001657e-02, 
	 5.1827780902e-02,  2.9166778550e-02, -1.8290078267e-02, -4.5227438211e-02, -7.1791842580e-02,  4.9407865852e-02,  1.0506760329e-01,  1.9771583378e-02,  4.7073256224e-02, -2.3806620389e-02, 
	-6.7810257897e-03, -5.1357507706e-02, -3.2247174531e-02,  5.4667718709e-02, -3.9295274764e-02, -2.3010449484e-02,  6.9639004767e-02, -3.8440503180e-02, -5.7925265282e-02,  9.4752714038e-02, 
	 6.9414295256e-02,  4.9633651972e-02,  2.4667568505e-02,  3.9527304471e-02, -1.0666692629e-02, -3.1106933951e-02, -9.2663742602e-02,  3.8653120399e-02, -6.4315334894e-03, -1.0332443565e-01, 
	-8.0936126411e-02, -6.2601968646e-02, -6.9529384375e-02,  1.0439400375e-01, -2.6690704748e-02,  6.6840305924e-02,  4.2161315680e-02,  5.6230302900e-02, -5.9601798654e-02,  1.0788306594e-01, 
	 4.0989127010e-02,  5.3648356348e-02, -9.3620546162e-02, -3.0674112495e-03, -6.2847681344e-02, -5.6732263416e-02, -7.9397045076e-02,  2.0134449005e-02, -5.1535598934e-02,  5.5363841355e-02, 
	 4.2936973274e-02,  1.6717825085e-02, -7.3086515069e-02,  8.1366002560e-02, -1.0377056152e-01,  2.1892976016e-02,  5.1377922297e-02, -3.0024545267e-02,  3.4201730043e-02, -7.7650740743e-02, 
	 4.8732377589e-02, -4.5021738857e-02,  3.2991591841e-02,  7.8280128539e-02,  3.9058785886e-02,  8.9898608625e-02, -2.5493009016e-03, -2.7251048014e-02, -8.7144695222e-02,  3.5133488476e-02, 
	-4.2234133929e-02, -2.4977672845e-02,  4.7663383186e-02, -1.0175464302e-01, -5.3620684892e-02, -3.8879118860e-02,  5.5467754602e-02,  7.7789492905e-02,  4.3587785214e-02, -7.1247480810e-02, 
	 2.4050030857e-02,  9.7392722964e-02, -5.3845282644e-02,  9.9713936448e-02,  7.6397061348e-02, -7.7876716852e-02, -3.8551449776e-02, -1.0336572677e-01,  7.7136955224e-03,  7.3123201728e-02, 
	 6.4569070935e-02, -7.0483267307e-02, -5.8193262666e-02,  5.8237094432e-02, -9.7289904952e-02,  2.3836104199e-02, -7.9010084271e-02, -5.3940359503e-02,  2.8840748593e-02, -1.8625784665e-02, 
	-2.3142276332e-02,  7.0931762457e-02, -9.1331303120e-03,  4.2204637080e-02, -1.0026534088e-02,  4.3014045805e-02, -1.0045418143e-01,  8.8332980871e-02, -4.6537965536e-02,  1.0441122204e-01, 
	-8.2327842712e-02, -1.8844636157e-02, -7.4243381619e-02, -5.8696180582e-02,  2.9473609757e-03, -6.8628527224e-03, -2.5261675939e-02,  3.5807535052e-02, -2.8043493629e-02, -2.5861524045e-02, 
	-1.0183656216e-01,  1.3667098247e-02, -2.7431219816e-02, -1.0212156922e-01, -2.5239955634e-02, -5.1860354841e-02, -5.9961833060e-02, -7.3635123670e-02,  1.3687325642e-02, -5.6435536593e-02, 
	-1.3161698007e-04, -2.2911602631e-02, -2.3682888597e-02,  6.5272390842e-02, -3.9183698595e-02,  8.1884057727e-04, -5.1867812872e-02, -1.4532096684e-02, -1.0256189853e-01,  5.4563906044e-02, 
	-6.2164004892e-02, -9.4133161008e-02,  8.2296632230e-02, -5.0441056490e-02,  3.3553529531e-02, -2.3726033978e-03,  6.3376136124e-02, -2.5272089988e-02, -6.7322202027e-02, -8.1930235028e-02, 
	-9.9128494039e-03, -4.7846604139e-02,  9.1016516089e-03, -2.6417009532e-02,  2.3862838745e-02,  4.5450139791e-02,  1.7342636362e-02,  4.4925011694e-02,  5.6421913207e-02, -9.2423325405e-03, 
	-1.0489561409e-01, -1.0106847435e-01,  5.9567786753e-02, -5.4038736969e-02, -8.2709491253e-02,  8.2900322974e-02, -2.3732548580e-02, -5.5597692728e-02, -5.7390030473e-02, -2.8373632580e-02, 
	 3.7501797080e-02,  3.9818505757e-03,  9.9758483469e-02,  7.9226680100e-02, -4.4825416058e-02,  8.1134855747e-02,  5.8113850653e-02, -1.0576558858e-01,  6.3049651682e-02, -1.4819975011e-02, 
	-4.7743577510e-02, -8.3786942065e-02, -8.3440899849e-02,  6.3282437623e-02,  2.6659365743e-02,  5.7106968015e-02, -7.5663551688e-02, -2.8871675953e-02,  5.7741969824e-02,  3.1770788133e-02, 
	-8.3055056632e-02,  6.0542505234e-02,  4.0953081101e-02,  7.3927842081e-02,  8.3561263978e-02,  3.5940714180e-02, -1.0320184520e-03,  4.8918273300e-02,  6.9236077368e-02, -9.8660178483e-02, 
	 9.2795699835e-02,  8.4333389997e-02,  7.9982683063e-02, -7.2496116161e-02, -9.6648804843e-02,  4.7696981579e-02, -4.5626379550e-02, -7.1710929275e-02, -3.8405183703e-02,  9.3751482666e-02, 
	-1.0576357692e-01,  1.8851112109e-03, -5.8320101351e-02, -6.5625160933e-03,  3.3966027200e-02,  5.4302327335e-02,  6.5813921392e-02, -2.9949508607e-02, -4.6140621998e-04, -2.4058038369e-02, 
	-9.8672330379e-02, -6.4252026379e-02, -2.5813831016e-02, -7.2372660041e-02,  9.4991751015e-02, -2.7914887294e-02,  7.9841688275e-02,  9.7292445600e-02,  5.9483315796e-02,  1.5521498397e-02, 
	 1.0183157027e-01, -7.0007489994e-03, -7.6039791107e-02, -3.5036053509e-02,  8.9184850454e-02, -3.4037575126e-02, -5.3236380219e-02, -2.8841316700e-02, -4.3612468988e-02, -1.0366212577e-01, 
	-2.9476208147e-03,  8.9680187404e-02, -6.3981041312e-02, -6.2624856830e-02, -9.2388883233e-02,  1.1695225723e-02, -6.7881599069e-02,  1.1056128144e-01,  1.9068386406e-02, -3.8022070657e-04, 
	 6.6162101924e-02,  9.9528700113e-02, -7.0208176970e-02,  2.6256399229e-02, -9.5141269267e-02,  8.0393023789e-02,  6.3346810639e-02, -6.0736604035e-02,  2.2119132802e-02, -6.6013522446e-02, 
	 5.4933425039e-02,  9.9200032651e-02, -5.5928412825e-02,  3.7774037570e-02,  7.0459723473e-02, -4.9666296691e-02, -9.7707062960e-03, -9.1900914907e-02,  7.8876450658e-02, -2.5904143229e-02, 
	 1.0695974529e-01, -2.1903505549e-02, -9.9290229380e-02, -4.0041647851e-02,  1.3387169689e-02, -6.2093812972e-02, -1.0623520613e-01,  2.2119081113e-03,  7.5890116394e-02, -4.0757115930e-02, 
	-8.6082272232e-02,  7.8223934397e-03,  3.6135777831e-02, -7.0192292333e-02,  6.6830858588e-02, -3.4868288785e-02,  7.5800366700e-02, -6.9950623438e-03, -4.1480343789e-02, -5.4208073765e-02, 
	-1.2960313819e-02,  6.2992073596e-02, -2.5779945776e-02,  1.4109532349e-02,  4.1022925870e-04,  2.1248172969e-02, -9.1945201159e-02,  4.1978739202e-02, -1.1319201440e-01,  4.9538753927e-02, 
	-6.2066582032e-03,  9.2771641910e-02,  4.0069144219e-02, -3.9416453801e-03,  5.8954168111e-02,  5.7232897729e-02,  9.7341835499e-02, -6.6945403814e-02,  6.4707495272e-02, -3.7313442677e-02, 
	 4.4005077332e-02,  6.7308016121e-02,  9.3231104314e-02, -4.2493999004e-02, -7.3335831985e-04,  5.3331404924e-02,  5.1801580936e-02, -3.0522795394e-02,  3.2323900610e-02, -5.6164551526e-02, 
	-8.2964740694e-02, -4.0155858733e-03,  5.7904116809e-02, -8.5127420723e-02, -1.0089813173e-01, -8.7020121515e-02, -4.2248290032e-02, -6.3292443752e-02, -9.2721655965e-02,  4.2725361884e-02, 
	-6.8542063236e-02,  3.9969027042e-02,  4.0643062443e-02, -3.8951508701e-02, -9.3152731657e-02,  2.4216275662e-02,  5.5463731289e-02,  8.0916501582e-02,  3.8456209004e-02,  9.0794548392e-02, 
	-4.0591999888e-02,  9.7715087235e-02, -1.7773348838e-02, -3.3350255340e-02, -9.7977675498e-02, -9.4311766326e-02,  1.2299020775e-02,  3.5003732890e-02, -6.9110184908e-02, -2.3584309965e-03, 
	 2.8371755034e-02, -7.9599432647e-02, -8.8927887380e-02,  7.3415793478e-02,  3.3042598516e-02,  1.0544379801e-01, -9.3526773155e-02, -4.7609950416e-03,  4.9414135516e-02, -9.3776546419e-03, 
	-1.0277354717e-01, -6.9256506860e-02,  6.9940105081e-02, -7.6573215425e-02,  1.0027463734e-01, -8.2914583385e-02, -9.5904000103e-02, -8.9353509247e-02, -9.8835334182e-02, -2.1915124729e-02, 
	 5.3178757429e-02, -7.1351923048e-02, -3.5857730545e-03, -8.5004448891e-02, -8.1847183406e-02,  5.4936192930e-02,  1.6100158915e-02,  5.2265215665e-02, -2.2236185614e-03,  5.2920550108e-02, 
	-4.5298915356e-02, -6.2678367831e-03,  8.3714619279e-02, -6.7420497537e-02,  2.7524223551e-02, -1.1404553801e-01, -1.9550824538e-02, -1.0353877395e-01,  7.3610976338e-02,  2.3219987750e-02, 
	-3.4567028284e-02, -6.5482831560e-03,  6.3335493207e-02, -9.2137694359e-02, -4.4568382204e-02,  6.4626976848e-02,  2.6701418683e-02, -3.5125825554e-02, -1.2088432908e-01,  5.5274114013e-02, 
	 8.3991177380e-02,  4.8720061779e-02, -2.2354908288e-02, -9.6843041480e-02,  9.4993449748e-02, -1.0009927303e-01,  1.1185565963e-02, -4.1643541306e-02, -3.2816508319e-03, -5.8746904135e-02, 
	-7.8058890998e-02,  1.0900078341e-03, -2.1639963612e-02,  9.8878286779e-02,  9.3438282609e-02,  5.0577562302e-02, -3.8828037679e-02,  6.7036129534e-02, -2.6977678761e-02,  9.0363420546e-02, 
	-1.0380378366e-01,  9.1706775129e-02, -9.4649076462e-02, -4.3292913586e-02,  9.3903681263e-03,  1.9368059933e-02,  1.6981063411e-02, -3.2526403666e-02, -6.9593757391e-02, -1.0899613611e-02, 
	 2.0273977891e-02, -9.0038955212e-02, -4.1958522052e-02,  1.3714560308e-02,  5.8732658625e-02, -7.8105106950e-02, -1.1479913257e-02, -7.1571461856e-02, -5.7947117835e-02, -1.1071034521e-01, 
	 7.4859656394e-02, -6.6751398146e-02, -8.0556005239e-02, -7.1814216673e-02, -4.1664145887e-02, -6.0389913619e-02,  4.5998066664e-02, -3.8155101240e-02, -6.5789923072e-02,  1.1379700154e-02, 
	-7.0323489606e-02,  3.4911926836e-02,  5.3003929555e-02, -2.4567928165e-02, -9.7585581243e-02, -3.3805437386e-02,  4.4301554561e-02, -8.3249472082e-02,  1.5058966354e-02, -9.7845993936e-02, 
	 6.1330389231e-02, -1.0786861926e-01,  4.5435968786e-02, -8.8096469641e-02,  9.3728139997e-02,  1.0666609742e-02, -5.9039529413e-02, -6.9136165082e-02, -4.3668754399e-02,  4.4220801443e-02, 
	 7.8914381564e-02, -1.0143747553e-02, -4.9504723400e-02, -7.3563806713e-02,  6.1464831233e-02,  9.4631619751e-02,  2.5302760303e-02, -4.5067373663e-02,  5.0702128559e-02, -8.7450429797e-02, 
	 1.7620049417e-02,  4.2584002018e-02,  8.6440198123e-02, -5.7647980750e-02,  8.7967135012e-02,  5.2341964096e-02,  1.9901128486e-02,  3.0849857256e-02,  8.6337000132e-02,  1.9008550793e-02, 
	-1.5068995766e-02,  7.7083542943e-02,  9.4058230752e-04,  4.9672100693e-02, -6.1962798238e-02,  4.9023753963e-03,  6.9644123316e-02,  6.9623552263e-02, -6.1595894396e-02, -7.8406013548e-02, 
	-6.8451397121e-02, -6.8270348012e-02, -2.0436352119e-02,  9.3513540924e-02,  1.9550036639e-02, -7.8625380993e-02,  6.4604178071e-02, -1.7110537738e-02, -2.5852310937e-03, -7.5197719038e-02, 
	-1.8527517095e-03, -4.3838281184e-02,  7.4931479990e-02,  6.5967187285e-02, -1.6482789069e-02, -1.0405007750e-01, -4.9581609666e-02,  6.4111696556e-03,  8.7771870196e-02, -2.9651431367e-02, 
	 4.1224230081e-03, -3.7572965026e-02, -6.0578636825e-02, -6.0996614397e-02, -8.9633129537e-02, -1.7305906862e-02, -1.9385939464e-02,  3.0668296386e-03, -2.0804347470e-02,  3.8569089025e-02, 
	-4.9128022045e-02, -7.2529710829e-02,  6.8161435425e-02,  3.4425962716e-02, -3.8069799542e-02, -8.6876407266e-02, -5.1430199295e-02, -3.8715269417e-02,  6.6998131573e-02,  8.8658489287e-02, 
	 4.3075308204e-02,  6.5355221741e-03, -1.0434217006e-01,  7.1894004941e-02, -4.7110840678e-02,  1.1549717747e-02,  5.0141062587e-02,  6.6795192659e-02,  4.1004106402e-02,  6.0873702168e-02, 
	-5.3892612457e-02,  5.0353653729e-02,  1.1244110763e-02,  6.2853291631e-02, -1.6721410677e-02,  5.8633342385e-02, -8.5958018899e-02,  3.8322065026e-02,  5.6995362043e-02,  6.6336594522e-02, 
	-8.3248823881e-02,  6.3686990179e-03, -3.8646310568e-02,  8.0353170633e-02, -1.6787104309e-02,  8.7935671210e-02, -1.7063219100e-02,  5.4789721966e-02, -9.3953453004e-02, -1.7284929752e-02, 
	 1.5741051175e-03,  1.0257881880e-01, -7.3221817613e-02,  4.8563826829e-02,  7.4974745512e-02,  1.5088770539e-02,  1.8115449697e-02,  1.2276528869e-03,  1.7046211287e-02,  1.0231907479e-02, 
	 1.1869805865e-02,  1.0650859773e-01, -2.0418137312e-02, -7.5832828879e-02, -7.1257166564e-02, -5.1581405103e-02, -1.0397500545e-01, -4.8749499023e-02,  6.2595628202e-02, -1.4725371264e-02, 
	-2.0194314420e-02,  9.6018776298e-02,  8.7500482798e-02,  2.1726259962e-02, -9.8528407514e-02, -1.7911287025e-02,  4.8629444093e-02,  4.3009924702e-03, -1.3990286738e-02, -6.6882126033e-02, 
	-2.1567326039e-02,  2.2767150775e-02, -4.6775907278e-02, -2.3608859628e-02, -6.3735447824e-02,  1.0080506653e-01,  6.8591125309e-02, -4.8910309561e-03, -1.7140548676e-02,  5.8859460056e-02, 
	-9.7304217517e-02,  7.5667135417e-02,  9.5931850374e-02,  2.9440021142e-02, -4.7875188291e-02,  6.5952348523e-03, -9.3492396176e-02,  1.1464515701e-02,  7.4117474258e-02, -6.5096779726e-03, 
	 8.4441594779e-02,  4.6477206051e-02,  5.7317454368e-02,  5.9205841273e-02, -8.2977913320e-02, -1.0367133468e-01,  2.4191023782e-02, -1.0492622852e-01, -6.9143064320e-02, -9.5659852028e-02, 
	-4.7225050628e-02,  6.5911918879e-02,  3.3311985433e-02, -2.9072245583e-02,  3.6004144698e-02,  2.0257567521e-03,  9.6684411168e-02, -8.7701626122e-02,  7.6953265816e-03, -2.8993794695e-02, 
	-5.1664222032e-02, -1.0864154436e-02,  6.3519671559e-02, -1.0848661512e-01, -2.0652234554e-02, -2.1319942549e-02, -9.9783882499e-02, -2.9415573925e-02,  4.5976683497e-02,  6.3507452607e-02, 
	 2.1149689332e-02, -4.7490358353e-02,  8.7441332638e-02,  1.0649532080e-02, -4.9077097327e-02,  6.7255355418e-02, -3.9241295308e-03, -8.2940645516e-02, -7.9821117222e-02,  9.0249426663e-02, 
	 9.3591600657e-02,  4.2423442006e-02, -2.6490414515e-02, -9.9132135510e-03, -5.6879632175e-02, -5.3160089999e-02,  5.0672363490e-02,  7.0868752897e-02,  4.3073311448e-02,  4.7877110541e-02, 
	-1.0545445234e-01, -7.9652048647e-02, -4.8921063542e-02,  1.4383316739e-03,  2.2740641609e-02, -5.6524414569e-02,  1.5624181367e-02, -9.9768586457e-02, -1.0263107717e-01, -7.6508983970e-02, 
	 1.9401438534e-02,  3.0340217054e-02, -2.2882649675e-02,  5.6279901415e-02, -1.0854978859e-01,  7.7711373568e-02,  5.0737634301e-02,  8.9890472591e-02, -4.4295486063e-02,  8.1929817796e-02, 
	-8.8917464018e-02,  9.4340637326e-02,  9.2911608517e-02, -6.8317174911e-02,  1.1068280786e-01,  6.2519364059e-02,  6.9590926170e-02,  6.8899638951e-02,  9.6995182335e-02,  8.0930866301e-02, 
	 8.8515812531e-03, -3.5380296409e-02,  3.3993456513e-02,  1.4830483124e-02, -5.2090458572e-02,  6.1541773379e-02, -1.1333142221e-01, -4.1956637055e-02, -1.4010821469e-02, -8.6179696023e-02, 
	 4.6594005078e-02, -9.9990479648e-02,  7.7203921974e-02, -2.5980520993e-02, -8.4891125560e-02, -4.2409114540e-02,  1.8820884870e-03, -2.0589111373e-02, -4.3195154518e-02, -8.3019249141e-02, 
	-3.3981028944e-02, -4.7377587180e-04,  1.3216244988e-02,  1.0220497102e-01, -9.1802794486e-03, -5.5448852479e-02,  6.7943491042e-02,  1.5433927067e-02, -8.2386523485e-02, -3.5448316485e-02, 
	-5.4700613022e-02, -9.1847956181e-02,  5.3786974400e-02, -4.0496584028e-02,  1.0429436341e-02,  2.5334630162e-02, -5.2695274353e-02, -2.0870368928e-02, -2.8845477849e-02,  2.1391462535e-02, 
	-9.1005548835e-02, -8.0126427114e-02,  5.9313490987e-02,  4.1220106184e-02,  3.1577486545e-02,  3.5767376423e-02, -1.5771454200e-02, -1.1363463104e-01,  5.0396118313e-02,  3.4928917885e-02, 
	-1.8146939576e-02, -2.3049099371e-02, -3.8076065481e-02,  2.6863329113e-02,  9.0225733817e-02, -3.2109327614e-02,  8.5767388344e-02, -9.3858458102e-02,  8.6547614774e-04, -6.0332451016e-02, 
	 5.4579835385e-02,  6.3220731914e-02,  8.8172666728e-02, -2.7669204399e-02,  9.1894440353e-02, -2.5212639943e-02, -3.4798912704e-02,  4.3085947633e-02,  2.7580115944e-02, -1.0981900245e-01, 
	 1.3993261382e-02,  2.2249670699e-02,  6.9276265800e-02,  4.3251663446e-02, -3.9700858295e-02,  2.2286282852e-02, -7.6694048941e-02, -5.8697771281e-02,  3.4405051265e-03,  6.3678495586e-02, 
	 5.3118128330e-02,  4.7471571714e-02,  7.3937401175e-02,  8.0867633224e-02, -1.1165816337e-02, -8.2701146603e-02,  8.7174355984e-02,  5.4432764649e-02,  2.0364046097e-02,  1.0018407553e-01, 
	-7.5802542269e-02,  9.2387653887e-02, -1.0644394904e-01,  5.8281570673e-03, -2.0064383745e-02,  4.5050706714e-02, -2.8547547758e-02, -8.3569318056e-02,  8.4240749478e-02, -5.6483484805e-02, 
	 3.9334096014e-02, -7.8721545637e-02,  7.6174223796e-03, -5.4273869842e-02, -1.5650441870e-02,  6.3523687422e-02,  7.4523232877e-02, -4.3317329139e-02,  4.2096149176e-02,  5.8884464204e-02, 
	-2.7687238529e-02,  7.4480332434e-02, -7.1880273521e-02,  3.3726416528e-02, -6.6661141813e-02, -3.6132656038e-02,  5.0820801407e-02, -1.1391621083e-01, -4.6693067998e-02, -9.5919296145e-02, 
	-1.0172635317e-01, -2.8922680765e-02,  6.6378623247e-02, -1.0965509340e-02,  7.9729482532e-02,  5.7629693300e-02, -8.5177011788e-02,  6.5387971699e-02, -5.5672754534e-03,  1.0410588235e-01, 
	-3.6663862411e-03, -5.3859360516e-02, -9.1484569013e-02, -5.4846453713e-04,  6.2228634953e-02,  3.1400933862e-02, -2.5762181729e-02,  1.8863327801e-02, -6.6341541708e-02,  4.0545620024e-02, 
	-6.0001701117e-02, -1.0572578758e-01, -7.7332131565e-02, -3.6092270166e-03, -5.7988159359e-02, -1.1037573218e-02,  1.0426104069e-01, -5.8119997382e-02, -9.2336371541e-02,  2.0946487784e-02, 
	-4.8850964755e-02,  4.2382860556e-03, -6.6208496690e-02,  8.8383324444e-02, -1.0526179522e-01, -1.2567541562e-02, -3.9552427828e-02, -2.4251755327e-02, -6.9488942623e-02,  7.0120997727e-02, 
	 7.2411759757e-03,  6.9256655872e-02, -4.2041178793e-02,  7.7044874430e-02,  1.7821811140e-02,  2.0630577579e-02,  4.3042197824e-02,  6.7228093743e-02,  4.2892340571e-02,  6.0519780964e-03, 
	 4.3651670218e-02,  5.9399276972e-02, -5.1156517118e-02,  5.4019890726e-02,  8.7367787957e-02,  1.7018062994e-02, -5.3436309099e-02, -1.0593353957e-01, -1.3731095009e-02,  7.6508156955e-02, 
	 9.6909314394e-02, -3.7516612560e-02, -9.9734820426e-02,  7.5694918633e-02, -9.7994692624e-03, -8.1411667168e-02,  7.1871407330e-02,  7.1092911065e-02,  1.8537022173e-02,  5.6183133274e-02, 
	 3.1953223050e-02, -1.0884562880e-01, -3.6315798759e-02,  1.3528716750e-02, -5.4150946438e-02,  1.6673620557e-03,  3.3823437989e-02, -1.6559541225e-02, -8.7156854570e-02, -9.5424540341e-02, 
	-7.4457161129e-02, -5.2286952734e-02,  4.7069024295e-02,  4.8271346837e-02, -8.7679401040e-02, -2.4325728416e-02,  1.9085280597e-02, -7.2385400534e-02,  3.4638307989e-02,  8.6304008961e-02, 
	 6.1117876321e-02, -5.2779637277e-02,  2.4203525856e-02, -7.4061706662e-02,  3.1464815140e-02,  3.8824647665e-02,  5.2933365107e-02, -6.3295587897e-02,  5.0178345293e-02,  2.4797759950e-02, 
	 4.0642507374e-02, -2.0103469491e-02, -5.7684101164e-02, -8.1241458654e-02,  1.2799414806e-02,  4.9002572894e-02, -1.0718002170e-01, -4.8505641520e-02,  1.2651547790e-02,  4.5458946377e-02, 
	-2.6626228355e-03,  3.5288669169e-02, -2.2631784901e-02,  8.6490303278e-02,  3.1028753147e-02,  4.0659070015e-02, -9.4111330807e-02, -9.7782157362e-02, -5.1092766225e-02,  7.1192316711e-02, 
	 4.4702384621e-02, -7.3686286807e-02,  9.6959255636e-02, -1.0410144925e-01, -4.6422593296e-02,  3.1699132174e-02,  2.3561138660e-02, -2.6912163943e-02, -9.2534869909e-02,  1.1691879481e-01, 
	 7.2907269001e-02,  5.5847793818e-02, -9.0708851814e-02,  1.7605708912e-02,  7.4758626521e-02,  7.0097088814e-02, -3.4551925957e-02, -1.1147511192e-02,  1.8629888073e-02, -5.6315220892e-02, 
	 1.5437351540e-02,  3.4782242030e-02, -7.4301205575e-02,  7.8286685050e-02, -9.7142741084e-02, -8.3090476692e-02,  6.3333071768e-02, -5.6659549475e-02, -5.0009466708e-02, -5.3231148049e-03, 
	 3.2727618236e-03, -4.3766338378e-02,  9.3730568886e-02, -6.5956160426e-02,  3.8797684014e-02, -6.0831096023e-02, -3.3027999103e-02, -1.0098243505e-01, -8.9392155409e-02, -1.6281990334e-02, 
	-1.5576971695e-02, -4.4956911355e-02,  2.7520406991e-02,  3.2348990440e-02,  5.9518169612e-02, -2.0197561011e-02,  7.7394908294e-03, -2.3973053321e-02, -7.0661157370e-03,  8.2029633224e-02, 
	-6.4059823751e-02,  2.0392671227e-02,  1.2280403636e-02,  2.3968022317e-02, -3.0057454482e-02, -1.0117453337e-01,  4.7489300370e-02,  8.8311480358e-03,  2.5581942871e-02,  3.0660813209e-03, 
	 1.2259444222e-02, -8.8144697249e-02, -4.7702655196e-02, -6.1209511012e-02, -5.4809462279e-02, -4.8854585737e-02, -2.2744612768e-02, -1.8733715639e-02, -3.3095811959e-03, -4.6565327793e-02, 
	 7.7706854790e-03,  6.0164697468e-02,  1.4081948437e-02, -1.5020173043e-02, -2.9957812279e-02, -3.7690475583e-02,  6.9460913539e-02,  5.1131002605e-02,  8.5724100471e-02,  3.3551122993e-02, 
	 2.0429346710e-02, -1.1528757401e-02,  1.5299505554e-02,  8.8596642017e-02, -3.9578244090e-02, -1.8497895449e-02,  7.9817287624e-02, -9.4882257283e-02, -1.9645983353e-02, -7.0201374590e-02, 
	-4.5949038118e-02, -6.9835245609e-02, -4.3572608382e-02, -9.4022303820e-02, -1.6350958496e-02,  7.2777822614e-02, -7.0438265800e-02, -2.1951661911e-03,  5.3714413196e-02,  4.1522942483e-02, 
	-1.3412450440e-02,  9.1963507235e-02,  7.4637152255e-02,  7.5728027150e-04, -7.9508870840e-02,  4.5978933573e-02, -1.1751855724e-02,  2.5667816401e-02, -5.9848114848e-02, -4.1463237256e-02, 
	-4.4952102005e-02, -9.1294117272e-02,  8.7941445410e-02, -2.8665693477e-02,  1.0101173073e-01, -9.3850046396e-02,  6.2854357064e-02, -9.4485707581e-02, -5.5821564049e-02,  9.5799170434e-02, 
	-8.1388920546e-02,  6.0764554888e-02, -3.9255831391e-02,  3.4461617470e-02,  1.0320955515e-01, -4.8055157065e-02,  2.0011501387e-02,  2.2964151576e-02, -8.3942748606e-02, -1.1261187494e-01, 
	-8.6881570518e-02, -8.4674775600e-02, -1.0492979735e-01,  1.4981361106e-02, -7.8819975257e-02,  3.2493263483e-02, -3.2218068838e-02, -6.9868214428e-02,  2.4488106370e-02, -4.7824390233e-02, 
	-7.5340747833e-02, -1.0077869147e-01, -3.7748452276e-02,  6.1301939189e-02, -5.4112553596e-02,  9.0212494135e-02,  7.1951441467e-02, -9.1666363180e-02,  4.9086689949e-02, -4.1952822357e-02, 
	-3.5124603659e-02,  1.7556017265e-02, -8.0657310784e-02, -4.3891802430e-02,  4.8737138510e-02, -6.5334245563e-02, -1.1400659382e-01, -2.3817550391e-02,  5.1858887076e-02, -3.2245494425e-02, 
	 5.6386005133e-02,  4.6522520483e-02, -7.3873490095e-02,  9.5428571105e-02, -8.7224446237e-02,  4.8752166331e-03, -9.0627752244e-02,  3.9885222912e-02,  4.0085345507e-02, -8.3600260317e-02, 
	-3.6711145192e-02, -7.9107157886e-02,  6.5872356296e-02, -6.6642105579e-02,  6.6233985126e-02,  5.9760797769e-02, -1.0221650451e-01,  5.7026386261e-02, -7.4767656624e-03,  8.6007833481e-02, 
	 4.4851556420e-02,  2.0489483140e-03,  1.8520887941e-02, -7.0304609835e-02, -5.7189591229e-02, -7.9298980534e-02,  7.3894560337e-02, -2.3975824937e-02, -4.7196056694e-02, -4.7957766801e-02, 
	 8.3282805979e-02, -3.4595545381e-02, -4.1451383382e-02,  8.2425840199e-02, -8.5948174819e-03, -7.3371320963e-02, -4.0157955140e-02,  4.5626919717e-02,  5.3805284202e-02,  2.7187436819e-02, 
	-5.1835373044e-02,  8.1197068095e-02, -9.6862256527e-02,  3.4229781479e-02, -4.0798190981e-02,  9.5593079925e-02,  4.2445596308e-02, -6.6679142416e-02,  1.1111956835e-01, -5.7081531733e-02, 
	 8.7575078011e-02, -6.4187988639e-02, -7.7300272882e-02, -4.4871892780e-02,  2.9457664117e-02,  9.5147237182e-02,  3.0594026670e-02, -3.1201057136e-02,  3.7235546857e-02,  1.4638240100e-04, 
	-1.7972631380e-02,  4.7672599554e-02, -5.0966467708e-02,  5.4588984698e-02,  2.1329665557e-02, -3.8913052529e-02, -7.9430490732e-02, -6.8912491202e-02, -3.2491911203e-02,  9.8997391760e-02, 
	 3.7798376288e-03, -7.8113891184e-02, -8.9542940259e-04, -2.9311548918e-02,  9.4672963023e-03, -2.1998507902e-02,  6.7080058157e-02, -6.3252516091e-02, -5.4705485702e-02, -6.1055228114e-02, 
	-8.4450781345e-02,  4.1660558432e-02, -5.5736925453e-02, -5.1404263824e-02, -8.6955554783e-02,  8.0462619662e-02, -5.0360787660e-02, -5.6331586093e-02, -1.5801900998e-02, -9.6003890038e-02, 
	-7.0937193930e-02, -2.7945902199e-02, -4.5217461884e-02, -7.7745258808e-02, -9.6689425409e-03, -5.1598221064e-02, -6.5432772040e-02, -8.5086353123e-02,  8.4198467433e-02, -9.9126115441e-02, 
	-2.6254594326e-02,  6.9847211242e-02, -3.8859650493e-02,  8.2865849137e-02,  7.7276974916e-02,  1.0634455085e-01,  8.8388361037e-02,  8.3670448512e-03, -6.4322419465e-02, -6.7344561219e-02, 
	 1.3725523837e-02, -1.0686081648e-01,  4.8482235521e-02, -6.9129006006e-03, -3.6314722151e-02, -7.6852567494e-02, -4.0958426893e-02, -5.7760223746e-02, -5.2493721247e-02,  1.6049960628e-02, 
	 6.6808611155e-02,  4.9824960530e-02,  2.0213132724e-02,  6.8205341697e-02,  4.4778950512e-02, -7.0891611278e-02,  8.0418042839e-02, -9.9507742561e-04, -4.9482848495e-02, -1.8295495538e-03, 
	 1.1127416790e-01,  2.7631623670e-02,  2.5037415326e-02, -9.3728087842e-02,  1.4683828689e-02, -2.8373602778e-02,  8.6446739733e-02,  2.2187499329e-02,  9.3132816255e-02, -2.7834442444e-03, 
	-8.8162355125e-02,  1.0237827897e-01,  6.8844288588e-02,  7.0690341294e-02,  8.8912747800e-02,  7.7618248761e-02, -5.8566100895e-02, -1.1844449677e-02, -2.8565187007e-02, -5.1037646830e-02, 
	-3.2679591328e-02,  9.5521211624e-02, -4.5071784407e-02,  5.4798744619e-02, -9.7390390933e-02, -4.9418866634e-02,  1.0367827117e-01, -8.5820361972e-02,  6.3902363181e-02,  1.0223639011e-01, 
	-9.8662503064e-02, -2.0067553967e-02,  6.0320369899e-02,  6.6519528627e-02,  3.3321116120e-02,  9.5075637102e-02, -5.0909329206e-02,  6.6421143711e-02,  3.7528317422e-02, -2.5503331795e-02, 
	-3.5483475775e-02, -5.9056710452e-02,  6.2937989831e-02, -3.9581142366e-02,  1.0534764826e-01,  5.8797869831e-02,  4.1077286005e-02, -5.2151277661e-02, -6.8710491061e-02,  5.1504680887e-03, 
	 9.2217825353e-02,  9.0870238841e-02, -5.4445367306e-02, -1.0328540951e-01, -8.2661524415e-02, -8.3491848782e-03,  4.0011502802e-02,  9.6610151231e-02, -5.7510994375e-02, -1.7419241369e-02, 
	 1.6425738111e-02, -5.4788645357e-03, -8.9740067720e-02,  1.8787141889e-02,  5.0034396350e-02,  4.1561972350e-02, -4.8762630671e-02,  3.6139372736e-02,  4.3397597969e-02,  3.2514270395e-02, 
	 8.4665089846e-02,  6.5416139551e-03, -5.1171649247e-02, -5.2089530975e-02, -7.4332572520e-02, -1.0169532895e-01,  5.7088103145e-02, -2.1586978808e-02, -6.6378660500e-02, -1.3688623905e-02, 
	-4.2123015970e-02,  4.9325946020e-04, -7.9929955304e-02, -4.5885901898e-02,  3.3352028579e-02, -9.4287768006e-03,  3.8764640689e-02,  1.9957402721e-02,  5.7262182236e-02, -9.9513158202e-02, 
	 6.1494279653e-02,  7.1110069752e-02,  5.3563531488e-02, -3.0008429661e-02, -4.4241018593e-02,  3.9536920376e-03,  3.8588032126e-02, -1.6156270867e-03,  3.1691320240e-02, -9.4657070935e-02, 
	 2.9657375067e-02,  4.3824646622e-02, -4.6139061451e-02, -6.5251678228e-02, -3.4268919379e-02,  3.9206359535e-02,  5.9070205316e-03,  4.3912693858e-02,  1.2193035334e-02,  2.8225174174e-02, 
	 7.3606558144e-02,  8.3572991192e-02,  6.7509852350e-02,  5.5092059076e-02,  2.2212410346e-02, -4.7335945070e-02, -1.2819061987e-02,  7.0365136489e-03, -1.8485236913e-02, -6.4084634185e-02, 
	 1.0471085086e-02,  5.8034859598e-02,  3.6066461354e-02,  8.1326939166e-02, -8.1856355071e-02,  3.2815034501e-03,  1.7730737105e-02,  3.5935278982e-02,  5.1225788891e-02,  8.0427102745e-02, 
	 6.7510031164e-02, -5.7944566943e-03, -4.5792862773e-02,  8.5502222180e-02,  4.0409192443e-03, -7.0714682341e-02,  1.0969665833e-02, -9.6785701811e-02, -9.9414981902e-02, -1.6158370301e-02, 
	-6.3327640295e-02, -4.7229260206e-02, -7.3440022767e-02, -2.6787173003e-02, -5.1546096802e-02,  3.8580894470e-02, -1.6506062821e-02,  6.2650233507e-02, -8.4954515100e-02, -9.1856662184e-03, 
	-9.1902591288e-02, -8.8993541896e-02, -8.1514321268e-02, -3.7182413042e-02, -5.3370751441e-02, -5.5254291743e-02,  9.6516601741e-02, -7.2757214308e-02,  7.6581634581e-02,  6.3462302089e-02, 
	 6.6410019994e-02, -4.8390947282e-02,  3.9686616510e-02,  5.6099295616e-02, -9.7765484825e-03,  2.1894559264e-02, -4.4454347342e-02,  8.3273880184e-02,  9.0160176158e-02,  9.4599016011e-02, 
	 3.8341477513e-02, -2.1756418049e-02, -2.5434980169e-02, -2.8847604990e-02,  9.0179622173e-02, -6.8485662341e-02,  7.3711790144e-02, -2.7156226337e-02, -9.4119355083e-02, -1.3270778582e-02, 
	-2.5604890659e-02,  4.8987921327e-03,  1.9840434194e-02, -7.2374314070e-02, -1.5045671724e-02,  9.0704821050e-02,  4.1729569435e-02, -2.0211115479e-02,  6.2215503305e-02,  1.2309051119e-02, 
	-4.2954996228e-02, -7.0279739797e-02, -1.0908478871e-02,  9.9219838157e-03, -1.1210797727e-01,  2.2986743599e-02,  8.0070957541e-02,  6.2195705250e-03,  3.0031215400e-02,  8.9203320444e-02, 
	-4.8611938953e-02,  1.0199948400e-01, -7.4750810862e-02,  1.1632980406e-01, -2.8622709215e-03, -8.5975602269e-02,  8.0763854086e-02,  4.7298394144e-02, -9.4770276919e-03, -9.0197031386e-04, 
	-7.2483494878e-02, -7.2792689316e-03,  8.7546959519e-02, -5.8489259332e-02,  7.1312017739e-02,  8.3264395595e-02,  1.2145539746e-02, -6.5885320306e-02, -5.1171455532e-02, -7.0479460061e-02, 
	 8.0874882638e-02, -8.3833321929e-02, -2.2925777361e-02,  7.5750395656e-02,  1.0648033768e-01,  5.3305268288e-02, -3.3897999674e-02,  2.1054890007e-02,  1.0624173284e-01, -6.6968165338e-02, 
	 3.1959526241e-02,  8.8983595371e-02,  1.0977673531e-01, -1.0272461921e-01,  1.6995966434e-02,  3.8765728474e-02, -3.3554371446e-02,  3.9971470833e-02, -6.6578730941e-02,  3.9283961058e-02, 
	-6.9016896188e-02, -2.3010008037e-02,  6.4728699625e-02, -1.0248022527e-01, -5.3851958364e-02, -2.7516907081e-02,  2.1311739460e-02,  2.3565909360e-03, -6.3663341105e-02, -6.5484166145e-02, 
	 7.3894374073e-03, -6.6439127550e-03,  9.2715714127e-03,  4.1460053762e-04, -5.7682041079e-02, -4.1824191809e-02, -8.3771273494e-02,  3.7348721176e-02,  8.8693141937e-02,  1.1754861102e-02, 
	 4.5746687800e-02,  9.7884781659e-02, -1.9468983635e-02, -3.5752929398e-04, -4.0096793324e-02,  5.7978508994e-04, -8.2285434008e-02, -3.5820253193e-02, -4.9761924893e-02,  7.4072562158e-02, 
	-1.0175268352e-01,  3.0374756083e-02,  2.1956929937e-02,  2.2963847965e-02, -9.5128387213e-02,  6.6769816913e-03, -3.4213334322e-02,  7.8766413033e-02,  2.6429791003e-02, -1.0026109964e-01, 
	-2.3616631515e-03, -1.0921926796e-01, -5.4811507463e-02,  9.1884862632e-03,  3.5640250891e-02,  7.6950468123e-02, -6.4467497170e-02,  7.9360470176e-02,  6.1255425215e-02, -5.9106298722e-03, 
	 7.1267113090e-02, -9.5509707928e-02, -1.2013932690e-02,  7.4576996267e-02,  3.9179030806e-02,  8.9941240847e-02, -4.5930523425e-02, -1.0580727458e-01, -1.0786794126e-01, -2.3770099506e-02, 
	-3.5716578364e-02, -9.6429586411e-02,  7.9342894256e-02,  2.9025010765e-02, -1.4470959082e-02,  4.5133080333e-02,  9.0648598969e-02, -7.7259535901e-03, -7.5422592461e-02,  8.3563342690e-02, 
	 8.0378673971e-02, -9.8522879183e-02, -7.6812170446e-02,  5.0096746534e-02, -9.5855109394e-02, -5.2011050284e-02, -7.6394662261e-02, -6.1187561601e-02, -3.8299188018e-02, -5.3077697754e-02, 
	 5.0338357687e-02,  4.1520234197e-02, -7.9160213470e-02, -4.7558620572e-02,  6.3561104238e-02, -5.6946001947e-02, -1.2086026371e-01, -4.7591780312e-03, -3.7808552384e-02,  3.2266445458e-02, 
	 8.9190937579e-02, -7.1452952921e-02, -4.3264571577e-02,  5.6028518826e-02, -7.9534828663e-02,  6.1319716275e-02, -9.6184223890e-02,  5.8235261589e-02, -4.2970508337e-02, -6.1602745205e-02, 
	 6.8031050265e-02, -4.6271155588e-03,  3.1934291124e-02,  6.2171805650e-02,  1.0130200535e-01,  5.2453294396e-02, -9.1289304197e-02, -1.2940709712e-04,  5.5524460971e-02,  8.5048750043e-02, 
	 7.1776695549e-02, -1.3259209692e-02,  6.8721803837e-03, -6.9301195443e-02,  6.5826743841e-02,  2.2147471085e-02, -5.7790517807e-02, -7.8406356275e-02, -4.7447763383e-02,  9.8713062704e-02, 
	-9.9187202752e-02, -1.0210902244e-01, -2.7393031633e-04, -4.5616220683e-02, -1.0303457826e-01, -5.9693273157e-02,  8.8321920484e-03,  1.8358094618e-02, -6.6582642496e-02,  2.8337897733e-02, 
	-1.7817571759e-02,  5.8147773147e-02, -4.7853089869e-02, -8.7875939906e-02, -1.0865260661e-01, -9.9179565907e-02,  9.3280866742e-02, -6.3525252044e-02, -2.2952316329e-02,  9.3288250268e-02, 
	-4.7457899898e-02, -8.4431350231e-02,  2.6392461732e-02,  9.3634791672e-02, -8.9755587280e-02, -1.9083432853e-02,  6.2164049596e-03,  5.6835278869e-02,  9.0341698378e-03, -8.2216821611e-02, 
	 4.2383195832e-03,  7.7518471517e-04,  8.2590378821e-02, -6.2600597739e-02, -3.8673166186e-02,  7.8455477953e-02, -1.1085837614e-03, -9.2871569097e-02, -1.5329713002e-02,  8.1647574902e-02, 
	 1.5291868709e-02, -3.3928744495e-02,  8.8268004358e-02, -1.1312672496e-01, -2.8431808576e-02,  4.0800854564e-02,  9.4877190888e-02, -4.6643294394e-02, -8.8815763593e-02,  7.7426441014e-02, 
	 6.6512584686e-02, -3.7541247904e-02, -9.1059722006e-02, -2.8958555311e-02, -1.0232315958e-01,  9.6630655229e-02,  7.3458813131e-02, -9.8064064980e-02, -8.3808690310e-02, -4.2792171240e-02, 
	 9.0492866933e-02, -1.0504916310e-01, -4.3187513947e-02, -5.4219175130e-02,  1.9196601585e-02, -8.2993820310e-02,  6.0499276966e-02,  1.5296176076e-02, -1.3157751411e-02,  5.4124943912e-02, 
	-2.2775901482e-02, -4.5563213527e-02, -2.8818317223e-03, -1.8828423694e-02, -1.1073840410e-01,  6.9569773972e-02, -7.2814978659e-02,  9.9399171770e-02,  7.4024431407e-02, -4.8951059580e-02, 
	 6.7895062268e-02, -3.6449768231e-04,  1.0976671241e-02,  7.6984010637e-02, -4.7724615782e-02, -9.8666332662e-02, -9.6420407295e-02, -6.1715412885e-02,  1.8866926432e-02,  7.3836773634e-02, 
	-4.1734930128e-02,  2.2092428058e-02,  7.1967020631e-02,  2.2274725139e-02,  3.4670583904e-02,  5.5012643337e-02, -7.5464032590e-02,  3.4606836736e-02, -3.1780581921e-02, -1.2627918273e-02, 
	 9.0285159647e-02,  6.2062639743e-02,  2.7100794017e-02, -8.6679890752e-02, -9.9703148007e-02, -9.3754596310e-04,  5.0136312842e-02,  5.0653482322e-04, -8.2251682878e-02, -6.9193444215e-03, 
	-3.9518907666e-02,  3.9293728769e-02, -9.7625210881e-02, -9.4741992652e-02, -5.5969640613e-02, -9.5733232796e-02, -1.7222039402e-02,  6.5807372332e-02, -9.2502750456e-02, -9.1921739280e-02, 
	 7.7952094376e-02, -9.7151525319e-02, -5.6383542717e-02, -3.5483615939e-03,  5.2808776498e-02, -4.9639125355e-03,  3.6768943071e-02,  2.2535037249e-02,  1.0568375140e-01,  4.4349286705e-02, 
	 6.9792971015e-02,  7.5164437294e-02, -1.0488239676e-01, -4.2508751154e-02,  1.6486592591e-02,  3.2117657363e-02,  7.4948169291e-02, -2.8825458139e-03, -6.8680770695e-02,  1.4366091229e-02, 
	 6.8337552249e-02, -8.3822375163e-03,  2.9976850376e-02, -1.4925963245e-02, -8.2594849169e-02, -9.3617327511e-02, -2.4477809668e-02,  5.1843620837e-02, -1.7736766487e-02, -3.5110920668e-02, 
	 9.0017288923e-02,  3.3844012767e-02,  9.5420822501e-02, -4.9491059035e-02, -3.3841371536e-02,  9.9374823272e-02, -1.0023830086e-01, -5.6311278604e-03, -7.1481324732e-02, -8.7648846209e-02, 
	-2.0202977583e-02, -5.4682735354e-03, -3.1728304923e-02,  6.2997162342e-02, -7.7691644430e-02,  1.1041738838e-01,  3.6255422980e-02, -8.1046551466e-02, -3.1266774982e-02,  2.5369927287e-02, 
	 8.6960852146e-02,  1.6566637903e-02,  7.2275087237e-02, -7.3394358158e-02, -4.9399372190e-02,  2.2488718852e-02, -8.0498307943e-02,  8.9723132551e-02, -9.1516692191e-03, -2.4420602247e-02, 
	-2.1502945572e-02,  5.0615131855e-02, -7.8611746430e-02,  4.8465348780e-02, -2.3422118276e-02,  1.0229577869e-01,  9.6029371023e-02, -7.0416577160e-02,  3.6125585437e-02, -3.8654949516e-02, 
	-3.0718315393e-02, -6.9544166327e-02,  1.8498219550e-02,  7.0966199040e-02,  3.3708605915e-02, -2.6967123151e-02,  2.7441969141e-02,  3.7113569677e-02, -8.1460207701e-02, -5.6433692575e-02, 
	 8.6798183620e-03, -4.1649233550e-02,  9.9464893341e-02,  1.0539977998e-01, -9.7134508193e-02,  2.1592479199e-02, -7.4088595808e-02, -1.0375428200e-01, -7.5304500759e-02, -3.1193476170e-02, 
	 6.2996760011e-02,  1.6722230241e-02,  4.3004516512e-02, -3.5094559193e-02, -3.6992817186e-03, -8.0704435706e-02,  4.1130739264e-03,  1.9579067826e-02, -7.4467763305e-02, -9.9410355091e-02, 
	-6.9650304504e-03, -3.7565913051e-02, -8.2302406430e-02, -2.8972415254e-02,  8.9395955205e-02,  9.5103606582e-02, -8.2295216620e-02, -9.4502151012e-02,  3.2193761319e-02, -2.6459546760e-02, 
	 2.8418423608e-02, -1.8889553845e-02,  2.9989033937e-02, -1.1111473432e-03, -6.6257774830e-02, -7.3248170316e-02, -1.0145006329e-01, -2.7849758044e-02, -7.5301334262e-02,  3.6487739533e-02, 
	 5.5989179760e-02, -3.5143010318e-02, -1.6574282199e-02,  7.6097585261e-02,  8.9340664446e-02, -3.7604346871e-02,  2.8950100765e-02, -1.1381695420e-01,  5.6969441473e-02, -4.3402649462e-02, 
	-1.0854305327e-01,  3.6273261067e-03, -2.1830532700e-02, -6.6519640386e-02,  8.5448384285e-02,  8.7966896594e-02,  2.5564910844e-02, -8.3915829659e-02,  8.8091999292e-02,  9.0705953538e-02, 
	-1.0262342542e-01,  4.1362117976e-02, -9.1541402042e-02, -4.4592805207e-02, -9.9802412093e-02, -7.1250975132e-02, -8.6921378970e-02, -9.3066595495e-02,  8.2885012031e-02, -6.6732883453e-02, 
	-3.8196142763e-02, -3.7986051291e-02, -9.7993344069e-02, -9.5910221338e-02,  3.0440866947e-02, -4.2572885752e-02, -3.6730658263e-02,  3.8487818092e-02, -1.8162574619e-02, -9.1230347753e-02, 
	-4.4686824083e-02,  6.3453651965e-02,  1.0173545033e-01,  7.9709008336e-02, -1.1058787815e-02, -1.0184245184e-02, -6.3393659890e-02,  5.8543331921e-02,  5.6490577757e-02, -6.2985748053e-02, 
	-6.2261465937e-02, -6.8702250719e-02, -5.7952981442e-02, -1.5031775460e-02,  7.2583109140e-02,  8.7939143181e-02,  1.2134799734e-02,  7.8458443284e-02,  7.4429608881e-02, -4.3758645188e-04, 
	 3.0469501391e-02,  3.8182668388e-02,  8.9696720243e-02, -4.5473743230e-02, -9.7399301827e-02, -2.2545721382e-02,  3.4988746047e-02,  4.4295534492e-02,  3.4994881600e-02, -4.7203525901e-02, 
	 1.0592038184e-01, -4.4531114399e-02, -2.0150925964e-02,  1.9106511027e-02,  3.9224557579e-02, -2.5379221886e-02, -5.6388344616e-02, -1.0547567159e-01, -4.1012726724e-02, -6.7317821085e-02, 
	-2.2212112322e-02, -7.7837973833e-02, -2.5649001822e-02,  1.7167704180e-02, -1.0798444599e-01,  4.7447332181e-03, -3.2266236842e-02, -8.7607145309e-02, -5.4680142552e-02, -4.8602726310e-02, 
	 3.2281927764e-02,  2.1049850620e-03, -8.9129738510e-02,  4.2288597673e-02, -1.0070355237e-01, -4.2550258338e-02,  5.0280485302e-03,  7.4499897659e-02, -6.0218933504e-04,  5.5620130152e-02, 
	 7.7156044543e-02, -1.2519503012e-02,  6.2899984419e-02,  5.8746013790e-02,  7.1700587869e-02, -5.3482521325e-03,  8.2832589746e-02, -3.0238466337e-02, -2.2293517366e-02, -1.6311826184e-02, 
	-5.0673700869e-02, -2.1840374917e-02,  1.0233007371e-01,  7.7740252018e-02, -1.0241653770e-01,  1.8120950088e-02, -9.0960972011e-02, -3.6420539021e-02, -2.7830835432e-02, -8.5210576653e-02, 
	 1.0657051951e-01, -6.0026250780e-02, -6.1239795759e-03, -7.7273319475e-03, -5.4089359939e-02,  2.3476492614e-02, -1.1301554739e-01,  1.3857483864e-02,  7.6312855817e-03, -5.8470282704e-02, 
	 6.2212120742e-02,  8.7764002383e-02, -8.0399498343e-02, -1.0596446693e-01,  3.0471656471e-02, -8.6102643982e-03, -5.8318994939e-02,  1.6154479235e-02,  9.0970911086e-02, -2.6432605460e-02, 
	-8.8318707421e-03, -4.9802679569e-02, -3.5679116845e-02,  6.4489476383e-02, -7.3911145329e-02, -9.9630303681e-02,  2.7879565954e-02,  1.3555086218e-02,  6.5264925361e-02, -7.6920695603e-02, 
	 3.7268740125e-03, -2.6241753250e-02, -6.9961142726e-03, -7.2443552315e-02,  6.9798044860e-02,  9.6527844667e-02, -5.5886816233e-02,  4.4246114790e-02,  6.2256701291e-02, -7.1897670627e-02, 
	 9.6828661859e-02, -8.2756832242e-02,  3.4419897944e-02,  1.5904985368e-02, -8.6134508252e-02, -8.3966135979e-02,  4.9842651933e-02, -5.2988801152e-02, -4.1253831238e-02,  3.1844675541e-02, 
	-8.8227458298e-02, -6.8131901324e-02, -9.4436883926e-02, -6.2294926494e-02,  2.7513079345e-02, -1.6148101538e-02, -5.5348113179e-02, -2.3224893957e-02, -5.8277454227e-02,  8.9862711728e-02, 
	 3.1766131520e-02,  3.0473206192e-02,  8.8817186654e-02, -4.9399618059e-02,  2.0927524194e-02, -2.0713085309e-02,  6.7401914857e-03, -7.2089068592e-02, -7.9828947783e-02, -3.1125122681e-02, 
	-6.8640671670e-02, -7.7982321382e-02, -2.4297136813e-02, -7.0541329682e-02,  5.2104406059e-02, -3.2174412161e-02,  1.6150267795e-02,  7.6343432069e-02, -1.5460506082e-02,  6.6204339266e-02, 
	 7.5334854424e-02,  2.0865427796e-03, -8.4019586444e-02, -8.7566114962e-02, -3.3803716302e-02,  3.7476327270e-03,  5.7816930115e-02, -6.4291387796e-02, -1.2980242260e-02,  2.8594877571e-02, 
	 7.0186384022e-02, -6.7040450871e-02,  1.8215166405e-02, -9.6065185964e-02,  1.1809992138e-03, -7.9953037202e-02,  7.0444427431e-02, -2.8935227543e-02,  6.1221554875e-02,  7.7602681704e-03, 
	 8.2161419094e-02, -5.7756524533e-02,  6.2323179096e-02,  7.1965008974e-02,  2.8991540894e-02,  2.7723040432e-02,  9.8236119375e-03, -8.6090505123e-02, -4.2243644595e-02, -1.0208172351e-01, 
	 2.4061918259e-02, -9.8903506994e-02,  8.9759342372e-03, -7.5867585838e-02,  9.4795376062e-02, -4.2986705899e-02,  2.9218852520e-02, -9.4129577279e-02, -7.8909166157e-02,  1.2820673874e-03, 
	-1.0094932467e-01, -1.2771483511e-02,  2.3175433278e-02,  5.1558654755e-02,  7.9538680613e-02,  1.9196072593e-02,  8.4680765867e-02,  4.7465223819e-02, -5.2496597171e-02, -4.3906223029e-02, 
	 5.5594652891e-02, -8.3265803754e-02, -8.7451696396e-02, -2.3575440049e-02, -2.5343086571e-02, -7.1685075760e-02,  1.0369865922e-03,  5.3529206663e-02, -3.3895801753e-02, -5.8888003230e-02, 
	-1.7263399437e-02,  5.2191589028e-02,  5.9182238765e-03,  4.5056156814e-02, -3.5171103664e-03,  3.6564220209e-03, -1.7257753061e-03,  7.7951580286e-02,  4.2492743582e-02, -5.8206200600e-02, 
	-1.0606562346e-01, -7.1863994002e-02,  5.8107145131e-02, -9.7226880491e-02,  2.3222067393e-03,  3.1831471715e-03,  2.0988060161e-02,  4.2524490505e-02,  7.8275755048e-02, -8.3679929376e-02, 
	-3.7758022547e-02,  7.1111312136e-03,  1.0657171160e-01, -6.8262726068e-02,  8.9583732188e-02, -3.2874751836e-02,  7.1742579341e-02,  2.1841278300e-02, -2.1355213597e-02, -8.2456573844e-02, 
	 4.1464060545e-02,  8.3552012220e-03, -2.1021731663e-03, -1.5829954296e-02, -5.2369534969e-02, -6.6386029124e-02,  6.1310205609e-02,  1.8439069390e-02,  3.4622017294e-02, -2.9204605147e-02, 
	 9.3474825844e-03,  3.1011158600e-02, -8.3950817585e-02,  6.2623410486e-03,  8.8574446738e-02,  8.2703446969e-03, -6.7768454552e-02,  2.0297702868e-03, -9.1005258262e-02,  1.5328557929e-03, 
	-3.3400263055e-04, -8.4717288613e-02, -3.5697411746e-02,  4.5934334397e-02, -1.0369139910e-01,  8.6088515818e-02, -6.6295899451e-02, -3.7953335792e-02, -2.0091509447e-02, -4.3790381402e-02, 
	 9.7363203764e-02, -4.7967694700e-02, -5.0353471190e-02, -9.0342119336e-02, -9.6439197659e-02, -6.3676357269e-02,  1.4688355848e-02,  3.0422028154e-02, -2.4182891473e-02, -7.8433781862e-02, 
	-3.6773923784e-02,  8.6450256407e-02, -8.7893486023e-02,  4.4931229204e-03, -1.0553872585e-01, -7.9210221767e-02,  7.3195390403e-02, -9.5878936350e-02,  5.4340269417e-02,  4.8347238451e-02, 
	 4.1520424187e-02,  6.0706660151e-02,  2.1719164215e-03,  6.3467331231e-02,  4.1265927255e-02, -5.4275549948e-02,  9.4517827034e-02, -2.8693804517e-02, -9.0729206800e-02, -6.1722327024e-02, 
	 1.9172575325e-02,  5.5047520436e-03, -1.2817955576e-02,  2.4574758485e-02, -7.5492806733e-02,  3.7770073861e-02, -2.6701984927e-02, -1.8160773441e-02,  2.0798848942e-02,  2.5070063770e-02, 
	 6.7830488086e-02,  1.6285555437e-02, -7.2998970747e-02, -5.9761689045e-05,  3.4439101815e-02, -1.0979473591e-01,  9.2054894194e-03, -5.9823546559e-02,  4.9902755767e-02, -7.8891105950e-02, 
	 2.1125420928e-02, -2.8431123123e-02, -1.0379105806e-01,  2.4159062654e-02, -2.6098186150e-02,  6.3928812742e-02, -6.8633653224e-02, -6.3200302422e-02,  3.0074164271e-02, -5.8471012861e-02, 
	 3.0230997130e-02, -9.6670866013e-02,  2.2594735026e-02,  9.7348593408e-04,  6.6152647138e-02,  6.8977527320e-02, -5.2920047194e-02,  9.9856324494e-02, -4.3588053435e-02,  3.7732407451e-02, 
	 3.0546136200e-02,  1.9903520122e-02, -5.5231235921e-02,  1.0708951205e-01, -5.3699653596e-02,  4.3249979615e-02,  3.9353676140e-02,  1.3968534768e-02,  2.5444833562e-02, -4.2348634452e-02, 
	-1.8329553306e-02, -1.0281819850e-01,  2.2117372602e-02, -1.1212123930e-01, -4.9880344421e-02, -9.9936857820e-02, -4.2442884296e-02,  5.5636066943e-02,  1.7816968262e-02, -8.3079107106e-02, 
	 3.3832430840e-02, -4.8632893711e-02, -5.6003820151e-02, -2.9112679884e-02,  8.2632694393e-03, -6.2350735068e-02, -6.3009910285e-02, -8.0162875354e-02, -1.3802341186e-02,  7.2717487812e-02, 
	-1.7294166610e-02,  9.5062874258e-02, -9.3640588224e-02,  5.3433920257e-03,  2.7468610555e-02, -3.0953399837e-03,  9.2044137418e-02, -6.2797464430e-02, -6.5290540457e-02,  4.2403507978e-02, 
	-4.9782406539e-02,  4.6756159514e-02,  5.2906934172e-02,  3.8306087255e-02,  7.0930875838e-02, -8.4770135581e-02,  3.3823754638e-02,  3.0934156850e-02, -3.9024107158e-02, -5.8376561850e-02, 
	-3.3449377865e-02,  8.5326880217e-02,  7.0988103747e-02,  6.3887305558e-02,  6.8178541958e-02, -8.0155514181e-02, -7.2931677103e-02, -6.8963371217e-02,  1.4005797915e-02, -8.7262660265e-02, 
	-3.4485689830e-03, -4.7775790095e-02, -8.2586482167e-02,  8.8282302022e-02, -6.8486630917e-02,  6.4209148288e-02, -6.9910690188e-02,  5.9535678476e-02, -5.4350562394e-02, -1.3092491776e-02, 
	-7.3278918862e-02, -1.6717405990e-02,  9.7896814346e-02, -3.7053432316e-02, -1.2915811501e-02, -7.1464098990e-02, -9.9819034338e-02,  5.9885684401e-02,  7.6012343168e-02, -1.3711298816e-02, 
	 1.6104582697e-02, -8.5751526058e-02, -7.2388067842e-02, -2.2709392011e-02,  2.1104382351e-02, -8.2661099732e-02,  8.7815947831e-02,  4.1966840625e-02,  3.7442732602e-02,  5.1672253758e-02, 
	 7.9973943532e-02,  4.9525760114e-03,  1.0518440977e-02,  8.1800967455e-02, -4.0662180632e-02, -8.4615506232e-02, -7.2019144893e-02, -9.5387883484e-02, -4.4004056603e-02, -2.9355844483e-02, 
	-3.8701586425e-02, -8.6640432477e-02, -7.9496502876e-02, -9.3674249947e-02, -3.4367345273e-02, -8.8274709880e-02,  3.8517443463e-03, -1.0319179296e-01,  1.5107332729e-03,  6.2845997512e-02, 
	 9.4675375149e-03, -7.2023488581e-02,  4.4758699834e-02, -1.9980452955e-02, -3.5855319351e-02, -4.8288572580e-03, -1.7560817301e-02, -2.7096038684e-02,  3.3454880118e-02,  2.8290480375e-02, 
	 7.1665860713e-02, -9.6093982458e-02,  3.6448448896e-02,  5.4733429104e-02, -5.1719583571e-02,  4.2158056051e-02,  1.3721452095e-02,  7.6716132462e-02,  1.0116153210e-01, -7.4952393770e-02, 
	-1.5584571287e-02, -6.9827876985e-02,  8.5669182241e-02, -6.5756672993e-03, -4.4813305140e-02,  3.6243736744e-02, -6.2994860113e-02, -7.9255968332e-02,  2.3691887036e-02, -4.5370552689e-02, 
	-8.1174843013e-02,  1.0025767982e-01,  8.2562081516e-02,  4.2454734445e-02, -4.4551882893e-03,  7.2640635073e-02,  5.8095891029e-02, -4.4665094465e-02,  1.9986018538e-02,  9.5253884792e-02, 
	 8.4643714130e-02,  7.7660150826e-02, -9.1312505305e-02,  5.4872438312e-02,  1.5019190498e-02, -6.6421598196e-02, -8.1220148131e-03,  4.6108376235e-02,  9.2262580991e-02, -9.2153117061e-02, 
	 5.7710107416e-02, -8.1093527377e-02, -8.1279866397e-02, -1.2226957828e-02, -1.0465675965e-02, -6.6127453465e-04, -3.2899282873e-02, -2.0716296509e-02, -4.3586876243e-02, -5.2837453783e-02, 
	-3.5538066179e-02,  3.2822661102e-02,  1.2850070372e-02,  8.8791079819e-02, -5.4836578667e-02, -3.4474635031e-03,  2.0731156692e-02,  6.3400484622e-02, -1.1084586382e-02,  2.4123262614e-02, 
	 4.7775961459e-02, -6.3731163740e-02, -1.9427407533e-02, -1.0333781131e-02, -5.1878817379e-02,  1.5202435665e-02,  1.5261225402e-02,  7.9262614250e-02,  6.8092264235e-02,  9.0599589050e-02, 
	 5.7562064379e-02,  3.0543385074e-02, -6.1563149095e-02, -1.8039144576e-02, -5.7937696576e-02, -3.5675488412e-02, -5.6004140526e-02,  9.2885024846e-02,  5.9334365651e-03, -8.7410844862e-02, 
	-9.8366558552e-02,  4.6018846333e-02,  3.3347088844e-02, -2.0505869761e-02, -1.6794681549e-02, -6.2109623104e-02,  4.5702971518e-02,  2.2465735674e-02,  5.1124323159e-02, -1.8124889582e-02, 
	-9.9162794650e-02,  6.7064978182e-02, -2.8354834765e-02,  3.1078170985e-02, -3.3322337549e-03,  2.0788563415e-03, -1.0109091550e-01, -1.0908974707e-01, -8.8337652385e-02,  4.1777350008e-02, 
	-9.0274788439e-02, -9.5336519182e-02, -9.7335524857e-02, -5.1950798370e-03,  5.8369720355e-03,  5.6542582810e-02, -9.0073801577e-02,  7.1980029345e-02, -8.5347361863e-02, -7.4845202267e-02, 
	-4.5413065702e-02, -1.0789092630e-01, -6.2799178064e-02, -4.1305195540e-02, -8.2969561219e-02, -9.7806908190e-02, -8.3191230893e-02, -9.8367266357e-02, -1.2244299287e-03,  4.7646132298e-03, 
	-7.4360132217e-02,  3.1127288938e-02,  3.1711097807e-02, -2.9443532228e-02, -6.6819466650e-02, -7.3675565422e-02, -5.1524512470e-02, -4.5704741031e-02,  7.2821207345e-02, -2.5585126132e-02, 
	 2.3828361183e-02, -8.6132608354e-02, -2.5010515004e-02,  9.7640365362e-02, -1.7613971606e-02,  8.8654696941e-02, -9.2392943799e-02, -1.0934114456e-01,  7.4211455882e-02,  6.2699206173e-02, 
	 1.0937563330e-01,  7.0630587637e-02, -1.0080860555e-01,  7.1733117104e-02,  1.0005002469e-01,  4.1128814220e-02, -8.3159260452e-02,  5.3481493145e-02, -9.7602471709e-02,  9.2277608812e-02, 
	 7.9381167889e-02, -2.0162200555e-02,  7.9053789377e-02, -3.4867320210e-02, -8.7551571429e-02,  3.3156249672e-02, -2.9643226415e-02, -9.4768211246e-02, -8.6382910609e-02,  4.9605216831e-02, 
	 3.5781431943e-02, -2.9290949926e-02,  1.0479727387e-01, -6.3477586955e-03,  7.6192922890e-02,  4.4507477432e-02, -3.2011985779e-02, -5.5272176862e-02,  3.2308552414e-02,  4.4296100736e-02, 
	-1.0227914155e-01,  8.7086237967e-02,  6.8946965039e-02, -1.0262413323e-01, -5.8031097054e-02, -3.5801623017e-02, -6.7425526679e-02,  1.6074193642e-02, -8.0515183508e-02,  1.5979308635e-02, 
	-8.7218679488e-02, -8.6755461991e-02, -8.6346797645e-02,  2.5127371773e-02,  9.1341361403e-02, -3.9221540093e-02,  9.3283109367e-02, -3.3081024885e-02, -9.4789743423e-02, -2.6772107929e-02, 
	 9.6013419330e-02, -4.1669510305e-02,  1.8261028454e-02,  7.8410608694e-03, -5.2180074155e-02,  4.5754253864e-02,  1.0228025727e-02, -9.4908721745e-02,  4.8103284091e-02, -1.0556387156e-01, 
	 3.4482806921e-02, -1.0651151836e-01,  7.1716152132e-02,  1.0107277334e-01, -3.1598217785e-02,  3.4008223563e-02,  6.5764673054e-02,  4.1545126587e-02,  2.3008130491e-02,  2.9766976833e-02, 
	 6.2000774778e-03,  9.6550002694e-02,  6.2642380595e-02, -4.6875040978e-02, -9.2864170671e-02,  1.1569487862e-02,  6.8901233375e-02,  9.8110139370e-02, -5.4541870952e-02, -9.5358967781e-02, 
	 7.6283670962e-02,  4.6007741243e-02, -3.8812786341e-02, -7.3039457202e-02,  8.9209206402e-02, -5.6757207960e-02, -9.9129669368e-02, -4.8262923956e-03,  9.1317407787e-02, -4.4419918209e-02, 
	-1.0194563121e-01, -7.7983118594e-02, -3.0152924359e-02,  9.6950763837e-03,  6.0913465917e-02,  6.5788567066e-02, -6.3337804750e-03,  7.0387072861e-02, -1.0809567571e-01, -5.0247110426e-02, 
	-1.0436461866e-01, -3.8964038249e-03, -5.6307088584e-02, -1.8830876797e-02, -6.2282983214e-02, -7.6362714171e-02, -1.0450312495e-01, -3.1735494733e-02, -8.0828644335e-02,  1.0353898257e-01, 
	 1.8852129579e-02, -6.5052032471e-02, -9.3834921718e-02, -6.7040964961e-02, -1.1352535337e-01, -3.0497387052e-02, -2.1056253463e-02,  1.4032761566e-02, -2.1965868771e-02, -8.5862793028e-02, 
	 2.8751323000e-02, -5.1085729152e-02, -3.7350468338e-02,  9.2803062871e-03,  5.2238389850e-02,  4.8439268023e-02,  5.4332461208e-02, -8.0930560827e-02, -8.0177970231e-02, -8.6798630655e-03, 
	 7.2969801724e-02,  8.6571641266e-02, -8.1180609763e-02, -4.0471285582e-02, -1.0765324533e-01, -9.9484466016e-02, -1.6215426847e-02,  3.7155892700e-02,  9.8360657692e-02, -3.3630102873e-02, 
	-7.7139936388e-02, -2.9964385554e-02,  6.4482681453e-02, -5.5291648954e-02,  8.6226955056e-02, -1.0502798483e-02,  7.2083793581e-02,  6.4414836466e-02, -4.3894685805e-02,  1.0145069100e-02, 
	 1.1303488910e-01, -9.9482469261e-02,  6.0292143375e-02,  1.0280234367e-01, -8.2679539919e-02, -3.9134752005e-02, -1.0742443055e-01, -1.2143018655e-02,  7.6698400080e-02,  3.5211201757e-02, 
	 1.0087835789e-01,  9.4957046211e-02, -6.0547683388e-02, -1.1369738728e-01, -3.6781959236e-02, -7.2047561407e-02, -1.8998973072e-02,  7.2949007154e-02, -3.0601924285e-02, -8.9930713177e-02, 
	-9.3325398862e-02, -1.1392401159e-01, -2.5363018736e-02, -7.8673884273e-02, -5.0369162112e-02, -9.9467821419e-02,  2.9253751040e-02, -7.5727917254e-02,  7.4678204954e-02,  6.0167599469e-02, 
	-3.7224266678e-02,  8.6726151407e-02, -1.5519273467e-02,  2.5142254308e-02,  5.2751120180e-02, -3.2000612468e-02, -2.0015532151e-02, -4.1363392025e-02, -6.8190820515e-02, -3.0455894768e-02, 
	-8.5764318705e-02,  2.2148763761e-02,  5.3088828921e-02, -3.5718210042e-02, -2.3933302145e-03, -5.3254615515e-02,  9.7843870521e-02, -1.4647944830e-02,  5.4971046746e-02,  7.1240261197e-02, 
	 1.2993266573e-03, -3.4996271133e-02, -1.1214385927e-01, -9.2801861465e-02,  9.5632955432e-02,  8.1770852208e-02,  3.9847638458e-02, -4.0380910039e-02, -1.4945317991e-02,  6.4217381179e-02, 
	-8.6202546954e-02,  1.4197957702e-02,  7.6155881397e-03, -6.5187767148e-02,  8.4870979190e-02, -8.9962288737e-02, -7.0483446121e-02, -3.7099309266e-02,  7.9162931070e-03,  6.1016753316e-03, 
	 3.2981757075e-02,  7.8479595482e-02, -1.0343867540e-01, -3.1176835299e-02,  1.5738815069e-02, -4.5915003866e-03, -6.2994055450e-02, -2.6127623394e-02,  4.8594187945e-02,  4.3689392507e-02, 
	 9.7500912845e-02,  8.3233088255e-02, -2.4506219197e-03, -7.4880354106e-02,  2.1816376597e-02,  3.0748290941e-02,  4.5596305281e-02,  5.1134643145e-03,  3.6525655538e-02,  2.5079429150e-02, 
	-1.0829666257e-01,  6.0042314231e-02, -8.0589950085e-02,  3.8358666003e-02, -6.4384400845e-02,  8.7421700358e-02,  4.8096615821e-02, -5.5256046355e-02,  2.3921353277e-03, -1.0818610340e-01, 
	-1.4118014369e-03,  7.4987240136e-02,  1.4669656521e-03,  8.1993453205e-02, -9.2075197026e-03,  5.6168600917e-02,  1.1633685231e-01, -7.9533122480e-02,  3.1525962055e-02,  1.0512803495e-01, 
	-2.3908969015e-03,  8.3736374974e-02, -2.0451627672e-02,  1.6881490126e-02,  7.0897229016e-02,  3.5490706563e-02, -4.4503830373e-02, -2.9597019777e-02,  5.3398508579e-02, -8.8635481894e-02, 
	 5.9766810387e-02, -6.2606200576e-02,  7.6097354293e-02,  4.2843844742e-02,  4.6739924699e-02, -6.5992265940e-02,  4.2554825544e-02,  7.7830597758e-02, -7.1878403425e-02, -7.2068206966e-02, 
	-6.6839337349e-02,  9.4063512981e-02, -9.6046052873e-02,  8.9819669724e-02,  7.1987129748e-02, -8.7945751846e-02, -1.9817776978e-02,  7.8467570245e-02, -8.0944327638e-03, -6.6751286387e-02, 
	 1.7105424777e-02,  8.2178480923e-02, -8.7244801223e-02,  5.0495658070e-02,  6.8156175315e-02,  4.7677494586e-03,  9.1542843729e-03, -1.2888279743e-02,  3.8790442050e-02,  5.1624067128e-03, 
	-8.2251809537e-02, -8.9830473065e-02, -4.4221833348e-02, -3.1194100156e-02,  8.4291435778e-02,  7.1363635361e-02, -3.3980730921e-02,  7.6358675957e-02, -6.4721599221e-02, -7.1628645062e-02, 
	 9.0163864195e-02,  6.6191136837e-02, -3.8214981556e-02, -6.6903822124e-02,  1.5166419325e-03, -2.1768052131e-02,  5.6265186518e-02,  3.1849388033e-02, -3.2944969833e-02,  5.4795708507e-02, 
	 1.3983060606e-02, -2.3747155443e-02, -2.4256665260e-02, -7.1819853038e-03, -8.0093428493e-02, -1.7909338698e-02, -1.4255422167e-02,  1.7407903448e-02, -1.0575424135e-01, -3.0446618795e-02, 
	-8.2593344152e-02, -6.6085517406e-02,  2.6494752616e-02, -6.9319874048e-02, -1.3519004919e-02, -4.7353722155e-02,  2.1880771965e-02,  1.8589135259e-02, -3.6430977285e-02,  8.1436455250e-02, 
	 9.4216533005e-02,  3.9891593158e-02, -9.3073852360e-02,  5.2147585899e-02,  1.0264053941e-01,  6.7435197532e-02, -1.5027126297e-02, -4.6558748931e-02, -9.4211056828e-02,  1.0482465476e-01, 
	 7.6946482062e-02, -7.2894677520e-02,  5.8427531272e-02,  7.7405244112e-02, -2.6237893850e-02,  2.0384000614e-02,  1.2517985888e-02, -9.2823125422e-02,  6.2467395328e-03, -2.2527538240e-02, 
	 3.8175124675e-02,  5.1777254790e-02, -5.1155403256e-02,  2.2263476625e-02, -9.7824670374e-02,  6.9161102176e-02,  4.9318496138e-02, -1.1825988069e-02,  7.1682535112e-02,  7.3012292385e-02, 
	 9.1762199998e-02,  7.1674205363e-02, -8.9422568679e-02, -8.1999965012e-02,  7.4674852192e-02,  3.6422207952e-02,  5.1874764264e-02,  3.3120177686e-02,  2.5534281507e-02, -2.6178654283e-02, 
	-6.7594811320e-02,  1.9087031484e-02,  1.4749955386e-02, -1.0343626887e-01, -8.2149997354e-02,  3.3349361271e-02, -6.0851238668e-02, -2.8563700616e-02,  3.2842922956e-02,  8.4022298455e-02, 
	-9.4237037003e-02,  2.5014683604e-02, -5.6584011763e-02, -2.7335705236e-02,  2.6347283274e-02,  3.3851556480e-02, -4.1065931320e-02,  5.8395131491e-03,  5.6366588920e-02,  1.1388503015e-02, 
	 8.1970028579e-02, -1.1588398367e-02,  9.3176253140e-02, -8.0837488174e-02,  7.6437555254e-02, -3.6440312397e-03, -8.1908635795e-02,  1.4278029557e-03, -4.3535996228e-02, -7.1016840637e-02, 
	-2.6825949550e-02,  9.0521745384e-02, -5.9367574751e-02,  8.5864402354e-03, -8.2419350743e-02, -4.4198147953e-02, -6.7153304815e-02, -7.7578756027e-03, -5.3712230176e-02, -5.3474403918e-02, 
	-5.0064925104e-02, -8.7100848556e-02,  1.9704816863e-02, -6.3387177885e-02, -8.6734965444e-02,  5.6054484099e-02, -5.3903926164e-03, -6.2179774046e-02,  2.7931308374e-02, -3.8051158190e-02, 
	 2.8828017414e-02, -8.3660982549e-02,  7.9590238631e-02,  5.5151261389e-02,  9.2297270894e-02, -8.2087822258e-02, -4.8324406147e-02,  6.4139455557e-02, -1.8069814891e-02, -7.9344548285e-02, 
	 9.5664244145e-03,  2.7055382729e-02, -6.3661105931e-02, -1.0240435600e-01,  1.4380665496e-02,  2.7464231476e-02, -3.6311987787e-02,  9.2628374696e-02, -6.4663171768e-02, -4.5942179859e-02, 
	 4.4712167233e-02, -1.8958928064e-02, -1.6597385984e-03, -6.1578374356e-02, -8.4386073053e-02,  6.5600156784e-02,  4.6591952443e-02, -4.7536559403e-02, -9.0027540922e-02,  4.7909736633e-02, 
	 3.3076155931e-02, -7.2230361402e-02, -2.2911773995e-02, -6.4754307270e-02, -7.6530486345e-02, -3.7572272122e-02,  1.2182074599e-02, -9.4096437097e-02, -2.2761071101e-02, -3.2523930073e-02, 
	 6.3184767962e-02, -7.3966361582e-02, -6.5804429352e-02, -6.8809978664e-02, -1.0395260528e-02,  3.9169538766e-02,  9.5760151744e-02, -8.7406776845e-02,  3.4792490304e-02,  1.0407086462e-02, 
	 9.6415415406e-02,  6.2176719308e-02, -2.5924898684e-02,  1.3293363154e-02,  2.5616543368e-02, -4.0436591953e-02,  9.0886376798e-02,  1.2740252540e-02, -2.5415306911e-02,  7.7194608748e-02, 
	-7.1826666594e-02, -1.4398838393e-02,  9.5851041377e-02, -9.9920071661e-02, -4.0960025042e-02,  6.4262926579e-02,  5.6751230732e-03, -3.2184373587e-02, -3.6917041987e-02, -1.0739090294e-01, 
	-4.7203566879e-02, -1.7347013578e-02, -8.0522224307e-02,  6.9804884493e-02,  7.5551740825e-02, -2.6241339743e-02, -8.5975460708e-02, -1.0881211609e-01,  2.5280138478e-02, -8.8746108115e-02, 
	 6.1460658908e-02, -2.2877639160e-02, -8.7543904781e-02, -4.4198345393e-02, -9.6278414130e-02, -1.9162189215e-02, -3.7865493447e-02, -7.1739353240e-02,  5.1595531404e-02,  4.1718658060e-02, 
	 2.3347275332e-02,  8.4011172876e-03, -1.2622816488e-02, -4.9885388464e-02,  6.8696089089e-02,  4.9087647349e-03, -1.1029042304e-01,  1.0083363950e-01, -7.2434902191e-02, -3.2482311130e-02, 
	-2.4573779665e-03, -3.5113200545e-02, -5.4509576410e-02, -6.2787376344e-02,  3.4109372646e-02,  6.3047327101e-02,  4.9272682518e-02,  7.3621086776e-02,  4.2562428862e-03, -1.9396627322e-02, 
	 1.4668596908e-02,  7.7923394740e-02,  4.9911145121e-02,  7.2020500898e-02,  2.7558072470e-03, -1.2047291733e-02,  4.0337229148e-03, -1.1431025341e-02,  2.4121537805e-02, -3.4284550697e-02, 
	-7.9150155187e-02, -2.6762501802e-03, -2.1736310795e-02,  6.6480454989e-03,  3.8299895823e-02, -1.0291692615e-01,  4.9574937671e-02, -2.5930494070e-02, -8.9684337378e-02,  3.4154966474e-02, 
	-4.8527274281e-02,  1.1838337407e-02,  4.9830593169e-02, -1.8029978499e-02,  6.8672932684e-02, -1.0363673419e-01,  4.6539004892e-02, -5.1460210234e-02,  9.5566034317e-02,  3.1824300531e-03, 
	 5.2791766822e-02, -5.0579190254e-02,  1.3893427327e-02, -8.0542542040e-02, -4.7390416265e-02,  8.0585829914e-02, -3.7642013282e-02, -2.7454543859e-02, -3.4888107330e-02,  1.4663513284e-03, 
	 7.0470631123e-02,  8.0117091537e-02, -5.2940685302e-02,  3.1928893179e-02, -2.6457626373e-02, -2.4876913056e-02,  6.4100436866e-02, -3.6055270582e-02, -4.2141396552e-02, -4.0464665741e-02, 
	 3.3192127943e-02, -3.3661957830e-02, -8.4695406258e-03,  8.6853645742e-02,  7.1430131793e-03, -5.4632849060e-03,  2.8606589884e-02,  7.3046483099e-02, -4.9250707030e-02, -7.6663039625e-02, 
	 7.9175069928e-02, -1.0836748034e-01,  8.7194658816e-02,  6.7861592397e-03, -8.5048921406e-02,  7.6531432569e-02,  7.1092426777e-02, -4.3066613376e-02, -3.7958703935e-02, -5.7027854025e-02, 
	 6.2438216060e-02,  4.9281980842e-02, -9.1560564935e-02,  6.0547783971e-02,  4.1299909353e-02,  2.2803790867e-02,  6.1852433719e-03,  7.1258872747e-02, -1.1913511116e-04,  8.7196990848e-02, 
	 2.4688662961e-02,  2.6462872047e-03, -1.0035847872e-01, -6.5862536430e-02,  4.5256121084e-03,  2.3161871359e-02, -9.7193107009e-02,  5.1008712500e-02,  2.5105634704e-02,  8.6652532220e-02, 
	-6.3563063741e-02, -1.0681892186e-01,  2.9058961198e-02,  4.8289094120e-02, -8.2354329526e-02, -2.9302734882e-02, -5.3135424852e-02, -4.0360023268e-03, -5.4100133479e-02, -6.3382104039e-02, 
	-4.1997108608e-02, -4.9524780363e-02, -1.5221496113e-02, -3.4510545433e-02, -5.3206238896e-02,  4.5553192496e-02, -9.5351912081e-02,  1.3328387402e-02, -7.7593572438e-02,  4.3646905571e-02, 
	-2.4355838075e-02, -6.2256444246e-02, -8.0449961126e-02,  4.8435498029e-02, -8.9113518596e-02, -5.4329831153e-02,  5.2717432380e-02, -7.8435495496e-02,  2.0039698109e-02, -6.3187539577e-02, 
	-4.8312839121e-02,  3.7420832086e-05,  7.8321039677e-02,  5.9046014212e-04, -5.6896775961e-02, -4.0409866720e-02,  4.6583939344e-02, -7.9601012170e-02, -9.4659969211e-02, -1.7744008452e-02, 
	-7.2066704743e-03,  5.8218535036e-02, -1.0362167656e-01, -4.8593118787e-02,  5.1624115556e-02,  6.4331449568e-02, -8.2789689302e-02, -6.0060191900e-02, -4.0662761778e-02,  1.1105176061e-01, 
	 4.0268618613e-02,  2.8483874630e-03, -1.3605558313e-02, -7.1185156703e-02, -6.0066029429e-02,  9.8240889609e-02,  7.8309953213e-02,  6.9718860090e-02, -1.6184221953e-02, -2.0945431606e-04, 
	-8.6433239281e-02,  7.6395981014e-02, -2.8851434588e-02, -6.9433987141e-02, -5.4430179298e-02, -4.6393450350e-02,  8.1766575575e-02, -1.3043586165e-02, -5.3233355284e-03, -4.5411914587e-02, 
	-8.0207601190e-02, -9.6056714654e-02, -2.3595791310e-02, -6.5963037312e-02, -5.4923020303e-02,  4.7133911401e-02,  1.3199120760e-02, -7.4248313904e-02, -9.5966696739e-02,  3.6925241351e-02, 
	 5.9099756181e-02, -1.3104242273e-02, -5.0917539746e-02, -5.7377342135e-02, -3.2798785716e-02,  1.0548108257e-02, -5.5345047265e-02, -4.8691902310e-02, -1.4681059867e-02,  2.2261023521e-02, 
	-7.8927934170e-02, -3.1506080180e-02, -9.6740983427e-02, -3.5933371633e-02, -5.8805055916e-02, -2.8220363893e-03,  4.7429367900e-02,  6.5588891506e-02,  1.1607334949e-02,  9.3060620129e-02, 
	-1.0152668506e-01, -5.6263290346e-02,  8.0248892307e-02, -1.0157288611e-01, -6.5115034580e-02, -9.1414608061e-02,  8.9228950441e-02, -3.0246989336e-03,  2.8995320201e-02,  2.0518679172e-02, 
	-8.2809358835e-02,  2.0852617919e-02, -2.6636624709e-02, -1.0821983218e-01, -1.0384924710e-01, -1.5955543146e-02, -8.0787546933e-02,  4.3463956565e-02,  4.4441428035e-02,  8.2257337868e-02, 
	-8.8495813310e-02,  1.3834388927e-02,  6.6232733428e-02, -6.4315602183e-02,  7.5895272195e-02,  6.0422990471e-02,  7.0338755846e-02, -2.0421011373e-02, -6.8997874856e-02, -7.3455423117e-02, 
	 6.7537106574e-02, -1.0683827102e-01,  9.7823582590e-02,  5.2873585373e-03,  5.9098333120e-02, -6.7055173218e-02, -7.4021495879e-02, -6.6858023405e-02, -2.3881813104e-04, -2.2498343140e-02, 
	-1.0565053672e-01,  5.4847966880e-02,  3.5418622196e-02, -1.1421941221e-02,  1.0457040370e-01, -8.1214465201e-02, -2.3081611842e-02, -2.8364283964e-02,  6.8678190000e-03,  2.6161860675e-02, 
	 1.0512885451e-01, -6.6232629120e-02, -8.1171102822e-02,  5.9871278703e-02, -1.9981758669e-02,  1.6903195530e-02,  7.3098398745e-02,  2.7235494927e-02, -8.1312194467e-02, -5.7460416108e-02, 
	 1.0802645236e-01, -6.2381144613e-02,  2.7356291190e-02, -1.6301918775e-02, -5.3796027787e-03, -9.2253789306e-02,  9.0824157000e-02, -1.1873777024e-02, -2.2809343413e-02,  6.4555192366e-03, 
	-1.0797096789e-01, -7.1977078915e-02, -3.4404068720e-03,  3.1280700117e-02, -3.9720702916e-02, -5.2754882723e-02,  7.9699978232e-02,  8.3178758621e-02, -3.7714798003e-02,  3.6277119070e-02, 
	-1.0475406796e-01, -1.0479555931e-03, -7.4481621385e-02, -2.9191592708e-02, -7.5473688543e-02, -6.7721322179e-02, -1.0568913072e-01,  4.6994142234e-02, -1.8617363647e-02,  5.6193858385e-02, 
	-2.5199770927e-02,  8.5495226085e-02, -9.7703495994e-03, -9.8769620061e-02, -8.1896133721e-02,  9.7939804196e-02,  2.9882162809e-02,  5.8694783598e-02,  4.2576294392e-02, -8.5823377594e-03, 
	-4.0565043688e-02, -6.3094384968e-02, -2.0862568170e-02,  4.7199260443e-02, -7.9080417752e-02, -1.0770893097e-01, -8.7718879804e-03, -7.5240567327e-02, -9.7017124295e-02,  1.6419941094e-03, 
	 8.6804077029e-02, -5.4865218699e-02, -4.4388151728e-03, -3.1612556428e-02, -9.7867295146e-02,  9.9593162537e-02,  4.8305481672e-02, -3.5387845710e-03,  5.8856297284e-02, -8.6605429649e-02, 
	 8.5106790066e-03, -6.7420817912e-02,  5.9374634176e-02,  8.6521640420e-02, -8.6822897196e-02, -7.6963700354e-02, -3.0729131773e-02,  9.0688139200e-02,  6.7418307066e-02, -5.4243925959e-02, 
	-3.3809263259e-02,  2.2662160918e-02,  5.8243021369e-02,  4.9065839499e-02, -7.2418890893e-02, -7.7419780195e-02,  9.1813683510e-02,  4.6159617603e-02,  7.4009999633e-02,  4.6951975673e-02, 
	-9.1868132353e-02,  6.7767887376e-03, -1.4551733620e-02, -5.6443355978e-02, -1.0055301711e-02, -1.0384710133e-01,  1.5104068443e-02,  2.5967312977e-03,  9.2971518636e-02,  1.0505143553e-01, 
	-2.5888467208e-03, -9.5511801541e-02,  1.4373275451e-02, -4.7493066639e-02, -9.4657437876e-03, -4.7984803095e-03,  1.1442264542e-02, -1.8065400422e-02, -8.8269095868e-03,  8.3974339068e-02, 
	 5.5462371558e-02,  5.3877364844e-02, -5.7753678411e-02, -7.3010697961e-02,  2.6743287221e-02,  8.6417369545e-02, -8.1485673785e-02, -3.2539922744e-02, -5.3997717798e-02,  3.1049966812e-02, 
	 2.8817987069e-02,  3.1574629247e-02, -8.1618502736e-03, -9.7561225295e-02, -7.9082557932e-03, -1.8868254498e-02,  8.5351526737e-02, -8.9935444295e-02, -3.6406781524e-02, -9.3905650079e-02, 
	-1.6692937352e-03, -5.3130178712e-03, -9.5518387854e-02, -1.1336440220e-02,  4.4717129320e-02,  4.7845225781e-02,  8.9211292565e-02, -8.8576428592e-02, -8.7248392403e-02,  3.7386875600e-02, 
	-7.5490370393e-02,  4.0298510343e-02, -5.0239060074e-02, -5.7029113173e-02, -7.8688353300e-02,  4.4269692153e-02, -3.5682566464e-02, -2.8872739058e-03,  9.7786914557e-04, -9.1551654041e-02, 
	-3.7095598876e-02,  1.0756748915e-01,  1.2325416319e-02, -4.8100128770e-02, -1.0871398263e-02,  5.8534655720e-02,  2.1014332771e-02, -7.4688002467e-02, -2.4502731860e-02, -9.9491864443e-02, 
	 6.9910883904e-02,  4.5811828226e-02,  9.8587498069e-02, -8.6112730205e-02, -6.6608615220e-02,  8.9125916362e-02, -2.1472726017e-02,  3.9836790413e-02, -1.0272566974e-01,  6.6444560885e-02, 
	-3.1204581261e-02,  7.2070755064e-02, -2.4784864858e-02, -9.3370057642e-02,  3.4937986638e-03, -6.9765292108e-02,  8.2848459482e-02, -3.8697898388e-02, -5.4902933538e-02, -2.3165814579e-02, 
	 2.2943774238e-02, -7.5186736882e-02,  3.5249963403e-02,  8.3273552358e-02, -9.3353867531e-02,  2.5413250551e-03,  2.6753852144e-02,  9.7406171262e-02,  1.0460690409e-01,  5.9870064259e-02, 
	-2.7054859325e-02, -5.0224792212e-02, -7.3671564460e-02,  8.9471466839e-02,  6.7288838327e-02, -4.9205821007e-02,  7.0467300713e-02, -1.2207672000e-02, -6.2673166394e-02, -7.8935828060e-03, 
	 5.4097197950e-02,  2.5015570223e-02, -5.7748015970e-02, -3.9267195389e-03, -9.9054560065e-02,  1.0205874592e-01, -9.9190119654e-03, -6.4956970513e-02,  5.9780213982e-02, -8.2916967571e-02, 
	-8.8119423017e-03,  3.9436340332e-02, -2.4151915684e-02, -8.9116945863e-02, -3.0685598031e-02,  2.2365648299e-02, -6.4358008094e-03,  4.1708610952e-03, -2.2440012544e-02,  3.8681759033e-03, 
	-7.8835576773e-02,  1.0076976568e-01,  4.5749988407e-02, -5.5674266070e-02, -2.7583314106e-02,  5.9587482363e-02, -2.2457990795e-02,  6.2291771173e-02, -1.6180414706e-02, -3.4410569817e-02, 
	 4.8681329936e-02, -4.4360160828e-03,  3.9718367159e-02, -4.5366879553e-02,  3.5983566195e-02,  5.1210112870e-02, -2.0825961605e-02, -4.9619458616e-02, -4.6870103106e-03,  5.7196442038e-02, 
	 3.3929947764e-02,  5.6400179863e-02, -2.7132024989e-02, -3.7412747741e-02, -4.6432085335e-02, -5.8266788721e-02,  3.5818301141e-02,  7.8135125339e-02,  7.7401585877e-02, -1.0010387748e-01, 
	 5.7435777038e-02,  7.1172676980e-02, -9.3949742615e-02, -3.1812869012e-02, -7.5603149831e-02,  8.2995444536e-02,  9.3848861754e-02, -1.3465511613e-02,  5.3461931646e-02, -7.5649991632e-02, 
	 1.2103804387e-02,  1.0829275846e-01,  8.4228500724e-02,  5.4670926183e-02,  8.6779028177e-02,  7.1332708001e-02, -3.0956165865e-02, -9.1015927494e-02,  2.6396748144e-03,  7.8418850899e-02, 
	-3.0960977077e-02, -7.8587837517e-02,  6.3685797155e-02, -8.8176034391e-02,  5.5409941822e-02, -7.8814581037e-02,  8.7768338621e-02,  9.5522053540e-02, -8.5248753428e-02, -9.4785347581e-02, 
	-6.5472699702e-02, -7.1569211781e-02,  1.9112247974e-02,  4.6906646341e-02, -3.8395810872e-02, -4.2122411542e-03, -8.3250664175e-02,  3.0389923602e-02,  9.9849261343e-02, -9.8100528121e-03, 
	-4.4455334544e-02,  6.9644600153e-02,  6.4955286682e-02, -4.3270257302e-03, -7.1765691042e-02,  2.0506441593e-02, -4.8435747623e-02, -9.1738186777e-02,  4.5327518135e-02, -1.0397634655e-01, 
	 8.1511840224e-02,  7.7099166811e-02,  9.4448747113e-03,  3.5902868956e-02, -9.6491649747e-02, -1.0842861980e-01, -1.0825049877e-01,  3.1740259379e-02, -2.6381332427e-02,  4.1985183954e-02, 
	-3.2150011975e-03, -1.2132168747e-02, -6.9582343102e-02,  3.9255224168e-02, -5.0555928610e-03,  7.3449134827e-02,  8.7743408978e-02, -1.0247935355e-01, -7.0739105344e-02, -3.1672392040e-02, 
	 3.3848337829e-02, -6.6138751572e-04,  5.9479702264e-02,  7.7670268714e-02, -8.0396495759e-02, -5.3683020175e-02, -1.9993126392e-02, -5.3378596902e-02,  9.0580895543e-02, -3.3156041056e-02, 
	 8.5051301867e-03,  7.9421766102e-02, -2.6004295796e-02, -7.3723919690e-02, -6.1973113567e-02, -7.8262150288e-02, -9.0305194259e-02, -7.6181619079e-05, -1.9166562706e-02,  5.7754967362e-02, 
	 2.1056553349e-02,  9.9212743342e-02,  2.9559865594e-02, -2.4993618950e-02,  6.8746693432e-02,  6.8477541208e-02, -2.9508527368e-02,  1.4572738670e-02, -2.8384558856e-02,  4.4790327549e-02, 
	-2.8023222461e-02,  4.4689770788e-02, -5.8464609087e-02, -5.3105093539e-02, -2.1579703316e-02, -1.4212221839e-02, -5.0959981978e-02, -7.9567015171e-02,  3.3887565136e-02,  1.0579548031e-01, 
	-2.2223882377e-02, -9.1674946249e-02, -3.1742274761e-02, -8.7428815663e-02, -6.3275426626e-02, -1.9875261933e-02, -1.0078798980e-02, -3.9496336132e-02, -1.4860205352e-02,  4.0931232274e-02, 
	 1.1794309318e-01,  2.1169953048e-02,  6.2205269933e-02,  4.0137417614e-02, -2.4369951338e-02,  6.9986686110e-02, -5.0253201276e-02, -5.5265802890e-02, -7.5810700655e-02,  6.6520139575e-02, 
	-8.0530039966e-02,  4.8205601051e-03, -3.4058585763e-02, -7.8709326684e-02, -4.1762113571e-02,  9.5086425543e-02,  2.7797603980e-02,  1.1840497144e-02, -1.6180416569e-02, -5.6351348758e-02, 
	-7.3985606432e-02,  5.2091378719e-02,  3.5524383187e-02,  8.0085359514e-02, -3.7495763972e-03,  1.0005588084e-01, -1.7315633595e-02,  8.0361410975e-02, -4.7526180744e-02, -6.8583957851e-02, 
	 3.7208478898e-02,  8.1049598753e-02, -3.6542035639e-02,  3.0053338036e-02,  4.4324740767e-02,  9.0465918183e-02, -6.0546502471e-02, -4.8535756767e-02,  7.0506200194e-02,  7.5342357159e-02, 
	 6.8205326796e-02,  6.7343667150e-02, -1.9401218742e-02,  8.8483333588e-02, -7.5918035582e-03,  1.2913011014e-02,  6.4814642072e-02,  9.9896115717e-04, -9.2064663768e-02, -2.5335656479e-02, 
	-9.6816167235e-02, -5.2456386387e-02,  1.4144638553e-02, -2.4320606142e-02,  1.1029794812e-01, -9.5044314861e-02,  2.1254323423e-02,  5.5593054742e-02,  4.9775745720e-02, -4.7948148102e-02, 
	-8.9072538540e-03, -4.1613053530e-02, -1.9789426588e-03, -1.4838604257e-02,  2.1884504706e-02,  4.4316779822e-02,  5.0968166441e-02,  1.7370859161e-02,  1.9237855449e-02, -4.7846853733e-02, 
	-1.8754636869e-02, -6.8896159530e-02, -7.4661605060e-02,  1.3285573572e-02, -8.2252807915e-03, -1.0460539907e-01, -9.9289849401e-02, -5.8654412627e-02,  9.0222619474e-02, -6.0148984194e-02, 
	-3.0823033303e-02, -4.1977424175e-02, -5.0039429218e-02, -5.4766479880e-02, -4.6339821070e-02, -7.2042107582e-02,  6.0743436217e-02, -4.3506957591e-02, -5.1851663738e-02,  1.1242956668e-01, 
	-1.4572798274e-02,  9.9332563579e-02,  3.9874315262e-03,  6.8780116737e-02, -5.1607936621e-02, -7.1273118258e-02, -5.9510408901e-03,  4.6324644238e-02,  8.0497846007e-02, -9.3988791108e-02, 
	 8.9930921793e-02,  1.2029157020e-02,  1.6718039289e-02, -6.4415790141e-02, -6.1492275447e-02, -7.1102809161e-03,  9.2801302671e-02, -5.2635710686e-02, -6.4806722105e-02,  5.9370473027e-02, 
	 7.4307143688e-02,  9.3039020896e-02,  2.2722786292e-02,  8.4063455462e-02, -1.9419446588e-02, -4.3066237122e-02,  4.3345935643e-02,  1.0364285111e-01,  6.9690190256e-02,  7.7987974510e-03, 
	 5.3361602128e-02,  1.0316921771e-01, -1.0041417927e-01, -6.6623403691e-03,  5.5645626038e-02,  1.5165067278e-02,  5.2774291486e-02,  3.1104078516e-02, -1.6161005944e-02,  1.6400068998e-02, 
	 5.4214295000e-02, -6.1191342771e-02,  9.8174527287e-02,  6.7920513451e-02,  1.8213610165e-03, -6.2742121518e-03, -9.6853366122e-03,  7.2273671627e-02, -7.6352864504e-02, -4.7715187073e-02, 
	-8.2578904927e-02,  1.0985589772e-01, -1.0559507459e-01,  7.7411301434e-02, -1.9249217585e-02, -2.7159418911e-02,  8.9530512691e-02,  6.1221826822e-02,  4.9698468298e-02, -8.6995307356e-03, 
	-1.0283728689e-01,  7.2031326592e-02, -9.9307946861e-02,  8.5283577442e-02,  3.0239382759e-02,  7.9947588965e-03,  1.0794198606e-03,  1.0822198540e-01,  8.1690423191e-02,  6.5468005836e-02, 
	-8.0807231367e-02, -6.2896101736e-03, -5.4920345545e-02, -8.5125826299e-02, -9.3806482852e-02,  3.9593994617e-02,  9.8188212141e-03,  8.1966146827e-02, -1.6369339079e-02,  8.4918271750e-03, 
	 9.7030669451e-02,  5.6641850621e-02,  5.6911807507e-02,  3.4191556275e-02,  4.8627816141e-02,  4.4952642173e-02,  4.1770961136e-02, -5.9076186270e-02, -6.9377824664e-02,  1.0115826875e-01, 
	 1.0703050345e-01,  1.2780809775e-02, -6.5497867763e-03, -6.1443604529e-02, -7.8917331994e-02, -2.2875901312e-02, -8.5870869458e-02, -2.8487922624e-02, -5.1025748253e-02, -7.8498661518e-02, 
	 9.8336488008e-02, -6.7945137620e-02, -2.6695143431e-02, -8.1726022065e-02,  8.0976836383e-02,  8.2705348730e-02, -2.5507701561e-02, -1.6679771245e-02,  7.6098449528e-02,  2.7916705236e-02, 
	 7.0423685014e-02,  7.2399199009e-02, -3.2621867955e-02,  2.4226587266e-02, -2.2008344531e-02, -4.6463854611e-02,  7.9736419022e-02, -6.2000364065e-02, -4.1013702750e-02,  9.5848813653e-02, 
	-1.5437184833e-02, -9.4824880362e-02,  1.0794033110e-01, -2.9417699203e-02,  1.0170906782e-01, -3.8762949407e-02, -8.9862681925e-02,  1.4105268754e-02, -4.7408040613e-02,  7.2553113103e-02, 
	-1.0660617799e-01,  2.8903137427e-03, -2.4175070226e-02,  8.4643393755e-02, -4.1403487325e-02, -4.0061932057e-02,  4.6222083271e-02,  2.5694148615e-02, -1.0769008845e-01,  6.9951087236e-02, 
	 8.9135117829e-02, -9.8456047475e-02,  5.2687596530e-02, -5.3573485464e-02,  2.4686047807e-02, -7.6610580087e-02, -2.2682040930e-02,  9.7620904446e-02,  2.7931841090e-02,  5.5495109409e-02, 
	-9.5332071185e-02, -8.1934548914e-02,  7.2874106467e-02,  4.1101910174e-02,  6.5664522350e-02,  9.4606459141e-02,  4.0148135275e-02,  5.3827527910e-02,  1.1636914313e-01, -3.3160470426e-02, 
	-8.0439254642e-02,  1.4506608713e-03, -7.6971709728e-02, -5.2338581532e-02, -1.0422153398e-02, -4.6880081296e-02, -5.5446568877e-02, -9.5157824457e-02,  7.3505811393e-02,  7.0750683546e-02, 
	 1.2241105549e-02,  2.5345208123e-02, -2.7896028012e-02, -1.2816169299e-02, -9.1716358438e-03,  5.7780932635e-02,  1.3433474116e-02, -9.5597386360e-02, -7.8714236617e-02, -3.2668828964e-02, 
	 1.0117496550e-01, -9.4325244427e-02,  9.9943667650e-02, -6.1561573297e-02, -9.1412447393e-02, -1.5246873721e-02, -6.0015995055e-02, -7.7283619903e-03, -1.6586771235e-02, -4.0003977716e-02, 
	-4.1243374348e-02, -6.8385079503e-02, -4.3018136173e-02,  4.0196727961e-02,  2.8805408627e-02,  7.2915613651e-02,  9.3605764210e-02, -3.5575136542e-02,  1.0589147918e-02, -4.2579814792e-02, 
	-3.0560677871e-02,  6.1092212796e-02,  9.5409125090e-02,  3.4389000386e-02,  1.7889447918e-04, -2.7762209997e-02,  8.1435345113e-02,  6.1614289880e-02,  1.2915388681e-02, -8.7055467069e-02, 
	-5.9980183840e-02, -6.1753094196e-02, -1.0310350917e-02, -2.0719243214e-02,  8.3084195852e-02,  2.0707281306e-02,  1.5349043533e-02, -7.1841381490e-02,  5.2737589926e-02,  8.7247341871e-03, 
	 3.9840165526e-02,  7.8209884465e-02,  2.7766242623e-02,  7.7392384410e-02, -2.8601380065e-02,  6.7112825811e-02,  7.4835163541e-03,  6.1322528869e-02, -7.3612779379e-02,  5.6020829827e-02, 
	-7.2019316256e-02, -8.9587204158e-02,  1.0654725879e-01,  8.6414694786e-02,  3.1091460958e-02,  6.1385679990e-02,  1.4283761382e-02,  4.2593933642e-02, -2.9198965058e-02,  7.5796827674e-02, 
	-5.4301466793e-02,  2.8210649267e-02,  9.9557429552e-02,  1.0830602050e-01,  3.5802759230e-02, -2.6936419308e-02, -4.3850094080e-02,  5.6138318032e-03, -2.2871887777e-03, -4.4775336981e-02, 
	-3.6255843937e-02,  1.5013224445e-02,  2.8023252264e-02,  5.6718058884e-02, -7.0455752313e-02,  1.0125908069e-02,  3.6480993032e-02,  4.3569758534e-02, -9.3024946749e-02, -5.0735478289e-03, 
	-3.7766054273e-02,  1.1161138862e-01, -4.5622207224e-02,  7.1712389588e-02,  1.0424239933e-01, -3.6214753985e-02, -3.9212167263e-02,  7.0938013494e-02, -3.1987931579e-02, -9.7887620330e-02, 
	 3.5742126405e-02,  5.1421977580e-02, -1.9332885742e-02, -1.9016817212e-02,  5.6253518909e-02,  2.6555119082e-02,  4.9484785646e-02, -1.0571548343e-01,  1.1182987131e-02,  8.0375112593e-02, 
	 6.9584451616e-02,  1.9399297889e-03,  9.0008579195e-02,  6.4737405628e-03, -2.4826509878e-02,  6.4719401300e-02, -1.0380850174e-02, -8.2289993763e-02,  8.8908284903e-02, -1.2139800005e-02, 
	 3.9536058903e-02,  1.9045569003e-02,  2.7318213135e-02, -1.0415540636e-01,  4.4955305755e-02,  7.4237614870e-02,  4.2294222862e-02, -8.9402504265e-02,  5.9704683721e-02, -3.0552873388e-02, 
	 8.6759984493e-02, -3.4116022289e-03,  3.5311307758e-02, -6.1277788132e-02,  5.0030350685e-02, -7.0894226432e-02,  8.5401818156e-02,  9.7239963710e-02,  7.9200312495e-02, -8.4611445665e-02, 
	 8.3555132151e-03, -8.9667432010e-02,  1.0916890949e-01,  8.2305476069e-02,  7.0300780237e-02,  8.1011123955e-02, -7.0811584592e-02, -5.3802203387e-02, -1.5610893257e-02,  9.1618243605e-03, 
	-1.7531093210e-02, -1.0642578453e-01,  8.3251170814e-02, -8.8056094944e-02, -1.0242448002e-01, -1.0539596528e-01, -9.4799257815e-02,  9.0792745352e-02,  5.0975099206e-02, -5.5221557617e-02, 
	 6.9795213640e-02,  7.5554564595e-02, -4.8971503973e-02,  1.6761736944e-02, -3.4916363657e-02, -1.0817225277e-01,  2.3816701025e-02, -4.2533908039e-02, -1.1010096967e-01, -1.4038084075e-02, 
	 1.3400128810e-03, -4.1829902679e-02,  1.0547701269e-01,  6.0473367572e-02,  3.4292243421e-02,  4.1394788772e-02, -4.2372263968e-02,  2.1145036444e-02,  3.5111222416e-02, -1.0017015040e-01, 
	 2.0125422627e-02, -8.5597880185e-02, -2.0706208423e-02, -4.4056713581e-02,  3.6104004830e-02, -2.9741125181e-02, -9.6252039075e-02,  1.0184345394e-01, -5.8517321944e-02,  9.0287834406e-02, 
	-4.8821501434e-02,  3.1236520037e-02,  3.5788368434e-02,  3.7342697382e-02, -8.7646041065e-03, -7.9381456599e-03,  6.7201942205e-02, -6.1905462295e-02, -4.6591907740e-02,  7.6028719544e-02, 
	-6.6092796624e-03, -3.5302132368e-02, -8.7740622461e-02,  6.5296918154e-02,  5.0158933736e-03,  2.9007008299e-02, -1.0857178830e-02,  8.5158884525e-02, -9.8735727370e-02,  5.0522495061e-02, 
	-9.6750026569e-03,  6.6370093264e-03,  6.2940955162e-02, -2.4779051542e-02,  2.2666087374e-02,  1.5777302906e-02,  8.4396831691e-02,  6.4662271179e-03, -7.3047876358e-02,  5.7948816568e-02, 
	-5.9586610645e-02,  6.9806672633e-02, -4.0568232536e-02, -9.9936880171e-02,  2.3379644379e-02,  4.7618854791e-02, -1.1455277354e-01,  8.5107915103e-02, -4.8829726875e-02,  5.4020613432e-02, 
	-5.5519897491e-02,  6.3655838370e-02,  8.4969997406e-02,  3.6337867379e-02, -2.8564719483e-02,  9.2216506600e-03, -1.0107026994e-01,  9.2910870910e-02,  2.5975873694e-02, -2.6163395494e-02, 
	 3.4651521128e-03, -1.0063881427e-01,  6.3189111650e-02, -2.5975981727e-02,  5.7569136843e-03,  4.0276505053e-02, -5.4467353970e-02, -1.3899288140e-02,  3.1831279397e-02, -8.9463628829e-02, 
	 2.4758279324e-02, -9.4976224005e-02,  4.6298086643e-02,  3.0074909329e-02, -3.6233849823e-02,  4.0662065148e-02,  8.9178927243e-02,  8.8842520490e-03, -2.0093612373e-02, -7.2502672672e-02, 
	 7.3182187974e-02, -1.0062263347e-02, -8.0974865705e-03, -8.8496290147e-02,  3.6578595638e-02, -1.8898185343e-02,  7.3478028178e-02, -1.0589373857e-01, -1.0666938871e-01, -6.4798586071e-02, 
	-1.4560848475e-02, -8.5870642215e-03, -6.4650967717e-02,  3.4630059963e-04,  1.9291598350e-02,  1.0149368644e-01, -1.0856465250e-01,  9.1552110389e-03, -8.2366593182e-02,  6.2450569123e-02, 
	 9.1976411641e-03,  3.6220185459e-02,  5.1937885582e-02,  8.4093071520e-02, -8.3079174161e-02,  8.4022626281e-02, -2.2297317162e-02,  6.0733627528e-02, -2.1963356063e-02, -4.5492388308e-02, 
	 4.9781870097e-02, -2.9634509236e-02, -1.3525613584e-02,  5.0531558692e-02,  5.6780930609e-03, -6.6680252552e-02, -4.7404147685e-02,  7.7222257853e-02, -3.9350360632e-02,  8.5825756192e-02, 
	 1.8049919978e-02,  7.2071462870e-02, -9.6524789929e-02, -4.3941110373e-02,  6.2359850854e-02,  4.1678994894e-02,  8.4102123976e-02, -6.5545715392e-02,  3.8503312971e-03, -3.9303850383e-02, 
	 8.4522299469e-02, -6.4356170595e-02, -2.4563977495e-02, -3.3138927072e-02, -6.7192532122e-02,  7.1957521141e-02, -1.0419712216e-01,  6.4915798604e-02,  7.4584178627e-02,  8.0114014447e-02, 
	-5.0124414265e-02, -1.6894899309e-02,  1.5841146931e-02, -7.5045846403e-02,  2.3712551221e-02, -6.9878734648e-02, -5.9705268592e-02,  7.1694232523e-02, -9.4444185495e-02,  4.9267299473e-02, 
	 3.4191843122e-02,  9.1814383864e-02,  3.9817005396e-02,  1.1356358416e-02, -2.9344821349e-02,  3.8934968412e-02,  2.2226138040e-02, -1.0479754210e-01,  6.9179870188e-02, -1.6520099714e-02, 
	 2.2028149106e-03,  8.3442941308e-02, -6.7162804306e-02,  4.2702943087e-02, -4.0485210717e-02, -2.9301568866e-02,  7.1233935654e-02, -1.4125066809e-02,  1.6631027684e-02,  2.1230892744e-03, 
	-8.3173066378e-02,  3.6097027361e-02, -1.8277712166e-02, -4.4431485236e-02,  7.1264773607e-02, -4.3677125126e-02, -1.0803768784e-01, -7.4415951967e-02, -1.0114976764e-01, -9.1036275029e-02, 
	-5.8136492968e-02, -9.2493742704e-02,  1.2298548594e-02, -2.9096715152e-02,  5.4425343871e-02,  8.8033847511e-02, -2.3380367085e-02,  3.8744237274e-02,  5.4630778730e-02, -9.8516874015e-02, 
	 6.9292053580e-02, -7.0841513574e-02,  1.0636234283e-01,  3.0834581703e-02,  8.3080053329e-02, -1.0051947832e-01,  7.1564212441e-02,  6.7405462265e-02, -6.7747689784e-02,  2.3030243814e-02, 
	 9.5900796354e-02,  7.4551835656e-02, -7.6773084700e-02, -1.8748695031e-02, -7.6240725815e-02, -9.9727613851e-03,  9.7363116220e-03,  9.1057643294e-03,  6.1442438513e-02, -3.0630014837e-02, 
	 8.4494329989e-02,  8.4718070924e-02,  9.2575103045e-02, -5.5768929422e-02, -7.3076613247e-02,  5.9423603117e-02, -1.0894539207e-01,  3.2032623887e-02,  3.4556828439e-02,  5.6130744517e-02, 
	 8.6384624243e-02,  9.8727434874e-02, -7.0645718370e-04,  5.6175019592e-02,  1.5485576354e-02,  6.1703749001e-02, -7.8610964119e-02,  3.4158792347e-02, -7.0858038962e-02,  6.4861506224e-02, 
	 9.8269738257e-02,  2.5903031230e-02,  7.9958319664e-02,  9.0792916715e-02, -6.3995637000e-02, -3.4891635180e-02, -7.4043691158e-02, -1.0433377326e-01, -6.1897989362e-02,  4.3263658881e-02, 
	-7.3610611260e-02,  7.5280137360e-02, -9.6387088299e-02, -4.3758805841e-02,  2.9978624079e-03,  4.4697206467e-02, -3.8607791066e-02,  1.8303558230e-02,  3.1230242923e-02,  2.3817135021e-02, 
	-5.8143448085e-02, -7.3969714344e-02,  9.7608663142e-02, -7.9158596694e-02,  6.6578634083e-02,  5.6174129248e-02,  8.1119634211e-02, -9.4147808850e-02,  9.4179175794e-02, -7.6747961342e-02, 
	-3.2969467342e-02,  7.4290767312e-02,  3.9240617305e-02,  5.5118680000e-02,  4.1903909296e-03,  7.5609318912e-02, -4.2334426194e-02, -7.9634487629e-03, -7.1862235665e-02,  8.3801753819e-02, 
	 2.7658196166e-02, -1.0676700622e-01,  2.1015424281e-02, -5.2231263369e-02,  3.0586851761e-02,  1.7850968987e-02,  3.1900346279e-02,  2.5791103020e-02,  9.3866482377e-02, -1.8828703091e-02, 
	-8.9991033077e-02, -8.0097049475e-02,  2.0053405315e-02, -5.4331656545e-02, -9.4018042088e-02,  2.7451369911e-02, -5.2832495421e-02, -9.4317406416e-02,  3.6676615477e-02, -3.6526780576e-02, 
	-6.4674094319e-03, -5.2462376654e-02, -6.7949146032e-02,  3.2623119652e-02, -4.7711157240e-03,  9.5440089703e-02,  2.5736821815e-02,  6.4566127956e-02, -8.7698318064e-02, -4.5888863504e-02, 
	-8.6909532547e-02, -5.3076688200e-02, -2.5304419920e-02, -9.0757213533e-02, -5.7088285685e-03,  6.5423280001e-02,  1.3378449716e-02,  3.9769262075e-02,  1.0003205389e-01, -2.0237121731e-02, 
	 7.4738942087e-02,  9.4986550510e-02,  7.5179226696e-02, -9.8862625659e-02, -7.9860776663e-02,  6.8083427846e-02,  8.7406314909e-02, -5.6066889316e-02,  1.6131062061e-02,  1.5046799555e-02, 
	 3.5364113748e-02, -6.4562715590e-02, -8.4521710873e-02,  4.6030003577e-02,  6.5631270409e-02, -6.4647071064e-02,  1.0391455144e-01, -1.0531658679e-01,  8.0922372639e-02,  7.0009879768e-02, 
	 4.8441279680e-02,  5.8233506978e-02,  8.1004604697e-02,  1.3016401790e-03,  6.0874591582e-03,  9.9455870688e-02, -8.9059501886e-02, -6.7992299795e-02,  8.8922567666e-02, -9.6764355898e-02, 
	-2.0505990833e-02, -1.0937651619e-02, -5.4132785648e-02, -2.0468926057e-02,  4.5170575380e-02,  7.8789137304e-02,  4.9386736006e-02, -3.9435803890e-02, -2.6960503310e-03, -1.8914833665e-02, 
	 4.1035510600e-02,  7.0814192295e-02,  8.1469610333e-02, -7.6646640897e-02,  2.3348223418e-02,  1.3988368213e-02,  6.7413762212e-02,  5.1354508847e-02, -5.5869538337e-02,  3.1174801290e-02, 
	-8.3509348333e-02, -1.4365026727e-02,  1.0445519537e-01,  7.0125579834e-02,  4.7576952726e-02, -9.5156215131e-02,  6.0309529305e-02,  6.7844077945e-02,  6.5334782004e-02, -3.5862486809e-02, 
	 7.6655626297e-02,  7.7439211309e-02,  8.5116349161e-02,  3.1478784978e-02,  6.4965002239e-02,  1.1608720757e-02,  7.6139107347e-02, -1.7511600163e-03, -1.0558717698e-01, -8.1998199224e-02, 
	 2.8209237382e-02,  1.0324880481e-01, -1.8174495548e-02,  1.0176206008e-02,  4.7085050493e-02, -6.0554306954e-02,  1.3335222378e-02,  9.3455068767e-02,  3.1838044524e-02, -8.5644647479e-02, 
	-4.1465584189e-02, -3.4045130014e-02, -1.6226755455e-02,  2.5207281578e-03, -7.6544001698e-02,  7.4365340173e-02,  4.1847959161e-02,  5.4546087980e-02,  1.0650067776e-01, -6.1247136444e-02, 
	 5.1893692464e-02,  1.3096404262e-02, -3.3754654229e-02, -1.2153056450e-02, -1.8375813961e-02,  2.5851555169e-02,  5.7586595416e-02, -4.4454485178e-02, -4.2057853192e-02,  1.0463723540e-01, 
	 7.7191166580e-02,  8.6610183120e-02, -5.1855772734e-02, -9.3125589192e-02,  3.9249405265e-02, -7.3174275458e-03,  5.1565345377e-02,  7.8993044794e-02, -1.9633980468e-02,  3.4205224365e-02, 
	-5.3407691419e-02, -7.3903344572e-02, -7.6600730419e-02, -7.0470035076e-02, -5.1741909236e-02,  6.4665223472e-03,  1.6238640994e-02,  3.7189297378e-02, -5.6180570275e-02, -4.1060961783e-02, 
