#ifndef PARAMS_CONV2D_TRANSPOSE_30_H
#define PARAMS_CONV2D_TRANSPOSE_30_H
#include "params.h"

const float layer_30_conv2d_transpose_weight[UNET_PAR_30_CONV2D_TRANSPOSE_KERNEL_Y*UNET_PAR_30_CONV2D_TRANSPOSE_KERNEL_X*UNET_PAR_30_CONV2D_TRANSPOSE_IN_FILTER*UNET_PAR_30_CONV2D_TRANSPOSE_OUT_FILTER] = {
	-1.9648393989e-01, -2.1885327995e-01, -5.7755205780e-02,  3.1564321369e-02,  8.5656367242e-02,  5.6977335364e-02, -4.1766278446e-02,  1.3860054314e-01,  8.9612878859e-02, -1.5180581808e-01, 
	 8.4255924448e-03, -2.0715519786e-01, -3.2845935784e-03,  2.5078895688e-01,  1.3583412766e-01,  2.6076696813e-02, -5.1595967263e-02,  5.0503209233e-02,  5.2118673921e-02, -2.0457197726e-01, 
	-1.3288535178e-01, -1.0035197437e-01, -3.4982372075e-02, -2.6421612129e-02,  9.0191438794e-02, -2.3183435202e-02,  1.0494677722e-01, -1.7712375522e-01,  1.0597191006e-01,  4.3125163764e-02, 
	 1.0794264264e-02,  2.7212301269e-02, -1.2402995676e-01, -1.0152051598e-01, -9.0745538473e-02, -1.7985521257e-01, -1.5924569964e-01,  3.7624102086e-02, -4.7574721277e-02, -1.7296747863e-01, 
	-9.9578283727e-02, -2.4039091542e-02, -1.7009173334e-01, -3.1170725822e-02,  5.5450953543e-02,  1.4369314909e-01,  9.6760131419e-02, -2.6256552339e-01, -1.2148075551e-01, -2.2310931236e-02, 
	 6.9515869021e-02,  1.0388381779e-01, -1.2236868031e-02, -1.3708202168e-02,  2.9971215874e-02, -4.8332484439e-03, -7.7038422227e-02,  3.9389621466e-02, -2.5304850936e-01,  7.7991612256e-02, 
	 1.3649820350e-02, -9.5020055771e-02, -1.8493460491e-02,  2.6477586478e-02,  6.4827345312e-02,  6.1780598015e-02, -6.3762940466e-02,  8.7286323309e-02, -2.9983792454e-02, -9.2728830874e-02, 
	-8.4856845438e-02, -1.3143305480e-01, -4.1234660894e-02,  8.4219314158e-02,  1.2350590527e-01, -8.2078976557e-03,  2.2673809901e-02, -5.6378807873e-02,  4.7295644879e-02,  1.0981119424e-01, 
	 3.1725183129e-02,  1.0292772949e-01, -3.4588862211e-02, -4.1453719139e-02,  1.9415631890e-01,  5.2901737392e-02,  6.1325810850e-02,  1.3070385903e-02,  1.4748619497e-01, -1.4078347385e-01, 
	 4.4864274561e-02, -1.4745031297e-01,  6.9868683815e-02, -1.9271379337e-02, -5.2631281316e-02, -9.3960702419e-02, -8.6296781898e-02, -1.0551840067e-02,  4.6707663685e-02, -8.5257366300e-02, 
	-4.3178215623e-02, -7.7435463667e-02,  1.0612157732e-01, -1.0897023976e-01, -7.3018118739e-02,  1.6284662485e-01,  1.1224781722e-01,  9.0380825102e-02, -8.5496865213e-02, -2.4883894622e-01, 
	-2.7803188190e-02, -6.7011505365e-02,  2.0062835887e-02, -5.5362302810e-02, -1.7405210435e-01, -1.3943891227e-01,  7.5426310301e-02,  5.9552676976e-02, -1.5113154426e-02,  7.0590838790e-02, 
	 1.2576007284e-02, -7.1493744850e-02, -1.0164126754e-01, -5.9270985425e-02, -1.5983334184e-01, -6.7518346012e-02, -7.7670037746e-02,  4.4766068459e-03, -3.5101655871e-02, -1.0918468237e-01, 
	 5.4192494601e-02, -2.4992233515e-01, -4.0032889694e-02,  1.1328876019e-01, -1.2222173810e-01,  8.0714493990e-02, -5.9106018394e-02, -2.6263006032e-02, -2.6027763262e-02, -1.7369432747e-01, 
	-4.6650037169e-02, -1.1070328765e-02, -1.3892342150e-01, -1.2195242941e-01,  1.0298477113e-01,  1.5769435465e-01,  1.7864900827e-01,  3.7704877555e-02, -1.0192220099e-02, -2.0558546484e-01, 
	-1.0817004740e-01, -1.0806076229e-01, -3.6122161895e-02,  1.5930891037e-01,  6.8527154624e-02, -4.5950289816e-02,  1.2084886432e-01,  1.7658290267e-01, -1.1382759362e-01,  9.1589003801e-02, 
	 1.0107945651e-01,  1.6933876276e-01, -1.4090272784e-01, -1.3094097376e-03, -9.2342622578e-02, -1.9844911993e-01, -7.2572238743e-02, -1.2939028442e-01, -5.6464201771e-03, -7.0335783064e-02, 
	 1.6455228627e-01,  9.6899509430e-02, -1.7398744822e-02,  1.4480176568e-01, -2.8300853446e-02, -2.3750098050e-01,  3.0135480687e-02,  5.7416483760e-03,  1.5801043808e-01, -4.2041409761e-02, 
	-1.4460653067e-01, -1.2549215555e-01,  2.8420306742e-02, -3.0249509215e-01, -3.2905846834e-02,  7.0180542767e-02,  4.9919174053e-03,  1.7986758612e-03, -7.1037471294e-02, -1.0564994067e-01, 
	 6.0592494905e-02, -7.9644635320e-02,  2.7566310763e-01, -9.5819368958e-02,  8.4878429770e-03, -1.1471939087e-01, -9.9995203316e-02,  1.0606417060e-01,  5.5122993886e-02,  3.9036270231e-02, 
	 1.3027592003e-01,  1.6483915970e-02,  2.5160748512e-02, -7.8223265707e-02, -5.6455306709e-02,  9.0294256806e-03, -9.5780238509e-02,  1.2010371685e-01, -3.1832918525e-02, -1.1693113483e-02, 
	-7.2777785361e-02, -3.5819181358e-04,  9.3222320080e-02,  1.4111441374e-01, -4.3637193739e-02, -1.2190720439e-01, -7.2169512510e-02,  1.2910911441e-01,  8.7706465274e-03, -1.1664926261e-01, 
	 2.3875432089e-02,  1.1887782812e-01,  7.8110457398e-03, -9.3867070973e-02,  6.6820204258e-02,  3.8257896900e-02, -5.1419381052e-03, -5.9540484101e-02,  8.5796035826e-02,  2.7241108939e-02, 
	 8.5115335882e-02, -6.4107038081e-02,  1.0536258668e-01,  7.7866539359e-02, -1.0418290645e-01, -2.1748626605e-02, -6.1058588326e-02, -5.9237636626e-02, -9.5471888781e-02, -8.8763803244e-02, 
	-1.8039093912e-01, -3.5442721099e-02,  9.8983431235e-03,  1.6017191112e-01, -1.5662042797e-01, -7.4747003615e-02, -1.0633780807e-01,  4.3945714831e-02, -1.3726685196e-02,  1.0711000860e-01, 
	 5.1768805832e-02,  3.9960639551e-03,  1.0058285296e-01,  4.6607203782e-02,  1.8377637863e-01,  1.2542961538e-01, -1.0188052058e-01,  1.6011129320e-01, -1.5957135707e-02, -6.5935146995e-03, 
	-1.8673720956e-01,  8.1089638174e-02,  3.2476820052e-03,  5.7243570685e-02, -1.8963079154e-01,  9.1883115470e-02, -2.2300966084e-02, -3.2183922827e-02,  7.9450547695e-02,  5.0618946552e-02, 
	 5.8724161237e-02, -8.6591199040e-02,  5.1348250359e-02, -2.9025053978e-01, -7.4099294841e-02, -1.6323717311e-02, -5.0991382450e-02, -2.6986351237e-02, -1.5180549026e-01, -1.9927775860e-01, 
	-1.7950086296e-01, -6.4856208861e-02, -1.8635369837e-01, -1.6719157994e-01,  5.9507455677e-02, -6.9696977735e-02,  8.3098940551e-02,  1.7275989056e-02, -8.3491288126e-02, -4.1255790740e-02, 
	-1.4653892815e-01, -4.5806296170e-02,  1.3172453642e-01, -1.3300655782e-01, -5.1133763045e-02,  9.6164457500e-02, -1.8029219937e-03,  1.7406205833e-01, -8.2977674901e-03,  4.3743632734e-02, 
	 8.8502191007e-02, -1.2565068901e-02, -1.7353919148e-01, -2.2633938119e-02, -4.0248893201e-02, -1.0992988944e-02,  3.9550360292e-02, -1.8308283761e-02, -1.5261870623e-01, -1.5779145062e-01, 
	 2.4701897055e-02, -1.1852943152e-01,  1.6455290839e-02, -7.6442793012e-02, -5.3315922618e-02, -2.1685306728e-01, -1.7528185248e-01, -2.7168402448e-02,  1.4273792505e-01, -2.3908057809e-01, 
	-6.3828051090e-02,  1.0355366766e-01, -5.4760582745e-02, -1.4977331460e-01,  1.4282263815e-01, -8.7119482458e-02, -7.3679544032e-02,  6.3387677073e-02,  1.0712209344e-01,  8.5404612124e-02, 
	 1.1817133427e-01,  6.7181304097e-02, -1.3113076985e-01,  1.4651371539e-01, -2.1699991822e-01, -2.0507290959e-01,  2.2203434259e-02,  1.1576307565e-01,  1.2654066086e-01,  1.9167146087e-01, 
	 1.2191690505e-02, -7.0518136024e-02, -4.6660527587e-02,  1.6559703648e-01, -1.5439450741e-01, -1.5704476833e-01,  1.6088567674e-01, -1.0094179772e-02, -9.3075767159e-02,  1.0385632515e-01, 
	-7.8077368438e-02, -1.9394192100e-01, -1.4042313397e-01, -4.7009017318e-02, -6.9240771234e-02,  1.9880997017e-02,  4.0593042970e-02,  5.0757925957e-02, -1.0527554154e-01,  5.1229186356e-02, 
	-1.4553241432e-01,  1.0832204670e-01,  2.3567130789e-02, -9.5272988081e-02, -3.1922340393e-02,  1.1357580870e-01,  7.1322150528e-02, -1.0038641281e-02,  2.7134975791e-01,  6.5522089601e-02, 
	-1.8759950995e-01,  1.2494031340e-01, -2.0992854238e-01, -8.3170942962e-02, -1.1761355400e-01,  1.3848924637e-01,  1.5306830406e-01,  3.8603756577e-02, -1.3799040020e-01,  1.1746894568e-01, 
	-2.0531553030e-01,  6.3360169530e-02, -5.1674647257e-03,  4.6322412789e-02,  2.4665148929e-02, -3.6122908350e-03, -1.3037602603e-01, -1.2326227129e-01, -1.1119544506e-01, -6.9218792021e-02, 
	 3.3033791929e-02,  1.0550592095e-01, -6.6456981003e-02,  2.4458028376e-02, -3.8673017174e-02,  1.7285324633e-01,  1.5459287167e-01,  8.9724302292e-02, -5.4799612612e-02, -1.3786279596e-02, 
	-1.0929521918e-01, -1.5210525692e-01, -8.7558574975e-02, -5.6914944202e-02, -1.1986086518e-01, -1.0244765878e-01, -7.9099074006e-02,  5.3052574396e-02, -4.8851434141e-02, -4.1590705514e-03, 
	-2.5075369049e-03,  2.3809805512e-02, -3.7649091333e-02, -1.0435886215e-03, -7.9100564122e-02, -1.5684334934e-01,  4.0719695389e-02, -6.5138168633e-02, -3.9977625012e-02, -1.8929028884e-02, 
	-1.4612101018e-01,  6.1179292388e-03, -2.7924010158e-01,  5.1851924509e-02, -3.2253188547e-03,  1.9555985928e-02, -1.3614219427e-01,  4.8975098878e-02,  1.8523368239e-01,  1.8275883794e-01, 
	-2.5823110715e-02,  5.1261384040e-02,  1.4725581743e-02,  1.2621441483e-01, -5.0622712821e-02, -6.2172468752e-02,  1.0079203546e-01, -8.0164961517e-02,  3.4473098814e-02,  1.1973851174e-01, 
	-9.3167312443e-02,  1.1863066256e-01,  2.4648597464e-02,  4.0126450360e-02,  1.4782863855e-01, -1.2389051169e-01, -1.8405415118e-02,  3.7526745349e-02,  1.5333507955e-01,  1.5278804302e-01, 
	-1.1476933956e-01,  9.1012462974e-02,  7.4429392815e-02, -4.7148380429e-02, -1.4328555763e-01,  2.7885085344e-01,  5.9249971062e-02, -7.2269216180e-02,  3.2449681312e-02,  9.2872008681e-03, 
	 3.0743585899e-02, -8.5559725761e-02,  7.6811332256e-03, -1.6086737812e-01,  5.0227478147e-02, -1.0212682933e-01, -8.3028882742e-02,  7.2269894183e-02,  7.1237585507e-03,  1.3337197900e-01, 
	 7.0676445961e-02,  1.0613312572e-01,  1.6400401946e-03, -2.7711552382e-01, -5.1656421274e-02,  2.1749893203e-02,  9.5384404063e-02,  5.1131866872e-02,  2.5231763721e-01,  1.7396388575e-02, 
	 1.5512095392e-01, -4.9867857248e-02,  1.6701860726e-01,  1.5730278194e-01,  8.2352489233e-02,  4.6892125160e-02, -2.9909822345e-01,  1.0342333466e-01,  2.2526977584e-02,  1.1154878885e-01, 
	 6.5912365913e-02,  8.1003680825e-02,  5.4915569723e-02,  1.7626149929e-04,  1.2142913416e-02,  2.9200209305e-02,  6.0380633920e-02,  3.0905069783e-02,  7.9598583281e-02, -7.7707841992e-02, 
	-1.9940610230e-01, -1.7861184478e-01,  9.6245042980e-02, -2.1788370609e-01, -5.4909981787e-02, -1.1734698713e-01, -8.1670925021e-02, -4.7812871635e-02, -7.7301412821e-02,  7.5751475990e-02, 
	-2.0314823091e-01,  1.0742586106e-01,  6.7616794258e-03,  1.9275005162e-01, -1.5499016736e-03,  2.4730250239e-01,  1.4881822467e-01,  8.9638948441e-02, -6.4230263233e-02, -2.0835246891e-02, 
	 1.1403803527e-01, -9.1747619212e-02,  9.2282600701e-02,  4.1209284216e-02, -1.4930030704e-01, -5.1084969193e-02,  1.7669597268e-01,  5.8118574321e-02,  7.0287719369e-02,  6.7359715700e-02, 
	-1.5119003132e-02,  6.1993405223e-02,  2.9485645890e-01,  1.5149387531e-02, -3.6079451442e-02, -1.5344408154e-01,  4.6093523502e-02,  2.5051431730e-02, -1.0751671344e-01,  9.5710523427e-02, 
	-5.3243607283e-02, -5.5517274886e-02, -5.1098793745e-02,  1.6461899877e-01,  1.0709889978e-01, -1.0061890632e-01, -4.9266632646e-02,  6.5329894423e-02, -9.5689997077e-02, -2.3245606571e-02, 
	 1.5004055202e-01, -1.1847607791e-01, -9.4797369093e-03, -7.8795231879e-02, -1.3822096586e-01,  5.5224422365e-02, -1.0786730051e-01,  1.0015694797e-01,  1.8653835356e-01,  1.6164878011e-01, 
	 1.3541352749e-01,  1.7933351919e-02, -1.9365692511e-02,  1.9638223946e-01, -1.1720734090e-01, -1.2853807211e-01,  1.0198044777e-01, -1.4782820828e-02,  4.8494908959e-02, -1.1247903109e-02, 
	-9.4351977110e-02,  1.0531271994e-01, -1.2834782898e-01,  1.0005259514e-01, -5.5858608335e-02,  3.6671444774e-02,  1.6704602540e-01,  8.2137733698e-02, -7.5147353113e-02,  6.3689015806e-02, 
	 1.5734337270e-01,  3.7803813815e-02,  1.3871747255e-01, -5.1907016896e-03, -1.4413626492e-01, -3.4674923867e-02, -6.6187378252e-04,  9.9360987544e-02,  1.4178499579e-01, -8.2211516798e-02, 
	-5.8772321790e-02,  4.4381946325e-02, -3.3457610756e-02,  1.8558186293e-01, -7.3599696159e-02, -1.7270287499e-02,  1.5951378644e-01,  1.5373403206e-02, -4.9835223705e-02,  6.2377519906e-02, 
	-1.3402445614e-01, -1.0843429714e-01, -3.1017864123e-02, -8.0664167181e-03,  3.3056538552e-02, -8.5638519377e-03, -5.5599167943e-02,  2.1857628599e-04,  1.5336140059e-02,  2.2375578061e-02, 
	 2.4570388719e-02,  1.5617742203e-02,  2.2457381710e-02,  2.1747183055e-02,  2.3062674701e-01, -4.7831110656e-02,  4.2750332505e-02, -4.2936909944e-02, -6.7501032026e-04,  3.2959453762e-02, 
	 2.7091588825e-02, -8.2234591246e-02, -1.3122127950e-01,  3.0302536488e-01,  7.9143397510e-02, -1.9010840356e-01, -2.9751580209e-02,  5.8300610632e-02,  6.5443791449e-02,  1.6773006320e-01, 
	 2.1681742370e-01, -1.3962246478e-01, -1.0111038387e-01,  4.5030089095e-03,  1.0208833218e-01,  1.3068553992e-02,  5.9745877981e-02,  1.3157439232e-01,  8.2813277841e-02, -4.8808280379e-02, 
	 5.8021683246e-02,  4.1302252561e-02, -2.1829936653e-02,  1.4747887850e-01,  1.5107402205e-01,  4.1774146259e-02, -8.1787690520e-02, -4.1957914829e-02, -1.4340573549e-01,  3.1539667398e-02, 
	 2.1438336000e-02, -8.0017529428e-02, -9.7211830318e-02, -1.0286304355e-01,  5.8106224984e-02, -3.1773585826e-02, -4.8967888579e-03, -2.1175050735e-01, -2.1492537856e-01, -1.5618327260e-01, 
	 5.3981829435e-02,  3.1973150373e-01,  1.7417052388e-01,  1.2250129879e-01, -2.0145508647e-01, -9.6697835252e-03,  4.2699798942e-02, -1.3972310722e-01,  1.8042422831e-01,  6.1121575534e-02, 
	 1.7123852670e-01, -4.0011253208e-02,  4.6046961099e-02, -5.8923661709e-02,  1.6467764974e-02,  1.3631679118e-01,  1.2052367628e-01, -4.5127861202e-02, -1.2907063961e-01,  4.1446421295e-02, 
	 8.8334210217e-02, -1.2945884466e-01,  3.7231918424e-02,  1.0969471186e-01,  1.9508609548e-02,  3.6026120186e-02,  1.1716898531e-01,  1.8808251247e-02,  5.9598058462e-02,  4.0106073022e-02, 
	 1.0002331436e-01, -6.0505434871e-02,  2.4363245815e-02, -5.5035173893e-02,  1.4915269613e-01,  7.3937535286e-02, -1.4763616025e-01,  3.8890499622e-02, -1.2162175030e-01, -9.7043715417e-02, 
	-2.8547286987e-01,  1.2505526841e-01,  1.0388260335e-01, -1.9924245775e-01,  7.0782974362e-02,  5.6586954743e-02,  2.3712109774e-02, -5.4663605988e-02, -1.2928470969e-01, -7.8479044139e-02, 
	-2.3453558981e-01,  9.3208020553e-03,  4.8120673746e-03, -3.6839451641e-02,  1.8319275696e-03,  9.7852595150e-02,  4.0247738361e-02,  4.7464113683e-02,  1.0075057298e-01, -2.1893672645e-01, 
	 1.5089544654e-01,  4.1800797917e-03, -6.5135896206e-02, -1.8946565688e-02,  5.1590725780e-02,  7.9527467489e-02, -2.7940878645e-02,  9.2345178127e-02, -1.2774927914e-01, -1.3739418983e-01, 
	 4.8671392724e-03, -1.0502843559e-01,  2.5666028261e-02, -9.5946475863e-02,  5.1960371435e-02,  1.4855457842e-01,  2.7097988874e-02, -1.6233725846e-01, -4.3606355786e-02, -2.8244957328e-01, 
	-1.3755011559e-01, -2.7234300971e-01, -6.4698070288e-02,  5.3871333599e-02, -3.2805874944e-02,  1.8366867676e-02, -3.9389591664e-02,  8.3166994154e-02,  3.6690529436e-02, -2.5439840555e-01, 
	 7.7936142683e-02, -1.1470951140e-01,  9.1301165521e-03, -1.0515709966e-01, -7.0196129382e-02,  2.7571188286e-02, -9.1040074825e-02,  1.7842869461e-01,  1.0749739408e-01,  2.6386037469e-02, 
	 6.5867699683e-02,  1.7990553752e-02,  1.1430826783e-01, -1.9754946232e-01, -1.6474987566e-01,  4.9288857728e-02,  3.7110570818e-02,  1.3782586157e-01,  3.3323265612e-02, -6.2682062387e-02, 
	-3.5008173436e-02, -1.5754839778e-01,  1.6898107529e-01, -1.3397827744e-01, -5.8012295514e-02,  4.4929556549e-02,  4.4594205916e-02, -3.2694613934e-01, -2.4690406024e-01,  9.9092222750e-02, 
	-1.4508865774e-01, -1.6531111300e-01, -5.0014317036e-02, -5.9025350958e-02, -5.6472558528e-02, -2.9239736497e-02, -1.8279610202e-02,  3.5755563527e-02,  1.0429703631e-02, -7.8038983047e-02, 
	 2.8245830908e-02, -8.7527014315e-02, -2.0097300410e-01, -1.6490407288e-02,  7.9790018499e-02, -1.4123067260e-02, -7.3218218982e-02, -4.6382356435e-02,  2.9458425939e-02,  1.7231276724e-03, 
	-6.3983321190e-02,  1.0764759779e-01, -5.1467478275e-02,  2.2016968578e-02, -1.1749009788e-01, -2.5222906843e-02, -7.0832975209e-02,  3.2759197056e-02,  2.0656123757e-02,  6.5625429153e-02, 
	-1.6931907833e-01, -1.9509547949e-01, -5.1286261529e-02, -8.9975170791e-02,  8.4102846682e-02,  7.9982317984e-02,  2.2602285445e-01, -9.2406161129e-02, -2.5931078941e-02,  2.4778433144e-02, 
	 3.1814154238e-02, -8.2642316818e-02,  7.5156986713e-02,  3.7856783718e-02, -1.5799775720e-01, -6.2208097428e-02,  9.7355090082e-02, -8.9818514884e-02,  2.2952869534e-02, -5.1070056856e-02, 
	-2.3693758994e-02, -1.5889579058e-01,  7.6286815107e-02,  1.4313307405e-01, -1.2978057563e-01, -1.7498365045e-01,  2.2586999461e-02,  4.9007754773e-02,  7.3574498296e-02, -6.1193998903e-02, 
	-1.1665379629e-02, -8.1085599959e-03,  1.2109461427e-01,  6.5358534455e-02,  5.9343483299e-02, -2.4612735212e-01, -8.7553784251e-02,  1.5809838474e-01, -3.0313566327e-02,  4.1861828417e-02, 
	 9.7602466121e-03,  1.9282819331e-01, -3.9834178984e-02, -1.6986319423e-01, -1.6583932936e-01,  1.1139339209e-01, -1.0007241368e-01,  7.6280348003e-02, -4.5727591962e-02,  7.5650662184e-02, 
	 2.6491302997e-02,  1.8645116687e-01, -1.2199574849e-03, -2.8789358214e-02,  8.7673775852e-02,  6.5237708390e-02, -5.4074972868e-03, -1.3983906806e-01, -3.5649664700e-02,  3.5035219043e-02, 
	-1.9842326641e-01, -1.4051212929e-02, -6.5453745425e-02, -3.1805473566e-01,  1.3993427157e-01,  5.2971921861e-02, -3.1528115273e-01,  2.3838619888e-01, -7.3127090931e-02,  1.2503378093e-01, 
	 9.7310103476e-02,  2.0556120574e-01,  1.2162622064e-01, -1.0627762973e-01, -1.2144572288e-01,  5.1002334803e-02, -8.6687713861e-02, -1.1339846998e-02, -2.2990541533e-02,  8.0856487155e-02, 
	 1.9004340284e-03,  1.0254321247e-01, -2.4929905310e-02,  8.9901968837e-02, -2.1062786877e-01,  9.1487653553e-02,  6.2128636986e-02,  6.1305779964e-02, -1.4545279555e-02, -3.1600505114e-02, 
	-3.1869601458e-02,  2.8221951798e-02, -1.4889256656e-01,  1.4422799647e-01, -1.2543093413e-02,  8.3733312786e-02,  3.9131943136e-02,  1.7588213086e-02, -6.1447813641e-04, -1.6627751291e-02, 
	-9.2879161239e-02, -2.7107203379e-02, -8.8868439198e-02, -2.4494627118e-01, -4.5034158975e-02, -9.0262450278e-02,  5.6529171765e-02, -4.8816483468e-02,  7.5994849205e-02,  9.0327411890e-02, 
	 1.6675513983e-01,  1.1725565046e-01, -3.8787990808e-02,  2.1344531327e-02,  7.0422343910e-02,  6.7472524941e-02,  1.0232486762e-02, -8.4337271750e-02, -1.2720997445e-02, -4.9254264683e-02, 
	-7.6642915606e-02, -1.2610685825e-01,  3.9780858904e-02, -1.8923422322e-02, -7.3668129742e-02,  1.0065785609e-02,  1.5910872817e-01, -2.5123845786e-02,  9.6460841596e-02, -6.3139282167e-02, 
	 1.0139555670e-02, -5.9541847557e-02,  1.6478371620e-01,  1.1523640901e-01,  1.6033376753e-01, -8.9966118336e-02,  1.3999372721e-02,  1.2674798258e-02, -1.2919880450e-01,  4.7122277319e-02, 
	 2.2002772894e-03, -1.2765695155e-01,  3.8816805929e-02,  1.0558881611e-01,  1.4736615121e-01, -5.3387790918e-02, -5.6841969490e-02,  2.9699331149e-02,  4.4603236020e-02, -1.2494736165e-01, 
	-1.3575010002e-01,  4.8572991043e-02, -1.6760823131e-01, -1.0224425048e-01, -1.0313792527e-01, -1.7248977721e-01, -5.5658388883e-02, -6.9624401629e-02,  1.3276536763e-01,  2.3543141782e-02, 
	-1.7767588794e-01,  1.4177313447e-01, -7.1413457394e-02, -1.5631517768e-01, -5.6073930115e-02, -4.0820553899e-02, -3.4380504489e-01, -1.2089397013e-01,  1.0014124960e-01,  1.3848491013e-01, 
	 2.1211189032e-01, -1.3007634878e-01, -3.5082533956e-02, -1.9958060235e-02,  7.7841460705e-02, -1.6121281311e-02, -1.9282625988e-02, -1.2748256326e-01, -1.5206149220e-01, -6.7098587751e-02, 
	 5.3118981421e-02, -9.6768498421e-02,  6.8348437548e-02,  4.6807330102e-02,  1.2200844288e-01,  5.1198031753e-02, -6.3241489232e-02, -1.8240067363e-01, -5.7848561555e-02, -8.6258552969e-02, 
	 1.1075551808e-01,  9.4921691343e-03, -1.8965083361e-01,  6.1601590365e-02,  1.2956371531e-02, -4.4062979519e-02, -3.4435484558e-02, -2.0975969732e-02, -1.0276841372e-01, -3.9728559554e-02, 
	 2.0695167780e-01,  5.7189203799e-03,  4.6276528388e-02,  1.2230187654e-01, -7.7560305595e-02,  3.2790806144e-02, -4.3562371284e-02, -1.2256120145e-01,  1.8734563887e-01,  8.2574404776e-02, 
	 1.6945256293e-01, -7.1233682334e-02,  9.1785326600e-02,  1.6810026020e-02, -9.7487367690e-02, -7.3802828789e-02, -9.4929218292e-02, -2.6202313602e-02, -3.0800538138e-02, -8.6274668574e-02, 
	 2.2843586281e-02, -2.6240129024e-02,  8.7912078016e-04,  1.2039458752e-01,  3.5685007460e-03,  2.6491973549e-02,  2.4465571344e-01,  3.0288498849e-02, -9.8567694426e-02,  1.9368082285e-01, 
	 8.3444520831e-02,  8.9686661959e-02, -7.4677690864e-02,  9.8171956837e-02,  2.8333082795e-02,  6.4253464341e-02,  1.3127865270e-02, -1.1557496153e-02, -5.1590885967e-02,  7.5350545347e-02, 
	-1.2087889016e-01, -8.2917399704e-02, -1.2000714988e-01,  8.7973967195e-02,  1.0163425468e-02,  3.6401957273e-02, -1.3156922162e-01, -2.2775073349e-01,  6.4220488071e-02,  2.2692914307e-01, 
	-7.5060643256e-02, -1.0141658038e-01, -1.9122226536e-01,  1.7134751379e-01,  2.3265657946e-02,  9.3382023275e-02, -4.4123988599e-02,  2.0867841318e-02,  7.9028002918e-02, -5.1641650498e-02, 
	-6.7715346813e-02,  7.1032710373e-02,  7.2094183415e-03, -1.1262154579e-01,  7.3900078423e-03,  4.7579992563e-02,  3.4565210342e-02, -4.4834628701e-02, -3.8279011846e-01, -3.2226428390e-02, 
	-6.4955361187e-02, -6.7642577924e-03,  2.1898154169e-02,  1.0361266136e-01, -2.8959767893e-02, -7.3194198310e-02, -5.7545214891e-02, -1.1410297826e-02,  7.9135462642e-02,  3.8213178515e-02, 
	 2.4504907429e-01,  8.8356323540e-03, -1.3446574099e-02, -5.7198158465e-03,  1.4645978808e-01, -3.9349108934e-02, -1.7072597146e-01, -1.3065677881e-01, -1.2980706990e-01, -1.1861354113e-01, 
	-2.2926235572e-02, -7.9544022679e-02, -9.8860621452e-02, -9.8795808852e-02, -1.3535137475e-01, -1.0090557486e-01, -7.9340979457e-02, -5.2913453430e-02, -1.6159489751e-01,  3.0352436006e-02, 
	-4.3742828071e-02, -7.0191688836e-02, -8.3696410060e-02, -1.6819719225e-02, -7.9902157187e-02, -2.5205573440e-01, -3.6903273314e-02, -1.3559772074e-01,  4.8825085163e-02, -1.8559403718e-02, 
	 7.7872835100e-02, -6.8955160677e-02, -6.2551602721e-02, -2.3598054051e-01, -2.8232421726e-02,  1.6620427370e-01, -3.7205800414e-01,  7.7324472368e-02,  7.1721538901e-02, -4.3255191296e-02, 
	 1.3672000170e-01,  2.5580320507e-02, -1.8897822499e-01, -1.2179571390e-01,  7.2609163821e-02, -1.5334334970e-01, -1.9900882244e-01, -2.1272273734e-02,  3.2935224473e-02,  1.8341442570e-02, 
	 1.0920755565e-01,  4.7233685851e-02, -7.1422025561e-02,  1.9001469016e-02,  4.9621082842e-02, -1.7968562245e-01,  2.5961926207e-02,  1.2145266682e-01,  9.2685379088e-02,  4.5653518289e-02, 
	-4.0684003383e-02,  2.7510561049e-02,  3.9955954999e-02,  7.5103648007e-02,  5.9896092862e-02, -1.5236958861e-02, -1.5183952451e-01, -1.8035094440e-01,  1.2101839483e-01, -1.6286396980e-01, 
	 1.2607762590e-02, -1.0270133615e-01,  1.9458834827e-01, -5.4116226733e-02, -8.2253083587e-02,  2.4031035602e-02,  2.5183209777e-01,  1.0593370348e-01, -4.1724923998e-02,  4.1768152267e-02, 
	-9.4144921750e-03, -8.3947954699e-03, -2.4512407184e-01,  1.1845467240e-01,  6.8661727011e-02,  9.1869361699e-02,  6.2422662973e-02,  9.5012551174e-03,  1.2855793536e-01, -3.8913920522e-01, 
	 1.2378576398e-01, -5.7664164342e-03,  1.6744999215e-02, -4.3859288096e-02, -1.3601451181e-02,  5.2838824689e-02, -2.1675084531e-01, -2.6691499352e-01,  1.9325467944e-01,  1.0354898870e-01, 
	-8.8051967323e-02,  1.2297394872e-01,  3.0129985884e-02, -1.0395095497e-01, -1.7074941099e-01,  4.4189434499e-02,  4.8544839025e-02,  2.8646180034e-01,  5.4240725935e-02, -1.1635808274e-02, 
	 3.6122865975e-02,  9.9362730980e-02,  4.2872585356e-02,  8.3625905216e-02,  1.6654562205e-02,  1.7577883601e-01,  9.2510931194e-02, -8.8232532144e-02, -3.7489116192e-02,  9.4014368951e-02, 
	 1.1465837061e-01, -7.1013674140e-02, -5.6659817696e-02,  1.4744666405e-02, -1.4444601722e-02, -3.3213887364e-02,  1.7019249499e-01,  6.6999405622e-02,  5.3561121225e-02,  2.3166597821e-03, 
	 9.9880531430e-02,  1.5580801666e-01,  5.0374314189e-02,  2.0932445303e-02,  1.1684216559e-01, -1.7813916504e-01, -9.5470480621e-02,  2.6705021039e-02, -8.7864391506e-02, -1.0250050575e-01, 
	-1.1089827120e-01,  5.5294074118e-02,  6.1749825254e-03,  1.3408360071e-02,  1.3585861027e-01, -1.5372271836e-01, -7.9831090989e-04, -1.2221505493e-01, -8.2067735493e-02, -6.7724906839e-03, 
	-1.5048275888e-01,  1.6113907099e-01, -1.1541807093e-02, -6.8933251314e-03, -1.2602630258e-01, -7.6300664805e-03, -1.2984910980e-02, -2.1294857562e-01,  4.1471973062e-02, -2.1082155406e-02, 
	 4.9926776439e-02,  4.0685147047e-02,  6.8530887365e-02, -2.4013260379e-02,  8.2182406913e-04, -7.8431546688e-02, -2.4673203006e-02,  5.5088646710e-02,  1.4192651212e-01,  1.3458095491e-01, 
	-2.0801104605e-01,  4.3970886618e-02, -6.9335296750e-02,  2.7281697839e-02,  8.2890212536e-02, -1.0674033314e-01,  1.6694289446e-01,  2.1711857617e-01, -1.3236241043e-01,  4.7214407474e-02, 
	-2.8252708912e-01, -1.0546018928e-01, -1.6533152759e-01, -9.8879113793e-02,  5.7742800564e-02, -1.8940869719e-02,  9.7675733268e-02,  9.5659412444e-02,  8.5301153362e-02, -1.2441472709e-01, 
	-1.1086154729e-01,  2.2804837674e-02,  2.5576928630e-02,  9.6179418266e-02, -6.1732411385e-02,  1.8037080765e-02, -2.1745818853e-01,  2.3355806246e-02, -6.3546575606e-02, -4.5064236969e-02, 
	 7.2806626558e-02,  1.6854770947e-03, -1.2012627721e-01, -2.3375718296e-01, -5.7387929410e-02, -5.2128475159e-02,  6.0013942420e-02,  1.0439157486e-01,  5.6435592473e-02,  2.3525916040e-01, 
	 2.1115037799e-01, -7.4127040803e-02,  1.0660057515e-01,  1.7804159224e-01, -3.0956497416e-02,  6.3240289688e-02, -3.3555027097e-02,  6.4026437700e-02,  9.2055425048e-02, -1.0169107467e-01, 
	 8.7308108807e-02,  9.7305744886e-02,  4.5733354986e-02,  9.0984553099e-03,  1.2921860814e-01, -2.5551252067e-02,  1.2487798929e-01, -1.0727501661e-01, -8.5551045835e-02,  1.8198823929e-01, 
	-5.1271487027e-02, -1.6334223747e-01,  1.4755602181e-01,  3.1564335222e-04, -4.7177360393e-03,  7.3846681044e-03,  6.0400040820e-03, -3.0528360978e-02,  6.7443872103e-04,  2.8971864376e-03, 
	 2.0053919405e-02, -4.1119899601e-02, -1.5207761526e-01, -1.5046425164e-01,  5.3629972041e-02,  4.6748060733e-02,  1.1111119762e-02, -7.5359940529e-02, -4.2417526245e-02,  2.4100881070e-02, 
	-1.3163601048e-02,  1.1733949184e-01, -4.1086869314e-03, -7.4127830565e-02,  7.9046621919e-02,  7.5677894056e-02, -6.8985804915e-02,  3.7804659456e-02,  5.3803995252e-02, -1.2529329956e-01, 
	 4.2959690094e-02, -6.5682992339e-02,  5.6680247188e-02, -2.5598982349e-02, -1.3859033585e-01,  7.4512869120e-02, -4.9880318344e-02,  1.2557324022e-02, -4.1204787791e-02,  1.0731752962e-01, 
	-1.3329042494e-01, -8.1804417074e-02, -1.3175476342e-02, -1.9378027320e-01,  3.4958701581e-02, -9.2204369605e-02, -6.0188997537e-02,  1.6841748357e-01,  7.7390051447e-03, -4.3690048158e-02, 
	 1.1222446710e-01, -1.3631126285e-01,  1.3451088965e-01,  5.0505954772e-02,  7.5336713053e-05,  1.0002938658e-01,  2.2702205181e-01,  2.2586308420e-02, -7.1230523288e-02,  1.0607224889e-02, 
	 2.2113274783e-02, -1.9577040803e-03, -8.3692722023e-02,  6.2943072990e-03, -6.6865302622e-02,  1.2499246746e-02, -7.1997158229e-02,  9.9907303229e-04, -2.1784573793e-02,  1.7934656143e-01, 
	 4.7039728612e-02, -4.0278960019e-02, -4.6841580421e-02,  8.5391834378e-02, -5.4160133004e-03,  9.0972468257e-02, -3.2849835698e-03, -1.2759032845e-01,  2.2617483512e-02,  9.2318333685e-02, 
	-4.9756523222e-02, -1.5742757916e-01, -5.2717264742e-02, -1.3209506869e-01,  1.5204714611e-02, -7.2485931218e-02, -1.1892899126e-01, -1.0258538276e-01, -1.0546944290e-01, -3.3451538533e-02, 
	-1.1815159768e-01,  7.3580995202e-02,  8.8284209371e-02,  3.7113841623e-02,  8.4298260510e-02, -5.4118178785e-02,  3.6781314760e-02,  3.8647100329e-02, -2.4980746210e-02,  8.4745489061e-02, 
	 1.5144539997e-02,  4.5488368720e-02, -7.9673556611e-03, -2.1144876257e-02,  4.0946803987e-02,  7.3058299720e-02,  1.7538724467e-02,  5.9615269303e-02, -9.3648180366e-02, -2.2047241032e-01, 
	-6.6189199686e-02,  2.0163914189e-02,  3.0485864729e-02,  3.9597246796e-02,  2.8505116701e-02,  9.8420910537e-02,  2.6287652552e-02,  7.6277010143e-02, -2.3178568482e-01, -9.1470465064e-02, 
	-2.5694468617e-01, -6.5312348306e-02,  1.1849832535e-01, -2.1926071495e-02, -1.0991755873e-01,  3.1528386753e-03,  1.5747544169e-01, -5.5036149919e-02, -1.4173783362e-01, -2.6161336899e-01, 
	 5.6822625920e-03,  1.1023609899e-02,  9.8219931126e-02, -3.0189067125e-02,  3.8781948388e-02, -1.3235753775e-01, -3.4330707788e-01,  2.0175135136e-01,  2.2970760241e-02, -4.0283527225e-02, 
	 1.3669690117e-02, -7.3993047699e-03, -8.1936428323e-03, -1.3251931965e-01, -4.1356496513e-02,  5.1071185619e-02, -1.3114641607e-01, -3.4646134824e-02, -2.5070117787e-02, -8.6198717356e-02, 
	 8.9765161276e-02, -1.9517685473e-01, -6.5558701754e-02, -4.6913139522e-02,  6.1901669949e-02, -3.0470909551e-02,  4.3861471117e-02, -1.1043687351e-02,  1.8631166220e-01,  3.8569130003e-02, 
	 1.6352297366e-01, -3.1405538321e-01,  1.2751327455e-01, -5.5302809924e-02, -1.6748455167e-01,  1.3956062496e-01, -4.3106794357e-02,  1.4434762299e-01,  6.9383312948e-03, -1.6441464424e-02, 
	 2.1100245416e-01, -2.9708879068e-02,  5.9148982167e-02, -5.0643455237e-02,  9.7545444965e-02,  5.7615231723e-02,  4.5094482601e-02, -5.4533686489e-02,  2.1915823221e-02, -2.7992198244e-02, 
	 2.9856270179e-02, -1.5728679299e-01, -6.5748706460e-02, -2.8513222933e-01, -2.2101502866e-02,  1.6824254766e-02, -6.5258540213e-02,  5.2646722645e-02, -1.4615899324e-01, -2.7561685443e-01, 
	 4.6539641917e-03, -5.7496637106e-02,  1.0087533295e-01,  3.4274991602e-02, -1.0021412373e-01,  4.2082458735e-02,  1.7922168970e-01,  9.9045425653e-02,  4.4245224446e-02,  1.4191396534e-01, 
	-1.6334328055e-01, -1.0245105624e-01, -3.6752574146e-02,  3.7438075989e-02, -9.5327243209e-02,  2.2148152813e-02,  1.6654239595e-01, -3.0575364828e-01, -2.2563160956e-01, -1.0392384231e-01, 
	 7.6204404235e-02,  1.1583174765e-01, -2.1429973841e-01,  6.6708438098e-02,  9.2036746442e-02, -5.2388243377e-02, -3.5451758653e-02, -3.0461158603e-02,  4.4018711895e-02, -7.0925705135e-02, 
	 1.4492157102e-01, -4.6134147793e-02,  5.9026278555e-02,  1.2734044343e-02, -2.3978624493e-02, -2.8629116714e-02, -3.4664880484e-02,  5.2330467850e-02,  6.4387299120e-02, -8.1038765609e-02, 
	 1.8359683454e-01,  2.2344797850e-02, -6.3134953380e-02,  2.4603994461e-05,  1.8901437521e-02, -1.1155776680e-01, -2.0722781122e-01,  2.0825830102e-01,  6.1927262694e-02, -1.8974444270e-01, 
	 6.7398346961e-02, -2.2140757646e-03,  6.4038261771e-02,  5.0565864891e-02, -6.4652681351e-02, -3.4041002393e-02,  1.5462730825e-01,  8.4038503468e-02, -1.0786139965e-01, -1.9911378622e-01, 
	-1.3591404259e-01,  1.5328626335e-01,  3.7020675838e-02,  3.4517809749e-02, -1.4778854325e-02, -2.4506454170e-01, -1.3221192360e-01,  3.5805292428e-02, -5.2642297000e-02,  2.1256178617e-02, 
	-3.4274373204e-02, -6.0678325593e-02,  2.1068774164e-02,  2.0869681612e-02, -4.3179217726e-02,  4.0752473287e-03,  4.2321529239e-02, -2.9952725396e-02,  8.3188183606e-02,  7.1680314839e-02, 
	-1.9848382473e-01, -4.5581709594e-02, -6.0345176607e-02,  1.0851782560e-01,  5.7709179819e-02,  2.7529401705e-02,  4.2678065598e-02,  2.1177178621e-01,  1.3299302757e-01, -1.1430791020e-01, 
	-6.4004801214e-02, -2.5771232322e-03,  1.2659227476e-02,  9.8514176905e-02, -8.7436422706e-02,  1.6532254219e-01,  6.5843492746e-02,  6.1734344810e-02, -1.2528963387e-01,  6.5283596516e-02, 
	-1.8223471940e-01, -7.3545515537e-02, -1.2107130140e-01,  6.2238488346e-02, -7.2676248848e-02, -2.6205202937e-01, -3.4001402557e-02,  6.2752395868e-02, -1.0737013072e-01, -7.6284885406e-02, 
	-1.1063253880e-01,  6.7910112441e-02,  7.8786090016e-02, -6.1479158700e-02,  1.1886346154e-02, -6.9642618299e-02,  1.6304235160e-01, -1.1986685544e-01, -8.8191159070e-02,  4.3387129903e-02, 
	-6.4454421401e-02,  1.0860154778e-01,  1.8268746138e-01,  9.0725727379e-02,  2.1329526135e-05,  2.2663943470e-02,  1.7494781315e-01, -1.7222139984e-02,  2.5165230036e-02,  2.2689855099e-01, 
	-6.7975157872e-03, -1.1020629108e-01,  1.6486205161e-01,  1.8916985020e-02, -1.3027915359e-01, -1.7253336310e-01,  5.9495307505e-02,  1.1831463873e-01, -6.4242243767e-02, -8.4288008511e-03, 
	 9.6320629120e-02,  5.3848076612e-02, -1.4064826071e-01, -1.3132044114e-02,  2.1593560278e-01, -3.5093214363e-02, -5.4138183594e-02, -5.8409329504e-02,  1.4277663827e-01, -5.9292934835e-02, 
	 1.1213512160e-02,  1.7467989028e-01,  1.5589167178e-01,  1.9575189054e-01, -6.3918173313e-02, -9.6091374755e-02, -1.0466877371e-02, -9.9198175594e-03,  1.9163943827e-01,  1.4205640554e-01, 
	 8.6286842823e-02, -7.0471386425e-03, -1.7297336459e-01,  9.2278711498e-02, -2.6199182868e-01, -7.7328056097e-02, -1.3698412478e-01,  7.5469300151e-02, -1.4733411372e-01, -1.1490399484e-03, 
	 4.3845705688e-02, -4.8638568260e-03, -1.7755234241e-01, -2.5380864739e-02,  4.8474986106e-02, -7.7305153012e-02,  2.1245494485e-02,  1.3370380737e-02,  1.7597243190e-01,  2.2762773931e-01, 
	 1.0540774465e-01, -9.1632895172e-02, -1.0437925905e-01,  2.4915593676e-03,  1.0700618476e-01,  5.2966419607e-03, -3.5796096921e-01,  1.8148245290e-02, -9.8197422922e-02,  9.2969223857e-02, 
	-5.3003467619e-02,  9.8919644952e-02, -2.2287981585e-02, -6.8543171510e-03, -4.0741782635e-02,  1.3463822007e-01,  1.5091203153e-02, -8.2028679550e-02,  3.3791020513e-02, -4.7531422228e-02, 
	-1.1741004884e-01,  8.0406039953e-02, -8.2382746041e-02,  6.9948476739e-03, -1.8829292059e-01,  1.4209940098e-02,  7.7379859984e-02, -3.4038700163e-02, -1.6378276050e-01,  1.2480437756e-01, 
	-1.2616189197e-02, -1.6209270060e-01, -2.2132042050e-01,  2.1901534498e-01,  9.4849206507e-02, -6.1468429863e-02,  1.0465041548e-01,  4.8745606095e-02,  1.5260098875e-01, -1.6087454557e-01, 
	 1.6745707393e-01, -1.1270894855e-01,  1.0339798033e-01, -1.7355524004e-01,  1.8742215633e-01, -2.2018780932e-02, -2.6438815519e-02,  3.2491408288e-02,  1.8140560016e-02,  6.1213910580e-02, 
	 1.4452372491e-01, -5.1495730877e-02, -8.3424396813e-02, -1.4830042422e-01,  8.3659730852e-02,  1.3215038180e-01, -1.0063133389e-01,  1.1698227376e-01,  5.6585092098e-02,  9.2412598431e-02, 
	-1.7768235505e-01, -1.9532302022e-01,  4.6635335311e-03, -1.6944870353e-02, -7.1698866785e-02,  7.5694091618e-02,  9.5222234726e-02, -6.4006410539e-02,  1.8829168379e-01,  1.3815754652e-01, 
	 1.4418014884e-01,  7.2255030274e-02,  1.5411780775e-01,  5.8978929883e-04, -2.1785022318e-01, -6.8445488811e-02, -8.2236617804e-02,  1.2610411644e-01, -4.4041432440e-02, -1.0268604010e-01, 
	 8.4359683096e-02, -9.7488045692e-02, -5.2372757345e-02,  8.4872141480e-02, -1.8616860732e-02,  7.8970544040e-02,  1.0723460466e-01,  1.1800648272e-01,  9.7127646208e-02,  2.7020654082e-01, 
	-1.0549709201e-01, -1.9045011699e-01, -7.0749102160e-03, -4.1434891522e-02,  5.8886211365e-02, -1.1497106403e-01,  2.3591516539e-02, -5.9221271425e-02,  3.7946715951e-02, -2.3798624054e-02, 
	-6.4544558525e-02,  3.4848608077e-02,  9.6348702908e-02,  1.5726359189e-01,  4.8173293471e-03, -3.9136141539e-02,  9.2456815764e-03, -4.9573119730e-02,  1.2538398802e-01,  2.0652182400e-01, 
	-9.8396740854e-02, -4.1155420244e-02,  4.7987416387e-02,  2.5386478752e-02,  2.1147591993e-02,  2.6455868036e-02,  7.6368711889e-02,  7.5757212937e-02, -1.4419116080e-01,  1.2695496902e-02, 
	-1.0895159841e-01, -1.1214735359e-01, -5.5042076856e-02,  1.1006646603e-01, -3.1147275120e-02,  2.0392055809e-01,  2.4224843830e-02, -1.4348442852e-01,  7.0094983093e-03, -3.1304039061e-02, 
	-1.3615167141e-01, -1.1803043634e-01,  1.0512655228e-01,  7.7561140060e-02,  1.0530877858e-01,  3.4775238484e-02,  1.5360732377e-01, -2.1792265773e-01,  6.3079409301e-02,  7.9750023782e-02, 
	 3.1176783144e-02, -1.2784813344e-01, -1.9872719049e-01, -1.0546834767e-01, -6.8484082818e-02, -2.2784998640e-02, -1.0257326066e-01, -1.2936252356e-01,  6.8501673639e-02,  2.4886857718e-03, 
	 1.5901228786e-01,  6.6928200424e-02, -4.2147465050e-02,  1.4605756104e-01, -1.7404086888e-02, -6.5183490515e-02,  1.3319766521e-01, -9.2578947544e-02, -1.7197987437e-01, -9.5191501081e-02, 
	 1.1552117020e-01, -3.6258190870e-02, -1.2890802324e-01,  6.1420429498e-02,  1.5493337810e-01, -1.5296818316e-01, -3.3128142357e-01,  4.7040570527e-02, -1.2767708302e-01, -2.7159383893e-01, 
	 1.0272122175e-01,  1.7262348533e-01, -5.0927558914e-03, -6.0613684356e-02,  1.3336767256e-01,  3.1942784786e-01,  9.7373344004e-02,  9.1510422528e-02, -7.9424880445e-02,  4.7724727541e-02, 
	 7.1288280189e-02, -2.0994246006e-01,  3.1637988985e-02,  1.5570372343e-01, -3.3072911203e-02,  2.2992625833e-02, -2.4894461036e-02, -2.0022010431e-02,  1.8592096865e-01,  2.1327806171e-03, 
	-6.8675398827e-02, -1.7480400205e-01,  9.2377133667e-02, -5.3394779563e-02,  4.4978233054e-03, -1.4584992826e-01,  1.8545496464e-01,  4.9566753209e-02, -1.9739348441e-02,  1.2705655396e-01, 
	-1.1024918407e-01, -4.5224573463e-02,  4.1627831757e-02,  1.8131900579e-02,  3.7415664643e-02,  1.3433907926e-01,  5.9971552342e-02, -1.6827061772e-01,  2.0665347576e-01,  5.9298373759e-02, 
	-1.3001698256e-01, -1.7268578708e-01, -3.7498999387e-02,  2.6178285480e-02, -6.2820650637e-02, -1.0403420031e-01,  2.3243536055e-01,  4.4039130211e-02,  3.2810408622e-02, -2.0191107690e-01, 
	 7.0299454033e-02,  3.4710869193e-02, -2.3291369900e-02, -2.0076629519e-01,  5.3808715194e-02,  1.0422416776e-01,  5.6963194162e-02,  5.5146429688e-02, -1.8834458292e-01,  2.8387001157e-01, 
	-1.4481999911e-02,  6.0229364783e-02,  2.3880930617e-02,  1.3096880913e-01,  5.4398186505e-02,  9.1759316623e-02, -3.6086954176e-02, -1.1505215615e-01, -1.9964163005e-01,  1.9512036815e-02, 
	-1.8344075978e-01, -7.7844552696e-02, -1.4281190932e-01,  9.7746416926e-02, -7.1653619409e-02, -7.8419424593e-02,  2.7561286092e-01,  2.2418022156e-02,  1.1444718391e-01, -4.2816739529e-02, 
	-8.7408237159e-02, -1.1957431585e-01,  1.6058799624e-01,  1.9280393422e-01,  8.2010738552e-02, -6.6178701818e-02, -1.9622117281e-01,  1.1530398577e-01, -1.0667212307e-01, -2.7369928360e-01, 
	-5.8910995722e-04,  1.3789649308e-01,  1.1033929139e-01, -1.3862155378e-01,  6.7750521004e-02, -6.2908055261e-03,  4.8416975886e-02,  1.1073162407e-01, -3.4086596221e-02, -7.4685648084e-02, 
	-2.8133965097e-03,  3.0738983303e-02,  2.4528693408e-02, -1.7998863757e-01, -6.5651992336e-03,  8.1154264510e-02, -4.1842930019e-02, -2.5188514590e-01, -3.0227951705e-02, -2.0790697634e-01, 
	-1.1484216154e-01, -1.0066436976e-01, -1.3476944529e-02, -2.1541343629e-01,  1.0885725170e-01,  2.3305308819e-01,  1.1503686756e-01,  4.9548778683e-02, -6.0427524149e-02, -1.7890638113e-01, 
	-2.8573956341e-02,  4.6586338431e-02,  3.3916104585e-02,  9.1200657189e-02, -1.6253355145e-01, -2.0258540288e-02, -4.4414311647e-02, -1.8097003922e-02, -4.3208658695e-02, -3.5859663039e-02, 
	 1.3299654424e-01,  1.5191635117e-02,  1.4866489172e-01, -1.3952417672e-01, -2.4139082059e-02,  1.3914774358e-01,  1.4425138943e-03, -1.4452657662e-02,  2.1752420813e-02, -2.7062129974e-01, 
	 7.7814370394e-02,  1.0820687562e-01, -4.5812938362e-02, -1.5404891223e-02,  2.7185685933e-02,  5.8209724724e-02,  1.2859597802e-01, -1.0493647307e-01,  7.3240105994e-03, -1.3347075880e-01, 
	 1.5187928081e-01,  6.2145508826e-02, -1.1299122125e-02,  8.3590336144e-02,  3.9815410972e-02, -5.4137937725e-02,  1.5574337542e-01, -1.1387098581e-01, -1.2637858093e-01, -7.1801222861e-02, 
	-1.1248910427e-01,  1.0762905329e-01,  1.0565785319e-01,  2.2783357650e-02,  3.0201556161e-02, -5.2959170192e-02, -1.3405793905e-01, -1.2229158543e-02,  1.2924569845e-01, -6.4540281892e-02, 
	-9.2493101954e-02,  1.0353717208e-01,  3.3515892923e-02, -6.3677318394e-02,  7.2377890348e-02, -1.4997932315e-01, -2.0038527250e-01,  2.6564115658e-02, -7.9460829496e-02, -9.6486009657e-02, 
	-7.2886444628e-02, -8.7792232633e-02,  6.5664537251e-03,  8.3839902654e-03,  5.8088419028e-03, -9.9023217335e-03, -6.0328436084e-03,  1.9647618756e-02, -7.6423108578e-02, -2.1738918498e-02, 
	 1.5075201169e-02, -9.6256434917e-03,  2.4076902773e-03, -1.1095187068e-01, -9.7479321063e-02,  1.0547226667e-01,  5.1640715450e-02,  9.9408499897e-02, -5.4864052683e-02, -9.4826547429e-03, 
	-8.8564559817e-02, -1.6715630889e-01, -3.8341280073e-02,  4.8218332231e-02, -8.1156067550e-02,  5.2853651345e-02,  1.1122179031e-01,  1.7069984972e-01, -2.5758294389e-02,  1.1244953424e-01, 
	 6.4638368785e-02, -8.5015572608e-02, -5.4228175431e-02, -2.5194972754e-01,  8.3644784987e-02, -1.0491552204e-01,  3.9824485779e-02, -7.4339970946e-02, -4.9471147358e-02, -7.2457581758e-02, 
	-1.5898294747e-01, -1.5090736747e-01, -1.2957242131e-01, -1.7548434436e-02, -1.3511367142e-01,  2.0327796042e-01,  1.1212033033e-01, -7.4894204736e-02, -1.4511422813e-01,  1.2316566706e-01, 
	 6.6742166877e-02,  2.9364435002e-02,  1.2522710860e-01,  7.8137837350e-02, -6.9008305669e-02,  5.5245570838e-02,  8.2246109843e-02,  1.1210610718e-01, -4.9512468278e-02, -6.4023278654e-02, 
	-1.0960432887e-01,  8.3650045097e-02,  7.7669970691e-02,  2.1924930625e-03, -1.3192908466e-01, -5.9420134872e-02, -2.0959661901e-01,  9.6203379333e-02,  1.2552707456e-02, -6.8376317620e-02, 
	-1.4387856424e-01,  2.0125063136e-02, -6.9580860436e-02,  2.2710897028e-01,  1.2574386597e-01, -9.4931915402e-02, -1.1136086285e-01,  7.7319271863e-02,  2.9010875151e-02, -1.2319780886e-01, 
	 7.4113681912e-02,  1.5789622068e-01, -1.0193529725e-01, -3.9317667484e-02,  1.9587876275e-02,  7.8564979136e-02,  1.6539864242e-01, -6.6119562835e-03, -3.7652663887e-02, -3.5593174398e-02, 
	 1.1801654845e-01, -3.7489533424e-02, -9.4342708588e-02,  7.1165241301e-02,  5.9624347836e-02,  9.8917774856e-02, -3.0292356387e-02, -9.6272312105e-02, -6.0638051480e-02, -2.3753909394e-02, 
	-1.1965645477e-02, -1.0129328817e-01,  1.8197750673e-02, -3.8983322680e-02, -3.9928367734e-01,  2.2232156247e-02,  8.0091655254e-02, -1.5794913471e-01,  1.4337304980e-02,  6.0174770653e-02, 
	-5.6324474514e-02, -3.2438137569e-03,  1.9842636585e-01,  1.1209828407e-01, -1.4581111073e-01,  2.4242097139e-01, -1.4397476614e-01,  8.5224725306e-02,  6.9874621928e-02, -1.1536369473e-01, 
	-2.1579684317e-01, -3.0533170328e-02, -1.5191172250e-02, -4.6741836704e-03,  2.0559445024e-02,  2.5272371713e-03, -1.0428141057e-01, -1.6983015835e-01, -1.6685609519e-01, -4.8896949738e-02, 
	 1.0937558860e-01,  1.0759891570e-01,  6.2798283994e-02,  8.7313778698e-02,  3.4986216575e-02, -1.8008308485e-02,  1.2469433993e-01,  1.2171210349e-01, -1.7607717216e-01,  4.7723025084e-02, 
	-2.0251819491e-01, -3.8733094931e-02, -6.8316392601e-02, -2.7267124504e-02, -1.1046729982e-02,  4.6671509743e-02, -1.0646701604e-01, -5.3809110075e-02,  2.0717258751e-01,  3.1082909554e-02, 
	 5.3169306368e-02,  1.1927171797e-01,  2.8186313808e-02, -1.0310820490e-01, -2.9520004988e-02, -1.9351477921e-01, -1.2293599546e-01, -1.8779717386e-01,  1.1839084327e-01,  5.1904458553e-02, 
	 5.5372618139e-02, -6.7088864744e-02, -1.1436044425e-01,  1.3125057518e-01, -5.1854919642e-02, -1.9100143015e-01, -1.0309510678e-01,  1.9386798143e-02,  2.9965974391e-02,  9.5719273668e-04, 
	-7.0136778057e-02,  3.4571003169e-02,  2.2099835798e-02,  2.4509623647e-01,  2.8967544436e-02,  2.2735062242e-01, -1.5928813815e-01,  2.3508599401e-01, -2.8653878719e-02,  1.5395589173e-01, 
	 1.2705880404e-01,  1.0502249748e-01,  8.0671049654e-03, -1.0022446513e-01, -3.4987129271e-02,  6.3867352903e-02,  9.1341048479e-02,  9.6504673362e-02,  2.7980327606e-02, -4.7607928514e-02, 
	-2.5643203408e-02, -1.3227175223e-03, -8.7796136737e-02, -1.3615022600e-01, -8.2951067016e-03, -8.8913112879e-02,  2.7807429433e-02,  6.7893221974e-02,  1.0887985677e-01, -7.3844590224e-03, 
	-1.0840217024e-01, -2.0704016089e-01, -2.6505440474e-01,  4.9567330629e-02, -9.6952736378e-02,  8.2783766091e-02, -3.4481778741e-02, -1.5560773015e-01,  9.4422757626e-02, -1.0959491134e-01, 
	-9.8253384233e-02, -1.1791112274e-01, -6.9062791765e-02,  9.2573851347e-02, -2.3491220176e-01, -2.4253503978e-01, -9.9895156920e-02, -6.0812041163e-02, -3.4169830382e-02, -3.1428597867e-02, 
	 1.0082578659e-01, -9.1467745602e-02, -1.0190487653e-01,  2.5984805822e-01, -1.9628621638e-02, -1.1073710024e-01, -2.2615344822e-01,  8.0928346142e-03, -4.7107275575e-02,  6.2638156116e-02, 
	-1.2711530551e-02,  2.2094307840e-01,  3.5601112992e-02,  8.6831688881e-02,  2.7622258291e-02, -6.6900588572e-02,  7.6561726630e-02, -5.5570006371e-02, -1.6259403899e-02, -9.6148528159e-02, 
	 2.3513328284e-02, -2.9051259160e-01,  3.2040312886e-02,  1.6925012693e-02,  1.6751275957e-01,  9.0713515878e-02,  2.6506775990e-02,  3.1221386045e-02, -1.3689702749e-01,  8.5886307061e-02, 
	-4.9161441624e-02, -7.6423965394e-02, -9.1276511550e-02, -2.1576444805e-01, -9.9813118577e-02, -9.2929929495e-02,  3.6137454212e-02, -1.8050743267e-02, -2.3191476241e-02, -5.3713530302e-02, 
	-2.0021612942e-01,  8.4322234616e-03, -2.7804678306e-02,  1.9887749851e-01,  8.6184121668e-02,  1.0143078119e-01,  1.8945741653e-01,  8.2910031080e-02,  1.1069834232e-02, -8.3961702883e-02, 
	-3.0420107767e-02,  3.7554014474e-02,  9.3650855124e-02,  9.6147283912e-02,  1.0439907014e-01,  3.8316965220e-04,  1.7845283449e-01,  2.1794310212e-01,  8.9619427919e-02,  3.7995651364e-02, 
	 3.0566385388e-01,  8.3472289145e-02, -1.7078374326e-01, -1.5892033279e-01,  6.9350995123e-02, -6.9565929472e-02, -7.5121060014e-02, -3.3253733069e-02,  1.3642610610e-01,  1.4639928006e-02, 
	-1.7273077741e-02,  1.8005795777e-02,  4.2719012126e-03, -7.5671143830e-02,  1.7963792384e-01, -1.2415423244e-01, -5.4179720581e-02, -4.1903492063e-02, -1.7033992708e-01, -5.3320780396e-02, 
	-6.5646255389e-03, -5.7039134204e-02,  1.1802333593e-01, -9.0598195791e-02,  9.8443038762e-02,  4.1146110743e-02, -3.3670186531e-03,  1.2959554791e-01,  3.2345559448e-02, -7.7619142830e-02, 
	 5.2333801985e-02, -3.8224314339e-03,  4.5145370066e-02, -8.9041590691e-02, -1.6536223888e-01, -1.0832976550e-01, -1.5757793561e-02,  5.5562909693e-02,  2.0880619995e-03, -2.0283252001e-02, 
	 7.2843484581e-02, -1.2307293713e-01, -7.6990745962e-02,  4.4485524297e-02,  2.1468402445e-01,  1.3978761435e-01,  1.4687277377e-01, -2.9010424018e-01,  2.3494657874e-01,  1.0144271702e-01, 
	-1.8920237198e-02,  6.2501179054e-03, -2.7664995193e-01,  2.1285711229e-01,  5.4908222519e-03,  1.5098477900e-01,  8.6843624711e-02, -4.8331566155e-02, -6.1261322349e-02, -1.3920351863e-01, 
	 1.4004772902e-01,  7.3259092867e-02, -8.4503665566e-03,  4.6182096004e-02,  6.7699633539e-02,  2.0856101811e-01,  8.9638903737e-03,  1.3072717190e-01, -1.0280618817e-01,  1.8268047273e-01, 
	 2.6697553694e-02, -4.6491887420e-02,  8.2496352494e-02, -6.3879497349e-02,  4.3822780252e-02, -1.4237184823e-01,  1.3582828641e-01,  1.3520983048e-02,  1.1263960187e-04, -1.5434964001e-01, 
	-5.1516588777e-02, -1.6651248932e-01,  2.5788700581e-01, -3.3116590977e-01, -4.4379169121e-03,  2.5997424498e-02, -1.3166207075e-01, -9.2572107911e-02, -4.8573914915e-02, -1.1461575329e-01, 
	 4.9414332956e-02, -7.4118778110e-02, -8.4790278925e-04, -1.0110668093e-01, -8.1835910678e-02,  2.7587620541e-02, -6.4393579960e-02, -4.3335784227e-02, -1.8645124137e-01,  5.4323595017e-02, 
	 3.0954571441e-02, -5.1996435970e-02, -7.5619973242e-02,  3.1672425568e-02,  8.6903765798e-02, -3.8476582617e-02,  1.6487622634e-02, -1.2537190318e-01,  1.1293622106e-01,  1.5341560543e-01, 
	-2.1955549717e-01, -5.4289117455e-02, -2.4418583140e-02,  7.6486624777e-02, -2.6737233996e-01, -7.9687898979e-03,  2.5256071240e-02, -1.5302562714e-01, -5.7685166597e-02, -1.2887917459e-01, 
	-3.6567240953e-02,  1.9522158802e-01, -1.2420212477e-01, -1.8447658420e-01,  4.3248489499e-02,  8.6581803858e-02, -4.7323934734e-02,  5.6850653142e-02,  7.0779606700e-02, -4.8095222563e-02, 
	-3.1427815557e-02, -7.8248567879e-02,  2.1106591448e-02, -1.6992272809e-02,  1.1063249409e-01, -3.2090447843e-02,  7.2579383850e-02, -1.5312886238e-01,  8.7877191603e-02,  6.6760800779e-02, 
	 2.1468760446e-02, -4.2618967593e-02,  6.5463469364e-03, -9.6032693982e-02,  9.2836327851e-02, -1.5726894140e-01, -1.2778301537e-01, -1.9016815722e-01, -1.0817980021e-01,  9.2613689601e-02, 
	-3.5363067873e-03,  7.7231585979e-02,  8.9859422296e-03,  1.6762876883e-02, -2.6468193391e-04,  7.6359182596e-02, -4.4005527161e-03, -7.1402840316e-02, -2.2819857299e-01,  3.7155943573e-04, 
	-1.2546233833e-01,  8.5018843412e-02,  1.9474479556e-01, -6.3561230898e-02, -3.8756731898e-02, -7.4817560613e-02, -1.6041189432e-02, -1.5124571323e-01, -1.8086996675e-01, -4.0391162038e-02, 
	-1.1024436355e-01,  5.2459582686e-02,  1.8562129140e-01, -6.3702084124e-02, -3.3880833071e-03, -2.8807448223e-02,  8.1961393356e-02,  4.7212537378e-02, -1.2506248057e-01,  3.9469875395e-02, 
	-1.6098244488e-01, -3.0947212130e-02, -2.6713517308e-01,  1.7893421650e-01,  2.4710623547e-02,  6.4597805031e-03,  1.1876630038e-01,  8.7483942509e-02, -4.3145619333e-02, -1.4760623872e-01, 
	-1.5521787107e-01,  7.1717396379e-02,  5.8203015476e-02, -3.1611543149e-02,  1.3604967296e-01,  5.4934982210e-02,  7.2310060263e-02,  3.6468293983e-03, -6.1926566064e-02, -4.2179435492e-02, 
	-5.8245841414e-02,  2.3006485403e-01, -4.8324491829e-02, -2.6686383411e-02,  1.4741532505e-01, -1.6939938068e-02, -6.0478802770e-03,  1.2785486877e-01,  5.0499388017e-03,  4.1538901627e-02, 
	-9.8146349192e-02,  1.3280601799e-01,  6.6314734519e-02,  2.0894728601e-01,  1.1158936471e-01, -8.6870133877e-02,  1.4920888841e-01,  1.1656614393e-01, -2.0153275132e-01, -2.2491258383e-01, 
	 8.5544973612e-02,  5.8041615412e-03,  3.2760277390e-02, -6.0839606449e-03,  3.7093393505e-02, -2.1115556359e-02, -1.7880696803e-02,  5.8341532946e-02, -1.0395581275e-01,  8.7506964803e-02, 
	 1.3054792583e-01, -7.1432471275e-02, -7.6572634280e-02,  6.6885262728e-02, -5.2600886673e-02,  1.5069526434e-01,  4.9935426796e-04,  1.0072736442e-01, -1.0863450915e-01,  6.0896981508e-02, 
	-1.4083188772e-01,  7.0478720590e-03,  1.1802262627e-02, -3.2661315054e-02, -1.4631387778e-02, -2.7542870492e-02,  9.0668112040e-02, -2.0914806426e-01, -9.1144554317e-02, -2.4960724637e-02, 
	-7.4004024267e-02,  5.4654560983e-02, -5.9296876192e-02,  2.3525850475e-01,  3.1080173329e-02, -2.2196322680e-02,  3.4691225737e-02,  2.2621653043e-03,  1.4264573343e-02,  9.8785698414e-02, 
	 9.6338205040e-02,  7.3127381504e-02,  1.5089454129e-02, -4.5017182827e-02, -1.5230955184e-01,  1.1756861955e-01,  1.1555989832e-01,  1.1231566221e-01,  2.2035071626e-02, -1.8877711892e-01, 
	 6.0152921826e-02,  2.7074376121e-02,  3.0467599630e-02,  1.4410173893e-01, -1.8009634688e-02, -5.4534453899e-02,  1.0866395384e-01, -1.2660783529e-01, -7.5326622464e-03, -2.5369947776e-02, 
	 1.5991484746e-02, -1.8077287823e-02, -6.0431219637e-02,  2.1531000733e-02,  1.6548728943e-01, -1.0019389912e-02, -1.0872916132e-01,  9.0370550752e-02, -2.6501309872e-01,  4.5294459909e-02, 
	 1.6042570351e-03, -1.9956459105e-01, -1.8177008629e-01, -3.0355213210e-02,  1.0421899147e-02, -1.3953376561e-02, -8.0254256725e-02,  8.0957904458e-02,  2.9404761270e-02, -7.3472894728e-02, 
	 1.7827843130e-01, -8.7879829109e-02,  1.0396624357e-01,  6.1367210001e-02, -1.0504702106e-02,  9.8331660032e-02, -1.2181522697e-01,  1.0590343177e-01,  9.8369285464e-02, -1.4752073586e-01, 
	-9.6415579319e-02, -1.0840591975e-02, -5.3327642381e-02, -3.3838653564e-01, -1.9601731002e-01, -2.7035999298e-01,  3.4622189403e-01, -2.0739272237e-02,  1.6134355962e-01, -8.1746540964e-02, 
	 4.9430519342e-02, -3.5716589540e-02,  1.3757933630e-03, -1.4107333124e-01,  8.4575369954e-02,  1.7877787352e-02, -1.0836035013e-01,  4.5331269503e-02, -1.3450022042e-01, -2.0092692971e-01, 
	 1.2194600701e-01,  3.5782265477e-03, -6.8487830460e-02, -7.3266081512e-02, -3.1028816476e-02,  2.1736714244e-01, -9.6333943307e-02,  1.6450930387e-02,  1.0196776688e-01, -6.4170852304e-02, 
	 2.5211347267e-02, -5.8520480990e-02, -1.2697960250e-02, -6.6120349802e-03, -1.0267960280e-01,  1.3485557400e-02,  6.3734479249e-02, -3.5941209644e-02, -3.6772292107e-02,  8.5114657879e-02, 
	-3.5740979016e-02,  1.2963296846e-02, -2.7295894921e-02,  1.2152442336e-01, -1.0739538819e-01, -5.4653842002e-02, -9.2281199992e-02, -8.5530048236e-03, -6.1676297337e-02, -5.4260913283e-02, 
	 2.7179520577e-02,  3.1635414809e-02, -1.1137443036e-01, -6.1546899378e-02,  9.9581427872e-02,  7.0121876895e-02, -1.2762683630e-01,  1.0543664545e-01, -2.4402590469e-02,  6.2436457723e-02, 
	 3.4901019186e-02, -3.9456218481e-02,  1.0812305659e-01,  1.3335052133e-01,  2.8879465535e-02,  7.8859589994e-03,  4.9546968192e-02, -3.0306318775e-02,  5.7693183422e-02, -2.1309067309e-01, 
	 1.6802397370e-01, -8.6992517114e-02, -4.5436257496e-03, -4.4581584632e-02, -6.0499660671e-02,  1.3889399171e-01, -1.7602862418e-01,  3.3172935247e-02, -5.0337631255e-03,  3.6696471274e-02, 
	 3.7496019155e-02, -4.5049335808e-02,  4.7714114189e-02,  1.4014972374e-02,  2.5117728859e-02,  7.5190067291e-02,  1.5457189642e-02,  4.9545839429e-02, -9.2356696725e-02, -6.9234900177e-02, 
	-1.9940720499e-01, -2.0263849199e-01,  4.6807639301e-03, -4.9936007708e-02, -2.4391661584e-01,  1.7602932453e-01,  1.5411178768e-01, -1.6182482243e-02,  8.0933809280e-02, -7.0301652886e-04, 
	 6.7104950547e-02, -2.6217631996e-02, -1.7271347344e-01,  7.2679467499e-02, -5.8154277503e-03,  5.0048384815e-02, -8.1659927964e-03, -4.4075012207e-02,  1.4513894916e-02, -2.4965474382e-02, 
	 1.1959116906e-02,  7.8379251063e-02, -1.3168320060e-01, -5.5534560233e-02, -9.2475645244e-02,  3.2065585256e-02,  1.7951205373e-02,  1.6706894338e-01, -9.0490989387e-03,  4.9096394330e-02, 
	-9.7537497059e-03,  6.2352880836e-02, -9.6390116960e-03,  1.1260318570e-02, -2.4529825896e-02,  2.9953097925e-02,  1.6604028642e-01,  5.4976260290e-03,  8.2067726180e-03,  1.0687210597e-02, 
	-8.3106994629e-02, -1.6732649505e-01, -4.0574189276e-02,  1.7870971933e-02, -4.4648922049e-03,  5.7839825749e-03, -4.6906471252e-02, -2.7897631750e-02, -4.5757777989e-03, -1.2928210199e-02, 
	-4.8896404915e-03, -3.1676877290e-02, -4.6677091159e-03,  1.7875759304e-01, -6.1350733042e-02,  4.3788608164e-02,  4.3362788856e-03,  5.5906646885e-03, -9.6421681345e-02, -1.0560972989e-01, 
	 5.9985302389e-02,  1.5252619050e-02, -1.5689833462e-01,  9.9849954247e-02,  2.6860414073e-02,  5.2767500281e-02, -8.5619566962e-03,  8.6772836745e-02, -1.0652073473e-01,  1.0743054003e-01, 
	 1.7038233345e-03,  1.0783523321e-01, -1.1894664168e-01,  7.5141582638e-03, -1.6817729175e-01,  1.2166235596e-01, -1.6322298348e-01, -1.1220451444e-01, -1.7812130973e-02, -1.1300002038e-01, 
	 2.2402601317e-02, -3.0071575195e-02, -2.4155970663e-02, -2.1294178069e-01,  4.1648041457e-02,  3.8763660938e-02, -3.0847052112e-02, -7.1992317680e-04, -1.9909328222e-01, -3.4696582705e-02, 
	 1.2813661993e-01, -6.3718572259e-02,  4.4499933720e-02, -5.9240140021e-02,  1.5729448199e-01,  3.5032030195e-02,  1.0134270042e-01, -3.8047581911e-02, -4.0855351835e-02, -8.0008864403e-02, 
	 6.8921931088e-02,  1.3839577138e-01,  6.2331952155e-02, -4.2999319732e-02, -2.5040315464e-02,  2.1359378472e-02,  1.8388779461e-01, -7.9039923847e-02, -3.9557263255e-02,  1.3705414534e-01, 
	 9.9388092756e-02, -1.9989614189e-01,  1.1508724652e-02,  6.2106583267e-02,  8.2737661898e-02,  1.4214798808e-01, -1.3349884748e-01, -1.1069411039e-01,  1.4655971527e-01,  4.4013783336e-02, 
	-1.8876472116e-01,  1.6077443957e-01, -3.3172547817e-02,  1.3513164222e-01,  4.8567578197e-02,  7.9146578908e-02, -1.4617525041e-01,  7.6111830771e-02,  2.3192547262e-02,  9.0105580166e-03, 
	 1.8897788599e-02,  1.0520513169e-02,  1.7522931099e-02, -1.6430111602e-02,  1.4214102924e-01,  5.3006228060e-02, -1.2755482458e-03, -1.8937113881e-01,  9.7678564489e-02, -1.9020702690e-02, 
	 8.7361104786e-02,  8.3676069975e-02, -6.7742384970e-02,  2.1225446463e-01,  1.1564694345e-01,  3.5664547235e-02, -3.3802591264e-02, -1.1540544219e-02, -3.1660441309e-02, -1.0729632340e-02, 
	-2.9976870865e-02, -3.1713832170e-02, -3.0348170549e-02, -1.7722439021e-02,  1.4997234941e-01, -1.7697852850e-01,  1.0635949671e-01, -3.7063945085e-02, -6.2045183033e-02,  1.4551094174e-01, 
	-7.5599879026e-02,  5.3830046207e-02,  1.8986082077e-01,  1.4367039502e-01,  2.9563409090e-01,  1.3646978140e-01,  1.2881226139e-03,  1.3738374412e-01,  1.7194764316e-01, -3.1627092510e-02, 
	 1.9070000947e-01,  7.3281750083e-02, -7.3824472725e-02,  1.0323002934e-01, -2.8220367432e-01,  5.8650121093e-02,  7.2205580771e-02,  6.9897644222e-02, -2.1365278959e-01, -8.3721674979e-02, 
	-1.7754715681e-01, -6.7506462336e-02, -1.9179220498e-01, -9.2533662915e-02, -1.1499158293e-01,  4.4433088042e-03, -3.2661861181e-01,  1.5525667369e-01, -1.2881997228e-01,  8.3143211901e-02, 
	-2.1325893700e-01, -1.7172938585e-01,  3.2658454031e-02, -3.3147338778e-02,  1.5493592620e-01,  4.8819961958e-03,  8.2694701850e-02, -6.4833492041e-02, -1.0841826908e-02, -1.6463305056e-01, 
	 3.0048319697e-01, -2.6114344597e-02,  5.3493637592e-02,  5.5530190468e-02, -8.4391392767e-02,  8.3653464913e-02,  9.0618401766e-02, -3.1107837334e-02,  2.4447761476e-02,  5.5427048355e-03, 
	-1.1145747267e-02, -1.9820360467e-02,  2.3441247642e-02, -1.6809302568e-01,  2.3401926737e-03, -1.2597742677e-01, -9.3095600605e-02,  1.6057898104e-01,  7.8674994409e-02,  9.4406917691e-02, 
	 7.8799381852e-02, -4.2383607477e-02,  1.5865294635e-01, -2.1340683103e-01,  1.1953775771e-02,  7.0951923728e-02,  6.1317030340e-02, -1.3252791017e-02,  5.3105536848e-02,  2.7864132426e-04, 
	-1.0955645144e-01,  6.8891033530e-02,  1.3360133767e-01, -5.3715676069e-02,  1.0581697337e-02, -1.6915364191e-02,  1.1063337326e-01,  4.3568652123e-02,  2.1356913447e-01,  5.6078597903e-02, 
	-2.7508370578e-02, -3.5419182386e-03, -6.1367154121e-03, -3.3874761313e-02,  1.8448464572e-02, -6.7346058786e-02,  1.9700711966e-01, -1.3052702881e-02,  6.0288798995e-03, -4.4260352850e-02, 
	 8.2216434181e-02, -9.2186652124e-02, -1.0294638574e-01, -2.5056895614e-01, -9.7874544561e-02, -2.3507257923e-02, -1.2359565496e-01, -1.8691961467e-01, -1.0085226595e-01, -5.2931793034e-02, 
	-1.1160881817e-01,  1.5233712271e-02, -1.4166417532e-02,  4.3739199638e-02, -2.5837169960e-02, -1.9378316402e-01, -2.1040329710e-02,  3.6639396101e-02,  7.5592435896e-02,  1.1075035483e-01, 
	 3.5208225250e-02, -8.5175968707e-02,  2.0603924990e-02, -1.2232453562e-02,  9.8749890924e-02,  1.5417167917e-02, -1.0801865719e-02, -7.7587306499e-02, -1.4365942776e-01, -2.0685759187e-01, 
	-7.7097319067e-02, -9.9112298340e-03, -3.2209873199e-02, -1.2000063807e-01, -4.2676415294e-02, -1.9413462281e-01, -3.7902500480e-02,  1.9863992929e-02,  5.6738868356e-02,  3.5662703216e-02, 
	-3.3112719655e-02,  5.4710622877e-02, -3.5865925252e-02, -2.3100478575e-02, -8.5166133940e-02, -6.7518302239e-03,  6.8841896951e-02,  1.3773386180e-01,  2.1223524585e-02,  1.9269131124e-02, 
	-6.3403733075e-02, -6.8624988198e-02, -3.8365826011e-02,  1.5040880442e-01, -1.4485907741e-02,  2.3225674406e-02, -1.0425303876e-01, -1.0024070740e-02, -1.8627782166e-01, -3.1366899610e-01, 
	 1.4080847800e-01, -6.8404681981e-02,  1.4423733577e-02,  4.7528958321e-01, -1.8557083607e-01,  1.0893329978e-02,  2.1661771834e-01, -8.9581668377e-02, -1.2868896127e-01,  1.4531445503e-01, 
	 2.1481474862e-02,  1.3199566863e-02,  1.6037831083e-03,  2.1045567468e-02, -1.1614867300e-01, -3.8247276098e-02, -4.9600049853e-02, -3.4112330526e-02, -5.8603645302e-03, -6.1574526131e-02, 
	-4.5241598040e-02,  1.1829619855e-01, -9.0694881976e-02,  1.2643195689e-01,  3.5009689629e-02, -2.0707252622e-01, -1.2900264002e-02,  3.6185245961e-02,  4.3683443218e-02,  3.2072652131e-02, 
	-1.8544131517e-01,  7.3546044528e-02,  6.1629135162e-02, -9.0096667409e-02,  4.7363344580e-02,  4.7286767513e-02, -1.0261646658e-01, -1.5412239730e-01, -1.0674952529e-02,  4.0923345834e-02, 
	-4.6733930707e-02,  7.9272493720e-02, -6.0089230537e-02, -1.3129880652e-02,  6.2194358557e-02, -8.5449039936e-02,  3.8586020470e-02, -4.4149421155e-02,  1.0672365129e-01, -3.9880685508e-03, 
	-8.2626156509e-02, -1.1928686500e-01,  8.0876104534e-02, -9.6530653536e-02,  1.1170483381e-01, -1.5339334309e-01,  9.0023940429e-03, -1.8929658830e-01,  1.4074687660e-01, -1.7412325740e-01, 
	-8.6401654407e-03,  8.2385428250e-02,  7.0140488446e-02, -3.0823115259e-02,  4.1516579688e-02, -3.4129408002e-01,  1.1957867444e-01, -2.1720609069e-01,  7.8780231997e-03,  5.2372321486e-02, 
	 4.7579314560e-03,  2.0318913460e-01, -2.3833198473e-02,  1.9374648109e-02,  1.8683776259e-02,  5.4130718112e-02, -2.8091061860e-02, -1.1009215377e-02,  8.5780389607e-02,  7.5625836849e-02, 
	 5.3479265422e-02,  6.7008942366e-02, -2.4997554719e-03,  5.5384501815e-02, -2.1258994937e-01,  7.9729110003e-02, -4.1820921004e-02,  5.8737326413e-02,  3.2969288528e-02, -1.0835741647e-02, 
	-1.7416056246e-02, -1.0671798140e-01, -2.0857382566e-02, -1.9657823443e-01,  6.2853544950e-02, -8.7582217529e-03,  4.5238744467e-02,  1.4901186526e-01, -5.3092338145e-02,  1.9074615091e-02, 
	 7.7424891293e-02,  1.6449814662e-02, -1.5947131440e-02,  3.7649851292e-02, -1.9955274463e-01, -6.8737246096e-02,  6.4360789955e-02,  1.7109425366e-01, -6.5736137331e-02, -1.8408348784e-02, 
	-1.2732727826e-01,  7.4827797711e-02,  1.1089892685e-01,  1.2210424244e-01,  8.0091752112e-02,  5.1657413132e-03,  2.8371686116e-02, -3.6310750991e-02, -3.6804769188e-02,  6.7940942943e-02, 
	-2.0688743889e-01,  7.0827156305e-03, -2.4496202171e-01,  1.5178480744e-01, -9.1263234615e-02,  1.0174951516e-02, -7.7322892845e-02, -1.7235225439e-01, -7.4553467333e-02, -6.2270507216e-02, 
	-6.9911524653e-02,  8.8090881705e-02, -4.1070304811e-02,  5.3330656141e-02,  1.3846924901e-01, -1.1357052624e-01, -1.9792276621e-01,  2.3117193952e-02,  4.7413960099e-02, -4.2806370184e-03, 
	-5.5155321956e-02,  8.1312209368e-03,  1.8916237354e-01,  2.6950797066e-02,  1.1175674945e-01, -1.9295513630e-01,  1.4960995317e-01,  4.4310174882e-02, -5.8666881174e-02, -6.8138025701e-02, 
	 2.2123700380e-01,  6.0843687505e-02,  1.6466161609e-01, -2.3395856842e-02,  1.4635065198e-01, -4.3863493949e-02, -5.1372375339e-02,  7.3104947805e-02, -1.6543315351e-01,  8.6576834321e-02, 
	 8.4802865982e-02,  2.0690007135e-02, -2.4468728807e-03, -4.9521617591e-02, -3.7529978901e-02,  1.0168516077e-02,  2.0134644210e-01, -2.3509057239e-02,  2.0624814555e-02,  3.7061881274e-02, 
	-1.2309323065e-03,  8.3097465336e-02, -1.5990237892e-01, -8.5706867278e-02,  1.2397198379e-01,  1.2664819136e-02,  4.7040950507e-02, -1.2943826616e-02, -7.4582628906e-02, -2.0930394530e-03, 
	 1.0463178903e-01, -1.3124047220e-01, -3.9675306529e-02, -2.6658958197e-01, -2.4606998265e-01, -1.0263933986e-01, -1.4250822365e-01, -6.7644424736e-02, -8.1332974136e-02,  5.5993862450e-02, 
	 5.8043740690e-02, -2.0035925508e-01,  1.0949845426e-02, -3.8277581334e-02, -3.9706032723e-02, -1.6431203112e-02, -1.2912146747e-01,  1.0109573603e-01,  7.0664212108e-02,  3.6316655576e-02, 
	 1.1026495695e-01, -1.5896688402e-01,  3.7966933101e-02,  7.6865598559e-02,  7.3994040489e-02,  1.3587550819e-01,  5.3719382733e-02,  3.5431999713e-02, -1.2898313999e-01,  2.4482764304e-02, 
	-1.5442502499e-01,  1.5963287652e-01, -4.7627974302e-02,  2.0566636696e-02, -2.0875860751e-01,  7.5094804168e-02,  8.2354255021e-02,  1.1425037682e-01, -2.7675825357e-01, -1.2166243978e-02, 
	 6.1621636152e-02,  1.8231229484e-01, -1.0198935866e-02,  1.6685761511e-02,  4.9515713006e-02,  1.4400115609e-01,  1.1783491820e-01,  3.5468071699e-02, -2.2764217108e-02, -6.0192920268e-02, 
	-7.0493921638e-02, -5.6168902665e-02, -1.3293363154e-01, -1.5646320581e-01,  1.7191343009e-02, -8.2843989134e-02,  7.1165129542e-02, -7.3883406818e-02, -3.4150082618e-02, -1.0989541188e-02, 
	 1.1243749410e-01,  9.1761045158e-02,  1.2435904890e-01,  1.4131353237e-02,  5.9074684978e-02,  7.6343372464e-02, -6.6392202862e-03,  3.5301163793e-02, -8.4261305630e-02,  8.8517986238e-02, 
	-3.1004578341e-03,  6.1328992248e-02, -4.7480218112e-02,  7.1807645261e-02, -1.9097708166e-01,  6.2079563737e-02,  5.7419806719e-02,  5.9921324253e-02,  9.0814009309e-04, -2.8662586212e-01, 
	 5.0956316292e-02, -1.0929223895e-01,  4.2836625129e-02,  2.7267187834e-02,  3.3309321851e-02,  9.2836461961e-02,  1.6076596081e-01, -1.0094678961e-02,  3.9830692112e-02, -1.1070694774e-01, 
	 7.7658175724e-04,  1.7599345744e-01, -2.1347863972e-01,  2.1316645667e-02, -6.8522021174e-02,  1.5546786785e-01,  1.3811711967e-01,  3.9887327701e-02, -1.4471821487e-01,  4.0954429656e-02, 
	 4.7146055847e-02,  5.9847552329e-03, -1.3466498256e-01, -2.4319311976e-01,  6.0011632740e-02, -7.3522590101e-02,  3.4328080714e-02,  6.8599820137e-02, -1.5118084848e-01,  2.3685248569e-02, 
	-3.4389758110e-01,  1.0447342694e-01, -2.8844463825e-01,  1.8995656073e-01, -1.1749942601e-01, -4.3430376798e-02, -7.5936883688e-02, -1.0678259283e-01, -2.3490440100e-02,  1.2357225269e-01, 
	-7.6653636992e-02,  7.3996819556e-02, -1.0720714182e-01,  7.4927382171e-02,  1.5072466433e-01,  7.2547242045e-02, -3.9443433285e-02,  1.9184203446e-01, -1.1439438164e-01,  1.9918924198e-02, 
	 1.0316300392e-01, -1.2710548937e-01, -3.1911458820e-02,  7.3152437806e-02,  6.1020802706e-02,  5.6613262743e-02,  2.4094825611e-02, -4.5473158360e-02, -1.8133907020e-01, -1.5790250152e-02, 
	 8.3221964538e-02,  2.8211286291e-02,  1.5339007974e-01, -1.7047436908e-02, -4.7338124365e-02,  2.7616219595e-02, -2.6701526716e-02, -8.9717745781e-02,  2.0360793918e-02, -1.9409382343e-01, 
	-5.7202298194e-02, -4.1017487645e-02, -7.9851690680e-03,  8.4445126355e-02, -1.8398158252e-02, -1.2314867228e-01, -2.2490713000e-01,  6.0170315206e-02, -4.8379056156e-02, -2.6824539527e-02, 
	 6.2271453440e-02,  1.5357236564e-01,  4.5787252486e-02, -1.7385593057e-01,  4.8700556159e-02,  7.7712893486e-02,  1.1919406801e-01, -1.5480814874e-01,  5.4944581352e-03, -6.0162916780e-02, 
	 7.2775952518e-02, -1.1026945710e-01,  4.1827145964e-02,  4.0021099150e-02, -1.8013155460e-01,  9.1136209667e-02, -8.0314256251e-02,  3.6510195583e-02,  9.4529949129e-02,  1.3387870044e-02, 
	 1.2983721495e-01,  8.8134817779e-02,  5.9678070247e-02,  1.3325612061e-02,  1.2516742945e-01,  3.4821372479e-02, -1.8681211397e-02, -3.1021028757e-01, -1.5178810060e-01,  2.3603804410e-02, 
	-4.0838815272e-02,  2.2070813179e-01,  5.2175749093e-02, -1.4420051128e-02,  6.4129158854e-02,  2.4808060378e-02, -2.9048827291e-01,  1.0666928440e-01, -1.0211299360e-01,  5.9925775975e-02, 
	 3.8041133434e-02, -2.8820972890e-02, -6.2911204994e-02,  1.3935166597e-01, -4.1803522618e-04,  5.5148132145e-02,  1.1373811960e-01, -6.5542519093e-02,  4.4529549778e-02,  7.5776226819e-02, 
	 6.9141626358e-02,  9.5572292805e-02, -7.3279314674e-03,  2.6752665639e-02,  6.3136808574e-02, -7.0890098810e-02, -6.5155223012e-02,  8.8781289756e-02, -2.7858067304e-02,  2.0611582696e-01, 
	 7.3429867625e-02, -1.2458606064e-01, -3.9190143347e-02, -6.3487075269e-02, -5.2020493895e-02, -5.8755006641e-02, -8.8089808822e-02,  3.3067872282e-03,  1.6226194799e-01, -4.5060638338e-02, 
	-1.0365409404e-01, -1.0839471221e-01, -7.9366765916e-02, -1.7746970057e-01,  3.0525274575e-02, -1.1861650646e-01,  3.7057928741e-02, -1.5035583079e-01, -1.5843573958e-02, -7.9547196627e-02, 
	-3.9198896848e-03, -7.6283007860e-02, -3.7895417213e-01, -1.9130246341e-01, -1.9372494519e-01, -9.5152929425e-02,  7.5478285551e-02,  1.1417632550e-01, -8.0446027219e-02,  8.8505461812e-02, 
	 6.1905747280e-03,  2.4830913171e-02,  1.1209706962e-01,  7.1705142036e-03,  8.1203512847e-02,  5.7031389326e-02,  7.8773938119e-02, -1.3593773544e-01, -1.0945233516e-02,  1.5045303106e-01, 
	 1.3361753523e-01,  1.7458567396e-02, -9.0415664017e-02,  6.4823888242e-02,  3.3871103078e-02, -4.7164436430e-02,  4.9445023760e-03, -1.4073872566e-01, -3.5670664161e-02,  1.2079963833e-01, 
	 3.1904827803e-02,  1.4715804160e-01, -1.8465265632e-02,  1.5140599571e-02,  2.2599443328e-03, -1.1978431605e-02,  1.3434528373e-02,  4.2454101145e-02,  9.1296844184e-03, -4.5432917774e-02, 
	 2.2370992228e-02,  2.8034518473e-03,  4.9481797032e-03,  1.5837173164e-01,  7.6163478196e-02, -7.0883579552e-02,  5.9868395329e-02, -3.7654165644e-03,  1.0825490206e-01, -1.7353767529e-02, 
	 1.9385689870e-02,  8.3104148507e-03, -6.6789202392e-02,  1.9189620391e-02, -2.0622491837e-01, -1.0931883752e-01, -2.4220237508e-02,  5.5740977405e-04, -1.4858840406e-01,  5.5863834918e-02, 
	-9.9590281025e-04, -1.1371948570e-01, -3.4483503550e-02,  3.9246197790e-02,  1.7560946941e-01, -7.6961725950e-02,  2.2356754169e-02,  2.3651055992e-02,  1.3757066429e-01,  5.5167181417e-03, 
	-1.0069002956e-01,  3.5944975913e-02, -6.0331735760e-02, -5.6609872729e-02,  6.3893884420e-02, -2.5308743119e-02, -4.1614815593e-02, -6.8011000752e-02, -2.1051861346e-02,  1.6002507880e-02, 
	-6.6028907895e-02,  7.8007839620e-02,  2.2359871864e-01, -4.0245905519e-02,  1.2140643597e-01,  4.4520098716e-02,  9.2627838254e-02, -9.2290826142e-02, -2.9575082660e-01, -6.3250407577e-02, 
	-4.2834933847e-02,  1.1662714183e-01, -6.5276652575e-02,  1.9282141328e-01, -1.2618022971e-02, -7.4495434761e-02,  3.0745692551e-02,  1.5154439025e-02,  1.7862780392e-01, -9.0672269464e-02, 
	 9.2445753515e-02, -4.7796163708e-02,  1.4947310556e-03,  2.0074279979e-02,  1.0647277534e-01, -1.2066370249e-01,  3.5332322121e-02, -1.5663668513e-01,  7.5623653829e-02,  2.0866351202e-02, 
	 1.8822943792e-02, -6.8978913128e-02,  1.5695253015e-01, -8.5369117558e-02,  8.7805256248e-02,  2.7376806363e-02,  1.3161858916e-01, -1.8403802067e-02, -1.7164289951e-01, -4.3627694249e-02, 
	 1.1687134393e-02, -1.1576905102e-01,  5.5600978434e-02,  7.9736374319e-02,  9.0091675520e-02,  7.7178180218e-02,  3.7821717560e-02, -4.1756108403e-02,  5.4441295564e-02,  4.9483552575e-02, 
	 7.6475672424e-02,  1.4576110244e-01,  6.1132474802e-03, -1.3735765219e-01,  8.0590613186e-02,  6.1763577163e-02,  1.9130073488e-02,  5.5320654064e-03, -4.8315081745e-02,  7.9667091370e-02, 
	-4.3041910976e-02,  7.0632994175e-02,  4.5153349638e-02,  1.5855646133e-01,  1.6082361341e-01, -8.4997840226e-02,  1.7091162503e-01, -4.0943183005e-02, -1.4693234861e-01,  9.1180033982e-02, 
	-2.2085811198e-01, -1.4384786785e-01, -1.2838225067e-01,  8.4101911634e-03, -1.1523346603e-01,  2.0503321663e-02, -3.7314146757e-02, -2.6306274533e-01,  4.9609851092e-02,  6.4988993108e-02, 
	 2.0276200771e-01,  1.6400688887e-01,  1.4394544065e-01, -4.6062171459e-02, -4.0708847344e-02, -4.0942717344e-02, -8.3451390266e-02, -3.6148674786e-02, -2.4375196546e-02,  2.5782881305e-02, 
	-4.2126666754e-02, -1.7582988739e-01, -1.9481803477e-01,  5.8330010623e-02, -8.1090793014e-02, -8.3804242313e-02, -3.5352591425e-02, -9.1519959271e-02,  1.2197215855e-01, -2.9238270596e-02, 
	-3.1148148701e-02,  1.7919493839e-02, -2.9083568603e-02, -2.2181965411e-02,  6.0839727521e-02, -2.0511317998e-02, -1.5631210804e-01,  1.6156069934e-01,  1.6729643568e-02,  1.4849273860e-01, 
	 3.9447937161e-02,  2.8702676296e-02, -9.0093187988e-02, -2.2781127691e-01, -2.2656843066e-02, -2.1196263842e-03, -1.0525450855e-01, -7.4802473187e-02,  6.1817631125e-02,  1.0541697592e-01, 
	 1.3360463083e-01, -6.5150926821e-03,  6.6980376840e-02,  2.2962247953e-02, -1.1014115810e-01, -7.3135658167e-03,  1.6055598855e-02,  4.2146716267e-02,  2.3374805227e-02, -5.0676044077e-02, 
	-7.3542281985e-02, -4.1725635529e-02, -1.0036464036e-01, -1.3137839735e-01, -2.6290616393e-01, -6.1973519623e-02, -9.0049691498e-02, -1.4519438148e-01,  7.7090851963e-02,  4.3912995607e-03, 
	-1.6868732870e-02,  1.1353982985e-01,  2.3937499151e-02,  4.0490660816e-02,  2.0345125347e-02,  9.4292357564e-02, -2.2091065347e-01,  1.0922811180e-01, -7.4902921915e-02,  1.1431308091e-01, 
	 1.3137342036e-01, -8.2992792130e-02,  1.8322235346e-01, -4.6958349645e-02, -1.1278223991e-01,  4.8057872802e-02, -1.4237388968e-01, -8.6695238948e-02, -2.2928932682e-02,  5.3653705865e-02, 
	-3.7909697741e-02, -6.9821998477e-02,  1.1196407722e-03, -1.0484363884e-01, -3.1270723790e-02,  2.0377236605e-01, -5.3776983172e-02, -1.6633994877e-01, -3.0664712191e-02, -1.2785637379e-01, 
	-3.6398831755e-02, -9.2113532126e-02, -6.4231194556e-02, -1.0987032205e-01, -1.8133057654e-01, -1.0181988589e-02, -3.3105891198e-02,  1.2063435465e-01,  2.3654634133e-02, -1.1892791092e-01, 
	 1.2950751698e-03, -1.7061443627e-01,  1.4269241691e-01, -8.4341935813e-02, -9.4140335917e-02, -1.0877170600e-02,  4.6035263687e-02,  7.7897096053e-03, -1.6589573026e-01,  1.1091083288e-02, 
	 5.0782620907e-02,  3.7662782706e-03, -1.7429442704e-01,  1.3902252913e-01, -1.6358445585e-01, -6.6026233137e-02,  7.0804871619e-02, -4.7438140959e-02,  6.0948107392e-02,  6.1180323362e-02, 
	-5.1194846630e-02,  2.0371472836e-01,  2.0738566294e-02, -8.0836154521e-02, -1.3115690649e-01, -4.2327530682e-02,  8.5282251239e-02, -3.2571165357e-03, -9.2946201563e-02, -2.3276534677e-01, 
	-2.5079557672e-02, -4.5179482549e-02, -1.6162808239e-01, -2.1479350328e-01,  7.1174308658e-02, -2.9662238434e-02, -1.5621340834e-02,  2.0552775823e-03,  1.3577191532e-01,  9.5582909882e-02, 
	 3.8174174260e-03,  5.1529482007e-02, -1.1550402996e-04, -3.8534551859e-01, -1.3046126068e-01, -4.8741541803e-02, -5.6802496314e-02, -1.7047070432e-03, -8.8594138622e-02,  1.5058894455e-01, 
	-1.5125447512e-01, -1.1783631891e-01,  7.8079879284e-02, -1.5815103054e-01, -7.2957523167e-02, -6.0119330883e-02,  3.4870024770e-02,  1.4136356302e-02,  1.0668283328e-02, -1.2011089176e-01, 
	 1.5574222431e-02,  7.4238598347e-02, -3.5336975008e-02, -5.9429988265e-02, -1.2987633049e-01,  2.2196879610e-02,  9.7350932658e-02,  1.2182081491e-01, -1.0425028205e-01,  9.7761191428e-02, 
	-5.5952277035e-02, -9.0069286525e-02,  8.1832043827e-02, -1.5033003688e-01, -1.5670226514e-01,  2.1568486094e-01, -9.3257360160e-02, -1.2767665088e-01,  1.3936164789e-02,  8.5054457188e-02, 
	-1.1974842846e-01,  1.0109025985e-01,  1.0082458705e-01, -5.1370032132e-02,  3.9537516423e-03, -1.3476852328e-02, -8.9040748775e-02, -1.2912604213e-01, -1.0411170125e-01, -1.2171811610e-01, 
	 3.2215032261e-03, -2.4804292619e-01, -7.3942780495e-02,  3.8591302931e-02, -1.1667310260e-02, -1.2626647949e-01,  1.3882054389e-01,  1.9079271704e-02,  4.7493935563e-03,  5.7940606028e-02, 
	-3.3066984266e-02, -1.1060659587e-01, -1.1043612659e-01,  1.3927109540e-01,  1.3227428496e-01,  1.6034126282e-01, -1.9494503736e-01, -1.7679484561e-02, -4.3689541519e-02,  2.0872723311e-02, 
	 6.7344300449e-02,  3.5442292690e-02,  1.6199941933e-01,  2.7198415995e-01, -1.1848591268e-01,  6.7673631012e-02, -1.1488565803e-01, -7.9607039690e-02,  5.6899737567e-02,  5.0276223570e-02, 
	-1.9574237987e-02, -2.2928462923e-01,  7.0157520473e-02, -8.2699045539e-02,  3.3728340641e-03, -1.5755783767e-02,  1.9505815580e-02,  5.8327432722e-02, -1.1162970215e-01, -1.0233163089e-01, 
	 3.1535971910e-02,  4.2413361371e-02, -1.2962917984e-01,  1.4090389013e-01, -1.7782662809e-01, -5.7797580957e-02, -1.1762318015e-01, -1.0391483456e-01, -4.1090074927e-02, -1.5340763330e-01, 
	 3.6885771900e-02,  1.6157437861e-01, -4.2244400829e-02,  1.1787601560e-01,  1.0536940768e-02, -7.7000498772e-02, -3.6511730868e-03, -2.1057114005e-02,  1.8883274868e-02,  1.4357024431e-01, 
	 4.6186324209e-02,  1.4663352631e-02, -1.3141521811e-01,  1.7659589648e-02, -7.3957897723e-02, -1.9966892898e-01,  2.4699471891e-02, -1.1981155723e-01, -3.5923343152e-02,  2.2586828098e-02, 
	 1.5399073064e-01,  2.0438535511e-01,  7.5746335089e-02,  2.1559305489e-01,  1.2203957886e-01,  1.5081030130e-01, -1.2961149216e-01, -2.8287287802e-02,  5.9709299356e-02, -3.6270853132e-02, 
	 2.0607234910e-02,  9.2757470906e-02, -2.8260663152e-01,  1.4399103820e-02,  1.5176604502e-02,  3.0576018617e-03, -2.9578670859e-01, -1.5339219011e-02, -2.2028794885e-01,  4.8691155389e-03, 
	-1.2849046290e-01, -7.7787167393e-03,  4.7205857933e-02, -5.0367130898e-03, -5.0984043628e-03, -5.5325258523e-02, -1.3369652629e-01,  9.5896087587e-03,  1.2962953746e-01,  1.2580724061e-01, 
	-5.5748146027e-02,  1.9942288101e-01,  5.8365888894e-02,  3.6791034043e-02,  1.5457960963e-01, -7.0799931884e-02,  1.1588193476e-01, -1.0118746758e-01, -2.1973471344e-01, -1.2444513291e-01, 
	-8.7945517153e-03, -2.6912468672e-01,  7.3320329189e-02, -5.9289902449e-02, -1.0667761415e-01,  6.8143092096e-02,  1.1730514467e-01, -1.3903053477e-02, -2.9165759683e-01,  6.2819361687e-02, 
	-9.1355271637e-02, -2.3655912280e-01, -1.0229394585e-01, -7.4841089547e-02,  7.7090740204e-02,  1.1148208380e-01,  4.0082313120e-02, -2.1608354151e-01, -1.5696266200e-03,  2.3355823755e-01, 
	 1.3741873205e-01, -1.0370169580e-01, -1.6278488934e-01, -1.3261707127e-01, -2.2617470473e-02, -2.8912301641e-03, -3.3196777105e-02, -1.3412393630e-01,  1.9078817964e-01,  1.6123715788e-02, 
	-2.3666566703e-03,  9.5037752762e-03, -2.2832915187e-01, -2.1650430560e-01,  7.2830110788e-02,  8.0710425973e-02, -2.2371292114e-02,  3.2913945615e-02,  2.0551918447e-01,  6.7432984710e-02, 
	-4.7236822546e-02, -1.1108593643e-01,  8.0185607076e-02,  7.7245026827e-02,  6.3585214317e-02, -4.1041616350e-03,  1.4987920225e-01,  8.2004211843e-02,  4.1516140103e-02,  3.1256116927e-02, 
	 4.6070374548e-02,  1.1058372259e-01, -1.4288672805e-01,  9.4984501600e-02, -5.8796398342e-02,  6.7226886749e-02, -3.2522514462e-02, -8.4277823567e-02,  1.6595114022e-02,  7.3423333466e-02, 
	-1.0184741020e-01,  6.3976794481e-02,  2.7833055705e-02,  1.8914705515e-01,  1.5093044378e-02, -1.7656598985e-01,  1.9918031991e-01, -3.3085085452e-02, -8.6370892823e-02,  6.0859143734e-02, 
	-2.0360976458e-02, -2.1836631000e-02, -4.3214570731e-02, -1.6711108387e-02, -5.0533216447e-02, -3.6240182817e-02, -3.3382244408e-02, -1.3640403748e-01, -1.4322655275e-02, -5.5296119303e-02, 
	 1.4899089001e-02, -1.2560409307e-01, -5.9614919126e-02,  3.8840107620e-02,  8.2573346794e-02, -1.5567159653e-01,  8.5852995515e-02, -3.7406295538e-02,  1.7907286063e-02, -1.5538251027e-02, 
	 8.9252822101e-02, -3.3010685444e-01,  1.1592754722e-01, -1.1890761554e-01,  2.7348570526e-02,  1.0040274262e-01,  1.2945079803e-01, -6.3146613538e-02,  2.4911347777e-02,  3.7061840296e-02, 
	-6.4553758129e-03, -1.0344143212e-01,  8.6773773655e-03, -1.1917117983e-02, -1.5373760462e-01,  1.7672980204e-02, -1.4067251980e-01,  7.8648678958e-02, -9.2389777303e-02, -2.1679052711e-01, 
	 2.2823091131e-03, -1.4367893338e-01, -5.5780012161e-02, -7.7576309443e-02,  9.0425223112e-02,  5.0779808313e-02,  1.6110699624e-02, -1.4795668423e-01,  6.5033710562e-03, -4.0976531804e-02, 
	-1.1680512130e-01,  2.6026817039e-02,  3.6963287741e-02,  2.8026899323e-02,  3.0772792175e-02,  1.7017073929e-02,  4.8859722912e-02,  8.7836176157e-02, -1.2572710216e-01, -5.4421417415e-02, 
	 1.5029887855e-01, -1.8161128461e-01, -2.3738797009e-01,  2.8658598661e-02,  4.7079343349e-02, -2.7069980279e-02,  5.2693523467e-03,  1.7491517961e-01,  3.8199480623e-02,  9.4497948885e-02, 
	 9.1291710734e-02,  1.0097125173e-01,  9.1647006571e-02, -5.3759843111e-02,  1.7856989801e-01, -6.3295364380e-03, -1.4660330117e-01,  1.8750488758e-01,  1.7157374322e-01, -5.6523263454e-02, 
	 1.1781695485e-01,  1.1493903399e-01,  8.7085269392e-02,  1.1430174112e-01, -2.1538417786e-02, -2.7273984626e-02, -8.2872375846e-02,  1.1518521607e-01,  1.6413682699e-01,  3.9502587169e-02, 
	 4.5982938260e-02,  1.6611840576e-02,  1.3130161911e-02,  7.0108108222e-02, -3.6918256432e-02,  1.6356538236e-01, -1.1264455505e-02,  1.9444619119e-01,  2.1384418011e-01, -1.0956729203e-01, 
	-1.4909175038e-01,  1.5179722011e-01, -1.3689425588e-01,  1.5181565657e-02, -5.8351438493e-02, -6.2812164426e-02,  3.2013591379e-02,  7.5411908329e-02, -1.3013551012e-02,  1.1479384452e-01, 
	 3.0592044350e-03, -3.7532489747e-02,  1.8166260794e-02,  3.7738200277e-02,  2.3454548791e-02, -1.6091050580e-02,  9.0369209647e-02, -7.5176269747e-03,  6.6151800565e-03,  1.6878357157e-02, 
	-1.0895687342e-01, -7.6276166365e-03, -5.9703062288e-03, -8.5784509778e-02, -4.0970008820e-02,  9.0757951140e-02, -4.0139898658e-02, -1.8432814628e-02, -1.3002023101e-01, -1.3396774232e-01, 
	 6.5507122781e-04, -2.0267507061e-02, -2.1475577727e-02, -2.7162801474e-02, -1.2266238779e-01, -9.0421110392e-02,  1.0182431340e-01,  6.0627035797e-02,  8.6458973587e-02,  1.0835187137e-01, 
	-1.3138926029e-01,  1.4214482903e-01,  2.9041174799e-02,  9.4773769379e-02,  8.1599131227e-02, -1.7206190154e-02, -1.7910285294e-01, -2.0712050796e-01, -9.4372384250e-02, -9.1598160565e-02, 
	 7.6417848468e-02, -1.0816648602e-01,  1.3674362004e-01,  1.1227533221e-02, -4.4392224401e-02, -1.4628127217e-01,  7.4638903141e-02,  1.1840718985e-01,  1.0151585191e-01,  2.7785015106e-01, 
	-6.4521474997e-04, -1.4368325472e-01,  1.0080063343e-01, -5.8218471706e-02, -1.2797755003e-01,  6.3389666378e-02,  7.5928300619e-02,  3.5268500447e-02,  3.7097472697e-02,  2.5109395385e-01, 
	-3.7279065698e-02, -1.3331516087e-01, -3.3299182542e-04,  1.2507273816e-02,  1.1337561905e-01,  3.8643691689e-02, -1.7448621988e-01,  5.1543164998e-02, -3.3794846386e-02,  4.1405465454e-02, 
	-1.1949596554e-01,  4.5134272426e-02,  2.8421966359e-02,  7.6618663967e-02, -2.9090892524e-02, -1.0456354357e-02,  2.0468620583e-02, -1.0826452635e-02,  1.7807286931e-03, -3.4304678440e-02, 
	-9.4627641141e-02,  1.7287388444e-01, -1.1750463396e-01, -6.5945461392e-02,  6.2175285071e-02, -3.1800612807e-02,  9.7069263458e-02,  5.3993426263e-02,  1.7792053521e-01,  1.1425341666e-01, 
	 8.7072566152e-02,  1.6990050673e-01,  7.7150151134e-02,  1.3686095178e-01,  4.4086705893e-02, -6.7029461265e-02, -2.1520245075e-01, -6.8447478116e-02, -1.3523961604e-01, -1.9904734567e-02, 
	-1.4551468194e-02, -9.2065669596e-02, -1.8939996138e-02, -1.0272444040e-01,  5.9437684715e-02,  4.7544866800e-02,  1.1292988062e-01,  1.2587907910e-01,  1.3268314302e-01, -1.1336899363e-02, 
	 1.9769340754e-01,  5.0912324339e-02,  4.6509392560e-02,  3.2806901727e-03,  2.2220259532e-02,  1.1326208478e-03, -1.0440560989e-02, -6.3352310099e-03,  2.3664807901e-02,  1.1097285897e-02, 
	-3.6539703608e-02,  2.5514762849e-02,  2.2376485169e-02, -9.3003027141e-02,  1.3088539243e-01, -5.7885017246e-02, -3.0036214739e-03, -1.6509976983e-01,  1.4862859249e-01,  4.6082172543e-02, 
	 6.8697795272e-02, -1.2953178957e-02, -7.6247297693e-04, -9.9058583379e-02,  8.3115033805e-02,  6.5238237381e-02, -4.5414038002e-02,  1.1400829069e-02, -1.5036773682e-01,  1.0055940598e-01, 
	 1.9800551236e-03,  1.9017904997e-02, -3.6190815270e-02,  5.4484061897e-02,  1.4753769338e-01,  1.0086223483e-01, -3.3816155046e-02,  3.6059871316e-02,  5.1064952277e-03,  6.2378935516e-02, 
	 1.7367586493e-01,  2.3936770856e-02, -1.0319878347e-02, -1.8525467813e-01,  3.6216534674e-02,  1.0762159713e-02, -2.0909388363e-01,  3.2864134759e-02, -3.4184992313e-02, -9.4324216247e-02, 
	-7.3085591197e-02, -4.9743084237e-03,  1.1013212614e-02, -2.1656681597e-01, -3.3299125731e-02,  1.0346969962e-01,  2.4792756885e-02,  5.4880897515e-03,  1.1260411702e-02,  5.4935168475e-02, 
	 1.4431463182e-01, -1.8352072686e-02, -1.0066767037e-01,  6.7863821983e-02, -9.8383231089e-03,  2.3417489603e-02, -1.7762215436e-01,  6.1439715326e-02,  2.6112309570e-05,  2.7241267264e-02, 
	 5.9969931841e-02, -1.2378341705e-01, -4.6518286690e-03, -3.8758143783e-02, -1.2009018101e-02, -4.0306843817e-02, -3.9049305022e-02, -9.7634367645e-02, -1.1599684507e-01,  1.0302602500e-01, 
	 1.5589067340e-01,  9.8484242335e-03, -1.2421885133e-01,  7.1279339492e-02, -7.9081729054e-02, -1.9599086046e-01, -8.1123068929e-02, -2.6410102844e-01, -2.3258158565e-01, -3.0139973387e-04, 
	-1.7658074200e-01, -1.4441423118e-01, -6.8533547223e-02, -5.3766459227e-02, -6.9213770330e-02,  1.3182158768e-01, -5.0529405475e-02, -6.7568480968e-02, -2.0223270357e-01,  4.1478592902e-02, 
	-2.6623579860e-01, -1.0801057518e-01,  1.4093406498e-01, -1.8154799938e-02, -6.9257758558e-02, -1.8018849194e-01, -1.7549529672e-02, -4.1192345321e-02, -2.9891613871e-02,  2.6660393924e-02, 
	-1.1330921948e-01, -2.2420758381e-02,  8.6235836148e-02, -1.0162880272e-01, -2.4646461010e-02, -1.1329381913e-01,  1.3209977746e-01,  6.3481822610e-02, -6.5839667805e-03, -1.6412031651e-01, 
	 8.9541941881e-02, -1.5707308194e-03, -1.1169918627e-01, -8.0925963819e-02,  3.1804092228e-02, -1.3146753609e-01, -9.6548900008e-02, -9.2573598027e-02, -3.6922544241e-02,  1.3910469413e-01, 
	 8.2249924541e-02,  1.5005174279e-01, -1.1707527190e-01, -1.6489988193e-02,  1.1421017349e-01, -3.4386754036e-02,  1.3886150718e-01,  1.4968323708e-01,  3.3442519605e-02, -1.0415783525e-01, 
	 5.6633513421e-02,  6.5853931010e-02, -4.7573301941e-02,  3.9623629302e-02,  1.4372280240e-01,  5.6894503534e-02,  3.7905011326e-02, -3.9175774902e-02,  1.3557204604e-01, -3.0870892107e-02, 
	 7.1122609079e-02,  5.7341333479e-02, -5.2161831409e-02, -1.5553070605e-01,  1.3152302802e-01,  8.3819836378e-02, -1.2175603211e-01,  7.3628827929e-02,  2.4345370010e-02, -2.2397354245e-02, 
	 2.7574133128e-02,  1.4194863616e-03, -5.1610253751e-02,  7.3735266924e-02, -3.0343651306e-03,  1.2806421518e-01,  1.3242769055e-02,  2.1228560805e-01,  1.3937050104e-01,  3.1686410308e-02, 
	 2.2611368448e-02,  1.4360006154e-01,  1.8198065460e-01,  6.3251577318e-02, -1.1519780755e-01,  2.0688699558e-02, -3.0929423869e-02, -4.3314248323e-02,  1.0696727037e-01,  1.8204888701e-01, 
	-5.6780040264e-02,  2.2590512037e-01,  1.2572135031e-01,  1.4376893640e-02, -1.9988158345e-01, -1.8267719448e-01, -3.3921215683e-02,  9.7290910780e-02, -1.1562797427e-01, -1.9450882077e-01, 
	 6.9928169250e-02, -7.6327398419e-02, -9.2465519905e-02, -1.0404434986e-02,  8.2800388336e-02, -6.5929532051e-02, -7.4906818569e-02, -1.8951721489e-02,  5.8809574693e-02,  8.0780513585e-02, 
	-9.7445614636e-02,  7.3576837778e-02, -9.0817753226e-03, -1.2582437694e-01, -2.7206596732e-01, -1.7322224379e-01,  7.3538631201e-02, -5.8792036027e-02, -5.5477406830e-02,  1.4277790487e-01, 
	-5.7281628251e-02, -1.7298176885e-02, -1.5585617721e-01, -5.1715191454e-02,  1.3144521415e-01,  8.5848107934e-02,  7.9904474318e-02, -3.3948577940e-02, -1.2591451406e-01, -5.7129230350e-02, 
	-1.6747453809e-01,  1.1178715527e-01,  7.7995955944e-02, -1.4135114849e-02, -3.5304170102e-02,  6.6986232996e-02,  5.3311079741e-02,  1.7669389024e-02, -4.2766008526e-02, -1.5550060570e-01, 
	-1.9508365542e-02, -2.9170957208e-01, -1.4035623521e-02,  1.8503263593e-01,  8.5753694177e-02,  1.0985168070e-01,  4.0106918663e-02,  9.8644883838e-04, -1.7889033258e-01,  1.3959830999e-01, 
	-4.5435313135e-02, -1.6472102702e-01,  1.3700874150e-01,  3.4428748768e-03,  9.2960065231e-03, -5.3163869306e-03,  1.0705665685e-02, -2.1116035059e-02,  1.9177591801e-01, -1.4672794938e-01, 
	 1.6723040491e-02, -1.0301358998e-01,  2.4042164441e-03,  1.3174568117e-01, -5.4662311450e-03,  1.0622696020e-02,  1.0099959373e-01,  1.1686234176e-01,  1.0000038147e-01, -2.0158061385e-01, 
	 3.2721176744e-02, -4.5477978885e-02, -1.3150802255e-01,  4.4559992850e-02,  5.4285939783e-02, -1.9331833720e-01, -1.0180606693e-01, -5.4528120905e-02, -6.1274901032e-02,  1.5172779560e-01, 
	 7.7202130342e-04,  3.1322751194e-02, -5.3334452212e-02, -3.3809775114e-01, -2.2026938200e-01, -4.6467330307e-02,  1.6750290990e-01, -7.1600131691e-02, -2.1634759009e-01,  1.0537751019e-01, 
	 7.6292537153e-02,  8.4465473890e-02,  8.9865429327e-03, -4.6377703547e-02, -1.5544736385e-01, -3.5236823559e-01,  5.2443379536e-03, -1.0809977353e-01, -1.9694093615e-02, -7.9546347260e-02, 
	-9.4839051366e-02, -1.2612873316e-01,  9.2240400612e-02,  9.8375901580e-03, -6.7360013723e-02, -1.1887924746e-02,  2.4796264246e-02, -8.6728461087e-02,  1.7004348338e-02, -1.3656261563e-01, 
	-4.0481932461e-02,  7.0653527975e-02, -2.2059975192e-02, -2.4978930131e-02,  2.5063690543e-01,  1.6133798659e-01, -1.1254350096e-01, -2.7564298362e-03,  1.4748422801e-01, -1.2786746025e-01, 
	 5.9201814234e-02,  8.1171810627e-02, -6.4722545445e-02,  2.0846711472e-02,  5.9184484184e-02,  1.9904104993e-02,  6.3111461699e-02, -2.8179584071e-02,  3.4511029720e-02, -1.0014078021e-01, 
	 2.2029139102e-02,  7.7489815652e-02,  2.5762764737e-02,  7.4082113802e-02,  2.1432414651e-01, -8.6335264146e-02,  1.1471623927e-01, -1.0494705290e-01,  2.2491756827e-02,  3.7909646053e-03, 
	 1.9920116663e-01, -3.9309103042e-02,  8.8090069592e-02, -1.9473163784e-01, -2.3125007749e-01,  7.7298477292e-02, -7.7766537666e-02, -8.4162816405e-02,  1.0179052502e-01,  3.4235975146e-01, 
	 2.2227665409e-02,  1.1280919611e-01, -2.3235325515e-01,  1.8738272786e-01, -1.8751939759e-02, -1.4948906004e-01,  1.0057079792e-01, -2.1591541171e-01, -1.4314772189e-01, -3.8961162791e-03, 
	-2.4279256165e-01, -6.5192408860e-02, -2.1764972806e-01, -2.3672224954e-02, -2.3468634114e-02, -1.7742416263e-01, -1.3581443578e-02, -9.0982779860e-02, -4.1282363236e-02,  4.2625136673e-02, 
	-8.7224408984e-02,  5.5361747742e-02,  4.4944860041e-02, -1.5986794233e-01, -1.2747681141e-01,  1.6266001761e-01, -1.5047927387e-02,  9.0586736798e-02,  5.3208354861e-02, -6.4111940563e-02, 
	 1.1078269780e-01, -8.9432351291e-02, -2.5869008899e-01, -5.5655017495e-02, -1.7001309991e-01, -8.1450819969e-02, -1.6377767920e-01, -3.2424099743e-02,  1.1554693803e-02,  2.8598364443e-02, 
	-5.9422463179e-02, -9.1369196773e-02, -1.0693333298e-01,  5.1991410553e-02, -1.3048925996e-01,  1.8863442540e-01, -1.2795093656e-01,  1.2993684411e-01, -6.0389757156e-02,  1.3009473681e-01, 
	 1.2892864645e-01,  1.1288102716e-01, -4.5159023255e-02,  6.3640512526e-02,  3.0968070496e-03, -2.8908008710e-02, -4.7771923244e-02, -3.9634976536e-02,  3.3509187400e-02,  1.7735676467e-01, 
	 1.0348169506e-01,  2.0829972625e-01,  2.5130944327e-02,  1.9034819677e-02, -1.0697472095e-01, -2.5176217780e-02, -4.3076671660e-02, -1.5552955866e-01, -1.1724486947e-01, -1.6205909848e-01, 
	 4.9099292606e-02,  1.2426946312e-01, -2.3324675858e-01, -2.2246114910e-02, -1.8369977176e-01, -1.8680447340e-01,  1.9826134667e-03, -9.1102190316e-02, -2.9671801254e-02,  4.8499256372e-02, 
	 2.1344701946e-01, -3.8608416915e-02,  4.1567951441e-02, -2.9036542401e-02,  1.3613229990e-01,  5.5764406919e-02, -5.8115649968e-02, -5.4127067327e-01, -7.4170907028e-03, -1.2739044428e-01, 
	 1.1347272247e-01,  6.2286905944e-02,  8.5709430277e-02, -6.5863706172e-02,  1.5583800152e-02,  1.3469819725e-01, -1.6610095277e-02, -3.8009110838e-02, -7.5900398195e-02, -1.3540953398e-02, 
	 2.4633267522e-01, -7.9072430730e-02, -9.4477221370e-02,  1.1989330500e-01,  5.8995623142e-02,  9.1219373047e-02,  2.4614971876e-01, -6.0862042010e-02,  6.7684985697e-02,  6.1653848737e-02, 
	-2.0919594169e-01, -2.2569574416e-01, -1.8383413553e-01,  9.0562842786e-02,  2.2690607235e-02,  2.8116622940e-02,  1.2940993905e-01,  7.0919275284e-02, -5.4702363908e-02,  1.2166652828e-01, 
	 5.1811713725e-02, -1.4605738223e-01, -1.0653066635e-01,  1.0952264816e-01, -6.1333760619e-02, -6.3052758574e-02,  9.0965673327e-02,  3.7285813596e-03,  8.0028511584e-02, -5.0414109137e-04, 
	 9.0734511614e-02,  8.6701184511e-02, -1.8277771771e-02, -8.2959970459e-03,  7.3137052357e-02,  1.0469972342e-01,  1.3705483079e-01,  8.8691607118e-02,  3.2500699162e-02,  1.0687305592e-02, 
	 6.7309156060e-02,  9.7590111196e-02, -3.8784251083e-03, -4.3054580688e-02, -1.6862362623e-01, -1.5377464890e-01, -6.4802482724e-02, -1.0573928058e-01,  1.0900489241e-01, -6.4784616232e-02, 
	-1.8270608038e-02, -1.6687636077e-01, -1.1444959044e-01, -2.8538179398e-01,  1.0807184875e-01, -3.6361619830e-02, -2.0672741532e-01,  9.9955566227e-02,  1.0621856898e-01,  5.6281954050e-02, 
	 1.9871545956e-02,  1.1034675688e-01, -1.0874027759e-01, -1.6607470810e-01,  9.4742819667e-02, -7.0240631700e-02, -1.9221451879e-01, -1.5890370309e-01, -1.1018151045e-01,  1.8814569339e-02, 
	-9.7707673907e-02, -1.4277353883e-01, -3.4168139100e-03, -1.0158001445e-02, -1.0537587851e-01, -2.4621042609e-01,  1.4144780114e-02, -1.8424034119e-02,  6.6470220685e-02, -1.2550710142e-01, 
	-1.2712572515e-01, -4.4129319489e-02, -1.0373855382e-01, -3.2999449968e-01, -1.4910016209e-02, -9.4038479030e-02, -1.4177690446e-01,  2.6993507519e-02, -1.5142183006e-01,  2.9153446667e-03, 
	-7.1019440889e-02, -1.3083423674e-01,  6.2383521348e-02, -1.5268863738e-01, -1.6619415581e-01, -3.3534079790e-02,  4.1861332953e-02,  9.6410632133e-02,  3.3626858145e-02,  1.0311486572e-01, 
	-8.5397489369e-02,  5.4005585611e-02,  1.3533852994e-01, -1.3893899322e-01,  1.5986351669e-01,  1.0882851481e-01,  2.5673899055e-01,  4.0430702269e-02, -3.6505407095e-01, -1.0536636412e-01, 
	-1.4363667369e-01,  9.5618017018e-02,  1.5284555033e-02, -1.6976214945e-01,  7.1072801948e-02,  3.2880108804e-02, -4.8480730504e-02, -3.9830219001e-02,  2.4167666212e-02,  5.5890064687e-02, 
	 8.2478433847e-02,  1.6063602269e-01,  1.8362803385e-02, -1.5912289917e-01,  1.0320911556e-01,  7.6155483723e-02,  1.6589606181e-02, -6.5488949418e-02,  1.3967409730e-01, -3.6033820361e-02, 
	 1.3009127229e-02,  3.3344637603e-02,  2.2137254477e-01,  3.2398134470e-02, -4.8820756376e-02,  1.1029335111e-01,  1.3197559118e-01,  4.3360341340e-02, -7.5100027025e-02,  6.3258238137e-02, 
	 9.8819084466e-02,  2.2997598350e-01,  4.2941300198e-03,  2.4514524639e-01,  1.2214604765e-01,  4.8209089786e-02, -5.8508560061e-02,  3.2486986369e-02, -6.6180445254e-02,  1.6019405425e-01, 
	 1.2393986434e-01, -1.0169128329e-01, -1.2921252847e-01,  1.6220137477e-01,  5.1847022027e-02,  4.0137194097e-02,  1.0066642612e-01,  5.3621806204e-02,  5.3937967867e-02,  1.2182929367e-01, 
	 8.7165661156e-02, -4.8756983131e-02,  1.3045047224e-01,  3.0554506183e-01,  6.3631251454e-02,  1.0561320186e-01,  6.0005262494e-02,  1.1642798036e-01, -9.4223313034e-02,  3.6301542073e-02, 
	 1.8019512296e-02, -4.7021526843e-02, -1.6257068515e-01, -6.7338585854e-02, -8.1090256572e-02,  1.7832878977e-02,  2.0672401786e-01,  4.4373121113e-02, -2.2923095524e-01, -1.0480174422e-01, 
	-2.3126447573e-02,  6.7122817039e-02, -5.7951357216e-02,  8.0532347783e-04,  5.1028866321e-02, -1.2799326330e-02,  3.7153955549e-02,  9.3143329024e-02,  2.0117368549e-02, -1.3286882639e-01, 
	-3.6899827421e-02,  1.2308947742e-02, -2.4322965182e-03, -7.7125839889e-02,  4.7651968896e-02,  8.4930457175e-02, -4.8929966986e-02, -6.2714204192e-02, -4.4093608856e-02,  7.2607152164e-02, 
	-1.9010575116e-01,  1.0326521099e-01,  7.0832865313e-03,  1.0352200270e-01,  5.9047032148e-02, -6.6724419594e-02,  7.1335159242e-02,  3.5772488918e-03, -1.8771079183e-01,  1.4334860444e-01, 
	 2.8316888213e-01,  1.3497525454e-01,  1.3829725981e-01,  1.8417119980e-02, -1.3591057062e-01, -3.8005248643e-03,  2.6166489720e-01, -2.1779687703e-01,  6.5997660160e-02,  1.1019297689e-01, 
	-2.7988812327e-01, -5.1125884056e-02,  8.3319306374e-02, -8.8045246899e-02,  1.7051220639e-03, -5.4523121566e-02, -1.8106158078e-01,  2.4060751498e-01, -1.7601755261e-01, -7.0103853941e-02, 
	-1.2750758231e-01, -2.5290969014e-01, -1.2445512414e-01,  1.1457071453e-01, -2.9528018087e-02, -6.5381973982e-02,  1.7077365518e-01,  1.0133728385e-01, -7.4062603526e-03, -1.5268072486e-01, 
	-4.6671852469e-02,  1.3663071394e-01,  1.9133004546e-01, -1.3779693842e-01, -1.3902103528e-02,  1.0302586481e-02, -1.2207731605e-01,  1.8959020078e-01,  1.1020451039e-01, -1.3634338975e-02, 
	 2.3918272927e-02, -1.5553325415e-01, -7.8751891851e-02, -4.4623654336e-02,  1.1314827949e-02, -3.4177012742e-02,  6.1563722789e-02,  7.9531408846e-02,  4.3117713183e-02, -5.5557113141e-02, 
	 2.6333929971e-02, -1.7738248408e-01,  8.9677914977e-02,  1.7267649993e-02, -1.2942072749e-01,  1.5210709535e-02, -8.7422698736e-02, -1.8700955436e-02,  2.9181467835e-03, -1.7514453828e-01, 
	 8.3850376308e-02, -2.3605393246e-02,  1.9555261359e-02,  3.8761470467e-02, -1.4505521394e-02,  9.2112764716e-02, -2.2626191378e-02,  1.1537515372e-01,  5.0667960197e-02, -6.5212994814e-02, 
	-7.1029537357e-03,  9.6385762095e-02,  1.3398844004e-01,  8.6127985269e-03, -1.0006640106e-02,  1.6171990428e-03, -1.6325747594e-02, -8.7189106271e-03,  2.1606715396e-02, -1.1004176922e-02, 
	-2.3449754715e-01, -5.1097471267e-02,  8.6962938309e-02, -2.2394430637e-01, -1.0113839805e-01, -7.3531746864e-02, -4.2306222022e-02, -1.2685108185e-01, -2.4811165035e-01, -1.9428934157e-01, 
	-1.2547948956e-01,  1.5713934600e-01, -1.6636368632e-01,  5.1180463284e-02,  1.0954720527e-01, -1.1502626538e-01, -1.1330285668e-01, -1.8523874879e-01,  4.5270420611e-02, -3.1060673296e-02, 
	-1.2970973551e-01, -7.8939683735e-02,  3.6739744246e-02,  1.2642103434e-01,  7.6394923031e-02,  8.7585605681e-02, -1.2101084739e-01, -9.6144132316e-02,  7.0098400116e-02, -2.5409746170e-01, 
	-9.8551832139e-02, -3.6868065596e-02, -2.1801696718e-01, -2.7632128447e-02,  6.1235800385e-02,  8.9898303151e-02,  1.5271864831e-01, -5.9328168631e-02,  1.3679674827e-02, -4.8911929131e-02, 
	-3.7967467215e-03, -1.8524610996e-01,  1.0633000731e-01,  2.0704792440e-01, -2.7522670105e-02,  7.4926704168e-02, -1.6339147091e-01, -2.3471381515e-02, -1.6557890177e-01, -6.8784072995e-02, 
	-6.9283924997e-02, -8.8589571416e-02, -1.5802334249e-01, -1.2462195009e-02, -2.1323297918e-01,  2.2975737229e-03, -1.2413264066e-01, -4.2256250978e-02,  8.3983287215e-02,  1.7140686512e-02, 
	 1.8247200176e-02, -2.4337505456e-03, -2.8401798010e-01, -9.6576809883e-02,  2.3056462407e-02, -6.2828548253e-02,  2.2651489079e-01,  6.9730952382e-02, -9.2571079731e-02,  2.6918157935e-02, 
	 5.9804379940e-02,  9.9470049143e-02, -1.0659277905e-05, -1.2290109880e-02, -1.2834873796e-01, -3.5295575857e-02,  3.9134081453e-03, -9.5795966685e-02,  2.4623975158e-02, -1.1606308073e-01, 
	 6.3096784055e-02,  7.0057366975e-03, -4.0738057345e-02,  1.0960633308e-01,  3.4960159101e-03, -1.2505339459e-02, -8.9523471892e-02,  9.4331420958e-02,  1.0814294219e-01, -6.2789328396e-02, 
	-1.8660296500e-01,  1.2526994396e-04,  6.7440770566e-02,  3.4688070416e-02, -4.2008660734e-02, -2.9761947691e-02, -1.8210318685e-01, -1.5633575618e-01, -2.2549688816e-01, -1.2765800953e-01, 
	-1.1570739001e-01, -3.7879634649e-02,  1.5526723862e-01, -1.1798132211e-01, -2.2972388566e-01,  2.6111027226e-02, -1.1157595366e-01, -9.8244855180e-03, -3.3206590451e-03, -3.0933478847e-03, 
	-1.2643875554e-02,  1.8163616955e-01,  4.9414008856e-02,  2.1336010098e-01,  6.6533371806e-02,  6.9817110896e-02, -7.2136390954e-03, -1.1047220975e-01, -7.1165546775e-02, -5.7019166648e-02, 
	 2.9088923335e-01,  5.0379473716e-02, -1.2318583205e-02, -3.2704570889e-01,  5.6534785777e-02, -5.5908396840e-02, -2.4630041793e-02, -1.0751462728e-01,  6.5674960613e-02, -6.5625566058e-03, 
	-4.6192385256e-02,  1.3773800433e-01, -3.6043980718e-01, -3.3869154751e-02,  6.4668931067e-02,  3.1726781279e-02, -1.9229071215e-02,  4.8058480024e-02,  5.8488491923e-02,  7.9860575497e-02, 
	 4.1285444051e-02,  3.1632803380e-02, -1.0354983062e-01,  2.8184524179e-01,  4.1400805116e-02,  4.6563498676e-02, -4.4233561493e-03,  9.8014123738e-02, -1.7400191724e-01, -8.2157023251e-02, 
	 2.2144701332e-02, -5.9454303235e-02, -2.7375483885e-02,  3.2750281692e-01, -2.8253559023e-02,  5.6334309280e-02,  1.3612855691e-03, -7.2126075625e-02, -1.5443815291e-01, -1.3740664721e-01, 
	 7.3868796229e-02,  1.2762646377e-01, -2.4724377319e-02,  8.9577980340e-02, -6.6881179810e-02, -2.7781676501e-02,  2.2958405316e-03,  3.8003537804e-02,  5.2497141063e-02,  2.4580013007e-02, 
	-4.1753306985e-02,  4.4313371181e-02, -1.6874210536e-01,  1.2624980509e-01,  1.0167712718e-01,  1.2958499789e-01,  7.7899061143e-02, -1.7752800882e-01, -1.0093548894e-01,  2.3604003713e-02, 
	 1.5749382973e-01, -1.7288480699e-01,  1.6778899590e-03, -8.9775463566e-03, -7.1646250784e-02,  1.5692718327e-01,  2.4792060256e-01,  1.9262989983e-02,  2.4843046442e-02, -7.8931018710e-02, 
	-4.6579301357e-02,  1.2911868095e-01,  2.7494388819e-01,  3.4610938281e-02, -1.3258007169e-01, -1.4216604643e-02,  3.1826775521e-02,  1.5975697339e-01,  4.3793462217e-02,  7.9321838915e-02, 
	-5.6732345372e-02,  1.8586242199e-01,  8.6009018123e-02, -6.1620257795e-02, -1.0661087185e-01,  3.7340518087e-02,  8.3866998553e-02, -1.6545017064e-01,  4.2945139110e-02,  7.3987945914e-02, 
	-4.4700052589e-02, -6.3848957419e-02, -2.7556644753e-02,  1.5657703578e-01,  6.2349595129e-02, -2.2957036272e-02, -9.8851891235e-03,  1.0451392271e-02, -6.7652039230e-02, -7.9585365951e-02, 
	 3.8905967027e-02,  3.9063982666e-02,  1.3272261620e-01,  6.3293129206e-02,  1.0696733743e-01,  1.2181628495e-01,  8.0653198063e-02,  2.6662031189e-02,  9.8577685654e-02, -8.4382198751e-02, 
	 2.7704037726e-02, -2.6949640363e-02, -7.9060256481e-02, -5.8913324028e-02, -1.2663649023e-01, -3.1169212889e-03,  1.1782506853e-01, -1.0485067032e-02,  1.0011167079e-01,  1.0276317596e-01, 
	-5.4979447275e-02,  7.5460910797e-02, -8.2704741508e-03,  1.3185201213e-02, -1.6737431288e-01,  7.4853040278e-02, -1.8456706405e-01,  8.3040155470e-02,  6.3739486039e-02,  2.7936711907e-01, 
	 7.0833511651e-02,  2.0361078903e-02, -1.2057928741e-01, -4.9467653036e-02,  3.0367188156e-03, -2.6711320505e-02, -3.8157494273e-03, -5.0759870559e-02, -1.2083476409e-02, -1.2204269320e-01, 
