#ifndef PARAMS_CONV2D_32_H
#define PARAMS_CONV2D_32_H
#include "params.h"

const float layer_32_conv2d_weight[UNET_PAR_32_CONV2D_KERNEL_Y*UNET_PAR_32_CONV2D_KERNEL_X*UNET_PAR_32_CONV2D_IN_FILTER*UNET_PAR_32_CONV2D_OUT_FILTER] = {
	-7.4994862080e-02,  6.5681427717e-02, -5.9404790401e-02,  1.8789146096e-02, -2.8855346143e-02,  9.0074114501e-02, -4.4537719339e-02, -8.0691143870e-02,  2.4284584448e-02,  1.2038137065e-03, 
	-3.8840219378e-02,  1.3477377594e-01, -3.4143097699e-02, -1.3767735660e-01,  7.5137883425e-02,  7.8649833798e-02, -5.0389599055e-02, -6.7911401391e-02,  3.7678886205e-02,  6.1366233975e-02, 
	 7.8836411238e-02,  1.8310363591e-01,  7.7411844395e-03,  2.3252023384e-02,  5.2130427212e-03, -1.2884642929e-02,  9.2359315604e-03,  9.2034198344e-02,  1.3917188160e-02,  3.0941853300e-02, 
	-1.1246555299e-01, -3.6374483258e-02,  1.1076664552e-02,  1.3857884705e-01, -1.2564943731e-01,  4.1276119649e-02, -8.6230579764e-03,  9.2605734244e-03, -1.6178914905e-01, -1.2912258506e-01, 
	-1.6258351505e-01,  3.3812388778e-02, -7.8479170799e-02, -6.5790424123e-03,  1.3301306404e-02, -1.7316281796e-01, -7.6689064503e-02, -7.1526601911e-02,  2.5169266155e-04,  3.6655388772e-02, 
	 5.2706379443e-02,  5.9774484485e-02,  5.5480925366e-03,  1.1450641602e-01, -2.5555700064e-01, -1.5609914064e-01, -1.0313911363e-02,  2.8950473666e-01,  9.5793016255e-02,  1.1802094430e-01, 
	 2.4646411836e-01, -6.2121283263e-02, -1.2798793614e-01, -2.4390985072e-01,  1.4793732762e-01,  1.7771239579e-01,  1.1468854500e-03, -3.8525832351e-03, -7.2395587340e-03,  2.9649613425e-02, 
	-1.2700997293e-01,  1.2883658707e-01, -5.8999110013e-02, -3.0709125102e-02,  7.2793677449e-02,  2.2134800255e-01, -1.0867596418e-01, -3.6449101754e-03, -1.4959622920e-01,  5.5383916944e-02, 
	 1.9124778919e-03, -6.9743126631e-02, -1.3856172562e-01, -3.5530591011e-01,  2.4514560401e-01,  3.0947989225e-01, -1.8174189329e-01,  1.9335125387e-01,  7.6125279069e-02,  3.6046721041e-02, 
	-4.9604304135e-02,  1.2189225852e-01, -1.1416088045e-01,  6.5462157130e-02,  1.4804853499e-01,  1.7665587366e-01, -1.7750661075e-01, -1.6961316764e-01,  1.6034825146e-01, -3.2495751977e-01, 
	-1.5110425651e-01,  1.3484118879e-01,  1.4744032919e-01,  8.5951983929e-02, -3.2210059464e-02,  6.2391784042e-02, -1.1614115536e-01, -1.0722752661e-01,  1.2348847836e-01, -1.0658963025e-01, 
	-2.1233846247e-01,  2.2571028769e-01,  4.3444734067e-02,  9.1531388462e-03,  6.4380146563e-02, -4.3532367796e-02, -6.0213380493e-03,  2.0887054503e-01, -1.5627576411e-01, -3.6299282312e-01, 
	 9.8070949316e-02, -3.4603223205e-02, -1.3630753756e-01, -2.8156349063e-01, -1.0272803158e-01,  4.6063715219e-01, -6.1247445643e-02,  5.8346722275e-02,  2.0279996097e-01, -1.0717386007e-01, 
	-4.8733344674e-01, -2.7485653758e-01, -5.9335952997e-01, -3.9903241396e-01, -1.0803824663e-01,  2.0726171136e-01, -2.4960786104e-02,  6.4440242946e-02, -1.3520497829e-02, -6.4050525427e-02, 
	 3.4488288220e-03, -2.1468461491e-03, -1.5616384149e-01,  5.3405943327e-03, -1.1695827544e-01, -1.3598240912e-01,  3.7568354607e-01,  4.6364013106e-02, -2.2046989202e-01,  2.7408318594e-02, 
	 1.4206257463e-01,  9.0451784432e-02,  3.8606727123e-01, -2.0383310318e-01, -3.5172794014e-02, -2.8991445899e-02,  2.1408535540e-01, -1.7294432223e-01,  2.6460689306e-01, -7.9348921776e-02, 
	 2.0800977945e-02,  3.6109945178e-01, -2.0795744658e-01, -5.3168549202e-03,  2.1599894762e-01, -2.6555750519e-02, -5.5293917656e-01,  2.1044788882e-02, -2.6577275991e-01, -2.7939766645e-01, 
	-1.1211376637e-01,  2.2093705833e-01,  1.9501334429e-01,  2.1274515986e-01,  1.4844788611e-01, -1.0296220332e-01,  2.1392876282e-02, -3.8506776094e-01,  4.9403086305e-03,  3.0217161775e-01, 
	-3.9075762033e-01,  3.1213986874e-01,  6.7670375109e-01, -1.3742724061e-01, -1.1699085124e-02,  2.9748070240e-01, -2.3149631917e-02,  2.3725755513e-01,  5.2624070644e-01, -2.4057957530e-01, 
	-1.5824347734e-01, -1.4527812600e-01, -3.0104967952e-01, -2.4166123569e-01, -1.8080562353e-01, -2.9223698378e-01,  4.6788040549e-02, -4.7950833105e-03, -5.9824563563e-02, -4.5830421150e-02, 
	 5.5143617094e-02, -4.8398513347e-02, -5.7113159448e-02, -4.3352659792e-02,  3.1540818512e-02,  1.5741439164e-01, -8.2908116281e-02,  1.2735582888e-01,  1.0278636590e-02,  1.8359781802e-01, 
	 2.4758012593e-01,  7.9551286995e-02,  1.7117472365e-02,  4.6337088943e-01,  3.3101940155e-01,  1.3649958372e-01, -1.3968656957e-01, -1.8261112273e-01, -3.6087132990e-02, -1.5444286168e-01, 
	-2.0173990726e-01, -3.2999154180e-02, -2.2572994232e-01, -6.4464189112e-02,  2.4966551363e-01, -3.9719525725e-02,  6.6928848624e-02, -3.0403926969e-01, -1.3798533380e-01, -9.1050103307e-02, 
	-9.2534042895e-02, -1.6423179209e-01,  9.1381460428e-02,  8.3107560873e-02, -1.5835727751e-01,  1.1335259676e-01,  3.4122303128e-01, -2.8788119555e-01, -1.0280351341e-01, -1.7306618392e-01, 
	-4.8478767276e-01, -1.3808088005e-01, -1.6529753804e-01,  3.6978700757e-01, -1.5563881397e-01, -5.8032470942e-01, -3.8718676567e-01, -1.1535214633e-01, -9.9811159074e-02, -2.9245308042e-01, 
	-1.4140810072e-01,  2.6282098144e-02,  1.0418459028e-01,  8.2534678280e-02, -8.0861009657e-02, -6.7754156888e-02,  3.3818241209e-02,  4.7759599984e-02, -1.3636484742e-02,  3.6470044404e-02, 
	 1.1722294986e-01, -4.8009932041e-02, -7.3557324708e-02, -5.2462767810e-02, -4.3614123017e-02,  1.6715125740e-01, -4.1148617864e-02, -6.8807989359e-02,  1.7772108549e-03, -9.9029205739e-02, 
	 6.4335721545e-03,  4.8396244645e-02,  6.4072988927e-02, -3.7515681237e-02,  2.6045315899e-03,  3.1042328104e-02,  8.3044454455e-02, -1.0906775296e-01,  1.0580359399e-01,  1.6126985848e-01, 
	-8.9164569974e-02, -8.7202318013e-02, -3.4855559468e-02,  2.1424854174e-02,  6.6640146077e-02,  2.1258782595e-02,  1.0743843764e-01,  2.1015681326e-02, -9.0628966689e-02, -7.3248609900e-02, 
	-5.1672238857e-02, -1.3107627630e-01, -1.7665199935e-02, -1.3301713765e-01, -2.6757977903e-02, -1.9470229745e-01, -1.9117638469e-01,  2.0067968965e-01,  6.8398050964e-02, -6.9852069020e-02, 
	 4.6680957079e-02,  1.3302503526e-01,  3.2189019024e-02,  1.8005506694e-01,  1.2447570264e-01,  9.8513379693e-02, -1.3060789555e-02,  4.8963654786e-02,  2.0586639643e-02, -5.7926122099e-03, 
	-6.3874989748e-02, -1.6421435773e-01,  5.7611692697e-02, -3.3746425062e-02, -2.0514968783e-02, -2.3651523516e-02, -1.4047255740e-02, -2.7341046929e-01, -8.5777916014e-02, -7.3729731143e-02, 
	-2.0718832314e-01, -2.3209255934e-01, -1.1449012160e-01, -2.8134754300e-01,  7.8336961567e-02, -5.6063663214e-02,  1.0914249346e-02, -1.5301479027e-02, -6.4128972590e-02,  6.2558203936e-02, 
	 1.5459196642e-02, -4.9563217908e-02,  1.6314454377e-02,  2.2712148726e-01, -8.1281075254e-03, -2.3083291948e-01, -5.0831589848e-02, -9.1994948685e-02, -3.3230403066e-01, -2.5950899720e-01, 
	-2.2659815848e-01, -3.4177255630e-01,  2.6077675819e-01,  1.0613191128e-01, -3.7583196163e-01,  1.1149310321e-01, -5.6801371276e-02, -2.7137863636e-01,  6.6987737082e-03,  1.6647811979e-02, 
	-1.9093027711e-01,  1.8301546574e-01,  1.3235386461e-02, -1.1258590966e-01, -4.4605944306e-02, -1.2674404681e-01, -1.3889031112e-01, -2.6404419541e-01, -2.1384803951e-01, -1.4697293937e-01, 
	 5.5996614695e-01,  2.9242992401e-01,  8.2712829113e-02,  4.7883239388e-01,  2.2986173630e-01,  2.0401880145e-02,  1.7119883001e-01,  2.3840260506e-01,  9.3649506569e-02, -4.5967698097e-01, 
	-5.4662448168e-01, -5.6675833464e-01, -1.7662884295e-01, -1.5219810605e-01, -2.9413512349e-01,  3.6475884914e-01,  3.7188231945e-01,  2.8064796329e-01,  6.9714047015e-02,  1.9219721854e-01, 
	 1.0624076426e-01,  1.5962157398e-02,  1.0719180107e-01,  8.9011512697e-02, -2.8554210067e-01, -9.5583088696e-02,  1.7942508683e-02, -3.8133068010e-03,  4.7842147760e-03,  4.2464975268e-02, 
	 8.3746045828e-02, -3.4389942884e-02, -3.6026142538e-02,  4.0018517524e-02,  6.7658014596e-02, -1.3088311255e-01,  7.8173242509e-02, -3.6918621510e-02, -2.3772600293e-01, -4.9258697778e-02, 
	 6.5982379019e-02,  1.8907329440e-01, -3.5577368736e-01, -5.9892926365e-02,  6.6482111812e-02,  8.9942574501e-02,  1.6216076910e-01,  4.8642184585e-02, -1.2668147683e-01, -1.0481201857e-01, 
	 2.8326978907e-02, -1.9287867844e-01, -6.8538255990e-02, -8.2924619317e-02,  6.7655459046e-02,  3.2266348600e-02, -3.3118702471e-02, -7.1549132466e-02,  7.7564708889e-02, -1.4566837251e-01, 
	-1.2532153726e-01, -1.0834065080e-01, -4.0335670114e-02, -4.5885547996e-01, -5.6645017862e-01, -5.8479088545e-01, -1.2074938416e-01, -2.5433754921e-01, -5.0625902414e-01, -6.1919479631e-03, 
	-3.0509731174e-01, -2.4150569737e-01, -5.8268982172e-01, -3.4537488222e-01,  5.4985020310e-02, -9.5224000514e-02, -2.1233687177e-02,  3.0682677031e-01,  2.1771450341e-01,  2.0994590223e-01, 
	 4.0092915297e-01, -1.2799878418e-01,  1.1021693936e-03, -8.8103726506e-02,  4.7595240176e-02, -3.2393582165e-02, -2.3117765784e-01, -1.3835300691e-02, -3.3754006028e-01, -4.0323442221e-01, 
	 2.1575331688e-02,  3.3856000751e-02,  3.0063781887e-03, -2.2849908099e-02, -4.9093104899e-02,  1.1876212806e-01, -3.5667754710e-02,  3.3338848501e-02, -5.8960217983e-02, -4.0210634470e-01, 
	-7.7063404024e-02,  5.3750991821e-01, -1.3303035498e-01,  4.5491974801e-02,  3.0194467306e-01, -2.2899341583e-01, -2.3115365207e-01, -2.0603064448e-02,  1.1452039704e-02,  1.3374340534e-01, 
	-2.9207414389e-01,  1.7524595559e-01,  1.8041026592e-01, -3.2486259937e-02,  5.9912331402e-02, -1.1348212510e-01,  2.2547837347e-02,  4.0468493104e-01,  1.8445211649e-01, -1.2535341084e-01, 
	 3.2708784938e-01, -6.1576988548e-02, -3.8116258383e-01,  1.8555378914e-01, -1.3896752894e-01, -2.4458220601e-01, -2.2921474278e-01, -8.1790983677e-02,  1.2217941694e-02,  1.7990831286e-02, 
	 1.2669810653e-01,  2.6076593995e-01, -1.6856703162e-01,  7.0789274760e-03,  6.0419052839e-02, -3.9355227351e-01,  4.8859391361e-02, -3.4803819656e-01, -1.8632139266e-01,  1.1255488545e-01, 
	-1.4982517064e-01, -1.3089574873e-01, -2.8161607683e-02, -2.4022269249e-01, -1.5867219865e-01, -6.2455482781e-02, -1.9637839496e-01, -7.4425525963e-02,  2.9021549970e-02,  6.8236112595e-02, 
	-1.9723746926e-02, -1.0612112284e-01, -5.5783744901e-02,  4.6463865787e-02, -5.8909915388e-03,  6.0254443437e-02,  5.9417456388e-02, -4.5631296933e-02, -8.8689036667e-02,  3.4862600267e-02, 
	-7.1705512702e-02,  9.6933161840e-03, -3.9900174737e-01, -4.1601246595e-01, -4.0396916866e-01, -2.0118343830e-01, -2.9439321160e-01, -4.3238338828e-01, -3.1894916296e-01, -2.6988199353e-01, 
	-4.4021922350e-01, -4.9600310624e-02, -4.1679769754e-02, -3.0025422573e-01, -7.1968391538e-02, -1.6225601733e-01, -9.5290824771e-02,  4.7444090247e-02,  1.1105084419e-01,  1.2182732671e-01, 
	-1.4982597530e-01, -3.0103927478e-02, -7.9983264208e-02, -1.5704628825e-01, -1.0233282298e-01, -8.1244990230e-02, -3.2808819413e-01, -1.1349421740e-01, -2.5924548507e-01,  3.2852086425e-01, 
	-1.3364860415e-01, -1.5320476890e-01,  1.5461376309e-01, -1.8181642517e-02,  2.1590687335e-01,  1.7969928682e-01,  7.3312379420e-02,  1.9738638401e-01, -7.0603013039e-02,  8.6366876960e-02, 
	-1.2620146573e-01, -7.3410667479e-02,  8.7978146970e-02,  5.1015787758e-03, -1.1306765955e-03,  7.3016449809e-02,  5.7430960238e-02, -3.8806378841e-01, -3.1815639138e-01, -4.3981468678e-01, 
	-4.1418048739e-01, -3.5476815701e-01, -4.0243679285e-01, -4.1106525064e-01, -2.8708112240e-01, -2.5251665711e-01,  3.9117160439e-01,  4.7540509701e-01,  2.6968297362e-01,  3.3605673909e-01, 
	 3.3255997300e-01,  8.2712270319e-02,  7.2448953986e-02,  8.1711634994e-02,  1.2170299143e-01, -2.4347971380e-01, -1.8941454589e-01, -2.0671135187e-01, -3.7535119057e-01, -2.9452013969e-01, 
	-3.6359822750e-01, -2.6896545291e-01, -2.0378421247e-01, -2.8161904216e-01, -3.0985322595e-01, -1.8294629455e-01, -2.9216760397e-01, -3.3472451568e-01, -1.7572402954e-01, -3.0302968621e-01, 
	-1.5552717447e-01, -2.1606202424e-01, -2.9105758667e-01, -4.1145503521e-01, -2.7369314432e-01, -3.6287251115e-01, -4.0372398496e-01, -2.9355108738e-01, -3.3921447396e-01, -3.9946112037e-01, 
	-3.4523057938e-01, -2.8907361627e-01, -2.7329465747e-01, -2.0780725777e-01,  3.0163249001e-02, -1.8318974972e-01, -1.1663204432e-01,  5.9667911381e-02, -2.4370084703e-01, -9.2322781682e-02, 
	 3.0147364736e-01, -3.2082074881e-01, -2.9567354918e-01, -4.6211329103e-01, -3.2759308815e-01, -3.0736711621e-01, -2.8876018524e-01, -3.4830263257e-01, -2.4324724078e-01, -3.4979012609e-01, 
	-1.0137213022e-01, -1.1232686788e-01, -1.2569256127e-01, -1.6268735752e-02, -5.0909690559e-02, -2.0638957620e-01,  1.1696363240e-01, -5.8019720018e-02, -8.8255666196e-02, -7.5003847480e-02, 
	 1.2271748483e-01, -6.8236249499e-03, -2.3666827008e-02,  7.0792153478e-02, -2.8060061857e-02,  1.2721949257e-02, -5.6835133582e-03, -2.4644840509e-02,  1.9617754221e-01,  7.4674554169e-02, 
	 2.4461392313e-02, -1.1403790861e-01, -1.6840933263e-01, -1.1882386357e-01, -3.1325274706e-01, -1.3464678824e-01, -2.8328996897e-01,  1.8909446895e-01, -2.3882931098e-02, -3.1140008569e-01, 
	 3.3692866564e-01, -2.5126848370e-02, -2.4229060113e-01,  1.1401011795e-01,  2.1913308650e-02, -7.6731815934e-02,  1.0801666975e-01, -1.1292313226e-02,  7.4957542121e-02,  1.4861556888e-01, 
	-4.8117145896e-02, -1.0200526565e-01,  1.5339474380e-01,  2.3289409000e-03,  4.8070304096e-02, -9.3329086900e-02,  7.9361237586e-02,  6.4918577671e-02, -1.1837051809e-01,  8.5623845458e-02, 
	 8.0440312624e-02, -2.8162339330e-01, -2.4814346433e-01,  1.0066704825e-02,  2.2524701059e-01,  1.5373612940e-01,  2.2927691042e-01, -1.8462361768e-03, -2.3692378402e-01, -4.2828467488e-01, 
	 1.6712024808e-01, -2.9045334458e-01, -6.2012141943e-01, -8.1427343190e-02, -2.0159800351e-01, -4.0971052647e-01,  1.9412163645e-02,  2.1113889292e-02, -3.2481643558e-01, -7.6468318701e-02, 
	 5.4859153926e-02,  6.9553134963e-03, -8.9188843966e-02,  5.9667281806e-02,  6.4055696130e-02,  9.3758694828e-02, -6.4819127321e-02, -4.7329459339e-02, -2.1131783724e-02,  5.4739620537e-02, 
	-4.1709702462e-02, -8.8865801692e-02,  8.7322019041e-02,  6.1002176255e-02, -2.6328995824e-02,  1.8018504605e-02,  5.9352532029e-02, -1.3624487445e-02,  4.4978596270e-02,  2.0697328448e-01, 
	-2.0448712632e-02,  2.6306611300e-01,  2.2186806798e-01, -7.1043655276e-02, -1.7640294135e-01, -2.2588331997e-01,  9.7456900403e-04, -2.2017776966e-02, -7.7101476490e-02,  1.2424653769e-01, 
	 2.2647302598e-02, -2.8345260024e-01,  1.9278170168e-01, -3.8850467652e-02, -1.1756528169e-01,  2.9837808013e-01,  1.9670374691e-01, -9.6716629341e-03, -3.4558477998e-01, -9.8557502031e-02, 
	 3.2088598609e-01, -2.5364539027e-01,  2.3787625134e-01,  4.2505508661e-01, -3.3884733915e-01, -1.2589232624e-01,  2.1682555974e-01, -7.7763736248e-02, -1.4598551393e-01,  2.6656201109e-02, 
	-2.8393544257e-02,  2.4523469806e-01,  1.2119379640e-01, -9.4199344516e-02,  9.9610358477e-02,  2.6862698793e-01, -6.6553741693e-02, -2.0016855001e-01, -2.5377330184e-01, -1.3784333132e-02, 
	 1.4870491624e-01, -1.8418319523e-01,  1.3901509345e-01,  6.9622546434e-02, -2.8416407108e-01, -2.3530252278e-02,  3.2438404858e-02, -1.1687330902e-01, -3.6101989448e-02,  1.4839538932e-01, 
	-1.6910476610e-02, -2.2248664871e-02, -5.5953752249e-02,  2.9046293348e-02, -7.3618829250e-02, -1.6340768337e-01,  1.4985556901e-01, -9.7782149911e-02,  9.9146753550e-02, -6.6333130002e-02, 
	 1.0390204191e-01,  1.4893923700e-01, -2.2638335824e-01, -9.3837849796e-02, -9.9498532712e-02,  1.0914695449e-02, -6.4449146390e-02,  5.5581126362e-02, -7.2413474321e-02,  2.2132502496e-01, 
	 4.8625018448e-02, -7.4597403407e-02,  2.1296270192e-02, -1.0329882056e-01, -5.6549064815e-02,  6.6058337688e-02,  2.2552627325e-01,  6.5500810742e-02,  2.2924986482e-01,  1.3899736106e-01, 
	-9.7413443029e-02,  5.8806765825e-02, -2.4477219209e-02,  4.3106153607e-02,  9.2006117105e-02,  3.3639129251e-03, -2.1331593394e-01,  2.5639152527e-01,  2.3538371921e-01, -1.8168306351e-01, 
	-9.7691841424e-02, -4.0770024061e-01,  3.7772598863e-01,  2.1845945716e-01, -4.9767624587e-02,  6.9326334633e-03,  1.0094419122e-02, -1.2583659589e-01, -1.8793953955e-01,  6.3832104206e-02, 
	-1.0468774475e-02,  1.8190701306e-01,  1.7051192001e-02, -4.4202048331e-02, -1.1046993732e-01,  7.1533620358e-02,  8.6656741798e-02, -1.3679154217e-01, -1.4776548371e-02, -4.8707388341e-02, 
	-4.9116890877e-02,  8.4970276803e-03,  8.0902799964e-02,  9.7369469702e-02,  2.2079152986e-03, -1.0403379053e-01, -5.8204825968e-02, -3.3856321126e-02, -1.0643407702e-01,  1.2906564772e-01, 
	-9.6841380000e-02, -6.2227487564e-02, -9.5787078142e-02, -1.7847580835e-02, -4.3980773538e-02, -2.3293127120e-01, -4.1548237205e-02, -3.4518528730e-02,  2.6569640636e-01, -7.2334602475e-02, 
	-1.5192008018e-01, -1.3083903491e-01,  1.7951904237e-01,  8.6512759328e-02,  4.1116379201e-02, -6.6428944468e-02,  1.2018428743e-01,  7.2349578142e-02, -1.1826180667e-01,  5.1709119231e-02, 
	-4.0852269158e-03,  4.0322892368e-02,  1.1791739613e-01, -7.2504028678e-02, -6.4946256578e-02, -2.6721220464e-02,  1.6021019220e-01, -1.5205131844e-02, -1.5164895356e-01,  1.8200159073e-01, 
	 5.6521896273e-02,  3.0951583758e-02,  4.9968000501e-02, -3.2581504434e-02,  2.4646310136e-02,  2.9866969213e-02, -8.4375478327e-02,  1.0738132149e-01, -9.1947227716e-02, -3.6537609994e-02, 
	 1.6222372651e-01,  1.0930013657e-01, -1.6127221286e-01, -6.8186931312e-02, -1.9981631637e-01,  1.8934058025e-02, -8.1716209650e-02, -8.4337942302e-02, -2.8178948909e-02, -2.2626468912e-02, 
	 2.1744090319e-01, -5.0889302045e-02, -1.2455265969e-03,  1.8926995108e-03,  2.2018511593e-01, -2.5641689077e-02,  7.5687490404e-02, -9.5693558455e-02, -1.3258183002e-01,  3.3936806023e-02, 
	 1.7414273322e-01,  1.9232839346e-02, -1.5453544259e-01,  2.9673974961e-02, -7.6726250350e-02, -1.4918236062e-02, -8.9395150542e-02, -1.0313026607e-02,  2.8749486431e-02,  1.0422594100e-01, 
	-2.2542965598e-03,  3.3529911190e-02, -1.0811275803e-02, -5.0680153072e-02,  7.4341788888e-02, -3.4254040569e-02, -1.9232012331e-01,  9.6637189388e-02,  2.0163992047e-01, -1.4687432908e-02, 
	-1.6502350569e-01, -2.7513582259e-02,  1.7743666470e-01,  6.0497825034e-03,  9.2580795288e-02,  2.4848651141e-02,  1.0193721950e-01, -4.5618299395e-02,  7.8194648027e-02, -2.3598483205e-01, 
	 1.1768688448e-02, -1.3439370319e-02, -1.1132005602e-01, -9.6306495368e-02,  1.9322936237e-01,  1.3955445588e-01,  3.1937047839e-01,  2.0820851624e-01, -5.7155333459e-02,  3.2041907310e-02, 
	 7.7582977712e-02, -1.6766563058e-01,  8.3797335625e-02, -2.0711243153e-01, -1.9527298212e-01,  2.0730686188e-01, -8.6660385132e-02, -4.4005494565e-02,  5.3584210575e-02, -4.8033758067e-03, 
	-1.5080121160e-01,  6.3897512853e-02,  1.1384628713e-02, -5.9445705265e-02,  4.9225684255e-02,  1.0660309345e-01, -1.8213787675e-01, -2.0437683910e-02,  1.4104676247e-01,  1.9393730327e-04, 
	-1.4995725453e-01, -1.8085544929e-02,  6.1552818865e-02,  7.6533302665e-02,  5.5522512645e-02, -5.8700677007e-02, -2.4465963244e-02, -4.9192633480e-02,  3.9238631725e-02,  7.8805461526e-03, 
	 2.1728793159e-02,  7.3541961610e-03,  4.2259886861e-02, -7.7358230948e-02, -7.7174156904e-02,  6.3913971186e-02, -1.0042135604e-02,  2.2736746818e-02, -2.0667500794e-02, -6.8438343704e-02, 
	 1.7734910548e-01, -2.0182492211e-02, -1.7201310396e-01, -4.6432673931e-02,  1.8827959895e-01, -1.3579526544e-01, -6.0706555843e-02,  1.1296475679e-01,  5.7397674769e-02, -1.9396328926e-01, 
	-9.1413431801e-04,  1.1616047472e-01,  6.8322896957e-02, -6.9360263646e-02,  9.2179231346e-02, -1.3900372433e-03, -1.9747804850e-02, -1.3120344281e-01,  1.3805944473e-03, -8.7458670139e-02, 
	-3.3243536949e-01, -1.3628481328e-01, -6.9081388414e-02,  9.4188451767e-02,  1.8772286177e-01,  1.7236535251e-01,  1.9453661144e-01,  4.0443468839e-02,  1.4828852378e-02, -5.7775925845e-02, 
	 5.5340960622e-02,  3.2006597519e-01,  2.2376935184e-01,  1.9950079918e-01,  8.8690184057e-02, -7.6568663120e-02,  1.7094725370e-01, -3.2210242003e-02,  7.4726894498e-02, -4.2934999801e-03, 
	-3.9200272411e-02, -1.2596638501e-01, -2.3852659389e-02, -1.5916074812e-01, -4.2197372764e-02,  2.1331878006e-01,  5.5863112211e-02, -2.3953022063e-01, -5.4967790842e-01,  4.6888872981e-01, 
	 4.2322982103e-02, -5.1116771996e-02,  4.9489822239e-02,  1.2990401685e-01,  4.1369325481e-03, -1.1481377482e-01, -1.2005624175e-01,  1.6632126272e-01,  2.4725127220e-01, -5.0174959004e-02, 
	-1.1166130751e-01, -6.0176845640e-02, -1.5065725148e-01, -1.0402931273e-01, -5.0526924431e-02, -6.6775716841e-02, -1.2607093155e-01, -2.9004935175e-02,  1.7969515175e-02, -9.0860411525e-02, 
	-1.3891036808e-01, -1.4910928905e-01, -1.5671141446e-01, -4.7617919743e-02, -5.8220967650e-02,  6.6556192935e-02,  2.2147613764e-01, -1.1407745071e-02,  9.3141883612e-02,  1.1465261877e-01, 
	-1.3132770360e-01, -1.2856850028e-01,  2.0086769760e-01, -5.6766986847e-02, -3.5936763883e-01,  3.5148388147e-01, -6.4390636981e-03, -8.1924848258e-02, -2.2827675939e-01, -9.7621716559e-02, 
	-8.0833733082e-02, -5.0920508802e-02, -1.3034713268e-01, -8.4052316844e-02, -1.5523125231e-01, -2.1172526479e-01,  1.4237065800e-02, -1.8459793925e-01,  3.7193764001e-02, -2.1705533564e-01, 
	-3.5207916051e-02, -7.4615463614e-02, -9.5431804657e-03, -9.7718101460e-04,  3.8095124066e-02,  7.0465788245e-02,  9.6287250519e-02, -8.8306590915e-02,  2.2303948179e-02, -2.1437887102e-02, 
	-5.5172920227e-02,  3.1134262681e-02, -2.6373893023e-01, -7.9004384577e-02,  5.9806402773e-02, -6.6357181640e-04,  1.6671606898e-01, -7.2070240974e-02,  2.0856645703e-01,  2.3150241375e-01, 
	 6.5675094724e-02,  3.9662472904e-02,  1.0113356262e-01, -1.8701845407e-01, -2.2102813423e-01, -5.1001530141e-02, -3.4999307990e-01,  5.0623066723e-02,  1.4637726545e-01,  9.8389729857e-02, 
	 9.6496537328e-02,  4.4058371335e-02,  1.0962787271e-01,  1.2400707230e-02,  1.0682725115e-03,  3.5826805979e-02,  2.8801800683e-02,  1.4816959202e-01,  2.0538972318e-01,  2.3080755025e-02, 
	-8.8210530579e-02,  1.0412808508e-01,  3.2926294208e-01,  4.6264443547e-02, -4.2508652806e-01,  1.6534026712e-02,  2.2344736382e-02,  1.4706383646e-01, -7.6176725328e-02, -9.0406127274e-03, 
	 7.3673799634e-02,  1.5132668614e-01,  3.2424506545e-01,  1.2758325040e-01, -1.2586277723e-01, -4.1702918708e-02, -2.5656372309e-02, -9.0435326099e-02,  3.5833951551e-04, -1.9318205304e-03, 
	-2.3548294604e-01, -2.2034083307e-01, -1.1879801750e-02, -8.3268068731e-02,  4.5918347314e-03,  4.9285009503e-02, -1.3576883078e-01,  1.6133695841e-01, -4.8239637166e-02, -9.4098821282e-03, 
	-7.1102697402e-03, -5.9034321457e-03,  1.1320810765e-01,  1.6558432579e-01,  1.6437923908e-01, -1.3475591317e-02,  6.8609476089e-02,  2.8301749378e-02, -2.6284761727e-02,  1.5415471978e-02, 
	-1.4259304106e-01,  1.3764913380e-01,  1.7621293664e-01,  7.2324544191e-02,  1.1885551363e-01,  3.3864445984e-02,  8.2212083042e-02, -6.3791931607e-03, -1.4457446337e-01,  1.1738696694e-01, 
	-5.6580577046e-02,  2.9110403731e-02,  1.4513108879e-02, -1.2143313140e-01,  7.2884351015e-02, -1.2624828517e-01, -2.5166085362e-01, -7.6751179993e-02, -3.3009484410e-02, -1.0680282116e-01, 
	-7.2104319930e-02, -5.0769641995e-02,  2.2839879617e-02,  1.7505476251e-02,  1.1870167218e-02,  6.5573170781e-02,  5.6121971458e-02, -9.3065775931e-02, -1.9002975523e-01, -8.9268863201e-02, 
	-7.6222375035e-02,  1.2097868323e-01,  2.4403162301e-02, -8.3127222955e-02,  3.2320138812e-01,  1.8507015705e-01,  6.2906928360e-02, -1.3729321957e-01,  5.6085042655e-02, -2.4372501671e-01, 
	-1.5715074539e-01, -2.1006613970e-01, -1.4180292189e-01, -2.8251729906e-02, -1.3400220871e-01, -1.8751527369e-01,  3.3810589463e-02, -5.6222122163e-02,  4.9008920789e-02,  1.2507903576e-01, 
	 8.6225755513e-02,  4.7173194587e-02, -1.6833436489e-01, -9.0835653245e-02, -9.1862240806e-03,  9.4197265804e-02,  1.3801312447e-01, -2.5018684100e-03, -2.3953916132e-01, -2.9355153441e-02, 
	-1.3304939866e-01, -1.4006108046e-01, -7.3581457138e-02, -9.4539551064e-03, -9.0965248644e-02,  1.9483864307e-02, -7.0247188210e-02, -1.4031279087e-01,  6.9189660251e-02, -1.0447814129e-02, 
	-1.5106202662e-01,  8.3113029599e-02,  8.1597782671e-02,  2.6603030041e-02, -2.3242222960e-04,  4.3884655461e-03,  8.0753855407e-02, -9.4260647893e-02, -2.6959454641e-02, -6.9667600095e-02, 
	-3.6366924644e-02,  1.2247845531e-02,  1.3439323008e-01,  2.1865460277e-01,  1.8111395836e-01, -1.0259388015e-02,  2.2391057014e-01,  1.7966531217e-01,  9.4054579735e-02,  1.0974919051e-01, 
	 3.8719970733e-02, -2.2545102239e-01, -1.1307069659e-01, -2.0405563712e-01,  4.7527793795e-02, -2.0744642243e-03, -6.8390294909e-02, -8.5372485220e-02,  6.5802693367e-02, -4.7956019640e-02, 
	 1.0055593448e-03,  1.2851265073e-01,  2.3447673023e-01,  4.0386814624e-02, -4.9649663270e-02,  8.4207810462e-02, -2.2801591456e-01, -9.9578559399e-02, -2.7429759502e-01, -6.4970210195e-02, 
	 5.3481262177e-02, -8.5085481405e-02, -1.5077036619e-01,  9.9232599139e-02, -1.6643211246e-02,  1.9932667911e-01, -1.0681542568e-02, -6.9020949304e-02, -1.3293682039e-01, -1.0442925990e-01, 
	-4.1307814419e-02, -3.8554936647e-02, -2.2181270644e-02, -7.4045129120e-02,  1.5938051045e-01,  9.6024416387e-02,  4.5775815845e-02,  1.8895095214e-02,  2.2469287738e-02, -2.2663499415e-01, 
	 1.0840829462e-01,  2.0921137929e-01,  1.7117375508e-02, -1.1330167949e-01, -5.8834828436e-02,  3.7606392056e-02,  8.5615608841e-03,  6.3370622694e-02,  1.6154544055e-01,  7.4776820838e-03, 
	-1.2002910674e-01,  1.3718617149e-02, -1.1657351255e-01, -2.8890126944e-01, -2.8515020013e-01, -3.0011296272e-01, -7.0998340845e-02,  2.6774692535e-01, -1.4629882574e-01,  3.3189481497e-01, 
	 2.4847115576e-01, -5.1380187273e-01, -1.1118792742e-01, -9.0702369809e-02,  1.5122720599e-01,  3.8101178408e-01, -2.0645502210e-01, -1.4739232138e-02,  1.1295212805e-01, -1.2503601611e-01, 
	-3.6763768643e-02,  5.2241057158e-02, -9.8327793181e-02, -5.8967933059e-02, -1.0034071654e-01, -9.0491428971e-02,  1.0785661638e-01,  1.1988615245e-01,  1.2304878980e-01,  5.1724053919e-02, 
	-7.4016161263e-02, -2.3430394009e-02, -1.0473043472e-01, -1.6626661643e-02, -8.6590290070e-02,  1.8632081151e-01, -6.4212583005e-02,  6.3296005130e-02, -1.3861779869e-01, -1.4187359810e-01, 
	 1.9176488742e-02, -6.9234378636e-02, -7.4746324681e-03,  1.6175079346e-01, -9.0599860996e-03,  5.3794730455e-02,  1.3795945048e-01, -2.1011589468e-01, -2.5080779195e-01, -3.0263690278e-02, 
	-1.1041660793e-02, -1.1226300150e-02,  9.4198696315e-02, -6.2824413180e-02,  1.1416211724e-01, -3.9399113506e-02, -2.7061548084e-02, -6.9658569992e-02,  1.8299156427e-01, -1.2171267718e-01, 
	-9.3626148999e-02, -1.5442033112e-01, -7.6124317944e-02,  1.0969256610e-01,  4.3224591762e-02,  1.6822840273e-01, -4.1062543169e-03,  2.3422963917e-01, -5.3277213126e-02, -7.2847730480e-03, 
	-5.8036781847e-02,  1.3513159752e-01,  2.3458699882e-01,  4.2781787924e-03, -2.8881175444e-02, -1.2345059216e-01,  7.6688759029e-02,  1.1552922428e-01, -7.8463964164e-02,  3.9342060685e-01, 
	 5.1787380129e-02, -2.5449904799e-01, -5.1269266754e-02,  1.4181914926e-01, -4.5395223424e-03,  8.5419937968e-03, -2.9502492398e-02,  1.3272005320e-01,  2.5811475515e-01, -5.7457793504e-02, 
	-1.2766763568e-01,  4.1742075235e-02,  5.5295951664e-02,  1.0142448545e-01,  7.7996335924e-02,  5.5223334581e-02, -1.3127105311e-02,  2.8837163001e-02, -4.3728321791e-02, -6.2005247921e-02, 
	-8.9309550822e-02,  1.7039997503e-02, -3.4435514361e-02,  1.5154214203e-01, -1.4553724229e-01,  1.0939913802e-02,  2.8846171498e-01,  1.8213594332e-02,  6.1308652163e-02,  2.3764120415e-02, 
	 2.0997351408e-01, -1.0578245670e-01, -4.4245183468e-02, -1.1848350614e-01, -1.4009305276e-02,  2.1610942483e-01,  4.2280673981e-02, -1.0113820434e-01, -5.2674770355e-02,  4.3920941651e-02, 
	-8.3643168211e-02, -2.3658741266e-02, -1.3618908823e-01, -3.2256450504e-02, -5.4710645229e-02,  5.3545688279e-03,  7.6334513724e-02,  1.0821711272e-02,  4.0750887245e-02,  8.2275852561e-02, 
	 1.1486640573e-01,  2.4107035249e-02, -2.5959627703e-02, -1.4027033001e-02, -1.6013671458e-01, -1.6637095809e-01,  1.4639773965e-01,  1.4088352025e-01, -8.5554175079e-02,  1.3347394764e-01, 
	-2.5528797507e-01,  1.7563240230e-01,  7.7110171318e-02, -1.6872775555e-01, -8.0140978098e-03,  2.1673743613e-03, -4.8392795026e-02,  1.9812029600e-01,  8.2005048171e-03, -7.1580946445e-02, 
	-1.1932691187e-01, -2.1024605632e-01, -3.9085473865e-02,  5.5366583169e-02, -1.5560767055e-01,  7.1952030994e-03, -1.7356880009e-01, -5.5744703859e-02, -6.1030402780e-02,  6.5006889403e-02, 
	 2.2534744814e-02, -1.7403990030e-02, -2.1242301166e-01,  1.0060991347e-01,  2.8984276578e-02, -5.1030628383e-02,  1.9694349170e-01,  9.8887287080e-02, -1.0421367735e-01,  9.0597653762e-03, 
	 8.8773019612e-02,  2.4534348398e-02, -9.4588622451e-02,  2.7689963579e-01,  1.3147093356e-01, -4.5692708343e-02,  2.7152288705e-02, -1.2991899252e-01, -3.6293637753e-01,  7.1506910026e-02, 
	-9.0148530900e-02, -2.8682070971e-01,  2.6047464460e-02,  8.7685406208e-02,  8.0157719553e-02, -6.5068356693e-02, -5.7210996747e-02, -1.0216015577e-01, -2.9151562601e-02,  8.3627745509e-02, 
	 3.4965638071e-02, -1.0519865155e-01,  6.0986749828e-02,  6.6063903272e-02,  3.2973864675e-01,  3.1036542729e-02, -5.0090980530e-01,  2.6065877080e-01,  2.2787484527e-01, -3.1333020329e-01, 
	 1.8439519405e-01, -6.1534300447e-02, -2.8123128414e-01,  7.5648255646e-02, -2.7785507962e-02, -4.9223631620e-02,  1.7104009166e-02,  1.3851647079e-01,  3.0020760372e-02,  9.7255781293e-02, 
	 9.5757260919e-02,  3.3288564533e-02, -6.9355741143e-02, -1.3229753077e-01, -1.0571967810e-01,  1.4203270897e-02,  1.9041346386e-02, -1.2171201408e-01,  3.7804688327e-03,  1.9880147278e-01, 
	-8.8813835755e-03, -1.1642938852e-01,  4.6970281750e-02, -7.0395462215e-02, -2.7623569593e-02,  2.1717950702e-01, -4.4894453138e-02, -1.1060393602e-01, -7.9492829740e-02,  4.3371621519e-02, 
	 3.3056553453e-02, -1.7504820228e-01,  3.5276569426e-02, -1.0297033191e-01,  3.1316485256e-02, -5.8937113732e-02, -5.6336127222e-02, -5.5396243930e-02, -8.8755309582e-02, -4.6271301806e-02, 
	 1.6146127135e-02,  8.7668947875e-02, -8.5943922400e-02,  1.2848627567e-01, -5.1516853273e-02, -3.4446861595e-02, -1.8360525370e-02, -1.5011839569e-01, -1.8586963415e-01, -2.3225705326e-01, 
	-5.6473235600e-03,  4.1361100972e-02,  3.5828791559e-02, -5.1393032074e-02, -3.8182791322e-02,  1.6306583583e-01,  7.8771270812e-02, -1.7370769754e-02, -7.6176926494e-02,  1.8654858693e-02, 
	-1.1686617136e-01, -2.4060020223e-03,  1.0510404408e-01, -7.6985411346e-02,  2.2002270818e-01,  8.1916816533e-02,  1.1796669662e-01,  1.5116672218e-01,  3.0633834004e-01,  5.7851625606e-03, 
	-5.7626768947e-02, -9.0418972075e-02,  1.1631230265e-01,  1.3992670178e-01, -6.1541318893e-02, -1.7777624726e-01, -3.4069398046e-01, -2.2059173882e-01, -4.3946200609e-01, -3.5295066237e-01, 
	-3.4994426370e-01, -4.4223508239e-01, -2.4798743427e-01, -3.7192404270e-01,  3.9249733090e-01,  4.5358958840e-01,  2.2571599483e-01,  2.6285392046e-01,  4.2609164119e-01,  1.4392535388e-01, 
	 6.4322717488e-02,  1.5246324241e-01,  1.9257116318e-01, -5.7662069798e-01, -3.7507003546e-01, -4.2540663481e-01, -4.5787596703e-01, -4.0644580126e-01, -2.5784486532e-01, -4.0693590045e-01, 
	-2.5959348679e-01, -3.4613540769e-01, -3.5174140334e-01, -4.8347687721e-01, -4.6056464314e-01, -5.1176184416e-01, -3.0603787303e-01, -2.5645619631e-01, -2.5397124887e-01, -3.2689362764e-01, 
	-4.0021637082e-01, -2.3154602945e-01, -2.5444549322e-01, -2.3670308292e-01, -3.2739210129e-01, -2.7222260833e-01, -2.5763115287e-01, -4.3828234076e-01, -3.3871379495e-01, -3.7230491638e-01, 
	-5.0806885958e-01, -2.3708619177e-01, -1.0351322591e-01, -6.0942488909e-01, -4.3800279498e-01, -1.4680445194e-01, -4.1984850168e-01, -2.4747510254e-01,  2.9143789783e-02, -8.4437146783e-02, 
	-7.2773575783e-02, -3.5921141505e-02, -1.1476279236e-02,  7.1667075157e-02, -1.2347202003e-01, -1.9626346231e-01,  5.6159611791e-02, -7.0490725338e-02, -1.7761312425e-01,  4.3457273394e-02, 
	-7.5028575957e-02,  3.3800378442e-02,  4.0020752698e-02, -3.7002630532e-02,  1.7943277955e-01,  8.5010737181e-02, -2.1847929060e-01,  4.1954513639e-02, -6.7864097655e-02,  6.3485540450e-02, 
	 1.0640385747e-01, -1.3770920038e-01, -1.9175661728e-02, -1.3427060097e-02,  9.9758476019e-02, -7.1280375123e-02, -2.0977830887e-01, -1.7014648020e-01, -8.1451855600e-02, -1.7340165377e-01, 
	 4.5180235058e-02,  6.0454074293e-02, -1.6010038555e-01, -3.9473216981e-02,  5.3766164929e-02, -8.2206919789e-02,  3.8321442902e-02, -1.1546453834e-01,  1.0837729275e-01,  1.2905819342e-02, 
	-1.9951254944e-04,  7.2125144303e-02,  1.0284899175e-01, -9.1669410467e-02,  1.3888578117e-01,  1.0798652470e-01, -1.6028575599e-01,  1.9756367430e-02,  6.2680572271e-02, -2.4442499503e-02, 
	 1.7602224648e-01, -5.9405647218e-02, -2.7547347546e-01, -2.7619970962e-02, -4.5257586986e-02,  1.3303358853e-01,  1.0560851544e-02, -1.7151495814e-01, -1.0440485924e-01,  2.5278967619e-01, 
	 1.2343620509e-01, -7.7583961189e-02,  1.4026601613e-01,  9.6879586577e-02,  1.9540654123e-01, -8.8213041425e-02, -1.2019732594e-01, -1.7496222630e-02, -1.3953188062e-01, -1.7776612937e-01, 
	 2.1009546518e-01,  8.9038200676e-02,  3.7112649530e-02, -9.7956500947e-02, -2.4472691119e-01, -1.1876001209e-01,  6.3238441944e-02, -2.5064724684e-01, -2.2064657509e-01,  1.4844296500e-02, 
	-2.2982494533e-01,  5.5608667433e-02,  1.1248278618e-01, -4.3009836227e-02,  1.7211962491e-02,  1.5350623429e-01, -1.0784421861e-01, -5.9209845960e-02,  5.6696861982e-02,  1.5758164227e-01, 
	-7.9888492823e-02,  8.8052876294e-02, -2.9833771288e-02, -2.4938756227e-01,  4.7823417932e-02, -1.9034078717e-01, -1.5928782523e-01, -1.2479189038e-01, -7.4660561979e-02, -1.5743254125e-01, 
	-3.5559779406e-01, -1.9486272335e-01, -1.3730703294e-01, -5.1400247961e-02, -1.3097646832e-01, -5.8825798333e-02, -1.7260369658e-01,  2.1913176402e-02,  3.3602818847e-02, -2.9527045786e-02, 
	-1.5174965560e-01, -3.3998057246e-02,  9.0177476406e-02, -1.6745345294e-01, -7.6314575970e-02,  1.2929710746e-01,  4.4131454080e-02, -1.6278626025e-01, -8.6183972657e-02, -1.1179143935e-01, 
	 6.8510673940e-02, -8.4999643266e-02, -1.5041583776e-01, -1.9866244495e-01, -2.2872945666e-01,  2.7739301324e-01,  1.4058490098e-01, -2.0196318626e-01, -6.0132566839e-02, -1.6472150385e-01, 
	-8.2905888557e-02, -4.6171694994e-01, -4.5798614621e-01, -1.8630583584e-01,  1.7545613647e-01, -1.8235611916e-01, -2.8979671001e-01,  1.1936190724e-01, -2.7518856525e-01, -2.0734131336e-01, 
	-4.7945305705e-02, -1.7846316099e-01, -1.9972111285e-01, -2.8466450050e-02,  8.3316482604e-02, -1.2634605169e-02, -6.0755301267e-02, -4.5409955084e-02, -9.3366347253e-02,  8.4622703493e-02, 
	-5.7586479932e-02,  1.1207810044e-01, -2.8496441245e-01, -3.9167276025e-01, -3.5245105624e-01, -2.3958486319e-01, -2.6220586896e-01, -2.8962767124e-01, -9.9472202361e-02, -1.0729976743e-01, 
	-1.0993572325e-01, -2.3994661868e-01, -1.0786849260e-01, -2.4360355735e-01,  5.8223430067e-02, -3.9052058011e-02, -2.3456944525e-01,  1.7203658819e-01,  3.1308421493e-01, -7.9186908901e-02, 
	 1.4183084667e-01, -1.0416854918e-01,  1.7345382273e-01, -1.1496564001e-01,  7.3919095099e-02,  2.0358516276e-01, -9.8467372358e-02,  1.4425314963e-01,  2.0544407889e-02,  2.0537805557e-01, 
	 1.2942755222e-01,  4.0817433596e-01,  2.2814783454e-01, -1.6978976782e-03,  1.4449010789e-01,  1.8752023578e-01, -2.3609691858e-01, -2.5268641114e-01,  1.9183911383e-01, -4.0446352214e-02, 
	-2.1707132459e-01,  3.2143884897e-01,  1.5986607969e-01, -2.3000912741e-02,  2.8248709440e-01, -8.6017444730e-02, -2.9879310727e-01, -7.6521322131e-02, -1.6339251399e-01, -5.1537580788e-02, 
	-6.0642883182e-02, -1.5710541606e-01, -4.0081858635e-02, -9.3261696398e-02, -1.1784263700e-01, -2.8772079945e-01,  3.3247727901e-02,  2.3235475644e-02,  3.4316148609e-02,  6.7345825955e-03, 
	 2.4184586480e-02, -9.8157808185e-02, -4.1020531207e-02, -6.3361398876e-02,  5.0927214324e-02,  4.5646678656e-02,  8.4194362164e-02, -2.1157201845e-03,  8.3412453532e-02, -2.0311236382e-01, 
	-2.0444987714e-01, -4.0718026459e-02, -2.3033116758e-01, -2.5271588564e-01,  1.0420195758e-03, -9.9973507226e-02, -1.9752800465e-02,  9.0861082077e-02,  2.1299913526e-02, -7.9612791538e-02, 
	 1.1510494351e-01,  3.8805179298e-02,  3.5954356194e-02,  8.1150501966e-02,  9.6291489899e-02,  3.2119494677e-01,  1.2618771195e-01, -9.1575399041e-02,  1.6686207056e-01,  2.8075873852e-02, 
	-2.6769202948e-01, -1.1519892514e-01,  1.6638588905e-01,  1.2968626618e-01,  2.4172657728e-01,  5.9504978359e-02, -7.9632051289e-02, -7.0279471576e-02,  1.6597107053e-02, -7.2543583810e-02, 
	-3.0097708106e-01, -3.2510250807e-01,  1.2456089258e-02,  4.1240447760e-01, -3.1528457999e-01, -9.3113861978e-02, -4.2333388701e-03, -2.1304121614e-01, -1.5251331031e-01, -1.0709132254e-01, 
	-5.0715290010e-02, -1.6523978114e-01,  6.1701718718e-02,  8.6274020374e-02, -8.9043460786e-02,  8.5797846317e-02,  9.6584454179e-02,  5.1521081477e-02,  8.9179910719e-02, -1.7991364002e-02, 
	-2.3539138958e-02,  2.7438767254e-02, -1.0896067135e-02, -3.9743691683e-02,  9.7745351493e-02,  4.4181835838e-03, -1.9260810688e-02, -1.2162529863e-02, -1.3417662121e-03, -1.0004024953e-01, 
	-7.8325562179e-02,  3.8421232253e-02, -1.1738684028e-01, -4.2113833129e-02, -9.8930997774e-03,  6.9324478507e-02, -3.5490311682e-02, -5.0936996937e-02, -7.4052959681e-02,  1.7855207622e-01, 
	-3.8178399205e-02,  2.9833007138e-03, -6.7455329001e-02,  3.4258370288e-03,  4.1222039610e-02,  2.9378274456e-02, -4.7992911190e-02, -6.7623540759e-02, -1.6307146847e-01, -7.6024964452e-02, 
	 7.6469227672e-02,  4.2629982345e-03,  2.9035294056e-01,  2.2150148451e-01,  8.3791248500e-02, -5.5027000606e-02, -9.5811663195e-03,  1.4314284921e-01, -2.5814367458e-02, -5.6714642793e-02, 
	 1.3633279502e-01,  5.8432895690e-02,  1.4519582503e-02, -4.8374034464e-02, -6.6455490887e-02,  5.0114419311e-02,  9.6968159080e-02, -1.7006670823e-03,  8.6317649111e-03,  6.4317114651e-02, 
	-7.2007007897e-02,  2.5685705245e-02,  2.2486004233e-01,  2.4567821529e-03, -5.0764169544e-02,  3.2768845558e-02, -1.0217809677e-01, -5.1130406559e-02,  6.7964524031e-02,  1.4018775523e-01, 
	 4.8298887908e-02,  8.5091084242e-02,  8.0996425822e-03,  1.8968254328e-02,  1.0773310065e-01,  3.9627503604e-02, -1.0581318289e-01, -5.2160970867e-02,  7.6894149184e-02,  6.8850636482e-02, 
	 3.3411353827e-02,  1.7877730727e-01,  1.2802885473e-01, -3.3240959048e-01,  6.6817373037e-02,  9.2943839729e-02,  2.9996154830e-02, -1.8054041266e-01, -9.6282809973e-02, -1.0401558131e-01, 
	 5.8939307928e-03,  2.4926323444e-02, -1.5724262595e-01, -1.8003839999e-02, -2.0560750365e-01,  1.6770325601e-02,  1.5421870351e-01, -8.1483967602e-02,  9.1359736398e-03, -1.6900984570e-02, 
	-1.4128585160e-01, -3.1584121287e-02, -1.8276603520e-01,  8.5732163861e-03, -5.9158407152e-02, -2.5335453451e-02,  7.6995611191e-02,  2.8955647722e-02,  2.3623374104e-01,  9.0609133244e-02, 
	-7.3017507792e-02,  6.0636736453e-02, -1.5635398030e-01, -2.6888189837e-02, -1.4000332355e-01, -6.6298410296e-02,  8.1477202475e-02, -8.6455196142e-02, -2.8800922632e-01, -2.3200960457e-01, 
	 6.9147631526e-02,  6.4767114818e-02, -1.7689262331e-01,  9.6540622413e-02,  2.1460837126e-01,  1.1871685833e-01, -7.9470068216e-02, -6.4294785261e-02,  1.2666374445e-01,  5.7268440723e-02, 
	-9.6230776981e-03, -4.5295827091e-02, -2.8748657554e-02,  6.7005734891e-03, -3.0548903160e-03,  3.6369491369e-02, -1.3302275911e-02, -5.8185826987e-02, -9.1608306393e-03,  1.0026258975e-01, 
	-3.6893889308e-02, -9.8643200472e-03, -5.6667518802e-03, -3.8367640227e-02, -2.4562899023e-02,  1.0361113818e-03,  1.6728858650e-01,  2.1624487638e-01,  3.8184858859e-02,  1.9781177863e-02, 
	 1.8439012766e-01, -5.9803217649e-02, -1.0418762267e-01, -5.8653958142e-02, -5.8966926299e-03, -8.4366127849e-02, -5.8012150228e-02,  7.5049974024e-02,  5.2592374384e-02, -6.5665423870e-02, 
	 1.7674624920e-02, -1.5022666752e-01, -2.2964904085e-02,  1.5346181393e-01,  1.0374987870e-01, -2.4192413315e-02,  1.7180752009e-02,  7.6848432422e-02,  4.2500171810e-02,  4.9904331565e-02, 
	-1.8384259194e-02, -1.2697726488e-01, -2.9544692487e-02, -5.0940003246e-02, -2.1406061947e-01,  3.8563132286e-02, -1.8199322745e-02,  2.7408367023e-02,  7.9769179225e-02, -7.5445480645e-02, 
	-1.4888350666e-01, -2.0978581905e-01,  2.9570984840e-01, -1.7358437181e-01, -2.3947495222e-01,  4.3706115335e-02,  9.6081264317e-02,  1.3247103989e-01,  8.0433830619e-02,  1.1752073467e-01, 
	-7.0013694465e-02, -3.4640058875e-02, -6.7765697837e-02, -1.5178723633e-01,  1.5875414014e-02,  3.2608442008e-02, -5.6483806111e-03,  1.3676973991e-02, -7.6542757452e-02, -3.0992889777e-02, 
	 8.8944852352e-02,  1.1763543636e-01, -1.2241125107e-01,  4.5450355858e-02,  7.5279183686e-02, -6.6961713135e-02, -6.7146489164e-04, -8.7439946830e-02, -9.8089188337e-02, -1.8559696153e-02, 
	 1.1734816432e-01,  1.2495408207e-01,  1.8167971075e-01,  1.6512024403e-01, -7.3882415891e-02, -6.4775481820e-02, -7.4253469706e-02, -4.7649160028e-02,  2.4636756629e-02, -3.7323400378e-02, 
	 3.9661578834e-02,  8.1392295659e-02,  4.8992816359e-02,  2.3794287816e-02, -2.6901948731e-03,  5.4058294743e-02,  1.2331842445e-02, -7.9285852611e-02,  7.1829207242e-02,  1.3299733400e-02, 
	-2.0344940946e-02,  1.5125785768e-01, -8.8586211205e-03, -2.9815029353e-02, -1.2917351723e-01, -4.4029220939e-02,  1.2246888131e-02,  4.3804943562e-02, -1.7247587442e-02,  7.0818006992e-02, 
	 4.3948329985e-03,  8.4244854748e-02,  1.5070565045e-01, -3.7182342261e-02,  2.7195319533e-02,  2.9605487362e-02,  4.5413006097e-02,  1.1726734787e-01,  1.0888780653e-01,  8.2047536969e-02, 
	 1.4933120459e-02, -9.7161933780e-02,  8.9600175619e-02, -4.3979488313e-02,  1.2409209460e-01,  6.7768789828e-02,  3.1637191772e-02, -9.3041256070e-02, -7.5259663165e-02,  7.3279902339e-02, 
	-1.2220949680e-01,  7.1071431041e-02, -8.0313280225e-02,  3.5981230438e-02,  2.4771163240e-02, -1.2991589308e-01,  7.8719645739e-02,  1.2032632716e-02,  8.7654022500e-03,  1.1212720536e-02, 
	 5.8450601995e-02, -7.5034543872e-02, -3.8967292756e-02, -3.3452231437e-02, -9.2911005020e-02,  1.0222374462e-02,  2.6925917715e-02, -9.5051862299e-02,  2.3439534009e-02, -4.5408066362e-03, 
	-7.6164469123e-02,  2.4255171884e-03,  8.3462350070e-02,  7.0040278137e-02,  4.7721169889e-02, -1.2314965017e-02,  5.5642565712e-03, -6.9431982934e-02,  8.7959863245e-02,  1.4800350368e-01, 
	-3.1619086862e-02, -1.3087044656e-01,  8.3265446126e-02, -7.5822114944e-02,  5.5741600692e-02, -7.2697661817e-02, -2.4876832962e-02, -2.1670801565e-02,  1.4808243513e-01,  8.4341324866e-02, 
	-4.2180471122e-02, -6.3024424016e-02,  1.4538659155e-01, -4.3490182608e-02,  2.8300477192e-02, -8.7930709124e-03,  9.3641923741e-03,  1.1671212316e-01, -7.9258326441e-03,  1.2154603004e-01, 
	-1.1453458667e-01, -7.2107069194e-02, -9.0888224542e-02, -1.0965254903e-01, -1.1158543825e-01, -2.8048491478e-01, -1.5652005374e-01,  1.2675461173e-01,  1.5484009869e-02, -2.8245005012e-01, 
	-2.1742723882e-01,  1.4561453834e-02, -5.2510745823e-02, -2.6698386669e-01, -1.7850460112e-01,  2.0055683330e-02,  6.6726781428e-02,  5.3871437907e-02,  5.5038981140e-02, -1.0585681349e-01, 
	-1.7420391738e-01,  6.4595684409e-02,  9.7474798560e-02, -6.3930022717e-01, -4.3240323663e-01,  1.8730914220e-02, -3.5681837797e-01, -1.0795271397e-01,  4.5403450727e-02, -3.8708671927e-02, 
	 2.6768857241e-01,  4.0814340115e-01, -1.7462527752e-01, -1.7731180787e-01, -4.3508555740e-02,  1.6865655780e-01, -2.6864569634e-02,  2.2266902030e-01, -1.8527162075e-01,  5.9537861496e-02, 
	 2.5479489565e-01, -2.2548413277e-01,  3.1345773488e-02,  2.7076429129e-01,  3.7261683494e-02,  1.2511521578e-01,  1.3821667433e-01,  5.6625988334e-02,  1.3204792142e-01,  1.3402451575e-01, 
	 2.5074741244e-01,  2.7793300152e-01,  2.1029643714e-01, -1.3167987764e-01,  1.3768178225e-01,  2.1838255227e-01, -3.7433898449e-01, -1.3231514394e-01, -9.5981545746e-03,  2.3246167600e-01, 
	 6.5642900765e-02, -1.9205211103e-01,  9.1662667692e-02,  5.4852627218e-02,  4.5713841915e-02, -1.4308619499e-01, -1.0791239887e-01, -2.4415960070e-03, -3.4362347797e-03,  1.0392523557e-01, 
	 1.7966584861e-01, -2.1814199165e-02,  1.4501482248e-01,  7.0067934692e-02,  6.2900841236e-02, -1.1222086102e-01,  8.6909659207e-02, -8.8846497238e-02, -1.1800725013e-01, -5.3279981948e-03, 
	 2.8206050396e-02,  1.4082756639e-01,  3.0424250290e-02,  1.2172936462e-02, -1.9065264612e-02, -3.6537606269e-02, -1.0044753551e-01,  6.8974934518e-02,  1.6925084591e-01,  1.0415645689e-01, 
	-9.8336249590e-02,  1.8984787166e-01, -2.7131217718e-01, -1.0794854909e-01, -3.7303663790e-02, -4.1301913559e-02,  6.5839096904e-02,  3.0319713056e-02,  4.2287655175e-02,  2.4182960391e-02, 
	-6.7738115788e-02,  2.3620709777e-02, -9.5788806677e-02, -9.0712808073e-02, -3.4550230950e-02,  1.1824353039e-01,  2.0495963097e-01, -1.0210167617e-01,  2.1866182797e-03, -4.3573174626e-03, 
	 6.9098360837e-02, -1.4132143557e-01, -9.6690401435e-02,  7.1669578552e-02,  1.3325349428e-02,  9.7841471434e-02, -8.2396222278e-03,  3.3468012698e-03, -4.9212720245e-02, -1.3999535143e-01, 
	-2.7991510928e-02, -3.9496071637e-02, -1.0519400239e-01,  1.0200064629e-01,  1.2429156154e-01, -2.4665223062e-01, -6.1021842994e-03, -1.0237298161e-01,  6.5745159984e-02, -2.4315958843e-02, 
	 1.1935183406e-01,  1.7416146398e-01, -8.4384843707e-02, -1.2601036578e-03,  8.5010975599e-03, -2.9546083882e-02,  3.7149168551e-02, -7.1170032024e-02, -7.8578047454e-02,  2.9279015958e-02, 
	 6.4627490938e-02,  6.7394308746e-02, -4.5505207032e-02,  2.0996542647e-02,  2.1173674613e-02, -1.1536255479e-01,  9.7603484988e-02,  1.7479980364e-02,  3.1937606633e-02, -1.5914890170e-01, 
	-5.2810925245e-01, -3.1530138850e-01, -1.3241405785e-01, -2.1092763543e-01, -2.1793442965e-01,  4.1820997000e-01, -3.6177236587e-02, -3.7675082684e-02, -3.8801851869e-01, -2.9706400633e-01, 
	-7.0367015898e-02, -2.5483745337e-01, -2.6217988133e-01,  2.6727920771e-01,  1.9975966215e-01,  5.1846973598e-02,  4.1528394818e-01,  5.2179098129e-02,  5.9617888182e-02,  7.0035085082e-02, 
	-1.0364770144e-01, -1.3182640076e-01, -9.0675815940e-02,  4.2049312033e-03, -3.2137349248e-01, -1.1293807626e-01,  1.3699258864e-01, -4.5683354139e-02,  2.5016849861e-02, -1.4082130790e-01, 
	-6.8456558511e-03,  2.3038955033e-01,  8.0903552473e-02,  1.2986987829e-01,  1.8775708973e-01, -1.0986950248e-01, -3.5476991534e-01, -1.1472975463e-01, -2.5836545229e-01,  1.0857820511e-02, 
	 1.5396475792e-01, -2.0994831622e-01, -9.9631063640e-02,  2.0659814775e-01,  1.4091233909e-01,  8.1662625074e-02,  8.9943781495e-02,  2.1983490884e-01,  1.3199578226e-01, -2.8539333493e-02, 
	-1.3195776381e-02,  1.1160055548e-01, -1.0236181319e-01, -3.4658189863e-02,  1.0214980692e-01, -7.5783550739e-02,  3.6775957793e-02, -4.3802119792e-02,  5.8895656839e-03, -2.0779563114e-02, 
	-8.9591078460e-02,  9.9329747260e-02,  7.4896275997e-02, -2.0378028974e-02, -1.0865484364e-02,  5.5635269731e-02,  6.6053666174e-02,  7.7302944846e-03,  1.9899965823e-01, -3.7462130189e-02, 
	-7.6390379108e-03,  3.2508280128e-02,  3.7658743095e-03, -2.2616351023e-02,  9.0829491615e-02, -4.0300670080e-03, -2.8835793957e-02,  2.7459269390e-02, -1.1605909467e-01,  4.0166364051e-03, 
	 3.5963844508e-02,  6.7773789167e-02,  9.0757332742e-02,  1.3160286471e-02,  1.3059967756e-01, -1.1652014218e-02, -3.5632420331e-02,  1.4378640056e-01, -1.3230700791e-01,  2.9090877622e-02, 
	 8.9010812342e-02, -4.0246001445e-03,  1.7752765119e-01, -5.4728541523e-02, -7.9143844545e-02,  6.4386457205e-02, -7.8977942467e-02,  1.3148300350e-02, -1.0576067865e-01,  1.9051268697e-01, 
	 5.9236694127e-02, -1.9187407196e-01, -4.9511160702e-02, -6.0304310173e-02, -7.1279123425e-02,  5.5956337601e-02,  1.2113134377e-02, -1.2974407524e-02, -2.0866174996e-01,  2.4574154615e-01, 
	-4.8264529556e-02, -1.1383540183e-01,  6.9325536489e-02, -9.1355361044e-02, -1.8100397289e-01, -1.4526817203e-01, -1.2209004490e-04, -1.6343349591e-02,  1.5683993697e-01,  9.7550816834e-02, 
	-1.6394305229e-01,  8.2696154714e-03,  5.7618252933e-02, -1.3366536796e-01, -9.6226744354e-03,  9.0858610347e-03, -2.5224162266e-02, -9.7240231931e-02,  7.3228746653e-02, -9.4260290265e-02, 
	-2.0217645168e-01,  1.2181721628e-01, -2.7658846974e-01, -5.1228505373e-01,  3.2240018481e-04, -1.9628700614e-01,  1.5122580528e-01,  1.3826943934e-01, -8.1930704415e-02,  6.8260282278e-02, 
	 4.7060053796e-02, -8.0535992980e-02,  1.3204942644e-01, -1.4083914459e-01, -5.5337276310e-02,  2.9141718149e-01, -1.0244395584e-01,  2.0260307938e-02,  8.2772120833e-02,  4.0005419403e-02, 
	 7.8090168536e-02, -1.2178790569e-01, -9.8798321560e-03, -1.1969572306e-01, -3.1872695684e-01,  1.5664848685e-01,  5.1567792892e-02, -3.6625545472e-02,  1.5649516881e-01, -4.2584814131e-02, 
	-3.0766364932e-01,  1.6158348322e-01,  2.0461525768e-02, -5.5894128978e-02,  2.3551316559e-01,  1.8634970486e-01,  9.1073721647e-02,  1.2569564581e-01,  2.9807891697e-03, -8.7359370664e-03, 
};

const float layer_32_conv2d_bias[UNET_PAR_32_CONV2D_OUT_FILTER] = {
	 3.3345814794e-02,  6.8552888930e-02,  2.7416118979e-01,  4.8102864623e-01,  1.7195697129e-01, -1.6742613912e-01, -3.3778187633e-01,  3.8624069095e-01, -1.9316196442e-01, -2.7529123425e-01, 
	 1.3551624119e-01, -1.4208489656e-01, -1.0026983172e-01, -4.8108194023e-02, -1.5838259459e-01, -1.3377028517e-02, -1.0441181809e-01, -1.8005639315e-01, -1.3371552341e-02, -2.2292260826e-01, 
	 5.9069305658e-02, -3.7695001811e-02, -1.5156172216e-01,  1.5161970258e-01, -7.5283430517e-02, -1.7414970696e-01,  1.3880395889e-01, -1.8008168042e-01,  2.4139142036e-01,  3.4473469853e-01, 
	-1.0452079028e-01,  6.5322071314e-02, -5.7005904615e-02, -1.1673049629e-01, -2.9496915638e-02,  3.1743821502e-01, -5.9341497719e-02, -3.0160096288e-01, -1.0243250430e-01,  2.0000874996e-01, 
};


#endif
