#ifndef PARAMS_CONV2D_5_H
#define PARAMS_CONV2D_5_H
#include "params.h"

const float layer_5_conv2d_weight[UNET_PAR_5_CONV2D_KERNEL_Y*UNET_PAR_5_CONV2D_KERNEL_X*UNET_PAR_5_CONV2D_IN_FILTER*UNET_PAR_5_CONV2D_OUT_FILTER] = {
	 5.6407794356e-02,  7.8012265265e-02,  6.2569521368e-02, -1.4774967730e-01, -6.7618586123e-02,  4.0886715055e-02,  6.7264117301e-02,  7.0295065641e-02,  1.7294211686e-01,  1.7207706347e-02, 
	-2.3865113035e-03, -6.8117707968e-02,  8.5198745131e-02, -1.7733547837e-02,  1.5594650805e-01,  6.6459357738e-02,  2.2311268374e-02,  9.5351845026e-02,  9.2860180885e-03,  1.3052454591e-01, 
	 2.3168031126e-02, -7.4789300561e-02, -2.7978608012e-01, -7.3520034552e-02,  1.7180387676e-01,  5.6781306863e-02, -1.0916736722e-01, -1.7918837070e-01, -1.1945554614e-01,  5.1340602338e-02, 
	-4.3987743556e-02, -6.3579236157e-03,  1.0785203427e-01,  1.1542182416e-01, -2.9294682667e-02, -1.1953683197e-01,  2.7998989448e-02, -1.6906930506e-01, -1.0663627833e-01,  4.5206762850e-02, 
	-1.5496100485e-01, -8.3340294659e-02, -1.1399549991e-01, -7.1154601872e-02, -2.5181224942e-01, -9.0486779809e-02, -9.2875719070e-02, -6.7427992821e-02, -7.0250337012e-03,  2.1019847691e-01, 
	 6.9616459310e-02, -9.3955561519e-02, -1.6789802909e-01, -1.9887410104e-01,  2.0079757273e-01, -1.5237464011e-01, -1.6318926215e-01,  3.2868780196e-02, -6.9223731756e-02,  8.1184081733e-02, 
	 3.3958178014e-02,  4.5479856431e-02, -1.3549008965e-01, -5.2979033440e-02,  1.0995893180e-01, -7.1278810501e-02, -2.6711684465e-01, -1.3761429489e-01,  8.5542961955e-02, -1.2254527770e-02, 
	 2.0311288536e-02,  3.8127422333e-01, -8.3866618574e-02,  2.0264498889e-03, -6.7675307393e-02, -1.8732017279e-01, -2.5868341327e-02,  1.2474126369e-01,  8.7190896273e-02,  8.9897744358e-02, 
	 4.2195558548e-02, -1.6713423654e-02, -6.9056734443e-02,  1.1681331694e-01,  1.6614457965e-01,  5.2341785282e-02,  1.2475299090e-01,  8.3136588335e-02,  7.3333359323e-03,  1.1254576594e-01, 
	-3.8105379790e-02,  1.9093034789e-03, -1.3435369730e-01,  4.4834230095e-02,  8.5620179772e-02,  1.6231417656e-01, -2.3910890520e-01,  2.6857161894e-02,  1.2994614244e-01, -1.5491041541e-01, 
	-7.0438750088e-02,  2.5036022067e-02, -1.2436341494e-01,  1.8522709608e-01, -8.2926906645e-02, -1.7332594097e-01,  3.6508554220e-01,  1.5414224565e-01, -1.3261622190e-01,  9.2293441296e-02, 
	-4.9921315163e-02, -1.4294278622e-01,  1.9998727739e-01,  2.2748556733e-01,  7.4953258038e-02, -1.6684372723e-01,  2.0262394100e-02,  7.1303419769e-02, -6.7314751446e-02, -2.7014136314e-01, 
	-1.0517440736e-01, -1.5226035379e-02,  4.7631420195e-02, -1.6318012774e-01,  4.3549977243e-02,  1.7129541934e-01, -6.1700623482e-03, -2.1556902677e-02,  5.3278654814e-02,  7.8537426889e-02, 
	 5.0132032484e-02,  1.1175795645e-01,  6.8005651236e-02, -1.6159170866e-01, -1.9902478158e-01, -5.6936684996e-02,  3.1850304455e-02,  6.0784231871e-02,  4.7700494528e-02, -2.5684414431e-02, 
	-6.1433587223e-02, -2.6672599837e-02, -1.8786219880e-02, -6.0359530151e-02, -8.5546799004e-02, -5.4068226367e-02, -1.1216363311e-01, -5.3254537284e-02,  6.2876395881e-02,  7.8475780785e-02, 
	-9.5555465668e-03, -1.6028837860e-01, -1.8326979876e-01, -8.0355457962e-02, -1.9645203650e-01, -2.6097786427e-01, -2.2138778865e-01, -5.8906767517e-02,  7.7024370432e-02, -3.4745803475e-01, 
	 1.3643929362e-01,  1.4880768955e-01,  8.6330473423e-03, -6.0931306332e-02,  3.3615216613e-02, -1.1278602481e-01,  2.3659713566e-01, -2.0356014371e-02, -9.9568277597e-02,  2.4792210758e-01, 
	 1.7109951004e-02, -3.9278417826e-02,  4.2832028121e-02,  3.9287839085e-02,  2.5281263515e-02, -4.0937773883e-02,  2.3228639737e-02, -2.5280140340e-02, -9.2166163027e-02, -1.6696904600e-01, 
	-2.3589091003e-01, -6.5175369382e-03,  4.6811368316e-02,  1.3204209507e-02, -2.2312761843e-01, -1.5792098641e-01,  1.4644430578e-01,  1.1635093391e-01, -2.1307674050e-01, -3.3474382758e-01, 
	-1.2702505291e-01,  6.7791454494e-02,  1.3060192578e-02,  4.1434901953e-01, -1.0149688274e-01,  5.5753946304e-02,  6.1271139421e-03, -2.0606951416e-01,  1.7180658877e-01,  1.3750639558e-01, 
	 1.3154304028e-01,  1.2153906375e-01, -2.0625749230e-01, -8.0945447087e-02,  5.6211449206e-02, -3.1571373343e-02, -6.8702790886e-03,  4.5438986272e-02,  3.3313825727e-02,  1.8145748973e-01, 
	-1.0671820492e-01,  1.8604357541e-01,  9.7932927310e-02, -4.8500217497e-02, -5.5208820850e-02, -2.4614916742e-01,  1.8529185327e-03, -4.1500873864e-02,  5.3663659841e-02, -3.1721662730e-02, 
	 2.7751715854e-02, -1.2094257027e-01,  1.0845544934e-01, -6.1994928867e-02, -1.8888564408e-01, -4.8263087869e-02, -2.9847947881e-02, -5.6575186551e-02, -1.1682783253e-02,  5.3989510983e-02, 
	-2.0189751685e-01, -6.1099492013e-03,  1.5592876077e-01,  1.9835885614e-02,  6.4067520201e-02, -2.5216025114e-01,  7.0143252611e-02, -1.2669014931e-01,  2.9315596819e-01,  7.4240498245e-02, 
	-2.8093971312e-02,  2.7643620968e-02, -1.4875917137e-01,  3.7686643191e-03, -1.4935165644e-01, -2.5071883202e-01, -2.8960689902e-01, -7.7899761498e-02, -2.0067213476e-01, -8.8715925813e-02, 
	 2.3391053081e-01, -8.7043315172e-02,  7.8296221793e-02, -2.2152830660e-01,  1.0108309239e-01,  1.3441999257e-01,  9.9259249866e-02,  1.5287151933e-01,  8.6189426482e-02,  9.6180081367e-02, 
	-1.4787480235e-01,  8.0122843385e-02,  1.5667417645e-01, -6.1621848494e-02, -2.1020612121e-01,  8.0197872594e-03, -7.3292911984e-03,  1.1685836129e-02,  4.8124184832e-03,  3.5606361926e-02, 
	 1.2154234946e-01, -1.2335804105e-01, -4.5084979385e-02,  9.0509042144e-02,  9.0013906360e-02,  1.3311460614e-01, -7.5384780765e-02, -1.5800237656e-02, -6.2439382076e-02, -5.8764941990e-02, 
	-1.4157614671e-02, -3.0606030487e-03,  9.7096517682e-02,  1.8698950112e-01, -6.6058509052e-02,  1.4314056933e-01,  7.0346206427e-02,  1.0109694302e-01,  6.9875395857e-03, -6.8624615669e-02, 
	-1.0680378415e-02, -2.9405701160e-01,  1.0837197304e-01,  1.0582663864e-01,  2.3053526878e-02,  6.0368370265e-02,  1.7929850519e-01,  9.1660536826e-02, -1.0130367428e-01, -1.1778371036e-01, 
	 9.8686106503e-03,  5.9915099293e-02,  2.3689817172e-03,  1.1434215307e-01, -3.8969594985e-02, -1.3881860673e-01, -1.3056252897e-01, -5.0602503121e-02,  1.3407094777e-01, -9.6605822444e-02, 
	-1.1616591364e-01,  2.5624343753e-01, -1.1193624139e-01, -1.1684471369e-01,  6.1149880290e-02,  6.7808859050e-02,  2.9963549227e-02,  9.3802616000e-02, -1.6336649656e-01, -8.1539481878e-02, 
	-8.3112686872e-02,  5.4244630039e-02, -8.6547419429e-02,  7.1519769728e-02, -5.5725663900e-02,  2.3525065184e-01,  1.5826299787e-01,  2.0705999807e-02, -3.2623573206e-03,  1.2802553177e-01, 
	 1.6536419094e-01, -6.3702732325e-02,  1.6263115406e-01,  1.1345884204e-01,  2.2618587315e-01,  2.4849404395e-01, -2.7039401233e-02,  6.3919410110e-02,  4.5277869701e-01, -1.7275682092e-01, 
	-1.4534844458e-01,  4.1223518550e-02,  3.1793761998e-02,  5.1671173424e-02,  9.6358753741e-02,  7.6837293804e-02,  2.5850415230e-01,  2.9742303491e-01,  1.6067581251e-02, -7.2263121605e-02, 
	-3.0399030074e-02,  1.3188256323e-01, -1.4725087211e-02,  2.3677663505e-01,  2.7827451006e-02, -1.3321533334e-03,  2.9596580192e-02,  5.8487709612e-02,  4.3984375894e-02,  2.3230758309e-01, 
	 2.0151905715e-01, -3.0178455636e-02, -8.7188147008e-03, -1.9723656774e-01, -1.3092903793e-01, -1.5159034170e-02,  9.6427649260e-02, -2.0962657407e-02, -9.4620585442e-02,  2.0158555359e-02, 
	 2.0832993090e-01, -9.1334413737e-03,  1.2370123714e-01, -9.4363540411e-02, -1.6755339503e-01,  2.5071742013e-02,  1.1455009878e-01,  3.3208437264e-02, -2.9726264998e-02, -7.4091844261e-02, 
	 9.2550985515e-02,  5.4705459625e-03,  1.0960022360e-01, -1.6857841611e-01, -1.8193881959e-02,  3.2156825066e-02,  2.4411301315e-01, -6.9871433079e-02, -2.1966458857e-01, -3.0749768019e-01, 
	-6.2117822468e-02, -2.7680942416e-01, -5.1551032066e-01,  7.3137886822e-02,  9.5632530749e-02, -3.8037085533e-01, -9.4020165503e-02, -1.1456426978e-01,  2.0004683733e-01, -4.0473304689e-02, 
	 1.9791913033e-01, -1.4553442597e-01,  1.1422993988e-01, -1.8078424037e-01,  5.0378594548e-02, -2.2080859169e-02, -1.5498272143e-02,  7.1280952543e-03,  3.2262338791e-03,  9.2648891732e-03, 
	 1.9121496379e-01,  1.8891501427e-01, -3.5241892934e-01,  1.4072036371e-02, -1.1314095557e-01, -2.4006539024e-03, -9.6918217838e-02,  7.2258375585e-02,  8.6105145514e-02,  1.9077757001e-01, 
	 7.9596497118e-02, -1.1880078167e-01, -1.9883564673e-03,  1.2817724049e-01,  9.2822751030e-03,  2.2345186770e-01, -1.1752609164e-01, -2.4198630452e-01, -2.6603231207e-02, -1.9255220890e-01, 
	-5.3566057235e-02, -6.9109141827e-02,  2.1561272442e-01, -1.0743273050e-01, -2.1405048668e-02, -6.9804795086e-02, -5.1784187555e-02, -1.2760059536e-01,  1.0613901913e-01, -2.9305955395e-02, 
	-1.7951008677e-01,  1.1953366548e-01,  3.6021091044e-02,  1.1331924237e-02, -1.7006908357e-01,  1.8440525234e-01,  1.1364366114e-01, -5.4854344577e-02, -1.3924190402e-01,  4.1947685182e-02, 
	 2.9890500009e-02, -4.9905322492e-02,  1.7405982316e-01,  1.7786286771e-01, -2.3446494341e-01,  2.6021534577e-02,  1.5489982069e-01, -4.4786404818e-02,  3.0156314373e-02, -4.9787919968e-02, 
	-6.1014727689e-03,  1.5916532278e-01, -7.6554939151e-02, -1.6746143997e-01, -5.4311122745e-02,  8.9026041329e-02, -3.8090271410e-03,  1.5820766985e-01,  4.3576724827e-02, -5.8657340705e-02, 
	-6.5504555823e-04, -6.1258986592e-02, -2.2129395604e-01,  2.2084208205e-02,  7.6460704207e-02,  9.2911019921e-02,  2.9413592070e-02,  3.8408149034e-02, -5.9060517699e-02, -4.2070564814e-03, 
	-1.4531819616e-03, -1.5021137893e-01, -1.6813957691e-01,  2.6929217856e-03, -1.8311212957e-01, -6.6748134792e-02,  1.7770138383e-01, -4.0260534734e-02,  1.5393877029e-01,  8.9457124472e-02, 
	 4.1170824319e-02,  1.1585321277e-01,  4.0407087654e-02,  1.2698617578e-01,  5.7371009141e-02,  1.4893184602e-01,  8.9532122016e-02, -3.0469449237e-02,  1.1904979497e-01, -1.9028872252e-02, 
	 2.8727926314e-02,  3.7284083664e-02, -4.4350460172e-02,  5.1168728620e-02, -4.1438590735e-02, -8.1360779703e-02,  4.5213685371e-03, -1.6891968250e-01,  3.3298004419e-02,  6.8154446781e-02, 
	-1.0180311650e-01, -1.5967953205e-01,  1.2852379121e-02,  3.6239340901e-02,  1.3644695282e-01,  3.5907149315e-01,  1.9003343582e-01,  1.3600474596e-01,  3.9861984551e-02,  3.0776798725e-01, 
	 1.8619149923e-01,  6.2915377319e-02,  5.8541879058e-02,  2.8384281322e-02,  2.5212714076e-01, -1.1798437685e-01, -4.1831467301e-02,  2.0203126967e-01,  1.8704311550e-01, -5.3650502115e-02, 
	 2.4224216118e-02,  6.3020646572e-02, -9.3437068164e-02, -6.3899911940e-02,  6.7970432341e-02, -2.6520736516e-02,  1.0013452917e-01,  6.6534869373e-02,  3.0460899696e-02,  7.3260784149e-02, 
	-3.4385581966e-04,  4.0515299886e-02,  6.5560095012e-02,  7.4915662408e-02,  5.8398809284e-02,  2.5387935340e-02,  1.4890427887e-01, -4.7645464540e-02, -4.6810958534e-02, -2.7576962113e-01, 
	-1.8387803435e-01,  8.2914438099e-03, -1.8759071827e-01, -2.2939048707e-01, -3.2931484282e-02,  2.8694576025e-01,  1.1257255077e-01,  3.6371409893e-02,  3.6800108850e-02, -1.1029733717e-01, 
	 2.0863033831e-01,  1.0584043711e-01,  2.4753955007e-01,  1.0757657886e-01,  6.2450289726e-02,  3.1459875405e-02,  1.0378074646e-01, -1.5217146277e-01,  1.5530203283e-01,  1.3026452065e-01, 
	-1.3634707034e-01,  4.9576032907e-02, -1.0765604675e-01,  8.8727585971e-02, -3.6419738084e-02,  5.9367220849e-02,  1.2733054161e-01,  6.5948098898e-02, -3.8992494345e-02, -6.8288534880e-02, 
	 1.6957925260e-01, -4.3639051728e-03, -4.4332683086e-02,  4.5057743788e-02,  2.4540527165e-01, -3.2296620309e-02, -2.9533810914e-02, -8.4112577140e-02, -9.5508970320e-02,  7.1980366483e-03, 
	 1.0399704427e-01,  1.7525821924e-02, -2.6454880834e-02,  8.6671940982e-02, -1.4259455726e-02,  8.4987089038e-02, -5.0454445183e-02, -3.1719651073e-02, -5.6651964784e-02, -3.7868369371e-02, 
	-2.6337742805e-01,  2.4768302683e-03, -7.3737874627e-02, -9.8029442132e-02,  7.4640875682e-03, -1.7377257347e-01, -3.1731608510e-01, -6.2467074394e-01, -2.1381238103e-01,  7.1181617677e-02, 
	-1.7048062757e-02, -2.0786926150e-01, -2.1148733795e-01, -1.1064388603e-01,  8.4039621055e-02, -1.5684029460e-01, -3.5062158108e-01, -1.6819921136e-01,  3.5288177431e-02, -7.3242247105e-02, 
	-1.2157212198e-01,  2.2934269905e-01,  6.9096043706e-02, -2.2957216203e-01,  1.0041914880e-02, -7.5717954896e-03, -4.8340108246e-02, -7.6686948538e-02, -8.2977719605e-02, -8.3701759577e-03, 
	 2.3557944223e-02,  7.8770825639e-03, -1.2008316815e-01,  5.7635094970e-02, -1.3213101029e-01,  4.9605116248e-02, -1.0080917925e-01, -5.1475696266e-02, -2.8976529837e-02,  2.2702586651e-01, 
	-1.1149058491e-01,  1.2989315391e-01,  1.1468918622e-01, -4.9043498933e-02, -1.2521602213e-01,  1.3188107312e-01,  9.6446178854e-02,  5.3941912949e-02,  9.9267616868e-02,  1.2571001053e-01, 
	 1.1617793143e-01,  8.1064447761e-02, -2.5815725327e-01, -2.8100061417e-01, -4.3588556349e-02, -8.2634493709e-02, -1.5583699942e-01,  1.4706143737e-01, -2.3475298658e-02, -1.2796355784e-01, 
	 4.3629705906e-02,  5.2406981587e-02, -7.3548547924e-02, -1.0137681849e-02, -1.7552055418e-01, -1.6659559309e-01,  9.9382251501e-02, -6.0100615025e-02,  4.2544249445e-02, -4.6221520752e-02, 
	-1.8608262762e-02, -2.1405440569e-01, -9.2265725136e-02,  2.0735058933e-02, -9.2876993120e-02,  8.7878488004e-02, -4.8787005246e-02, -2.8000572696e-02,  1.3090817630e-01,  1.3877806067e-01, 
	-3.4987810068e-03,  1.9151088595e-01,  2.3978261277e-02, -7.3561221361e-02, -1.4594133198e-01, -1.4509981871e-01, -1.1805929989e-01, -6.4398959279e-02, -6.9427929819e-02, -8.3961516619e-02, 
	-1.3447728939e-02, -1.6904972494e-02, -1.2953887880e-01,  1.7282283306e-01,  1.7138820887e-01,  1.5631283820e-01, -1.2881104648e-01,  1.0589835048e-01,  1.1873435229e-01,  3.6211747676e-02, 
	 1.1575847864e-01,  2.6782441139e-01, -6.1053268611e-02,  2.1647207439e-01,  9.0535290539e-02,  1.2532119453e-01, -4.3229576200e-02,  2.6314041018e-01,  1.5039299428e-01, -8.4449432790e-02, 
	 2.4727920070e-02,  8.1251613796e-02,  1.1728529818e-02,  1.9515980780e-01,  7.7694028616e-02, -6.3098154962e-02,  6.2825739384e-02,  7.8132398427e-02,  7.6469637454e-02,  1.6558372974e-01, 
	 1.8036679924e-01,  2.4064168334e-01, -3.1191341579e-02,  8.5080057383e-02,  2.0821688697e-02, -2.5379067659e-01,  1.1068346351e-01,  5.4290562868e-02, -1.5861029923e-01, -6.7567035556e-02, 
	 2.9209097847e-02, -3.4565097094e-01, -1.1021222919e-01,  2.6458352804e-02,  5.4004490376e-02, -5.9385807253e-03, -2.3854326457e-02, -2.2666572034e-01, -4.8701360822e-02,  4.0249325335e-02, 
	 1.0919953696e-02,  1.3602937758e-01, -2.0709368587e-01,  4.0788371116e-02,  2.5822824240e-01,  7.3638424277e-02, -7.7130608261e-02,  1.4578638598e-02, -2.1607910097e-01, -1.1591716856e-01, 
	-1.8524457514e-01, -2.2084282339e-01, -1.1701308936e-01,  9.1082699597e-02, -6.7310214043e-02, -1.7700834572e-01,  5.1523290575e-02,  4.7272503376e-02,  1.4451806247e-01, -2.3110643029e-02, 
	 1.7955807969e-02, -1.1098404229e-01,  1.6957280040e-01,  6.6173369996e-03,  6.1895005405e-02, -9.8392017186e-02, -3.6969304085e-02,  4.1212506592e-02,  1.2747198343e-03,  8.3221219480e-02, 
	-1.4406242408e-02, -7.6500184834e-02,  9.2130817473e-02, -1.2659929693e-02, -6.8630062044e-02, -1.3038487732e-01, -1.3516316190e-02,  6.3050091267e-02,  3.7403363734e-02,  2.5844907388e-02, 
	-2.7963815257e-02, -1.3660618663e-01, -4.0232140571e-02, -1.9372956455e-01, -3.2970836759e-01, -1.1198362708e-01, -2.6365149021e-01, -2.1695733070e-01, -5.1379656792e-01, -5.8898601681e-02, 
	-3.2462634146e-02,  9.4312623143e-02, -2.0882786810e-01,  7.4321433902e-02, -1.6055054963e-01, -1.2125951052e-01,  6.7710950971e-02, -6.0531262308e-02, -1.0261738300e-01,  6.6816776991e-02, 
	-2.3998413980e-01,  1.3816908002e-01, -7.8803308308e-02,  1.1664918810e-01,  1.1918358505e-01, -8.5112765431e-02, -1.4845351875e-01, -7.6850704849e-02, -6.5750837326e-02,  1.2764953077e-01, 
	 1.3372110203e-02,  1.1921219528e-01, -1.9295461476e-01, -1.6433309019e-01,  1.4087064564e-01, -1.7347881198e-01,  8.2205235958e-02, -1.2237396836e-01, -2.2673072293e-02,  1.2003186345e-01, 
	 1.3047555089e-01,  1.5429155901e-02, -9.7360283136e-02, -8.3316981792e-02, -1.5676807612e-02, -7.4880987406e-02,  1.3279411197e-01,  9.6548147500e-02, -1.1747553945e-01,  1.2219253927e-01, 
	-7.6560467482e-02,  2.7158016339e-02,  1.2894622982e-01, -5.1693502814e-02, -6.8078845739e-02,  7.9308331013e-02, -2.7423420548e-01,  9.2533370480e-03, -1.1162916571e-01,  1.6177946702e-02, 
	 1.7582085729e-01,  8.3688400686e-02,  3.9022445679e-02, -5.5985063314e-02,  3.0363330618e-02, -8.0607002601e-03, -2.6232761145e-01,  1.6482158005e-01,  2.2668123245e-02, -8.6206488311e-02, 
	-7.9358384013e-02, -1.3067625463e-01, -1.8331129849e-01,  9.1871498153e-03, -9.9498614669e-02,  3.4967068583e-02, -5.7699631900e-02, -6.2918581069e-02, -1.4466640353e-01, -1.2755562365e-01, 
	 3.1596027315e-02, -1.7088523507e-01, -2.2208528593e-02, -6.3492067158e-02, -1.5242081881e-01, -1.5351500362e-02,  9.9243797362e-02,  8.6170002818e-02, -8.7482877076e-02, -9.9269554019e-02, 
	-1.4886464179e-01,  3.8768362254e-02, -1.4662724733e-01, -1.2907378376e-01,  3.3718901873e-01, -2.5092962384e-01, -3.2780984044e-01, -9.4272956252e-02, -2.2414706647e-01, -1.8229186535e-01, 
	 5.2816984244e-03, -1.6199648380e-01,  6.1635166407e-02,  1.1181108654e-01, -6.8852059543e-02,  2.0981194451e-02, -3.3018980175e-02, -1.8742927909e-01, -6.0259874910e-02, -1.5589958429e-01, 
	 7.2100177407e-02,  6.3431374729e-02, -7.0990197361e-02, -1.2772320211e-01, -1.6354797781e-01, -1.3501679897e-01,  1.1857977137e-02,  2.2476583719e-02, -1.3189153373e-01, -1.4205621183e-01, 
	-8.7134696543e-02, -2.7830233797e-02,  2.4343043566e-02, -5.4198231548e-02, -5.7237721980e-02, -1.2288969010e-02, -8.1017225981e-02,  8.9036457241e-02, -1.4219949022e-02,  9.1331042349e-02, 
	 1.4932824671e-01, -4.6030648053e-02, -1.4125929773e-01,  1.9263716042e-01,  2.8332628310e-02,  1.0652355850e-01,  1.1095894873e-01, -2.2084145248e-01, -3.6189220846e-02, -1.3268332183e-01, 
	 2.5817155838e-01,  6.4223572612e-02, -1.5800860524e-01,  1.1866224557e-01, -7.4154429138e-02, -1.1694403738e-01,  7.0497050881e-02, -8.2505352795e-02, -1.9215840101e-01, -5.9207901359e-02, 
	-1.1573265493e-01,  1.1437085271e-01,  4.1367605329e-02, -1.2766046822e-01, -9.3640930951e-02, -2.0479929447e-01,  6.2192250043e-02,  9.4125449657e-02,  9.2661067843e-02,  1.6513133049e-01, 
	-6.6377393901e-02, -6.4064063132e-02,  4.0097054094e-02,  4.0686931461e-03, -6.1368262395e-03,  8.6657874286e-02, -1.2055721134e-01,  9.6041075885e-02, -1.1831855774e-01, -1.8396060169e-01, 
	-5.7659786195e-02,  4.4079065323e-02,  5.2011306398e-03, -1.0044591129e-01,  2.4620044976e-02,  2.7835473418e-02,  2.0583394915e-02,  1.2553018332e-01,  1.6225676239e-01,  1.7890565097e-01, 
	-1.6404435039e-01,  1.1559434980e-01,  1.4142766595e-01,  3.7638598680e-01,  3.0917492509e-01, -8.6920768023e-02,  2.1079874039e-01,  3.2935041189e-01, -5.0601657480e-02,  1.4505170286e-02, 
	 1.7859041691e-03, -2.1656392515e-01,  1.2236285955e-01, -3.0348307919e-03,  6.4100645483e-02, -3.9450068027e-02,  3.6406137049e-02, -1.0742488503e-01,  5.4325420409e-02, -5.9455908835e-02, 
	 3.6858782172e-02,  3.2631354406e-03, -8.8999047875e-03,  4.2581646703e-03, -8.4043383598e-02, -1.7292439938e-01,  8.1633388996e-02, -1.9878439605e-02,  1.7449684441e-01, -5.2730683237e-02, 
	-9.0450026095e-02, -3.1506738067e-01, -9.2130586505e-02,  1.1344347149e-01, -4.9070667475e-02,  1.9550688565e-01,  1.7492515966e-02, -1.3009420037e-01, -5.0663910806e-02, -2.3188370466e-01, 
	-3.3865335584e-01,  1.8375081941e-02,  4.4493570924e-02,  5.8530233800e-02, -2.6283186674e-01, -1.4156784117e-01, -1.4044724405e-01, -1.4109274745e-01,  5.0628255121e-03,  2.4253638089e-01, 
	 6.0167286545e-02,  7.7553622425e-02, -2.3596972227e-02,  5.0378970802e-02, -3.2187942415e-02, -9.4078995287e-02, -7.0757947862e-02, -1.2500652671e-01, -3.8912203908e-01, -1.5079990029e-01, 
	 3.7960145622e-02, -3.5768976808e-01, -1.4556117356e-01, -1.3624034822e-01, -2.5628903508e-01, -1.5524432063e-01,  1.0344044864e-01,  1.4703233540e-01,  2.2548820823e-02, -3.8883231580e-02, 
	 1.1398538202e-01,  1.5596403182e-01,  2.0477978513e-02,  7.0966027677e-02, -1.2555332482e-01,  7.7667616308e-02, -7.9719178379e-02,  1.3492965698e-01, -3.2883074135e-02,  1.0362941772e-01, 
	-1.0310289264e-01, -7.8635118902e-02,  7.3553770781e-02,  5.6845132262e-02,  1.0456485301e-01, -6.0116775334e-02, -2.4655975401e-01, -6.2676183879e-02,  1.1231708527e-01,  7.4633210897e-02, 
	 1.0928244889e-01, -5.1263994537e-03, -2.9837327078e-02, -3.6464065313e-01, -4.4008588791e-01, -1.6815115511e-01,  1.7739627510e-02, -2.2072705626e-01, -3.3138221502e-01, -9.5116145909e-02, 
	-1.7340858281e-01, -1.7582158744e-01, -1.3038712740e-01, -1.6974624991e-01,  1.5669509768e-01, -2.2621005774e-02, -1.6833084822e-01, -2.9484468699e-01, -7.0205114782e-02, -6.9518588483e-02, 
	 8.9095495641e-02,  6.1956252903e-02,  3.3290062100e-02, -4.5247469097e-02, -2.6631855872e-03,  2.2361073643e-02, -7.8755773604e-02, -6.4488244243e-03, -1.3929666020e-02,  6.2922656536e-02, 
	 9.0929195285e-02,  3.8529209793e-02, -2.1819768846e-01, -4.4243573211e-03, -1.2148325145e-01, -1.0184334219e-01, -5.4678134620e-02,  1.0854770243e-01,  4.1044797748e-02, -1.5574143827e-01, 
	-1.0316506028e-01, -7.2265721858e-02, -7.7269442379e-02,  1.7033235729e-01,  3.5646438599e-02, -3.2365158200e-02,  2.4782231450e-01,  3.7706438452e-03, -1.5547934175e-01, -1.6407142580e-01, 
	-1.3564415276e-01, -2.2336187959e-01, -1.3966239989e-01, -1.6001352668e-01,  3.6859370302e-03,  8.9044682682e-03, -9.6164464951e-02, -8.7021097541e-02, -5.7776976377e-02,  2.3226255551e-02, 
	-6.1980601400e-02,  2.5273216888e-02, -6.8854384124e-02, -1.2367668003e-01, -1.6318154521e-03,  9.6840821207e-02, -9.4238728285e-02, -2.1444365382e-01, -1.3521441817e-01, -1.1486713588e-01, 
	 8.8611327112e-02, -3.8963858038e-02, -8.8992007077e-02,  1.4377798140e-01, -4.3310910463e-02,  6.8792171776e-02, -7.8530348837e-02, -2.2300345823e-02, -5.1132809371e-02, -9.6177466214e-02, 
	-9.1175436974e-02,  1.2642373145e-01,  4.8490244895e-02, -1.4166550245e-03, -9.0957552195e-02, -7.4616946280e-02, -2.6746127009e-01, -1.3729460537e-01,  1.9328397512e-01, -1.2344951928e-01, 
	-1.2080865353e-01,  8.8883638382e-02, -2.0676143467e-01, -5.9353299439e-03,  3.1697507948e-02, -1.3486991823e-01,  1.9019898772e-01,  3.6134719849e-01,  6.6148452461e-02, -1.4460158348e-01, 
	 1.7708157003e-01, -1.1224532127e-01, -3.4837558866e-02, -8.9328959584e-02, -2.2158826888e-01,  3.5753298551e-02,  3.7336353213e-02,  4.8942122608e-02, -9.0579027310e-03,  1.2729930878e-01, 
	 2.2735318169e-02, -1.5433070064e-01,  1.4082362875e-02,  1.9261211157e-01, -1.9434338808e-01, -7.1136489511e-02,  5.5141199380e-02, -4.6699568629e-02,  8.1035003066e-02,  1.1120427400e-01, 
	-2.6122134924e-01,  8.4001809359e-02, -1.9065710902e-01, -1.1348947883e-01, -1.4498420060e-01, -3.8484209776e-01, -2.1048408747e-01, -3.6031547934e-02, -2.1248771250e-01,  1.8459516764e-01, 
	-6.1855200678e-02, -5.3995732218e-02, -1.7768462002e-01,  6.8103343248e-02,  1.1261964589e-01, -1.8782886863e-01, -1.1404514313e-02, -1.0801969469e-01, -7.9900600016e-02,  9.8059222102e-02, 
	-8.5064209998e-02,  2.9489179142e-03,  3.7323500961e-02,  1.7560933530e-01, -2.7404278517e-01,  3.2177183032e-01, -1.2229558825e-01, -4.4135291129e-02, -6.8655438721e-02, -2.1300718188e-02, 
	-1.7710918188e-01,  8.0072902143e-02,  1.4588702470e-02, -4.6324599534e-02, -8.0350659788e-02, -1.3905884698e-02,  3.5312559456e-02,  6.9002978504e-02, -5.0926674157e-02,  5.8159887791e-02, 
	-1.0909548402e-01,  7.5195789337e-02,  1.6259378195e-01, -1.7609076202e-01,  7.1494907141e-02,  1.3503817841e-02, -7.1697629988e-02,  4.9884434789e-02, -9.8575456068e-03,  1.1082905531e-01, 
	 7.5533717871e-02,  6.2389329076e-02,  5.2172485739e-02, -6.6411919892e-02,  3.3781312406e-02, -1.7080304027e-01,  7.6044537127e-02, -6.6562965512e-02,  1.2582090497e-01,  7.5922064483e-02, 
	 3.1759046018e-02, -5.5873058736e-02,  7.0226445794e-02, -1.6378983855e-01,  7.1638412774e-02, -1.1244525760e-01, -3.7718657404e-02,  1.6552603245e-01, -1.9748476148e-01,  1.1951678246e-01, 
	 1.0913403332e-01,  9.0090431273e-02,  5.4854530841e-02,  1.6690197587e-01,  7.0476882160e-02, -7.6703749597e-02,  2.0886084065e-02, -3.4269813448e-02,  1.0615330189e-01, -5.4974714294e-03, 
	-1.3493566215e-01, -1.5240038931e-01, -1.4068356156e-01,  1.5229749680e-01,  5.3889770061e-02, -9.3333117664e-02, -1.2482908368e-01, -6.5505839884e-02,  1.5213125944e-01,  5.5900570005e-02, 
	-1.5323780477e-01, -2.2450792789e-01, -4.9068432301e-02, -7.0607356727e-02, -1.2836836278e-01, -4.8351645470e-02, -1.4322137833e-01, -4.3305575848e-02, -1.4187782072e-02,  1.1488213390e-01, 
	-1.3417162001e-01, -1.0487379134e-01,  6.8133473396e-03, -1.2842668593e-01,  3.6123213358e-03, -1.3806022704e-01, -1.9996833801e-01, -1.0957461596e-01,  4.4355215505e-03, -1.2186191976e-01, 
	-1.2373448163e-01,  1.6872243583e-01,  6.8843714893e-02,  2.2086688876e-01, -5.4666310549e-02,  1.9236369431e-01,  5.5082898587e-02, -9.5891430974e-03, -3.5130503774e-01, -2.0670326054e-01, 
	 1.0261382908e-01, -2.1481372416e-01, -4.8546280712e-02, -1.5801535547e-01, -1.6940619051e-01, -1.7000798881e-01,  5.1357898861e-02,  1.1959106475e-01,  4.3656893075e-02, -2.4532899261e-02, 
	-3.8074709475e-02,  1.3086405396e-01,  1.1548119038e-01,  5.3367964923e-02, -5.5442903191e-02,  4.8523955047e-02, -9.1679617763e-02,  5.9975955635e-02, -2.0943297073e-02, -1.3521900773e-01, 
	-8.3038508892e-02, -9.7857546061e-03, -4.0288556367e-02,  7.2173862718e-03,  6.2520583160e-03, -4.8685021698e-02, -6.0289662331e-02,  7.4544876814e-02, -8.2787334919e-02, -3.7715078797e-03, 
	-4.2923767120e-02, -4.9894295633e-02,  2.3449717555e-03,  3.5318382084e-02, -1.6266816854e-01, -7.3898732662e-02, -2.8415969014e-01, -3.3477923274e-01,  5.0008785911e-03, -5.9175229073e-01, 
	-3.5075965524e-01, -3.1748297811e-01,  2.4400262162e-02,  1.4872391522e-01, -9.6215158701e-02,  4.6046417207e-02,  3.7021279335e-02, -2.5606229901e-01, -2.6548087597e-01, -1.4303401113e-02, 
	-2.2506956011e-02,  8.6169078946e-02,  8.7698735297e-02,  4.6679530293e-02,  5.2362583578e-02, -3.2748240978e-02, -4.9458317459e-02, -4.4986173511e-02,  2.4940981530e-03, -3.4423697740e-02, 
	-1.6012923419e-01, -1.5223692358e-01, -6.9768406451e-02, -2.3445966840e-01, -2.3364316672e-02, -1.0133416951e-01, -6.9536633790e-02,  1.1349724233e-01, -1.8329182640e-02,  1.3892632909e-02, 
	-5.5266883224e-02,  4.0965899825e-02,  1.1536274850e-01, -8.7777823210e-02,  2.2596189380e-01,  1.9559428096e-01,  8.9201062918e-02,  1.8255296350e-01, -2.6815928519e-02,  2.6850014925e-01, 
	 3.4404921532e-01,  1.0055104643e-01,  6.8686380982e-02,  1.5943750739e-02,  2.5341445580e-03, -1.9833017886e-01, -2.3236435652e-01,  1.2466670945e-02,  1.9274268998e-03, -4.1899759322e-02, 
	 1.1169251055e-02, -3.1663402915e-02, -2.2046351433e-01,  5.3614143282e-02, -1.7723836936e-03, -5.4163023829e-02,  4.2205685750e-03,  1.5845717862e-02,  1.2565802038e-01,  1.5902444720e-01, 
	 5.7290427387e-02, -1.0008421540e-01,  4.6872287989e-02,  7.5920328498e-02, -6.0012940317e-02,  2.0710951090e-01,  2.9165087268e-02,  1.8206126988e-01,  1.3626021147e-01,  8.2353390753e-03, 
	 1.4694955945e-01, -5.1354542375e-02, -9.0925373137e-02,  6.3453972340e-02, -1.2177418172e-01, -3.4818273038e-02, -4.4666659087e-02, -1.2307231873e-01,  1.0784567334e-02,  9.0277325362e-03, 
	 1.9684189931e-02, -2.1808644757e-02,  2.5371393561e-01, -1.5654489398e-02,  1.1456360668e-01, -1.6368464567e-03,  7.3906786740e-02,  2.6160725951e-01,  1.8789944053e-01,  1.8466815352e-01, 
	 2.1977770329e-01,  9.0190462768e-02,  6.3513904810e-02,  1.1006908119e-01,  8.0170221627e-02,  9.1405831277e-02, -9.3350507319e-02,  2.1153117716e-01,  1.6076830029e-01,  8.7900899351e-02, 
	 4.4809963554e-02, -3.3680610359e-02,  2.2862546146e-01,  1.5249918401e-01,  5.3998194635e-02, -8.9180618525e-02, -6.0196973383e-02, -1.9896137714e-01,  3.6377616227e-02, -2.1030718461e-02, 
	-1.6340902448e-01, -2.1731570363e-02, -2.1896977723e-01, -7.5160361826e-02, -1.3371411711e-02, -5.2914399654e-02,  9.3550905585e-02,  1.9917903841e-01, -9.6908226609e-02, -1.5067242086e-01, 
	-1.6600503027e-01, -2.8482243419e-01, -9.6776738763e-02, -7.9129397869e-02, -1.0591281205e-01, -1.1483430117e-01, -1.5078644454e-01,  2.0557360351e-01,  5.2101913840e-02,  1.7943295836e-01, 
	-1.1489598081e-02, -3.4252904356e-02, -6.1987712979e-03,  8.1307679415e-02,  1.3340920210e-01,  1.8042314798e-02,  1.0776685551e-02, -1.6121824086e-01, -4.9254947901e-01, -2.8469083831e-02, 
	-1.8528030813e-01, -3.1835472584e-01, -9.3993030488e-02,  6.3458181918e-02,  5.8063179255e-02, -4.4484853745e-02,  1.4048308134e-01, -2.9779123142e-02,  1.0278565437e-01,  1.8074643612e-01, 
	 7.6070398092e-02,  4.8374425620e-02,  1.1319168843e-03, -6.2302209437e-02,  3.2269094139e-02,  7.4184266850e-03,  1.4745144872e-03,  3.9600234479e-02,  7.3070108891e-02, -1.8211508170e-02, 
	 2.2401735187e-02,  1.2955979444e-02,  1.4617447741e-02, -8.9424237609e-02,  4.0372036397e-02, -3.2709341496e-02,  1.2008191645e-01,  9.1929495335e-02,  2.8217041399e-03, -1.7444573343e-01, 
	-4.3030690402e-02, -7.5415872037e-02, -2.7458956465e-02, -2.1610349417e-01, -3.7735602260e-01, -5.1554977894e-01, -3.2498642802e-01, -2.9738545418e-01, -3.4130726010e-02, -3.0017197132e-01, 
	-2.3204068840e-01,  5.8426380157e-02, -2.9453259706e-01, -1.0794281028e-02, -9.0460345149e-02, -1.7739680409e-01, -4.4073149562e-01, -1.7330235243e-01, -9.8899371922e-02, -3.3607608080e-01, 
	-6.0176838189e-02,  1.0228498280e-01,  6.7013576627e-02,  4.4061649591e-02,  4.9662876874e-02, -5.4370958358e-02,  6.8869031966e-02,  8.2254149020e-03,  4.5416176319e-02, -1.0372742265e-01, 
	-8.9873097837e-02, -3.5949633457e-03,  2.6353567839e-02, -1.4643536508e-01,  1.2686057389e-01, -2.7932016179e-02, -6.5954230726e-02,  6.9802328944e-02, -1.2063083239e-02,  1.6166429222e-01, 
	 8.4125317633e-02, -5.1028165966e-02,  1.4655783772e-01,  5.4482653737e-02,  3.1519636512e-02,  1.8311833963e-02, -2.2943308577e-02, -9.2605121434e-02,  4.7087967396e-02,  9.5234341919e-02, 
	-8.6312018335e-02, -1.8315199763e-02, -6.3773535192e-02, -9.1733306646e-02,  2.7256381512e-01, -1.7108438909e-01, -3.6990221590e-02,  1.1538755149e-01, -4.2190801352e-02, -2.7488086373e-02, 
	 7.6697826385e-02,  3.7639997900e-02,  1.7975880206e-01,  9.4612076879e-02, -9.1748796403e-02, -2.4736514315e-02,  1.4588611200e-02,  1.3144979253e-02, -3.0088076368e-02, -1.5038961172e-01, 
	 8.6367242038e-02,  4.1340172291e-02, -4.1286237538e-02, -1.5791079402e-01, -6.1113722622e-02, -5.3539443761e-02,  7.9977139831e-03,  3.1879279763e-02, -5.9892930090e-02,  1.8085520715e-02, 
	-1.3810236705e-03, -4.2781155556e-02,  3.7903781980e-02,  5.9095591307e-02,  5.2300654352e-02,  5.6068200618e-02, -6.1929315329e-02, -6.0222733766e-02, -8.5422247648e-03,  1.7861856520e-01, 
	 4.0172159672e-02,  8.7660133839e-02, -1.0563764721e-02, -2.3079077899e-01,  1.7244495451e-01,  1.3240391016e-01,  7.4341244996e-02,  7.0273362100e-02,  1.0823238641e-01, -3.3170089126e-01, 
	-4.6156346798e-01, -2.1658794582e-01, -1.6143108904e-01,  1.0035323352e-01,  4.8628453165e-02,  4.9426563084e-02,  7.6181918383e-02, -9.2276863754e-02, -5.4095763713e-02, -1.9744379818e-01, 
	 4.3345484883e-02, -2.6075321436e-01,  1.6720800102e-01, -3.2206724863e-03, -4.2961549014e-02, -1.2247512350e-03,  9.1647930443e-02, -1.4521653950e-01, -1.0151705146e-01,  1.8184714019e-01, 
	 5.3185295314e-02,  7.6997965574e-02,  5.1053207368e-02, -6.6152557731e-02, -8.5361853242e-02, -1.1700356007e-01, -5.4214276373e-02, -1.5789987147e-01, -3.8880664855e-02, -1.0405468196e-01, 
	-6.2097772956e-02,  8.9387245476e-02,  1.8412733078e-01, -3.3599559218e-02,  2.4931864813e-02,  1.2446448673e-03, -1.6641858220e-01,  2.0601981878e-01, -1.3849455118e-01,  6.4511127770e-02, 
	-1.6309808195e-01,  1.2016372383e-01, -3.9088703692e-02, -1.0225832462e-01, -9.7507685423e-02, -9.7938120365e-02, -1.2478562444e-01,  8.9821264148e-02,  3.2215606421e-02, -7.4523448944e-02, 
	-6.2413133681e-02, -7.7059306204e-02, -1.0005240887e-01,  1.6693481803e-01, -1.2708264589e-01, -1.1441154778e-01,  1.2510848464e-03, -1.4804065228e-01,  8.0931819975e-02, -7.1631699800e-02, 
	-5.8514989913e-02, -5.6192995980e-03,  7.2686396539e-02, -9.9556304514e-02,  1.8610033393e-01, -2.4729301035e-01,  9.1789245605e-02,  5.5246939883e-03, -1.1551664770e-01,  4.7591812909e-02, 
	 2.0787096024e-01, -1.9408300519e-01, -1.1536996812e-01,  3.2681878656e-02, -5.1308609545e-02, -1.5111479163e-01,  1.0759718716e-01,  1.2803800404e-01, -1.2745560706e-01,  1.6265760362e-01, 
	 1.1941987090e-02, -4.7346018255e-02,  1.6553264856e-01,  7.0736125112e-02,  1.2677410245e-01,  3.1645473838e-01, -7.6340079308e-02,  1.7471073568e-01,  2.6182743907e-01, -1.5089759603e-02, 
	 1.0644024611e-01,  1.7016734183e-01,  6.8429246545e-02,  1.5811996162e-01, -4.5998588204e-02, -1.3611283898e-01, -6.2490496784e-02,  7.7274903655e-02,  8.1128284335e-02,  1.1178942770e-01, 
	 1.8519535661e-01,  1.3947603106e-01,  2.4911643565e-01,  4.8756197095e-02,  1.5501917899e-01, -1.6939310357e-02,  1.2845836580e-01, -2.2126559168e-02,  2.2858852521e-02, -9.7569070756e-02, 
	-2.1830508113e-01, -2.2764179111e-01, -4.7965247184e-02, -5.0388332456e-02, -6.3372939825e-02, -9.8355241120e-02, -6.1961375177e-02,  5.5287703872e-02, -4.8254325986e-02, -4.2548265308e-02, 
	 5.7047147304e-02,  1.9129295647e-01,  1.6196662188e-01, -1.2528158724e-01, -4.9853608012e-02,  1.0494543612e-01,  2.2552539408e-01, -1.1855741590e-01,  9.6284359694e-02, -9.6855305135e-02, 
	 2.7653947473e-01, -2.4956129491e-02, -1.4292693138e-01, -9.1575890779e-02,  5.4555617273e-02, -7.9287640750e-02,  6.7576199770e-02, -3.7551652640e-02, -9.4996817410e-02, -1.6085049510e-01, 
	 3.6696125753e-03,  2.5305086747e-02,  1.1554672569e-01, -1.3416323066e-01,  9.7070321441e-02, -2.0684964955e-02,  2.6813488454e-02,  3.5785041749e-02, -7.7316164970e-02, -2.0765444264e-02, 
	-1.6829589009e-01, -5.0431635231e-02, -1.0805683583e-01, -1.2624806166e-01, -1.1907351762e-01,  7.1888323873e-03,  1.5844075009e-02, -4.3911587447e-02, -1.3944617473e-02, -2.6670786738e-01, 
	-1.5900546312e-01,  9.7746483982e-02, -2.4469803274e-01, -2.2964453697e-01, -1.1063423939e-02,  2.6206794381e-01,  6.2612993643e-03,  3.2867661119e-01,  2.2598622739e-01,  3.7632402033e-02, 
	-1.5424834192e-01, -8.9414879680e-02, -2.4330845103e-02, -4.4920448214e-02, -1.8780195713e-01, -8.7854705751e-02,  5.3778532892e-03, -9.8043560982e-02, -8.7656758726e-02,  1.0960870236e-01, 
	 4.6685892157e-03,  1.3243398070e-01, -1.4148321748e-01,  2.1681385115e-02, -1.3420739770e-01, -1.8275484443e-02,  1.4962292276e-02,  1.4458610117e-01,  2.5666411966e-02, -6.0290683061e-02, 
	-7.1921057999e-02,  1.0228781961e-02,  1.5360301733e-01,  5.2341382951e-02,  2.9796816409e-02, -2.2354956716e-02,  1.3295592368e-01,  3.2928515226e-02,  1.1384573579e-01, -6.6106356680e-03, 
};

const float layer_5_conv2d_bias[UNET_PAR_5_CONV2D_OUT_FILTER] = {
	 3.5129519529e-04,  2.8006103821e-04,  5.1412818721e-04, -4.0969008114e-04,  2.4487744668e-04,  1.7115287483e-04, -4.3416890549e-04, -6.7391789344e-05,  2.4554817355e-04,  2.0792942087e-04, 
	 6.2532497395e-05,  1.2899446301e-04, -2.6376115784e-05, -2.9332322811e-05,  9.3759466836e-05,  2.2428607917e-04, -5.2501779282e-04, -1.5317300858e-04, -8.3529397671e-05,  3.6276617902e-04, 
};


#endif
