#ifndef PARAMS_CONV2D_16_H
#define PARAMS_CONV2D_16_H
#include "params.h"

const float layer_16_conv2d_weight[UNET_PAR_16_CONV2D_KERNEL_Y*UNET_PAR_16_CONV2D_KERNEL_X*UNET_PAR_16_CONV2D_IN_FILTER*UNET_PAR_16_CONV2D_OUT_FILTER] = {
	-3.5134721547e-02, -1.9013246521e-02, -3.5458296537e-02,  1.0762509704e-01,  8.2897409797e-02,  4.8394061625e-02, -3.9116125554e-02, -4.8908055760e-03,  5.4238285869e-02, -1.6125867143e-02, 
	-4.1505373083e-03,  9.0578598902e-03,  2.4799635634e-02,  2.8854450211e-02,  8.0262243748e-02, -1.0848777741e-01, -7.7753119171e-02,  8.7418761104e-03, -1.7582932115e-01, -2.3741242290e-01, 
	-2.5305679440e-01, -1.5199011564e-01, -1.8389087915e-01, -3.2768210769e-01, -8.3028621972e-02, -1.2797282636e-01, -2.3967675865e-01, -1.4054591954e-01,  7.9735174775e-02,  7.4213460088e-02, 
	-8.8150322437e-02, -3.5261835903e-02,  2.2374010086e-01, -1.9018925726e-01,  9.1295577586e-02,  2.7393934131e-01, -2.5341613218e-02, -8.0540236086e-03, -3.3246524632e-02,  8.8553480804e-02, 
	 3.4229174256e-02,  5.5811636150e-02, -2.3966820911e-02, -1.3323864341e-01, -8.4907256067e-02, -3.2328087091e-01, -3.1056275964e-01, -2.3274643719e-01, -3.1199046969e-01, -2.9191476107e-01, 
	-2.6545149088e-01, -1.2173169851e-01, -1.4750039577e-01, -4.2391380668e-01, -2.0297199488e-01, -5.1032519341e-01, -7.1554809809e-01,  7.4062399566e-02, -1.3208790123e-01, -3.8860490918e-01, 
	 6.8902768195e-02,  5.5232111365e-02, -2.0884787664e-02, -7.9742543399e-02, -3.2396160066e-02, -1.2087848037e-02, -5.3078100085e-02, -3.3079091460e-02,  5.5749170482e-02, -3.1622048467e-02, 
	 3.9251796901e-02, -3.8400257472e-03,  1.7695777118e-02, -7.6014466584e-02,  4.0070101619e-02, -1.9170273095e-02, -4.2398069054e-02, -5.0561301410e-02, -5.5156078190e-02, -1.2569474056e-02, 
	 7.7171631157e-02, -1.3801035471e-02, -7.7758215368e-02, -4.2099687271e-03,  5.9251502156e-02,  1.1505195498e-01, -1.7031937605e-03,  5.4365050048e-02,  7.1652755141e-02, -4.1693220846e-03, 
	 1.6755023599e-01,  1.3932548463e-01,  9.5669962466e-02, -1.3794122264e-02, -2.0482377149e-03,  8.6422644556e-02, -3.4535672516e-02, -5.9189625084e-02, -1.2062476575e-01,  1.3147684932e-01, 
	 1.5115399659e-01,  1.7431788146e-01,  6.2863923609e-02,  1.7221873999e-01,  1.8573820591e-01,  1.0699590296e-01,  1.1692207307e-01,  3.5759396269e-04,  2.2200277448e-01,  1.6813254356e-01, 
	 8.4480419755e-02,  3.3587935567e-01,  1.3499148190e-01,  1.8839758635e-01,  2.3738299310e-01,  2.8404989839e-01,  1.4085224271e-01, -1.0795561224e-01, -1.0492321849e-01, -3.2107215375e-02, 
	-1.0345963389e-01,  9.0278603137e-02,  7.7263355255e-02, -1.9237898290e-01, -1.0616184212e-02,  8.0276891589e-02,  1.1570211500e-01, -1.5789767727e-02,  3.2994814217e-02,  8.7532691658e-02, 
	 2.1137227304e-03,  7.8864783049e-02,  6.7210875452e-02,  8.4994144738e-02,  7.5596675277e-02, -9.4698965549e-03,  5.7952832431e-02,  3.3139660954e-03,  1.5615106560e-02,  1.7504345626e-02, 
	 1.8309531733e-02, -2.7135834098e-02, -8.4114976926e-04, -7.1360237896e-02, -3.3362355828e-01, -2.1712954342e-01, -2.8379561380e-02, -2.2337204218e-01,  6.6997907124e-03, -4.0637236089e-02, 
	-1.7029266059e-01,  1.1387296952e-02,  3.5049248487e-02,  2.1057388186e-01,  3.2119783759e-01,  3.8497284055e-01,  1.0381524265e-01,  7.4627019465e-02,  1.3678753376e-01,  2.1861590445e-01, 
	 1.6964223981e-01,  1.7747890204e-02,  1.4518025517e-01,  1.3318260014e-01,  2.4723458290e-01,  1.9111080468e-01,  1.1785097420e-01,  1.6171444952e-01,  7.5733929873e-02,  5.4675251245e-02, 
	 2.6540828869e-02,  9.2198602855e-02, -6.1086303322e-04, -7.9216048121e-02,  5.6454535574e-02,  1.4816862345e-01,  1.4806768298e-01,  1.0478313267e-01,  5.9911612421e-02,  3.5293498635e-01, 
	-1.1878366768e-01, -7.0674680173e-02, -2.1043963730e-01,  1.8074793741e-02, -4.4817950577e-02, -1.3854120672e-01,  3.6594375968e-02,  7.8068345785e-02,  3.6818921566e-02,  1.2491114438e-01, 
	 1.2398239225e-01,  1.6007143259e-01, -2.6693994179e-02,  3.8710902445e-03,  1.7746705562e-02, -1.2086358666e-01, -1.4020006359e-01, -1.1309350282e-01, -9.8309159279e-02, -4.4865231961e-02, 
	-5.7027395815e-02, -9.3675203621e-02, -4.4658698142e-02,  1.6139537096e-01, -3.6696098745e-02,  7.5382165611e-02,  5.3094241768e-02,  1.4759203792e-01,  2.3651735485e-01,  9.1823123395e-02, 
	-1.5856063366e-01,  8.7648173794e-03,  1.4111360908e-01,  1.6585698351e-02,  1.4200874139e-03, -3.1841386110e-02,  2.3715525866e-01,  9.8615467548e-02, -6.1784554273e-02,  7.2568833828e-02, 
	-5.4497644305e-02, -1.3959541917e-01,  2.0907689631e-01,  1.1621049047e-01, -7.3401667178e-02,  1.0294731706e-01,  1.5888123214e-01,  1.4942254126e-01, -4.6563275158e-02,  8.0706425011e-02, 
	 5.4677661508e-02, -7.9981245100e-02,  2.7645735070e-02, -3.1639158726e-02,  6.6888086498e-02,  4.0786106139e-02,  1.3810427487e-01, -4.5698922127e-02, -3.9172891527e-02,  7.4486613274e-02, 
	-1.7028728127e-01, -1.6544678807e-01, -1.4269927144e-01, -1.3004691899e-01, -7.0793941617e-02,  1.7129953951e-02, -2.4914863706e-01, -1.7329619825e-01,  6.2580662780e-03, -4.2338332534e-01, 
	-2.2567820549e-01, -5.7730052620e-02, -4.4362761080e-02, -5.3833428770e-02,  6.2759473920e-02, -1.3377784751e-02, -4.9850601703e-02,  2.6988020167e-02, -7.0161283016e-02, -7.0474222302e-02, 
	-2.6335895061e-02,  2.0325636491e-02,  9.4676285982e-02, -6.0314115137e-02,  4.5323196799e-02,  6.0032378882e-02, -6.3200086355e-02,  8.3400577307e-02,  1.6929492354e-01,  1.6510698944e-02, 
	-9.2286802828e-02, -1.6643124819e-01, -1.1114429682e-01,  4.5312400907e-02,  1.1433216184e-01,  9.1620959342e-02,  2.1542030573e-01,  2.1117626131e-01,  1.7987261713e-01, -4.4499993324e-02, 
	-3.9792243391e-02,  3.2049875706e-02, -3.0297908932e-02,  4.0752980858e-02,  4.4198904186e-02,  4.7865226865e-02, -9.9858909845e-02, -9.8846502602e-02, -4.4374249876e-02,  5.0542112440e-02, 
	-1.7319114879e-02, -5.0946008414e-02, -1.4577080496e-02,  1.3350823522e-01,  9.2012807727e-02,  2.4920215830e-02,  1.4740024507e-01,  1.4364935458e-02, -9.9316574633e-02, -1.6698454320e-01, 
	-2.6338074356e-02, -1.6294788569e-02, -1.0915701091e-01, -8.2018829882e-02, -1.3684371114e-01, -5.0885342062e-02, -8.4840366617e-03,  1.0879057646e-01,  1.3854797184e-01, -2.1365751326e-01, 
	-1.1779142916e-01, -1.3510984136e-03, -2.2349219024e-01, -1.6818802059e-01, -2.1741195023e-01, -4.6318534762e-02, -4.3871458620e-02, -2.6349581778e-02,  1.0447490960e-01,  9.9548222497e-03, 
	-9.9075399339e-02,  1.3311800361e-01, -1.4845183119e-02, -5.6785658002e-02,  5.4216612130e-02, -5.3178668022e-02,  5.2826531231e-02, -2.4371463805e-02,  1.5033585019e-02,  4.7720097005e-02, 
	-9.5895417035e-02, -1.3035169244e-01,  1.0620742291e-01, -4.7577355057e-02,  1.7815087736e-01,  1.7242626846e-01, -1.1861991882e-01, -2.1739533171e-02,  1.8430611119e-02,  1.2423738092e-01, 
	 1.5537938476e-01, -1.1019261926e-01,  2.1074056625e-01,  6.5129503608e-02, -3.3649284393e-02,  1.8980669975e-01,  1.0825685412e-01, -5.7106498629e-02,  7.6558619738e-02,  4.5103684068e-02, 
	 1.7759616673e-01, -9.1433882713e-02, -1.1116073281e-01, -3.8013825542e-04, -7.5522124767e-02, -1.2950880826e-01, -4.2113274336e-02, -2.0236263052e-02,  8.5831135511e-03, -4.9412543885e-03, 
	-1.3709084690e-01, -2.2213914990e-01, -2.4915632606e-01, -8.6203351617e-02, -1.2407349050e-01,  7.0675313473e-02, -1.7726881802e-01, -2.6861155033e-01, -8.1636354327e-02,  9.2934399843e-02, 
	 9.6780039370e-02,  1.1752910167e-01, -1.6575878859e-01,  1.8953052163e-01,  1.9287252426e-01, -1.3420283794e-01, -6.5929740667e-03,  4.4237013906e-02,  5.1283068955e-02,  3.2977718860e-02, 
	-6.5016202629e-02,  3.6235243082e-02,  8.7669648230e-02,  5.6238416582e-03,  7.2235749103e-03,  3.3272225410e-02, -5.4203517735e-02, -1.3374434412e-01,  7.3380678892e-02,  1.1054310203e-01, 
	-1.7676898837e-01, -2.4937291164e-03,  1.4675932936e-02, -2.4784539640e-01, -1.6697701812e-01, -1.2228464335e-01, -1.7120808363e-01,  5.6351576000e-02,  1.2268126756e-01, -2.1958421171e-01, 
	-4.1303526610e-02,  7.8085787594e-02, -3.6154302955e-01, -2.5709033012e-01, -2.6085627079e-01,  1.6677875072e-02, -1.0777207464e-01, -1.6760361195e-01, -9.6894599497e-02, -7.8029282391e-02, 
	 7.6446391642e-02, -2.4613748491e-01, -1.0235086083e-01,  9.6434332430e-02, -1.2336758524e-01, -2.1337429062e-02, -1.8107907474e-01,  5.9170071036e-02,  5.4344885051e-02,  6.5592445433e-02, 
	 9.7097165883e-02,  4.6987090260e-02,  1.2948417664e-01, -1.8725563586e-01, -7.3662614450e-03,  7.7235460281e-02, -9.3875797465e-03,  1.0977417976e-01,  2.4127890170e-01,  6.5088354051e-02, 
	 1.9702151418e-01,  2.7001923323e-01,  1.4475348592e-01,  1.3544858992e-01, -7.1910291910e-02,  2.0300996304e-01,  1.9634938240e-01, -9.3401603401e-02,  8.7512612343e-02,  9.6122749150e-02, 
	-1.4920543879e-02,  4.9135647714e-02,  1.0487421602e-01,  1.5270060301e-01,  1.1549214274e-01,  1.7386524379e-01,  3.9455689490e-02,  7.1516297758e-02,  1.3639754057e-01,  3.9071898907e-02, 
	-1.1840614490e-02,  7.4352312367e-04,  1.9907169044e-02, -2.1402960643e-02,  6.5525263548e-02, -3.8677484263e-03,  8.0013155937e-02, -7.0930637419e-02,  2.9689929215e-04,  2.7052795887e-01, 
	 2.8087761998e-01,  3.2728117704e-01,  3.0368685722e-01,  2.8911709785e-01,  1.1807943135e-01,  1.8780684471e-01,  8.1381909549e-02,  4.3597076088e-02, -4.1605472565e-02, -1.2572936714e-01, 
	-2.5936260819e-01, -1.0773336887e-01,  2.1397136152e-02, -5.7424545288e-02, -2.2790146992e-02,  2.1082734689e-02, -2.0295202732e-02,  3.4532330930e-02,  1.5258143656e-02,  3.5680480301e-02, 
	 5.4376660846e-03, -4.8171848059e-02, -1.5534467995e-02, -6.2730945647e-02,  3.3691763878e-02,  8.7502123788e-03,  6.6524416208e-02,  6.2815323472e-02,  2.4451358244e-02,  1.5888658166e-01, 
	 9.8701290786e-02,  1.1576673388e-01,  9.4629071653e-02,  1.1856722087e-01,  1.5729989111e-01,  2.7910417318e-01,  1.4341178536e-01,  2.0636820793e-01,  1.4058437943e-01,  4.9539532512e-02, 
	-3.9917305112e-03,  1.4780551195e-01,  1.2331053615e-01, -2.8377054259e-02, -1.0566074401e-01,  1.1457785033e-02, -5.0950188190e-02, -4.7600939870e-02, -3.4293942153e-02, -1.5550638735e-01, 
	 5.3067941219e-02, -7.9321861267e-02, -7.4560113251e-02,  8.7157770991e-02, -1.2531827390e-01,  1.3388906606e-02, -1.1286942288e-02, -2.4043878913e-01, -2.7531806380e-02,  1.2288820930e-02, 
	-5.4009955376e-02,  1.6254487634e-01, -1.1522877216e-01, -5.6604668498e-02, -2.6366677135e-02, -1.6917040944e-01, -1.6276279092e-01, -1.9963702559e-01,  5.2350554615e-03, -8.7315395474e-02, 
	-1.7020052671e-01, -3.1890008599e-02,  3.2683241367e-01,  3.8025534153e-01,  1.2274320237e-02,  1.9738526642e-01,  2.7119523287e-01,  4.7286808491e-02,  1.8862703443e-01,  1.7259791493e-01, 
	-6.4005196095e-02, -9.0145945549e-02, -1.3054487109e-01, -8.1198193133e-02, -1.3742242754e-01, -1.2227753550e-01, -1.4021852612e-01, -3.4773286432e-02, -6.6481806338e-02,  1.5046042204e-01, 
	 5.3256146610e-02, -7.7165424824e-02,  7.1638666093e-02, -9.0843014419e-02, -1.1553921551e-01,  5.3090196103e-02, -1.2080607563e-01, -2.7254936099e-01, -4.2703628540e-02, -3.2777274027e-03, 
	-6.0844268650e-02, -7.3175966740e-02,  9.2556335032e-02,  8.5361324251e-02,  7.8619807959e-02,  7.8966990113e-02,  1.0332570970e-01, -8.5279475898e-03,  9.2174280435e-03,  4.5045018196e-02, 
	 8.8628949597e-03, -1.0088851675e-02,  1.1885438859e-01,  1.4365191758e-01,  6.2146529555e-02, -1.0303765535e-02,  2.1956939250e-02,  1.3457801938e-01, -5.0215296447e-02, -8.3043374121e-02, 
	-9.3401171267e-02,  5.0653475337e-03, -6.0839008540e-02, -1.8047599122e-02, -1.4287574589e-01,  1.3136330247e-01, -9.2120133340e-03,  1.9726084173e-01, -6.4573874697e-03,  9.0680472553e-02, 
	 1.8780982122e-02, -2.6862874627e-01, -1.2898185849e-01, -5.2241321653e-02, -1.3754999638e-01, -1.6778388619e-01, -9.8855502903e-02, -1.1178747565e-01, -1.1418758333e-01, -5.0944998860e-02, 
	 1.1667411774e-02,  3.1253613532e-02, -6.6217467189e-02,  1.3418929651e-02,  9.8840914667e-02,  2.9549926985e-03,  1.4602425694e-01, -1.8710870296e-02, -4.3090991676e-02,  2.8155636042e-02, 
	-5.3745396435e-02, -1.1752165109e-01, -7.3409490287e-02,  9.7000412643e-03,  1.8935242295e-01, -4.1960861534e-02, -9.6274599433e-02,  1.6515070200e-01, -1.2216602266e-01, -4.0486272424e-02, 
	 1.0142789781e-01,  1.6087371111e-01,  7.7704131603e-02,  2.0713002980e-01,  1.9261483848e-01,  1.1665984988e-01,  2.5057521462e-01,  1.5894727409e-01,  1.9621765614e-01,  4.6914946288e-02, 
	 1.2274260819e-01,  6.4935050905e-02, -2.4972965941e-02, -7.8939171508e-03,  1.4842653647e-02, -1.8376911059e-02, -2.3601846769e-02,  5.9632383287e-02, -2.4278461933e-02, -4.9103435129e-02, 
	 2.5110775605e-02,  1.9399330020e-02, -7.1792282164e-02,  1.4073726535e-01,  4.2199600488e-02, -1.8251052499e-01,  3.1637772918e-03, -2.5531589985e-02,  1.4460387826e-01,  1.9051767886e-01, 
	 1.8843162060e-01,  1.8074752390e-01,  1.6865862906e-01,  2.1325755119e-01,  1.3395254314e-01,  8.6554579437e-02,  2.5145408511e-01, -1.2442788482e-01, -6.0172177851e-02, -5.2956845611e-02, 
	 1.1176696979e-02,  1.8507809937e-01,  1.1300964653e-01,  7.7600672841e-02,  2.2071252763e-01, -8.0534607172e-02,  9.2440679669e-02,  6.3765905797e-02,  1.4221507311e-01, -6.7278998904e-03, 
	 1.6853116453e-02,  1.2592300773e-01, -1.5646884218e-02,  8.0100906780e-04, -8.4234938025e-02,  4.7684434801e-02,  3.0502711888e-03,  2.1093662083e-01, -8.6835667491e-02, -1.6068449244e-02, 
	-9.7861578688e-03, -1.0367701948e-01, -1.8345547840e-02, -2.1101695299e-01, -1.7994807661e-01,  4.7567475587e-02,  2.2110816836e-01, -5.4135054350e-02,  7.4396692216e-02,  2.4801883101e-01, 
	 5.6349344552e-02,  1.6013088822e-01,  1.6483782232e-01, -1.4810042456e-02,  1.3991700113e-01,  2.3508912325e-01, -9.0566068888e-02, -9.6244998276e-02,  1.0856360197e-02, -8.5864476860e-02, 
	-4.9874771386e-02, -3.9469536394e-02, -6.0176360421e-04,  3.6362983286e-02,  1.4577415586e-01, -6.3593402505e-02, -8.3842322230e-02, -2.7672950178e-02,  3.7613749504e-02,  2.8059719130e-02, 
	-3.3224396408e-02,  9.4365969300e-02,  2.8048434854e-01,  3.7775462866e-01, -1.1662937701e-01,  2.2750902921e-02,  1.3907779753e-01, -1.7812463641e-01, -1.6539029777e-01,  1.5022388659e-02, 
	-2.4767760932e-01,  1.1956139654e-01,  3.7366038561e-01, -1.1317501217e-01, -1.6027100384e-01, -1.5382550657e-01,  7.2951659560e-02, -3.7126109004e-02, -8.0952286720e-02, -1.4325587451e-01, 
	-1.6059938073e-01, -5.3336590528e-02, -1.7057380080e-01, -2.7879187465e-01, -1.7468373477e-01, -1.8496784568e-01, -2.9022562504e-01, -1.1118596792e-01,  1.0089909285e-01,  3.1012830138e-01, 
	 2.0954102278e-01,  1.3357438147e-01,  9.2051535845e-02,  1.4451222960e-03,  1.6498173773e-01,  1.4034857042e-02, -1.4909795718e-03, -6.2937764451e-03, -2.0688371360e-01, -1.1246083677e-01, 
	 4.1492663324e-02, -6.5566457808e-02,  3.6121588200e-02, -2.3742453754e-01, -9.6352554858e-02,  3.4901618958e-01, -1.0890219361e-01, -9.2973224819e-02, -8.0810427666e-02, -1.1643881351e-01, 
	 4.6325478703e-02, -1.4850348234e-02,  9.7684497014e-03, -1.0305148363e-01, -1.2475653738e-01, -9.4928471372e-03, -6.6572085023e-02, -4.0214292705e-02,  9.8040431738e-02, -6.2105926918e-04, 
	-1.1584419012e-01,  9.4519935548e-02,  2.4208411574e-02, -1.2745207548e-01,  1.0618881136e-01,  9.9422767758e-02,  1.2689635158e-01,  1.6886794940e-02,  1.3460090756e-01,  2.1664769948e-01, 
	 1.0791596025e-01,  1.4309003949e-01,  5.6256610900e-02, -5.0634142011e-02,  4.5579176396e-02,  3.7667170167e-01, -9.7601003945e-02, -8.1297323108e-02,  2.5759202242e-01, -7.3849238455e-02, 
	-1.6255918145e-01, -1.7427729070e-01, -6.0124691576e-02,  7.5465463102e-02,  4.9752153456e-02,  1.0754200630e-02,  3.2281711698e-02,  2.8421171010e-02,  1.9478406757e-02, -9.8300464451e-02, 
	-2.0535450429e-02, -3.2676282525e-01, -1.0808382183e-01,  3.6238995194e-01, -4.8447781801e-01, -2.2169604897e-01,  4.6818631887e-01, -5.0264596939e-01, -1.0397055000e-01,  3.2079377770e-01, 
	 4.8365946859e-02, -2.4842743576e-01, -7.0013046265e-02,  2.1222779155e-01, -4.3857637793e-03,  2.5851973891e-01,  1.2726441026e-01,  1.8528282642e-02,  1.9615087658e-02, -1.5315075219e-01, 
	-3.0198505521e-01, -1.1517257988e-01, -8.8645324111e-02, -8.0274716020e-02, -1.0553717613e-01,  4.0975801647e-02,  4.1266240180e-02, -6.6791228019e-03, -1.0615222156e-01,  1.0074247420e-01, 
	 9.2002660036e-02, -3.2292310148e-02, -3.8390286267e-02,  1.1361067183e-02,  3.5096541047e-02, -4.3777089566e-02,  9.1950269416e-03, -3.2796201110e-01, -1.1115225405e-01,  1.6732339561e-01, 
	 2.2653829306e-02, -1.4661097527e-01, -1.5569321811e-02,  2.4279259145e-01,  1.8995180726e-01, -2.1705062687e-01, -1.0270202905e-01, -2.5362986326e-01, -2.9838705063e-01, -2.1466791630e-02, 
	-1.0127244145e-01, -1.2371334434e-01,  1.2888476253e-01,  2.4105654657e-01,  2.9009166360e-01, -3.2282689214e-01, -4.1800338030e-01, -2.7131876349e-01, -1.6974803060e-02, -2.5753265619e-01, 
	-2.0401766896e-01,  5.0315354019e-02,  1.2002672255e-01,  1.2633079290e-01,  1.0255488753e-01,  2.1826837957e-01,  1.3372340798e-01,  4.1879016906e-02,  1.0386693478e-01, -4.0971849114e-02, 
	 2.4079595506e-01,  1.8364541233e-01, -1.6735215485e-01, -9.4556231052e-03,  1.1603998393e-01,  5.3820878267e-01, -7.1262463927e-02,  3.5825233907e-02,  1.8651506305e-01, -1.7618807033e-02, 
	-3.4663975239e-02, -8.2177065313e-02,  4.9406874925e-02,  1.1016736925e-01,  1.2472501397e-01,  9.6731632948e-02,  2.5728018954e-02,  2.6845030487e-02,  5.7968277484e-02,  8.0310449004e-02, 
	 3.0514808372e-02, -3.9721231908e-02,  7.4196509086e-03, -1.5144030750e-01,  1.0514108092e-01,  4.0805455297e-02, -3.3832471818e-02, -7.1722514927e-02,  9.8295062780e-02, -1.6458953917e-01, 
	-2.5135275722e-01, -1.0810342431e-01, -1.1667547375e-01, -2.2281824052e-01, -1.9366562366e-02, -3.5669663921e-03, -1.5975148976e-01, -1.0829855502e-01, -7.9390972853e-02,  7.6879702508e-02, 
	-8.8090911508e-02, -2.3505116999e-01, -7.2366513312e-02, -7.9673342407e-02, -1.0681786388e-01,  1.0452156514e-01,  3.3095669001e-02,  2.1523477510e-02, -8.4165386856e-02, -7.5272813439e-02, 
	 4.6400617808e-02, -2.5096327066e-01, -6.3606761396e-02, -4.7363627702e-02, -2.4507303536e-01, -2.2963342071e-01, -1.3273501396e-01,  1.0113139451e-01,  1.2556111813e-01,  1.9491459429e-01, 
	-3.5878541530e-04,  1.3276420534e-01,  4.7135289758e-02,  9.4622112811e-02, -1.1842711829e-02,  8.3449885249e-02, -2.0045804977e-01, -1.2140431255e-01, -9.7902417183e-02, -2.0048407838e-02, 
	 4.4045802206e-02,  1.7759169638e-01, -2.2029032931e-02,  1.9595125318e-01,  2.1115685999e-01, -7.1880533360e-03,  7.9494468868e-02, -3.6705834791e-03, -9.5601722598e-02, -7.8611113131e-02, 
	 4.7453049570e-02, -1.0345546901e-01, -6.4012221992e-02,  6.7928053439e-02, -1.0412397236e-01, -2.1603809297e-01,  7.8820116818e-02,  8.4331473336e-03, -1.5435670316e-01,  3.5715259612e-02, 
	-1.8985765055e-02, -5.2820201963e-02,  9.3075409532e-02,  1.5385514125e-02,  1.3675877452e-01,  3.2679542899e-02,  2.4624338374e-02,  1.6280476749e-01,  1.6528542340e-01, -8.8114468381e-03, 
	-3.6274880171e-02,  1.9928222895e-01, -1.3766625524e-01,  1.1744669639e-02, -4.6293042600e-02,  7.6260138303e-03,  1.2926799245e-02,  2.8541721404e-02,  4.7250118107e-02, -9.3245558441e-02, 
	-2.7088709176e-03, -5.6156046689e-02, -3.3093694597e-02, -3.2102119178e-02,  2.4074325338e-02, -1.3005037606e-01, -1.0982009768e-01, -1.4966391027e-01, -5.9409294277e-02,  4.5563606545e-03, 
	-4.8854738474e-02,  5.0940714777e-02,  8.8793389499e-02,  1.6454412043e-01,  1.2852899730e-01,  7.6003000140e-02,  1.1370783299e-01,  1.7220030725e-01,  1.7794226110e-01, -8.7343081832e-03, 
	 4.2991001159e-02,  2.3190531880e-02,  1.6119739413e-01,  1.0956016183e-01,  3.4588687122e-02,  6.5298467875e-02,  4.2303744704e-04,  1.0428213514e-02, -4.2797304690e-02, -2.0259185135e-01, 
	-7.0401124656e-02,  3.3578172326e-02,  1.4432428405e-02, -7.2103708982e-02,  7.8335531056e-02,  1.0954595357e-01,  1.3744580746e-01,  1.3983166218e-01,  6.9389067590e-02, -1.5262416564e-02, 
	 4.6490537934e-03,  4.0555831045e-02, -3.6205168813e-02, -6.5648213029e-02, -7.9488523304e-02, -1.9040246308e-01, -2.4575525895e-02, -2.0911362022e-02, -3.5078588873e-02,  6.3874602318e-02, 
	 8.0100866035e-03,  1.7108352482e-01, -2.3927196860e-02, -1.0395040736e-02,  2.2019132972e-01, -4.0225520730e-02, -2.9911506176e-01, -3.2512164116e-01,  1.2022770196e-01, -9.9854961038e-02, 
	-7.4700467288e-02,  1.0335939378e-01,  2.1805785596e-01,  1.7270345986e-01, -1.1718150973e-01, -1.9449308515e-01, -9.1399773955e-02, -1.1890380830e-01, -1.8461203575e-01, -1.6211753711e-02, 
	-1.2296808511e-01, -1.2700340152e-01, -5.0878184848e-03, -5.4415613413e-02, -3.4724822640e-01, -6.6709780693e-01,  1.0463602096e-01,  7.1922324598e-02, -8.5064738989e-02,  1.2533171475e-01, 
	 2.3515436053e-01,  2.4751968682e-01, -1.3276557624e-01, -7.7850863338e-02,  5.6970627047e-03, -8.5466161370e-02, -1.8391509354e-01, -1.6782602668e-01, -3.3029261231e-01, -2.4210752547e-01, 
	-3.7246081233e-01, -1.1453568190e-01,  2.1531600505e-02, -9.8182573915e-02,  1.7734576017e-02, -5.6810617447e-02, -2.0042195916e-02,  1.3184939511e-02, -1.3017262099e-03,  1.3641670346e-02, 
	-2.4746833369e-02, -1.1327945441e-01, -1.0237941146e-01, -3.6200124770e-02, -6.4702972770e-02,  1.1372767389e-02,  1.2950469553e-01, -6.1074364930e-02, -6.1144754291e-02, -1.7917442322e-01, 
	-2.8783592582e-01, -7.5886324048e-02,  1.5198515356e-01, -2.2931514308e-02,  8.0404520035e-02,  3.1224876642e-01,  2.2642406821e-01,  1.7820481956e-01, -2.0712411404e-01, -4.1910719126e-02, 
	 2.0237009227e-01, -1.7880639061e-02,  2.0322265103e-02,  1.7464365065e-01,  1.1498587579e-01, -2.8233749792e-02, -7.3623374104e-02, -1.8326824903e-01, -1.1600811034e-01, -9.4937704504e-02, 
	-1.5184277296e-01, -1.7471544445e-01, -2.0223467052e-01, -1.1306398362e-01, -2.0593191683e-01, -2.0824813843e-01,  9.5800058916e-03,  7.9457797110e-02, -1.8732327968e-02,  2.5275295973e-01, 
	 2.3139700294e-01,  2.2081266344e-01,  1.1571578681e-01,  1.8745139241e-01,  2.3494707048e-01, -2.5702273846e-01, -4.0650967509e-02,  2.8568089474e-03, -1.2948890030e-01, -1.1826973408e-01, 
	 1.5901593864e-01, -7.6143898070e-02, -9.7667895257e-02, -1.6431029141e-01,  1.0555393063e-02,  1.0723342746e-01,  1.4404724538e-01,  1.1318682134e-01,  8.3857774734e-02, -1.7641672865e-02, 
	-7.5090952218e-02, -8.0252818763e-02,  9.9068209529e-02,  2.4806490168e-02,  6.2541319057e-03, -1.7963247001e-01,  2.7716306970e-02,  1.3292689621e-01,  1.4008965343e-02,  9.8769247532e-02, 
	-3.6251954734e-02, -2.2513002157e-01, -6.0906983912e-02, -6.5835658461e-03, -1.3691876829e-01, -5.6600004435e-02,  6.5845474601e-02,  6.7128531635e-02, -1.4349010587e-01, -9.6009954810e-02, 
	-7.1224332787e-03,  4.5790472068e-03,  2.7418799698e-02,  1.8832626939e-01, -4.4317100197e-02, -1.8456287682e-02,  1.3574713469e-01, -1.6123972833e-01, -3.0912265182e-02,  1.5764471889e-01, 
	 2.1162262186e-02,  6.3555515371e-03,  6.6215604544e-02, -2.1292522550e-02,  5.0786130130e-02, -2.9898319393e-02, -1.4570395648e-01, -1.3237738609e-01,  1.0133739561e-01, -1.6742097214e-02, 
	 5.1941152662e-02, -1.2399086729e-02, -1.9336906262e-03,  5.7420104742e-02, -8.3127077669e-03, -1.8890058994e-01, -1.5800862014e-01, -4.2817488313e-02,  1.0198993236e-01,  2.2231576964e-02, 
	 9.6602104604e-02,  2.5381562114e-01,  1.8923221529e-01,  1.8586321175e-01,  1.1064057052e-01,  1.1094348133e-01,  1.2957541645e-01, -3.2261423767e-02, -7.0850700140e-02, -6.8256907165e-02, 
	-1.6556568444e-02, -3.7245400250e-02, -6.1805099249e-02, -8.5203565657e-02, -4.9774300307e-02, -1.3875637203e-02, -1.5321879089e-01,  5.3176805377e-02,  5.8024916798e-02, -5.5546443909e-02, 
	 1.0031884909e-01, -1.2371381745e-02,  1.0666714609e-01,  7.4875287712e-02,  9.0490095317e-02,  1.6826267540e-01, -7.3592076078e-03,  8.3269067109e-02,  1.3482969999e-01,  7.2605855763e-02, 
	 7.1660630405e-02,  1.4786361158e-01,  1.6374059021e-01,  1.0359400883e-02, -2.1675123274e-01,  1.6310656443e-02,  3.3511787653e-02, -1.4570102096e-01,  4.0718425065e-02,  1.5332396328e-01, 
	-1.0207148641e-01,  3.7894994020e-02,  1.0965337977e-02, -3.5244956613e-02,  4.2725518346e-02, -3.3453870565e-02,  1.0167836398e-01,  1.6379101574e-01,  1.2280090153e-01,  4.0275335312e-02, 
	 1.4951302111e-01,  1.3982582092e-01,  5.2690014243e-02, -4.6005960554e-02, -1.5813304484e-01,  1.2628608383e-02,  3.1639572233e-02, -7.5678847730e-02, -7.6584912837e-02, -8.3665095270e-02, 
	-6.7091330886e-02, -2.8196498752e-02, -8.9770443738e-02,  7.4840197340e-03, -7.4215270579e-02,  1.2404633453e-03,  1.9898334518e-02,  1.0762009770e-01,  1.2669879198e-01,  2.2213974595e-01, 
	-8.5031077266e-02,  9.5607228577e-03, -9.4170756638e-02,  1.1562451720e-01, -3.8881458342e-02, -1.1437819898e-01, -3.3396801446e-03, -1.9468288869e-02, -3.0561739579e-02, -1.6939763725e-01, 
	-3.4091729671e-02,  9.1145440936e-02, -2.4711167440e-02,  5.3615242243e-02,  3.0011251569e-02, -1.9987349212e-01,  5.7084057480e-02,  3.4377068281e-02, -2.2045294940e-01, -1.4477884769e-01, 
	 3.7750147283e-02, -3.0834817886e-01, -1.4224368334e-01,  5.1636938006e-02, -1.7607198656e-01, -5.3793452680e-02, -1.3279750943e-02,  1.0780762881e-01, -8.2162640989e-02, -8.0864869058e-02, 
	 8.9288419113e-03,  3.5136737861e-03, -1.2286332250e-01,  7.9152882099e-02,  9.5537960529e-02,  1.4297488146e-02,  8.9089252055e-02, -2.3394322023e-02,  4.1285011917e-02,  1.0563471168e-01, 
	 7.2190664709e-02,  1.5839854255e-02,  8.1657372415e-02,  8.9976441814e-05, -3.4333594143e-02, -1.1962408572e-01, -3.2984513044e-01,  1.3385973871e-01,  1.2433894724e-01,  2.9007284902e-03, 
	-1.0654726624e-01,  2.0015819371e-01,  1.2260366976e-01,  3.0530244112e-02, -3.6944085360e-01, -1.8477597833e-01, -2.5847947598e-01, -1.0998472135e-04,  1.7363330722e-01,  9.1411262751e-02, 
	 1.4145100117e-01,  3.1023412943e-01,  2.7201920748e-01, -2.8427918442e-03, -7.5796313584e-02, -3.3576749265e-02, -7.0443443954e-02, -1.1589339375e-01, -1.2489780784e-01,  2.4540346116e-02, 
	-6.9263897836e-02, -3.4357979894e-02, -1.7026158050e-02,  1.6432897747e-01,  1.4685592055e-01, -5.1308799535e-02,  6.5385609865e-02, -2.7487060055e-02, -2.1845988929e-02, -4.9871910363e-02, 
	-4.5722290874e-02, -3.1649835408e-02, -1.0399677604e-01,  1.6402065521e-03, -7.3896460235e-02, -8.2238413393e-02, -7.8935138881e-02, -2.0893232524e-01, -1.6705070436e-01, -1.0426181555e-01, 
	-2.3329487070e-02, -5.1886988804e-03,  9.0035200119e-02, -7.6642103493e-02,  2.7404235676e-02,  8.5713796318e-02,  9.1108642519e-02,  2.4472594261e-02,  1.9283717871e-01, -5.7781528682e-02, 
	-1.1191398650e-01, -9.4093933702e-02, -1.7956401408e-01, -5.1547233015e-03, -9.1154137626e-03, -1.5461255610e-01, -1.9337959588e-01, -1.1827208102e-01,  1.0955273360e-01,  1.1189385504e-01, 
	 4.8493297072e-04,  1.0332428664e-01,  3.5879943520e-02,  5.2664525807e-02,  1.6267955303e-01,  1.9248893857e-01,  1.1281674355e-01, -1.7237454653e-01, -3.4484639764e-01, -3.0554512143e-01, 
	-1.2711973488e-01, -2.8271463513e-01, -1.8582707644e-01, -6.4822308719e-02, -1.3590159826e-02, -1.8826432526e-01,  1.0271183401e-01, -1.7413739115e-02,  1.4440545440e-01, -3.2534927130e-02, 
	 8.1774845719e-02,  1.2094902247e-01,  2.8547383845e-02, -3.2085040584e-03,  1.1983980425e-02,  1.2240373529e-02,  1.6611937433e-02,  1.6334225237e-01,  4.9082849175e-02, -2.7705734596e-02, 
	 9.5657467842e-02,  5.8022914454e-03,  2.7178909630e-02,  1.8820798025e-02,  2.0162047446e-01,  3.6064478755e-01,  2.4811066687e-01,  1.3646695018e-01,  3.1084707379e-01,  3.1245690584e-01, 
	 7.0305012167e-02,  2.1533477306e-01,  1.4667063951e-01, -1.3820649683e-01, -6.1382289976e-02,  6.9487117231e-02, -1.7202131450e-01,  1.5365135856e-02, -6.7316046916e-03, -1.6158767045e-01, 
	-2.9734544456e-02,  1.1904338002e-01, -1.2387083843e-03,  5.1679473370e-02,  9.7919687629e-02,  1.9411843270e-02, -2.7319971472e-02,  6.2192548066e-02, -4.1748271324e-03,  1.1070646346e-02, 
	 7.8019097447e-02, -2.4943599105e-01, -1.2373486906e-01, -1.1602336168e-01, -1.2583792210e-01, -3.5258598626e-02,  6.7676706240e-03, -1.4588724077e-01,  1.1005262285e-01, -5.5412016809e-02, 
	-9.5298908651e-02,  1.1649861932e-01, -3.2730933279e-02,  1.8889097497e-02, -7.5607307255e-02,  8.9484572411e-02, -1.4768902957e-01, -4.7052904963e-02,  6.4499340951e-02,  5.1537793130e-02, 
	-4.5903110877e-03,  1.0804329067e-01, -6.2686190009e-02, -3.0615417287e-02,  4.7096265480e-03, -2.3863861337e-02,  2.9880395159e-02, -1.6176322103e-01,  8.3373241127e-02, -5.7086117566e-02, 
	-1.3410581276e-02,  1.3442951441e-01,  8.3903456107e-03, -2.5654735044e-02,  1.3740698993e-01, -1.2843820453e-01, -1.6869224608e-01, -8.9155152440e-02, -1.9559964538e-01, -2.6698836684e-01, 
	-1.6706150770e-01, -6.1370495707e-02,  7.6403962448e-03, -1.6136732697e-01, -3.9788704365e-02, -1.3735099696e-02,  8.5395507514e-02, -1.1493267491e-02, -1.8160957098e-01,  4.9761803821e-03, 
	 3.5921318922e-03, -1.9190144539e-01,  1.6989093274e-02, -6.0547832400e-02, -3.9820738137e-02,  1.0913145542e-01,  1.6981735826e-01,  3.1436126679e-02, -7.7440142632e-02,  5.3993899375e-02, 
	-1.1625386775e-01,  4.1677192785e-03, -1.5131779015e-01, -1.9515837729e-01, -2.0725450013e-03,  1.7128859460e-01,  1.4718177915e-01, -3.1230766326e-02,  8.4931673482e-03,  1.9902030006e-02, 
	-3.8960479200e-02,  7.1359397843e-03,  5.3361378610e-02, -3.2405027747e-01, -4.9561187625e-01, -5.5532509089e-01, -1.6220198572e-01, -1.5841776133e-01, -1.3167496026e-01, -7.2376213968e-02, 
	-1.6744764522e-02, -1.0837499052e-01, -2.6103496552e-02, -1.3242506422e-02,  1.8037613481e-02,  5.2713934332e-02,  1.0988673568e-01,  5.7061053813e-02,  9.0616747737e-02,  9.6064724028e-02, 
	 7.5517870486e-02, -1.2682796456e-02, -1.2080149353e-01, -4.4392649084e-02,  1.5432481654e-02,  3.5845678300e-02, -1.4945622534e-02, -9.0878844261e-02,  5.4686009884e-02,  9.0954015031e-03, 
	-4.4599637389e-02, -6.1218112707e-02, -6.2870748341e-02,  5.9609785676e-02,  7.3878809810e-02,  5.7484218851e-03,  7.1343056858e-02,  4.1371054947e-02, -8.4960550070e-02, -1.1887378246e-01, 
	-1.2897239067e-02,  4.0004581213e-02, -1.5362706780e-01,  3.1017348170e-02,  1.6777002811e-01, -2.3804271221e-01, -4.8399079591e-02,  1.0045594722e-01, -2.2335284948e-01, -1.8804286420e-01, 
	-2.9850658774e-01, -1.6173256934e-01, -5.7426627725e-02, -2.8309902549e-01, -1.3100673258e-01, -8.1669807434e-02, -1.9259914756e-01, -1.8051404506e-02, -7.3534827679e-03,  1.4726538956e-01, 
	-9.5339260995e-02,  7.1372680366e-02,  7.7660214156e-03, -4.0550537407e-02,  5.0872046500e-02, -3.2095286995e-02,  1.2836426497e-01,  2.0036704838e-01, -2.7540156245e-01,  1.1736436188e-01, 
	 4.7463919967e-02, -1.2607610226e-01,  3.9398852736e-02,  8.7373293936e-02, -8.1577688456e-02, -1.4478691155e-03,  9.9441424012e-02,  8.0915734172e-02,  2.6395529509e-02,  6.4782075584e-02, 
	 4.2209565639e-02, -6.1671126634e-02, -8.9356504381e-02,  7.2572991252e-02,  1.3187745586e-02, -1.2274856120e-01,  1.5815758705e-01, -1.0122205131e-02, -7.7109873295e-02,  2.7305288240e-02, 
	-9.4632923603e-02, -1.8766744435e-01,  3.0241433531e-02, -2.6929914951e-01, -1.2081164122e-01,  2.3294728249e-02, -9.6320070326e-02,  7.8380227089e-02,  3.8397707045e-02,  2.2756923735e-01, 
	 7.1136124432e-02,  4.7278229147e-02, -3.9394948632e-02,  1.6536505520e-01,  1.7655873299e-01, -6.5043475479e-03, -3.0090194196e-02,  1.1567576230e-01, -2.6998028159e-01, -4.2225707322e-02, 
	 1.9920598716e-02, -1.1755221337e-01, -1.3543725014e-01, -1.4628656209e-01, -1.0561769456e-01,  1.9349046052e-02, -3.7154786289e-02,  6.1125375330e-02,  4.6264801174e-02,  1.1556247622e-01, 
	-3.5201631486e-02,  1.0961604118e-01, -1.8123283982e-02, -9.1009296477e-02,  2.6851724833e-02, -3.3347256482e-02, -8.7812859565e-03, -1.0701967776e-01, -5.0326701254e-02, -1.7284765840e-01, 
	 2.9282717034e-02,  2.9459446669e-02, -1.8135198951e-01, -6.6329516470e-02, -9.5215514302e-02, -5.2806980908e-02, -4.6282690018e-02, -2.5076815858e-02,  3.6549575627e-02,  8.0591656268e-02, 
	 2.3791693151e-02,  1.9478810951e-02,  6.5996147692e-02,  1.0909822583e-01,  1.7021711171e-01,  2.6260474697e-02,  9.5984742045e-02, -1.3847763836e-01,  4.3128293008e-02, -4.3233688921e-02, 
	-1.4526573010e-02,  6.9872580469e-02,  3.0213665217e-02, -7.8412294388e-02, -1.4656859450e-02,  2.3314949125e-02,  2.7062878013e-01,  3.7746933103e-01,  3.0438917875e-01,  2.0894932747e-01, 
	 4.2004859447e-01,  3.8296037912e-01,  2.8692612052e-01,  4.0221416950e-01,  4.6060568094e-01,  1.0065598041e-01,  1.1216119677e-01,  1.6681838036e-01,  7.6260089874e-02,  3.2649543136e-02, 
	-5.0182610750e-02,  1.7685668170e-01,  7.4757874012e-02, -1.6032819450e-01, -6.5589681268e-02, -9.5737732947e-02, -2.2038814425e-01, -9.5337577164e-02, -1.0238000005e-01, -9.6854120493e-02, 
	-2.1394845098e-02, -3.9698634297e-02, -1.2564919889e-01,  2.4251513183e-01,  3.2085484266e-01,  3.2996234298e-01,  1.5045018494e-01,  1.0460922122e-01,  9.9351637065e-02,  1.5074357390e-01, 
	 8.7554775178e-02,  8.8160060346e-02, -2.0806261897e-01, -7.7858172357e-02,  1.3891524076e-01, -1.4353121817e-01, -8.5758892819e-03,  1.3953290880e-01, -7.9971872270e-02, -4.2540334165e-02, 
	 1.2957230210e-01, -2.4850809947e-02, -7.4284955859e-02,  7.2712168097e-02,  7.8576460481e-02,  9.2086620629e-02,  1.3440898061e-01, -7.5351968408e-02,  1.9635768607e-02,  7.4705481529e-03, 
	-6.1962988228e-02, -3.2609801739e-02,  3.6631871015e-02, -1.0615111329e-02,  2.4221494794e-02, -7.4291028082e-02,  1.3270246983e-01,  1.1678122729e-01,  3.5140540451e-02,  1.1554446816e-01, 
	 1.3748492301e-01,  1.7541876435e-01,  1.4755164087e-01,  2.2133609653e-01,  3.5693871975e-01,  7.8545957804e-02,  9.1337263584e-02,  2.2191552818e-01,  4.7071658075e-02,  5.3630020469e-02, 
	 2.1736033261e-01,  2.0507363603e-02,  9.0756289661e-02,  2.6158413291e-01,  1.0677329451e-01,  2.9952479526e-02,  2.0932410657e-01,  8.1897219643e-03, -1.8412603065e-02,  9.5191225410e-02, 
	-2.1917973645e-03,  1.1588122696e-02,  7.7441029251e-02,  2.6261342689e-02,  2.6752624661e-02,  9.5135122538e-02,  4.3142151088e-02,  1.4873659611e-01,  2.2066842020e-01, -7.3189310730e-02, 
	-1.3151142001e-01,  2.0788837224e-02, -3.4637594223e-01, -1.8334127963e-01, -6.6109746695e-02,  8.0716863275e-02, -9.1588720679e-02,  2.6664903387e-02, -6.9588653743e-02, -3.2681159675e-02, 
	-3.5509981215e-02, -5.7578843087e-02, -8.3769336343e-02,  1.4681716450e-02,  2.0036922768e-02,  1.5750631690e-02,  2.1968074143e-01, -6.4114471897e-03, -1.0986217856e-01,  7.7645167708e-02, 
	-1.6159801185e-01, -1.1936603487e-01,  3.5767540336e-02,  2.1091414616e-02,  2.6703052223e-02,  8.9363738894e-02, -1.1345890909e-01, -8.4600158036e-02,  7.2082042694e-02, -6.3142009079e-02, 
	-3.1345065683e-02,  1.2370763719e-01, -8.5127249360e-02,  1.0556413978e-01,  9.7079388797e-02, -9.1426789761e-02,  9.6375450492e-02,  5.2401542664e-02, -1.3860119879e-01, -1.0705593228e-01, 
	-8.0883413553e-02, -6.0156989843e-02,  1.8852227926e-01,  2.4299202859e-01, -2.1706350148e-01, -2.5447789580e-02,  1.2981553376e-01, -1.2509194016e-01, -1.2856943905e-01,  1.8725016713e-01, 
	 9.5319598913e-03,  1.0843190551e-01,  2.3276495934e-01, -1.4069925249e-01, -1.7602369189e-03,  1.3361525536e-01, -6.6131241620e-02,  1.0287156329e-03,  8.0871358514e-02, -1.0763880610e-01, 
	 1.6172683239e-01,  2.0771989599e-02, -2.5208958983e-01, -5.6047957391e-02,  4.9600072205e-02, -2.0096096396e-01, -6.7656189203e-02,  1.4307022095e-01, -2.6255139709e-01, -9.5966808498e-02, 
	 5.0441467762e-01, -4.0931913257e-01, -2.2001726925e-01,  3.0876779556e-01, -1.5291956067e-01, -1.1075425148e-01,  9.4536021352e-02,  6.1456497759e-02,  2.8578713536e-02,  1.3420450687e-01, 
	-1.4043681324e-02,  2.6322605088e-02,  2.4891749024e-02,  3.0600707978e-02,  3.3496517688e-02,  7.2566188872e-02,  1.6891415417e-01,  1.3336108625e-01, -1.3824285567e-01, -2.8496315703e-02, 
	 5.2171931602e-03, -7.4062063359e-03, -1.0706344992e-01,  8.0609228462e-03,  2.0468860865e-02,  5.9934187680e-02, -4.9049638212e-02, -1.6781617701e-01,  3.7849921733e-02, -4.4656611979e-02, 
	-1.1452656984e-01,  8.3776362240e-02, -9.2466995120e-02, -1.4920048416e-01,  2.5792114437e-02,  3.6417629570e-02, -2.2555793822e-01,  9.5976129174e-02,  6.1953581870e-02,  5.5973816663e-02, 
	 1.0639162734e-02, -6.1920523643e-02,  2.5793662295e-02,  1.3039448857e-01,  1.5236943960e-01,  1.6957531869e-01,  5.9510726482e-02,  1.0816883296e-01,  1.2248107046e-01,  5.4704796523e-02, 
	-1.1254979298e-02,  7.4572429061e-02,  6.1572041363e-02,  1.0853534192e-01,  4.4323034585e-02, -2.2128841374e-03, -1.1892160401e-02,  1.5017938614e-01, -1.4608807862e-01, -1.9012631476e-01, 
	 8.7203331292e-02, -6.0121417046e-02, -1.9743892550e-01, -1.8638086319e-01, -8.0793671310e-02, -1.5472024679e-01, -1.0929315537e-01,  7.5097210705e-02,  2.7768971398e-02,  3.3774513751e-02, 
	 5.5697739124e-02,  6.9549210370e-02,  1.0587181151e-01, -7.7443413436e-02,  9.8206594586e-02, -4.6742781997e-02, -9.0957563370e-03,  7.8674286604e-02,  4.7931712121e-02,  8.6752831936e-02, 
	 1.2352769822e-01, -1.3158521056e-01,  7.7332921326e-02,  3.6640059203e-02, -1.8836852908e-01, -7.2828926146e-02,  4.9764919095e-03,  3.1552389264e-02,  4.0828965604e-02,  9.3442909420e-02, 
	 9.1392602772e-03, -1.6977433860e-01, -1.3176994026e-01, -1.1385920644e-01, -1.7565356195e-01, -2.3618434370e-01, -2.7611047029e-01, -6.4038135111e-02,  1.8676283956e-01,  7.4565425515e-02, 
	 5.5053770542e-02,  1.1177744716e-01,  1.7167160287e-02,  1.5761306509e-02,  3.9459947497e-02,  1.2478277832e-01,  7.9638715833e-03,  5.8010026813e-02,  3.1782761216e-02,  1.3259623200e-02, 
	 6.0639649630e-02, -3.0270872638e-02,  8.8788717985e-02, -1.0729112662e-02, -2.3749511689e-02,  4.6963572502e-02, -5.4026111960e-02, -2.1060022712e-01, -1.2704464793e-01, -2.3654465377e-01, 
	-2.6796412468e-01, -7.8025847673e-02, -3.0666735768e-01, -2.5154778361e-01, -5.3345926106e-02,  8.1622883677e-02, -1.2459117919e-01,  1.5642361715e-02,  6.1758801341e-02, -1.2921777368e-01, 
	-5.2629880607e-02, -5.9948667884e-02, -2.1838323772e-01,  6.2381267548e-02,  2.4834172800e-02,  4.8595841974e-02,  2.8405554593e-02,  8.6683906615e-02, -7.5037486851e-02, -3.5302199423e-02, 
	-6.4384989440e-02, -4.1717007756e-02,  2.5886702538e-01,  2.9626560211e-01,  3.6615937948e-01,  1.5436094999e-01,  1.9655555487e-01,  2.0193980634e-01,  9.1512292624e-02,  9.0080589056e-02, 
	 1.6000947356e-01,  9.3952476978e-02,  3.4929728508e-01,  3.0192646384e-01,  1.2789221108e-01,  1.2944820523e-01,  2.4985292554e-01,  1.7183539271e-01,  1.5656986833e-01,  1.4312012494e-01, 
	 1.0338331014e-01,  3.5213062167e-01,  2.2864000499e-01, -7.6965451241e-02,  5.8722365648e-02,  1.5061971545e-01, -2.7768772840e-01, -1.1654206365e-01, -1.5390707552e-01, -1.4108987153e-01, 
	 3.0347369611e-02, -6.1105997302e-03,  7.2784950025e-03, -4.1298616678e-02,  1.8285822589e-03, -7.0778317750e-02, -1.2023999356e-02, -1.4026042819e-01,  1.5333972871e-01,  8.9994952083e-02, 
	-1.4575703442e-01,  1.3202613592e-01,  1.0656277649e-02, -1.0841936618e-01,  4.2192853987e-02,  2.8694458306e-02, -1.6431370378e-01,  2.6164579391e-01,  2.8340563178e-01,  1.0515750945e-01, 
	 2.2669444978e-01,  1.0650508851e-01,  1.1559141427e-01,  2.2945293784e-01,  2.6655343175e-01,  3.4859007597e-01,  1.0971648991e-01,  9.1852329671e-02, -4.6521355398e-03,  3.7079376634e-03, 
	 1.6236066818e-01,  7.6287493110e-02,  4.9912523478e-02, -8.0824285746e-02, -2.6550361514e-01,  5.4027847946e-03, -6.6678479314e-02,  4.6496625990e-02, -3.7578307092e-02,  7.0369474590e-02, 
	 3.4705322236e-02, -4.4652722776e-02,  1.1083137244e-02,  5.1357345656e-03,  1.2816861272e-01,  1.5554520488e-01,  1.2706640363e-01, -2.1040914580e-02, -5.3991880268e-02,  9.8069183528e-02, 
	-4.8635918647e-03,  3.1774748117e-02, -2.5663217902e-01, -2.4321636558e-01, -2.4458287656e-01, -2.3444132507e-01, -1.8988898396e-01, -1.5400594473e-01, -2.2800017893e-01, -6.1068054289e-02, 
	-2.4093288183e-01, -4.7797384858e-01,  5.6728343479e-03, -9.6768848598e-02,  1.6574375331e-02,  1.7727635801e-02, -3.4037332982e-02, -2.5940695778e-02, -3.7342835218e-02, -6.4025998116e-02, 
	-1.5611179173e-01, -1.6863667965e-01, -1.9875153899e-01, -1.4997023344e-01,  3.8096074015e-02,  3.8022462279e-02, -6.2084183097e-02,  2.7756801248e-01,  1.8333625793e-01, -3.4720340371e-01, 
	 5.2019849420e-02, -7.2141632438e-02, -2.0097717643e-01, -1.7404729128e-01, -5.3543571383e-02, -6.5856091678e-02, -1.8224109709e-01, -5.9956144542e-02,  1.1888169497e-01,  1.6352713108e-02, 
	 1.5253515914e-02, -1.4399585128e-01, -1.6434569657e-01, -1.4629533887e-01, -4.1084136814e-02, -1.4704611897e-01, -1.3015280664e-01, -1.5801325440e-01, -5.5562075227e-02, -3.2822202891e-02, 
	 2.9533132911e-02,  1.8808813766e-02,  2.1750502288e-02,  3.7233274430e-02, -2.5838001166e-03,  1.2222260982e-01,  5.5615149438e-02,  6.3362255692e-02, -6.6270262003e-02, -9.4527490437e-02, 
	-2.0036861300e-01, -3.7874139845e-02, -1.1843102425e-01, -2.3412519693e-01, -2.2919416428e-01, -2.5522902608e-01,  3.5231238604e-01,  3.3746051788e-01,  1.1499273777e-01,  6.5072208643e-02, 
	 2.3988056928e-02, -1.1773888767e-01, -1.0456164926e-01, -1.2023910880e-01, -1.7115119100e-01,  4.1348557919e-02,  2.7102956548e-02,  2.0904559642e-02,  1.2744811364e-02,  6.9945544004e-02, 
	-1.1523877829e-01, -6.1776556075e-02, -4.5713055879e-02, -6.4584299922e-02,  1.7950834334e-01,  1.7310756445e-01,  8.9246205986e-02,  1.0542263091e-01,  9.4984963536e-02,  1.0716079921e-01, 
	 3.8375195116e-02, -2.2361794487e-02, -1.2331332266e-01,  1.5494963527e-01,  1.7683085799e-01, -4.3842989951e-02,  7.7335163951e-03, -1.8254766474e-03, -1.6280662268e-02, -2.3646181449e-02, 
	 4.6371676028e-02,  1.2720744126e-02, -2.0190164447e-02, -1.0498441756e-01,  1.6425937647e-03, -6.0212559998e-02, -7.5105354190e-02, -1.0992627591e-02, -1.5854543075e-02, -7.4494503438e-02, 
	 5.9772927314e-02, -1.5549288690e-01, -1.3795061409e-01,  3.4843612462e-02, -6.4910285175e-02,  7.7422514558e-02,  6.3625521958e-02,  1.3932203874e-02,  1.9755247235e-01,  1.8356098235e-01, 
	-3.4506013989e-01, -1.6364330053e-01, -1.3845454156e-01, -3.5175630450e-01, -2.7448362112e-01, -7.6508946717e-02, -3.8044068217e-01, -1.7199122906e-01,  1.2672967277e-02, -3.7273910642e-01, 
	-1.7666165531e-01, -1.1945959181e-01, -5.8724030852e-02, -1.2824295461e-01, -9.1771464795e-03,  3.0534151942e-02,  1.3232910633e-01,  3.5600282252e-02,  7.2847947478e-02, -2.9977453873e-02, 
	-8.0241542310e-03, -3.1598445028e-02, -9.4159014523e-02, -7.4427492917e-02,  7.9180717468e-02,  1.1634597927e-01,  8.5344128311e-02,  9.3472627923e-03, -7.0075236261e-02,  2.8533499688e-02, 
	 1.6641874611e-01,  1.5423077345e-01,  7.5579509139e-02,  1.5964917839e-01,  1.5439265966e-01,  1.8394383788e-01,  1.2039372325e-01, -2.8079989552e-01, -5.2045100927e-01,  2.9023933411e-01, 
	-1.0835544765e-01, -6.4986997843e-01,  2.3483775556e-01, -8.2518262789e-03, -1.1496257782e-01, -1.0910234600e-01, -2.0188836753e-01,  7.7203802764e-02,  6.3359265914e-04, -1.3617825508e-01, 
	-1.5691247582e-01,  1.1356320977e-01,  1.2723965943e-01, -5.4906699806e-02, -2.1482968330e-01, -7.4499391019e-02,  1.5296158195e-01,  1.1536074802e-02, -2.0835746080e-02,  1.3657535613e-01, 
	-5.8248262852e-02,  5.3541094065e-02, -8.3356812596e-02, -3.4393349290e-01, -4.2425259948e-01,  1.6235662997e-01, -2.1075154841e-01, -2.2648106515e-01,  1.6237376630e-01, -2.3635230958e-01, 
	-5.6166641414e-02,  2.4536326528e-01,  1.9894887507e-01,  1.0507370532e-01, -5.4445013404e-02,  4.4887103140e-02, -5.1049552858e-03,  1.5838401392e-02, -7.5877853669e-03,  3.6901600659e-02, 
	 1.0579452664e-01, -1.0446085781e-01, -2.7360898256e-01,  7.1383692324e-02, -2.3147208989e-01, -2.8784057498e-01, -1.7448739707e-01, -1.1302340031e-01, -2.2985789180e-01, -2.4673312902e-01, 
	 1.0123033077e-01,  6.5021201968e-02, -2.1479287744e-01,  1.6982231289e-02,  5.4401820526e-03, -2.2031526268e-01, -1.1936432123e-01, -6.5800316632e-02, -2.3500615358e-01,  5.7656098157e-02, 
	-1.1523529142e-01,  5.2668738365e-01, -3.0214959756e-02, -6.3575997949e-02,  3.4478482604e-01,  2.2720091045e-01,  2.7424287796e-01,  3.7226760387e-01, -8.3479145542e-03,  6.6303156316e-02, 
	-1.7639333382e-02, -7.0042036474e-02,  4.8993229866e-02, -7.0005118847e-02,  3.8824670017e-02,  6.7646391690e-02, -4.3915785849e-02, -2.4042898417e-01, -1.0725483298e-01,  9.1056853533e-02, 
	-2.0813813433e-02, -8.1145167351e-02, -5.2108339965e-02,  8.9772798121e-02,  1.0984265804e-01, -1.1619777977e-01, -4.1402377188e-02, -1.3681957126e-01, -1.3655938208e-01, -1.1330142617e-02, 
	 2.9313927516e-02, -1.7498728633e-01,  9.8945051432e-02, -7.5453437865e-02, -1.0447158664e-01,  1.2444560230e-01, -1.4436375350e-02,  5.7869303972e-02,  2.0845070481e-01,  2.1871820092e-01, 
	 1.5915706754e-01,  2.3033609986e-01,  6.7154712975e-02,  1.1451785266e-01,  1.3732054830e-01,  1.7214730382e-01,  7.6144672930e-02,  1.4303077757e-01,  1.1098664999e-01,  1.3544458151e-01, 
	 1.2467733026e-01,  1.4599220455e-01,  7.3063649237e-02, -6.7629650235e-02,  2.5375680998e-02,  1.1466236413e-01, -1.0775437206e-01,  4.1480895132e-02,  8.4816530347e-02, -2.3613446951e-01, 
	-5.3010679781e-02,  7.2587907314e-02, -4.9241852015e-02,  6.0361571610e-02,  3.0864128470e-01,  3.6767940968e-02,  2.4916027486e-01,  2.7296259999e-01, -1.5859222412e-01, -4.2163301259e-02, 
	 1.4218287170e-01,  3.2504323870e-02,  1.5090420842e-01,  1.3801170886e-01,  2.7996128425e-02,  4.0071222931e-02,  1.1307127774e-01, -4.7578271478e-02,  1.4240551740e-02,  1.0701984912e-01, 
	 2.2916458547e-02,  8.5345856845e-02, -1.0774677619e-02,  3.1303774565e-02,  5.6671004742e-02, -7.9767473042e-02,  5.0175795332e-03, -6.2949312851e-03,  3.2760068774e-02, -1.7262463272e-01, 
	-8.7749980390e-02,  1.6949206591e-01, -1.5928027034e-01,  1.9281521440e-02,  1.7452615499e-01, -2.0524284244e-01, -2.3885229230e-01,  9.9685275927e-03,  5.7524652220e-03,  1.0837123543e-01, 
	-1.0462319106e-01,  1.9747612998e-02,  3.5522814840e-02, -1.5082062222e-02,  1.4347041957e-02, -1.2587215006e-01, -4.0884576738e-03, -6.6057190299e-02, -1.7741185427e-01, -1.5773408115e-02, 
	-3.0162136536e-03, -1.0222068429e-01,  4.9789682031e-02,  7.2137312964e-03,  7.9934500158e-02,  8.9313663542e-02,  1.6133084893e-01, -5.8210905641e-02,  1.0937102139e-01,  2.1645292640e-01, 
	 1.2380789965e-01, -5.5583719164e-02,  2.2256840765e-01, -5.8283656836e-03, -2.6306638122e-01,  4.3494842947e-02,  1.4345337451e-01,  2.7303776145e-01,  2.5566814467e-02,  1.6484218836e-01, 
	 1.8796961010e-01,  4.7856032848e-02,  1.3345779479e-01,  3.3504879475e-01,  8.5350573063e-03, -1.4169133501e-03,  1.8704149127e-01, -7.4410729110e-02, -5.7148169726e-03,  1.1653480679e-01, 
	-4.5493412763e-02, -3.4942403436e-02,  5.9529016726e-03,  5.3251474164e-03,  3.8377966266e-03,  8.6402660236e-03,  3.5086348653e-02,  6.1436733231e-03,  1.3529220223e-01,  3.0497845262e-02, 
	-1.1092873290e-02,  2.1678220481e-02, -6.3972748816e-02, -1.2351674587e-01, -3.6644339561e-02, -1.8362933397e-01,  5.3965770639e-03, -9.6868695691e-03, -6.3765525818e-02, -7.0610463619e-02, 
	 8.1213995814e-02, -2.3040920496e-01, -4.6774929762e-01, -1.9778469205e-01,  1.0581925511e-02, -3.1055384874e-01, -1.0541695356e-01,  1.1148717999e-01,  8.9596491307e-03,  1.5014652163e-02, 
	-1.3642689586e-01, -1.2875136733e-01,  2.9787750915e-02,  7.3128975928e-03, -1.4139170945e-01, -2.7703743428e-02,  5.4211650044e-02, -7.4984736741e-02,  2.5181670208e-03, -1.1918994039e-01, 
	-1.7370966077e-01, -1.1013779789e-01, -1.2089072168e-01, -8.4867566824e-02, -2.0332014561e-01, -2.0160922408e-01, -1.9958807528e-01, -3.3772829175e-01, -4.3282628059e-01,  7.8725314233e-04, 
	 4.2890012264e-02, -1.5616819263e-01,  1.9051536918e-02,  1.8075600266e-01, -1.4784306288e-01,  1.7787276208e-01,  1.6652068496e-01,  1.4352305233e-01, -7.4803377502e-03,  2.2941954434e-02, 
	-1.4503693581e-01,  2.8555098921e-02, -3.0345961452e-02,  3.5712633282e-02,  7.7333062887e-02, -6.8028248847e-02, -7.7290400863e-02,  9.3801416457e-02,  7.2595849633e-03, -4.2953103781e-02, 
	 7.1598961949e-02, -1.4005789161e-01,  1.4675760269e-01, -1.9567932934e-02, -1.9712133706e-01, -1.5102164447e-01, -1.6189064085e-01, -1.9897317886e-01, -1.7333301902e-01, -3.3343142271e-01, 
	-3.1140738726e-01, -2.1461680532e-01, -1.5885671973e-01, -8.0943822861e-02, -2.2427065670e-01, -9.4924584031e-02, -1.3983852230e-02, -4.3042957783e-01, -3.9269039035e-01, -3.0946139246e-02, 
	-3.1216892600e-01, -4.0749311447e-01, -1.2298393250e-01,  1.2632500380e-02,  3.3266313374e-02,  4.5489106327e-02, -5.0176952034e-02,  1.0194686055e-01,  1.3142605126e-01,  9.4440029934e-03, 
	-5.2107773721e-02,  1.1343530379e-02,  1.7256647348e-02,  9.4181418419e-02,  2.5430026650e-01,  8.3032995462e-03,  7.0473752916e-02,  1.8401187658e-01, -1.0694219917e-01,  7.5541861355e-02, 
	 1.0537564754e-01, -1.8695230782e-01, -3.4269297123e-01, -3.2602488995e-01,  2.9539179057e-02, -2.0562241971e-01, -1.6057066619e-01,  1.5186284669e-02,  3.9674729109e-02,  1.3482016325e-01, 
	 4.5142930001e-02,  8.9348942041e-02,  3.0841398984e-02,  8.9112609625e-02,  7.0094898343e-02,  2.3362923414e-02,  1.3586081564e-01,  6.3329093158e-02,  2.0357171074e-02,  1.9444812834e-01, 
	-1.6947382828e-03, -1.9645535946e-01,  2.9014374595e-03,  3.4318227321e-02, -1.9436758012e-02, -1.4199247956e-01,  3.3051069826e-02,  4.6829912812e-02, -3.7229692936e-01, -3.1005075574e-01, 
	-2.5284358859e-01, -2.7312785387e-01, -2.8271543980e-01, -2.9818600416e-01, -2.9792168736e-01, -1.7963823676e-01, -1.8996490538e-01, -1.1138890684e-01, -1.5917606652e-03,  1.4158342779e-01, 
	 4.3476026505e-02,  5.2547942847e-02,  5.5328611284e-02, -8.5645459592e-02,  5.3849760443e-02,  8.3490267396e-02,  3.5735130310e-02, -2.6024891064e-02,  3.7400327623e-02, -8.2575976849e-03, 
	 2.0733032376e-02,  8.4538362920e-02, -8.1611603498e-02, -3.6450788379e-02, -4.2228598148e-02,  2.5363051891e-01,  3.1732857227e-01,  1.9232684374e-01,  8.8959589601e-02,  2.2799764574e-01, 
	 1.7187088728e-01,  1.9049999118e-01,  1.4198820293e-01,  1.4437107369e-02, -3.2087862492e-01, -5.5567103624e-01, -6.9241058826e-01, -1.4526526630e-01, -2.1578764915e-01, -4.1653215885e-01, 
	 9.5440652221e-03,  4.3333142996e-02, -1.6675251722e-01, -7.2524226271e-03,  5.5120274425e-02,  5.1218573004e-02,  7.7676050365e-02,  3.4627437592e-02, -6.2961228192e-02,  3.2140683383e-02, 
	 8.4609366953e-02, -7.2672821581e-02,  6.4625263214e-02,  6.3920542598e-02,  1.0276272893e-01, -7.6560955495e-04,  6.2535135075e-03, -1.3725405559e-02, -7.4252277613e-02, -1.4204320312e-01, 
	-4.0552183986e-02, -2.6868864894e-01, -1.3808912039e-01,  6.8370200694e-02, -1.2813352048e-01,  2.4718891829e-02,  5.5515557528e-02,  3.5667624325e-02,  1.2570136786e-01,  1.9533723593e-01, 
	-1.6778694093e-01, -7.9934289679e-03,  1.2119348347e-01, -1.5613050759e-01,  2.6014812291e-02,  7.1268226020e-03, -1.2255942076e-01, -1.4540268481e-01, -2.2661747038e-01,  1.4274367690e-01, 
	 6.6472932696e-02, -1.1000797898e-01,  2.5428159162e-02, -3.9086606354e-02, -6.7729078233e-02,  1.2545470893e-01, -2.5482846424e-02,  6.5977923572e-02,  3.6717459559e-02, -1.1330160499e-01, 
	-2.8001132607e-01, -9.0610019863e-02, -6.2741406262e-02, -5.1579117775e-01, -4.0995371342e-01, -4.1494302452e-02, -1.7419536412e-01,  1.2113597989e-01,  2.2093395889e-01,  2.2351564467e-01, 
	 4.9248196185e-02,  1.6738592088e-01,  1.3044513762e-01, -1.7693446577e-01, -9.4033954665e-03, -5.5585522205e-02,  8.7171830237e-03,  9.4241067767e-02,  5.2862796932e-02, -1.9353371114e-02, 
	 3.8978081197e-02,  8.9506357908e-03, -1.2136309594e-01, -1.3154754043e-01, -4.3702658266e-02,  3.4814871848e-02, -1.2328448147e-01, -1.1553028226e-01,  7.3324710131e-02,  1.8240546808e-02, 
	 1.0257066786e-01,  6.8339191377e-02,  2.2649798542e-02,  4.7122975811e-03,  1.9196653366e-01,  3.2562592626e-01,  3.5425350070e-01, -1.8197932839e-01, -1.2296101451e-01, -9.0236864984e-02, 
	-2.3354016244e-01, -2.7073165774e-01, -3.9034250379e-01,  3.1296558678e-02,  3.1554225087e-01,  3.1572297215e-01, -8.3062574267e-02, -2.5658190250e-02, -1.6245780885e-01,  2.1460659336e-03, 
	-2.3473691940e-01, -4.0285125375e-01,  8.7018929422e-02,  2.3852518201e-01,  2.0174819231e-01,  6.0295108706e-02, -7.8220749274e-03,  3.7740606815e-02,  3.4010138363e-02, -6.6132936627e-04, 
	-1.0540383309e-01, -1.9458229840e-01, -2.2584526241e-01, -7.6080255210e-02, -4.5246653259e-02, -6.3671514392e-02,  3.4688930027e-03, -1.6254472733e-01, -6.7445397377e-02, -3.0336095020e-02, 
	-2.8550043702e-01,  1.7703174055e-01,  2.1984666586e-01, -4.0251976252e-01, -2.7653983235e-01, -1.8308250606e-01, -3.4467670321e-01, -2.4730870128e-01, -2.2019159794e-01,  4.1759964079e-02, 
	-1.0951491445e-01, -2.5342863053e-02, -4.7504570335e-02, -1.3433036394e-02, -9.2204570770e-02,  1.3685002923e-02, -1.5449567139e-01, -2.6720546186e-02, -1.4997781813e-01,  6.2974922359e-02, 
	 1.5896815062e-01, -1.1542944610e-01,  1.8946555210e-03, -4.9437403679e-02, -8.4536448121e-03,  3.0696583912e-02, -1.0812719911e-01,  7.4644796550e-02,  1.1622605473e-01,  7.3523491621e-02, 
	 2.5326564908e-02,  5.1194492728e-02,  1.0266856104e-01, -1.2040250003e-02,  6.0770086944e-02,  2.0495489240e-01,  8.8134698570e-02, -8.8524021208e-02, -2.5060951710e-01,  1.1461733840e-02, 
	-4.7782827169e-02, -1.1708195508e-01,  8.3101101220e-02, -7.3261938989e-02,  5.8419831097e-02,  1.3789631426e-01,  1.8459141254e-01,  2.3350484669e-01,  1.9073283672e-01,  9.1621711850e-02, 
	 8.5273437202e-02,  8.1422686577e-02,  1.7813665792e-02,  8.9918822050e-03,  6.9703392684e-02, -2.5971801952e-02,  1.0729166120e-01, -7.1866974235e-02, -2.2174935788e-02,  4.5849647373e-02, 
	 3.8894296158e-03, -1.8921950832e-02, -5.5172238499e-02,  1.9093607552e-03,  7.1295179427e-02, -4.2062263936e-02,  9.5065139234e-02, -2.6705965400e-02, -4.9644913524e-02, -4.3873172253e-03, 
	-1.0911510140e-01, -1.5391632915e-01, -7.0528231561e-02, -1.2520369142e-02, -8.1179574132e-02,  9.2857189476e-02, -3.9708684199e-03, -5.7366315275e-02,  1.2102003396e-01,  8.9296862483e-02, 
	 2.1377891302e-02, -1.7504749820e-02,  8.0808542669e-02, -3.3458553255e-02,  6.0210965574e-02, -3.8975242525e-02, -6.5334133804e-02, -1.7944611609e-02,  1.4815347269e-02,  1.1383132078e-02, 
	 6.4396753907e-02, -6.1313468963e-02, -7.3076002300e-02,  1.1626972258e-01,  1.6869867221e-02,  3.8158912212e-02,  1.3261911273e-01,  5.2952181548e-02,  4.0705356747e-02,  6.7527256906e-02, 
	 2.8338842094e-02,  6.1070702970e-02,  3.5881575197e-02, -4.0102098137e-02, -7.3258318007e-02,  4.2062498629e-02, -2.8110709041e-02,  6.2217172235e-02, -2.3822127283e-01, -4.1759091616e-01, 
	-3.0327972770e-01, -9.0786762536e-02, -2.6528450847e-01, -1.8331721425e-01,  8.7055610493e-03,  3.5692222416e-02, -1.4885115623e-01, -2.0480090380e-01, -1.0479113460e-01,  4.1979499161e-02, 
	-1.6340002418e-01, -4.2742285877e-03,  6.5384149551e-02, -4.2926456779e-02,  9.6953019500e-02,  2.3205326870e-02, -2.2591039538e-02, -1.1114108562e-01,  8.1649376079e-03,  2.1737752855e-01, 
	-5.3895775229e-02, -2.3309977725e-02, -6.8533480167e-02, -8.9373625815e-02, -6.3000820577e-02,  2.1797666326e-02,  5.0369262695e-02,  7.2026453912e-02,  1.5466897748e-02, -2.9780788347e-02, 
	 4.0172211826e-02, -1.2281932682e-01, -1.6183626652e-01, -1.8234093487e-01, -4.4566178694e-03, -9.7717665136e-02, -8.5309013724e-02,  6.0142446309e-02, -4.9619574100e-02, -7.4201026000e-03, 
	 5.9740543365e-02, -4.7542378306e-02, -5.6612499058e-02,  7.5424723327e-02,  1.2086422741e-01,  2.5591930747e-01, -1.6640793532e-02,  1.1458122730e-01,  3.2869126648e-02, -7.5984045863e-02, 
	-1.6244354844e-01, -4.5083561540e-01,  3.9637375623e-02,  9.1692417860e-02,  2.4246783927e-02,  1.2751692533e-01,  8.2062363625e-02, -5.3763289005e-02,  1.4725260437e-01,  7.0128582418e-02, 
	-1.4218287170e-01,  1.3810969889e-02,  5.3674448282e-02,  8.4529735148e-02, -8.4350951016e-02, -2.0648120344e-01, -4.3852210045e-02, -2.8316122293e-01, -1.9125239551e-01, -1.6698972881e-01, 
	 4.1010478139e-01,  3.0739974976e-01,  3.0891188979e-01,  2.6344773173e-01,  1.6973038018e-01,  2.5503161550e-01,  1.0229136050e-01,  1.0565556586e-01, -1.4676000178e-01, -4.2657166719e-02, 
	-2.9083142057e-02,  1.0106691718e-01, -9.5965728164e-02,  1.1707049608e-01,  1.6843150556e-01, -6.8326406181e-02,  8.5537014529e-03, -1.4259344339e-01,  4.7359582037e-02, -8.2087032497e-02, 
	-3.5003203899e-02, -8.6027897894e-02,  7.6565824449e-02,  2.4469137192e-02, -3.3342499286e-02,  5.5495426059e-02,  3.4913107753e-02,  8.8896028697e-02, -6.3358894549e-03,  5.8871541172e-02, 
	 7.0135742426e-02, -4.1976194829e-02,  8.2472354174e-02,  1.0472573340e-01,  1.3309286535e-01,  1.1643793434e-01, -1.8165805936e-01, -3.1399509311e-01, -3.1763461232e-01, -2.7479198575e-01, 
	-3.9213621616e-01, -3.8235014677e-01, -1.7160499096e-01, -1.7878822982e-01, -3.0610674620e-01,  1.7793215811e-01,  1.6999237239e-01,  1.2870714068e-01,  2.9570445418e-02, -4.4451113790e-02, 
	 8.0100093037e-03, -1.4189922810e-01, -1.0106243938e-01, -3.4024674445e-02,  4.6750552952e-02,  1.5499640256e-02,  1.7403721809e-02,  2.6239432395e-02, -6.3255906105e-02, -6.0710627586e-03, 
	-1.2471041828e-01, -1.1628340185e-01,  1.5199945308e-02,  2.8422968462e-03,  2.8066774830e-02, -2.3535117507e-02, -4.0542438626e-02,  1.8928161263e-01,  1.1931234971e-02,  2.9094416648e-02, 
	 5.4864060134e-02, -7.4771950021e-03,  5.2605558187e-02, -2.4129256606e-02, -1.7933760583e-01,  1.6428908706e-01, -6.6824220121e-02, -9.8691597581e-02,  1.1244608462e-01,  8.4458194673e-02, 
	-9.1562755406e-02, -3.3894009888e-02, -5.0700724125e-02, -1.0112787597e-02, -1.6892725602e-02, -1.8842581660e-02,  1.7961902777e-03, -7.0024155080e-02, -2.4439664558e-03,  1.3845089823e-02, 
	 7.0801220834e-02, -2.7053637430e-02, -5.9089284390e-02,  5.5560983717e-02, -2.9186507687e-02, -9.7055695951e-02,  5.7223070413e-02,  8.9836291969e-02, -1.6707229614e-01, -2.1626284719e-01, 
	-1.0545953363e-01,  8.9260395616e-03, -2.4812954664e-01, -1.3382992148e-01, -8.1809148192e-02, -1.3108974695e-01, -2.1707166731e-01, -2.0429901779e-01,  8.9541487396e-02,  1.9345590845e-02, 
	-6.3538730145e-02, -4.7784723341e-02, -1.9185086712e-02, -5.4127547890e-02,  6.9044291973e-02,  4.0984697640e-02,  1.4678214490e-01, -4.2410209775e-02,  1.3228282332e-01,  1.7105439305e-01, 
	-1.3028957183e-03, -4.1893333197e-02, -1.4379233122e-02, -8.8396400213e-02, -2.1291563287e-02,  6.7532867193e-02, -1.4114712179e-01, -5.0610795617e-02,  1.0184076428e-01, -2.0371456444e-01, 
	-7.0691458881e-02,  5.1966428757e-02, -1.6585545242e-01, -2.7624365687e-01, -2.3868596554e-01, -2.5576215982e-01, -9.0141549706e-02,  7.7717751265e-02, -1.7437259853e-01,  7.1249366738e-03, 
	 1.0580832139e-02, -1.4042408764e-01, -6.5882667899e-02, -3.2655298710e-02, -7.0895716548e-02, -1.9893269241e-01, -5.8237172663e-02,  3.9083067328e-02, -2.2282835841e-01, -1.8075747415e-02, 
	 1.0957033373e-02, -1.9445268437e-02,  1.1751537770e-01,  4.4192951173e-02, -2.0763643086e-01,  5.9510130435e-02, -9.1863133013e-02, -1.2613908947e-01,  2.1566017531e-03,  4.7829430550e-03, 
	-3.2270893455e-02, -3.3190511167e-02,  9.6491396427e-02, -8.5265874863e-02,  4.4736936688e-02, -3.8019407541e-02, -5.1859989762e-02,  1.3207322359e-01, -1.7897240818e-02, -8.6389735341e-02, 
	 1.1236978322e-01, -7.4113562703e-02, -2.6614147425e-01, -1.8924596906e-01, -6.4260102808e-02, -2.1758107841e-01, -3.1803909689e-02,  1.0030463338e-01,  1.4704035223e-01,  1.9421872497e-01, 
	-3.0496366322e-02, -2.4427935481e-01,  4.3518122286e-02, -8.4092333913e-02, -2.2012014687e-01,  1.1900786310e-01,  2.1398756653e-02,  4.6797513962e-02,  2.8428235650e-01, -1.2878197432e-01, 
	-4.5908129215e-01,  2.0531867445e-01, -1.4159165323e-01, -5.5297416449e-01, -1.8456585705e-01,  2.0185999572e-01, -1.1562859267e-01, -2.7453753352e-01,  1.7621900141e-01, -1.7568523064e-02, 
	 3.1116470695e-01,  8.9980281889e-02, -1.2148101814e-03,  2.4325107038e-01, -3.1908261776e-01, -2.0323370397e-01,  4.1147962213e-02, -6.8133041263e-02, -1.0190057755e-01, -8.9074246585e-02, 
	-9.3250147998e-02, -1.0067783296e-01,  5.0306811929e-02, -8.1336550415e-02, -7.2820894420e-02, -6.5297551453e-02,  1.3026454486e-02, -7.9520896077e-02, -4.6422190964e-02, -4.0251232684e-02, 
	 1.7652449012e-01, -4.5241329819e-02,  7.3089055717e-02,  2.8288220987e-02, -2.0470933616e-01,  1.1356615275e-01, -6.7882694304e-02,  1.3009755313e-01,  1.8886536360e-01,  1.8451578915e-01, 
	 2.9313391447e-01,  2.4116818607e-01,  2.3423923552e-01,  2.5305426121e-01,  6.8935402669e-03, -3.9400033653e-02,  1.0198067874e-01, -6.0487657785e-02, -6.7955546081e-02,  1.3894701004e-01, 
	-5.5061854422e-02, -9.6299335361e-02, -3.3920589834e-02, -9.9082835019e-02, -2.8206056356e-01, -1.6632992029e-01,  7.9026192427e-02, -5.8089261875e-03, -7.4834920466e-02,  2.2078067064e-01, 
	 1.3962154090e-01,  2.8107578401e-03,  5.3223684430e-02,  2.7362158522e-02, -2.6355408132e-02, -6.3342183828e-02, -6.7933641374e-02,  5.8575697243e-02, -3.1389068812e-02,  1.7411106825e-01, 
	 2.8368198872e-01,  1.6001429409e-02, -1.6068796813e-01, -1.2016586214e-01, -2.0861372352e-02, -1.8557874486e-02, -4.5150839724e-03,  9.0647637844e-02, -3.3289615065e-02,  1.6666382551e-01, 
	 1.2190944701e-01,  8.1807613373e-02, -3.2284136862e-02,  1.8641848117e-02,  1.1806636117e-02,  1.1644077301e-01,  3.4371804446e-02,  1.4283002913e-01,  1.6648834571e-02, -5.2918665111e-02, 
	 6.6382542253e-02, -7.2289966047e-02,  8.0597698689e-02,  2.9740989208e-02, -9.8207287490e-02, -1.2578816153e-02, -2.3974396754e-03,  3.6488909274e-02, -1.4287148416e-01, -1.0759212077e-01, 
	-1.7104028165e-01, -1.0542297363e-01, -6.4868882298e-02, -7.3193274438e-02, -4.8337098211e-02, -1.3557168841e-01, -1.3487888873e-01,  2.4111260474e-01, -2.0243469626e-02, -3.3339788206e-03, 
	 1.8794102967e-01,  1.0782108456e-01, -4.4430699199e-02,  6.7419312894e-02, -2.0190380514e-02, -1.5371698886e-02,  9.9439762533e-02,  1.5972681344e-01,  1.2282504886e-01,  1.6529276967e-01, 
	 1.8176515400e-01,  1.5502536297e-01,  8.6197823286e-02,  1.5281055868e-01,  1.5608835220e-01, -5.3529870510e-01, -6.7173916101e-01, -8.2549297810e-01, -3.4209865332e-01, -1.2595824897e-01, 
	-1.2404666282e-02, -3.3585762978e-01, -1.1827321351e-01,  3.1015321612e-01, -8.9360833168e-02, -3.7245959044e-01, -3.8065826893e-01, -8.8795572519e-02, -3.0828776956e-01, -4.0389597416e-01, 
	-1.6694112122e-01, -3.0392751098e-01, -2.6242759824e-01,  1.9995551556e-02,  6.2775276601e-02,  1.5695488453e-01, -5.6055348366e-02, -7.1440316737e-02, -6.9503143430e-02,  5.3482715040e-02, 
	-1.4561109245e-01,  9.1884098947e-03, -1.6292905807e-01, -2.0882781595e-02,  4.9887098372e-02,  4.0779374540e-02,  8.4065243602e-02,  2.1581497043e-02, -5.4153846577e-03, -3.3404554706e-03, 
	 1.9743308425e-02, -7.8295014799e-02,  8.0777451396e-02,  6.1402697116e-02, -4.7888020054e-03,  6.7179232836e-02,  1.3634675741e-01,  1.4115370810e-02, -6.2102671713e-02,  7.8153401613e-02, 
	-3.6062505096e-02, -5.3323894739e-02, -1.2318608165e-01,  6.2757380307e-02,  6.6797122359e-02, -1.2773360312e-01, -8.2652755082e-02, -2.0369201899e-01, -2.5354483724e-01,  3.6013640463e-02, 
	 1.1161020398e-01,  7.7468693256e-02,  7.7792130411e-02,  2.3041553795e-03,  6.7058578134e-02, -6.5911404788e-02, -1.5045158565e-01,  9.2818811536e-02, -6.2927752733e-02, -1.7811605334e-01, 
	-4.5636427402e-01,  3.0900917482e-03, -5.2146431059e-02, -1.5969376266e-01,  3.1492348760e-02, -3.8042694330e-02, -1.7610147595e-01,  4.5088350773e-02,  7.0435106754e-02,  3.1856212765e-02, 
	 1.2244462222e-01,  1.4026673138e-01,  8.4388561547e-02, -3.4208290279e-02, -1.9952716306e-02,  9.6093855798e-02,  2.8783284128e-02, -1.4878109796e-03, -3.4558810294e-02,  8.9205369353e-02, 
	 5.1440317184e-02,  1.4071950316e-01,  1.3273996115e-01,  1.5228447318e-01,  1.2984177470e-01, -7.5777985156e-02,  7.1489267051e-02, -1.8631212413e-01,  1.7714202404e-02,  6.5042346716e-02, 
	 1.2900918722e-01, -8.9936167002e-02,  5.8438472450e-02,  5.5349636823e-02,  1.1779437773e-02, -1.5641807020e-01,  4.0488648415e-01,  3.3724047244e-02, -3.4487903118e-02,  2.5341820717e-01, 
	-1.2059052289e-01, -1.2131226249e-02,  3.2344478369e-01,  2.0631656051e-01, -1.8518744409e-01, -7.2966188192e-01,  9.3132428825e-02, -1.6246676445e-01, -3.9170536399e-01,  1.6535295546e-01, 
	-5.8737788349e-03,  1.1436171085e-01, -1.1189783365e-01, -7.8218027949e-02,  1.6081927717e-01, -1.6111335158e-01,  5.4881381802e-03,  1.2552689016e-01, -1.7805485427e-01, -4.8970997334e-02, 
	 4.9775473773e-02, -1.1563833058e-01, -9.0040870011e-02,  2.6261267066e-01, -1.0312856734e-01, -1.9121789932e-01, -2.1377356723e-02, -2.8914570808e-01, -2.3171015084e-01, -1.7159579694e-01, 
	-2.6457166672e-01, -1.0705543309e-01, -5.9202250093e-02, -3.3194833994e-01, -1.8064683676e-01, -6.5735086799e-02, -3.1427270174e-01, -2.3321560025e-01, -6.4269967377e-02,  4.7761257738e-02, 
	-3.0386520550e-02,  4.8017028719e-02,  7.2378300130e-02,  6.0790542513e-02,  2.6666929945e-02,  1.3459923863e-01,  4.2483806610e-02,  7.0080704987e-02,  1.2353165448e-01, -1.8924067263e-03, 
	-1.6080446541e-02, -3.4865073860e-02, -6.6644869745e-02, -1.4036649466e-01, -8.7594665587e-02,  6.5667279065e-02,  2.3137353361e-02, -2.1240771748e-03, -1.4692711644e-02,  9.7845189273e-02, 
	-4.7330096364e-02,  9.3652248383e-02,  1.3876149431e-02,  1.2806566060e-01, -9.4930313528e-02, -1.8348896503e-01,  5.7511311024e-03,  6.5462537110e-02,  4.9612719566e-02,  1.8049966544e-02, 
	 1.3748952746e-01,  4.7865658998e-03,  1.7991913855e-01,  1.0530986637e-01, -4.3712504208e-02,  2.9966171831e-02, -1.7636837438e-02,  4.0562056005e-02, -6.9501727819e-02,  1.3300557435e-01, 
	 7.4863314629e-02,  1.2977172434e-01,  1.5703287721e-01,  1.8936523795e-01, -1.2435983866e-01, -1.0984274000e-01, -3.1179043651e-01, -7.6257355511e-02, -1.1906100065e-01, -2.1052537858e-01, 
	 5.4554343224e-02, -1.5576826036e-01, -8.0532468855e-02, -9.4253554940e-02,  1.1554799043e-02,  1.5693502128e-01, -8.6755409837e-02,  1.3301898539e-01,  1.1946808547e-01,  8.7786875665e-02, 
	 5.2826974541e-02,  6.2244463712e-02, -9.4099752605e-02,  4.7832630575e-02,  7.0192620158e-02, -1.8833427748e-04, -3.9937678725e-02,  7.3013380170e-02, -2.7589540929e-02,  1.6239926219e-02, 
	 9.6888460219e-02,  4.6479403973e-02,  9.1181524098e-02,  8.2630857825e-02,  4.7367881984e-02,  5.6337255985e-02, -1.4458826743e-02, -2.6240972802e-02,  1.0703829117e-02, -3.4164883196e-02, 
	-7.4425093830e-02, -1.4368947595e-02,  4.4884566218e-02,  1.3576513529e-01,  2.8353197500e-02,  1.0115763545e-01,  1.3740241528e-01,  2.8253126144e-01,  3.1319385767e-01, -2.5935527682e-01, 
	-1.8060421944e-01,  1.6803009436e-02, -2.2834022529e-03,  8.5028216243e-02,  7.1389012039e-02,  4.6847730875e-02,  1.1280854791e-01,  2.7817428112e-01,  8.1216573715e-02,  6.7088015378e-02, 
	-1.0566490702e-02,  1.2281955220e-02,  4.5424714684e-02,  4.4216267765e-02, -5.8734036982e-02,  8.0527737737e-02,  2.1735131741e-02, -3.8331297040e-01, -2.5216471404e-02,  8.3837166429e-02, 
	-2.0903880894e-01,  3.5548962653e-02, -4.1943538934e-02, -2.4044454098e-01, -1.3022013009e-01, -2.0586141944e-01,  7.5164750218e-02,  7.4433743954e-02, -7.1949340403e-02, -4.4990740716e-02, 
	-6.7539729178e-02,  2.4542534724e-02,  3.9505381137e-02, -3.5830750130e-03,  2.2165398300e-01,  5.3308573551e-03,  2.6053022593e-02,  8.9671544731e-02, -1.0927038640e-01, -1.1408349127e-01, 
	 1.7728025094e-02,  9.2498384416e-02,  9.7885616124e-02,  3.9900340140e-02,  1.3275431469e-02,  4.2776409537e-02, -2.1935491264e-01, -1.0700715333e-01, -4.1625201702e-02,  1.7560249567e-01, 
	-1.1745796353e-01, -6.5119177103e-02, -2.4174965918e-02, -5.7760767639e-02,  5.0411403179e-02,  1.3147065043e-01,  7.7072866261e-03,  7.6037436724e-02,  1.9666528702e-01,  2.6975861192e-01, 
	 1.3327912986e-01,  6.5849393606e-02, -9.9227145314e-02, -2.6366293430e-01, -2.3366139829e-01, -3.7673452497e-01, -3.5132881999e-01, -4.3287503719e-01, -1.9944399595e-02,  1.9450357556e-01, 
	 2.2854919732e-01, -1.2932202220e-01, -1.2945207953e-01,  1.0480108857e-01, -2.5066065788e-01, -2.0181322098e-01, -1.8566060066e-01, -6.8469950929e-03,  8.2862243056e-02, -1.8490841985e-01, 
	-4.7080290318e-01, -5.3803992271e-01,  5.8150851727e-01, -6.6538423300e-01, -4.9567332864e-01, -3.5429644585e-01,  4.7001698613e-01,  4.3321457505e-01, -2.9947486520e-01,  2.1963469684e-01, 
	 1.4445874095e-01, -9.2668585479e-02,  5.3083904088e-02,  2.2420516610e-01, -1.7962042242e-02, -1.6900755465e-01, -2.8952601552e-01, -2.0775455236e-01,  1.4498639107e-01,  3.0327919871e-02, 
	 1.3205587864e-01,  7.5111225247e-02,  1.2757152319e-01,  1.1691694707e-01,  1.2647597492e-01,  8.0073937774e-02,  1.1920467019e-01, -5.8485202491e-02, -1.2354081869e-01,  1.8381741829e-03, 
	 2.8281707317e-02,  1.1251611635e-02,  1.1204410344e-01,  6.6948860884e-02, -1.0071083158e-01,  1.5916531906e-02, -1.2774151564e-01, -1.3845980167e-01, -1.0931487381e-01, -1.3192683458e-01, 
	-1.3318936527e-01, -6.3957333565e-02, -1.1660525203e-01, -1.6819367185e-02,  3.5013593733e-02, -7.5099326670e-02, -8.9419513941e-02, -2.3843216896e-01,  1.8844638020e-02,  3.0648183078e-02, 
	-6.5407119691e-02, -1.4265906811e-01, -5.2185848355e-02, -1.3406184316e-01,  1.9351080060e-02,  2.0831772126e-03, -9.4319716096e-02,  4.8826418817e-02, -7.4784249067e-02, -1.6058398411e-02, 
	-5.5063568056e-02,  8.1445612013e-03,  5.7429177687e-03,  2.7768960595e-01,  1.8362317979e-01,  2.3397476971e-01,  2.5494250655e-01,  1.5255129337e-01,  2.7758386731e-01,  2.8991454840e-01, 
	 2.9939630628e-01,  4.2676961422e-01,  3.3308662474e-02, -1.2767286040e-02, -2.3112255335e-01,  9.5058575273e-02, -8.2487985492e-02, -2.8228980303e-01,  1.4350153506e-01,  2.4134673178e-02, 
	-1.2024234980e-01,  5.3078554571e-02,  5.0703961402e-02,  1.5549965203e-01,  1.5432973206e-01,  1.3687327504e-01,  1.2484923005e-01,  1.0672577471e-01,  2.0833624899e-01,  2.0177502930e-01, 
	-7.2646915913e-02,  9.0033687651e-02, -1.9209798425e-02, -1.2860541046e-01, -1.7444972694e-01, -1.4637805521e-01,  1.4819310606e-01, -2.2260485217e-02, -2.8259181976e-01, -6.4841516316e-02, 
	 4.0977355093e-02,  1.2940102816e-01, -6.4645774662e-02, -4.1740030050e-02, -7.0441220887e-03,  1.5894302726e-01,  2.5727070868e-02, -2.8351590037e-02,  3.4481689334e-02,  1.1556977034e-01, 
	 1.2016566470e-02, -3.5621669143e-02, -2.2666171193e-02, -1.1405467987e-02,  1.4040629566e-01, -6.8759783171e-03,  5.6379582733e-02, -2.7288194746e-02, -5.9209968895e-02, -6.6504426301e-02, 
	 6.7105226219e-02, -7.4325658381e-02, -1.0130508989e-01,  7.8852131963e-02, -3.1823657453e-02,  1.1494906619e-02, -6.9229584932e-01, -6.3053441048e-01, -7.9391115904e-01, -5.7323580980e-01, 
	-2.8082260489e-01, -3.1083062291e-01, -2.7835351229e-01, -5.7634711266e-02, -1.3273397088e-01,  1.6048416495e-02,  1.8234950304e-01,  2.2252930701e-01, -2.7317827567e-02,  9.0671084821e-02, 
	 2.1409952641e-01, -3.1532018911e-03,  1.6300326586e-01,  3.2634496689e-01, -2.5341840461e-02, -2.5519187329e-04,  1.0504587740e-01,  9.6174478531e-02,  3.7770643830e-02,  1.2783682346e-01, 
	 6.2533453107e-02,  7.9265110195e-02, -3.6194574088e-02, -2.2960996255e-02, -4.5836281031e-02,  6.2849834561e-02, -1.1019754410e-01, -9.7030065954e-03,  1.5043892898e-02,  9.5987655222e-02, 
	-4.3427557684e-03,  2.5603190064e-02,  1.5065482259e-01,  1.7020492256e-01,  4.5521840453e-02,  3.2667793334e-02, -4.4482324272e-02, -9.1602087021e-02,  6.7110285163e-02, -5.4064664990e-02, 
	-5.0882589072e-02, -1.5066838264e-01, -3.3637639135e-02,  1.0815022141e-01, -2.7875313535e-02,  4.2064066976e-02, -1.0609979928e-01,  8.9920118451e-02,  6.1025340110e-02, -2.5689376518e-02, 
	-3.3848006278e-03,  1.7511244118e-01,  1.0936565697e-01,  3.0852859840e-02, -1.8923321739e-02,  1.2806110084e-01,  6.6095188959e-04, -1.0143896565e-02,  1.5953449532e-02, -2.6351886988e-01, 
	-1.0966999829e-01,  1.6625741124e-01, -2.3370334506e-01, -1.7105329037e-01,  1.4546135068e-01, -1.7490698397e-01, -5.3878910840e-02,  5.4940484464e-02, -1.2242075801e-01,  9.8332285881e-02, 
	 1.0741401464e-01,  1.3197821379e-01, -2.3165782914e-02, -4.8466283828e-02,  5.5091813207e-02, -3.9575409144e-02,  2.4593258277e-02, -9.2677488923e-02, -2.6202447712e-02,  1.7300823703e-02, 
	-1.1881057173e-01, -6.8916818127e-03, -3.3652942628e-02, -2.4557884783e-02,  1.8469045172e-03,  1.4022365212e-01, -2.1789212525e-01, -4.4902835041e-02, -1.1856072396e-01, -1.6442275047e-01, 
	-1.2796445750e-02, -2.8277618811e-02,  1.2228918076e-01,  1.6126883030e-01, -3.2230965793e-02, -3.2433298230e-01, -2.4349446595e-01, -1.2742793560e-01, -1.0651197284e-01, -1.1339065433e-01, 
	-1.6128198802e-01,  2.8070899844e-01,  1.9774839282e-01,  6.7641220987e-02, -3.8117568940e-02,  1.5310871601e-01,  4.3754267693e-01, -1.1595036089e-01, -8.7938932702e-03,  2.1507258713e-01, 
	-1.6411171854e-01, -7.0587210357e-03, -4.4063128531e-02, -6.9765038788e-02, -4.0691025555e-02,  6.9101513363e-03, -1.1541403085e-01,  4.6748191118e-02,  1.0812014341e-01, -4.0872696787e-02, 
	-4.4276423752e-02,  5.6945174932e-02, -2.5575262308e-01, -3.2467949390e-01, -3.5276746750e-01, -7.8866556287e-02, -7.2000861168e-02, -1.4097504318e-01,  1.3943064213e-01,  4.8574745655e-02, 
	 1.4709892683e-02, -1.5138538182e-01, -1.8031489849e-01, -1.5890570357e-02, -3.1024608016e-01, -3.2906422019e-01, -3.5054177046e-01, -3.7846043706e-01, -4.6818274260e-01, -4.6523767710e-01, 
	 5.3990572691e-02,  6.0413447209e-03,  3.6405403167e-02,  8.1501342356e-02,  5.1044546068e-02,  4.5995242894e-02,  9.8421782255e-02,  4.6345509589e-02,  1.2200633436e-01,  1.0348179191e-01, 
	-1.3128223829e-02, -1.3640035689e-01,  2.9697997496e-02, -1.3800805435e-02,  6.1407122761e-02,  9.1869235039e-02, -5.0631146878e-02, -2.4666812271e-02, -3.6765307188e-02, -2.2901764605e-03, 
	-1.1507094838e-02, -6.9814331830e-02, -2.2626562044e-02,  3.2668773085e-02, -2.3235838115e-01, -1.8364958465e-01, -4.2347192764e-02, -1.2848155200e-01,  2.1551301703e-02, -2.1259555221e-01, 
	 1.4072382450e-01,  8.6616016924e-02, -1.7921477556e-02,  9.0637385845e-02,  1.5044280887e-01,  7.1327905171e-03, -2.7581322938e-02, -5.8392398059e-02, -9.6730411053e-02, -1.0825924575e-02, 
	-2.8773438185e-02, -1.3032698631e-01, -6.3177458942e-02, -8.5699938238e-02, -8.9971698821e-02,  1.4946796000e-01,  6.3747957349e-02,  2.2310326993e-01,  4.0763780475e-02,  2.6923600584e-02, 
	 1.2574434280e-01,  3.7904128432e-02,  3.1363174319e-02,  2.9780486599e-02,  9.6474990249e-02,  2.7185060084e-02, -1.7936153337e-02,  7.4886642396e-02, -2.3887529969e-02, -6.4528904855e-02, 
	 1.3522556424e-01,  1.4545203745e-01,  1.4313513041e-01,  1.0992261022e-01,  2.5691134855e-02,  7.2339087725e-02, -1.1153688282e-01,  3.6046072841e-02,  4.8313114792e-02, -1.0058187880e-02, 
	-1.0404092073e-01, -6.3684643246e-03,  7.1614809334e-02, -1.0242982954e-01,  4.9339257181e-02,  1.9654911757e-01, -1.2215428054e-01,  3.4043919295e-03,  1.0219579935e-01, -2.5799170136e-01, 
	-2.0261189342e-01, -1.5688719228e-02, -6.8309210241e-02, -1.1292296648e-01, -1.9971895218e-01, -1.6970652342e-01,  5.6959590875e-03, -5.0493687391e-02, -1.1346238106e-01, -1.8384644762e-02, 
	 1.6839975119e-01, -2.1271868050e-01, -1.4009481668e-01, -4.1399095207e-02, -2.0874358714e-01, -1.9619257748e-01,  1.1739056557e-01, -1.0302608460e-01, -2.9422909021e-01,  5.6737672538e-02, 
	 1.1003159732e-01,  6.4081773162e-02, -1.1028634757e-01,  3.9201200008e-02,  3.1328536570e-02,  2.0299935713e-02, -1.0502861813e-02,  8.0796867609e-02, -1.9091102481e-01, -1.0543186963e-01, 
	-1.9350807369e-01, -1.6379199922e-01, -1.7630031705e-01, -1.6595363617e-01, -1.0778916627e-01, -1.0727480799e-01, -8.4684751928e-02,  1.2647122145e-01,  2.0159883797e-01,  1.4525640011e-01, 
	-1.7295467854e-01, -6.7066736519e-02, -7.5390152633e-02, -2.2336257994e-01, -1.9755944610e-01, -2.8257155418e-01,  1.2218833715e-01,  5.7180784643e-03,  1.0495569557e-01, -2.1378759295e-02, 
	 4.3631792068e-02,  1.0271761566e-01,  1.1659152061e-01,  1.0517404228e-01,  6.0652781278e-02,  1.0253332555e-01,  4.4469457120e-02,  6.5812386572e-02,  2.2001314908e-02, -1.9219538197e-02, 
	 4.8431169242e-02, -2.0396236330e-02, -4.1752617806e-02,  3.6441329867e-02,  3.1716324389e-02,  2.0577525720e-02, -1.1063621193e-01, -2.5041801855e-02, -7.3059245944e-02, -3.2552938908e-02, 
	-4.5857381076e-02,  1.0192466900e-02, -1.7155772448e-01, -2.3587536067e-02,  8.1889316440e-02,  6.7410215735e-02,  6.9630645216e-02, -1.7459170893e-02,  7.0968694985e-02, -3.0009353533e-02, 
	-8.3593077958e-02,  6.8099983037e-02,  6.6366650164e-02,  8.3906501532e-02,  2.6455160696e-03,  8.4872722626e-02,  6.8427987397e-02,  1.5800270438e-01,  1.2086582929e-01,  2.7555031702e-02, 
	 6.7013785243e-02, -1.8444283307e-01, -4.2248207331e-01, -6.2021416426e-01, -3.7338149548e-01, -5.1417440176e-01, -5.2516895533e-01, -5.5068099499e-01, -9.0572482347e-01, -6.0383456945e-01, 
	 4.1070222855e-02,  1.1031366885e-01,  6.8355943076e-03,  6.5407618880e-02,  9.9842339754e-02,  5.0171468407e-02, -1.0631334782e-01, -7.5668036938e-02, -8.9889995754e-02, -7.7314808965e-02, 
	-1.5207947791e-01,  1.3446044922e-01, -1.6785384715e-01, -9.5168344676e-02, -1.5134036541e-01, -1.9891057909e-01, -1.7831797898e-01, -9.6629664302e-02, -2.6192842051e-02, -2.0089879632e-02, 
	-1.1756151170e-01,  8.8507346809e-03, -2.4960830808e-02, -3.5536378622e-01, -7.3346003890e-02, -5.8731228113e-02, -1.1550524086e-01, -9.3891806901e-02, -1.1431939900e-02, -7.7755972743e-03, 
	 4.8624202609e-02, -2.2372661158e-02,  7.2347149253e-02, -3.0609664321e-01, -1.3518142700e-01, -3.0876118690e-02, -2.0836992189e-02,  3.5350902472e-03,  1.1849362403e-01, -5.5675774813e-02, 
	-5.2694149315e-02,  1.0131845623e-01, -1.5544961393e-01,  1.5613051131e-02,  1.1168432981e-01, -2.8964485973e-02, -1.4399261214e-02,  9.4783715904e-02, -2.6263913140e-02, -8.9130118489e-02, 
	 7.4833810329e-02, -9.3666762114e-02, -1.1675138772e-01,  5.5679697543e-02, -1.2147355825e-01,  3.9359081537e-02,  3.6610838771e-01, -2.3540470749e-02, -6.9581769407e-02,  8.4472067654e-02, 
	-2.4006631970e-01, -1.9226102158e-02,  1.4601431787e-01, -3.0394041911e-02,  3.6095868796e-02,  5.6472174823e-02, -1.2272775173e-01, -4.2728468776e-02, -5.9789750958e-04, -4.6703156084e-02, 
	-7.7076680958e-02,  8.1308841705e-02, -1.1521792412e-01, -5.8585561812e-02,  2.6122178882e-02, -1.6808064282e-01, -9.0792059898e-02,  1.8223732710e-01, -2.7224498987e-01, -1.2166995555e-01, 
	 4.5621093363e-02,  5.3476262838e-02,  8.8567323983e-02,  4.0669426322e-02,  1.1298479885e-01,  1.5600261278e-02,  1.2214520946e-02, -1.2195606530e-01, -1.3279609382e-01, -2.9323918279e-03, 
	 5.5805087090e-02, -1.3462992385e-02,  3.1895852089e-01,  1.4087432623e-01,  1.5682579577e-01,  3.7307059765e-01,  8.7539643049e-02,  2.2818412632e-02,  2.0332732797e-01, -2.8560933471e-01, 
	-2.6999390125e-01, -7.1401566267e-02, -1.9918020070e-01, -9.7141675651e-02,  5.0963062793e-02, -1.9736543298e-01, -1.3035172224e-01,  1.1689132079e-02, -1.9798943773e-02, -4.7652840614e-02, 
	-4.2610548437e-02, -2.9727014899e-01, -1.5784953535e-01,  3.9457444102e-02, -3.3157947659e-01, -3.0784246325e-01, -2.3580151796e-01, -3.3525615931e-02,  1.0257533193e-01,  1.9823008776e-01, 
	-4.1215769947e-02,  6.7442946136e-02,  2.6294201612e-01, -1.9992353395e-02, -2.0321774483e-01,  3.0782343820e-02, -2.1019455791e-01, -7.1997694671e-02, -5.6357655674e-02, -2.1334664524e-01, 
	-9.6935793757e-02,  2.2299015895e-02, -1.0446621478e-01,  1.3258464634e-01,  3.7967152894e-02, -5.6005246937e-02,  5.3814720362e-02,  3.1103845686e-02, -5.5021513253e-02, -4.7513723373e-02, 
	 4.4833444059e-02, -9.1900127009e-03, -1.7261961475e-03, -3.1907074153e-02,  6.7968949676e-02,  3.4719184041e-02,  2.0374434069e-02, -7.9370392486e-03,  2.0843917504e-02,  6.7751377821e-02, 
	-8.6665078998e-02, -1.5325590037e-02, -1.2766100466e-01,  4.8662154004e-03, -1.2847374380e-01, -2.3818146437e-02, -8.1576310098e-02, -6.2010217458e-02, -8.8525563478e-02, -3.4892403055e-03, 
	 8.3772554994e-02,  1.4240561053e-02, -1.9403579831e-01, -1.4634101652e-02,  1.2667907774e-01, -1.9167062640e-01, -1.4464159310e-01,  2.1485107020e-02, -1.2658688426e-01, -8.5704490542e-02, 
	 1.8141342700e-01,  1.3869715622e-03,  1.1233369261e-01,  8.1082135439e-02,  1.3474036753e-01,  9.4403468072e-02,  8.7061688304e-02,  1.0836268961e-01,  6.6606678069e-02, -6.5459847450e-02, 
	 7.7087119222e-02,  1.7013041675e-01,  3.7791665643e-02,  3.9899889380e-02,  1.4660024643e-01,  1.7030321062e-01, -1.0455009341e-01,  5.9913419187e-02,  3.3072268963e-01, -7.4151381850e-02, 
	-2.6651811600e-01, -3.7197399139e-01,  3.3610448241e-02,  2.4873737711e-03, -1.1527800560e-01,  1.2012631446e-01,  1.6348920763e-01,  7.0898428559e-02, -3.8836941123e-02,  4.3531972915e-02, 
	-8.7714456022e-02, -1.5582184307e-02, -1.3203635812e-01, -1.1063902080e-01, -2.4594496936e-02, -5.1795714535e-03, -4.1286028922e-02,  1.5760695562e-02, -3.9351299405e-02,  3.8546938449e-02, 
	 1.1041770875e-01, -7.1443468332e-02, -3.1891733408e-02,  1.2936300039e-01,  3.1267587095e-02,  9.2068454251e-03,  1.1726735532e-01, -8.3724617958e-02, -6.0475621372e-02,  9.3745708466e-02, 
	 2.3447088897e-02, -2.2533601150e-03,  1.4496937394e-01,  1.0287005454e-01,  1.4279556274e-01, -1.2192041427e-01, -6.8119712174e-02, -9.2622704804e-02,  6.4962795004e-03, -7.3076993227e-02, 
	 7.7664002776e-02,  1.8183799461e-02, -4.5136652887e-02, -4.7815252095e-02,  2.3986518383e-01,  1.5155260265e-01,  9.8336584866e-02,  8.4421031177e-02,  2.1681132913e-01,  2.0565654337e-01, 
	 6.8563319743e-02,  1.6911645234e-01,  1.6138648987e-01,  4.8895388842e-02, -5.6922104210e-02, -3.3935345709e-02,  2.1843167022e-02,  7.4658603407e-03,  1.1300965399e-01,  2.0890663564e-01, 
	 1.0894794017e-01,  2.1927376091e-01,  6.3161500730e-03,  9.4414420426e-02, -1.4564014971e-01,  2.0806018729e-03,  2.6879215147e-04, -9.4850376248e-02, -1.4062813716e-03,  2.0954767242e-03, 
	-1.7193266749e-01,  5.3532365710e-02, -6.5614908934e-02, -4.6987805516e-02,  3.2281123102e-02, -5.8010511100e-02,  2.8725998476e-02, -2.3522300646e-02,  6.5786354244e-02,  3.1216211617e-02, 
	 2.0340748131e-01,  1.3305187225e-01,  5.6785237044e-02, -1.9109524786e-01, -2.0137377083e-01, -1.0941158980e-01, -1.3332886994e-01,  1.9323710585e-03, -1.1631685495e-01,  1.9000319764e-02, 
	 1.6480508447e-01,  1.7879264057e-01, -8.1023201346e-02, -5.5140640587e-02,  5.7336490601e-02, -1.4453974366e-01, -1.6971421242e-01,  1.2516534328e-01,  1.3155572116e-01,  1.4819985628e-01, 
	 1.0054378957e-01, -1.3263151050e-01, -1.5758914873e-02,  1.6719548404e-01, -1.6346862912e-01,  7.5650617480e-02,  2.5776365399e-01, -8.9213758707e-02, -1.3719561696e-01, -2.5478133559e-01, 
	-1.0691416264e-01, -9.7129424103e-04, -1.3281802833e-01,  8.1426978111e-02,  1.1662562378e-02,  8.9669033885e-02, -1.7338782549e-02, -9.8290994763e-02,  1.4383777976e-02,  1.8153842539e-02, 
	 2.1482525393e-02,  8.7804496288e-02,  1.3004197180e-01,  9.1832362115e-02, -2.5038309395e-02, -1.4463143423e-02, -1.4111653436e-03,  7.1581609547e-02, -7.9143121839e-02, -8.0653294921e-02, 
	 3.1825914979e-02, -1.3127693534e-01, -2.6709687710e-01, -2.8524706140e-02,  6.9667160511e-02, -3.2243203372e-02, -8.5225418210e-02, -2.4069489911e-02, -6.9153524935e-02, -1.4829506166e-02, 
	 5.0899372436e-03, -1.1479566991e-01, -1.0060147196e-01, -1.1145851575e-02,  2.2677011788e-02, -6.9923810661e-02, -8.8736228645e-03,  8.2649432123e-02,  1.4110538363e-01, -1.6520777345e-01, 
	-5.8006893843e-02, -5.9459175915e-02,  7.1335665882e-02, -4.2576894164e-02, -1.6179403663e-01, -2.0669780672e-01, -2.0340071619e-01, -1.9116216898e-01, -3.2514244318e-01, -2.7759316564e-01, 
	-1.6171385348e-01,  1.2863443792e-01,  1.6775970161e-01,  9.5605678856e-02,  8.9717417955e-02,  1.1092750728e-01, -6.7675620317e-02,  9.9274501204e-02,  4.3191283941e-02, -1.7920980230e-02, 
	 1.8459451199e-01,  1.0362070799e-01,  2.9993716162e-03,  1.1995437741e-01, -2.1355403587e-02,  5.2128378302e-02,  7.4165605009e-02,  1.1106003076e-01,  9.9529944360e-02,  2.8292977810e-01, 
	 2.6182028651e-01,  2.8552177548e-01,  5.5219712667e-03, -7.9315908253e-02, -1.2734827399e-01, -3.9671513438e-01, -3.4411343932e-01, -4.1846284270e-01,  1.7873774469e-01, -4.0347602218e-02, 
	-4.4450987130e-02,  1.0909565538e-01, -7.1957707405e-02, -9.5725916326e-02,  1.5294542909e-01,  1.3109141588e-01, -3.1256847084e-02,  4.6495903283e-02,  1.0260821134e-01,  1.2384298444e-01, 
	 9.1280259192e-02,  1.2786687911e-01,  1.2915614247e-01,  1.2868595123e-01,  1.4078065753e-01,  9.9910274148e-02, -7.0111937821e-02, -1.3778071851e-02, -2.2440398112e-02, -9.5595642924e-02, 
	 3.5287566483e-02,  1.2774589472e-02, -7.8938957304e-03,  3.8616715465e-03, -1.5366653912e-02, -8.6562246084e-02, -5.7204332203e-02, -4.9011413008e-02,  1.1180754006e-01,  1.0546316952e-01, 
	 2.4559253827e-02,  1.1781822145e-01,  1.0727242567e-02,  9.3209944665e-02,  1.4576983638e-02,  3.4866958857e-02, -9.3130059540e-02,  2.6558984071e-02,  4.9720320851e-02, -1.0293403268e-01, 
	 5.3087946028e-02, -5.0429217517e-02, -1.1821158230e-01, -6.6027671099e-02, -9.7468048334e-02,  2.1639406681e-02, -8.0667041242e-02, -5.7145304978e-02, -1.3611987233e-01, -4.6594757587e-02, 
	-9.2031985521e-02, -4.9557667226e-02,  5.0004035234e-01,  3.7228873372e-01,  4.5101892948e-01,  2.9862782359e-01,  2.3501093686e-01,  3.2297819853e-01,  3.2613506913e-01,  3.1981104612e-01, 
	 2.1106445789e-01, -9.5680793747e-03, -1.2137699872e-01,  4.5562949032e-02, -9.1817207634e-02, -8.2858383656e-02,  5.4090432823e-02,  3.8434199989e-02,  1.3565227389e-01,  7.7332869172e-02, 
	 3.1204283237e-01,  3.4323817492e-01,  3.5687816143e-01,  3.3234381676e-01,  2.8067538142e-01,  2.4486932158e-01,  2.6137641072e-01,  3.0359923840e-01,  2.1782617271e-01, -6.9363556802e-02, 
	 9.4953151420e-03,  6.0997277498e-02,  3.2760328613e-03,  3.9715271443e-02, -3.1059740577e-03, -1.2150580995e-02, -7.6209709048e-02, -5.7614699006e-02, -2.3327421397e-02,  2.3487493396e-02, 
	-1.0084018111e-01, -2.2843910381e-02, -9.3034636229e-03, -1.0810561478e-01, -2.6853805780e-01, -1.9900630414e-01, -7.1126803756e-02,  8.1239603460e-02,  4.2974087410e-03,  1.2105731666e-01, 
	 3.7901513278e-02,  5.5213909596e-02,  5.2783835679e-02,  1.8971942365e-02,  5.6952908635e-02, -6.8992666900e-02, -2.8812110424e-01, -1.7684708536e-01, -2.1891796589e-01, -1.5577113628e-01, 
	-1.4029689133e-01, -2.6483249664e-01, -1.5161049366e-01, -1.5310364962e-01, -2.4881221354e-01, -5.0618223846e-02, -6.3676252961e-02, -3.2524295151e-02,  6.9665275514e-02, -3.5318512470e-02, 
	-3.2861724496e-02,  7.7557377517e-02, -2.2205684334e-02,  3.5892516375e-02,  4.2705833912e-02, -4.3086122721e-02, -1.5874195099e-01,  5.4719291627e-02,  5.6796748191e-02, -7.2337917984e-02, 
	 1.6696369858e-04, -1.6166380048e-01, -9.0046197176e-02, -8.7120654061e-03, -7.8056670725e-02, -2.7978384867e-02, -2.6000747457e-02, -1.0456735641e-01, -1.6284412146e-01, -8.5882753134e-02, 
	-5.1394429058e-02, -5.0463542342e-02, -2.5211298466e-01, -3.0225628987e-02, -2.2799408063e-02, -2.0590836182e-02,  5.5379424244e-02, -5.1514122635e-02, -2.1557670087e-02,  1.8434278667e-01, 
	 1.1537053436e-01,  2.6684796810e-01,  5.0073802471e-01,  4.3891531229e-01,  1.0624335706e-01,  2.5980916619e-01,  1.3891626894e-01, -3.6384814978e-01, -1.1903186142e-01, -5.5198572576e-02, 
	 3.3434636891e-02,  3.4636512399e-02, -1.3360200822e-01,  1.4404919744e-01,  2.0531672239e-01, -1.6345122829e-02,  1.9813287258e-01,  1.2271312624e-01, -1.7854422331e-02,  4.3398790061e-02, 
	-6.5000206232e-03, -2.1619632840e-02,  1.0667993873e-01,  2.3054771125e-02,  1.5961851180e-01,  5.9826318175e-02,  3.4921944141e-02,  1.5729433298e-01,  6.4872018993e-02,  9.8433597013e-03, 
	 1.4483942091e-01, -1.4262789488e-01,  6.6488787532e-02,  7.9498544335e-02, -1.8478547037e-01, -7.7431410551e-02, -1.6951425374e-01,  7.9733334482e-02, -3.2747454941e-02, -2.9063755274e-01, 
	 1.7068205774e-01, -7.3631420732e-02, -6.2295056880e-02,  1.5056297183e-01,  8.6859725416e-02,  1.6001400352e-01,  7.1550346911e-02,  2.4979490042e-01,  1.7361457646e-01,  1.8347020447e-01, 
	 2.4085232615e-01,  1.3979016244e-01,  1.7419017851e-01,  6.6393435001e-02,  1.2923970819e-02,  7.7879831195e-02,  7.1832105517e-02, -1.9875215366e-02, -6.0891490430e-02, -6.4546954818e-03, 
	-6.9776572287e-02, -7.4318654835e-02, -6.5145771950e-03, -5.0519391894e-02,  2.5899082422e-01,  1.6191044450e-01,  3.0604633689e-01,  4.4256988913e-02,  1.1099375784e-01,  2.3947852850e-01, 
	 1.9554528408e-03,  1.1448178440e-01,  1.1571159959e-01,  1.0410004109e-01,  1.1179788969e-02,  6.2588274479e-02, -2.6495233178e-02,  5.6967411190e-02,  3.6218959838e-02,  1.1160581559e-01, 
	 9.4833802432e-03, -1.0708580166e-01, -1.4525790513e-01, -2.0088818669e-01, -2.5695729256e-01, -1.3293099403e-01, -2.2648990154e-01, -1.4414131641e-01, -2.3300996423e-01, -1.9228738546e-01, 
	-4.1445988417e-01,  2.3503905162e-02,  7.2985790670e-02,  7.4730068445e-02,  1.4991582930e-01, -1.4586064965e-02,  3.5430420190e-02,  2.1038761362e-02,  3.1610603910e-03,  1.4469820308e-03, 
	 1.0262286663e-01, -3.3875308000e-03, -1.1867422611e-01, -9.0273417532e-02,  4.8243917525e-02, -1.4606032521e-02, -5.2762638777e-02,  2.1341526508e-01,  8.3586528897e-02, -3.4988131374e-02, 
	-7.8433461487e-02, -2.8195744380e-02,  7.1883358061e-02, -8.7641194463e-02, -7.4535131454e-02, -8.1254718825e-03,  3.5785086453e-02,  2.8905851766e-02,  1.5689443052e-01,  1.5821065009e-01, 
	 6.6614933312e-02,  1.2768729031e-01,  5.3810097277e-02,  7.4349574745e-02,  5.1637296565e-03,  3.2497745007e-02, -5.6880112737e-02, -1.1202292889e-01, -1.5464208089e-02,  2.2021558881e-01, 
	 1.6221441329e-01,  1.1077980697e-01,  2.6275917888e-01,  1.0633764416e-01,  2.0201985538e-01,  2.3420570791e-01, -2.3989357054e-01, -1.0949646682e-01, -1.9645978510e-01, -1.4468596876e-01, 
	-1.1244331300e-01, -1.9133742899e-04, -1.5940682590e-01, -1.9566344097e-02, -5.1990013570e-02,  2.7267700061e-02, -6.5871492028e-02,  4.2542692274e-02,  5.2804332227e-02,  3.9017163217e-02, 
	-8.4684938192e-02, -7.9863421619e-02, -1.7548601609e-03,  5.5025842041e-02,  9.6629550681e-03, -1.3339330256e-01, -1.1520741880e-01, -8.1634901464e-02,  2.3493133485e-02,  1.1046160758e-01, 
	-1.3076589443e-02,  1.1818633229e-01,  1.2984570861e-01,  9.1273866594e-02, -9.2862993479e-02,  2.3524431512e-02,  7.8108914196e-02, -7.7532112598e-02, -2.8127513826e-02, -1.0685323924e-01, 
	-3.1475555152e-02,  1.0342139006e-01, -7.1203395724e-02, -2.5827612728e-02, -3.6775492132e-02, -8.0644540489e-02,  2.6903430000e-02, -7.3669366539e-02,  6.9455698133e-02,  6.5680056810e-02, 
	-3.0663067475e-02,  1.5714833513e-02, -1.7641700804e-02,  2.9216464609e-03,  1.1795385741e-02, -5.6255754083e-02,  2.8205979615e-02,  6.2863655388e-02, -7.9543411732e-02, -2.4600045756e-02, 
	-3.2838154584e-02, -9.8041802645e-02, -5.9185054153e-02, -1.0164871067e-01, -1.2641268969e-01, -1.4815440774e-01, -7.6654352248e-02, -1.6588278115e-01, -1.8050149083e-01, -1.5350317955e-01, 
	-2.7449926734e-01, -5.0799095631e-01, -1.5664997697e-01, -2.4329595268e-01, -3.1344544888e-01, -1.7400154471e-01, -2.5115478039e-01, -2.1999868751e-01, -2.9914638028e-02,  7.3132246733e-02, 
	 5.2588094026e-02, -8.9223524556e-03, -1.0134956799e-02, -1.0849677026e-01, -1.4707840979e-01, -3.9505805820e-02, -3.7028517574e-02,  1.9523091614e-01,  3.8000407815e-01,  1.8067961931e-01, 
	 3.7596315145e-01,  2.7549636364e-01,  2.5160279870e-01,  2.9349946976e-01,  2.3450577259e-01,  3.3120360970e-01, -7.6416088268e-03, -8.2983616740e-03,  2.9028449208e-02, -8.4650076926e-02, 
	 1.1569524556e-01,  6.5868586302e-02, -9.2992402613e-02,  1.0313610733e-01,  2.0997490734e-02, -4.7883398831e-02,  3.0471352860e-02,  9.4148494303e-02, -2.5477712043e-03,  1.3615480065e-01, 
	 7.4236921966e-02, -1.1661021970e-02,  2.0069822669e-02,  1.0819102824e-01, -1.4958663285e-01,  8.2627914846e-02,  1.2150845677e-01, -7.8448511660e-02,  2.0585963503e-02, -7.1737594903e-02, 
	 7.4967823923e-02,  6.2135398388e-02,  5.9217144735e-03,  1.7906720936e-01, -8.5446760058e-02, -3.7830674648e-01,  7.5831547379e-02, -1.9433476031e-02, -3.4465369582e-01, -8.0353021622e-02, 
	-8.2903601229e-02, -1.7259135842e-02, -3.8011614233e-02,  2.0427164435e-01,  2.0810161531e-01, -1.9845023751e-02,  6.7304804921e-02,  2.2074033320e-01, -8.5883043706e-02, -3.0112582445e-01, 
	-2.1802249551e-01, -2.7374889702e-02,  2.1405849606e-02,  1.7857408524e-01,  8.5618071258e-02,  2.3308793083e-02,  4.7378029674e-02, -5.5217139423e-02, -1.2022351474e-01,  7.5792550342e-04, 
	 2.4497675896e-01,  6.9729402661e-02, -1.3278040290e-01,  2.4106705189e-01,  1.0771622509e-01, -1.3547088206e-01,  2.8792709112e-01,  1.4690431952e-01,  1.0537243634e-01, -1.8299147487e-02, 
	 4.1258323938e-02,  3.3865731210e-02, -2.1198987961e-01, -2.5489173830e-02, -1.8589472771e-01, -3.8795831800e-01, -2.3504498601e-01, -2.3254743218e-01, -9.4773150980e-02,  5.1345904358e-03, 
	 6.9847449660e-02,  2.0567893982e-02,  5.3593251854e-02, -3.3785987645e-02, -2.0190069079e-01, -1.9777983427e-01,  1.3351762667e-02, -2.4260058999e-01, -3.0682283640e-01, -1.1762376875e-01, 
	 9.6013084054e-02,  1.7094613984e-02,  4.4297657907e-02,  2.5814995170e-01,  5.1999729127e-02,  5.6785408407e-02,  1.1177790351e-02,  8.2312412560e-02,  1.0988485068e-01,  7.4295803905e-02, 
	-2.4452233687e-02,  7.8372865915e-02,  6.7840665579e-02, -2.0624658093e-02,  2.5456907228e-02, -5.3583510220e-02, -8.2585237920e-02, -2.5228105485e-02,  1.7052052543e-02, -2.5774368551e-03, 
	 1.1918002367e-01,  5.9199452400e-02,  6.8741776049e-02,  5.8776155114e-02,  5.9701502323e-02,  7.7007412910e-02, -6.8809524179e-02, -7.1227245033e-02, -5.2781231701e-02,  1.8444808200e-02, 
	-1.4563927054e-01, -1.0185266286e-01,  6.8735829554e-03,  4.5614100993e-02,  8.6369022727e-02,  1.6520680487e-01,  2.1266135573e-01,  1.0024707019e-01,  5.9420492500e-02,  8.8081479073e-02, 
	 7.8531630337e-02,  1.2963020802e-01,  1.0047268122e-01,  1.1290982366e-01,  4.2898204178e-02,  7.2346583009e-02,  8.0985963345e-02,  4.1143756360e-02,  5.2601519972e-02,  1.2385827303e-01, 
	 1.5599650145e-01,  4.5191489160e-02, -8.9284563437e-03, -2.9343180358e-02,  6.0530830175e-02,  1.3614739478e-01,  8.6641289294e-02,  1.8650341779e-02,  1.5725131333e-01,  5.9757918119e-02, 
	 8.6856067181e-02, -2.7924515307e-02, -9.3381740153e-03,  7.3948189616e-02, -2.2590016946e-02, -5.0840128213e-02, -1.1439419352e-02,  6.1197139323e-02,  8.3105489612e-02,  2.4088390172e-01, 
	 1.2095352262e-01,  4.2444970459e-02,  1.5183958411e-01,  1.1539976299e-01, -2.7515312657e-02, -6.3570677303e-03,  5.3590096533e-02, -3.3881187439e-02, -6.5737791359e-02,  1.1635101400e-02, 
	 1.4996799827e-01, -7.3810353875e-02,  8.4573172033e-02,  8.4444973618e-03,  7.0728071034e-02,  2.6923518628e-02,  7.8383371234e-02,  1.5519590676e-01,  3.4659519792e-02,  9.0924233198e-02, 
	 1.6227591038e-01,  1.5062758327e-01,  1.5053227544e-01,  2.1273471415e-01,  9.4322614372e-02,  1.6820289195e-01, -1.5484479070e-01, -8.6442656815e-02, -1.2085883319e-01, -1.2936173379e-01, 
	-1.7110133171e-01, -1.3112732768e-01, -1.8583887815e-01, -1.9104303420e-01, -6.5706141293e-02, -1.4039388299e-01, -2.5740680099e-01, -1.6216725111e-01, -2.3021185398e-01, -2.4044071138e-01, 
	-1.5365815163e-01, -7.3283605278e-02, -2.2380324663e-04,  6.5775252879e-02, -5.1479041576e-02, -1.2506186962e-01, -7.6698012650e-02,  9.2725930735e-03, -1.6396984458e-02, -1.2942700088e-01, 
	 9.5327913761e-02, -6.9735005498e-02,  6.0487957671e-04,  4.3235965073e-02, -4.1239202023e-02,  6.8633183837e-02,  4.7786459327e-03, -9.0862832963e-02,  5.8106002398e-03, -2.3709049448e-02, 
	 6.6428460181e-02, -3.0712138861e-02,  1.5294621699e-03,  2.8857095167e-02, -2.4370797910e-03,  6.9104276597e-02,  3.1812041998e-02, -1.3385428488e-01, -5.7417426258e-02,  3.2068405300e-02, 
	-1.3829385862e-02,  7.4592061341e-02,  8.0157838762e-02,  4.8504687846e-02,  7.2540901601e-02, -4.4402204454e-02, -4.9876369536e-02, -5.1580540836e-02, -2.2615334019e-02, -1.1492647463e-03, 
	-5.3826579824e-03,  2.3990223184e-02,  5.6763987988e-02,  1.0399112850e-01,  6.0173459351e-02, -4.2607624084e-02,  1.4995822310e-01,  1.1250888556e-01,  1.6780486703e-01, -5.4982531071e-01, 
	-4.2005375028e-01, -2.5345647335e-01, -4.0043842793e-01, -9.5069088042e-02, -5.1000505686e-02, -2.2796139121e-01, -4.4524282217e-02,  1.7339387536e-01, -3.8930079341e-01, -3.6886885762e-01, 
	-3.4868007898e-01, -3.6640635133e-01, -2.4946466088e-01, -2.9057407379e-01, -2.4980364740e-01, -3.2770839334e-01, -3.1775367260e-01,  2.5861361995e-02,  4.6425848268e-03,  5.3919967264e-02, 
	-1.3037210703e-01, -1.1140778661e-01,  8.3713784814e-02, -2.0366859436e-01, -2.1100741625e-01, -1.7327404022e-01, -2.7051379904e-02, -9.0422973037e-02,  5.0298076123e-02, -1.5563093126e-01, 
	 3.5931400955e-02,  2.3915129900e-01, -1.7948214710e-01, -1.4159721136e-01,  6.2712125480e-02, -4.3991427869e-02, -1.2207525223e-01,  1.1757121980e-01, -3.2937787473e-02,  2.1205728874e-02, 
	 6.2413856387e-02, -6.0859616846e-02,  1.7523568124e-02, -7.9999528825e-02, -1.9366940856e-01, -2.8875243664e-01, -1.1641716212e-01, -2.8990572318e-02, -1.0090944171e-01,  1.5170337260e-01, 
	-4.3797601014e-02, -1.5928572044e-02,  2.3490132764e-02, -1.5204378963e-01, -1.1779010296e-01,  1.5569904447e-01, -2.4881409109e-01, -1.8782888353e-01,  3.1212873757e-02, -2.5959995389e-01, 
	-1.9852469862e-01, -2.2866734862e-01,  3.2847669721e-01,  3.0137717724e-01,  1.4810357988e-01,  2.7546133846e-02,  5.4659251124e-02, -6.2995925546e-02, -1.5286234021e-01, -2.3398594558e-01, 
	-3.1533509493e-01,  1.2178071588e-01,  2.3670549691e-01,  2.7789849043e-01,  1.5126278996e-01,  1.9795581698e-01,  1.8952617049e-01,  2.6278158650e-02,  1.5394565649e-02, -1.5539023280e-01, 
};

const float layer_16_conv2d_bias[UNET_PAR_16_CONV2D_OUT_FILTER] = {
	 1.0696670413e-01, -6.5766282380e-02, -1.8081409857e-02, -3.7381760776e-02,  2.5724584237e-02, -9.2351194471e-03, -9.2926703393e-02, -1.0362595320e-01,  1.1339407414e-01, -2.6053871959e-02, 
	-8.3120927215e-02,  2.9230397940e-01, -2.5935292244e-01,  1.5184646845e-01,  7.4282668531e-02, -6.9827064872e-02,  3.9049264044e-02,  1.7817923427e-01, -9.0609200299e-02, -1.5836992860e-01, 
	 4.3305803090e-02,  5.8524660766e-02, -8.4639349952e-03,  1.7950291932e-01, -1.1280623823e-01,  5.7089745998e-02,  1.0839177668e-01,  5.4578329436e-03,  9.4174042344e-02,  3.7169553339e-02, 
	 5.8323401958e-02, -6.2110498548e-02,  3.2328876853e-01,  4.3362233788e-02,  1.9898636639e-01,  1.8771448731e-01,  1.3471766375e-02, -1.2806400657e-01,  1.2225294113e-01,  4.7064200044e-02, 
	 7.9282790422e-02, -8.6690364406e-03,  1.1366504431e-01, -2.5257356465e-02,  2.0242257416e-01, -4.1535027325e-02,  5.3863804787e-02,  9.6796087921e-02,  2.5407296419e-01,  2.9059955850e-02, 
	 4.5616183430e-02,  1.7794696987e-01, -4.5647546649e-02, -2.3853883147e-02, -1.2006806582e-01,  1.9849300385e-01, -6.0022253543e-02,  6.9126570597e-03, -6.1625406146e-02,  1.9970302284e-01, 
	 1.6305550933e-02,  1.5170896053e-01,  1.3967367820e-02,  2.7469530702e-01,  1.8452355266e-01, -1.7927821726e-02, -8.2747057080e-02, -5.9911735356e-02,  2.8972748667e-02,  8.8083766401e-02, 
	-4.6907547861e-02, -7.2650648654e-03,  3.9365973324e-02,  1.2262502313e-01,  1.6852875054e-01,  2.6376759633e-02, -1.1294686049e-01,  8.2860765979e-03,  1.9898708165e-01,  2.9375088215e-01, 
};


#endif
