#ifndef PARAMS_CONV2D_42_H
#define PARAMS_CONV2D_42_H
#include "params.h"

const float layer_42_conv2d_weight[UNET_PAR_42_CONV2D_KERNEL_Y*UNET_PAR_42_CONV2D_KERNEL_X*UNET_PAR_42_CONV2D_IN_FILTER*UNET_PAR_42_CONV2D_OUT_FILTER] = {
	 1.6683164239e-01, -1.6361579299e-02,  1.7778058350e-01, -1.4129136503e-01,  1.9575560093e-01,  7.2545804083e-02,  1.7852851748e-01,  5.7875379920e-02, -3.1796041876e-02,  4.2419754900e-03, 
	 1.0995289311e-02, -1.2929310091e-02, -6.4777303487e-04, -3.4579585772e-03,  1.6756623983e-02, -4.5862686820e-03,  5.3152451292e-03, -1.0607721284e-02, -4.1814963333e-03, -2.3044759408e-02, 
	 2.2717533633e-02,  1.1558969319e-01, -7.3173195124e-02,  2.0963039249e-02, -1.5699498355e-01,  1.0714590549e-01, -2.3746436462e-02, -4.7165915370e-02,  4.3505616486e-02,  4.3068990111e-02, 
	-4.6749730245e-04,  1.3583670370e-02, -4.3006844819e-02,  9.8875984550e-03,  3.4129943699e-02, -2.2829622030e-02,  9.1796619818e-03,  8.7586268783e-02,  3.1662873924e-02,  3.7314634770e-02, 
	 4.2683039792e-03, -5.4236814380e-02,  6.5964117646e-02, -4.6340320259e-02, -2.4672748521e-02,  5.4123263806e-02, -1.9456552342e-02,  3.0151516199e-02, -4.4726572931e-02, -7.0856265724e-02, 
	 8.5129670799e-02,  7.3859781027e-02, -3.7495198194e-03, -1.3868899085e-02, -6.0012705624e-02, -2.0405296236e-02, -1.9591126591e-02,  6.0433648527e-02,  1.0909444652e-02,  1.5866938978e-02, 
	 6.8848365918e-03, -5.1724176854e-02,  4.8200204968e-02,  4.8529151827e-02,  3.6153469235e-02, -1.3198795915e-01, -6.0534853488e-02, -1.3783119619e-01, -6.6300466657e-02, -2.2235070169e-01, 
	 7.0841517299e-03, -1.4589484781e-02,  1.6708979383e-02, -4.7005921602e-02, -1.4076838270e-02, -1.9375807047e-01,  1.6118264198e-01,  4.4374223799e-02,  3.6334721372e-03, -2.4081099778e-02, 
	-1.3206420839e-01,  2.0283667743e-01,  2.1095634997e-01,  3.2104048133e-01, -9.7622893751e-02,  2.1145385504e-01,  1.8076124787e-01,  1.8921114504e-01,  1.3847075403e-01,  1.2960579991e-01, 
	 8.8492639363e-02, -3.2106142491e-02,  2.1592155099e-01,  3.5783153027e-02, -9.2811182141e-02,  1.0254696012e-01,  7.2725191712e-02, -1.2227910757e-01,  4.3019607663e-02, -7.4715897441e-02, 
	 2.0871414244e-01,  2.9360285401e-01,  1.1027460545e-01,  4.0863499045e-02, -1.2179851532e-01, -1.1377353966e-01, -1.0263381898e-01,  2.5200448930e-02, -3.8292424288e-03,  1.5759007633e-01, 
	-2.7953931689e-01, -2.8338462114e-01, -4.6673804522e-02, -3.9941158146e-02, -1.9399610162e-01,  1.9071123004e-01,  1.1312350631e-01, -4.1214582324e-01, -1.3791424036e-01,  2.5687831640e-01, 
	-4.6213690192e-02,  1.2903656065e-01,  1.0043548048e-01, -2.9682239983e-03,  1.2482832372e-01, -2.2707501426e-02,  2.4982777238e-01, -3.7610027939e-02, -4.1633527726e-02, -2.8577798605e-01, 
	 1.2360432744e-01,  1.4289528131e-01, -3.5747942328e-01, -2.5062766671e-01, -3.7029784918e-01, -7.0981495082e-02,  4.5792225748e-02, -5.1817137748e-02, -8.6177967489e-02, -5.1745072007e-02, 
	 8.6989410222e-02, -4.2531237006e-02,  1.0550281964e-02,  1.9987078384e-02,  3.6388605833e-01, -5.2652802318e-02,  7.3913969100e-02, -1.7633402348e-01, -2.7289316058e-01,  1.2983728945e-01, 
	-5.4396164417e-01,  1.5534469485e-01,  2.1108610556e-02, -1.7866089940e-01,  2.7609944344e-02,  1.8864695728e-01, -1.0000632703e-01, -6.2005070504e-04, -7.8121386468e-02, -1.2224784493e-01, 
	 1.7662078142e-02, -6.3075721264e-03,  1.9796974957e-01, -5.6761398911e-02,  7.9562686384e-02, -1.6393795609e-01,  1.4115139842e-01,  8.4778130054e-02, -4.2617163062e-01, -6.3107512891e-02, 
	-9.2642463744e-02, -3.6963261664e-02,  4.1462991387e-02,  5.0639200956e-02,  2.8645168990e-02,  2.1446006000e-01, -3.4153264016e-02, -1.2059379369e-02,  2.1155169234e-02,  7.8382648528e-02, 
	-2.0132307708e-01, -3.8091900933e-05, -3.7495493889e-01,  1.1138097197e-01, -1.6758127511e-01,  1.6800092161e-01,  4.4837333262e-02,  2.0881584287e-01,  1.1101131886e-01,  2.2978794575e-01, 
	 1.2125778012e-02,  1.5593366325e-01,  5.0503122807e-01,  2.5844666362e-01, -1.1237169802e-01,  2.6282593608e-01,  1.6892808676e-01,  2.8863251209e-02,  3.0703898519e-03, -1.0361819528e-02, 
	 8.3231115714e-03,  8.4549859166e-03, -1.0522618890e-02,  1.7341308994e-03, -6.1857881956e-03,  1.4731582254e-02, -1.0533705354e-02, -5.1535796374e-02, -8.5959829390e-02,  1.4583846927e-01, 
	 2.3441424966e-01,  1.6822348535e-01,  2.2372500971e-02, -2.4423964322e-01, -1.4426732063e-01,  6.3549779356e-02, -9.0331837535e-02,  8.0319963396e-02, -2.1645300090e-02, -9.1953828931e-02, 
	 2.1460977197e-01, -9.0130165219e-02, -5.5404618382e-02,  2.7427899837e-01, -2.2112490237e-01,  2.8198912740e-01, -1.0498198867e-01, -3.4609295428e-02,  1.5263071656e-01, -2.5076059625e-02, 
	-4.4790264219e-02,  1.3019588590e-01,  3.0645093322e-01,  5.0231732428e-02,  1.8315570056e-01, -1.3599479198e-01,  2.0458479226e-01, -1.7194439471e-01, -1.4204826951e-01,  2.3901340365e-01, 
	 1.1014176905e-01,  1.6114125028e-02,  2.0540109277e-01,  4.9739975482e-02, -1.2656901777e-01,  1.7814691365e-01, -5.5630676448e-02,  5.4035030305e-02, -1.2986658514e-01, -6.0544568114e-03, 
	 4.5519210398e-02, -1.1225342751e-02,  3.0051651411e-03,  1.4943045564e-02,  5.4740838706e-02, -4.1608391330e-03, -1.0649755597e-01,  1.1334520578e-01, -5.9781544842e-03, -5.1626287401e-02, 
	 5.5040415376e-02, -2.6260318235e-02, -8.3550579846e-02, -4.0845882148e-02,  4.1118655354e-02,  3.0782202259e-02, -3.3323608339e-02, -1.5702198446e-01, -7.0204533637e-02,  4.5971963555e-02, 
	-1.6514064372e-01, -1.9192108512e-01, -2.9105752707e-01,  1.2677414715e-01,  4.1370638646e-03,  1.3090468943e-01,  9.7013168037e-02, -4.5070011169e-02,  5.1969490945e-02, -9.5773488283e-02, 
	-1.0769655555e-01,  7.8773265705e-03, -4.7832496464e-02,  1.2492316961e-01,  1.0719573498e-01, -7.6987721026e-02, -2.9149346054e-02,  1.5936937928e-01,  8.8209465146e-02, -2.3922868073e-02, 
	-2.6500493288e-01, -6.2420595437e-02,  1.0124165565e-01, -1.6394308209e-01,  1.2130603194e-01,  2.4312257767e-01, -3.2846312970e-02, -2.1673822403e-01, -1.7932448536e-02, -5.2570784092e-01, 
	 1.1825952679e-01,  2.0344327390e-01, -2.2260871530e-01,  1.9266368821e-02,  1.9554384053e-01,  3.5963114351e-02, -2.0499797165e-01,  7.4297234416e-02,  1.3876454905e-03,  8.2612730563e-02, 
	-1.0064167529e-01, -1.4844533801e-01, -8.3833381534e-02,  1.6861535609e-01,  9.0261980891e-02, -5.5264509283e-03, -2.1993049886e-03,  9.7929336131e-02,  1.2815959752e-01,  1.2158649415e-01, 
	 1.3168361783e-01, -8.0996423960e-02, -2.4943118915e-02, -4.4734630734e-02, -2.2920627147e-02,  3.3573746681e-02, -6.2806040049e-02, -4.1112009436e-02, -1.8351364881e-02,  4.3123103678e-02, 
	-4.1358448565e-02,  2.5224240497e-02, -1.6702242196e-02, -1.0275631212e-02,  1.9984483719e-01,  1.0578390956e-01, -4.7361727804e-02,  2.2110386193e-01, -7.5750902295e-02,  1.7930877209e-01, 
	-9.2363156378e-02, -1.9824703038e-01,  1.1038725078e-01, -5.5194072425e-02,  3.8617484272e-02, -5.2109859884e-02,  1.1592328548e-02, -7.6844073832e-02, -3.6225786898e-03,  5.7565826923e-02, 
	-5.7710647583e-02,  1.6712076962e-02, -7.4345260859e-02, -1.4772437513e-01,  7.2460360825e-02,  3.1968034804e-02, -7.7187627554e-02,  6.7262552679e-02,  1.0515785217e-01,  7.1904450655e-02, 
	-1.1929503083e-01, -6.2913089991e-02,  6.3949391246e-02,  1.3298480213e-01, -6.1519004405e-02, -6.3870564103e-02, -8.0301046371e-02,  8.6570069194e-02,  7.7455990016e-02, -1.0533817858e-01, 
	-1.8240088830e-03,  2.0673032105e-01, -2.2595619783e-02,  2.3141628131e-02, -5.1986932755e-02, -5.3961478174e-02,  7.5937457383e-02, -3.7012495100e-02, -1.6803453863e-01,  3.6981187761e-02, 
	-4.5841086656e-02,  6.5823912621e-02,  1.3839909434e-01,  1.8314591143e-03, -2.5806140900e-01, -2.6865011454e-01, -1.1494757235e-01,  6.7858293653e-02, -7.9227879643e-02, -2.2710060701e-02, 
	-1.2790684402e-01, -7.1332068183e-04,  6.0467913747e-02, -1.3284416497e-01,  1.3584034145e-01, -7.0811316371e-02, -1.7674332857e-01, -1.3401788473e-01,  8.9540429413e-02, -2.2225791216e-01, 
	-2.0610132813e-01, -7.5402893126e-02, -2.3757484555e-01, -2.5159057975e-01, -1.1632550508e-01, -1.0296521336e-01, -6.0287345201e-02,  1.7634564638e-01, -2.0622141659e-02, -3.0327133834e-02, 
	 5.6219268590e-02, -1.1003759503e-01,  2.2173585370e-02, -1.5219391882e-01, -2.0525036380e-02,  1.4286203682e-01,  3.3684116602e-01,  6.8384706974e-02, -3.0383285135e-02,  6.1734467745e-02, 
	 5.7755354792e-02,  1.1554856598e-01,  4.9623765051e-02,  3.1117600203e-01,  2.7910586447e-02,  1.9853003323e-01, -2.0659312606e-01,  6.4887031913e-02, -2.6985740662e-01,  1.0250719637e-01, 
	-1.6374325752e-01, -4.5761603117e-01, -1.5310506523e-01, -1.7644649744e-01, -1.4550577104e-01, -5.1013272256e-02,  9.4066448510e-02, -4.7039680183e-02, -1.9759172574e-02, -2.9178589582e-02, 
	-1.8709908426e-01, -3.6509931087e-01, -2.3818585277e-01, -3.8225114346e-01, -6.5643325448e-02, -4.0333083272e-01, -2.4227851629e-01, -4.2802026868e-01, -3.3900648355e-01,  2.6336533949e-02, 
	-6.4109750092e-02, -5.0954010338e-02, -9.2689497396e-03, -7.5783945620e-02,  1.2869835831e-02, -6.4167052507e-02, -9.6185721457e-02, -5.6894451380e-02,  4.8037365079e-02,  2.4133726954e-01, 
	-1.9613344222e-02, -8.2864299417e-02,  2.4012851715e-01, -2.3350523785e-02, -3.0666014180e-02,  5.0137537718e-01,  1.4390124381e-01,  2.1712951362e-01,  2.5181374513e-03,  1.6559867561e-01, 
	-1.1673682928e-01, -6.5567553043e-02,  7.5353728607e-04, -7.9666702077e-03, -1.3370580971e-01, -2.0158603787e-02, -1.1796241999e-01, -1.1234638840e-01, -9.2983677983e-02,  1.9864208996e-02, 
	-2.8860926628e-01, -3.0692340806e-02, -1.7736364901e-01, -2.7985683084e-01, -6.7941486835e-02, -1.9845973700e-02, -2.0099608600e-01, -1.1996399611e-01, -2.4699704349e-01, -1.7678150907e-02, 
	 1.0385768861e-01, -1.8860681355e-01, -7.1872532368e-02, -1.3232977688e-01,  3.2498978078e-02,  2.0418013632e-01,  2.0639723539e-01, -9.5241740346e-03,  8.1220880151e-02, -1.2280277163e-01, 
	-9.8098926246e-02, -1.1721228808e-01, -2.4653460085e-01,  1.2040174752e-01, -2.0883093774e-01,  6.4463242888e-02,  5.0026047975e-02, -1.6243872046e-01, -2.7720656991e-01,  5.7294417173e-02, 
	-2.8274908662e-01, -3.0886772275e-01, -1.9760532677e-01,  2.2842843086e-02, -7.9103909433e-02, -2.3196024820e-02, -4.2607147247e-02,  7.1982763708e-02,  7.6575139537e-03, -4.1591159999e-02, 
	-8.2987539470e-02, -7.2172433138e-03,  1.3387212157e-01, -1.0833477229e-01,  2.3877543211e-01, -7.1231503971e-03, -1.4773006551e-02,  6.3410043716e-02, -8.9509017766e-02, -1.6356776655e-01, 
	-1.6901996732e-01,  4.7920931131e-02,  6.2700688839e-02,  3.8065230846e-01, -3.5392597318e-01, -8.6416592821e-03, -5.7478554547e-02, -2.5916913152e-01, -3.0438810587e-01, -6.0628242791e-02, 
	 4.4254581444e-03,  3.9097726345e-02,  6.8170793355e-02, -2.2413448989e-01, -1.3987903297e-01, -6.2072116882e-02, -3.6487177014e-01, -2.1416164935e-01, -1.1970508099e-01,  3.9291033149e-01, 
	-8.3370335400e-02,  1.0978800803e-01, -2.7545687556e-01,  1.4730776846e-01,  1.5162861347e-01, -4.0870252252e-01, -3.1499931216e-01, -6.4811646938e-02,  7.9171419144e-02,  9.9972009659e-02, 
	-1.4518316090e-01, -1.9242917001e-01,  3.5546474159e-02,  9.7913645208e-02,  2.1309906617e-02, -1.2278048694e-01,  1.9701682031e-01, -2.0258089900e-01, -6.5679592080e-03,  3.9223190397e-02, 
	 2.4933487177e-01, -2.2847183049e-01, -2.9766780138e-01, -2.1364194155e-01, -9.1828003526e-02, -4.9050752074e-02, -1.4878788590e-01, -7.8942008317e-02, -6.0960100964e-03, -6.2428209931e-02, 
	-6.0562090948e-03, -2.0827351138e-02, -2.9171107337e-02, -4.4522672892e-02, -1.0106701404e-02, -1.4998236299e-01,  2.1776033938e-01,  6.5484799445e-02,  1.1650077999e-01,  1.2181334943e-01, 
	 1.0747704655e-01, -4.0748035908e-01, -4.3814294040e-02,  9.0599432588e-02, -4.0901429951e-02,  1.5931783244e-02,  2.9172863811e-02,  1.8177902326e-02, -3.6330934614e-02,  9.0056397021e-03, 
	 3.9959768765e-03,  1.0540797561e-01, -5.2411779761e-03, -1.2911592424e-01, -5.4348641634e-01, -2.0222555101e-01,  5.5681526661e-02, -2.2388453782e-01, -2.2671148181e-01, -2.7046743035e-01, 
	 6.5153397620e-02,  3.6085441243e-03, -4.7587350011e-01,  8.0539755523e-02, -3.0997844413e-02,  1.3027960062e-01,  1.6723436117e-01, -1.2148537487e-01, -4.8067597672e-03,  4.1337855160e-02, 
	 1.0620519519e-01, -3.2762207091e-02,  6.6266842186e-02,  8.0114781857e-02,  8.9529836550e-03, -3.3430144191e-01,  1.5141361952e-01,  8.3284042776e-02,  8.7230160832e-02, -1.4810350537e-01, 
};

const float layer_42_conv2d_bias[UNET_PAR_42_CONV2D_OUT_FILTER] = {
	 1.2407264113e-01, -1.6009168327e-01, -2.9662704468e-01,  9.7879368067e-01, -3.4461706877e-01,  7.1429098025e-03, -1.4393827319e-01, -1.2854458094e+00, -3.7509563565e-01, -2.9037916660e-01, 
};


#endif
