#ifndef PARAMS_CONV2D_11_H
#define PARAMS_CONV2D_11_H
#include "params.h"

const float layer_11_conv2d_weight[UNET_PAR_11_CONV2D_KERNEL_Y*UNET_PAR_11_CONV2D_KERNEL_X*UNET_PAR_11_CONV2D_IN_FILTER*UNET_PAR_11_CONV2D_OUT_FILTER] = {
	-1.5220547095e-02,  1.0503764451e-01, -4.9990322441e-02,  6.4306840301e-02,  2.0062361658e-01, -5.0548156723e-03,  1.6167090833e-01,  1.7742069066e-01,  1.7059370875e-01,  4.5972462744e-02, 
	-5.5118411779e-02, -5.6697085500e-02,  1.1966714635e-02,  1.4043693244e-01,  1.0317093134e-01,  3.2387543470e-02,  1.3652089238e-01,  1.5856400132e-02,  9.1682421044e-03, -1.8090628088e-01, 
	-1.3524769247e-01, -1.6755385697e-01, -2.0115147531e-01, -1.5065398812e-01, -2.1623896062e-01, -1.1567390710e-01, -8.2498207688e-02, -4.5401174575e-02,  7.9365976155e-02, -1.2238284945e-01, 
	 1.0799826682e-01,  2.3819413036e-03, -7.2737641633e-02,  1.9810728729e-01, -5.8778852224e-02,  9.4304874539e-02,  1.5497602522e-01,  1.4648915827e-01,  9.4535201788e-02,  2.2104705870e-01, 
	 1.7030100524e-01,  1.9313324988e-01,  1.4008153975e-01,  2.5658676028e-01,  1.3814184070e-01,  2.9971346259e-02, -2.7475710958e-03, -1.2270748615e-02,  1.6395743191e-01,  7.8731566668e-02, 
	 1.4813733101e-01,  2.0461870730e-01,  6.3896194100e-02,  3.0073398724e-02,  5.2947390825e-02,  4.7868628055e-02,  1.5030379873e-03, -1.6607415676e-01, -1.7323473468e-02, -5.0802402198e-02, 
	-1.6073365510e-01, -1.8859363627e-03, -1.1774540693e-01, -1.5897308290e-01,  2.5597512722e-02,  1.3562215492e-02,  1.1878591962e-02, -1.2718135118e-01, -1.2715311348e-01, -4.4141110033e-02, 
	-4.9606207758e-02, -7.0899821818e-02, -5.0085309893e-02,  6.7711606622e-02,  4.7899339348e-02, -3.4082677215e-02,  4.4727750123e-02, -9.1072686017e-02, -2.5075297803e-02,  1.0933889449e-01, 
	 3.2981332392e-02,  5.8577823639e-01,  5.6141525507e-01,  4.6790298820e-01,  5.8270710707e-01,  5.7980823517e-01,  6.2296569347e-01,  4.9840816855e-01,  5.2984172106e-01,  4.0532991290e-01, 
	 7.7414132655e-02,  1.3944983482e-01,  9.7509525716e-02,  1.5599331260e-01,  1.1860553175e-01,  1.0994125158e-01,  1.0801535845e-01,  1.7701596022e-01,  1.5576294623e-02,  1.2320893258e-01, 
	-2.9169825837e-02,  1.2331318855e-01,  1.2835402787e-01,  1.2346323580e-01,  1.8845881522e-01,  1.0621317476e-01,  3.0523732305e-02,  4.5789562166e-02, -1.3021481037e-01,  1.0912809521e-02, 
	-6.8607054651e-02, -7.0773728192e-02, -6.4423277974e-02, -5.1367364824e-02, -1.7095831037e-01, -1.1366634816e-01, -2.5368458033e-01, -7.9086355865e-02, -1.0243798792e-01,  1.0349234194e-01, 
	-6.7482158542e-02, -1.4242108166e-01,  2.7963025495e-03,  4.3452780694e-02, -1.6007525846e-02, -1.1030374467e-01,  7.7537313104e-02,  2.2926004231e-01,  2.1167917550e-01,  1.9651849568e-01, 
	 6.9295920432e-02,  1.8233266473e-01,  2.2607240826e-02,  4.3689809740e-02,  1.5421864390e-01,  6.3156791031e-02, -4.6163152903e-02,  1.1541845743e-03, -5.1397546194e-03, -4.1981570423e-02, 
	 8.2669198513e-02, -1.0787244886e-01,  8.4285542369e-02,  8.1914730370e-02, -2.7082633972e-01,  9.5752991736e-02,  4.1342474520e-02, -5.5791839957e-02,  2.4111544713e-02,  1.3881528378e-01, 
	-1.5235160291e-01,  2.4440983310e-02,  2.4884051085e-01, -7.1744108573e-04,  1.4563179016e-01,  2.3151275516e-01, -3.4931354225e-02, -4.8429309390e-03,  1.7908948660e-01, -1.5170964599e-01, 
	-1.2015891820e-01, -8.8922167197e-04,  2.4331878126e-01,  2.6334053278e-01,  3.7303969264e-01,  2.5473025441e-01,  4.9021074176e-01,  4.9579459429e-01,  2.3596464097e-01,  4.5096006989e-01, 
	 3.3125483990e-01, -4.2510449886e-01, -3.7979421020e-01, -1.8701632321e-01, -2.2500674427e-01, -3.9383402467e-01, -3.2274594903e-01, -1.6194255650e-01, -3.5187035799e-01, -4.8563179374e-01, 
	-1.7802481353e-01, -1.6287703812e-01, -1.8334862590e-01,  4.7627785243e-03,  2.4679394439e-02, -6.3275292516e-02, -2.1144419909e-02, -5.9833791107e-02,  4.0001265705e-02,  1.2181577086e-01, 
	 3.5299840569e-01,  3.0907446146e-01,  1.4579273760e-01,  1.8543277681e-01,  3.0850276351e-01, -3.2056845725e-02,  9.1254197061e-02,  7.0009030402e-02, -1.6080621630e-02, -8.5663542151e-02, 
	-2.3847988341e-03,  1.3517455757e-01,  3.5311333835e-02, -5.3530555218e-02, -7.7416986227e-02, -9.5320180058e-02, -3.3161276951e-03, -4.1557274759e-02,  7.3843777180e-02,  1.0025262833e-02, 
	 1.4610940218e-01,  9.2379152775e-02, -4.5885659754e-02, -5.5697161704e-02, -1.2251275778e-01, -1.7466290295e-01,  6.0964174569e-02,  8.0842249095e-02,  8.1653885543e-02,  1.7252905667e-01, 
	 2.0427912474e-01,  4.8028647900e-01,  2.2870852053e-01,  7.4274770916e-02,  6.2252205610e-01, -6.5413445234e-02,  1.1646798253e-01, -2.8614647686e-02, -3.1055572629e-01, -2.7022302151e-01, 
	-2.8186050057e-01, -3.1711414456e-01, -4.5522189140e-01, -3.5676589608e-01,  9.1221369803e-02,  6.9554746151e-02, -1.7603455111e-02,  2.7416467667e-02,  1.0557794571e-01,  8.1444263458e-02, 
	-1.3154897094e-01, -8.5921712220e-02, -4.3200772256e-02, -3.7827309966e-01, -4.8426732421e-01, -3.9724785089e-01, -2.0902324468e-02, -3.4938403964e-01, -3.6027991772e-01, -3.2317447662e-01, 
	-4.4949972630e-01, -6.1138379574e-01,  1.4497834444e-01,  3.1680735946e-01,  1.3906106353e-01,  2.1437367797e-01,  2.8366565704e-01,  1.5430128574e-01,  1.9397951663e-01,  2.8182062507e-01, 
	 1.4710633457e-01, -4.2028177530e-02,  1.0838834941e-01, -4.0278632194e-02, -2.6034006849e-02, -4.3198850006e-02, -3.6028057802e-03, -1.3943468034e-01,  3.9831120521e-02,  4.2506553233e-02, 
	-1.9057068229e-01, -1.8184189498e-01, -1.4716193080e-01, -4.6362169087e-02,  3.7580344826e-02, -1.8477097154e-01,  1.6647523269e-02, -1.2341532856e-01, -2.6593437791e-01,  2.5591528416e-01, 
	 7.8234940767e-02,  6.2185235322e-02,  2.2690843046e-01,  2.0839659870e-01,  6.3550241292e-02,  2.4202111363e-01,  3.3759841323e-01,  2.4964839220e-01, -2.2251877189e-01, -2.4260485172e-01, 
	-1.7118370533e-01, -2.3950023949e-01, -1.7522679269e-01, -3.4730005264e-01, -2.3179198802e-01, -3.4383031726e-01, -2.2923901677e-01, -5.8290127665e-02,  2.4473406374e-02, -4.4168509543e-02, 
	-8.4608076140e-03, -2.0955186337e-02, -1.0083223879e-01,  1.1126487702e-01,  2.9939429834e-02,  2.8083238751e-02, -6.4078889787e-02, -1.5059719793e-02,  6.0587245971e-02,  5.0983041525e-02, 
	 2.0570060238e-02,  1.4118847251e-01,  9.6862807870e-02,  1.3920454681e-01,  1.7423875630e-01,  1.0989088565e-01,  1.9625215232e-01,  9.5073543489e-02,  1.1846516281e-01,  1.1052995920e-01, 
	 1.0934169590e-01,  1.2700134888e-02, -6.0060240328e-02,  1.9981391728e-01, -1.2454523891e-01, -7.8968882561e-02, -1.0067905486e-01, -6.4872391522e-02,  1.0264835320e-02, -1.7231714725e-01, 
	 2.6162229478e-02, -1.4355084300e-01, -2.5152418017e-01,  2.2789679468e-02, -1.5709987283e-01,  5.8759808540e-02,  1.1971439421e-01,  5.6312415749e-02,  6.6487364471e-02,  3.5586126149e-02, 
	 2.1582064033e-01,  3.4927254915e-01, -9.6641398966e-02,  2.0775505900e-01,  1.6070853174e-01, -2.7782040834e-01,  2.0504009724e-01,  2.6071545482e-01, -2.1376819909e-01, -1.5045337379e-02, 
	 3.7238818407e-01, -2.4647898972e-02, -1.0006378591e-01, -1.1046165228e-01, -9.9457971752e-02, -1.0173397511e-01, -1.7118510604e-01, -1.7393967509e-01, -1.9181232154e-01, -1.5018974245e-01, 
	 6.6062137485e-02,  1.9768309593e-01, -9.4867736101e-02, -2.7795907110e-02,  5.1428914070e-02,  6.3630212098e-03, -1.0265614092e-01, -1.9960653782e-01,  9.4179073349e-03,  1.3380859792e-01, 
	 3.0464574695e-01,  3.1801277399e-01, -9.6607886255e-02,  1.4990061522e-01,  1.6535310447e-01,  1.3955412805e-01,  1.4859086275e-01,  9.4946712255e-02,  6.5310075879e-02, -3.4309808165e-02, 
	 9.7688965499e-02,  6.4108051360e-02,  1.3811889291e-01,  9.9743962288e-02,  4.3917473406e-02,  1.8573862314e-01,  4.7719734721e-03,  7.8267626464e-02, -2.6114201546e-01, -9.8113387823e-02, 
	 1.2066880614e-01, -1.3099312782e-02, -9.8986975849e-02,  3.6082517356e-02, -6.3062496483e-02, -1.2667328119e-01, -4.6370573342e-02,  1.8195550889e-02,  1.0400877334e-02,  5.6891523302e-02, 
	 6.3157036901e-02,  4.2779430747e-02,  2.8982970119e-01,  3.3408695459e-01,  3.5451939702e-01, -1.2332347035e-01, -1.2216535956e-01, -3.5265102983e-02, -1.1700966954e-01,  9.5525681973e-03, 
	-6.3633732498e-02, -8.1748820841e-02, -6.4164027572e-02, -3.4502256662e-02, -1.3137471676e-01, -6.7190915346e-02, -1.0266478360e-01, -1.6612707078e-01, -8.5241109133e-02, -3.9324942976e-02, 
	 8.8267624960e-05,  1.2439909391e-02, -1.3265616260e-02,  6.8392582238e-02,  1.3061863184e-01,  1.7488311231e-01,  9.0839244425e-02,  1.8022452295e-01,  3.2104596496e-01,  1.2503129244e-01, 
	 1.1999032646e-01,  3.3847329021e-01,  3.9105571806e-02, -2.1335270256e-02, -9.1006852686e-02, -2.7468338609e-02,  4.7251913697e-02,  9.6946835518e-02,  2.4691820145e-01,  2.5512096286e-01, 
	 2.3677632213e-01,  1.2169420719e-01, -6.7955754697e-02,  1.2448745966e-01,  1.5679502487e-01,  2.7070464566e-02, -1.5968231484e-02,  1.0482518375e-01,  6.9022752345e-02, -5.0526324660e-02, 
	 3.9358693175e-03, -1.7027077079e-01, -6.7351542413e-02,  1.2763881683e-01,  9.2599667609e-02, -8.5197180510e-02,  1.7297433317e-01, -4.7999727540e-03, -2.0360644162e-01,  1.3260132074e-01, 
	 3.0168446898e-01,  2.5382429361e-01,  2.5751075149e-01,  1.0165296495e-01,  1.6304765642e-01,  2.5007891655e-01,  1.8116976321e-01,  1.7757372558e-01,  1.6870336607e-02, -1.1236679740e-02, 
	-3.6799520254e-02, -3.8468547165e-02,  9.9607883021e-03, -5.5232759565e-02,  1.6839970648e-01,  8.5405722260e-02,  6.1086259782e-02,  1.6189955175e-01,  5.3834438324e-02, -7.7943824232e-02, 
	 3.2328218222e-02,  7.4090033770e-02, -4.7571845353e-02,  1.1457578838e-01,  1.6224157810e-01,  3.8877349347e-02, -3.0786997080e-01, -4.1874817014e-01, -3.6372846365e-01, -2.1399952471e-01, 
	-3.1725847721e-01, -1.5531425178e-01, -1.7154924572e-01, -1.1681605130e-01, -1.5918141603e-01, -1.0230891407e-01, -2.1346090734e-01, -1.8384310603e-01, -1.6362954676e-01, -9.8178684711e-02, 
	-2.0071884990e-01, -1.5360081196e-01, -1.4656750858e-01,  3.1587604433e-02, -5.4100539535e-02, -1.2792278826e-01, -5.7744756341e-02,  5.5335931480e-02,  7.9740472138e-02, -1.2424874306e-01, 
	 9.3206644058e-02,  4.4718991965e-02, -7.1230225265e-02,  4.0599931031e-02,  3.5906802863e-02,  2.2466454655e-02, -8.8056676090e-02, -1.3103443384e-01, -2.4337316863e-03, -1.9035929441e-01, 
	-1.3807404041e-01, -1.0936998576e-01,  3.6339673679e-03, -1.5979024768e-01, -1.7040394247e-01, -4.8683777452e-02, -8.2733392715e-02, -1.2062621117e-01, -1.3407990336e-01, -5.2679378539e-02, 
	 6.7924559116e-02, -1.0581757873e-01, -2.4118046463e-01, -3.9343878627e-01, -1.5687547624e-01, -1.6613054276e-01, -7.2265416384e-02, -9.5470555127e-02, -4.2472731322e-02,  1.1088565737e-01, 
	-1.3874854147e-01,  3.6868177354e-02, -2.4595316499e-02, -1.1140373349e-01, -8.6770147085e-02,  7.6596803963e-02,  4.6449087560e-02,  1.6081798822e-02, -7.6875582337e-02,  8.6625166237e-02, 
	 2.4745378643e-02, -4.0656562895e-02,  1.1039775610e-01, -5.9029936790e-02, -1.9286847115e-01,  2.0852202177e-01,  1.5851627290e-01,  3.8811564445e-02, -2.6436623931e-01, -1.0366827995e-01, 
	 4.2637713253e-02, -2.3031662405e-01, -1.5681569278e-01, -3.0064424872e-01, -1.6241665184e-01, -1.8037189543e-01, -1.6366937757e-01, -1.1124919355e-01,  4.8439957201e-02,  2.8942000121e-02, 
	-7.1882165968e-02,  6.5384320915e-02, -7.9384677112e-02,  5.7869289070e-02,  1.2120237201e-01,  9.6669524908e-02, -4.5136582106e-02,  8.6393356323e-02, -3.4126449376e-02,  3.1295444816e-02, 
	 5.3627792746e-02,  1.2527066469e-01, -2.7642974630e-02, -4.2064476758e-02,  8.6840741336e-02, -2.9180634022e-01, -2.3022383451e-01, -1.7268598080e-01,  3.8432739675e-02, -2.4152398109e-02, 
	-1.4774338901e-01, -1.4046615921e-02, -6.5204747021e-02, -1.4896446466e-01,  7.0518806577e-02, -3.6262195557e-02,  1.2926805764e-02,  2.8471341357e-02,  1.9997358322e-01,  1.9308139384e-01, 
	 6.1925586313e-02,  1.2563657761e-01,  1.4181226492e-01, -9.4962622970e-03, -1.3122922182e-01,  6.5142132342e-02,  6.5445303917e-02, -1.1336717755e-02,  1.7872927710e-02,  4.8284396529e-02, 
	 3.7746045738e-02,  6.0828823596e-02,  2.3835510015e-02, -7.6093837619e-02,  4.0751848370e-02, -7.2108589113e-02, -1.0667532682e-02,  3.4113917500e-02,  2.8245788068e-02,  9.7713984549e-02, 
	 1.8911053240e-01, -3.7110254169e-01, -4.1646242142e-01, -4.0928003192e-01, -1.8675391376e-01, -4.1479519010e-01, -5.7763731480e-01,  5.9751722962e-02, -2.7586457133e-01, -3.5676249862e-01, 
	-3.3447172493e-02, -9.7297467291e-02,  7.8427948058e-02, -1.1284559220e-01,  9.5957241952e-02,  1.5128436685e-01,  8.4309570491e-02,  1.1845262349e-01,  2.3856984079e-01,  6.0446634889e-02, 
	-1.9724505022e-02,  2.5910375640e-02, -3.1219584867e-02, -6.4716920257e-02, -1.4335577190e-01, -1.1670056731e-01, -6.3277237117e-02,  1.5519456565e-01, -2.2332035005e-02, -1.0431224108e-01, 
	-2.1705864370e-01, -1.8340240419e-01, -1.2859216332e-01, -5.6226555258e-02, -2.3571801186e-01, -3.3427940216e-03, -1.1446008831e-01, -1.4569830894e-01, -1.9771268126e-03, -6.9825083017e-02, 
	-8.6407989264e-02,  9.4594974071e-03, -4.1049379855e-02, -1.4445772767e-01, -3.1125552487e-03,  3.4967258573e-02,  5.1582261920e-02, -1.0649960488e-01, -2.1025562286e-01, -5.2617672831e-02, 
	-1.5794661641e-01, -1.3690866530e-01, -1.2198402733e-01,  1.3218540698e-02,  5.9903580695e-02, -1.9614981115e-01, -1.4464086294e-01,  1.2267775834e-01, -2.2388762236e-01,  1.0561259836e-01, 
	 4.5440644026e-02,  1.8010541797e-02,  1.0034912825e-01, -2.7372085024e-03, -2.6561164856e-01, -9.2543587089e-02,  1.4582793415e-01, -6.5576918423e-03,  1.5625366569e-01,  3.6927539855e-02, 
	-8.4593497217e-02,  1.2894336879e-01,  1.1916253716e-02, -1.1740465462e-01, -5.9848879464e-03, -1.1742993444e-01,  3.4163698554e-02, -1.2007287145e-01, -6.9323807955e-02, -2.3315342143e-02, 
	-8.8840037584e-02,  2.4013828486e-02, -1.7362799495e-02,  6.3473828137e-02,  4.1375678033e-02,  3.9571910165e-03,  1.7811957747e-02, -3.9262872189e-02, -7.4564665556e-02,  1.3068549335e-01, 
	-3.3663939685e-02, -2.2015349939e-02,  6.4079076052e-02,  2.6193469763e-01, -4.0891930461e-02,  3.5037333146e-03,  1.6151288152e-01, -8.3211630583e-02, -4.7332555056e-02, -4.2167049833e-03, 
	-2.6856306195e-01,  4.4972456992e-02, -7.7265486121e-02, -1.2116769701e-01,  4.2450170964e-02,  2.4395328760e-01, -1.4529387467e-02,  9.2342286371e-04,  2.0687614381e-01, -2.5994855911e-02, 
	-1.1509338394e-02,  2.4843860418e-02,  1.6464112699e-01,  5.0762835890e-02, -7.7954761684e-02, -5.4716048762e-03,  6.7966870964e-02,  4.0562003851e-02, -2.5048458576e-01,  4.9558173865e-02, 
	 2.7532321215e-01, -2.1025736630e-01,  8.3945319057e-02,  1.6839404404e-01,  2.0793369412e-01, -6.2094006687e-02, -3.3242028207e-02, -2.0418420900e-03, -1.9646899309e-03, -2.1968977526e-02, 
	-5.2127514035e-02,  9.1385573149e-02, -3.4451667219e-02, -2.6344981790e-01,  2.7966387570e-02,  1.1342721991e-02,  1.3009978831e-01,  1.1727792770e-01, -6.9313630462e-02,  1.7216148973e-01, 
	 5.6362796575e-02,  1.5237851068e-02,  9.1189751402e-03,  9.1029018164e-02,  1.9262279570e-01,  7.6223760843e-03, -8.1161305308e-02,  2.9028404504e-02,  7.1840104647e-03,  6.9062978029e-02, 
	 1.4130809577e-03, -6.1497148126e-02,  5.6111589074e-02, -1.3822527230e-01,  3.0579334497e-01,  4.4750896096e-01,  5.1044398546e-01,  3.1223410368e-01,  5.1224720478e-01,  6.0454905033e-01, 
	 5.8500838280e-01,  6.8047082424e-01,  7.7182799578e-01, -1.9289566576e-01, -2.5577729568e-02,  9.5438428223e-02,  5.8881733567e-02,  6.4120121300e-02,  7.7636271715e-02,  4.1165698320e-02, 
	-3.2275833189e-02, -1.2726793997e-02, -1.2073604017e-01,  1.1938971467e-02, -5.8637239039e-02, -1.2534020841e-01, -6.6145256162e-02, -2.6608395576e-01, -1.3465507329e-01, -2.2762662172e-01, 
	-3.4227406979e-01,  2.1840178967e-01,  1.9208793342e-01, -1.8553268164e-02, -2.1677520126e-02,  2.0956158638e-01,  1.5511509776e-01,  1.9303955138e-01,  1.1272291094e-01,  1.7902223766e-01, 
	-2.7423784137e-01, -4.3656937778e-02, -2.0596180856e-01, -5.9542138129e-02, -1.0985476524e-01,  3.1228141859e-02, -8.2644410431e-02, -1.0262966156e-01, -6.8263756111e-03,  1.2666189671e-01, 
	-1.2212065607e-01,  1.0612546653e-01, -2.8377337381e-02, -4.6694181859e-02,  2.0556855947e-02,  1.3801221550e-01,  1.7372986674e-01,  2.8426724672e-01, -5.1298100501e-02, -5.6088499725e-02, 
	-5.6100077927e-02,  3.9949757047e-03, -2.6391379535e-02,  2.6080297306e-02,  4.2328350246e-03, -6.9181971252e-02,  3.7921160460e-02,  5.9982273728e-02,  3.6779422313e-02, -4.4164318591e-02, 
	-1.8623858690e-02,  8.5325688124e-02, -1.0294497758e-01,  1.8606113270e-02, -1.1887295404e-03,  1.5522695147e-02, -3.3010002971e-01, -7.8977689147e-02, -1.1258687824e-02, -2.1060498059e-01, 
	-1.3229984045e-01, -1.6654159129e-01,  1.3605098240e-02, -7.9122766852e-02,  1.7065045238e-01, -1.4500515163e-01, -1.2491062284e-01,  9.1050900519e-03, -2.1954681724e-02,  9.1634988785e-02, 
	-2.4841114879e-02,  1.0116365552e-01,  8.0062709749e-02,  5.0751771778e-02, -3.3886879683e-01, -1.2328430265e-01,  1.0630652308e-01, -2.8629449010e-01, -3.4884989262e-01, -6.4021453261e-02, 
	-2.1950256824e-01, -1.3055609167e-01,  2.1205168217e-02, -1.7819562554e-01, -5.9917278588e-02,  2.2000990808e-02, -3.0011713505e-01, -1.6645367444e-01, -1.9635304809e-01, -1.5859332681e-01, 
	-4.1019815952e-02,  1.5282674134e-01,  2.0587913692e-01,  9.3737974763e-02,  2.1151338518e-01,  6.8926885724e-02,  1.0288960487e-01,  2.0339602232e-01,  1.7392748594e-01, -3.6568820477e-02, 
	-2.0642640069e-02,  2.9206359759e-02,  1.0884843022e-01, -1.3028381765e-01, -6.8004578352e-03, -4.7919504344e-02,  6.2729813159e-02, -1.0588928312e-01,  4.4371359050e-02,  6.7902110517e-02, 
	-8.6273483932e-02, -1.6343165934e-01, -1.1205776036e-01, -1.9438652694e-01, -2.9305690527e-01, -3.2710069418e-01, -2.4867261946e-01, -3.0130469799e-01, -3.4428030252e-01, -2.5749256834e-02, 
	 8.5251547396e-02,  2.3098058999e-01,  1.0411484540e-01, -1.9566379488e-02,  1.8001373112e-01,  1.2771511078e-01,  2.4638069794e-02,  9.1641172767e-02, -5.2178863436e-02, -8.8978804648e-02, 
	-1.0295513086e-02,  2.0280694589e-02,  1.9871989265e-02,  7.5502507389e-02,  2.7141252533e-02, -8.4569156170e-02, -2.0249184221e-02,  5.0383555889e-01,  3.2122987509e-01,  2.5227496028e-01, 
	 2.8629317880e-01,  2.6991263032e-01,  3.4344992042e-01,  3.4483602643e-01,  2.0548899472e-01,  1.1173721403e-01,  2.8670883179e-01,  2.0448671281e-01,  4.7361217439e-02, -1.3888847828e-01, 
	 1.4674583077e-01,  8.9940145612e-02, -3.3331900835e-01, -9.3818761408e-02,  4.6126250178e-02, -7.9449042678e-02, -7.1230731905e-02, -2.7690591291e-02, -9.3844771385e-02, -8.2907572389e-02, 
	 3.1948652118e-02, -1.4208951592e-01,  1.1633465998e-02, -2.7954565361e-02,  5.1256060600e-02,  3.7206001580e-02,  7.0152454078e-02,  6.4776755869e-02,  1.0072853416e-01, -1.8728924915e-02, 
	 8.7695442140e-02,  5.6929033250e-02, -1.5537894331e-02, -1.9765578210e-01, -2.3772893846e-01, -2.3983889818e-01, -6.9369085133e-02,  3.0047334731e-02, -1.1800058931e-01,  1.5847857296e-01, 
	 1.7899347842e-01,  8.8176906109e-02, -8.8957279921e-02, -1.4208339155e-01, -1.7792512476e-01, -5.4940372705e-02, -1.4265108109e-01, -9.4112262130e-02, -6.0373665765e-03,  1.4623238146e-01, 
	-4.4400937855e-02,  1.1352556199e-01,  1.2729227543e-01, -1.4338788576e-02,  1.2297020108e-01,  1.8441636860e-01,  3.7473902106e-02,  5.8239733335e-04,  3.8304835558e-02, -3.1007125974e-02, 
	-1.1263948679e-01,  2.0924843848e-02, -7.4126916006e-03, -1.3157646358e-01,  9.0978249907e-02,  4.0055047721e-02, -7.9730637372e-02, -1.2658528984e-01, -1.4642158151e-01,  3.3930096030e-01, 
	 4.3965828419e-01,  4.6394750476e-01,  4.0311232209e-01,  4.9456113577e-01,  2.6424643397e-01,  3.7223777175e-01,  4.0055334568e-01,  4.3264624476e-01, -1.0981875658e-01, -8.9757487178e-02, 
	-8.6146712303e-02, -1.8543940783e-01, -8.1708073616e-02, -1.7831267416e-01, -4.0311612189e-02,  3.1867753714e-02, -2.5652702898e-02,  5.6574229151e-02,  7.3636658490e-02, -2.1131569147e-01, 
	 5.1740478724e-02, -5.0256017596e-02, -4.9950439483e-02, -1.1466415972e-01,  3.9610471576e-02,  8.9174062014e-02,  2.3977237940e-01,  3.8170447946e-01,  1.2056234479e-01,  1.3340179622e-01, 
	 7.8588373959e-02,  3.1048864126e-01,  5.1724508405e-02,  1.4000637829e-01,  7.6127924025e-02, -2.0160815120e-01, -9.6494900063e-03,  1.3169233687e-02, -3.0220913887e-01, -2.1056806669e-02, 
	 4.2273759842e-02, -6.7990437150e-02,  9.9602438509e-02,  4.3545808643e-02,  2.0688196644e-02, -5.8016154915e-02,  3.4797716886e-02, -6.9221965969e-02, -1.3057714701e-01,  2.4878108874e-02, 
	 4.2389333248e-02,  4.9614783376e-02,  8.1125162542e-02,  1.7938338220e-01,  8.0990102142e-03,  1.1762076616e-01,  2.1582354605e-01,  1.0639011115e-01, -4.3026767671e-02,  2.4881224334e-01, 
	-8.0585731193e-03,  2.5731187779e-03, -6.2664681673e-01, -4.7653725743e-01, -1.6195394099e-01, -2.5834584236e-01, -1.3133303821e-01,  1.2698663771e-01,  2.2153097391e-01,  1.2174749374e-01, 
	 1.7651979625e-01, -2.6970673352e-02,  8.0972440541e-02,  1.1807692237e-02,  1.0910771042e-01,  8.9315332472e-02,  3.2013803720e-03,  4.6570885926e-02, -9.2999920249e-02, -1.0223179311e-01, 
	-4.8376508057e-02,  4.2049378157e-02, -5.0824236125e-02,  6.9277867675e-02,  1.9102459773e-02,  8.5690319538e-02,  5.7674102485e-02,  3.3252473921e-02, -5.6470505893e-02,  5.6174255908e-02, 
	-7.5912103057e-02, -2.0666638017e-01,  1.0217397660e-01,  4.4197309762e-02, -1.3994833827e-01,  3.1194379926e-01,  2.3987452686e-01, -1.7374168336e-01, -1.5383863449e-01, -7.6307564974e-02, 
	-5.9794388711e-02,  2.1196042001e-01, -3.2007530332e-02, -2.4552610703e-03,  2.3442679644e-01,  2.1847787499e-01,  2.1783076227e-04,  2.2273704410e-01,  1.0267404467e-01,  2.2806839645e-01, 
	 1.5894335508e-01,  6.8270057440e-02,  1.6524608433e-01,  5.2408784628e-02,  1.2955492735e-01,  1.3759502769e-01, -1.8099729717e-01, -1.7193309963e-01, -3.8208836317e-01, -1.0170029849e-01, 
	-6.0742743313e-02, -2.4607920647e-01, -4.1103604436e-01, -2.8409057856e-01, -5.6864775717e-02,  1.3794665039e-01,  1.3070203364e-01,  1.2526288629e-02, -3.0225850642e-02,  6.0770321637e-02, 
	-1.0026725009e-02,  1.8153138459e-01,  5.9557177126e-02, -1.2569049001e-01, -5.9380576015e-02, -9.2831246555e-02,  4.2532138526e-02, -2.5384742022e-01, -7.1155868471e-02,  1.4194509014e-02, 
	-1.4031332731e-01, -6.3256144524e-02, -2.4961352348e-02, -8.1497929990e-02, -1.1272977293e-01, -1.8195739016e-02,  1.1190822721e-01, -1.6552081332e-02,  2.2567525506e-02, -8.4844483063e-03, 
	 5.4939098656e-02,  4.2527426034e-02,  2.8931427002e-01,  1.4154273272e-01,  7.6199442148e-02,  1.8569685519e-01, -4.2527861893e-02,  1.3023704290e-01,  9.3920968473e-02, -5.0945011899e-03, 
	 1.6762554646e-02, -1.5353809297e-01, -1.0067950934e-01,  5.2737407386e-02, -1.6786919534e-01, -4.1780886240e-03,  1.9317789376e-01, -3.0270159245e-01, -1.2897334993e-02,  2.8307008743e-01, 
	 5.0979681313e-02, -1.8642309308e-01, -1.4765821397e-01, -1.6369934380e-01, -1.0520187765e-01, -5.5611211807e-02, -4.1999537498e-02, -5.6303791702e-02,  3.0052257702e-02, -2.2361227870e-01, 
	-1.3091458380e-01, -3.3152200282e-02,  1.1097427458e-01, -2.2241465747e-02,  1.6894410364e-03,  2.0211170614e-01, -3.4856904298e-02, -1.6572237015e-01,  2.4778065085e-01, -2.2224068642e-02, 
	 6.5919652581e-02,  1.9314181805e-01, -9.1373547912e-02,  8.8476566598e-03,  1.1791831255e-01,  3.3498894423e-02,  4.3875575066e-02,  1.9075430930e-01, -5.1363561302e-02, -8.3875849843e-02, 
	 1.2799668312e-01, -1.2980241328e-02,  1.5082475729e-02, -1.5572033823e-01, -3.1561262906e-02, -7.6925992966e-02,  1.7533292994e-02, -4.5046331361e-03,  5.4747439921e-02, -7.3840163648e-02, 
	 6.1898063868e-03, -2.0087894518e-03, -2.0508749876e-03, -7.7072069049e-02,  1.2595945597e-01,  1.9668315351e-01,  1.2141222507e-01, -3.2543521374e-02,  8.7059214711e-02,  7.6625987887e-02, 
	 8.0276422203e-02,  1.6954748333e-01,  4.6521123499e-02,  2.8152298927e-01,  9.4174996018e-02,  3.9767127484e-02,  7.1728639305e-02,  2.1483954042e-02, -5.2739866078e-02,  2.0187962055e-01, 
	 2.3175245151e-02,  5.4344693199e-03,  2.3861241341e-01,  9.0703152120e-02,  5.9653576463e-02,  1.5495985746e-01,  1.0231507570e-01,  6.0987412930e-02,  1.4883935452e-01, -1.8133107573e-02, 
	 7.5197905302e-02,  1.2714992464e-01, -2.4748461321e-02,  1.9978715107e-02,  2.9874825850e-02, -7.7204711735e-02, -1.1421732605e-01,  5.3004838526e-02,  5.4080192000e-02,  9.7772292793e-02, 
	 4.3807059526e-02,  1.2356325239e-01, -2.2777628154e-02, -1.8199516833e-01,  4.4488683343e-02,  6.1298355460e-02,  3.4298948944e-02,  2.2560568526e-02, -4.5471221209e-02,  9.5088750124e-02, 
	 8.1609167159e-02,  1.4906983078e-01,  4.0654566139e-02, -2.5273619220e-02,  1.2622774811e-03, -1.0657028109e-01,  8.2914836705e-02,  8.0299876630e-02, -1.1608214676e-01,  1.0657546669e-01, 
	-4.2251325212e-03,  2.0258288831e-02,  1.9231272861e-02, -2.3377315700e-01, -6.4865037799e-02, -5.3509317338e-02, -6.3645355403e-03, -5.8905754238e-02,  3.5987939686e-02,  3.9210256189e-02, 
	 3.3423613757e-02, -3.0709555373e-02,  1.8234312534e-02,  2.0452726632e-02, -3.1867008656e-02, -3.7219908088e-02, -7.9809777439e-02, -8.1961527467e-02, -9.6650677733e-04,  7.3867924511e-02, 
	 4.7710180283e-02, -9.3687959015e-02, -1.6356828809e-01,  1.3241504133e-01,  1.5290454030e-01, -8.2775190473e-02, -2.6882631704e-02,  1.7578092217e-01,  2.4009604752e-01, -4.6309459955e-02, 
	 1.1690714210e-01,  1.1018964648e-01, -1.8260605633e-02,  1.9342820160e-03, -7.6261617243e-02,  1.0812401772e-01,  8.8020958006e-02, -1.3315919042e-01,  1.0028826445e-01, -1.8208350986e-02, 
	-1.6815362871e-01,  2.0214106143e-01,  1.8000392616e-01, -6.6175937653e-02, -2.6067560911e-01, -8.9809317142e-03,  6.0505907983e-02, -1.2880265713e-01,  7.8719846904e-02,  1.2503021955e-01, 
	-2.4835918844e-01,  6.2420222908e-02,  3.0037719011e-01,  2.1660065651e-01,  7.1857295930e-02,  9.0741500258e-02,  2.7317646146e-01,  2.3162980378e-01,  1.0385586321e-01,  8.9524291456e-02, 
	 1.2491099536e-01,  6.7115791142e-02, -1.3288997114e-01, -5.1174938679e-02, -1.4899498783e-02,  4.9455419183e-02,  1.3434515893e-01, -8.2431100309e-02,  7.2015568614e-02,  1.6455205157e-02, 
	 5.4767929018e-02,  1.1288189888e-01, -5.4921500385e-02, -2.9036611319e-01, -1.1722064763e-01, -1.0725016892e-01, -4.4601130486e-01, -3.3808925748e-01, -5.2883726358e-01, -4.8513829708e-01, 
	-7.1571342647e-02, -1.2919294834e-01, -8.5194990039e-02, -3.5186301917e-02,  1.2546325102e-02,  6.6577486694e-02, -1.8422642024e-03,  5.9695918113e-02,  3.7226945162e-01, -9.5058299601e-02, 
	-7.4964538217e-02, -3.1396383047e-01, -7.2732470930e-02, -2.5193166733e-01, -1.0768733174e-01, -4.5228344388e-03, -1.2818750925e-02, -1.5024593472e-01, -1.6589438543e-02,  8.4842793643e-02, 
	-4.6182360500e-02, -2.6829856634e-01, -7.8191593289e-02, -1.6152407229e-01, -1.3576169312e-01, -1.8088239431e-01, -1.6768002510e-01,  1.0393235087e-01,  1.8389698863e-01,  8.2057155669e-02, 
	-5.4638441652e-02, -1.0305332392e-01, -1.2274029851e-01, -1.9375368953e-01, -2.1169152856e-01, -2.0568688214e-01, -5.0047360361e-02,  1.2317836285e-01,  2.0320518315e-01,  1.6119349003e-01, 
	 1.7951682210e-02,  2.8410097957e-01,  2.7358672023e-01,  1.9762632251e-01,  2.4305613339e-01, -1.2896196544e-01,  7.3418810964e-02,  6.2009520829e-02, -4.0170349181e-02,  1.1009617150e-01, 
	-1.7453720793e-02,  1.0755038261e-01, -6.9155283272e-02,  8.4019489586e-02, -1.1046028882e-01, -2.5870054960e-01, -3.0793634057e-01, -4.8221781850e-02, -3.4168401361e-01, -4.4175806642e-01, 
	-1.1438481510e-01, -2.6793447137e-01, -4.2921444774e-01,  1.6690646112e-01,  2.2889962792e-01, -2.5601672009e-02,  3.5503286868e-02,  1.1430303007e-01,  2.4087782204e-01, -2.2239454091e-01, 
	 1.5988273546e-02,  3.7802845240e-01,  1.2453685701e-01, -2.4778049439e-02,  4.9210429192e-02,  2.7512965724e-02,  3.9046354592e-02,  3.3701840043e-01,  5.5643253028e-02,  2.1527306736e-01, 
	 4.4328114390e-01,  3.5423105955e-01,  1.5997058153e-01,  2.2838489711e-01,  3.1178504229e-01,  2.8267383575e-01,  4.4829720259e-01,  6.2600916624e-01,  5.6255483627e-01,  4.0591967106e-01, 
	-6.6488675773e-02, -1.9717639312e-02, -8.0495946109e-02,  8.3389282227e-02,  6.5785937011e-02, -2.3844219744e-01,  1.2487635761e-01, -2.9079530388e-02, -1.5450474620e-01,  1.5171124041e-01, 
	 1.0311438888e-01,  2.3989884555e-01,  9.5998317003e-02,  1.5382526815e-01,  2.2764798999e-01,  1.2997497618e-01,  1.4906221628e-01,  2.0064814389e-01, -1.0693599284e-01,  1.3821376488e-02, 
	-2.1464284509e-02,  6.4218766987e-02, -4.8028575256e-03,  6.6863238811e-02,  2.8401153162e-02, -1.3993389904e-01, -1.5672755241e-01, -6.1317685992e-02,  3.2039818168e-01,  6.6421329975e-01, 
	 3.5925462842e-01,  4.3656185269e-01,  6.6399484873e-01,  2.2208327055e-01,  3.8837984204e-01,  3.0451124907e-01,  5.2768211812e-02,  9.9559232593e-02,  1.9800674170e-02,  2.7817273512e-02, 
	 7.9595439136e-02,  2.2813549265e-02, -3.5573255271e-02, -3.2793082297e-02, -5.0074420869e-02, -5.2908194065e-01, -3.1657937169e-01, -1.5756423771e-01, -2.3196433485e-01, -2.6838287711e-01, 
	-1.6635523736e-01, -2.7526959777e-01, -2.1453918517e-01, -2.3707185686e-01, -5.4186247289e-02,  5.4818961769e-02,  2.7256784961e-02,  4.9355134368e-02,  7.0813730359e-02,  1.5260015428e-01, 
	-1.1451236904e-01, -4.3476261199e-03,  1.5137010813e-01, -1.2704122066e-01, -1.0880587250e-01,  9.3543194234e-02, -1.4658491313e-01, -1.7518001795e-01, -2.0102635026e-01, -7.0190288126e-02, 
	 5.8247499168e-02,  5.6189235300e-02,  1.0466429591e-01,  1.4876748621e-01,  9.5778428018e-02, -4.2784441262e-02,  2.0159444213e-01,  1.0047719814e-02,  1.0344817489e-01,  1.5184329450e-01, 
	 1.4570051432e-01,  3.0610989779e-02, -5.8218576014e-02, -3.8312524557e-02, -7.8931428492e-02, -5.7584006572e-04, -1.2419729680e-01,  6.6071756184e-02,  6.9682300091e-02,  3.0616125092e-02, 
	 1.1874137074e-01,  1.0785788298e-01,  3.5192918777e-01,  9.7979992628e-02,  2.8042176366e-01,  3.8658982515e-01, -6.3912808895e-02,  7.2934918106e-02,  3.2752054930e-01,  7.0442348719e-02, 
	 2.7171111107e-01,  1.4793479443e-01,  2.6172483340e-02,  1.5082025528e-01,  9.8083816469e-02,  6.0611240566e-02, -1.2643095106e-02,  8.8698409498e-02, -5.9055285528e-03,  1.7174223438e-02, 
	 4.9119200557e-02, -1.4500349760e-01, -1.3387164474e-01, -1.5201665461e-01, -1.3417305425e-02, -2.2773706913e-01, -2.5689610839e-01,  4.1253700852e-01,  4.4080045819e-01,  6.5699064732e-01, 
	 3.1734701991e-01,  2.7434986830e-01,  4.9426057935e-01,  2.1303443611e-01,  3.5349962115e-01,  3.9003857970e-01, -2.0131824538e-02,  2.1617648005e-01,  1.0404725373e-01,  7.6872646809e-02, 
	-1.5935722739e-02, -5.7195682079e-02,  8.7184816599e-02,  1.3564608060e-02,  2.4256687611e-02,  3.2837176323e-01,  3.8876619935e-01,  3.8809564710e-01,  3.4628570080e-01,  3.6131548882e-01, 
	 2.3895776272e-01,  3.3624863625e-01,  2.5722223520e-01,  3.2553496957e-01,  1.6491539776e-01, -1.6327458620e-01,  2.9167002067e-02,  1.9554224610e-01, -1.0455197841e-01, -5.4096177220e-02, 
	 7.8965704888e-03, -5.0675556064e-02, -2.1701252460e-01, -9.6347659826e-02, -1.6285498440e-01,  2.0099995658e-02, -1.1892232299e-01, -1.2852236629e-01, -9.0532399714e-02, -2.6757717133e-01, 
	-3.6079055071e-01, -3.1128457189e-01,  1.6715717316e-01,  1.9040827453e-01,  2.6922643185e-01,  2.1844284236e-01,  9.6853770316e-02, -2.2624949925e-03, -2.2725084797e-02,  2.0807113033e-03, 
	 1.0747957230e-01, -2.3985667527e-01, -2.2519919276e-01, -9.4372205436e-02, -3.4016287327e-01, -2.1718843281e-01, -3.4388545156e-01, -3.0609983206e-01, -2.6101082563e-01, -1.5728706121e-01, 
	 5.1397180557e-01,  4.5464238524e-01,  2.3716869950e-01,  5.2108675241e-01,  3.6684265733e-01,  2.4865253270e-01,  3.1664821506e-01,  3.3733448386e-01,  4.0437990427e-01, -1.7742784321e-01, 
	-2.8939386830e-02,  8.3205863833e-02, -9.6479721367e-02, -2.4383889139e-01, -5.4761219770e-02, -1.3604740798e-01, -3.0942870304e-02, -1.2006445974e-01,  1.0027845204e-01, -2.2520603612e-02, 
	-2.8431670740e-02,  6.3917182386e-02,  1.1550860479e-02, -5.6271176785e-02, -1.3016263023e-02,  7.7150925994e-02,  6.7627273500e-02, -1.0938925296e-01,  2.5018556044e-02,  1.5600051265e-03, 
	-2.1805228293e-01, -1.2367224693e-01, -1.3945962489e-01, -2.0825180411e-01, -1.7993073165e-01, -3.3080783486e-01,  1.7279495299e-01,  1.1674986780e-01,  1.0717823356e-01,  6.3656173646e-02, 
	 1.4002420008e-01,  1.8789546192e-01,  4.6662013978e-02,  1.4473587275e-01,  2.5871390104e-01,  2.3907974362e-01,  2.5461411476e-01,  2.2311900556e-01,  3.3720827103e-01,  3.9254376292e-01, 
	 4.4397729635e-01,  4.5299944282e-01,  4.0423673391e-01,  6.0922229290e-01,  1.9082399085e-02,  1.3851541281e-01,  1.0788821429e-01,  1.1567014735e-03,  1.2923875451e-01,  1.9326750934e-01, 
	-7.5950808823e-02, -1.1934161186e-01,  5.5311270058e-02, -2.5550561026e-02, -1.1013292521e-01, -5.4550915956e-02, -8.3421111107e-02, -1.4194664545e-02,  2.2575441748e-02, -3.0559699982e-02, 
	-1.3557353616e-01,  3.2570049167e-02, -1.5240403824e-02,  3.5021994263e-02, -6.3746966422e-02, -1.1529880017e-01, -1.3373903930e-01,  4.7761234455e-03, -1.3841672242e-01, -1.7040397227e-01, 
	-2.4529427290e-01,  1.6538438201e-01,  4.4122368097e-02,  2.1515761316e-01,  2.8871199489e-01,  1.0779221356e-01,  1.1558302492e-01,  2.7744975686e-01,  2.7784460783e-01,  1.3805088401e-01, 
	-1.0127467103e-02, -3.0147964135e-03, -5.5672258139e-02,  2.1684376523e-02,  4.5921164565e-03,  6.0081679374e-02,  5.0707429647e-02, -2.8922662139e-02, -9.7014062107e-02,  1.2673425674e-01, 
	 1.5868271887e-01,  5.9540487826e-02,  1.6849489510e-01,  9.8349601030e-02,  1.1555358768e-01,  5.5759178940e-04,  3.0257001519e-02,  2.1787053347e-01,  3.4182015806e-02,  1.1224248447e-02, 
	-1.0939829797e-01, -9.8902791739e-02, -3.8693651557e-02,  6.6857531667e-02, -4.0500346571e-02,  5.6938283145e-02, -7.7357895672e-02,  2.4617713690e-01,  1.7809981108e-01,  9.2845678329e-02, 
	 1.4999228716e-01,  3.0094802380e-01,  2.8830623627e-01,  2.4555054307e-01,  2.8817120194e-01,  2.5523677468e-01, -1.1073429137e-01,  4.3730668724e-02,  9.1886460781e-02, -6.7515149713e-02, 
	-2.0999785513e-02,  3.0555108562e-02,  9.7724400461e-02,  6.7831061780e-02, -2.2374197841e-02,  1.0333983600e-01, -5.9784211218e-02,  4.4061753899e-02, -7.4143245816e-02, -8.9727059007e-02, 
	 2.1796526387e-02, -6.0536731035e-02, -4.8412337899e-02,  3.0550733209e-02,  1.2786962092e-01,  2.0411936939e-01,  1.0445432365e-01,  1.6907319427e-01,  8.3113983274e-02,  1.0180649906e-01, 
	 1.8131251633e-01,  1.9931641221e-01,  1.6902624071e-01,  1.1498642154e-02,  4.2743425816e-02,  7.1142770350e-02, -1.3472762704e-01,  9.4478502870e-02,  6.7490972579e-02, -3.2555919886e-01, 
	 4.8169333488e-02,  1.2670555711e-01, -4.7258242965e-02,  4.5674424618e-02, -2.5329548120e-01,  6.6781736910e-02,  9.5032848418e-02,  2.9306450859e-02, -5.2465952933e-02, -1.5931548178e-01, 
	-1.9243746996e-01,  2.6349252462e-01,  2.8802809119e-01,  2.0004308224e-01,  8.9347243309e-02,  1.1429744214e-01,  6.1591498554e-02,  1.1003025621e-01,  1.9781294465e-01,  7.9335726798e-02, 
	-2.3727127910e-01, -3.0057039857e-01, -2.3390047252e-01, -1.5581361949e-01, -1.0756084323e-01, -7.7250853181e-02, -1.6688174009e-01, -2.0738017559e-01, -2.4401296675e-01,  3.7488824129e-01, 
	 3.8219487667e-01,  3.7496244907e-01,  4.9815192819e-01,  3.8714188337e-01,  3.4714677930e-01,  3.9709424973e-01, -1.3867804781e-02,  4.6615879983e-02,  1.4857302606e-01, -1.6600890458e-01, 
	-5.7035684586e-02,  1.9977527857e-01,  6.2724106014e-02, -1.0692399740e-01,  2.4532780051e-01,  2.7648329735e-01,  3.4520173073e-01,  2.0114386454e-02,  1.0479153134e-02,  1.5751668811e-01, 
	-1.9224444404e-02,  1.0374108702e-01, -1.7784958705e-02, -6.8528003991e-02, -1.3378182054e-01,  1.5242296457e-01,  6.1534862965e-02,  3.2684445381e-02, -1.9845845178e-02, -8.3798334002e-02, 
	 1.1128295958e-01, -1.1939390749e-01, -7.2101704776e-02,  4.5729771256e-02,  9.4927132130e-02,  4.4918936491e-01,  3.1546360254e-01,  3.2149448991e-01,  4.3850740790e-01,  1.4583440125e-01, 
	 1.7544478178e-01,  3.5563755035e-01,  1.7884264886e-01,  1.4374408126e-01,  1.2082083523e-01,  1.6689665616e-01, -4.6398755163e-02,  1.3458803296e-01, -1.4934086800e-01, -1.1401438713e-01, 
	-1.7982769012e-01, -2.4231438339e-01, -2.1098338068e-01,  2.2558048368e-02,  4.2056731880e-02,  6.4088985324e-02, -1.5050318837e-01,  4.3463204056e-02,  1.6417424381e-01, -2.3394173384e-01, 
	-2.2857022285e-01,  4.2226262391e-02,  2.6402792335e-01, -1.3893740252e-02, -8.8501162827e-02,  1.2475150079e-01, -3.1402487308e-02,  3.0200805515e-02, -5.5052820593e-02,  7.2031185031e-02, 
	-2.8737757355e-02, -3.1035804749e-01, -1.4063986950e-02,  2.2888316214e-01,  6.6459640861e-02, -1.0480219871e-01, -2.6457235217e-02, -1.3568706810e-01, -1.9499057531e-01,  2.8882948682e-02, 
	 5.1241058856e-02,  9.2533044517e-03, -1.1985579878e-01, -9.7741946578e-02, -1.0563503206e-01, -1.2484724075e-01, -6.7155480385e-02,  7.3818542063e-02, -2.8290610760e-02, -1.7155490816e-01, 
	 2.6273023337e-02,  1.9708264153e-03, -1.1529273540e-01, -1.1947618425e-01, -1.3662843406e-01, -1.0662426054e-01, -8.9399136603e-02, -2.0993229747e-01, -5.1582914591e-01, -4.0033864975e-01, 
	-2.1610258520e-01, -2.6154717803e-01, -2.7597835660e-01, -1.1326850951e-01, -3.6623162031e-01, -1.9397900999e-01, -8.4128729999e-02,  3.1530708075e-01,  2.1636654437e-01,  4.1318726540e-01, 
	 4.3070212007e-01,  2.5009924173e-01,  4.0146198869e-01,  4.6479699016e-01,  5.2100402117e-01,  2.2846594453e-01,  2.3020458221e-01,  2.1704469621e-01,  1.9230335951e-01,  1.5047001839e-01, 
	 2.3078514636e-01,  1.8697994947e-01,  9.4240866601e-02,  3.0298569798e-01,  2.1853198111e-01,  4.2382666469e-01,  5.8208131790e-01,  3.9158502221e-01,  4.8603335023e-01,  4.2444780469e-01, 
	 3.8440102339e-01,  3.7081205845e-01,  5.1018399000e-01,  3.5617285967e-01, -3.7698801607e-02,  4.9461543560e-02, -3.0385090038e-02, -1.0339607298e-01,  2.8486600146e-02,  5.0039082766e-02, 
	-1.8738423288e-01, -7.5937979855e-03,  1.3693489134e-01, -1.4951147139e-02, -9.0270377696e-03,  2.6053739712e-02,  2.6861928403e-02, -1.4125889540e-01, -2.0003773272e-02,  5.1936913282e-02, 
	 5.1715608686e-02, -3.5848982632e-02,  9.6885226667e-02,  4.7590315342e-02,  5.7113494724e-02,  2.0327001810e-02, -5.8942686766e-02, -6.3012637198e-02, -5.9494588524e-02, -1.6237992048e-01, 
	 2.0437551662e-02, -4.0574982762e-02, -7.3713913560e-02,  1.6292172670e-01,  2.2092458606e-01,  1.5722258389e-01,  1.2328790873e-01,  2.1562474966e-01,  1.2200440466e-01, -5.0057463348e-02, 
	-2.4056893587e-01, -2.3424184322e-01,  3.5156548023e-02, -8.8923096657e-02,  5.0057966262e-02,  9.3860819936e-02,  1.2798069417e-01,  1.5697234869e-01,  1.3087673485e-01,  1.0316947103e-01, 
	 1.6612955928e-01,  6.4204372466e-02,  1.7704807222e-01,  7.8130632639e-02,  1.7228876054e-01,  1.7844668031e-01,  9.5675559714e-03,  6.0098357499e-03,  4.2892545462e-02, -9.8190329969e-02, 
	-3.3770460635e-02, -1.8820796907e-01, -1.3231246173e-01, -3.5455930978e-02, -1.8204344809e-01, -1.0470008105e-01, -1.2339067459e-01, -2.5402781367e-01, -1.5082423389e-01, -1.0773600638e-01, 
	-1.0599746369e-02, -2.0449766889e-02,  9.8158851266e-02,  4.1641559452e-02,  2.4155661464e-01,  2.4993114173e-01,  1.6557772458e-01,  9.3231543899e-02, -5.9518583119e-02, -2.1494448185e-02, 
	 1.7101901770e-01,  7.8202031553e-02,  7.6013438404e-02, -3.4593906254e-02,  1.2988782255e-03,  6.6358656622e-03, -1.6205982864e-01,  7.9819947481e-02,  1.0779289901e-01, -6.7116446793e-02, 
	 5.0443273038e-02,  1.5702100098e-01,  4.3097663671e-02, -4.4670607895e-02, -2.7535241842e-01, -2.3083351552e-01, -1.6101339459e-01, -1.4428335428e-01, -2.5820475817e-01, -2.5541713834e-01, 
	-2.3786346614e-01, -3.3211532235e-01, -5.3981691599e-01, -9.3769460917e-02, -7.0661365986e-02, -7.2800572962e-03, -9.6566088498e-02,  3.8714647293e-02,  5.0335466862e-02,  1.9737932831e-02, 
	 6.1712898314e-02,  2.7180200443e-02, -8.0215543509e-02,  8.2968518138e-02,  1.3934430480e-01,  4.5129835606e-02, -6.7871548235e-02,  3.3489264548e-02, -8.0194950104e-02,  7.9461082816e-02, 
	 1.2523993850e-01,  8.3009578288e-02,  1.0758898407e-01, -8.5209891200e-02,  2.2900360823e-01,  1.6352516413e-01, -4.3498985469e-02,  1.5803050995e-01,  2.1702492237e-01,  1.6803834587e-02, 
	 1.6546241939e-01,  3.3376492560e-02,  6.6554792225e-02, -1.1369834095e-01, -9.2720277607e-02, -1.0190359503e-01,  4.3038714677e-02,  1.4457380772e-01,  4.5188233256e-02,  9.1021172702e-02, 
	-5.6540004909e-02,  6.9777883589e-02,  1.8874051049e-02, -9.5764711499e-02, -3.2562449574e-02, -1.5309177339e-01, -8.1172108650e-02,  7.7790790237e-03,  2.8664991260e-02, -1.9044239074e-02, 
	 9.8502814770e-02, -1.0452684760e-01, -6.7144379020e-02, -2.2708225995e-02,  1.2899170630e-02, -4.8594128340e-02, -1.0108645074e-02,  1.7793023959e-02,  1.5982367098e-01,  8.1389851868e-02, 
	-2.6036882773e-02,  1.6984161735e-01,  4.2772151530e-02,  1.8572274595e-02,  7.1624904871e-02,  1.0302849114e-01, -1.8219241500e-01, -4.3361093849e-02,  1.0817961395e-01,  6.3592374325e-02, 
	 8.6429633200e-02,  1.4095073938e-01,  1.0959946364e-01,  9.9562552350e-05,  1.3495753706e-01, -2.5139164180e-02,  4.2557615787e-02, -2.5716468692e-02, -1.8465489149e-01, -1.6394283623e-02, 
	 7.7379398048e-02, -4.3548725545e-02,  6.8768598139e-02, -4.3550677598e-02,  2.3620952666e-01,  1.5048347414e-01,  2.0156519115e-01,  2.4595995247e-01,  1.9086366892e-01,  2.0997747779e-02, 
	 8.9727960527e-02, -3.0146963894e-02, -6.8822212517e-02, -3.5520827770e-01, -1.2478262931e-01, -2.0208925009e-01, -2.5469115376e-01,  1.9219323993e-02, -1.9119222462e-01, -1.3055166602e-01, 
	-1.0878612101e-01,  5.4135106504e-02, -6.0965135694e-02, -1.2864910066e-02,  1.9161760807e-01, -5.2789028734e-02,  3.6668039858e-02, -8.8595673442e-02,  1.0242231935e-01,  3.1541403383e-02, 
	-5.9644717723e-02, -6.0564387590e-02, -1.1118455976e-01, -1.4224037528e-01, -9.5819786191e-02,  8.7268561125e-02,  2.7572194114e-02, -8.9073106647e-03,  1.4591407962e-02, -4.4349353760e-02, 
	-2.8287461028e-02, -6.0170542449e-02, -1.8588510156e-01, -7.0042274892e-02,  2.3815358058e-02,  7.3155455291e-02,  2.7708408237e-01,  1.3643321395e-01,  6.8081788719e-02, -1.7296113074e-01, 
	 3.8926176727e-02, -1.5880096704e-02,  1.4533580840e-01,  1.1702516675e-01,  1.3417162001e-01,  5.5022727698e-02, -7.1771973744e-03,  4.4806607068e-02, -1.6666911542e-01,  8.6667545140e-02, 
	-7.3975838721e-02, -1.9391813874e-01, -1.3348965347e-01, -1.0326471925e-01,  1.0206820816e-01, -1.0944608599e-01, -9.1500528157e-02, -2.8035646677e-01, -3.2236176729e-01, -8.0471530557e-02, 
	-7.8466832638e-02, -2.4872362614e-01, -3.7463197112e-01, -8.4169872105e-02, -3.4255689383e-01, -3.3811062574e-01,  1.1754053831e-01,  1.5739850700e-01,  1.4532918110e-02, -1.1481112242e-01, 
	-1.1433596909e-01,  1.0108635575e-01, -1.0173917562e-01, -8.2060493529e-02,  1.2323208153e-02, -4.1087429971e-02, -1.4702172577e-01, -8.3172887564e-02,  3.1315986067e-02, -3.4924615175e-02, 
	-3.9255797863e-02, -4.9639781937e-03,  1.4732790180e-02,  1.4844878018e-01,  1.4017219841e-01, -7.9441204667e-02,  3.8539983332e-02, -6.2215505168e-03, -7.3819741607e-02, -8.0826297402e-02, 
	 4.7290280461e-02,  1.2121334672e-01, -3.0372213572e-02, -2.6678478718e-01, -1.7392180860e-01,  2.8892597184e-02, -2.1502114832e-01, -1.1648717523e-01,  2.6804929972e-01,  4.9467459321e-02, 
	 3.7867867947e-01,  3.6289438605e-01, -2.1896211430e-02,  5.9078883380e-02, -4.5071723871e-03, -1.6084143519e-01,  9.4681359828e-02,  1.7943796515e-01, -3.1042629853e-02,  2.3909959197e-01, 
	 2.9508230090e-01,  5.6977909990e-03, -1.1680885218e-03,  1.6103416681e-01, -2.4273382500e-02,  6.5928146243e-02,  1.1194221675e-01, -1.1283431947e-01,  8.1980876625e-02,  1.6215530038e-01, 
	 2.8580635786e-01,  3.5162338614e-01,  8.4032990038e-02,  9.0593457222e-02, -1.2752857804e-01, -1.7826369405e-01, -9.4186007977e-02, -2.5908389688e-01, -2.7658063173e-01, -9.9907711148e-02, 
	 2.0792061463e-02, -1.1043756455e-01, -1.9527237117e-01, -2.6064630598e-02,  1.2968018651e-01, -7.4838265777e-02,  1.3711516559e-01,  1.8785810098e-03,  3.3261701465e-02, -4.0007121861e-03, 
	 5.0837043673e-02, -1.1435040273e-02,  4.8444278538e-02,  1.1708375067e-02,  8.6089342833e-02,  3.0589537695e-02, -1.4940544032e-02, -2.3921386898e-01, -4.9903236330e-02, -2.1511536092e-02, 
	-8.7586753070e-02,  1.9116947055e-01,  1.4646878839e-01,  2.6233149692e-02, -1.0047740489e-01, -7.9450510442e-02,  7.7160567045e-02, -1.0216446966e-01, -1.6619081795e-01,  9.4815611839e-02, 
	-1.3927438296e-02, -1.6055455804e-01, -8.0280244350e-02, -1.0239634663e-01,  7.9353377223e-03, -6.9425418973e-02, -1.0284873843e-01, -1.7347064614e-01,  1.0424341261e-01, -4.0601838380e-02, 
	-1.5696135163e-01,  1.1152388901e-01, -5.1902417094e-02, -1.2480412424e-01,  3.6423841119e-01,  3.4812739491e-01,  2.1784931421e-01,  2.9566752911e-01,  2.4849995971e-01,  4.2015427351e-01, 
	 3.5793656111e-01,  3.2836985588e-01,  3.7185966969e-01, -5.4505793378e-03, -6.2155425549e-03,  3.8264412433e-02,  1.2431267649e-01,  6.2819130719e-02,  2.0507591963e-01,  2.9407897592e-01, 
	 1.9456304610e-01,  9.4312228262e-02, -2.1097841859e-01,  9.3871876597e-02,  1.9676258788e-02, -2.6465034485e-01, -1.1492100358e-01,  1.7810497957e-04, -1.6881982982e-01, -2.3766416311e-01, 
	-5.5649518967e-02,  2.0340284705e-01,  2.0575492084e-01,  1.9957011938e-01,  1.4759865403e-01,  1.7135562003e-01,  2.5819581747e-01,  1.8075019121e-01,  4.3713975698e-02,  4.0185268968e-02, 
	-6.4966782928e-02, -1.8911236525e-01, -1.7234590650e-01, -1.1838718504e-01,  5.0454705954e-02, -3.2817430794e-02, -1.5131239593e-01, -1.1124876142e-01,  7.0724740624e-02, -3.1164598465e-01, 
	-3.8883107901e-01, -4.5613983274e-01, -2.9950165749e-01, -2.9951107502e-01, -2.5088775158e-01, -9.3835964799e-02, -2.8301599622e-01, -1.0066864640e-01,  4.6427968144e-01,  5.1887989044e-01, 
	 3.2638633251e-01,  6.6571867466e-01,  6.3508135080e-01,  6.2712496519e-01,  5.7546097040e-01,  6.3617813587e-01,  4.9981009960e-01,  2.2273795307e-01,  1.6878353059e-01,  3.2438394427e-01, 
	 2.4642756209e-02,  8.3342865109e-02,  8.2080988213e-03,  4.6725175343e-04, -1.7486207187e-02,  1.5154934488e-02,  3.0525633693e-01,  1.3772219419e-01,  2.3534102738e-01,  2.3462997377e-01, 
	 6.8868830800e-02,  3.3583596349e-02,  2.4645957351e-01,  2.7015343308e-01,  1.8074040115e-01, -2.9624307156e-01, -2.7494668961e-02,  7.3924064636e-02, -3.1430804729e-01, -1.3728800416e-01, 
	 3.6862351000e-02, -3.7235027552e-01, -1.6041213274e-01,  7.0193924010e-02, -9.4823859632e-02,  7.0696324110e-02,  1.6179695725e-02,  8.1747490913e-03,  1.0742335580e-02, -1.0222818702e-01, 
	 3.5979297012e-02, -1.8532542512e-02, -3.3352284227e-03, -4.1144289076e-02,  7.1357518435e-02,  1.2823899090e-01,  4.1812397540e-02, -1.1926674098e-01,  3.6154154688e-02,  4.9691092223e-02, 
	 2.2294575348e-02,  2.9188698158e-02, -1.5203072689e-03,  1.0255979747e-01, -6.7500062287e-02, -1.0346788913e-01,  5.7856120169e-02,  1.1939761043e-01, -2.0111589134e-01, -1.0959085822e-01, 
	-5.6968405843e-02, -3.0393486843e-02,  8.4028504789e-02,  8.5854694247e-02, -6.5298251808e-02, -3.8711693138e-02,  1.2564055622e-01, -2.2697956860e-01, -1.0689821094e-01,  4.6966366470e-02, 
	 4.0825322270e-01,  2.0463424921e-01,  2.8667488694e-01,  2.3353812099e-01,  3.4140318632e-01,  2.2501286864e-01,  4.2662158608e-01,  3.9276173711e-01,  3.6439409852e-01,  1.8847946823e-01, 
	 1.7407748103e-01,  4.6243123710e-02,  3.3158212900e-02,  1.1488901079e-01,  1.0453731567e-01,  1.1307757348e-01,  1.5946353972e-01,  1.7266410589e-01,  4.1945893317e-02, -1.0518199205e-01, 
	 4.4236914255e-03, -1.7516113818e-01, -1.1551164091e-01,  4.4823713601e-02, -6.6279597580e-02, -9.2687144876e-02, -1.1390721798e-01,  2.8811784461e-02, -4.8111353070e-02, -3.0521707609e-02, 
	-5.4571401328e-02, -1.8621486425e-01, -1.3446471095e-01, -4.4548520818e-03, -1.4798332751e-01, -1.9425109029e-01, -1.6238184273e-01, -9.2340283096e-02,  1.2390021980e-01, -9.1400049627e-02, 
	-3.3885672688e-02,  5.8250285685e-02, -3.3254027367e-02,  3.4967623651e-02, -2.1697869524e-02,  4.5981248841e-03, -3.8692951202e-02, -2.0964847505e-01, -6.8281583488e-02, -1.3316145539e-01, 
	-1.6014340520e-01,  8.9778319001e-02, -8.3902508020e-02, -2.2095495462e-01,  1.0126240551e-01,  2.8442772105e-02, -2.9872840270e-02,  2.8494514525e-02, -4.8803593963e-02, -1.1004810221e-02, 
	 6.5462164581e-02, -1.5097272396e-01, -9.9446717650e-04, -1.8304204941e-01, -1.8616379797e-01, -1.0823477805e-01,  5.6160081178e-02, -1.5852618217e-01, -7.8833162785e-02,  4.3559029698e-02, 
	-1.1404182762e-01, -1.0385216027e-01, -2.4339029193e-01, -1.6419519484e-01, -4.6028867364e-01, -3.0639153719e-01, -2.9964652658e-01, -9.7033157945e-02, -2.6538485289e-01, -2.8083729744e-01, 
	-2.2957003117e-01, -1.3265211880e-01, -6.4367344603e-03, -9.1350786388e-02, -9.6945844591e-02, -7.6567061245e-02, -1.8222011626e-01, -1.2659657001e-01, -1.1186020821e-01,  3.7950822152e-03, 
};

const float layer_11_conv2d_bias[UNET_PAR_11_CONV2D_OUT_FILTER] = {
	-1.4755551703e-02, -1.3634842820e-02,  1.8063530326e-02,  2.2918818891e-01,  4.2340867221e-02,  1.6575752199e-01,  1.0226789862e-02,  3.6252055317e-02,  2.6527337730e-02, -7.3024630547e-02, 
	-5.1258638501e-02,  9.5323257148e-02,  9.4589926302e-02,  2.4427961558e-02,  1.4298406430e-02,  4.1530393064e-03, -6.5124304965e-03,  5.6230939925e-02, -2.8808351606e-02,  8.6279325187e-03, 
	-1.3049043715e-01,  2.8495162725e-02,  9.9252596498e-02,  7.1441330016e-02,  1.0190535337e-01,  5.9998035431e-02, -3.1802196056e-02, -1.7777365446e-01,  1.6972437501e-02, -4.7303311527e-02, 
	 6.7237526178e-02, -2.4934556335e-02,  7.6935954392e-02,  1.6917673871e-02,  1.6206872463e-01,  7.8348405659e-02, -5.8141741902e-03,  1.0037376545e-02, -6.6166207194e-02,  3.8710120134e-03, 
};


#endif
