#ifndef PARAMS_DENSE_17_H
#define PARAMS_DENSE_17_H
#include "params.h"

const float layer_17_dense_weight[UNET_PAR_17_DENSE_IN_DIM*UNET_PAR_17_DENSE_OUT_DIM] = {
	 7.1684025228e-02,  1.7320874333e-01, -2.5146581233e-02, -1.8849082291e-01,  1.1975765228e-02, -1.9491001731e-03, -1.2040562928e-01,  1.2653741241e-01,  1.8770508468e-01, -3.9957575500e-02, 
	-1.3940997422e-01, -7.6533399522e-02,  4.7181010246e-02, -1.9428904355e-01,  1.7972998321e-01, -1.7467246950e-01, -1.8507479131e-01, -1.3131417334e-01, -1.9328767434e-02,  2.3757559247e-03, 
	 4.7099400312e-02, -8.1932879984e-02, -3.8626510650e-02,  1.6844141483e-01, -1.2805783749e-01,  1.1347762495e-01, -1.1317965388e-01,  1.6811801493e-01,  4.6257503331e-02, -6.4710251987e-02, 
	 6.8851737306e-03, -1.6353517771e-02, -1.6008253396e-01, -5.3083203733e-02, -1.7407932878e-01, -3.4800942987e-02, -1.2597982585e-01, -2.8921544552e-02, -1.7031285167e-01,  5.3180776536e-02, 
	-9.6183590591e-02,  1.6617022455e-02, -5.3662914783e-02, -3.3494960517e-02, -8.8847234845e-02, -7.6610140502e-02, -1.3369096816e-01,  1.3520509005e-01,  1.3715578616e-01,  1.4654351771e-01, 
	 1.5289469063e-01, -8.2045823336e-02,  8.5341989994e-02,  4.0075764060e-02, -1.4517137408e-01,  4.7255784273e-02,  1.6296131909e-01, -3.1267292798e-02,  6.6404439509e-02,  5.4531596601e-02, 
	 5.3154502064e-02, -6.6028498113e-02, -3.5712454468e-02, -1.6053222120e-01, -1.9764253870e-02, -1.6725373268e-01,  5.2603270859e-02, -1.3440123200e-01,  5.8518916368e-02,  8.0415448174e-03, 
	-7.3120608926e-02, -9.7202405334e-02, -1.2109015882e-01,  3.3425081521e-02,  1.6089212894e-01, -6.0484845191e-02,  1.7561304569e-01, -6.4336948097e-02, -9.9183507264e-02,  8.5126198828e-02, 
	 1.5316873789e-01,  9.2925183475e-02,  5.7613909245e-02,  5.4163187742e-02, -3.9776682854e-02, -1.4497834258e-02, -2.4676984176e-03,  1.8972465396e-01, -4.5779448003e-02, -8.4943965077e-02, 
	-1.7917176709e-02, -1.4908836782e-01, -1.7402002588e-02, -1.6151401401e-01, -7.3087401688e-02, -1.1692679487e-02,  7.6491393149e-02,  1.7243473232e-01, -4.1254132986e-02,  1.3280737400e-01, 
	 1.1586967856e-01,  1.1673525907e-02, -1.5439052880e-01,  1.8517184258e-01,  1.7548078671e-02,  4.9346823245e-02, -6.8247102201e-02,  7.6003111899e-02,  1.6796030104e-01,  5.1653757691e-03, 
	 8.2853905857e-02,  8.1832081079e-02,  3.7547148764e-02,  1.3021661341e-01, -7.7692821622e-02, -2.8896303847e-02, -2.9473509640e-03,  7.0020131767e-02,  5.7151958346e-02,  1.3505156338e-01, 
	 2.4476764724e-02, -9.0388424695e-02,  7.9964168370e-02,  1.5312589705e-01,  5.1003578119e-03, -1.3609457016e-01,  4.3271412142e-03, -4.3547134846e-02, -1.1966466904e-01, -2.6330104098e-02, 
	 6.4013972878e-02,  1.2145659328e-01, -7.6861433685e-02,  1.0238165408e-01,  2.8148757294e-02, -1.0862127692e-01, -9.5153473318e-02, -3.7865884602e-02, -8.0420792103e-02, -6.1597456224e-03, 
	-8.8199935853e-02,  2.2984627634e-02,  3.9226166904e-02, -9.5168069005e-02, -3.0662296340e-02, -9.8523557186e-02, -3.0957933515e-02, -1.6544060782e-02, -5.4114133120e-02, -1.1001762748e-01, 
	-1.3244748116e-01, -4.8825059086e-02,  1.3784995675e-01, -9.9981524050e-02,  7.9153180122e-02, -3.5214792937e-02,  5.9897039086e-02,  1.2778128497e-02, -1.2884940207e-01, -9.0009823442e-02, 
	 4.0996987373e-02,  3.8494292647e-02,  9.6887528896e-02,  1.4714026451e-01,  1.1751236022e-01,  6.4885042608e-02, -2.4344250560e-02,  4.2241640389e-02, -4.3454807252e-02, -1.3612038456e-02, 
	-5.9759017080e-02, -1.6360746324e-01, -1.3383139670e-01,  1.5589603782e-01,  7.2377383709e-02, -7.0368468761e-02, -6.6479966044e-02,  1.0439780308e-03, -3.1594615430e-02, -9.2544946820e-03, 
	-8.2820259035e-02,  1.1109364778e-01,  2.9171457514e-02, -1.3898307085e-01,  5.5913902819e-02,  3.9101067930e-02, -1.0090032965e-01,  1.4303681254e-01, -1.4389957488e-01, -6.3247837126e-02, 
	 9.6468195319e-02,  1.2849718332e-01, -4.7461561859e-02, -1.1451051384e-01,  9.3073613942e-02, -1.1051527411e-01, -1.1801512912e-02,  1.0508175939e-01,  1.0711818188e-01,  1.0415429249e-02, 
	 1.6223268211e-01,  1.1007312685e-01,  5.0546706188e-04,  1.0877581686e-01,  3.1026231125e-02, -9.1646119952e-02,  1.2241084874e-01,  4.9038752913e-02, -4.9173302948e-02,  4.8950295895e-02, 
	-1.7869109288e-02,  1.3667586446e-01,  8.7267607450e-02, -8.3440333605e-02,  1.6235443950e-01, -2.3857615888e-02,  8.2065403461e-02, -7.5377486646e-02, -2.3101234809e-02,  1.7126777768e-01, 
	-1.9699512050e-03,  1.3198578358e-01,  2.9962852597e-02, -1.3562279940e-01,  8.4076948464e-02, -6.2919952907e-03, -4.9581125379e-02,  2.9310839251e-02, -5.3329471499e-02,  7.8033909202e-02, 
	-4.9476034939e-02, -1.4788986742e-01,  2.3186225444e-03,  5.1972825080e-02,  5.6390643120e-02,  3.5939808935e-02, -9.1283306479e-02, -9.9373422563e-02,  2.1783376113e-02,  1.1168859154e-01, 
	 5.4969981313e-02, -8.4865083918e-03,  1.7160569131e-01,  1.1724329740e-01, -7.5595103204e-02,  8.6170934141e-02, -1.6193643212e-01,  2.8200687841e-02, -1.1594697088e-01,  1.3556210697e-01, 
	-4.8071783036e-02, -7.8689545393e-02, -3.5255543888e-02, -3.2924190164e-02,  7.0752032101e-02, -4.3147224933e-02,  2.4799227249e-03, -6.5032511950e-02,  1.0819033720e-02,  2.3640096188e-02, 
	-6.5859942697e-03, -1.0103590786e-01, -3.9974320680e-02,  8.6633436382e-02, -3.6434680223e-02, -4.9076087773e-02, -1.7535035312e-01, -1.0533847660e-01, -1.1952181906e-01,  2.7288990095e-02, 
	 1.7035873234e-01,  7.3657274246e-02,  9.0856932104e-02, -1.2621609867e-01, -8.0586239696e-02,  1.3294157386e-01,  1.3037861325e-02,  8.9661121368e-02,  3.3522356302e-02, -7.8939512372e-02, 
	-1.0340150446e-01, -4.7910936177e-02, -6.6090889275e-02,  4.1956063360e-02, -1.6394649446e-01,  7.9603575170e-02,  1.6442272067e-01,  3.7254527211e-02, -9.1240532696e-02, -1.0369546711e-01, 
	-6.9237994030e-03,  1.1103405058e-01,  4.1957490146e-02,  2.4482397363e-02,  8.7071619928e-02, -3.1737927347e-02, -9.9057830870e-02,  1.8204398453e-02,  1.4480797946e-01, -1.1051152647e-01, 
	 1.2093943544e-02,  9.9710412323e-02, -9.9152617157e-02,  8.5522264242e-02,  9.0853773057e-02, -5.4605104029e-02,  1.1875944585e-01,  5.0074875355e-02,  7.1133494377e-02, -4.3338298798e-02, 
	-1.3566316664e-01,  8.1919766963e-02,  4.6239819378e-02, -3.2218035311e-02,  1.1555582285e-01,  3.6981802434e-02, -1.0583428293e-01, -4.4049032032e-02,  1.4391110837e-01, -1.3416911662e-01, 
	 5.7929284871e-02, -1.2304260582e-01,  2.5224301964e-02,  7.7010422945e-02,  2.7415055782e-02,  1.0787494481e-01, -5.7372890413e-02, -1.5615610778e-01, -3.3152170479e-02, -5.4458905011e-02, 
	 1.6339395195e-02, -2.2467216477e-02, -9.6123389900e-02, -3.2770782709e-02,  1.1277324706e-01, -1.1105372757e-01,  5.7532452047e-02,  6.0648255050e-02,  1.0801316798e-01, -5.4689366370e-03, 
	 4.7576144338e-02, -1.1281061172e-01, -1.1626732349e-01, -9.3441404402e-02,  1.7282679677e-01, -1.4708338678e-01, -6.7081682384e-02,  4.6440318227e-02,  1.4714363217e-01, -8.5353054106e-02, 
	 1.0692089796e-01,  1.5786287189e-01,  5.6325856596e-02,  1.5961264074e-01, -1.3519138098e-01,  2.3820262868e-04,  1.3645550609e-01, -7.8435458243e-02, -1.1067938805e-01,  5.5799469352e-02, 
	-6.1500634998e-02, -9.6289373934e-02,  9.1851577163e-02, -1.1094759405e-01, -3.9984658360e-03,  1.3413189352e-01,  1.1868260056e-01, -1.5474809706e-01, -1.3771624863e-01,  1.0197281092e-01, 
	-1.7484663427e-01,  4.6679507941e-02, -3.6956895143e-02,  8.5741005838e-02,  7.2166055441e-02, -5.8507919312e-02,  1.2116173655e-01, -1.1260377616e-01,  2.5673119351e-02,  1.0910560191e-01, 
	 5.7143937796e-02,  2.7184823528e-02, -2.4995928630e-02,  8.8884852827e-02, -2.9291473329e-02, -3.2726563513e-02, -1.1474946886e-01,  1.0243742168e-01,  5.4617010057e-02,  8.4510758519e-02, 
	-1.7223974690e-02, -1.1545779556e-01, -7.1311205626e-02,  1.4299891889e-01,  6.9884359837e-02, -1.4946311712e-01,  6.0278791934e-03,  1.2447668612e-01, -1.3272519410e-01,  4.9840365537e-03, 
	 4.2822118849e-02,  8.2824595273e-02,  1.5867374837e-01, -8.2437684759e-03,  3.1865616329e-03, -1.3832427561e-01,  1.3324713800e-03,  6.2289241701e-02,  1.7828379571e-01, -7.3117218912e-02, 
	-2.3872242309e-03, -1.1561652273e-01, -3.9532631636e-02, -9.2471592128e-02, -8.7827220559e-02,  5.8916237205e-02, -8.4539614618e-02,  5.2965618670e-02,  1.5348836780e-01, -1.8034914508e-02, 
	 1.6951707006e-01, -1.4858062565e-01, -9.4347313046e-02,  1.7457969487e-01, -3.1995818019e-02,  1.2027420104e-01, -8.3462007344e-02, -1.1578716338e-01, -9.7370557487e-02, -2.9475331306e-02, 
	 1.0717405379e-01,  8.1530340016e-02, -1.1880561709e-01, -1.9954508543e-01, -1.4317129552e-01,  2.0806644857e-01,  5.6205689907e-02,  9.9831819534e-02, -7.4366807938e-02,  8.2562439144e-02, 
	-9.0561009943e-02,  3.7743549794e-02, -3.3545859158e-02,  3.7627395242e-02, -1.7519238591e-01, -8.2800664008e-02,  2.6036901399e-02,  4.7120399773e-02,  5.4012067616e-02, -8.6325421929e-02, 
	-1.3204395771e-01,  1.0517402738e-01,  2.1837551147e-02,  3.1078357249e-02, -1.6190691292e-01,  8.3641726524e-03,  6.5766368061e-03,  1.1674568057e-01,  5.8786631562e-03, -1.8857291341e-01, 
	-4.6641711146e-02, -9.6244953573e-02, -6.9773308933e-02, -1.5064192005e-02,  5.1623940468e-02, -3.2199397683e-02,  5.6898817420e-02,  1.2838692963e-01,  1.7200265825e-01, -1.0170555860e-01, 
	 1.4504061639e-01,  7.5703464448e-02,  7.3498599231e-02,  9.6581213176e-02,  1.6926449537e-01,  1.6943284869e-01, -1.6808287799e-01,  3.0711308122e-02, -1.4237450063e-01,  8.4568150342e-02, 
	-4.6876441687e-02, -9.1788500547e-02,  9.6550092101e-02,  1.0437513888e-01, -3.8935977966e-02, -1.2311991304e-02, -5.5785637349e-02,  4.9201920629e-03, -2.9509749264e-02,  6.0208395123e-02, 
	-1.4338536561e-01, -1.1203584261e-02, -1.2559334934e-01, -1.5153603256e-01, -9.7770258784e-02,  1.0646024346e-01,  4.1195478290e-02, -1.8368920684e-01, -6.1151115224e-03, -9.6536122262e-02, 
	 2.8082549572e-02, -1.5231488645e-01,  1.7097968608e-02, -1.7741577327e-01,  8.7194662774e-04, -5.1501553506e-02, -5.7753164321e-02, -1.3745153323e-02,  3.3376216888e-02,  1.5581569076e-01, 
	-6.2513470650e-02,  1.6878506541e-01, -5.9532716870e-02,  1.1347065680e-02, -1.2079257518e-01, -1.0985751450e-01, -7.6741971076e-02, -1.3894268870e-01,  5.3061049432e-02, -1.2341821939e-01, 
	-6.8825453520e-02,  1.5201500058e-01,  4.2372927070e-02, -7.7239647508e-02, -1.0968565196e-01, -5.0653661601e-03, -4.0821202099e-02,  7.2335794568e-02, -3.6323364824e-02,  1.3027554750e-01, 
	 4.6718813479e-02,  3.7523046136e-02, -9.1842807829e-02,  6.3002802432e-02,  1.0378729552e-01,  8.0061918125e-03, -1.0451610200e-02, -2.8368731961e-02,  1.1294256151e-01,  5.7717896998e-03, 
	-4.4868119061e-02, -8.0847345293e-02, -3.0371271074e-02,  7.3862411082e-02, -2.6746498421e-02,  1.2004827149e-02,  5.5944092572e-02,  9.5034897327e-02,  7.1792334318e-02,  8.7143339217e-02, 
	-1.6281034797e-02, -6.9112107158e-02,  4.8586711287e-02, -1.1772600561e-01,  3.7909142673e-02,  9.7936846316e-02,  7.5111061335e-02,  1.4021578431e-01,  1.3585306704e-01,  7.8237026930e-02, 
	 1.1001149565e-01,  3.9813588373e-03, -1.2488249689e-01,  1.2353624403e-01, -6.0531884432e-02, -4.5815102756e-02, -7.7107317746e-02,  2.0879859105e-02,  1.0506060719e-01,  1.3214762509e-01, 
	-8.7853647768e-02, -5.9662215412e-02,  1.0139574111e-01, -3.0140152201e-02,  8.7404467165e-02, -1.1818425357e-01,  1.0453166813e-01, -5.5574584752e-02,  2.7643708512e-02, -6.3081845641e-02, 
	 1.4153313637e-01,  1.3926808722e-02, -1.4968352020e-01,  9.5026545227e-02,  4.5062568039e-02, -2.5424318388e-02,  2.9157297686e-02, -4.8516198993e-02,  3.7735465914e-02, -2.1941602230e-02, 
	 1.0530038178e-01,  1.1722195148e-01, -1.1581055075e-01, -9.7937226295e-02,  3.4072354436e-02,  6.2071833760e-02, -4.8341382295e-02,  4.6471852809e-02,  6.8482920527e-02,  1.6596196219e-02, 
	-7.0836648345e-02, -4.8074323684e-02,  7.2595872916e-03, -5.9034326114e-03, -5.7208750397e-02,  3.0197767541e-02,  3.0526235700e-02, -1.1006557941e-01, -1.1395393312e-01, -1.4873680472e-01, 
	-5.1733583212e-02, -1.4533211291e-01, -3.1540822238e-02,  5.3122535348e-02,  1.3887029886e-01,  1.1873732507e-01, -4.4410392642e-02,  9.4896368682e-02,  6.6116034985e-02,  4.7063313425e-02, 
	 9.2168137431e-02, -2.8056720272e-02,  1.0468016565e-01,  1.8587041646e-02,  1.0863607749e-02, -5.3569838405e-02,  2.2165333852e-02,  1.2965601683e-01,  4.8099376261e-02, -7.7765971422e-02, 
	-3.0270742252e-02, -1.5177299082e-01,  9.9898420274e-02,  1.3322094083e-01, -7.1669504046e-02,  6.2345698476e-02,  6.9340397604e-03,  5.8551218361e-02, -8.9353740215e-02,  1.0076456517e-01, 
	-1.3442356884e-01,  1.9956648350e-02,  8.2499451935e-02,  9.3159876764e-02,  7.4344158173e-02,  8.3474509418e-02, -9.2400256544e-03,  5.4349821061e-02,  2.6876395568e-02,  1.4047119021e-01, 
	-2.6453707833e-03,  6.3810184598e-02, -1.2482503802e-01,  1.1039592326e-01, -4.4639948756e-02, -1.0475028306e-01,  1.3913230598e-01,  1.3817343116e-01, -8.9315503836e-02, -2.4087844416e-02, 
	-1.1607442051e-01,  5.6946355850e-02, -1.2729223073e-01, -1.4342997968e-01,  8.7190933526e-02,  8.6203761399e-02,  3.6284625530e-02,  1.3878281415e-01, -1.2533466518e-01, -3.1333770603e-02, 
	-7.6124906540e-02, -8.4222607315e-02,  9.7927674651e-03, -1.4307324588e-01, -8.5261739790e-02,  2.6008861139e-02,  1.1886143684e-01,  1.0473749042e-01, -4.7282464802e-02,  7.1268014610e-02, 
	-1.4213560522e-01,  1.4139665663e-01, -6.3900634646e-02, -1.3480794430e-01, -3.4490164369e-02,  3.5186842084e-02, -5.5664207786e-02,  4.6795897186e-02,  2.8245076537e-02,  5.4440561682e-02, 
	-3.7985667586e-02,  6.3398912549e-02, -1.1063888669e-01,  1.8907358870e-02, -1.6282144934e-02, -4.7531004995e-02, -4.4807642698e-02,  1.3424424827e-01, -2.4319531396e-02,  2.5955399498e-02, 
	 9.3654274940e-02,  1.3244765997e-01,  1.3571144640e-01,  5.0614032894e-02, -7.6634921134e-02, -4.2141415179e-03, -2.7076264843e-02,  8.9712165296e-02,  9.7168982029e-02,  1.2520520389e-01, 
	-4.1707821190e-02,  3.0207281932e-02,  1.3020822778e-02, -6.0886230320e-02, -1.2651994824e-01, -1.2658944726e-01, -1.0760015994e-01, -8.9634463191e-02, -1.6278246418e-02, -1.3290923834e-01, 
	 3.4206158016e-03,  6.1179216951e-02, -6.4426525496e-03,  2.4640934542e-02,  7.9509685747e-05,  2.6196451858e-02, -3.4304194152e-02, -1.2740882114e-02, -1.2030871585e-02,  4.5319989324e-02, 
	-4.6217031777e-02,  1.1463861167e-01, -8.5791759193e-02, -1.0324024409e-01, -9.2832846567e-03,  9.4019792974e-02, -1.3532964885e-01, -1.3565243781e-01,  5.0219602883e-02,  1.4153139293e-01, 
	-1.1001292616e-01, -9.6394024789e-02,  1.1043479666e-02, -5.3314447403e-02, -1.0510239750e-02, -7.3753394186e-02, -1.3251313567e-01, -8.2615382969e-02, -1.2944376469e-01, -3.4462790936e-02, 
	-1.3894705474e-01, -3.2145455480e-02, -9.9796935916e-02,  3.5136163235e-02,  8.5821501911e-02, -9.1402016580e-02,  9.1412827373e-02, -1.6530044377e-01,  3.7150286138e-02, -1.1528971046e-01, 
	-1.3616806269e-01, -7.7838756144e-02,  1.2908121943e-01, -1.0465613753e-01, -3.6398623139e-02, -1.2666255236e-01,  1.2716469169e-01,  1.2285286188e-01,  7.2709240019e-02,  1.5500520170e-01, 
	 8.7664917111e-02, -5.0791308284e-02,  1.0333733261e-01, -1.1184066534e-01,  3.1222086400e-02, -5.1611062139e-02,  7.5699329376e-02,  1.6382575035e-02, -8.2066357136e-02,  9.0898774564e-02, 
	-1.4387008548e-01, -1.4792764187e-01,  9.0897139162e-03,  1.1066148058e-02,  1.2488826178e-02,  2.3427559063e-03,  9.6413575113e-02,  3.4367111512e-03, -3.0961595476e-03,  1.4308047295e-01, 
	 1.1768186092e-01, -1.1198854772e-03,  1.0585108399e-01,  1.5535156429e-01, -1.0738673061e-01,  8.3764910698e-02,  4.5034907758e-02,  1.5661925077e-01,  4.3565919623e-03,  1.0707997531e-01, 
	 3.3613137901e-02,  4.1587606072e-02,  4.0647674352e-02, -2.2597857751e-03,  6.1246357858e-02, -5.1110073924e-02, -8.5596203804e-02,  4.6240992844e-02, -5.8667171746e-02, -2.8872391209e-02, 
	-4.3102674186e-02, -8.4038779140e-02, -1.1873017997e-01, -1.1543616652e-01, -1.3913311064e-01,  1.0036797076e-01,  1.4092671871e-01,  1.6354781389e-01,  4.4847056270e-02, -9.8315022886e-02, 
	-2.4066936225e-02,  6.3920453191e-02,  4.5506253839e-02, -6.0994103551e-02,  5.1110088825e-02,  9.5017015934e-02,  1.0536146164e-01, -1.3138934970e-01, -4.6760207042e-03,  1.0238543153e-01, 
	-7.2359010577e-02, -4.9185000360e-02, -8.9342005551e-02, -6.3140772283e-02,  4.2923685163e-02, -3.7056405097e-02, -9.8066208884e-03,  2.1693306044e-02, -1.1752400547e-01, -3.4254796803e-02, 
	-1.1817009747e-01, -8.9158736169e-02, -7.0229366422e-02, -1.0624623857e-02,  4.4357918203e-02,  3.6474443972e-02,  3.5926599056e-02,  1.2520569563e-01,  8.1028759480e-02,  8.9921258390e-02, 
	-1.2964655459e-01, -6.6187284887e-02,  4.5015599579e-02, -5.7458519936e-02, -1.2352960557e-01, -7.6994702220e-02, -1.1101743579e-01,  3.5273253918e-02, -5.0821576267e-02, -8.9988417923e-02, 
	 1.3514772058e-01,  2.4877266958e-02, -9.9995099008e-02, -4.2944017798e-02, -7.0152543485e-02, -9.0936504304e-02,  1.0491181165e-02,  6.6883727908e-02, -3.6798227578e-02, -3.3232194837e-03, 
	-6.9401189685e-03,  9.2612110078e-02, -8.6796954274e-02,  4.4402174652e-02, -1.1439016461e-01,  5.6155316532e-02, -3.6391951144e-02, -6.0500055552e-03,  2.8934571892e-02,  8.9862555265e-02, 
	 2.4073068053e-02,  1.0526553728e-02, -1.3943062723e-01,  4.9823313951e-02, -5.6565403938e-02,  1.2902058661e-01, -1.1937244982e-01,  9.1743022203e-02,  1.1841155589e-01, -1.0684146732e-01, 
	-1.2304329872e-01, -4.0008027107e-02, -4.1478492320e-02,  9.7122170031e-02, -1.2936325371e-01, -1.9230261445e-02,  8.5949085653e-02, -9.5930159092e-02, -4.7557126731e-02,  8.9043699205e-02, 
	 4.0995273739e-02, -7.9566083848e-02,  6.7999266088e-02, -1.2576266192e-02, -3.8320299238e-02, -7.6518647373e-02, -3.0879579484e-02,  1.4337897301e-02,  1.3993248343e-01, -8.7373800576e-02, 
	-1.4443273842e-01,  4.8578724265e-02, -6.7134767771e-02,  1.0923974216e-01,  8.9007645845e-02,  1.2053048611e-01,  6.8038307130e-02,  5.0067689270e-02, -1.0359793901e-01, -1.4415410161e-01, 
	-1.1701773852e-01, -7.8608058393e-03,  4.2701583356e-02,  1.3449300826e-01,  2.7085635811e-02, -5.5707495660e-02, -6.8617850542e-02,  2.6672227308e-02,  1.2550598383e-01,  3.2529003918e-02, 
	 5.8982472867e-02, -1.1740787327e-01, -1.3431252539e-01,  1.0454148799e-01,  1.8668211997e-02,  1.5239297645e-03, -2.5723669678e-02, -1.6964666545e-02, -6.8738818169e-02, -7.0648059249e-02, 
	 1.3003647327e-01, -3.5709124058e-02, -3.7936746958e-04, -1.2864296138e-01,  1.1628009379e-01, -1.1258073151e-01, -9.7301423550e-02,  4.1301470250e-02,  1.2931274250e-02, -7.7196300030e-02, 
	 5.9508047998e-02,  2.7010265738e-02, -1.8931897357e-02, -5.5712547153e-02, -8.0823160708e-02,  5.9416137636e-02, -8.0048106611e-03,  3.5907145590e-02,  3.3955223858e-02,  7.9283893108e-02, 
	-4.8648633063e-02, -2.7410466224e-02,  4.7408714890e-02, -1.2836131454e-01, -6.0486931354e-02, -4.3714162894e-03, -7.1075104177e-02, -2.7205182239e-02,  6.5807387233e-02, -1.1136498302e-01, 
	 4.5791260898e-02,  4.0683720261e-02,  2.3084791377e-02, -1.5042511746e-02,  1.1200532317e-01, -1.1800682545e-01,  6.7074932158e-02, -8.6499072611e-02,  4.1940551251e-02, -3.8582496345e-02, 
	 1.0169465095e-01,  7.8620657325e-02,  7.2297565639e-02, -9.0350903571e-02, -3.3319931477e-02,  6.5070646815e-03,  1.3833612204e-01,  1.2089624256e-01, -8.5219927132e-02, -1.3831196725e-01, 
	-1.3280117512e-01,  1.4511436224e-01, -1.4066481031e-02, -1.0019594431e-01,  8.1813931465e-02, -8.6238227785e-02, -1.1028329283e-01, -1.3043831289e-01, -1.3071446121e-01, -1.0320505500e-01, 
	-1.0257436335e-01,  2.8837729245e-02, -6.7445598543e-02,  1.2693338096e-01, -1.1609058827e-02,  7.8884214163e-02,  6.4511433244e-02,  3.3261802047e-02,  6.0640271753e-02, -1.4849158004e-02, 
	 3.3411480486e-02,  1.3905914128e-01, -8.6950369179e-02, -1.2002666295e-01,  4.2626377195e-02, -1.3576786220e-01, -4.3884292245e-02,  6.1459235847e-02, -1.3238403201e-01, -7.3718562722e-02, 
	-7.6790273190e-02,  1.1004468054e-01, -5.6299455464e-02,  1.0767582804e-02,  1.1878105998e-01,  8.8906660676e-02,  1.1704303324e-01, -4.0522478521e-02, -2.4715477601e-02,  1.0325466841e-01, 
	 1.0388726741e-01, -7.2503633797e-02, -1.4517886937e-01,  7.9398341477e-02, -2.2782316431e-02, -1.3414797187e-01,  1.0441217571e-01,  1.3436305523e-01,  2.0811147988e-02,  6.6119633615e-02, 
	-5.4227709770e-02, -2.6379005983e-02,  1.1620593816e-01, -5.1521956921e-02, -1.0755148530e-01, -4.5159325004e-02,  3.2893061638e-02,  1.1110593379e-01,  9.9883176386e-02,  9.6188902855e-02, 
	 9.5218859613e-02,  7.6249979436e-02,  5.8919638395e-02,  3.6706581712e-02, -9.4766885042e-02,  3.6867350340e-02,  1.4504465461e-01, -1.4718183875e-01,  1.8375616521e-02,  2.7624091133e-02, 
	-5.8029703796e-02, -5.6994806975e-02, -1.1019894481e-01,  1.3010679185e-01, -5.7452585548e-02,  1.2347290665e-01, -5.1901925355e-02, -5.4776065052e-02, -7.1948111057e-02,  1.5559393167e-01, 
	-9.4601802528e-02, -1.7572244629e-02,  3.5596206784e-02, -1.1189161241e-01,  4.0678805672e-03,  6.2029520050e-03,  1.0479097255e-03,  1.3157927990e-01, -3.8249790668e-02, -1.4744290709e-01, 
	 6.3069142401e-02,  3.8693714887e-02,  8.3804257214e-02,  1.5980632603e-01,  7.5581543148e-02,  1.1977006495e-01,  1.1433912814e-01,  1.0720947385e-01,  6.7111879587e-02, -6.1248958111e-02, 
	-9.5085829496e-02, -7.0072144270e-02,  3.8225188851e-02,  5.2479416132e-02,  3.3675540239e-02, -1.4256664552e-02,  1.1903552711e-01, -1.0997913033e-01, -1.9084308296e-02,  4.3811965734e-02, 
	-6.0376659036e-02,  9.6370160580e-02,  1.1990793049e-01,  5.9179935604e-02,  6.0522574931e-02,  1.4804852009e-01,  3.9689775556e-02, -1.2020124495e-01,  6.4654260874e-02, -3.0333623290e-02, 
	 8.2315430045e-03, -6.7560575902e-02,  2.7389330789e-02,  6.0388732702e-02,  2.6852181181e-02, -6.8069227040e-02, -8.6982592940e-02,  7.9136267304e-02,  1.1250324547e-01, -2.1214850247e-02, 
	-1.1781535298e-01,  6.4776293933e-02,  2.6779262349e-02, -1.1659340560e-01,  3.1656764448e-02, -8.8828772306e-02,  1.1293213814e-01, -3.9018496871e-02, -8.1318959594e-02,  1.3674286008e-01, 
	-1.2422449887e-01,  1.3070982881e-02, -8.7883044034e-04,  5.2998531610e-02, -2.1388920024e-02, -7.7972277999e-02, -8.8218078017e-02, -8.8235445321e-02, -3.2694648951e-02, -4.9912042916e-02, 
	 8.9985951781e-02,  9.6394605935e-02,  1.2027673423e-01,  3.9395879954e-02,  1.1233645678e-01, -1.0095765442e-01, -3.7955839187e-02,  3.1287807971e-02,  1.0031774640e-01, -2.7326174080e-02, 
	-7.2399608791e-02, -5.2258994430e-02, -1.2474323809e-01, -1.5036916733e-01,  9.1485202312e-02, -7.3476463556e-02, -4.1373312473e-02,  7.4997521937e-02,  6.0630176216e-02, -6.2233764678e-02, 
	-8.3353742957e-02,  1.3885214925e-01,  6.0966100544e-02,  1.0100217909e-01,  7.9195804894e-02,  3.9726424962e-02,  7.9675361514e-02,  1.3922125101e-02, -4.9344375730e-02, -1.2390079349e-01, 
	 9.4038806856e-03,  8.8381282985e-03,  6.8360567093e-02, -1.1206235737e-01, -1.1670948565e-01,  2.1222347394e-02, -2.7501987293e-02, -6.1159085482e-02, -5.0397064537e-02,  5.8120870963e-03, 
	 1.2294106185e-01, -1.2674693763e-01, -1.5281212330e-01, -1.1747043580e-01, -9.6346559003e-03, -7.9102598131e-02, -1.1373165250e-01,  1.2140560895e-01, -1.2039153278e-01, -4.4944886118e-02, 
	 1.5736500919e-01, -2.5762932375e-02,  8.4299579263e-02, -1.0950110108e-01, -2.0735293627e-02, -5.0185579807e-02, -3.3707849681e-02,  9.2416562140e-02,  8.2037551329e-03,  1.0372832417e-01, 
	-5.8816138655e-02,  2.6226157323e-02, -1.1544892192e-01, -1.4470105991e-02,  1.1712377518e-01,  8.1198953092e-02,  1.2184867263e-01,  1.1468458921e-01,  1.1189008504e-01, -6.8073920906e-02, 
	-5.5916130543e-02,  1.3149100542e-01, -1.4851053059e-01, -1.2712052464e-01, -4.7900695354e-02,  3.4489143640e-02, -1.1580185592e-01, -3.9414539933e-02, -7.2209434584e-03, -8.8661678135e-02, 
	-9.9177077413e-02,  7.6949879527e-02, -9.6805237234e-02,  9.3809232116e-02, -1.9271222875e-02,  1.0041268915e-01,  1.1940095574e-01, -9.7878858447e-02,  8.9899450541e-02,  6.9987379014e-02, 
	 3.8706041873e-02,  1.8752140924e-02, -1.3936504722e-01, -7.1073984727e-03, -4.0758416057e-02, -7.7144123614e-02,  3.6299422383e-02, -1.2766161561e-01, -4.9362726510e-02, -8.5978038609e-02, 
	 1.0283946991e-01,  5.5446576327e-02, -8.8803403080e-02,  9.2063821852e-02, -1.0488260537e-01,  1.0757214576e-01, -2.7166729793e-02,  8.9438147843e-02,  1.0199392587e-01, -1.1086294055e-01, 
	 1.0388258845e-01,  3.3484742045e-02,  2.4353133515e-02,  3.5029519349e-02,  1.1514014751e-01, -3.4649997950e-02, -2.6977709495e-03, -1.6189539805e-02, -8.6935237050e-02, -1.5452624857e-01, 
	 4.2685564607e-02, -2.0085128024e-02, -6.3277192414e-02, -7.6143674552e-02, -6.1883021146e-02, -9.3469753861e-02, -8.0104172230e-02, -2.4335766211e-02,  1.2771297991e-01, -7.9962760210e-03, 
	-5.9291172773e-02, -1.0885762423e-01, -1.3140878081e-01,  8.2176856697e-02, -5.1568515599e-02, -1.0936515033e-01, -4.9643225968e-02,  1.1839871854e-01,  2.2005217150e-02, -2.1326150745e-02, 
	-1.5704713762e-01, -3.5193357617e-02, -1.7098653316e-01,  4.8015434295e-02, -2.3854729533e-01,  2.6666063815e-02,  1.0741880536e-01, -1.5871852636e-01,  1.8562905490e-02,  2.0412945747e-01, 
	-1.3801137917e-02, -1.3854111731e-01,  1.4879586175e-02,  1.7145797610e-01, -1.3270768523e-01,  2.8337165713e-02,  1.6504075611e-03,  7.3698940687e-03, -2.1038858220e-02, -2.3810136318e-01, 
	-1.3459507376e-02, -4.6708289534e-02,  4.5530121773e-02, -1.3407520950e-01,  1.9705815613e-01, -3.8888376206e-02,  2.0623606443e-01, -1.8999969959e-01,  1.0065040737e-01, -1.5102119744e-01, 
	-2.1010275185e-01, -2.2890016437e-01,  2.1212527156e-01, -1.3341332669e-04,  2.1754692495e-01,  1.1483626068e-01,  1.6775470227e-02, -6.9764748216e-02,  2.2135309875e-01,  2.9068341479e-02, 
	-6.3960380852e-02,  2.3526009917e-01, -6.9592720829e-03,  5.2653882653e-02, -8.0409891903e-02,  2.3196609318e-01,  1.4683151245e-01, -5.2952762693e-02, -7.1642421186e-02, -2.1322704852e-01, 
	-1.6441074014e-01,  2.4617612362e-01,  1.1479914933e-01,  6.8656373769e-03,  2.0310136676e-01, -6.7051894963e-02, -1.1969922483e-01, -2.0668111742e-01,  3.4369975328e-02,  9.5245078206e-02, 
	-1.3306587003e-02, -8.8470578194e-02,  6.8922072649e-02, -1.6269819811e-02, -5.3573802114e-02,  7.8837245703e-02, -6.7675493658e-02,  1.3662847690e-02, -4.1203233413e-03,  1.3567230664e-02, 
	-6.5250381827e-02,  2.1605966985e-01,  1.2854748964e-01,  4.0146131068e-02,  9.4874976203e-03, -5.8286733925e-02, -1.0801783763e-02, -4.0102329105e-02,  1.1595761776e-01,  2.3095603287e-01, 
	-4.7032013535e-02, -8.4439236671e-03, -1.8094682693e-01, -2.1156288683e-02,  2.0136199892e-01, -2.0635175705e-01,  2.3240339756e-01, -6.6925987601e-02, -3.9021093398e-02,  7.8847676516e-02, 
	 1.9130891189e-02,  9.6988789737e-02, -4.3326258659e-02,  1.4738747478e-01, -9.4945831224e-03, -5.4226774722e-02,  8.0290071666e-02, -1.8728293478e-01,  1.0794769228e-01, -1.4400698245e-01, 
	 2.3820590228e-02, -1.9482038915e-01,  1.8959990144e-01, -2.2192582488e-01, -2.2947132587e-01, -1.3829524629e-02, -1.7347590625e-01, -1.7357015610e-01, -6.1434814706e-03, -9.2564046383e-02, 
	 2.6321202517e-02,  2.0183080435e-01,  1.7305542529e-01, -5.3120478988e-02,  2.3277167976e-01, -6.6352702677e-02, -2.9227571562e-02,  3.2084252685e-02, -1.9411924481e-01, -3.6404687911e-02, 
	-2.3197643459e-01,  1.7189140618e-01,  4.1159272194e-02, -8.9770771563e-02, -8.5861966014e-02,  1.8398509920e-01, -2.1122837067e-01, -2.7489166707e-02,  9.7696863115e-02, -9.2365331948e-02, 
	-5.9523206204e-02, -6.5870277584e-02, -1.8528562039e-02, -2.6163797826e-02,  8.7834745646e-03,  1.2062543631e-01,  1.2375734001e-01,  9.3783050776e-02,  1.5405306220e-01,  9.2640221119e-02, 
	-3.9740808308e-02,  6.3473038375e-02,  7.4474141002e-02, -1.2319333106e-01,  1.3917231560e-01, -1.0579843819e-01, -3.3248197287e-02,  1.5387372114e-02, -2.7745129541e-02,  9.1448798776e-02, 
	-8.4741026163e-02,  1.0365352035e-02, -5.8539607562e-03, -1.6101312637e-01,  1.1850102991e-01, -1.4168316126e-01, -7.2844721377e-02, -6.2297351658e-02, -4.6805355698e-02, -6.3426829875e-02, 
	 3.8097366691e-02,  1.2091870606e-01,  1.0505314171e-01,  9.2860590667e-03, -5.4431863129e-02,  1.2465986609e-01, -8.2859069109e-02,  9.4054765999e-02,  8.0926410854e-02, -1.8952582031e-02, 
	 1.0473068058e-01, -1.2797023170e-02, -5.4332379252e-02, -3.9455968887e-02,  4.5170418918e-02,  1.1636181176e-01,  1.2239006907e-01, -7.5635306537e-02,  1.0920476913e-01,  8.6850889027e-02, 
	 7.9984642565e-02, -1.0649578273e-01,  2.3566609249e-02,  1.3560159132e-02,  1.3154463470e-01,  1.4105607755e-02,  1.9107701257e-02, -1.2055385858e-02, -1.4177691936e-01, -1.5051631629e-01, 
	-1.8755702302e-02, -1.0222063214e-01,  1.0562176257e-01,  1.8707921263e-03,  6.3417136669e-02, -1.0626761615e-01,  1.1420929804e-02,  3.1980212778e-02,  7.1636788547e-02, -7.5426809490e-02, 
	-5.8588046581e-02, -2.0510328934e-02,  1.1160792410e-01,  1.7430150881e-02,  1.1516257375e-01,  3.8660887629e-02,  4.7382660210e-02,  1.2047447264e-01, -6.6806904972e-02, -9.2503108084e-02, 
	-4.1375137866e-02,  1.4454273880e-01,  3.6854214966e-02, -2.9252029955e-02,  1.3477763534e-01, -1.3364753127e-01, -3.3609412611e-02, -6.1758846045e-02, -9.1984666884e-02, -1.1988591403e-01, 
	-1.5349708498e-01, -7.4134290218e-02,  1.2793928385e-02,  5.6888300925e-02, -2.4321662262e-02,  1.0668592155e-01,  6.5604289994e-03,  1.3321444392e-01,  9.6315406263e-02, -1.0579927266e-01, 
	 9.5606734976e-03, -5.2513796836e-02,  7.2173140943e-02, -1.3083706796e-01, -3.1062278897e-02,  3.2171800733e-02, -6.3955962658e-02, -1.1422730982e-01,  1.1257641017e-01, -2.8759296983e-03, 
	 1.9619867206e-02, -6.7907191813e-02, -5.6664384902e-02, -7.1669995785e-02, -1.0547314584e-01,  6.2874324620e-02, -1.6392609105e-02, -3.6484781653e-02,  2.8426170349e-02,  1.5860797465e-01, 
	 4.1714191437e-02, -1.2689724565e-01,  6.5635718405e-02,  1.5265691280e-01, -7.9076111317e-02, -6.9948919117e-02, -1.1559064500e-02, -1.4122094214e-01, -1.6454084218e-01,  1.5308465064e-01, 
	-4.5664139092e-02, -2.0076008514e-02,  1.7297595739e-01,  3.1680534594e-03,  4.7747761011e-02,  2.2701551206e-03,  1.5799103677e-01, -1.9380979240e-01,  1.8193108961e-02,  1.3077375293e-01, 
	 3.4616418183e-02,  1.8638798967e-02,  1.6455417871e-01, -1.1368180625e-02,  4.9980062991e-02, -8.9511210099e-03,  1.9579870999e-01,  4.3302378617e-03, -3.6506872624e-02, -7.7963724732e-02, 
	 1.8295142055e-01, -1.3183042407e-01,  8.3287350833e-02,  6.4586110413e-02, -5.5908121169e-02, -5.3307451308e-03,  6.6438920796e-02, -6.2614724040e-02, -3.8922880776e-03, -1.9717648625e-01, 
	 1.9257618114e-02,  1.0640354455e-01,  8.3698481321e-02,  6.6912934184e-02,  1.2193650752e-01,  1.0474545881e-02,  5.4781496525e-02,  8.7503515184e-02,  4.7263801098e-02, -4.6933546662e-02, 
	-1.9168649614e-01,  3.1577579677e-02, -6.6782154143e-02, -2.0610623062e-02,  5.4005265236e-02, -8.8690020144e-02, -9.6782445908e-02, -4.2378943413e-02,  2.5986891240e-02,  8.3858355880e-02, 
	 1.6809912026e-01, -1.3160824776e-01,  1.9380172715e-02, -4.3907508254e-02, -1.8770289421e-01,  1.1098661274e-01, -5.2216701210e-02, -9.6849240363e-02, -4.1790571064e-02,  7.4335560203e-03, 
	-7.8000262380e-02, -4.4575858861e-02, -1.4976389706e-01, -5.2100628614e-02, -1.0582161136e-02,  1.4530786872e-01, -8.5909985006e-02, -6.5800942481e-02,  7.5820140541e-02,  7.7541425824e-02, 
	 1.0067014024e-02, -8.1856414676e-02, -4.5312706381e-02, -1.2832679786e-02,  1.3170652092e-01,  2.8168430552e-02,  2.0579367876e-02,  1.2144970894e-01, -2.7991285548e-02,  7.3212169111e-02, 
	 5.6631080806e-02, -8.5425689816e-02,  7.7008984983e-02,  3.2278688159e-03, -1.5744435787e-01, -7.9657219350e-02,  8.7902404368e-02,  2.0514431596e-01, -1.9375754893e-01, -4.8658985645e-02, 
	-1.2048384547e-01, -7.2070069611e-02, -4.6956431121e-02, -1.2428861111e-01, -4.0893431753e-02,  9.4958350062e-02, -1.1722403765e-01, -6.5626792610e-02,  1.3953135908e-01,  1.7121583223e-02, 
	-1.6620822251e-02,  3.6366712302e-02, -1.9977936521e-02,  3.9320345968e-02, -4.3012004346e-02, -1.8811200559e-01, -1.5476505458e-01,  1.1335719377e-02, -5.2040558308e-02, -1.2107922137e-01, 
	 7.4333824217e-02, -1.5682524443e-01, -1.9164234400e-01,  3.8345996290e-02, -1.0611657053e-01,  3.6522902548e-02, -1.3815906644e-01, -4.4218871742e-02, -7.3950346559e-03,  6.2718600035e-02, 
	-1.7441251874e-01,  2.0170243084e-01,  8.7033193558e-03,  2.0582269132e-01, -2.1702824160e-02,  5.1845130511e-03,  1.5625220537e-01, -1.3113550842e-01,  1.1342875659e-01, -1.3538825512e-01, 
	-1.3423325121e-01,  1.8050658703e-01,  1.7959672213e-01, -1.6445846856e-01, -1.1236693710e-01, -5.0986289978e-02,  6.4332470298e-02, -4.3181184679e-02,  1.4890070260e-01, -1.1852955446e-02, 
	-1.6014906764e-01,  7.8806392848e-02, -2.3022664711e-02, -8.0983735621e-02, -1.3329449296e-01,  2.9342461377e-02, -4.8466492444e-02,  1.4607330784e-02,  1.1959278490e-03, -9.5037415624e-02, 
	 6.7021571100e-02,  9.0280115604e-02, -8.1171005964e-02,  1.3179595768e-01,  1.5457044542e-01,  1.2087662518e-01, -5.9606280178e-02, -7.6505251229e-02, -1.2848505378e-01, -1.5268082917e-01, 
	-3.7450470030e-02,  2.3803088814e-02, -6.8300329149e-02, -6.3348561525e-02,  1.1458314024e-02,  3.2613229007e-02,  7.9313442111e-02,  1.7671594024e-01,  3.8761187345e-02, -1.4353986084e-01, 
	-1.0080821812e-01, -5.0151146948e-02,  1.8329767883e-01,  1.3185696304e-01,  1.2781362236e-01, -1.5763875842e-01,  1.0316661745e-01, -3.2132167369e-02, -2.7719244361e-02, -3.4716516733e-02, 
	 9.2164516449e-02,  6.9409646094e-02, -2.1495571360e-02,  2.5354079902e-02,  1.3401882350e-01, -7.8193703666e-04, -1.2451229990e-01, -4.4742308557e-02,  8.0960216001e-03, -4.7847751528e-02, 
	-7.9615727067e-02, -1.5419079363e-01, -1.4109000564e-01, -1.2022531778e-01,  5.6379888207e-02, -1.1205346882e-01, -1.2735760212e-01,  1.4961990714e-01,  1.2227040529e-01, -9.0485751629e-02, 
	-1.2115388177e-02,  1.7981819808e-01, -1.7399214208e-01, -1.1003372073e-01,  1.5923045576e-01,  4.0069516748e-02, -6.8263150752e-02, -1.3816158473e-01, -1.9743034244e-01, -2.3259526119e-02, 
	-1.7394109070e-01, -1.0633802414e-01,  1.4417771995e-01, -2.6518275961e-02,  5.9248797596e-02, -1.6627348959e-01, -1.4224207029e-02, -1.8693515658e-01,  9.6812635660e-02,  1.2453345954e-01, 
	-5.3176727146e-02,  1.4812873304e-01,  2.5238532573e-02, -5.5397052318e-02, -9.5363251865e-02,  9.4674661756e-02, -1.3608036935e-01,  9.2623315752e-02,  5.7088069618e-02, -1.1532280594e-01, 
	 9.3297511339e-02,  1.8373008817e-02,  9.8786830902e-02, -3.4185886383e-02, -7.6626993716e-02,  5.9503391385e-02,  5.0469525158e-02, -4.3163187802e-02,  4.7335840762e-02, -5.4326791316e-02, 
	-8.0936662853e-02,  3.5879753530e-02,  8.5859019309e-03,  1.8646553159e-01,  6.1647694558e-02,  2.1750034764e-02,  8.0213688314e-02,  6.5560508519e-03,  2.0274147391e-03,  8.2495510578e-03, 
	 1.4637159184e-02, -1.8741936982e-01, -4.9319401383e-02,  5.4389923811e-02,  1.3596312702e-01,  6.1237152666e-02,  1.3179035485e-01, -8.1739418209e-02,  4.0048867464e-02, -6.8170502782e-02, 
	 2.1527271718e-02, -1.4499121346e-02,  5.3954742849e-02,  5.6624323130e-02, -1.6593571007e-01, -2.3339500651e-02,  4.1242070496e-02, -1.2089495361e-01,  5.3342033178e-02, -3.6103141028e-03, 
	 3.2944511622e-02,  6.4300835133e-02, -1.4193075895e-01,  5.0512228161e-02,  6.6479952075e-03,  2.3351151496e-02, -1.0213296115e-01, -4.9293369055e-02, -2.4181380868e-02,  1.2973211706e-01, 
	-9.0634003282e-02, -6.7249543965e-02,  1.2219154090e-01,  1.1771222949e-01,  7.6996855438e-02, -6.1199966818e-02, -1.2277017534e-01, -2.6230292395e-02, -1.2528659403e-01, -5.4209690541e-02, 
	 2.3262917995e-02,  1.8416106701e-02,  3.6681476980e-02, -4.7998368740e-02,  6.3269503415e-02,  6.9258369505e-02, -1.8167980015e-02, -4.5661788434e-02, -3.0129717663e-02, -9.5786519349e-02, 
	 1.6772167385e-01, -8.4467843175e-02,  2.0460214466e-02,  2.2280209232e-03, -1.8176904321e-01,  8.6356312037e-02, -9.1101549333e-04,  1.7612726986e-01, -8.1601485610e-02,  7.9277515411e-02, 
	 1.6823415458e-01,  6.0350831598e-02, -6.2386557460e-02,  4.0627002716e-02, -4.2385853827e-02, -1.8441407382e-01,  1.2496678531e-01,  1.1738637090e-01, -3.5292152315e-02, -7.6138377190e-02, 
	-5.8230303228e-02, -8.5189059377e-02, -4.8243103083e-04, -1.6280427575e-01, -9.3617871404e-02, -8.6973339319e-02,  1.2504300475e-01,  9.8762385547e-02,  3.2470081002e-02,  9.6780564636e-03, 
	 7.2891362943e-03, -4.7889582813e-02,  1.6846286133e-02, -1.1081761681e-02,  4.3246757239e-02,  5.8487959206e-02, -7.3728212155e-03,  6.7238233984e-02, -1.3086283207e-01,  1.6702514887e-01, 
	 5.3956598043e-02, -1.2771211565e-01, -1.0016681254e-01, -7.1574114263e-02,  4.5863352716e-02,  8.0973459408e-03, -9.1884568334e-02,  1.5035647154e-01, -1.3324302435e-01,  1.2101095170e-01, 
	-4.6849377453e-02,  1.3251271844e-01,  1.2482684106e-01,  9.6964158118e-02,  3.3850455657e-04,  1.2093374133e-01, -5.3936280310e-02, -1.1409987509e-01, -7.8513219953e-02, -8.6316034198e-02, 
	 4.7133158892e-02,  1.6306945682e-01, -3.9209499955e-02, -7.9387448728e-02, -1.0310272872e-01, -1.0337305814e-01, -7.7903278172e-02,  1.4497613907e-01,  1.6836163402e-01,  3.3391479403e-02, 
	 2.7829935774e-02,  6.1905016191e-03,  5.9175975621e-02, -4.7040440142e-02, -7.9189807177e-02,  1.7644286156e-01,  4.4329401106e-02, -1.2574003637e-01,  6.3564904034e-02, -2.0389270782e-01, 
	 9.4074912369e-02,  6.0566853732e-02,  3.5111419857e-02, -5.3853314370e-02, -1.4046712313e-03,  7.4873723090e-02, -4.7239638865e-02,  8.7686046958e-02, -6.1223890632e-02,  2.1045280620e-02, 
	 1.0421657562e-01,  6.2272476498e-04,  1.3986353762e-02,  6.9641776383e-02, -4.0297969244e-03, -5.9897687286e-02, -6.7436158657e-02, -1.3612565398e-01, -2.5092657655e-02, -8.6800031364e-02, 
	 9.7845152020e-02, -6.0877420008e-02,  1.2151864916e-01,  5.9767954051e-02,  1.1632160284e-02,  5.9052072465e-02, -1.6806334257e-02,  7.0567391813e-02, -6.6417790949e-02,  1.4209184051e-01, 
	 1.7344586551e-01, -3.0394032598e-02, -1.6626985371e-01,  6.5796487033e-02,  7.1866720915e-02, -1.1961393058e-01,  5.7939771563e-02,  1.3995790482e-01, -1.4682744443e-01, -1.6772823874e-03, 
	-1.1508577503e-02,  1.8135445192e-02,  9.3702189624e-02, -5.5945772678e-02, -2.8108298779e-02,  1.4058307745e-02, -1.1469290406e-01,  1.4617323875e-01,  1.5687988698e-01, -5.3933419287e-02, 
	 6.1481114477e-02,  9.7698077559e-02,  5.8747738600e-02, -1.8146333098e-01, -1.8592643319e-03,  3.8588311523e-02,  7.0677831769e-02,  9.0753279626e-02, -9.0366020799e-02, -6.2810890377e-02, 
	 7.3047384620e-02,  9.5226362348e-02,  2.2374657914e-02, -4.3001171201e-02,  1.7496359348e-01, -3.9975006133e-02,  2.9093571007e-02,  5.5797803216e-03, -4.3737281114e-02, -1.3888511062e-01, 
	-2.5228790939e-02, -1.3719370961e-01,  6.7497824784e-04,  1.2973329425e-01,  1.6084693372e-01,  1.0825108038e-03,  1.4542320371e-01,  1.3385480642e-01,  1.0883402079e-01, -4.9437850714e-02, 
	 1.4087015390e-01, -1.4316767454e-01,  1.7208097503e-02, -1.1682888865e-01,  2.1604928188e-03,  9.0984761715e-02, -8.4825672209e-02, -6.2610365450e-02,  8.8733248413e-02,  8.6870715022e-02, 
	-2.5754189119e-02, -9.0902455151e-02,  9.1792389750e-02, -4.0744349360e-02,  4.2130865157e-02, -1.0176224262e-01,  5.5465184152e-02, -1.0563147813e-01, -8.2960039377e-02,  1.0477232188e-01, 
	 1.6174252331e-01,  3.6137115210e-02,  4.7240674496e-02,  5.3021192551e-02, -1.6752339900e-02, -1.4861461520e-01, -5.7480387390e-02, -1.3072259724e-02, -5.4493848234e-02, -2.6107450947e-02, 
	 7.3015689850e-02, -8.7632484734e-02,  5.5526949465e-02,  4.9063526094e-02, -1.3783791661e-01,  6.5835691988e-02, -5.1959227771e-02, -6.8370953202e-02, -5.4782304913e-02,  3.4245692194e-02, 
	-7.9185448587e-02,  5.4089948535e-02,  9.0025708079e-02,  1.4989354648e-02,  5.1574584097e-02, -1.3353008032e-01,  1.3839550316e-01,  1.7321355641e-02,  1.2868899107e-01,  4.4256810099e-02, 
	-1.1186508834e-01, -1.0508820415e-01,  6.5214723349e-02,  9.6947759390e-02, -7.4593484402e-02, -1.2958024628e-02,  6.3552431762e-02,  9.1479709372e-03,  1.3076022267e-01,  1.3368307054e-01, 
	 8.6439989507e-02,  7.6419197023e-02,  1.8426681636e-03,  7.1074105799e-02, -8.5498848930e-03,  1.4558207989e-01, -1.2865805626e-01,  7.4910692871e-02, -6.1789516360e-02, -3.7753615528e-02, 
	 1.4472351409e-02,  9.3477010727e-02,  2.4126665667e-02,  1.2617382407e-01,  1.3463370502e-01, -5.0428248942e-02,  1.3530707359e-01, -6.1016168445e-02, -8.7328530848e-02, -8.7751574814e-02, 
	-6.5224222839e-02,  8.3799257874e-02,  3.7564963102e-02, -3.9999384433e-02,  1.5246855095e-02,  2.8511870652e-02,  1.2291790545e-01,  9.5577217638e-02, -1.0158100165e-02,  8.5194446146e-02, 
	-9.8998069763e-02, -1.0603637993e-01,  5.2011515945e-02,  1.2841363251e-01, -4.0173880756e-02,  7.5751796365e-02, -1.0018656403e-01, -8.5395149887e-02, -1.0693211108e-01, -4.1870266199e-02, 
	 1.2336136401e-01, -1.1429204047e-01, -4.9561619759e-02, -7.2679266334e-02, -5.4586533457e-02,  9.2299938202e-02,  7.0294201374e-02, -4.7695465386e-02, -2.0183028653e-02,  1.0213220865e-01, 
	-7.7316693962e-02,  9.7614556551e-02, -1.3994549215e-01, -9.4932965934e-02,  3.1543068588e-02,  1.1027776450e-01,  9.8879046738e-02,  1.0248900205e-01, -9.5794312656e-03,  4.1530471295e-02, 
	-9.0592779219e-02, -7.1057461202e-02, -2.2497825325e-02, -5.7178683579e-02, -3.9877925068e-02,  4.5727111399e-02, -1.0767255723e-01,  9.8163053393e-02, -9.3762435019e-02,  7.7003918588e-02, 
	-1.3920734823e-01,  1.1153191328e-01, -1.2448334694e-01, -4.6285957098e-02, -5.4898623377e-02, -6.4944542944e-02, -9.9387086928e-02,  6.7425988615e-02, -9.0074330568e-02,  6.5467074513e-02, 
	 1.7084207386e-02,  1.0632004589e-01, -5.2233479917e-02, -1.1569643766e-01,  1.2807655334e-01, -7.8163538128e-03,  4.3043810874e-02,  8.0739915371e-02,  7.5961783528e-02,  3.6904465407e-02, 
	-1.1219523847e-01, -9.1359026730e-02,  1.4467834495e-02,  1.9130272791e-02, -3.1166722998e-02, -4.1137684137e-02, -1.2147168070e-01, -1.1185541749e-01,  4.0889270604e-03,  7.2839900851e-02, 
	 1.1485482752e-01, -5.3339120001e-02, -2.9470628127e-02,  6.6923089325e-02,  1.2453680485e-01,  1.2067954242e-01,  3.0396290123e-02, -1.8075223488e-04, -7.4951216578e-02, -7.6111249626e-02, 
	 7.0685893297e-02, -8.3015777171e-02,  6.2447350472e-02,  2.6610281318e-02,  1.3201859593e-01,  7.0145010948e-02, -1.2991566956e-01, -5.1215495914e-02,  4.0867193602e-03, -8.0970957875e-02, 
	 7.6735399663e-02,  6.6646851599e-02,  2.4172877893e-02,  7.8280135989e-02, -2.8314301744e-02, -5.6735102087e-02,  5.0812952220e-02,  7.1657381952e-02, -2.1564751863e-02,  9.9850736558e-02, 
	-7.6905749738e-02,  3.5582151264e-02, -1.1296690255e-01, -7.3357024230e-03,  7.5497440994e-02, -4.5103084296e-02,  9.3526221812e-02, -3.4285739064e-02,  1.7033340409e-02, -4.0279589593e-02, 
	 1.4405180514e-01,  3.7563521415e-02, -2.3076683283e-02,  8.5229642689e-02, -9.3742102385e-02, -5.5147066712e-02,  3.7448767573e-02, -7.4993483722e-02,  1.3812775910e-01,  1.2197522819e-01, 
	-9.3135185540e-02, -1.3807927072e-01,  2.1929664537e-02,  7.4928276241e-02, -3.4357532859e-02,  3.8127347827e-02, -5.2750721574e-02, -7.6823465526e-02,  9.4741366804e-02, -8.1102319062e-02, 
	-1.3508601487e-01,  1.2826341204e-02, -6.7859636620e-03, -1.0513189435e-01,  5.4027572274e-02,  9.6001110971e-02, -4.3106060475e-03,  7.2165466845e-02, -1.3787530363e-01, -9.4270640984e-03, 
	 1.2879431248e-02,  1.3168640435e-01,  1.0946805775e-01,  7.7635340393e-02,  1.0707492940e-02, -8.8552134112e-03,  3.6974538118e-02, -4.7805689275e-02, -1.5947205946e-02,  6.0092285275e-02, 
	 7.2588846087e-02, -8.5623227060e-03,  5.3016927093e-02, -7.7059641480e-02,  3.3505659550e-02, -1.4093506336e-01, -1.4247699082e-01,  1.1781352013e-01,  2.3951015901e-03, -4.4516637921e-02, 
	-5.9673905373e-02, -9.2170543969e-02, -1.5355048701e-02, -9.5806777477e-02, -4.4797211885e-02,  4.9262758344e-02,  1.1535577476e-01,  1.3465103507e-01,  2.5477105752e-02,  1.0140717030e-02, 
	-1.1412365735e-01,  1.2520541251e-01,  1.4007490873e-01,  2.9140587896e-02,  1.2218688428e-01,  3.1218719669e-03,  6.1936816201e-03, -1.2075065076e-01, -6.9256618619e-02, -5.6665483862e-02, 
	-3.3903867006e-02, -8.4425307810e-02,  6.2300162390e-03,  1.2910470366e-01, -7.6726883650e-02, -6.6977374256e-02, -1.8871726934e-03, -1.4162306488e-01, -2.0336899906e-02, -1.0794202983e-01, 
	 1.2932942249e-02, -6.7377969623e-02,  2.6921436191e-02,  1.3157922029e-01,  7.8516174108e-03,  7.6051004231e-02, -6.1573863029e-02, -5.8369755745e-02, -1.1336767673e-01, -1.3543440960e-02, 
	 8.7014377117e-02, -3.4880779684e-02,  1.4051941037e-01,  5.3997736424e-02, -7.3885269463e-02, -6.1178528704e-03, -3.7881467491e-02,  8.3456277847e-02,  5.7737659663e-02, -1.2159875780e-01, 
	-1.3770234585e-01, -1.3324166834e-01, -5.0515227020e-02,  3.7039179355e-02,  1.0565470904e-01, -1.0499124974e-01, -1.8530709669e-02,  7.2764158249e-02, -3.0444098637e-02,  4.9412138760e-02, 
	 2.5916162878e-02,  1.1617796868e-01,  5.6725408882e-02, -1.6163083911e-01, -1.3421665132e-01,  7.9210344702e-03, -2.0712111890e-01, -8.0234475434e-02,  3.5999618471e-02, -2.3341964930e-02, 
	 2.0398151129e-02,  3.9118044078e-02,  6.7667111754e-02,  2.1146275103e-01, -8.1461332738e-02,  1.4818584919e-01, -1.0966929048e-01, -4.5888867229e-02,  9.7436800599e-02,  1.3571013510e-01, 
	-1.1991523951e-01, -7.0700369775e-02, -5.4470639676e-02,  1.6259984672e-01,  8.2309320569e-02,  4.6279444359e-03,  3.0932938680e-02,  1.0504584014e-01, -1.2880451977e-01, -3.7469673902e-02, 
	-1.5329024196e-01,  1.3839719817e-02, -1.8271838129e-01, -1.9177634269e-02, -1.1841282994e-01, -5.7707745582e-02,  1.3437186182e-01, -2.4181561545e-02,  9.1354511678e-02, -1.5458473563e-01, 
	-9.3511724845e-03,  8.0487392843e-02, -6.2482208014e-03,  1.2056864053e-01,  2.1338781342e-02,  4.7761991620e-02,  9.1677449644e-02, -2.3930221796e-02, -2.5539344177e-02, -8.2045450807e-02, 
	 1.9716197252e-01, -9.4256907701e-02,  3.0627047643e-02, -1.7573964596e-01,  5.4465938359e-02,  1.6651849449e-01,  1.2997351587e-01, -9.0008556843e-02,  1.3318693638e-01, -5.0637056120e-03, 
	 1.4682316780e-01, -9.8913684487e-02, -7.8873865306e-02, -5.7400941849e-02,  1.7001402378e-01, -1.7079588771e-01, -3.4929487854e-02, -1.1905534193e-02,  1.2123439228e-03, -5.1000416279e-02, 
	-4.3125413358e-03,  2.3508442566e-02, -6.3297199085e-03, -1.4280718565e-01,  9.7100988030e-02, -1.2460581213e-01, -6.5143331885e-02, -5.4845638573e-02,  5.5649098009e-02, -3.5133346915e-02, 
	-4.8658348620e-02,  5.7313341647e-02,  7.7124319971e-02, -1.9277732819e-02, -1.6961385310e-01,  9.1180130839e-02,  1.6483691335e-01,  6.4760386944e-02,  1.5537664294e-01,  8.1986993551e-02, 
	-6.8511247635e-02,  9.8342090845e-02, -1.2015832216e-01, -1.3570405543e-01, -8.2748904824e-03,  9.2682071030e-02, -1.2542860210e-01,  3.2823469490e-02,  1.0644417256e-02, -7.9807713628e-02, 
	-6.4428806305e-02,  1.0573603213e-01,  8.5526295006e-02, -2.7094596997e-02,  1.8333508074e-01,  1.5058950521e-02, -9.8614089191e-02,  3.4904107451e-02, -2.3838493973e-02,  1.4191441238e-01, 
	 1.8603685498e-01,  1.0154730082e-01, -7.9373575747e-02, -9.0694062412e-02,  6.4004346728e-02,  2.1620411426e-02,  6.9032907486e-02, -8.9740000665e-02,  2.4272903800e-02,  4.0487721562e-02, 
	 1.3268004358e-01, -5.0766300410e-02, -3.1587891281e-02,  9.1804407537e-02, -7.8914895654e-02, -9.2391885817e-02,  1.1232616007e-01,  9.5552444458e-02,  1.2986506335e-02, -1.2465310097e-01, 
	 1.0296688229e-01, -9.3389347196e-02, -4.2319241911e-02,  4.2632870376e-02, -4.0932963602e-03, -4.9000006169e-02, -8.2859233022e-02, -1.2823413312e-01, -4.8815302551e-02,  3.2315053046e-02, 
	 1.5122561716e-02, -1.2661831081e-01,  2.6597615331e-02,  5.0745721906e-02, -5.2475433797e-02,  2.1591018885e-02, -3.1417785212e-03,  1.4783892035e-01, -2.4212308228e-02,  6.1190584674e-03, 
	-3.8362968713e-02, -2.9863242060e-02, -1.1574359238e-01,  2.6728080586e-02, -1.2308979779e-01, -5.9776112437e-02, -1.3402852416e-01, -8.3049550653e-02, -1.3407260180e-01,  4.3937098235e-02, 
	 6.9042280316e-02,  1.1527152359e-01, -4.0214799345e-02, -4.2193587869e-02,  2.4231728166e-02, -1.0701610148e-01, -6.6826805472e-02,  6.7996598780e-02, -8.2281224430e-02, -5.2110888064e-02, 
	-1.9160162657e-02, -5.2764631808e-02, -1.5214477666e-02, -7.0804029703e-02, -6.9475747645e-02, -4.7883344814e-03, -6.1058703810e-02,  1.4377537370e-01, -1.3303337991e-01, -1.0634206980e-01, 
	 1.0624386370e-01, -1.0895919055e-01, -4.7352612019e-02,  4.7876127064e-02,  9.7145408392e-02, -1.3561062515e-01,  6.7188657820e-02,  4.3833293021e-02,  3.5536617041e-02,  1.3243977726e-01, 
	-2.4376479909e-02, -9.3240968883e-02,  7.0029541850e-02, -5.7512421161e-02,  7.9114716500e-03,  5.0579234958e-02,  6.4817696810e-02,  8.5009694099e-02,  7.4240833521e-02,  7.9129964113e-02, 
	 1.1550273746e-01,  4.0576484054e-02, -4.9249187112e-02, -1.4036792517e-01, -3.0487129465e-02, -5.0866557285e-03,  2.9374444857e-02,  8.8573880494e-03, -1.2356652319e-01, -2.1540280432e-02, 
	 9.0042650700e-02, -1.8916720524e-02,  1.2247959524e-01,  1.7559319735e-02, -3.3470563591e-02, -6.3465192914e-02, -9.9652903154e-03, -1.9891669974e-02,  1.2310958654e-01, -9.0904921293e-02, 
	 9.5491932007e-04, -1.0422208905e-01,  1.7331762239e-02, -4.3968139216e-03,  8.8750116527e-02,  9.7310289741e-02,  2.2467684001e-02, -6.1056945473e-02,  3.9454218000e-02,  1.1451759189e-01, 
	-6.3087873161e-02, -3.8231868297e-02, -7.0634214208e-03, -1.0440053418e-02, -5.7072520256e-02,  3.6572538316e-02, -1.8340764567e-02, -1.1995910108e-01, -7.6790831983e-02, -1.2574811280e-01, 
	 3.9966944605e-02, -1.2227861583e-01,  4.3816193938e-02, -4.8147808760e-02,  8.1022158265e-02,  1.3992768526e-01,  1.3260039687e-01, -8.8904455304e-02, -1.1072151363e-01,  1.1483561993e-01, 
	 9.3163289130e-02,  1.1344181746e-01,  8.8516704738e-02,  1.9195150584e-02,  1.1039042473e-01, -1.1810842156e-01, -3.0016060919e-02, -5.6241121143e-02, -1.0194104910e-01,  8.6392126977e-03, 
	-7.7908955514e-02,  1.6952410340e-01, -1.3181397319e-01, -8.3592273295e-02, -4.7107107937e-02, -6.5969735384e-02,  6.2431674451e-03,  9.2859439552e-02, -7.6574385166e-02, -3.1650077552e-02, 
	-5.6503985077e-02,  1.3431521133e-02,  1.5979132056e-01,  6.0627974570e-02, -1.1690262705e-01, -9.1643454507e-03,  1.0674613714e-01,  1.6836370528e-01, -6.1076942831e-02,  5.4965227842e-02, 
	-1.0431905836e-01,  1.5050646663e-01,  9.3301661313e-02, -1.1037262529e-01, -7.6884299517e-02, -9.0564452112e-02,  7.8216738999e-02,  6.9290608168e-02, -1.8202964216e-02, -4.9467086792e-03, 
	-1.4876864851e-01, -1.1347486079e-01,  7.2270259261e-02, -8.0846138299e-02,  1.2997011840e-01,  1.1113841087e-01,  7.1779727936e-02,  3.5960920155e-02, -1.0839165747e-01, -3.9784174412e-02, 
	-8.1210739911e-02,  9.2034779489e-02, -9.7010873258e-02, -1.4778588712e-01, -1.0055009043e-03, -6.4590782858e-03, -8.6776703596e-02, -8.2365758717e-02,  3.3327229321e-02,  8.5620865226e-02, 
	-1.2426720001e-02,  6.8702787161e-02,  1.9212247804e-02, -1.0596752167e-01, -1.0046236217e-01,  6.6842824221e-02,  2.3676028475e-02,  1.0506141186e-01, -8.8752701879e-02,  2.0736181177e-03, 
	 1.3063359074e-02,  2.0389230922e-02,  7.4986338615e-02, -4.3446049094e-02,  6.8747460842e-02,  1.3780677319e-01,  8.0011554062e-02,  8.6382120848e-02, -1.1030119658e-01, -3.6122810096e-02, 
	-1.1780143529e-01, -1.1803910136e-01,  4.8466544598e-02, -2.0368289202e-02, -1.5242885053e-01, -1.0723070055e-01, -2.1814780310e-02, -9.5481865108e-02, -9.8066449165e-02,  5.1437124610e-02, 
	 1.3458052650e-02, -8.7932169437e-02,  3.5581436008e-02, -3.8031410426e-02, -6.6760241985e-02,  1.6746412218e-01,  5.3474970162e-02, -9.3732066453e-02, -5.8405071497e-02,  8.7700940669e-02, 
	 9.2917770147e-02, -8.2670331001e-02,  9.2168271542e-02,  1.2457392365e-01,  7.2287820280e-02,  9.9349677563e-02, -1.2807277031e-02, -8.1105783582e-02,  7.3896229267e-02,  7.9682119191e-02, 
	-8.0749042332e-02, -1.1480695009e-01,  9.1673381627e-02, -3.3273797482e-02, -1.2903454900e-01,  9.7530089319e-02,  1.6554377973e-01, -7.3054336011e-02, -5.1349576563e-02, -4.0086574852e-02, 
	-3.4569830168e-03, -8.4487602115e-02,  9.8327502608e-02,  3.6303859204e-02,  9.6356287599e-02, -1.5735991299e-01, -3.0188877136e-02,  2.4927964434e-02, -7.8986883163e-02, -1.5644101799e-01, 
	 2.0708432421e-02,  5.0741396844e-02, -2.3135593534e-01,  2.0725336671e-01,  1.1064801365e-02, -7.2787046432e-02, -1.7700950801e-01,  1.5366168320e-01,  1.7741383612e-01, -5.0284698606e-02, 
	 1.7115224898e-01,  2.0300407708e-01, -1.0158379562e-02,  7.4633955956e-02,  6.2116488814e-02,  1.2192428857e-01,  2.0775586367e-01, -1.5928553045e-01,  7.9275511205e-02, -4.1698485613e-02, 
	 7.8858628869e-02, -5.5363200605e-02,  1.9155834615e-01, -8.4635563195e-02, -3.5835154355e-02, -1.3777917624e-01,  1.7788851261e-01, -9.3090936542e-02, -1.6694618762e-01, -1.6908042133e-01, 
	 5.6225128472e-02, -2.0743618906e-01, -4.1640084237e-02,  6.4438760281e-02,  2.0878367126e-01,  3.5749317612e-03,  8.3045646548e-02, -1.6827132553e-02, -8.0292820930e-03, -6.6219262779e-02, 
	-1.9137313962e-01,  3.0557325110e-02,  4.6810589731e-02,  7.1821130812e-02,  6.4985893667e-02, -1.0701169074e-01, -4.2064059526e-02, -6.7966140807e-02, -2.0162057877e-01, -1.9167598337e-02, 
	 7.3171830736e-03,  1.5911418200e-01,  1.9446428120e-01, -2.8139775619e-02,  3.2685570419e-02, -8.3118334413e-02,  2.7053026482e-02,  1.3792750239e-01,  3.8019478321e-02,  5.7788096368e-02, 
	-6.0152988881e-02,  1.0666819662e-01, -1.7434540391e-01, -9.7617000341e-02, -1.7614069581e-01,  9.7231574357e-02,  2.0948003232e-01,  1.0605534911e-01, -3.4195423126e-02,  9.6330292523e-02, 
	 4.5279585756e-03,  2.5287013501e-02, -1.9719381630e-01, -1.4718499780e-01,  6.4774742350e-03, -1.0784831643e-01,  1.7657430470e-01,  1.7792460322e-01, -4.2034890503e-02,  7.8554853797e-02, 
	 1.1933989823e-02, -1.0851424187e-02,  1.0378200561e-01, -1.7006437480e-01,  1.3540726900e-01, -1.4544558525e-01, -2.0426476002e-01, -3.1785495579e-02,  1.5337704122e-01,  1.7673894763e-01, 
	-1.2503743172e-01, -3.4921109676e-02, -6.0805529356e-02, -1.6247433424e-01,  1.7686392367e-01, -1.8775653839e-01,  1.1764813960e-01,  1.4711778611e-02, -8.0460153520e-02, -4.8252597451e-02, 
	 1.9489184022e-01,  6.4608134329e-02, -8.9303523302e-02,  1.8425011635e-01, -1.3926081359e-01,  6.0513932258e-02, -1.0635744780e-01,  5.3987827152e-02,  4.5610941947e-02,  2.1635383368e-01, 
	-7.5722493231e-02,  6.7634649575e-02, -1.1159331538e-02, -1.5897920728e-01, -6.5183872357e-03, -2.1279852092e-01, -1.9237460196e-01,  3.7487819791e-02, -6.2913127244e-02, -6.1950381845e-02, 
	-2.6337035000e-02,  1.8385820091e-02, -8.8368356228e-03,  6.1519138515e-02, -9.1970302165e-02,  1.0671690106e-01,  1.5362347662e-01,  1.0510478169e-01,  2.9682323337e-02, -1.5181541443e-01, 
	-4.0301825851e-02,  4.3248493224e-02,  6.9620847702e-02, -5.9246316552e-02,  3.4139787313e-03,  1.1068581790e-01, -1.0093871504e-01,  1.1997542530e-01, -1.6258789599e-01, -1.4136819541e-01, 
	-5.4862860590e-02, -1.3557343185e-01,  1.2252855115e-02, -1.6928286850e-01, -1.7156578600e-01,  1.5603640676e-01, -1.5278014541e-01, -4.0020741522e-02, -6.2058873475e-02, -3.4806326032e-02, 
	-9.3150235713e-02, -3.0329808593e-02, -1.6156633198e-01,  4.2309809476e-02,  9.4009399414e-02, -5.5319357663e-02,  3.6428399384e-02,  1.6196836531e-01, -9.7792018205e-03,  6.4617089927e-02, 
	 2.8649713844e-02, -1.2350159138e-01,  6.2016755342e-02,  1.5989545733e-02, -9.3804709613e-02,  2.6816375554e-02, -1.3049162924e-01, -1.3273409009e-01,  1.4122408628e-01,  6.3167020679e-02, 
	-8.1478171051e-02,  8.0321326852e-02,  7.5478315353e-02,  1.3546174765e-01,  2.4947745726e-02,  2.5733454153e-02,  7.2485238314e-02, -2.0021341741e-02, -6.5162770450e-02, -1.2814809382e-01, 
	-3.9047013968e-02, -8.6102649570e-02,  1.4810799062e-01,  1.3606455922e-01, -1.0526416823e-02, -7.8241623938e-02, -1.4670440927e-02,  8.6460828781e-02, -6.0338139534e-02, -1.2498854101e-01, 
	-1.9366046414e-02,  2.6242740452e-02,  1.7985878512e-02,  3.8563296199e-02, -9.9870637059e-02,  5.0561863929e-02, -2.6697233319e-02,  6.4907290041e-02,  1.7965827137e-02, -7.8203387558e-02, 
	 1.0874757171e-01,  2.2837221622e-02, -9.0873926878e-02,  1.3829402626e-01,  9.2255070806e-02,  7.9069718719e-02, -9.8440088332e-02,  1.2352607213e-02,  1.4590647817e-01, -9.7539827228e-02, 
	 9.1153690591e-03,  9.6490412951e-02, -1.4866840839e-01,  1.3768254220e-01, -6.3282035291e-02, -8.1590712070e-02,  3.9187084883e-02,  1.3071149588e-02,  1.1008691043e-01, -9.9203258753e-02, 
	-1.0329739004e-01,  4.5424316078e-02,  7.1603022516e-02,  1.4418837428e-01, -1.5447396040e-01, -8.8056214154e-02, -4.0297850966e-02,  1.1259680241e-01,  6.6599413753e-02, -1.9849425182e-02, 
	-5.3127057850e-02, -5.2528314292e-02, -5.5527009070e-02,  1.8417002633e-02, -4.6348288655e-02,  8.5887290537e-02, -4.3623901904e-02,  1.4065937139e-02,  1.0821283795e-02,  1.0719362646e-01, 
	 2.6773842052e-02, -6.6411919892e-02,  8.7655477226e-02, -9.6802242100e-02, -8.6386017501e-02,  3.7246070802e-02,  1.4311553538e-01, -1.6234964132e-01,  6.2142364681e-02,  4.9117498100e-02, 
	 1.5858998895e-01,  4.3437488377e-02,  6.7350231111e-02, -9.4201393425e-02, -3.5533539951e-02, -1.1647293717e-01, -1.2571635889e-03,  1.1394929886e-01, -6.9759108126e-02,  6.0695791617e-03, 
	 1.1870311201e-01, -3.8800500333e-02,  1.0923959315e-01,  8.5684619844e-03,  8.1568151712e-02, -6.8968087435e-02, -7.5132735074e-02, -6.1348840594e-02, -2.5024947245e-03,  3.9588954300e-02, 
	-1.1120092869e-01,  3.1336743385e-02,  3.7276556250e-03, -3.1711637974e-02, -2.2857097909e-02,  1.3305786252e-01,  1.1546154320e-01,  8.2810252905e-02,  7.2581753135e-02,  9.0986639261e-02, 
	 1.3075257838e-01,  1.9108271226e-02,  7.8860163689e-02, -2.1383590996e-02, -1.3163967431e-01, -4.7851916403e-02,  1.2753306329e-01,  8.7163403630e-02,  7.2603195906e-02,  2.8657948598e-02, 
	-1.2466780841e-01,  1.2515999377e-01, -6.1751548201e-03, -1.4658373594e-01,  5.3121250123e-02,  9.0353347361e-02, -5.4859038442e-02, -1.4242315665e-02,  6.6598095000e-02,  1.4320570230e-01, 
	-1.1183875799e-01, -1.2845450640e-01,  8.5229627788e-02, -8.8911410421e-03, -6.0851614922e-02, -8.4650374949e-02, -3.2724313438e-02,  6.6455632448e-02,  6.0929888859e-03, -3.5619093105e-03, 
	 1.2853081524e-01, -7.3076188564e-02,  5.3856633604e-02,  1.2112818658e-01, -3.3745288849e-02, -3.4161988646e-02, -6.1885863543e-02, -1.2644974887e-01, -2.6979988441e-02,  3.3765703440e-02, 
	-1.3569328189e-01, -8.7384410203e-02, -1.4560249448e-01,  6.0079165269e-04,  1.4187893271e-01, -1.2307480723e-01, -3.5906632547e-04,  5.8113478124e-02, -3.7851221859e-02,  1.2817962468e-01, 
	-1.0918675363e-01, -1.2080305815e-01,  1.2142963707e-01,  5.4944004864e-02,  1.4214466512e-01, -1.1472594924e-02, -4.4310696423e-02, -4.5257199556e-02, -1.4493460953e-01,  1.1003800482e-01, 
	-4.5801065862e-02,  1.4111027122e-01,  3.5703785717e-02, -3.8936030120e-02,  6.7948862910e-02, -1.4302471653e-02,  3.7329088897e-02,  1.7604762688e-02,  3.7944681942e-02, -4.1076291353e-02, 
	-1.6142491251e-02, -1.1603008211e-01,  5.5074010044e-02, -1.1408522725e-01,  7.3458671570e-02, -3.8887258619e-02,  6.6314652562e-02,  1.0974447429e-01,  7.2995116934e-03,  2.5642788038e-02, 
	 3.4157563001e-02, -1.0466123372e-01,  2.7626985684e-02,  3.8065362722e-02,  9.8353952169e-02,  1.1383937299e-01,  1.3577204943e-01, -8.9416489005e-02, -9.6272833645e-02,  7.7001012862e-02, 
	-4.0393907577e-02, -5.2841082215e-03, -1.0923437774e-01, -7.6014451683e-02,  5.7765029371e-02,  1.7244644463e-02, -1.1846934259e-01, -7.8784309328e-02, -1.4122195542e-01, -1.2666420080e-02, 
	-3.9809253067e-02, -2.9041040689e-02, -6.3128635287e-02, -7.9011887312e-02,  7.8172184527e-02, -4.4953808188e-02, -1.1549347639e-01, -1.2722119689e-01, -4.0348771960e-02,  5.8797895908e-02, 
	 1.1185040325e-01,  7.4693433940e-02, -8.2794360816e-02,  9.2697821558e-02, -6.4416967332e-02, -1.0087870806e-01,  1.4545488358e-01, -9.1135300696e-02, -4.4476445764e-02, -1.0987464339e-02, 
	 2.5057205930e-02, -6.5180294216e-02,  4.2530694045e-03, -9.0095266700e-02,  4.4360198081e-02,  6.0232453980e-03,  1.0220164806e-01, -1.0075590760e-01, -1.9122934900e-03,  5.2375879139e-02, 
	 1.7588477582e-02,  5.3221355192e-03, -1.0196818411e-01,  1.2008024007e-01, -1.7785433680e-02,  1.0223256052e-01,  6.0035429895e-02, -5.0200972706e-02,  1.0219514370e-01,  3.2818965614e-02, 
	 1.2267827988e-02,  3.6163542420e-02, -1.5373979695e-02, -9.7257941961e-02, -1.5774286585e-03,  4.4181462377e-02, -2.8837392107e-02,  1.1466175318e-01,  1.3899617828e-02, -2.6748701930e-02, 
	 1.4153507352e-01, -1.3627348840e-01,  1.0056112707e-01,  6.8677403033e-02, -8.4568917751e-02, -1.1873902380e-01, -1.4444744587e-01, -3.8818210363e-02, -1.6751997173e-01,  7.6276309788e-02, 
	 3.3387076110e-02,  4.2283762246e-02, -1.1458120495e-01,  3.7916280329e-02, -9.6596904099e-02, -7.7471337281e-03,  7.6652400196e-02, -7.1443215013e-02,  1.0923352838e-01, -7.3605440557e-02, 
	-1.2847130001e-01,  9.2083260417e-02, -4.0118280798e-02, -1.2434181757e-02,  8.0956570804e-02, -8.7979510427e-02,  7.4046634138e-02, -5.7924218476e-02, -5.4554216564e-02,  1.0335780680e-01, 
	-2.8093302622e-02,  7.6002918184e-02,  2.2832655814e-03, -6.5006569028e-02,  2.5334112346e-02,  1.1932550478e-05, -1.0700419545e-01, -1.2283208221e-01,  9.8536364734e-02,  1.0018987954e-01, 
	-1.7315736040e-02, -5.8829333633e-02, -1.4248612523e-01, -1.3816644251e-01, -9.3682870269e-02,  2.2423896939e-02,  1.4601673186e-01,  3.0390081927e-02,  6.2068600208e-02,  2.3471403867e-02, 
	-3.6976344418e-03, -2.4572277442e-02, -1.8456581980e-02,  1.4955626428e-01,  9.8077066243e-02, -5.3236689419e-02,  1.1684982479e-01, -4.8770911992e-02,  1.3573347032e-01, -8.7805934250e-02, 
	 1.1672479659e-01, -8.1574469805e-03,  1.1459601810e-03, -2.6477823034e-02,  1.2086428702e-02,  1.1521945894e-01, -4.6562653035e-02,  9.2362880707e-02, -5.8976471424e-02,  8.6472267285e-03, 
	-3.7558339536e-02,  9.3700692058e-02, -1.3370792568e-01, -9.6583127975e-02,  1.1274085194e-01, -6.2085431069e-02, -1.0739233345e-01, -7.3116160929e-02,  1.4170300961e-01,  6.8624608219e-02, 
	 3.3690828830e-02, -9.6828743815e-02, -1.2622326612e-01, -1.1016110331e-01, -9.5166660845e-02, -2.8450815007e-02,  1.4444385469e-01,  3.8705822080e-02, -3.6065846682e-02, -5.0668619573e-02, 
	-4.3632019311e-02,  3.8947403431e-02,  6.6072635353e-02, -1.1291944981e-01,  8.2379030064e-03,  6.1741705984e-02, -1.2809126079e-01,  1.3015227020e-01, -1.0509488732e-01,  7.8315302730e-02, 
	 3.5956710577e-02,  2.9869234189e-02,  1.3570740819e-01, -1.4750279486e-01,  2.6760142297e-02,  1.1423475295e-01,  1.1507721245e-01, -6.7447118461e-02, -9.4193331897e-02,  7.1841515601e-03, 
	-6.0044601560e-02, -2.1441392601e-02, -1.1420379579e-01, -1.5526986681e-02,  4.4343844056e-03, -1.2363696843e-01,  1.3357627392e-01,  1.1731620878e-01,  8.9611634612e-02,  9.5537424088e-02, 
	-1.4079196751e-01,  1.3187393546e-01, -1.3863205910e-01,  1.0713969171e-01, -2.1882841364e-02,  1.5149945021e-01, -3.3178679645e-02,  2.8726918623e-02,  4.0992375463e-02, -1.1429028958e-01, 
	-8.4205105901e-02, -6.6811643541e-02,  3.0413879082e-02,  1.0179495811e-01,  1.5675319359e-02, -1.2955230474e-01, -1.9249657169e-02, -1.1253260821e-01,  6.4974188805e-02, -2.4641321972e-02, 
	 4.6267524362e-02,  3.7189275026e-02,  5.8242596686e-02, -1.0588861257e-01, -2.3712065013e-04, -1.1970920116e-01,  1.1426807195e-01,  5.4493818432e-02,  7.6588749886e-02, -8.4358192980e-03, 
	 8.2754112780e-02,  3.6022651941e-02,  4.3703623116e-02,  9.7559623420e-02, -1.3354855776e-01, -3.1465586275e-02, -6.2121018767e-02, -1.8023295328e-02,  1.2222471088e-01, -1.2677696347e-01, 
	-1.3562486507e-02,  1.4993411303e-01,  7.4576601386e-02,  1.2132641673e-01,  8.8663615286e-02, -7.0839338005e-02, -5.5901214480e-02,  3.3496901393e-02,  5.8139186352e-02, -8.7790727615e-02, 
	-3.8619156927e-02, -7.2871513665e-02,  1.3415527344e-01,  3.9741583169e-02, -8.9752316475e-02, -3.0454955995e-02,  1.2133885175e-01,  1.0009441525e-01,  1.4311474562e-01, -1.3106536865e-01, 
	-4.8384990543e-02, -3.6186959594e-02,  2.3610645905e-02,  1.0714378953e-01,  5.9326697141e-02, -9.6167832613e-02, -7.8787706792e-02, -8.2873500884e-02, -9.7457736731e-02,  8.6407937109e-02, 
	 1.1426641047e-01, -8.1745117903e-02,  8.5367724299e-02, -8.9375719428e-02,  1.2692542374e-01, -1.2525635958e-01, -5.9302758425e-02, -4.6886801720e-02,  9.5336243510e-02,  1.4488234185e-02, 
	 4.3074812740e-02, -6.0376126319e-02,  4.6242646873e-02,  1.2958481908e-01, -1.2746223807e-01, -6.7854091525e-02, -8.5190437734e-02,  5.2462503314e-02, -2.6500539389e-03,  6.2453430146e-02, 
	-1.0904572904e-01, -5.6285768747e-02, -9.7552232444e-02, -2.8597619385e-03, -2.6614725590e-02, -4.3728943914e-02, -7.3921389878e-02, -1.3399443030e-01, -6.7251347005e-02,  5.1643937826e-02, 
	-7.4166543782e-02, -1.9217265770e-02,  1.6325572133e-01, -1.2512716651e-01, -6.5380208194e-02, -9.2311099172e-02,  9.1428183019e-02, -1.2712426484e-02, -4.6216454357e-02, -6.2529146671e-03, 
	 3.3875595778e-02, -5.2257612348e-02, -3.2435949892e-02, -1.2557212263e-02,  3.4937821329e-02, -9.3305848539e-02, -1.5702152252e-01, -9.6811927855e-02,  1.0572183132e-01, -1.1655092239e-02, 
	 8.5257990286e-03, -9.9877856672e-02, -3.6528095603e-02, -2.2689040750e-02, -4.8934582621e-02, -8.7505355477e-02,  5.2567590028e-02,  7.8630305827e-02,  1.0377371311e-01,  9.2551402748e-02, 
	 9.6508190036e-02,  1.6656713560e-02, -1.6636159271e-02,  5.4396901280e-02,  1.0316833109e-01,  3.1789518893e-02,  6.4667321742e-02,  2.6210168377e-02,  1.1202165484e-01,  1.0050277226e-02, 
	 1.0615372658e-01,  7.1521982551e-02,  2.4384723976e-02,  1.0851053149e-01,  9.3300342560e-02, -5.9006657451e-02,  1.3539735973e-01, -8.4260985255e-02,  2.8483560309e-02, -1.1213770509e-01, 
	 7.8993029892e-02, -1.7753897235e-02,  3.4114334732e-02,  1.1821132898e-01,  1.5888224542e-01,  1.4472071081e-02, -7.5558260083e-02, -1.4962361753e-01,  1.5356911719e-01, -5.2698142827e-02, 
	 1.0632564127e-01,  9.1006509960e-02,  3.0626952648e-02, -6.7209795117e-02,  3.9423570037e-02, -4.6072993428e-02, -4.2343694717e-02, -1.2231859565e-01, -4.5710161328e-02,  3.3412277699e-02, 
	 1.4690423012e-01,  8.7069667876e-02,  8.4506526589e-02, -3.6713507026e-02,  8.8363938034e-02,  1.3982591033e-01,  1.5171903372e-01, -1.0452424176e-03, -1.2579455972e-02, -3.6474183202e-02, 
	 4.0516614914e-02, -8.2201533020e-02,  1.1195696890e-01,  1.7127043009e-01, -1.3351561129e-01,  1.5433330834e-01, -2.0157510415e-02, -9.5373667777e-02, -9.2385821044e-02, -1.5864947811e-02, 
	-3.8939934224e-02,  1.7094853520e-01,  6.5573714674e-02, -1.5567804873e-01, -7.0338383317e-02,  5.9929050505e-02,  5.8599773794e-02, -7.2623029351e-02, -1.1228229851e-01, -2.6932372712e-03, 
	 3.7666600198e-02,  1.5315873921e-01, -9.4016700983e-02, -4.4684901834e-02, -1.8770335242e-02, -7.6024651527e-02,  1.4088192582e-01, -5.6580834091e-02, -7.8994676471e-02,  1.3121107593e-02, 
	 1.1550921202e-01, -2.2112006322e-02, -2.8725719079e-02, -1.6256001592e-01, -1.0710626096e-01, -8.6261779070e-02,  7.4942581356e-02, -2.3056427017e-02, -1.1904299259e-01, -8.5951484740e-02, 
	 1.6594122350e-01,  1.0306324065e-01,  2.4012684822e-02,  1.3322590292e-01,  7.1731999516e-02,  1.0624402761e-01, -7.1559719741e-02, -1.2802200019e-01,  9.0521022677e-02, -1.0193410516e-01, 
	 1.1213515699e-01,  2.4685626850e-02, -1.4657758176e-02, -9.6724614501e-02,  6.4046159387e-02,  8.8781919330e-03,  5.7548888028e-02,  7.0557117462e-02,  1.0329820216e-01,  9.5825888216e-02, 
	 8.9527353644e-02,  1.5744660050e-02,  5.3544078022e-02,  9.3349376693e-03, -1.1089827120e-01, -5.4608359933e-02,  1.5729735792e-01,  5.5182632059e-03, -1.3422942162e-01,  1.0021951050e-01, 
	-1.2497150898e-01, -1.4984901249e-01, -9.5588728786e-02, -8.5251890123e-02, -1.2123792619e-01, -1.0401446372e-02, -5.3011856973e-02, -1.4509703219e-01,  4.9346806481e-03,  1.3429474831e-01, 
	 2.0901568234e-02, -1.0251571238e-01, -1.1935426295e-01, -1.1334053427e-01,  8.5850402713e-02,  1.0161958635e-01,  1.5094050765e-01, -6.9476932287e-02, -1.4910458028e-01,  7.9580813646e-02, 
	-1.0081773251e-01,  1.6456334293e-01,  2.2594386712e-02, -1.2496159971e-01, -2.3073218763e-02,  1.1822907627e-01, -1.2641951442e-01, -9.0331837535e-02,  1.0254327208e-01, -9.0059824288e-02, 
	-9.3062400818e-02, -1.0950161517e-01,  1.1711744964e-01,  3.5850755870e-02, -4.1317004710e-02,  5.4827939719e-02,  1.0116955638e-01,  1.6879418865e-02,  1.1067884415e-01,  1.2617924809e-01, 
	-6.4314961433e-02, -5.7432416826e-02, -1.1583932489e-01,  1.2205742300e-01,  6.2837358564e-03,  8.3872057498e-02, -2.1101621911e-02, -3.8839515299e-02, -1.2288910151e-01, -1.5423761308e-01, 
	 5.6775555015e-02, -1.8590377644e-02, -1.4979730360e-02, -2.2208752111e-02,  1.4435815811e-01, -4.8119142652e-02,  6.8553261459e-02,  6.1758168042e-02,  1.0635839775e-02, -1.3112387061e-01, 
	-8.6103543639e-02, -1.4320044778e-02, -7.1501217782e-02, -3.6925584078e-02,  1.0340448469e-01,  8.7966814637e-02, -1.1461988837e-01,  9.2186495662e-02,  7.4032925069e-02,  9.4829976559e-02, 
	 1.0164130479e-01, -1.5570603311e-01,  5.5241268128e-02, -2.9572667554e-02, -5.6148149073e-02, -3.9602126926e-02,  1.0232363641e-01,  7.2578199208e-02,  3.4028820693e-02, -4.7124758363e-02, 
	-5.5830266327e-02, -9.9048830569e-02, -8.4374606609e-02,  8.1553846598e-02, -6.4650133252e-02,  7.9716637731e-02,  6.2508106232e-02,  1.2494156510e-01,  2.2032968700e-02,  9.6966244280e-02, 
	 6.2349069864e-02, -2.2647410631e-02,  9.0212538838e-02, -1.3414621353e-01,  3.1097101048e-02,  9.8398551345e-03, -1.5901125968e-02, -8.2876533270e-02, -5.9657864273e-02,  1.1201793700e-01, 
	-3.9097644389e-02, -3.8510147482e-02, -1.1693257093e-01,  6.5901711583e-02, -5.4890997708e-02, -9.4475828111e-02,  1.1172596365e-02,  1.0882011801e-01, -3.7061367184e-02, -3.8245054893e-03, 
	-6.5102770925e-02,  3.8006834686e-02,  4.4673803495e-04,  1.0884525254e-02,  5.7714927942e-02,  1.4649984241e-01,  2.1224783733e-02,  2.2471083328e-02,  7.6956562698e-02, -9.7563058138e-02, 
	 3.7886489183e-02, -1.2126546353e-01,  7.7290475368e-02, -1.8874345114e-03,  1.1980583891e-02,  4.5978341252e-02, -7.7680073678e-02,  1.4343693852e-01,  1.6537331045e-02,  4.9637131393e-02, 
	-1.9525349140e-02, -5.5724043399e-02,  8.5512772202e-03, -9.3262512237e-03, -2.9749039561e-02, -3.7970414851e-03, -3.2492551953e-02,  2.5002170354e-02, -6.5876059234e-02, -6.3754752278e-02, 
	-5.9663262218e-03, -5.6792642921e-02,  1.0813281685e-01,  1.3947483897e-01,  8.8293431327e-03,  1.2225040048e-01,  7.2595208883e-02,  3.6748386919e-02, -1.3580229878e-01, -5.4983761162e-02, 
	-6.6408373415e-02,  1.4963085949e-01,  1.0063670576e-01, -1.5439948067e-02,  1.0824915022e-01,  2.4028964341e-02,  6.1907459050e-02,  4.1485086083e-02, -7.1132816374e-02, -9.3857876956e-02, 
	-7.3668912053e-02,  7.2390817106e-02, -1.1966126412e-01,  7.1886777878e-02,  4.6129062772e-02, -1.5820993111e-02,  6.2188271433e-02, -9.6122272313e-02, -1.0005769134e-01,  1.3125335798e-02, 
	-7.0565119386e-02, -4.1850149632e-02,  6.8706750870e-02, -1.2761132419e-01,  5.9603113681e-02, -1.0269585066e-02,  5.4842889309e-02, -3.0082553625e-02, -1.0787963867e-01,  1.0044856369e-01, 
	 3.8924224675e-02,  1.3989622891e-01, -8.8016338646e-02,  4.0805961937e-02,  7.1093380451e-02,  1.0419914126e-01, -1.0683964193e-01,  6.3395805657e-02,  8.5642665625e-02,  7.1705527604e-02, 
	-1.4664503932e-01,  1.0917204618e-01,  3.8728376385e-03,  5.1409345120e-02, -6.3333839178e-02, -8.4640391171e-02, -1.3139379025e-01,  9.3516588211e-02,  1.2301702052e-01, -6.0370691121e-02, 
	 3.1418319792e-02, -1.1164109409e-01, -2.3606032133e-02,  8.6896911263e-02, -3.1481646001e-02, -1.5001212060e-01, -1.1611834168e-01,  5.0543975085e-02, -2.2813074291e-02,  3.3879201859e-02, 
	 1.2898673117e-01,  1.0596777499e-01, -1.0247994959e-01,  1.4670531452e-01,  3.6145154387e-02, -7.7138643246e-04,  1.7621090636e-02, -6.2349494547e-03,  1.2225360423e-01,  1.2337437272e-01, 
	 5.2516493015e-03,  1.1193078011e-01, -7.4821099639e-02,  1.1682250537e-02,  1.7005135119e-01, -1.5433853865e-01, -3.8990583271e-02,  1.2359688990e-02,  8.3027474582e-02,  2.8281381354e-02, 
	 5.7619791478e-02,  2.0162183791e-02,  6.2970429659e-02, -8.1010326743e-02, -1.7534165084e-01,  2.4272643030e-02,  7.7266938984e-02, -1.1822229624e-01, -1.4014056325e-01, -1.7925485969e-02, 
	 5.5850144476e-02,  1.2903305888e-01, -8.3069697022e-02,  1.0576547682e-01,  1.3486553729e-01,  9.7062498331e-02, -7.1150429547e-02,  3.6542028189e-02, -6.8647570908e-02,  9.7558468580e-02, 
	 4.3188154697e-02, -5.4487310350e-02,  6.4618073404e-02,  1.4051368833e-01,  1.9354936667e-03,  5.9527475387e-02,  1.4848351479e-02, -8.0511078238e-02, -1.2474795431e-01,  1.0590855032e-01, 
	-1.3930660486e-01, -4.3327141553e-02, -1.3638290763e-01, -1.4063364267e-01, -3.6679230630e-02,  8.6522614583e-03,  1.2390184402e-01,  2.1259149536e-02, -1.6303220764e-02,  1.4896804094e-01, 
	 4.0332708508e-02,  1.0830792040e-01,  6.4606748521e-02, -1.3087545335e-01, -7.5378127396e-02,  4.7270406038e-02, -3.1580865383e-02,  1.5071599185e-01,  2.7139170095e-02,  7.6093308628e-02, 
	 1.6968201101e-01, -1.0343002528e-01, -8.8969320059e-02, -7.6281495392e-02, -8.0711178482e-02,  9.9348396063e-02,  6.0863677412e-02, -2.4844350293e-02,  7.0446170866e-03,  9.8116591573e-02, 
	-4.4661652297e-02,  9.8160253838e-03,  4.9450699240e-02,  2.2259140387e-03,  1.0385036469e-01,  4.1906472296e-02, -7.8731328249e-02,  6.3792513683e-03,  1.5601928532e-01,  1.0428452492e-01, 
	-6.2045842409e-02, -1.5289613605e-01,  1.5129125118e-01, -1.1656235904e-01, -4.7786817886e-03, -9.7363494337e-02, -6.0862619430e-02, -4.3402038515e-02, -1.7214751244e-01, -5.3949821740e-02, 
	-8.8834509254e-02, -1.9814282656e-02,  1.9438650459e-02,  1.0607089102e-01, -1.7422430217e-02, -9.3417450786e-02,  2.6576222852e-02,  5.1543030888e-02,  8.0073989928e-02, -6.1571042985e-02, 
	-7.2583764791e-02,  9.6034750342e-02,  1.1446386576e-01,  3.5063385963e-02, -1.2840083241e-01,  6.6062174737e-02, -3.3902369440e-02, -1.4713494480e-01,  4.8969823867e-02,  2.0008699968e-02, 
	 8.2559533417e-02,  4.5539639541e-04,  1.7036589980e-01,  9.4687983394e-02, -5.9730950743e-02, -3.2027203124e-03, -6.0992654413e-02,  9.2824205756e-02,  9.3499608338e-02,  1.4491893351e-01, 
	 7.9489283264e-02,  1.6061823070e-01,  6.1397239566e-02,  6.5320029855e-02,  2.7837825939e-02,  1.5594227612e-01,  4.2010579258e-02, -1.5015748143e-01,  6.0827042907e-02,  2.0844420418e-02, 
	-1.2212245725e-02,  2.1852492355e-03,  7.7485330403e-02,  1.2489067763e-01,  6.7736357450e-02,  4.7712698579e-02,  4.2099181563e-02, -1.8429349363e-01,  4.2076293379e-02, -2.9646214098e-02, 
	 8.5452757776e-02,  4.7739461064e-02, -5.9747442603e-02, -2.8859402519e-03,  7.9935401678e-02, -6.0571070760e-02,  1.2307183817e-02,  1.1583552510e-01,  1.6581286490e-01, -4.9545567483e-02, 
	 1.1622266471e-01,  3.4740420524e-03,  2.6364009827e-02, -1.0255237669e-01,  1.5333995223e-01, -1.6786645353e-01,  2.0092011988e-01, -1.3115912676e-01,  8.9126333594e-02, -6.4754024148e-02, 
	-8.1124333665e-03, -9.1652750969e-02,  7.7567674220e-02, -1.1927571148e-01,  2.1532909572e-01, -5.6281355210e-03,  1.4688511193e-01,  3.3389352262e-02,  1.0461916029e-01,  1.4965999126e-01, 
	 7.6975308359e-02, -6.9977842271e-02,  6.8204938434e-03, -8.1099674106e-02, -1.4379051328e-01,  8.3985384554e-03, -8.6290851235e-02, -2.9014626518e-02, -1.5084326267e-01,  2.3527929559e-02, 
	-6.2675289810e-02, -1.9646607339e-02, -5.5819094181e-02,  1.7303809291e-03,  8.9886121452e-02, -9.6317037940e-02, -1.6798944771e-01,  5.4102037102e-02, -1.0603608191e-01,  9.2069476843e-02, 
	 1.6088822857e-02, -1.7818372697e-02,  8.9408665895e-02,  1.2116531283e-01,  3.4383263439e-02, -8.3189338446e-02, -1.2669426203e-01,  9.5323368907e-02,  3.1488705426e-02,  6.3646510243e-03, 
	-1.0453952849e-01,  1.0850033909e-01,  1.7406139523e-02, -1.4053572714e-01, -4.4511608779e-02, -1.7285929620e-01,  7.8046254814e-02, -1.3532178104e-01, -3.3994998783e-02,  5.6153353304e-02, 
	-1.8196735531e-02,  1.4610466361e-01,  5.8115433902e-02,  1.8726101518e-01,  1.9410943985e-01, -4.3384697288e-02,  1.3180239499e-01, -6.5743878484e-02, -9.8467357457e-02, -1.0075136274e-01, 
	 4.4486202300e-02,  1.1921606213e-01, -1.5315432847e-01,  1.9039581716e-01, -1.4740097523e-01, -8.3144590259e-02, -7.0069558918e-02,  3.9195563644e-02,  7.8918866813e-02,  1.0316280648e-02, 
	-1.1941942386e-02, -3.2380353659e-02, -4.0308833122e-03,  7.2460956872e-02, -9.0201450512e-03,  1.7845691741e-01, -1.8075874448e-01,  3.2741416246e-02, -1.4990934730e-01, -1.4442095160e-01, 
	 7.1905471385e-02,  2.0798517764e-01,  1.8617196381e-01,  7.4431344867e-02,  1.2699306011e-01, -1.1477804929e-01, -1.2504002452e-01, -1.2614013255e-01, -1.3875837624e-01, -2.0238530636e-01, 
	 4.7204145230e-03,  1.2835273147e-01,  1.8965886533e-01, -1.7655770481e-01, -1.9758918881e-01, -7.2313666344e-02,  7.7065154910e-03,  3.4514255822e-02,  6.4591564238e-02,  5.8534957469e-02, 
	-5.6933984160e-03, -1.1497102678e-01, -3.9974290878e-02, -4.6872623265e-02, -1.4094729722e-01,  2.1019099280e-02, -7.7731095254e-02, -1.0109319538e-01, -8.0205939710e-02, -1.1473866552e-01, 
	-1.1576591432e-01, -4.9546822906e-02, -1.2039495632e-02, -1.5495185554e-01, -1.1563261598e-01, -1.7280395329e-01, -1.5832006931e-02,  9.2174131423e-03, -1.7610193789e-01,  8.9294038713e-02, 
	-6.3141897321e-02,  5.4973695427e-02,  7.4411012232e-02, -7.2016477585e-02,  4.4296573848e-02,  9.4878517091e-02, -7.4257835746e-02, -7.1853175759e-02,  1.2228842080e-01, -6.0398415662e-03, 
	-9.7179718316e-02,  1.9776357338e-02,  6.3260952011e-03, -1.7015920579e-01, -7.9005122185e-02, -6.7117542028e-02,  1.4468405396e-02, -9.9688373506e-02,  5.7546533644e-02, -1.2221352756e-01, 
	-7.8972931951e-03, -1.2112206779e-02,  1.7615482211e-01,  7.4612282217e-02, -1.6549077630e-01,  1.6691973805e-01,  1.0087443888e-01, -1.0490003042e-03,  3.9948701859e-02,  1.5272225253e-02, 
	 1.4855125919e-02, -1.5119415522e-01, -7.2690278292e-02,  1.8646769226e-01,  2.6488922536e-02,  8.2694992423e-02, -1.6212739283e-03, -1.4936594665e-01,  4.1304595768e-02, -2.0413069054e-02, 
	 1.4808228612e-01, -2.0157644525e-02,  1.5458403528e-01, -1.1910609901e-01,  1.4080910385e-01,  7.1977332234e-02, -3.1957101077e-02, -2.1238485351e-02,  7.5060382485e-02,  5.8783594519e-02, 
	 8.7590971962e-03, -3.6826483905e-02, -7.7715553343e-02, -1.4315931126e-02,  1.6073897481e-01, -7.2314172983e-02, -1.3686105609e-01,  1.1461279355e-02,  1.6286639869e-01, -1.6847048700e-01, 
	 7.3647126555e-02,  8.5777625442e-02,  6.3781671226e-02,  8.1703392789e-03, -1.3613992929e-01, -3.8355605211e-03,  1.0146640241e-02,  1.0961715132e-01, -4.3095465750e-02, -1.4491927624e-01, 
	-5.8835379779e-02, -9.3879494816e-03, -8.4193730727e-03, -1.0691172630e-01,  8.9638747275e-02,  1.3964764774e-01,  1.8160495907e-02,  8.2949489355e-02,  1.6549426317e-01,  2.9012139887e-02, 
	-1.2976159155e-01, -3.0757034197e-02,  1.4787133038e-01,  3.1288597733e-02, -5.5369734764e-02,  1.7705149949e-02,  5.5274363607e-02,  8.7364554405e-02, -3.5881515592e-02, -1.5045823157e-01, 
	-3.0298572034e-02,  1.4668062329e-01, -1.6134861112e-01,  1.4116515219e-01,  5.7763613760e-02,  5.4488614202e-02,  1.6263599694e-01, -5.9670902789e-02,  1.0309050977e-01,  3.5181920975e-02, 
	-1.4549413323e-01, -8.8909812272e-02, -5.4632287472e-02,  1.0956894839e-03,  7.5501129031e-02,  2.6849894784e-03, -1.8552350998e-01, -1.3777074218e-01, -1.4787265658e-01,  1.2834082544e-01, 
	-7.2856135666e-02,  1.6339591146e-01,  6.7709274590e-02,  5.1044020802e-02, -1.8164290488e-01, -5.3812954575e-02,  2.2208796814e-02, -4.8125404865e-02,  1.9071547315e-02,  1.8616549671e-02, 
	 7.6045840979e-02, -2.7809835970e-02, -3.8523931056e-02, -4.3694656342e-02,  9.0446263552e-02,  4.5095629990e-02,  4.7728177160e-02, -1.1888244748e-01, -1.0866132379e-01, -5.8399550617e-03, 
	 8.4346629679e-02, -6.3132300973e-02,  9.2667322606e-03, -6.4129129052e-02, -5.5075317621e-02, -5.4003261030e-02,  9.3297146261e-02, -1.1159840971e-01,  6.0187920928e-02, -5.8571837842e-02, 
	 5.0582509488e-02,  1.8812539056e-02,  5.0364948809e-02,  2.0545719191e-02, -8.7886422873e-02,  1.0345583409e-01, -4.6833842993e-02, -4.4464450330e-03, -7.2979472578e-02, -1.6691710055e-01, 
	 1.5172486193e-02,  1.5913437307e-01,  1.4819802344e-01, -4.6360008419e-02,  3.5012025386e-02,  2.8181042522e-02, -9.4758637249e-02,  1.2290092558e-01,  1.7160685360e-01, -3.4476924688e-02, 
	 1.2727110088e-01, -6.8025611341e-02,  4.3841075152e-02,  5.5411387235e-02, -1.3086244464e-01,  7.4124060571e-02,  8.1342682242e-03,  8.5599064827e-02, -1.7800863087e-01, -9.8824881017e-02, 
	 2.5389645249e-02, -9.7059480846e-02, -1.0385914147e-01,  7.7478915453e-02, -2.9771640897e-02,  1.0373996198e-01,  1.7704979982e-03, -3.2747551799e-02,  1.8365722150e-02, -5.2156592719e-03, 
	-5.3670261055e-02,  7.2461985052e-02, -3.2223735005e-02, -1.5763267875e-01,  1.3454951346e-01, -9.6671469510e-02, -1.1812077463e-01,  9.7370697185e-03, -4.5390192419e-02,  1.1284484714e-01, 
	 1.1465533637e-02, -4.1060712188e-02,  8.2789072767e-03,  6.9828607142e-02, -1.3391235471e-01,  1.1815657839e-02,  7.7896960080e-02,  6.3336007297e-02, -1.3261768222e-01,  1.2550050020e-01, 
	 6.8708290346e-03, -1.5655063093e-01, -4.6227585524e-02,  9.4916410744e-02, -9.1013954952e-03,  1.3917818666e-02, -8.7404392660e-02,  1.8187131733e-02,  3.4918524325e-02, -8.8609635830e-02, 
	 8.9060038328e-02,  9.9229797721e-02, -9.6281833947e-02,  5.0665792078e-03, -5.0785571337e-02, -1.2431889772e-01,  6.6379457712e-02, -2.3070041090e-02,  1.7696018517e-01, -8.4283184260e-03, 
	-3.1813006848e-02, -9.9956884980e-02, -1.1340670288e-01, -8.4443509579e-02, -9.8131872714e-02,  2.0467760041e-02, -1.3645683415e-02, -7.0977285504e-02, -8.2318700850e-02,  8.1115305424e-02, 
	-1.4350740612e-01, -4.6925835311e-02,  6.6681213677e-02,  1.0988087952e-01,  1.2567928433e-01, -6.7067556083e-02,  4.9798998982e-02, -7.5452223420e-02,  1.5095601976e-01,  1.7151713371e-02, 
	-9.8944991827e-02, -1.3352473080e-01, -8.8533565402e-02, -1.0841710120e-01,  9.5449432731e-02, -1.2416978925e-01, -5.6765805930e-02,  5.3451741114e-03, -1.0060298443e-01, -2.2496066988e-02, 
	-1.1568444967e-01,  1.9586438313e-02,  7.7124454081e-02,  1.3417755067e-01,  2.2136377171e-02,  5.7791173458e-02,  6.5845660865e-02, -1.0848961771e-01, -4.2297882028e-03, -8.8422503322e-03, 
	-5.7682886720e-02, -1.3121780753e-01, -8.5571452975e-02,  3.5820338875e-02,  2.8905687854e-02, -8.5448108613e-02, -5.4406292737e-02,  5.8221966028e-02, -2.1518345922e-02, -6.2375184149e-02, 
	-1.1364614964e-01, -1.1605831236e-01, -4.3257229030e-02,  2.1025305614e-02, -8.1165619195e-02, -4.0272369981e-02, -6.7998372018e-02, -8.5765235126e-03, -9.5466554165e-02,  1.3221003115e-01, 
	 1.8885729834e-02,  1.2934848666e-01,  1.2100983411e-01,  1.0094486922e-01,  9.7082830966e-02, -4.3968662620e-02,  5.1823567599e-02, -1.2036715448e-01,  1.2894977629e-01,  1.8329301849e-02, 
	 1.5245097876e-01, -1.2646403909e-01, -9.1705344617e-02,  8.9708462358e-02, -1.3313378394e-01, -6.5637476742e-02, -4.8151012510e-02,  9.0320274234e-02,  1.3523383439e-01, -5.4519411176e-02, 
	-5.9442128986e-02, -9.3420423567e-02, -2.5740936399e-02, -8.9537873864e-02, -6.1707291752e-03,  6.4780622721e-02,  4.4698935002e-02,  1.1680418253e-01, -1.0273072869e-01,  1.1266834289e-01, 
	-1.3496568799e-01, -1.5806710348e-02, -3.0770750716e-02, -4.5398145914e-02,  1.1795590073e-01,  7.6933979988e-02, -6.9129191339e-02,  1.0797342658e-01, -8.8482610881e-02,  9.5480762422e-02, 
	 5.1794640720e-02, -1.0344944149e-01,  1.4277839661e-01,  5.6275419891e-02,  4.2371731251e-02, -7.9476937652e-02,  2.3680195212e-02,  3.3301841468e-02,  3.9043944329e-02, -1.6020257026e-02, 
	-3.7452969700e-02,  1.0853885114e-01, -1.2477326393e-01, -1.1993067712e-01,  9.2290416360e-02,  1.2499269098e-01, -3.0962191522e-02, -4.3975111097e-02, -4.4488508254e-02, -1.0550235212e-01, 
	-4.4884916395e-02,  1.0300534219e-01, -9.8849035800e-02, -9.8144769669e-02, -1.1403090321e-02, -5.2593667060e-02, -1.2798699737e-01, -3.7066087127e-02,  4.8351135105e-02,  3.9720520377e-02, 
	 1.4194262028e-01,  4.1969459504e-02, -9.6379227936e-02, -4.1714914143e-02,  1.9951749593e-02, -1.0863392800e-01,  7.4542447925e-02, -2.8012514114e-02,  5.6053092703e-03,  1.0336117446e-01, 
	 1.4422781765e-01, -1.2009595335e-01, -8.6757965386e-02, -7.3418550193e-02,  1.0465197265e-01, -1.5001362562e-01, -4.8476107419e-02, -1.0895013809e-01, -9.5406897366e-02,  1.3731959462e-01, 
	-5.1236994565e-02,  2.0414747298e-02,  8.1408858299e-02, -9.5488116145e-02,  6.4286179841e-02, -6.9158941507e-02, -7.8925512731e-02,  4.3394122273e-02, -6.4639925957e-02, -6.3735030591e-02, 
	 8.1057794392e-02, -3.0012793839e-02, -1.0343882442e-01,  1.3331538439e-01, -2.8961506905e-04,  8.2793703768e-04, -1.0705316812e-01,  9.5854654908e-02, -1.8977910280e-02, -1.6839733580e-03, 
	-4.4381201267e-02, -2.1850971505e-02,  1.6300827265e-01,  9.3539178371e-02, -1.5044808388e-01, -4.5394059271e-02,  1.1224181950e-01, -7.1182519197e-02, -1.5324756503e-01,  7.8020669520e-02, 
	-3.1992789358e-02, -5.0435699522e-02, -6.5351396799e-02, -6.0579176992e-02,  3.7343200296e-02,  2.6150953490e-03, -2.3664282635e-02, -4.2166441679e-02, -1.3702309132e-01, -8.0235943198e-02, 
	 8.5458360612e-02,  1.4186716080e-01,  8.2360588014e-02, -4.7631713096e-04, -4.0489289910e-02, -4.3234000914e-03, -5.9507519007e-02,  1.4309594035e-01, -7.1353271604e-02, -4.6578932554e-02, 
	 5.3334489465e-02,  2.4310963228e-02, -6.1090096831e-02,  1.2084054947e-01, -7.8748673201e-02, -3.0055979732e-03, -1.0994382203e-01,  4.8448957503e-02, -7.7954128385e-02, -7.4626363814e-02, 
	-1.3025105000e-01,  2.6381649077e-02,  8.3292476833e-02, -1.6493391991e-01, -8.6468450725e-02,  1.9770255312e-02, -5.6724358350e-02, -4.6579368412e-02, -2.8302710503e-02, -8.1291429698e-02, 
	-5.2605647594e-02,  2.1603234112e-02, -1.1569467187e-01,  3.9184834808e-02,  1.0153289884e-01,  2.3923199624e-02,  4.9296054989e-02, -1.1410431564e-01, -1.1786711961e-01,  1.0771058500e-01, 
	-1.2261341326e-02, -1.5735976398e-01,  1.2992259115e-02, -1.4447775483e-01,  1.2329852581e-01, -7.9502366483e-02,  7.0525482297e-02, -1.3339001685e-02, -5.4878216237e-02, -8.1373052672e-03, 
	 4.4903382659e-02,  1.0746627301e-01,  1.2475246191e-01,  7.7749177814e-02, -2.9123537242e-02,  1.3381159306e-01, -1.0035195202e-01, -5.6740023196e-02,  1.4684882760e-01,  1.5908192098e-01, 
	-1.1838690937e-01,  8.2242414355e-02, -7.8999586403e-02,  4.3414803222e-03, -7.5348615646e-02, -9.3250751495e-02,  1.0488188267e-01, -6.7976586521e-02, -8.0665774643e-02,  1.4522337914e-01, 
	 1.0842163116e-01, -8.3138749003e-02, -4.8268869519e-02, -1.0572121292e-01, -6.3167370856e-02,  1.3616338372e-01,  6.8311028183e-02, -3.1452447176e-02, -5.7857774198e-02, -2.7608007193e-02, 
	-7.0658057928e-02,  1.2136786245e-02,  6.4516521990e-02, -1.1544838548e-01,  4.4633820653e-03,  1.0362032801e-01, -7.1522399783e-02, -4.4529426843e-02, -5.8098480105e-02,  5.9913333505e-02, 
	 1.1633676291e-01, -1.1638423428e-02, -5.7861946523e-02,  1.4830476046e-01,  3.0717797577e-02,  2.9774239287e-02, -7.9739972949e-02, -3.4475374967e-02, -9.8849929869e-02,  3.0918823555e-02, 
	-1.0659889132e-01, -5.7643275708e-02,  3.2020818442e-02, -3.1062150374e-03, -9.3933753669e-02, -1.5202149749e-01,  5.5825419724e-02,  6.0992270708e-02,  9.8249495029e-02,  9.4834631309e-03, 
	-1.0644752532e-01,  4.2716536671e-02, -4.3831449002e-02,  8.4620781243e-02,  7.7767712064e-03,  4.3812411604e-04,  7.2377838194e-02,  1.1688880622e-01, -3.9320539683e-02, -6.0566578060e-02, 
	 1.0706734657e-01,  1.2527206540e-01, -1.3956345618e-02,  1.0096154362e-01, -1.4893854968e-02,  4.6899955720e-02,  8.3571158350e-02,  8.3073891699e-02, -5.8165885508e-02, -1.2453350425e-01, 
	 5.5270150304e-02,  9.7875066102e-02, -6.9490499794e-02,  1.3212606311e-01,  1.0240917653e-01,  4.4707268476e-02, -6.2950374559e-03, -5.3246155381e-02, -2.7940068394e-02, -6.7589723039e-04, 
	 5.3466625512e-02,  4.8873309046e-02, -7.2396151721e-02,  2.2478176281e-02,  6.4748816192e-02,  1.3433030248e-01, -5.5397432297e-03,  6.5776027739e-02, -1.3973116875e-01,  7.0664562285e-02, 
	-5.6208118796e-02, -1.0661332868e-02,  4.3116174638e-02, -6.9575697184e-02,  8.1548467278e-02, -1.3067239523e-01, -1.2090349197e-01, -1.1791248620e-01,  1.4907464385e-01, -5.6254830211e-02, 
	 4.1058813222e-03, -5.1371239126e-02,  1.2039650977e-01, -7.7715724707e-02, -3.2177932560e-02, -1.3381458819e-01,  8.6847059429e-02, -1.4509069920e-01, -1.1903583258e-01,  1.1618966609e-01, 
	 4.9128875136e-02, -1.2518688105e-02, -5.8826908469e-02, -2.1582901478e-02,  5.6458342820e-02,  1.0653931648e-01, -9.0681493282e-02, -4.6803347766e-02,  1.3606895506e-01, -1.4381162822e-01, 
	-1.3064575382e-02,  2.3699084297e-02, -9.7467742860e-02, -1.1409373581e-01,  6.8475820124e-02,  7.6084665954e-02,  6.2983065844e-02,  2.9752271250e-02, -1.1981303245e-01, -5.3041838109e-02, 
	 8.6908005178e-02,  2.9846349731e-02,  1.0159970820e-01, -5.4518342018e-02, -1.2924461067e-01,  7.3704779148e-02, -2.7394911274e-02,  1.3285455108e-01, -2.3794896901e-02, -4.7710253857e-03, 
	-7.4481340125e-03, -8.1603199244e-02, -1.0690000840e-02, -1.2314520776e-01, -7.0812769234e-02,  1.3653631508e-01,  5.2779208869e-02, -1.0017917305e-01, -3.3545602113e-02,  9.0721592307e-02, 
	 6.2729820609e-02,  1.0066960752e-01,  1.0213108733e-02,  6.1877709813e-03, -2.5182267651e-02, -4.2921315879e-02, -4.5531436801e-02,  3.2738961279e-02,  1.7168588936e-02,  6.6018022597e-02, 
	-1.2905813754e-01, -7.3442108929e-02,  1.4578142762e-01, -5.8346278965e-02, -9.0562641621e-02, -1.1438401043e-01, -4.9763202667e-02,  1.0881593823e-01, -1.8502740562e-01, -7.5777888298e-02, 
	 1.6181482375e-01,  1.2975989282e-01, -1.4798267186e-01,  3.1630683690e-02,  6.0927808285e-02,  4.1205588728e-02, -4.7033488750e-02,  9.2054682318e-04,  1.7216205597e-01,  6.1229556799e-02, 
	-1.8797889352e-01,  1.1873519048e-02, -1.5744465590e-01, -1.1875006557e-01,  7.5294231065e-03,  1.1883743107e-01,  5.1857374609e-02,  4.2103179730e-03,  7.1212321520e-02, -1.1662779003e-01, 
	 1.3315063715e-01, -6.3797056675e-02,  9.2217274010e-02, -2.2896155715e-02,  9.3662776053e-02,  3.9992831647e-02, -5.4974298924e-02,  8.5845552385e-02, -8.9010708034e-02,  6.8420611322e-02, 
	-7.8539140522e-02, -1.0821400583e-01, -1.2742924690e-01, -1.6112798825e-02, -5.3898904473e-02, -7.4159689248e-02,  2.1743556485e-02,  5.7399193756e-03,  1.4189705253e-01,  7.4138104916e-02, 
	 1.4986036718e-01, -1.2607075274e-01, -4.2779661715e-02, -1.0744370520e-01,  6.4933516085e-02, -8.2970259245e-04, -1.1468563974e-01, -1.2301570922e-01, -5.3271364421e-02,  4.9537468702e-02, 
	 7.1211487055e-02,  8.2736201584e-02, -2.3966511711e-02,  1.5842513740e-01,  1.0194226354e-01, -8.5559552535e-03, -6.9117240608e-02,  5.7199902833e-02,  1.8059421331e-02,  4.8974387348e-02, 
	 1.7122629285e-01, -1.4249143004e-01, -1.2179185450e-01,  1.6226983070e-01, -1.3785159588e-01,  5.8989506215e-02,  1.3867966831e-01,  9.5265217125e-02, -4.7995984554e-02, -6.1306353658e-02, 
	-6.8993046880e-02,  7.4748478830e-02, -6.4873054624e-02,  1.1438284069e-01,  6.8732187152e-02,  4.9481626600e-02, -1.2604862452e-01, -3.0595699325e-02,  3.2824352384e-02,  1.7876286805e-01, 
	-1.1839183420e-01, -6.8001739681e-02,  1.5410736203e-01,  6.1130438000e-02,  1.2419229746e-01, -4.5949667692e-02, -9.9964722991e-02,  9.5829105703e-04,  5.1198355854e-02, -1.0948374867e-01, 
	-5.1385015249e-02,  9.1729179025e-02, -1.2559133768e-01, -1.9157618284e-02,  5.4740573978e-04,  1.6936287284e-01, -4.6942667104e-03, -1.9906530157e-02,  9.5695238560e-03, -1.6269911826e-01, 
	 2.3152036592e-02,  3.2487086952e-02, -5.3218103945e-02,  2.0152218640e-02,  1.1274904013e-01, -1.3153104484e-01, -1.6256330907e-01, -1.3665236533e-01, -1.6849710047e-01, -5.4789315909e-03, 
	-1.2610256672e-01, -3.5695377737e-02,  6.7784525454e-02, -6.9427460432e-02,  5.1816552877e-02,  7.2059698403e-02,  8.6868470535e-03,  1.2616849504e-02,  3.4498900175e-02,  1.7068335414e-01, 
	 4.8515759408e-03, -5.0743997097e-02,  6.6874586046e-02,  9.4270475209e-02, -3.3510841429e-02, -1.8731264770e-01,  9.4110019505e-02,  5.3523115814e-02,  9.6694178879e-02, -1.1459024996e-01, 
	 9.1652674600e-03, -1.3033792377e-01, -3.3581309021e-02,  6.8393267691e-02,  1.2010496855e-01, -1.7781907320e-01, -1.8128938973e-01, -1.6358460486e-01, -1.9053310156e-02,  5.8118972927e-02, 
	 1.7046833038e-01, -7.7835045755e-02, -9.1017805040e-02, -1.8075110391e-02, -2.4371245876e-02,  2.0789480209e-01,  5.5100951344e-02, -6.6985390149e-03,  1.7075641081e-02,  1.6638472676e-02, 
	-5.6720886379e-02,  2.9304053634e-02,  1.8620643020e-01, -2.9920943780e-04, -5.0301242620e-02, -1.8160752952e-01, -1.4530086517e-01, -2.3668520153e-02,  1.3168154657e-01, -1.5976730734e-02, 
	 1.5849880874e-01,  6.1948243529e-02, -7.3603034019e-02, -4.5178536326e-02,  3.9044152945e-02, -4.4046215713e-02, -6.9157928228e-02,  1.9091766328e-02, -9.4765543938e-02, -4.0904089110e-04, 
	-1.3370583951e-01, -6.6813314334e-03,  3.7162654102e-02,  1.9264756143e-01,  1.9169199467e-01,  2.0501011983e-02, -1.5165761113e-01,  1.7438719049e-02,  1.6973550618e-01,  6.7489556968e-02, 
	 3.3973116428e-02, -1.8841470778e-01, -1.4045162499e-01, -1.9605812430e-01,  1.7114342749e-01,  1.7866566777e-01, -8.7911315262e-02, -6.0903035104e-02, -1.9196067750e-01,  6.4263343811e-02, 
	 1.9226606190e-01, -1.0493222624e-01,  3.3709619194e-02,  4.8737041652e-02, -1.9254472852e-01, -9.3953445554e-02,  1.9183467329e-01,  1.1401193216e-02, -2.0051322877e-01,  1.2400510162e-01, 
	-9.6854865551e-02,  5.1263675094e-02,  1.0222285986e-01, -2.5745343417e-02,  1.9306543469e-01, -1.0417009890e-01,  3.0323663726e-02,  8.2169048488e-02,  1.6691774130e-02, -1.4219888486e-02, 
	 6.9679409266e-02,  5.8356236666e-02, -6.0635514557e-02,  1.8597094342e-02,  3.8017459214e-02, -6.5820500255e-02, -3.0257990584e-02,  1.6064934433e-01,  1.3804101944e-01, -1.7842037976e-01, 
	 3.1657025684e-03, -1.7485871911e-01, -3.6962237209e-02, -1.1342483014e-01, -1.2960945070e-01, -5.8997008950e-02, -9.9555432796e-02,  5.2144706249e-02,  9.3725204468e-02, -1.3756252825e-01, 
	-1.3930286467e-01,  7.1275494993e-02, -6.0771056451e-03,  1.0445307940e-01,  4.0494594723e-02,  9.1087430716e-02, -2.0847208798e-02,  1.4780762605e-02,  1.1154211313e-01, -5.6847598404e-02, 
	 9.1408230364e-02,  8.5443504155e-02,  8.5363715887e-02,  2.2684277967e-02, -5.6963633746e-02, -3.2713659108e-02, -1.1962304264e-01, -4.1805222631e-02, -1.0951625183e-02, -6.3009127975e-02, 
	 7.4687801301e-02, -8.1563726068e-02, -8.9018531144e-02,  1.0636220127e-01, -3.3940531313e-02,  4.0218185633e-02, -1.3757480681e-01,  1.3047106564e-01,  2.9406888410e-02,  1.7650410300e-03, 
	-1.1793508381e-01, -1.4808641374e-01, -3.9565771818e-02, -6.2636742368e-03, -1.0703540593e-01, -2.7518482879e-02, -1.5098652511e-04,  9.2880994081e-02,  1.2387269177e-02,  1.2937153876e-01, 
	-7.6936669648e-02, -2.7720341459e-03, -7.3203749955e-02, -4.7605250031e-02,  1.1283284426e-01, -7.3320344090e-02, -6.0408525169e-02,  1.1102334410e-01,  9.0111002326e-02,  8.8211208582e-02, 
	 1.5566014685e-02,  6.2657281756e-02,  1.7742076889e-02, -3.8580700755e-02,  1.1140516400e-01,  1.0704204440e-01,  1.2850666046e-01,  6.9588266313e-02,  7.5196169317e-02, -5.1571983844e-02, 
	-2.1612891927e-02,  4.0051817894e-02, -2.6086900383e-02,  1.0505296290e-01, -9.3787953258e-02, -4.0300510824e-02, -1.2337791920e-01,  9.0337648988e-02, -8.8678009808e-02,  6.5845102072e-02, 
	-5.0929564983e-02,  2.3687779903e-03, -2.4600215256e-03, -1.1028067023e-01, -3.7836409174e-03,  1.2131091207e-01,  3.7444978952e-02,  1.0151734948e-01, -8.9511990547e-02, -1.0332728922e-01, 
	 9.7564570606e-02,  8.2293853164e-02,  3.4204013646e-02, -3.2245630864e-03,  1.8635634333e-02,  1.1824569851e-01,  4.0989160538e-02,  1.0829468817e-01,  8.5092298687e-02, -1.0981680825e-03, 
	 1.3419254124e-01,  6.8334810436e-02, -8.9218035340e-02, -1.2097249925e-01,  2.8522728011e-02, -4.4579993933e-02, -4.4646393508e-02, -1.2767724693e-01,  5.0152942538e-02, -1.8851984292e-02, 
	 2.7521757409e-02,  2.5783693418e-03,  1.1170873791e-01, -6.4674593508e-02, -9.9009551108e-02, -5.2479900420e-02, -1.0894870758e-01, -1.5758182853e-02,  5.5744417012e-02,  1.4471483231e-01, 
	-2.3746388033e-02, -1.4152179658e-01, -1.9017301500e-02, -6.0825385153e-02, -1.5335448086e-01, -1.8046835437e-02, -1.2039461732e-01, -1.9044416025e-02, -4.6784054488e-02,  3.9588242769e-02, 
	-1.4228284359e-01, -1.2467678636e-01, -9.8304614425e-02, -5.3446777165e-02, -1.7376272008e-02,  9.9054574966e-02,  5.5723343045e-02, -8.2682460546e-02,  7.1773938835e-02,  1.1434080452e-01, 
	-7.2166599333e-02,  9.1977879405e-02, -8.6724258959e-02,  1.5360887349e-01,  1.5763534233e-02, -4.0308509022e-02,  1.9116136432e-01, -1.5445193648e-01, -1.1917862296e-01, -7.3890104890e-02, 
	-5.6704923511e-02, -7.0045292377e-02, -1.0824937373e-02,  1.1648973078e-01, -1.4099588990e-01, -1.7824730277e-01,  4.9868837232e-04, -5.9972796589e-02, -1.5754158795e-01, -6.3947670162e-02, 
	-1.5900123119e-01,  1.5787874162e-01,  2.8837076388e-03, -1.5975002199e-02,  1.4534491301e-01,  9.9028805271e-03, -1.0423382372e-01,  9.5077387989e-02, -1.8062561750e-01,  1.0090705007e-02, 
	 3.3139985055e-02,  1.2007571757e-01,  1.5680162609e-01, -2.0087346435e-02,  3.2848391682e-02, -5.0437424332e-02, -2.3418539204e-03, -4.4859319925e-02, -1.1059639044e-02, -7.1069151163e-02, 
	-4.1279736906e-02,  6.5607137978e-02, -8.9691907167e-02, -9.4801396132e-02,  1.5537874401e-01,  6.0820076615e-03,  1.1991756037e-02,  2.8448445722e-02, -1.5438698232e-01,  4.6200729907e-02, 
	-3.1270924956e-02,  1.8364931643e-01,  1.3782398403e-01,  7.6823800802e-02,  5.6048460305e-02, -1.1529012583e-02, -1.5117883682e-01, -8.5200123489e-02, -2.2634664550e-02,  7.3671132326e-02, 
	 1.5794491768e-01,  6.4770087600e-02,  1.8467178941e-01,  1.6737420857e-01,  1.3866533339e-01, -1.5801478922e-01,  9.2143505812e-02,  9.4132907689e-02, -6.7278288305e-02, -1.3664890826e-01, 
	-1.0867913812e-01,  5.9311293066e-02,  6.8354099989e-02,  9.1161169112e-02, -9.9930815399e-02, -4.8763837665e-02,  1.2153868377e-01,  1.7094543576e-01, -2.7240464464e-02,  1.2122254074e-01, 
	-1.6476252675e-01, -1.1072359234e-01,  8.5126265883e-02, -1.2718822062e-01,  5.9439469129e-02, -1.0207294673e-01, -2.1105688065e-02,  4.6730436385e-02,  8.7997056544e-03, -7.8086860478e-02, 
	 5.1313851029e-02,  2.3524560034e-02, -1.1677527428e-01, -1.2821631134e-01, -4.8400759697e-03, -9.5278136432e-02, -3.8706053048e-02,  2.6984041557e-02, -3.8054179400e-02,  9.2646986246e-02, 
	-7.4476167560e-02,  4.5269258320e-02, -5.3204685450e-02,  1.3976089656e-01, -2.3753326386e-02,  7.1636468172e-02, -1.0798071511e-02, -1.9798448309e-02,  1.6888946295e-01,  1.1296913028e-01, 
	 9.8847717047e-02, -1.7882991582e-02,  1.2541371584e-01, -1.4645119011e-01,  3.8097616285e-02, -7.6931141317e-02,  6.5885648131e-02, -7.2645328939e-02, -7.2355121374e-02,  9.5914259553e-02, 
	-3.0176751316e-03,  1.9327704608e-01, -2.9773730785e-02, -1.4394558966e-01, -4.3809998780e-02,  1.8992762268e-01, -8.0538660288e-02, -8.4726668894e-02,  5.2962172776e-02, -4.1161771864e-02, 
	-1.0491695255e-01, -1.2043683231e-01, -7.8946962953e-02,  4.7221399844e-02,  1.0143452138e-01,  3.1263381243e-02, -4.9344267696e-02,  1.0360980779e-01, -8.9823663235e-02, -1.1949395388e-01, 
	-3.8535930216e-02,  4.8727951944e-02,  9.9121078849e-02, -5.9160713106e-02, -1.2543103099e-01,  6.7865334451e-02, -1.6905514896e-01,  2.2676872090e-02, -9.8838135600e-02,  1.0812091082e-01, 
	 8.5920197889e-03, -8.8636316359e-02,  2.3365477100e-02,  8.9078970253e-02, -1.3104291633e-02,  5.2226927131e-02,  8.9139141142e-02, -5.4564038292e-03, -6.8592719734e-02, -4.5848015696e-02, 
	-1.2138432264e-01, -1.0566589236e-01, -5.5813182145e-02, -2.9829334468e-02, -6.7651949823e-02, -4.2124178261e-02, -1.3336859643e-01,  1.3775168359e-01,  3.9230801165e-02, -8.3948872983e-02, 
	-8.3244973794e-03,  1.1752992123e-01, -1.1075992137e-01,  1.2027462944e-03, -8.6924456060e-02, -8.3652063040e-04, -1.0704533011e-01,  7.0266254246e-02,  1.2010070682e-01, -2.8998689726e-02, 
	 1.2265504152e-01, -1.5712842345e-01, -1.5126781166e-01, -9.0259291232e-02, -1.3464093208e-01,  1.3393282890e-01,  6.1681795865e-02,  4.6359509230e-02, -9.3283362687e-02,  1.0022850335e-01, 
	-1.0132028162e-01, -5.9023134410e-02,  6.4396150410e-02, -1.4831651002e-02,  2.3407825211e-04,  6.2917716801e-02,  7.3506988585e-02,  1.3348648325e-02, -5.7287635282e-03, -1.3322712481e-01, 
