#ifndef PARAMS_DENSE_7_H
#define PARAMS_DENSE_7_H
#include "params.h"

const float layer_7_dense_weight[UNET_PAR_7_DENSE_IN_DIM*UNET_PAR_7_DENSE_OUT_DIM] = {
	-1.0242535174e-01,  1.6413603723e-01,  7.9704791307e-02, -1.5066248178e-01,  1.1860106140e-01,  1.3697494566e-01, -4.2471192777e-02,  1.5595499426e-02, -1.8516667187e-01,  5.5653668940e-02, 
	-1.0314949602e-01,  8.7153874338e-02,  7.1462318301e-02,  3.6680262536e-02, -1.8718531355e-02,  8.3307892084e-02, -8.5106916726e-02,  1.6948418319e-01, -5.1777053624e-02, -1.9902125001e-01, 
	 2.1108071506e-01,  2.4650877342e-02, -1.9314400852e-02, -1.5001422167e-01, -1.4102692902e-01, -9.0376697481e-03,  2.2938327864e-02,  6.2776268460e-03,  1.7657518387e-02, -1.8087872863e-01, 
	 8.2550063729e-02,  2.7044009417e-02, -1.4746439457e-01,  1.5899380669e-02,  1.5850150585e-01, -4.9250416458e-02, -1.2770923972e-01,  1.3485704362e-01,  6.8257942796e-02,  1.8756453693e-01, 
	 1.5620054305e-01,  1.3711310923e-01, -1.4976799488e-01, -1.9935567677e-01, -2.3915400729e-02,  1.4813072048e-02, -1.4941617846e-01,  1.9700694829e-02,  7.3754452169e-02,  3.5531036556e-02, 
	-1.2588363886e-01,  3.7714272738e-02,  6.0397628695e-02, -4.8978138715e-02,  2.0095375180e-01, -1.6523490846e-01, -1.3512411714e-01, -6.2961995602e-02,  4.8252847046e-02,  6.4689442515e-03, 
	 1.3070333004e-01,  7.0876948535e-02, -1.3096472248e-02,  6.4531870186e-02,  1.5478773415e-01, -3.3081639558e-02, -8.2581415772e-02, -1.3838049769e-01,  1.9548124075e-01,  1.5091224574e-02, 
	-1.2673446536e-01, -1.1147445440e-01, -3.9885785431e-02, -1.2409647554e-01, -9.8495423794e-02,  1.2348616868e-01,  1.2490062416e-01,  3.2397910953e-02,  1.1329546571e-01,  1.8571591377e-01, 
	-1.8448200822e-01, -1.1137111112e-02,  3.5235408694e-02,  1.3345158100e-01,  2.0690137148e-01, -3.3285148442e-02,  2.6276266202e-02,  1.5745124221e-01, -1.3312339783e-01, -1.3207928836e-01, 
	-6.5120056272e-02,  6.1963628978e-02, -6.6572137177e-02,  1.8846279383e-01,  1.1493334919e-01, -1.4740866423e-01,  1.7412588000e-01, -9.8702177405e-02, -1.1215265840e-01,  1.5580503643e-01, 
	-7.9461216927e-02, -1.5075410903e-01, -8.7848074734e-02, -1.4491353929e-01,  1.6211794317e-01,  8.6601391435e-02, -3.2948091626e-02, -1.6134345531e-01, -5.5190594867e-03,  1.1353138089e-01, 
	 1.0943052918e-01, -9.3897074461e-02, -1.2791848183e-01,  9.1659598053e-02,  9.6143513918e-02,  5.9651341289e-02,  2.6782523841e-02, -4.3979149312e-02,  1.1249356717e-01,  4.1587818414e-02, 
	 1.4202016592e-01,  8.5870839655e-02,  1.0393103957e-01,  6.6138774157e-02,  3.5205572844e-02,  8.8112868369e-02,  1.6198582947e-01,  9.6218630672e-02, -1.9868816435e-01,  2.0340455696e-02, 
	-2.4276582897e-01, -8.8614057750e-03, -5.7936087251e-02,  9.1059459373e-03, -6.9162018597e-02, -8.4985554218e-02,  3.7607718259e-02, -7.2688639164e-02,  1.1218498647e-01, -1.6858223081e-01, 
	 2.0401456952e-01,  1.8450663984e-01, -1.4339791238e-01,  2.9273696244e-02,  2.3649920523e-01,  4.0745265782e-02, -1.4769357629e-02, -6.3602030277e-02,  5.9780593961e-02, -8.0684162676e-02, 
	-4.0310241282e-02, -2.1565000713e-01, -3.6620903760e-02, -1.6635195911e-01,  6.8755820394e-02,  6.9764405489e-02,  1.5302646160e-01, -1.1578872055e-01,  9.3612566590e-02,  8.9954555035e-02, 
	 9.0070344508e-02, -2.9661741108e-02, -6.3423886895e-02,  2.9887354001e-02,  2.0721264184e-01,  4.3691907078e-02,  2.4473103881e-01,  1.2484104186e-01,  3.8701798767e-02,  6.0520458966e-02, 
	 1.1020661891e-01, -2.6305411011e-02, -3.4347535111e-03,  2.2122256458e-01,  2.3130294681e-01,  1.0327792168e-01, -2.4876047671e-01,  4.0306147188e-02, -2.1594506502e-01,  1.0196985304e-01, 
	 6.3341543078e-02,  1.0202762671e-02,  2.3870328069e-01, -1.0149061680e-01, -1.5676790476e-01, -1.1083105952e-01, -9.1794684529e-02,  9.0613760054e-02, -2.4697135389e-01,  9.3326084316e-02, 
	 2.4405416101e-02, -9.7327396274e-02, -2.2271609306e-01,  2.0768180490e-01, -1.0876309127e-01,  1.4606915647e-03, -2.2478044033e-02,  1.7586028576e-01, -2.5501298904e-01,  8.8566310704e-02, 
	 2.3602107167e-01, -1.4696647227e-01,  4.2544227093e-02, -5.7858020067e-02,  3.0826991424e-02,  1.5664070845e-02,  1.0022941977e-01, -8.3248615265e-02,  1.0929469764e-01,  5.5640272796e-02, 
	-1.5801420808e-01,  8.7538905442e-02,  2.2405967116e-01, -2.0082083344e-01, -3.4068364184e-03, -1.7151473463e-01, -8.2239113748e-02,  6.1223804951e-02,  1.6376173124e-02, -2.7637800202e-02, 
	 1.1012199521e-01,  2.4783442914e-01, -1.7487877607e-01, -2.1452759206e-01, -1.0189314187e-01,  9.9212348461e-02,  2.4192693830e-01, -1.9598342478e-01, -2.1984484792e-01, -1.4410786331e-01, 
	 1.1602330953e-02, -5.9637989849e-02,  8.4219321609e-02,  1.3051427901e-01,  6.3797883689e-02,  8.6880616844e-02,  2.2186774760e-02,  2.4523865432e-02, -1.2040071934e-01, -8.2228504121e-02, 
	 1.9895849749e-02, -2.0526131988e-01,  2.4446761608e-01, -1.4774079621e-01,  6.5888285637e-02,  1.0556711815e-02, -1.9926609099e-01, -1.8217855692e-01, -8.7106458843e-02, -2.2572435439e-02, 
	 1.5966720879e-01, -1.8657417595e-01, -5.5763151497e-02, -7.7501863241e-02, -1.1215244234e-01,  1.5810115635e-01, -9.0129315853e-02,  6.2859416008e-02,  7.1518123150e-02,  1.4229886234e-01, 
	-1.0472811013e-01, -1.8307673931e-01, -1.3143008947e-01, -6.4077377319e-02,  1.4330199361e-01, -8.4499508142e-02, -2.3237930145e-03,  1.6352842748e-01, -1.0737413168e-01, -1.2694102526e-01, 
	 2.2268554196e-02, -1.3088011742e-01,  8.0986261368e-02, -2.1207308769e-01,  1.0634286702e-01, -9.0677574277e-02,  9.4879761338e-02, -2.8408141807e-02,  8.6493298411e-02, -1.1585603468e-02, 
	-8.6524849758e-03,  3.4317061305e-02, -1.2771098316e-01,  1.7256769538e-01, -9.8189786077e-02, -1.5444372594e-01, -4.5428425074e-02,  1.0849527270e-01,  1.3481713831e-01,  6.8391077220e-02, 
	-8.1556476653e-03,  1.3977809250e-01, -8.1206686795e-02,  1.2116278708e-01,  3.4943848848e-02, -1.6492547095e-01,  7.2781048715e-02,  1.0964462161e-01,  2.0322091877e-01, -5.9768725187e-02, 
	-2.0999277011e-02,  1.4586916566e-01, -1.3421842456e-01,  1.2285947055e-01, -5.0261978060e-02, -1.3201920688e-01, -4.7203812748e-02, -4.6087253839e-02,  4.6581383795e-02, -9.8982319236e-02, 
	-1.9052213058e-02,  7.4792049825e-02, -1.6154824197e-01, -1.3433298469e-01,  1.0001100600e-01, -2.8774658218e-02,  1.3633449376e-01,  6.3044764102e-03, -2.6572968811e-02, -2.9499363154e-02, 
	 1.5614655614e-01, -1.0577619076e-01,  1.3117823005e-01, -1.7010962963e-01,  3.6916337907e-02,  8.8517129421e-02,  1.2050200999e-01, -1.6002342105e-01,  8.9432448149e-02, -1.5868407488e-01, 
	 2.1334128082e-01, -1.4154511690e-01,  1.0977931321e-01,  1.6222196817e-01, -4.8880256712e-02,  1.2578241527e-01, -7.4730262160e-02,  6.7277327180e-03,  9.0917274356e-02,  1.4874272980e-02, 
	-2.0366281271e-01,  2.0295658708e-01, -8.9563444257e-02,  1.7428208888e-01,  1.7150448635e-02, -9.5672935247e-02, -5.4768450558e-02, -1.5145478770e-02,  2.0388242602e-01, -1.2108636647e-01, 
	 1.7413693666e-01,  2.1757784486e-01,  1.2126433849e-01, -1.5010404587e-01,  5.8864778839e-03, -1.1210539937e-01,  9.9151834846e-02,  2.1042203903e-01,  1.4718918502e-01,  6.4000993967e-02, 
	-6.9612309337e-02,  9.9033871666e-03,  6.3468180597e-02,  1.9947566092e-01,  1.4478270710e-01,  7.0513233542e-02, -7.6973237097e-02,  1.1575768888e-01, -8.2751020789e-02, -1.7815928906e-02, 
	-2.1054543555e-01,  9.2065185308e-02,  1.5943267941e-01,  1.0409484804e-01,  2.9274767265e-02, -3.6951217800e-02, -3.1197539647e-04, -1.0800974816e-01, -1.4909701049e-01, -1.5566959977e-01, 
	 7.2602480650e-02,  3.2031722367e-03, -3.9001494646e-02, -9.1835565865e-02, -2.2788830101e-01, -7.5809016824e-02, -2.3639155924e-01, -8.6802400649e-02, -1.1814851314e-01,  1.0761571676e-01, 
	 1.8822174519e-02,  6.1665545218e-03, -3.0735962093e-02, -8.6480475962e-02,  8.5413612425e-02, -9.2782847583e-02, -2.8483700007e-02, -5.2175041288e-02, -8.0375745893e-02, -9.2126421630e-02, 
	 1.9848021865e-01,  1.5950311720e-01,  1.2458354980e-01, -2.6801812649e-01, -5.7547945529e-02, -1.7953625321e-01,  1.4039955102e-02,  1.0497572273e-01,  2.9054725543e-02,  6.3734114170e-02, 
	-8.4895901382e-02, -2.2597642243e-01,  1.1793763377e-02, -5.4398652166e-02,  5.5185910314e-02, -8.9020701125e-03,  3.3230371773e-02, -2.4994845688e-01,  3.0341201928e-03,  1.6828237474e-01, 
	 1.9231949747e-01, -2.7647030354e-01,  1.3817091286e-01, -8.7549174204e-03, -6.3841119409e-02, -3.3562440425e-02, -1.1466936767e-01,  7.7509485185e-02, -1.7176544666e-01,  5.4976161569e-02, 
	 1.0801640898e-01, -2.3994982243e-01, -9.3012675643e-02, -1.2103925645e-01, -2.4546639994e-02,  1.6926305369e-02, -4.3475010898e-04,  3.3810302615e-02,  2.3820370436e-01, -2.2733074427e-01, 
	-8.5186220706e-02, -1.7219439149e-01, -2.2603112459e-01,  2.4655084312e-01,  1.0291390121e-01,  4.2181976140e-02,  4.6181518584e-02, -5.0359260291e-02, -2.7014395595e-01,  2.0574544370e-01, 
	-1.9252033532e-01,  1.5995590389e-01,  1.3694180548e-01,  2.1254661679e-01, -1.5640199184e-01, -5.7061616331e-02,  2.5964266062e-01, -5.1097605377e-02, -1.1498740315e-01, -1.4526841044e-01, 
	-1.0004024953e-01,  4.9875762314e-02,  8.7937034667e-02, -6.4951576293e-02, -2.3660457134e-01,  1.2073213607e-01, -1.5325120091e-01,  1.9760294259e-01, -4.4739030302e-02, -1.0994784534e-01, 
	-9.1385342181e-02, -6.7604005337e-02, -1.8420003355e-01,  1.4477849007e-01,  2.5409290195e-01,  2.5544416904e-01, -1.8275286257e-01,  2.6456600428e-01, -1.1646281928e-01, -1.0971818864e-01, 
	 2.3179791868e-01, -5.1389142871e-02,  3.3060200512e-02, -6.2155861408e-02, -1.0220536590e-01, -1.9408613443e-03,  5.9773188084e-02,  8.2479498815e-04,  6.2090206891e-02,  2.3527052999e-01, 
	-2.4300999939e-01, -2.2629661858e-01, -1.0638293624e-01,  6.4612068236e-02,  6.5687917173e-02,  4.9465425313e-02,  5.4844163358e-02, -1.4190989733e-01,  1.0800663382e-01,  9.1652177274e-02, 
	-2.4622431397e-01, -7.5618088245e-02, -7.5142219663e-02, -1.5809182823e-01,  7.4296027422e-02,  1.2520855665e-01,  1.8989491463e-01, -1.2629947066e-01, -1.4410047233e-01,  1.1585205048e-01, 
	 1.0009258240e-01,  1.9604545832e-01,  2.2994662821e-01,  1.8257893622e-01,  3.8336906582e-02, -3.2179091126e-02,  2.1832767129e-01, -2.3021657020e-02, -1.1303355545e-01,  4.7010250390e-02, 
	 5.3240109235e-02, -1.0640635341e-01, -2.1365171671e-01,  1.3777387142e-01,  5.8535523713e-03, -1.0676523671e-02, -6.8594500422e-02, -3.1677242368e-02, -8.5107058287e-02, -8.6352273822e-02, 
	-1.2906802585e-03,  1.5136268735e-01,  2.7361046523e-02,  2.4483149871e-02,  5.0596363842e-02,  2.4054652452e-01, -1.5660107136e-01, -7.3034450412e-02, -1.2145087868e-01,  2.1543544717e-03, 
	 7.9213745892e-02,  2.4582619965e-01, -1.1577790976e-01,  5.4581090808e-02, -8.6031749845e-02,  2.3560072482e-01,  1.0678830743e-01, -1.5504498780e-01, -1.3403798640e-01,  1.2190409005e-02, 
	 3.3091701567e-02, -1.7393216491e-01,  4.5175801963e-02, -6.7176125944e-02, -3.3746004105e-02, -7.8205935657e-02,  1.8065758049e-01, -9.4390928745e-02,  8.8805779815e-02,  7.7023439109e-02, 
	-1.2922235765e-02, -4.5952331275e-02,  2.1280357242e-01,  1.9984260201e-02, -1.4144043624e-01, -4.8977859318e-02, -1.0562410206e-01,  9.6571609378e-02,  1.8899205327e-01,  1.5233936906e-01, 
	-8.6349666119e-02,  2.9146399349e-02,  1.0368837416e-01,  1.8624961376e-02,  1.7405745387e-01, -4.8819247633e-02, -4.9815535545e-02, -1.7709688842e-01,  2.5998931378e-03,  9.2196702957e-02, 
	 4.8951007426e-02,  6.0315001756e-02,  8.4487686399e-04,  4.9207054079e-02, -1.5268515050e-01,  3.0771721154e-02,  1.8379496038e-01,  6.6444493830e-02, -1.1101225764e-01, -1.0809373111e-01, 
	 9.7600007430e-03, -1.5456354618e-01, -9.0892829001e-02,  1.0985616595e-01,  6.5956735052e-03, -5.6210953742e-02,  7.2134942748e-03, -1.0590910912e-01,  6.5476894379e-02,  1.0569985025e-02, 
	 1.9419412315e-01, -1.9484527409e-01, -1.1335896701e-01,  1.1228733510e-01,  5.3874015808e-02, -1.7130310833e-01,  2.2633959353e-01,  1.8009257317e-01,  1.1099392921e-01, -1.2058460712e-01, 
	 5.8457843959e-02,  1.8442749977e-01,  7.3977224529e-02, -6.6300295293e-02,  1.6753414646e-02,  2.4181693792e-01,  3.7541180849e-02, -1.0157642514e-01,  1.6381628811e-01,  2.0209743083e-01, 
	-7.2698950768e-02,  2.4043494463e-01, -8.5785940289e-02, -2.2198533639e-02, -1.7102092505e-01,  2.4568600953e-01, -1.9864021242e-01,  3.0141416937e-02,  1.3863977790e-01,  1.4980854094e-01, 
	 1.8128493428e-01,  1.2327314168e-01,  1.1176207662e-01,  5.3963914514e-02, -1.8227981031e-01,  4.3748874217e-02,  7.7616862953e-02, -2.4152971804e-01, -2.1769257262e-02, -2.0638804138e-01, 
	 1.5181708336e-01,  1.7080438137e-01, -1.7521554232e-01,  6.0950931162e-02,  9.8725326359e-02, -2.3388133850e-03,  1.5864397585e-01,  3.9986226708e-02, -1.3168798387e-01, -1.4126032591e-01, 
	-3.4593172371e-02, -1.9049260020e-01,  5.4570224136e-02,  1.8948900700e-01,  1.5589916706e-01, -1.4901563525e-01,  1.4306008816e-01, -2.6769623160e-02,  3.7689920515e-02,  1.2832179666e-01, 
	 1.5622335486e-02, -1.3222599030e-01, -5.3863007575e-02, -8.2299225032e-02,  8.9724667370e-02,  1.6481679678e-01, -1.6883721948e-01, -2.6445586234e-02,  1.5684768558e-01, -1.6441348195e-01, 
	-1.8205890059e-01, -1.3440528512e-01,  3.8481131196e-02, -3.4843061119e-02,  1.1388693005e-02,  1.6989140213e-01,  4.4495932758e-02,  6.9098835811e-03, -2.0810842514e-02, -4.2278714478e-02, 
	-6.6928781569e-02,  1.2245213240e-01, -2.6530341711e-03, -8.6001046002e-03, -1.2186888605e-02, -7.0258133113e-02,  1.5256620944e-01, -1.8141286075e-01, -5.4111458361e-02,  9.3841001391e-02, 
	-1.3951475918e-01,  5.2026271820e-02,  1.4050847292e-01, -6.2750466168e-02,  1.1212176085e-01, -1.1775339395e-01,  7.6009735465e-02, -1.7961566150e-01, -4.4647946954e-02, -3.2631140202e-02, 
	 9.7610197961e-02,  3.9092559367e-02, -1.7067721486e-01, -4.9219664186e-02, -9.1674566269e-02, -7.1538709104e-02, -9.0775661170e-02, -4.4946871698e-02,  1.5854361653e-01, -1.5692695975e-01, 
	-9.5717936754e-02,  1.4303871989e-01,  1.5242262185e-01,  3.5880215466e-02, -4.3675739318e-02,  4.3013859540e-03, -6.8335361779e-02, -1.9330151379e-01, -1.2550900877e-01, -2.1632673219e-02, 
	 1.0381127894e-01,  1.3997538388e-01, -3.4673646092e-02, -8.8208258152e-02,  3.2627992332e-03, -3.7427749485e-02,  2.0014937036e-03,  3.6298729479e-02,  8.8117189705e-02, -6.1565354466e-02, 
	 1.8308681250e-01,  5.9803877026e-02, -1.1545976624e-02,  1.2870579958e-01, -2.7071172372e-02, -6.9239102304e-02,  9.7802683711e-02,  3.3187113702e-02,  5.6753881276e-02, -1.3722230494e-01, 
	 6.9879055023e-02,  1.3114008307e-01,  1.4724044502e-01,  1.5963092446e-01,  3.7032071501e-02, -5.6115847081e-02,  1.4795297384e-01, -1.5923424065e-01, -1.6662071645e-01,  7.8014492989e-02, 
	 5.0993524492e-02, -1.3686527312e-01,  6.5489992499e-02,  1.1547037959e-01,  1.7176274955e-01,  1.4651899040e-01, -7.3053680360e-02,  1.4301395416e-01, -1.4244651794e-01, -1.8416142464e-01, 
	-1.4034689963e-01,  4.7735638916e-02, -1.4183761179e-01,  7.9535596073e-02,  4.1806139052e-02,  7.2978340089e-02, -1.4940277673e-02,  4.8582974821e-02, -1.0343601555e-01,  1.8699915707e-01, 
	-8.4130540490e-02, -7.1246355772e-02,  2.6598431170e-02,  1.5031512082e-01, -2.0664258301e-01,  6.6227294505e-02, -7.6641567051e-02, -4.8039976507e-02,  9.0830259025e-02,  1.0165945441e-01, 
	 3.6896612495e-02, -5.7784046978e-02,  3.0801806599e-02, -3.1557690352e-02, -6.8394646049e-02, -8.5009880364e-02, -1.6630738974e-01, -7.4409440160e-02,  9.9024660885e-02,  1.2455685437e-01, 
	-3.1112482771e-02, -1.2281911820e-01,  1.2816810608e-01,  9.3797288835e-02,  6.8618185818e-02,  2.1258969605e-01, -8.8249154389e-02,  1.4191851020e-01,  4.1617624462e-02,  1.3063243032e-01, 
	 5.3629510105e-02,  1.3771836460e-01,  3.2227763440e-03, -2.0654366910e-01, -1.7683909833e-01,  1.7876380682e-01, -1.5282374620e-01, -6.1216074973e-02,  1.1564854532e-01,  4.9262709916e-02, 
	 7.6038643718e-02, -4.9037240446e-02,  1.2276147306e-01, -4.6173572540e-02,  5.4549008608e-02,  1.0213746876e-01,  1.8695507944e-01, -1.3917675614e-01,  6.3918843865e-02,  8.6934976280e-02, 
	-1.0372486711e-01, -1.3635915518e-01, -8.0240376294e-02,  1.8849904835e-01, -5.3129605949e-02,  2.4575885385e-02,  2.1525138617e-01, -1.0784756392e-01, -7.1399018168e-02,  1.6462360322e-01, 
	 5.3458572365e-03, -1.5400752425e-02,  8.0228336155e-02,  5.9531327337e-02,  1.6031235456e-01, -9.6905924380e-02, -6.9562718272e-03, -1.9284527004e-01,  8.6915409192e-03, -1.0196921229e-01, 
	 1.3454170525e-01,  7.5227379799e-02,  1.9571927190e-01, -3.2432492822e-02, -1.2520991266e-02, -1.0083128512e-01,  2.6822034270e-03, -2.5504970923e-02,  1.0447465628e-01, -6.3083864748e-02, 
	-2.1200167015e-02, -1.3522033393e-01, -1.3454587758e-01, -1.5445815027e-01, -7.6112709939e-02,  9.1759443283e-02, -1.4179837890e-02,  3.0107950792e-02, -1.2075784057e-01, -2.0250251889e-01, 
	-4.6212665737e-02,  1.2802883983e-01,  4.0714345872e-02,  5.4057400674e-02,  1.4195269346e-01, -1.2154809386e-01,  6.4287893474e-02, -1.4131249487e-01, -1.0277622379e-02,  5.3683929145e-02, 
	-6.3026778400e-02,  4.8073589802e-02, -5.1533635706e-02, -1.1625378579e-01, -4.3878410012e-02,  2.2595338523e-02,  9.8975762725e-02, -1.2155066431e-01,  7.3570132256e-02, -6.1420533806e-02, 
	 2.4498460814e-02,  4.3853852898e-02, -1.7732642591e-01, -1.4978739619e-01,  7.2978489101e-02,  1.3801933825e-01,  1.1933718622e-01,  1.0674280673e-01, -1.5342004597e-01, -1.7883749306e-01, 
	 1.4966365881e-02, -4.4505409896e-02,  1.3893996179e-01, -3.2901331782e-02,  1.5432374179e-01, -1.7686058581e-01,  7.9629942775e-02,  7.4465841055e-02,  1.4723815024e-01,  2.0263352990e-01, 
	 1.2426611036e-01,  1.4695267379e-01,  1.6691640019e-02, -1.6597157717e-01,  2.0792162046e-02,  1.6735340655e-01, -2.6259703562e-02,  2.7425536886e-02,  2.2371023893e-01, -6.7084491253e-02, 
	 5.6092590094e-02,  1.2749728560e-01, -1.1843962222e-01,  1.1577329785e-01,  2.2969169915e-01, -1.5505775809e-01, -3.5109493881e-02,  1.2415647507e-01,  8.5478909314e-02,  2.9659267515e-02, 
	 9.7430743277e-02,  1.4620755613e-01,  1.0240094364e-01, -1.0413278639e-01, -8.6983248591e-02,  8.3045206964e-02,  8.8288612664e-02, -2.9661828652e-02,  2.7859874070e-02,  1.1556066573e-01, 
	 2.1426957846e-01,  7.4137903750e-02, -1.3849055767e-01, -8.9895389974e-02, -9.8428688943e-02,  1.9749037921e-01, -2.6122510433e-02,  6.0060482472e-02, -1.1113029718e-01,  1.0426654667e-01, 
	-3.5561963916e-02, -9.5026008785e-02,  1.5197642148e-01,  3.4335203469e-02, -2.6728112251e-02,  1.2247257866e-02,  8.6011417210e-02,  2.7626801748e-03, -1.8868578598e-02, -1.2525798380e-01, 
	 1.8628685176e-01,  1.1697973311e-01, -6.2279257923e-02,  1.3296121359e-01, -2.4896211922e-02, -1.2418574095e-01,  9.2105478048e-02,  1.1072091758e-01,  1.4284893870e-01,  6.5988838673e-02, 
	-2.0779791474e-01, -1.1776455678e-02,  4.2199052870e-02, -6.6809280543e-04,  4.1671253741e-02, -4.0618758649e-02, -1.1026231945e-01, -5.5678687990e-02,  4.5814685524e-02,  1.0382389650e-02, 
	-9.0833278373e-03,  7.0055931807e-02, -1.8024893105e-01, -6.1637897044e-02, -2.2548255511e-03,  1.0959751904e-01,  8.2690417767e-03,  1.7007153481e-02, -1.0872361250e-02, -1.3320964575e-01, 
	 7.1086071432e-02, -1.6857944429e-02, -3.5260584205e-02, -3.6571595818e-02,  6.8266682327e-02,  1.4327107370e-01, -7.4607081711e-02, -1.9414657727e-03, -8.7348975241e-02, -2.3340800777e-02, 
	-1.4749249816e-01, -1.2542060018e-01,  4.8089809716e-02, -1.2845276296e-01,  3.3976443112e-02,  9.7833186388e-02,  6.4768701792e-02, -1.2378807366e-01,  8.1445407122e-03,  6.2696464360e-02, 
	-1.6702088714e-01, -1.2438012287e-02, -1.7467033863e-01,  7.5918659568e-02,  1.4638532698e-01, -2.0455746353e-01, -8.3510637283e-02, -1.1494863778e-01,  7.8860796988e-02,  1.3387250900e-01, 
	 1.1455922574e-01,  1.2559065223e-01, -7.0485822856e-02, -7.6161585748e-02, -1.2702742219e-01, -2.0439405739e-01, -2.0180325210e-01,  2.0680192113e-01,  6.3974142075e-02, -3.3803720027e-02, 
	-1.3459651172e-01, -1.3355976343e-01,  7.5051419437e-02,  5.9393562376e-02, -1.1158823222e-01, -1.4558854699e-01,  1.8306972086e-01, -1.6351461411e-01, -4.3550256640e-02, -1.1374395341e-01, 
	-2.7464391664e-02, -1.2276131019e-04,  1.8090723455e-01,  1.6938449442e-01, -1.5535132587e-01,  1.8273437023e-01,  1.2716762722e-01, -6.4508967102e-02, -1.7003428936e-01,  1.2795479596e-01, 
	-8.7366104126e-02, -8.6222570390e-03, -8.7623350322e-02,  9.5082305372e-02, -2.0906941965e-02,  1.4759799838e-01,  8.8512890041e-02, -1.3157872856e-01, -2.5878660381e-02, -7.4736572802e-02, 
	 7.4951469898e-02, -1.6822895408e-01,  8.5954837501e-02,  1.0295527428e-01, -3.6010175943e-02, -1.6405306756e-01, -1.9923855364e-01, -1.6764511168e-01,  6.2586963177e-02,  1.0054450482e-01, 
	-3.4290950745e-02, -1.1396992207e-01,  1.3092939556e-01,  2.2753302008e-02, -1.8260677159e-01,  1.5112191439e-01, -8.6464859545e-02, -1.1506423354e-01,  4.7668516636e-02, -1.1575074494e-01, 
	 1.5701337159e-01, -7.1592703462e-02,  8.9358258992e-03,  1.5052896738e-01, -9.1203704476e-02, -8.8186629117e-02, -1.6562686861e-01, -1.2174077332e-01, -5.6382678449e-02,  5.9249915183e-02, 
	 1.5359006822e-02, -1.7591113225e-02, -2.2215751931e-02,  1.4901252091e-01, -1.3956622779e-01,  5.6838680059e-02,  1.4030313492e-01, -1.1944423616e-01, -1.2999123335e-01, -8.7461680174e-02, 
	-1.5058635175e-01,  1.6864870489e-01,  4.4915121049e-02, -1.0464794189e-01,  1.8965524435e-01,  1.3325452805e-01,  8.0925449729e-02,  6.0653377324e-02, -1.5684692562e-01, -5.7361975312e-02, 
	-1.8109722063e-02, -8.4620147943e-02, -1.3134247623e-02,  1.4983258210e-02,  1.8179693818e-01,  1.0350446403e-01,  1.8113900721e-01,  1.5726009011e-01,  3.4687902778e-02, -4.4423840940e-02, 
	-6.9622769952e-02,  1.1371474713e-01, -1.6740150750e-01,  1.7028500140e-01,  1.4358800650e-01,  1.5626481175e-01,  1.5267999470e-01, -4.0126919746e-02, -9.3003295362e-02,  3.5582598299e-02, 
	-8.7554454803e-02, -1.6014371812e-01, -2.5559035130e-03, -4.4941119850e-02,  1.3218027353e-01,  8.4552966058e-02, -7.4139021337e-02, -1.4224819839e-01, -3.9376806468e-02,  1.1077228189e-01, 
	-1.1342154443e-01, -8.5437007248e-02,  1.1769039184e-01, -1.1377754807e-01,  4.2883526534e-02,  1.4430166781e-01, -2.0126500726e-01,  1.1485239118e-01,  1.2045109272e-01,  1.0198436677e-01, 
	 4.8523597419e-02, -1.0246270336e-02,  1.6309729218e-01, -7.3756799102e-02,  1.7886867747e-02, -5.2430233918e-03,  1.5805366635e-01, -1.1121951789e-01,  3.7362344563e-02,  4.0467478335e-02, 
	 7.1200788021e-02, -6.7164190114e-02,  1.4212398231e-01,  2.5004586205e-02,  1.7973636091e-01, -3.2553467900e-02,  5.0541557372e-02,  2.2728027776e-02, -8.8317818940e-02, -2.0277952775e-02, 
	 1.9583185017e-01, -9.4893716276e-02, -2.2783866525e-01, -5.8060597628e-02, -1.9216559827e-01,  2.3089069873e-02,  1.6835999489e-01,  2.7688268572e-02, -2.3895071447e-01, -1.9794604182e-01, 
	 3.5382803530e-02, -3.7853080779e-02,  3.1189644709e-02,  1.1197502166e-01, -1.0591804981e-01, -1.1236388981e-01, -1.1994979344e-02,  9.0115092695e-02, -6.6284336150e-02,  1.4881223440e-01, 
	-1.8141700327e-01,  1.1009909213e-01,  1.5039138496e-01,  2.0643986762e-01, -2.0187805593e-01,  1.3121218979e-01, -8.4097273648e-02, -1.7663791776e-02, -1.2702901661e-01,  1.0822822899e-01, 
	-1.5411135554e-01, -1.5568776429e-01,  1.1178031564e-01, -1.6867008805e-01, -1.0150436312e-01,  1.3325063884e-01, -1.2402189523e-01, -1.6354271770e-01, -5.8936230838e-02,  6.5444298089e-02, 
	-1.3719639182e-01,  6.0336839408e-02,  1.1136733741e-01, -1.7021460831e-01,  6.5715417266e-02, -6.7440785468e-02, -1.1154271662e-02,  2.2354510427e-01,  2.0853097737e-01,  3.9492890239e-02, 
	 1.5240958333e-01, -1.9027878344e-01,  1.8195293844e-01,  7.9324975610e-02, -1.1734282225e-01, -1.0067352653e-01,  2.0653226972e-01,  1.1741497368e-01, -6.7021287978e-03, -6.9542221725e-02, 
	-1.7982457578e-01, -7.9780921340e-02,  1.8971121311e-01, -1.1130314320e-01, -1.5339387953e-01,  1.0774505138e-01, -4.5698288828e-02,  1.6618500650e-01,  1.7806597054e-01,  1.2279718369e-01, 
	 1.2205220014e-01, -1.0364492983e-01, -1.5343971550e-01, -1.3031046093e-01, -8.9140214026e-02, -1.3525311649e-01, -2.3396970332e-01,  1.0538312048e-01,  1.0322313756e-01, -1.5417671204e-01, 
	 2.2480833530e-01,  1.1364693940e-01, -8.4448061883e-02,  1.1737724394e-01,  2.2971829772e-01, -1.0160804540e-01,  8.5490226746e-02, -9.6099853516e-02, -1.2452285737e-01,  8.4047950804e-02, 
	 8.6178012192e-02, -1.3133807480e-01,  4.9063369632e-02,  1.7926768959e-01, -2.1372279152e-02,  5.2986502647e-02, -8.8176533580e-02, -1.5944540501e-01, -5.6134108454e-02,  1.8155579269e-01, 
	-1.2884618342e-01, -1.1925194412e-01,  7.9233974218e-02, -1.4533175528e-01, -1.9378927350e-01, -8.8696502149e-02, -1.9496792555e-01, -6.8894550204e-02, -5.3228024393e-02, -1.4654918574e-02, 
	-6.8360179663e-02, -1.2597893365e-02, -7.7782079577e-02, -1.2596075237e-01,  2.0382218063e-02,  2.1254445612e-01,  1.0506064445e-01,  2.4696787819e-02,  1.9916714728e-01, -7.2346784174e-02, 
	 1.7296630144e-01,  1.5968284011e-01,  2.2970822453e-01,  5.9835977852e-02,  3.0284968670e-03, -1.2128935009e-01,  1.1007845402e-01,  2.9889665544e-02,  1.6801168025e-01, -4.9774989486e-02, 
	-2.2415567935e-01, -1.1058089137e-01,  4.0545523167e-02,  6.6151343286e-02, -8.6645651609e-03, -3.9365973324e-02, -1.0336609185e-01,  8.2292050123e-02,  5.4713413119e-02, -7.7274531126e-02, 
	 1.2768885493e-01, -9.2866256833e-02,  3.7507528905e-03,  2.0850012079e-02, -1.2582784891e-01,  6.4565755427e-02, -2.3835323751e-01, -4.8760291189e-02,  1.3381691277e-01,  2.0810988545e-01, 
	 1.5391048789e-01, -1.2640064955e-01,  1.4856693335e-02, -2.2138683125e-02,  1.2676380575e-01, -1.8867628276e-01, -1.4750650525e-01, -3.2635416836e-02, -1.0076451302e-01,  1.9580489025e-02, 
	-8.0005362630e-02, -1.8031139672e-01,  3.4467946738e-02, -1.3056932390e-01,  1.8089541793e-01, -2.1056699753e-01, -1.8525193632e-01,  1.0422803462e-01, -3.4792017192e-02,  1.6514332592e-01, 
	 1.1323181540e-01, -8.1031337380e-02, -4.7907806933e-02,  6.9544054568e-02, -5.9892855585e-02,  2.9309779406e-02,  3.1403002795e-03,  7.9192630947e-02,  7.8620836139e-02,  9.5521964133e-02, 
	 2.0321631432e-01,  2.9278920963e-02,  8.8490791619e-02, -2.2192367911e-01,  1.8143764138e-01,  1.3295021653e-01, -3.7291023880e-02, -2.1237710118e-01, -1.7637166381e-01, -1.0235258937e-01, 
	 1.8196037412e-01, -1.3576075435e-01,  1.0904141702e-02,  2.6282913983e-02, -1.3110214472e-01, -4.0333874524e-02,  1.5527978539e-01, -3.1916648149e-02, -1.6976791620e-01, -1.6594697535e-01, 
	 2.2870728746e-02, -8.4145151079e-02, -4.9294143915e-02, -1.0863998532e-01, -2.1896378696e-01,  1.4683775604e-01,  5.8376651257e-02,  2.1649813652e-01, -5.4853003472e-02, -3.6182165146e-02, 
	-1.5913292766e-02, -2.1961040329e-03, -4.3532710522e-02, -1.9197735190e-01, -5.0898864865e-02,  7.1086287498e-02,  3.4465491772e-02, -8.2887388766e-02, -1.4924349263e-02,  6.7573919892e-02, 
	 4.1826050729e-02,  3.8492921740e-02, -1.2611417472e-01, -2.4275084957e-02, -1.0220876336e-01,  7.4804976583e-02,  3.0138611794e-02,  8.6492441595e-02,  1.0675875843e-01,  1.6880790889e-01, 
	 1.0736092180e-01,  3.6574821919e-02,  1.1233308911e-01, -3.8381211460e-02, -1.0358141735e-02,  1.0706105828e-01,  1.7886583507e-01,  2.3438200355e-02,  1.7879466712e-01, -7.3726594448e-02, 
	 8.0158008495e-04, -2.1116472781e-01, -7.4920855463e-02,  2.3311226070e-01, -8.8032200933e-02, -1.6970641911e-01,  1.1816825718e-01, -1.9743597507e-01,  2.1424798667e-01, -1.6281604767e-02, 
	 9.8462872207e-02, -2.5540988892e-02, -4.0680106729e-02,  1.2478149682e-01, -1.3841247559e-01,  8.5591651499e-02,  1.1913170666e-01, -1.3833352923e-01, -1.7294205725e-01,  1.2358275056e-01, 
	 5.6417966262e-03, -1.9392041862e-01, -1.3078103960e-01,  3.5755909979e-02, -2.1905925870e-01, -1.1723326147e-01, -1.5620709956e-01, -1.1717662215e-02,  4.1640095413e-02, -2.3996131495e-02, 
	 1.1913374066e-01, -1.1226872448e-03, -1.2977275252e-01,  2.2026397288e-01, -9.2830613256e-02, -8.0684674904e-03,  1.1677885801e-01,  2.3536668718e-01, -7.1930512786e-02, -9.2074960470e-02, 
	-1.5158118308e-01,  4.6618364751e-02,  3.1654335558e-02, -5.6207001209e-02,  1.3581735082e-02,  1.2131045014e-01, -1.0301107168e-01, -2.0398086309e-01,  1.1190684140e-01,  4.0497776354e-04, 
	 1.9579327106e-01,  7.4347786605e-02,  2.1236916073e-03,  5.5584002286e-02, -1.8808323890e-02,  1.0286666453e-01, -5.9355240315e-02,  2.1462923288e-01,  2.1804289520e-01,  7.3089189827e-02, 
	-7.2992496192e-02, -2.3448415101e-01, -4.8378825188e-02,  7.0509187877e-02, -3.3831696957e-02, -8.9167803526e-02, -1.5775324777e-02,  8.4238775074e-02,  2.6687966660e-02, -5.0832547247e-02, 
	 1.8156468868e-01,  5.9319235384e-02,  1.7017954588e-01, -5.9255838394e-02,  1.2112330645e-01, -7.2273507714e-02, -9.3463972211e-02,  1.2059806287e-01,  2.2656332701e-02, -1.8177757040e-02, 
	-1.2741222978e-01,  1.7719857395e-01,  1.5080748498e-01,  1.6779264808e-01,  3.7607077509e-02,  1.8266706169e-01, -2.4657644331e-01, -6.7718267441e-02,  1.6295032203e-01, -2.1798218787e-01, 
	 1.8724063039e-01, -1.7002003267e-02, -1.1100418121e-01,  1.4111855626e-01,  1.1783301085e-01,  1.6439530253e-01,  2.7322557569e-01, -5.1543369889e-02, -1.0458317585e-02, -1.4909335971e-01, 
	-4.3371517211e-02, -8.7095394731e-02,  2.2538940609e-01,  1.4078718424e-01,  6.6544830799e-02,  2.2524710745e-02, -1.9311469793e-01, -1.0283929110e-01,  1.0848592967e-01, -1.2856635451e-01, 
	-6.4959824085e-02,  1.6665780544e-01,  3.1794089824e-02, -1.5960179269e-01,  4.9451984465e-02,  9.2187114060e-02, -1.0691207647e-01,  5.4187800735e-02,  1.6943249106e-01, -1.7403759062e-01, 
	-2.2981777787e-01,  1.3644124568e-01, -5.2296172827e-02, -8.8991120458e-02,  2.2868864238e-01, -1.1881113052e-02,  1.4040012658e-01,  7.4716910720e-02,  1.6930899024e-01,  4.3701041490e-02, 
	-6.6358223557e-02,  8.1522226334e-02,  1.1337199062e-01,  7.0072814822e-02,  4.9645952880e-02, -1.8433151767e-02,  1.1964255571e-01, -9.0911780717e-04, -1.3155870140e-01, -6.1040796340e-02, 
	-8.1265673041e-02, -3.4447778016e-02, -1.2890623882e-02,  1.5361607075e-01,  1.2311098725e-01, -6.1240881681e-02,  4.1242085397e-02,  4.6682603657e-02,  1.4612288214e-02,  4.3631982058e-02, 
	 1.4162862301e-01,  1.9493454695e-01,  3.2715611160e-02, -1.6583310068e-01,  1.2596736848e-01, -8.0232031643e-02,  9.6433661878e-02, -1.3248106837e-01, -1.3303846121e-01, -9.8353862762e-02, 
	 1.1117899418e-01, -1.3828326762e-01,  3.5293757915e-02,  7.9002253711e-02, -6.1432417482e-02,  6.1128266156e-02, -7.1534097195e-02, -1.3595108688e-01, -3.4950591624e-02, -8.6346171796e-02, 
	-1.6804130375e-01,  1.4651866257e-01, -1.7498655617e-01,  1.5092390776e-01,  1.4304395020e-01, -6.9208860397e-02, -8.5337765515e-02,  9.2921815813e-02, -1.9739361107e-01,  1.3164804876e-01, 
	 3.4250356257e-02,  1.2314618379e-01,  1.0498427600e-01, -1.6546435654e-01, -2.6722254232e-02, -3.1344007701e-02, -7.5415945612e-03,  6.6374123096e-02, -1.3545356691e-01, -4.0327757597e-02, 
	 3.3278178424e-02, -1.3434046507e-01, -1.6722109914e-01, -1.3436570764e-01, -3.2076567411e-02,  6.9303572178e-02, -1.5052703023e-01,  2.0020211115e-02, -1.1263797432e-01, -1.7372551560e-01, 
	-1.7033308744e-01,  3.2015129924e-02,  8.1958740950e-02, -1.0521944612e-01,  1.4789032936e-01,  1.1644437909e-01,  1.3254189864e-02,  1.2817000970e-02,  1.8743474782e-01,  3.6662351340e-02, 
	-1.4252498746e-02,  4.6817049384e-02,  3.7808243185e-02, -5.2707348019e-02,  1.5671050549e-01,  4.4949892908e-02, -7.1995116770e-02, -1.5333984792e-01, -6.5950281918e-02, -1.6081298888e-01, 
	-9.3503676355e-02,  1.6172985733e-01, -1.2090529501e-01,  6.0649111867e-02, -9.2148438096e-02, -6.8943575025e-02,  4.9964547157e-02,  7.4166797101e-02,  1.5420394018e-02, -1.1904609948e-01, 
	-9.4674371183e-02, -1.0704876482e-01,  1.2848809361e-01,  1.4473715425e-01,  5.3238463588e-03, -9.8659865558e-02, -1.2953795493e-01, -1.2989173830e-01,  1.8269479275e-01,  1.0558012128e-01, 
	-2.3167874664e-02, -6.1074480414e-02, -1.0050527751e-01,  1.5421175398e-02, -1.7393371463e-01, -6.0898445547e-02, -2.2429652512e-02, -9.6750505269e-02, -1.2818992138e-01,  1.5235438943e-01, 
	 2.7375575155e-02,  1.3497613370e-01, -1.6027568281e-01, -3.7278577685e-02, -1.2801845372e-01, -4.1502597742e-04, -1.6610549390e-01,  7.7772617340e-02, -9.8358884454e-02,  3.3074084669e-02, 
	 2.8984703124e-02, -7.0784173906e-02, -1.1607820541e-01,  1.8555068970e-01,  4.2588379234e-02,  1.2791618705e-01,  1.3222309947e-01,  2.1861475706e-01,  9.5542766154e-02,  4.7819186002e-02, 
	 1.9477157621e-03, -1.2814985216e-01, -5.9795472771e-02, -1.1904648691e-01,  6.8803064525e-02,  1.1433321238e-01,  1.8429271877e-02,  1.2349899113e-01,  1.2230394781e-01,  1.5332588553e-01, 
	-3.3453568816e-02,  1.2236812711e-01,  7.9321399331e-02, -1.7986336723e-02, -9.7256593406e-02,  8.5066892207e-02, -2.0866994560e-01,  6.6853150725e-02,  2.5803670287e-02, -2.1546429396e-01, 
	-1.3614936173e-01, -1.7418803275e-01,  1.2534372509e-02, -7.4508637190e-02, -1.7624020576e-01,  1.5976853669e-02,  1.7479753494e-01,  4.5401245356e-02, -8.0234691501e-02,  1.4345405996e-01, 
	 2.3012550175e-01, -2.4584205449e-01,  2.0302046835e-01, -1.0048225522e-01,  2.1058253944e-01,  1.1213250458e-01, -9.2231169343e-02, -1.2188553810e-02, -3.7817150354e-02,  2.1536061168e-01, 
	-2.9799435288e-02, -2.4314822257e-01, -2.4472314864e-02, -1.2704385817e-01,  5.1164321601e-02,  1.7171742022e-01,  1.2301940471e-01,  2.0969414711e-01,  1.3578155637e-01,  4.7041486949e-02, 
	-2.1453294903e-02, -1.7809936544e-03, -3.1814821064e-02,  1.9081376493e-01,  1.2124495208e-01, -1.8939036131e-01, -1.9382443279e-02,  1.7927181721e-01,  1.1704162508e-01,  8.7760746479e-02, 
	-1.8005216122e-01,  7.5678914785e-02,  4.3948456645e-02,  1.0565625131e-01, -7.3513269424e-02,  1.8366353214e-01,  1.1039353162e-01, -9.9668733776e-02, -1.0875046253e-01, -1.6841560602e-01, 
	 4.6856151894e-03, -6.5258324146e-02,  8.2030832767e-02, -7.2807826102e-02, -1.5748192370e-01,  8.1348136067e-02,  1.2587089837e-01, -9.1300778091e-02,  2.2357493639e-01, -1.4850932360e-01, 
	 1.0756446980e-02, -3.1570445746e-02, -1.3572522998e-01, -1.4520925283e-01,  2.3137360811e-02,  2.0575200021e-01, -7.7044941485e-02,  1.7205742002e-01,  7.3507265188e-03,  1.3013444841e-01, 
	 1.9786682725e-01, -2.1151427925e-01,  7.1927979589e-03,  1.3320942223e-01, -1.4478337765e-01, -3.9705894887e-02,  1.1113929003e-01, -2.3381648585e-02,  1.1307676136e-01, -1.0464479029e-01, 
	-1.0596664250e-01, -1.2691722810e-01, -1.6599562764e-01, -6.0072492808e-02, -2.0861506462e-01,  1.4814990759e-01,  1.4191384614e-01, -1.9582086802e-01,  3.3422823995e-02, -1.5750383027e-03, 
	-1.4748142660e-01, -9.8806016147e-02,  1.2076482177e-01, -2.3819755018e-01,  1.1218307167e-01,  1.1212554574e-01,  1.6058051586e-01, -7.5219467282e-02, -1.9634538889e-01, -8.6711429060e-02, 
	-1.5369190276e-01,  1.8930497766e-01, -2.2393423319e-01, -4.8162497580e-02, -5.4229401052e-02,  1.1741627753e-01,  4.4695481658e-02,  6.8479053676e-02,  1.0457892716e-01,  1.2507042289e-01, 
	-6.0592036694e-02,  1.4832779765e-01,  1.3558663428e-01, -1.3566765189e-01, -5.8291554451e-02,  8.1828549504e-02,  1.3324075937e-01, -5.7347916067e-02, -1.4596502483e-01, -1.3677541912e-01, 
	-1.6358854249e-02, -1.3518461958e-02,  1.7259132862e-01, -9.2157885432e-02,  1.0857053846e-01,  1.0486057028e-02, -5.4011750966e-02, -5.9882238507e-02,  1.9720442593e-01, -1.6248039901e-01, 
	 1.0836617649e-01,  7.3188811541e-02,  4.1341811419e-02,  4.1462589055e-02,  6.3970097108e-04,  7.5046926737e-02, -1.0071796924e-01,  3.7457961589e-02,  1.9101728499e-01,  1.2959338725e-01, 
	 8.3712674677e-02, -3.9516657591e-02,  1.6328218579e-01, -1.1734592170e-01, -1.6467668116e-01,  1.3933520019e-01,  9.4239218161e-03,  1.0124108940e-01,  1.7148964107e-01, -1.8135742843e-01, 
	 1.6827110201e-02, -3.4179072827e-02, -1.0390710086e-01,  2.0415067673e-01,  1.5149979293e-01,  1.9930234551e-01,  1.8859706819e-01,  1.1536720395e-01,  1.5269964933e-02,  1.3063959777e-01, 
	-4.2220655829e-02, -9.9648825824e-02,  6.7931041121e-02, -6.8905003369e-02, -1.9688405097e-01,  1.3536372781e-01,  1.0041577369e-01,  1.9784821570e-01,  6.1797305942e-02, -5.7738613337e-02, 
	 2.2601044178e-01,  7.6513752341e-02, -9.2725031078e-02, -1.3405571878e-01,  9.4654053450e-02,  1.0393739492e-01, -5.4388593882e-02,  1.3253438473e-01, -1.0469718277e-01, -1.9545400143e-01, 
	 1.1386764795e-01,  4.8476912081e-02,  1.4594005048e-01,  8.8485650718e-02,  1.3639044762e-01,  1.1497251689e-01,  2.5724632666e-02, -5.3442303091e-02,  5.7865697891e-02, -5.7743743062e-02, 
	-1.6211278737e-01,  5.5290438235e-02,  4.0684893727e-02,  8.6718007922e-02, -1.8478825688e-01,  1.2878938019e-01, -1.7843377590e-01,  9.2413291335e-02,  7.0702232420e-02,  4.2323418893e-03, 
	 1.6324530542e-01, -4.8936940730e-02, -2.1028450131e-01, -1.9356825948e-01,  2.0151056349e-01, -1.7860393226e-01,  2.7558157220e-02,  1.5100464225e-01, -7.0825569332e-02, -1.7960410565e-02, 
	-8.7248966098e-02, -1.2287874520e-01, -1.0901597887e-01, -1.2669095397e-01, -3.3836301416e-02,  1.1177201569e-01, -1.0382433981e-01, -1.9399429858e-01,  1.2206730992e-01, -1.4947900176e-01, 
	 1.0596483946e-01,  7.2820529342e-02, -1.5217861533e-01, -4.9092066474e-03,  1.9153992832e-01, -2.1225595847e-02,  5.7477783412e-02, -9.6547260880e-02,  2.4720693007e-02,  2.1225662529e-01, 
	 3.6309137940e-02,  5.3087412380e-03,  5.4712999612e-02, -1.3390606269e-02, -9.9572472274e-02, -1.4960859902e-02,  1.0130026378e-02,  1.6504622996e-01, -1.3208572567e-01, -1.5754617751e-01, 
	-1.8734848499e-01,  1.8341518939e-01, -2.1722039208e-02, -1.9578938186e-01, -1.6196136177e-01, -1.4203754067e-01,  1.1507767439e-01, -6.7942582071e-02, -1.0510530323e-01, -7.6121024787e-02, 
	 5.3932860494e-02, -1.7114718258e-01, -1.0392135382e-01, -1.6298405826e-01, -6.8539008498e-02,  8.2751862705e-02,  3.6741774529e-02,  1.8663538992e-01, -6.1305720359e-02,  7.9205326736e-02, 
	-1.6618150473e-01,  1.1092592031e-01,  1.4927962422e-01,  1.6879969835e-01,  1.6389362514e-01, -1.0373380035e-02, -1.6610230505e-01, -1.1977726221e-01, -1.9980634749e-01,  1.2724445760e-01, 
	-1.1245678365e-01,  8.0049410462e-03, -5.4162714630e-02,  1.7339339852e-01, -5.0579182804e-02, -2.0924851298e-02, -5.9710100293e-02,  7.6497055590e-02, -1.5691292286e-01, -6.3945502043e-02, 
	-4.3505378067e-02, -8.4358125925e-02,  1.2125799060e-01, -7.4659701204e-04, -9.5804288983e-02, -4.4480223209e-02, -2.3446135223e-02, -1.2002961338e-01,  1.4008964598e-01,  8.3460681140e-02, 
	 3.0815761536e-02, -1.4866987243e-02, -1.4571265876e-01, -1.4044632018e-01,  1.5199425817e-01,  4.9170263112e-02,  4.1251458228e-02, -1.3127282262e-01, -1.1972025037e-01,  2.2863652557e-02, 
	-7.4038453400e-02, -5.5648464710e-02,  2.7245808393e-02, -1.4935941994e-01, -2.2081448697e-03,  1.9210182130e-01,  8.5267633200e-02,  2.7391731739e-02, -3.6469530314e-02,  2.9063144699e-02, 
	 1.8035265803e-01,  1.0092350654e-02,  6.8447845988e-03, -5.6850714609e-03, -9.1355413198e-02,  1.3205465674e-01,  4.5638967305e-02,  1.7984059453e-01, -8.3286717534e-02, -8.1483677030e-02, 
	-1.1270432174e-01,  4.9738410860e-02, -1.3270679116e-01, -1.0963597149e-01, -9.0543359518e-02,  6.4740374684e-02,  8.6353749037e-02,  5.8202102780e-02, -1.2982729077e-01,  8.7579108775e-02, 
	-1.6404323280e-01,  1.4287158847e-01,  1.0606109351e-01, -8.6999237537e-02,  1.4340987802e-01,  1.2047953904e-01, -9.8308492452e-03,  7.4364759028e-02, -6.5637696534e-03,  1.1456194520e-01, 
	 7.4358163401e-03, -1.2405958027e-01, -3.6232315004e-02,  6.1026219279e-02,  9.1639660299e-02, -6.2711678445e-02,  1.5660487115e-01, -6.4383216202e-02, -1.5899388818e-03,  1.6551682353e-01, 
	-1.1556714028e-01, -1.2880340219e-01,  1.4139109850e-01, -6.2591202557e-02,  1.3345225155e-01, -1.1785364896e-01, -8.1724040210e-02,  7.2938425001e-04,  5.8483663946e-02,  1.1637996882e-01, 
	-1.1576943099e-01,  3.6668833345e-02, -1.5163579024e-02,  9.1205984354e-02, -1.4353755116e-01,  1.5471838415e-01, -5.0693649799e-02, -2.3074066639e-01, -1.1375974864e-01,  1.7022787035e-01, 
	-1.8607980013e-01, -1.8193861842e-01,  9.8071269691e-02, -7.6588623226e-02, -1.1674498767e-01, -1.2692609429e-01, -2.4664323032e-01, -1.0633755475e-01,  2.0038554445e-02, -9.8933212459e-02, 
	-6.8960577250e-02,  1.2185174972e-01, -7.6579563320e-02,  3.8430258632e-02, -3.3955227584e-02, -3.0457304791e-02, -1.1359385401e-01,  1.6873963177e-01,  4.9705218524e-02,  1.1654724926e-01, 
	-2.3195791245e-01, -8.4765180945e-02,  1.2750211358e-01, -2.3202978075e-01, -1.7111209035e-01,  1.5422520041e-01, -1.6784779727e-01,  1.2277149409e-01, -2.0024992526e-01,  2.9486395419e-02, 
	-4.0847636759e-02, -4.8632055521e-02,  5.7451196015e-02, -9.2962466180e-02,  9.9409379065e-02,  1.9596651196e-01,  1.3014504686e-02,  2.2362481058e-01,  6.8238824606e-02, -2.9868170619e-02, 
	-1.5650357306e-01, -1.1899235658e-02,  1.0483440757e-01,  2.3349219561e-01, -8.0847270787e-02,  1.1310067773e-01,  4.8251662403e-02,  6.9071583450e-02,  7.5387485325e-02,  1.9840951264e-01, 
	 1.2393636256e-01, -1.0385710001e-01, -9.8203338683e-02, -8.5623651743e-02,  9.0773902833e-02, -6.7428648472e-02, -1.1093009263e-01,  3.9110783488e-02,  6.9874331355e-02,  1.0178294778e-01, 
	-3.4449543804e-02,  1.0570769012e-01,  1.1578119546e-01,  4.7653187066e-02,  2.2197349370e-01, -6.0370318592e-02,  7.5180530548e-02,  2.9690414667e-02,  8.8259130716e-02, -2.2122487426e-01, 
	 3.5445082933e-02, -6.6905587912e-02,  7.7246755362e-02,  1.3125726581e-01, -1.7139954865e-01,  9.2359907925e-02,  2.4600233138e-01,  1.6667808592e-01,  9.9139444530e-02,  9.8556935787e-02, 
	 7.6263770461e-02, -1.6868060827e-01,  1.2713730335e-01,  1.6196890175e-01,  1.3000304997e-01,  1.1795399338e-01,  7.4655748904e-02,  5.8604124933e-03, -4.1288983077e-02,  1.1166827381e-01, 
	-2.3610292375e-01,  4.5460693538e-02,  1.9492027164e-01,  7.2484754026e-02,  7.3961522430e-03,  1.3829267025e-01,  2.4605926126e-02, -2.5494577363e-02,  1.4936977625e-01, -2.4627144635e-01, 
	 1.3136810064e-01, -9.0093322098e-02, -1.2520778179e-01,  2.3789097369e-01, -8.7411724031e-02, -1.7339354381e-02,  7.5633630157e-02, -9.0371370316e-02, -1.3444942236e-01,  7.9312480986e-02, 
	-1.2913671136e-01,  8.3698146045e-02,  6.8692299537e-03, -2.4658620358e-01,  2.2429506481e-01, -2.3381210864e-01,  2.1830685437e-01,  3.7739768624e-02,  2.6302861050e-02,  4.2007535696e-02, 
	-5.3402174264e-02, -9.2965722084e-02, -2.7700375766e-02,  1.0834202170e-01, -6.0824431479e-02,  1.3467074931e-01,  8.8968120515e-02,  2.1109947562e-01,  5.5261168629e-02, -1.0147987306e-01, 
	 6.9104559720e-02,  1.3246178627e-01, -7.0866942406e-02, -7.3636390269e-02,  5.6862451136e-02, -1.3654527068e-01,  8.1253774464e-02,  2.2839816287e-02,  4.4394005090e-02, -8.1069603562e-02, 
	-1.8117092550e-01,  7.4983179569e-02,  8.2720004022e-02,  4.1940122843e-02,  3.6500398070e-02,  1.3700754941e-01, -1.3124762475e-01,  1.3364252448e-01,  1.4245310426e-01, -1.9494315609e-02, 
	-1.3214716315e-01, -1.3320797682e-01, -2.1383532882e-01, -8.8279061019e-02, -1.5018545091e-01, -4.8988386989e-03, -1.4161321521e-01, -1.8260614574e-01,  1.9339741766e-01,  1.7524851859e-01, 
	 2.0247459412e-01, -8.5962481797e-02, -2.3253777623e-01, -1.3756878674e-02,  1.9664402306e-01,  1.2968790531e-01,  1.7040756345e-01,  7.8665845096e-02,  8.8231831789e-02,  1.2990106642e-01, 
	 3.3826004714e-02, -1.1414335668e-01,  9.7172878683e-02,  8.1717729568e-02, -1.0220300406e-02, -2.2386157513e-01, -2.6505233720e-02,  1.8253110349e-01, -8.5995197296e-02, -8.5872963071e-02, 
	-5.1647957414e-02, -1.5570421237e-03, -5.8353696950e-03, -4.7439768910e-02,  1.6108360142e-02, -8.1506006420e-02, -1.0308793187e-01, -1.7174635828e-01,  9.6617750823e-02,  1.0411752760e-01, 
	-1.3265341520e-01,  1.4108458161e-01, -1.1200293154e-01,  3.4046054352e-03, -2.0230650902e-01,  3.5404998809e-02,  2.2140359879e-01,  1.1271205544e-01, -1.4140512794e-02,  6.5896503627e-02, 
	 2.5707880035e-02, -3.3998798579e-02, -2.1193563938e-01, -8.2545340061e-02,  1.8647213280e-01, -1.1971137673e-01,  7.0092685521e-02,  7.6449317858e-03,  5.6004838552e-04, -1.7690956593e-01, 
	-1.1214508116e-01, -9.8566196859e-02, -4.5836575329e-02,  2.1101757884e-01, -6.5791606903e-02, -1.6143882275e-01,  1.0491913557e-01,  6.5229870379e-02, -1.3703520596e-01,  6.4543120563e-02, 
	 1.7516510189e-01, -6.1595674604e-02, -9.3190379441e-02,  1.4124646783e-01,  1.0746787488e-01,  2.1102033556e-01,  1.6073435545e-01, -1.2964740396e-02, -8.5408113897e-02, -7.6757401228e-02, 
	-5.0837025046e-03,  1.1104597151e-01,  2.1546682715e-01,  1.1130572110e-01,  1.4915910363e-01, -1.3136859238e-01, -1.8858872354e-02,  2.5899268687e-02, -1.0022061318e-01,  1.2627018988e-01, 
	 1.4399507642e-01, -5.3334187716e-02, -1.2587279081e-01, -1.2535543181e-02, -1.7320321500e-01,  1.4320714772e-01, -2.0010361075e-01, -5.5355522782e-02,  9.8537623882e-02,  8.0591654405e-03, 
	-9.7025767900e-05, -1.9709879532e-02, -1.1791577190e-01,  1.4875798486e-02,  1.8165498972e-01, -1.6255114973e-01, -1.0641572624e-01,  1.0759191960e-01, -3.9037749171e-02,  1.1170660704e-01, 
	 2.5918170810e-02,  1.9382679835e-02, -6.2926672399e-03, -4.7211285681e-02,  9.0739943087e-02,  2.8559526429e-02, -1.5864789486e-01, -8.4054134786e-02, -7.4278086424e-02,  4.8127189279e-02, 
	 1.7307327688e-01, -3.4667033469e-04,  6.6127926111e-03, -2.8640131932e-03, -1.0759805888e-01,  4.7300383449e-02,  4.1126836091e-02, -1.2686166167e-01,  7.5773701072e-02,  1.3883283734e-01, 
	 9.1137014329e-02, -1.7072679102e-01,  1.6721713543e-01, -3.4408506006e-02, -8.6876808200e-04, -1.0266878456e-01,  7.7603720129e-02,  7.1792043746e-02,  1.3886395097e-01,  4.1237410158e-02, 
	-9.9505066872e-02, -1.1015518010e-01, -9.5357187092e-02, -1.9287098944e-01,  3.5866238177e-02,  6.0962941498e-02, -1.1609823257e-01,  1.5830895305e-01,  8.5126990452e-03,  2.1454135422e-03, 
	-6.4715363085e-02, -4.9672972411e-02,  1.0114438832e-01,  2.0154397190e-01,  4.7349292785e-02,  4.9019970000e-02, -1.5229350328e-01,  1.1473608017e-01,  1.3424468040e-01, -1.5696817636e-01, 
	-1.5905950963e-01,  3.8005728275e-02,  1.5216936171e-01,  1.4465419948e-01,  1.2266815454e-01, -3.5108402371e-02,  1.1802808195e-01,  6.4374946058e-02,  1.1322365142e-02, -7.5454868376e-02, 
	 3.4444700927e-02,  4.1401754133e-03,  1.8846894801e-01, -1.0595191270e-01, -1.3675874472e-01, -7.3375284672e-02, -4.4380683452e-02, -2.8849672526e-03,  9.4935573637e-02, -1.6050809622e-01, 
	 1.2905634940e-01, -7.5508736074e-02,  1.3791611791e-01,  6.9417327642e-02, -1.0745307663e-03, -1.3018479943e-01, -4.6519055031e-03, -1.0829902440e-01,  1.0846113414e-01, -2.0197710022e-02, 
	 7.1169368923e-02, -1.0343842953e-01, -8.2411997020e-02, -9.4336129725e-02, -1.7765119672e-01,  9.9225580692e-02,  1.1887110770e-01, -4.2146783322e-02, -2.0344283432e-02,  1.2290557474e-01, 
	 1.3386039436e-01,  1.5270869434e-01, -1.6599045694e-01,  7.2919204831e-02, -1.8428228796e-01, -7.3984116316e-02,  2.0212119445e-02,  3.8118861266e-04,  1.6568164527e-01, -2.7189476416e-02, 
	 1.8225912005e-02,  8.2395598292e-02, -1.5332773328e-01,  4.8979535699e-02,  1.2780055404e-01,  2.0305956900e-01,  7.8733801842e-02,  6.7253746092e-02,  1.0770352557e-02, -1.5052950382e-01, 
	 1.8986765295e-02,  9.4313636422e-02,  4.8753186129e-03,  1.2569201179e-02, -7.6969078509e-04,  1.2410812080e-01,  4.7604229301e-02, -2.2868277505e-02, -5.1503188908e-02,  8.6794547737e-02, 
	-1.2675315142e-01,  1.0438075289e-02, -9.0761214495e-02,  1.2769010663e-01, -1.8841917813e-01, -2.1916297078e-01, -2.1458698437e-02,  6.9591231644e-02,  1.0817903094e-02,  6.5522946417e-02, 
	-5.8750145137e-02,  3.2429784536e-02, -3.9149302989e-02, -1.0590417683e-01,  2.2104047239e-01,  1.5101300180e-01,  1.1241030693e-01, -6.3085136935e-04, -3.2926838845e-02,  1.7865341902e-01, 
	-5.1417957991e-02,  1.9309336320e-02, -4.5038759708e-02, -3.5638727248e-02, -4.0505915880e-02,  4.2858887464e-02,  1.0875195265e-01, -2.2743397951e-01, -1.7960080504e-01,  7.1766443551e-02, 
	 6.7480169237e-02,  1.0446109809e-02, -8.1343270838e-02, -9.0590544045e-02,  1.0335146636e-01,  1.4367143810e-01, -7.5212088414e-03,  2.6021052152e-02, -4.1668757796e-02,  6.0294382274e-02, 
	-4.3913792819e-02,  2.0749683678e-01,  6.6369152628e-03, -1.0608325712e-02, -8.6170114577e-02,  6.5459884703e-02, -2.2928687930e-01,  1.0144519061e-01,  2.1280102432e-01, -8.9626848698e-02, 
	-1.4599323273e-01,  5.7878751308e-02, -1.3298666477e-01,  2.0274390280e-01,  1.4171776175e-01, -1.4753536880e-01,  6.6805240931e-04,  8.2602374256e-02, -6.6122084856e-02, -7.3224604130e-03, 
	 1.2583759427e-01, -1.2980768085e-01, -8.8367365301e-02,  8.8234812021e-02, -1.3277976541e-04, -1.3601662219e-01,  1.6076292098e-01, -6.2524199486e-02,  9.0229362249e-02,  5.7574920356e-02, 
	 1.1971532553e-01, -4.1720259935e-02, -1.0119439662e-01,  1.7601814121e-02,  1.9951140881e-01, -1.6289308667e-01,  4.4396635145e-02,  9.8040327430e-02, -1.0625069588e-01, -1.1137086153e-01, 
	 7.1425631642e-02,  1.5612968244e-02,  5.6787535548e-02, -7.4286803603e-02,  7.0666924119e-02, -2.9992170632e-02, -4.4348262250e-02,  1.6252461076e-01,  1.1789655685e-01, -6.6781744361e-02, 
	 1.3865286112e-01,  1.9665253162e-01,  1.8543377519e-01, -3.2244421542e-02, -1.4618782699e-01, -6.2221653759e-02,  3.9264038205e-03, -3.6331143230e-02,  1.3447517157e-01, -1.1450792849e-01, 
	-1.3456520438e-01,  3.6801073700e-02,  5.4836861789e-02,  1.3849893212e-01,  1.3823644258e-02,  1.9196528196e-01, -2.1094283462e-01,  1.0994639248e-01, -1.4163732529e-01,  1.0642025620e-01, 
	 2.0845656097e-01,  6.8404302001e-02,  1.1982479692e-01, -6.6563241184e-02,  1.1596883833e-01,  2.2341849282e-02, -1.2055125833e-01, -8.4349147975e-02, -5.8335363865e-03, -2.3890422285e-01, 
	 4.1213665158e-02,  3.2263282686e-02, -1.3264004886e-01,  1.5261575580e-02, -4.8710852861e-02, -1.5404687822e-01, -2.3135186732e-01, -1.2826593220e-01,  4.9313008785e-02, -2.9418433085e-02, 
	-1.6616576910e-01,  1.9386386871e-01,  6.9536074996e-02,  1.2998440303e-02,  1.3955719769e-01, -7.9571448267e-02,  1.1994907260e-01, -6.3961461186e-02, -2.4236762524e-01, -3.0324934050e-02, 
	-2.2736251354e-01,  7.8933760524e-02,  3.0772155151e-03,  2.1744982898e-01,  1.1103819311e-01, -5.3883641958e-02, -1.8853552639e-01,  1.7870481312e-01,  9.1998241842e-03,  1.4530025423e-01, 
	 7.8113168478e-02, -1.0972821712e-01, -1.9666381180e-01, -8.8235609233e-02, -5.4300017655e-02, -4.6565275639e-02, -1.2989847362e-01, -8.9369174093e-03, -2.4187192321e-01, -1.0328748822e-01, 
	-6.7384608090e-02, -6.4563184977e-02, -5.9253454208e-02, -8.7104238570e-02,  8.0171108246e-02, -4.0716039948e-03,  1.1728497595e-01,  7.0506908000e-02, -5.6655723602e-02, -9.8617978394e-02, 
	-1.0819282383e-01,  8.7847843766e-02,  8.5640616715e-02, -4.0336605161e-02, -7.4662409723e-02,  1.6811735928e-01,  2.0568896830e-01, -6.5444740467e-03, -3.4406866878e-02, -1.0420522094e-01, 
	 1.7667023838e-01,  1.7657966912e-01, -5.5035464466e-02, -7.8452574089e-03,  1.1788982898e-01, -4.8557285219e-02, -3.5761959851e-02, -7.9217597842e-02, -4.5182406902e-02, -1.5112964809e-01, 
	 2.0087645948e-01, -1.3209116459e-01, -9.2745780945e-02, -3.8755714893e-02,  4.8753779382e-02,  6.0566954315e-02,  1.0460171849e-01, -1.0838506371e-01,  9.0257629752e-02, -1.7810122669e-01, 
	-7.7078796923e-02, -1.6964736581e-01,  1.8465694785e-01, -1.4046211541e-01,  1.6804737970e-02, -2.7156233788e-02, -2.0262189209e-01, -7.6567739248e-02,  1.5144887567e-01, -1.4709852636e-01, 
	 1.2902824581e-01,  8.1028491259e-02, -8.3384484053e-02,  4.5768588781e-02, -8.4678031504e-02,  6.7461408675e-02, -4.2219113559e-02,  1.7762517929e-01,  5.4852209985e-02, -3.5898301750e-02, 
	 5.0080481917e-02, -9.9057361484e-02, -8.0892927945e-02,  1.6905389726e-01,  6.5421974286e-03,  3.9649609476e-02,  1.7584420741e-01,  1.2294585258e-01, -6.4529754221e-02, -5.5780608207e-02, 
	 4.2836811393e-02,  7.2095058858e-02,  9.7610488534e-02,  9.6838623285e-02, -1.2552009523e-01,  1.7655466497e-01,  1.6578845680e-01,  2.2490504384e-01, -1.5421895310e-02,  1.8164920807e-01, 
	 1.8714283407e-01,  8.8085897267e-02, -3.9292924106e-02, -8.9044377208e-02, -6.9930545986e-02, -2.1422976255e-01, -5.4529588670e-02, -2.0758970082e-01,  2.5588300079e-02, -2.6824355125e-01, 
	-2.4069882929e-01,  9.2646680772e-02, -3.8075182587e-02, -2.5422956795e-02,  1.7235510051e-02, -1.0004170984e-01, -2.0896805823e-01,  3.7031594664e-02,  1.3435202837e-01, -1.5354363620e-01, 
	 5.4883480072e-02,  1.6011828184e-01, -3.3778101206e-01,  1.6938553751e-01,  1.3618181646e-01,  2.3519206047e-01,  8.4253489971e-02, -4.5890435576e-02,  9.0256035328e-03, -6.4608426765e-03, 
	-2.4106433988e-01, -4.1585396975e-02,  1.0163811035e-02,  3.1462915242e-02,  2.0731043816e-01, -7.4968799949e-02,  1.2186751515e-01, -2.7732712030e-01, -6.8360753357e-02, -3.2019311190e-01, 
	 1.4364804327e-01, -3.4059915692e-02,  3.1555613875e-01,  2.1095775068e-01,  2.8998872265e-02, -1.7450545728e-01,  1.5834233165e-01,  5.3539022803e-02,  1.4090488851e-01,  2.5979140401e-01, 
	-3.8343053311e-02, -2.7913063765e-01, -2.4553743005e-01,  3.0085110664e-01,  2.1638043225e-01, -7.4025906622e-02, -2.2909728810e-02, -3.6123052239e-01, -9.7985111177e-02,  3.7073251605e-01, 
	 2.6274663210e-01,  1.7130480707e-01,  1.0718325153e-02, -1.6369101405e-01,  5.8851417154e-02, -1.9283065200e-01, -1.1383684725e-01,  2.9652118683e-01, -1.5435494483e-01, -2.9474365711e-01, 
	-1.4171530306e-01,  1.8958100677e-01, -2.5969588757e-01,  1.3518714905e-01, -1.8217946589e-01,  1.5310256183e-01,  1.1792542040e-01,  1.0819800943e-01, -2.2782763839e-01,  2.5127255917e-01, 
	 8.2847200334e-02, -1.9647961855e-01,  3.2885205001e-02, -6.9274961948e-02, -1.6601957381e-01, -2.9404002428e-01,  1.8596094847e-01,  2.4117335677e-01, -3.0123355985e-01,  1.3992656767e-01, 
	-5.8111026883e-02,  1.7420086265e-01,  2.9473707080e-02, -3.8789052516e-02,  1.0913436115e-01, -7.4887901545e-02, -3.0145150423e-01,  9.4551220536e-02,  1.0049644113e-01,  2.5191050768e-01, 
	-3.6361414194e-01,  3.1550306082e-01, -2.0638763905e-01, -3.2878187299e-01,  3.4722736478e-01,  2.0626943558e-02,  2.6574948430e-01, -1.6116458178e-01, -1.0140743107e-01, -2.6930102706e-01, 
	-2.7257092297e-02,  1.0575518943e-02, -1.9610244036e-01, -6.2508014962e-03, -5.9464909136e-02, -7.5286276639e-02, -1.7274664342e-01, -2.4670314044e-02, -1.6324782372e-01,  2.6473620534e-01, 
	 7.1165248752e-02,  3.4206572920e-02,  1.5450602770e-01, -1.2431574613e-01, -1.1744587123e-01, -3.2816952467e-01, -3.0302414298e-01, -1.6143497825e-01, -4.1330568492e-02,  2.3741282523e-01, 
	 9.0745754540e-02, -3.5447719693e-01, -2.7555829287e-01,  2.8639855981e-01,  1.4232005924e-02,  8.4395788610e-02, -2.0089675486e-01, -2.7348347008e-02, -2.5099313259e-01,  2.4492304027e-01, 
	 5.2480306476e-02,  2.6462307572e-01,  2.3531032726e-02, -1.1864132434e-01,  2.4486925453e-02,  3.9051294327e-02, -5.1624991000e-02,  8.5723549128e-02,  1.3144674897e-01,  1.6840818524e-01, 
	-2.6333630085e-01, -3.7573192269e-02, -1.0149222612e-01,  7.9792246222e-02,  2.5835499167e-01, -6.9431453943e-02,  3.5205837339e-02, -1.0790199041e-01,  9.5641054213e-03,  1.5503138304e-02, 
	 1.6688741744e-01, -3.4000683576e-02, -2.3856528103e-02, -2.6280742139e-02,  2.0238298178e-01,  9.0250216424e-02,  8.6811492220e-03, -2.5746781379e-02,  8.8890381157e-02,  3.9926398546e-02, 
	 1.4592945576e-01, -1.0665061418e-03,  2.0144761074e-03, -3.1078403816e-02,  6.2456436455e-02, -1.1152883992e-02, -9.5183946192e-02, -5.9413045645e-02, -1.5655840933e-01, -2.8966825455e-02, 
	-2.5738606229e-02,  1.0187890381e-01,  4.6102307737e-02,  1.1139655858e-01, -3.0655574054e-02, -2.3352707922e-01, -1.7887291312e-01,  2.3192511499e-01,  1.8292065710e-02,  1.8688648939e-01, 
	 1.5108485520e-01, -4.0209442377e-03, -5.7375054806e-02, -4.9802526832e-02,  8.0362625420e-02,  4.4838949107e-03, -1.3703924417e-01, -2.3709535599e-01, -6.3748665154e-02, -3.7494145334e-02, 
	-1.2356702983e-01,  1.5611800551e-01, -8.8718250394e-02,  6.3063435256e-02,  2.2937664390e-01,  2.1427217126e-01,  7.9168833792e-02,  2.2816589475e-01,  7.0676855743e-02,  5.7832829654e-02, 
	-2.1327905357e-01,  4.1607607156e-02,  1.0637302697e-01, -1.3910315931e-01, -1.0953126848e-01,  2.4461752176e-01, -1.8674942851e-01,  2.8328616172e-02, -1.3921779394e-01,  2.5308677554e-01, 
	-9.5734648407e-02,  4.0407925844e-02,  2.1945276856e-01, -1.9795015454e-02,  8.3129487932e-02, -1.0862429440e-01, -9.3358524144e-02,  1.4939796925e-01, -1.8560634553e-01,  2.1080768108e-01, 
	-2.5055864453e-01, -1.7642217875e-01,  4.1538991034e-02, -5.6088294834e-02,  2.3932281882e-02, -4.0052928030e-02,  6.1709699221e-03, -1.8621869385e-01,  1.2345954776e-01, -3.9885346778e-03, 
	 3.4512627870e-02,  1.8799410760e-01,  1.1861231178e-01,  6.6463299096e-02, -1.2757225335e-01, -2.5530830026e-01, -1.7082473636e-01,  1.4528930187e-01,  1.3161234558e-01,  4.1076127440e-02, 
	-6.4308352768e-02, -1.4069141448e-01, -8.7578460574e-02, -1.9120559096e-01, -1.4945157804e-02,  5.8704908937e-02, -8.0427713692e-02,  2.2824478149e-01,  1.6105209291e-01,  7.2634643875e-03, 
	-2.3517780006e-01,  1.4634025097e-01,  6.2427058816e-02, -6.1888684286e-04, -1.4506053925e-01,  1.1537818238e-02, -9.8719850183e-02,  1.0178138316e-01, -1.8631766737e-01,  2.0581610501e-01, 
	-9.9256262183e-02, -6.7353695631e-02, -1.9516023993e-01,  2.5523057580e-01, -9.4448842108e-02, -2.2518026829e-01,  5.0191000104e-02,  2.4237591028e-01,  1.0405091196e-01, -5.9670768678e-02, 
	 4.7003924847e-02,  2.3391275108e-01,  2.0488992333e-01, -1.8068686128e-01,  9.4650581479e-02, -5.9660840780e-02, -1.9992683828e-01, -8.4060251713e-02,  1.0199385136e-01, -1.4688324928e-01, 
	 6.7063979805e-02, -8.3710089326e-02,  1.8714182079e-01, -1.0802630335e-01,  4.5808639377e-02, -2.2310382128e-01,  1.7267413437e-01,  1.2006919086e-01,  1.5921446681e-01, -1.4668134972e-02, 
	 1.8627649546e-01,  8.3724327385e-02,  1.8084530532e-01,  1.4146688581e-01,  1.0496767610e-01,  5.1540374756e-02, -1.0290592164e-01, -9.2890515924e-02,  5.7542383671e-02,  1.8435613811e-01, 
	 1.0320656002e-01, -1.8833313882e-01, -1.5189494193e-01,  7.4928171933e-02, -1.5561456978e-01,  5.1162112504e-02,  8.3911269903e-02, -7.8183561563e-02,  7.2788320482e-02,  7.4978545308e-02, 
	 8.4667233750e-03, -2.4075692892e-01, -1.9691918045e-02,  1.6732379794e-01,  6.3117586076e-02,  9.3212109059e-03, -2.2244033217e-01,  8.9704260230e-02, -2.2676233947e-01, -4.7355599701e-02, 
	-2.3950178176e-02,  2.3143520951e-01,  2.9934935272e-02, -9.4384029508e-02, -1.6060119867e-01,  1.2797731161e-01,  1.3816478848e-01,  2.5624802336e-02, -7.7561937273e-02, -6.6688016057e-02, 
	-4.8955574632e-02, -2.3302368354e-03,  2.3184640706e-01, -5.1737455651e-03, -1.8313468993e-01, -4.8854090273e-02, -1.8810644746e-01,  1.8410541117e-01,  2.1198585629e-01, -8.9189730585e-02, 
	-3.0237810686e-02, -1.2210074067e-01, -1.3116179407e-01,  8.6738742888e-02,  2.5182160735e-01, -2.4404350668e-02, -8.0653719604e-02, -6.5296433866e-02,  4.6754803509e-02, -1.0986508429e-01, 
	 1.0706007481e-01, -1.7277590930e-01, -5.2149683237e-02,  9.4989039004e-02, -2.3982740939e-01, -6.4724192023e-02,  2.2164793313e-01, -2.2394826636e-02,  4.6231027693e-02, -1.1169021577e-01, 
	-2.2103062272e-01, -2.2856223583e-01, -2.1260789037e-01,  6.3156351447e-02, -2.4373458326e-01, -1.0970217735e-01,  1.0085083544e-01, -1.6760216653e-01,  2.2847708315e-02, -2.2555866838e-01, 
	-1.2417553365e-01, -5.4065238684e-02, -1.5726962686e-01, -9.1584682465e-02, -2.4114669859e-01,  1.8801049888e-01, -3.4237429500e-02, -1.4876815677e-01,  8.6847573519e-02,  3.0499443412e-02, 
	 5.9858836234e-02, -6.2536381185e-02, -1.3865932822e-01,  1.5269498527e-01,  3.4489694983e-02,  1.4409020543e-01,  6.1036165804e-02,  1.8015141785e-01,  1.8038493581e-03,  3.2843276858e-02, 
	 1.7106807232e-01,  2.3451840971e-03,  1.4062194526e-01,  6.9538846612e-02, -1.1900317669e-01,  1.7528302968e-01, -7.8294456005e-02,  1.7918363214e-01,  1.3214243948e-01, -1.1749409884e-01, 
	-3.3230423927e-02, -1.7612454295e-01, -6.6607102752e-02,  2.6104195043e-02, -1.3764947653e-01, -2.0290683955e-02,  6.2568232417e-02,  4.7095216811e-02,  1.7573855817e-01, -4.8450864851e-02, 
	-4.9793012440e-02, -3.9559822530e-02, -1.3418240845e-01, -1.2455952913e-01,  2.0009687543e-01,  8.1892870367e-02, -8.7152697146e-02, -2.0886315033e-02,  3.0878927559e-02, -2.3112490308e-03, 
	-6.9751903415e-02, -1.4638683200e-01,  4.6171336435e-03,  1.3896274567e-01, -3.0600320548e-02, -2.6673775166e-02, -1.8277554214e-01,  1.3517145067e-02,  8.6244262755e-02, -1.8066625297e-01, 
	-1.0296262801e-01,  8.7545603514e-02,  9.2928320169e-02, -8.4169872105e-02,  1.0920456052e-01, -3.5346522927e-02,  1.3716688752e-01,  8.8473586366e-03,  1.1960840225e-01,  1.6358467937e-01, 
	-1.9819065928e-01,  1.0882049799e-02,  3.8555487990e-02,  5.8888386935e-02,  1.3058368862e-01,  1.4647114277e-01,  1.6218446195e-01,  3.3739584032e-03, -1.0755753517e-01, -1.1265417933e-01, 
	 7.5952976942e-02, -6.6401399672e-02,  9.0227603912e-02,  1.9976991415e-01, -1.3365139067e-01, -2.5708188768e-03, -3.2358795404e-02, -5.9472225606e-02, -6.1740770936e-02, -9.4158120453e-02, 
	 1.4896404743e-01, -1.4072300866e-02, -1.8020619452e-01, -5.6807860732e-02, -7.7972754836e-02, -4.1391570121e-02, -2.9035719112e-02, -4.3283723295e-02, -3.2249081880e-02,  1.4177986979e-01, 
	-7.1825541556e-02,  1.4795969427e-01,  1.7526319623e-01, -1.2362818420e-01,  1.6023576260e-01,  1.7313562334e-01,  1.4810875058e-01, -1.3795270026e-01, -1.4380605519e-01, -9.2855915427e-03, 
	 5.5005382746e-02, -1.5742097795e-01, -1.2207973050e-03,  1.3558310270e-01,  8.4832206368e-02, -1.0182400048e-01, -6.4357541502e-02,  1.0725939646e-02, -1.6181857884e-01,  1.1200420558e-01, 
	 9.1284841299e-02, -5.2359294146e-02, -1.4534339309e-01,  3.5452708602e-02,  1.4110563695e-01, -5.4793494201e-05,  2.0684364438e-01, -2.0088236034e-01, -7.1445055306e-02,  1.0683237016e-01, 
	 1.4716993272e-01, -1.0191527009e-01, -1.2374699116e-01,  1.8514750898e-01, -2.3109782487e-02, -1.1624843627e-01,  5.6239780039e-02, -4.3736543506e-02, -1.5615800023e-01, -1.6489998996e-01, 
	-5.6735165417e-02, -7.3739662766e-02,  2.5984410197e-02,  7.0731624961e-02, -2.9201337695e-01,  1.4647604525e-01,  1.5768615901e-01, -8.2407586277e-02, -1.2514559925e-01,  1.7989832163e-01, 
	 2.1666032076e-01, -2.7931476012e-02,  9.6157059073e-02,  1.7080207169e-01, -9.1811865568e-02,  1.8317325413e-01,  3.1637638807e-01,  3.1456208229e-01,  8.6246624589e-02, -1.9101242721e-01, 
	 2.7462801337e-01, -2.2289502621e-01, -5.2221968770e-02,  4.9289371818e-02,  1.9991151989e-01, -8.1350632012e-02,  1.3898296654e-01, -2.2831842303e-01,  1.4548990130e-01, -2.9124832153e-01, 
	-2.4130880833e-01, -4.8168685287e-02,  1.2764085829e-01, -2.1491743624e-01, -3.4941412508e-02, -2.7683485299e-02,  2.2530822456e-01, -2.0833367109e-01,  1.0747446865e-01,  1.4867192507e-01, 
	 1.8214669824e-01,  2.8100493550e-01, -1.5751436353e-01, -1.2397405226e-03, -1.7440526187e-01,  1.8899899721e-01,  3.1202360988e-02, -1.3532665372e-01, -9.7110986710e-02, -4.8145297915e-02, 
	 2.9140409082e-02,  8.2819119096e-02,  9.6852034330e-02,  3.1331488490e-01,  2.0673732460e-01, -1.4324918389e-01,  3.7829369307e-02, -8.9847482741e-02, -2.6021426916e-01,  2.5629544258e-01, 
	-3.5322044045e-02, -2.5508463383e-01,  4.8164613545e-02,  7.7480219305e-02,  8.5496995598e-03,  8.9670002460e-02, -3.0567258596e-01,  2.8230038285e-01,  1.1296255887e-01,  3.0773386359e-01, 
	-1.9174313545e-01,  5.4754141718e-02,  4.0199100040e-03, -3.6633417476e-03, -2.2833479941e-01, -2.5110098720e-01, -7.0876739919e-02, -1.9963997602e-01,  2.6815479621e-02,  1.6855624318e-01, 
	 1.6066152602e-02,  1.8164426088e-01, -2.0044669509e-01,  1.9270278513e-02,  2.1223945916e-01, -3.1611867249e-02,  9.1421656311e-02, -1.8342344463e-01,  9.7899558023e-03, -6.0363743454e-02, 
	 3.6039851606e-02,  3.1927075982e-01, -1.6986687481e-01,  2.8276687860e-01, -2.6962473989e-01, -2.5561311841e-01,  1.6090233624e-01, -2.8801977634e-01,  2.9085302353e-01,  1.1485486478e-01, 
	 3.6147717386e-02, -1.4643207192e-01,  2.0453478396e-01, -3.0040098354e-02, -1.3527180254e-01,  1.7644120753e-01, -2.4023693800e-01, -2.5176638365e-01, -9.8544187844e-02, -9.2234872282e-02, 
	 1.1019689031e-02,  1.7867822945e-01,  2.1805143356e-01, -1.2676252425e-01,  2.4662017822e-01, -2.8051471710e-01,  2.3382838815e-02, -2.3935614526e-01, -2.9428976774e-01, -1.3636186719e-01, 
	-1.4132414758e-01,  1.5286120772e-01,  1.3502843678e-01, -2.2457811236e-01, -2.5694707036e-01, -1.8057273701e-02, -1.4994657598e-02,  3.4814384580e-01, -7.7979303896e-02,  6.2513351440e-02, 
	 1.1999618262e-01,  1.5185423195e-01, -7.9961374402e-02,  1.2107234448e-01, -1.0735779256e-01,  3.7265572697e-02, -1.3975063339e-02, -1.4745126665e-01,  9.9140696228e-02, -1.5182259679e-01, 
	-1.5014685690e-01, -2.5440836325e-02, -6.3146747649e-02, -1.2432652712e-01, -5.3184930235e-02, -2.6333915070e-02,  7.0963978767e-02,  1.8693552911e-01, -1.5638904274e-01,  3.7274736911e-02, 
	 1.0383854061e-01,  1.2509551644e-01, -1.2347593158e-01, -1.4142791927e-01,  1.3105884194e-01, -4.6441834420e-02,  7.4550576508e-02, -4.6779941767e-02, -5.5048470385e-03, -8.6389802396e-02, 
	-1.0213691741e-01, -1.1261376552e-02, -5.4585784674e-02, -1.7320899665e-01,  1.3046313822e-01,  4.4118706137e-02, -7.6311364770e-02,  3.3337388188e-02,  1.1327940971e-02,  1.4604267478e-01, 
	 8.8649809361e-02, -7.8510001302e-02, -2.1610846743e-02, -1.2657962739e-01, -1.1535340920e-02, -1.7229107022e-01,  2.7643078938e-02,  1.3528293371e-01, -8.3871603012e-02,  6.0988251120e-02, 
	-5.6950910948e-03,  9.4003766775e-02, -1.6740728915e-01,  5.6980054826e-02, -1.6252133250e-01, -7.7142588794e-02,  8.1101574004e-02,  3.5144779831e-02, -1.3533660769e-01,  5.3866442293e-02, 
	 1.5645042062e-01, -7.5030758977e-02,  9.2125669122e-02,  1.8758404255e-01,  1.0237007588e-01, -1.7988862097e-01, -6.6191025078e-02, -4.0111847222e-02, -1.2938331068e-01,  1.2022240460e-01, 
	 1.1977437139e-01,  1.6285800934e-01,  1.4021843672e-01, -1.6931529343e-01,  1.3208408654e-01, -1.6570757329e-01, -8.7811551988e-02, -6.9691523910e-02, -1.7602339387e-01, -6.0587093234e-02, 
	-8.1597998738e-02, -1.9338740408e-01, -1.7178939283e-01,  6.2567375600e-02,  3.9221312851e-02,  9.4641231000e-02, -2.5184806436e-02, -1.6181373596e-01,  8.8752834126e-03,  7.2688370943e-02, 
	-1.2713365257e-01, -6.8610034883e-02,  1.8231602013e-01,  9.0614117682e-02, -1.3242879510e-01,  4.8895172775e-02,  6.0182016343e-02,  3.4135397524e-02,  1.8873515725e-01,  2.3778803647e-02, 
	 1.5397836268e-01,  3.2508559525e-02, -7.0280566812e-02,  1.8727472425e-01,  8.0874383450e-02,  1.4211571775e-02,  6.7052297294e-02, -8.1134222448e-02,  1.8546673656e-01,  1.7568247020e-01, 
	-8.9206837118e-02, -1.4791801572e-01, -2.9996508732e-02, -1.8236412108e-01, -1.8013833463e-01, -5.9485286474e-02,  1.4220082760e-01,  6.9233193994e-02,  6.8514165469e-03,  1.7059774697e-01, 
	-2.6414774358e-02, -2.1010875702e-02, -5.1132421941e-02, -5.4428454489e-02, -8.1845477689e-04,  3.9185289294e-02, -5.2833259106e-02, -8.0281430855e-03,  1.1346172541e-01, -1.4456737041e-01, 
	 2.1919634938e-01,  8.8485322893e-02, -1.9871658087e-01,  6.7423991859e-02, -1.4217574894e-01,  9.9440226331e-03, -1.0450434685e-01,  1.6640743613e-01, -1.6588206589e-01, -1.4250822132e-03, 
	 1.4277800918e-01,  1.6161251813e-02, -8.5548765957e-02,  1.0901529342e-01,  7.2587408125e-02,  1.5172663331e-01,  1.1242342740e-01,  5.9186376631e-02,  8.7552353740e-02,  2.1311546862e-01, 
	 1.1141339689e-01, -4.1968014091e-02,  1.3923611492e-02,  3.2680831850e-02, -4.4742703438e-02,  2.0760631561e-01,  2.3160837591e-01, -1.0499126464e-01, -2.2108732164e-01,  1.2787443399e-01, 
	-5.8522745967e-02,  2.0454052836e-02,  1.3205356896e-01,  9.0213328600e-02, -1.6658803821e-01,  7.6725222170e-02, -6.4551025629e-02, -9.7856342793e-02, -1.3594473898e-01,  1.3905565441e-01, 
	-3.7538725883e-02, -1.2501601875e-01,  8.2028865814e-02,  1.1193218082e-01,  6.2368400395e-02,  9.1061957181e-02,  2.2603736818e-01,  1.1563707143e-01,  8.9556410909e-02, -1.2215723284e-02, 
	 3.7101626396e-02,  1.7084950209e-01,  1.9475662708e-01,  2.0395807922e-01, -1.2299182266e-01, -4.6313434839e-02, -6.9961018860e-02,  2.1957282722e-01,  1.5430726111e-01,  1.1499208957e-01, 
	 1.0063418001e-01,  1.3580839336e-01,  2.1619726717e-01, -1.3343092799e-01, -1.4878880233e-02,  1.2674282491e-01,  2.1171675622e-01,  6.1700873077e-02, -2.0943595469e-01,  1.3159512542e-02, 
	 6.0297336429e-02,  4.3889220804e-02,  1.2434808910e-01, -1.0243847966e-01, -2.1601192653e-01,  1.0304614156e-01, -7.9605452716e-02,  4.5023495331e-03,  1.9379048049e-01,  8.9729569852e-02, 
	-2.3335979879e-01, -5.3114231676e-02, -1.8501174450e-01,  1.2804789841e-01,  3.2160952687e-03, -2.1064566076e-01,  1.3920423388e-01,  8.2618743181e-02,  2.0393957198e-01, -2.9984241351e-02, 
	 1.9460292533e-02, -1.1703311652e-01,  9.1265417635e-02, -1.2518842518e-01,  1.0674811155e-01,  1.8172167242e-01,  1.6302195191e-01, -1.0370006412e-01, -5.0301216543e-02,  1.4856907725e-01, 
	 2.1647071838e-01,  7.3198512197e-02, -1.4281450771e-02, -5.0213336945e-02,  1.1198470742e-01, -2.0318932366e-03, -2.1759955212e-02, -8.2152225077e-02, -2.5800913572e-02,  2.3306769133e-01, 
	-1.3144135475e-01, -1.1879421771e-01,  2.0892900229e-01, -3.9019655436e-02,  2.2149994969e-01, -1.1724195629e-01, -1.0418662801e-02, -1.5690892935e-01, -1.6949968040e-01,  9.0868897736e-02, 
	 1.1804817244e-02, -2.1682521328e-02,  1.6655638814e-01, -7.5876913033e-03,  8.8637033477e-03, -1.3182371855e-01,  2.7196846902e-02, -1.8492186442e-02, -8.0257296562e-02,  4.9547076225e-02, 
	-7.6256297529e-02, -1.7933475971e-01,  1.7136259377e-01, -3.3514529467e-02,  1.3272118568e-01, -1.7650146782e-01, -8.9648097754e-02, -2.9057461768e-02, -1.2122447602e-02, -4.2622450739e-02, 
	 1.1583411694e-01,  1.8165640533e-01,  2.1625369787e-02, -9.9700875580e-02,  7.3131233454e-02,  7.0620544255e-02, -9.7268119454e-02,  1.5827172995e-01,  1.8960931897e-01,  2.6325020939e-02, 
	-3.7541441619e-02, -1.2198775262e-01,  1.3889063895e-01, -1.0319732875e-01, -1.1347214878e-01,  1.0151068121e-01, -1.2078765035e-01, -9.7085669637e-02, -7.5137436390e-02,  2.7300393209e-02, 
	 1.2077579647e-01, -3.4248558804e-03,  2.9578629881e-02,  1.8034718931e-02,  2.1302112937e-01,  1.1392079294e-01, -1.3955587149e-01,  1.3041755557e-01,  1.7314675450e-01, -5.5627711117e-02, 
	-1.4571292698e-01,  6.6500313580e-02, -1.7754884064e-01, -3.1200634316e-02, -1.3763456047e-01,  1.7398092151e-01,  9.1735288501e-02, -1.1751268059e-01,  1.9880670309e-01,  3.4842171590e-04, 
	-1.1259274185e-01,  1.6817210615e-01, -1.2954056263e-01,  1.1590239406e-01, -1.1046199501e-01,  9.0167507529e-02, -7.8841350973e-02,  6.8465009332e-02,  9.1122806072e-02, -1.3479499519e-01, 
	-1.8843314052e-01, -1.3196648657e-01, -9.4615302980e-02,  8.3284005523e-02, -9.6288099885e-02,  1.8100798130e-02,  7.9100094736e-03,  1.3410949707e-01, -1.7802955210e-01, -1.4196357131e-01, 
	-1.7231675982e-01,  5.9863984585e-02,  8.2949787378e-02,  1.5168625116e-01,  1.7078128457e-01, -6.4736120403e-02, -1.4689959586e-01,  1.1954888701e-01, -1.8708828138e-03, -1.3314418495e-01, 
	 9.9451698363e-02, -6.2590822577e-02,  1.3626599312e-01,  1.4695194364e-01, -5.0298184156e-02, -8.1326678395e-02, -1.9661995769e-01, -3.8751415908e-02, -1.1621202528e-01, -2.0843897015e-02, 
	-2.2948982194e-02, -3.7293697242e-03,  1.5044903755e-01, -9.5536738634e-02, -1.1533096433e-01,  1.4726801217e-01, -8.3674654365e-02, -5.3456310183e-02, -1.9223332405e-01,  1.5751644969e-01, 
	 3.8677934557e-02, -7.2307519615e-02,  1.0910005122e-01,  1.1891198903e-01, -4.7629722394e-03,  1.4262701152e-03,  7.4965350330e-02, -1.3349184394e-01, -3.5743240267e-02,  1.3764458895e-01, 
	 2.7045235038e-02, -2.0373161137e-01,  1.2521814555e-02, -1.5967504680e-01,  1.8508784473e-02, -1.4961160719e-01,  6.4502242021e-03, -1.5613085032e-01,  1.5621048212e-01, -1.6745601594e-01, 
	 1.4264409244e-01, -3.1817737967e-02,  1.0275828838e-01,  3.7246953696e-02, -1.4554259181e-01,  1.6908487305e-02, -1.0132790357e-01,  7.7798217535e-02, -1.5922348201e-01,  1.0687301308e-01, 
	 2.1775090694e-01,  1.1342927068e-01,  6.7008775659e-03, -8.8105812669e-02, -1.4010162652e-01, -4.8516053706e-02,  8.4581663832e-03, -1.0501015931e-01,  1.0776145756e-01, -4.6605471522e-02, 
	-8.8984780014e-02,  1.0527876019e-01,  7.1580760181e-02,  1.2669973075e-01,  2.9755318537e-02,  1.7730848491e-01,  5.1400426775e-02, -1.3341148198e-01,  3.3664965304e-04, -1.1072025448e-01, 
	-1.8056970835e-01,  8.6159311235e-02,  1.9582173228e-01,  5.1140639931e-02,  4.5711010695e-02, -7.7774241567e-02,  4.5753948390e-02, -9.0065009892e-02, -1.4903320372e-01, -9.8998099566e-03, 
	 3.9060881827e-03,  1.3398139179e-01, -1.0805993527e-01, -1.0555474460e-01,  1.1245747656e-01,  5.0478125922e-03,  2.0745112002e-01, -4.0120214224e-02,  1.0500453413e-01,  1.3232995570e-01, 
	-1.0730988532e-01,  1.3378517330e-01,  7.2904825211e-02,  1.1181161553e-01, -1.3137470186e-01, -1.7723706365e-01,  1.3266013563e-01, -1.3132445514e-02, -8.0222733319e-02, -1.5455864370e-01, 
	-9.7085781395e-02,  7.0214509964e-02, -7.0843003690e-02, -8.4698267281e-02, -7.4584200978e-02, -2.2295522690e-01,  1.1620943248e-01,  1.4008143544e-01, -1.2135227025e-01, -2.2465440631e-01, 
	 1.6888774931e-02,  7.5795531273e-02, -1.4619390666e-01, -1.3674761355e-01,  1.4147335291e-01, -8.9052714407e-02, -9.2198401690e-02,  1.8376870453e-01, -2.6977460831e-02, -2.1066268906e-02, 
	-1.6743060946e-01,  6.6332720220e-02, -5.5180143565e-02,  1.4859168231e-01,  1.5159821510e-01,  8.5458986461e-02,  5.8741979301e-02,  3.0096845701e-02, -1.5544410050e-01,  1.8922811747e-01, 
	 1.1633526534e-01, -1.0217564553e-01, -4.7541648149e-02, -1.4189156890e-01,  1.3507880270e-01, -1.1980430037e-01, -4.5392956585e-02, -7.1956075728e-02,  3.5644266754e-02,  8.3260647953e-02, 
	 8.5313700140e-02, -6.2966831028e-02,  5.7884503156e-02, -8.9956685901e-02,  1.4258711040e-01, -2.3455044255e-02,  1.8673884869e-01, -1.1374296993e-01, -8.4848098457e-02,  5.0112262368e-02, 
	 1.2086641788e-01, -1.1721453816e-01,  8.7730437517e-02, -1.3521537185e-01, -1.5678821504e-01,  1.8793512881e-01, -1.6811323166e-01,  1.0330414400e-02,  6.4554247074e-03, -4.0821313858e-02, 
	-4.9094956368e-02, -8.5306137800e-02, -8.4373325109e-02, -2.1009428799e-01, -1.9137102365e-01,  4.3772399426e-02,  6.8124760874e-03, -1.1041718721e-01,  4.0594745427e-02, -1.6867166758e-01, 
	 9.2332988977e-02,  3.7860128214e-04,  1.6982090473e-01,  1.5020146966e-01,  8.7393917143e-02, -5.6819841266e-03, -2.0894831419e-01, -1.8026374280e-02,  1.0189574212e-01,  5.7007703930e-02, 
	-1.3012495637e-01, -1.4740133286e-01, -2.1331496537e-01, -3.5539504141e-02,  4.5212794095e-02, -4.3172854930e-03, -3.5327032208e-02, -1.4866958372e-02, -7.3750689626e-02, -9.6619032323e-02, 
	 2.6143973693e-02,  9.1031521559e-02,  1.7713537812e-01, -4.5576531440e-02, -1.7673856020e-01,  1.8308185041e-01,  1.4145306777e-03,  9.4034910202e-02,  1.0447554290e-01, -5.3321026266e-02, 
	-9.8205134273e-02, -9.7945472226e-04,  1.1759292334e-01,  6.6238790751e-02, -1.2049839832e-02, -1.1619193852e-01, -1.1839694530e-01, -1.1901701242e-01, -1.4913280495e-02, -3.3808205277e-02, 
	 4.5809194446e-02,  1.4519716799e-01,  1.3077685237e-01,  6.4803645015e-02, -1.4290946722e-01, -4.9722649157e-02,  1.6046969593e-01,  1.8091963232e-01, -1.0275566578e-01,  1.2851394713e-01, 
	-1.9580841064e-02,  9.8557204008e-02, -1.8187808990e-01, -1.1794606596e-01, -4.6643748879e-02, -1.2788031995e-01, -5.6750334799e-02, -3.4790955484e-02, -1.4350901358e-02,  3.7166245282e-02, 
	-1.5300484002e-01,  9.1167807579e-02,  1.2110496312e-01, -2.1103169024e-01, -1.4300885797e-01, -6.6612698138e-02, -1.5711288899e-02,  1.1667127162e-01, -1.5532352030e-01,  1.3944327831e-01, 
	 1.7401510477e-01, -4.4351864606e-02,  1.1973346025e-01,  8.6657784879e-02, -1.0771091282e-01,  1.7950877547e-01,  6.1608407646e-02,  1.9459466636e-01, -1.4970296994e-02,  3.6685798317e-02, 
	 5.3017209284e-03, -6.8157367408e-02,  6.1928614974e-02,  1.9303368405e-02,  5.9346440248e-03,  1.7185738683e-01,  6.7876279354e-02,  1.2387944013e-01, -5.1864888519e-02,  3.5559929907e-02, 
	-2.7597798035e-02, -2.6748159900e-02,  1.4433172345e-01, -2.1316309273e-01, -1.3767038286e-01,  1.8966083229e-01, -1.9587416947e-01, -3.0594045296e-02, -1.8371196091e-01, -1.9293462858e-02, 
	-4.0502469987e-02,  2.7116592973e-02, -6.8394385278e-02,  2.5229271501e-02,  1.9266542792e-01,  1.0406274348e-01, -3.6137484014e-02,  6.7177198827e-02, -1.2572201900e-02,  1.1303371191e-01, 
	-8.5268296301e-02, -1.6226466000e-01,  3.1945281662e-03,  1.4920175076e-01,  4.3501894921e-02, -8.6676254869e-02, -3.0393616762e-03,  2.0021261275e-01,  1.3254649937e-01, -1.4628273249e-01, 
	-1.6049452126e-01, -3.7113409489e-02, -1.7243786156e-01,  3.2457485795e-02,  4.0541958064e-02,  7.0770092309e-02,  7.9420730472e-02, -2.9857525602e-02, -1.8970063329e-01, -1.0376143456e-01, 
	-6.1723802239e-02,  2.6497390866e-01, -1.4578075707e-01,  7.0595279336e-02, -3.5360974725e-03,  2.5890322402e-02, -2.6116979122e-01,  2.3863717914e-01,  1.0695426911e-01, -1.8496438861e-01, 
	 1.2919896841e-01,  1.0511007160e-01,  4.4562079012e-02,  6.5729454160e-02,  2.3575407267e-01,  1.9056232274e-01,  2.0693835616e-01,  6.6875107586e-02,  5.2674360573e-02, -1.6877824068e-01, 
	-6.5551072359e-02, -7.7360525727e-02,  1.6969759762e-01, -1.1112261564e-01,  1.8265232444e-01, -4.1792627424e-02, -3.4069139510e-02, -2.4887011945e-01,  6.3195027411e-02,  5.3066041321e-02, 
	-3.9209529757e-02,  9.2466056347e-02, -7.2129450738e-02,  4.8807740211e-02,  2.0836120844e-01, -1.8269987404e-01,  1.1642556638e-01,  1.6072738171e-01,  1.1035556346e-01,  2.6027849317e-01, 
	 8.9873857796e-02, -6.8241864443e-02, -1.6604928672e-01,  1.7381514609e-01,  2.1922949702e-02, -2.0048829913e-01, -2.3001354188e-02, -9.8327666521e-02, -1.0129021108e-01,  1.4928215742e-01, 
	 1.8371345103e-01,  2.7067297697e-01,  8.0553613603e-02, -1.2878550589e-01,  1.0314525664e-01, -1.3082976639e-01,  3.5259325057e-02,  2.6371234655e-01, -2.1277163923e-01, -1.5241163969e-01, 
	 1.0595469177e-01, -5.6691057980e-02, -1.1102803797e-01,  1.1665537208e-01, -2.9938878492e-02, -1.0887864046e-02,  2.5092512369e-01,  2.4251121283e-01,  2.0957326517e-02,  7.9076126218e-02, 
	-7.9634882510e-02,  1.1757270992e-01, -5.0294406712e-02, -1.5637484193e-01, -2.5754550099e-01,  3.1683154404e-02,  1.0754322633e-02, -9.3821182847e-02, -1.0701546073e-01,  1.0302052647e-01, 
	 8.8159114122e-02, -3.2024648041e-02,  1.5944829583e-01, -2.1537129581e-01,  2.3227857053e-01, -3.4647054970e-02, -2.8085442260e-02, -1.1650122702e-01, -1.4882279560e-02, -3.0533023179e-02, 
	-2.0419621840e-02,  1.2943887711e-01, -1.4483159781e-01, -6.6448554397e-02, -8.5195235908e-02,  8.4556184709e-02,  6.8231448531e-02, -6.8219169974e-02, -1.0670239478e-01, -2.1543945372e-01, 
	 6.8033719435e-03, -2.0913643762e-02, -7.3840126395e-02, -4.6505246311e-02,  6.0784231871e-02, -2.0120248199e-01, -2.7294769883e-01, -4.9709282815e-02, -2.4416601658e-01,  1.7570927739e-01, 
	 9.9322181195e-03, -8.2882188261e-02,  1.3896776736e-01, -2.4912022054e-03,  4.7123223543e-02, -2.1773004532e-01, -1.4587159455e-01, -5.5627636611e-02,  9.1617545113e-03, -9.1937586665e-02, 
	 1.5772162378e-01,  1.7112866044e-02, -2.3480114341e-01,  9.3802079558e-02, -1.6759002209e-01, -4.9434505403e-02, -5.4808944464e-02,  1.8248078227e-01,  1.0366662592e-01, -2.0314535499e-01, 
	-2.6925507933e-02, -1.6830760241e-01, -3.5391647369e-02, -3.4150879830e-02, -2.5168562308e-02,  5.8947950602e-03, -1.5623959899e-01,  2.2079733014e-01,  1.0817396641e-01, -2.3125974834e-01, 
	 4.5501418412e-02, -1.6045530140e-01,  7.7592846937e-03, -2.1447421610e-01,  6.7518209107e-03, -1.3181096315e-01, -1.8108148873e-01,  1.9378484786e-01,  8.1049367785e-02,  2.2562049329e-01, 
	-1.7084240913e-01,  1.1548201740e-01, -1.9551064074e-01,  1.6343140975e-02, -4.0492314845e-02, -3.1307102181e-03, -1.7350919545e-02, -1.9303899258e-02, -1.7167229950e-01,  1.2449633330e-01, 
	-6.8141758442e-02, -1.7306190729e-01, -6.9662086666e-02, -1.8997641280e-02, -2.1916528046e-01,  1.1045566946e-01, -1.8573375046e-01, -1.5576617420e-01,  1.8820482492e-01,  2.0628528297e-01, 
	 2.8290089220e-02, -1.6043916345e-01,  7.1362845600e-02,  2.5046773255e-02,  1.5529321134e-01, -7.4854910374e-02,  4.3805520982e-02,  1.8832337111e-02, -1.4808189869e-01, -1.0308236629e-01, 
	 1.1637502909e-01,  2.1560035646e-01,  6.9391289726e-03, -6.2615759671e-03,  5.9541273862e-02, -3.7756279111e-02,  3.5481926054e-02,  8.5881851614e-02,  2.1438497305e-01, -2.5133261085e-01, 
	-1.4167521894e-01,  4.2256351560e-02, -6.9380655885e-02,  8.4327258170e-02,  1.4795302413e-02,  6.4965292811e-02,  7.1227796376e-02, -5.7872901671e-03, -1.8866568804e-01,  8.9340187609e-02, 
	 1.1418236792e-01,  1.6453463584e-02,  1.2916238606e-01, -1.9819254056e-02,  4.4520944357e-02, -8.8831491768e-02, -1.3095153868e-01, -1.1036844552e-01,  9.7164446488e-03,  9.2459790409e-02, 
	-3.1887196004e-02,  1.0559588671e-01, -9.7898460925e-02,  2.5550853461e-02,  1.1324965954e-01, -1.3478666544e-02, -2.1628154814e-01,  4.8105310649e-02,  1.1321841925e-01,  4.3554134667e-02, 
	-5.1984507591e-03,  1.8760365248e-01, -2.3391507566e-02, -1.3114914298e-01,  4.1087251157e-02,  1.6836459935e-01, -3.6341223866e-02,  4.2435448617e-02, -6.2218545936e-03,  1.0692724586e-01, 
	-1.4324410260e-01, -1.1260067672e-01, -6.6442370415e-02,  9.0642370284e-02, -8.4475003183e-02,  7.8759655356e-02,  6.7533671856e-02, -3.3755194396e-02,  1.0165726393e-01,  1.2774139643e-01, 
	-2.3572586477e-01,  5.1819626242e-02,  7.3429159820e-02,  1.0608712584e-01, -7.2071462870e-02,  1.4498378336e-01,  1.3242226839e-01, -1.1953875422e-01, -5.5799987167e-02,  3.3388316631e-02, 
	 1.6789552569e-01, -1.6379384696e-01, -1.3709161431e-02, -1.2084362656e-01,  6.4454644918e-02,  1.4658571221e-02,  1.1410104483e-01, -7.3816135526e-02, -4.2328849435e-02, -1.7566196620e-01, 
	-1.5436663292e-02, -1.5311609209e-01,  1.7861329019e-01, -1.4245098829e-01,  1.3846316375e-02,  5.8541920036e-02, -1.0985065997e-01, -5.9729553759e-02, -1.0581281781e-01, -7.1968413889e-02, 
	 9.7487822175e-02, -1.3820633292e-01, -5.6365963072e-02,  5.6223299354e-02,  1.0281004757e-01,  8.8754542172e-02,  9.4594560564e-02, -9.4214148819e-02,  3.3625464886e-02, -1.9262845814e-01, 
	-1.7883457243e-01,  4.1968692094e-02,  1.8446484208e-01, -6.5275453031e-02,  8.7941475213e-02,  3.9699085057e-02, -1.5602527186e-02,  8.5820645094e-02,  1.0558110476e-01,  1.8742845953e-01, 
	 9.6315622330e-02,  6.5212778747e-02, -1.0507486016e-01,  1.5291745961e-01,  1.0341358185e-01, -1.7516775429e-01, -1.7591794953e-02, -1.5300337970e-01, -4.3736290187e-02,  1.4049853384e-01, 
	 7.6308188727e-04, -4.3069999665e-02, -1.1707881838e-01,  1.6968618333e-01, -1.2785522640e-01, -1.0404129326e-01,  1.5281657875e-01, -7.7757932246e-02,  1.9722993672e-01,  1.4581102133e-01, 
	-6.9802938960e-03, -1.1159709096e-01,  6.4200237393e-02,  2.8563898057e-02, -1.4903831482e-01, -3.0865531415e-02, -1.1166921258e-01, -1.0686750710e-01,  1.8811820447e-01,  8.5657946765e-02, 
	-1.5014015138e-01,  8.1000030041e-02, -2.3235071450e-02,  1.6265933216e-01,  5.9023417532e-02, -7.1940861642e-02,  1.4404413290e-02, -1.2141773105e-01, -1.3990115374e-02,  1.5271483362e-01, 
	-5.6787006557e-02,  6.4028710127e-02,  6.2523633242e-02,  1.8137615919e-01,  1.0904159397e-01,  1.0916143656e-02,  1.0536252707e-01, -3.3316601068e-02,  9.1801121831e-02, -8.3066090941e-02, 
	 3.9931919426e-02, -1.4615960419e-01,  7.7410824597e-02, -9.7285240889e-02, -1.0961665213e-01, -3.9044637233e-03, -8.4147259593e-02,  6.1442740262e-02,  1.3050013781e-01,  1.6470427811e-01, 
	-8.5481153801e-03, -4.3656978756e-02, -1.7687292397e-01, -1.9916862249e-02, -2.3945581168e-02, -3.4803356975e-02, -1.5806286037e-01,  1.6913226247e-01, -1.2792438269e-01, -6.2307853252e-02, 
	-1.4305612445e-01, -1.0592467152e-02,  7.0773161948e-02, -4.6989091788e-04, -7.3910996318e-02,  1.3142056763e-01,  1.1735721678e-01,  5.9366736561e-02, -6.1194758862e-02,  1.1411724240e-01, 
	 1.6059350967e-01,  1.2172130495e-01, -1.4629755914e-01,  1.0071615875e-01, -9.7405597568e-02,  1.1228291690e-01,  3.3668156713e-02, -1.2862738967e-01, -6.2334179878e-02,  1.3048225641e-01, 
	-1.8880049884e-01,  6.4821839333e-02,  2.2500135005e-01,  7.6715640724e-02,  1.7677649856e-02, -9.9094949663e-02,  1.4712931216e-01, -2.4238364398e-01,  1.0294118524e-01, -7.7081307769e-02, 
	-8.7144538760e-02,  1.0981016792e-02, -1.1549985409e-01,  3.1933523715e-02, -8.6079210043e-02, -1.8174856901e-01,  1.2987047434e-01,  4.8009395599e-02, -3.3201854676e-02, -3.8300015032e-02, 
	-5.3248357028e-02, -3.3453080803e-02,  8.8843099773e-02,  1.2366188318e-01, -4.8630554229e-02,  1.4661812782e-01, -3.7302222103e-02,  2.2530470788e-01, -7.5705214404e-03, -4.7006640583e-02, 
	-1.7221790552e-01,  2.0094864070e-01, -1.1113340966e-02, -6.0748908669e-02, -9.3345314264e-02,  1.7491954565e-01, -1.8382288516e-01,  3.4762028605e-02, -2.4769526720e-01,  1.9894728065e-01, 
	-6.2694504857e-02, -9.7599662840e-03, -1.9868859649e-01, -4.9272943288e-02, -4.6018445864e-03, -1.0810838640e-01,  1.1577150784e-02,  7.8154698014e-02, -9.0843126178e-02,  4.5678555965e-02, 
	-8.8790049776e-03,  2.0473228395e-01,  1.6970142024e-03, -7.7968522906e-02, -5.8444026858e-02,  8.8852912188e-02, -4.2330041528e-02,  1.9920176268e-01, -2.7762237936e-02, -1.3146253303e-02, 
	-9.6673779190e-02, -7.4575543404e-02,  2.1705561876e-01,  4.6608462930e-02, -1.4100040495e-01, -5.9594761580e-02,  2.0438843966e-01,  2.6307635009e-02,  2.5804123282e-01,  8.3761699498e-02, 
	-1.0820316523e-01,  1.0770225525e-01,  6.8012788892e-02, -1.4220358431e-01, -2.6625594497e-01,  5.5123653263e-02, -5.4825551808e-02,  1.5362696350e-01,  1.8402947485e-01,  5.6712254882e-02, 
	-1.1275079846e-01,  7.7697602101e-03,  1.4431796968e-01, -1.2672300637e-01,  1.3103461266e-01, -1.4903035760e-01, -2.2835522890e-01, -3.9298761636e-02, -8.4068827331e-02,  5.8044247329e-02, 
	 1.3068936765e-01,  6.1544038355e-02, -2.0126593113e-01, -1.4858092368e-01, -1.4154463075e-02, -1.7938394099e-02,  1.9261674583e-01, -2.5267774239e-02,  5.1019020379e-02,  2.6821222156e-02, 
	-2.9874185566e-04,  2.1969461814e-02, -8.6566485465e-02,  5.7454261929e-02,  2.3825800046e-02,  1.0052913427e-01,  8.2064934075e-02, -9.6463643014e-02,  2.0335316658e-02,  1.4192622900e-01, 
	 7.2987571359e-02,  2.1887992322e-01,  1.5620569885e-01,  1.9803453237e-02, -6.9211401045e-02, -6.0700174421e-02,  9.9357612431e-02,  1.7333427072e-01,  1.4125502110e-01,  8.7472125888e-02, 
	-2.2665997967e-02, -5.0488762558e-02, -7.3095582426e-02, -6.4975611866e-02, -1.3778966665e-01, -6.2982864678e-02, -1.1742902547e-01, -1.8079754710e-01, -2.5687245652e-02,  3.3939689398e-02, 
	 9.5469206572e-02,  2.2642362118e-01,  1.5333825350e-01, -8.8350186124e-03,  4.0213804692e-02,  3.3750467002e-02, -2.7931544464e-03,  1.0772593319e-01,  1.0978139937e-01, -4.1302237660e-02, 
	-2.0286131650e-02,  1.5972435474e-01, -4.6874240041e-02,  5.2742925473e-03,  2.1231565624e-02,  1.6653431579e-02, -1.1107729375e-01, -1.5319824219e-01, -1.4367373288e-01,  1.6833351552e-01, 
	 7.8234724700e-02,  1.6252420843e-01, -3.7909191102e-02,  4.7064796090e-02, -2.0555090904e-01,  1.4489796758e-01, -2.2005592287e-01,  1.1037371308e-01, -1.3896144927e-01,  1.7830847204e-01, 
	-1.0122998059e-01,  1.6148297489e-01, -1.9341403246e-01,  2.4962412193e-02,  5.2682328969e-02,  1.0801388323e-01,  5.3041648120e-02, -4.1805785149e-02, -5.1671694964e-02, -3.8693841547e-02, 
	 1.4351049904e-03, -1.7423152924e-01,  4.9026347697e-03, -5.3628209978e-02, -5.6152679026e-02, -8.0820657313e-02,  2.2992972285e-02, -9.4005681574e-02, -8.1906087697e-02,  1.2973421253e-03, 
	 1.9680398703e-01, -1.8140910566e-01, -1.5717029572e-01, -1.5159614384e-01,  5.8024559170e-02,  6.3893675804e-02,  1.9356894493e-01, -8.2695573568e-02,  3.5071580205e-03, -2.0849287510e-01, 
	 1.3987147808e-01, -3.7997692823e-02, -6.6472329199e-02, -1.6164802015e-01,  2.0124986768e-01, -1.2927560508e-01, -2.4435456842e-02, -5.9350892901e-02, -5.4010279477e-02, -1.7466986179e-01, 
	 1.0429124534e-01,  2.9530229047e-02, -7.3244340718e-02,  1.5716741979e-01,  1.7701593041e-01,  1.4827325940e-01,  5.9887904674e-02,  2.2039210424e-02, -9.9273147061e-03, -7.8851524740e-03, 
	 1.6979804635e-01, -1.2471576035e-01, -1.3334912248e-02, -1.6471166909e-01,  1.5755610541e-02, -7.6942496002e-02, -5.2724834532e-02,  9.4003312290e-02,  2.0939232409e-01, -7.6221250929e-03, 
	-6.2784161419e-03, -2.0982243121e-01,  1.9188115373e-02, -1.2443972379e-01,  2.5606467389e-03,  2.1511910483e-02, -2.2740668058e-01,  1.5194316208e-01,  1.0477386415e-01, -1.2638030946e-01, 
	 1.0066483170e-01, -4.6392675489e-02, -3.9346311241e-02,  2.1786405146e-01, -5.3692363203e-02,  7.8307405114e-02, -3.1785216182e-02, -5.4852612317e-02, -4.5741699636e-02,  1.1472478509e-01, 
	-5.1220860332e-03, -1.5008418262e-01,  3.6371804774e-02,  2.0335446298e-01, -1.0032590479e-01,  7.1575611830e-02,  7.7076032758e-02,  1.8606467545e-01,  2.1328629553e-01,  2.4271972477e-01, 
	-6.6641457379e-02, -2.2434076667e-01, -2.0130595565e-01,  1.6470387578e-01, -1.3701948524e-01,  8.7911143899e-02,  3.6906257272e-02, -1.0264063627e-01,  1.0540157557e-01, -6.4797222614e-02, 
	 1.6631916165e-01, -3.8381479681e-02, -7.6050939970e-03,  1.4948518947e-03,  3.8344293833e-02,  8.0868795514e-02, -1.3313071430e-01,  2.0536324009e-02, -1.2656866014e-01, -4.4307792559e-03, 
	 9.9330537021e-02,  9.4806186855e-02,  6.0949437320e-02, -1.4702551067e-01,  5.3070504218e-02,  4.3067984283e-02, -3.1548284460e-04, -1.0927194357e-01,  8.9676231146e-02,  1.5224832296e-01, 
	 1.7916209996e-01,  2.2821551561e-01,  9.8104119301e-02, -1.1562510580e-01, -2.1878434718e-01,  2.1311362088e-01, -1.4421546459e-01,  2.1962532401e-01,  1.2792968750e-01, -1.2603883445e-01, 
	-8.0977417529e-02,  1.9194024801e-01,  1.2973780930e-01, -1.3912412524e-01,  3.8273997605e-02, -1.0151658207e-01, -5.9142250568e-02, -1.7878580093e-01, -1.0585823655e-01, -1.0249119252e-01, 
	-9.3805402517e-02,  1.0258854926e-01,  1.3829106092e-01, -6.4847193658e-02, -2.0113942027e-01, -1.4464397915e-02, -9.3271350488e-03, -8.7344776839e-03, -1.2497103214e-01,  1.1025652289e-01, 
	-1.3200511038e-01, -2.0690542459e-01,  7.0259697735e-02, -9.6050038934e-02, -8.1303700805e-02,  5.4996054620e-02,  1.1119248718e-01, -2.0210947096e-01,  1.1216046661e-01,  2.0469962060e-01, 
	 2.0349790156e-01, -1.8637564778e-01, -1.3524484634e-01, -8.5114881396e-02, -1.1984983087e-01,  8.6674774066e-03, -1.1023654044e-01, -8.4633141756e-02,  5.9647094458e-02, -6.8861790001e-02, 
	-2.3023720831e-02,  3.3590849489e-02,  2.3388014734e-01,  2.1031655371e-01,  6.7907787859e-02,  1.2395226955e-01, -1.0398635268e-01, -9.2801563442e-02,  2.2226893902e-01, -8.7480982766e-03, 
	 1.6736944020e-01, -1.9410133362e-01, -1.8825349212e-01, -1.3821277022e-01, -4.7765034251e-03,  1.8748689443e-02,  1.9167432189e-01,  1.3052542508e-01,  1.2804284692e-01, -1.5178324282e-01, 
	 9.2804461718e-02, -1.2394600548e-02,  4.9417293631e-03,  7.1254870854e-03, -2.2834797204e-01, -5.1209013909e-03, -8.5446737707e-02,  3.7803456187e-02, -7.6916553080e-02, -1.1830516905e-01, 
	-1.3120591640e-01, -5.3471047431e-02, -1.4452555776e-01,  1.1132632941e-01, -2.1992232651e-02,  2.9249990359e-02,  1.2124292552e-01,  1.2135427445e-01,  1.5158099122e-02, -5.8411858976e-02, 
	-1.6086079180e-01,  1.0873203725e-01,  1.5363361686e-02,  5.3047303110e-02,  1.0135521740e-01,  5.2228242159e-02, -2.8384257108e-02,  1.4214847982e-01,  4.5890431851e-02, -7.8276075423e-02, 
	-1.7247885466e-02, -1.1969085038e-01,  1.2223039567e-01, -2.2643061355e-02, -1.1007158458e-01, -1.8960632384e-01, -1.1510463804e-01,  1.5990847722e-02, -7.5817555189e-02, -1.9178788364e-01, 
	 2.0653796196e-01,  8.8653266430e-02, -2.2594638169e-01, -9.7016401589e-02,  8.5812956095e-02,  5.4509826005e-02, -9.1731488705e-02,  9.8173081875e-02, -1.0020875931e-01, -6.8329520524e-02, 
	 3.3292062581e-02,  2.7204243466e-02,  2.4640230462e-02, -1.1831189692e-01,  3.9931107312e-02,  2.1541155875e-01, -1.7917101085e-01, -3.0231110752e-02, -3.7642329931e-02, -7.3291227221e-02, 
	-8.7095685303e-02,  1.0039121658e-01, -1.1272815615e-01,  1.5056470037e-01,  1.1418342590e-01,  7.4922107160e-02,  1.4226230979e-01, -1.0063122958e-02, -9.0697303414e-02,  5.3236518055e-02, 
	 7.5336389244e-02,  1.1928732693e-01, -5.9214849025e-02,  1.3968630135e-01, -2.1505901217e-01, -7.3743410408e-02,  1.1712935567e-01,  9.9474288523e-02,  3.9852783084e-02, -2.4845504668e-03, 
	 3.0848537572e-03,  4.4888933189e-03, -1.8354371190e-01,  1.5146005154e-01,  2.2547336295e-02, -1.0415611416e-01,  2.1098147333e-01, -1.6538958251e-01,  1.3737089932e-01,  6.6933311522e-02, 
	-2.4323868565e-03, -1.8564622849e-02, -4.4319134206e-02, -7.2911813855e-02, -1.2451351434e-01,  1.3531593978e-01,  1.2639822066e-01,  1.5208801255e-02,  1.2095430493e-01,  8.9923650026e-02, 
	-7.2137773037e-02,  8.4846749902e-02,  2.1496535838e-01,  1.2700501084e-01, -1.1857262580e-03, -4.1596308351e-02,  1.4231719077e-01, -7.8286141157e-02, -1.6394484043e-01, -1.2908719480e-01, 
	-3.0336778611e-02, -4.1790068150e-02,  2.0862752199e-01,  4.3115716428e-02, -2.1442484856e-01,  7.6857358217e-02,  1.4223958552e-01,  4.4854469597e-02,  2.2493442893e-01, -1.1243764311e-01, 
	-2.1188162267e-01,  4.4682685286e-02,  3.3775858581e-02, -4.6542722732e-02,  2.1737001836e-01,  8.5996113718e-02, -1.7318557203e-01, -3.2656691968e-02,  1.5352012217e-01, -1.3173491694e-02, 
	 1.0960032046e-01,  1.6009041667e-01, -1.6233848035e-01,  1.5149591863e-01,  4.0525529534e-02, -1.4326553047e-01,  5.0228983164e-02,  2.0219302177e-01,  3.8442693185e-03,  6.3687413931e-02, 
	 3.4134551883e-02, -5.8547608554e-02,  1.0256340355e-01,  1.5287698805e-01, -6.4413383603e-02,  2.0410944521e-01,  1.5463617444e-01, -1.2825340033e-02,  1.2699285150e-01,  1.3280018466e-03, 
	-1.4866325259e-01,  2.2471830249e-02,  1.9472885132e-01,  6.6142000258e-02,  1.5465562232e-02,  2.3071119189e-01,  2.2920870781e-01, -1.1485946178e-01,  2.0014386624e-02,  9.6910772845e-03, 
	 2.1044935286e-01, -1.7681282014e-02,  1.6323082149e-01, -9.3113824725e-02,  2.1504441276e-02,  1.1646381021e-01, -1.1959509552e-01,  9.8033078015e-02, -1.9948374480e-02,  1.3518960774e-01, 
	 7.8650362790e-02,  6.0946550220e-02,  1.7155022919e-01, -1.9429284334e-01,  1.1346573383e-01,  1.6949447989e-01, -1.2080460787e-01, -1.9798946381e-01,  3.8034517318e-02,  1.0859318078e-02, 
	 8.3205044270e-02, -8.8064447045e-02,  3.4202672541e-02,  9.2651069164e-02,  9.9045835435e-02,  1.6027286649e-01, -7.0151470602e-02,  6.9147469476e-03, -1.9492846727e-01,  1.3431607187e-01, 
	-1.0410118103e-01,  2.9890744016e-02,  6.8429340608e-03, -8.4091104567e-02, -7.7669367194e-02,  7.7227782458e-03, -8.2025326788e-02,  6.6402301192e-02, -6.5595969558e-02, -1.5743109584e-01, 
	-1.4374683797e-01,  3.5238504643e-04,  6.0728904791e-03, -1.3158094883e-01, -7.2280324996e-02, -1.0117916763e-01, -1.4458756149e-01,  1.1174662411e-01,  8.9272119105e-02,  1.6233848035e-01, 
	-7.2977796197e-02, -9.9633969367e-02, -1.6142287850e-01, -7.7613323927e-02, -7.5034745038e-02, -1.6970849538e-04, -1.5692843497e-01, -2.5540282950e-02, -1.6247043014e-01,  1.1340625584e-01, 
	 1.1207234859e-01,  2.2886600345e-02, -9.5380425453e-02, -1.4811234176e-01,  8.7914921343e-02, -1.2595096231e-01,  2.1464615129e-03, -1.3659678400e-01, -1.4203113317e-01, -1.5083295107e-01, 
	-5.8222260326e-02, -1.0036427528e-01,  6.8664709106e-03, -1.7178934813e-01, -7.1322537959e-02,  1.6310392320e-01, -1.9130867720e-01,  1.1657714844e-01, -1.6908237711e-02, -1.1328727007e-01, 
	-1.9157342613e-02,  1.4876048267e-01, -2.1209189296e-01, -6.2843479216e-02,  1.1816576868e-01, -1.9173105061e-01, -5.9384796768e-02, -2.0867282525e-02, -9.8627619445e-02,  6.9560825825e-02, 
	 7.5314022601e-02, -1.0223151743e-01,  9.5213197172e-02, -1.7096558213e-01,  1.2170591950e-01,  1.4290422201e-01,  5.4710350931e-02,  2.9583929107e-02,  1.7277583480e-01,  1.0206262022e-01, 
	-5.9915762395e-02, -3.5051990300e-02, -1.8004614115e-01, -1.6413817182e-02,  2.2024570033e-02,  2.9842734337e-02,  1.4153623953e-02,  1.7647961155e-02,  5.5962141603e-02, -4.7003723681e-02, 
	-8.7560072541e-02, -4.9682214856e-02,  1.7150373757e-01, -3.9677605033e-02, -1.3862587512e-01, -1.9545641541e-01, -9.7850710154e-03, -1.4082166553e-01,  2.5016842410e-02,  1.0163719207e-01, 
	-1.4293245971e-01, -9.3068882823e-02, -2.7667267248e-02,  8.8242642581e-02,  7.6861366630e-02,  1.5692883730e-01,  2.8843956068e-02, -6.2668710947e-02,  1.5132594109e-01,  7.6210737228e-02, 
	 3.2537084073e-02,  3.0876113102e-02,  1.0294366628e-02,  1.6046907008e-01, -2.1224526688e-02, -9.1750055552e-02,  6.9400906563e-02, -1.5749159455e-01,  5.7255361229e-02,  4.7029685229e-03, 
	-5.7952146977e-02,  1.0939373076e-01,  4.1991684586e-02,  8.7143227458e-02, -3.2475098968e-02,  1.4921505749e-01,  1.1594022065e-01, -7.7899888158e-02, -6.9025032222e-02,  8.5590504110e-02, 
	-2.2154292464e-01,  1.0738404840e-01, -7.3586525396e-03, -1.6539631411e-02,  7.3441892862e-02, -1.3407292962e-01,  1.0000346228e-02, -5.8633413166e-02,  3.8052882999e-02,  1.8491400778e-01, 
	 8.4414519370e-02,  1.0355282575e-01,  4.6590268612e-03, -8.8216692209e-02,  4.3320339173e-02, -2.9189979658e-02,  1.1596469581e-01, -1.0037300736e-01, -1.9469416142e-01, -4.6302858740e-02, 
	 1.1818189919e-01, -1.1983939260e-01,  1.2749312818e-01,  1.5538292937e-02, -1.2189886719e-01,  9.9409505725e-02,  8.6496569216e-02, -2.0145364106e-01,  2.4199255276e-03,  1.0318126529e-01, 
	 8.1097021699e-02,  1.3910607994e-01, -1.0393293947e-01, -3.6004590802e-03,  8.5966065526e-03,  7.8042358160e-02, -1.4583498240e-01, -4.2783275247e-02,  5.0989761949e-02,  7.8896172345e-02, 
	 5.8426253498e-02, -3.8342699409e-02,  1.2735755742e-01,  1.9216537476e-02, -8.5195630789e-02, -1.8672250211e-01,  1.0556247085e-01, -1.2211873382e-01,  4.7735963017e-02, -4.9303039908e-02, 
	-5.1717214286e-02,  1.0103591485e-03,  1.8837685883e-01, -2.7561509982e-02, -1.9486193359e-01,  8.6564183235e-02,  2.2182935476e-01,  1.6638824344e-01, -1.2244971842e-01, -2.1323813125e-02, 
	-1.2003882229e-01, -2.2124996409e-02,  1.3940487802e-01,  1.1854174733e-01,  1.4580848627e-02,  1.1714316905e-02,  4.0652107447e-02, -3.2097861171e-02, -1.3747230172e-01, -1.5055181086e-01, 
	-1.2243500352e-01,  4.6542495489e-02, -1.3463264704e-01, -1.8304187804e-02, -1.3724054396e-01, -1.7196607590e-01,  9.0392671525e-02,  1.6863845289e-01, -3.7507258356e-02, -3.2563652843e-02, 
	-4.7213747166e-03,  4.3406035751e-02,  1.3370947540e-01, -3.7838034332e-02, -2.1592962742e-01,  2.3191967979e-02,  1.2100339681e-01, -1.8533626199e-01, -6.0526855290e-02,  9.0294927359e-02, 
	 2.2420936823e-01, -1.1149875075e-01,  1.5964989364e-01,  2.5845540687e-02,  1.5358375013e-01, -1.0851791501e-01, -2.0178401470e-01,  1.9844271243e-01, -1.0444445163e-01, -1.1428339779e-01, 
	 1.0506212711e-01,  6.6489860415e-02,  8.3893813193e-02,  1.1338327825e-01, -5.8987859637e-02,  6.9399029016e-02,  2.1653045714e-01,  1.1553651094e-01,  1.5449219942e-01, -2.4050250649e-01, 
};

const float layer_7_dense_bias[UNET_PAR_7_DENSE_OUT_DIM] = {
	-1.0704725049e-02, -2.6084335987e-03,  2.7545869816e-03, -1.1137739755e-02,  2.7681574225e-02,  1.4245238854e-03,  1.2395585654e-03, -1.1064654682e-03, -6.5936134197e-03,  2.4353003129e-02, 
	-1.0935312137e-02,  4.8005846329e-03, -2.3006852716e-02, -5.8396663517e-03,  7.5058587827e-03, -1.1787969619e-02, -7.5988615863e-03, -1.8483405933e-02,  3.4388944041e-03, -6.1513199471e-03, 
	-1.2529445812e-02,  9.7042247653e-03,  8.4534205962e-04,  2.7848092839e-02,  8.9670382440e-03,  1.8780797720e-02, -6.8282582797e-03, -2.0970132202e-02, -5.0410460681e-03, -1.9098784775e-02, 
	-8.1380885094e-03, -6.7685698159e-03, -1.2003631331e-02,  1.6497146338e-02,  5.8741387911e-03,  5.2825715393e-02, -2.5906343013e-02,  3.9873708040e-02, -7.6620364562e-03,  6.3691516407e-03, 
};


#endif
