#ifndef PARAMS_CONV2D_4_H
#define PARAMS_CONV2D_4_H
#include "params.h"

const float layer_4_conv2d_weight[UNET_PAR_4_CONV2D_KERNEL_Y*UNET_PAR_4_CONV2D_KERNEL_X*UNET_PAR_4_CONV2D_IN_FILTER*UNET_PAR_4_CONV2D_OUT_FILTER] = {
	-5.0367396325e-02,  6.9726839662e-02,  1.6585096717e-02, -1.7981370911e-02,  1.2927234173e-01, -4.3304845691e-02,  3.3367540687e-02, -8.6778387427e-02,  1.0318640620e-01, -7.6001606882e-02, 
	 3.3390007913e-02,  1.5555896796e-02,  1.1049652100e-01, -8.1231176853e-02,  1.0812891275e-01,  4.3382286094e-03, -3.7748523057e-02, -7.5589805841e-02,  1.1402359605e-01, -9.3392685056e-02, 
	 4.3433126062e-02,  2.7114564553e-02, -9.1957576573e-02,  6.4871115610e-03, -6.2289338559e-02,  1.1490153521e-01,  1.0735160112e-01, -1.1763707735e-02, -3.3902086318e-02, -1.0112363816e-04, 
	 6.5659932792e-02,  4.5077558607e-02, -1.0991097242e-01, -1.0580849648e-01,  8.5993707180e-02, -3.6785770208e-02,  2.2515034303e-02,  1.2572760880e-01, -4.0126841515e-02, -5.4357886314e-02, 
	-8.0069236457e-02,  1.2686920166e-01, -7.5863838196e-02,  9.1176278889e-02,  3.4660145640e-02, -1.0106525570e-01, -2.8229765594e-02, -1.1412367970e-01, -9.6900232136e-02, -1.3280895352e-01, 
	-5.3765982389e-02,  1.5191841871e-02,  6.5293423831e-02,  2.4417752400e-02,  3.7046767771e-02, -1.1153454334e-01, -1.0088926554e-01, -3.0443776399e-02, -3.1820651144e-02,  5.2778597921e-02, 
	-4.1386712343e-02, -8.4395185113e-02,  3.0364055187e-02,  1.2996317446e-01,  2.9289288446e-02, -1.1699476838e-01,  1.1230365187e-01,  1.0873147845e-01,  8.1861272454e-02, -7.9445406795e-02, 
	 1.0785851628e-01,  9.2849858105e-02, -7.0545822382e-02, -5.7824440300e-02, -1.1586654186e-01, -1.6745224595e-02, -2.1672209725e-02, -3.7739414722e-02, -7.1485042572e-02, -3.0470069498e-02, 
	-1.1340527982e-01, -1.1505931616e-01, -7.9970955849e-03, -3.3309102058e-02,  7.9157307744e-02,  1.3882458210e-01,  1.1804264039e-01, -6.8327127956e-03,  4.9256179482e-02, -3.8948874921e-02, 
	 9.8649859428e-02,  1.0427288711e-01, -1.3496708870e-01,  8.1467233598e-02, -3.9431173354e-02,  6.0524862260e-02, -7.3060780764e-02, -1.1401041597e-01,  7.2104595602e-03,  3.8628976792e-02, 
	 8.2077600062e-02,  1.2519386411e-01, -8.0674529076e-02,  9.7686164081e-03, -1.0724344756e-03, -1.0030698776e-01,  9.4281390309e-02,  1.1315227300e-01,  5.0011888146e-02,  2.8166705742e-02, 
	 4.2216148227e-02,  2.4958493188e-02,  4.2358871549e-02, -1.0852591693e-01,  5.8029841632e-02, -4.2473554611e-02, -7.2550974786e-02, -1.0735780746e-01,  1.3763851486e-02, -2.5950090960e-02, 
	-7.6144777238e-02, -8.2179687917e-02,  3.0950574204e-02,  1.8338266760e-02, -2.2121362388e-02,  1.0650482774e-01, -1.0734007508e-01,  1.3819144666e-01, -8.6143672466e-02,  1.0242302716e-01, 
	-9.7734682262e-02,  1.0601566732e-01, -1.0395103693e-01, -1.9288748503e-02,  1.1293951422e-01, -6.5081834793e-02, -8.3349898458e-02, -1.4144297689e-02,  9.0843558311e-02, -1.3053740561e-01, 
	 3.7560451776e-02,  4.7248613089e-02, -9.8481863737e-02, -1.8533341587e-02,  6.7465238273e-02, -3.8348517846e-03,  9.2890284956e-02,  1.2706401944e-01,  1.3537720777e-02,  7.1309968829e-02, 
	 7.7088937163e-02, -6.4747549593e-02,  9.3461588025e-02, -6.4910478890e-02,  8.6665928364e-02,  2.0063189790e-02, -4.2110636830e-02, -2.8351299465e-02, -8.5321851075e-02, -7.1675712243e-03, 
	-1.0942299850e-03, -7.8962475061e-02,  8.6018498987e-03, -8.2728393376e-02,  1.2013297528e-01,  1.0076873004e-02,  1.1575467139e-01,  2.4031763896e-02, -1.0639634728e-01, -1.1476045102e-01, 
	-3.1192174181e-02,  1.0266344994e-01, -6.9135855883e-03, -2.8000487015e-02, -1.0220879316e-01,  6.5498434007e-02, -7.3062077165e-02,  2.4093780667e-02,  5.0250150263e-02, -7.8075744212e-02, 
	-1.4534318447e-01,  1.0645398498e-01, -6.3331410289e-02, -1.7299768329e-01,  1.5765104443e-02, -9.7420297563e-02, -6.0666430742e-02, -4.8888903111e-02,  1.0730179958e-02,  9.2553980649e-02, 
	 1.1851006001e-01, -6.7180201411e-02, -1.1623627692e-01, -1.0202832520e-02,  4.0652076714e-03,  8.3803579211e-02, -5.1233008504e-02,  1.2411922216e-01,  2.2958798334e-02,  1.2202721089e-01, 
	-6.0443118215e-02,  3.1699985266e-02,  4.5214217156e-02,  9.6438489854e-02,  1.2730419636e-01, -1.0220587999e-01,  4.5133162290e-02,  3.5239674151e-02,  8.8527508080e-02,  4.8762343824e-02, 
	 7.5482532382e-02, -1.0833013803e-01, -1.0337612778e-01,  2.6484023780e-02,  7.1443304420e-02, -2.2765304893e-02,  8.0350600183e-02, -3.8014672697e-02, -1.1823490262e-01,  6.6390544176e-02, 
	 6.7748233676e-02,  5.3708516061e-02, -1.2386175245e-01,  1.0713931173e-01,  5.6344050914e-02, -5.4669298232e-02,  1.6342382878e-02, -6.2589757144e-02,  6.2382675707e-02, -1.0125247389e-01, 
	-1.0716024786e-01, -1.0343638062e-01, -1.3514994085e-01, -1.2859459221e-01,  5.6047320366e-02, -2.6626795530e-02, -3.9107289165e-02,  6.2871821225e-02,  4.1221674532e-02, -3.6659110337e-02, 
	 4.6859506518e-02, -2.2222571075e-02, -2.5094216689e-02, -2.8925666586e-02, -1.0185133666e-01,  1.3068427145e-01, -5.2948310971e-02, -5.1599822938e-02, -4.6265330166e-03,  2.4252012372e-02, 
	 9.1938056052e-02,  1.1323697120e-01,  2.4517762940e-03,  5.1218058914e-02,  7.3080293834e-02,  5.6379176676e-02,  2.9335936531e-02,  8.2111157477e-02, -7.7539771795e-02, -1.2804931402e-01, 
	 7.1167312562e-02, -2.7220010757e-02,  1.0238791257e-01,  1.1228395253e-01,  1.5117431059e-02, -1.6455063596e-02,  2.2375781089e-02, -8.3430975676e-02,  5.2727792412e-02,  2.8697242960e-02, 
	-7.5466334820e-02,  5.6983679533e-02,  9.7891233861e-02, -5.1660243422e-02,  4.9949180335e-02, -6.6124744713e-02, -1.1272132397e-01,  4.6920299530e-02,  5.9660556726e-03,  6.5125353634e-02, 
	 4.9979142845e-02,  4.2698036879e-02, -8.8955827057e-02, -2.9995337129e-02,  5.0347734243e-02, -1.1766079068e-01, -4.8266341910e-03,  8.0727517605e-02, -1.2961177528e-01, -1.5838204324e-01, 
	-1.3036504388e-01, -1.4155139029e-01,  6.8987175822e-02,  3.6748148501e-02,  6.6249698400e-02,  2.3156389594e-02, -1.5402738750e-01, -2.4367315695e-02, -3.9371321909e-03, -1.0343955457e-01, 
	-1.2695880234e-01, -9.0068124235e-02, -7.0309597068e-03, -1.4824163914e-01,  1.2793798000e-02,  4.0140230209e-02,  2.4414952844e-02,  8.6411088705e-02, -2.4548752233e-02, -8.5418194532e-02, 
	 5.7417541742e-02, -1.0762200505e-01, -2.4932023138e-02,  1.1960806325e-02,  1.0925074667e-01,  1.5940894373e-03, -1.2540465593e-01,  5.8700148016e-02,  8.1726554781e-03, -9.4894550741e-02, 
	-1.2891869247e-01, -7.7789194882e-02,  1.0057256371e-01, -9.8946221173e-02,  9.8349660635e-02,  4.5484822243e-02, -3.6310907453e-02, -8.4885984659e-02,  2.7033975348e-02,  4.6862315387e-02, 
	-6.6534444690e-02, -1.0585649870e-02,  3.5389248282e-02, -6.6835932434e-02, -4.8281654716e-02, -7.6451465487e-02, -9.6594430506e-02, -1.5664969385e-01, -7.3678612709e-02,  4.5604906976e-02, 
	-2.1975442767e-02, -1.5656225383e-01,  1.0492703319e-01,  3.0163673684e-02,  1.8276171759e-02, -6.0622245073e-02, -9.0615870431e-03,  5.8358546346e-02,  1.1579059809e-01, -4.5414775610e-02, 
	 2.5275677443e-02,  5.1936190575e-02, -9.3495942652e-02,  2.5430696085e-02, -4.2958267033e-02,  1.0380263627e-01, -9.7446918488e-02, -2.9121160507e-02,  1.1186865717e-01,  7.7882222831e-03, 
	 5.1344960928e-02,  2.4984287098e-02, -1.4116127044e-02,  1.0494458675e-01,  1.5940058231e-01,  1.0677200556e-01, -9.6159517765e-02, -5.7707492262e-02,  5.0331268460e-02, -1.0488478094e-01, 
	 5.1289081573e-02,  5.6096196175e-02, -1.1453091167e-02, -1.0741586238e-01, -1.1285585910e-01,  3.2118666917e-02,  3.1796190888e-02, -6.8839457817e-03, -1.0493825190e-02,  8.1956930459e-02, 
	-1.1857505143e-01,  8.9766800404e-02,  2.6655031368e-02, -7.3523372412e-02,  3.3588964492e-02,  1.0873770341e-02,  1.0881253332e-01, -5.7719878852e-02,  5.0462793559e-02, -5.9027500451e-02, 
	 1.1887693405e-01,  1.6059558839e-02,  4.6557664871e-02, -1.2258869410e-01,  4.3661814183e-02,  1.5422417223e-01, -7.3527336121e-02, -1.4458701015e-02, -7.4743486941e-02,  2.6728839148e-03, 
	-4.2336665094e-02,  6.0854636133e-02, -2.2208055481e-02,  2.1031184122e-02,  5.0046540797e-02, -3.4395903349e-02, -1.5225326642e-02,  5.9983622283e-02, -4.5592095703e-02,  1.5833405778e-02, 
	 8.4346979856e-03, -4.2712301016e-02,  1.2398145348e-01, -5.7045735419e-02,  2.6038566604e-02, -1.4288243838e-02, -5.8777187020e-02,  9.0650685132e-02,  1.0734494776e-01,  3.5843428224e-02, 
	 1.4665248990e-01, -2.3132753267e-04, -7.2912380099e-02,  4.2728375643e-02, -1.2974412739e-01,  5.7098194957e-02,  8.7197303772e-02,  9.2855051160e-02, -8.7381824851e-02,  7.7572621405e-02, 
	-1.0822028667e-01,  3.9480894804e-02,  1.8666651100e-02, -4.4113080949e-02,  2.8222283348e-02, -2.9662935063e-02,  3.6999322474e-02, -6.8167440593e-02,  4.4733942486e-03, -3.6483865231e-02, 
	-5.9427436441e-02, -1.0900895298e-01,  7.9596653581e-02, -2.0407097414e-02,  6.5453477204e-02, -1.2626548111e-01,  1.0882453620e-01, -7.1179702878e-02, -1.2293949723e-01, -1.0393910343e-03, 
	 1.0582000017e-01,  1.3818795979e-01,  8.3157289773e-03, -1.9392319024e-02, -3.1371649355e-02,  8.2017950714e-02,  6.0369908810e-02,  2.2747034207e-02,  1.2544624507e-01,  2.3919219151e-02, 
	 1.0012606531e-01, -2.7605945244e-02,  6.2406502664e-02, -5.4127100855e-02, -6.8457126617e-02, -6.9950453937e-02, -9.5909193158e-02,  1.3891482353e-01, -6.8078942597e-02, -1.7382253427e-03, 
	-6.8854726851e-02,  1.5733358264e-01,  1.2794024311e-02,  1.5699885786e-01, -2.7932094410e-02,  5.7191673666e-02,  6.8883091211e-02,  1.1996971816e-01, -7.5612911023e-03, -2.3035177961e-02, 
	 1.1813858896e-01,  3.7388954312e-02,  1.9440105185e-02, -4.3801829219e-02,  1.3806422055e-01,  1.2290940434e-01,  9.6547402442e-02, -1.7033945769e-02,  3.6291558295e-02,  9.4720125198e-02, 
	-9.6253708005e-02,  1.3496165164e-02, -1.9091952592e-02, -4.9855321646e-02,  1.9289607182e-02,  8.5810460150e-02,  1.3760647178e-01,  1.7391724512e-02,  5.3703103215e-02,  1.0022458434e-01, 
	 1.3099575043e-01, -9.0174503624e-02,  7.2678402066e-02, -9.2246972024e-02, -3.7909142673e-02, -9.6828386188e-02,  4.1538774967e-02,  3.0810575932e-02, -1.7557401210e-02, -1.4370040968e-02, 
	-4.2070563883e-02, -4.9441616982e-02,  1.2952479720e-01, -4.5906472951e-02, -5.5632982403e-02,  9.9174901843e-02,  7.2410121560e-02,  7.4840020388e-03,  5.9320814908e-02,  5.4025813006e-03, 
	 6.4062356949e-02, -3.9088435471e-02, -3.9225969464e-02,  1.0178555548e-01,  3.1925160438e-02, -9.9953293800e-02,  4.0355887264e-02, -8.4168620408e-02, -7.9118460417e-02, -1.0844415054e-02, 
	 1.4747650921e-01,  4.1195835918e-02,  3.8240638096e-03,  3.7216920406e-02, -3.4497398883e-02,  5.2188850939e-02, -5.6789219379e-02, -2.8037864715e-02,  9.7999230027e-02, -1.0570406169e-01, 
	-9.4096854329e-02, -3.1500032637e-03,  5.7239275426e-02,  1.9102988765e-02,  8.1988178194e-02,  7.4817426503e-02,  5.1919531077e-02,  9.6859883342e-05,  7.0995159447e-02,  7.2464019060e-02, 
	 1.3038034737e-01,  4.3819837272e-02,  6.5562096424e-03,  3.4853804857e-02,  1.9769791514e-02,  7.2784023359e-03, -1.2128983438e-01, -1.5604162589e-02,  6.4050473273e-02,  1.1608634144e-01, 
	-7.9525068402e-02,  1.3109315932e-01,  2.9493188486e-03,  1.7383994535e-02, -2.0933778957e-02, -2.7530360967e-02, -6.6140003502e-02, -3.4465156496e-02,  1.2738281488e-01, -7.6555281878e-02, 
	 1.4413730800e-01, -9.8225131631e-02,  1.4166620374e-01,  4.0961910039e-02,  1.4748588204e-01, -7.6036453247e-02, -5.8451544493e-02, -9.8518580198e-03, -1.8596135080e-02,  1.2264917791e-01, 
	-3.9908867329e-02,  1.1310897022e-01, -9.0146875009e-03, -4.9429751933e-02,  7.8670710325e-02,  4.2232438922e-02, -7.4200935662e-02,  6.2142789364e-02, -6.6709443927e-02, -3.3354043961e-02, 
	-4.1894428432e-02, -5.8832418174e-02, -1.6613532603e-01, -1.2031943351e-01, -4.5322369784e-02, -4.0940131992e-02, -1.4898914099e-01, -1.1551332474e-01,  7.6772749424e-02, -4.5720152557e-02, 
	 3.3846877515e-02,  8.9571610093e-02,  4.7254774719e-02,  1.2680281885e-02, -6.7826382816e-02, -8.5393495858e-02, -4.1407067329e-02,  2.9608646408e-02, -6.7068114877e-02,  7.9946266487e-03, 
	 8.8914968073e-02,  2.0589821041e-02,  5.7478115195e-04,  8.7411709130e-02,  6.0622807592e-02,  6.0891319066e-02, -1.4663499594e-01, -8.1861801445e-02,  6.1581443995e-02,  3.6807903089e-03, 
	-1.5835753083e-01, -6.3305504620e-02, -1.1545922607e-02, -1.0183692724e-01, -8.9245051146e-02, -5.3946681321e-02, -2.0542306826e-02, -3.2386023551e-02, -1.0506009683e-02, -1.3785398565e-02, 
	-6.5898001194e-02,  9.1276787221e-02, -1.5254895389e-01, -1.5866918862e-01, -8.7597414851e-02,  2.0709019154e-02,  4.4509895146e-02, -3.4227475524e-02, -1.3767278194e-01, -7.7844925225e-02, 
	-6.9175571203e-02,  1.3538272679e-01,  4.1730266064e-02,  1.3365975022e-01, -1.1039879173e-01,  9.7434058785e-02,  1.4396562241e-02,  8.8347993791e-02,  1.6657910310e-03, -1.6354873776e-01, 
	-8.2392990589e-03, -9.7761340439e-02, -1.0484880209e-01, -1.4623863623e-02,  2.0580455661e-02, -3.4188110381e-02, -1.3045723736e-01, -1.2401830405e-01,  2.8395250440e-02,  3.9237707853e-02, 
	 3.8000945002e-02, -1.1946639419e-01,  3.3168237656e-02,  6.8582057953e-02, -1.2707294896e-02,  1.0050338507e-01,  1.0941372812e-01, -5.3452607244e-04,  1.0184559971e-01, -1.0495130718e-01, 
	-3.9799749851e-02, -7.0731095970e-02, -8.3791635931e-02,  2.1727001294e-02, -1.0150356591e-01,  5.0300408155e-02, -5.3498737514e-02,  9.9224254489e-02, -6.7761205137e-02, -1.3046832383e-01, 
	 1.9464615732e-02, -2.0454324782e-02, -8.6760364473e-02, -2.7650669217e-02,  3.4837663174e-02,  1.0400480032e-01,  3.6466542631e-02,  9.5089420676e-02,  1.1276155710e-01,  6.9083604030e-03, 
	 3.6208599806e-02, -1.7973134294e-02, -8.3966135979e-02, -1.1693019420e-02, -1.2045855820e-01,  1.1283635162e-02, -5.6173346937e-02,  6.6438101232e-02,  9.4942718744e-02,  4.3108876795e-02, 
	-4.1453124140e-04,  2.8638770804e-02,  8.8034011424e-02, -4.2729642242e-02, -6.5824083984e-02,  3.3148862422e-02, -8.7115332484e-02, -1.2914435565e-01, -2.0503688604e-02, -3.6674838513e-02, 
	-1.3502921164e-01,  5.4270826280e-02,  8.3984486759e-02,  9.8360419273e-02, -5.0333727151e-02,  3.9290491492e-02, -6.3302278519e-02,  1.2240567803e-01,  1.0142198950e-01,  4.5579109341e-02, 
	-3.6883860826e-02,  7.7383324504e-02, -8.7431773543e-02, -1.5173660591e-02, -1.4717097580e-01,  7.2954080999e-02,  1.0562470183e-02, -7.8544184566e-02,  4.6919424087e-02, -9.7345314920e-02, 
	 5.6437440217e-02,  5.8045230806e-02, -8.1799335778e-02, -1.1493746191e-02,  7.5497426093e-02, -8.4890298545e-02, -6.5293468535e-02, -9.4503432512e-02,  4.7370493412e-02,  1.2823568285e-01, 
	-1.2875205278e-01, -7.8044168651e-02, -1.1890888959e-01,  6.9068148732e-02,  8.7183445692e-02, -1.2057562359e-02,  1.1220358312e-01,  5.0823841244e-02, -5.7397261262e-02, -3.3969882876e-02, 
	-2.5311874226e-02,  2.4832047522e-02, -4.9046825618e-02, -2.7716545388e-02,  5.0201252103e-02,  5.7205982506e-02, -1.1706320941e-01, -7.2421403602e-03,  8.2634843886e-02, -1.2191703171e-01, 
	-1.2147647887e-01,  7.3724359274e-02,  8.2948550582e-02,  4.5327953994e-02,  1.9165461883e-02,  1.0025213659e-01,  1.3101079967e-03, -7.3665037751e-02, -1.4566119015e-01, -1.0152166337e-01, 
	-6.3876971602e-02, -9.1538570821e-02,  4.9963984638e-02,  7.4358299375e-02, -1.0386210680e-01,  4.9711078405e-02,  8.4886491299e-02, -4.9109552056e-02,  1.6122253612e-02,  5.8533467352e-02, 
	-7.8993052244e-02, -9.0400457382e-02, -1.1764499545e-01,  3.8932535797e-02,  2.6326877996e-02,  6.3528075814e-02,  4.3232463300e-02,  5.1301110536e-02, -2.2184733301e-02,  4.6795926988e-02, 
	-1.2552813627e-02,  4.9315165728e-02,  6.3193701208e-02,  1.5892142430e-02,  3.0472310260e-02,  1.0486154258e-01, -1.2438097596e-01, -8.3318024874e-02, -1.1950149387e-01, -1.0969814658e-01, 
	-3.4077245742e-02,  1.1307394132e-02,  1.1946546147e-03,  1.7692159163e-03,  7.5006484985e-02,  4.5708473772e-02,  1.8762151012e-03, -1.2490709126e-01, -5.0974298269e-02, -9.1958910227e-02, 
	 2.7629686520e-02, -6.4870491624e-03, -1.5154485404e-01,  3.9588015527e-02,  9.9159903824e-02, -4.5481309295e-02, -1.0513402522e-01,  2.6525385678e-02,  4.6324625611e-02, -2.6052979752e-02, 
	 1.2803725898e-02, -4.2658355087e-02, -1.8954268890e-03, -6.8060904741e-02,  4.9823433161e-02, -9.5099054277e-02,  3.8944620639e-02,  8.7899260223e-02,  2.4392949417e-02, -1.3277368248e-01, 
	 1.6292564571e-02,  6.6645033658e-02,  9.1983722523e-03,  1.5690946952e-02, -4.9120873213e-02, -1.8984604627e-02, -1.3317929208e-01,  4.7904454172e-02, -5.6921366602e-02,  1.0997259989e-02, 
	-2.0813427866e-02,  6.7358821630e-02,  1.1467576027e-01,  1.0586039722e-01, -3.7240874022e-02, -4.2073570192e-02, -1.3694491237e-02,  1.7608255148e-02, -4.3296381831e-02, -2.0783083513e-02, 
	 5.0880849361e-02, -4.3933555484e-02, -5.3540818393e-02,  1.4190965891e-01, -3.0436933041e-02, -9.1819785535e-02,  6.3405543566e-02, -1.3028730452e-01, -9.9540874362e-02, -3.8177527487e-02, 
	-2.4423670024e-02, -1.4354833961e-01, -4.3386109173e-02, -1.4637163281e-01, -6.5442018211e-02, -4.3532628566e-02,  1.3735237531e-02, -6.6686578095e-02,  1.4240637422e-01,  3.1855147332e-02, 
	-5.7265568525e-02,  1.0843691230e-01,  2.9005946591e-02, -1.4011290669e-01, -6.2623396516e-03, -1.1103326082e-01, -2.3665655404e-02,  1.9380150363e-02,  4.3062057346e-02, -8.7432764471e-02, 
	-1.3514736295e-01, -8.8720113039e-02,  1.1262542754e-01,  7.3383182287e-02,  1.0150187463e-01,  8.3257786930e-02,  7.7028676867e-02,  9.1918632388e-02,  6.1481792480e-02,  1.1052753031e-01, 
	 1.0094016045e-01, -4.6001650393e-02, -7.5352877378e-02,  1.0285119712e-01,  3.9063345641e-02,  1.1689281464e-01,  3.3479977399e-02,  8.2370512187e-02, -1.0092859715e-01,  4.6320643276e-02, 
	 7.1782015264e-02, -7.0514909923e-02, -8.2210056484e-02, -2.7391334996e-02, -2.6858903584e-04,  5.0056524575e-02, -1.1631979048e-01,  1.1535853893e-01, -5.6507345289e-02,  2.3859314620e-02, 
	 1.2205411494e-01,  1.2474055588e-01, -5.8742493391e-02,  1.0965248197e-01, -7.2669155896e-02,  2.1645048633e-02,  1.0309993476e-01,  1.0502622277e-01, -5.2819266915e-02,  7.8911922872e-02, 
	 9.9499292672e-02, -1.0586765409e-01,  6.2769629061e-02,  5.1453098655e-02,  6.7412829958e-03,  8.4329754114e-02,  4.4204834849e-02,  1.1451886594e-01, -9.8706990480e-02,  1.2504671514e-01, 
	-1.2878550589e-01,  1.0133773088e-01,  7.3326483369e-02,  4.0403086692e-02, -4.4879365712e-02,  4.9317743629e-02, -1.2820620835e-01, -1.0118380189e-01,  7.6975457370e-02, -6.6231057048e-02, 
	 7.3333203793e-02,  3.9460711181e-02,  1.0940890014e-01,  1.0672656447e-01,  1.2202420086e-01, -6.4588636160e-02, -7.3101282120e-02,  3.9948403835e-02, -1.0499386489e-01, -4.9918811768e-02, 
	-2.6857972145e-02, -5.5555861443e-02,  2.9870616272e-02, -1.3730777800e-01,  8.1396959722e-03,  1.9806260243e-02, -5.1966668107e-03, -3.7063397467e-02, -2.9969163239e-02,  8.6922228336e-02, 
	 1.2546416372e-02,  4.3508815579e-03, -6.1350371689e-02, -5.9167921543e-02,  8.3303719759e-02, -1.1079052836e-01, -1.2418858707e-02,  4.4752608985e-02, -1.1488696933e-01,  8.3999678493e-02, 
	-1.4564479887e-01, -8.9552626014e-02, -6.3832819462e-02,  4.9903362989e-02, -1.3558235765e-01,  3.9802487940e-02,  1.7225407064e-02, -1.0774303228e-01,  9.5955006778e-02,  3.6870513111e-02, 
	 3.1964685768e-02, -7.2706215084e-02, -1.2997086160e-02,  8.0663777888e-02,  9.1894430807e-04,  8.2710154355e-02, -1.3535329700e-01,  7.4741356075e-02, -1.0767001659e-01,  7.2173997760e-02, 
	 4.0990456939e-02, -1.1272884905e-02, -1.2379777431e-01, -1.1141422391e-01, -6.7008160055e-02,  7.7201449312e-03,  7.2229646146e-02,  2.5502910838e-02,  9.0347222984e-02, -5.0339419395e-02, 
	 1.0068642348e-01, -1.0805781931e-01, -9.7324967384e-02,  5.4682664573e-02,  1.2823504396e-02, -8.6492508650e-02, -5.4865691811e-02, -5.6482292712e-02,  1.0748775303e-01,  1.1082126200e-01, 
	 1.3650974259e-02, -6.0653161258e-02,  4.6987894922e-02, -7.0831075311e-02, -1.8103392795e-02,  6.4019531012e-02, -1.2350378186e-01, -7.0784874260e-03, -9.4143815339e-02, -6.9501467049e-02, 
	 3.0389677733e-02,  8.3438821137e-02, -1.4822246134e-01, -8.2427650690e-02,  2.9222941026e-02, -4.3002092279e-03,  7.3737435043e-02, -1.9869476557e-02,  1.3223451562e-02, -9.5497615635e-02, 
	-1.4382648282e-02, -3.5368449986e-02, -2.4882551283e-02,  1.0641674697e-01, -8.1714950502e-03, -1.1194355786e-02, -4.9324132502e-02, -1.1045789719e-01,  2.3678418249e-02,  2.9036451131e-02, 
	-2.9023373500e-02,  3.3323425800e-02,  2.8759095818e-02, -3.8806185126e-02, -4.6906765550e-02,  3.7341207266e-02,  1.1451250315e-01, -8.0180227757e-02, -9.9787399173e-02, -1.1210151762e-01, 
	-6.5643273294e-02, -8.8137999177e-02,  1.0507064313e-01,  6.9304019213e-02,  7.8497566283e-02,  4.5743241906e-02, -8.8657781482e-02,  5.5474452674e-02, -6.6433355212e-02,  2.1464718506e-02, 
	 1.1807462573e-01,  4.6809326857e-02,  7.0350840688e-02,  5.5166207254e-02,  1.0706196539e-02, -4.9761626869e-02, -1.3069988787e-01,  3.1577222049e-02,  3.1774315983e-02,  1.1869749287e-03, 
	-1.1938450485e-01, -1.1108183861e-01,  9.4562284648e-02,  7.9809248447e-02,  6.5381444991e-02,  6.6444665194e-02, -1.8371174112e-02,  1.6134124249e-02,  7.3005996644e-02,  3.5248717177e-04, 
	-2.1614508703e-02,  1.8080024049e-02, -8.1412054598e-02, -1.1120373011e-01, -1.3146845996e-01, -2.8162440285e-02, -9.8542585969e-02, -1.0682862485e-03, -1.3618290424e-01,  8.4515146911e-02, 
	 3.2671052963e-02, -3.8143429905e-02,  2.9110595584e-02,  7.3943696916e-02, -1.0512302071e-01,  4.1917874478e-03,  1.1434540898e-01, -5.9665419161e-02, -7.9998619854e-02, -3.8115903735e-02, 
	 2.8527762741e-02, -4.4355735183e-02, -1.0443327576e-01, -2.0972816274e-02, -6.6381007433e-02, -6.9568775594e-02,  4.1374329478e-02,  7.4454262853e-02, -4.6542342752e-02,  6.9184765220e-02, 
	-2.4213106371e-03, -7.3090352118e-02, -7.7828675508e-02, -1.2898795307e-01,  5.2838336676e-02, -8.0484412611e-02, -4.8306263983e-02, -4.1615269147e-03, -9.2097297311e-02,  7.9852297902e-02, 
	-1.5031357110e-01, -1.1875771917e-02, -2.0727479830e-02,  6.4306899905e-02, -1.0262345523e-01,  6.4735375345e-02, -4.0965873748e-02,  2.8518773615e-02, -1.4605551958e-01, -8.2110628486e-02, 
	-7.0957720280e-02,  4.5901401900e-03, -4.3860569596e-02, -5.1237016916e-02, -5.1003888249e-02, -1.1196951382e-02, -9.3612663448e-02,  4.7310557216e-02, -1.3112108409e-01, -4.5744787902e-02, 
	 7.6794423163e-02, -4.4551309198e-02, -1.2023316324e-01,  2.4913698435e-02,  6.1710719019e-02,  7.8884184361e-02, -1.2719021179e-02,  9.2800095677e-02, -2.7936240658e-02, -2.1757509559e-02, 
	-7.5760476291e-02, -1.9158817828e-02, -1.9831512123e-02, -1.1939980835e-01, -8.5250072181e-02, -3.0257979408e-02, -1.5788193047e-01,  2.8345655650e-02, -4.1571967304e-02, -1.8963077664e-01, 
	 9.4346161932e-03, -1.3335295022e-01, -1.0872594267e-01,  1.0250952840e-01, -4.8209846020e-02, -4.3994110078e-02, -1.6151692718e-02,  5.5996127427e-02, -9.6386127174e-02, -1.0676790029e-01, 
	-2.7929324657e-02, -5.7807277888e-02,  7.0908784866e-02,  5.4842229933e-02, -5.7489044964e-02,  1.6530845314e-02, -1.0580119491e-01, -1.0109531879e-01, -5.2468586713e-02,  1.2717749178e-01, 
	 2.4747097865e-02, -1.0829806328e-01,  1.0872238874e-01, -1.0869009793e-01,  5.5353458971e-02,  1.3512131758e-02,  3.5525094718e-02, -7.1183852851e-02,  5.6566979736e-02, -1.1826159805e-01, 
	-1.4894174039e-01, -8.4752760828e-02, -4.8272151500e-02,  4.7190454789e-03, -1.0427652299e-01,  2.7629757300e-02, -3.4805491567e-02, -9.7492799163e-02, -1.2881463766e-01, -2.6320714504e-02, 
	 6.0443695635e-02, -5.0768371671e-02, -9.3424037099e-02, -1.4954678714e-01, -1.0012158751e-01, -8.3229430020e-02,  8.0049127340e-02,  6.4106173813e-03,  8.5016898811e-02,  3.8419935852e-02, 
	 1.0304024816e-01,  1.0954665393e-01,  1.1262434535e-02, -1.1258237064e-01, -1.0041393340e-02, -1.0108580440e-01,  1.5261455439e-02,  4.9061406404e-02, -1.3115398586e-01,  4.6323716640e-02, 
	 7.2802179493e-03, -5.5927168578e-03, -8.4008894861e-02, -5.3354915231e-02, -1.6039521433e-03, -1.2464198470e-01,  1.0331125557e-01, -8.9525431395e-02,  2.1644309163e-02, -4.2580676381e-04, 
	-8.5654258728e-02, -4.2379576713e-02, -1.0652377456e-01, -1.2891732156e-01, -2.8145857155e-02, -1.3250635564e-01,  7.9677060246e-02, -1.4507418871e-01, -6.1026696116e-02,  8.7565809488e-02, 
	-2.9648298398e-02,  4.7561451793e-03, -7.3161325417e-03, -3.7464290857e-02,  6.1458434910e-02,  3.1407827046e-03, -4.6857129782e-02, -1.4525765181e-01,  1.8377508968e-02, -1.7570845375e-04, 
	-9.1493286192e-02,  1.0562193394e-01,  7.5397007167e-02, -3.6907695234e-02, -1.1108195782e-01,  2.3263731971e-02,  3.2884281129e-02, -9.7864553332e-02,  8.2586817443e-02, -1.3453885913e-01, 
	-6.6553138196e-02,  6.5355874598e-02, -1.7410049215e-02,  4.9721706659e-02, -1.1435505748e-01,  9.0142346919e-02, -8.3857104182e-02,  2.4759231135e-02, -4.1406001896e-02,  8.6084464565e-03, 
	 6.0536757112e-02, -4.0990944952e-02, -3.5333350301e-02, -6.6174119711e-02, -7.3365621269e-02, -1.2362552434e-01,  1.1922717839e-01,  5.0680123270e-02,  6.5822556615e-02, -9.4681702554e-02, 
	 2.9484229162e-02, -3.6504901946e-02, -6.1359256506e-02, -4.0591344237e-02, -8.5156532004e-03, -2.8405847028e-02,  4.8784885556e-02,  1.4887483418e-01, -4.7716405243e-02,  9.4093978405e-02, 
	-9.9258951843e-02, -1.1084656417e-01, -4.5549578965e-02, -2.4432690814e-02, -5.0848186016e-02,  1.1132559180e-01,  1.3117655180e-03,  1.2359066308e-01,  6.2713459134e-02, -1.1404050142e-01, 
	-1.0326193273e-01,  2.7841437608e-02, -5.5153068155e-02, -4.9727568403e-03,  3.5098902881e-02,  7.8298859298e-02, -5.6069903076e-02,  2.9219552875e-02,  4.7841172665e-02, -2.9727225192e-03, 
	-4.4373691082e-02, -1.1927591264e-01, -7.0349939167e-02, -1.0180664062e-01, -4.8364002258e-02,  6.0676954687e-02, -1.3696914911e-01, -7.4149340391e-02,  1.0147216916e-01, -1.3694445789e-01, 
	-3.0746407807e-02,  1.0536795855e-01, -2.2743117064e-02,  9.0113908052e-02, -9.0237051249e-02,  2.7867116034e-02,  7.0053212345e-02, -3.5488255322e-02, -2.9423881322e-02,  6.0770466924e-02, 
	 5.6926086545e-02,  3.8730029017e-02,  8.0500140786e-02,  9.1661766171e-02, -8.5750613362e-03,  1.0169290751e-01,  1.1536303908e-02, -3.1403433532e-02, -3.9902862161e-02, -1.1034532636e-01, 
	-1.0983824730e-01, -5.7093739510e-02, -1.1150476336e-01,  2.8290480375e-02, -6.5033487976e-02, -1.0147494078e-01, -3.3211056143e-02,  5.1974419504e-02,  7.2717294097e-02, -1.0207642615e-01, 
	-9.9308505654e-02, -1.1580816656e-01, -1.3980406523e-01,  8.8864125311e-02, -4.7596614808e-02,  9.1499619186e-02, -8.9789479971e-02,  9.2468068004e-02,  1.1250627041e-01,  6.1191365123e-02, 
	 1.0814123601e-01, -9.1022707522e-02,  9.1630928218e-02,  3.4296575934e-02, -3.9472114295e-02,  1.0418325663e-01,  8.3179101348e-02,  1.2996472418e-01,  8.9096494019e-02, -3.8033377379e-02, 
	-8.4994114935e-02,  1.9635934383e-02,  2.3757219315e-02, -1.3728852570e-01, -1.0221513361e-01, -5.6863650680e-02,  2.8334377334e-02, -1.4150610566e-01,  8.5527770221e-02, -1.4034894109e-01, 
	-5.0988953561e-02, -5.4201006889e-02,  7.7790953219e-02,  2.7518702671e-02, -1.0328428447e-01,  2.5632373989e-02, -5.4182387888e-02,  1.0525935888e-01, -8.8076665998e-02, -8.1386603415e-02, 
	 1.2619592249e-01,  1.8856175244e-02, -9.8791621625e-02, -7.7612367459e-03,  4.3279241771e-02,  5.4139755666e-02, -7.6712265611e-02, -3.8705547340e-03, -4.2617395520e-03,  9.2001967132e-02, 
	-2.7971239761e-03, -1.3564549387e-01, -8.0176226795e-02, -1.2128812820e-01,  1.5031740069e-02, -7.8672572970e-02, -1.0431085527e-01, -8.5875757039e-02,  5.2715923637e-02, -5.5260680616e-02, 
	 1.1876279116e-01, -9.0193316340e-02, -1.1536359042e-01,  1.8446642905e-02,  7.6358102262e-02,  8.1167869270e-02, -7.8703201143e-04, -4.2096957564e-02, -3.4364424646e-02,  2.1130830050e-02, 
	 5.2394520491e-02, -8.5474237800e-02,  1.1816024035e-01, -7.2894446552e-02, -6.8245828152e-02,  9.3338340521e-02, -3.6258439068e-03,  1.0114391148e-01,  1.0829957575e-01, -7.5471691787e-02, 
	-8.2815974951e-02, -5.3887136281e-02,  6.4874023199e-02,  7.7013388276e-02, -4.4223073870e-02,  1.2980411761e-02,  7.7023990452e-02, -5.2166819572e-02,  6.2959462404e-02,  1.3058862090e-01, 
	 3.5943392664e-02, -7.8014671803e-02,  1.3500718400e-02, -1.1543603241e-01, -9.6662819386e-02, -1.8865229562e-02, -5.4906960577e-02,  1.0703875870e-01,  8.4907680750e-02,  3.9171993732e-02, 
	-1.1978128552e-01, -5.7642534375e-02,  8.2470260561e-02,  7.5116001070e-02, -1.0470782220e-01, -6.3979029655e-02,  1.1838462949e-01,  2.9192309827e-02, -3.5378499888e-03, -1.4758002758e-01, 
	-3.7125062197e-02,  8.2304760814e-02, -6.9553814828e-02, -1.0675974190e-01,  4.6679615974e-02,  5.6049183011e-02,  1.2724632397e-02,  3.9385128766e-02, -8.9335791767e-02, -5.7865176350e-02, 
	 6.8306393223e-04, -1.0315054655e-01,  5.2348505706e-02, -5.3701467812e-02,  8.1477463245e-02, -5.0688531250e-02, -5.3979650140e-02, -1.6079816967e-02,  3.9115279913e-02, -3.4101184458e-02, 
	-1.1555591226e-01, -7.7044744976e-03, -1.2129988521e-01,  1.0246876627e-01,  7.4651651084e-02, -6.3326776028e-02,  1.0094860569e-02,  1.2827986479e-01, -8.7230920792e-02,  3.3296197653e-02, 
	 6.2471214682e-02,  4.2501039803e-02, -9.6948742867e-02, -6.0663439333e-02,  9.2279151082e-02, -7.5619816780e-02, -1.1502898484e-01, -1.0816688836e-01, -4.6992752701e-02, -1.7717944458e-02, 
	 6.3079267740e-02,  8.0156184733e-02,  6.3548929989e-02, -5.7360623032e-02, -8.4643371403e-02, -9.4618238509e-02,  9.6567630768e-02, -1.0720904917e-01,  1.3628417253e-01,  9.2627376318e-02, 
	-1.6888352111e-02, -1.0871049017e-02,  5.5344272405e-02, -4.3776243925e-02,  3.1837988645e-02,  5.7381022722e-02, -7.9015843570e-02,  1.1345041543e-01,  1.0344627500e-01,  7.4886359274e-02, 
	-6.7555450369e-04, -1.5430924296e-01,  9.1005079448e-02, -1.0290428251e-01,  9.3907415867e-03, -1.3139711320e-01, -8.5685059428e-02,  3.8963958621e-02,  8.2263730466e-02, -1.9838274457e-03, 
	-4.8922140151e-02,  8.4632739425e-02,  6.2701344490e-02,  6.9870360196e-02,  5.1768705249e-02,  1.0778281093e-01,  1.2023322284e-01, -6.4058437943e-02, -3.2342862338e-02,  1.0159417987e-01, 
	 1.2104434520e-01, -1.2005200982e-01,  5.0110360608e-03,  3.7609126884e-03, -2.1482802927e-02, -9.8306722939e-02, -1.5015972778e-02,  1.0295741260e-01,  1.2295150012e-01,  1.2985832989e-01, 
	 1.1904285848e-01, -6.4445018768e-02, -3.4454215318e-02, -1.0706199333e-02,  3.4062407911e-02, -4.2392138392e-02, -4.1598960757e-02,  3.3955734223e-02,  7.0960804820e-02, -6.9673120975e-02, 
	-1.8794003874e-02,  1.0556915402e-01, -8.8188700378e-02,  1.2795890868e-01, -8.3430193365e-02,  1.5986915678e-02, -1.4495330863e-02,  1.0531108081e-01, -3.1371127814e-02, -3.1408693641e-02, 
	-1.2850809097e-01,  6.5361469984e-02, -3.9737004787e-02,  4.0947530419e-02,  1.2603724003e-01,  8.3412379026e-02, -2.5060006883e-03,  6.0402628034e-02,  9.9540026858e-03, -4.1510410607e-02, 
	 5.7996224612e-02, -7.2587214410e-02, -1.0182154924e-01,  1.4221489429e-01, -1.1226194352e-01,  7.6339535415e-02, -9.6501216292e-02,  1.0265361518e-01,  7.6148927212e-02, -3.0580198392e-02, 
	 3.9928117767e-03, -6.4259409904e-02, -9.2631734908e-02, -1.1078308523e-01, -1.6980750486e-02, -2.6711437851e-02, -1.1205366254e-01,  1.0787843913e-01,  1.2120386958e-01, -9.8414890468e-02, 
	 8.7923638523e-02, -6.6662398167e-03,  9.6242062747e-02,  6.6865630448e-02, -2.9206214473e-02,  1.3548124582e-02,  6.8112522364e-02, -1.2536263466e-01,  1.3402176090e-02,  9.6168473363e-02, 
	-2.6164005976e-03,  1.0289661586e-03,  3.1116127502e-03, -1.1216069758e-01, -6.1585593969e-02,  1.0460256785e-01, -5.9264235198e-02,  1.1689981818e-01,  1.1635264754e-01, -6.9164410233e-02, 
	 5.7930540293e-02, -9.1804116964e-02,  3.0023382977e-02,  9.5055609941e-02,  2.5101442588e-04,  4.2609479278e-02, -7.8719586134e-02, -4.3939288706e-02, -1.4316973090e-01,  7.7624462545e-02, 
	 1.9800854847e-02,  1.1804489419e-02, -8.7583042681e-02, -5.1484193653e-02,  4.4959306717e-02, -5.3734757006e-02,  1.0495622456e-01, -1.1233310401e-01,  7.9834632576e-02, -4.8108913004e-02, 
	 6.6625326872e-02, -1.3557203114e-01,  5.4791398346e-02, -9.6378080547e-02,  1.3052661717e-01,  1.6821410507e-02,  3.3545635641e-02, -2.1462069824e-02,  6.0974456370e-02, -1.0699272156e-01, 
	-4.3540716171e-02, -1.1999077350e-01, -5.8736883104e-02, -4.6179343015e-02, -1.1482949555e-01, -1.2215847382e-03, -1.2398531288e-01, -1.1345305480e-02, -4.4764745981e-02,  5.5378414690e-02, 
	 1.7595749348e-02,  3.3568929881e-02,  6.9895565510e-02,  2.8890246525e-02,  6.2797762454e-02, -2.2809585556e-02, -1.0334768891e-01, -1.0132550448e-01,  4.4809225947e-02,  5.7600154541e-03, 
	 1.5239626169e-02, -4.4710695744e-02,  5.7630026713e-03,  1.1801361293e-01,  6.2607273459e-02,  3.0561933294e-02, -4.3104577810e-02, -1.0550625622e-02, -1.1218945682e-01,  4.4669002295e-02, 
	-1.1835420504e-02,  6.9174391683e-04, -1.9487131387e-02,  1.3651281595e-02, -4.0348146111e-02,  3.5108674318e-02, -8.8666692376e-02, -9.0258836746e-02,  9.8943352699e-02,  1.1816997081e-01, 
	-6.5430060029e-02, -5.6376233697e-02,  4.4803768396e-02,  1.1968883872e-01,  1.0362995416e-01, -4.2550567538e-02, -1.2559060706e-03,  1.2096093595e-01,  1.1355695128e-01,  1.1314077303e-02, 
	 9.9046409130e-02, -7.3536872864e-02, -7.8441493213e-02,  1.1083186418e-01,  1.7950790003e-02,  4.6654297039e-03,  7.1581296623e-02, -1.6000416130e-02, -3.2544791698e-02,  9.1047033668e-02, 
	 1.0164922476e-01,  2.7726676315e-02, -6.1247933656e-02,  1.0083495080e-01,  8.1485487521e-02, -1.1097262055e-01, -1.2755606323e-02,  7.2996236384e-02,  8.7423957884e-02, -2.2304594517e-02, 
	-9.5594950020e-02,  8.1333033741e-02, -1.2121915352e-03, -1.1757773906e-01, -4.0428925306e-02, -1.3487607241e-01, -3.1380321831e-02,  7.8554674983e-02,  2.0246893167e-02,  2.9758678284e-03, 
	-1.0026478767e-01,  2.6183413342e-02, -1.2437288463e-01, -2.6198053733e-02,  1.0649941862e-02,  5.9016987681e-02,  1.2593090534e-02,  5.5390890688e-02, -5.8618232608e-02, -3.8196805399e-03, 
	-9.2852063477e-02, -1.1998092383e-01, -8.8677510619e-02, -8.0255426466e-02,  1.2020275742e-01, -8.2730010152e-02,  7.5608849525e-02,  1.1462482810e-01, -4.5417618006e-02,  1.1167804711e-02, 
	-7.4818558991e-02,  1.0756148398e-01,  1.5815058723e-02,  4.4234249741e-02,  3.6456346512e-02,  1.0003614426e-01, -1.3279666007e-01, -2.9630191624e-02, -1.0910835862e-01, -2.9308466241e-02, 
	-9.7059451044e-02, -1.1857286096e-01,  1.2104555219e-01, -8.2616202533e-02,  8.1803031266e-02,  3.0326033011e-02, -6.5931364894e-02, -7.2528474033e-02,  9.9290616810e-02, -7.7223420143e-02, 
	-1.2189386040e-01, -8.1718444824e-02, -8.0029172823e-03, -9.0144775808e-02,  2.4810994044e-02, -9.6105471253e-02, -2.8022909537e-02,  2.6879422367e-02, -8.4882408381e-02, -3.3815577626e-02, 
	-1.2103055418e-01, -5.7849572040e-03, -1.1830341071e-01, -4.1560452431e-02, -7.3121450841e-02, -1.0828800499e-01,  1.2129082531e-01, -9.7060769796e-02, -1.3118751347e-01,  4.8141196370e-02, 
	-2.6132714003e-02, -2.0044047851e-03, -8.0394789577e-02, -6.7063480616e-02,  6.2197457999e-02, -7.1469128132e-02, -4.7418367118e-02, -4.9794036895e-02,  7.9179346561e-02, -4.2316794395e-02, 
	-6.8867571652e-02,  5.7427093387e-02,  6.8127512932e-02,  1.3010160625e-01, -2.4398455396e-02,  1.1687965691e-01, -5.6379318237e-02,  3.2566789538e-02, -6.8626061082e-02, -1.1616555974e-02, 
	-9.1565974057e-02, -1.9932819530e-02,  1.6142679378e-02, -7.3369760066e-03,  5.6974928826e-02, -5.4981458932e-02, -6.4202480018e-02,  5.3143620491e-02,  1.0255282745e-02,  1.3187223673e-01, 
	 3.8733366877e-02, -6.4453281462e-02, -1.5185840428e-01, -1.2232418358e-01, -2.4811986834e-02,  2.6335369330e-03,  6.6877692938e-02, -4.3832443655e-02,  1.6603076831e-02,  5.0158582628e-02, 
	 9.8065547645e-02,  1.9048135437e-04,  6.2761828303e-02,  7.1326471865e-02, -4.7066896223e-03, -3.4989204258e-02, -8.0738477409e-02, -9.5712319016e-02, -4.5630410314e-02, -8.3525195718e-02, 
	-5.1203269511e-02,  1.1767576635e-01, -3.9869446307e-02,  8.8636159897e-02, -6.2918350101e-02,  9.4195030630e-02, -5.9095870703e-02,  4.8967413604e-02,  6.4843483269e-02,  4.7613743693e-02, 
	 2.5522364303e-03,  5.9606757015e-02,  1.1731654406e-01, -6.8384386599e-02,  1.2572477758e-01,  1.2667137384e-01, -8.2467645407e-02,  8.0881856382e-02,  3.6594055593e-02, -1.3916225731e-01, 
	 1.0496220738e-01, -1.3073356450e-01, -1.3691058755e-01, -6.0220649466e-03,  1.3259901106e-01,  4.5697271824e-02,  1.2171994150e-01,  1.4435669780e-01, -3.5057656467e-02, -2.8333213180e-02, 
	-2.3301217705e-02, -4.9985874444e-02,  1.7680987716e-02, -1.2899546325e-01,  8.8884808123e-02, -7.4885520153e-03,  8.8552922010e-02,  8.3456456661e-02,  8.3886250854e-02, -5.8374484070e-03, 
	-8.8328652084e-02,  6.5129056573e-02,  1.1802643538e-01,  2.0327311009e-02,  6.0503181070e-02,  6.8054981530e-02, -8.9906625450e-02,  9.3152813613e-02, -4.5452043414e-03, -1.0167513043e-01, 
	 1.1479159445e-01,  2.6182413101e-02, -1.3180334121e-02, -6.6897735000e-02, -6.6058188677e-02,  2.3962490261e-02, -1.1719997227e-01,  1.3144095428e-03,  3.3721953630e-02, -2.4005679414e-02, 
	-4.9722544849e-02,  1.1809464544e-01, -3.2376259565e-02, -8.7232127786e-02,  1.1003120989e-01, -1.0151769221e-01,  7.8110530972e-02, -4.7369726002e-02, -6.2483608723e-02, -1.0391411930e-01, 
	 5.0754364580e-02, -6.7278719507e-03, -7.6121486723e-02, -1.1406707577e-02,  1.1152225733e-01, -9.1368861496e-02,  4.5425176620e-02, -1.6495797783e-02, -3.0164169148e-02,  2.3044269532e-02, 
	-2.6405422017e-02, -1.3787605800e-02, -1.5666425228e-02,  8.4798045456e-02,  1.0482192039e-01, -8.1729609519e-03, -9.8242990673e-02, -2.5669269264e-02, -5.1995180547e-02, -3.4380562603e-02, 
	 7.0951357484e-02, -1.1386836320e-01, -6.0465928167e-02,  4.9313057214e-02,  2.1773975343e-02, -5.7875148952e-02,  8.9488133788e-02,  5.9315111488e-02,  3.8744337857e-02, -3.5439047962e-02, 
	-5.4601743817e-02, -1.2583945692e-01,  1.0319061577e-01,  4.9427032471e-02, -4.1170142591e-02,  8.6826443672e-02, -4.7906083055e-03, -5.8751888573e-02, -1.6180211678e-02,  8.6023598909e-02, 
	-9.9472440779e-02, -1.6328291968e-02, -6.3190996647e-02, -1.2868364155e-01, -1.3241318054e-02,  8.8587142527e-02, -2.8516823426e-02,  4.2168390006e-02, -4.0213383734e-02, -3.6534249783e-02, 
	 7.9167895019e-02,  3.5879440606e-02, -1.3803479075e-01,  9.3859918416e-02, -3.0686564744e-02, -8.2900233567e-02,  1.2188611180e-01,  1.2470553070e-01,  7.5549475849e-02, -5.3703054786e-02, 
	-2.8909351677e-02, -1.7038257793e-02, -7.1112304926e-02, -5.1604013890e-02, -8.5135377944e-02,  1.9544579089e-02,  7.0840388536e-02,  1.1352315545e-01, -3.6610610783e-02, -8.6230814457e-02, 
	-2.3214500397e-02, -8.6686544120e-02,  1.0019381344e-01, -2.7816718444e-02, -2.6788955554e-02, -1.5454998240e-02, -1.0330099612e-03,  8.6771279573e-02,  5.5781040341e-02, -8.0347498879e-03, 
	 1.1832285672e-01, -7.3947578669e-02,  5.0102402456e-03,  7.0653013885e-02, -5.9757400304e-02, -9.6809975803e-02,  7.8109607100e-02,  7.2895564139e-02,  1.3587216847e-02, -6.4569465816e-02, 
	 7.9058855772e-02,  1.3522300124e-01,  1.2773013115e-01,  1.0223775357e-01, -7.3629796505e-02,  1.0785934515e-02, -1.0922018439e-01,  4.5171505772e-03,  4.3846141547e-02,  1.2912926078e-01, 
	-4.9077708274e-02, -3.2236445695e-03,  8.4477491677e-02,  6.4446032047e-02,  1.0356353968e-01, -3.7403735332e-03, -2.8124779928e-03,  1.2196764350e-02, -6.1684109271e-02,  1.0496017337e-01, 
	-9.4708591700e-02,  3.7572134286e-02, -1.0910706222e-01,  2.8110921383e-02,  8.2523360848e-02,  4.3740235269e-02,  5.0884447992e-02,  1.8549663946e-02, -1.0716615617e-01, -1.1607808620e-01, 
	 1.6848815605e-02,  5.7610690594e-02, -1.4004677534e-01,  3.1849417835e-02,  3.5863697529e-02, -1.0711502284e-01, -8.5882872343e-02, -7.3568481021e-03, -5.6207716465e-02, -1.0730007291e-01, 
	 4.2203725316e-03, -4.5625239611e-02,  7.8927770257e-02, -1.2707927264e-02,  4.6172585338e-02, -1.1485249549e-01,  3.2179310918e-02,  1.7140619457e-02,  9.7359031439e-02, -1.7560495064e-02, 
	-3.8687851280e-02, -9.0399980545e-02, -5.2703429013e-02,  2.8548948467e-02, -5.2156869322e-02, -7.5497724116e-02,  2.5335054845e-02, -7.3221035302e-02,  3.1099293847e-03, -1.1578860134e-01, 
	 6.3440375030e-02,  1.0465760529e-01, -2.2283559665e-02, -9.7239777446e-02, -3.3439990133e-02,  7.2509273887e-02,  3.9323780686e-02, -7.8324221075e-02,  3.3294785768e-02,  6.6679202020e-02, 
	-1.9120667130e-02, -1.4135578275e-01,  4.4125091285e-02, -9.7003147006e-02, -1.3013714552e-01, -6.8658411503e-02,  5.7882652618e-03, -7.0632636547e-02, -1.3946431875e-01,  1.6945937648e-02, 
	 7.5206592679e-02, -4.6382583678e-02, -8.3376251161e-02,  5.5612087250e-02, -1.6354260966e-02, -2.4096822366e-02, -2.8015127406e-02,  1.0525399446e-01, -4.9715302885e-02, -7.0565715432e-02, 
	 6.8931397982e-03,  2.7325246483e-02, -1.2659108639e-01,  3.5897642374e-02,  5.3340177983e-02, -6.5051369369e-02, -6.1202380806e-02, -5.7529550046e-02,  5.7138107717e-02,  2.4067049846e-02, 
	-1.5152780712e-01,  1.0281853378e-01, -1.0739587992e-01, -1.4540012181e-01, -3.7822887301e-02,  5.9250835329e-02,  5.1210112870e-02,  4.0669597685e-02, -4.8086710274e-02, -5.0306141376e-02, 
	 9.1824389994e-02, -8.8356405497e-02, -7.0986477658e-03, -3.2107248902e-02,  9.0524025261e-02, -1.3693071902e-01, -3.9207976311e-02, -4.7339420766e-02, -1.1886214465e-01,  9.9859260023e-02, 
	 2.6413409039e-02, -1.2829056382e-01,  5.8782324195e-02, -1.1097925901e-01,  6.6550932825e-03,  5.8745808899e-02,  4.5554496348e-02,  7.8056588769e-02, -3.8370493799e-02, -4.3595373631e-02, 
	 8.3883609623e-03, -6.1116497964e-02, -9.7201742232e-02,  1.4612722211e-02,  7.9338975251e-02,  1.2725008652e-02,  6.2002137303e-02,  2.1385105327e-02, -4.8820175231e-02, -1.3754886575e-02, 
	 1.5274933539e-02,  9.6660055220e-02,  4.8884935677e-02, -3.0186442658e-02,  1.4988589101e-02, -5.6909937412e-02, -5.5510662496e-02,  5.1655687392e-02,  1.6206325963e-03, -2.3606209084e-02, 
	 8.4122687578e-02, -2.6455940679e-02, -6.3213421963e-03,  3.4237327054e-03,  6.4198523760e-02, -3.8191426545e-02, -9.2044360936e-02,  2.4763112888e-03,  1.1613649130e-01, -8.2394585013e-02, 
	-6.7561557516e-03, -1.2196701020e-01,  1.0981950164e-01,  9.7118005157e-02, -2.1381037310e-02, -1.6618082300e-02,  4.3078362942e-02, -7.1899294853e-02, -5.4152533412e-02,  2.2028123960e-02, 
	 6.7807301879e-02, -1.6046519578e-01,  2.8582997620e-02,  5.5405076593e-02,  5.8839298785e-02,  9.3403376639e-02,  7.4062119238e-03,  5.2189905196e-02,  1.5394389629e-02, -7.3222607374e-02, 
	-1.0734257102e-01, -1.1720134318e-01, -1.9594596699e-02,  8.4154285491e-02,  7.8060403466e-02,  9.3902526423e-03,  2.4440791458e-02, -1.0360731930e-01, -1.1923912913e-01,  2.2936681286e-02, 
	 4.8450250179e-02, -9.1374062002e-02,  1.0212791711e-01,  1.1118131876e-01, -5.6705176830e-02, -2.6170073077e-02,  6.9383941591e-02,  4.6386610717e-02,  5.2748274058e-02, -9.3238055706e-02, 
	 4.6387471259e-02, -3.2264661044e-02, -6.8273872137e-02, -8.3289466798e-02,  7.7689230442e-02,  4.2041823268e-02,  1.3461250067e-01, -7.1736723185e-02,  7.9409703612e-02,  1.7205981538e-02, 
	 5.2981276065e-02, -5.9589870274e-02,  1.3254675269e-01, -2.4266039953e-02, -9.8808873445e-03,  9.6384566277e-03,  2.0422497764e-02,  8.7122641504e-02, -1.0311194509e-01,  7.5337737799e-02, 
	 1.1291035265e-01, -1.0136710107e-01,  1.1741892993e-01,  3.6658246070e-02,  1.2826755643e-01,  8.3059683442e-02,  8.4586530924e-02,  4.3110344559e-02, -2.8501052409e-02, -5.7230185717e-02, 
	-5.1641769707e-02, -1.0191142559e-01,  5.4371163249e-02,  1.3408406079e-01,  1.3175426424e-01, -2.6391176507e-03, -5.7499818504e-02,  2.3021129891e-03, -9.7148992121e-02,  8.5083119571e-02, 
	 2.6210006326e-02,  8.6506128311e-02, -9.7421541810e-02, -9.7178772092e-02,  4.2973499745e-02, -6.6540323198e-02,  2.4326561019e-02, -3.5751480609e-02,  9.1771496227e-04, -5.3212825209e-02, 
	 1.0240849108e-01,  1.2840060890e-01, -6.6608302295e-02,  1.1922360212e-01, -3.3397633582e-02, -2.8264189139e-02,  4.9439735711e-02,  1.1255577207e-01, -4.1104942560e-02,  3.8383435458e-02, 
	-1.3017045334e-02,  1.2143133208e-02,  9.1548353434e-02, -8.2506917417e-02, -1.1138164997e-01, -1.0653570294e-01, -1.1096554808e-02, -7.6591402292e-02, -7.6937086880e-02,  5.3910072893e-02, 
	 8.6536623538e-02, -1.0821334273e-01, -3.5394784063e-02,  9.6442028880e-02,  8.4594236687e-03,  1.2107045203e-01, -2.0361144096e-02,  3.5495404154e-02, -7.3813628405e-03,  1.1797852814e-01, 
	 9.2519901693e-02,  3.8379304111e-02, -1.0097885504e-02, -8.3748906851e-02,  6.0971163213e-02,  1.2547448277e-01,  2.3009637371e-02,  8.1881657243e-02, -1.1187177896e-01,  1.1176808923e-01, 
	 1.0761768371e-01,  9.1366082430e-02,  8.6625553668e-02, -1.3301168568e-02,  3.6841965630e-04, -1.1802668869e-01, -1.0628462583e-01,  7.9792276025e-02,  1.0682819039e-01, -4.6784762293e-02, 
	-1.6007084399e-02,  5.9646531940e-02, -7.0479407907e-02,  2.4689135607e-03,  6.3575737178e-02, -1.0898004472e-01, -2.5694103912e-02,  5.2112791687e-02, -9.3356065452e-02, -9.9213328212e-03, 
	-2.4418283254e-02,  1.0355943441e-01,  1.0719828308e-01,  2.9376398772e-02, -6.0487583280e-02,  5.6056611240e-02,  7.5207270682e-02, -5.2974287421e-02, -2.1888840944e-02,  1.2724745274e-01, 
	 1.1406463385e-01,  1.9384535030e-02,  9.0954348445e-02, -3.2006524503e-02, -1.1067404412e-02, -1.2343551964e-01,  3.7194684148e-02,  3.7178885192e-02, -1.1350926757e-01,  8.5163138807e-02, 
	-1.0484503210e-01,  1.0082384944e-01, -9.6826583147e-02, -3.8442902267e-02,  6.8331748247e-02, -2.1902745590e-02,  1.1549776047e-01,  1.1312194914e-01, -3.4815359861e-02, -4.2487982661e-02, 
	 3.9359722286e-02,  2.4073995650e-02, -7.6094932854e-02, -1.3853120804e-01,  5.9405203909e-02, -1.5290357172e-01, -1.0703484714e-01, -1.1740786955e-02,  8.8899821043e-02,  5.5860085413e-03, 
	 5.5094477721e-03, -6.5823115408e-02,  3.6050021648e-02,  1.2332516164e-01, -6.2286559492e-02, -3.4796249121e-02, -2.8446374461e-02, -2.9421269894e-02, -1.0779160261e-01,  1.8688140437e-02, 
	 9.1219633818e-02,  4.2329235002e-03,  4.2684953660e-02,  4.5621726662e-02, -5.8569591492e-03, -1.0093666613e-01, -1.8776342273e-02, -4.8486966640e-02,  2.8038391843e-02,  3.7693616468e-03, 
	-1.4291431010e-01, -1.0916884989e-01,  1.1566291749e-01,  2.3308072239e-02,  4.9664139748e-02,  1.7238093540e-02, -1.4177429676e-01,  3.9841581136e-02,  7.3169097304e-02, -1.1198489368e-01, 
	-4.2475070804e-02,  7.9581066966e-02,  7.3412179947e-02,  1.1448242515e-01, -3.2504148781e-02,  8.1118591130e-02, -7.9944118857e-02, -1.3922686875e-01, -1.0676587373e-01,  9.3061164021e-02, 
	 2.9199600220e-02,  7.3775075376e-02,  7.1220874786e-02, -5.6621950120e-02,  5.9887565672e-02, -8.4937758744e-02,  7.5339771807e-02, -5.4687608033e-02, -1.0078227520e-01, -1.3695743680e-01, 
	-5.2080862224e-03, -1.1788330227e-01,  4.6134935692e-03, -9.0635493398e-02,  7.1632098407e-03,  6.7510969937e-02, -1.1437917501e-01, -7.1236662567e-02,  5.8001891011e-04,  1.3525119983e-02, 
	-7.8839421272e-02,  7.6015968807e-03, -1.8772620708e-02, -9.3098744750e-02,  3.3553551883e-02, -6.5729394555e-02, -5.0577815622e-02, -4.3473318219e-02,  9.7843604162e-03,  6.9151796401e-02, 
	-9.7642228007e-02, -2.8305618092e-02,  4.7951556742e-02,  5.9643633664e-02,  5.7248774916e-02,  2.9800806195e-02,  1.0610999167e-01, -7.1451015770e-02, -1.0168920271e-02,  5.6141868234e-02, 
	-6.9514945149e-02, -2.8075618669e-02, -1.3855551183e-01, -7.2477929294e-02, -3.1567547470e-02, -5.1783505827e-02, -9.8580613732e-02, -4.4406328350e-02,  3.8103686529e-04,  1.0923504829e-01, 
	-3.4949384630e-02,  7.2971932590e-02, -1.0234094411e-01,  1.1958203465e-01, -6.4134225249e-02,  3.7930950522e-02,  7.2869941592e-02,  8.3292119205e-02, -1.3044720888e-01,  1.1986107379e-01, 
	 8.8585413992e-02, -6.5645612776e-02,  3.9108548313e-02, -1.1210824549e-01, -8.2280144095e-02,  3.5614538938e-02, -7.3654584587e-02,  1.1079119891e-01, -7.0951655507e-02, -9.8047941923e-02, 
	 4.8189274967e-02,  5.4046422243e-02,  8.8415995240e-02,  3.9259493351e-02, -1.1074390262e-01,  1.4230629429e-02, -4.6924892813e-02, -1.1055552959e-01,  4.3213065714e-02, -4.3726254255e-02, 
	 2.4611869827e-02,  4.4496256858e-02, -3.7139104679e-03,  1.1516712606e-02, -9.9076647311e-03,  1.1394608021e-01, -1.2690563500e-01, -9.7793973982e-03,  8.8838249445e-02,  3.5050209612e-02, 
	 6.9512642920e-02, -7.4828714132e-02, -3.5214159638e-02,  9.1989710927e-02, -4.9371320754e-02,  7.4520103633e-02,  4.1858978570e-02,  9.5004819334e-02,  2.1262194961e-02,  7.9731851816e-02, 
	 7.9018391669e-02, -2.3967662826e-02,  5.0164803863e-02, -4.3274994940e-02,  3.0126227066e-02, -9.4028837979e-02,  1.4328197576e-02, -5.9222117066e-02,  2.2630468011e-02, -6.4594797790e-02, 
	 5.9439133853e-02, -1.3340890408e-01, -3.7802518345e-03, -2.6147102937e-02, -1.1300757527e-01,  2.0210830495e-02,  1.1256191134e-01, -8.0535538495e-02, -5.4146341980e-02,  4.9262870103e-02, 
	 1.4124188572e-02,  1.5904644504e-02, -5.4334193468e-02, -7.1797549725e-02,  1.1421225220e-01,  6.3443012536e-02, -3.5654451698e-02, -1.1809279025e-01,  3.7294826470e-03,  1.2361747026e-01, 
	 1.0389411449e-01, -5.3196996450e-02, -6.6082730889e-02, -1.2529228628e-01,  7.3245629668e-02, -4.0385641158e-02,  4.4138997793e-02,  8.4778837860e-02, -4.9746721052e-03,  1.2235439569e-01, 
	-8.2417177036e-03, -4.2234513909e-02,  1.0519499332e-01, -4.7762494534e-02, -2.5204639882e-02, -1.1240357161e-01, -3.9742190391e-02, -1.6982797533e-02,  1.8151357770e-02, -5.0230226479e-03, 
	 1.1430838704e-01, -7.8807130456e-02,  2.4978840724e-02,  3.4932371229e-02,  2.6697249268e-04, -1.2771688402e-01, -1.1895257980e-01, -1.1076900363e-01, -1.2528122962e-01, -8.4494240582e-02, 
	-6.5506309271e-02,  9.9433779716e-02, -1.2561412156e-01,  1.0782845318e-01,  3.2062862068e-02, -4.0015713312e-03,  1.1200772971e-01, -5.0791919231e-02, -8.7623320520e-02, -8.7358042598e-02, 
	-3.6420252174e-02,  2.9265526682e-02, -2.4657208472e-02,  8.3343282342e-02,  1.1964359879e-01, -8.2256570458e-02, -7.1439653635e-02,  5.3813003004e-02, -1.2720897794e-02,  5.1412802190e-02, 
	-3.8230322301e-02,  3.3974047750e-02,  3.9575073868e-02,  9.2936180532e-02, -9.5987714827e-02,  1.2338902801e-01,  1.6258964315e-02, -1.3230051100e-01,  2.1754298359e-02, -2.5535509922e-03, 
	 7.7476114035e-02,  7.1958405897e-03,  7.9280719161e-02,  7.1754626930e-02, -1.0172233731e-01,  3.3795163035e-02,  7.9159252346e-02,  9.1208696365e-02,  2.9046615586e-02,  1.1729863472e-02, 
	 6.1475310475e-02,  5.7300500572e-02,  1.2878380716e-01,  1.3567410409e-01, -9.4679690897e-02, -1.2922967970e-01,  1.0872320086e-01,  6.6052585840e-02,  4.5086953789e-02,  1.1588040739e-01, 
	 8.0271832645e-02, -9.5690786839e-03,  9.0594120324e-02, -5.7874497026e-02,  1.3627664745e-01,  6.2568232417e-02,  9.6404880285e-02,  2.4614525959e-02, -1.0664395988e-01,  7.5164221227e-02, 
	-3.8520373404e-02,  1.1137281358e-01, -1.1589606106e-01, -7.0594660938e-02,  6.5459989011e-02, -1.5956729650e-02,  4.7086156905e-02,  4.7709718347e-03,  1.6142934561e-02, -1.0746601969e-01, 
	 4.4802319258e-02, -9.2606712133e-03,  5.8098498732e-02,  5.2632279694e-02,  3.1150596216e-02, -5.8486096561e-02, -1.1292663962e-01,  3.2962667756e-03,  7.5625725091e-02,  8.8324047625e-02, 
	-3.9469935000e-02,  9.1280013323e-02,  1.1062180996e-01,  9.1249793768e-02, -3.8360543549e-03,  6.7509278655e-02, -5.2054092288e-02, -4.8583392054e-02, -4.6102546155e-02, -4.6559099108e-02, 
	 8.8747203350e-02, -7.4265122414e-02, -1.0187004507e-01, -1.4991417993e-03,  1.0800264031e-01, -4.1556913406e-02,  2.6860987768e-02, -4.4763769954e-02, -3.9144549519e-02,  3.2297696918e-02, 
	 1.0055463016e-01, -5.9837333858e-02,  1.1454096437e-01,  8.4937624633e-02,  5.2484804764e-03, -6.1638750136e-02,  7.1952171624e-02,  1.0070389509e-01, -1.1488632858e-01, -4.2045995593e-02, 
	-9.0743741021e-03, -5.4093588144e-02, -6.6333211958e-02, -1.2368945405e-02, -7.7230308671e-04, -4.0359079838e-02, -9.0494282544e-02,  9.1559318826e-03, -1.6407823423e-03,  6.6586673260e-02, 
	 4.5117452741e-02,  1.1375269294e-01,  3.3144250512e-02,  1.2215901166e-01,  9.3804076314e-02, -4.6033676714e-02,  9.2413820326e-02, -1.8796605989e-02, -1.1164881289e-01,  7.0155590773e-02, 
	 3.0358748510e-02,  6.4795769751e-02, -1.2344375253e-01,  2.9647206888e-02,  1.9645856693e-02,  5.6160882115e-02, -9.8987981677e-02, -1.8310969695e-02, -7.4158892035e-02, -6.7067474127e-02, 
	 3.7681914866e-02, -7.0661067963e-02,  1.1878732592e-01, -1.2397000194e-01,  4.2682133615e-02,  4.2568862438e-02, -6.5690457821e-02, -3.1546503305e-03, -4.9570132047e-02, -1.3222273439e-02, 
	-1.3391120732e-01,  3.5070009530e-02, -1.0358890891e-01, -7.0768021047e-02, -8.4960363805e-02,  1.0433572531e-01, -9.5710963011e-02, -5.6691665202e-02, -7.1494244039e-02, -4.4594187289e-02, 
	-4.2463470250e-02,  1.4340375364e-01,  3.1376231462e-02, -3.1004752964e-02,  7.6307177544e-02,  5.3402077407e-02,  5.4745774716e-02,  5.1449798048e-02,  5.2280582488e-02, -1.3558895886e-01, 
	-5.8324784040e-03,  3.2402060926e-02, -1.2092944980e-01,  1.2288347632e-01,  1.0824865848e-01,  1.3223797083e-01, -6.2172815204e-02, -5.7021375746e-02, -1.0933301598e-01,  1.3484599069e-02, 
	-8.1162586808e-02,  5.5873673409e-02,  2.2625900805e-02,  8.4999054670e-02,  1.3398925774e-02,  6.0098534450e-03,  1.0295621306e-01,  3.9667762816e-02,  1.9374001771e-02, -7.0425823331e-02, 
	 1.1353408545e-01,  1.1965654790e-02, -1.5950815752e-02,  8.4551066160e-02,  5.2854582464e-05, -1.4120611548e-01, -6.9948710501e-02,  1.3603920117e-02, -1.1356096715e-01, -6.2222026289e-02, 
	 2.9265796766e-02,  2.4899886921e-02,  5.4139811546e-02, -1.0626626015e-01, -3.3774279058e-02, -6.8326324224e-02, -1.9000748172e-02,  6.4515590668e-02, -1.5666231513e-01, -1.3300666213e-01, 
	-9.5275051892e-02, -3.6552973092e-02, -9.1758318245e-02, -1.8193174154e-02, -1.0985913128e-01, -9.2983275652e-02,  4.1554268450e-02,  2.3934921250e-02, -2.0330788568e-02,  8.6429975927e-02, 
	 1.5541241504e-02, -4.4323261827e-03, -7.7660046518e-02, -1.0442864150e-01, -9.9051579833e-02, -7.8549988568e-02, -6.6259406507e-02, -8.0927282572e-02,  6.1626065522e-02, -1.3132509589e-01, 
	 4.9110144377e-02, -8.8443635032e-03,  8.2354016602e-02, -2.2608323023e-02, -9.9823303521e-02,  1.0164157301e-01, -1.2928757071e-01, -9.2022746801e-02,  7.7488021925e-03, -1.1474454403e-01, 
	-1.3144354522e-01, -1.0893465579e-01, -1.2052666396e-01,  2.0573154092e-02, -8.7727874517e-02, -9.3416973948e-02,  4.8057779670e-02,  9.0183064342e-02,  4.6642802656e-02, -1.1289248616e-01, 
	 4.1239395738e-02, -1.3171090186e-01,  4.5361723751e-02,  6.4583711326e-02, -1.1917316914e-01, -4.1629970074e-02,  2.0594401285e-03,  5.4031861946e-03,  2.2001745179e-02, -2.3150272667e-02, 
	-1.1234878749e-01,  5.5613353848e-02, -9.6708901227e-02, -1.1726328731e-01, -7.0081232116e-03,  7.3680183850e-03,  4.6527326107e-02,  6.0685724020e-02,  1.9989436492e-02,  2.4847138673e-02, 
	-4.5947477221e-02, -3.9282802492e-02,  1.6113383695e-02,  2.1149937063e-02,  2.9432335868e-03, -2.2692762315e-02, -9.3066014349e-02, -7.4959263206e-02, -4.5229159296e-02,  7.9202853143e-02, 
	-5.8555707335e-02, -1.0198202729e-01, -1.2176201493e-01,  5.3036767989e-02,  6.8888679147e-02, -1.0940912366e-01, -3.4825496376e-02,  8.9981891215e-02,  3.7444405258e-02, -3.4613326192e-02, 
	 8.4851294756e-02, -9.1611690819e-02,  3.0360553414e-02, -1.5858085454e-01,  2.4026801810e-02,  2.7244033292e-02,  1.9071416929e-02,  5.0250958651e-02, -1.1054053903e-01,  5.8350857347e-02, 
	-3.2914519310e-02,  8.3963103592e-02,  1.0185747594e-01, -8.9848868549e-02,  7.5986005366e-02, -4.7855813056e-02, -2.9128599912e-02, -1.9996194169e-02, -1.5382385254e-01, -9.2737741768e-02, 
	-1.7167327926e-02,  1.0138431564e-02,  4.8319371417e-03, -9.4884641469e-02,  8.2210339606e-02,  6.4614862204e-02, -2.5205837563e-02, -3.8853168488e-02,  8.3150647581e-02,  1.4301642776e-01, 
	 2.5199243799e-02, -5.4640758783e-02, -1.4430303872e-01, -3.7398677319e-02, -1.1431808583e-02,  7.6002448797e-02,  8.1437215209e-02, -2.2783512250e-02, -8.6240932345e-02, -1.6586273909e-02, 
	 4.6243470162e-02, -9.2155598104e-02,  3.2181300223e-02,  7.4863046408e-02, -6.5583251417e-02,  1.1491828412e-01, -6.9340199232e-02,  5.0749197602e-02,  1.6961762682e-02,  1.4029355720e-02, 
	-5.0378791988e-02, -1.1704543605e-02,  4.7006718814e-02,  7.8766807914e-02, -9.6499873325e-03, -6.5775386989e-02, -1.0402046889e-01, -5.6753894314e-03, -8.9144818485e-02, -4.3223403394e-02, 
	-8.9555732906e-02, -1.3965259492e-01, -4.1165489703e-02, -4.2606103234e-03,  4.8577219248e-02, -7.2626106441e-02,  7.9663544893e-02,  1.0330344550e-02, -2.6632333174e-02,  1.2898761779e-02, 
	-2.2242717445e-02, -3.1932376325e-02,  3.9179470390e-02, -1.2743589282e-01, -8.1772990525e-02, -1.6418261454e-02, -1.9790442660e-02, -5.6840125471e-02,  1.2391357124e-01,  4.7904849052e-02, 
	 6.6063985229e-02,  2.5409799069e-02,  1.5169925988e-01, -7.3032453656e-02, -8.2645162940e-02,  9.7237147391e-02,  1.6596488655e-01,  5.8908130974e-02,  1.8772228062e-01,  4.1618451476e-02, 
	-1.7185155302e-02,  2.4131206796e-02,  4.2737238109e-02,  7.2417877614e-02,  1.3424918056e-01, -3.4271944314e-02, -1.1167950928e-02,  7.9514838755e-02, -5.4755091667e-02, -9.1011747718e-02, 
	 4.1436322033e-02,  1.3224090636e-01,  2.3195333779e-03, -1.8656749278e-02, -4.3460551649e-02,  2.5729142129e-02, -6.6320300102e-02,  6.3014231622e-02, -6.7480847239e-02, -8.9518614113e-03, 
	 1.1577736586e-01,  3.9943739772e-02,  5.6160919368e-02,  1.2674756348e-01,  1.1816786230e-01, -7.0918187499e-02,  6.6217377782e-02,  3.6124635953e-03,  6.1291359365e-02,  9.8234079778e-02, 
	 1.3663333654e-01, -4.7465130687e-02, -9.6830472350e-02, -4.1190031916e-02,  5.6150630116e-02, -5.6880328804e-02,  5.5467177182e-02,  1.4935686253e-02, -2.6567580178e-02,  1.4565718174e-01, 
	-7.8003238887e-03,  5.2854758687e-03,  8.3429291844e-02, -4.0911283344e-02,  3.5479865968e-02, -1.0852047801e-01, -2.1412041038e-02,  7.4249632657e-02,  2.1160321310e-02, -2.3672841489e-02, 
	-7.5385220349e-02,  2.3777231574e-02,  2.4049768224e-02, -1.2977261841e-01, -9.3257337809e-02,  2.5814536959e-02,  6.8485766649e-02, -1.2570062280e-01,  2.4995815009e-02,  1.2527855113e-02, 
	-1.5269805677e-02, -5.5726755410e-02, -3.6469034851e-02,  6.4094021916e-02,  3.8635496050e-02, -7.2266273201e-02, -5.9199824929e-02,  3.8727499545e-02, -2.2859182209e-02,  1.0249461979e-01, 
	 6.9064660929e-03,  1.1385270953e-01, -9.1444097459e-02, -2.5138917845e-03,  9.9518679082e-02, -1.3088849373e-02,  1.1486342177e-02, -3.4097868949e-02, -4.0727254003e-02, -5.4668754339e-02, 
	-9.6743598580e-02, -9.3525469303e-02,  1.0161946714e-01, -1.3572927564e-02,  1.0810150206e-01, -1.3607033761e-03, -4.7468446195e-02,  1.3730588555e-01,  1.5206510201e-02,  1.5156364441e-01, 
	 5.1068261266e-02,  9.7932949662e-02, -7.9382784665e-02, -8.4576398134e-02,  2.2531228140e-02,  2.6888461784e-02,  4.8505406827e-02, -2.9262250289e-02, -3.0394295231e-02, -3.6877084523e-02, 
	 8.9460343122e-02, -9.9282123148e-02, -6.4712025225e-02, -7.3279947042e-02,  3.5330597311e-02, -1.0148151964e-01,  5.2764236927e-02, -1.8301574513e-02,  8.2066476345e-02,  1.1613292992e-01, 
	 1.1909028143e-01,  3.6124587059e-02, -7.8720115125e-02, -2.3592023179e-02,  1.2460581958e-01,  1.5575149655e-01, -1.6372721875e-03,  1.2525908649e-01, -4.0593009442e-02, -6.7333742976e-02, 
	 4.7738798894e-03,  1.1651863158e-01,  1.9192688167e-02, -6.6888727248e-02, -1.0213749856e-01,  1.2820644677e-01,  7.8622400761e-02, -1.5450498322e-03,  5.7100731879e-02,  3.9204761386e-02, 
	-2.0749229938e-02,  8.9338399470e-02,  5.1711734384e-02,  5.8643616736e-02,  7.7083803713e-02,  2.1085463464e-02, -7.4566558003e-02, -2.2071091458e-02,  1.9881839398e-03,  1.5642799437e-02, 
	 8.0120414495e-02,  1.8155494705e-02,  9.5664188266e-02, -3.1683351845e-02,  1.4156044926e-03, -1.0686782002e-01, -5.8921102434e-02, -4.2427550070e-03, -1.1992401630e-01, -4.0988743305e-02, 
	 3.0062908307e-02,  1.1630318314e-01, -8.1397548318e-02, -2.9611552134e-02, -1.2882518768e-01,  8.1883035600e-02, -1.1709804833e-01,  5.8182548732e-02, -2.3281736299e-02, -5.0356168300e-02, 
	-5.6773569435e-02,  1.3542116620e-02,  8.3190798759e-02,  1.8906574696e-02,  5.9824775904e-02,  3.6741640419e-02,  1.1646587402e-02, -4.4992346317e-02, -6.7492365837e-02,  9.4118550420e-02, 
	-9.1521330178e-02,  2.4672506377e-02, -5.1502585411e-02, -4.0939778090e-02,  2.9817782342e-02, -6.4968019724e-02, -6.4261175692e-02, -2.5714566931e-02, -9.4989761710e-02, -3.3465001732e-02, 
	-7.5643807650e-02, -7.7176250517e-02, -5.6965518743e-02, -6.2669366598e-02, -8.9764840901e-02,  3.1838383526e-02,  8.0735996366e-02,  5.3568422794e-02, -6.2170822173e-02,  3.6480352283e-02, 
	 1.9410148263e-02, -3.7881515920e-02, -4.4533330947e-02, -4.9978535622e-02, -1.1991639435e-01,  8.0320410430e-02, -8.4009692073e-02, -3.1630523154e-04, -5.3035560995e-02, -2.7164245024e-02, 
	 1.2531223893e-01,  5.1530063152e-02, -9.8486617208e-02,  7.3827087879e-02,  1.1841433495e-01,  4.3412592262e-02,  1.1861599050e-02,  2.2173624020e-03, -7.2822019458e-02, -7.9321935773e-02, 
	 2.8084391728e-02,  7.8755937517e-02,  1.1828611605e-02,  1.4506942593e-02, -9.6341013908e-02,  1.0188276321e-01,  6.4692139626e-02,  5.5042142048e-03, -3.8004208356e-02,  3.0707439408e-02, 
	 6.1120875180e-02, -7.2274185717e-02,  9.5266811550e-02, -9.3360826373e-02, -8.5938557982e-02,  7.3822841048e-02, -6.7894071341e-02,  4.8645686358e-02, -1.9420480356e-02,  2.0473798737e-02, 
	-7.8576609492e-02,  2.6619393378e-02, -5.7983663864e-03, -6.2600034289e-03,  1.1878939718e-01, -8.5238568485e-02,  8.5983090103e-02, -1.0757192224e-01,  4.1364468634e-02, -6.4805094153e-03, 
	 1.3705886900e-01,  1.1973706633e-01,  5.7046562433e-02, -7.4094100855e-03,  7.6637871563e-02,  4.9472492188e-02, -9.9658839405e-02,  1.4367140830e-01, -1.2646974064e-02,  4.2657222599e-02, 
	 2.1921690553e-02,  4.3864149600e-02,  3.4985687584e-02, -6.5167881548e-02,  7.3749579489e-02, -9.4015404582e-02, -1.1412708461e-01, -2.5559308007e-02,  1.4689265518e-03,  5.8420789428e-03, 
	 1.0148632526e-01, -3.4528277814e-02, -7.5320981443e-02,  3.0831649899e-02, -5.7462458499e-03,  7.8910887241e-03, -5.3543064743e-02,  5.2288970910e-03,  9.5720075071e-02,  4.8437371850e-02, 
	-3.5715788603e-02,  1.0081768781e-01,  1.2738183141e-01,  1.0853583366e-01, -8.1073075533e-02, -1.1002335697e-01,  9.0979345143e-02,  6.0491450131e-02, -8.1529580057e-02, -1.2858487666e-01, 
	-6.1305586249e-02,  3.7430800498e-02,  1.9667999819e-02,  6.3539184630e-02, -8.9395292103e-02,  2.4780011736e-03, -3.0383562669e-02, -7.6880648732e-02, -3.6384467036e-02,  1.1775257438e-01, 
	 8.6172513664e-02,  5.9045094997e-02, -1.8113788217e-02,  7.9510666430e-02, -8.2627637312e-03,  5.8260630816e-02,  7.0958517492e-02,  2.8642367572e-02,  5.4106065072e-03, -3.5738311708e-02, 
	-3.8119338453e-02, -1.2945520878e-01,  1.6030438244e-02, -5.3636085242e-02,  6.4399011433e-02, -3.9545971900e-02,  7.8280799091e-02, -1.2452454120e-01, -6.3804760575e-02,  8.9873254299e-02, 
	 6.2921874225e-02,  8.3467699587e-03,  9.3092873693e-02,  1.0604159534e-01,  4.6781785786e-03,  6.9825716317e-02, -7.1486972272e-02, -2.7594506741e-02, -1.0100583732e-01, -2.0287711173e-02, 
	 2.4507751223e-03,  2.8709353879e-02, -7.3129363358e-02, -3.8406804204e-02,  9.6729882061e-02, -4.5695453882e-03,  7.4164994061e-02,  8.3067901433e-02,  7.6696611941e-02, -9.7251437604e-02, 
	-8.8001089171e-03, -1.1338551342e-01,  9.1021366417e-02, -9.9212341011e-02, -1.1579126120e-01,  1.1000600457e-01, -1.1009800434e-01, -5.6361347437e-02,  1.2627288699e-01, -9.6784032881e-02, 
	 1.0201665759e-01, -6.2287963927e-02,  5.1912356168e-02,  2.5471383706e-02, -2.1895326674e-02,  1.0807048529e-02,  2.7991233394e-02,  9.6891812980e-02,  6.9177322090e-02, -1.6945060343e-02, 
	 4.4801745564e-02, -9.6607953310e-02, -1.1506458744e-02,  9.1724701226e-02, -1.1370909959e-01, -5.0966903567e-02,  5.8297589421e-02,  1.1868450046e-01, -7.7947974205e-02, -1.4507664368e-02, 
	-2.4877307937e-02,  3.6799836904e-02,  2.0512819290e-02, -1.0254491866e-01, -1.0619267076e-01,  3.3834725618e-02, -1.1623656750e-01, -1.3537310064e-01,  2.8188334778e-02, -1.3748465478e-01, 
	-1.4513105154e-01, -4.6492923051e-02, -3.4250158817e-02, -7.4382670224e-02,  6.7906506360e-02,  8.7918236852e-02,  1.0240028054e-01, -8.3104565740e-02, -4.3546434492e-02,  1.0905280709e-01, 
	-2.9878763016e-03,  2.3266315460e-02, -6.7869961262e-02, -4.9905143678e-02,  7.2511382401e-02, -1.1523760110e-01,  9.7015604377e-02,  9.3295358121e-02, -3.5218717530e-03, -6.7953385413e-02, 
	 8.7351925671e-02,  5.2425988019e-02, -6.4977720380e-02, -1.0615549982e-01,  1.0062471032e-01,  6.6442638636e-02,  2.1545442287e-03, -7.7758245170e-02,  1.2847636640e-01,  1.1403420568e-01, 
	-1.3776133955e-01, -4.5441526920e-02, -3.2732404768e-02, -1.3722893596e-01,  5.6502316147e-02, -1.2462210655e-01, -1.2903338671e-01, -1.3668416440e-01, -1.1563180946e-02,  1.1844272912e-01, 
	 3.4778773785e-02,  5.3546912968e-02, -4.9276310951e-02, -1.0390987247e-01,  5.7282783091e-02,  2.5943077635e-03,  1.2786132097e-01,  3.5889379680e-02, -2.2507777438e-02, -4.2206671089e-02, 
	-6.2175095081e-02,  2.3945748806e-02,  9.8883047700e-02,  4.0367737412e-02,  1.0010413080e-01, -6.8452046253e-03,  8.1495836377e-02, -1.0963074118e-01,  2.2168206051e-02, -4.7767348588e-02, 
	 3.4412644804e-02,  4.8930410296e-02,  2.1190918982e-02, -1.1440668255e-01, -1.1694478989e-01, -1.3183206320e-01, -1.0752059519e-01,  8.2859836519e-02,  1.2859147787e-01, -4.2966004461e-02, 
	 8.8546372950e-02,  3.5091940314e-02,  1.4429790899e-03,  3.1199555844e-02,  5.4279401898e-02, -6.4739413559e-02,  8.7164476514e-02, -6.1168715358e-02, -2.4447038770e-02,  1.0648814589e-01, 
	 1.2816293538e-01, -2.1841833368e-02,  1.9285747781e-02, -5.0803281367e-02,  5.6078538299e-02,  2.0031418535e-04,  3.5891022533e-02,  3.0700920615e-04,  8.6295090616e-02,  1.2397331744e-01, 
	-1.1497048289e-01, -6.7165684886e-03,  4.6613547951e-02, -2.8044994920e-02, -9.9200934172e-02, -1.3093288243e-01, -6.2223408371e-02,  4.7766942531e-02, -9.0208100155e-03,  3.6174457520e-02, 
	-1.3462203741e-01, -1.3946065307e-01,  1.7909836024e-02, -3.9281189442e-02, -3.6603666842e-02,  3.7279259413e-02, -7.7046364546e-02, -1.1818376929e-01,  7.6066732407e-02,  3.3557102084e-02, 
	-3.8379304111e-02, -1.4641605318e-01,  4.3893493712e-02,  6.1407253146e-02,  1.0471329093e-01, -1.3461586833e-01,  2.0857814699e-02, -1.1281912029e-01,  6.5818466246e-02,  1.0036621988e-01, 
	 6.2720187008e-02, -9.1344334185e-02,  7.9176872969e-02,  6.9320000708e-02,  1.5423058532e-02, -4.9992669374e-02,  8.0486640334e-02,  7.3878444731e-02,  9.2549905181e-02,  4.6496145427e-02, 
	 3.4701500088e-02,  5.9576481581e-02,  3.0538700521e-02,  1.7572481185e-02,  2.9740398750e-02,  2.2091617808e-02,  9.8875083029e-02, -8.7125889957e-02, -1.1236380786e-01, -1.4777266979e-01, 
	-4.6958517283e-02,  1.0390646011e-01, -1.2138398737e-01,  7.5951851904e-02, -6.4979687333e-02,  6.8023338914e-02, -8.6792856455e-02,  7.0999994874e-02,  4.9022071064e-02,  1.0473041236e-01, 
	 4.0440175682e-02,  1.1727786064e-01, -9.8336108029e-02, -8.6167894304e-02,  6.3283450902e-02,  1.4878838323e-02, -2.2139273584e-02, -3.0613804236e-02, -4.9836039543e-02,  2.0871262997e-02, 
	 3.7931084633e-02, -2.6653654873e-02,  7.1407482028e-02,  2.9217377305e-02,  9.4758465886e-02, -3.2210484147e-02, -2.3873362690e-02, -9.5931850374e-02, -1.5041463077e-01, -1.2054351717e-01, 
	 1.7844451591e-02, -5.8364037424e-02,  8.9027404785e-02, -9.2028707266e-02, -9.3226708472e-02,  7.4911870062e-02, -6.4893908799e-02, -1.1061187834e-01, -2.2379962727e-02,  5.8760311455e-02, 
	-1.4227521420e-01, -1.4709171839e-02, -7.7130623162e-02,  6.2788166106e-02, -3.1522966456e-03, -1.4388990588e-02,  3.2300449908e-02, -4.9727619626e-03, -1.0612773895e-01,  6.5852530301e-02, 
	 9.6152722836e-02, -4.0437109768e-02,  9.9393881857e-02, -9.0061590075e-02,  9.4840399921e-02,  4.9663126469e-02, -6.1656229198e-02, -1.1107713729e-01,  5.4038558155e-02, -1.2180284597e-02, 
	 9.1377682984e-02,  1.3278716803e-01,  4.6138618141e-02, -1.0594019294e-01,  6.1889547855e-02,  6.7271113396e-02, -9.6787191927e-02, -1.0541658103e-01,  8.0601051450e-02, -3.8190749474e-03, 
	-1.2084659934e-01,  8.7137773633e-02,  3.6995511502e-02, -1.0271195322e-01, -2.0512642339e-02,  3.9918241091e-03,  1.5144200064e-02,  6.1520993710e-02, -9.1883607209e-02,  9.5459043980e-02, 
	-1.8618766218e-02, -1.0957577080e-01,  8.3367019892e-02,  4.6742670238e-02, -4.5075811446e-02,  4.5409362763e-02, -7.0700481534e-02, -6.5020397305e-02, -1.3258105516e-01,  6.6046856344e-02, 
	-9.8960287869e-02, -5.1338996738e-02, -1.2177066505e-01, -5.0429821014e-02, -1.5484955162e-02,  9.7407791764e-03,  9.4349175692e-02,  1.1451569200e-01, -8.6246334016e-02, -1.0400571674e-01, 
	 9.4146542251e-02, -1.2491372973e-01, -1.4204199612e-01, -5.3008113056e-02, -1.1793340743e-01,  2.2251484916e-02, -1.3848043047e-02,  6.8880826235e-02, -1.1226277053e-01, -8.1791490316e-02, 
	-5.5384401232e-02,  5.1618337631e-02, -1.1798779666e-01,  8.7203279138e-02, -7.3694281280e-02, -1.1157948524e-01, -1.1867894232e-01,  6.6800452769e-02, -1.1808171123e-01, -2.9039390385e-02, 
	-1.2132200599e-01,  5.5798038840e-02, -1.4097850025e-01, -1.2399092317e-01,  5.0598427653e-02, -3.6416135728e-02, -6.2418165617e-03, -1.2311527878e-01,  5.1399797201e-02, -1.0197710246e-01, 
	 4.6310689300e-02,  3.8034237921e-02,  9.4137512147e-02,  4.1061816737e-03, -9.0253762901e-02,  3.7677597255e-02,  6.6590629518e-02,  8.0592319369e-02,  6.2671728432e-02,  3.1931053847e-02, 
	-1.0527267307e-01,  1.9015641883e-02,  5.0727281719e-02,  1.4896194637e-01, -5.0197616220e-02,  1.4299225807e-01, -4.2907372117e-02,  1.6690582037e-01, -2.6930334046e-02, -6.1564765871e-02, 
	 5.1213219762e-02,  8.2193151116e-02,  1.8374247476e-02, -6.2676005065e-02, -6.5700761974e-02,  8.2302421331e-02, -3.6771773011e-04,  3.2028701156e-02, -8.8124215603e-02,  1.2846684456e-01, 
};

const float layer_4_conv2d_bias[UNET_PAR_4_CONV2D_OUT_FILTER] = {
	-4.8472767230e-04, -1.0376652790e-04,  1.8073993488e-05,  1.4163687592e-04,  6.0136593675e-05,  3.5155990627e-03, -2.5713056675e-04, -3.2777307206e-04, -4.9382424913e-03, -8.2877455279e-03, 
	-6.9754803553e-03, -1.5801933478e-04,  4.9331858754e-03,  1.4566886239e-04,  1.0067482945e-03, -2.3618468549e-04,  4.7748241923e-04, -3.1338504050e-03,  2.1986312640e-04, -6.0156886320e-05, 
};


#endif
