#ifndef PARAMS_CONV2D_1_H
#define PARAMS_CONV2D_1_H
#include "params.h"

const float layer_1_conv2d_weight[UNET_PAR_1_CONV2D_KERNEL_Y*UNET_PAR_1_CONV2D_KERNEL_X*UNET_PAR_1_CONV2D_IN_FILTER*UNET_PAR_1_CONV2D_OUT_FILTER] = {
	-1.2497839332e-01, -1.4893093705e-01,  1.2841702998e-01,  8.0773413181e-02, -1.4982292056e-01,  6.4232386649e-02,  4.1122544557e-02, -2.1169485524e-02, -4.1060268879e-02, -6.5587267280e-02, 
	 7.0766597986e-02, -1.7309641838e-01,  3.6916542798e-02, -1.1336440593e-01,  1.7111919820e-02,  1.1969143897e-01, -6.5503023565e-02, -1.6147780418e-01,  2.5503819808e-02,  1.1419466138e-01, 
	 6.8702600896e-02,  1.2009134144e-01, -5.3668547422e-02,  8.3356790245e-02,  1.4462319016e-01, -1.8491545692e-02, -1.8394637853e-02,  1.5807424486e-01, -1.2375929207e-01,  2.9248496518e-02, 
	 3.8526412100e-02, -5.2536144853e-02, -1.0229489952e-01, -7.9119816422e-02, -1.1855295300e-01, -2.5847505312e-03, -1.4895817637e-01, -4.9173127860e-02, -1.2709690630e-01,  1.0555858165e-01, 
	 7.0116696879e-03,  1.0608973354e-01, -1.5102273226e-01, -1.8975965679e-01, -3.7203386426e-02, -6.0943037271e-02, -6.5208680928e-02,  8.3087794483e-02,  1.0809280723e-01,  1.0527841002e-01, 
	 3.4722000360e-02, -6.0898087919e-02,  4.5141618699e-02,  8.1656210124e-02,  1.2354443967e-01,  5.6890431792e-02,  8.3606645465e-02, -1.7448887229e-01,  1.1539572151e-03, -7.6785139740e-02, 
	-1.7189611495e-01, -1.3663469255e-01,  7.7762000263e-02, -1.7760133743e-01, -8.7548330426e-02,  4.4475313276e-02, -7.6713465154e-02, -6.8262219429e-02,  2.7713099495e-02, -1.0277970880e-01, 
	-1.1001618207e-01, -1.5747003257e-02,  9.4499319792e-02,  1.4691494405e-01, -2.9348788783e-02,  2.1960930899e-02,  6.5252318978e-02,  4.3904956430e-02, -1.4584124088e-01, -6.4638838172e-02, 
	-6.9927133620e-02, -1.4992758632e-01,  1.3665707409e-01,  1.1080531031e-01, -8.1445708871e-02, -1.0315661877e-01,  1.3638229668e-01, -1.1618791521e-01,  9.3764312565e-02,  1.2006289512e-01, 
	 1.6716146469e-01,  2.9601447284e-02,  4.1934214532e-02, -6.0581933707e-02, -7.6877489686e-02, -1.0581260175e-01,  1.7682258040e-02, -6.3655316830e-02,  8.5710911662e-05, -8.0672442913e-02, 
	 1.8244752288e-01,  7.2898350656e-02,  1.0904949158e-01,  1.0517179221e-01, -1.3537488878e-01, -1.1478459835e-01, -7.9974934459e-02, -7.4086412787e-02,  1.0754645616e-01,  6.5339170396e-02, 
	 1.1789397895e-01, -1.3175858557e-01, -1.2454803288e-01, -4.2603313923e-03,  5.4369073361e-02,  1.1746446788e-01, -1.4465418458e-01, -2.5144660845e-02,  1.3565785252e-02,  3.9784263819e-02, 
	 6.9893203676e-02, -6.1961136758e-02,  4.2538549751e-02, -5.4604653269e-02, -1.0893672705e-01,  6.6295392811e-02, -6.2527924776e-02,  8.6401188746e-03,  6.4501889050e-02, -4.9443446100e-02, 
	-6.5196990967e-02,  1.4003850520e-01, -1.0256759822e-02, -8.9597180486e-02,  5.7286261581e-03, -1.4231230319e-01,  9.9684290588e-02,  1.0149648041e-01,  3.8757018745e-02, -6.4914941788e-02, 
	 4.4524043798e-02, -1.0180514306e-01, -1.0051356256e-01, -2.1112402901e-02,  1.5921302140e-01, -1.4608079195e-01, -2.0209068898e-03, -2.1944988519e-02,  1.1040904373e-01, -4.9379210919e-02, 
	-4.3369133025e-02,  9.7741127014e-02, -1.0641545057e-01, -2.1999459714e-02,  1.1225001514e-01, -1.4627601206e-01, -6.6922619939e-02,  9.2477679253e-02,  1.1919710785e-01, -4.8004884273e-02, 
	-1.0368921608e-01, -1.1081480980e-01,  1.8463471532e-01,  1.7755160807e-03, -1.2679412961e-01,  1.1779378355e-01,  1.3009148836e-01,  1.3950210810e-01, -7.5922701508e-03, -1.3904397190e-01, 
	-7.6692268252e-02,  1.0088756680e-01,  1.6655501723e-01,  8.8700326160e-03,  7.8758284450e-02, -6.1825357378e-02, -5.1015328616e-02,  1.6660583019e-01,  1.4523559809e-01, -1.2987759709e-01, 
	-7.9016074538e-02, -1.7070783302e-02,  1.1653238535e-01,  1.2686739862e-01, -1.1515355669e-02, -8.2699641585e-02,  2.3849464953e-02,  8.5076671094e-03, -4.8615384847e-02, -8.0117389560e-02, 
	 9.5099776983e-02, -1.0023102164e-01,  1.2192492932e-01, -8.3673357964e-02, -1.6657270491e-02, -6.0455728322e-02,  8.1283859909e-02,  9.4277270138e-02,  1.0644081235e-01, -8.4673926234e-02, 
	-2.9063314199e-02, -9.8056524992e-02,  9.0472280979e-02,  1.4945665002e-01,  1.6291350126e-01,  1.5568590164e-01,  1.3572934270e-01, -3.9977587759e-02,  1.7394223809e-01, -3.2006274909e-02, 
	-4.3516285717e-02,  6.2654428184e-02,  3.6600120366e-03,  1.8118637800e-01, -9.8732151091e-02,  9.4477549195e-02, -1.3260978460e-01, -7.1447603405e-02, -1.5932221140e-04,  9.6927873790e-02, 
	 7.5414441526e-02, -1.3469275832e-01,  9.3429088593e-02,  1.6672329511e-03,  1.4258159697e-01, -3.3181648701e-02, -1.9393706322e-01, -6.1000324786e-03, -7.6679348946e-02,  1.2677319348e-01, 
	-1.7143411562e-02,  1.4636674523e-01, -1.1406475306e-01, -1.3179458678e-01,  5.0734721124e-02, -5.1044311374e-02, -1.8784497678e-01, -2.8120955452e-02,  4.8738747835e-02,  6.1702065170e-02, 
	-9.7266279161e-02, -4.7259453684e-02,  1.2672880292e-01, -3.7351671606e-02, -1.8525840342e-01, -7.6917409897e-02, -4.5129474252e-02, -9.2140011489e-02, -2.4226486683e-02,  1.3594454504e-04, 
	-1.3445742428e-01,  2.8026608750e-02, -3.3972755075e-02, -5.6715268642e-02, -9.6872538328e-02,  1.0935823619e-01, -1.2367910892e-01,  9.7263745964e-02, -1.7419774085e-02,  4.4843118638e-02, 
	 1.2571623921e-01,  6.4786829054e-02, -5.5053547025e-02, -1.2286578305e-02, -1.0382116586e-01,  2.8961751610e-02,  1.5787327290e-01,  1.9586442038e-02, -4.5227210969e-02, -1.9800409675e-02, 
	 1.7874255776e-01, -1.2689343095e-01, -1.2567815185e-01, -7.5015740003e-04, -1.2430870906e-02, -1.5548120439e-01,  2.1919121966e-02,  2.5973262265e-02,  8.0654971302e-02,  1.2232910097e-01, 
	 6.7325226963e-02, -1.0312111676e-01, -1.2483360618e-01, -2.1991394460e-02, -1.0638143122e-01, -1.4246538281e-01, -3.8234770298e-02,  4.0913414210e-02, -2.0055215806e-02, -8.5242234170e-02, 
	 6.6911671311e-03,  1.0409325361e-01, -1.2941196561e-02, -5.8324385434e-02, -1.2279007584e-01, -6.6561155021e-02, -1.4017370343e-01, -4.6861466020e-02,  1.8378266692e-01,  9.8772495985e-02, 
	-9.1525875032e-02,  9.1705985367e-02,  6.3226721250e-03, -5.2327964455e-02, -1.3738508523e-01,  6.7168548703e-02,  1.0440267622e-01, -4.5348040760e-02,  1.4285828918e-02,  1.6400097311e-01, 
	-5.6190345436e-02, -1.3645306230e-01,  1.2298868597e-01, -1.4353317022e-01, -1.0122317821e-01,  1.1359732598e-01, -2.6285275817e-02,  5.1406323910e-02,  8.4937252104e-02, -4.8533275723e-02, 
	 1.2077782303e-01,  1.1490816623e-01,  1.0078182071e-01,  1.6186791658e-01,  2.2454909980e-02,  1.7815361917e-01, -5.4692797363e-02, -6.7379541695e-02, -2.7211653069e-02, -1.3703618944e-01, 
	-8.5233904421e-02,  7.1900911629e-02, -9.2979567125e-03,  4.4514227659e-02,  8.5653215647e-02,  2.4110099301e-02,  2.3997481912e-03, -8.2368761301e-02, -7.4043229222e-02,  1.3879846036e-01, 
	 9.1356828809e-02, -1.1176063865e-01,  1.8218706548e-01, -9.7812384367e-02, -8.0817453563e-03, -7.9684667289e-03,  2.1545318887e-02,  3.5210009664e-03, -1.3479035348e-02,  2.0046373829e-02, 
	-4.7038003802e-02, -9.0757869184e-02,  3.2491419464e-02, -1.2372492254e-01, -1.1791644990e-01,  6.6873855889e-02,  6.5844312310e-02,  1.5868626535e-01,  3.7196882069e-02,  3.4491028637e-02, 
	-7.7922358178e-03,  1.1935069412e-01,  5.7954429649e-03, -8.5229992867e-02, -1.1441554129e-01,  1.2805500627e-01, -3.9636693895e-02,  1.2168514729e-01, -1.2148886174e-01, -1.3626271486e-01, 
	-7.3757007718e-02,  4.0131736547e-02, -1.2779307365e-01, -1.5442763269e-01, -5.2518248558e-02,  2.3279840127e-02,  3.0600426253e-03, -6.5481960773e-02, -9.0988419950e-02,  1.3790021650e-02, 
	-1.7756058276e-01, -1.1247781105e-02, -5.6595165282e-02,  8.9378230274e-02,  5.6992091238e-02, -1.0227673501e-01,  5.3768772632e-03, -1.8602336943e-01, -1.5647293627e-01, -1.7505699769e-02, 
	-1.0947685689e-01, -5.1843937486e-02, -1.6164913774e-01,  7.0598013699e-02, -6.3717938960e-02,  3.0145656783e-03, -1.2120775133e-01, -1.4850255847e-01,  9.7566097975e-02,  7.4496832676e-03, 
	-9.5298908651e-02, -1.8452204764e-02, -5.2718918771e-02, -5.2278660238e-02,  8.5744932294e-02,  6.2313999981e-02, -1.6336065531e-01, -1.3064204156e-01,  1.0349360853e-01,  3.2454557717e-02, 
	 4.8124343157e-02, -9.9820205942e-03, -1.9620598760e-03,  1.0120316595e-01, -1.3962236047e-01,  1.2215927709e-03, -4.2302388698e-02, -7.9932905734e-02,  1.1072150618e-01, -1.7330321670e-01, 
	 5.9174377471e-02,  5.6877555326e-03, -5.0877532922e-03,  1.3337886333e-01, -5.2054364234e-02, -6.9814273156e-03, -1.1602814496e-01, -1.1285457015e-01, -1.7387028039e-01,  1.4389020205e-01, 
	 4.4690765440e-02, -1.2695090845e-02, -5.2407570183e-02,  1.3018101454e-01,  1.3505794108e-01,  2.2232215852e-02, -9.1030932963e-02,  6.4472496510e-02, -6.1363507994e-03, -1.1651048809e-01, 
	 2.6468330994e-02, -4.0365684777e-02,  4.3640140444e-02, -1.5045075119e-01,  7.8798770905e-02, -1.5716522932e-01, -1.2952814996e-01,  6.3210070133e-02, -1.4880309999e-01, -6.3280887902e-02, 
	 9.0508483350e-02, -2.2536946461e-02, -1.5809218585e-01, -1.1055432260e-01, -2.9505141079e-02,  8.7398067117e-02, -2.0869631320e-02,  8.1673014211e-04,  1.3302846253e-01, -1.0948590934e-01, 
	-6.1290178448e-02, -1.3147008605e-02,  6.5352909267e-02,  4.1800341569e-03, -7.7504426241e-02, -1.0127453133e-02,  1.0068705678e-01,  3.6270577461e-02, -9.5940567553e-02, -1.0639232397e-01, 
	-1.4781950414e-01, -1.2154979259e-01,  1.4956317842e-01,  1.3755850494e-01,  7.6051764190e-02, -2.6249596849e-02,  7.6749883592e-02, -5.4342187941e-02, -4.5981600881e-02, -7.6261349022e-02, 
	-1.5488785505e-01,  1.2256860733e-01, -6.1207834631e-02,  1.3425067067e-02, -6.8726606667e-02, -7.7850744128e-02, -1.7476861179e-01, -4.0710449219e-02, -2.7827506885e-02,  4.3166368268e-03, 
	 1.6207301989e-02, -2.9573988169e-02, -9.5693722367e-02, -4.3050020933e-02, -7.7645383775e-02,  1.3121873140e-01,  1.0604302399e-02,  3.8334138691e-02, -4.7588936985e-02,  1.0382680222e-02, 
	 1.4370639622e-01,  1.4600825310e-01, -1.0313965380e-01,  1.2003996223e-01,  9.8828911781e-02, -8.7858386338e-02,  4.6521119773e-02, -1.2781794369e-01,  3.7584427744e-02, -3.9386291057e-02, 
	-5.7963509113e-02, -7.6867617667e-02, -6.9830685854e-02,  7.9882688820e-02, -1.0414832830e-01, -6.9436021149e-02,  2.9294416308e-02,  7.0947475731e-02,  1.2646798790e-01,  3.1057680026e-02, 
	-7.8088343143e-02,  2.8511146083e-02,  4.9969457090e-02,  2.5525372475e-02, -1.0735230520e-02,  1.5536983311e-01,  9.2438004911e-02,  3.5401728004e-02, -8.4119308740e-03,  1.1267549545e-01, 
	 4.3185062706e-02, -1.5783984214e-02, -3.6500480026e-02,  1.6433288157e-01, -1.9597619772e-02,  3.4956128802e-03,  2.6628870517e-02, -5.4406438023e-02,  3.8032256067e-02, -9.5697790384e-02, 
	 5.4191831499e-02, -1.5801425278e-01, -8.8269993663e-02, -1.1997529864e-01,  4.5496158302e-02,  7.7576324344e-02,  1.1875165254e-01,  7.4766471982e-02, -7.3930211365e-02, -3.3961433917e-02, 
	-2.8782567009e-02, -1.1212433130e-01,  9.4744212925e-02,  8.2451239228e-02,  1.4216414094e-01, -7.6619155705e-02,  1.4357152395e-04, -1.2407605350e-01, -1.4355055057e-02, -5.5142320693e-02, 
	 8.6524203420e-02, -1.2928374112e-01, -5.6509874761e-02, -2.9420239851e-02, -9.4078518450e-02,  1.4585477114e-01, -9.0348897502e-03, -1.0863490403e-01, -8.2667931914e-02, -7.2556002997e-03, 
	 1.2808310986e-01, -8.1446103752e-02, -1.2054377049e-01, -2.1591084078e-02, -1.3642215729e-01, -1.4006343484e-01, -1.9277501106e-01, -1.0420194268e-01,  4.9597941339e-02,  5.6324318051e-02, 
	-4.5539550483e-02, -1.2531046569e-01,  6.4388789237e-02, -1.0531444103e-01, -2.6944747195e-02,  1.2388508767e-01,  1.8974330276e-02, -1.8987897038e-01, -1.4209549874e-02,  1.5624009073e-01, 
	-1.9232831895e-02, -1.6236643493e-01, -1.1473698914e-01, -7.9710185528e-02, -2.6774927974e-02,  6.6647604108e-02,  1.3721561991e-02, -1.0502389818e-01, -1.8038672209e-01, -7.5608134270e-02, 
	 1.9384795800e-02, -1.5768232942e-01,  4.5456208289e-02, -1.5645423532e-01, -1.9132955000e-02,  5.5653948337e-02,  1.3890314102e-01, -6.9655696861e-03, -1.7358078063e-01,  9.7244894132e-03, 
	 7.9066632316e-03, -3.1974531710e-02,  1.1801511794e-01, -4.8976961523e-02, -1.5855224431e-01,  1.1918316782e-01, -1.8292936683e-01, -3.1787429005e-02,  1.3081802428e-01, -3.6420639604e-02, 
	 1.8123010173e-02, -1.8873779476e-01, -2.5753650814e-02, -1.9908173382e-01, -1.1153615266e-01,  6.4888820052e-02,  1.0759870522e-02, -2.2678786889e-02,  4.6045482159e-02,  1.2649573386e-01, 
	 3.8917943835e-02, -1.2733298540e-01, -4.0769428015e-02, -1.0370146483e-01, -1.0014979541e-01,  1.0583661497e-01,  3.1287796795e-02,  1.0549762100e-01, -7.5038857758e-03, -9.0097106993e-02, 
	 1.5580832958e-01, -4.2303003371e-02,  1.6466565430e-01, -7.3170669377e-02,  7.2552487254e-02,  1.2085711211e-01,  1.3312107325e-01, -1.0374320298e-01,  4.3255414814e-02,  4.6642955393e-02, 
	-7.7990397811e-02,  1.1692593992e-01, -1.1340380460e-01,  3.9256934077e-02, -3.7087716162e-02,  1.3118205965e-01,  1.6309572384e-02, -1.2659452856e-01,  1.6129119694e-01,  6.7721858621e-02, 
	 1.6151271760e-01,  1.5978555381e-01,  1.2617731094e-01,  1.3879939914e-01,  1.6342808306e-01,  1.3906222582e-01,  1.2676456571e-01,  9.2412821949e-02, -9.6482865512e-02, -2.5555443019e-02, 
	 3.3561851829e-02, -9.1305047274e-02, -3.4679178149e-02, -5.0722390413e-02, -4.2154479772e-02, -3.9135299623e-02, -3.8228280842e-02,  3.6029573530e-02,  8.5467986763e-02, -1.8236080185e-02, 
	-7.2499923408e-02,  3.7300039083e-02, -1.6728001833e-01,  6.0363940895e-02,  5.3623151034e-03, -1.6361205280e-01, -2.1073194221e-02,  1.3432864845e-01, -6.1619989574e-02, -1.4068734646e-01, 
	-6.7918978631e-02,  9.5809541643e-02,  4.0215644985e-02,  1.1318309605e-01, -9.3703307211e-02,  9.8370365798e-02, -1.0258220136e-01, -8.0728471279e-02, -7.6820969582e-02, -1.0892667621e-01, 
	-1.0562307388e-01, -1.3375738263e-01, -1.3229727745e-01, -1.2325665355e-01,  3.9933305234e-03,  5.4327283055e-02, -1.9358394668e-02,  5.6593533605e-02, -1.4450469054e-02, -1.3233355246e-02, 
	-8.1788413227e-02,  1.1271116883e-01, -5.6780550629e-02,  2.9132103547e-02,  6.2724664807e-02, -1.7127227783e-01,  1.1215876043e-01, -2.5565315038e-02,  2.2496812046e-02, -1.3741368055e-01, 
	-2.9037503526e-02,  2.1406749263e-02, -1.0940777510e-01, -3.0506130308e-02, -9.6007928252e-02, -8.1603631377e-02,  1.1494483799e-01,  1.0192759335e-01,  2.0041318610e-02, -5.7346891612e-02, 
	 1.6041661799e-01,  1.0395088792e-01,  8.9391052723e-02,  2.6575949043e-02,  3.3756503835e-03,  2.6760738343e-02,  3.0757779256e-02,  5.7727430016e-02, -4.0406577289e-02, -4.7141145915e-02, 
	 1.1156340688e-01,  5.3386841901e-03, -2.5142427534e-02, -1.3754175603e-01,  6.7538574338e-02,  1.1029486358e-01,  2.6444554329e-02, -1.4201481640e-01,  1.1344547570e-01,  1.2170464545e-01, 
	 4.7296639532e-02,  3.5652324557e-02, -2.2301539779e-02,  2.7778651565e-02, -1.0752574541e-02,  9.4817727804e-02,  1.5276202559e-01, -1.0103708506e-01,  2.6543769985e-02, -1.0996202379e-01, 
	-1.5433759987e-01,  6.5248355269e-02,  1.6665883362e-01, -9.8604708910e-02,  1.3210120797e-01, -7.7090658247e-02,  8.9099066099e-04, -8.9683987200e-02, -4.8633046448e-02, -1.2338627130e-01, 
	 9.5132298768e-02, -9.5234975219e-02, -9.1403864324e-02, -1.2796907127e-01, -1.2983137369e-01,  1.3855993748e-01, -4.3317947537e-02,  1.3207817078e-01, -1.4901947975e-01, -1.1476112157e-01, 
	-4.6082369983e-02, -1.2002073973e-01,  3.2542482018e-02, -7.1558825672e-02,  6.4384385943e-02,  1.0995543748e-01,  1.5285880864e-01, -1.9988566637e-01,  1.2739488482e-01,  4.3312050402e-02, 
	-1.6760364175e-02,  2.5703622028e-02, -1.2795983255e-01,  2.0047707483e-02, -2.3502581753e-03,  2.9434211552e-02, -1.5437448025e-01,  7.1017086506e-02, -2.9821725562e-02,  1.2131700665e-01, 
	 4.9112346023e-03, -5.8072850108e-02, -1.3616754115e-01, -1.1512519419e-01,  1.7011822760e-01,  6.9775015116e-02,  1.5750379860e-01, -8.6766511202e-02, -1.8491330743e-01, -1.1080870032e-01, 
	-1.2779298425e-01, -1.0664968193e-01, -2.2922789678e-02,  1.3334873319e-01, -5.6778542697e-02,  8.9267251315e-04, -9.6932239830e-02,  6.9244630635e-02,  1.6026365757e-01, -9.5570743084e-02, 
	 6.4102135599e-02,  8.1776648760e-02,  5.0835870206e-02,  1.8910370767e-02, -1.0233516805e-02,  5.2291706204e-02,  1.4944363385e-02,  4.9408204854e-02,  1.4886255562e-01, -7.8773014247e-02, 
	 5.7730801404e-02,  2.3794466630e-02,  7.4474915862e-02, -6.8992264569e-02, -1.4904524386e-01,  3.0527833849e-02,  6.2446195632e-02,  1.1365459859e-01, -1.2105376273e-01, -1.9486229867e-02, 
	-1.5316273272e-01,  1.3984874822e-02,  1.4388889074e-01, -1.5099307895e-01,  5.5397156626e-02,  1.5713306144e-02,  1.8533717096e-01,  1.3818441890e-02, -2.7812449262e-02,  6.3877433538e-02, 
	 1.7058518529e-01,  1.7208606005e-02, -1.1751913279e-01,  7.0767164230e-02,  1.9749228656e-01,  4.5390058309e-02,  7.6948657632e-02,  1.2178461254e-01,  9.2855453491e-02,  1.1367382854e-01, 
	-1.1940383911e-01, -1.7410863936e-01, -4.8829070292e-03, -9.1354764998e-02, -9.6979038790e-03, -7.7922530472e-02,  1.4303220809e-01, -1.5169334412e-01,  2.6832750067e-02,  3.3226038795e-04, 
	 1.0066156089e-01,  1.9376110286e-02,  1.1303737015e-01, -3.2125096768e-02,  1.1196933687e-01,  5.2936624736e-02, -3.2627593726e-02, -4.4458582997e-02,  8.5057690740e-03,  1.6217800975e-01, 
	 1.0682593286e-01,  2.4347112048e-03, -7.2132446803e-03,  9.9160991609e-02, -3.1589526683e-02,  5.8841828257e-02,  4.8420682549e-02,  2.0202703774e-02,  1.0994780809e-01, -5.2246354520e-02, 
	 6.5892040730e-02,  5.9160795063e-02,  1.6640163958e-02,  1.9785763323e-01,  1.1806325614e-01,  4.5702524483e-02, -8.7566170841e-03, -5.2751288749e-03,  8.1767022610e-02,  9.0946450830e-02, 
};

const float layer_1_conv2d_bias[UNET_PAR_1_CONV2D_OUT_FILTER] = {
	-1.7687465297e-03, -1.1447771452e-02, -8.8969785720e-03, -9.1749876738e-03, -1.0150813032e-03, -2.8116255999e-03, -1.1724251090e-03, -1.5560847241e-03,  3.6783302203e-03,  5.7654548436e-03, 
	-8.9766850579e-05,  6.0857069911e-04,  2.4074581452e-03, -1.6352446750e-02,  1.9562968519e-03, -1.2502749451e-03, -1.1253025150e-03,  1.1417461559e-02,  3.3373537008e-03,  1.4160178835e-03, 
};


#endif
