#ifndef PARAMS_CONV2D_TRANSPOSE_36_H
#define PARAMS_CONV2D_TRANSPOSE_36_H
#include "params.h"

const float layer_36_conv2d_transpose_weight[UNET_PAR_36_CONV2D_TRANSPOSE_KERNEL_Y*UNET_PAR_36_CONV2D_TRANSPOSE_KERNEL_X*UNET_PAR_36_CONV2D_TRANSPOSE_IN_FILTER*UNET_PAR_36_CONV2D_TRANSPOSE_OUT_FILTER] = {
	-4.1076611727e-02, -3.6511510611e-02,  7.1165986359e-02, -4.1061405092e-02,  6.0707110912e-02, -2.6410673745e-03,  6.6200599074e-02, -3.9301741868e-02, -3.6797369830e-03,  3.1525842845e-02, 
	-4.4992923737e-02, -7.1960240602e-02,  7.4105034582e-03, -1.1697217822e-01, -8.7260149419e-02,  2.1657776088e-02,  2.3409374058e-02,  6.0880981386e-02, -4.9229253083e-02, -1.7179533839e-02, 
	-4.1062261909e-02,  1.8789550290e-02, -2.8941459954e-02, -2.2590804845e-02, -2.5889173150e-02, -1.1926844716e-02, -4.8934597522e-02,  3.9738494903e-02,  3.9288233966e-02, -5.8424994349e-02, 
	-8.4666959941e-02, -1.3358421624e-02, -4.9075253308e-02, -1.8560688943e-02,  4.4719241560e-02, -6.4660951495e-02, -4.9671452492e-02,  4.4565510005e-02,  2.2277504206e-02,  6.3109472394e-02, 
	-7.5913682580e-02,  1.2536195107e-02, -5.9186033905e-02, -4.9146566540e-02, -2.6579972357e-02,  1.5799697489e-02,  9.2939231545e-03,  2.5453524664e-02,  4.3488088995e-02,  1.7953982751e-04, 
	 1.0610355064e-02,  4.0548082441e-02, -7.1338959038e-02, -6.3168709166e-03, -5.3781360388e-02,  4.7415629029e-02,  2.3876677733e-03, -6.1102144420e-02, -1.1849071831e-01, -5.8474279940e-02, 
	 2.1448513493e-02, -1.0590161197e-02,  2.7090800926e-02,  2.0791862160e-02, -4.5585196465e-02,  4.2011000216e-02,  2.4393832311e-02,  5.9076167643e-02,  6.8358600140e-02, -4.1564691812e-02, 
	 3.8388080895e-02, -5.4087154567e-02, -9.6164029092e-03, -5.7949598879e-02,  2.3966385052e-02, -7.8714629635e-03,  5.0933357328e-02,  1.4244702645e-02,  3.5738863051e-02,  4.3471977115e-02, 
	-5.5502869189e-02,  1.7970778048e-02,  6.0161765665e-02, -2.3816257715e-02,  5.6031614542e-02,  6.4736671746e-02,  3.3418506384e-02, -1.4373240992e-03,  4.8982687294e-02, -1.2226631865e-02, 
	-4.6360131353e-02,  4.9265079200e-02, -4.9210898578e-02,  4.5974668115e-02,  2.8762951493e-02,  5.0688344985e-02, -9.6308263019e-03, -1.8789881840e-02,  7.4030719697e-02, -4.2535336688e-03, 
	 6.7973911762e-02, -4.6242089011e-03,  6.6370628774e-02,  7.1874864399e-02,  6.9150693715e-02,  5.2527625114e-02, -3.4457892179e-02, -3.4505881369e-02, -9.2602431774e-02,  2.4183917791e-02, 
	-6.3814274967e-02, -2.5664724410e-02, -6.7817218602e-02,  5.2204402164e-03, -5.1879316568e-02, -1.4996412210e-03,  5.7416493073e-03,  3.1052394770e-03,  3.9028716274e-03,  4.9347095191e-03, 
	-5.2229627967e-02, -7.0966102183e-02, -2.1893577650e-03,  4.9804677255e-03, -1.4634521678e-02,  4.9938399345e-02, -1.6398489475e-02, -2.7177214622e-02,  6.3181214035e-02,  3.2067473978e-02, 
	 2.1637756377e-02,  2.9435208067e-02,  3.8945286069e-03,  3.9273280650e-02, -1.8688371405e-02, -5.2732091397e-02, -5.8032441884e-02, -2.7099130675e-02, -4.5471355319e-02, -5.8455359191e-02, 
	 4.0343541652e-02, -6.9315612316e-02, -7.2729200125e-02, -4.0159232914e-02,  3.2887473702e-02,  2.1968437359e-02, -7.5410619378e-02, -3.3344998956e-02, -8.7255679071e-02, -1.1117165908e-02, 
	 5.6239422411e-03,  1.8386334181e-02,  2.9700269923e-02, -5.0755094737e-02, -3.4848360810e-03, -5.5490966886e-02, -1.0246138275e-01, -7.5412797742e-03,  1.9697140902e-02, -1.6708914191e-02, 
	-2.3012535647e-02, -9.3886539340e-02,  6.6913485527e-02,  4.7563295811e-02,  3.6440759897e-02, -4.5805294067e-02,  2.5787141174e-02,  1.0723824613e-02,  4.4261503965e-02, -5.6805521250e-02, 
	 7.0913150907e-02, -2.0479233935e-02, -2.5817293674e-02, -7.8932635486e-02,  7.3325201869e-02,  4.0820706636e-02,  4.4458981603e-02,  2.1936681122e-02, -4.3015044183e-02, -1.4627986588e-02, 
	-5.3207799792e-02, -2.2577337921e-02,  4.3867625296e-02,  1.6660029069e-02, -2.4003643543e-02,  4.4071104378e-02, -6.3115611672e-02, -5.2441004664e-02,  1.9676581025e-02,  4.3964233249e-02, 
	-6.3776709139e-02, -8.6707085371e-02, -1.2464486063e-01, -9.8655827343e-02,  4.8017848283e-02, -5.1726296544e-02, -5.1323380321e-02, -3.6191266030e-02,  9.2034041882e-02,  5.0999842584e-02, 
	 2.9754659161e-02,  9.5894694328e-02,  4.0335655212e-03,  3.9527034387e-03,  2.3945506662e-02, -2.1970666945e-02,  6.9331921637e-02,  4.1917674243e-02, -1.3122665696e-02, -3.4005194902e-02, 
	-2.2287953645e-02,  2.4519136176e-02,  1.3578558341e-02, -1.2274141423e-02, -6.1950851232e-02,  6.4557194710e-02, -2.2110119462e-02, -2.7657397091e-02,  6.3368142582e-04, -5.3811624646e-02, 
	-4.6947613358e-02,  5.6652131025e-04,  2.4957193062e-02, -2.2942351177e-02, -2.3325271904e-03, -2.4210369214e-02,  1.9790716469e-02, -2.0179796964e-02,  3.7919484079e-02,  4.1656751186e-02, 
	-1.0281375609e-02,  4.5008070767e-02,  6.6223613918e-02,  3.3877283335e-02, -4.4451665133e-02,  6.0823436826e-02,  2.4542817846e-02, -2.0464900881e-02, -1.2786509469e-02,  2.4731174926e-04, 
	 4.2530838400e-02,  4.5164514333e-02,  6.2309787609e-03,  8.6918538436e-03,  5.1323562860e-02, -5.1207388751e-03, -3.9174348116e-02,  3.8251783699e-03, -5.5287946016e-02,  5.8071453124e-02, 
	-4.4819638133e-02,  5.2989523858e-02, -1.5523578040e-02, -6.3823521137e-02, -8.4776818752e-02, -5.1145885140e-02,  8.5731351282e-04,  2.6810605777e-04, -1.1755578220e-01, -1.2090333039e-03, 
	-5.0141062587e-02, -5.9157237411e-02,  3.3374605700e-03, -6.7759365775e-03, -3.1533095986e-02,  5.2978578955e-02,  4.0195006877e-02, -6.1580486596e-02,  6.1445441097e-02,  8.2874044776e-02, 
	 2.1801503375e-02, -2.6224324480e-02,  9.4965660537e-05,  2.1802254021e-02,  9.4017170370e-02,  2.4082632735e-02,  4.7710705549e-02, -8.7684154510e-02,  6.8859020248e-03, -1.0198771954e-02, 
	 3.0446941964e-03,  1.8294518813e-02,  7.0438116789e-02, -2.8082368895e-02,  4.5276042074e-02, -5.4197728634e-02,  3.6593079567e-02, -1.9048629329e-02,  3.6483664066e-02,  1.9466985017e-02, 
	 3.5858275369e-03,  3.9930464700e-03, -4.2572941631e-02,  4.2037058622e-02, -5.2450813353e-02, -2.3294465616e-02, -2.4632314220e-02,  8.9817959815e-03, -2.0718591288e-02, -1.5310754068e-02, 
	-1.0451135784e-01, -2.7507450432e-02, -1.2742288411e-02, -9.3050263822e-02,  5.0677496940e-02, -4.4068377465e-02, -6.1426252127e-02, -6.2718302011e-02, -3.9196062833e-02,  8.6070418358e-02, 
	 8.4914155304e-02, -7.2613754310e-03, -4.5013438910e-02,  3.3637393266e-02, -2.4629971012e-02, -2.3323176429e-03, -2.7708946727e-03, -9.7848735750e-02,  7.9973638058e-03,  4.6845667064e-02, 
	-7.1895964444e-02, -3.2944791019e-02, -2.1386653185e-02, -8.5432916880e-02,  5.0246927887e-02, -1.0326349176e-02, -1.0403472930e-02,  3.9230998605e-02,  5.5586982518e-02,  1.5712546185e-02, 
	-1.9192117034e-03,  5.5301249027e-02, -5.8975581080e-02, -1.2337532826e-02, -8.1703945994e-02, -4.0297503583e-03,  3.9860099554e-02, -5.4363355041e-02, -5.7261295617e-02,  3.2000981271e-02, 
	-1.8502027960e-03,  3.8767997175e-02, -8.5006125271e-02,  1.2941496447e-02, -3.7230141461e-02, -6.2514647841e-02, -5.0328444690e-02,  7.2116889060e-02, -5.0320245326e-02,  1.9277470186e-02, 
	 7.7453374863e-02,  2.0466607064e-02,  2.9981125146e-02,  3.8570616394e-02,  5.6259829551e-02,  4.3620979413e-03,  5.0030101091e-02, -5.7590190321e-02,  5.1912281662e-02, -9.2039927840e-03, 
	-1.0395090282e-01,  1.1244241148e-02, -9.8869949579e-03, -6.0607708991e-02, -8.5417270660e-02, -3.2735343557e-03, -7.3975212872e-02,  1.7140422016e-02,  2.5157550350e-02, -2.5360113010e-02, 
	-3.9876580238e-02,  5.8900251985e-02, -1.9505819306e-02, -4.8585146666e-02,  6.6111246124e-03, -4.6733494848e-02,  6.2256678939e-02,  3.2760396600e-02, -4.2927447706e-02,  5.8824919164e-02, 
	 1.5849333256e-02,  4.2575642467e-02, -2.4518202990e-02, -2.9342861846e-02,  2.8706139419e-03,  6.1715405434e-02, -1.6215648502e-02, -1.2767408043e-02, -2.2230012342e-02,  4.0740165859e-03, 
	-4.7626003623e-02, -7.2490774095e-02, -1.2164013088e-01, -6.9275520742e-02,  3.9448872209e-02, -3.2574087381e-02,  1.7803963274e-02, -5.9133589268e-02,  3.8196932524e-02, -5.1969211549e-02, 
	-3.9257451892e-02,  1.9198795781e-02, -5.8284200728e-02,  1.6267897561e-02, -4.5486468822e-02, -2.1395836025e-02, -6.9939449430e-02, -7.2537064552e-02,  2.4521784857e-02,  5.2666313946e-02, 
	 7.5240410864e-02, -7.3717355728e-02,  5.8026473969e-02, -2.1300584078e-02,  2.8061401099e-02, -4.7797620296e-02, -6.1565797776e-02,  6.9171816111e-02,  5.6549604982e-02, -3.5269230604e-02, 
	-6.3233606517e-02,  4.3070234358e-02, -2.8028221801e-02,  5.7536739856e-02,  7.3485404253e-02, -2.2865027189e-02, -5.8047853410e-02,  9.7083169967e-03, -4.7192979604e-02,  5.1967903972e-02, 
	 3.0294438824e-02, -3.6427121609e-02, -1.9202029333e-02,  4.6503763646e-02, -3.8312930614e-02, -5.8401357383e-02, -8.9544139802e-02, -4.4642116874e-02, -1.6603332013e-02, -3.6597694270e-03, 
	 2.3263407871e-02,  3.5805840045e-02, -2.4028066546e-03, -5.6815683842e-02, -1.6222232953e-02, -1.8689487129e-02,  5.3545523435e-02, -4.4564682990e-02,  1.0710327886e-02,  2.1710997447e-02, 
	 8.6017139256e-02,  1.9469339401e-02, -2.8023170307e-02,  8.6529046297e-02,  7.7210001647e-02, -1.2777002528e-02, -7.9392045736e-03,  4.0064122528e-02, -7.0118427277e-02, -3.0813755468e-02, 
	-7.6802074909e-02, -1.2823199853e-02, -2.9098726809e-02,  7.0160835981e-02,  2.3323491216e-02, -1.1576779187e-02, -1.9680786878e-02, -4.1619319469e-02, -5.8882310987e-02, -4.8596099019e-02, 
	 4.4633518904e-02, -1.0434775054e-01,  1.0113571770e-02,  4.8387672752e-02, -5.5766344070e-02, -4.5783735812e-02,  6.1033722013e-02, -3.3367469907e-02, -6.6111296415e-02,  9.1629512608e-03, 
	-9.3618975952e-03,  1.8750805408e-02, -1.9493522123e-02, -4.5151423663e-02,  1.5263385139e-02, -1.0608312674e-02,  6.7350998521e-02, -1.4076288790e-02, -2.4156516418e-02,  6.0628496110e-02, 
	 8.8504426181e-02,  5.7599734515e-02,  5.4197788239e-02,  5.7078361511e-02, -2.7388330549e-02, -3.4056942910e-02,  2.1942891181e-02, -2.1601587534e-02,  6.6629976034e-02,  5.3386326879e-02, 
	-5.3675334901e-02, -2.5106167421e-02,  4.0763478726e-02,  7.7337227762e-02, -5.7889938354e-02, -2.2071741521e-02,  7.6445393264e-02, -2.2994996980e-02, -3.1171347946e-02,  7.3902927339e-02, 
	-1.2255945243e-02, -3.9244234562e-02, -1.9954042509e-02,  1.9879844040e-02,  3.9199121296e-02,  3.6491170526e-02,  6.0227543116e-02,  6.8436227739e-02,  2.3436019197e-02,  8.9647364803e-05, 
	 4.1670229286e-02, -1.4512597583e-02,  7.1385144256e-03,  4.0167246014e-02, -1.7815729603e-02, -1.6095338389e-02, -3.1467255205e-02,  1.4875738882e-02,  2.1483974531e-02, -7.3258787394e-02, 
	 1.7359573394e-02,  8.6958669126e-03,  7.2142638266e-02,  7.2626513429e-03, -1.7325441586e-03, -1.2110107578e-02, -1.6390474048e-03,  1.4469582587e-02, -1.0805642232e-02,  1.2736290693e-02, 
	 5.1026050001e-02,  6.2400419265e-03,  1.4553415589e-02, -5.9676550329e-02, -2.8472181410e-02,  6.4108617604e-02, -2.7287131175e-02, -3.8366172463e-02,  3.8779642433e-02,  5.9838391840e-02, 
	 3.4180057701e-03, -1.1706691235e-02,  4.6001885086e-02, -2.7417242527e-02,  1.2944610789e-02, -1.0170526803e-01, -1.8528243527e-02,  1.8287877901e-04,  7.8661113977e-02,  5.2744247019e-02, 
	 3.5306345671e-02,  7.4203304946e-02,  2.3043751717e-02,  4.5910213143e-02,  2.2436641157e-02, -3.9485865273e-03,  3.8014492020e-04,  3.5242682789e-03, -5.5043883622e-02,  8.7711056694e-03, 
	-8.3007618785e-02, -1.3220037520e-01, -1.0476715118e-01,  4.3945178390e-02,  5.3760681301e-02, -8.3149641752e-02,  4.6713441610e-02,  1.9082283601e-02,  6.2466066331e-02, -1.9833671395e-03, 
	 5.1743835211e-02,  3.2756052911e-02, -6.4168512821e-02, -4.6783827245e-02, -2.9154900461e-02,  6.1012398452e-02, -6.8250820041e-02,  1.7621846928e-04, -1.1086831801e-02,  6.8318016827e-02, 
	-3.1328431796e-03,  5.7240296155e-03,  4.4189546257e-02, -5.5242709816e-02, -1.4366076328e-02,  5.4739367217e-02,  5.8492116630e-02,  4.6330239624e-02,  7.4246935546e-02,  5.0043534487e-02, 
	 4.3059285730e-02, -5.2189856768e-02,  5.5304761976e-02, -1.1104796082e-02,  3.9903721772e-03,  3.3234246075e-02, -1.2260455638e-02,  5.3456962109e-02, -3.6213848740e-02,  3.1628224999e-02, 
	-8.7136663496e-03,  4.3501626700e-02, -4.2366739362e-02, -5.8822005987e-02,  2.2873485461e-02, -8.9138314128e-02, -3.2478149980e-02, -9.3020439148e-02,  4.1354715824e-02,  8.2110073417e-03, 
	-1.7858518288e-02, -3.1492295675e-03,  2.6913279667e-02,  7.0457227528e-02,  8.8948747143e-03,  3.0669802800e-02,  4.1781952605e-03, -3.7688646466e-02, -6.4012438059e-02,  2.0908299834e-02, 
	 5.9770561755e-02, -7.4833318591e-02, -1.4094376937e-02,  8.5681430995e-02, -6.6500641406e-03, -2.9668647796e-02,  3.6455631256e-02, -3.6164123565e-02,  5.7489562780e-02, -7.0627570152e-02, 
	-7.6322129462e-04, -1.7047567293e-02, -6.9805994630e-02,  1.2882813811e-02,  5.3647316992e-02, -3.9767917246e-02,  4.5396044850e-02, -5.1733963192e-03,  3.4072864801e-02, -1.7897434533e-02, 
	-6.3467146829e-03,  3.4685641527e-02,  2.7945572510e-02, -1.2404068373e-02,  5.6213106960e-02, -3.9224874228e-02, -3.9288036525e-02,  1.4537448995e-02, -6.5032631159e-02, -1.0005682707e-01, 
	-6.9597042166e-03,  1.3606876135e-02, -4.9690227956e-02, -2.7463162318e-02,  1.9838796929e-02, -5.2282258868e-02,  2.7541346848e-02,  1.5207343968e-03, -6.5550252795e-02, -8.9812509716e-02, 
	-6.1999384314e-02, -8.2694582641e-02, -7.3148913682e-02,  1.9234681502e-02,  5.5977594107e-02, -8.3551153541e-02, -4.0957223624e-02, -1.2318867259e-02, -7.4770569801e-02, -7.0119254291e-02, 
	-1.8303209916e-02,  2.9364792630e-02, -3.1013770495e-03,  3.6339554936e-03,  1.3823195361e-02, -6.9030091166e-02, -2.3592803627e-03, -4.3568190187e-02,  1.4551336644e-03, -1.9751153886e-02, 
	 4.4329408556e-02, -5.4230276495e-02, -6.3058786094e-02, -4.7704942524e-02, -2.9286958277e-02, -1.5795376152e-02, -1.4449638315e-02,  1.6471317038e-02,  4.6250555664e-02, -4.5785646886e-02, 
	-3.4287165850e-02, -7.5834773481e-02, -4.0205214173e-03,  6.4365044236e-02,  5.3966797888e-02,  2.2088205442e-02,  6.9620445371e-02,  1.9819827750e-02, -5.5912055075e-02,  5.9953369200e-02, 
	-1.2222923338e-02,  2.2329645231e-02, -6.4609259367e-02, -1.1709702201e-02, -7.9501554370e-02, -6.4015805721e-02, -8.1924363971e-02, -1.6217382625e-02, -6.8559080362e-02,  5.1607154310e-02, 
	-2.8299130499e-03, -5.7514719665e-02, -5.3786307573e-02,  5.2036188543e-02, -5.8039672673e-02, -7.1694277227e-02,  1.0361496359e-02, -6.0133237392e-02, -7.6603524387e-02, -8.0665513873e-02, 
	-7.3698528111e-02, -4.5355349779e-02, -4.3295592070e-02, -2.7284160256e-02, -2.0767394453e-03,  4.7603990883e-02,  1.2810409069e-01,  1.1129645258e-01, -3.9914855734e-03, -7.2580748238e-03, 
	 1.5218641609e-02, -4.8592727631e-02, -3.0829025432e-02,  7.7270343900e-03,  1.3115433976e-02,  5.4389659315e-02, -5.9836570174e-02, -4.2292434722e-02, -5.0814030692e-03,  3.6366172135e-02, 
	-1.0342492908e-01, -9.6110247076e-02, -7.5950674713e-02, -5.1880017854e-03, -1.3995208777e-02,  1.8940513954e-02, -2.9329437762e-02,  2.1421376616e-02,  2.3737072945e-02, -6.5484982915e-03, 
	 3.9779715240e-02, -4.2905570008e-03, -1.4970500953e-02,  2.5039609522e-02,  6.2341466546e-02,  9.7811058164e-02,  4.4659513980e-02,  8.7899230421e-03, -9.7600799054e-03, -6.8417251110e-02, 
	-4.8913247883e-03,  4.5229185373e-02,  4.0077943355e-02,  4.2585495859e-02, -2.6545183733e-02, -1.1067871004e-01,  1.3840271160e-02, -1.1310109496e-01, -8.4126636386e-02, -2.8630908579e-02, 
	-4.0376018733e-02, -7.2319127619e-02,  1.0241829790e-02, -2.5770058855e-02, -1.6084097326e-02, -2.2782975808e-02,  4.2827907950e-02, -6.1769325286e-02, -2.8126420453e-02, -5.1704958081e-02, 
	-7.7788218856e-02, -3.0391961336e-02, -7.8961960971e-02,  5.9996854514e-02,  1.9294057041e-02, -4.3729953468e-02,  3.8572575897e-02,  4.3150607497e-02,  5.7988580316e-02,  1.7838429660e-02, 
	 9.7090573981e-03, -2.1218316630e-02, -2.5256346911e-02,  2.9390994459e-02,  4.5956600457e-02, -6.2958970666e-02,  5.1757164299e-02,  6.0003902763e-03,  1.6426337883e-02,  2.6927607134e-02, 
	-2.0314313588e-04,  2.3208808154e-02, -8.6399482097e-04, -2.9723623767e-02,  8.2323007286e-02,  1.4084975235e-02,  4.7852359712e-02,  5.4947141558e-02,  3.1035337597e-03, -1.3099191710e-02, 
	-2.9048534110e-02,  4.5233715326e-02,  1.3417318463e-02, -1.7202127725e-02, -8.7613351643e-02, -8.5955850780e-02, -4.6309515834e-02, -7.0456989110e-02,  6.3079610467e-02,  2.7336521074e-02, 
	-7.2418294847e-02,  2.9343623668e-02,  1.5849636868e-02, -3.7120517343e-02,  2.0466448739e-02, -5.5363368243e-02,  4.0276676416e-02, -6.0640875250e-02, -4.4201571494e-02,  1.8913116306e-02, 
	 8.6067644879e-03,  3.1621735543e-02,  7.8332722187e-03,  1.7970452085e-02, -3.1412798911e-02, -3.6666691303e-02, -6.1973959208e-02, -5.2953682840e-02,  1.6679432243e-02, -7.6091918163e-03, 
	-6.3750661910e-02, -9.1352063464e-04,  6.3051484525e-02,  4.2193684727e-02,  6.3755676150e-02,  5.9159044176e-03,  7.5087711215e-02,  1.4387638308e-02, -2.6972983032e-02, -6.5447397530e-02, 
	 5.0627619028e-02,  6.7427508533e-02, -4.0594406426e-02, -3.7507362664e-02,  1.4685865026e-03,  8.1252316013e-03,  8.4467828274e-03, -9.2554241419e-02,  3.5099364817e-02,  6.4191147685e-02, 
	-9.1598801315e-02, -5.1544383168e-02,  5.1961570978e-02, -3.4271568060e-02, -6.5470501781e-02,  6.2221370637e-02, -3.7011556327e-02,  6.3109868206e-03,  1.3966547325e-02,  6.3646450639e-02, 
	-1.5128864907e-02,  2.5419358164e-02,  9.5354383811e-03,  8.3934523165e-02,  5.8602347970e-02,  2.5704709813e-02, -2.9630500823e-02, -5.1364012063e-02, -4.8337830231e-03,  4.2215947062e-02, 
	 2.2220227867e-02, -7.6355852187e-02,  7.4870646000e-02,  6.4813815057e-02,  4.2677268386e-02, -1.0072728619e-02,  6.9223329425e-02, -6.5325260162e-02,  3.1082140282e-02, -7.1193806827e-02, 
	-5.7740937918e-02,  5.6419983506e-02, -4.1684221476e-02,  2.5299495086e-02, -6.7693889141e-02,  4.4689089060e-02,  6.8220719695e-02,  1.8627593294e-02, -8.4995888174e-03,  1.6015486792e-02, 
	-7.1516573429e-02, -2.9089299962e-02,  1.3848694507e-03, -1.6050571576e-02, -2.6450527832e-02, -3.6820590496e-02, -1.0989849269e-01,  1.9341658801e-02,  6.5213879570e-03, -5.6493092328e-02, 
	-6.6401138902e-02,  3.4263506532e-02, -2.4615354836e-02, -6.0039665550e-02, -4.0879573673e-02, -5.5111974478e-02, -3.2705578953e-02,  4.0884997696e-02, -4.0004854091e-03,  3.2095644623e-02, 
	-4.6888090670e-02, -4.2277362198e-02,  2.0720243454e-02,  5.2259815857e-03,  1.7901526298e-03, -5.8015778661e-02,  2.7726743370e-02,  6.3086658716e-02, -3.1515311450e-02, -1.4044063166e-02, 
	-2.6893675327e-02, -6.0219161212e-02,  6.2024738640e-02,  1.1895410717e-03,  1.8710812554e-02, -2.5138830766e-02,  8.6382211884e-04, -3.3414140344e-02,  6.8309068680e-02, -4.4415727258e-02, 
	-3.4458298236e-02, -6.6208817065e-02, -1.8427947536e-02,  2.5756815448e-02,  3.0052429065e-02, -3.7622068077e-02, -4.0469817817e-02, -5.2292983979e-02, -3.2003011554e-02,  4.5186330681e-04, 
	 2.0797206089e-02,  2.1621581167e-02,  4.0373079479e-02, -5.7207103819e-02,  5.0807259977e-02, -6.3337343745e-03,  3.4805022180e-02, -2.1933536977e-02, -5.7765699923e-02, -3.9595268667e-02, 
	-3.6460701376e-02,  2.9200211167e-02,  1.9917534664e-02, -1.0786388069e-01, -3.6533337086e-02,  2.6561809704e-02,  5.0187252462e-02, -7.2259791195e-02, -1.1085893214e-01, -1.3308309950e-02, 
	-4.8324987292e-02,  2.5399891660e-02,  5.2047640085e-02, -1.7771586776e-02,  5.5810268968e-02,  2.4679632857e-02, -6.7984864116e-02, -1.9251789898e-02, -2.3811491206e-02,  6.4114347100e-02, 
	 8.4852501750e-02,  6.7466549575e-02, -3.4258179367e-02,  1.1021777987e-01,  7.2565525770e-02,  5.5004507303e-02, -5.6049887091e-02,  2.8000472113e-02,  7.9622112215e-02, -1.3491859660e-02, 
	 5.5544149131e-02,  6.5059573390e-03, -3.5740491003e-02, -3.0179622117e-03, -2.2721545771e-02,  7.4828013778e-02, -3.5707294941e-02,  6.8636640906e-02,  9.1128289932e-04,  5.7467114180e-02, 
	 5.6619886309e-02, -8.0079592764e-02, -1.6009131446e-02,  6.5580904484e-02, -3.1341947615e-02,  2.7801336721e-02,  3.5442419350e-02, -2.8548140079e-02, -5.6319944561e-02, -2.1948536858e-02, 
	-8.8451184332e-02, -2.3260021582e-02, -6.6776335239e-02,  2.9233656824e-02, -5.0181288272e-02, -6.6511318088e-02, -7.5300894678e-02, -3.0117822811e-02,  6.5203845501e-02,  8.1650790526e-04, 
	-3.1819477677e-02, -5.1649440080e-02, -1.8419343978e-02,  5.2770618349e-02, -5.6924801320e-02,  5.4510906339e-02,  3.1858883798e-02,  6.6575609148e-02,  6.9386372343e-03,  4.2698066682e-03, 
	-7.1915827692e-02,  4.5209269971e-02, -3.2015614212e-02, -2.1967167035e-02, -7.2965659201e-02,  1.4089738950e-02, -2.9377885163e-02, -7.8679449856e-02,  5.5038534105e-02,  4.6047702432e-02, 
	 7.1494452655e-02,  1.7072811723e-02, -4.9877237529e-02,  3.6225248128e-02,  3.3957824111e-02,  1.4540440403e-02,  6.4172275364e-02,  1.2752127834e-02,  3.3611819148e-02, -4.4960517436e-02, 
	-5.3807143122e-03, -5.9256185777e-03, -6.1932016164e-02,  6.0866293497e-03, -6.0781311244e-02,  3.4368272871e-02, -3.2421000302e-02, -6.0342941433e-02,  7.4776224792e-02,  2.0682094619e-02, 
	-3.8346253335e-02, -6.8075493909e-03, -2.7263043448e-02,  7.0295378566e-02,  7.3044009507e-02, -6.0631234199e-02,  1.4884664677e-02, -2.0671337843e-02,  6.2848790549e-04,  3.4695595503e-02, 
	 2.2795950994e-02, -3.6048468202e-02,  1.3066496700e-02, -1.9422130659e-02,  3.6188263446e-02, -5.4070875049e-02,  5.0325095654e-02, -9.7473435104e-02,  2.8418106958e-02, -6.3103891909e-02, 
	 1.0319508612e-01,  2.6753889397e-02, -5.8418791741e-03,  8.9454695582e-02,  7.0386640728e-02, -8.1814251840e-02,  4.3626967818e-02,  3.0917026103e-02,  4.6565245837e-02, -6.2592767179e-02, 
	-5.9813104570e-02, -1.0476496816e-01, -7.2736568749e-02,  1.2448334135e-02, -8.5636019707e-02, -2.6633298025e-02,  7.7185395639e-04, -4.9213282764e-02, -1.0362330079e-01, -2.2385152057e-02, 
	-7.9481653869e-02, -1.9994633272e-02, -6.7180886865e-02,  1.1668383144e-02, -7.8277379274e-02, -4.3313704431e-02, -7.0246946998e-03, -1.8524417654e-02, -6.5253637731e-02,  5.1100708544e-02, 
	 2.8113845736e-02,  2.0682716742e-02, -1.3256866485e-02,  2.4531368166e-02, -6.0627417406e-04,  4.2938619852e-02,  6.5699227154e-02,  2.2816058248e-02,  6.3975634985e-03,  9.2242565006e-03, 
	-8.1937171519e-02, -1.5729093924e-02, -8.9427821338e-02, -6.6286385059e-02, -4.7746531665e-02, -6.1567869037e-02, -1.1745308526e-02, -2.3120315745e-02,  9.3832299113e-02,  7.2018727660e-02, 
	-6.2732219696e-02,  5.2262820303e-02,  6.4571440220e-02, -6.2021151185e-02,  2.8351286426e-02, -5.5790472776e-02,  3.3730931580e-02,  4.1956428438e-02,  4.7695250250e-03, -5.1683146507e-02, 
	-3.9141595364e-02, -4.0804572403e-02, -2.3679150268e-02,  6.8424373865e-02,  6.6175833344e-02, -8.1302680075e-02, -5.3264331073e-02,  1.1684871279e-03, -5.9028778225e-02,  1.1494737118e-02, 
	-6.1856728047e-02, -3.2433588058e-02,  1.5887454152e-02,  2.4504540488e-02,  1.3698780909e-02,  1.6143357381e-02,  3.4264080226e-02, -6.3255071640e-02,  1.3308425434e-02, -6.8686287850e-03, 
	-2.2438321263e-02,  1.4687724411e-02, -8.4412716329e-02, -5.5014014244e-02,  4.5477129519e-02,  2.9004167765e-02, -3.7957800087e-03, -7.3173925281e-02,  1.2406257913e-02, -7.0729926229e-02, 
	-1.0330473073e-02,  2.9067009687e-02, -3.3734459430e-02, -9.2921471223e-03,  5.2065744996e-02,  8.1570774317e-02,  2.0681669936e-02,  3.2183479518e-02, -3.2087810338e-02,  9.0548492968e-02, 
	 3.0120282900e-03, -4.4278208166e-02, -9.4493046403e-02, -9.0962508693e-03, -1.1708898842e-01, -8.5633412004e-02,  6.8027742207e-02, -7.0065744221e-02,  1.4624167234e-03, -9.5474570990e-03, 
	-7.2900436819e-02, -1.0264682770e-01,  1.1844602413e-02, -5.5185295641e-02, -1.0027450323e-01, -1.8440667540e-02,  1.3752893545e-02,  2.3715931922e-02, -2.3053130135e-02, -3.6150973290e-02, 
	 3.0189616606e-02,  5.6616608053e-02, -3.0159710441e-03, -6.2024056911e-02, -3.4640092403e-02, -8.1884287298e-02, -1.9383747131e-02, -6.4039066434e-02,  1.6065565869e-02, -2.0905949175e-02, 
	 5.8074552566e-02,  3.7917882204e-02, -2.1685821936e-02, -1.5143566765e-02,  5.1615163684e-02, -9.5219790936e-02, -2.6149053127e-02, -2.9779000208e-02, -7.6155394316e-02, -5.7307019830e-02, 
	 4.1989866644e-02,  4.7528985888e-02,  7.4642956257e-02,  5.2995204926e-02,  1.6770277172e-02,  6.1592672020e-02, -7.6142102480e-02, -7.3956353590e-03, -1.8483733758e-02,  4.7964416444e-02, 
	 2.9998635873e-02,  5.8024849743e-02, -5.1245816052e-02,  3.2607965171e-02, -1.6488905996e-02, -2.7784605045e-03,  3.2890054863e-03, -5.7208329439e-02, -4.1666511446e-02, -1.1553806812e-01, 
	-9.4019211829e-02,  5.8785725385e-02, -8.3918897435e-03, -5.0274398178e-02,  4.8772424459e-02, -4.6478051692e-02, -5.6187370792e-03, -8.5346765816e-02,  1.8786055967e-02, -5.5350426584e-02, 
	 2.7114871889e-02,  3.2326277345e-02,  2.4049082771e-02,  5.6540276855e-02,  4.4547572732e-02, -1.2248891406e-02, -6.2998272479e-02, -6.1783894897e-02, -6.7181013525e-02, -3.0441192910e-02, 
	-5.5936619639e-02, -3.8593310863e-02, -5.7641658932e-02, -3.9941322058e-02, -6.1440426856e-02, -2.7301752940e-02, -1.6123916954e-02, -2.0634485409e-02, -5.9210071340e-03,  7.4928817339e-03, 
	 2.1146867424e-02,  3.1660072505e-02,  4.0969080292e-03,  5.3062238730e-03, -2.7447503060e-02, -9.4256894663e-03,  6.6460587084e-02,  9.7712296993e-03, -1.4259195328e-01, -9.8189776763e-03, 
	-9.6789598465e-02, -8.1317164004e-02,  2.4525325745e-02,  4.9433473498e-02, -4.3514423072e-02,  6.1175335199e-02,  7.2900736704e-03, -2.1150233224e-03, -5.0605773926e-02, -9.8194670863e-04, 
	-1.4689907432e-02, -5.1954340190e-02, -4.0939874016e-03,  2.2655255161e-03, -3.9087653160e-02, -7.7377587557e-02, -6.0417115688e-02,  3.6850150209e-03,  6.6482983530e-02,  1.6547799110e-02, 
	 2.7185017243e-02, -5.8037720621e-02,  3.2892018557e-02,  3.6830760539e-02,  3.0139586888e-03, -1.3218660606e-03,  2.2295560688e-02, -8.4983147681e-02,  6.8333663046e-02, -1.5746595338e-02, 
	-1.8926532939e-02,  2.8995154426e-02, -1.3778260909e-02, -8.2150734961e-02, -5.2834574133e-02,  4.8353020102e-02,  2.5102932006e-02,  3.4814245999e-02,  5.2008669823e-02, -1.7967391759e-02, 
	-5.5840149522e-02,  3.7874475121e-02, -5.4599646479e-02, -2.4369180202e-02,  1.7962353304e-02, -6.4942887984e-03, -8.2507453859e-02,  5.7018728694e-04, -7.7353298664e-02, -8.6493782699e-02, 
	-8.1377230585e-02,  5.1568374038e-02, -6.4817734063e-02, -3.7350993603e-02,  6.0666892678e-02,  4.2756114155e-02,  5.7647127658e-02, -3.7230342627e-02, -3.5578124225e-02,  6.0228179209e-03, 
	-3.5763662308e-02,  3.8324408233e-02,  5.4368894547e-02,  1.2765767984e-02,  7.1736663580e-02, -6.7554526031e-02, -5.4526336491e-02, -5.4271895438e-02,  5.5770877749e-02, -4.5572314411e-02, 
	-5.6481350213e-02, -7.1081802249e-02,  3.9777360857e-02, -8.9213930070e-02, -6.1548970640e-02, -5.3777799010e-02, -9.4914704561e-02,  3.8708373904e-02,  6.1651878059e-02,  3.9442807436e-02, 
	-1.7546959221e-02, -3.6105163395e-02,  6.2101319432e-02,  3.6101069301e-02,  6.6138006747e-02, -4.7409906983e-03,  6.4347356558e-02, -2.8681557160e-03, -6.2008965760e-02,  4.2028654367e-02, 
	-4.7896958888e-02,  7.2527988814e-03, -6.3288062811e-02,  7.5519047678e-03, -2.1377379075e-02, -6.6546447575e-02,  3.3419091254e-02,  3.0533075333e-02,  1.1321307160e-02, -3.8871813565e-02, 
	 6.1679198407e-03, -3.0975569040e-02,  1.1847867630e-02,  7.3623368517e-03, -2.9261201620e-02, -3.8581881672e-02,  5.3517200286e-04,  2.4481726810e-02, -9.8764285445e-02, -4.5916569070e-04, 
	-7.6974160969e-02,  2.5841651484e-02,  3.9420939982e-02, -4.7857787460e-02,  6.3910342753e-02, -2.1103756502e-02,  7.3668576078e-04,  6.8339116871e-02,  5.9015736915e-03, -7.3079898953e-02, 
	 7.1684427559e-02,  2.9858738184e-02,  7.1745261550e-02,  2.6928674430e-02,  9.4337221235e-03, -9.5549924299e-03,  2.3183200508e-02,  4.8442341387e-02, -5.9139672667e-02, -2.4467909243e-03, 
	-4.8039916903e-02,  1.2006580830e-02,  7.1298681200e-02,  7.4604712427e-02, -4.3523130007e-03, -6.7087352276e-02, -4.4115807861e-02, -4.3703295290e-02,  4.8260078765e-03,  7.5575456023e-02, 
	 2.0788395777e-02, -6.5871223807e-02, -9.1353259981e-02, -4.5184665360e-03,  1.1436610483e-02, -1.6045594588e-02, -6.2102351338e-02, -3.7981692702e-02, -1.4422743581e-02, -5.9498976916e-02, 
	-6.9972202182e-02, -1.1709269136e-02,  3.3375024796e-03, -5.3932141513e-02,  3.2824900001e-02, -9.3850186095e-03,  5.5974267423e-02,  6.6242530942e-02, -3.8321305066e-02,  7.2921037674e-02, 
	 2.3991027847e-02,  5.2268706262e-02, -2.4525500834e-02,  6.6819161177e-02, -4.0610227734e-02, -3.8411661983e-02, -4.2179550976e-02, -3.2827533782e-02,  5.3014282137e-02, -5.0749150105e-03, 
	 2.4293491617e-02, -6.2237720937e-02, -1.1664038897e-01, -8.9374743402e-02, -2.6691572741e-02, -4.6543747187e-02, -8.6741447449e-02,  4.8334259540e-02, -2.6446804404e-02, -2.2897231393e-03, 
	 7.9558305442e-03, -7.4180871248e-02, -1.6450474039e-02, -4.0690936148e-02, -4.8773255199e-02, -2.9081694782e-02,  3.3412820194e-03, -8.0732308328e-02,  4.4959425926e-02,  8.0725438893e-03, 
	-6.8982527591e-03, -1.9120283425e-02, -3.2356735319e-02, -1.6238451004e-02, -6.3626103103e-02,  9.4136960804e-02,  1.0266920924e-01,  2.9698705301e-02,  7.2373218834e-02,  8.8331423700e-02, 
	 3.3065085299e-03,  4.6472065151e-03,  6.9785930216e-02,  7.9512201250e-02, -6.0561101884e-02,  2.3264626041e-02,  3.6135777831e-02, -5.6816577911e-02, -4.9705281854e-02, -9.9577724934e-02, 
	 7.3898471892e-02,  1.7698116601e-02,  2.1001772955e-02,  5.8068288490e-03, -2.8860514984e-02, -4.5967429876e-02, -6.8615607917e-02,  5.7999018580e-02, -1.7438562587e-02, -8.0512627959e-02, 
	-2.9250403866e-02,  4.3748982251e-02, -5.1492478698e-02, -4.8107791692e-02, -3.5153076053e-02,  2.2751742974e-02, -2.4336144328e-02, -1.5041800216e-02,  2.2535689175e-02, -5.2980687469e-02, 
	 5.3017023951e-02, -3.3110524528e-03,  3.2968491316e-02,  5.9027966112e-02, -4.9175724387e-02,  5.9820994735e-02,  1.6874630004e-02, -6.3281819224e-02, -6.1990581453e-02, -5.2013099194e-02, 
	 8.5500776768e-02, -4.9150185660e-03, -4.9961652607e-02,  2.6012136368e-04, -7.0231547579e-03, -8.6563378572e-02, -1.8745305017e-02, -2.8263632208e-02,  2.8346663341e-02,  4.9579858780e-02, 
	-6.6753715277e-02, -1.3891781680e-02, -5.3618144244e-02,  1.3971192529e-03, -2.2120112553e-03, -2.7830544859e-02,  5.0080973655e-02, -1.6673510894e-02,  4.8395980150e-02, -2.2830987349e-02, 
	 2.6201507077e-02, -4.7462571412e-02,  2.6274489239e-02,  3.4253127873e-02, -5.3304888308e-02, -5.8315895498e-02,  6.4380136319e-03,  5.2007913589e-02,  1.3762554154e-02, -4.2570814490e-02, 
	 2.2662982810e-03, -3.1461242586e-02,  3.4114718437e-02, -1.8606260419e-02, -2.2535422817e-02, -5.0925143063e-02, -5.6715965271e-02,  5.6892734021e-02,  6.6077500582e-02, -4.4464450330e-02, 
	 3.6831729114e-02,  2.2017598152e-02, -5.9387595393e-03,  4.6476006508e-02, -5.0095554441e-02,  5.8753818274e-02,  4.3194215745e-02, -4.3123237789e-02,  1.8717860803e-02,  1.7337275669e-02, 
	 1.4794029994e-03,  8.0525003374e-02,  4.5864835382e-02,  3.8501799107e-02,  4.7713678330e-02,  4.1371591389e-02, -7.0584721863e-02,  5.5758706294e-03,  8.1275179982e-02,  3.5207621753e-02, 
	-2.3011196405e-02, -3.8960862905e-02, -2.7540156618e-02,  5.1880860701e-03,  5.2989125252e-02,  6.7539736629e-02,  4.0203899145e-02, -1.1282472871e-02,  5.2438616753e-02, -2.2968385369e-02, 
	 5.8062677272e-03, -3.9844859391e-02,  2.3504301906e-02, -2.7265330777e-02,  6.5333224833e-02,  2.5922585279e-02, -1.8231980503e-02,  5.7289969176e-02,  2.0467348397e-02,  6.6001281142e-02, 
	 6.0210086405e-02,  7.4391844682e-03, -3.7964154035e-02,  3.0340466648e-02, -2.5242334232e-02, -7.4607990682e-03,  8.4918946028e-02, -5.4679550231e-02,  4.5191943645e-02,  3.2101426274e-02, 
	-3.7137657404e-02,  8.3529658616e-02,  4.6746157110e-02,  3.7363067269e-02, -1.0160446167e-02,  4.3580740690e-02, -3.7938803434e-02, -3.2607316971e-02, -1.2757600285e-02,  3.5978510976e-02, 
	-1.0290212929e-02, -4.3739404529e-02,  3.1501535326e-02,  2.0636707544e-02,  4.3547518551e-02, -1.8372256309e-02, -5.8780074120e-02, -9.5700390637e-02, -3.1233249232e-02, -5.4361294955e-02, 
	 2.3047842085e-02, -3.5326343030e-02,  1.0692791082e-02,  4.3236665428e-02, -4.4728897512e-02,  1.7358809710e-03, -4.0790565312e-02,  3.1692393124e-02, -5.2772819996e-02,  2.3759217933e-02, 
	 3.3751010895e-02,  3.9138868451e-02,  8.4230370820e-02, -2.7804488316e-02, -2.1324371919e-03, -5.4076544940e-02, -4.3165862560e-02, -5.3993314505e-02, -6.3193432987e-02,  5.7644251734e-02, 
	-6.5021432936e-02, -8.2523137331e-02,  1.2606733479e-02,  4.8658609390e-02, -7.8145459294e-02,  5.3694941103e-02, -3.2713972032e-02, -8.7819779292e-03,  1.5056101605e-02,  9.8236612976e-02, 
	-3.6463609431e-03,  2.7987563983e-02, -7.1267925203e-02, -3.1705990434e-02, -2.4541657418e-02, -5.1688078791e-02,  1.7683790997e-02, -1.7407720909e-02, -7.9872421920e-02, -8.0421224236e-02, 
	-2.0903928205e-02,  2.8897816315e-02,  1.5677576885e-02, -3.0653413385e-02, -1.0134559125e-04,  1.3035711832e-02,  2.2764846683e-02,  6.0392171144e-02, -8.4735415876e-03,  2.1776018664e-02, 
	-3.8036409765e-02, -4.6980176121e-02, -5.1635064185e-02, -4.0580555797e-02, -8.8673233986e-03,  2.4724420160e-02,  6.6229313612e-02, -1.6026610509e-02,  7.0488914847e-02, -2.7843531221e-02, 
	 7.0272773504e-02, -1.4571863227e-02,  6.2036074698e-02,  7.2313129902e-02,  3.8765020669e-02, -2.4629285559e-02,  4.0386598557e-02,  9.6756988205e-04, -5.4688427597e-02,  4.3178312480e-02, 
	 2.5226573925e-03,  2.1681070328e-02, -4.8032565974e-03,  6.2189009041e-02, -7.3625937104e-02,  2.1844150499e-02,  5.0885323435e-02, -3.4177526832e-02,  3.8670871407e-02,  4.9158401787e-02, 
	 7.2365716100e-02,  5.4231647402e-02, -6.4494699240e-02,  2.1578744054e-02, -3.5020057112e-02, -7.4787274003e-02,  2.2373696789e-02,  3.3586490899e-02,  3.8914311677e-02,  4.1091393679e-02, 
	-4.1926309466e-02, -3.8177993149e-02,  5.2874241024e-02,  2.2494027391e-02,  7.9868145287e-02, -3.1150322407e-02,  4.1129060090e-02, -7.5633354485e-02, -2.3691458628e-03, -2.7309209108e-02, 
	-9.3374652788e-03, -1.1143077910e-01, -2.2050997242e-02,  3.7408231292e-03, -2.0479055122e-02,  6.5555691719e-02, -4.7478944063e-02,  2.1181946620e-02, -2.3322854191e-02, -8.5593670607e-02, 
	-6.0467723757e-02, -2.6749644428e-02,  4.3180607259e-02, -8.1449568272e-02, -1.6081200447e-03, -1.5244988725e-02,  5.5059451610e-02, -2.5005338714e-02,  4.6911623329e-02,  3.4722805023e-02, 
	 3.8557898253e-02, -1.8193069845e-02, -4.1681345552e-02,  1.6442406923e-02, -1.9602349028e-02,  3.6402724683e-02, -7.8833982348e-02, -2.2876121104e-02, -5.9554275125e-02, -3.8912282325e-03, 
	-6.3453629613e-02,  6.5173278563e-03,  6.7118741572e-02, -8.5032038391e-02, -6.8549148738e-02,  2.7265090495e-02,  3.0880603939e-02,  3.7637151778e-02, -2.1766074002e-02,  6.1412531883e-02, 
	-5.5742032826e-02,  2.6911874302e-03, -5.4614841938e-02,  4.0511637926e-02, -7.0644348860e-02,  4.2665194720e-02, -2.9467861168e-03,  4.4830214232e-02,  1.2680844404e-02,  7.4698692188e-03, 
	-3.0224533752e-02,  3.5405125469e-02,  9.1699182987e-02, -2.3525275290e-02, -6.9076851942e-03, -4.4988896698e-02,  1.5734320506e-02, -6.9885976613e-02,  4.4804271311e-02,  2.7556894347e-02, 
	 4.3172035366e-02,  8.8850669563e-02,  4.2416222394e-02,  2.4885939434e-02,  2.2950679064e-02,  9.5243185759e-02,  1.5859075356e-03,  7.5542598963e-02,  6.4258404076e-02,  1.0202834755e-01, 
	 3.9934035391e-02,  1.6871554777e-02,  7.1789182723e-02, -4.9776893109e-02, -6.7131236196e-02, -2.9425909743e-02, -3.8671135902e-02, -4.2683556676e-02,  3.5096030682e-02, -6.8639315665e-02, 
	-5.0527885556e-02, -2.4898061529e-02, -1.5059527941e-02, -3.0396860093e-02, -3.7031870335e-02,  3.2377529889e-02, -5.0911024213e-02, -1.8433054909e-02, -3.0410585925e-02, -5.1156986505e-02, 
	-1.6663266346e-02,  2.1628888790e-03, -2.4315036833e-02,  6.1057895422e-02,  7.8682027757e-02,  7.8530684114e-03, -7.1335136890e-02,  2.8897400945e-02,  2.1740181372e-02,  7.6837934554e-02, 
	 3.7697952241e-02, -1.6598653048e-02, -6.9321662188e-02, -5.5651888251e-02, -3.9718933403e-02, -3.0671531335e-02, -7.6154962182e-02, -7.0019818842e-02, -2.4603791535e-02,  6.3079511747e-03, 
	-1.9818797708e-02, -6.4463667572e-02,  2.5369141251e-02,  7.4308323674e-03, -1.6445072368e-02, -8.3927690983e-02, -7.9307094216e-02,  2.7824040502e-02, -7.5997762382e-02, -6.3594035804e-02, 
	 5.3404234350e-02,  3.4560184926e-02,  2.5774355978e-02, -4.7790896147e-02, -1.2390955538e-01, -3.3362329006e-02, -4.2362999171e-02, -3.1234536320e-02,  9.0071896557e-04, -9.0567901731e-02, 
	-6.5045468509e-02, -3.1804947648e-03,  1.7347749323e-02,  8.6140573025e-02, -6.5010286868e-02,  2.2387394682e-02, -8.6864158511e-02, -2.5276884437e-02,  1.6544207931e-02,  7.0154136047e-03, 
	 4.8611190170e-02, -5.3290970391e-04,  6.0291107744e-02, -7.2445064783e-02, -1.2840344571e-02,  2.6735961437e-02,  1.3122121803e-02,  4.7442119569e-02, -2.5805506855e-02, -6.0391936451e-02, 
	 5.7131185895e-04,  1.9475189969e-02, -9.1611742973e-03,  2.4138011038e-02, -4.9965430051e-02, -4.4777654111e-03, -3.0397377908e-02, -6.9968150929e-03, -4.7301307321e-02, -3.8756266236e-02, 
	 5.7585790753e-02,  7.6830960810e-02,  3.3532176167e-02, -1.1723150499e-02,  4.6223063022e-02, -5.9816118330e-02, -2.8556579724e-02, -2.5282070041e-02,  5.0261538476e-02, -1.7945028841e-02, 
	-4.8473652452e-02,  4.2959537357e-02,  9.3758322299e-02, -6.9630527869e-03,  5.3296856582e-02,  5.6647915393e-02, -5.6790151575e-05,  5.1416222006e-02,  8.2171438262e-03, -4.7959727235e-03, 
	 2.0292036235e-02,  1.9925469533e-02, -2.3117629811e-02, -2.1629465744e-02, -2.3275129497e-02,  8.7172258645e-04,  6.5013654530e-02, -5.4733697325e-02,  3.3751041628e-03, -1.3631151058e-02, 
	 8.9080132544e-02,  3.3444284927e-03, -4.9861215055e-02,  3.5263229162e-02, -5.2263047546e-02,  7.3561303318e-02, -4.0185395628e-02,  1.3334739953e-02, -3.0810348690e-02,  4.6520587057e-02, 
	 4.3058130890e-02,  6.3297033310e-02, -4.1232526302e-02,  2.7361223474e-02,  2.2572129965e-03,  1.2631097808e-02, -1.8715433776e-02, -5.1125194877e-02, -4.9795854837e-02, -4.7114495188e-02, 
	 5.6440841407e-02,  5.9355024248e-02, -6.1416272074e-02, -5.8530238457e-03, -2.1141242236e-02,  1.8172853161e-03,  4.1658962145e-03, -6.9946855307e-02,  2.8193479404e-02, -4.6697687358e-02, 
	 6.5775521100e-02,  4.1572533548e-02, -1.8676439300e-02, -4.0224477649e-02,  1.3903429732e-02,  9.3796551228e-02,  3.0635771691e-04, -1.9923315849e-03, -4.6874988824e-02, -3.0461540446e-02, 
	-5.4508518428e-02, -4.8409625888e-02,  2.6299063116e-02,  5.0299618393e-02,  7.9986020923e-02, -3.4521296620e-02, -5.1552444696e-02,  7.6641715132e-03, -4.9332417548e-02,  2.5762369856e-02, 
	-3.9222359657e-02, -1.6657009721e-02,  1.5204268508e-02,  1.3523586094e-02,  2.3130206391e-02,  3.0070772395e-02,  1.6097964253e-03,  2.0117949694e-02, -4.2510602623e-02, -2.2384777665e-02, 
	 5.3070172668e-02,  8.6649864912e-02, -6.8301814608e-03,  2.1753467619e-02,  3.2843131572e-02,  5.6444428861e-02, -1.1373668909e-02,  3.2208558172e-02, -2.9392743483e-02,  8.5144806653e-03, 
	 2.4234594312e-03, -3.6519885063e-02,  8.4165006876e-02, -3.8380108308e-03,  4.0933258832e-02, -1.8093541265e-02,  7.3103547096e-02,  4.6480320394e-02, -2.3005645722e-02, -4.0850892663e-02, 
	 2.1868793294e-02, -4.0481902659e-02,  6.7271026783e-03, -1.5427542385e-03,  8.2988366485e-02, -1.6135932878e-02,  3.6423493177e-02, -7.3517590761e-02, -3.1979747117e-02,  4.8689763993e-02, 
	-8.2372196019e-02,  8.9058931917e-03, -2.8201784939e-02, -3.8481742144e-02, -7.1080654860e-02, -4.9846317619e-02,  3.2888256013e-02,  2.2524245083e-02, -6.1819452792e-02,  3.7909597158e-02, 
	-7.1951493621e-02,  3.3048402518e-02,  4.9280258827e-04, -6.0772951692e-02, -3.7133213133e-02,  5.9927932918e-02, -1.4174900018e-02,  6.3680257881e-04,  6.9993466139e-02, -2.2951804101e-02, 
	 5.1760561764e-02,  4.9945771694e-02,  3.2413642853e-02,  2.4951834232e-02,  4.8546645790e-02, -2.5992691517e-02,  3.4828837961e-02, -4.9267825671e-03, -4.7238018364e-02,  1.5360011719e-02, 
	-1.6588225961e-02,  1.4561701566e-02, -3.8516063243e-02, -3.6546602845e-02, -5.1380731165e-02, -1.5424017794e-02, -2.5828691199e-02,  4.2113594711e-02,  2.2616405040e-03,  5.6059673429e-02, 
	-7.1968920529e-02,  1.5113606118e-02, -1.4677023515e-02, -5.8426696807e-02, -5.5296111852e-02, -5.1375012845e-02,  2.5683254004e-02,  3.8901377469e-02, -2.1036043763e-02,  7.1106880205e-04, 
	 1.3346081600e-02, -3.4943502396e-02, -2.4295991752e-03, -6.2655671500e-03,  5.8826103806e-02,  2.7476822957e-02,  4.7848783433e-02,  6.6563468426e-03,  3.1342282891e-02,  4.9876645207e-02, 
	 6.1462741345e-02,  1.3849825598e-02, -3.7328784820e-03,  6.1769235879e-02, -7.0654667914e-02, -3.4534741193e-02, -5.4935213178e-02, -1.8560376018e-02,  6.3957676291e-02,  2.7873702347e-02, 
	 3.1967457384e-02, -1.5231773257e-02, -6.1476889998e-02,  3.0130309984e-02,  3.8878466934e-02,  1.0433737189e-01,  5.9302672744e-02,  5.2740328014e-02, -4.5225106180e-02, -5.7184047997e-02, 
	-6.0136929154e-02,  1.7990062013e-02, -4.3977305293e-02,  8.2280198112e-03, -1.1931956746e-02, -1.8514774740e-02,  1.8632074818e-02,  8.2761131227e-02,  7.8006356489e-04, -1.4280008152e-02, 
	 7.8231818974e-02,  1.9445145503e-02, -1.3271758333e-02, -4.6081963927e-02, -3.3432219177e-02, -4.6842362732e-02,  2.4053698406e-02, -2.3992136121e-02, -3.7811942399e-02,  3.8998141885e-02, 
	-6.3452675939e-02, -9.8442584276e-02, -6.5842725337e-02,  2.4785513058e-02, -1.1446702294e-02,  8.2018682733e-03, -7.3914276436e-03,  5.5375289172e-02,  4.0340377018e-03,  7.1527600288e-02, 
	-3.8276135921e-02,  3.4006428905e-03,  2.6154411957e-02,  2.6100087911e-02,  1.7908727750e-02, -6.5077438951e-02, -3.7939585745e-03, -1.1953803152e-01, -6.1750434339e-02, -3.7445373833e-02, 
	-9.7410328686e-02,  2.9922751710e-02, -5.4074261338e-02,  3.5409566015e-02,  1.8309820443e-02, -1.2150192633e-02, -5.3069677204e-02, -5.1853194833e-02, -2.0960589871e-02, -4.3424628675e-02, 
	-1.3676466420e-02,  2.3141115904e-02,  7.7420748770e-02, -1.1824929155e-02,  8.7564587593e-02,  7.5678490102e-02,  3.7225075066e-02,  1.7765292898e-02,  9.3777298927e-02,  1.2783119455e-02, 
	-8.7666593492e-02,  6.0758728534e-02, -6.0102924705e-02,  4.3786820024e-03, -1.5607825480e-02, -4.9428172410e-02,  1.5980800614e-02,  6.4897820354e-02,  7.8539373353e-03, -4.2999994010e-02, 
	-1.5532784164e-02, -6.2557454221e-03, -3.5678504501e-03,  3.7973441184e-02,  6.0247718357e-03, -5.2732829005e-02, -6.6599287093e-02,  4.5765314251e-02,  6.3202910125e-02, -4.5988038182e-02, 
	 3.1670887023e-02, -1.3702477328e-02, -4.5686710626e-02, -5.4708674550e-02,  7.0808529854e-02,  6.9631136954e-02, -6.1030101031e-02,  3.7778351456e-02, -2.1024040878e-02,  4.9228060991e-02, 
	 5.5712901056e-02, -9.0552687645e-02,  7.8467587009e-03,  1.4641482383e-02,  4.3084067293e-03, -2.2498643026e-02, -5.8932541870e-03, -4.8719581217e-02,  6.2238391489e-02, -1.5009531053e-03, 
	 1.6859859228e-02,  1.0000160336e-01,  4.3355352245e-03,  1.7047869042e-02, -6.5741665661e-02, -3.7668231875e-02, -1.5241533518e-02, -4.7520879656e-02,  2.6041144505e-02,  5.4960791022e-02, 
	 2.5433784351e-02, -7.0753507316e-02,  7.2440512478e-02,  5.6770741940e-03,  3.2422587276e-02, -8.3566419780e-02,  3.5565119237e-02,  4.2644836940e-03, -8.1517055631e-02,  1.0857123882e-01, 
	 3.2249018550e-02, -1.2252442539e-02, -4.3046016246e-02, -7.8835397959e-02, -5.2717063576e-02, -4.3600212783e-02,  5.0727877766e-02,  5.6671380298e-04, -7.5130559504e-02,  5.2178250626e-03, 
	-5.7877272367e-02,  3.0331462622e-02,  7.3747672141e-02,  5.1373373717e-02, -1.2560369214e-03,  7.9342283309e-02,  5.4382957518e-02,  6.4984932542e-02, -4.2372111231e-02,  8.4049040452e-03, 
	 3.4219577909e-02,  4.2154230177e-03, -6.0961876065e-02,  3.7645593286e-02, -2.7005963027e-02,  3.3817216754e-02,  6.3445225358e-02, -6.5407663584e-02,  6.2894783914e-02, -5.1102623343e-02, 
	 6.3475221395e-02, -2.3478746414e-02,  3.0032902956e-02,  5.0718188286e-03, -7.4380077422e-02,  1.9296094775e-02, -2.1666288376e-02, -3.7004793994e-03,  3.9163962007e-02,  5.0440370105e-03, 
	-5.8766018599e-02, -7.2582572699e-02, -6.5954648890e-03, -1.6784625128e-02, -7.1262374520e-02,  3.0449111015e-02,  5.6358613074e-02,  5.9791635722e-02,  5.7121202350e-02,  5.4912049323e-02, 
	 6.3737601042e-02,  1.8955634907e-02,  4.6762712300e-02, -2.7431432158e-02, -6.7864067852e-02, -7.2349786758e-02,  2.7957709506e-02, -2.9670910910e-02,  3.5387545824e-02, -5.3515747190e-02, 
	-6.2918908894e-02, -1.9952217117e-02,  4.7890008427e-03,  4.6216316521e-02,  4.9377527088e-02, -1.8605111167e-02,  5.2208371460e-02,  8.9730732143e-02, -6.7609502003e-03,  5.0392396748e-02, 
	-2.4516519159e-02,  9.9166370928e-03, -4.4035799801e-02, -3.8404356688e-02,  5.8307185769e-02,  1.7607115209e-02, -5.1492378116e-02,  4.5403808355e-02,  1.5392613597e-02,  9.0248867869e-02, 
	 6.4387090504e-02, -6.2977388501e-02,  4.0023092180e-02,  5.9883490205e-02, -1.6495449468e-02, -5.0792906433e-02, -9.6400463954e-03, -1.7788849771e-02, -2.5397246704e-02, -5.1937881857e-02, 
	-2.8331044596e-03, -9.0379171073e-02, -1.4462162741e-02,  3.9762347937e-02, -2.1940222941e-03,  7.0111930370e-02, -4.5354798436e-02, -5.8586616069e-03,  3.3225610852e-02, -1.1912140064e-02, 
	-5.1467262208e-02,  6.3750453293e-02,  5.6499645114e-02, -5.9642948210e-02, -4.6684887260e-02,  4.6805668622e-02,  5.3678844124e-02,  5.9087187052e-02,  5.1163330674e-02, -9.8072858527e-03, 
	 6.0736872256e-02, -3.4144848585e-02,  2.1422222257e-02,  4.9979675561e-02, -7.3894999921e-02, -4.8420153558e-02, -6.6706694663e-02, -2.9983947054e-02,  1.2864261866e-02, -9.8719336092e-02, 
	 5.2372675389e-02,  2.7546390891e-02,  2.3247569799e-02, -1.9180294126e-02, -4.3488118798e-02, -8.7514087558e-02,  5.0864428282e-02,  5.4047297686e-02, -9.2242367566e-02, -3.4916598350e-02, 
	-3.8857381791e-02, -4.3805297464e-02,  5.8734469116e-02, -3.3779449761e-02,  1.3552901510e-04,  8.2941778237e-04,  1.1504745111e-02,  1.2388147414e-02, -9.9917910993e-03, -5.9184260666e-02, 
	 6.0560718179e-02, -4.8940237612e-02,  1.0802800767e-02,  3.1102262437e-02, -3.3523559570e-02,  3.0792105943e-02, -2.7944406494e-02,  3.7861070596e-03,  2.9032388702e-02, -2.6705393568e-02, 
	-2.1668000147e-02,  3.1266290694e-02, -8.0824218690e-02, -5.0543453544e-02,  7.4958972633e-02,  2.4008488283e-02,  1.3024450280e-02, -1.1322368868e-02,  5.4995618761e-02, -1.0804272257e-02, 
	-3.2897114754e-02, -5.7077366859e-02,  4.2203154415e-02, -2.4016159587e-03, -1.8005324528e-02, -4.6828184277e-03,  1.3072191738e-02,  8.2736872137e-03, -3.2237411942e-03, -8.2304403186e-03, 
	-8.2513161004e-02, -4.1007231921e-02, -7.8938174993e-03, -3.0706215650e-02, -2.8757091612e-02, -5.3893938661e-02, -5.0071928650e-02,  3.2958831638e-02, -4.1691541672e-02,  5.7503771037e-02, 
	 1.0677987710e-02,  7.9043675214e-03, -2.2430893034e-02, -7.9746969044e-02, -1.1299756588e-03, -6.1030093580e-02, -6.6699661314e-02,  4.7081671655e-02,  6.0690663755e-02,  1.9221780822e-02, 
	 4.5529790223e-02, -3.4177809954e-02,  5.7281441987e-02,  1.6348211095e-02, -8.4202748258e-04,  4.7957375646e-02, -1.2320565060e-02,  6.6692143679e-02,  3.3355592750e-03, -1.0327389836e-01, 
	 3.3924233168e-02,  2.2452844307e-02,  7.5124308467e-02, -6.2524184585e-02, -6.6056549549e-02, -4.4365078211e-02, -7.9276196659e-02,  2.2186446935e-02, -5.9337108396e-03, -2.6252280921e-02, 
	 3.7256609648e-02, -4.3760914356e-02, -5.2257765085e-02, -4.3847397901e-03,  2.1362060681e-02, -2.5429600850e-02, -3.5953622311e-02,  4.5604477637e-03,  8.7476380169e-02,  7.3720272630e-03, 
	 8.5570804775e-02,  2.5339221582e-02,  5.1179174334e-02,  1.5716675669e-02, -8.0925400835e-04,  1.6633382067e-02,  1.2830326334e-02, -2.7849271894e-02,  3.1052963808e-02, -5.4531637579e-02, 
	 7.6921470463e-02,  4.5600347221e-02,  4.0052432567e-02,  1.1485773139e-02,  2.5266122539e-03,  4.4132251292e-02, -7.1918085217e-02,  6.3026256859e-02, -5.6400064379e-02, -4.1460145265e-02, 
	-5.7529784739e-02,  7.8115299344e-02,  8.6571991444e-02,  4.8681260087e-03, -4.5878809760e-04, -3.5008724779e-02,  3.0485905707e-02,  5.5642038584e-02, -6.1419598758e-02,  6.9440305233e-02, 
	-3.0731890351e-02, -6.6430754960e-02, -4.9439644499e-05, -1.9442811608e-02, -3.0289903283e-02,  3.7169426680e-02,  5.6417360902e-02, -4.9865911715e-03, -2.5226907805e-02,  6.6093243659e-02, 
	-2.3441655561e-02,  5.1301263273e-02, -5.8685373515e-02,  5.2153833210e-02,  4.4808004051e-02,  1.3214598410e-02, -4.9313452095e-02,  4.7705054283e-02,  2.3237768561e-02,  2.4657405913e-02, 
	-3.3209986985e-02,  5.9661053121e-02,  8.3936116425e-05, -8.2846432924e-03, -4.3466731906e-02,  1.1714631692e-02, -6.0718487948e-02,  1.3770864345e-02,  5.1601197571e-02, -5.7847607881e-02, 
	 1.2988633476e-02,  2.6969469618e-03,  7.5929142535e-02,  3.2352995127e-02, -5.1680721343e-02, -3.5687685013e-02,  7.0498809218e-02, -1.1600590311e-02,  3.2988384366e-02,  7.8068353236e-02, 
	 8.5378766060e-02,  4.5204507187e-03, -1.7853619531e-02,  1.1391400546e-01,  3.6885112524e-02, -4.6167347580e-02,  3.0049519613e-02, -1.9219648093e-02,  9.2738322914e-02,  3.7373207510e-02, 
	-6.2418967485e-02, -7.2584180161e-03,  5.6550707668e-02,  5.9037845582e-02, -7.8662568703e-03,  5.3534120321e-02,  6.3408225775e-02,  2.1438045427e-02,  7.1292430162e-02,  5.6920938194e-02, 
	-4.0119852871e-02,  4.0170390159e-02,  1.7537029460e-02, -1.0460698977e-02,  3.4868665040e-02, -4.4874972664e-03, -3.5496044904e-02, -1.4188134111e-02, -1.6621988034e-03,  3.6918766797e-02, 
	-2.0928185433e-02, -3.5751476884e-02,  5.7609524578e-02,  5.3947292268e-02,  5.9440571815e-02,  5.8808375150e-02,  1.6055004671e-02,  4.9994792789e-02,  1.3901987113e-02, -2.5863632560e-02, 
	-2.8242083266e-02,  3.5829309374e-02,  3.0138051137e-02,  8.0269761384e-02, -3.7436272949e-02,  6.4810454845e-02,  6.4224869013e-02,  5.5379491299e-02, -7.1104630828e-02,  5.0551206805e-03, 
	 1.5631992370e-02,  3.2629761845e-02,  1.6080196947e-02, -6.1493363231e-02,  7.4259229004e-02,  9.4338012859e-03,  3.9091080427e-02, -5.1045659930e-03, -7.9442389309e-02,  6.5359801054e-02, 
	 3.8134448230e-02,  5.9494618326e-02, -1.7058635131e-02, -1.2332224287e-02,  5.4565310478e-02, -8.8669747114e-02, -2.7455694973e-02,  2.7438897640e-02, -8.0602452159e-02, -1.0291023552e-01, 
	 3.8752916735e-03,  4.0429823101e-02,  2.3421742022e-02,  3.9235554636e-02, -4.9761809409e-02, -4.0317695588e-02,  7.6439902186e-02,  2.2016404197e-02,  7.3369063437e-02, -3.8295146078e-02, 
	 7.8278087080e-02,  3.0101362616e-02,  7.3385268450e-02, -1.8701283261e-02,  4.0200982243e-02, -2.7280538343e-03, -6.6284211352e-03,  1.1345022917e-01,  7.0794381201e-02,  1.8127070740e-02, 
	 2.9250124469e-02, -3.2588209957e-02, -5.5179134011e-02, -7.5825959444e-02,  3.5367164761e-02, -2.8169832658e-03, -4.4366840273e-02, -5.8058656752e-02,  3.8760330528e-02, -4.2421985418e-02, 
	 1.1173308827e-02,  3.0195897445e-02,  3.4651663154e-02, -5.1697142422e-02, -5.0835262984e-02, -6.5996117890e-02,  8.2608079538e-03,  6.4063072205e-02,  2.5877341628e-02, -5.0385545939e-02, 
	 8.3967201412e-02, -1.3990834355e-02, -9.7831889987e-02,  5.5576678365e-02, -2.0203698426e-02, -2.6786923409e-02, -2.8597069904e-02, -1.1848324910e-02,  2.2886142135e-02,  3.3959064633e-02, 
	 5.1050689071e-02,  5.3265225142e-02,  1.6987089068e-02,  1.2490211055e-02,  6.3517168164e-02, -9.4067580998e-02, -3.7332784384e-02,  4.4838815928e-02,  6.1275709420e-02,  3.8858041167e-02, 
	-7.1230046451e-03, -6.9684162736e-02,  9.6476010978e-02,  5.0412095152e-03, -1.0005822033e-01, -5.6149266660e-02,  8.9900633320e-03, -4.4984631240e-02, -3.7031993270e-02, -1.3476951048e-02, 
	 7.6783038676e-02,  3.3709552139e-02,  3.7414006889e-02, -2.6354644448e-02, -1.9317785278e-02,  2.9991887510e-02, -3.8588847965e-02,  8.4650494158e-02, -7.9672686756e-02, -2.1920820698e-02, 
	 2.8429472819e-02,  8.7825693190e-03,  5.7610195130e-02, -1.5327080153e-02,  5.1672153175e-02,  3.4643266350e-02,  6.6058538854e-02, -6.4045190811e-02, -3.3187186345e-03, -4.8113010824e-02, 
	 2.3622460663e-02,  7.3083013296e-02,  8.3782017231e-02,  1.9033458084e-02,  7.7238649130e-02, -4.4789031148e-02, -3.1968947500e-02,  7.2445623577e-02,  1.1951100896e-04,  8.7127923965e-02, 
	 6.9562040269e-02,  1.1145671830e-02,  2.5160798803e-02,  6.3452325761e-02,  7.0266500115e-02,  3.1481333077e-02, -5.6693464518e-02,  9.1396465898e-02, -3.8331821561e-02,  1.0732808150e-02, 
	-3.5296101123e-02, -1.1685312726e-02, -2.6237785816e-02, -4.1233714670e-02, -1.1221794412e-03, -6.5946429968e-02,  4.0175687522e-02,  2.0915281028e-02, -2.6621154975e-03, -3.8553874940e-02, 
	 1.4713168144e-02, -7.7584326267e-02,  4.0874946862e-02,  7.0880629122e-02,  4.5693263412e-02, -5.9383679181e-02, -5.0654586405e-02, -3.5182189196e-02,  9.7211701795e-03, -4.8055183142e-02, 
	 3.6706876010e-02,  2.0745823160e-02, -3.0047232285e-02,  7.0353604853e-02, -3.8723066449e-02,  3.6578238010e-02, -1.5097456053e-02, -3.6823738366e-02, -3.8277123123e-02, -3.7467565387e-02, 
	-6.5334849060e-02, -3.3216793090e-02,  8.7681360543e-02, -3.4430537373e-02,  7.1728140116e-02,  3.9275523275e-02,  1.3041247614e-02,  3.1227637082e-02, -7.3347568512e-02, -1.4387198724e-02, 
	 1.9658355042e-02, -4.1682381183e-02,  8.4920912981e-02,  2.0223900676e-02, -2.3383018561e-03, -1.7883544788e-02,  1.0629586875e-02,  4.4974129647e-02, -3.1787466258e-02, -1.2960908003e-02, 
	 8.6317248642e-02,  5.6191650219e-03,  3.9037108421e-02,  2.1806690842e-02, -7.3283955455e-02,  1.6677973792e-02,  5.7501990348e-02,  2.1661903709e-02, -2.1432574838e-02,  2.3194922134e-02, 
	-7.8279390931e-02,  6.7070372403e-02,  5.2226483822e-02,  5.7069800794e-02, -6.4710222185e-02,  7.3035001755e-02,  6.2763169408e-02, -4.4400446117e-02,  1.7392052338e-02, -5.4302811623e-02, 
	-2.5201875716e-02, -3.5862110555e-02, -3.9040960371e-02,  2.9578404501e-02, -4.2602684349e-02, -1.0667386465e-02,  4.0086343884e-02, -7.5455807149e-02,  1.9811369479e-02,  1.0844369419e-02, 
	-3.8764938712e-02,  9.5131509006e-03,  3.7876874208e-02,  2.8754834086e-02,  3.8554683328e-02,  5.8888204396e-02,  3.4609537106e-03, -2.0508376881e-02, -2.0483609289e-02, -1.1495198123e-04, 
	-3.3912023064e-03, -3.7054926157e-02,  6.8401098251e-02,  3.0058780685e-02, -3.3862903714e-02,  5.4550368339e-02,  9.1709241271e-02, -3.7268158048e-02,  2.7207206935e-02, -4.1811816394e-02, 
	 2.1932872012e-02, -2.6604725048e-02, -7.1642942727e-02, -2.1337663755e-02, -5.5441766977e-02, -2.7163298801e-02,  4.7828506678e-02,  4.8510320485e-02, -3.4641914070e-02,  1.5523927286e-02, 
	 3.5895604640e-02, -2.2872384638e-02, -2.0195363089e-02,  2.8979206458e-02,  2.3450946435e-02,  5.0756879151e-02, -7.9494327307e-02, -4.8546474427e-02,  1.0585305095e-01,  1.5958216041e-02, 
	-1.9022313878e-02, -4.7267112881e-02, -1.4387371019e-02,  6.9159261882e-02, -2.6028513908e-02,  1.6045490280e-02,  2.5842452422e-02, -9.6866533160e-02, -2.0776150748e-02,  4.9874980003e-02, 
	-3.8556937128e-02,  4.3701149523e-02, -1.2613181025e-02, -3.3038105816e-02,  1.1560746934e-03,  3.6974888295e-02,  5.0350103527e-02,  1.9357405603e-02, -1.5302335843e-02, -4.6422991902e-02, 
	-4.3727990240e-02, -9.7660189494e-03, -4.5693017542e-02,  2.4872660637e-02, -3.6938179284e-02,  5.5571760982e-02, -1.8729861826e-02,  3.9066575468e-02,  2.5799410418e-02, -2.6473281905e-03, 
	 5.3341418505e-02, -5.1991492510e-02,  4.3905568309e-03, -7.2111599147e-02,  1.5805307776e-02,  3.4923870116e-02, -5.3570535034e-02,  5.4670508951e-02,  9.1099627316e-02, -2.2315634124e-04, 
	-9.9855586886e-03,  2.2210000083e-02, -2.3349449039e-02, -6.8848602474e-02,  8.7616369128e-02,  5.4000049829e-02, -3.8280095905e-02,  4.1522774845e-02,  3.8861669600e-02,  3.2704804093e-02, 
	 3.0580691993e-02,  3.5812295973e-02,  2.5313828140e-02,  2.8975948691e-02, -8.9910039678e-03,  9.0838059783e-02,  1.5135942958e-02, -6.1982866377e-02,  3.9598934352e-02, -1.7396610230e-02, 
	-9.0590700507e-02,  4.7822006047e-02, -2.4578612298e-02, -1.6224948689e-02,  4.7448404133e-02,  3.9997413754e-02,  4.6562902629e-02,  4.3368909508e-02,  2.4207832292e-02,  6.5256044269e-02, 
	 4.2463146150e-02,  6.1579294503e-02, -4.3808831833e-03,  3.2326307148e-02, -2.7615893632e-02,  5.2972022444e-02, -2.7175571769e-02,  1.8912395462e-02,  9.6369715175e-04, -3.3775851130e-02, 
	-8.4077976644e-02,  8.1070056185e-03, -1.8707076088e-03, -6.8216525018e-02, -4.6048201621e-03,  4.3910063803e-02,  1.9616303965e-02, -4.2830351740e-03, -4.9295298755e-02, -4.0134109557e-02, 
	 1.7624858767e-02, -7.4458862655e-03,  5.4896283895e-02, -1.2792802416e-02,  1.1617945507e-02, -2.8375856578e-02, -1.6723332927e-02, -3.1723599881e-02, -4.4915977865e-02, -5.9806663543e-02, 
	-9.6078924835e-02,  3.1523585785e-03, -3.0055699870e-02,  2.6863057166e-02, -3.5491697490e-02, -7.1000650525e-02,  6.7244940437e-03, -9.9496226758e-03, -1.3413693756e-02, -1.7915543169e-02, 
	 3.4788787365e-02,  5.0993550569e-02,  4.2668700218e-02,  6.6201090813e-02, -2.0734904334e-02,  1.1130871624e-01,  2.1441411227e-02, -4.3857194483e-02, -1.1779006571e-02, -1.6678180546e-02, 
	-3.3781334758e-02,  6.7365847528e-02,  4.2501259595e-02, -1.6991442069e-02, -6.4462810755e-02, -4.5065175742e-02, -4.8398815095e-02,  2.7006711811e-02, -7.2905614972e-02, -1.1955468915e-02, 
	 3.4045707434e-02,  3.5949669778e-02, -2.3918408900e-02, -5.0354529172e-02, -7.6936651021e-03, -8.0550856888e-02,  1.3602564111e-02,  5.3289014846e-02, -3.7894707173e-02,  6.0488458723e-02, 
	-3.1385466456e-02, -2.4780947715e-02,  3.1445942819e-02, -5.9259478003e-02, -5.3804311901e-02, -3.6565707996e-03,  9.7079230472e-03, -5.6183617562e-02,  3.1641086098e-03,  7.0935018361e-02, 
	-5.6840088218e-03, -1.3923713937e-02,  2.3467072751e-03, -2.6068715379e-03, -4.2679291219e-03,  2.0541019738e-02,  7.9186365008e-02,  3.5808786750e-02, -6.1302885413e-02, -3.5553503782e-02, 
	 4.5203622431e-02, -6.4082950354e-02, -1.5215003863e-02,  3.8147766143e-02,  3.3831436187e-02,  4.8608828336e-02, -3.7109959871e-02,  7.4251065962e-03, -8.1729941070e-02, -5.3844537586e-02, 
	-4.9829422496e-03,  9.3883704394e-03, -2.1965779364e-02,  5.5167585611e-02, -1.8074719235e-02, -5.6189745665e-02,  3.5192172974e-02, -3.8897637278e-02, -4.9490891397e-02,  4.1473764926e-02, 
	-3.2770846039e-02, -5.2415348589e-02,  2.0523713902e-02, -1.9708165899e-02,  1.3403715566e-02, -6.1200682074e-02, -4.5168008655e-02, -7.5762785971e-02,  1.0514596477e-02, -3.5554792732e-02, 
	-6.3817314804e-02, -4.5207731426e-02, -2.3099180311e-02,  2.2346472833e-03, -2.8951374814e-02,  2.5274002925e-02,  4.9506437033e-02,  1.9240323454e-02, -4.0614329278e-02,  7.2245612741e-02, 
	-1.2737399898e-02, -2.7914512902e-03,  7.5982451439e-02,  2.9715845361e-02, -2.0623074844e-02,  7.1063987911e-02,  1.8365504220e-03, -8.3658717573e-02,  7.2481498122e-02,  5.8078229427e-02, 
	-3.2946866006e-02, -4.3505772948e-02, -6.2213893980e-02, -2.9949933290e-02, -2.4448598269e-03,  7.3498234153e-02,  9.5548324287e-02, -9.8223321140e-02,  5.5353261530e-02,  5.2722229157e-04, 
	 4.0275026113e-02,  2.8180219233e-03,  6.9422550499e-02,  8.9793533087e-02,  7.3091294616e-03,  6.3558615744e-02, -9.5282025635e-02, -4.3408498168e-02, -2.1927321330e-02, -1.0600462556e-02, 
	-2.7837852016e-02, -6.9291114807e-02, -5.4368674755e-02,  1.1512057856e-02, -5.7708069682e-02,  4.4763501734e-02,  9.5547745004e-03,  5.1643844694e-02,  8.1156268716e-03, -2.8696916997e-02, 
	-1.9693853334e-02,  4.8997074366e-02,  5.4144080728e-02,  7.4362084270e-02, -5.6549846195e-03,  3.3892314881e-02, -2.6351472363e-02,  4.9293152988e-02,  3.0668094754e-02,  6.5758883953e-02, 
	-5.5613182485e-02, -5.4256532341e-02,  6.3981377752e-04, -7.3136940598e-02, -9.1371104121e-02, -5.1432391629e-03, -1.5902763233e-02,  3.4342901781e-03,  1.7423137324e-03, -4.9328420311e-02, 
	-3.1953301281e-02, -7.0819526911e-02, -2.9788380489e-02, -6.6680081189e-02, -6.6050216556e-02, -1.9249543548e-02, -3.5345904529e-02, -1.1941310018e-02, -3.8518529385e-02,  3.2927334309e-02, 
	 1.5717374161e-02,  3.8438800722e-02,  6.4336553216e-02,  3.9243940264e-02, -8.6704865098e-02,  1.1344094761e-02,  7.7135957778e-02, -5.0595447421e-02, -6.2636740506e-02, -4.4884040835e-04, 
	-7.1216048673e-03,  1.3074826449e-02,  4.1133139282e-02, -3.6963813007e-02, -1.5288752504e-02,  3.3869460225e-02, -2.7614575811e-03, -1.3248848729e-02, -1.0984988883e-02, -3.4443498589e-03, 
	 1.7142647877e-02,  5.1319241524e-02, -2.4386176374e-03, -3.7218838930e-02,  1.2049465440e-02,  5.2691515535e-02,  4.9490425736e-02,  3.8210522383e-02, -4.6053342521e-02,  3.5497531295e-02, 
	 1.2332491577e-02, -5.7386241853e-02, -1.9077304751e-02, -1.5243018977e-02,  4.3459400535e-02,  7.8977588564e-03, -5.0653319806e-02,  4.6388702467e-03, -8.1168204546e-02,  5.3235646337e-02, 
	 7.5161240995e-02, -4.7381885350e-02, -4.0830455720e-02,  8.6081281304e-02,  6.1615992337e-02,  8.3287477493e-02, -6.7369356751e-02,  1.0885663331e-02,  2.2480884567e-02, -3.3162001520e-02, 
	 1.6267495230e-02, -3.3291641623e-02, -6.6333338618e-02, -3.3902317286e-02, -5.5564321578e-02, -1.1919673532e-01, -1.4340269845e-03, -6.8338222802e-02, -3.0166806653e-02,  3.1172921881e-02, 
	 3.1351637095e-02, -1.1843485758e-02, -5.2390452474e-02,  1.0527732782e-02,  3.7005499005e-02,  7.9194150865e-02,  3.3539815340e-03,  5.9313471429e-03,  6.8236109801e-03,  3.6895651370e-02, 
	-3.4222975373e-02,  1.8889099360e-02, -1.7363699153e-02, -6.2426805496e-02, -3.1821504235e-02,  2.2744061425e-03, -1.0788080283e-02, -6.8806549534e-03,  7.8582065180e-03, -5.6306645274e-02, 
	-5.4360780865e-02,  4.5479010791e-02,  7.8333299607e-03, -4.9938336015e-02, -5.5385552347e-02, -6.0452148318e-02,  1.7626130953e-02,  6.4477592707e-02,  1.1887448840e-02, -6.2302662991e-03, 
	 9.6198402345e-02, -5.7781144977e-02,  1.1113769375e-02,  1.6979854554e-02,  4.9593728036e-03, -1.2863739394e-02,  7.7855937183e-02, -9.0266071260e-02, -9.3431547284e-02,  2.4795867503e-03, 
	-8.6907580495e-02, -5.9662368149e-02,  4.9317989033e-04, -1.2830421329e-02, -2.7351722121e-02,  2.8425548226e-02, -6.9096386433e-02, -1.8625739962e-02, -7.0335529745e-02, -7.8109619208e-03, 
	-4.9011982977e-02,  2.0354978740e-02, -8.0842949450e-02,  1.5734134242e-02,  2.5391830131e-02,  6.6741473973e-02,  1.0045299679e-01,  6.4144149423e-02, -3.4738823771e-02,  1.9828734919e-02, 
	 5.6303486228e-02,  6.5559551120e-02,  9.5221549273e-02,  5.7103045285e-02, -4.4652398676e-02, -3.7016604096e-02,  1.9677577540e-02, -5.7189226151e-02, -5.4314710200e-02, -1.9714038819e-02, 
	 4.4628396630e-02,  2.0561145619e-02,  1.6192335635e-02, -1.2415338308e-02, -2.9042169452e-02, -2.5611553341e-02,  7.0326417685e-02,  3.8005627692e-02,  4.6325631440e-02, -3.3299259841e-02, 
	-1.1621577665e-02,  7.4371993542e-02,  1.0695158504e-02,  3.7195157260e-02, -3.2862622291e-02, -4.6448886395e-02,  1.0454624146e-01,  2.4667801335e-02, -1.0972816497e-02,  1.1867221445e-01, 
	 5.2352998406e-02, -3.7602819502e-02, -7.2668351233e-02,  2.3311907426e-02,  2.3905863985e-02, -1.1999349110e-02, -1.3878259808e-02, -5.2343994379e-02,  3.9721786976e-02,  6.4316496253e-02, 
	 6.7665562034e-02,  6.9401584566e-02, -3.1406546477e-03, -5.5557228625e-02,  3.2348450273e-02, -8.5840798914e-02, -1.8996680155e-02,  2.6684040204e-02, -1.4544789679e-02, -6.3529364765e-02, 
	 1.5611582203e-03, -2.1390844136e-02,  5.0413310528e-02, -2.3276435211e-02,  7.4919471517e-03,  2.5721950457e-02, -4.0223140270e-02,  2.1419545636e-02, -9.0984916314e-03, -7.1749597788e-02, 
	 2.5857683271e-02, -2.3770734668e-02, -1.0237364471e-01,  2.0453821868e-02,  2.2778049111e-02, -4.0813248605e-02, -2.0513677970e-02, -1.0324240476e-01, -8.8363014162e-02, -1.2530682608e-02, 
	-9.5515206456e-02, -4.5299571007e-02, -4.6145889908e-02, -9.6150450408e-02, -2.6319544762e-02, -1.1989784241e-01, -1.7394369468e-02, -3.5998474807e-02, -4.6876054257e-02, -1.3506010175e-02, 
	-1.8730746582e-02,  4.9718964845e-02,  4.2561423033e-02, -2.7405947447e-02,  7.7390760183e-02,  1.6209427267e-02, -1.5908205882e-02,  5.2087694407e-02,  3.4825566690e-03,  2.1032456309e-02, 
	 3.7982232869e-02,  6.1924364418e-02,  6.2333703041e-02, -4.9628954381e-02, -8.4315128624e-02, -6.2252897769e-02, -1.3075761963e-03, -4.9726959318e-02,  3.9603542536e-02,  2.1821001545e-02, 
	-3.9071757346e-02,  4.1761249304e-02, -1.2032155879e-02,  8.6504854262e-03, -2.2311905399e-02,  6.8157729693e-03, -1.0938119376e-03, -9.3760296702e-02, -2.9300501570e-02, -5.9027150273e-02, 
	-2.9039533809e-02, -1.4820823446e-02, -4.7501856461e-03, -7.6976157725e-02, -6.6528245807e-02, -9.8704859614e-02, -1.0389546305e-01, -5.2521605045e-02, -1.2071954086e-02,  1.7595861107e-02, 
	 2.8488295153e-02, -1.3953100890e-02, -6.1510901898e-02,  5.9592362493e-02, -6.6529043019e-02,  2.1131373942e-02,  2.2431217134e-02, -1.8716178834e-02,  5.6178431958e-02, -1.1671508662e-02, 
	-6.7498743534e-02,  3.1335815787e-02,  4.1252307594e-02,  3.1474001706e-02,  1.1778142303e-02,  4.2716380209e-02,  2.7491390705e-02,  3.6977518350e-02,  2.2123690695e-02,  4.8755654134e-03, 
	 3.6539677531e-02, -4.5654335991e-03, -1.7767408863e-02, -3.3504609019e-02,  3.0135950074e-02, -1.8731817603e-02, -7.2507701814e-02, -2.7077531442e-02, -8.6124986410e-02, -3.9661545306e-03, 
	-2.6942308992e-02, -4.5374259353e-02, -1.0904083401e-01, -1.9149634987e-02, -4.0543939918e-02, -1.6127115116e-02, -6.8583991379e-03,  1.0638747364e-02, -1.4104031958e-02, -4.5992113650e-02, 
	-2.0389977843e-02, -1.0362682864e-02, -5.3883917630e-02,  2.3572254926e-02,  2.4692084640e-02, -3.2955475152e-02,  3.5907633603e-02, -5.5469565094e-02,  4.5119933784e-02, -9.1949366033e-03, 
	-2.0405745134e-02,  2.2701192647e-02, -1.7344078049e-02, -1.7688608496e-03,  1.4199120924e-02, -6.6462554038e-02,  1.3821929693e-02, -5.0473701209e-02, -5.3848594427e-02,  5.9001840651e-02, 
	-6.2687300146e-02,  5.0660397857e-02,  5.0087500364e-02,  1.8793112831e-03, -8.5826218128e-03, -1.0059434921e-01, -2.3635663092e-02,  8.3666093647e-02, -1.5468247235e-02,  1.9710615743e-03, 
	-6.3409507275e-02, -5.5572789162e-02,  4.1202832945e-03,  6.3638970256e-02, -3.2508969307e-02, -5.0783641636e-02, -6.4602605999e-02,  6.8408004008e-03, -4.6738289297e-02,  3.5918250680e-02, 
	-6.6614978015e-02,  5.2153799683e-02, -6.0762766749e-02, -4.5640312135e-02,  2.4680105969e-02, -7.6649501920e-02, -1.9056169316e-02, -7.2362385690e-02, -3.6285188049e-02,  3.5565935541e-03, 
	 1.6187833622e-02,  1.5813080594e-02,  1.3392478228e-02, -6.4259752631e-02,  3.4692868590e-02, -1.0139861144e-02,  2.8314264491e-02, -6.6227396019e-03, -1.7161315307e-02, -6.1384689063e-02, 
	 4.0359310806e-02,  4.5231729746e-02,  3.5915110260e-02,  2.1974651143e-02, -4.4185534120e-02,  5.8960229158e-02,  1.0094095953e-02, -3.6658633500e-02,  4.4090915471e-02, -3.5793434829e-02, 
	 5.4378431290e-02,  9.2514175922e-03, -3.4076530486e-02, -1.9871512428e-02, -5.8967296034e-02,  2.9931077734e-02, -3.9794750512e-02, -6.0489501804e-02,  8.2612102851e-03,  4.9442321062e-02, 
	-4.1188290343e-03,  6.0435749590e-02, -1.6030522063e-02,  4.9576498568e-02, -1.3880194165e-02, -1.4849128202e-02,  2.3454434704e-03, -7.8034825623e-02, -5.5067900568e-02, -9.9719442427e-02, 
	 1.3415147550e-02, -1.4380185306e-01, -8.9295402169e-02,  6.5652497113e-02, -5.8612292632e-03, -7.5915157795e-02,  1.5088295331e-03,  4.2334575206e-02, -6.5465517342e-02,  6.4901627600e-02, 
	 6.5849713981e-02, -3.9160754532e-02,  3.9691712707e-02, -2.4200411513e-02,  6.5660014749e-02, -1.7481520772e-02, -3.9771102369e-02, -6.2204215676e-02,  1.7996592447e-02,  3.4430928063e-03, 
	 4.0250487626e-02, -5.6711446494e-02,  1.9425190985e-02,  1.9243853167e-02,  9.1619975865e-03, -5.5937409401e-02, -2.7161108330e-02,  6.4913682640e-02, -7.3127433658e-02,  6.1842059949e-04, 
	-7.8083209693e-02, -1.2600251648e-04,  6.0475371778e-02,  2.5565264747e-02,  3.0372479931e-02,  1.6790829599e-02,  2.4035913870e-02,  6.1407297850e-02, -9.4522088766e-03,  3.6498561967e-03, 
	 3.0900675803e-02,  2.1531324834e-02,  1.3834958896e-02, -1.9050180912e-02, -7.7137853950e-03,  3.5487558693e-02, -6.5570627339e-03, -4.7587346286e-02,  6.4152151346e-02, -8.0902956426e-02, 
	-5.0739198923e-02,  7.2583131492e-02, -8.3360145800e-04, -3.8832716644e-02,  5.2512612194e-02, -5.1149800420e-02, -4.9229014665e-02,  1.3355074450e-02, -4.7721110284e-02, -3.1955175102e-02, 
	-6.0239233077e-02,  8.0490984023e-02, -6.9463774562e-02,  3.2661616802e-02,  3.2206624746e-02, -7.2093360126e-02, -7.1083777584e-03,  6.5927281976e-02, -1.7563358415e-03, -5.8637601323e-03, 
	 6.2051612884e-02,  6.8077445030e-02, -6.9438129663e-02, -6.2456488609e-02,  4.0573205799e-02,  3.2845593989e-02,  5.9098687023e-02, -2.8425140306e-02,  3.9925135672e-02,  3.3095456660e-02, 
	 5.0477287732e-03,  6.4777703956e-03, -2.3664345965e-02,  3.0445508659e-02, -2.3953815922e-02,  6.9848060608e-02, -7.1260623634e-02,  2.9413009062e-02, -4.6518195421e-02, -6.5258167684e-02, 
	-7.6692618430e-02,  2.2921268828e-03, -2.7101315558e-02, -3.7033308297e-02, -5.8008071035e-02, -3.2010424882e-02, -4.2717143893e-02, -4.4101066887e-03, -2.2971961647e-02,  1.3335184194e-02, 
	 9.6497341292e-04,  5.4397497326e-02,  8.5603773594e-02, -1.4101938345e-02,  7.9275049269e-02, -2.9497530311e-02, -6.9242209196e-02,  9.6234939992e-03, -9.2891447246e-02, -1.0695281625e-01, 
	-1.0144586116e-01, -1.0473968089e-01, -5.1656376570e-02, -2.5761494413e-02,  6.2777213752e-02,  8.2929469645e-02,  4.1362661868e-02,  3.2728005201e-02,  3.6311552394e-03, -2.2893857211e-02, 
	-5.3501192480e-02,  5.6272864342e-02, -7.2288043797e-02, -8.2964979112e-02,  3.1953863800e-02, -6.6752946004e-03,  2.5879083201e-02,  3.5057019442e-02,  4.4306762516e-02, -1.1797175743e-02, 
	-3.7979401648e-02, -1.1975644156e-02, -7.6658837497e-03, -3.3150024712e-02,  6.5727509558e-02, -6.0662161559e-02,  6.2133245170e-02, -2.7009746991e-03, -3.9580543526e-03,  1.8346367404e-02, 
	 4.6905934811e-02,  6.7077293992e-02,  7.8206061153e-04,  6.9826804101e-02, -6.6661484540e-02,  2.3351278156e-02, -1.6747854650e-02, -2.8821986052e-04, -4.2740501463e-02, -3.6346998066e-02, 
	 2.1553318948e-02,  1.9167574123e-02,  2.9083581641e-02, -3.9571810514e-02,  5.6727095507e-03, -6.2110617757e-02,  1.1862688698e-02,  6.9332048297e-02, -4.7587291338e-03,  4.0782246739e-02, 
	 1.0877866298e-01,  5.4131899029e-02, -7.5066432357e-02,  5.1082216203e-02, -4.1170150042e-02, -2.0994080231e-02,  4.7115717083e-02, -3.5732034594e-03, -8.2568392158e-02,  1.9838986918e-02, 
	-5.8953803033e-02, -6.7771285772e-02, -1.6513596056e-03, -2.0136032254e-03,  4.5247603208e-02, -2.4356087670e-02, -8.2717537880e-02,  3.0025467277e-02, -8.7554991245e-02,  4.7595705837e-03, 
	 3.5309050232e-02, -1.4002303779e-01,  5.6871958077e-03, -3.1203305349e-02, -1.4051051438e-01, -5.0952438265e-02,  2.1405131556e-03, -3.0288733542e-02, -1.6053486615e-02,  5.9006709605e-02, 
	 6.6606602632e-03,  3.1829077750e-02, -5.9930354357e-02, -3.5970509052e-02,  3.0268749688e-03,  8.0118983984e-02, -1.9656145945e-02,  7.3863454163e-02,  3.8704987615e-02,  5.0354186445e-02, 
	 2.6538325474e-02,  4.7186791897e-02, -2.2754361853e-02,  3.7143595517e-02,  4.5159999281e-02,  2.9452633113e-02, -3.3626824617e-02,  8.8617939036e-04,  9.9357711151e-03, -7.8740403056e-02, 
	 1.3653884642e-02,  1.7269797623e-02, -3.6709725391e-03, -3.4979939461e-02,  1.6463087872e-02, -3.6869782954e-02,  5.1445990801e-02, -3.2994981855e-02, -4.8412963748e-02, -2.5546347722e-02, 
	 2.2613476962e-02,  3.9314612746e-02,  4.8954248428e-02, -1.7042530701e-02, -5.1152739674e-02,  9.0797198936e-03, -3.2608289272e-02, -7.2491034865e-02,  7.0491872728e-02, -7.4083887041e-02, 
	-1.5731060877e-02,  3.0579965562e-02,  5.4975297302e-02,  3.1663887203e-02, -2.5424275082e-03,  6.4817517996e-02,  2.1517317742e-02,  3.6957245320e-02, -6.1858668923e-02,  7.5815036893e-02, 
	 5.4591130465e-02,  4.5477349311e-02, -1.0962162912e-01,  6.1210844666e-02, -5.7747639716e-02, -3.6949761212e-02,  6.6324204206e-02, -7.7904923819e-03, -1.1845467985e-01,  3.7019152194e-02, 
	 1.6301047057e-02, -4.3537013233e-02,  3.9289481938e-02, -5.6730385870e-02,  4.3517886661e-03,  4.6778712422e-02,  3.9491854608e-02, -1.3496064581e-02,  6.0724221170e-02,  3.6202135962e-03, 
	-3.0577212572e-02,  4.0535967797e-02,  5.5977106094e-03,  1.7316304147e-02, -8.1338193268e-03,  1.7228034558e-03, -2.8370914981e-02, -2.2139701992e-02, -9.3620806932e-02, -2.1319659427e-02, 
	-3.5736195743e-02, -4.5839447528e-02,  7.4271649122e-02, -3.6763917655e-02, -3.2227642834e-02, -1.5359497629e-02, -2.8551684693e-02,  4.4594712555e-02, -1.2061195448e-02, -1.6227008775e-02, 
	 3.8463987410e-02,  1.5704164281e-02, -6.2970514409e-03,  1.8059516326e-02, -4.8965126276e-02,  9.5287151635e-03, -8.2459382713e-02, -5.1792390645e-02,  9.2785589397e-02, -1.0275261477e-02, 
	-4.1419241577e-02,  1.7440633848e-02, -3.9166938514e-02, -6.6606640816e-02,  8.6378999054e-02,  1.0828597844e-01, -3.2197676599e-02,  4.5328363776e-02,  4.9765933305e-02,  6.5941460431e-02, 
	-1.2393299490e-02,  4.7050133348e-02, -4.4156540185e-02, -7.1369633079e-02, -3.2521586400e-03,  4.3023731560e-02,  5.6344017386e-02,  4.1190151125e-02, -3.6697313190e-02, -2.4104358628e-02, 
	 4.1668340564e-02,  3.8227401674e-02, -2.1460149437e-02,  3.0955312774e-02,  2.7590274811e-02, -3.5607729107e-02, -1.6790127382e-02,  6.7225836217e-02,  4.8953616060e-03, -4.8516191542e-02, 
	 6.7444220185e-02,  4.9078237265e-02,  6.3440136611e-02,  6.3919359818e-03, -3.2829724252e-02,  3.2641191036e-02,  2.6763340458e-02,  2.6254134253e-02,  3.0414119363e-02,  4.6657845378e-02, 
	 4.0515124798e-02, -4.9708385020e-02,  6.5381176770e-02, -7.0989862084e-02,  9.3588188291e-02, -5.3663581610e-02,  3.5595420748e-02,  4.1341889650e-02, -5.9836596251e-02,  1.9526945427e-02, 
	 4.3222848326e-02,  3.9896771312e-02,  2.9561368749e-02,  4.9054443836e-02, -6.3937850296e-02,  2.3736011237e-02,  2.0386617631e-02, -7.1632310748e-02, -6.8135790527e-02,  2.4086028337e-02, 
	-6.2481410801e-02, -3.9660673589e-02,  1.3718071394e-02, -3.5003386438e-02, -4.1213043034e-02,  6.4839203842e-03, -2.4275986478e-02,  7.6956190169e-02, -3.6809369922e-02,  3.5831511021e-02, 
	 6.1994846910e-02, -3.7425149232e-02, -4.3481387198e-02,  4.6394340694e-02, -3.3743549138e-02,  6.8152905442e-03,  4.0259412490e-03, -4.1104655713e-02,  3.9670348167e-02, -8.5287902039e-04, 
	-4.5297663659e-02, -6.5201587975e-02,  2.2241242230e-02,  2.0988717675e-02, -9.8315440118e-04, -2.1097863093e-02, -6.0709856916e-04, -5.5349498987e-02, -2.9229588807e-02,  8.9811213315e-02, 
	 3.6310892552e-02, -4.7921009362e-02, -1.3518450782e-02, -1.6429891810e-02, -3.9835039526e-02, -3.0219329521e-02, -5.1856789738e-02,  1.4009293169e-02, -9.4629421830e-02, -3.2936967909e-02, 
	 7.6020002365e-02, -3.7826165557e-02, -7.2672246024e-03, -3.4894336015e-02, -2.6168163866e-02, -4.4367900118e-03,  4.5448616147e-02,  8.9772708714e-02,  7.8881476074e-03,  4.6161063015e-02, 
	-5.4687298834e-03, -3.0235713348e-02, -4.7312919050e-02, -6.6010546871e-03, -5.9491533786e-02,  1.3767316937e-02, -4.2927779257e-02, -4.6247415245e-02,  6.2479045242e-02, -6.3590876758e-02, 
	-2.1001577377e-02,  2.4816719815e-02, -8.5560074076e-03, -4.2117778212e-02,  6.3208624721e-02,  4.2445030063e-02, -1.4148633927e-02,  3.8778614253e-02,  5.6953798980e-02, -6.0401517898e-02, 
	-2.0224276930e-02, -7.9597152770e-02,  2.1550392732e-02, -5.6715264916e-02,  5.1886574365e-03,  1.3938114047e-02, -3.5754613578e-02, -8.2894027233e-02,  4.1417997330e-02,  5.6125529110e-02, 
	 5.6688770652e-02, -1.1355093680e-02,  6.2120659277e-03, -2.8994632885e-02, -3.2059036195e-02, -5.8398067951e-02,  5.4401617497e-02,  2.9485106468e-02, -6.6474019550e-03,  7.3260679841e-02, 
	 1.6702108085e-02,  5.1551949233e-02,  1.1889275908e-01,  7.6372876763e-02,  7.6625399292e-02,  4.2044647038e-02, -5.2645143121e-02, -6.6826768219e-02,  6.9456510246e-02, -4.9524541944e-02, 
	-1.0953425616e-01,  1.0913255624e-02,  2.0403852686e-02, -6.7838825285e-02,  2.4859575555e-02, -6.0369353741e-02, -7.4327416718e-02,  9.0387687087e-03,  4.8487767577e-02, -1.1463125236e-02, 
	 7.5372876599e-03, -1.3353266753e-02,  4.8298466951e-02, -6.6287763417e-02, -7.0994488895e-02, -4.0308460593e-02,  5.6490223855e-02,  7.3778003454e-02, -8.7658967823e-03,  9.8934456706e-02, 
	 2.9484249651e-02,  5.1810733974e-02,  2.4223072454e-02,  2.0713875070e-02,  4.6008933336e-02,  4.1138179600e-02, -9.0489378199e-03,  6.3947863877e-02, -3.4643009305e-02, -3.8280159235e-02, 
	-4.3524272740e-02,  6.6556848586e-02,  6.1674367636e-02, -2.7301784605e-02, -1.1772562563e-01,  2.5374053046e-02,  4.8460576683e-02, -1.2754809856e-01,  3.2833593432e-03, -1.6144814435e-04, 
	 2.4803366512e-02, -3.2996904105e-02,  6.9567472674e-03,  1.9338203594e-02,  3.0056415126e-02, -2.1828655154e-03, -5.0958409905e-02, -7.3584534228e-02,  1.7048636451e-02,  5.4861593992e-02, 
	 8.0506931990e-03,  3.6713626236e-02,  2.9679032043e-02, -4.8658396117e-03,  9.7571648657e-02, -4.2677119374e-02, -1.9954524934e-02,  5.2104286849e-02, -1.8179796636e-02, -2.0766453817e-02, 
	 8.5293479264e-02, -4.6951953322e-02,  6.1919618398e-02,  5.3848952055e-02,  1.9691308960e-02,  7.6196067035e-02,  1.4202903956e-02,  1.9779300317e-02, -6.2312960625e-02, -3.6903123837e-03, 
	-1.0186026990e-01,  3.3622927964e-02,  7.5080007315e-02, -7.7723287046e-02, -5.8528807014e-02,  8.1684544683e-02, -1.4188997447e-01, -4.1184090078e-02, -2.6068484411e-02, -3.0892007053e-02, 
	-7.3369145393e-02, -3.6668352783e-02, -1.0341297090e-01, -1.7677616328e-02, -1.0434553027e-02, -1.1204848997e-03, -2.8233494610e-02, -6.6700004041e-02, -1.7059389502e-02, -7.8149043024e-02, 
	 1.7353313742e-03,  3.5739880055e-02, -4.9683865160e-02,  4.5372828841e-02,  1.1512886733e-02,  3.8198485970e-02,  6.5073750913e-02, -5.8530464768e-02, -3.1015358865e-02, -7.1275234222e-02, 
	 2.7723379433e-02,  5.5330645293e-02, -2.0152516663e-02,  9.8719075322e-03, -1.2764598243e-02, -4.2754396796e-02, -1.3042041101e-02, -1.1383246630e-02,  4.5505575836e-02,  2.9015623033e-02, 
	 3.5607898608e-03, -1.4347589575e-02,  1.8570488319e-02, -1.0247092694e-02,  2.9512010515e-02,  8.0384783447e-02, -1.5221657231e-02,  5.6613117456e-02, -4.9145417288e-03, -5.5018700659e-02, 
	 5.6188725866e-03,  4.1625641286e-02,  4.6100959182e-02,  2.5220638141e-02, -2.7467455715e-02,  3.8359437138e-02, -9.8328024149e-02,  9.3045616522e-03, -2.7204155922e-02, -3.6197669804e-02, 
	 3.2772276551e-02,  9.8188659176e-03,  7.8936651349e-02,  1.6456386074e-02, -4.8981346190e-02, -3.3917788416e-02, -3.6634597927e-02,  1.8119048327e-02, -8.5720285773e-02, -9.7419947386e-02, 
	 4.4790748507e-02,  7.1097418666e-02,  3.3367838711e-02, -2.6519656181e-02, -1.2341680937e-02,  6.2236757949e-03,  8.3631211892e-03, -6.0919066891e-03, -5.5811610073e-02,  1.1651825160e-02, 
	-6.4422294497e-02, -2.8429580852e-02, -4.2659632862e-02,  1.7446452752e-02, -3.7697777152e-02, -4.8704214394e-02,  4.7343406826e-02, -4.6208743006e-02, -5.7376489043e-02, -3.4437887371e-02, 
	-4.8952542245e-02,  3.4901516046e-03, -6.7571640015e-02, -4.8777412623e-02,  1.6711872071e-02, -5.4633319378e-02,  4.8249304295e-02, -3.1833332032e-02,  1.8845222890e-02, -5.4945293814e-02, 
	 2.2124234587e-02, -1.8024973571e-02,  8.1981211901e-02, -4.4898733497e-02, -3.2536089420e-02,  6.4109191298e-02, -4.7658298165e-02,  9.3111218885e-03,  3.5319447517e-02, -1.1568165384e-02, 
	-8.6409643292e-02, -4.8763539642e-02,  2.1918578073e-02, -8.6629733443e-02, -1.1770233512e-01, -3.4081690013e-02,  6.3229076564e-02,  4.6666417271e-02,  3.3277451992e-02,  7.5233936310e-02, 
	-5.6894449517e-04,  7.1353659034e-02,  7.1790171787e-03,  5.8401606977e-02, -2.2053155408e-04,  8.4358565509e-02, -1.5596656129e-02,  8.3339102566e-02, -8.8760461658e-03, -6.1848219484e-03, 
	 5.6164722890e-02, -2.0104620606e-02, -6.0040235519e-02, -6.0339192860e-03, -5.4480191320e-03,  3.1477890909e-02,  5.3150657564e-02, -5.0187919289e-02,  1.6835706308e-02,  7.5382277369e-02, 
	 3.8271736354e-02,  2.0239822567e-02, -5.9520810843e-02,  4.9548193812e-02, -2.0453898469e-04,  3.1487494707e-02,  3.0568957329e-02,  4.9376297742e-02, -7.5754791498e-02, -6.1867892742e-02, 
	-1.1688503437e-02,  5.5448174477e-02, -2.0083080977e-02,  2.0256878808e-02, -3.2050576061e-02,  8.8583901525e-02,  1.4958901331e-02,  3.5030856729e-02,  4.3837558478e-02, -7.9663835466e-02, 
	-9.2790424824e-02, -2.1077267826e-02, -8.1382103264e-02, -6.6656500101e-02, -3.8902327418e-02,  3.0469587073e-02, -4.7855339944e-02,  6.1986208893e-03,  1.8626840785e-02, -6.5892405808e-02, 
	 7.6212704182e-02,  5.1663182676e-02,  6.0241524130e-02, -4.8683941364e-02,  8.6078740656e-02,  7.5896196067e-02, -3.3298745751e-02,  1.9573895261e-02,  3.5228673369e-02, -4.7942869365e-02, 
	-3.2962705940e-02, -3.4885670990e-02,  4.0955878794e-02, -1.6086639836e-02, -5.9929057956e-02,  1.9198313355e-02, -2.5054499507e-02, -5.0566118211e-02, -3.0612830073e-02,  1.0187435150e-01, 
	-2.0471002907e-02,  2.0432325255e-04,  7.0784375072e-02, -6.9715888239e-03, -5.6721325964e-02,  5.3853350691e-03,  1.1092098430e-02,  8.8059380651e-02, -5.5162180215e-02,  3.8326144218e-02, 
	 1.1882020161e-02, -2.0719436929e-02,  7.0521093905e-02, -5.1107190549e-02, -5.8885075152e-02,  7.9343155026e-02, -1.6684059054e-02,  1.5216412954e-02,  2.3241848685e-03, -2.0453870296e-02, 
	-3.4208871424e-02,  4.4479049742e-02, -1.3385271654e-02, -4.7226522118e-02, -2.2985763848e-02, -3.8395296782e-02,  2.1303430200e-02, -3.8947988302e-02,  4.1336186230e-02, -4.7491889447e-02, 
	-2.3403074592e-02, -4.0892701596e-02, -3.3311210573e-02, -2.5267985184e-03, -6.5127365291e-02,  8.2175014541e-03,  2.6027943939e-02, -4.3069548905e-02, -8.8959299028e-03,  3.9050009102e-02, 
	 1.7462546006e-02, -3.5353907151e-04,  3.1569123268e-02, -7.5343651697e-03, -2.7637770399e-02, -6.1517085880e-02, -6.3390031457e-02,  6.6941857338e-02,  6.9071047008e-02, -1.2351752259e-02, 
	-2.4474268779e-02, -2.7837764472e-02,  4.3425075710e-02, -3.3103030175e-02, -1.0781911202e-02, -8.7805487216e-02, -9.0084569529e-03,  3.9912909269e-03, -8.1591822207e-02, -2.5991424918e-02, 
	-9.7717428580e-03,  4.9596074969e-02, -3.6380492151e-02,  1.2762376107e-02,  4.5280251652e-03,  1.4176555909e-02,  8.1082675606e-03, -4.8148207366e-02, -2.4185640737e-02, -4.2057838291e-02, 
	-4.7914948314e-02, -5.7173624635e-02, -6.0327933170e-04, -7.0936292410e-02,  2.1444793791e-02, -6.9795116782e-02, -6.1207771301e-02, -8.1447087228e-02, -3.5394117236e-02,  1.1734324507e-02, 
	-6.2457203865e-02,  2.9889348894e-02, -1.7646808177e-02, -4.2747002095e-02,  2.9365077615e-02, -3.9109252393e-02, -2.1497223061e-03, -5.0635725260e-02,  2.0618455485e-02, -1.0678287596e-02, 
	-3.5629864782e-02, -6.1221074313e-02,  7.3886640370e-02, -4.3836206198e-02,  1.3724157587e-02,  2.6502702385e-02,  1.3783565722e-02, -4.9301810563e-02,  1.8336294219e-02,  1.8119132146e-02, 
	-7.3211915791e-02, -3.8860574365e-02,  1.6894483939e-02, -5.8766063303e-02, -7.7734835446e-02, -2.3518769071e-02, -7.1153110184e-05,  1.0273429751e-01,  7.6801508665e-02,  6.5568625927e-02, 
	 4.4451072812e-02,  8.1866972148e-02, -1.4662533067e-02, -2.9892278835e-02, -2.1016793326e-02,  6.3887953758e-02,  4.7722857445e-02,  3.5578325391e-02,  2.1095946431e-02,  8.8117606938e-03, 
	-4.4276256114e-02, -8.3332121372e-02, -1.5400167555e-02,  2.8522575274e-02, -1.0829725303e-02, -5.3880605847e-02,  7.5175300241e-02,  8.7166292360e-04,  2.7990486473e-02,  6.7366674542e-02, 
	-3.9507141337e-03,  3.4585755318e-02,  3.6677386612e-02,  1.5883814543e-02, -6.4401894808e-02,  8.5343104729e-05, -1.1375794187e-02, -6.0054682195e-02,  3.9813231677e-02, -2.8648613021e-02, 
	-4.3268043548e-02, -3.5130698234e-02,  2.0784188062e-02,  2.1511826664e-02,  2.9347894713e-02,  1.8122645095e-02, -1.4809198678e-02, -2.1894883364e-02, -6.3817471266e-02, -4.7594070435e-02, 
	 7.0328556001e-02, -4.3603289872e-02,  1.0548730195e-01,  7.1801587939e-02,  1.9060741179e-03,  1.7203291878e-02, -2.8425035998e-02,  4.6327374876e-02,  8.5363775492e-02,  7.8170798719e-02, 
	 3.4563016146e-02,  4.5283723623e-02,  8.3534196019e-03,  9.0522328392e-03,  3.7554815412e-02, -2.3638209328e-02, -5.4470084608e-02,  5.6411899626e-02,  8.7218977511e-02, -6.6786609590e-02, 
	-1.7644360662e-02, -6.3683525659e-03, -4.2345676571e-02, -7.2931289673e-02, -2.0254535601e-02, -1.9877817482e-02,  1.1922487617e-01,  9.3600817025e-02, -5.3196482360e-02,  4.6377815306e-02, 
	-8.4122702479e-02, -7.3833562434e-02,  4.3998286128e-02,  5.2465759218e-02, -2.1039159968e-02,  1.6905399039e-02, -1.1726837605e-02, -2.4090578780e-02, -1.3925512321e-02, -9.1659255326e-02, 
	-6.8700648844e-02,  1.5087042935e-02, -9.7220458090e-02,  2.7180410922e-02, -1.1967715807e-02,  1.9708259031e-02,  2.9061866924e-02,  3.7735775113e-02, -3.5453431308e-02, -7.4942134321e-02, 
	 3.3950600773e-02, -8.9216344059e-02, -4.4243723154e-02,  3.9091672748e-02,  3.3480718732e-02, -2.1598910913e-02,  2.4856695905e-02,  3.3066522330e-02,  1.5968978405e-02, -4.9070045352e-02, 
	-3.2103690319e-03,  4.1426859796e-02,  5.8068003505e-02,  1.7611667514e-02,  1.6775134951e-02, -1.6223736107e-02,  1.9992331509e-03, -5.5032517761e-02, -1.2541802600e-02,  3.7999361753e-02, 
	-8.1624329090e-02,  1.0216928087e-02, -3.0139070004e-02, -3.5929549485e-02,  1.8212202936e-02,  7.6071090996e-02,  6.8534247577e-02,  3.6313533783e-02, -5.4086677730e-02,  1.0148824193e-02, 
	 1.2203209102e-02,  4.6719197184e-02, -1.1110958643e-02,  5.9795800596e-02,  7.4119396508e-02,  4.8011206090e-02, -5.2123140544e-02, -3.8524139673e-02,  6.7565865815e-02, -5.3397536278e-02, 
	 5.5165432394e-02,  3.2039802521e-02, -4.5211780816e-02,  1.4924018644e-02,  9.7543317825e-03, -4.5658428222e-02,  3.4256022424e-02,  3.8329534233e-02,  1.8364477903e-02,  4.9084402621e-02, 
	 2.4136058986e-02,  1.9343299791e-02,  4.5107863843e-02, -7.1505442262e-02, -5.0915174186e-02,  2.3308841512e-02, -1.1996809626e-03, -2.7165217325e-02, -7.5860549696e-03,  3.5740769817e-04, 
	-1.0801685974e-02,  4.6207424253e-02,  6.4138375223e-02,  7.7550085261e-03,  3.6151811481e-02,  2.1627988666e-02, -1.4925985597e-02, -3.1033067033e-02,  1.3932016678e-02,  3.4040767699e-02, 
	-4.8234865069e-02,  4.2009904981e-02,  6.8372093141e-02,  1.5298128128e-02, -1.1424481869e-02, -6.6762946546e-02, -8.6747244000e-02, -7.5506754220e-03, -9.6525583649e-04,  2.2481163964e-02, 
	-6.5883256495e-02, -2.7914535254e-02, -4.5283839107e-02, -5.0642475486e-02, -6.7538909614e-02, -1.0073231533e-02, -2.1728612483e-02, -3.2056376338e-02, -4.0003653616e-02, -4.6203102916e-02, 
	-6.8798020482e-02,  3.2369010150e-02,  5.1270551980e-02, -5.3866695613e-02, -5.1565766335e-02, -6.9292739034e-02, -1.2225475162e-02,  2.5356060360e-03, -2.2961368784e-02,  3.7966549397e-02, 
	-2.6983771473e-02,  6.2247045338e-02,  6.7089125514e-02,  4.7361895442e-02, -2.6204908267e-02,  2.7562705800e-02, -4.2105671018e-02, -6.0321874917e-02, -6.0753118247e-02, -2.5903112255e-03, 
	-1.9501492381e-02, -3.2172493637e-02,  2.7916731313e-02, -5.0506316125e-02, -7.7768854797e-02,  1.4608469792e-02,  3.8546200842e-02, -1.1883685365e-02,  3.6292362958e-02, -6.3580267131e-02, 
	 9.2414878309e-03, -6.2295049429e-02,  3.1181285158e-02,  7.9204611480e-02, -2.8457395732e-02,  2.3556729779e-02, -2.9194405302e-02, -3.9934799075e-02, -4.1671525687e-02, -4.7925226390e-02, 
	-8.4857409820e-03, -4.3525849469e-03, -1.1764565483e-02,  2.9613716528e-02, -2.1484877914e-02,  4.9885150045e-02, -1.7065830529e-02, -1.0715307668e-02,  6.5359112341e-04,  4.5579873025e-02, 
	-1.0961808264e-02,  2.3562461138e-02,  3.7783607841e-02, -4.7267347574e-02, -1.6261653509e-03, -5.8292198926e-02, -7.8038357198e-02, -4.0989417583e-02,  4.8061870039e-02, -3.9494227618e-02, 
	 1.0335515253e-02,  1.4036895009e-03, -1.2749344110e-02, -9.7011677921e-02, -1.4304742217e-02, -8.7472572923e-02,  4.8163183033e-02,  3.7011012435e-02,  7.4998334050e-02, -4.1485581547e-02, 
	 5.2662100643e-02, -4.8405616544e-03,  8.1838861108e-02, -3.2340619713e-02,  4.8102971166e-02, -5.5420018733e-02,  1.4815380797e-02, -5.7074580342e-02,  6.4989708364e-02,  5.3887955844e-02, 
	-7.3290027678e-02, -1.4977740124e-02, -7.2068125010e-02,  5.3322065622e-02,  1.2059161440e-02, -3.4666962922e-02,  5.5628720671e-02,  8.5588164628e-02,  3.8341842592e-02, -2.2350681946e-02, 
	 6.9402769208e-02,  1.5295830555e-02, -3.9971522056e-03, -2.2982710972e-02,  8.9830078185e-02, -8.1004058302e-05,  4.4007789344e-02,  5.8860655874e-02,  1.7148265615e-02, -5.5224068463e-02, 
	 1.5489119105e-03, -1.8701413646e-02,  1.1517672800e-02,  3.0412372202e-02, -4.5389186591e-02, -5.9803701937e-02, -1.2987643480e-02,  9.3647025526e-02,  2.8696330264e-02, -4.6562898904e-02, 
	-5.3772091866e-02, -5.9916812927e-02, -3.0181141570e-02,  1.2161338702e-02,  1.7760692164e-02, -6.9332912564e-02,  7.2052292526e-02,  5.8941777796e-02,  4.5841980726e-02, -2.7211390436e-02, 
	 1.4958452666e-03, -2.4207491428e-02, -2.0479897037e-02, -6.4895413816e-02, -1.0536072776e-02, -1.8091896549e-02, -1.9775394350e-02, -4.4843349606e-02, -8.8574156165e-02, -7.3506245390e-03, 
	-5.6398414075e-02, -2.7055462822e-02, -3.9661481977e-02,  5.5852378719e-03,  8.1760220230e-02,  3.7373773754e-02,  7.2860851884e-02,  5.2900731564e-02,  5.8494091034e-02,  4.1998591274e-02, 
	-2.0834576339e-02,  5.4374132305e-02,  6.4040884376e-02,  3.2739389688e-02, -1.3608005829e-02,  4.7745633870e-02, -1.3844455825e-03,  3.0584346503e-02,  6.9491796196e-02,  2.8003372252e-02, 
	-1.6782782972e-02,  2.8405599296e-02,  2.3177886382e-02,  2.4555547163e-02,  6.1899207532e-02, -4.2062319815e-02,  4.4913884252e-02,  6.6910587251e-02, -7.5142778456e-02,  7.4138239026e-02, 
	 1.6508178785e-02, -2.6333250105e-02, -2.2270964459e-02, -8.3475830033e-03,  4.6163871884e-02,  3.8045819849e-02, -1.2942393310e-02, -9.2102780938e-02, -8.6296357214e-02, -5.9833779931e-02, 
	 7.4804364704e-03, -7.0828989148e-02,  9.1427583247e-03,  4.4376932085e-02, -5.2684109658e-02,  1.8650351092e-02,  1.2701176107e-02,  4.5258574188e-02,  1.9471066073e-02,  1.7837135121e-02, 
	-6.0695756227e-02,  4.9873967655e-03,  6.7476823926e-02, -6.6396333277e-02, -4.6342965215e-02,  3.1089445576e-02,  4.1020680219e-02,  4.2209554464e-02,  3.8090493530e-02, -4.8304565251e-02, 
	 9.4243250787e-03,  2.7990147937e-03,  7.9333253205e-02, -6.5278783441e-02, -3.3955153776e-04,  6.2351882458e-02, -5.2214223891e-02, -4.1244719177e-02, -3.8661139552e-03, -1.6431748867e-02, 
	-5.9811040759e-02, -5.0669059157e-02, -5.7852953672e-02,  7.4953526258e-02, -3.9968773723e-02, -3.3784814179e-02,  6.2369093299e-02, -6.9110572338e-02,  1.5293787234e-02,  5.2969292738e-03, 
	-3.6307442933e-02, -2.5051105767e-02, -8.0343835056e-02, -1.1833815835e-02, -3.4559790045e-02, -1.7441753298e-02, -1.2345452793e-02, -5.5115129799e-03, -7.3361732066e-02,  4.3593808077e-03, 
	 7.2801649570e-02, -7.2921916842e-02, -3.1148828566e-02, -3.6512494087e-02, -9.2290434986e-03, -6.8419516087e-02,  2.5251518935e-02,  5.0421003252e-02,  2.3810436949e-02, -3.9031732827e-02, 
	-8.5379838943e-02,  2.9065895826e-02,  5.0102096051e-02,  1.4749466442e-02, -7.6790310442e-02,  3.9901241660e-02, -3.8622055203e-02, -5.9061296284e-02, -7.6548799872e-02,  2.6712398976e-02, 
	 2.5449741632e-02, -3.1830050051e-02, -8.1675752997e-02,  6.5401688218e-02, -3.4013666213e-02, -1.4215115458e-02,  2.6899235323e-02, -4.4218588620e-02, -4.8444218934e-02, -4.1299652308e-02, 
	 1.6772363335e-02, -1.1169735342e-02, -2.3015247658e-02,  5.3035680205e-02,  1.6774909571e-02,  1.1433511972e-02, -8.3038859069e-02,  1.6204861924e-02, -6.5190874040e-02, -1.0293005407e-01, 
	 2.3789251223e-02, -5.9570912272e-02, -7.5424291193e-02, -8.5899874568e-02, -6.3648201525e-02,  1.7255781218e-02, -4.8909630626e-02, -2.1403671708e-03,  5.2896711975e-02,  4.2818486691e-02, 
	-5.8977201581e-02,  7.7375069261e-02, -4.2439643294e-02, -4.4754021801e-03,  2.4508049712e-02,  7.4026495218e-02,  7.0378661156e-02, -1.9401893020e-02,  2.9304033145e-02,  7.1459271014e-02, 
	 8.3736367524e-02,  8.5476219654e-02,  7.8088663518e-02,  6.7418374121e-02, -4.0367718786e-02, -4.2362991720e-02,  7.6427366585e-03,  4.4818319380e-02, -3.8068398833e-02, -1.1681074277e-02, 
	-4.4380001724e-02, -2.8749719262e-02,  5.9200000018e-02, -3.4176744521e-02, -8.0037139356e-02, -1.6247389838e-02, -7.8533869237e-03, -5.2287120372e-02, -4.8721887171e-02, -2.9307277873e-02, 
	-4.1780199856e-02, -6.8596996367e-02, -7.6024040580e-02, -1.4484788291e-02,  1.6365213320e-02,  1.6218556091e-02,  6.4333386719e-02, -2.6540741324e-02, -8.3827115595e-02, -9.5483269542e-03, 
	 3.7133868318e-03,  2.4778584018e-02,  2.5205824524e-02, -1.6662107781e-02, -4.9915056676e-02, -3.9604797959e-02,  5.8618396521e-02,  6.0736920685e-02, -5.4872301407e-03, -2.4647165090e-02, 
	-4.7515243292e-02, -4.3456859887e-02, -1.3470068574e-02, -1.4045662247e-02, -2.8960371390e-02, -6.2925666571e-02,  5.5028460920e-02,  4.9300182611e-02, -2.3427866399e-02,  7.8482450917e-03, 
	-6.3272155821e-02,  9.1697014868e-03,  5.6073226035e-02, -5.7471706532e-03,  3.1020166352e-03,  6.8398587406e-02, -3.2330788672e-02, -4.2132131755e-02, -4.8393610865e-02, -1.9921435043e-02, 
	 8.8065695018e-03, -9.8111577332e-02,  2.2957723588e-02,  3.6095343530e-02, -2.4486495182e-02, -2.3595735431e-02,  2.4665197358e-02, -1.9245640142e-03, -7.3174521327e-02, -4.3894583359e-03, 
	-2.1564183757e-02, -8.5880734026e-02,  2.2309480235e-02, -7.3069073260e-02, -5.7834040374e-02, -5.7732153684e-02,  4.7767084092e-02, -4.7747613862e-03,  2.7492569759e-02,  6.5177083015e-02, 
	-5.7736515999e-02, -2.4953961372e-02, -8.8492929935e-03,  6.4870223403e-02,  6.0658931732e-02,  4.5626804233e-02, -4.5748166740e-02, -5.3253442049e-02, -2.1884402260e-02,  2.8703339398e-02, 
	 1.1235636659e-02, -3.8735552225e-03,  7.4750244617e-02, -3.6717530340e-02,  4.3675057590e-02,  1.2238798663e-02,  1.5654422343e-02,  4.4002395123e-02, -2.7172183618e-02, -2.8359765187e-02, 
	 1.6738642007e-02,  2.6247035712e-02,  4.3951891363e-02,  2.2438671440e-02, -2.8014918789e-02, -5.3112197667e-02,  1.0591784492e-02,  5.3664859384e-02,  6.0204971582e-02,  3.2446123660e-02, 
	 5.0075441599e-02, -3.5372585058e-02, -3.6623876542e-02, -2.0222412422e-02, -5.2132323384e-02, -7.3762916028e-02, -1.0250012577e-01,  4.0316625382e-04, -2.1746089682e-02, -7.0629119873e-02, 
	-8.4117263556e-02, -4.7597046942e-03,  2.6193333790e-02, -6.2204901129e-02,  2.6329150423e-02, -3.3563353121e-02,  7.1852065623e-02, -2.2274099756e-03,  5.3798686713e-02, -7.4502900243e-02, 
	 2.2286392748e-02,  3.4271664917e-02, -3.5994175822e-02,  7.1755871177e-02,  1.7109833658e-02,  3.2574359793e-03,  3.4073624760e-02, -6.1326161027e-02, -6.4034976065e-02, -1.8263678998e-02, 
	-4.8234015703e-02, -5.1865205169e-02, -8.5459329188e-02, -1.0285228491e-01, -7.6842717826e-02,  2.0226841792e-02, -6.1816617846e-02, -6.1484597623e-02, -3.6059867591e-02,  7.0146988146e-03, 
	 8.0624252558e-02,  2.4689335842e-03, -4.4996328652e-02,  4.0451128036e-02,  3.6266405135e-02, -7.0174606517e-03, -1.1547101662e-02, -5.3220029920e-02, -5.9735786170e-02,  3.1486258376e-03, 
	-3.7010874599e-02, -5.1847130060e-02, -2.5247277692e-02, -1.2126603164e-02, -2.6667581871e-02, -2.8973920271e-02, -5.4363626987e-02,  8.4099836648e-02,  9.1174140573e-02, -1.1631449685e-02, 
	 2.3760210723e-02,  3.4183827229e-03,  7.2672642767e-02,  7.8366257250e-02,  2.2910673171e-02, -2.9824912548e-02, -1.9381666556e-02, -2.1856367588e-02,  3.1538750976e-02,  8.2919225097e-02, 
	-3.2306203502e-04,  3.9511896670e-02, -6.4928762615e-02, -4.3028339744e-02, -3.8349404931e-02, -2.2690804675e-02, -6.5387576818e-02,  5.3580630571e-02,  2.6842087507e-02, -4.3761242181e-02, 
	-7.2315983474e-02, -5.5407166481e-02,  1.7576673999e-02,  1.4394408092e-02,  4.3039396405e-02,  4.0115751326e-02, -5.4282359779e-02, -1.0281572118e-02, -4.0546145290e-02, -4.4939633459e-02, 
	 6.3188527711e-03,  3.2426629215e-02,  2.0230833441e-02, -2.4054779205e-03, -5.4426409304e-02, -2.6940612122e-02, -7.1736825630e-03, -8.4458984435e-02, -2.6752121747e-02, -5.3891971707e-02, 
	-1.8154266290e-03,  6.7249521613e-02,  2.0007388666e-02,  4.8364225775e-02,  7.1154408157e-02,  7.1695372462e-03,  4.6165127307e-02, -4.1432034224e-02,  3.2956339419e-02,  8.2095013931e-03, 
	 6.6132023931e-02, -3.7511747330e-02, -1.4609289356e-02, -5.2692189813e-02, -3.8558866829e-02, -2.8209598735e-02,  5.5938612670e-02, -6.7706368864e-02,  5.1107537001e-02, -5.3903330117e-02, 
	 2.7107585222e-02,  4.8449896276e-02,  4.5704051852e-02, -5.8530490845e-02, -6.6869132221e-02, -5.0681340508e-03, -4.8685472459e-02, -4.6291989274e-03, -6.2843285501e-02, -4.3768424541e-02, 
	-5.1041137427e-02,  2.6926234365e-02,  6.3313640654e-02, -7.3018267751e-02,  2.3055600002e-02,  4.9464527518e-02, -2.9443395324e-03, -7.9643502831e-02,  1.1928894091e-03, -5.6317593902e-02, 
	-9.3322079629e-03, -8.4407933056e-02,  4.2317997664e-02, -5.9885354713e-03, -2.9994405806e-02, -5.0396323204e-02,  8.9033968747e-02, -7.8370004892e-02, -7.0248432457e-02, -6.9252647460e-02, 
	 5.3631020710e-03,  2.9758939054e-03,  3.7971224636e-02, -5.1152624190e-02,  7.3305019177e-03, -6.8947397172e-02, -8.2182332873e-02,  6.3030566089e-03, -7.2012157179e-03, -6.0777414590e-02, 
	-6.4322255552e-02,  1.3720353134e-02, -3.8232997060e-02, -2.0724816248e-02,  4.0919944644e-02,  5.4033447057e-02, -8.5557410493e-03,  8.5730783641e-02, -1.4374446124e-02,  4.6067867428e-02, 
	-1.4943416230e-02, -3.4360219724e-03,  4.4370051473e-02,  4.6060707420e-02,  5.3740676958e-04, -4.1646938771e-02,  1.2658815831e-02, -9.0664494783e-03,  6.2121279538e-02, -6.1179301701e-03, 
	-2.2227117792e-02, -2.9326008633e-02,  5.7011161000e-02,  8.2175536081e-03,  4.7759499401e-02, -8.9594218880e-03,  7.7666416764e-02,  7.6990850270e-02,  4.4935066253e-02,  5.9308268130e-02, 
	-6.3498266973e-03,  8.1946616992e-03, -6.0508854687e-02, -1.1858736165e-02, -3.2048158348e-02, -3.9128050208e-02, -6.9289825857e-02, -1.0664311238e-02, -7.3618941009e-02, -5.5724948645e-02, 
	 7.5810931623e-02, -2.5953227654e-02,  1.2541010976e-02, -4.0007151663e-02,  3.9078239352e-02,  5.8503400534e-02, -4.3366897851e-02,  8.5536409169e-03, -1.8791527255e-03, -3.5243459046e-02, 
	-4.7981113195e-02, -3.3135548234e-02,  5.4795540869e-02, -6.2168098986e-02,  8.0452403054e-03,  2.9894156381e-02, -5.7571358979e-02, -6.3851028681e-02, -7.3959290981e-02, -3.7571057677e-02, 
	-7.9530298710e-02,  6.0602042824e-02,  6.9543041289e-02,  3.9072670043e-02,  3.9176251739e-02,  6.3692848198e-03,  1.7789468169e-02, -5.7831760496e-02,  6.2272220850e-02, -9.0155243874e-02, 
	-9.5498245209e-03, -5.8683458716e-02,  3.3583372831e-02, -1.0620193556e-02, -1.3554309495e-02,  8.9850975201e-03, -2.4584567174e-02,  1.6393031925e-02,  4.1629155166e-03,  3.8982521743e-02, 
	-3.9049346000e-02, -6.3901349902e-02,  4.2522050440e-02, -9.2556215823e-03,  2.4960255250e-02, -3.6685291678e-02, -1.1520720087e-02, -3.0867595226e-02,  2.0403634757e-02,  5.0749346614e-02, 
	-1.4267765917e-02,  4.5983221382e-02,  4.4405877590e-02,  9.6747875214e-03, -6.0875482857e-02, -8.0113649368e-02, -9.2889226973e-02,  1.0314873420e-02, -5.9897519648e-02, -3.0432531610e-02, 
	-5.2119366825e-02,  1.5990903601e-02,  3.4747451544e-02,  1.0780005716e-02,  8.6141183972e-02, -4.8556100577e-02, -4.2490217835e-02,  2.0320812240e-02,  4.7272308730e-03,  2.5119272992e-02, 
	 3.0033994466e-02,  3.1044526026e-02, -1.5885775909e-02, -5.3056430072e-02,  3.5292096436e-02,  4.6900894493e-02, -6.1465870589e-02,  7.1737556718e-03, -1.4710071497e-02, -6.9208979607e-02, 
	-6.8248406053e-02, -4.9344692379e-02,  1.1009075493e-01, -2.3292247206e-02, -3.3675361425e-02,  9.5596112311e-02,  8.6827697232e-03, -4.8062965274e-02,  8.9726828039e-02, -5.3610928357e-02, 
	-5.7666186243e-02,  3.2660651952e-02,  6.0097299516e-02, -3.6724951118e-02,  2.4610279128e-02,  2.9069826007e-02,  6.0539621860e-02,  3.1918887049e-02,  3.2088171691e-02, -3.0041258782e-02, 
	 5.2092000842e-02,  4.5391667634e-02, -2.5802368298e-02,  8.1781961024e-02,  7.5521200895e-02,  2.1038055420e-02,  7.7476136386e-02,  3.0385343358e-02, -3.1798992306e-02, -6.8023137748e-02, 
	-1.3910906389e-02,  2.3560963571e-02, -1.9991703331e-02, -3.9706107229e-02, -6.5819814801e-02,  2.9070610180e-02,  3.9606757462e-02, -6.5632805228e-02, -6.1016511172e-02,  1.5085933730e-02, 
	 5.9204031713e-03, -2.6397341862e-02, -3.1646853313e-03, -4.3346785009e-02,  1.0794782080e-02, -2.0522229373e-02, -3.6073062569e-02,  4.4816300273e-02,  2.4552520365e-02, -5.8258574456e-02, 
	 5.0069134682e-02,  6.1710961163e-02, -1.8553098664e-02,  6.4560651779e-02, -1.3434874127e-03, -6.4564108849e-02, -3.6919452250e-02,  5.6789692491e-02, -6.6587522626e-02,  2.3723129183e-02, 
	-3.9958741516e-02, -3.6698359996e-02, -2.1962976083e-02,  2.8338572010e-02, -2.1562257782e-02, -1.6546111554e-02, -1.4261821285e-02, -6.0094438493e-02, -3.1058482826e-02, -1.7585081980e-02, 
