#ifndef PARAMS_DENSE_0_H
#define PARAMS_DENSE_0_H
#include "params.h"

const float layer_0_dense_weight[UNET_PAR_0_DENSE_IN_DIM*UNET_PAR_0_DENSE_OUT_DIM] = {
	-2.4048711360e-01, -1.8302425742e-01, -3.0535411835e-01,  1.5970630944e-01, -2.1023818851e-01,  2.5399917364e-01,  1.3340055943e-01, -1.2521350384e-01, -2.0332261920e-01,  9.8173379898e-02, 
	 2.9408779740e-01, -1.4147113264e-01,  2.0029418170e-01,  2.1765004098e-01, -1.4593665302e-01,  1.8272677064e-01,  3.0997294188e-01,  1.6987791657e-01,  2.9846283793e-01, -1.0845214128e-01, 
	 2.8986668587e-01, -2.2226709127e-01, -1.1732885987e-01, -1.3302507997e-01,  1.7479220033e-01, -3.0986914039e-01,  2.3399613798e-01, -2.5354349613e-01,  1.1100140214e-01, -3.0559828877e-01, 
	-1.1996129900e-01, -2.4563424289e-01,  3.2488727570e-01, -1.1545415223e-01,  1.7200489342e-01,  2.5467070937e-01,  2.9072362185e-01, -1.2614546716e-01,  3.0919021368e-01,  1.1145410687e-01, 
	 9.2672459781e-02,  1.8900161982e-01, -1.3981983066e-01, -1.5099936724e-01, -1.4014066756e-01,  3.6915305257e-01,  1.5397481620e-01, -1.7074894905e-01, -1.7906978726e-01, -1.3343447447e-01, 
	-1.7108152807e-01,  1.2736596167e-01,  8.8947743177e-02,  2.3872531950e-01,  1.7263016105e-01, -2.7479085326e-01, -2.9847217724e-02, -2.6881620288e-01, -2.3195448518e-01,  2.2255000472e-01, 
	-1.1849798262e-01, -9.0934671462e-02, -8.6425393820e-02,  1.3465364277e-01, -1.7726159096e-01,  9.5806419849e-02, -2.6857277751e-01,  2.7807465196e-01,  1.3041511178e-01,  1.2138982862e-01, 
	-2.6889792085e-01,  2.0707246661e-01,  1.3740982115e-01, -2.9690751806e-02, -2.3427943885e-01, -2.1756868064e-01, -1.6624419391e-01, -2.4943423271e-01,  2.0111945271e-01,  2.2852064669e-01, 
	-1.6910275817e-01,  1.4201907814e-01, -2.0003172755e-01,  2.5804895163e-01,  2.8830850124e-01, -8.0637224019e-02,  2.8465726972e-01, -1.4240211248e-01, -1.7935369909e-01,  7.4249796569e-02, 
	 2.1636451781e-01,  2.3365035653e-01, -2.2181424499e-01,  1.8083669245e-01, -1.9448678195e-01, -1.6032408178e-01,  3.1679326296e-01, -2.7655705810e-01,  2.8465935588e-01, -3.9551217109e-02, 
	-8.2088232040e-02, -2.0781919360e-01,  1.5644167364e-01, -2.6788106561e-01, -2.0466519892e-01,  9.6322566271e-02, -2.0238575339e-01, -2.6614454389e-01, -9.4038955867e-02, -1.0311662406e-01, 
	-3.0960071087e-01,  1.3825470209e-01,  1.3214488328e-01, -1.2560282648e-01,  2.2303758562e-01, -1.5070247650e-01, -1.1496748030e-01, -8.3494782448e-02, -1.9117841125e-01, -1.2159982324e-01, 
	-2.8669619560e-01,  2.0478366315e-01,  1.4497567713e-01, -2.4486905336e-01, -2.9031628370e-01,  1.9247296453e-01, -2.4298185110e-01,  1.1763616651e-01, };

const float layer_0_dense_bias[UNET_PAR_0_DENSE_OUT_DIM] = {
	 3.2011818141e-02, -1.6168848379e-03,  1.7507207303e-05,  2.4983178824e-02,  4.9737527966e-02,  6.3497506082e-02,  2.1207638085e-02,  1.3656511903e-02,  1.1851333082e-02,  1.6668925062e-02, 
	 5.7809185237e-02, -8.8673802093e-03, -2.5770891458e-02,  6.6041685641e-02,  1.3246998191e-02,  5.7858098298e-03,  1.9960355014e-02,  7.1186744608e-03,  1.6227236018e-02,  3.4451294690e-02, 
	 5.9740979224e-02,  3.5686280578e-02, -2.1796951070e-02, -1.0735473596e-02,  7.0349819958e-02,  2.9768384411e-04,  3.3712118864e-02,  2.7766907588e-02,  2.1767220460e-03,  4.2357217520e-02, 
	 1.5767944278e-03, -1.0842313059e-02,  3.3534087241e-02,  1.7618237063e-02, -2.1448245272e-02,  3.1276207417e-02,  5.3864274174e-02,  3.4609854221e-02,  4.3537694961e-02, -1.1736907065e-02, 
	 1.3391670771e-02,  1.9340524450e-02,  2.4749718606e-02, -1.7203560099e-02, -6.7248325795e-03,  8.4307342768e-02,  2.5357408449e-02,  1.5164524317e-02,  2.5511563290e-03,  2.7679191902e-02, 
	-1.7688799649e-02, -2.6604151353e-02,  1.6856765375e-02, -1.3123626821e-02,  5.2451100200e-02,  7.3167547584e-02,  4.5195482671e-02,  6.7581697367e-03,  2.2901058197e-02, -5.3310226649e-03, 
	 1.0679541156e-02,  1.5420322306e-02, -4.2893979698e-02,  2.8042327613e-02,  3.3875491470e-02,  2.2346680984e-02,  5.9768818319e-02,  3.3931791782e-02, -2.0196081605e-03,  1.9034072757e-02, 
	 1.3318000361e-02,  3.8969151676e-02, -5.7619105792e-04,  1.8776865676e-02, -8.5110450163e-03,  2.8135763481e-02,  6.9432100281e-03,  6.4269274473e-02,  4.2138941586e-02,  2.2227928042e-02, 
	-7.2292280383e-03,  2.4546151981e-02,  1.2059113942e-02,  5.6756664999e-03,  2.0544098224e-03, -4.7381641343e-03,  1.4664789662e-02, -3.5741683096e-02,  4.2633850127e-02,  1.8549144268e-02, 
	 3.4388892353e-02,  2.2514337674e-02,  4.9145322293e-02,  2.3161245510e-02,  2.7231661603e-02,  1.0548311286e-02,  3.8195006549e-02, -6.1033349484e-03,  1.6090387478e-02, -1.8704703078e-02, 
	 1.2618388981e-02,  1.6055552289e-02,  1.5070525929e-02,  2.6125077158e-02, -5.9953064192e-04,  5.8169653639e-03,  3.7655729800e-02,  3.8932468742e-02,  9.2659574002e-03,  2.0058546215e-03, 
	 1.4323385432e-02, -4.9463944742e-04,  2.4910187349e-02, -1.1687358841e-02,  2.1466938779e-02, -9.6039567143e-03,  2.0806634799e-02,  2.8220944107e-02,  3.2149370760e-02,  2.8899522498e-02, 
	 2.2522563115e-02,  3.4872118384e-02,  2.6939183474e-02,  3.8235116750e-02,  1.8901396543e-02, -7.9442578135e-04,  3.5849515349e-02, -4.1781455278e-02, };


#endif
