#ifndef PARAMS_DENSE_2_H
#define PARAMS_DENSE_2_H
#include "params.h"

const float layer_2_dense_weight[UNET_PAR_2_DENSE_IN_DIM*UNET_PAR_2_DENSE_OUT_DIM] = {
	-1.6279907525e-01,  6.4434483647e-02, -1.2344693393e-01,  1.7645609379e-01, -1.9103708863e-01,  1.6784122214e-02,  1.1785968393e-01,  9.5937922597e-02,  8.5988461971e-02, -1.2241877615e-01, 
	-1.3462656736e-01, -1.3789585233e-01,  1.8122984469e-01,  1.5468567610e-01, -7.7337212861e-02, -1.6871850193e-01,  1.7632284760e-01,  6.0347184539e-02,  2.2603718936e-01,  1.3589400053e-01, 
	 5.2445389330e-02,  1.0246835649e-01, -9.5777869225e-02,  7.5931243598e-02,  1.4210300148e-01, -8.3679854870e-02,  9.5739975572e-02, -7.3570802808e-02,  2.0141027868e-01,  1.3978271186e-01, 
	-1.1789508164e-01,  1.1254364252e-01,  1.4305616915e-01, -4.0493119508e-02,  3.7858307362e-02,  6.8146981299e-02,  5.7544734329e-02, -1.8480989337e-01,  4.1420251131e-02,  1.7651323974e-01, 
	-1.0022068769e-01,  6.3679628074e-02, -8.7308242917e-02,  7.4557386339e-02, -2.2511793673e-01, -1.0592739284e-01,  1.0131898522e-01,  1.3949525356e-01, -7.2805829346e-02, -1.6207277775e-01, 
	 2.0251188427e-02,  1.4777950943e-01, -6.9197937846e-02, -4.1853334755e-02,  7.8278325498e-02,  1.2272945046e-01, -3.9619214833e-02,  3.2435674220e-02, -1.2197057903e-01,  5.4343406111e-02, 
	-1.8382583559e-01,  1.6787831485e-01, -8.1968002021e-02,  6.0903150588e-02,  1.6465720534e-01, -1.0777318478e-01,  4.4305697083e-03, -5.6271492504e-03,  5.8090653270e-02,  6.7992262542e-02, 
	-1.2865585089e-01, -1.2996048667e-02, -1.3027277589e-01, -7.3905467987e-02,  9.6562013030e-02, -8.3360508084e-02,  1.4504772425e-01, -1.4771565795e-01,  1.5907657146e-01, -1.3751176000e-01, 
	-1.0048321635e-01, -1.2126562744e-01, -1.7006669939e-01, -1.4295020700e-01,  1.5964253247e-01,  5.8622915298e-02, -1.2917058170e-01,  4.2098347098e-02, -2.1142253280e-01,  1.1886973865e-02, 
	 1.5850554407e-01,  1.2133317441e-01, -1.9003103673e-01,  3.1157048419e-02, -2.8039207682e-02,  6.8294264376e-02, -1.3300338387e-01, -6.5089531243e-02,  1.2983539701e-01,  3.0757308006e-02, 
	 1.2854045630e-01,  5.7703908533e-02,  2.4441825226e-02, -2.1356251836e-01,  4.0628887713e-02,  1.2261470407e-01,  1.3165295124e-01, -7.0536606014e-02,  5.1535103470e-02,  1.1062826216e-01, 
	 1.3165666163e-01,  1.3077652454e-01, -6.0760740191e-02, -6.1090007424e-02,  1.8915364146e-01, -2.0954261720e-01, -1.2911768258e-01, -9.7641237080e-02, -1.0298803449e-01, -7.1118801832e-02, 
	 6.1547487974e-02,  4.5662865043e-02, -4.4875517488e-02, -1.5654452145e-03,  1.1181416363e-01, -3.3753018826e-02, -1.5413747728e-01,  1.4286983013e-01,  1.2721841037e-01, -7.1738027036e-02, 
	 1.0493563861e-01, -1.4860337973e-01,  2.1826890111e-01, -1.1477911472e-01, -3.7688665092e-02,  1.6450485587e-01,  5.9128511697e-02, -2.0796681941e-01, -1.3167539239e-01, -1.2133084983e-01, 
	-2.5221619755e-02, -4.2637474835e-02, -8.4589548409e-02, -1.4910078607e-02, -1.5917214751e-01,  6.9130230695e-03, -1.2285733968e-01, -1.1950271577e-01, -2.3242253065e-01,  1.5169222839e-02, 
	 5.7098712772e-02,  6.9552943110e-02,  1.1011046916e-01, -8.6581334472e-02,  2.0963558927e-02, -1.3854926452e-02, -1.4578060806e-01, -5.8261808008e-02,  4.6976409853e-02, -1.2008649111e-01, 
	-3.9525084198e-02,  2.3467154801e-01, -6.9478198886e-02, -1.7732405663e-01, -2.1409708261e-01, -8.2229832187e-03,  1.2318605185e-01, -2.1675300598e-01,  2.3092588410e-02, -9.7336038947e-02, 
	-1.1642140150e-01, -7.6756596565e-02, -1.3114486635e-01,  5.2536074072e-02, -5.3582224995e-02,  1.3297703862e-01, -1.4708499610e-01,  1.7787553370e-02,  1.4856567979e-01, -8.9437916875e-02, 
	 1.1442733929e-02, -3.6781169474e-02,  1.3951648772e-01,  1.4096705616e-01, -6.3452787697e-02,  1.5397842228e-01,  2.0584261417e-01, -9.6138983965e-02,  3.2746616751e-02,  2.1726378798e-01, 
	-9.1057065874e-03,  3.9362121373e-02, -2.3059375584e-02, -1.3842254877e-01,  1.9166304171e-01, -2.1198193729e-01,  8.8021874428e-02,  5.5064242333e-02,  1.3599288464e-01, -1.9244042039e-01, 
	-1.5389023721e-01,  1.4047697186e-01, -6.6503196955e-02, -3.6817938089e-02, -1.3661147654e-01, -8.5235096514e-02, -1.5107858181e-01, -1.4564062655e-01,  4.7447152436e-02, -3.5668797791e-02, 
	-5.2741508931e-02, -8.0777443945e-02, -3.9458774030e-02,  1.0722481459e-01,  2.4887196720e-02, -1.6901479661e-01,  1.8163059652e-01, -1.8202231824e-01, -8.9434139431e-02, -1.6569815576e-01, 
	 6.0897141695e-02,  3.4650109708e-02, -1.2524707615e-01,  2.1428223699e-02, -1.3338302076e-01,  5.1298249513e-02, -2.2486588359e-01,  5.1518129185e-03,  2.4234898388e-01,  4.1241794825e-02, 
	 1.4808113873e-01, -5.0369493663e-02, -1.7552298959e-04, -3.7922047079e-02,  2.3245565593e-01,  5.2797127515e-02, -1.5723749995e-01, -8.5984617472e-02,  7.0151671767e-02, -9.4768993556e-02, 
	-1.7799477279e-01, -2.2637465969e-02, -1.1037649959e-01, -1.0804603994e-01, -8.0470219254e-02,  2.8821220994e-01,  2.4538259208e-01,  2.0799644291e-01,  5.8035716414e-02,  1.4944501221e-01, 
	-1.1011462659e-01,  6.7233502865e-02,  5.0857074559e-02, -8.9226804674e-02, -5.2707981318e-02,  1.7943387851e-02,  1.1042732000e-01, -3.8541171700e-02,  2.0991620421e-01, -2.0760339499e-01, 
	 1.0629168153e-01, -1.7525572330e-02,  1.0012224317e-01, -4.0879920125e-02,  1.9941778481e-01,  1.6661256552e-01,  2.5286911055e-02, -4.3440721929e-03,  1.3516449928e-01, -1.9451014698e-02, 
	 9.3782663345e-02, -5.9582446702e-03, -2.3913320899e-01, -1.9914273173e-02, -1.1467893422e-01,  3.9639819413e-02, -2.0197580755e-01,  1.5414078534e-01,  1.0363704711e-01,  1.4111433923e-01, 
	-1.5768870711e-01,  1.7510417104e-01, -2.1660110354e-01,  1.0039831512e-02, -1.2786760926e-01,  2.1072055399e-01,  1.7491762340e-01,  2.0701577887e-02, -1.9512622058e-01, -1.3985727727e-01, 
	-9.2963658273e-02,  1.3532853127e-01,  6.3162043691e-02, -1.1506983079e-02, -9.0928450227e-02, -5.9861816466e-02,  1.8524050713e-01,  4.9572814256e-02, -1.3587675989e-01,  1.8076859415e-01, 
	 4.3477118015e-02, -1.1632000655e-01,  3.9398699999e-02, -1.4469495416e-01, -1.0620993376e-01,  2.2597126663e-01,  1.5206639469e-01, -1.9138038158e-01, -8.8116087019e-02, -2.2917072475e-01, 
	 9.5657177269e-02,  1.4813721180e-01,  4.6521771699e-02,  4.4573236257e-02,  1.9167023897e-01, -1.6628986597e-01, -1.1246615648e-01,  4.1553173214e-02, -1.8154706061e-01,  1.2055534869e-01, 
	-1.4076585881e-02, -5.3568281233e-02, -1.2729197741e-01, -1.2899610400e-01, -8.1204414368e-02, -1.6543565691e-01,  1.0449722409e-01,  3.5226777196e-02,  3.4484241158e-02, -1.1787807941e-01, 
	 1.4439982176e-01,  1.1407587677e-01, -1.2099997699e-01,  1.4371535182e-01,  6.5295159817e-02, -2.4112517014e-02, -5.2017932758e-03,  9.4687053934e-03,  2.9774824157e-02, -8.2057639956e-02, 
	 1.5887245536e-02, -1.0763696581e-01, -2.0685501397e-01,  5.4390132427e-02,  4.2454585433e-02, -1.5881177783e-01, -3.7329483777e-02, -1.8539559841e-01,  2.1587584168e-02, -7.0131830871e-02, 
	 6.0447505675e-03,  6.4560301602e-02,  5.5290432647e-03, -1.4159767330e-01,  5.1974654198e-02, -2.5089187548e-02,  1.8440926075e-01,  4.7131482512e-02, -5.5238008499e-02,  1.0334673524e-01, 
	-1.0848876834e-01,  3.6174815148e-02,  4.1138663888e-02,  2.2098663449e-01,  1.2442675233e-01,  2.0892666280e-01,  1.5139439702e-01, -1.9009561837e-01, -1.4566567540e-01, -6.3328310847e-02, 
	-7.0681653917e-02,  2.2008249536e-02,  2.1513862908e-01,  2.9387822747e-01,  2.4861168861e-01, -3.3498082310e-02, -8.8984206319e-02, -1.8628509715e-02,  1.2238979340e-01, -4.8674754798e-02, 
	-2.4873804301e-02, -2.3739090562e-01, -6.3537918031e-02,  4.0238485672e-03, -7.2310253978e-02, -1.6432605684e-01,  1.8101908267e-01,  5.9595227242e-02,  8.5131535307e-03, -8.6977193132e-03, 
	 1.5994462371e-01,  1.1023030430e-01, -8.3538934588e-02, -2.2008346021e-01, -7.7745527029e-02,  5.0165910274e-02, -3.1018637121e-02, -1.4116872847e-01,  9.2385478318e-02, -1.3107886910e-01, 
	-2.3369476199e-02, -1.3953165617e-03, -1.8142077327e-01,  1.2949825823e-01,  1.3452014327e-01, -1.0857033730e-01, -1.0299129644e-03, -1.8627853692e-01,  8.7476857007e-03, -6.5454259515e-02, 
	-2.0507538319e-01,  9.5418639481e-02, -1.1020690948e-01,  6.7446539178e-03,  4.1860353202e-02, -2.9300205410e-02,  1.4737379551e-01, -1.7819339037e-01, -1.1606185138e-01,  1.2779226899e-01, 
	 1.0090098530e-01, -7.9755596817e-02,  5.8110080659e-02, -2.1164176986e-02,  1.5063548461e-02, -2.2653533146e-02,  5.4500263184e-02, -3.6666266620e-02,  2.0054824650e-01, -1.9536894560e-01, 
	-3.6100830883e-02, -1.4179630578e-01,  1.4420522749e-01,  4.8807099462e-02, -4.7843314707e-02,  2.3276126012e-02, -2.3100368679e-01, -4.8911456019e-02,  1.4132787287e-01,  2.1709948778e-01, 
	 1.4001287520e-01, -3.3794187009e-02, -1.4467597008e-01, -1.4580850303e-01,  1.5978643298e-01, -1.2476310879e-01, -1.0910054296e-01, -1.0192483664e-01,  5.0741933286e-02,  1.9897009432e-01, 
	-5.2996873856e-02,  1.9903969020e-02,  1.6257065535e-01,  9.7263514996e-02, -8.8091462851e-02, -4.2490914464e-02, -2.0889551938e-01, -1.6005623341e-01,  5.4984059185e-02, -1.2274334580e-01, 
	-3.5914634354e-03,  1.5134456754e-01,  1.3266158104e-01, -1.8951006234e-01,  6.7151173949e-02, -9.7073979676e-02, -9.5094572753e-03, -2.9269615188e-02, -1.9453328848e-01, -3.8058575243e-02, 
	 5.0202406943e-02, -9.8951734602e-02,  1.0191304237e-01, -4.4156342745e-02,  6.8928860128e-02,  5.5965803564e-02,  1.2105997652e-02,  9.1318905354e-02,  8.8900879025e-02, -1.2336780131e-01, 
	-6.5932981670e-02, -8.0311410129e-02,  1.4419282973e-01, -2.0114926994e-01,  3.9593596011e-02, -3.5183485597e-02, -1.9686743617e-01, -2.4861913174e-02,  5.1361247897e-02, -1.2218770571e-02, 
	-5.8313295245e-02, -6.4346477389e-02, -1.4324152470e-01,  1.6250430048e-01, -1.6406199336e-01,  1.6076637805e-01,  5.6679137051e-02,  6.3616268337e-02,  8.6884804070e-02,  9.4605244696e-02, 
	 4.2680196464e-02,  2.0060065389e-01,  1.9056388736e-01, -1.0937490314e-01,  1.8633890152e-01, -1.7807057500e-01,  1.2184763327e-02,  1.8358761072e-01, -1.0870608687e-01, -2.1386760473e-01, 
	 1.4064997435e-01, -1.3344233856e-02, -4.9040172249e-02, -1.7932116985e-01, -5.6598923402e-04,  6.0830008239e-02,  7.9157568514e-02, -3.0706059188e-02, -6.3850916922e-02, -1.6806013882e-01, 
	-1.8952107430e-01, -7.0494003594e-02, -9.4200335443e-02,  9.0937264264e-02,  1.5576568246e-01,  1.3786278665e-01,  8.8310725987e-03, -1.7080387473e-01, -8.2263931632e-02,  1.3229551911e-01, 
	-4.5704439282e-02,  3.1082151458e-02,  7.7199570835e-02, -2.7372330427e-02,  5.0205379725e-02,  2.9543628916e-02,  3.6475919187e-02, -5.0205454230e-02, -9.0136729181e-02,  1.2394147366e-01, 
	-1.1136391014e-01,  7.8877925873e-02,  9.5770473126e-04, -7.6169893146e-02,  4.8452373594e-02,  9.8095595837e-02,  1.0179365426e-01,  1.6386315227e-01, -2.9132859781e-02,  7.4675247073e-02, 
	 7.8006647527e-02,  8.0298230052e-02, -3.6412086338e-02,  1.9403314590e-01, -1.2902370095e-01,  6.7767500877e-02, -1.3900530757e-03,  1.0528836399e-01, -5.4024811834e-02,  3.0835118145e-02, 
	-2.7119725943e-02,  8.2806706429e-02,  1.3722223043e-01, -2.2647999227e-02, -1.8278793991e-01, -6.4131818712e-02,  1.6712401807e-01, -8.4615275264e-02,  1.2931303680e-01, -1.5230061114e-01, 
	-1.9132731855e-01,  1.3188503683e-01, -1.5949213505e-01, -9.6054702997e-02, -1.4224937558e-01,  1.8711207807e-01,  2.7173496783e-02, -2.2258234024e-01, -2.4147673976e-03, -1.0650854558e-01, 
	 1.1327707767e-01, -9.5520138741e-02, -7.4797160923e-02, -1.8209084868e-01,  2.8463054448e-02,  6.2881417572e-02, -3.1926505268e-02, -1.8930093944e-01, -7.7903470956e-03, -1.6440045834e-01, 
	 5.5607311428e-02,  1.2155626714e-01,  7.3210753500e-02, -1.8480338156e-01,  3.4548334777e-02, -7.8644484282e-02, -1.7313641310e-01,  4.7195525840e-03, -1.4340482652e-01,  1.6381490231e-01, 
	 1.8396103382e-01,  1.4442113042e-01,  1.4153181016e-01,  8.9820167050e-03,  1.2858808041e-01, -1.7888993025e-01, -1.6179804504e-01, -5.2433777601e-02, -8.8554829359e-02,  1.6097091138e-01, 
	 1.2702558935e-01,  1.2894774973e-01, -1.3369899988e-01,  1.1023196578e-01,  6.3268639147e-02, -1.9012473524e-01,  2.9565898702e-02,  2.0931954682e-01, -7.6231688261e-02,  1.7286133766e-01, 
	 1.5406534076e-01,  4.3885804713e-02, -8.3713680506e-03,  9.5549345016e-02,  6.5504655242e-02, -1.1990135163e-01, -1.7075252533e-01,  1.5660809353e-02,  9.1857798398e-02,  3.3092241734e-02, 
	 8.4546610713e-02,  4.9964126199e-02,  4.5384678990e-02,  1.8900623918e-01,  2.2048714757e-01, -6.4998403192e-02, -3.0463969335e-02, -4.5174427330e-02,  6.1601273715e-02,  1.6964277625e-01, 
	 1.1403076351e-01, -1.2348706275e-01, -1.3038739562e-01,  1.2892353535e-01, -2.8051817790e-02, -2.4531681836e-01, -8.4441587329e-02,  3.0027780682e-02, -1.2995499372e-01,  8.2559436560e-02, 
	-8.1427447498e-02,  1.4434932172e-01,  8.9981257915e-02, -1.4757840335e-01,  1.3613191247e-01, -2.5891953707e-01, -2.5302237272e-01, -6.2850922346e-02, -1.6098777950e-01, -6.3642270863e-02, 
	-1.9638980925e-01,  1.3926227577e-02,  2.5426819921e-01,  2.2727759555e-02, -1.4470622875e-02, -1.3608479500e-01, -1.6623342037e-01,  2.3098452389e-01, -2.5851458311e-01,  2.5664779544e-01, 
	 1.4228966832e-01, -6.4002327621e-02, -1.1266277730e-01,  1.1229761690e-01, -3.4765757620e-02, -2.4479761720e-02, -5.7091861963e-02, -2.3779731710e-03, -1.2208795547e-01, -2.0271928608e-01, 
	-2.9945505783e-02, -1.1990252882e-01,  2.2382630035e-02, -9.2695266008e-02,  2.1240670234e-02, -4.2155373842e-02, -1.4434595406e-01,  3.0718551949e-02, -3.5959240049e-02,  1.1923144013e-01, 
	-9.3168839812e-02, -2.1575758234e-02,  9.6499979496e-02, -1.7536309361e-01, -9.3505427241e-02,  1.1274310946e-01,  9.3997217715e-02,  2.2915683687e-02,  1.5568986535e-02, -1.3304118812e-01, 
	-3.3092377707e-03,  2.9859894421e-03, -1.6650512815e-02, -2.6829928160e-01,  1.8980932236e-01,  5.5898193270e-02,  1.6364762187e-01, -2.4456627667e-01,  8.6901351810e-02, -5.3876899183e-02, 
	 9.1175645590e-02, -1.0063524544e-01, -2.2225144506e-01,  1.7996045947e-01,  9.7939759493e-02,  2.3794214427e-01,  2.1108356118e-01, -1.3817392290e-01, -1.3960041106e-01, -1.0570494086e-01, 
	-6.4664059319e-03, -1.4201307669e-02,  1.8807230890e-01, -3.0992960557e-02, -4.8148471862e-02, -7.5513973832e-02, -2.3723857105e-01, -7.0230454206e-02,  1.6348469257e-01, -1.7668958008e-01, 
	 6.9513723254e-02,  1.3897228241e-01,  1.0713429190e-02, -1.1797101796e-01,  1.6848897934e-01,  1.2264014781e-01,  1.6549298540e-02, -1.0758602619e-01,  1.2392351776e-01,  7.1027927101e-02, 
	 1.3630777597e-01, -9.5749199390e-02, -2.3243892193e-01,  2.4787832797e-01,  6.1958443373e-02, -1.0941851884e-01,  1.2875351310e-01,  1.7972944677e-01, -4.9340721220e-02, -9.6201356500e-03, 
	-3.8705214858e-02, -5.3226161748e-02, -1.6488070786e-01, -5.2462533116e-02, -1.8151007593e-01, -4.2126297951e-02,  7.8504659235e-02,  1.6324311495e-01, -1.8866982311e-02, -1.2830255926e-01, 
	-1.2403543293e-01, -1.9473923743e-01,  8.5551202297e-02, -1.1907068081e-02,  1.5438672900e-01, -5.8763042092e-02, -7.0168271661e-02, -1.0269175470e-01, -8.6815327406e-02, -6.7999780178e-02, 
	 1.8945167959e-01,  1.4841988683e-01,  1.3131824136e-01,  2.4646990933e-03,  1.3767142594e-01, -9.4377957284e-02, -1.8378278613e-01,  1.6843883693e-01,  1.3132308424e-01, -1.1291704327e-01, 
	-4.3035101146e-02,  1.7655450106e-01,  8.9453704655e-02,  1.6193723306e-02, -1.5130612254e-01,  1.1038477533e-02,  2.1913982928e-02, -1.1539615691e-01, -1.6881483793e-01,  5.0259940326e-02, 
	-3.1648814678e-02,  1.4142009616e-01, -6.5446391702e-02, -9.4868771732e-02,  3.0010512099e-02,  1.5987707675e-01,  1.6827279329e-01,  9.9869698286e-02,  1.1523417383e-01,  5.9800278395e-02, 
	 1.6693880782e-02, -1.6220577061e-01,  9.9762849510e-02,  1.8513675034e-01, -1.6849060357e-01, -1.3817422092e-01, -1.4276406169e-01,  6.9949938916e-03, -1.6539171338e-01, -1.7881006002e-02, 
	 1.2130071968e-01, -1.7840923369e-01, -1.3474169374e-01,  3.7287347019e-02, -4.9283355474e-02, -7.8229308128e-02,  9.7235208377e-03,  3.1355816871e-02,  3.5257928073e-02, -7.2487436235e-02, 
	-1.3430050015e-01,  1.2284601107e-02, -5.4248366505e-02, -9.3631967902e-02, -1.2336436659e-01,  2.0576044917e-01, -4.9587018788e-02,  1.4737877250e-01, -4.6758510172e-02, -1.2229718268e-01, 
	-1.5482191741e-01,  9.0349338949e-02, -1.3503706455e-01,  7.2157971561e-02, -7.6209269464e-02, -6.7156918347e-02, -9.7502931952e-02,  1.4357109368e-01, -3.4022592008e-02, -6.9300636649e-02, 
	-1.3454101980e-01, -8.8205516338e-02,  1.4483633637e-01, -1.2903457880e-01,  1.0115375370e-01,  3.9317164570e-02,  1.1343429238e-01,  1.2901611626e-01,  9.7749628127e-02, -3.1079394743e-02, 
	 8.4493786097e-02,  3.7766557187e-02,  1.5316618979e-01, -7.7643707395e-02,  1.5465277433e-01,  1.1867430806e-01,  1.4338332415e-01,  1.1506509781e-01, -3.7962295115e-02,  4.4091488235e-03, 
	-7.5572103262e-02,  1.2349196523e-01, -1.6681413352e-01,  2.0298898220e-02, -1.0063315183e-01,  1.2409844995e-01,  7.5502216816e-02, -7.2219885886e-02,  1.9972424954e-02,  4.8188935965e-02, 
	 1.3585326076e-01, -2.4175299332e-02, -1.6769874096e-01, -1.9117154181e-01, -1.3863790035e-01, -1.1906063557e-01,  5.0602126867e-02, -4.7934364527e-02, -4.0031701326e-02,  1.2475330383e-01, 
	 3.9732925594e-02, -6.0216844082e-02,  1.8980162218e-02, -4.0358465165e-02,  1.0224792361e-01,  1.1950831115e-01,  1.7221754789e-01, -1.5611363575e-02, -1.0100954771e-01,  3.5972760525e-03, 
	 1.7644821107e-01, -8.7189450860e-02,  7.4311949313e-02,  1.8497641385e-01, -5.0380930305e-02, -4.7018632293e-02,  3.9277512580e-02, -9.5160916448e-02,  2.0525844395e-01,  5.0780151039e-02, 
	 1.1900360882e-01, -8.9269191027e-02,  1.9248498976e-01,  1.7485413700e-02, -1.4855326712e-01, -1.6827024519e-01,  1.4070311189e-01, -1.5120914578e-01, -4.8352994025e-02, -5.6006748229e-02, 
	-9.5454782248e-02, -1.9359582663e-01, -9.9980242550e-02, -6.5375790000e-02,  9.5062144101e-02, -1.1223411560e-01, -1.1780715734e-01,  1.7974682152e-01, -1.7897345126e-01,  4.3505854905e-02, 
	-1.2659995258e-01, -4.4578161091e-02, -8.7208308280e-02, -1.7786051333e-01, -5.3950399160e-02, -1.2772166729e-01, -1.5916779637e-02,  1.4885947108e-01, -9.8739892244e-02,  4.1220635176e-03, 
	-1.5276129544e-01, -1.7771893740e-01, -3.7488926202e-02, -8.9960455894e-02, -1.8779160082e-01,  4.4686857611e-02, -1.3198600151e-02,  6.4035043120e-02, -7.4105560780e-02,  1.1241564900e-01, 
	 5.6724987924e-02, -4.7278963029e-02,  6.4183272421e-02,  1.5804355964e-02, -7.9710781574e-02, -1.8602451682e-01, -7.8134290874e-02,  1.3843031228e-01,  1.8533931673e-01,  1.5946441889e-01, 
	-1.2328989804e-01, -1.6774350405e-01, -7.4231468141e-02,  1.1873184144e-01, -3.5900510848e-02,  1.4552497305e-03,  1.7917263508e-01, -2.7034031227e-02, -1.7138628662e-01,  2.2752705961e-02, 
	 1.2863706052e-01,  1.6679221764e-02,  1.2021645159e-01, -2.6515852660e-02,  8.3239704370e-02, -1.0351462290e-02,  1.5009024739e-01,  9.3187801540e-02,  1.1929710954e-01, -5.3412135690e-02, 
	-1.1494643241e-01,  9.8779331893e-03,  1.8554694951e-01, -3.3424369991e-02, -4.5139450580e-02, -4.4678032398e-02,  1.6579005122e-01, -6.4000710845e-02,  1.6108100116e-01,  1.6144868731e-01, 
	 2.7730349451e-02,  1.6497769952e-01, -8.3999477327e-02,  1.7462468147e-01, -1.5759539604e-01,  1.1013070494e-01,  6.9604448974e-02,  1.3627606630e-01,  1.8938869238e-01,  1.4706026018e-01, 
	 1.6955183446e-01, -6.9727160037e-02, -1.1173047870e-01,  1.0033085942e-01, -4.8807386309e-02, -4.0665414184e-02,  2.0974195004e-01,  1.3613338768e-01, -9.9685125053e-02,  1.3223358989e-01, 
	-4.7126829624e-02, -9.0214386582e-02,  1.3366322219e-01, -7.1690514684e-02, -9.6145309508e-02,  3.0282055959e-02,  5.7582736015e-02, -1.8074367940e-01, -4.3912641704e-03,  8.1855416298e-02, 
	-2.6221984997e-02,  8.3104379475e-02,  8.0492749810e-02, -2.6398876216e-03,  6.6302053630e-02, -5.1073506474e-02,  2.0295785367e-01, -1.7602953315e-01, -1.1250124872e-01, -6.8012997508e-02, 
	 1.2100637704e-01,  1.3665357232e-01,  1.8293926492e-02,  9.3614540994e-02, -1.0729084909e-01, -2.5665375590e-01, -2.6737314463e-01,  8.5338048637e-02,  1.1466110498e-01, -1.2437634915e-01, 
	 2.7385020256e-01, -2.5960129499e-01,  4.4480767101e-02,  1.8484228849e-01,  2.6070591807e-01, -9.8378121853e-02, -1.5253952704e-02, -5.1109716296e-02, -1.2113532424e-01,  1.3146632910e-01, 
	 5.6975561893e-04,  5.6814160198e-02,  1.7748664320e-01, -6.6398136318e-02,  1.6744930297e-02, -2.8601180762e-02, -2.6461818814e-01, -1.4679594338e-01,  9.0532347560e-02, -1.9449961185e-01, 
	 1.5956765413e-01, -1.4281356335e-01,  1.2704285979e-01, -1.6731302440e-01, -2.1277911961e-02, -1.8177349865e-01,  2.1981317550e-02,  1.7280852422e-02,  1.3382554753e-03,  2.1027790010e-01, 
	 1.9739666581e-01,  4.9243174493e-02,  1.3301408291e-01, -6.8112373352e-02, -5.5479798466e-02,  1.4507696964e-02,  3.3823158592e-02, -4.1679188609e-02, -3.3536642790e-02,  8.2777246833e-02, 
	 1.2474655360e-01,  4.3304122984e-02, -4.4502124190e-02, -1.4635056257e-01, -2.7292625979e-02,  2.4023118615e-01,  1.6932390630e-01,  1.3504433632e-01,  8.5341289639e-02, -1.1779828370e-01, 
	 1.2733227015e-01,  6.5479010344e-02, -2.4529401958e-01,  1.0366968490e-04, -1.8110460043e-01,  9.5245011151e-02, -1.9761317968e-01,  1.6133962199e-02, -2.1509421989e-02,  1.8602807820e-01, 
	 1.0003317147e-01, -8.8207915425e-02,  1.8333163857e-01,  1.3772977889e-01,  7.1674600244e-02,  2.6706945896e-01,  1.1495544761e-01, -7.0713691413e-02, -1.5829949081e-01,  1.0003252327e-01, 
	-5.3761940449e-02, -9.2709459364e-02,  5.2173007280e-02, -5.5503267795e-02, -2.2412937880e-01, -1.2822134793e-01, -2.6285132766e-01,  7.2186291218e-02,  2.6702445000e-02, -2.3884975910e-01, 
	 2.6934760809e-01, -1.0448268056e-01,  7.4683964252e-02,  6.0985568911e-02,  2.6338243484e-01,  1.2569582462e-01,  2.6840655133e-02,  1.6336943209e-01, -1.0481035709e-01,  7.3457978666e-02, 
	 1.0332096368e-01, -1.6660243273e-01,  1.4016853273e-01, -2.4455571175e-01, -5.0168555230e-02,  2.7172783390e-02,  2.3191356659e-01, -1.9913176075e-02, -1.8996076658e-02,  2.3654031754e-01, 
	 8.5968457162e-02, -4.7960095108e-02,  8.8954187930e-02, -2.4480631575e-02, -1.2711685896e-01,  1.3249996305e-01,  1.0756062716e-01,  1.4512781054e-02, -2.8529625852e-03,  1.8828690518e-03, 
	 1.1683457345e-01,  1.1603724211e-01, -4.4834557921e-02,  1.1528408527e-01,  1.0348196328e-01,  1.3009828329e-01,  2.6881030202e-01, -1.4493304491e-01, -8.4442526102e-02,  2.3923575878e-01, 
	 9.9722631276e-02,  7.7888421714e-02, -6.2156263739e-03,  1.3448348641e-01, -8.7096765637e-02,  6.8958781660e-02,  2.2366440296e-01, -3.5796981305e-02,  8.9854255319e-02, -4.3974723667e-02, 
	-4.2144101113e-02, -1.4210161567e-01, -7.4744850397e-02, -9.3574643135e-02, -1.9328880310e-01,  1.5657836199e-01,  1.4345365763e-01, -1.0313042998e-01, -7.6495982707e-02, -2.0900780335e-02, 
	-1.8233965337e-01,  1.4655484818e-02,  7.3685929179e-02,  2.3095592856e-01, -1.5530815721e-01, -2.0977336913e-02,  9.1979518533e-02,  2.7407379821e-02, -8.8341958821e-02,  1.2630818784e-01, 
	 1.3653770089e-01,  1.1874163896e-01, -2.2984690964e-02,  1.7228442430e-01, -2.0917345583e-01, -2.8482927009e-02, -2.3332181573e-01, -2.3415546119e-01, -8.2772158086e-02,  1.4255529642e-01, 
	-2.0933707058e-01,  6.5568804741e-02, -1.0979503393e-01, -2.0019073784e-01,  1.5233202279e-01, -3.3918682486e-02,  7.6331667602e-02, -3.5867463797e-02, -3.6156509072e-02,  9.8990738392e-02, 
	-5.9557966888e-02, -6.4128734171e-02, -1.2872107327e-01, -2.2876569629e-01, -2.1364852786e-01, -2.2142894566e-01,  9.9362075329e-02, -3.7997856736e-02,  1.5369610488e-01, -4.1140336543e-03, 
	-1.4665274322e-01, -1.4065364003e-01, -1.1453197151e-01, -1.3463388383e-01, -1.1727867648e-02,  8.4719449282e-02,  9.5266230404e-02, -7.0509120822e-02,  2.1967056394e-01, -1.4644166827e-01, 
	-1.6873319447e-01, -1.6563810408e-01, -2.9655981809e-02,  3.4408476204e-02, -9.2901542783e-02,  1.0426677018e-01, -1.5269063413e-01,  1.7510415614e-01,  5.5574327707e-02,  1.1840283871e-01, 
	 2.8581950814e-02,  6.3476949930e-02, -4.9299478531e-02,  1.1946603656e-01,  9.4112642109e-02,  7.0074141026e-02, -1.1254373938e-01, -2.8330853209e-02, -1.6511997581e-01, -8.5451096296e-02, 
	 2.1848708391e-01, -9.1198407114e-02, -1.8404174596e-02, -1.2422581762e-01,  2.0785479248e-01, -2.9128352180e-02,  1.7082679272e-01,  2.3708550632e-01,  6.9676131010e-02,  2.0108099561e-03, 
	-7.1997880936e-02, -2.3237377405e-01, -1.2241250277e-01,  6.4103819430e-02, -1.7502291501e-01,  5.6581798941e-02,  1.0653220117e-02, -5.0112225115e-02,  5.0389625132e-02,  2.2094674408e-01, 
	 8.0486116931e-03,  3.4479822963e-02,  6.3615791500e-02,  1.0103125870e-01,  1.4627906680e-01, -5.2983149886e-02, -2.2048194706e-01,  6.8294689059e-02, -9.8382122815e-02, -7.7146597207e-02, 
	 8.4528528154e-02, -9.3052700162e-02,  1.5809747577e-01, -1.0268262587e-02, -9.4385564327e-02,  8.6275704205e-02, -4.0946882218e-02, -2.1569457650e-01,  1.6559785604e-01, -2.2461877763e-01, 
	 2.0557928085e-01, -1.2637170032e-02, -1.2992136180e-01,  3.4046743065e-02,  1.3221052289e-01, -1.0354131460e-02, -1.2461777031e-01,  1.4161979780e-02, -1.2036716938e-01,  1.0169219971e-01, 
	-2.2489243746e-01,  1.0458315164e-01, -2.0567110181e-01,  1.4186906815e-01,  2.1251831949e-01, -2.1157751977e-01,  1.3064949214e-01, -1.2902387977e-01, -1.5907624364e-01,  8.9875996113e-02, 
	-1.5298341215e-01,  2.7858156711e-02,  1.3296397030e-01,  9.1830410063e-02, -1.5901666880e-01,  7.5118161738e-02, -2.2209490836e-01,  7.6050393283e-02,  2.9061151668e-02, -5.7548955083e-02, 
	 1.4170469344e-01, -1.1413390189e-01, -1.6208203137e-01,  6.5584421158e-02, -9.0861693025e-03, -1.5524384566e-02,  1.2362767756e-01,  2.1109536290e-01, -7.8778319061e-02,  9.8402172327e-02, 
	 1.1027332395e-01,  4.7262698412e-02,  2.0172244310e-01, -7.7319934964e-02, -8.6283251643e-02,  3.4347400069e-02, -1.8472196162e-01, -2.3313481361e-02,  2.1570870280e-01,  2.5673054159e-02, 
	-1.3586708903e-01, -2.0830522478e-01,  1.7887230217e-01, -2.4297036231e-01,  6.4017042518e-02,  1.9149358571e-01,  2.5779736042e-01, -1.4815300703e-01,  1.2598225474e-01,  3.3348411322e-02, 
	 1.7391154170e-01,  9.2069990933e-03, -7.1142531931e-02,  1.3062062860e-01,  1.5701533854e-01,  1.9491876662e-01,  1.9353319705e-01,  8.4490485489e-02, -1.9053994119e-01, -7.5520358980e-02, 
	 4.4363379478e-02,  5.8950033039e-02,  4.0901422501e-02, -7.0407246239e-03, -1.3201899827e-01,  6.7637592554e-02,  1.6020511091e-01,  2.5438073277e-01, -2.0546236634e-01,  1.0684451461e-01, 
	-6.9810546935e-02,  1.3153155148e-01,  2.0535959303e-01, -2.5337010622e-01, -1.8026608229e-01,  5.5786412209e-02, -1.8794840574e-01,  3.1975939870e-02,  1.4399972558e-01,  4.2129788548e-02, 
	 1.2267568707e-01,  1.7397526652e-02,  1.2625233829e-01, -1.3150575757e-01,  3.0302546918e-02, -1.9613191485e-02, -1.8511322141e-01,  1.8544845283e-01, -4.4686354697e-02,  1.0743231326e-01, 
	 4.9536406994e-02,  2.0821379125e-01, -1.5094210207e-01,  1.6700895131e-01, -1.0876215994e-01, -1.2899936736e-01,  8.0556176603e-02, -1.1107856780e-01, -5.2293445915e-02,  4.0547303855e-02, 
	 1.1232034862e-01, -1.2662835419e-01,  2.6364559308e-02, -8.4685729817e-03,  6.9282543845e-03,  9.4596318901e-02,  5.4499275982e-02, -6.4361840487e-02,  2.1419434249e-01,  2.3320509493e-01, 
	 1.7070554197e-01,  1.4373399317e-01, -2.4522958696e-01,  4.3922439218e-02, -9.7675332800e-03, -2.3609271646e-01,  6.4332328737e-02, -1.9466792047e-01, -2.2559231520e-01,  1.2397283316e-01, 
	-3.5189554095e-02,  7.3467575014e-02, -8.5171632469e-02,  1.1923856288e-01, -4.2727524415e-03,  5.3719449788e-02,  3.9129115641e-02,  3.6967087537e-02,  2.4936491251e-01, -1.9856961071e-01, 
	 2.4140024185e-01,  1.0157883167e-02, -3.5738365259e-03,  4.2701991333e-05,  2.3654913530e-02, -1.4249737561e-01,  1.9404411316e-02,  6.7154645920e-02, -6.2137842178e-02,  1.4026524127e-01, 
	-2.2423130274e-01, -1.5615682304e-01,  1.6260384023e-01, -1.2095247209e-01,  1.1619945057e-02,  7.9209931195e-02,  6.0207150877e-02, -1.9154919684e-01, -1.8006794155e-01, -4.2613819242e-02, 
	-1.0228978097e-01, -5.2388295531e-02, -9.5874473453e-02, -1.1863896623e-02, -2.9336689040e-02,  1.0698320717e-01,  2.1029990911e-01, -1.3646845520e-01,  3.3143147826e-02,  4.1856206954e-02, 
	-1.5216645785e-02, -6.9011643529e-02, -2.3459284008e-01,  1.9171187282e-01, -1.1564994603e-01, -1.3630557060e-01, -2.4432899058e-01, -6.4638130367e-02, -1.7161576450e-01, -1.0804959573e-02, 
	 1.1996813118e-01, -9.9759012461e-02, -1.3585035503e-01, -7.8824847937e-02,  1.1510811746e-01,  1.0987908579e-02, -1.8170775473e-01, -3.7619814277e-02,  8.9905261993e-02, -1.5613652766e-01, 
	-8.4766879678e-02, -1.1551572382e-01, -1.9353891909e-01,  8.4665261209e-02,  1.2096216530e-01, -7.4831932783e-02,  8.7795086205e-02, -6.2850289047e-02,  1.2091200799e-01,  1.5840230882e-01, 
	 2.1533584595e-01,  1.1094359308e-01, -1.1078363657e-01, -8.8610574603e-03, -1.7256490886e-01, -4.5747708529e-02,  1.6043376923e-01, -2.0956043154e-02, -1.9832797348e-02,  1.4669463038e-01, 
	 9.5563620329e-02, -1.2410221249e-01,  2.9810598120e-02, -1.9165708125e-01,  1.8547365069e-01, -2.3130278289e-01, -6.5714649856e-02, -2.3200677708e-02,  1.5091250837e-01,  4.0247701108e-02, 
	 1.2152363360e-01, -1.1291518807e-02,  1.1762578785e-01, -2.1444484591e-01, -5.5748382583e-03, -1.2105789781e-01, -1.4570274949e-01,  6.6291697323e-02, -7.2781242430e-02,  3.8165532053e-02, 
	 8.1162169576e-02,  7.0097721182e-03,  1.5086904168e-01,  1.7353069782e-01, -1.7674034834e-01,  7.7901922166e-02,  1.4025801420e-01, -5.8326054364e-02,  1.2360524386e-02,  2.3309305310e-01, 
	-9.6352204680e-02, -3.2442556694e-03,  1.5018117614e-02, -2.4233847857e-01, -1.7498987913e-01, -1.2742361426e-01,  7.4886091053e-02, -1.1613970995e-01,  1.5560005605e-01, -1.0998180509e-01, 
	-5.6149151176e-02, -1.1432565749e-01,  4.9116898328e-02,  1.4254148304e-01,  9.4264656305e-02,  5.1753610373e-02, -6.4742207527e-02, -2.3910866678e-01, -7.8988909721e-02,  2.5919472799e-02, 
	-3.7066196091e-03,  1.9115893543e-01,  2.4844376743e-01,  1.2718881667e-01, -8.8876545429e-02,  2.5373578072e-01, -7.6802544296e-02, -2.5867164135e-01, -5.0095736980e-02,  1.2530848384e-01, 
	-3.9163507521e-02,  2.1800072491e-01, -3.1674109399e-02, -2.2178877145e-02,  9.0446196496e-02,  2.8212046251e-02,  1.7689225078e-01, -1.3208113611e-01, -4.2186833918e-02, -1.2275300175e-01, 
	 2.5971868634e-01,  8.6117506027e-02,  1.5802183747e-01, -1.1412948370e-02,  9.5709398389e-02,  8.5654452443e-02, -2.1128760278e-01, -1.4262841642e-01,  4.4067330658e-02, -1.6906976700e-01, 
	-1.0108216107e-01,  1.8463762105e-01,  2.2992724180e-01, -1.9858562946e-01,  7.2504125535e-02, -9.9403500557e-02, -9.0708576143e-02, -8.2090385258e-02, -1.8497005105e-01,  1.0694554448e-01, 
	-1.7796981335e-01,  1.5401695669e-01,  1.7916236818e-01, -6.0160305351e-02, -1.7867226899e-01, -1.7368605733e-01,  6.8398490548e-02, -6.6705897450e-02,  1.3339780271e-01,  6.0974255204e-02, 
	-2.2321358323e-02,  1.2230516970e-01, -8.9762791991e-02, -2.2487172484e-01, -2.0863674581e-01,  2.3607641459e-01, -1.6865238547e-01,  5.9475868940e-02, -8.4600441158e-02,  2.1109721065e-01, 
	 8.0905668437e-02, -8.4748938680e-02, -2.3845767975e-01,  2.1465389431e-01, -4.8432622105e-02,  1.3013076782e-01,  2.7990031987e-02,  8.5843680426e-03,  1.2867854536e-01,  8.7355479598e-02, 
	-1.0086090863e-01, -2.6083257794e-01, -1.0019256920e-01,  7.7630862594e-02,  2.5175783038e-01, -9.3402475119e-02,  1.2539708614e-01, -1.1539178900e-02, -2.1291756630e-01,  1.8728311360e-01, 
	-7.8315444291e-02, -1.0726354271e-01, -1.1119601130e-01, -1.8515744805e-01, -9.6317581832e-02,  1.3016864657e-01,  9.5252655447e-02,  2.5383687019e-01, -1.1444514990e-01,  4.4293631800e-03, 
	-3.1520817429e-02, -1.4050473273e-01,  1.3669399917e-01, -3.0115084723e-02, -6.0118347406e-02,  6.7382194102e-02,  5.2667822689e-02, -2.3780916631e-01,  5.7459656149e-02, -1.0220406950e-01, 
	-2.0657189190e-01,  1.0875016451e-01, -2.3500260711e-01,  1.1472728103e-01, -1.7854788899e-01, -8.8724061847e-02, -5.8009475470e-03,  9.0107820928e-02, -5.3030658513e-02, -1.0936163366e-01, 
	 1.6559679806e-01, -2.1273554862e-01,  1.0501646437e-02, -7.5904510915e-02, -2.7221733704e-02, -2.3121640086e-01, -2.1403430402e-01, -4.4197436422e-02, -1.0983857512e-01, -1.4221909642e-01, 
	-1.7872400582e-01, -9.4142230228e-03, -9.9622689188e-02, -8.8136039674e-02, -1.3180930912e-01,  1.1873816699e-01,  1.7967751622e-01, -7.9767175019e-02, -8.8767170906e-02, -2.0868319273e-01, 
	-1.8017567694e-01, -1.8153813481e-01,  1.4366495609e-01, -1.3648399711e-01, -1.2095499039e-01,  1.1135952175e-01, -1.7650936544e-01,  9.6350736916e-02,  9.4218745828e-02, -3.5523664206e-02, 
	-1.1444411241e-02,  7.1494743228e-02, -9.1498449445e-02, -9.9664084613e-02, -1.1365103722e-01,  1.5625166893e-01,  2.1140079200e-01,  2.0514938235e-01, -1.1267384887e-01, -1.6382518411e-01, 
	 7.5518555939e-02, -2.5960588828e-02,  8.2362420857e-02, -3.5561379045e-02, -1.3278555870e-01,  1.7412576079e-01, -1.0522523522e-01,  1.4133279212e-02,  5.2555538714e-02,  1.2945081294e-01, 
	 1.3529750705e-01, -6.2438785098e-03,  1.7204473913e-01,  1.2019155920e-01, -2.5049509481e-02, -2.4213721976e-02,  2.0126722753e-01,  1.7363925278e-01, -2.3125534877e-02,  8.9220970869e-02, 
	-1.0783196986e-01, -1.2563849986e-01,  7.2488397360e-02, -1.1447698623e-01,  5.2292238921e-02, -1.8192297220e-01, -7.3994092643e-02,  1.5823724866e-01,  1.0176081955e-01, -1.6131679714e-01, 
	 1.7495636642e-01, -1.5014579892e-01, -2.6845308021e-02,  1.3712416589e-01, -9.5787435770e-02,  1.8486818671e-01,  9.5547713339e-02,  5.1988705993e-02,  1.2229412794e-01,  1.2881381810e-01, 
	-1.2467230670e-02,  4.2855527252e-02,  7.7685683966e-02,  1.0791160911e-01, -5.4230485111e-03,  9.5960944891e-02, -1.8537729979e-01, -1.5092623234e-01,  9.0100653470e-02,  1.1434461921e-01, 
	-1.2946926057e-01,  1.9047580659e-02, -2.1366880834e-01, -2.0207837224e-01, -5.3708449006e-02, -9.4437830150e-02,  2.2066006064e-01,  1.4539861679e-01, -1.3633607887e-02, -1.7020706832e-01, 
	-1.2847241759e-01, -8.0574497581e-02,  6.5357878804e-02, -1.3482508063e-01,  1.0205604136e-01, -1.7617370188e-01,  1.9955569506e-01,  5.7450450957e-02, -1.7127302708e-03,  2.1377031505e-01, 
	-1.7351922393e-01, -7.3835733929e-05, -1.5483415686e-02, -8.8507175446e-02, -1.5552175045e-01,  1.9271077216e-01, -2.1240842342e-01,  7.7416822314e-02, -1.7873787880e-01, -1.3404296711e-02, 
	-1.8071020022e-02,  7.7812701464e-02, -1.0756298900e-01, -5.9598505497e-02,  9.0383151546e-03,  1.1770325899e-01, -1.1476169527e-01, -1.7664181069e-02,  8.4087595344e-02, -3.3590659499e-02, 
	 3.6774981767e-02, -8.5013493896e-02, -1.0656104982e-01, -1.4875592291e-01, -1.3466991484e-01, -1.7877157032e-01, -2.2335447371e-01,  1.7276551574e-02, -7.6040746644e-03, -9.4638854265e-02, 
	-9.4871684909e-02, -9.4041891396e-02,  1.4660602808e-01,  2.2819736972e-02, -7.3881305754e-02,  2.3389877751e-02, -1.2513495982e-01, -2.0083974302e-01, -2.0527906716e-01, -9.5540173352e-02, 
	 2.0568819717e-02,  1.2785749137e-01, -1.8019805849e-01, -1.3166363537e-01, -1.7585175112e-02, -5.3456816822e-02,  1.2468672544e-01, -2.1364463866e-01, -2.0047011971e-01, -1.7248798907e-01, 
	 1.4215919375e-01,  5.5260162801e-02,  5.1146717742e-03, -7.6711639762e-02,  4.3726999313e-02, -1.4953877777e-02, -2.0609903336e-01, -7.5826323591e-03,  1.3630706072e-01,  1.1613067985e-01, 
	 1.2764291465e-01,  1.4276762493e-02,  7.8741952777e-02,  1.2087403238e-01, -2.1062585711e-01,  1.6987462342e-01,  7.7228255570e-02, -8.8399881497e-03,  2.7267398313e-02, -1.2531772256e-01, 
	 1.0338877141e-01, -2.2524900734e-01, -2.1494252980e-01,  4.4845595956e-02, -1.4029189013e-02,  1.7025236785e-01, -8.1099793315e-02, -1.3217432797e-01, -1.6953206062e-01, -2.3069785675e-04, 
	 1.9463965297e-01, -1.8936542794e-02, -3.4694150090e-02, -1.6212488711e-01, -2.4068826810e-02,  3.3046705648e-03, -6.9169901311e-02,  1.0296355933e-02,  4.6174805611e-03,  1.4674191177e-01, 
	 6.8602724932e-03,  1.5375599265e-01, -3.7603096571e-03,  1.1953315884e-01,  2.4733456969e-01, -6.7726254463e-02, -1.4658990502e-01,  1.0173024982e-01, -4.2305957526e-02, -7.0305630565e-02, 
	 7.3968857527e-02, -1.0634023696e-01,  2.3628421128e-01, -1.1240035295e-01,  2.3164171726e-02,  1.2503306568e-01,  1.4052803814e-01, -3.5095799714e-02, -2.9257725924e-02, -3.3864948899e-02, 
	 1.1489468068e-01, -1.1829321086e-01, -1.0129290074e-01,  5.9933755547e-03,  7.6406084001e-02,  1.4061291516e-01, -5.7798247784e-02, -1.1892870814e-01, -1.7482709885e-01,  2.3412555456e-01, 
	 1.8641349673e-01,  1.8062299117e-02,  1.4144355059e-01, -1.3166683912e-01,  1.9226528704e-01,  3.7726148963e-02, -1.2005928904e-01,  1.6401231289e-01,  1.3729773462e-01,  1.2934191525e-01, 
	-1.3881021738e-01,  6.6208079457e-02, -6.5898917615e-02,  1.7089512944e-01,  9.6820846200e-02, -1.0449729115e-01,  1.0560214520e-01,  8.1235215068e-02,  1.6962463036e-02, -1.0164722800e-01, 
	 9.1841541231e-02, -5.2572131157e-02,  1.6981472075e-01,  9.4266037922e-04, -8.9850105345e-02, -1.1722879112e-01, -1.4394021034e-01, -1.0452442616e-01,  2.3344475031e-01, -1.3823853433e-01, 
	-6.3255168498e-02,  2.1607157588e-01, -1.5535941720e-01,  9.5258019865e-02, -2.2214825451e-01,  9.7777329385e-02, -4.2656183243e-02, -1.2631490827e-01,  9.3371585011e-02, -1.5405021608e-01, 
	 1.1087964475e-01,  1.4907579869e-02, -4.2904034257e-02,  9.3508481979e-02,  5.4959390312e-02, -1.8247835338e-01,  1.8640263006e-02,  7.7976942062e-02,  1.8016766757e-02,  8.6148031056e-02, 
	-1.7197097838e-01,  7.3528967798e-02,  1.6826394200e-01,  1.1934410781e-01,  8.2378044724e-02, -1.4761364087e-02,  1.8977081776e-01,  1.3859982789e-01,  1.4664255083e-01, -1.8385943770e-01, 
	 4.4179994613e-02,  2.0000711083e-01,  4.9946460873e-02,  2.3413831368e-02,  1.5189246833e-01,  4.7022193670e-02,  2.2012632340e-02, -1.0670002550e-01, -1.7254249752e-01,  1.9834689796e-02, 
	 7.2475140914e-03, -1.7370976508e-01, -1.1106552556e-02,  1.6948807240e-01, -1.2346350402e-01,  2.5275845546e-03,  2.5466188788e-02, -6.6532835364e-02, -1.9059267640e-01,  4.7335933894e-02, 
	-3.0458416790e-02,  1.6507612308e-03, -1.4658930898e-01, -1.2789201736e-01, -6.6344030201e-02, -1.1440148577e-02,  1.3340138830e-02,  1.9116035104e-01,  1.3273437321e-01,  5.2366133779e-02, 
	-4.7289982438e-02,  1.7728982493e-02, -5.4444987327e-03,  5.3074799478e-02, -1.2153901160e-02,  3.4487884492e-02,  2.0366789773e-02,  5.9725180268e-02,  1.3697393239e-02,  1.2459675223e-01, 
	-1.7889857292e-02,  1.8346272409e-01,  1.0902241617e-01, -1.4657928050e-01,  1.1765559763e-01, -1.8643864989e-01, -6.8471565843e-02,  2.6082340628e-02, -1.5580704808e-01, -1.9202123582e-01, 
	 1.7698009312e-01,  6.4489550889e-02, -9.9189035594e-02, -5.0353896804e-03, -5.4064441472e-02,  8.1049874425e-02,  1.8411080539e-01, -1.1399200559e-01, -9.5167942345e-02,  2.6906337589e-02, 
	 1.3177005947e-01,  1.2750895321e-01,  1.2698435783e-01, -2.8144146781e-03, -5.5322047323e-02, -2.0135683939e-02, -5.9959962964e-02, -6.4772148617e-03,  8.2805551589e-02,  4.1896242648e-02, 
	 9.2805892229e-02, -1.6636961699e-01,  1.6315643489e-01, -1.0694297403e-01, -1.8594260514e-01,  1.2416142970e-01,  5.0049353391e-02,  1.0028742999e-01, -1.1512663960e-01, -1.5088830888e-01, 
	-6.0240916908e-02,  1.3518995047e-01,  2.6801810600e-03, -1.1482690275e-01,  1.1541811377e-01, -1.4786805212e-01, -1.8839192390e-01, -1.9553388655e-01, -1.7338895798e-01, -1.3804669678e-01, 
	 1.8971481919e-01,  1.9424268603e-01, -1.5239004791e-01,  3.4350514412e-02, -1.5798583627e-01, -1.7614637315e-01, -1.4253702760e-01,  1.2141780555e-01,  1.7757113278e-01,  8.1213340163e-02, 
	 4.6482373029e-02,  4.2267490178e-02, -1.9658128917e-01,  1.9553659856e-01,  2.8385236859e-02, -9.4416931272e-02, -2.1882791072e-02,  1.8208120763e-01,  8.5190184414e-02, -8.2425907254e-02, 
	 1.7862409353e-01, -1.6017106175e-01,  9.7577638924e-02,  8.7565466762e-02, -1.7858451605e-01, -1.2679962814e-01,  2.3632842302e-01, -1.9900590181e-01,  6.7956745625e-02,  2.2975254059e-01, 
	-2.0218007267e-02,  1.3668183982e-01, -4.2729157954e-02,  1.5231606364e-01, -1.7845676839e-01,  1.3113629818e-01, -1.9665004313e-01,  9.8474554718e-02, -1.8115743995e-02, -1.4420262538e-02, 
	-1.2640702724e-01,  8.8195957243e-02, -1.6694861650e-01,  7.4267253280e-02, -7.3237761855e-02,  1.4388491213e-01, -1.4715029299e-01,  1.1464630812e-01,  1.9420245290e-01,  2.0293551683e-01, 
	-7.9588860273e-02, -1.1667780578e-02,  2.6564517990e-02, -5.4059270769e-02, -2.2537021339e-01,  1.6356153786e-01, -9.3304656446e-02, -1.1541869491e-01, -1.6745926812e-02, -1.2343463302e-01, 
	-7.4581667781e-02, -1.5751391649e-01,  2.2753298283e-01,  1.3426172733e-01,  1.0565192997e-01, -1.1284610629e-01,  1.7226439714e-01, -2.6795888320e-02,  2.1699473262e-01, -3.6099571735e-02, 
	 2.3392867297e-02, -1.5981839597e-01, -2.1197818220e-01,  8.7842166424e-02,  2.1147544682e-01, -8.0374471843e-02,  1.9873893261e-01,  1.7821781337e-02,  5.6055210531e-02,  7.3737211525e-02, 
	-1.6925817728e-01, -1.6326841712e-01, -1.1131053418e-01,  5.7003740221e-02, -7.0025965571e-02, -2.2128678858e-01,  3.2257080078e-02,  3.2144661993e-02, -6.7900098860e-02,  1.4620028436e-01, 
	 5.1770541817e-02,  2.3089416325e-01, -8.6962319911e-02, -4.6547323465e-02,  2.1184854209e-01, -4.2536616325e-02, -1.5701392293e-01, -1.5429764055e-02, -1.6542583704e-01, -2.1718296409e-01, 
	 1.6689135134e-01, -1.8439668417e-01,  1.4922469854e-01,  7.3181264102e-02, -2.4537758529e-01, -1.1421194673e-01, -6.5709881485e-02,  2.4470528960e-01, -1.9537611306e-01, -2.0854215324e-01, 
	-4.9112224951e-03,  1.6008514166e-01,  2.9233839363e-02, -1.1966018379e-01, -3.3944118768e-02, -6.3609711826e-02,  6.2722072005e-02,  5.5887822062e-02,  6.3947275281e-02,  1.8482504785e-01, 
	-1.9343408942e-01, -6.6067159176e-02,  1.1933133006e-01, -2.1869060397e-01,  1.7190474272e-01, -6.8966008723e-02,  1.6106431186e-01, -1.9081642851e-02, -1.3979895413e-01, -1.8115238845e-01, 
	 8.5393011570e-02,  5.5821631104e-02, -1.6312071681e-01, -2.1990982816e-02,  2.2145688534e-01,  2.2818671167e-01,  2.2118926048e-02, -1.0255737603e-01,  3.7853233516e-02, -2.1158176661e-01, 
	 1.0988281667e-01,  2.4297988415e-01, -1.2064821273e-01,  1.1568728834e-01, -1.2143266201e-01, -7.8669413924e-02, -5.9151064605e-02,  8.6945377290e-02, -2.0525901020e-01,  4.4866245240e-02, 
	-2.3628574610e-01,  2.4352660775e-01, -1.2495431304e-01,  1.4224576950e-01, -1.0414627939e-01,  2.0234271884e-01,  1.7655104399e-01, -1.7232638597e-01, -3.0434023589e-02, -4.0713150054e-02, 
	-4.7977663577e-02, -7.7810741961e-02,  2.0735603571e-01, -8.2227982581e-02, -1.0589584708e-01,  3.5397492349e-02,  1.5217940509e-01,  6.6995717585e-02, -1.6160194576e-01, -1.1532412469e-01, 
	 3.7347275764e-02, -2.3778341711e-01, -1.2892006338e-01, -7.9961068928e-02, -7.6135374606e-02, -2.3005381227e-01, -5.6911278516e-02, -2.4834819138e-01,  2.3353444040e-01,  7.0794612169e-02, 
	-3.1139796600e-02, -1.1794212461e-01,  1.4656260610e-01,  1.4479866624e-01,  1.2686719000e-01, -7.7485695481e-02,  2.0501214266e-01,  2.2237527370e-01,  1.1719444394e-01,  2.1071568131e-02, 
	-1.0001872480e-01, -8.0148942769e-02,  1.7438262701e-01,  5.7734683156e-02, -1.7227743566e-01,  5.0274088979e-02,  1.2852510810e-01, -1.0530149192e-01, -9.7155742347e-02, -9.6268408000e-02, 
	 2.3456488550e-01, -2.1111272275e-01,  1.1416909099e-01, -1.6117522120e-01,  7.6745465398e-02, -1.1621656269e-01, -2.0737653598e-02, -1.6086485982e-01, -2.1811112761e-01, -3.4371171147e-02, 
	 1.1509312317e-03,  1.7113129795e-01, -4.9524322152e-02,  1.5150597692e-01, -1.2320277840e-01,  1.6876405478e-01, -2.3490311205e-01, -9.8498135805e-02, -1.1378894746e-01,  1.0567237437e-01, 
	-2.1025721729e-01, -8.0749943852e-02, -1.2455668300e-01,  4.7263722867e-02,  1.0337219387e-01,  8.4261270240e-03, -1.7169130733e-03,  1.1738683283e-01,  2.4575950578e-02, -2.1096814424e-02, 
	-9.8826520145e-02, -2.1490353346e-01,  1.8992404640e-01, -7.3614515364e-02, -1.3299751282e-01,  6.0848586261e-02,  2.4056370556e-01,  1.4309550636e-02, -1.2812179327e-01, -6.2976948917e-02, 
	-8.9918993413e-02, -2.0906580612e-02,  5.2711968310e-03, -1.9842222333e-01,  3.1880125403e-02, -1.6172273457e-01,  1.1967293918e-01, -5.6676458567e-02,  9.1900512576e-02, -1.8918147683e-01, 
	-2.1393121779e-01,  3.9418056607e-02,  1.2831200659e-01, -5.5756118149e-02,  3.0057583004e-02, -2.1852262318e-01, -2.0016932487e-01, -1.0431628674e-01,  2.0033903420e-01, -2.3543952405e-01, 
	 1.4116285741e-01, -1.9903664291e-01,  2.1851478145e-02,  1.0643770546e-01,  9.0742900968e-02,  1.0535687208e-01, -1.1359044909e-01, -5.4431114346e-02,  1.4248284698e-01, -3.2750405371e-02, 
	-1.6033317149e-01,  1.0211546719e-01,  1.4617952704e-01, -1.2100112438e-01, -3.0394664407e-01, -2.0352320746e-02,  1.1155850254e-02,  2.9469981790e-01,  3.4364082385e-03,  4.8715262674e-03, 
	 2.8745523095e-01,  6.4547002316e-02, -1.9837932289e-01,  5.9614062309e-02,  5.6477852166e-02, -1.4865982533e-01,  9.6706464887e-02,  2.8430467844e-01,  6.2906101346e-02,  8.8591001928e-02, 
	 1.7984385788e-01,  6.1182533391e-03,  1.1040349305e-01, -8.6479671299e-02,  1.5645855665e-01,  3.3445630223e-02, -2.6662042737e-01,  1.4806346968e-02,  1.2050487846e-01,  8.1660337746e-02, 
	 2.1130077541e-02,  7.6504454017e-02,  1.4252494276e-01, -1.8673861027e-01, -1.0613390803e-01,  2.4768561125e-02,  1.1335591972e-01, -1.5280021727e-01, -1.3883015141e-02,  2.2427269816e-01, 
	 1.8195587397e-01, -2.8583979607e-01,  7.0442542434e-02,  2.8992703557e-01,  1.5540367365e-01,  1.8635681272e-01, -2.3465996981e-01,  2.8403336182e-02, -3.0100288987e-01,  1.7323020101e-01, 
	 2.8886815906e-01, -2.8006649017e-01, -8.9267417789e-02,  1.9517024979e-02,  4.6510215849e-02,  2.8494000435e-01,  2.0424163342e-01,  9.3137294054e-02,  1.6262039542e-01, -2.4858078361e-01, 
	 4.1731685400e-02, -6.6672153771e-02, -2.7381330729e-01, -4.6861764044e-02, -1.1406984180e-01,  1.4361281879e-02, -2.2093507648e-01,  1.8244458362e-02, -2.4423199892e-01, -1.5816234052e-02, 
	-1.0072021186e-01, -5.5571224540e-02,  9.7948707640e-02,  1.3026383519e-01,  1.1455948465e-02,  2.0467570424e-01, -3.6975402385e-02, -1.6100244224e-01,  9.0463854373e-02, -2.5508809090e-01, 
	-8.9142233133e-02, -1.4707542956e-01,  2.4118922651e-01, -1.6258778051e-02, -1.8821644783e-01,  2.4671383202e-01, -2.4651473761e-01,  1.1082104407e-02,  1.9441743195e-01, -2.6682177186e-01, 
	 1.8183252215e-01,  2.5320433080e-02,  1.0351588950e-02, -3.7906736135e-02,  3.0268543959e-01,  2.1400035918e-01, -3.0962198973e-01,  2.8649854660e-01, -9.0270020068e-02, -1.8991807476e-02, 
	 2.8428918123e-01,  2.3291915655e-02,  3.2122224569e-02, -2.1356949210e-01,  6.4668297768e-02, -1.9355037808e-01,  9.6551805735e-02,  1.4757989906e-02, -2.8871613741e-01,  4.0374778211e-02, 
	-6.0714114457e-02,  1.4647793956e-02,  2.8298474848e-02, -3.2463200390e-02, -6.0966812074e-02,  1.6743430868e-02,  1.2039320171e-01, -2.0432531834e-01,  2.5534492731e-01, -3.0638143420e-01, 
	-7.7016279101e-02, -5.3979467601e-02, -7.8038144857e-03, -2.9810395837e-01, -2.5988221169e-01,  2.1041248739e-01,  1.2048833072e-02,  2.0439526998e-03, -2.9940807819e-01,  4.0030930191e-02, 
	-4.8348400742e-02,  1.1265924200e-02,  2.6517659426e-01,  1.7161776125e-01, -3.3425193280e-02, -1.8975482881e-01,  2.3167902231e-01, -9.3249827623e-02,  3.1895913184e-02,  6.9461479783e-02, 
	 1.2236209214e-01,  8.9386180043e-02, -6.6625863314e-02,  9.3256950378e-02, -1.2250746600e-02,  2.1414149087e-03,  5.9021960944e-02, -2.8005387634e-02, -3.7831034511e-02, -1.4005441964e-01, 
	 1.0276983492e-02, -6.5177038312e-02,  8.7620459497e-02, -6.3004791737e-02,  6.7912869155e-02, -5.7672176510e-02, -1.2696345150e-01, -2.8740298003e-02,  1.0992694646e-01, -5.5888220668e-02, 
	-1.0621742159e-01,  1.1091197282e-01,  6.0421209782e-02,  1.6526381671e-01, -3.7755366415e-02, -2.6151491329e-03, -1.1184446514e-01, -1.5375109017e-01, -2.0093692839e-01,  1.1700537801e-01, 
	 2.3944729939e-02, -1.6010373831e-01, -1.8548551202e-01, -1.0806908458e-01,  2.1215398610e-01,  5.2673712373e-02, -1.0462099314e-01,  8.4710858762e-02,  1.0597345978e-01, -5.1579978317e-02, 
	-5.7094335556e-02, -1.1250960827e-01,  2.5885954499e-01, -1.1643859744e-01,  7.8474842012e-02, -1.0176316649e-01,  9.0858880430e-03, -1.1896879226e-01,  2.4904978927e-03, -1.1065688729e-01, 
	-6.4113348722e-02, -2.2928504646e-01, -8.4211073816e-02,  2.2049251199e-01,  5.6256402284e-02, -1.7069171369e-01,  1.0199240595e-01, -1.1278796941e-02,  3.8867868483e-02, -1.9477248192e-01, 
	-1.9289360940e-01,  1.8513103947e-02,  2.1586044133e-01, -2.3495933041e-02, -1.0082288086e-01,  1.4297910035e-01,  1.0813385248e-01,  2.3721440230e-03, -4.8673268408e-02,  2.0687218755e-02, 
	-1.1642871052e-01,  3.8206059486e-02, -4.4424682856e-03,  6.7363493145e-02, -1.2817047536e-01, -7.5003132224e-02, -1.7204117775e-01,  1.0760354251e-01, -1.6304679215e-01, -1.1453907937e-01, 
	 7.1108810604e-02, -6.7085914314e-02,  6.6687151790e-02, -2.0216728747e-01,  2.2376693785e-01, -1.0307800770e-01,  2.5762403011e-01,  4.3888069689e-02,  8.5968211293e-02,  2.0209065080e-01, 
	 1.0117235035e-01, -3.5804172512e-03,  1.0629434884e-01, -9.2260085046e-02, -2.3893053830e-01,  4.1845232248e-02,  3.7061296403e-02,  1.2348612398e-01, -1.1457160860e-01, -2.7388209477e-02, 
	 1.7661207914e-01,  1.5713658929e-01,  3.3652592450e-02, -1.7376823723e-01,  5.5515758693e-02,  9.5885992050e-02, -2.1031293273e-01, -1.6097831540e-03, -8.8758148253e-02,  7.7504508197e-02, 
	 1.7148032784e-01,  1.3657251000e-01,  9.6359588206e-03,  2.8871864080e-02, -1.8890339136e-01,  2.5631690025e-01,  1.2554363906e-01, -1.0110586882e-01,  4.0453553200e-02,  6.0222204775e-02, 
};

const float layer_2_dense_bias[UNET_PAR_2_DENSE_OUT_DIM] = {
	 5.6093845516e-02,  2.1295296028e-02,  3.8035985082e-02,  2.9691744596e-02, -7.0986244828e-03,  7.9653142020e-03, -4.0732387453e-02, -1.3288368471e-02,  4.7833573073e-02,  6.2430877239e-02, 
	 4.1772313416e-02,  4.6634622850e-03,  4.2026087642e-02, -2.4658797309e-02,  1.6576406779e-03, -4.8434138298e-02,  4.3693069369e-02,  3.7717036903e-02,  1.9671393558e-02,  2.7858480811e-02, 
};


#endif
