#ifndef PARAMS_CONV2D_43_H
#define PARAMS_CONV2D_43_H
#include "params.h"

const float layer_43_conv2d_weight[UNET_PAR_43_CONV2D_KERNEL_Y*UNET_PAR_43_CONV2D_KERNEL_X*UNET_PAR_43_CONV2D_IN_FILTER*UNET_PAR_43_CONV2D_OUT_FILTER] = {
	-6.0507664457e-03, -5.7806921005e-01, -7.4470579624e-02, -4.2704725266e-01,  1.4872688055e-01, -4.2641827464e-01, -1.3434751332e-01, -3.9488482475e-01, -1.3015866280e-01, -6.7806653678e-02, 
	-2.4537660182e-02,  2.6403520256e-02, -3.7710554898e-02,  1.6285042465e-01,  1.2727586925e-01,  8.7494179606e-02, -1.2916049361e-01,  2.0313734189e-02,  1.3909326494e-01,  1.5509510040e-01, 
	 2.3665304482e-01,  1.7151771486e-01,  1.3449521363e-01,  1.6167761385e-01,  1.1115291156e-02,  2.9371964931e-01,  2.2906547785e-01,  8.7732687593e-02,  1.1050766706e-01,  1.8862240016e-01, 
	-3.7676218897e-02, -2.0892260969e-01, -1.2790593505e-01,  9.9464587867e-02, -1.1733618379e-01,  1.0034745559e-02, -6.3330024481e-02, -8.4226764739e-02,  9.2035793932e-04,  1.6530926805e-03, 
	-1.3642756641e-01, -1.3341939775e-03,  7.9739257693e-02,  1.2115449458e-01, -5.2618549671e-04,  4.0799882263e-02,  9.4093792140e-02,  4.0889848024e-02,  1.1820188165e-01,  2.5415983796e-01, 
	 8.4622554481e-02,  2.2441594303e-01, -5.7879853994e-02,  2.1974609792e-01, -3.5801515332e-04, -2.2532232106e-02, -8.2983613014e-02, -2.9521172401e-03, -2.3698078096e-01, -2.3788700998e-01, 
	-6.0993712395e-02, -1.7093318701e-01, -2.5508608669e-02, -1.1398615316e-03,  3.9695587009e-02, -4.8100072891e-02,  6.7169345915e-02, -1.0543104261e-01, -1.0199481994e-01, -6.3172966242e-02, 
	-1.5587499738e-01, -8.4042392671e-02, -1.3048937544e-02,  5.9868887067e-02, -3.0911320820e-02, -1.9993592799e-01, -1.2075329572e-01,  2.6024013758e-02, -1.2989228964e-01, -1.2288393825e-01, 
	 2.3524316028e-02, -1.1073615402e-01, -2.2695423663e-01, -1.3405892253e-01, -1.2948624790e-01, -8.7327703834e-02, -2.4729208648e-01,  1.0138709843e-01,  1.3657465577e-01, -2.8180306777e-02, 
	 6.1267104000e-02, -4.7172643244e-02, -1.1456533521e-01,  5.1390692592e-02, -1.2902204692e-01,  1.2036277354e-01, -1.1110685021e-01, -6.4931266010e-02, -3.1045537442e-02, -1.1117519438e-01, 
	-1.4919713140e-02, -3.0104430392e-02, -8.1089191139e-02,  1.7906906083e-02,  2.1659502760e-02, -1.1923768371e-01,  1.3458062895e-02, -1.6314323246e-01,  1.5765657648e-02, -9.6507042646e-02, 
	-3.5346493125e-02, -2.8989141807e-02,  3.9790946990e-02, -6.5091259778e-02,  2.5805059820e-02,  3.1993396580e-02, -6.2683209777e-02, -1.3287043571e-01,  2.2937241942e-02, -7.9691454768e-02, 
	-3.9634440094e-02,  1.0513570160e-01, -2.9426921159e-02, -1.4960425906e-03, -3.8914367557e-02, -3.9214480668e-02, -7.9380072653e-02,  1.4634051919e-01, -4.7435067594e-02,  1.8214789033e-01, 
	-6.6441625357e-02,  6.7450746894e-02,  9.0366287623e-05,  4.6499732882e-02, -1.0152561590e-03, -4.0059376508e-02,  1.4238411188e-01, -9.7874477506e-02,  2.6763303205e-02, -4.9310475588e-02, 
	 1.2332427502e-01,  4.3132461607e-02,  3.0201952904e-02,  3.3323541284e-02,  1.1121310294e-02, -4.7977395356e-02,  2.0833909512e-02,  8.6866013706e-02, -1.1367288232e-01,  8.3520434797e-02, 
	 8.5849715397e-03, -2.1804396063e-02,  8.4302090108e-02, -8.3807066083e-02,  9.3415295705e-03,  2.2585013881e-02, -6.3330821693e-02,  7.3406703770e-02, -4.3598428369e-02, -6.4654096961e-02, 
	-5.7211440057e-02, -1.0895823687e-01,  1.0526362807e-01, -3.9237737656e-02,  1.9273851067e-03,  1.0330606252e-02, -9.3968942761e-02, -4.1491226293e-03,  4.6740416437e-02,  2.7202421799e-02, 
	 1.3612452149e-01,  1.3164572418e-01,  3.1055726111e-02,  7.4375368655e-02, -2.8700213879e-02, -2.7347149327e-02,  5.8375801891e-02,  1.7553246021e-01, -3.1374342740e-02,  1.0416743346e-02, 
	 8.0884426832e-02, -2.0571523905e-01, -3.6381993443e-02,  2.4828102905e-03,  1.9958779216e-02, -9.5544524491e-02,  1.6385707259e-01, -1.4490565658e-01,  1.1924395710e-01, -1.2098802626e-01, 
	-3.3215203881e-01, -5.9884212911e-02, -5.0682812929e-01, -4.3675085902e-01,  8.4522850811e-02, -3.9226093888e-01, -3.4591376781e-01, -2.3984953761e-01, -1.9399804994e-02,  2.8071472421e-02, 
	-6.0698818415e-02, -3.6991927773e-02,  9.7502097487e-02, -4.9261275679e-02, -3.9491206408e-02,  1.7642045394e-02,  1.4579561353e-01, -1.1958694458e-01, -1.2596498430e-01, -1.6987776756e-01, 
	-2.8747981787e-01, -1.5362650156e-01, -3.5972082615e-01, -1.2879697978e-01, -3.9787924290e-01, -1.8106175959e-01, -2.2772695869e-02, -3.8558396697e-01, -1.4545889199e-01, -2.4443966150e-01, 
	-5.5198901892e-01, -5.0761604309e-01, -2.6472594589e-02, -5.7020074129e-01, -2.2889991105e-01,  2.1246476099e-02, -1.1713175476e-01,  1.3368044794e-01, -1.3422854245e-01, -2.1416854858e-01, 
	-1.3774031401e-01,  1.5018551052e-01, -2.2624023259e-01, -6.3506267965e-02,  4.5527949929e-02, -2.8598588705e-01, -5.2827902138e-02, -3.4246221185e-02, -3.2215294242e-01, -2.3623676598e-01, 
	 1.0036751628e-01, -2.4077963829e-01, -1.7590504885e-01, -1.4783974737e-02,  2.4737118185e-01, -7.8046768904e-02,  7.1818150580e-02, -1.9479925931e-01, -1.9481045008e-01, -3.0176583678e-02, 
	-8.9855916798e-02, -2.4951893091e-01, -2.6645854115e-01, -8.7632380426e-02,  1.8663257360e-01, -5.2505079657e-02, -7.2097465396e-02,  1.3461649418e-01, -1.1341446638e-01, -5.0357682630e-03, 
	-7.9451464117e-02, -1.3666249812e-01, -4.2348880321e-02, -1.8260927498e-01,  1.8721345812e-02, -9.4192259014e-02, -3.1430643797e-01, -2.2698504850e-02, -2.1104469895e-01, -5.7833012193e-02, 
	-1.4805355668e-01, -8.9516505599e-02, -3.8843549788e-02,  2.3429136723e-02, -7.1627691388e-02, -3.9233407006e-03,  6.4079478383e-02, -4.6126648784e-02,  8.9042074978e-02,  4.7537684441e-02, 
	-9.8352178931e-02,  4.3774925172e-02,  6.6478945315e-02,  4.7208890319e-02, -1.0108654201e-01,  8.0719515681e-02,  8.3804816008e-02,  4.3038871139e-02, -3.6504089832e-02,  9.6980268136e-03, 
	-1.1017936468e-01,  2.9135573655e-02,  2.2213872522e-02, -2.4905517697e-02,  2.4029216729e-03, -7.8971631825e-02,  6.4988303930e-03,  6.6937603056e-02, -4.0104731917e-02,  9.8918989301e-02, 
	 1.0972856544e-02,  5.6872679852e-04, -8.9098826051e-02, -2.7738197241e-03,  9.2582860962e-03, -1.7775934190e-02,  8.8961802423e-02, -6.1931170523e-02,  1.4568503015e-02,  9.9495947361e-02, 
	-5.3633205593e-02, -1.1603570729e-01,  2.7450090274e-02,  9.1207429767e-02,  7.6989665627e-02, -2.7265468612e-02, -1.3415667415e-01,  7.5163759291e-02,  2.4876203388e-02,  1.5033070929e-02, 
	-1.1379300803e-01, -1.3666979969e-02,  6.4040429890e-02, -1.1389335245e-01,  4.6116255224e-02,  3.2224379480e-02,  9.3403019011e-02,  3.2077971846e-02, -6.1805937439e-02,  1.2401863933e-01, 
	-6.0244947672e-02, -2.8762902366e-04,  1.5429326333e-02,  6.6019631922e-02, -2.3765908554e-02, -3.9907403290e-02, -8.5364855826e-02,  1.3599447906e-02,  8.5492305458e-02, -2.0271977410e-02, 
	 1.0048489086e-02,  4.9287363887e-02, -5.3769212216e-02,  7.4607737362e-02, -1.6380596207e-03,  2.0278716460e-02, -5.4299447685e-02,  1.1556524783e-01, -4.9774978310e-02,  3.1615100801e-02, 
	-6.1566680670e-03,  3.2233234495e-02, -3.7806141190e-03,  1.0517588258e-01,  5.7695783675e-02,  8.6751528084e-02,  7.4708322063e-03, -1.0573297739e-01,  9.5140159829e-04,  7.1573808789e-02, 
	 3.1601436436e-02, -2.6591630653e-02,  6.9473318756e-02, -3.5914752632e-02,  3.2116228342e-01, -1.1150640994e-01, -8.5449619219e-03,  1.5469248593e-01,  6.7669980228e-02, -3.2964444160e-01, 
	-2.3839320242e-01, -1.8655495346e-01, -2.5408980250e-01, -5.2316766977e-01, -2.5997925550e-02, -8.3656899631e-02, -1.5265513957e-01, -1.1791311949e-01,  3.5963308066e-02,  4.7942746431e-02, 
	 7.3747813702e-02, -2.6994587388e-03,  2.6069821790e-02,  1.2897952460e-02,  3.2690107822e-02,  9.3772061169e-02,  9.2278115451e-02, -3.4153175354e-01, -3.6290264130e-01,  1.5263508074e-02, 
	-2.8134703636e-01, -3.6694923043e-01, -4.8368915915e-01, -3.3004797995e-02, -4.2291104794e-01, -6.3496552408e-02, -2.6901993155e-01, -3.5308930278e-01, -6.4149796963e-02, -1.3781860471e-01, 
	-2.2454410791e-01, -8.6928889155e-02, -7.8631833196e-02, -2.3587487638e-01, -6.0758534819e-02,  1.2124046683e-01, -1.1457395554e-01, -1.3721452653e-01, -2.3612542450e-01,  1.6546928883e-01, 
	 4.0812786669e-02, -4.3423317373e-02, -3.3114972711e-01,  1.5630304813e-01,  5.3251195699e-02, -2.1300922334e-01,  9.5542430878e-02,  3.8065228611e-02, -2.1658410132e-01, -3.0577966571e-01, 
	 1.3556315005e-01, -2.1868441999e-01, -2.5370591879e-01, -1.7943473533e-02, -5.8068711311e-02,  2.9793760180e-01, -1.5186795592e-01, -2.1310766041e-01, -7.9921416938e-02, -9.7671516240e-02, 
	-2.7095553279e-01,  1.8525769934e-02,  6.1809167266e-02, -1.7049658298e-01, -5.6794427335e-02, -9.3770302832e-02,  1.2586588040e-02,  7.1902684867e-02, -5.2461173385e-02, -1.6881216317e-02, 
	-1.3025675714e-01, -2.4511821568e-01, -4.6108320355e-01, -2.4146384001e-01, -1.7971828580e-01, -2.0873734355e-01, -1.8785871565e-01, -6.8434424698e-02, -1.4021433890e-01, -2.9440987110e-01, 
	-7.5253859162e-02,  1.3654358685e-01, -3.9424043149e-02,  2.5537617505e-02,  1.5161085129e-01, -1.4239430428e-01,  4.3892972171e-02, -1.9537158310e-02,  1.0054605454e-01, -9.7723998129e-02, 
	 6.4303904772e-02, -2.7579549700e-02, -1.4384253882e-02, -8.3712607622e-02, -1.4735272527e-01,  1.0597000271e-01,  3.0006524175e-02,  1.3533842564e-01, -8.9535668492e-02, -1.4467982575e-02, 
	-1.0222333670e-01, -6.2298610806e-02, -8.8645126671e-03,  9.2482529581e-03, -1.5317136049e-01,  1.7417365685e-02, -1.4227197506e-02, -9.1467946768e-02, -1.0139770806e-01,  4.1174362414e-03, 
	-5.5631566793e-02,  3.1441354658e-03,  7.5765766203e-02,  2.3671019822e-02,  5.7948291302e-02,  7.1023367345e-02, -4.7313317657e-02,  1.7534587532e-02, -4.9939984456e-03, -1.1529786885e-01, 
	 1.8212793767e-01,  1.0650227964e-01, -1.3236966729e-01,  3.9994526654e-02,  9.8752923310e-02,  9.3782067299e-02,  1.0658679157e-01,  4.4624269009e-02,  1.2583368458e-02,  9.8921902478e-02, 
	-7.7376633883e-02,  2.4141252041e-02, -4.7889929265e-02,  1.0660322756e-01, -6.0896832496e-02,  6.0717552900e-02,  2.0925605670e-02, -1.1476426385e-02, -4.5256905258e-02,  9.6617154777e-02, 
	 3.9464373142e-02,  1.9478401169e-02, -2.4060521275e-02,  6.4858809114e-02, -1.9666610286e-02, -5.7022874244e-03,  3.6980211735e-02,  3.0305592343e-02,  8.0773802474e-03, -6.5005727112e-02, 
	 9.7275555134e-02, -4.0633786470e-02,  1.2736093998e-01, -9.7864270210e-02,  5.0067726523e-02,  3.2156478614e-02,  1.4591194689e-01,  1.2147383764e-02,  8.2577109337e-02,  7.0327565074e-02, 
	-4.0970295668e-02, -1.0581525043e-02,  8.9608922601e-02,  4.1478302330e-02,  1.5638992190e-01, -5.5640127510e-02,  8.5667431355e-02,  9.9741674960e-02, -1.0287445784e-01,  1.0933034867e-01, 
	 4.2862731963e-02, -3.1953611970e-01,  1.5828590095e-01, -2.3571310937e-01, -1.3677667081e-01, -3.5930132866e-01,  6.3153319061e-02, -1.9238363206e-01, -7.0692926645e-02, -2.0769348368e-02, 
	-3.6586184055e-02, -2.5187256932e-01, -3.0934989452e-01,  1.4512855560e-02, -1.8736839294e-02,  6.3270795345e-01,  2.7853006124e-01,  1.2367800623e-01, -2.5940400362e-01, -3.8603767753e-02, 
	-3.2571732998e-01, -3.3667853475e-01,  6.4142316580e-02,  2.7962866426e-01, -2.4361984432e-01, -9.2084556818e-02,  4.8512212932e-02, -6.5936841071e-02,  2.8372558951e-01,  2.6147888973e-02, 
	-6.2849648297e-02,  1.2017440796e+00,  1.4655619860e-01,  6.9923326373e-02, -6.5277241170e-02,  2.9417970777e-01,  1.2032607198e-01,  1.6958078742e-01, -8.8041178882e-02,  7.8814506531e-02, 
	 1.1275096238e-01, -1.4711305499e-01, -1.8101586401e-01, -1.9948732108e-02, -1.3909564912e-01,  1.2263499200e-01,  1.4849088155e-02,  1.5547466278e-01,  1.0115750134e-01, -2.0573439077e-02, 
	-1.5028218925e-01,  4.6013942361e-01,  4.2131412774e-02,  1.0436654091e-01, -9.9216163158e-02, -2.2730570345e-04, -2.8182807565e-01, -2.0454727113e-01,  1.5438054502e-01, -1.7457096279e-01, 
	-1.9051077962e-01, -1.8602857366e-02,  2.7618784457e-02,  3.4358825535e-02, -4.0129873902e-02,  9.4687081873e-02,  6.2368321232e-03,  2.6803638320e-03, -1.7816404998e-01,  1.2850922346e-01, 
	 8.0048762262e-02, -1.6840819269e-02, -1.9292785227e-01,  2.3995584249e-01,  7.1216315031e-02,  4.5911335945e-01,  2.0420908928e-01,  1.6645514965e-01, -8.1537991762e-02, -1.7575863004e-01, 
	 1.3793593645e-01,  9.1552242637e-02,  4.2749483138e-02,  2.5918906927e-01,  7.0695579052e-02,  2.1797151864e-01,  1.6810038686e-01,  8.7593719363e-02,  1.0970270634e-01,  2.6432806626e-02, 
	-5.7557176799e-02, -5.4696794599e-02,  1.1518761516e-01,  1.0392026603e-01,  8.4868244827e-02,  1.4967533760e-02,  1.6745315492e-01,  1.9874648750e-01,  5.4327361286e-02, -2.5320552289e-02, 
	 7.6691314578e-02, -9.7965918481e-02,  1.0255115479e-01,  4.3009005487e-02, -7.1283489466e-02, -4.1397541761e-02,  5.9276353568e-02,  1.7752902210e-01,  7.5514093041e-02, -1.9243066013e-01, 
	-1.7476730049e-01,  1.8187314272e-01,  3.4257616848e-02, -3.8504466414e-02, -3.1491879374e-02, -2.1632313728e-02, -1.4210675843e-02,  5.4680209607e-02, -2.5590233505e-02, -3.5451889038e-02, 
	-8.5059322417e-02, -5.2979744971e-02,  1.3094727695e-01, -1.8495492637e-02,  7.1578383446e-02,  6.3914597034e-02, -1.3152812421e-01, -1.3981604576e-01, -1.1357368529e-01,  3.7244826555e-02, 
	-5.7359065861e-02, -1.4790685475e-01,  6.7975848913e-02, -1.2595608830e-02, -1.4686429501e-01,  3.8607932627e-02, -6.6007867455e-02,  8.3903864026e-02, -8.4002606571e-02, -2.1716392040e-01, 
	 3.1151592731e-02, -1.9548971951e-01, -7.7676706016e-02, -1.3277712464e-01,  9.9239327013e-02,  3.4764222801e-02, -5.0683800131e-02, -9.4006910920e-02,  3.4751992673e-02,  5.9217419475e-02, 
	 3.2674688846e-02,  3.5099796951e-02, -6.3437700272e-02,  5.2087627351e-02,  2.3048083484e-01,  8.8450320065e-02,  1.7596232891e-01,  1.8398067355e-01,  1.1272286624e-01,  1.8006360531e-01, 
	 1.2748036534e-02,  1.3688853383e-01,  1.0258463025e-01,  1.0774537921e-01,  3.8776692003e-02, -2.1588066593e-02,  1.6111014783e-01, -1.2486035004e-02, -1.6457840800e-02,  1.5743368864e-01, 
	 1.8588791788e-01,  4.2952451855e-02, -1.0836880654e-01, -3.1545225531e-02, -5.7124244049e-03,  7.5305864215e-02, -1.1530692689e-02, -1.8841491640e-01,  3.9607748389e-02, -8.5466146469e-02, 
	 3.0794056132e-02, -5.8378463984e-01,  3.3114362508e-02, -1.5938657522e-01,  1.6175913811e-01, -1.6384456307e-02,  6.9413132966e-02, -2.2907856852e-02,  3.8221538067e-02,  2.1928395331e-01, 
	-3.3791154623e-01,  6.1859749258e-03, -2.1349579096e-01, -9.8564915359e-02,  6.7906506360e-02, -1.5869262815e-01, -1.5183536708e-01, -1.1489604414e-01,  1.1995843053e-01,  1.9009071589e-01, 
	 8.4989011288e-02,  6.8512782454e-02,  3.5795614123e-02, -4.7275526449e-03,  1.0561691970e-01,  1.8338579684e-02,  8.6644291878e-04, -1.2542340159e-01, -2.3000483215e-01,  1.6615672037e-02, 
	-3.7552055717e-01, -4.4921186566e-01, -4.2050263286e-01, -9.6641629934e-02, -2.7523207664e-01, -1.3085083663e-01, -1.1587923020e-01, -2.0616249740e-01,  1.0840727389e-01, -2.5631484389e-01, 
	-5.8080667257e-01, -2.2009481490e-01, -3.3597335219e-02, -1.1776121706e-01,  2.1423494443e-02,  3.2665401697e-02, -3.4165108204e-01, -7.6083838940e-02,  4.0293514729e-02,  1.3916170597e-01, 
	 3.5143727064e-01,  4.4698592275e-02,  1.2630535662e-01, -9.6054606140e-02,  2.0235095173e-02, -3.7724208832e-01,  1.6349706054e-01,  9.7627520561e-02, -4.4708454609e-01, -1.4943172038e-01, 
	 2.8325688094e-02,  1.4607973397e-01,  2.1396541968e-02, -8.4470147267e-03, -1.5253187716e-01,  1.1421957612e-01,  9.5535740256e-02,  1.0991511494e-01,  1.0603683442e-01,  1.0453356802e-01, 
	 4.1648201644e-02,  1.0213415325e-01, -1.4953757823e-01, -2.2774818540e-01, -3.2837042212e-01, -1.6448622569e-02, -1.0007514060e-01, -2.1453487873e-01, -2.2719480097e-02, -2.0690371096e-01, 
	-1.5579865314e-02, -2.9265820980e-02, -3.6818477511e-01,  1.2509054504e-02, -1.6638036817e-02, -2.6488741860e-02, -1.4183996618e-01,  1.0491186753e-02, -1.2988196313e-01, -9.8600499332e-03, 
	-7.3230512440e-02,  1.2797021866e-01, -2.2401444614e-02,  2.6385383680e-02, -6.0840342194e-02, -2.5309138000e-02, -7.3832371272e-03, -1.4924544841e-02, -2.1390095353e-03, -5.6945331395e-02, 
	 9.0433336794e-02,  1.1626618356e-01, -1.3610048220e-02, -1.2189570069e-01,  5.3119217046e-03,  5.3911089897e-02, -4.3274339288e-02, -1.3528537005e-02, -1.0406608135e-01,  6.6162489355e-02, 
	 4.2008418590e-02,  4.5848093927e-02,  8.3715766668e-02, -3.0271142721e-02,  7.7744342387e-02,  3.4437801689e-02, -3.1975703314e-03, -1.5645149350e-01,  5.0704915076e-02,  5.6719977409e-02, 
	-6.4953692257e-02,  2.8769107535e-02, -9.1744847596e-02, -2.9155217111e-02,  4.0788546205e-02,  5.6524939835e-02, -5.6619830430e-03, -7.2854250669e-02,  1.1374545842e-01, -3.6595564336e-02, 
	-5.2804786712e-02, -9.9224731326e-02,  8.0377943814e-02, -4.9295362085e-02,  8.0726116896e-02, -3.2211565413e-03, -2.9414564371e-02, -6.0983773321e-02, -5.5709563196e-02,  5.5372450501e-02, 
	 2.8036592528e-02, -5.5094998330e-02,  9.5037259161e-02, -4.0700919926e-02, -3.7744246423e-02, -3.5832449794e-02,  1.8824372441e-02,  2.8442896903e-02, -2.8399154544e-02, -1.3516160846e-01, 
	-8.4720574319e-02, -5.3581144661e-02,  4.3722487986e-02,  4.0887385607e-02, -4.7379687428e-02, -4.7525946051e-02, -7.8516326845e-02, -2.4048253894e-02, -5.3283825517e-02, -1.0057215579e-02, 
	-6.1140380800e-02,  1.7234196421e-03, -3.3831749111e-02, -7.4268184602e-02, -1.0868478566e-01, -9.2482734472e-03, -1.9850810990e-02,  1.1336307973e-01, -3.5487927496e-02,  1.1230916530e-01, 
	-1.7221063375e-02, -5.2904106677e-02,  6.2286615372e-02, -3.9559148252e-02,  2.9237296432e-02,  3.0853280798e-02, -5.3495153785e-02, -9.3942910433e-02, -2.3962303996e-02, -5.2304089069e-02, 
	 3.1650763005e-02, -1.0359892622e-02,  1.1227840558e-02, -1.2658524513e-01,  6.3299678266e-02, -9.0757012367e-02, -1.4558835328e-01, -2.5834414363e-01,  6.1172876507e-02, -5.3579553962e-02, 
	-1.9095128775e-01, -4.9729410559e-02, -2.1475207806e-01, -3.8341961801e-02, -9.1843642294e-02, -6.2648355961e-02, -1.7937266827e-01, -9.4204477966e-02,  1.6759614646e-01,  2.2656291723e-01, 
	 1.0581091791e-01,  1.1260587722e-01, -5.2789885551e-02,  9.4208829105e-03,  9.5197990537e-02, -2.0590096712e-01, -6.9959171116e-02, -3.0021142960e-01,  1.2722359598e-01, -1.2294349074e-01, 
	-1.6382105649e-01, -6.2887810171e-02, -1.1096835881e-01, -1.1568556726e-01, -2.1934860945e-01,  6.4527178183e-03, -3.6782288551e-01, -2.6359295845e-01, -3.2474952936e-01, -1.8610447645e-01, 
	-1.8406832218e-01, -1.8638481200e-01, -1.6735409200e-01, -4.2962752283e-02,  2.1834438667e-02, -2.7718463540e-01,  1.9672207534e-01, -9.6226207912e-02, -7.4218459427e-02,  2.7616834641e-01, 
	-1.4812807739e-01, -3.6945566535e-01,  1.7430818081e-01, -7.6827466488e-02, -5.5217766762e-01,  5.4830196314e-03, -5.9975844622e-01, -2.8655385971e-01, -3.3561661839e-01, -1.9968493283e-01, 
	-2.3399488628e-01, -2.1261921152e-02,  6.7723132670e-02,  6.2304385006e-02,  1.2502275407e-01,  5.6623291224e-02,  7.6488568448e-03,  3.6222260445e-02, -2.7943700552e-01, -4.2436057329e-01, 
	-3.0637800694e-01, -4.7363179922e-01,  3.0415475368e-02,  2.1168790758e-02, -7.3441497982e-02,  2.2794885561e-02, -2.0867623389e-01, -2.7750587463e-01, -2.9708731920e-02,  2.1604446694e-02, 
	-5.2841316909e-02, -1.5573751926e-01,  8.2719221711e-02, -4.0079843253e-02,  1.0253553092e-01, -3.6147732288e-02, -1.5560540557e-01,  1.0704677552e-01,  2.7697358280e-02, -8.3648636937e-02, 
	 6.2838010490e-02, -3.9393901825e-02, -4.7121290118e-02,  4.2965762317e-02,  4.0161043406e-02,  5.1652673632e-02, -1.1201354116e-01, -1.0263812542e-01,  6.6154077649e-02,  7.6180145144e-02, 
	 5.6617487222e-02, -3.2035645097e-02,  6.8350531161e-02,  6.6064514220e-02, -9.5877677202e-02, -7.9534426332e-02,  3.1373236328e-02,  1.8664069474e-02,  7.3448084295e-02, -2.6633279398e-02, 
	 6.8733386695e-02, -7.2174601257e-02,  8.6346484721e-02,  1.8984885886e-02,  1.1468225718e-01, -5.5465251207e-02,  1.6530998051e-02, -1.0971012712e-01,  6.6838525236e-02, -2.6163728908e-02, 
	 4.9721758813e-02,  4.4986922294e-02, -4.3729756027e-02, -3.1772067305e-03,  8.4263935685e-02, -8.8214628398e-02,  5.5714480579e-02, -5.0721451640e-02, -8.6232237518e-02,  1.0071293265e-01, 
	-4.3502260000e-02,  1.0517494380e-01, -1.1701222509e-01, -2.5090364739e-02, -4.0200753137e-03,  1.0441450402e-02,  2.6667783037e-02,  2.5882007554e-02,  9.9502075464e-03, -4.7545365989e-02, 
	 3.3787366003e-02, -9.0247452259e-02, -9.5258198678e-02,  1.2659885921e-02,  8.7309226394e-02, -1.9152384251e-02, -9.5485532656e-03, -4.7521926463e-02,  4.9300353974e-02,  9.5831705257e-03, 
	-1.2805650011e-02,  6.9403119385e-02, -5.2260752767e-02, -5.7138498873e-02, -8.8219856843e-03, -5.4713752121e-02,  8.6913667619e-03, -7.8000016510e-02,  5.3848758340e-02,  5.5197801441e-02, 
	-1.3240845501e-01,  6.1208613217e-02,  7.3834761977e-02, -4.5290149748e-02, -2.5885766372e-02, -1.0078185052e-01,  1.2969550677e-02,  8.3593510091e-02, -1.0804583132e-01,  5.1002655178e-02, 
	-1.2277808785e-01, -1.6787712276e-01,  2.0392470062e-02,  5.3538158536e-02,  5.5427271873e-02,  2.4382473901e-02, -1.2138159573e-01,  6.7648142576e-02,  5.7970792055e-02, -1.1079676449e-01, 
	 4.7504633665e-02,  2.1471235901e-02,  6.0447372496e-02, -1.9748358428e-01,  4.6877332032e-02,  1.4252422750e-01, -3.7208124995e-02, -2.1073909104e-01,  7.4081897736e-02, -8.9717872441e-02, 
	-2.5126062334e-02, -9.1037057340e-02, -4.3307232857e-01, -2.6072110981e-02, -1.1684384197e-01, -2.9554644227e-01,  9.7659893334e-02, -9.1059217229e-03,  4.5223362744e-02,  6.9896220230e-03, 
	-1.2702389061e-01,  3.3581059426e-02,  8.3046689630e-02,  8.7192669511e-02,  3.1066648662e-02, -1.2850208580e-01, -6.3397899270e-02, -3.3432194591e-01, -1.1849298328e-01, -1.0489586741e-01, 
	-4.0711459517e-01, -3.8283294439e-01, -1.6634855419e-02, -2.8727221489e-01, -1.1276853830e-01, -6.3272699714e-02, -2.6134112477e-01, -4.0063276887e-01,  3.6598037928e-02, -4.1959589720e-01, 
	-4.6978861094e-01, -8.6064480245e-02, -1.4921875298e-01, -4.6695698053e-02, -1.7424905673e-02,  1.4612454176e-01, -1.3888902962e-01,  9.8941624165e-02, -2.0456753671e-01, -2.5939598680e-01, 
	-5.8166816831e-02,  6.6903054714e-02, -3.4298911691e-01, -6.0910899192e-02, -2.9591801763e-01, -3.8086295128e-01,  9.1297477484e-02, -4.9579414725e-01, -4.0086778998e-01,  1.8333837390e-01, 
	 1.8809153140e-01, -4.2651408911e-01,  1.2241164595e-01,  9.5133356750e-02,  3.4989271313e-02,  1.5299103223e-02, -2.7966922522e-01, -1.9836597145e-01,  5.4051196203e-03, -3.0038869381e-01, 
	-9.2796199024e-02,  5.8731451631e-02, -5.0947476178e-02,  4.9241144210e-02,  4.5330528170e-02, -1.2794402242e-01,  8.0629296601e-02, -6.3321595080e-03,  7.1226447821e-02,  1.8472985923e-01, 
	 1.1990236118e-02, -1.5397340059e-01, -2.4183040857e-01,  2.4320788682e-02, -1.2871955335e-01, -9.8974116147e-02,  1.1238247156e-02, -7.5578197837e-02, -2.6732844114e-01,  2.3815605789e-02, 
	 1.0000234097e-01, -2.5188535452e-02, -2.4010380730e-03, -9.9332071841e-03, -1.3173097372e-01, -7.4941539206e-03, -4.7783471644e-02,  1.1575635523e-01,  1.3841789216e-02, -6.8441130221e-02, 
	 1.4396088198e-02, -4.2580384761e-02,  1.0430590063e-01,  6.6425755620e-02,  2.4203827605e-02,  2.2268911824e-02, -1.0943932831e-01, -3.0847890303e-02,  1.8660236150e-02, -8.7527923286e-02, 
	-6.6853374243e-02, -6.3829757273e-02, -5.7401843369e-03, -6.8294622004e-02, -7.9948440194e-02,  1.6604967415e-02, -8.1116989255e-02,  1.6596332192e-02,  8.3499111235e-02, -1.2449993938e-01, 
	-9.3780964613e-02, -7.2317525744e-02,  1.4161117375e-01, -2.0193599164e-02, -1.5891766176e-02, -6.2295254320e-02,  6.2077805400e-02,  1.2416976504e-02, -2.5393337011e-02,  2.7028623968e-02, 
	 7.4730843306e-02, -5.7385835797e-02,  4.1711956263e-02, -3.1403549016e-02, -5.7846106589e-02,  1.3506172225e-02, -1.8204495311e-02, -2.4962369353e-02, -3.5759367049e-02,  1.2014977634e-01, 
	-4.9568903632e-03, -4.8845075071e-02, -3.5214018077e-02,  6.5345573239e-03,  9.4036072493e-02, -5.4753068835e-02,  9.8996266723e-02, -5.2102286369e-02,  1.4687441289e-01,  6.8688616157e-02, 
	 4.2802341282e-02, -3.7385949399e-03,  6.0376930982e-02,  6.2212049961e-02, -6.6834710538e-02,  9.6458129585e-02,  8.4669971839e-03,  4.9014512450e-02, -6.6266156733e-02, -1.7412798479e-02, 
	 1.2608221173e-01,  8.8324703276e-02, -1.0736757517e-01,  1.2156743556e-01, -8.5270605981e-02,  7.5323320925e-02,  5.9290226549e-02,  4.6850785613e-02, -8.1257140264e-03, -8.6513750255e-02, 
	-1.0048723221e-01, -3.4742128104e-02, -3.8492321037e-03, -2.9114363715e-02, -6.3607633114e-02, -6.1371453106e-02,  9.4747357070e-02,  1.0589146614e-01,  1.7837323248e-02,  3.0687669292e-02, 
	 1.3376488350e-02, -2.6647961140e-01, -5.0880280323e-03, -1.5416152775e-01, -1.2150809765e+00, -3.0618536472e-01, -8.0316327512e-02, -3.9984440804e-01, -6.3520446420e-02,  9.0869277716e-02, 
	 2.4455610663e-02,  2.6301871985e-03, -5.1917586476e-02,  9.6456974745e-02,  1.4503271086e-03,  2.2859948874e-01, -1.0550110601e-03,  1.6233880073e-02,  8.3653651178e-02,  2.9971206188e-01, 
	 2.3358608782e-01,  2.3071621358e-01,  8.1762135029e-01,  6.6723215580e-01,  7.3760434985e-02,  2.7413406968e-01,  2.7138197422e-01, -3.5891260952e-02, -2.3719280958e-01, -9.9626772106e-02, 
	 8.2414940000e-02,  2.1017366648e-01, -4.8040680587e-02, -5.4373864084e-02,  1.2491244078e-01, -1.0116174072e-01,  1.0486774892e-01, -9.8312078044e-03, -2.4851059541e-02,  2.7652068064e-02, 
	 5.1914513111e-02, -3.8148753345e-02, -9.6828090027e-03,  4.1139252484e-02,  3.3243293874e-03,  4.1952237487e-02,  1.6871789098e-01,  5.4771425202e-03,  7.6779434457e-03,  3.1187513843e-02, 
	 1.1414725333e-01,  9.2731013894e-02,  1.3788397610e-01,  1.2383823842e-01, -4.3585214764e-02,  1.3102450967e-01,  1.0619556997e-03, -2.1320562810e-02, -6.1708990484e-02, -5.7358555496e-02, 
	-4.4384043664e-02, -1.1284584552e-01, -1.5692377463e-02,  9.9063888192e-03, -1.2567415833e-01,  2.7702730149e-03, -7.3337405920e-02,  1.2198632956e-01,  2.6607630774e-02,  3.5879734904e-02, 
	 7.3713146150e-02,  2.8552969918e-02, -1.0211712867e-01, -7.0258408785e-02, -4.2655590922e-02,  4.2700480670e-02, -1.0982514173e-01, -3.9387401193e-02,  7.6951049268e-02, -2.5595497340e-02, 
	 1.9248735160e-02,  5.9725649655e-02,  3.9956115186e-02,  1.3067130931e-02,  6.9495022297e-02,  3.0943524092e-02,  8.4252648056e-02,  2.0710583776e-02, -1.0230040550e-01,  5.0587046891e-02, 
	-6.4558468759e-02,  2.8146043420e-02, -1.8722331524e-01,  1.3865692541e-02, -3.2630342990e-02,  1.6144596040e-02, -2.3800579831e-02,  2.8842192143e-02, -4.0245909244e-02,  5.0745505840e-02, 
	-9.1717347503e-02, -3.6803066730e-02, -2.6769551635e-01, -3.7329694629e-01, -3.6137711257e-02, -2.2464078665e-01, -7.6855212450e-02, -1.0681617260e-01, -4.2800337076e-02, -2.4089153856e-02, 
	 8.5060432320e-04,  2.3760490119e-02,  1.5485301614e-02,  6.7840390839e-03, -2.4605592713e-02,  6.3677527010e-02, -8.7597936392e-02, -6.5949417651e-02,  2.1360559389e-02, -1.1189981160e-04, 
	-5.7159129530e-02, -1.1803317815e-01,  1.1826034635e-02, -1.6330985352e-02, -7.9488502815e-03, -1.9987401366e-01, -2.1793628111e-02,  4.6760704368e-02, -4.4475901872e-02,  1.2412638217e-01, 
	-7.2029396892e-02,  8.7682358921e-02,  5.1946491003e-02,  5.9488184750e-02, -1.7252344638e-02, -2.8427338228e-02,  6.3507474959e-02,  3.4203995019e-02,  8.2027897239e-02,  1.4254267327e-02, 
	-8.3624767140e-03, -3.2552521676e-02,  3.6795355380e-02,  3.3656079322e-02,  5.3637605160e-02,  9.7284037620e-03,  6.4931504428e-02,  8.4576748312e-02, -6.8747907877e-02,  3.6710102111e-02, 
	 2.4593943730e-02,  2.8384396806e-02,  5.8246061206e-02, -2.6786470413e-01, -2.8560915589e-01, -8.2604750991e-02, -3.0062234402e-01, -2.5041368604e-01, -2.7719628811e-01, -9.3846082687e-02, 
	-2.6291987300e-01, -1.5628869832e-01, -1.6866147518e-01, -2.9620996118e-01, -1.2532120943e-01, -2.5777891278e-01, -4.7212833166e-01, -1.3663303852e-01, -2.0664344728e-01, -2.5642344356e-01, 
	-1.6722290218e-01,  3.5272877663e-02,  4.3959874660e-02,  7.4335068464e-02, -1.0726794600e-01,  7.7796839178e-02,  8.5264436901e-02,  8.9033685625e-02,  7.6662205160e-02, -5.7404477149e-02, 
	 2.7684122324e-02, -4.7684699297e-02, -7.6299555600e-02, -2.2792031989e-02,  2.3353824019e-01, -2.6459479332e-01,  6.2975145876e-02, -1.3106872141e-01, -1.9890788198e-01, -2.3013474047e-01, 
	-3.7268823385e-01, -2.7088961005e-01, -6.4497238398e-01, -4.5062664151e-01,  9.4443865120e-02, -1.9402869046e-01, -1.0930793732e-01,  6.0127858073e-02, -2.0083449781e-02,  1.6526234150e-01, 
	 1.2253174931e-01,  7.6110020280e-02,  1.9956214726e-01, -7.4166983366e-02, -1.4346508682e-01,  1.5502807498e-01,  7.8022807837e-02, -1.6027542949e-01, -2.3736850917e-01, -3.2280981541e-01, 
	-1.5453448892e-01, -1.7918005586e-01, -2.1238863468e-01, -8.9312009513e-02, -1.2113225460e-01, -2.2581362724e-01, -1.4991432428e-01, -3.6843410134e-01, -2.7739661932e-01, -1.3198296726e-01, 
	-1.3274163008e-01, -9.3417547643e-02, -4.9901146442e-02,  5.2247729152e-02,  5.9763244353e-03,  7.7849790454e-02, -6.4968295395e-02,  2.2571802139e-02,  2.8897259384e-02,  3.4307637811e-01, 
	-1.2299094349e-02,  7.9247998074e-03, -2.5959762931e-01,  7.0191428065e-02,  1.1338113993e-01, -1.8658408523e-01, -3.1575718522e-01,  4.1747957468e-02,  1.7155970633e-01, -2.9106178880e-01, 
	 9.3829473481e-03,  2.1563237906e-01, -1.2523913383e-01, -3.8521584123e-02, -3.0625829101e-01, -1.5458561480e-01,  1.0369019955e-01, -1.4294229448e-01, -2.9168426991e-01,  4.2055010796e-02, 
	-2.3908972740e-01, -2.3910248280e-01, -1.0077456385e-01,  1.6499631107e-01, -7.7894720016e-04,  2.6481130719e-01,  8.3927148953e-03, -4.0676280856e-01,  7.8757241368e-02, -1.5749099851e-01, 
	 1.6485556960e-01, -2.3180037737e-01, -2.6067924500e-01, -1.7118847370e-01,  2.6955723763e-02, -1.3037745655e-01, -5.7684987783e-02, -1.2920615077e-01, -1.5448254347e-01, -1.3678292930e-01, 
	-1.1440277845e-01, -2.9643597081e-02,  8.5153572261e-02,  9.6130207181e-02, -3.5660184920e-02, -8.4795989096e-03,  1.3362759352e-01,  4.4643286616e-02,  6.3429467380e-02,  1.4296968281e-01, 
	-1.5451968648e-02,  1.6002062708e-02, -3.3465068787e-02,  1.4994087629e-02,  7.6253183186e-02, -5.2702195942e-02,  5.7237587869e-02,  3.3669717610e-02,  1.8035836518e-02, -2.1458610892e-02, 
	 1.3822307810e-02,  4.7938954085e-03, -1.0278050601e-01,  2.3107077926e-02, -6.6045127809e-02,  2.8467018157e-02,  1.2655079365e-02,  1.3506849110e-01, -4.9683865160e-02, -1.3575848937e-01, 
	-7.9229727387e-02,  1.9414484501e-01, -6.6087961197e-02,  2.0648904610e-03,  7.3604909703e-03, -1.1443657428e-01, -3.4643512219e-02,  1.7935151234e-02,  1.7084522545e-01, -1.4360724017e-02, 
	-5.2602138370e-02, -2.9109478928e-03,  4.3233454227e-02,  2.0146692172e-02,  2.3956142366e-02,  2.2936884314e-02, -7.7211804688e-02,  6.4874641597e-02,  3.5999972373e-02,  1.0490434617e-01, 
	-9.1814652085e-02,  4.1079644114e-02,  1.1512601376e-01, -1.3833255507e-02, -2.1608836949e-02, -8.6564064026e-02,  5.8968015946e-03,  4.2352072895e-02, -1.0227516294e-02,  6.4775913954e-02, 
	-7.6996855438e-02,  9.1677792370e-02, -2.6399767026e-02, -1.2313253246e-02,  9.3303062022e-02, -1.1200904846e-01, -1.1434212327e-01, -1.8394485116e-02,  4.2331006378e-02,  1.2203975767e-01, 
	-1.0701428354e-01,  4.6499595046e-02, -6.7828834057e-02,  7.6876886189e-02, -2.4347480386e-02,  1.4119401574e-01, -2.2027673200e-02,  1.4056919515e-01, -9.7423464060e-02, -6.9218158722e-02, 
	 1.0622787476e-01,  7.6707251370e-02,  5.1733184606e-02, -3.1268622726e-02, -7.1193121374e-02,  1.5341798961e-01, -1.1437411420e-02, -2.9801672325e-02, -7.7903270721e-02,  7.5269877911e-02, 
	 1.8302478129e-03, -1.1025131494e-01,  2.8410298750e-02, -1.3308948278e-01,  1.7811279744e-02, -1.3095325232e-01, -1.1321657803e-04, -1.3140492141e-01, -1.4306665398e-02, -1.7568141222e-02, 
	-3.4793585539e-02, -1.8701434135e-02, -1.3729445636e-01, -5.9291288257e-02,  7.8335270286e-02,  6.4674966037e-02,  5.0178430974e-02,  9.3211848289e-03,  1.1211708188e-02, -6.8603120744e-02, 
	-8.8454864919e-02, -3.1776390970e-02, -3.6942240596e-01, -3.2139569521e-01, -2.8308866546e-02, -8.7803386152e-02, -5.5184174329e-02, -7.7690407634e-02, -1.3326773047e-01, -1.3723458350e-01, 
	 3.8348376751e-02, -2.9710490257e-02, -2.4303621054e-01,  4.5124255121e-03, -2.1003617346e-01, -8.5509583354e-02,  8.2108460367e-02,  1.2283620238e-01,  1.5469631180e-02,  1.5143266320e-01, 
	 1.4138485491e-01,  4.0506767109e-03,  1.6228286549e-02,  2.1227311343e-02, -1.7847081646e-02,  3.1362615526e-02, -4.2026478797e-02, -1.0425804183e-02, -3.0055369716e-03,  4.3395545334e-02, 
	-4.4662799686e-02,  5.1670294255e-02, -6.0428146273e-02, -1.5302909305e-03,  7.1638308465e-02,  1.6041821241e-01,  6.6261947155e-02,  3.5902637988e-02,  2.1453692019e-01,  1.1922030896e-01, 
	 2.3883250833e-04,  6.2616229057e-02,  6.5695419908e-02, -6.9175601006e-02, -2.1351783071e-03,  3.2869677991e-02, -7.5592555106e-02, -1.0238628834e-02, -3.4505113959e-02, -5.2735447884e-02, 
	-6.8926271051e-03,  7.4679180980e-02, -2.0705139637e-01, -2.2909767926e-01, -1.0746253282e-01, -8.0201931298e-02, -3.6446288228e-01, -3.3546656370e-01, -4.8678237945e-02, -1.8305818737e-01, 
	-1.8288698792e-01, -1.1882394552e-01, -2.0467912778e-02,  6.1558291316e-02, -2.2073890269e-01, -3.7659909576e-02, -1.0352450423e-02, -1.6205856204e-01, -2.5902053714e-01, -1.2445993721e-01, 
	-1.5337985754e-01, -9.7985610366e-02,  1.2450116128e-01,  9.4384379685e-02,  2.2109808028e-01,  5.5964305066e-03, -3.8017205894e-02,  3.8681572769e-03,  1.2194976956e-01,  3.7599403411e-02, 
	 8.8623544434e-04,  1.5339669771e-02,  2.6107904315e-01,  2.6489618421e-01,  6.4730681479e-02,  1.0172972828e-01,  8.9664034545e-02,  1.1133844964e-02,  2.3895703256e-02, -7.4270740151e-02, 
	-1.0658996180e-02, -1.1715786904e-01,  6.0490317643e-02, -2.3726608604e-02,  1.0073424317e-02, -2.5104884058e-02,  5.8001507074e-02,  1.6741217673e-01,  5.4168697447e-02,  5.2108857781e-02, 
	 8.6106225848e-02,  2.3126135767e-01,  5.0555486232e-02,  1.3851563632e-01,  1.9727000967e-02,  1.9380889833e-01, -2.5592881441e-01, -3.0694931746e-01, -7.9454503953e-02, -2.9738143086e-01, 
	-2.7382797003e-01, -2.1584646404e-01, -6.7941516638e-02, -2.3728014529e-01, -6.1230424792e-02,  1.7426781356e-02, -1.9236686826e-01, -1.7536151409e-01, -1.0360473394e-01, -2.1982195973e-01, 
	-2.9643678665e-01, -8.9504651725e-02, -1.4636556804e-01, -6.0325179249e-02, -6.8855658174e-02, -1.2531100214e-01, -4.9362458289e-02, -1.0197073221e-01,  4.5343898237e-02, -3.0367266387e-02, 
	-2.3690256476e-01, -3.2126735896e-02, -1.3819228113e-01,  7.2846308351e-02,  1.3647428155e-01, -4.3386667967e-02,  2.7202593163e-02,  2.3923736066e-02,  1.1096784472e-01,  4.0291962214e-03, 
	 1.2106579961e-03,  3.7209432572e-02,  8.4059618413e-02,  7.4940912426e-02, -1.4061892405e-02,  2.3202982545e-01,  1.5025574714e-02,  1.3133761287e-01,  6.6254943609e-02,  2.4225407839e-01, 
	 1.4352014661e-01, -1.9119168818e-01, -3.5702401400e-01, -1.7594128847e-01, -2.8157660365e-01, -3.4785929322e-01, -1.4251622558e-01, -2.1279983222e-01, -2.4119064212e-01, -1.6339375079e-01, 
};

const float layer_43_conv2d_bias[UNET_PAR_43_CONV2D_OUT_FILTER] = {
	 3.8322106004e-02,  1.1172533035e-02,  1.5499020927e-02,  4.9104085192e-03,  1.2159632519e-02,  5.7671736926e-02,  3.2057888806e-02, -4.4037576765e-02,  3.1549450010e-02, -5.9245299548e-02, 
};


#endif
