#ifndef PARAMS_CONV2D_1_H
#define PARAMS_CONV2D_1_H
#include "params.h"

const float layer_1_conv2d_weight[UNET_PAR_1_CONV2D_KERNEL_Y*UNET_PAR_1_CONV2D_KERNEL_X*UNET_PAR_1_CONV2D_IN_FILTER*UNET_PAR_1_CONV2D_OUT_FILTER] = {
	 1.3705913723e-01,  1.4183224738e-01, -2.1586214006e-01,  2.6451417804e-01,  5.0872616470e-02,  2.1309605241e-01,  2.7360177040e-01,  8.6716823280e-02,  2.3538619280e-01,  9.2939160764e-02, 
	-9.6734739840e-02,  9.9309943616e-02,  4.0182799101e-02, -4.0984518826e-02, -2.0876014605e-02, -5.5371668190e-02,  9.5216877759e-02, -7.0185260847e-03, -6.7646682262e-02, -1.2580741942e-01, 
	-1.0204873979e-01,  4.5637436211e-02,  4.2707338929e-02, -5.5721318349e-03, -2.0371852815e-01, -8.2101441920e-02, -1.4217221737e-01, -2.4854548275e-02, -8.8829703629e-02,  2.9033913743e-03, 
	-4.4868852943e-02,  1.0469406098e-01, -8.0949664116e-02,  2.9102446511e-02, -5.9093921445e-03, -7.1554896422e-03, -4.8517517745e-02,  1.0644616932e-01, -8.5141204298e-02,  7.1833960712e-02, 
	-9.6029944718e-02,  2.1945959330e-01,  1.0176280886e-01, -2.5117361918e-02,  1.3856664300e-01, -3.4876406193e-02, -1.0082924366e-01,  6.3047043979e-02, -3.0588656664e-03, -4.5374121517e-02, 
	-1.6962525249e-01, -5.4607868195e-02, -1.7067568377e-02,  1.4822536707e-01,  7.4506141245e-02, -1.3629944623e-01, -1.0136512667e-01, -1.8523153663e-01, -6.7009620368e-02,  1.6903631389e-01, 
	 9.4496577978e-02,  2.1169586107e-03,  4.7439284623e-02,  2.2104707360e-01,  1.5665423870e-01, -1.9967302680e-01,  2.3424798250e-01,  2.0842215419e-01,  1.3850656152e-01, -8.8634625077e-02, 
	 6.6870220006e-02, -3.4520545602e-01,  5.1941763610e-02,  1.0519818403e-02,  6.2210090458e-02,  9.9992066622e-02, -5.0411120057e-02, -3.6806914955e-02, -2.2215561941e-02,  1.5779289603e-01, 
	-3.9850730449e-02, -6.4659930766e-02, -4.4927993417e-01, -5.1811182499e-01, -3.6385473609e-01, -2.7830758691e-01, -3.0784013867e-01, -3.8192409277e-01, -4.5965629816e-01,  3.6305189133e-01, 
	 2.9421480373e-02,  2.2145742178e-01, -1.0947623104e-01, -1.4117151499e-01, -5.0333891064e-02,  4.3853089213e-02,  5.4642509669e-02,  1.0214752704e-01, -7.0670813322e-02,  7.4931770563e-02, 
	-5.6086048484e-02, -9.1011300683e-02, -2.4221351743e-01,  2.4609591067e-01, -3.4804929048e-02, -4.4852528721e-02, -1.9318096340e-01, -8.1653684378e-02,  8.6196191609e-02,  1.5696848929e-01, 
	 9.1244235635e-02,  3.3751767874e-01, -6.6045410931e-02, -9.8997563124e-02, -8.8780328631e-02,  1.2603783049e-02, -8.7682463229e-02,  3.3620271832e-02,  8.0964155495e-02,  1.2219221890e-01, 
	 1.1083145440e-01,  6.4066872001e-02,  3.6591406912e-02, -2.5554287434e-01, -1.6429418325e-01, -3.6277186871e-01, -2.4914188683e-01,  1.1270999163e-01,  3.7789759040e-01, -2.8066164255e-01, 
	-1.2002196163e-01, -1.4505133033e-01, -4.5260044932e-01,  7.8463859856e-02, -4.0973290801e-01, -7.7221691608e-03, -1.1852181517e-02, -1.2985935435e-02,  4.0854033083e-02,  1.2018493377e-02, 
	 9.5605757087e-03, -5.3574563935e-03, -8.7300976738e-03,  9.0014319867e-03, -3.9928197861e-01,  1.0698884726e-01,  1.6525866091e-01, -4.7387361526e-01, -3.1465802342e-02,  6.8905211985e-02, 
	-4.9138385057e-01,  1.8720318377e-01, -1.3891257346e-01,  4.9959584139e-03,  5.2323650569e-02,  2.6879275218e-02,  3.6932766438e-02,  1.3455082476e-01, -2.0175616443e-01, -1.1665571481e-01, 
	 5.8224286884e-02, -5.7539191097e-02, -2.2953525186e-01,  1.0545659065e-01,  7.8282155097e-02, -3.8940408826e-01, -1.6142545640e-01, -2.2454306483e-02, -4.8151451349e-01,  8.2333020866e-02, 
	-2.4131572247e-01, -3.4127819538e-01,  6.5266452730e-02,  1.3900545239e-01,  1.5951645374e-01,  6.3034296036e-02, -2.0940488577e-01, -3.1756204367e-01, -1.2859420478e-01,  9.2511236668e-02, 
	-3.8546763361e-02,  1.8339440227e-01,  7.1011058986e-02,  6.3732378185e-02, -5.6448180228e-02, -2.9167556763e-01,  2.8326648753e-03,  3.7961420417e-01, -1.2870241888e-02, -1.4412742853e-01, 
	-2.4450620636e-02, -2.2547956556e-02,  5.6537244469e-02,  8.1801742315e-02, -4.3511569500e-02, -6.2778696418e-02,  9.2364370823e-02,  2.4679377675e-01, -1.2287845835e-02, -2.9423099011e-02, 
	 4.0520526469e-02, -3.1738538295e-02,  1.2859811075e-02, -6.0259763151e-02,  2.4678600952e-02, -2.5829773396e-02, -4.2864266783e-02,  5.4316718131e-02, -1.1570230126e-01,  1.3769727945e-01, 
	-3.4216061234e-02,  9.5024712384e-02,  2.2639556229e-01, -1.6657960415e-01, -8.1703178585e-02,  1.8504786491e-01,  6.3993312418e-02, -1.4450986683e-01,  1.0467193276e-01,  2.1019057930e-01, 
	-1.5045199543e-02, -1.5361230075e-01, -4.3795831501e-02, -2.0104360580e-01, -1.2866112590e-01,  9.5686009154e-03,  1.4282421768e-01, -3.3149725199e-01,  2.3843103647e-01,  2.6818597689e-02, 
	-2.4943363667e-01,  1.9905699790e-01, -1.2806284428e-01, -1.3443866372e-01,  5.2051965147e-02,  8.2982055843e-02, -8.9762546122e-02,  1.7118017375e-01, -1.6227765381e-01, -1.5951585770e-01, 
	-3.5961408168e-02,  6.7299112678e-02,  1.2734291144e-02, -2.8099231422e-02,  1.0815749317e-01,  9.3137256801e-02,  3.4849286079e-02,  1.4550669491e-01, -1.3676583767e-02,  1.3227692246e-01, 
	-1.2344819494e-02, -1.6605475545e-01, -1.4925533533e-01,  1.4734030701e-02, -4.3266002089e-02,  3.8667521439e-03,  3.7261538208e-02,  5.5450540036e-02, -1.0560963303e-01,  7.8467100859e-02, 
	-1.6496664286e-01, -6.0274578631e-02, -1.4564543031e-02, -1.3346952200e-01,  3.1015032902e-02,  1.6308863461e-01, -2.2681988776e-01, -1.9844233990e-01, -4.6900860965e-02, -5.8573357761e-02, 
	-1.1011065543e-01, -7.7784217894e-02, -2.7352151275e-01,  1.3609455526e-01, -2.1205891669e-01, -9.1075696051e-02,  4.2766276747e-02,  5.4273918271e-02,  3.1401138753e-02, -1.2093828991e-03, 
	 2.2833813727e-01,  9.3125589192e-02, -2.8406909108e-01,  7.9690599814e-03, -6.8503335118e-02,  3.1805817038e-02,  9.8673425615e-02,  1.0601578653e-01, -1.4113739133e-01, -2.3045484722e-01, 
	-3.8478910923e-02, -1.6220673919e-01, -1.6205751896e-01, -9.8053008318e-02,  6.6955736838e-03,  5.2228830755e-03,  9.3777760863e-02, -1.5993835405e-02, -1.4331738651e-01,  7.3680698872e-02, 
	-7.0717968047e-02,  1.7629002035e-01, -6.7604504526e-02, -9.8518535495e-02,  2.2084486485e-01,  1.4198045433e-01,  6.9260522723e-02,  2.1979060024e-02, -1.3463149965e-01, -1.1539401114e-01, 
	 3.3862418495e-03, -1.4843563735e-01,  8.7969474494e-02, -1.5456308424e-01, -6.5577261150e-02,  8.1445895135e-02, -1.2397403270e-01, -2.5128930807e-01, -1.7411532998e-01, -1.3565412955e-03, 
	-2.6077488065e-01,  1.6128116846e-01, -1.3502711058e-01,  1.3105464168e-02, -4.4040203094e-02,  1.7733199522e-02, -1.3179650996e-03,  1.6629055142e-02,  4.8663392663e-02, -8.7264338508e-03, 
	-2.5943649933e-02,  3.2295589335e-03, -3.5808723420e-02, -2.0232092589e-02, -3.2849475741e-02, -1.0290553421e-01,  2.5543797016e-01, -2.7010085061e-02,  7.8416978940e-03,  2.5476676226e-01, 
	 6.7924946547e-02,  1.2926970609e-02,  3.4585781395e-03,  1.1490628123e-01, -9.6755782142e-03, -1.2355880439e-01, -4.8241564073e-03, -8.5145264864e-02,  4.6336125582e-02,  8.7565377355e-02, 
	-1.4657462016e-02, -1.5228939056e-01,  6.2793172896e-02,  6.7723408341e-02, -7.6026050374e-03,  5.8378495276e-02, -2.1227161586e-01,  5.6838266551e-02,  5.4242569953e-02,  9.4725713134e-02, 
	-1.9600186497e-02,  1.5061047859e-02, -1.5209493041e-01,  5.1429938525e-02, -6.0143511742e-02,  1.5865290165e-01, -1.0211383551e-01, -3.9221804589e-02, -3.9268508554e-02, -2.3740445077e-01, 
	-2.6065479033e-03,  1.8891252577e-01, -1.0078489035e-01,  5.4364416748e-02, -9.2504724860e-02,  3.0345337465e-02,  1.4734189026e-02,  1.0071483254e-01, -4.3295225501e-01, -4.5434126258e-01, 
	-1.1848854274e-01, -2.2757209837e-01, -2.1390523016e-01, -2.5614055991e-01, -4.2727050185e-01, -1.5692187846e-01, -3.7961605191e-01, -2.4468244985e-02,  7.4179604650e-02,  7.4315271340e-03, 
	-2.0554788411e-02,  2.9586909339e-02, -1.0983587801e-01, -3.8274336606e-02,  6.9155216217e-02,  1.1847919784e-02,  6.9470174611e-02,  1.9114385359e-03,  1.5229097009e-01, -5.6903590448e-03, 
	-1.1797152460e-01, -7.3672747239e-03, -1.6232469678e-01,  1.7138004303e-02,  1.1025494337e-01,  1.7111781240e-01, -2.2038215399e-01, -8.8091470301e-02,  4.0554800071e-03,  1.0367529839e-01, 
	 1.3796846569e-01, -1.2790232897e-01, -8.2771070302e-02,  1.1226623505e-01,  1.6387245851e-03, -7.3670901358e-02, -1.0657416284e-01, -3.4506864846e-02,  1.9790063798e-01,  5.8469474316e-02, 
	 8.7227255106e-02, -1.2648339570e-01, -3.4001454711e-02, -4.9764555879e-03,  1.6840459406e-01, -7.4370644987e-02,  3.9024733007e-02, -1.1607881635e-01, -1.3471128047e-01, -6.4426459372e-02, 
	 1.2933661044e-01,  6.5186671913e-02,  2.0938590169e-01,  8.4227293730e-02, -2.0847962797e-01, -9.9276408553e-02,  1.3254661858e-01, -2.7309291065e-02,  3.6799356341e-02,  1.1278808117e-01, 
	-1.5517079830e-01, -6.5546572208e-02, -8.6416542530e-02,  1.1824781448e-01,  2.9756115749e-02,  1.1017011851e-01, -6.2471959740e-02, -5.1726937294e-01, -6.0768163204e-01, -4.8952817917e-01, 
	 4.8722267151e-02, -6.4392569475e-03,  2.0849360153e-02, -5.8112908155e-02, -5.6665716693e-04, -9.8261892796e-02, -3.0800441280e-02, -8.7241075933e-02, -2.4463184178e-02, -2.0226296037e-02, 
	-3.9408329129e-01,  2.3610860109e-01, -3.1085324287e-01,  4.1517231613e-02, -6.6194310784e-02,  2.5048763491e-03, -1.0389342159e-01,  1.5997573733e-01,  2.4176056683e-01, -1.4577510301e-03, 
	-1.9533902407e-02, -1.6206907108e-02,  1.0804446414e-02, -2.5815388188e-02, -2.3512784392e-02,  1.4014251530e-02,  3.0749866739e-02,  1.0548324138e-01, -3.1096318364e-01,  2.7447578311e-01, 
	-1.2175714970e-01,  3.2150691748e-01, -1.8545549363e-02, -3.0811986327e-01, -5.8244162798e-01, -1.9216038287e-01,  2.4106437340e-02,  5.3917154670e-02,  1.2117162347e-01,  1.1285717040e-01, 
	 2.4537681043e-01, -1.9751007855e-01, -6.8779647350e-02,  6.3099525869e-02,  3.5911917686e-02,  1.6658149660e-01, -3.0102375150e-01, -4.8452224582e-02, -2.1988900378e-02,  4.3412253261e-02, 
	-5.8365516365e-02,  3.9655402303e-02, -4.6747531742e-02, -5.4956626147e-02, -3.7214048207e-02,  1.0609647632e-01,  1.2763519585e-01, -1.3108034432e-01, -1.2651729584e-01,  2.2499270737e-01, 
	-1.1006316543e-01, -3.1628251076e-02, -1.6175030172e-01, -1.1595396698e-01, -6.6381581128e-03,  7.8940920532e-02, -2.4307224900e-02,  9.6946515143e-02,  7.9844996333e-02,  6.8213619292e-02, 
	-8.2088887691e-02, -2.2646637633e-02, -1.6179642081e-01,  1.8299530447e-01, -1.0409962386e-02,  1.4466843568e-02, -1.1366327107e-01,  1.1322392151e-02, -7.2797499597e-02,  1.2696099281e-01, 
	 3.4872263670e-02,  1.5609921515e-01, -1.3023141026e-01, -1.8571117520e-01, -7.1366697550e-02, -4.1976444423e-02,  1.9372542202e-01,  4.1870083660e-03, -5.6430965662e-02,  4.0243905038e-02, 
	 1.5658684075e-01,  5.9000521898e-02,  6.1698310077e-02, -2.5950567797e-02,  1.2354047596e-01,  2.1730405092e-01,  2.4417054653e-01,  1.8459366262e-01, -4.3377410620e-02, -2.7996048331e-02, 
	 4.4113541953e-03,  2.4132509530e-01,  1.2091380358e-01, -8.6464136839e-02, -5.7351486757e-03,  1.3657942414e-01,  1.5107834339e-01,  1.6876675189e-01, -4.9601185322e-01, -3.3849021792e-01, 
	-8.0841138959e-02, -1.4026501775e-01, -9.4018355012e-02,  3.2882437110e-01,  2.0179188251e-01,  3.2240277529e-01,  3.3838134259e-02, -9.7839996219e-02, -4.9851514399e-02, -2.5628504157e-01, 
	 7.2045706213e-02, -1.6526916996e-02, -1.0235356539e-01,  1.0997607559e-01, -8.4997706115e-02,  2.4236269295e-02, -9.9220052361e-03,  1.7135657836e-03,  3.1013231725e-02,  7.3726568371e-03, 
	-5.2291642874e-02,  9.3741677701e-03,  1.8221255392e-02, -6.7750853486e-04, -1.5197336674e-02, -1.4510463178e-01, -1.5842171013e-01,  1.6290412843e-01, -1.8416465819e-01,  8.1622898579e-02, 
	-1.2941789627e-01, -2.7196297050e-01, -2.6985218748e-02, -1.2540362775e-01,  3.3788699657e-02, -2.7440274134e-02, -2.6570854709e-02,  1.2591856718e-01,  1.4027062058e-01,  6.1555784196e-03, 
	-2.8108724952e-01,  1.5476280451e-01,  6.9426611066e-02,  1.2547954917e-01,  9.1647945344e-02, -1.0608605295e-01, -1.1916715652e-01, -9.5788002014e-02,  2.6326794177e-02, -4.0359292179e-02, 
	 6.8376898766e-02, -1.6109105945e-01,  2.2590123117e-02,  5.0260804594e-02, -5.6764483452e-02,  9.1080583632e-02, -2.1455496550e-01,  2.7390517294e-02,  8.7328590453e-02,  6.3506387174e-02, 
	-2.9276618734e-02,  1.3225765526e-01,  1.5643811226e-01, -1.6897782683e-01, -2.3982983828e-01, -6.0678631067e-02, -1.8871754408e-01, -1.8911573291e-01,  1.1113445461e-01, -6.4521983266e-02, 
};

const float layer_1_conv2d_bias[UNET_PAR_1_CONV2D_OUT_FILTER] = {
	-2.7565333247e-01,  3.5260847211e-01,  3.0601504445e-01, -9.1467387974e-02, -2.2518691421e-01,  2.0729579031e-01,  3.4407421947e-02,  3.1399890780e-01,  3.2804396749e-01, -2.7067318559e-01, 
};


#endif
