#ifndef PARAMS_CONV2D_3_H
#define PARAMS_CONV2D_3_H
#include "params.h"

const float layer_3_conv2d_weight[UNET_PAR_3_CONV2D_KERNEL_Y*UNET_PAR_3_CONV2D_KERNEL_X*UNET_PAR_3_CONV2D_IN_FILTER*UNET_PAR_3_CONV2D_OUT_FILTER] = {
	-2.3034882545e-01, -2.9242083430e-01, -4.7812271118e-01, -3.7577846646e-01, -3.7112900615e-01, -1.2466984242e-01, -2.0176334307e-02, -1.3306331635e-01, -2.0980858803e-01,  3.1712773442e-01, 
	 2.3726044223e-02,  3.8134437054e-02,  2.4790948629e-01, -1.1609515548e-01, -6.8170726299e-02, -1.7550250888e-01, -1.2080221623e-01, -1.1914394051e-01, -1.5377931297e-01, -4.0950742364e-01, 
	 1.3200624287e-01, -1.0826171190e-01, -3.0278645456e-02,  3.8263145834e-02,  1.0377005488e-01, -2.8115922585e-02, -2.6045548916e-01,  7.0898130536e-02,  9.4915769994e-02, -1.5650309622e-01, 
	-2.1023299545e-02, -1.6305741668e-01, -2.4922765791e-02, -1.2925057113e-01,  3.4446009994e-01,  2.5741957128e-02, -2.8453996405e-02,  8.8160544634e-02,  1.3284988701e-01,  3.8161358237e-01, 
	 1.3880626857e-01,  7.4025966227e-02,  4.2137756944e-02, -3.0579361320e-01, -1.2283091992e-01,  9.9229916930e-02, -1.6312187910e-01,  6.7997910082e-02, -3.8373383880e-01, -1.6231532395e-01, 
	 4.8461356759e-01, -1.8486283720e-01,  1.4620251954e-01,  1.2647660077e-01,  1.5332177281e-01,  1.0460472852e-01,  7.6433424838e-03,  1.2207826972e-01, -2.3849369586e-01, -2.3287320510e-03, 
	-9.8768472672e-02, -9.6235804260e-02, -2.2652104497e-01,  6.1987078190e-01,  4.1918826103e-01,  1.6684679687e-01,  6.1534279585e-01,  2.5513952971e-01, -2.8707668185e-01,  3.8911277056e-01, 
	-5.6876991875e-03, -5.0724156201e-02,  1.9544507563e-01,  5.1627665758e-02,  2.6512732729e-03,  2.1455933154e-01, -6.6510863602e-02, -3.4934023023e-01,  1.7330867052e-01, -1.1171074212e-01, 
	 1.9186900556e-01,  9.8964795470e-02, -9.0469300747e-02,  3.5481017083e-02, -3.5884290934e-02, -2.5368973613e-01, -7.6405964792e-02,  1.2078873813e-01,  1.5374681912e-02, -2.4709963799e-01, 
	 1.8591237068e-01,  1.0888665169e-01, -7.1193091571e-02, -1.3635903597e-01, -1.4631707966e-01,  3.3122252673e-02, -1.0274102539e-01, -1.2599450350e-01,  7.6317280531e-02,  5.6655883789e-02, 
	 5.3825265169e-01,  2.2037971020e-01,  4.8258483410e-02,  1.0310908407e-01, -7.3539458215e-02,  1.3927158713e-01,  4.9888785928e-02,  4.9554381520e-02, -2.2140820324e-01, -1.2099353224e-01, 
	-7.2123564780e-02,  2.4720637128e-02,  4.0212795138e-03,  1.4422589913e-02, -8.7895400822e-02, -1.7077585682e-02, -8.2940764725e-02,  6.5396621823e-02, -3.0278155580e-02, -8.2500196993e-02, 
	 2.0075574517e-01, -4.7927498817e-02,  1.2780894339e-01,  5.6522402912e-02,  2.7269590646e-02,  3.2123064995e-01,  2.3971958086e-02,  2.6994875073e-01,  1.7318736017e-01,  5.6921672076e-02, 
	 2.4056538939e-01,  2.1558545530e-01,  2.5416532159e-01, -1.1752240360e-02, -9.7771562636e-02,  2.5200799108e-01,  4.7491412610e-02, -3.6355234683e-02, -2.0043505356e-02, -8.0770716071e-02, 
	-2.1436996758e-01,  1.9332033396e-01,  1.6935236752e-01, -1.3000877202e-01, -1.4712427557e-01, -1.0210610926e-01,  9.7009731689e-04, -6.6668659449e-02, -1.9463512301e-01, -2.1721314639e-02, 
	-6.0462232679e-02, -2.1916656196e-01,  1.9008371234e-01,  2.4567356333e-02,  1.5404132009e-01,  3.4032705426e-01,  1.8442030251e-01,  4.9108645320e-01,  7.4900215864e-01, -1.0428173468e-02, 
	-3.8479320705e-02, -2.7296653017e-02, -1.1252447218e-01,  1.9975873828e-01,  5.7030703872e-02, -2.9616147280e-02,  4.1760697961e-02,  9.7508795559e-02, -5.8607451618e-02,  2.1490202844e-01, 
	-4.1006941348e-02,  1.2161632627e-01,  6.7034929991e-02, -1.7192313075e-01, -5.6574128568e-02, -1.5218150616e-01, -5.3363688290e-02, -7.4643023312e-02, -1.6155323386e-01,  1.8359705806e-02, 
	 2.1792264655e-02,  1.2333552353e-02,  1.5349493921e-01, -2.5813367963e-01, -1.4014171064e-01, -1.4960436523e-01, -8.5083566606e-02, -1.4649866521e-01, -9.2572815716e-02,  3.2512854785e-02, 
	 2.2148853540e-01,  7.7747359872e-02,  2.0272658765e-01,  3.2205370069e-01, -5.9917539358e-02,  9.3746684492e-02, -1.0511351749e-02, -4.2007461190e-02,  1.4638157189e-01,  2.8694564477e-02, 
	 4.9613483250e-02,  7.4268572032e-02, -2.3911166936e-02, -1.1007648706e-01, -2.3245316744e-01, -1.9100982696e-02, -1.0897222906e-01, -6.0169763863e-02, -1.4159253240e-01,  1.2979824841e-01, 
	-2.1110426635e-02, -1.7617169023e-01, -8.0456018448e-02,  4.3186672032e-02, -3.5366192460e-01,  4.5754954219e-02,  3.1764462590e-02, -2.9373636842e-01, -2.3216608167e-01,  1.9813756645e-01, 
	 1.7307420075e-01, -3.1597647071e-01, -2.2746910155e-01, -1.4079959691e-01, -2.2547453642e-01,  1.1031305045e-01,  1.0143089294e-01, -7.9625613987e-02,  7.4778474867e-02, -1.7359657586e-01, 
	-1.2931600213e-01, -1.0213196278e-01, -5.6184604764e-02,  5.1610127091e-02, -3.2850176096e-02,  3.1826708466e-02,  1.7272243276e-02, -1.2184140831e-01,  6.7729450762e-02,  7.3055848479e-02, 
	 8.7366491556e-02, -9.9112661555e-03, -7.9332999885e-02, -5.6803546846e-02,  1.8085192144e-01, -2.7723031119e-02,  1.8585821614e-02,  1.6147264838e-01, -2.1589232981e-01, -9.3869537115e-02, 
	 1.5699442476e-02, -1.9190488756e-01, -6.0086131096e-02, -1.7501262948e-02,  2.7693631127e-02,  1.7948196828e-01,  7.5933821499e-02, -3.6687653512e-02,  1.4059814811e-01,  1.9041704945e-03, 
	-6.0510020703e-02,  8.9593812823e-02, -1.1989155412e-01, -1.0209195316e-01,  1.1252911761e-02,  2.3018768430e-01,  1.5698423982e-01, -1.5929260850e-01,  5.8334012283e-04, -5.6718666106e-02, 
	 1.7529968917e-01, -3.9920303226e-01, -2.3652327061e-01,  1.3947048783e-01, -4.4518560171e-03,  1.3813571632e-01,  2.4145326018e-01, -3.3292483538e-02,  2.1541483700e-01,  1.3186214864e-01, 
	 2.4265286326e-01,  2.1921160817e-01, -1.8584245816e-02,  2.3504871130e-01,  1.0224046558e-01, -3.5710342228e-02,  1.1402492411e-02, -8.7223954499e-02, -2.7103656530e-01, -2.7561601996e-01, 
	-1.7554453015e-01, -2.7330687642e-01, -3.0060291290e-01, -1.4669618011e-01,  2.8104591370e-01,  8.5905514657e-02,  1.1410715431e-01,  2.9970800504e-02, -3.5066628456e-01, -2.2442498803e-01, 
	 2.3586177826e-01, -2.3225045204e-01, -9.9661080167e-03,  3.2645061612e-02, -3.1539679039e-03,  1.0843703151e-01,  1.3346403837e-01,  7.2393253446e-02,  1.8619738519e-01, -1.9083899260e-01, 
	 1.3963796198e-01,  8.6597926915e-02,  3.1726580858e-01,  1.4663515985e-01,  2.1361470222e-01,  1.9503287971e-01,  6.7414499819e-02, -1.8978710473e-01, -3.1346616149e-01,  3.5451393574e-02, 
	 9.3158543110e-02, -1.8545018137e-01, -8.7110642344e-03,  3.2422694564e-01,  1.0597382486e-01, -7.4100889266e-02, -1.3676880300e-01,  9.8367771134e-03, -1.6410452127e-01,  6.4952084795e-03, 
	 1.8456517160e-01,  7.3660194874e-02,  1.6401549801e-03,  1.7637202144e-01,  1.4909382164e-01, -4.4919960201e-02,  1.9610641897e-01,  5.7676017284e-01,  1.2873582542e-01,  2.6728564501e-01, 
	-4.4597610831e-02, -1.6737160087e-01,  1.2345156819e-01,  2.8162932396e-01,  5.2051182836e-02,  2.0536354184e-01,  8.1186443567e-02, -4.2172912508e-02,  1.0408793390e-01,  2.2342981398e-01, 
	 2.5127338246e-02,  1.0959690064e-01,  1.2111663073e-01,  9.0492770076e-02, -2.0964534581e-01, -3.1264671683e-01,  2.8062321246e-02, -3.0900678039e-01,  1.8132902682e-02, -7.0171110332e-02, 
	-2.1967217326e-01,  8.0387361348e-02, -2.1954445168e-02,  9.6604496241e-02, -8.3380497992e-02, -6.2783680856e-02, -1.0264831036e-01, -8.3093285561e-02,  1.1752909422e-01, -1.4326490462e-01, 
	 3.4021455795e-02, -3.7795275450e-01, -2.2793410718e-01, -1.1550539732e-01, -2.5967878103e-01, -7.0305190980e-02,  5.0232112408e-02, -9.1451825574e-03,  5.9241414070e-02,  6.4184449613e-02, 
	-8.0853737891e-02,  1.5726868808e-01,  1.2043109536e-01,  1.3264852762e-01,  5.0422839820e-02,  7.1638710797e-02, -2.2024254501e-01,  2.6199108362e-01,  1.0536653921e-02,  1.0478539765e-01, 
	-8.1451363862e-02,  7.8077793121e-02,  1.0495307297e-01, -1.2717984617e-01, -3.5659905523e-02, -1.4721442759e-01, -1.7587871850e-01, -3.0121505260e-01, -6.0664534569e-02,  2.2050265968e-01, 
	 1.7433764040e-01, -3.9732792974e-01, -4.2941206694e-01, -3.4309914708e-01, -5.5732864141e-01, -1.7617389560e-01, -2.6242267340e-02,  6.7455612123e-02, -3.9711680263e-02,  4.8178046942e-02, 
	 1.7317932844e-01,  3.3865978476e-03,  9.8655082285e-02, -1.0326965898e-01,  6.9106340408e-02, -3.3073306084e-02,  1.2927479111e-02,  1.3693508692e-02,  1.0077190399e-01, -1.1785596609e-01, 
	-1.9219492376e-01,  9.6831470728e-02, -3.8808595389e-02, -4.3115147948e-01, -2.1676172316e-01, -7.0469832420e-01, -2.1226348355e-02, -1.2742471695e-01, -3.5829192400e-01, -6.0120451450e-01, 
	 3.3690782730e-03, -5.2706199884e-01,  2.4288021028e-01,  3.1097161770e-01, -4.0618207306e-02, -1.8817558885e-01,  2.7612638474e-01, -1.4852313697e-01, -1.8329061568e-01,  2.1651677787e-02, 
	-3.4676782787e-02, -7.7255010605e-02, -1.8997039646e-02, -4.8854127526e-03, -8.2278013229e-02,  7.5199857354e-02, -5.0843744539e-03, -4.7857202590e-03,  3.6635205150e-02, -2.3272819817e-02, 
	 1.1820254475e-01,  8.7512342725e-04, -1.1611530557e-02,  2.4382664263e-01,  1.8738923967e-01, -1.0890287161e-01,  1.3975757360e-01,  2.5642892718e-01,  1.0617661290e-02,  1.9601275027e-01, 
	-5.8640621603e-02, -2.2265281528e-02, -1.8040074408e-01,  1.8615570664e-01,  1.3867898285e-01,  6.1668038368e-02, -1.4691410959e-01, -9.7803719342e-02,  1.9548259676e-01,  3.9535135031e-02, 
	 8.6614126340e-03,  2.1978552639e-01, -1.3288445771e-01, -4.0319260210e-02,  2.2188633680e-01,  2.1299494803e-01, -1.8754634075e-03, -8.7209977210e-02, -8.7243400514e-02, -1.9058433175e-01, 
	 2.8639373183e-01, -1.7546987534e-01,  6.7937925458e-02, -5.7660434395e-02, -6.7404225469e-02, -1.4692953229e-01, -6.3982941210e-02,  4.0105409920e-02, -3.0846899748e-01, -2.0945768058e-01, 
	-3.2251635194e-01, -8.5454061627e-02, -3.5353353620e-01, -2.9209971428e-01, -2.4377246201e-01, -1.0886715353e-01, -1.1785275489e-01,  2.0913247019e-02,  8.5209570825e-02, -8.4338955581e-02, 
	 3.5058710724e-02,  1.7100985348e-01,  6.8161651492e-02, -1.2720647454e-01,  1.2519235909e-01,  5.5043701082e-02,  4.3639473617e-02, -5.6721109897e-02,  9.0013399720e-02,  3.0720327049e-02, 
	 6.7957170308e-02, -2.1815215051e-01,  6.5422318876e-02, -2.9309365153e-01, -2.8636536002e-01, -3.9072397351e-01, -5.0387252122e-02, -3.0227037147e-02,  8.0474637449e-02, -1.5042722225e-01, 
	-3.1411331892e-01, -6.6644109786e-02, -2.7393978834e-01, -2.6771935821e-01, -1.0721125454e-01,  7.4670299888e-02, -1.7169171572e-01, -1.9516085088e-01,  3.6355655640e-02, -4.5402269810e-02, 
	 3.1660568714e-01,  1.0153493285e-01,  9.0507388115e-02,  1.4582839608e-01,  4.6205157042e-01, -1.4651703835e-01,  1.7130133510e-01,  1.7247304320e-01,  6.0082457960e-02, -1.2035960704e-01, 
	 7.8712984920e-02, -1.8406686187e-01, -2.9610274360e-02, -1.0007777251e-02, -1.7500251532e-01, -2.2356197238e-02,  1.2479192019e-01,  9.9982745945e-02, -1.4124054462e-02,  1.2386662513e-01, 
	 2.2243808955e-02, -4.8062622547e-02, -1.6903896630e-01, -1.0703216493e-01, -8.3624437451e-02, -1.2671856210e-02,  8.6554914713e-02, -2.0749343932e-01,  1.6225953400e-01,  7.3852133937e-03, 
	 1.1240866780e-01,  1.1373322923e-03, -1.8023073673e-01,  6.5500721335e-02,  1.6959166154e-02, -2.6777910069e-02, -1.4476679265e-01,  1.5366090834e-01, -1.3856600225e-01,  1.6638523340e-01, 
	-2.1365852654e-01, -4.9101583660e-02, -7.8842319548e-02, -1.7062243074e-02, -8.9933425188e-02, -5.9316102415e-03,  2.3764211684e-02,  1.1647148058e-02, -9.2300489545e-02,  1.1283314787e-02, 
	-2.8011277318e-01, -2.9604770243e-02, -1.0321489722e-01,  1.2414902449e-01, -9.1027647257e-02,  5.2301205695e-02, -1.0649779439e-01, -2.3441128433e-01,  1.4730431139e-01,  2.0606195927e-01, 
	-6.2774524093e-02, -1.3688397408e-01,  2.8122484684e-01, -8.6280219257e-02,  4.1677687317e-02, -1.2080336921e-02,  9.1245565563e-03,  8.8259220123e-02,  1.3755619526e-01,  9.7019709647e-02, 
	-1.8392592669e-01, -1.8312230706e-02, -1.7701959237e-02, -1.0069095343e-01, -3.9670769125e-02, -1.7840121686e-01, -2.5796189904e-01, -3.1887525320e-01, -5.9091436863e-01, -1.4024229348e-01, 
	-2.7497237921e-01, -2.5712853670e-01,  2.4146037176e-02, -7.8348428011e-02,  7.9959355295e-02, -1.3835373521e-01, -1.1124248803e-01,  1.8093273044e-01,  9.4316236675e-02, -3.9865022898e-01, 
	-2.8773093224e-01, -1.1445356905e-01,  5.7470921427e-02,  1.4148809016e-01, -7.6196670532e-02, -1.5585506335e-02,  1.2641895562e-02,  1.5831743181e-01,  5.0626181066e-02, -1.1618032306e-01, 
	-7.0802934468e-02,  8.8291838765e-02, -7.0463389158e-02,  5.1643043756e-02,  6.1742201447e-02, -1.5512204170e-01, -6.3340626657e-02,  2.4286173284e-02, -4.5767515898e-02,  1.2212643027e-01, 
	-1.1337755620e-01,  8.4628544748e-02,  1.6409948468e-01, -4.1469428688e-02,  8.0361537635e-02,  2.6021382213e-01,  6.4527176321e-02, -2.9573312495e-03, -2.0700763166e-01,  5.8670390397e-02, 
	-1.8099302426e-02,  9.8602838814e-02, -1.9556827843e-02,  5.0253260881e-02, -4.3070510030e-02, -6.5756253898e-02,  5.9453301132e-02,  2.0761150867e-02,  1.4787501097e-01,  8.2297325134e-02, 
	-1.0062057525e-02, -6.0437675565e-02, -1.4296551049e-01,  2.1425607800e-01, -2.9459567741e-02,  1.6866479814e-01, -2.1416250616e-02,  1.3146267831e-01,  2.6444423199e-01,  8.5562013090e-02, 
	 3.9439462125e-02,  2.5764697790e-01,  3.1825891137e-01,  2.6107430458e-01,  4.1084519029e-01,  2.6525299996e-02, -8.7932221591e-02,  2.0896513760e-01, -4.1530713439e-02, -3.7622004747e-02, 
	-4.6574853361e-02, -7.1875490248e-02,  5.5694757029e-03,  6.2244869769e-02, -8.4841847420e-02,  2.4414557964e-02,  1.2701967731e-02, -7.9905197024e-02,  1.4465802908e-01, -3.6642372608e-02, 
	 4.3709583580e-02,  3.4764725715e-02, -4.1320554912e-02,  3.8437315822e-01,  2.4165253341e-01,  4.5661920309e-01,  3.4374320507e-01,  1.5727894008e-01,  2.2599756718e-01,  5.9774643183e-01, 
	 1.4695233107e-01,  1.5184649825e-01,  1.2834787369e-01, -1.0723604262e-01,  3.9833870530e-01, -1.6312149167e-01, -2.4211083353e-01,  1.1837207526e-01,  3.2208403945e-01,  2.4012388289e-01, 
	 3.3161482215e-01, -4.0015727282e-02,  2.9648806900e-02, -1.1834803969e-01,  7.7978909016e-02, -9.8963519558e-03, -1.1441405863e-02, -7.2752758861e-02,  4.6954788268e-02, -5.2058205009e-02, 
	-2.0256017148e-01, -2.5337651372e-01, -3.1830257177e-01, -1.3835673034e-01, -8.7931618094e-02, -2.9910478741e-02,  2.0625585318e-01,  5.1005091518e-03, -2.4541172385e-01,  1.8533749878e-01, 
	-5.1922779530e-03,  1.9499716163e-01,  1.1224340647e-01,  9.1478705406e-02,  1.7323271930e-01, -4.2955175042e-02,  1.7694783211e-01,  7.2176881135e-02, -1.5459221601e-01,  1.4547444880e-01, 
	-1.5565484762e-01, -2.5466504693e-01,  4.8043806106e-02, -9.3177996576e-02, -9.0775296092e-02, -1.4707645774e-01,  3.2738287002e-02, -7.1538604796e-02,  8.7924942374e-02, -5.5726498365e-02, 
	 2.2796949372e-02,  5.6819422171e-03, -9.3195408583e-02, -9.3611076474e-02, -3.6427758634e-02, -1.1176197231e-01,  3.3783289790e-01,  3.3629614115e-01,  6.3401170075e-02,  2.5473356247e-01, 
	 3.6178463697e-01,  5.7205390185e-02,  1.3566565514e-01,  1.7134422064e-01,  4.3124686927e-02,  3.5090066493e-02, -3.9498694241e-03, -5.1687575877e-02, -9.9972926080e-02, -2.6833983138e-02, 
	 1.9528043270e-01,  1.1133636348e-02, -3.5111818463e-02, -3.6874603480e-02, -5.1670730114e-02, -7.6618514955e-02, -2.5415530428e-02,  1.9365721941e-01,  5.7066068053e-02, -1.9497394562e-02, 
	 8.0816574395e-02, -2.1021140739e-02,  1.2206592597e-02,  1.6632151604e-01,  1.8814675510e-01,  1.3316532969e-01,  1.3938947022e-01,  3.7362161279e-01,  2.1632081270e-01, -9.3727275729e-02, 
	 1.6460010409e-01, -2.0484211855e-03,  1.3445457816e-01,  6.6650368273e-02,  6.0395255685e-02,  2.8214746714e-01,  2.1651037037e-01,  2.0306523144e-01, -3.1034715474e-02,  1.7183618248e-01, 
	-2.6201754808e-01, -1.0540413857e-01, -1.1028677225e-01, -1.1313856393e-01, -1.2685399503e-02, -5.8739237487e-02, -1.0836033523e-01, -5.9475074522e-03, -4.5992176980e-02,  1.1930955201e-01, 
	 2.3413735628e-01,  2.5647383928e-01,  1.7956601083e-01,  2.7782797813e-01,  2.0998185873e-01,  2.5746372342e-01, -2.0169898868e-01,  2.2702775896e-02,  4.4757056981e-02, -2.9295733571e-01, 
	-5.3275380284e-02, -2.0096654072e-02, -9.9309556186e-02,  1.1624857783e-01,  1.9017134607e-01, -3.1718820333e-01, -4.2607098818e-01, -2.0751252770e-01, -1.7081569135e-01,  1.2618887424e-01, 
	-2.9717287049e-02,  1.3597977161e-01,  2.4805985391e-01,  8.6310952902e-02, -1.5712384880e-01, -2.0934542641e-02,  6.6611751914e-02, -2.0799550414e-01, -2.6791160926e-02,  1.3858050108e-01, 
	 1.4924381673e-01,  6.7566081882e-02,  3.1015652418e-01, -2.8240846470e-02,  7.5942203403e-02, -8.9828528464e-02, -2.2649215162e-01, -1.4452390373e-01, -2.7438637614e-01, -1.6151952744e-01, 
	-1.3428457081e-01,  2.7228916064e-02,  9.1670677066e-02, -8.5056684911e-02,  1.1297910661e-01,  1.9678182900e-01, -7.5072214007e-02,  1.8995399773e-01, -7.4132326990e-03, -8.5662662983e-02, 
	-3.5809301771e-03, -1.7084100842e-01, -1.4460597932e-01,  1.5384905040e-01, -3.5811204463e-02,  1.1749311537e-01, -1.7247428000e-01,  9.7826577723e-02, -2.9037097096e-01,  6.9641033188e-03, 
	 1.4764639735e-01, -5.7734448463e-02,  1.5787911415e-01, -2.3116232455e-01,  2.9923621565e-02, -1.7798697948e-01, -1.0586158931e-01,  4.3458148837e-02,  8.7036835030e-03, -1.8683096394e-02, 
	-2.1291437745e-01, -1.7451384664e-01, -1.5387323499e-01, -2.1872870624e-01, -2.2415214777e-01,  1.7020503059e-02, -2.2238999605e-01,  6.4230382442e-02, -3.2365053892e-01, -2.1811848879e-01, 
	-4.1496145725e-01,  9.9303781986e-02,  2.4851419032e-01,  5.3992744535e-02, -8.4569059312e-02, -3.0433256179e-02,  4.7462116927e-02, -4.9682136625e-02,  2.0789544284e-01,  1.6317818314e-02, 
};

const float layer_3_conv2d_bias[UNET_PAR_3_CONV2D_OUT_FILTER] = {
	-3.0770761077e-04,  1.9162711396e-04, -9.5162889920e-04, -4.5165422489e-04, -5.5082922336e-04,  2.6552480995e-04, -5.2686058916e-04,  2.3032156751e-03,  2.8862335603e-04, -6.0010218294e-04, 
};


#endif
