#ifndef PARAMS_CONV2D_TRANSPOSE_40_H
#define PARAMS_CONV2D_TRANSPOSE_40_H
#include "params.h"

const float layer_40_conv2d_transpose_weight[UNET_PAR_40_CONV2D_TRANSPOSE_KERNEL_Y*UNET_PAR_40_CONV2D_TRANSPOSE_KERNEL_X*UNET_PAR_40_CONV2D_TRANSPOSE_IN_FILTER*UNET_PAR_40_CONV2D_TRANSPOSE_OUT_FILTER] = {
	 5.4352279752e-02, -1.2388471514e-01,  9.1147935018e-03, -3.4574192017e-02, -6.1516463757e-03,  1.4591389894e-01, -1.1916974932e-01, -1.4528670907e-01,  6.6136620939e-02, -1.2677165680e-02, 
	-1.3113546371e-01, -7.4087060988e-02,  6.7405454814e-02, -1.3030671515e-02,  8.7572589517e-02,  2.9130790383e-02,  4.5733708888e-02,  2.7619890869e-02, -1.0128470510e-01,  6.2970542349e-03, 
	 7.9700045288e-02, -1.5669247508e-01, -1.2855781615e-01,  2.0676312968e-02, -7.9836472869e-02, -1.1318181455e-01, -1.0504452512e-02,  2.7588564903e-02, -5.5928308517e-02, -8.8518381119e-02, 
	 4.3340448290e-02,  4.3548289686e-02, -1.5184146166e-01,  7.7658202499e-03,  3.1817238778e-02, -8.2569792867e-02, -2.3722808808e-02, -7.6132044196e-02, -2.5934221223e-02, -1.1001615971e-01, 
	-2.4250648916e-01, -1.0890169442e-01, -1.5598474443e-01, -1.0598915815e-01,  5.7369802147e-02,  8.8782943785e-02,  6.6638648510e-02,  3.9683569223e-02,  1.4444112778e-01,  1.0079725087e-01, 
	 9.2422356829e-04,  1.2576027215e-01,  7.0923946798e-02, -3.0386693776e-02, -4.9874957651e-02, -4.5929666609e-02, -2.0193919539e-02,  4.5546017587e-02, -9.9703976884e-03, -8.5606701672e-02, 
	 8.9681968093e-02, -1.3583431020e-02, -6.1927635223e-02,  3.8781511784e-01,  9.8423242569e-02,  3.1725745648e-03,  3.9874038100e-01, -6.2143087387e-02, -1.0049498826e-01,  8.5788771510e-02, 
	-1.2578353286e-01, -7.7160537243e-02, -3.2965600491e-02, -1.5901403129e-01, -9.3145757914e-02,  8.6497776210e-02, -3.6315135658e-02, -9.8465815187e-02,  2.8015661240e-01,  3.6625114083e-01, 
	 1.3674421608e-01, -7.2735175490e-02, -2.2602818906e-02, -3.7087779492e-02, -7.3477186263e-02, -1.2360985577e-01, -2.0405845717e-02,  2.2780394182e-02, -5.9165343642e-02, -8.9370340109e-02, 
	 8.0175101757e-02,  2.8496535961e-03, -1.9396769349e-03, -3.1583875418e-02, -5.7963151485e-02, -1.0229216889e-02, -9.5735080540e-03, -3.8997199386e-02, -1.3619549572e-01, -1.3599351048e-02, 
	 1.1720471829e-01,  1.0520935059e-01,  2.5235569105e-02,  1.4620944858e-01, -4.7160580754e-02, -3.3545814455e-02,  3.0141111463e-02,  1.2631730735e-01, -4.1255306453e-02, -3.9355136454e-02, 
	-2.4609919637e-02, -9.2769011855e-02, -1.5406028926e-01, -9.6490629017e-02, -1.0631301999e-01, -1.5069516003e-01, -9.3191429973e-02, -4.2588956654e-02, -3.5588692408e-03,  5.1837768406e-02, 
	-2.2871711850e-01, -1.8949712813e-01,  5.7104203850e-02, -1.5200869739e-01, -2.1308733523e-01, -3.5124734044e-02, -4.3630570173e-02, -1.1172319949e-01, -6.5931178629e-02, -8.2707934082e-02, 
	-1.3133142889e-01, -2.5238452479e-02, -5.4879002273e-02, -6.8268597126e-02, -1.1263866909e-02,  7.4497531168e-03,  7.5304061174e-02,  8.8641336188e-03,  8.2563208416e-03, -5.3099665791e-02, 
	 1.3791126013e-01,  6.9991950877e-03,  4.8507746309e-02, -5.1731108688e-03,  4.6982143074e-02,  1.0215842724e-01,  9.6356421709e-02,  1.3986718655e-01,  3.1193122268e-01,  1.6400294006e-01, 
	 7.5404360890e-02,  2.5430494547e-01,  1.2825894356e-01, -2.7037767693e-02,  3.5390242934e-02, -9.3716226518e-02,  3.4983571619e-02, -6.0693934560e-02, -1.8028748035e-01,  5.4901864380e-02, 
	-4.4529926032e-02, -1.1802112311e-01, -3.4165803343e-02,  2.9932487011e-01,  3.0849322677e-02,  8.7906412780e-02,  8.4732937813e-01,  3.1543722749e-01, -2.2904342040e-02,  4.4159105420e-01, 
	 1.7114092410e-01,  2.2879220545e-02,  3.3474255353e-02,  3.0584234744e-02,  3.3002585173e-02,  8.9909784496e-02,  7.7114798129e-02,  1.3315797783e-02,  6.3859298825e-02,  3.0600065365e-02, 
	-1.0642674565e-01, -2.4573255330e-02, -4.4623885304e-02, -8.1862628460e-02, -2.0012082160e-01, -1.7595027387e-01,  1.7040085793e-01, -8.5738413036e-02,  6.5568730235e-02,  8.4557533264e-02, 
	 1.8869370222e-01,  9.2552667484e-03,  2.0655587316e-01, -7.1997772902e-03, -1.5419539809e-01, -1.9916521013e-01,  1.0360050201e-01, -1.8878334761e-01,  1.7120684683e-01, -4.8905890435e-02, 
	-1.7601753771e-01,  1.5638074279e-01, -6.1062194407e-02, -1.3234655559e-01, -1.7129477113e-02,  9.5279477537e-02, -1.1018074304e-01,  4.9815244973e-02,  2.2764395922e-02,  1.7313222587e-01, 
	 5.5207155645e-02,  1.2419509701e-02, -3.6374576390e-02, -4.1175861843e-03,  1.0122790933e-01,  1.6916760802e-01,  2.2378178313e-02, -1.6509789228e-01,  1.0680726729e-02,  1.1032492667e-01, 
	 1.5877085924e-01, -4.5167144388e-02,  1.2244411558e-01, -1.1357486248e-01,  1.3769941032e-01, -9.0662822127e-02, -3.8162834942e-02,  3.8232460618e-02, -3.9000252727e-03, -7.4683561921e-02, 
	-2.1110148728e-01,  5.2538488060e-02, -2.4533134419e-03, -6.6746994853e-02, -1.7761519179e-02,  3.1428944319e-02, -8.4675520658e-02, -9.2592291534e-02, -4.8921901733e-02,  5.0879575312e-02, 
	-5.6322596967e-02, -1.7711587250e-02, -1.3280017674e-01, -7.5858160853e-02, -5.9568984434e-03, -5.4371330887e-02, -3.1785506755e-02,  3.5563468933e-02, -8.1925652921e-02,  6.5975487232e-02, 
	-1.6250386834e-01,  3.8524758071e-02, -1.4612904191e-01, -3.7852995098e-02,  8.8697083294e-02,  2.0064126700e-02,  1.7039635777e-01,  2.8366793413e-03, -2.0014974475e-01,  1.4994633198e-01, 
	 4.9526975490e-03, -6.9845579565e-02,  1.4754483104e-01, -1.7260980606e-01, -1.7241214216e-01, -2.6866342872e-02, -1.0497806221e-01, -1.7471590638e-01,  1.6835296154e-01, -2.3856831715e-02, 
	 2.5641113520e-02,  2.5980189443e-02, -1.6270987689e-01, -7.1632556617e-02, -1.3678510487e-01, -3.4577041864e-01, -6.1014819890e-02,  2.3646000028e-01, -9.6841529012e-02, -2.5728721172e-02, 
	 1.2563987635e-02, -2.0948541164e-01, -9.3281179667e-02, -2.4368461967e-01, -3.2551109791e-01, -1.6648229957e-01,  2.5255641341e-01, -3.4524377435e-02, -1.0309530050e-01, -9.0685889125e-02, 
	-4.2436096817e-02, -2.2879101336e-02, -1.5471716225e-01,  8.6605556309e-02, -9.4765737653e-02, -7.7296376228e-02,  4.1651029140e-02, -1.7137944698e-01,  1.4674334228e-01,  1.0219942033e-01, 
	 1.0892441869e-01,  6.8030238152e-02,  1.2248952687e-01, -1.3365116715e-01, -7.8782819211e-02, -2.1813672036e-02, -1.0965560377e-01,  1.2560249306e-02,  1.0648986697e-01,  2.1091658622e-02, 
	 7.2985634208e-02,  5.0494108349e-02, -1.0933143646e-01, -7.0154704154e-02,  1.6701805871e-03,  4.6229511499e-03,  3.7441670895e-02, -5.4912984371e-02,  1.5296961367e-01,  8.3653002977e-02, 
	 2.8185537457e-01, -1.5385642648e-01,  1.1628121138e-01, -1.1435785890e-01,  2.0720219612e-01,  1.3674798608e-01, -6.3415631652e-02,  1.7478619516e-01,  2.3019017652e-02, -1.6922716051e-02, 
	-6.3996538520e-02, -2.1774036810e-02,  8.3769261837e-03, -9.6538059413e-02,  4.3453600258e-02,  1.9062930346e-01, -9.8035089672e-02,  1.0081259906e-01,  2.4187240005e-01,  2.4139612913e-02, 
	-1.0747396201e-01, -3.2549537718e-02, -7.6656967402e-02, -1.4683894813e-01, -6.4299799502e-02, -1.2660849094e-01, -1.2427167594e-01,  1.0008140467e-02, -1.8105234206e-01, -1.8258668482e-01, 
	 1.3175828382e-02,  1.8807941815e-03, -3.7730723619e-02, -6.2896095216e-02, -7.6922230422e-02, -3.0563682318e-01, -1.0365242511e-01,  5.5508561432e-02, -1.4105531573e-01, -1.0956151783e-01, 
	-3.6596756428e-02,  2.9873671010e-02,  1.3396476209e-01,  7.3225670494e-03,  7.9265534878e-02, -9.5319725573e-02, -3.0642036349e-02,  2.0935711265e-01,  1.0862680525e-01,  1.0961281508e-01, 
	-9.5340926200e-03, -1.0074498504e-01, -6.7887559533e-02,  1.7798790708e-02, -2.5346529484e-01, -1.3428442180e-01, -6.7873060703e-02, -5.4954428226e-02,  1.6248337924e-01, -4.2333338410e-02, 
	-1.2429748662e-02, -2.5082141161e-02,  8.5110723972e-02, -3.2612156123e-02,  9.7907491028e-02, -8.2902489230e-03, -5.0157267600e-02, -2.2638045251e-02,  4.4264774770e-02,  7.6663070358e-03, 
	 4.2207397521e-02, -2.1516346931e-01,  1.1078397930e-01, -4.9774240702e-02, -7.7116683125e-02, -9.9717974663e-02, -7.6124630868e-02, -1.8380060792e-02, -1.8833339214e-02, -4.6282492578e-02, 
	-7.0409136824e-03,  3.9359379560e-02,  1.5353052877e-02,  6.4405865967e-02, -9.4757474959e-02, -2.3447985947e-01, -2.1021160483e-01, -1.0092478991e-01, -2.8582483530e-01, -1.6220992804e-01, 
	-1.1799428612e-01, -7.3700673878e-02, -1.7681932449e-01, -1.0055442899e-01,  1.7153707147e-01,  1.4430093765e-01, -6.5897375345e-02,  2.6744758710e-02,  9.6410460537e-04,  1.0092902929e-01, 
	 8.0893762410e-02,  7.9558417201e-02,  9.1008998454e-02, -3.4307655692e-01, -6.9362022914e-03,  5.3931616247e-02,  1.3194838166e-01, -2.0238031447e-01,  2.3912790418e-01, -1.8066963181e-02, 
	 9.2336669564e-02,  4.8000652343e-02,  1.4192174189e-02,  6.4446419477e-02,  3.6584265530e-02,  5.6517612189e-02,  3.3808559179e-01,  1.2046631426e-01,  7.5758285820e-02, -1.4788782597e-01, 
	-5.2332460880e-02, -1.7339618504e-01, -9.9987678230e-02, -4.0141467005e-02, -4.6772707254e-02,  9.5371194184e-02, -3.9448056370e-02, -1.4484955370e-01, -8.0723725259e-02, -5.1449012011e-02, 
	-1.9224271178e-01, -2.0357306302e-01, -2.1258425713e-01, -3.7993859500e-02, -1.2677912414e-01, -8.0157339573e-02,  3.2252755016e-02, -1.8186378479e-01, -6.6223971546e-02,  1.0273328424e-01, 
	-6.5429463983e-02, -3.1978055835e-02, -1.7754049972e-02,  1.1587495916e-02,  2.7890765667e-01,  7.5203493237e-02,  6.1236944050e-02, -2.1487079561e-01, -2.0683797076e-02,  1.2023685873e-01, 
	 1.0276466608e-01,  1.4153578877e-01,  1.0150693357e-01,  1.1302792281e-01, -2.1614398807e-02,  9.1523140669e-02,  9.7886651754e-02, -1.0761486739e-01, -3.4936118871e-02, -1.0097804666e-01, 
	 8.0475293100e-02,  1.6424123896e-03, -1.0633677989e-01, -7.6382592320e-02,  1.5553574264e-01, -1.7376935109e-02, -1.0629838333e-02, -6.4901295118e-03,  7.4171647429e-02, -4.0858308785e-03, 
	 1.9312806427e-01,  1.9841557369e-02,  1.3243090361e-02, -1.5166561352e-03,  3.2150071114e-02, -3.4230975434e-03, -4.9195099622e-02,  8.7970219553e-02, -4.3841045350e-02,  1.2008127570e-01, 
	-4.1995696723e-02,  1.2043097615e-01, -1.4054808021e-01,  1.2093805522e-01, -1.6049952805e-01, -1.6905504465e-01, -3.4677140415e-02, -1.8491144478e-01, -2.7716529369e-01, -2.3758688569e-01, 
	-4.4590285979e-03, -3.3496963978e-01, -2.4726530910e-01,  1.4239118993e-01, -2.5847630575e-02, -3.2674521208e-02,  2.6007033885e-02, -5.4841645760e-04,  1.2405259162e-01,  2.0855402574e-02, 
	 2.0200747997e-02,  1.7605025321e-02,  2.0466129482e-01,  1.0495057702e-01,  1.8477357924e-01,  1.9961930811e-01, -3.2072314620e-01, -3.4405013919e-01,  1.9013474882e-01,  7.1885831654e-02, 
	-4.9488745630e-02,  1.6765791923e-02,  1.7493531108e-02, -2.3938622326e-02,  7.0072938688e-03, -1.1614747345e-01, -4.6111639589e-02, -9.8991952837e-02, -5.3576406091e-02, -6.3172638416e-02, 
	 1.2335608900e-01, -1.6088873148e-02, -1.3174743392e-02,  1.5712599456e-01, -1.4003331959e-01,  7.2330012918e-02, -5.4607711732e-02,  8.1267371774e-02, -1.5822911263e-01,  2.6122154668e-02, 
	-3.3763162792e-02, -1.0203202069e-01, -4.8191908747e-02, -2.9104062915e-01,  1.4662328362e-01, -3.5765264183e-02, -3.7800133228e-02, -5.7441439480e-02,  5.1999393851e-02,  1.8139371648e-02, 
	-6.2968678772e-02,  1.6656315327e-01,  2.5405067950e-02, -5.9983048588e-02, -9.7965925932e-02, -1.1833466589e-01,  1.2713102996e-01, -7.1133509278e-02,  1.0618551075e-01, -1.1515724473e-03, 
	 8.4178736433e-03, -1.3939274848e-01, -7.3258024640e-03,  1.0287019610e-01, -3.0213963240e-02, -4.0237952024e-02, -4.1515115649e-02,  8.5679754615e-02,  1.1273908615e-01, -1.2271568924e-01, 
	 2.3172666132e-01, -1.2028057128e-01,  4.8158414662e-02,  2.5964897126e-02, -3.6672882736e-02, -1.8403129280e-01, -2.8142962605e-02, -1.1909432709e-01, -2.1897703409e-01, -1.6102726758e-01, 
	-1.1675778776e-01, -2.7900129557e-02, -1.6058517992e-01,  3.6684893072e-02, -2.9639521241e-01, -2.4253608286e-01,  1.3125079870e-01, -2.2410462797e-01, -1.8168878555e-01, -5.6906476617e-02, 
	-1.4771589637e-01, -2.0731627941e-01, -1.5302354097e-01, -8.7384127080e-02, -2.0620517433e-01,  5.4560586810e-02, -3.4776857495e-01, -6.7570656538e-02,  3.6024492234e-02, -1.2260375917e-01, 
	 5.8846231550e-02,  3.8304619491e-02, -1.3773909770e-02,  2.9705643654e-02, -1.3514111936e-01,  1.9616907462e-02, -1.0266160220e-01,  1.6886322200e-01, -9.7111538053e-02, -1.5215077996e-01, 
	-1.5501363575e-01, -8.2946442068e-02, -1.9131629169e-01, -1.2329552323e-01,  1.4770860970e-01, -2.6938170195e-01, -9.0615682304e-02, -2.7676656842e-01, -3.4926271439e-01, -1.5574611723e-01, 
	 4.0964968503e-03, -1.6725404561e-01, -1.3944052160e-01, -8.5078164935e-02, -2.1215325594e-01,  1.9619926810e-01,  8.8921658695e-02, -1.1462830007e-01, -1.3404969871e-01,  9.7809888422e-02, 
	-1.1499123275e-01,  1.8936787546e-01, -1.1342626065e-01, -1.0905914754e-01,  1.2583748996e-01,  2.3297025263e-01, -3.0714887381e-01, -3.0264604092e-01, -7.1844677441e-03, -6.4850691706e-03, 
	 1.2219972908e-02, -1.4250358939e-01, -1.6797210276e-01,  9.8549894989e-02, -2.0246369764e-02, -2.1255020052e-02, -5.9177622199e-02,  1.7266938090e-01,  1.8482431769e-01, -6.3863806427e-02, 
	-1.1449581012e-02,  7.6144337654e-02,  1.1619504541e-02, -4.3474342674e-02,  4.2830251157e-02,  1.4909245074e-02, -8.5204676725e-04,  9.9016673863e-02,  3.9211578667e-02,  9.0991869569e-02, 
	 1.8061886728e-01, -1.0025797784e-01, -2.4365926161e-02, -1.3839982450e-01, -6.0553815216e-02,  1.9541596994e-02, -8.4182232618e-02, -7.8404478729e-02,  1.2627047300e-01, -3.1798428297e-01, 
	-1.0369009525e-01, -6.8789243698e-02,  2.4461073801e-02, -5.8726176620e-02,  3.5855226219e-02,  1.1900936067e-01, -6.0068280436e-03, -1.4077725820e-02,  1.0530060530e-01,  6.0398083180e-02, 
	 1.2107182294e-01,  5.7500410825e-02,  8.8845781982e-02,  3.8568433374e-02,  1.1467013508e-01, -1.1615692638e-02, -3.6472797394e-02,  2.3005674779e-01, -1.8583424389e-01, -4.9124434590e-02, 
	-1.0301091522e-01,  3.3451486379e-02, -2.3308411241e-02, -1.3965049386e-01, -2.0554038882e-01,  1.8082460761e-01, -2.3564389348e-01, -3.3598898444e-03, -1.3499368727e-01, -1.5099497139e-01, 
	 3.3362507820e-02, -1.2003697455e-01, -2.3925697431e-02,  4.2662072927e-02, -7.4935905635e-02, -1.8180918694e-01, -1.8497955799e-01,  1.8162415922e-01, -1.2958241627e-02, -1.4740189910e-01, 
	 1.2555210851e-02,  8.2774171606e-03,  1.0660531698e-03,  1.5208432451e-02, -3.2097898424e-02, -8.8690519333e-02, -2.8198257089e-02,  1.0293274373e-01, -1.8397873268e-02, -1.0751429945e-01, 
	 5.5554214865e-02,  9.9475510418e-02, -1.2579563260e-01,  7.9758383334e-02,  2.3872953653e-01, -8.5573576391e-02, -1.4837896824e-01, -2.7940878645e-02,  6.4389519393e-02, -1.5944331884e-01, 
	-1.1769541353e-01,  1.1998720467e-01,  2.0072374493e-02, -1.9381977618e-01, -2.8417021967e-03,  8.0236494541e-03, -5.6014206260e-02, -1.0906369239e-01, -9.7566701472e-02,  3.6809895188e-02, 
	-1.3269682229e-01, -4.1648792103e-03, -5.9814900160e-03, -9.5043897629e-02, -1.4217638969e-01, -8.1061154604e-02, -1.5492084622e-01, -9.5855318010e-02, -8.3075225353e-02,  7.9354852438e-02, 
	-2.2604723927e-03, -2.9473111033e-02, -5.5746067315e-02,  9.8788298666e-02, -8.3080485463e-02,  4.4910952449e-02, -4.2926655151e-03,  7.6759971678e-02, -6.7373245955e-02, -1.3488890231e-01, 
	 5.2698872983e-02, -1.1683451384e-01, -7.3633012362e-03, -8.9620210230e-02,  3.3355534077e-02, -3.1182492152e-02,  8.9949473739e-02,  9.7453877330e-02, -6.4628325403e-02,  9.0465940535e-02, 
	 4.6044610441e-02,  5.9444598854e-02,  1.4072786272e-01,  8.0453842878e-02, -3.8041479886e-02, -7.8248821199e-02, -3.3258542418e-02,  3.1663812697e-02,  2.1922158077e-02,  3.7892144173e-02, 
	 3.2318882644e-02,  3.2720506191e-02,  1.6766265035e-02,  1.5856309235e-01, -3.2311823219e-02, -4.6550963074e-02, -1.2376344949e-01,  7.4791252613e-02,  4.1657362133e-02,  1.8823970109e-02, 
	-1.2221414596e-01,  2.0804056898e-02,  1.2511946261e-01,  2.0435735583e-01,  1.0124847293e-01,  5.3722962737e-02,  1.4604564011e-01, -1.1232156307e-01, -1.7858262360e-01, -2.4666236341e-01, 
	 1.9774138927e-01,  1.8011957407e-01,  1.0944443941e-01,  1.3678257167e-01,  9.3023300171e-02,  1.8068315089e-01,  2.7459609509e-01,  1.7268627882e-01,  2.7200970054e-01, -4.5946322381e-02, 
	 1.1602634192e-01,  2.0145212114e-01, -1.2525330484e-01,  1.7539735138e-01,  1.1906966567e-01, -4.3441005051e-02,  8.5018955171e-02,  5.4271146655e-03, -6.1133407056e-02,  2.8413120657e-02, 
	 5.0366245210e-02, -1.7385618761e-02, -1.1811565608e-01, -9.8857134581e-02,  3.8883853704e-02,  4.8352699727e-02,  3.8429245353e-02,  2.5778156519e-01,  1.2870027125e-01,  2.2208602726e-01, 
	 8.5694357753e-02,  2.4240346253e-01,  1.1182910949e-01,  2.0499627292e-01,  1.8339154124e-01,  2.8376075625e-01,  9.7612358630e-02,  2.6524925604e-02,  8.6198322475e-02,  8.1620085984e-03, 
	-6.2504805624e-02,  1.2901438400e-02, -4.0541823953e-02,  7.5193144381e-02, -2.4265164509e-02, -1.4733780921e-01,  1.2339311093e-01, -9.3423247337e-02, -1.3639242388e-02,  3.8458772004e-02, 
	 9.3114152551e-02, -5.4851323366e-02, -6.9516122341e-02,  4.3481335044e-02,  1.8716584146e-01,  2.2928959131e-01,  1.7633305490e-01,  1.7219212651e-01,  2.1241979301e-01,  1.6894079745e-01, 
	 3.7354677916e-03,  1.3187021017e-01,  2.6777490973e-02,  1.5572975576e-01,  1.1350119859e-01,  1.3174992800e-01,  1.0247447342e-01,  9.8306566477e-02,  2.3431436718e-01,  5.8781921864e-02, 
	 1.1590950936e-01,  4.7129511833e-02,  1.2285535038e-01,  4.0723416954e-02, -7.8100703657e-02,  1.5186670236e-02, -3.4654002637e-02,  1.1566569097e-02,  6.0447126627e-02, -4.1967656463e-02, 
	-6.3258491457e-02, -1.4246331155e-01, -1.5360784531e-01, -1.7938730121e-01, -8.1635871902e-03, -9.0376183391e-02, -3.7035650015e-01, -1.8100474775e-01, -1.4502256177e-02, -1.6404347122e-01, 
	 8.4620267153e-02, -1.9217828289e-02, -1.3116681576e-01,  5.8755166829e-02,  1.5846170485e-01, -1.4683407545e-01,  2.1573249251e-03, -3.7629593164e-02, -2.4746766686e-01,  2.3386175931e-01, 
	 1.8969118595e-01,  4.0201015770e-02, -1.3080313802e-02,  4.9998454750e-02, -9.1929808259e-02,  1.1500243843e-01, -8.3415769041e-03, -6.5952859819e-02, -7.1179367602e-02, -1.9038452208e-01, 
	 1.0796090215e-01,  1.4756719582e-02,  1.3783167303e-01,  6.2129292637e-02, -1.4930158854e-02,  1.3149958849e-01,  7.5784616172e-02,  1.0130419582e-01,  5.4576814175e-02,  1.6536964104e-02, 
	 6.1064604670e-03,  1.6460756958e-01,  1.1671798676e-01, -1.2275630236e-01, -1.8413765728e-01, -1.7628327012e-01, -1.3356466591e-01, -9.5480777323e-02,  1.7657132819e-02, -2.2985825315e-02, 
	-1.9574597478e-01,  2.6658520103e-02, -3.7630967796e-02,  3.7333946675e-02,  1.5115830302e-01,  5.1494497806e-02,  8.5353411734e-02,  5.2482109517e-02,  9.6657246351e-02,  1.0922467709e-01, 
	 1.7131707072e-01, -5.8345561847e-03,  2.2306054831e-02,  9.9978029728e-02, -2.2477474809e-01,  1.2814179063e-03, -5.6426119059e-02, -1.7290216684e-01, -7.9038515687e-02, -8.2381866872e-02, 
	-1.2463421561e-02, -1.5669712424e-01, -1.4869274199e-01,  1.4304849505e-01, -1.8631417304e-02,  3.0621690676e-02, -2.4648199975e-01, -6.5268732607e-02,  1.1531421542e-01, -6.4219068736e-03, 
	 1.1654607952e-01,  2.5759905577e-02,  2.3319795728e-01,  1.0110846162e-01, -1.8395589665e-02,  4.2917046696e-02,  1.8412137032e-01,  1.1957745254e-01,  3.5447705537e-02,  2.8989958763e-01, 
	 1.4001280069e-01, -5.7801626623e-02, -4.9324500561e-01, -1.5385603905e-01,  4.8634707928e-02, -1.4130567014e-01,  6.0517504811e-02, -2.7110822499e-02,  1.4936133288e-02, -1.4065361023e-01, 
	-1.4839242212e-02,  6.9442130625e-02,  5.9612486511e-02, -1.3060468435e-01, -6.9717675447e-02,  9.7624152899e-02, -1.1224575341e-01,  5.7925455272e-02, -1.0731431842e-01, -2.9000157118e-01, 
	 7.5438232161e-03, -7.0680901408e-02,  4.9518793821e-02, -1.9622805715e-01,  5.2730441093e-02,  5.6652665138e-02,  6.8113870919e-02,  2.7859639376e-02,  1.0401646048e-01,  1.7288246751e-01, 
	-3.6719858646e-02, -2.6009131223e-02, -3.7762135267e-02, -1.4727959037e-01,  6.3027314842e-02, -1.1794270575e-01, -1.9151705503e-01, -1.7693628371e-01, -1.5837810934e-01, -2.4386407807e-02, 
	-1.0396932065e-01, -1.1713594198e-01, -7.3405720294e-02, -1.5697497874e-02,  2.5682771578e-02, -1.1805540323e-01,  4.0865737945e-02,  3.6682762206e-02, -1.1706658639e-02,  1.4703315496e-01, 
	 1.7776106298e-01,  7.9504899681e-02,  1.1317554861e-01,  1.5826120973e-01,  3.7374589592e-02,  7.1960531175e-02,  2.2768403590e-01,  1.9808232784e-01, -3.6493282765e-02,  3.2252952456e-02, 
	-6.0797944665e-02,  3.1742110848e-02,  2.7522414923e-01,  8.4088020027e-02,  1.2664225698e-01,  3.0726501718e-02,  1.9805501401e-01,  4.4189173728e-02,  1.4650215395e-02,  2.9123550653e-01, 
	 1.4642291702e-02, -2.0913067460e-01,  1.3477978110e-01,  4.8964466900e-02, -7.8589525074e-03,  1.2460016459e-01, -4.4745970517e-02, -1.7529882491e-02,  2.1162511408e-01,  5.4755240679e-02, 
	 3.5211872309e-02,  1.8646590412e-01, -2.3117229342e-01, -4.6658638865e-02, -3.0839401484e-01, -1.2958899140e-01, -6.1520639807e-02, -3.0931982398e-01, -4.1326113045e-02, -2.9999643564e-01, 
	-1.1213179678e-01,  1.2996641919e-02, -5.0043966621e-02, -2.8371024877e-02, -1.1334192008e-02,  6.5687811002e-03, -4.3651990592e-02, -6.1625756323e-02, -3.1853288412e-02,  5.6703742594e-02, 
	-3.9418391883e-02, -2.2614922374e-02, -9.5245568082e-03,  4.6591341496e-02,  8.7055340409e-02,  1.0298922658e-01,  9.1856308281e-03, -1.0148189962e-01, -1.5119732358e-02,  5.9194326401e-02, 
	-4.4680502266e-02,  2.0179207623e-01, -1.3238763809e-01, -7.0018559694e-02,  1.6187381744e-01,  5.2553336136e-03,  9.9359624088e-02,  1.3822901249e-01, -6.7950196564e-02,  3.8092020899e-02, 
	-1.9317957759e-01,  1.2926834822e-01,  9.1090790927e-02,  1.0511489213e-01, -1.3739356399e-01,  8.9618131518e-02, -3.3374994993e-02,  1.3104532845e-02, -5.7608570205e-04, -2.6286570355e-02, 
	-5.0194263458e-02, -8.5282430053e-02,  1.0849903524e-01,  1.0408274829e-01, -1.0938373208e-01,  6.2553241849e-02, -1.2985935435e-02, -1.8884945661e-02, -3.0547841452e-03, -4.1909232736e-02, 
	-1.1296345852e-02, -5.9553254396e-02, -1.0941371322e-01,  6.4703784883e-02, -1.1314821243e-01, -2.2110681236e-01, -7.8318668529e-03, -2.1219493449e-01, -1.5386161208e-01,  5.4953709245e-02, 
	-1.1128827184e-01, -1.2508821487e-01, -4.4981274754e-02, -1.8625400960e-01, -5.0732437521e-02,  1.2562556565e-01, -5.7036485523e-02,  4.3490249664e-02, -1.2151695788e-02,  1.0396948457e-01, 
	-5.0595365465e-02,  1.0138986632e-02,  1.6485163942e-02, -4.0239274502e-02, -3.0063722283e-02,  3.4346286207e-02, -2.5013893843e-01, -9.8667235579e-04,  2.3607229814e-02,  7.5696699321e-02, 
	 8.3938181400e-02,  1.1832028627e-01, -9.6264317632e-02,  5.4095152766e-02, -1.5318807960e-01,  2.6662785560e-02, -1.5815036371e-02,  1.6801725328e-01,  5.0236515701e-02, -1.6726559401e-01, 
	-1.8352615833e-01, -1.2015925348e-01,  1.5352019668e-01,  9.1560542583e-02,  1.6386313736e-01,  1.2254656106e-01,  2.3544429243e-01, -1.3016043603e-01, -1.7251817882e-01,  4.0452525020e-02, 
	 1.3105154037e-01,  4.5753479004e-02,  2.4773371220e-01, -2.5018345565e-02,  8.0968432128e-02,  2.4500314891e-01,  1.9846224785e-01,  9.6244402230e-02,  2.0019780099e-01, -2.1405637264e-02, 
	-4.8568237573e-02,  3.0634671450e-02, -1.0122507811e-02,  4.2661398649e-02,  2.5989583135e-01, -9.6585579216e-02, -4.0260101669e-03, -1.0860934108e-01, -1.5299904346e-01, -1.5132531524e-01, 
	-1.2872159481e-01, -4.4367544353e-02, -1.6369719058e-02,  5.4596722126e-02, -1.0246066749e-01,  7.9156411812e-03, -2.5972383097e-02,  2.3154807091e-01,  2.2178958170e-03,  2.5572395325e-01, 
	 3.3493921161e-01,  1.4928036928e-01,  9.2876054347e-02,  2.8608915210e-01,  3.4118769690e-03,  1.8764416873e-01, -2.0604825020e-01, -6.5456428565e-03, -6.3771896064e-02,  4.1296952404e-03, 
	-1.6970349476e-02,  7.4690990150e-03, -3.4937035292e-02, -1.7013061792e-02, -4.1309755296e-02, -3.2390635461e-02, -2.0576225594e-02, -1.0039015673e-02,  5.7481421391e-04,  1.1947746389e-02, 
	 1.1905348860e-02, -2.6522571221e-02,  9.9072404206e-02, -2.2860605270e-02, -6.9233337417e-03,  6.4543291926e-02,  2.0736950636e-01,  1.2584565580e-01,  6.6335998476e-02,  6.0427572578e-02, 
	 1.6624277830e-01, -4.4773016125e-03,  1.1371348053e-01,  2.1027948242e-03,  1.6642350703e-02,  5.9974670410e-02,  4.5181401074e-02,  3.7647827412e-04, -8.2316786051e-02,  4.9826232716e-03, 
	-1.2663994916e-02,  6.4861960709e-02, -1.5275652707e-01, -9.9547766149e-02,  4.6492535621e-03,  3.0802438036e-02,  6.0876812786e-02, -1.9954989851e-01, -4.3387591839e-02, -1.3873882592e-01, 
	 6.9448933937e-03,  5.4613873363e-02,  2.7729118243e-02,  5.6106034666e-02, -1.0926613957e-01, -1.6361388564e-01, -3.3559587318e-03,  5.9510292485e-03, -1.2962003052e-01, -1.8657793105e-01, 
	-1.0474318266e-01,  2.5751825888e-03, -5.8846652508e-02, -1.7106307670e-02,  1.0161931068e-01, -5.9402458370e-02,  1.9610247016e-01,  6.9380328059e-02,  3.1790688634e-02,  2.3059381172e-02, 
	-1.0791336745e-01, -9.3939736485e-02, -2.1445918083e-01,  1.9890915602e-02,  1.6190294921e-01, -1.2064473331e-01,  1.1380127072e-01,  1.4845734835e-01, -1.7877874896e-02, -4.4502347708e-02, 
	-2.1651332080e-01,  1.6696321964e-01, -1.1685857177e-01, -1.2417187542e-01,  4.5605659485e-02,  1.1263606697e-01, -6.6281878389e-04, -5.0512373447e-02,  3.1740121543e-02,  1.4033916593e-01, 
	-7.7572755516e-02,  6.1268996447e-02,  1.2488690019e-01, -1.6863200814e-02,  1.5298676491e-01,  3.6142107099e-02, -1.6086468101e-01,  4.6027407050e-02, -5.2434455603e-02,  6.3524529338e-02, 
	-1.0123495013e-01, -9.1079816222e-02, -2.4746514857e-02, -9.0807639062e-02, -2.2326484323e-01, -1.0591075569e-01,  3.9648991078e-03, -3.5965424031e-03, -1.6730254889e-01, -1.1200062931e-02, 
	 1.5351553261e-01, -4.3604545295e-02, -2.6412427425e-02,  4.6264905483e-02,  1.5924025327e-02, -1.6299189627e-01,  4.9690795131e-03, -5.2867595106e-02,  3.0265327543e-02,  1.6332153231e-02, 
	-1.3320857286e-01,  8.5763216019e-02, -8.9322276413e-02, -5.3777638823e-02,  5.9887956828e-02,  2.7187021449e-02, -1.4148366451e-01, -1.6576372087e-01,  6.9580815732e-02,  1.5790104866e-01, 
	 1.1993527412e-01,  9.2391064391e-03,  1.5413708985e-01,  2.0004874468e-01, -6.7901094444e-03,  1.7602735758e-01,  1.6308049858e-01,  1.4995060861e-01, -4.0589943528e-01, -2.5508102775e-01, 
	-5.1222894341e-02,  2.3257447407e-02,  2.1797901392e-01,  1.2753899209e-02,  2.9868039489e-01,  1.9896367565e-02,  1.9624304771e-01, -3.8392890245e-02,  9.3524865806e-02,  1.8100054562e-01, 
	-3.4615918994e-02, -5.3253483027e-02,  5.7628769428e-02, -1.1590394378e-01,  1.4431847632e-01,  1.6126695275e-01,  1.0611668229e-01,  1.9497492909e-01,  2.4669539928e-01,  1.5200597234e-02, 
	-4.0298722684e-02,  1.1606334895e-01,  3.3947467804e-02,  6.9632440805e-02,  2.2048403323e-01,  1.9961003214e-02,  5.3416352719e-02,  8.8350199163e-02,  6.2454459257e-03, -5.0036009401e-02, 
	-3.0508736148e-02, -9.1040708125e-02, -1.2720720470e-01, -2.5692753494e-02,  9.3120262027e-02,  1.6401924193e-02, -2.0542187989e-01,  2.5193378329e-01,  1.3170000911e-01,  1.2320828438e-01, 
	 8.0042220652e-02,  1.3965354860e-01, -1.0825803131e-01, -3.6333627999e-02,  3.2120007090e-03,  1.3424037956e-02,  4.9418274313e-02,  1.7396605015e-01,  6.8169049919e-02,  6.7324087024e-02, 
	 7.9257071018e-02, -9.4891386107e-03,  6.5594695508e-02,  6.7749753594e-02, -3.2098885626e-02,  1.5234990418e-01, -9.5371939242e-02,  1.4018587768e-02,  8.3848908544e-02,  3.4746866673e-02, 
	-1.0434764624e-01,  4.9608852714e-02, -9.0259961784e-02,  2.4557584897e-02,  1.8291758001e-01,  1.8650633097e-01,  1.2577393651e-01,  1.9080363214e-01,  5.2547179163e-02,  1.0810909420e-01, 
	 9.3617528677e-02, -7.7281288803e-02,  7.6638206840e-02,  4.5737095177e-02,  2.2069333121e-02,  7.2631090879e-02, -2.5763565674e-02, -4.1010021232e-03, -1.2598718703e-01, -4.2787399143e-02, 
	-7.5206629932e-02, -9.5303975046e-02, -2.5684062392e-02, -2.5565868616e-01,  4.2935509235e-02, -9.1886430979e-02, -1.4722765982e-01, -1.1068499833e-01, -8.1599667668e-02, -2.3643225431e-01, 
	 7.1626052260e-02, -7.9432912171e-02, -6.5858967602e-02, -8.5409998894e-02, -2.1931672096e-01, -2.0577712357e-01, -1.0048301518e-01,  3.7363726646e-02, -8.9236266911e-02, -6.2914080918e-02, 
	-1.0870976746e-01, -4.2906589806e-02, -1.1156106368e-02,  7.9967696220e-03,  1.9413475692e-01,  6.0382513329e-03,  6.8515464664e-02,  2.9667986091e-03,  1.0890679806e-01, -8.6357809603e-02, 
	 2.6741886511e-02,  5.9706903994e-02,  9.3659535050e-02,  2.2591376305e-01,  9.9130526185e-02, -6.0270782560e-03, -3.5096213687e-03,  3.5422533751e-02, -2.1910107136e-01,  6.8277202547e-02, 
	-1.8983330578e-02,  6.5891876817e-02,  7.5785517693e-02,  1.8356393278e-01, -1.1238378286e-01,  5.1696438342e-02, -1.2665316463e-01,  1.4838614501e-02, -1.9329679012e-01, -2.7869746089e-02, 
	-8.0734767020e-02,  1.8837583065e-01, -5.9320103377e-02,  6.6846959293e-02, -6.2958180904e-02, -1.1891064793e-01,  2.0676586777e-02,  4.1418258101e-02, -1.7330107093e-01,  1.0247647017e-01, 
	 2.1302407607e-02,  3.3565890044e-02, -1.5851122141e-01, -3.6088030785e-02, -8.9185694233e-03, -2.6660257578e-01,  6.2505617738e-02, -5.2158292383e-02,  4.7608088702e-02, -1.0210869368e-03, 
	-2.5209492072e-02, -1.7993271351e-01, -8.1698328257e-02, -2.4864144623e-01,  2.4187391996e-01, -8.0117441714e-02,  1.7996948957e-01, -2.2443467379e-01,  1.7166821659e-01, -3.1413949910e-04, 
	 1.1509242654e-01,  4.8219342716e-03,  1.0355266929e-01,  2.6550504565e-01, -1.3358072937e-01,  2.0030613989e-02, -1.6056562960e-01, -1.1492350698e-01,  9.8532430828e-02,  8.5185796022e-02, 
	-4.2529210448e-02,  1.7726223171e-01, -5.7778459042e-02, -6.6694475710e-02, -4.6622045338e-02, -3.1134220958e-01, -2.8086373210e-01, -4.2685106397e-02,  1.0049739480e-01,  1.9842304289e-02, 
	-6.7052096128e-03,  9.9436137825e-03,  6.7916646600e-02, -2.4971817620e-03,  8.5004851222e-02,  6.0065764934e-02, -3.3115364611e-02, -1.6018672287e-01, -1.4349365607e-02, -2.3509514332e-01, 
	-8.6500778794e-02, -2.1385667846e-02,  1.3007336855e-01, -4.3171018362e-02,  4.1381907463e-01, -1.6895715892e-01, -5.4657518864e-02,  1.2709191442e-01,  6.9787703454e-02, -9.0987607837e-02, 
	 3.3619917929e-02,  2.2239118814e-01, -1.6874847934e-02,  1.8675604463e-01, -1.0719391704e-01, -1.7861065269e-01,  5.1362521946e-02,  5.6620124727e-02, -3.0118852854e-02, -1.6258083284e-01, 
	-1.0866419226e-01, -6.9597810507e-02, -1.7082929611e-02, -4.7974217683e-02, -7.3036693037e-02, -6.4741253853e-02, -2.5672683492e-02, -1.1035526544e-01, -4.6924747527e-02,  1.4568456449e-02, 
	 1.3931034505e-01,  1.7724464834e-01,  1.0594988614e-01,  4.6016614884e-02,  1.9844581187e-01,  4.7075133771e-02, -2.2515374422e-01, -9.9437735975e-02, -2.2486551106e-01, -3.5710398108e-02, 
	-1.8537506461e-01,  6.8209886551e-02, -1.2875920534e-01,  6.1571437865e-02, -2.7375468984e-02, -1.5497409739e-02, -2.9372354038e-03, -1.6177000478e-02,  4.7001015395e-02,  2.6340978220e-02, 
	 7.1114026010e-02, -6.8568170536e-04,  1.9243789837e-02, -6.8881049752e-02, -5.9481717646e-02,  3.4785427153e-02,  1.2579669058e-01,  7.5234383345e-02,  1.0730566829e-01,  2.0811799169e-01, 
	 7.9974316061e-02,  1.3810002804e-01, -2.9748536646e-02, -3.8970448077e-02,  7.5035914779e-02, -1.2169012800e-02, -5.8884635568e-02, -8.1121601164e-02,  1.6008456051e-01, -4.7101903707e-02, 
	-3.7594676018e-02,  5.5246118456e-02,  2.2837966681e-01, -6.4086183906e-02,  9.1054134071e-02, -1.8589818478e-01, -1.8977850676e-01, -2.9578825831e-01, -8.2830563188e-03, -1.0365495831e-01, 
	 1.1942364275e-01, -9.2657670379e-02,  1.5672843903e-02, -3.0209720135e-02, -5.7745199651e-02,  6.8995743990e-02,  3.1224351376e-02, -1.1246442050e-01,  7.1999812499e-03,  9.2152506113e-02, 
	 8.1639915705e-02, -2.8184363618e-02, -5.9115648270e-02, -2.0897838473e-01, -3.5955330729e-01,  1.0801158845e-01, -6.7085079849e-02, -5.4045017809e-02, -1.6104996204e-02, -1.7599298060e-01, 
	 4.9387205392e-02, -3.2309681177e-01,  2.1776629984e-01, -2.9081089422e-02,  5.2963007241e-02,  1.2129175663e-01,  5.7945650071e-02, -8.0478519201e-02,  1.8803210557e-01, -2.4309784174e-02, 
	-1.6355598345e-02, -6.0957875103e-03, -1.0572805256e-01, -6.2078371644e-02,  8.9754365385e-02, -9.6525140107e-02, -1.3550330698e-01,  7.0783533156e-02,  7.3557063937e-02, -1.5763661265e-01, 
	 6.9142602384e-02,  1.6727618873e-01, -5.0739888102e-03,  2.8778098524e-02, -2.0036673546e-01, -1.7894642660e-03,  6.8606264889e-02,  4.3674089015e-02, -6.2565825880e-02, -2.5207944214e-02, 
	 6.1740055680e-02,  1.6759986058e-02,  2.6982141659e-02, -2.8824296594e-01, -6.1552370898e-03, -6.1599712819e-02, -2.0390820503e-01,  8.7761931121e-02,  7.5008501299e-03, -1.1112307757e-01, 
	-8.8898226619e-02, -1.2373882532e-01, -8.1028990448e-02, -1.3725720346e-01, -2.6541456580e-01,  7.0890963078e-02, -7.5768060982e-02, -6.8319864571e-02, -4.2072266340e-02,  3.2951120287e-02, 
	 6.3670739532e-02,  3.2279297709e-02,  1.3829946518e-01, -2.4866851047e-02, -4.3775051832e-02, -3.2808389515e-02, -3.1841027737e-01, -2.6944571733e-01, -6.2242519110e-02, -8.8323101401e-02, 
	-3.4273192286e-02,  1.4261598885e-01, -2.8562162071e-02,  3.4210439771e-03,  5.3560528904e-02,  1.2125477940e-01,  2.4093195796e-02, -4.8899807036e-02,  4.5361153781e-02,  2.8345860541e-02, 
	-1.2673400342e-01, -6.5400198102e-02, -2.8283753991e-01, -2.8917703032e-01, -2.1480789781e-01,  7.6014008373e-03,  1.4511954784e-01,  1.7567571998e-01,  9.2200301588e-02,  4.6099312603e-02, 
	-2.2153563797e-01, -1.2100681663e-01, -2.2844283283e-01, -5.0986964256e-02,  1.9662524760e-01,  1.0950287431e-01, -1.4133064449e-01, -6.0198709369e-02,  2.5001460686e-02, -2.2872841358e-01, 
	-2.1371519566e-01, -2.7801895142e-01,  8.3584643900e-02, -8.3977706730e-02,  1.8125548959e-01, -9.5548361540e-02,  8.4537811577e-02,  2.4049850181e-02, -9.0260088444e-02, -7.9917170107e-02, 
	 8.6666885763e-03, -3.1476363540e-02, -1.2098271400e-02,  9.5955327153e-02,  5.2452897653e-03,  8.1543058157e-02,  6.6392645240e-02,  1.4686409384e-02,  4.7610536218e-02, -1.9126681983e-01, 
	 1.1534969509e-01,  9.7890421748e-02, -8.2901410758e-02, -2.6164646260e-04,  6.2492671423e-03, -5.2386415191e-03,  9.1042660177e-02, -2.1934655961e-03,  3.7165712565e-02,  1.2637384236e-01, 
	 7.1855425835e-02,  7.4903063476e-02, -1.1968096718e-02,  3.2999720424e-02, -6.8446166813e-02,  1.2666609138e-02,  1.4880181989e-03, -4.9392547458e-02,  1.3725580275e-01, -9.6416160464e-02, 
	 2.5815861300e-02, -1.3053992391e-01,  1.4852006733e-01, -2.5341305882e-02,  1.1671622843e-01, -1.4458554983e-01, -1.3784047961e-01,  3.0158352107e-02,  9.5124326646e-02,  8.9556514286e-04, 
	 1.8346944451e-01,  3.3401366323e-02,  1.3648244739e-01, -1.5677128732e-01, -5.8423258364e-02,  7.9109333456e-02, -5.7289417833e-02,  3.0575608835e-02, -8.2353707403e-03,  1.4923542738e-01, 
	 5.7045299560e-02,  5.4180290550e-02, -2.1049104631e-01, -1.1903242767e-01,  8.0236218870e-02, -2.3164144158e-01, -1.2171902508e-01, -1.6533803940e-01, -1.5852096677e-01, -2.0300383866e-01, 
	-1.2413445115e-01, -6.7876558751e-03,  9.3361347914e-02, -1.9265148789e-02, -4.6594787389e-02, -2.2272014618e-01,  2.8953677043e-02, -5.7836463675e-03, -1.5066216886e-01, -1.5599431098e-01, 
};

const float layer_40_conv2d_transpose_bias[UNET_PAR_40_CONV2D_TRANSPOSE_OUT_FILTER] = {
	-2.6139942929e-04,  8.6176187324e-05,  4.1904166574e-04, -4.6120758634e-04,  1.1553566765e-05,  9.6991861938e-05,  1.8535632989e-04, -7.5640717114e-05,  2.4047266925e-04, -9.5729075838e-05, 
};


#endif
