#ifndef PARAMS_CONV2D_21_H
#define PARAMS_CONV2D_21_H
#include "params.h"

const float layer_21_conv2d_weight[UNET_PAR_21_CONV2D_KERNEL_Y*UNET_PAR_21_CONV2D_KERNEL_X*UNET_PAR_21_CONV2D_IN_FILTER*UNET_PAR_21_CONV2D_OUT_FILTER] = {
	-3.0469594523e-02,  2.9513670132e-02,  5.5465761572e-02, -3.2481312752e-02, -1.0152882338e-01, -1.1731269769e-02, -8.0245196819e-02, -6.7962430418e-02,  8.2563914359e-02, -3.8353879005e-02, 
	-8.9160576463e-03,  1.3881261647e-01, -1.3480982184e-01, -5.4435972124e-03,  2.3337967694e-02, -2.2567046806e-02, -3.6576762795e-02, -2.3857448250e-02,  7.0838153362e-02,  9.0240657330e-02, 
	 2.6475214958e-01, -1.1152914912e-01, -6.9225151092e-03,  1.1034151167e-01, -1.7384451628e-01, -1.3793729246e-02,  1.3678857684e-01,  1.9119234383e-01,  1.6221152246e-01,  2.3070508242e-01, 
	 8.5107401013e-02,  1.0777560622e-01,  1.8324908614e-01,  9.6325889230e-02,  1.0142201930e-01,  1.9810803235e-01, -7.3659263551e-02, -9.2064909637e-02,  4.7458786517e-02, -1.5196727216e-01, 
	-9.3147866428e-02,  8.3874590695e-02, -8.5226520896e-02, -4.9713261425e-02,  4.8435095698e-02, -2.1994464099e-01, -9.4035461545e-02, -1.6268756986e-01, -3.3815552015e-03, -1.2273608893e-01, 
	-8.9676275849e-02,  7.4984699488e-02,  3.7794075906e-02, -1.1754969507e-01,  9.8080895841e-02, -5.9691077331e-04, -9.0050846338e-03, -6.0317300260e-02, -4.1879363358e-02, -5.3642310202e-02, 
	-1.7879462242e-01, -1.9640392065e-01, -9.4628445804e-02,  2.3019073531e-02,  3.8417767733e-02, -1.2816424714e-04,  1.0285567492e-01,  6.9899978116e-03,  7.2110742331e-02,  7.1920767426e-02, 
	 4.2674727738e-02,  9.1197349131e-02, -4.5165620744e-02,  8.9178100228e-02,  1.1593883485e-01, -2.5129827857e-01, -5.5192872882e-02,  7.5873318128e-03, -3.9848211408e-01, -1.5284098685e-01, 
	 7.6505141333e-03,  1.1396611482e-01,  4.8357829452e-02, -4.1533011943e-02,  7.4521854520e-02,  1.9442031160e-02, -5.8548867702e-02,  8.3752937615e-02, -3.6055631936e-02, -1.1831707507e-01, 
	-9.4635479152e-02, -1.0534838587e-01, -7.2561047971e-02,  1.1613640003e-02, -2.0636545960e-03, -1.7860401422e-02,  1.5161167085e-01,  7.8721702099e-02,  2.5638067164e-03, -2.3635819554e-01, 
	-1.8014158309e-01, -1.9089877605e-01, -1.5011830628e-01, -1.7396229506e-01, -1.2712974846e-01, -5.4538790137e-02,  2.4022793397e-02, -8.9911960065e-02,  2.3541467264e-02, -4.3762832880e-02, 
	-5.5670067668e-02, -6.8902485073e-02, -1.2706814706e-01, -2.6229277253e-01, -2.5625464320e-01, -3.8931840658e-01, -3.5170871019e-01,  3.5213485360e-01,  2.2949799895e-01,  2.3864684999e-01, 
	 1.0614359379e-01,  1.1348616332e-01,  2.3652741313e-01, -1.2805539370e-01, -4.2173262686e-02,  1.0044509172e-01, -1.6442650929e-02,  9.4644449651e-02,  5.2954588085e-02,  6.0281399637e-02, 
	 2.4646162987e-02,  5.2834160626e-02,  5.0577778369e-02,  2.4805057794e-02,  1.8799573183e-02, -9.7603209317e-02, -2.1070926450e-03, -1.7278738320e-02, -5.6042738259e-02, -4.7148264945e-02, 
	 9.3118332326e-02, -8.6346585304e-03,  8.2247115672e-02,  1.3845622540e-01, -3.0107232928e-01, -4.4494941831e-01, -4.2953971028e-01, -2.6114386320e-01, -2.9543906450e-01, -3.7622597814e-01, 
	-2.2199854255e-01, -2.0259542763e-01, -3.2840788364e-01,  8.4016714245e-03,  1.2714412995e-02,  4.5428656042e-02, -3.7675239146e-02,  9.4750948250e-02,  1.6987565160e-01,  1.7988346517e-02, 
	 1.2565965950e-01,  1.8127438426e-01, -1.6778059304e-01, -1.2652164698e-01, -9.6173547208e-02, -1.5169975162e-01, -1.2731920183e-01, -1.3561964035e-01, -1.3262733817e-01, -2.2836810350e-01, 
	-1.6747604311e-01, -7.2215937078e-02, -1.1714202166e-01, -1.5136510134e-01, -4.3635562062e-02, -4.8513855785e-02, -1.1164372414e-01,  2.1549236029e-02,  4.5479000546e-03, -6.4734235406e-02, 
	 1.2351820618e-01, -6.6800676286e-02, -1.4563392103e-01,  1.7002083361e-01, -1.1703283526e-02, -1.7538197339e-01,  2.9201392084e-02, -2.2825814784e-02, -8.1076040864e-02, -8.1749364734e-02, 
	 2.6638645679e-02, -1.6692060977e-02,  1.0432388633e-02,  1.7905597342e-03,  3.6583904177e-02, -1.4797071926e-02, -6.2913864851e-02, -4.8951320350e-02, -1.5075992048e-01, -1.0968524218e-01, 
	 5.5912393145e-03, -4.2898792773e-02,  1.0058195889e-01,  1.2013533711e-01, -4.4224303216e-02,  1.0071344674e-01,  1.2619847059e-01, -3.1957009435e-01, -1.6427676380e-01, -9.7330018878e-02, 
	-2.2918938100e-01, -2.3062174022e-01, -2.4553990364e-01, -1.8929596245e-01, -2.3022501171e-01, -1.8882222474e-01,  1.4583671093e-01,  1.5791621804e-01,  1.4430965483e-01,  3.6651276052e-02, 
	 1.3745441101e-02, -2.7212161571e-02,  1.6503987834e-02, -1.2104556710e-01, -9.5583446324e-02, -4.0619537234e-02, -1.6631563194e-03,  5.4527193308e-02, -1.0437286645e-01, -1.3089267910e-01, 
	-1.2864944339e-01, -1.3104754686e-01, -9.9291451275e-02, -1.5836383402e-01, -2.0461823046e-01, -1.2398547679e-01,  5.1113855094e-02, -8.5046850145e-02, -1.3969219290e-02,  1.3256543875e-01, 
	 5.8611873537e-02,  1.0353717208e-01,  2.2361849248e-01,  2.6051792502e-01,  3.2219025493e-01,  8.7586931884e-02,  7.1244254708e-02,  1.3105700910e-01, -1.1523038149e-01, -2.5392964482e-01, 
	-1.4195170999e-01, -2.5468510389e-01,  8.7754793465e-02,  1.2571130693e-01,  9.4286091626e-02,  2.0331690088e-02,  9.8943613470e-02,  4.5016661286e-02,  1.1115117371e-01,  6.6676586866e-02, 
	 1.4109893702e-02,  3.2046571374e-02,  3.3660199493e-02, -5.4410938174e-02,  6.0453820974e-02, -6.8407364190e-02, -9.9555581808e-02, -1.3888722658e-01, -8.2790471613e-02, -1.3699403405e-01, 
	-5.7565998286e-02,  4.4108591974e-03,  8.7923660874e-02,  7.0590786636e-02,  9.7836561501e-02,  1.1683427542e-01,  1.0971094668e-01,  1.9731760025e-01,  2.1302860975e-01,  4.4613879174e-02, 
	-8.5055954754e-02, -1.1200957000e-01,  1.5438714623e-01, -5.3031452000e-02, -1.1165712029e-01,  1.2989571691e-01,  6.9356068969e-02,  8.9511275291e-03,  1.5284651890e-02,  5.6244872510e-02, 
	 6.6313646734e-02, -5.7400185615e-02,  6.3146972097e-03,  4.4700402766e-02, -8.4607690573e-02, -5.8692861348e-02, -3.0621369369e-03, -1.3509158790e-01, -9.6687681973e-02, -2.1204085648e-01, 
	-6.3299141824e-02, -2.2402862087e-02,  1.0786722414e-02, -2.8713033535e-03,  1.0636820458e-02, -9.9348677322e-03, -8.8305119425e-03, -9.1222882271e-02, -8.4260012954e-03,  7.7778333798e-03, 
	 3.0118549243e-02,  2.5456247851e-02, -6.5156199038e-02, -3.3176131546e-02,  1.2991036475e-01,  7.8917600214e-02, -2.6217469946e-02,  9.9926456809e-02,  1.6887327656e-02,  3.3933065832e-02, 
	 9.1532863677e-02,  8.5404021665e-03,  8.9518316090e-02,  8.8129498065e-02, -7.1844182909e-02, -7.9606339335e-02, -7.6874174178e-02, -5.8952290565e-02, -8.4574468434e-02, -1.4901576936e-01, 
	-2.4969574064e-02, -7.3164887726e-02, -7.7424660325e-02,  1.8556651473e-01,  2.0664022863e-01,  8.0189824104e-02,  1.3717478514e-01,  2.7306511998e-02,  4.5718804002e-02, -1.4793212526e-02, 
	-3.7665635347e-02, -1.0149246082e-02, -3.2199300826e-02, -7.0059299469e-02, -1.1495115608e-01,  1.1602949351e-01,  6.5581217408e-02, -5.9149865061e-02,  2.4494928122e-01,  1.8431773782e-01, 
	 1.8522956967e-01, -2.3865015805e-01, -2.3244090378e-01, -2.4144479632e-01, -1.8183776736e-01, -6.1257258058e-02, -9.2146925628e-02, -1.2176871300e-02,  8.0045402050e-02, -4.8688802868e-02, 
	-1.2398196012e-01, -1.7491638660e-01, -2.1625722945e-01, -7.4375852942e-02, -7.8939616680e-02, -1.1856319010e-01, -2.1744998172e-02, -1.0002162308e-01, -1.1849655211e-01, -6.0060981661e-02, 
	-1.7926231027e-02, -5.2380450070e-02,  2.6007175446e-02,  1.0415882617e-01,  7.8605681658e-02,  8.7784916162e-02,  2.1855865419e-01,  1.7045181990e-01, -2.3285660893e-02, -1.3968682289e-01, 
	-8.9274100959e-02, -6.7308902740e-02,  6.4923330210e-03, -1.1559647508e-02, -3.2225127798e-03,  3.5293828696e-02,  9.9639743567e-03, -2.3650071025e-01, -1.1954572797e-01,  1.5205711126e-01, 
	-2.9797565937e-01, -2.1994403005e-01,  9.2900626361e-02, -5.9133641422e-02, -2.4399521947e-01,  1.1055572331e-01, -2.6002195477e-01, -2.0158413053e-01, -7.1073755622e-02, -2.9613193870e-01, 
	-2.3954515159e-01, -5.7898908854e-02, -3.8795965910e-01, -2.3729461432e-01, -1.1975119263e-01, -7.1979843080e-02,  4.2899999768e-02,  1.2435570359e-01, -1.6076703370e-01,  2.6335461065e-02, 
	 1.2942710519e-01, -1.4914453030e-01, -5.4276682436e-02,  2.9752446339e-02,  1.0676135123e-01,  2.3237477988e-02,  9.4299562275e-02,  2.1082708612e-02,  8.6622200906e-02,  5.9316869825e-02, 
	 5.8088537306e-02,  1.5228618681e-01,  8.4797076881e-02,  5.3347293288e-02, -2.0083075762e-01, -7.1264632046e-02,  7.5919687748e-02,  9.1801069677e-02,  6.3807733357e-02,  6.9717966020e-02, 
	-1.2431841344e-02, -6.8771806546e-03, -2.2126221657e-01, -5.6626260281e-02,  1.5331938863e-01, -1.6785611212e-01,  9.2301495373e-02,  2.7894091606e-01, -4.6085756272e-02,  1.4901201427e-01, 
	 3.3089834452e-01, -1.2383303605e-02, -1.2858654372e-02, -1.3208995573e-02,  1.6602655873e-02, -1.3000586070e-02, -7.7507942915e-02, -2.9433811083e-02, -2.6244757697e-02, -1.0818559676e-01, 
	-7.5037799776e-02,  2.0498087630e-02,  1.1042959057e-02, -7.9792663455e-02,  3.8412488066e-03,  8.9366883039e-02, -1.6361184418e-01,  2.1542340517e-02,  1.2298285961e-01,  6.2897577882e-02, 
	-4.0662880056e-03, -4.5354850590e-02,  1.3320642710e-01,  4.4120572507e-02,  1.9987817854e-02,  1.4514492452e-01,  1.3763713837e-01, -4.4117160141e-03, -4.7050502151e-02,  1.1630440131e-02, 
	-2.6681406889e-03,  6.0305047780e-02,  7.7191889286e-02,  4.4733870775e-02,  4.2298074812e-02,  3.5780705512e-03, -3.7926465273e-02,  6.9719992578e-02,  7.6391093433e-02,  9.7142420709e-02, 
	 1.5327336732e-03,  7.9239048064e-02, -9.0393321589e-03, -3.5306174308e-02, -4.2617809027e-02,  3.5291068256e-02, -3.5075414181e-01, -3.9382615685e-01, -6.3137775660e-01, -1.5687072277e-01, 
	-1.0009709746e-01, -2.7982869744e-01,  7.1399033070e-02,  1.1376503110e-01,  5.3291838616e-02,  9.0858153999e-02,  4.8997066915e-02,  8.2205548882e-02,  1.1299739778e-01,  1.3114212453e-01, 
	 1.4868114889e-01,  7.3712751269e-02,  1.1620399356e-01,  1.3390694559e-01,  6.0489284806e-04,  3.6986883730e-02,  1.7005318403e-01, -2.7490492910e-02, -5.8044720441e-02,  8.0368377268e-02, 
	 3.2789360732e-02, -5.6498009712e-02,  9.3588061631e-02, -4.6985305846e-02, -5.0757631660e-02,  6.9286622107e-02, -9.3053758144e-02, -1.2304820865e-01, -1.5436065383e-02, -4.9537402391e-01, 
	-3.1519374251e-01, -1.2139205635e-01,  6.5775886178e-02,  9.6836602315e-03, -9.0347826481e-03, -9.1081641614e-02, -1.5698615462e-02,  4.4059876353e-02, -1.3825033605e-01, -9.0177997947e-02, 
	-1.3201892376e-01, -1.8281498924e-02,  7.1042333730e-03, -6.9168210030e-02, -1.1911129579e-02,  1.8833857030e-02, -1.7591622472e-01,  9.1624744236e-02, -1.0662661493e-01, -1.3480280340e-01, 
	 5.0677489489e-02, -7.1691550314e-02,  1.1410548538e-01, -5.9276964515e-02, -5.3006466478e-02,  5.2667718381e-02, -5.7549159974e-02, -1.4422674477e-01, -7.0416331291e-02,  4.6137999743e-03, 
	-1.0430018604e-01, -2.8962984681e-02, -1.3352563605e-02, -8.1041809171e-03,  8.3825200796e-02, -1.2383575737e-01, -1.5942336619e-01, -5.0213627517e-02,  1.7440904677e-01,  1.4212451875e-01, 
	 7.0115342736e-02,  6.4581729472e-02,  1.5099900961e-01,  2.2073401511e-01, -1.0940784216e-01, -2.2745858878e-02,  1.4752559364e-01,  6.1981607229e-02,  2.2092662752e-02,  1.4826889336e-01, 
	-3.1342975795e-02, -2.1485563368e-02,  1.0227917135e-01, -3.0445838347e-02,  2.1135471761e-02,  4.7431305051e-02,  2.1248945594e-01,  1.0825863481e-01, -8.5353225470e-02,  1.6828365624e-01, 
	-1.0321775824e-01, -4.0939354897e-01,  1.7328236997e-01, -5.0579700619e-02, -4.4395101070e-01, -1.0572957247e-01, -6.4255289733e-02,  9.9402390420e-02, -1.3231247663e-02, -4.9629926682e-02, 
	 7.0990356617e-03, -1.5960764885e-01, -1.6704396904e-01, -6.5797433257e-02, -7.7111326158e-02, -1.0339657217e-01, -2.9277810827e-03, -4.5833036304e-02,  5.8083338663e-03,  1.2525698543e-01, 
	 1.5411110222e-01,  1.2938886881e-01,  1.8849447370e-01, -1.8628062308e-01, -8.7291575968e-02, -1.8583528697e-02, -8.7245732546e-02, -3.6458395422e-02,  5.3560070693e-02, -6.0980055481e-02, 
	-5.4495885968e-02,  5.7589050382e-02, -1.1711426824e-01, -1.5233477950e-01,  4.4153153896e-02, -1.1251564324e-01, -9.6116051078e-02,  2.4978525937e-02, -2.3628832772e-02, -4.7034963965e-02, 
	 8.8799938560e-02, -1.9568452239e-01, -2.3283615708e-01, -8.2255437970e-02, -1.3878178783e-02, -3.1572330743e-02,  2.6971269399e-02,  5.6949634105e-02,  5.8319374919e-02,  9.5763206482e-02, 
	 3.8969623856e-03, -1.2460302562e-01, -3.5592053086e-02, -7.1263931692e-02, -8.5088685155e-02, -1.9243406132e-02, -9.2493496835e-02, -5.6439537555e-02,  6.6214497201e-03,  1.1074926006e-03, 
	 1.1678943411e-02, -1.5163087286e-02, -5.0405804068e-03,  1.0922350921e-03, -7.5408376753e-02,  3.0059586279e-03, -3.3663183451e-02, -3.8960188627e-02, -5.4860156029e-02, -3.4399764263e-04, 
	-1.9628690556e-02, -2.0925663412e-02, -1.9434845075e-02, -4.6274166554e-02, -6.4320012927e-02, -1.4089647681e-02,  1.0407891823e-03,  3.8661159575e-02,  2.8261611238e-02,  8.8040284812e-02, 
	 1.2765698135e-01,  1.2045584619e-01,  9.5356807113e-02,  9.5464780927e-02,  2.5943549350e-02,  6.8739041686e-02,  1.2321976572e-01, -2.7406900190e-03,  5.4757777601e-02,  1.3413329422e-01, 
	 2.5538865477e-02,  1.1637093872e-01,  2.0723205060e-02,  5.3062834777e-03,  9.4501838088e-02, -2.1892751753e-01, -2.4625517428e-01, -9.3505576253e-02, -4.7680627555e-02, -6.4535155892e-02, 
	 2.4822888896e-02,  1.0006702505e-02,  5.6727621704e-02,  5.7920504361e-02, -3.6825854331e-02, -7.8080669045e-02, -4.0919180959e-02,  1.0456645489e-01, -3.4473344684e-02, -4.3284051120e-02, 
	 1.4497166872e-01,  1.1872779578e-01,  5.8944623917e-02, -3.1681813300e-02, -3.3742588013e-02,  2.8965933248e-02,  1.7428494990e-02, -4.6974699944e-02,  1.0073326528e-02, -9.7023881972e-02, 
	-1.2383148074e-02, -2.2829917725e-03, -1.3405415416e-01, -2.1058507264e-01, -2.2715559602e-01, -4.1151832789e-02, -1.0781887919e-01, -5.9154719114e-02,  7.1796990931e-02, -7.3158438317e-03, 
	 6.9862268865e-02,  1.1792006344e-01,  5.9687733650e-02,  1.6065016389e-01, -8.9894168079e-02,  1.4270368963e-02, -2.5202907622e-02, -2.8858768940e-01, -1.4414338768e-01, -1.9652011991e-01, 
	-7.4527755380e-02, -1.3212050498e-01, -6.8029366434e-02, -8.7483823299e-02, -1.1188723147e-01, -1.2077724934e-01, -8.4541030228e-03,  1.4983435161e-02, -6.0532931238e-02, -1.8969081342e-02, 
	-2.9682489112e-02,  1.1010118574e-01, -2.6227837428e-02,  2.7732061222e-02,  2.5425929576e-02,  6.5728716552e-02, -7.8662959859e-03,  6.7400604486e-02,  4.6433378011e-02,  4.7583173960e-02, 
	 2.7318384498e-02,  5.8737248182e-02,  9.2031113803e-02,  7.4741035700e-02,  5.7617362589e-02,  1.9700942561e-02,  9.9994763732e-02,  1.2219386548e-01,  1.7103695869e-01,  7.0381000638e-02, 
	 1.6208177805e-01,  8.5033863783e-02,  1.3989894092e-01,  2.2992095351e-01,  1.9821909070e-01,  6.9970801473e-02,  1.5793947503e-02,  1.1211282574e-02, -1.3851008378e-02, -4.7733145766e-03, 
	 2.9450947419e-02, -2.2526606917e-02, -1.8019249663e-02,  8.9605301619e-03,  2.0417124033e-02,  3.1866189092e-02,  1.4959272929e-02, -2.3917550221e-02,  4.6252515167e-02,  4.7352969646e-02, 
	-6.1513494700e-02,  7.8250572085e-02, -5.0491932780e-02, -5.5842708796e-02, -8.0726824701e-02,  2.7262344956e-02, -1.5713376924e-02, -1.7209517956e-01, -6.0119442642e-03,  4.1066091508e-02, 
	-2.2288719192e-02,  1.5158455074e-01,  2.2782757878e-01, -1.2790944427e-02, -1.0662195832e-01, -1.9954103231e-01, -1.6832392663e-02, -1.0190272331e-01, -2.3166100681e-01, -1.1215972900e-01, 
	-1.1046128720e-01, -1.3987788558e-01,  6.2271997333e-02,  1.4388182759e-01,  2.0512791350e-02,  1.6616211506e-03,  1.9354468212e-02,  6.0424268246e-02,  3.1207118183e-02,  4.2098257691e-02, 
	 2.2487448528e-02, -1.9333046675e-01, -1.6824269295e-01, -5.3506374359e-02, -8.0833837390e-02, -1.5930128098e-01, -8.0447560176e-03, -6.0084976256e-02,  4.8065178096e-02, -3.4873876721e-02, 
	 1.0905952007e-01,  2.8700988740e-02,  1.1863139272e-01,  1.5611611307e-01,  2.4802252650e-01,  2.3446606100e-01,  2.7516299486e-01,  3.0746525526e-01,  3.4296754003e-01, -3.2741524279e-02, 
	-1.4375985600e-02, -4.1704487056e-02,  6.0452069156e-03,  4.3501194566e-02,  4.4338922948e-02,  1.9524682313e-02,  7.8389875591e-02,  3.6583513021e-02, -3.8689967245e-02, -7.2996772826e-02, 
	-1.1533732712e-01,  1.3259193301e-01,  3.7685964257e-02, -1.0984023660e-01,  6.6566385329e-02,  8.1379517913e-02, -3.4678928554e-02, -7.8355669975e-02, -8.6535029113e-02, -3.2628405839e-02, 
	 7.3794354685e-03,  1.9105788320e-02,  6.2156599015e-02, -4.9185683019e-03, -3.0271171127e-03,  5.9227485210e-02,  5.6182760745e-02,  8.2452312112e-02,  1.0855682194e-01,  8.1372400746e-03, 
	 1.0531828739e-02,  1.0178624094e-01, -4.3733965605e-02, -1.6076814383e-02,  9.5460928977e-02, -1.2320839800e-02,  1.0262975097e-01,  7.7642835677e-02, -1.0005937889e-02, -2.3428592831e-02, 
	 7.1535512805e-02,  8.9399050921e-03, -3.2757636160e-02,  3.8545358926e-02, -2.0024286211e-01, -2.4024604261e-01, -2.4694386125e-01, -8.7653025985e-02, -7.7145300806e-02, -1.4857260883e-01, 
	 1.5005204082e-01,  1.3393799961e-01,  1.4439031482e-01,  1.4349319041e-01,  9.6354939044e-02,  3.1220279634e-02,  1.2938117981e-01,  4.0626969188e-02, -6.3123561442e-02,  9.3910597265e-02, 
	 1.0371444374e-01,  2.8176182881e-02, -1.5807792544e-01, -1.9310411066e-02,  4.2742207646e-02, -1.3955913484e-01, -1.0116551816e-01, -1.7815288901e-01, -1.0211771727e-01, -1.2572126091e-01, 
	-1.5284836292e-01, -4.0028568357e-02,  2.1844793111e-02, -1.2815910392e-02, -9.8189830780e-02, -6.9592878222e-02, -4.4807717204e-02, -1.5074881911e-01, -1.3732597232e-01, -3.0049577355e-02, 
	-1.7047287524e-01, -1.2149710208e-02,  1.0755303083e-03, -1.0454948246e-01, -1.9155614078e-01, -1.2612569332e-01, -1.7215195298e-01, -7.6085276902e-02, -7.6270170510e-02, -3.3587131184e-03, 
	-2.4406816810e-03, -1.0293485224e-01,  7.5672208332e-03,  1.4730026014e-02, -9.8663337529e-02, -1.2966643274e-01, -7.3475882411e-02, -1.7464403808e-01, -1.6353541985e-02,  1.9225517288e-02, 
	 7.5139082968e-02, -6.3747964799e-02, -3.3840551972e-02, -4.9732074142e-02, -1.0380227864e-01, -9.5405273139e-02, -1.3185787201e-01, -5.4308563471e-02, -6.3143298030e-02, -9.5598660409e-03, 
	 6.5231502056e-02,  6.4359724522e-02, -1.3574609160e-01,  1.0861811042e-01,  1.4556455612e-01, -8.5605293512e-02,  1.2766928971e-01,  6.9952838123e-02,  1.3412571512e-02,  4.4453933835e-02, 
	-6.2375511043e-03,  4.3295599520e-02, -1.3245026767e-01, -1.6417032480e-01, -8.4572114050e-02,  2.1345986053e-02,  1.6959134489e-02, -6.2411632389e-02, -2.6414992288e-02,  1.1151741259e-02, 
	-2.0564438775e-02,  4.8780549318e-02, -1.8158698454e-02, -5.1653880626e-02, -2.8913281858e-02,  1.5901486576e-01,  1.3708652556e-01,  9.2368260026e-02,  1.8506832421e-01,  4.8205986619e-02, 
	 1.0886467062e-02,  4.5991510153e-02,  2.2140938789e-02,  7.3146000504e-02,  8.1959828734e-02, -5.4860413074e-02,  1.0858123749e-01,  1.2879560888e-01,  3.4666977823e-02, -2.7734180912e-03, 
	 1.1849322915e-01,  1.1174745858e-01, -2.6213356853e-01, -1.4695599675e-01, -1.2583255768e-01, -1.9610290229e-01, -1.0735622048e-01, -4.3888639659e-02,  1.3312464952e-01,  4.9829043448e-02, 
	 1.1115679145e-01, -5.3046148270e-02, -3.3766433597e-02, -5.1248487085e-02,  3.6443531513e-02, -4.2290277779e-02,  4.6797785908e-03,  7.9518584535e-03, -2.3875027895e-02, -8.8699638844e-02, 
	-1.9850717485e-01, -1.6957663000e-01, -2.3311010003e-01, -1.3700816035e-01, -2.0513369143e-01, -2.0128373802e-01, -9.7963310778e-02, -3.0584312975e-02, -1.6571594775e-01,  9.3231692910e-02, 
	 2.1423929930e-01,  1.5676482022e-01,  1.4906477928e-01,  1.2989856303e-01,  1.5269072354e-01,  1.5825305879e-01,  1.1045693606e-01,  2.1417357028e-02,  1.8018044531e-02, -1.8018664792e-02, 
	 5.9851724654e-02,  2.1462537348e-02,  2.7123546228e-02, -2.5845486671e-02,  8.3628498018e-02,  3.7869678345e-03, -4.0239438415e-02, -1.0545168072e-02,  3.0840394902e-04,  5.9750989079e-02, 
	-8.9778341353e-03, -4.1671000421e-02,  5.9396665543e-02, -4.9774353392e-03,  3.2800245099e-03,  4.7640524805e-02,  1.4402300119e-01,  2.1410618722e-01,  9.7587108612e-02,  6.5401778556e-03, 
	 7.4491068721e-02, -3.2653920352e-02, -3.4183852375e-02, -3.5007394850e-02, -1.3243955374e-01,  1.0170505196e-01,  1.1887397617e-01,  6.3391327858e-02,  4.2296353728e-02, -9.4878440723e-03, 
	 2.3466024548e-02, -7.5217068195e-02, -1.3353483379e-01, -7.9317978816e-04,  2.6627589017e-02, -7.1981184185e-02, -3.7022620440e-02, -7.1846164763e-02, -1.5150514431e-02, -4.0532343090e-02, 
	-2.8550174087e-02,  9.2918230221e-03,  2.7373971418e-02,  4.1020724922e-02,  9.9830552936e-02, -1.3368044049e-02,  3.7411887199e-02,  5.5792041123e-02,  8.0138720572e-02,  1.3599257171e-01, 
	 9.1255225241e-02,  1.1980701983e-01, -1.4967852831e-01,  6.7728653550e-02,  1.6306784749e-01, -9.2930741608e-02, -8.9669541921e-04,  2.0730582997e-02,  7.5767963426e-04,  3.6627832800e-02, 
	 5.5637289770e-03, -9.8852261901e-02, -8.6662638932e-03, -2.6660101488e-02,  4.9206335098e-03, -9.1794751585e-02, -7.9818643630e-02, -4.3298613280e-02, -6.9806342945e-03, -8.4544822574e-02, 
	 7.3773384094e-02,  3.2820418477e-02, -9.3120820820e-02, -5.0538610667e-02, -4.3754186481e-02, -4.2441695929e-02, -1.7028041184e-02, -3.7548456341e-02,  9.9220007658e-02, -1.7461223900e-01, 
	-8.4216661751e-02, -8.7106011808e-02, -2.2135521472e-01, -1.0744160414e-01, -1.4904268086e-01, -1.9135949016e-01, -1.1001308262e-01,  1.0785359889e-02, -5.7469781488e-02,  6.4577408135e-02, 
	 1.4608317614e-01, -3.8535010070e-02,  1.1154107749e-01,  1.1975097656e-01, -1.5110076964e-01,  6.9015368819e-02,  1.7641262710e-01,  4.5972060412e-02,  1.4584030025e-02, -1.1859182268e-02, 
	-1.3559722900e-01, -2.7511773631e-02, -2.3050315678e-01, -1.8422172964e-01, -2.8419956565e-01, -2.4947024882e-01,  3.6372905597e-03,  1.3927831315e-02,  6.5450765193e-02,  6.1970353127e-02, 
	 1.0693623126e-01,  1.3590382040e-01,  1.0659831017e-01,  8.2387767732e-02,  2.0287066698e-01,  9.1030344367e-02,  1.1996669322e-01,  1.2056593597e-01,  1.0598514974e-01,  1.5164959431e-01, 
	 7.6996795833e-02,  2.0350089669e-01,  1.0773739964e-01,  1.5045295469e-02, -2.5414286181e-02,  5.7140503079e-02,  9.9182724953e-02,  4.0011212230e-02,  2.2537441924e-02, -2.2625088692e-02, 
	-3.8035925478e-02, -1.2755173258e-02,  3.6581881344e-02,  8.7813004851e-02,  1.4003105462e-01,  8.5286147892e-02, -4.3381411582e-02, -4.9071740359e-02, -1.0705399513e-01, -6.4628361724e-03, 
	-1.2471153587e-01, -1.1646184325e-01, -4.4303536415e-02, -2.1234653890e-02, -5.3211953491e-02, -4.5387275517e-02, -7.6405808330e-02,  5.6119240820e-02, -1.0266661644e-01, -6.7064993083e-02, 
	 5.9445023537e-02, -9.5438025892e-02, -8.0667939037e-03, -6.0451228172e-02, -2.0787240937e-02,  2.9686771333e-02,  3.2286208123e-02,  1.0689035058e-01,  1.1340782046e-01,  9.9313415587e-02, 
	 6.6374659538e-02,  6.9300182164e-02,  1.9541394711e-01,  3.0020817649e-03, -2.3874087259e-02,  2.0810429007e-02, -5.8864988387e-02,  2.5244453922e-02,  3.2334395219e-03,  5.8995861560e-02, 
	 1.2983502448e-01,  6.6504458664e-04,  7.0451777428e-03,  7.1779586375e-02, -5.0646129996e-02,  4.6126618981e-02, -3.3026963472e-02, -1.5823461115e-01,  2.2844749689e-01,  7.2815706953e-03, 
	-6.2640383840e-02,  1.7774672806e-01, -3.1773183495e-02, -1.4526388049e-01,  9.0046068653e-03, -1.7058409750e-01, -2.1553376317e-01, -6.5587140620e-02,  1.9017167389e-02, -2.1646639332e-02, 
	-3.8977939636e-02, -7.9760909081e-02,  1.0576272383e-02, -4.2872693390e-02, -5.4398879409e-02,  2.2335978225e-02, -1.9121367484e-02, -2.6926205028e-03,  7.3835507035e-02, -5.2833933383e-02, 
	-3.8599647582e-02,  1.3885557652e-02, -1.8948057666e-02,  1.6548942775e-02,  1.0968168825e-01, -3.2967758179e-01, -2.8880345821e-01, -1.5551455319e-01, -2.3565334082e-01, -1.6293931007e-01, 
	-1.0742206872e-01, -1.2460386753e-01, -4.3683107942e-02,  2.6458505541e-02,  1.0156334937e-01,  6.2298835255e-03, -2.0897999406e-02,  6.4000554383e-02, -3.6354698241e-02,  2.4044726044e-02, 
	-5.2833605558e-02, -9.5838807523e-02, -1.2392477691e-01,  8.4058992565e-02,  1.5598882735e-01,  1.2877798080e-01,  5.8026582003e-02,  8.5468150675e-02,  1.0215040296e-01,  8.9544877410e-02, 
	-2.2837555036e-02,  6.3962489367e-02, -1.0526244342e-01, -8.9778482914e-02,  1.3607063890e-01, -2.7395090461e-01, -2.0049853623e-01, -1.6880216077e-02, -3.1818437576e-01, -2.1394345164e-01, 
	-1.0362811387e-01,  2.2648088634e-01,  5.6144669652e-02, -6.6280156374e-02, -2.8092176653e-03, -5.6084003299e-02, -1.4659722149e-01, -3.0610930920e-01, -3.4883561730e-01, -3.0790016055e-01, 
	 4.2325012386e-02, -6.5370358527e-02,  1.0096444935e-01,  6.5293968655e-03, -1.9360812381e-02,  1.2156401575e-01, -2.4632820860e-02,  1.2197251432e-02,  1.2586647272e-01, -1.8307067454e-01, 
	-2.2542763501e-02,  2.8323593736e-01, -2.3206400871e-01,  2.8109038249e-02,  2.0244547725e-01, -2.2483433783e-01, -5.8571439236e-02,  9.1646067798e-02, -4.6158976853e-02,  5.9745773673e-02, 
	 5.5016770959e-02,  1.1428824626e-02,  7.9846449196e-02,  1.0140448809e-01, -2.4093884975e-02,  3.6534538958e-03,  1.1371355504e-01, -6.5080064535e-01, -4.0830478072e-01, -1.4606246352e-01, 
	-5.3751885891e-01, -2.0970825851e-01, -3.3917792141e-02, -3.9508804679e-01, -1.2310018390e-01,  1.3682790101e-01, -2.5799460709e-02, -1.0960762203e-01,  1.8161809444e-01, -7.4230305851e-02, 
	-2.6779811829e-02,  1.3739693165e-01,  5.0367418677e-02, -4.2907603085e-02,  1.4718572795e-01, -1.4419341087e-01, -4.0624052286e-02,  3.5129804164e-02, -6.8276733160e-02, -1.4838998020e-01, 
	-1.5743428469e-01, -1.9235533476e-01, -9.1868892312e-02, -1.7776612937e-01, -1.9245442748e-01, -3.3371070027e-01, -9.3742392957e-02, -1.4125174284e-01, -3.4023040533e-01, -9.1278729960e-03, 
	-1.3376061618e-01, -4.1283759475e-01, -1.1216831207e-01, -3.0278753489e-02,  5.1333662122e-02,  1.4954742044e-02,  2.7178850025e-02, -3.6451626569e-02, -2.3523598909e-02,  1.5907164663e-02, 
	-8.8890396059e-02, -6.5849371254e-02, -3.8147732615e-02, -1.2267640233e-01, -3.2029252499e-02, -9.7958914936e-02, -9.5824636519e-02, -5.9456858784e-02,  1.3359777629e-02,  5.1638230681e-02, 
	 1.3288623095e-01,  1.3936403207e-02,  5.5182393640e-02, -6.8324998021e-02, -7.9084180295e-02, -1.3492348790e-01, -2.9996055365e-01, -1.1540901661e-01, -1.6880126297e-01, -2.1020418406e-01, 
	-1.7940463126e-01, -1.2473700941e-01,  1.2703990564e-02, -1.8285863101e-01, -3.2245680690e-02, -6.1110451818e-02, -1.2759095430e-01,  6.1980605125e-02,  2.8558364138e-02,  6.5900146961e-02, 
	 2.0856365561e-02,  8.4576688707e-02,  3.7222493440e-02,  5.7633750141e-02,  1.1226137727e-01, -2.8131958097e-02,  9.8593913019e-02,  1.0518766940e-01,  1.6779276729e-01,  2.7571508288e-01, 
	 2.6474422216e-01,  2.4758030474e-01,  1.5016250312e-01,  1.9166626036e-01,  1.4279276133e-01,  1.8196944892e-01,  1.6672983766e-01,  1.3413402438e-01, -4.9653731287e-02, -4.1286841035e-02, 
	 1.1532390863e-01,  4.4169515371e-02, -1.3151417673e-01,  1.4389039576e-01,  7.8155167401e-02,  2.9328852892e-02,  1.9170358777e-02,  1.5411236882e-01,  6.8841561675e-02,  9.1075487435e-02, 
	-9.7138630226e-03,  6.0477521271e-02,  3.5591438413e-02, -2.5464678183e-02,  3.5444214940e-02, -8.1872403622e-02,  5.7825502008e-02,  3.4947041422e-02, -3.1459126621e-02, -1.2125426438e-03, 
	-4.7226242721e-02,  1.0668036994e-03,  1.3241216540e-01,  9.1927409172e-02, -4.1547868401e-02, -6.6020332277e-02, -1.5997350216e-02, -1.4882187545e-01, -6.6665142775e-02, -4.6055343002e-02, 
	-1.7824891210e-01, -1.0994201899e-01,  3.7821985781e-02, -3.0212253332e-01, -5.7083223015e-02,  1.3862334192e-01, -3.4793892503e-01, -1.2994861603e-01,  1.4811557531e-01, -2.6860541105e-01, 
	-1.1774963886e-01,  1.0998547822e-01,  1.4417614043e-01,  9.4623833895e-02,  1.3058696687e-01,  4.0100716054e-02,  6.8165794946e-03, -1.3007529080e-02,  7.2137363255e-02,  5.2207391709e-02, 
	 6.4775936306e-02,  5.1759418100e-02,  1.0563367046e-02,  1.1939149350e-01,  6.8462863564e-02, -4.1917946190e-02, -3.1182134524e-02, -2.5840498507e-02, -2.5885665789e-02,  4.8794835806e-02, 
	 2.0971021056e-01, -1.2913449667e-02, -1.0910372250e-02,  5.6456703693e-02, -1.1499282718e-01, -5.8373358101e-02, -1.4909559488e-01, -2.4599362910e-01, -9.4461031258e-02,  3.0244143680e-02, 
	 7.7431846876e-04, -2.8586985543e-02, -3.2102014869e-02, -3.5896968096e-02,  2.2767819464e-02, -1.9635707140e-03,  3.5449523479e-02,  3.3836774528e-02, -1.6126987338e-01, -2.8131255507e-01, 
	-2.0483937860e-01, -1.9546352327e-01, -1.1257085949e-01, -1.1568561941e-01, -1.2219343334e-01, -1.0705278814e-01, -1.9634008408e-02, -2.4601075053e-01, -1.6257026792e-01, -5.6611858308e-02, 
	-2.4686589837e-01, -1.3316573203e-01,  1.1870454252e-01, -2.1719959378e-01, -7.9869329929e-02,  6.4324289560e-02,  6.6754944623e-02,  1.0628923029e-01,  1.6203488410e-01,  6.8280056119e-02, 
	 1.1428990215e-01,  8.2021392882e-02,  1.2096076459e-01,  1.8766678870e-01,  1.3772745430e-01, -4.1001144797e-02,  7.4360189028e-03, -6.9853790104e-02, -9.4287350774e-02, -1.0647130758e-01, 
	-7.0202127099e-02, -1.4495714009e-01, -1.9537241757e-01, -1.8655304611e-01,  2.7254953980e-02,  1.0685912520e-01,  5.4464777932e-03,  1.0192366689e-01,  1.3666510582e-01,  4.0717612952e-02, 
	 6.8066038191e-02,  1.3673377037e-01,  1.8847821280e-02, -7.3476471007e-02, -7.8155189753e-02, -9.2011310160e-02, -1.2299616635e-01, -1.4592128992e-01, -9.8459735513e-02, -8.1819660962e-02, 
	-9.9557839334e-02, -3.4711558372e-02, -1.1380254477e-01, -1.1668935418e-01, -2.0411004126e-01, -9.8704822361e-02, -2.1097291261e-02, -1.4725303650e-01, -9.9550411105e-02, -9.9656201899e-02, 
	-1.7461802065e-01,  1.3580150902e-02, -1.7267435789e-02,  6.3786663115e-02,  4.3748322874e-02,  5.5950749665e-02,  2.0466174930e-02, -7.1047488600e-03, -7.2107024491e-02,  7.5760461390e-02, 
	 1.2518453598e-01,  1.5550594032e-01,  5.0091832876e-02,  1.2224526703e-01,  1.1579239368e-01,  2.6097301394e-02, -2.2916100919e-02,  4.6127401292e-03, -2.3060956970e-02, -1.6767221689e-01, 
	-1.1738497019e-01, -2.8196069598e-01, -1.0851670802e-01, -1.3276194036e-01, -1.1071307212e-01, -5.9208299965e-02, -1.5721225739e-01, -1.4669273794e-01, -1.0312860459e-01,  6.2058088370e-03, 
	-1.0961153358e-01, -5.2308905870e-02, -3.4453477710e-03, -6.3547484577e-02, -1.2019976974e-02, -6.6958099604e-02, -8.5482776165e-02, -3.1672499608e-03, -9.2265613377e-02, -2.0131522417e-01, 
	-1.4605721831e-01, -1.7040866613e-01, -2.6516386867e-01, -7.2528392076e-02, -1.2041436136e-01, -1.9855150580e-01,  5.1202531904e-02, -2.6319581084e-03, -1.7912615091e-02,  1.1423867196e-01, 
	 7.8812383115e-02, -4.0926620364e-02,  8.6602121592e-02,  7.3846347630e-02,  4.8896325752e-03,  1.9973918796e-01,  6.0468979180e-02,  1.3153560460e-01,  1.3160051405e-01,  9.3283690512e-02, 
	 1.5251374245e-01,  1.1046450585e-01,  1.5716069937e-01,  1.0350909829e-01, -3.0696365982e-02, -2.1111087874e-02, -1.3258810341e-01,  5.7906489819e-02,  4.6072140336e-02, -1.6292648017e-01, 
	 2.8150539845e-02,  3.5634073429e-03, -1.3719828427e-01,  9.4962611794e-02,  1.4083576202e-01,  2.0807170868e-01,  1.9185437262e-01,  1.8671585619e-01,  2.6785239577e-01,  1.0530996323e-01, 
	 1.0680789500e-01,  1.2710827589e-01, -1.1296740174e-01, -1.7025794089e-01, -2.6846235618e-02, -4.2593631893e-02, -6.8661794066e-02, -8.4832832217e-02, -2.9292580439e-04, -6.4863391221e-02, 
	-1.3115961850e-01, -1.1255684495e-01, -1.0847145319e-01, -8.4010407329e-02, -1.4976714551e-01, -1.0618720949e-01,  1.0067828931e-02, -1.5981334448e-01, -9.4375208020e-02,  4.7727461904e-02, 
	 1.1296883970e-01, -7.6923586428e-02, -2.2034297884e-01,  2.1982720494e-01,  2.8382213786e-02, -1.2232140638e-02,  2.6950323582e-01,  1.2229814380e-01,  2.3669835180e-02,  9.5581881702e-02, 
	 1.8784184754e-01,  3.4788548946e-01,  9.1499835253e-02,  1.3147298992e-01,  2.7083519101e-01, -7.9300478101e-03,  3.4626850393e-03, -1.1879868805e-02, -3.6216403823e-03, -8.5826098919e-02, 
	-7.1599157527e-03, -6.8084031343e-02, -7.4177540839e-02,  1.6247993335e-02,  2.1512210369e-02, -5.9158310294e-02,  4.8388790339e-02,  2.7116961777e-02, -2.0980674773e-02,  1.5710972250e-01, 
	-5.0809912384e-02, -9.8499134183e-02,  6.8480089307e-02, -1.4181107283e-01, -1.8272089958e-01, -8.9266724885e-02, -3.6985826492e-01, -2.5301212072e-01, -1.7384953797e-01, -2.5655055046e-01, 
	-1.4321744442e-01,  1.4017899521e-02, -2.5202194229e-02,  7.0218086243e-02,  1.7295742035e-01, -2.7815273404e-01, -3.6379483342e-01, -7.3249317706e-02, -3.6135140061e-01, -1.5623627603e-01, 
	 1.4564320445e-01, -2.4931603670e-01, -1.2842161953e-01,  2.1543587744e-01, -5.6150425225e-02,  7.4606649578e-02,  9.9251389503e-02,  2.2164730355e-02, -4.1582088917e-02,  4.3687246740e-02, 
	-1.0385372676e-02, -1.0317760520e-02,  3.0529957265e-02, -1.5492549539e-01, -1.2203653902e-01,  2.1274531260e-02, -9.2794336379e-02, -1.1746304482e-01,  9.5998071134e-02, -1.2187049538e-01, 
	-7.2024777532e-02,  4.1989497840e-02, -1.6345025599e-01, -1.5322464705e-01, -4.7986619174e-02, -6.3762955368e-02, -8.3365244791e-04,  7.0125505328e-02,  2.2226098925e-02,  2.7136638761e-01, 
	 2.8341493011e-01, -6.7534990609e-02,  2.7724444866e-02, -3.3488165587e-02, -1.2087545358e-02,  3.3765849657e-03,  3.1214620918e-02, -2.3630395532e-02, -4.9034385011e-03, -1.2943162583e-02, 
	-1.6237700358e-02, -4.3065220118e-02, -8.6018338799e-02,  3.1525678933e-02,  6.4266268164e-03, -1.8178041279e-01, -1.0414727964e-02, -1.0554895550e-01, -9.2460520566e-02, -3.1960287690e-01, 
	-2.1825614572e-01, -1.9287529588e-01, -1.3712707162e-01, -1.7260377109e-01, -1.7324461043e-01,  5.1053920761e-03, -1.3733128086e-02,  1.5275656478e-03, -8.2056850195e-02, -3.4343380481e-02, 
	 1.0354690254e-02, -2.0115840435e-01, -1.3345403969e-01, -1.2120999396e-01, -1.0628706962e-01, -6.8510195706e-04, -4.8821005970e-02,  2.3141263053e-02,  9.0578213334e-02,  8.8356718421e-02, 
	 2.5707621127e-02,  3.4157488495e-02, -4.2951121926e-02, -1.3543561101e-01, -7.3473565280e-02, -1.0162982345e-01,  8.6675196886e-02,  1.5819989145e-01,  1.0061871260e-01,  9.9491529167e-02, 
	 3.5955220461e-02,  1.9032081589e-02,  1.2874352932e-01,  5.2009753883e-02,  1.4295616746e-01, -1.2859907746e-01, -1.4733445644e-01, -2.3375485092e-02, -1.9557292759e-01, -1.4561313391e-01, 
	-9.1839037836e-02, -2.3071335256e-01, -1.8211546540e-01, -1.3741463423e-01, -3.6457229406e-02, -3.0456839129e-02,  5.1181460731e-03,  5.2423797548e-02,  1.9288755953e-02, -6.1466127634e-02, 
	 3.5281933844e-02, -1.9023659406e-03, -7.1534380317e-02, -5.9547819197e-02, -4.7510538250e-02, -9.4922795892e-02,  8.1234477460e-02,  2.2801233456e-02,  1.5276142396e-02,  2.2750093043e-01, 
	 1.5455491841e-01, -6.3196397386e-03, -1.6660848260e-01, -1.7217800021e-01, -1.9983479381e-01, -1.8756766617e-01, -1.0992086679e-01, -7.8055024147e-02, -1.8564644456e-01, -9.1856501997e-02, 
	-1.2300646305e-01, -3.3400496840e-01, -4.1114529967e-01, -4.8136362433e-01, -1.3485103846e-01, -3.0834615231e-01, -4.3918368220e-01, -7.6515734196e-02, -1.9651865959e-01, -3.1533303857e-01, 
	 5.0216432661e-02, -2.4298096076e-02, -1.2380695902e-02,  4.8448625952e-02, -1.0860922746e-02, -4.7376337461e-03,  1.0980794579e-01,  4.3077979237e-02, -5.8981046081e-02, -1.7915822566e-01, 
	-2.4409554899e-01, -2.9854729772e-01, -1.7527529597e-01, -1.7084603012e-01, -3.1905192137e-01, -8.0618619919e-02, -1.3507629931e-01, -2.7220407128e-01,  1.3808412850e-01,  1.5272760391e-01, 
	 4.0555145591e-02,  1.8431508914e-02,  1.0101538897e-01,  7.5981386006e-02, -1.2258598208e-01, -1.0012990236e-01, -9.1588079929e-02, -2.0907813683e-02,  6.4316816628e-02,  5.7819362730e-02, 
	 2.8801582754e-02, -4.8603933305e-02, -1.2461870210e-03, -5.0364099443e-02, -4.6676326543e-02,  7.9235233366e-02,  2.0503588021e-01,  1.9831698388e-02,  1.1712679639e-02,  4.6307642013e-02, 
	-1.9497605041e-02, -7.3156319559e-02,  8.2669734955e-02, -3.9631668478e-02, -1.9840167463e-01, -1.7142403126e-01, -8.4579713643e-02,  7.1615435183e-02, -3.1740838289e-01, -1.7737357318e-01, 
	-1.8851667643e-02, -3.1483006477e-01, -1.4346477389e-01,  6.5579220653e-02,  1.9197118282e-01,  2.4289110303e-01,  1.5027907491e-01, -7.4054710567e-02, -1.2982027605e-02, -1.0516534746e-01, 
	-1.5335397422e-01, -5.1463492215e-02, -1.0004937649e-01,  2.5915017724e-01,  3.4379556775e-01,  2.2591550648e-01,  2.3901467025e-01,  2.4641586840e-01,  1.3483092189e-01,  3.5566717386e-02, 
	 7.0805568248e-03,  7.7622979879e-02, -1.7435123026e-01, -1.9765898585e-01, -1.7983935773e-01,  2.2056662419e-04, -1.5257190168e-01, -6.2071386725e-02,  1.2473632395e-01, -8.6750857532e-02, 
	-4.0843766183e-02, -1.6242071986e-01, -2.3010358214e-01, -1.3624435663e-01, -8.2539126277e-02, -6.8550147116e-02, -1.0870525241e-01,  9.4492308795e-02, -1.7975462601e-02,  5.4565644823e-03, 
	 9.6580535173e-02,  4.7892354429e-02,  8.7865158916e-02,  2.3453389294e-03, -1.7833149061e-02,  7.1628160775e-02,  6.0228243470e-02,  1.9324678928e-02,  8.8083855808e-02, -1.4839215577e-01, 
	-1.7571358383e-01, -1.4849136770e-01,  9.0134896338e-02,  9.9118880928e-02, -9.2696212232e-03,  1.2137569487e-01,  7.0130489767e-02,  6.5664589405e-02,  7.1366168559e-02,  4.4715262949e-02, 
	 1.5994764864e-01,  1.8373963237e-01,  1.2787634134e-01,  1.5889269114e-01,  2.6290151477e-01,  2.7261713147e-01,  2.1120533347e-01, -9.2521205544e-02, -1.5640003979e-01, -8.1331953406e-02, 
	 5.2267730236e-02,  7.7839475125e-03, -3.4622408450e-02,  1.2603515387e-01,  1.4612968266e-01,  3.9141882211e-02,  2.7870282531e-02,  5.6607503444e-02, -5.3899630904e-02,  8.6488239467e-02, 
	 1.5498009510e-02,  1.9264016300e-02,  1.9692149945e-03,  3.9977777749e-02, -6.1171319336e-02, -1.2062619627e-01,  9.1460153461e-02, -2.6639080048e-01, -1.4950008690e-01, -1.8401548266e-01, 
	-4.2152568698e-01, -1.7276240885e-01, -2.2320856154e-01, -4.9266752601e-01,  9.2426367104e-02,  5.1025643945e-02,  6.1193685979e-02,  8.1449508667e-02, -1.8804263324e-02,  6.6418834031e-02, 
	-2.2859472036e-01, -8.1268399954e-02,  1.5634183586e-01, -1.3021834195e-02, -8.4924168885e-02, -5.1112230867e-02, -4.6431880444e-02,  2.5941990316e-02, -8.4862969816e-02, -2.6391649619e-02, 
	 1.1506984942e-02, -8.0744124949e-02, -3.7363938987e-02, -3.2171104103e-02,  2.1064490080e-01, -1.4568503201e-01, -1.1070547998e-01,  1.3755960763e-01, -1.1107616127e-01, -1.9376574457e-01, 
	-3.7834677845e-02,  2.2381436825e-01,  1.3872036338e-01,  1.6812916100e-01,  2.6143440604e-01,  1.0857205093e-01,  5.5993646383e-02,  2.3221713305e-01,  7.9647831619e-02,  1.2148194760e-01, 
	-1.1370897293e-01, -5.6473739445e-02, -1.9044163823e-01, -1.7861311138e-01, -1.2349989265e-01, -1.9600370526e-01, -1.5268345177e-01, -1.7352558672e-01, -2.5045198202e-01, -1.0605827719e-01, 
	-4.7278940678e-02, -3.0794050545e-02,  4.7462545335e-02,  1.9546024501e-02, -2.5060845539e-02,  6.4492464066e-02,  1.2774869800e-01,  8.9320555329e-02, -1.6433703899e-01, -9.0953670442e-02, 
	 3.4442413598e-02, -1.7255492508e-01, -1.6628716886e-01, -3.6887548864e-02, -2.1409031749e-01, -1.7945158482e-01, -6.2680058181e-02, -1.2684631348e-01,  2.8059799224e-02, -2.5758608244e-03, 
	-7.9659417272e-02, -2.9868643731e-02, -1.1536475271e-02,  8.9210331440e-02, -5.0484731793e-02, -3.2970681787e-02,  1.4876808226e-01,  1.3314092159e-01,  1.1637141556e-01,  7.3403425515e-02, 
	 9.1803245246e-02,  8.9586386457e-03,  1.2187090516e-01,  7.0559933782e-02,  4.6190213412e-02,  5.0517190248e-02,  1.5678729862e-02, -6.3176307594e-04,  9.0651482344e-02,  1.2935788371e-02, 
	-4.7547161579e-02,  1.0498419404e-01,  3.5712160170e-02, -5.8189149946e-02, -7.0611685514e-02,  1.1246807873e-01, -1.8949231133e-02,  2.1697515622e-02,  8.7702788413e-02, -1.1452180892e-01, 
	 1.4085076749e-01,  1.0642716289e-01,  7.8446835279e-02, -1.1453116685e-01, -1.6140930355e-01, -1.2727282941e-01, -7.6050564647e-02, -2.3658620194e-02, -1.1427683383e-01,  2.8750834987e-02, 
	 6.0099460185e-02, -1.3700275682e-02, -1.0587640852e-01, -2.0842311904e-02, -4.5194655657e-02, -9.0896144509e-02, -3.7175856531e-02, -9.0707197785e-02,  5.7631287724e-02,  6.3943795860e-02, 
	 1.0357333347e-02, -2.8000093997e-02,  4.1778448969e-02, -5.1189105958e-02, -6.3469879329e-02, -1.1459955573e-01, -7.4286222458e-02,  8.4128715098e-02, -1.3747717254e-02,  1.3817425817e-02, 
	 2.8863447905e-01,  6.8192188628e-03, -2.1267087758e-01,  3.0430486798e-01, -1.3282078505e-01, -3.7399098277e-01,  2.8102703393e-02, -2.9951208830e-01, -4.6390956640e-01,  1.0768937320e-01, 
	 1.1757440120e-01,  8.9408233762e-02,  8.4713421762e-02,  8.2893356681e-02,  3.1511250883e-02,  8.4538878873e-03,  9.0341484174e-03,  7.3913499713e-02,  1.1607617140e-01,  9.0485572815e-02, 
	 1.0055179894e-01, -6.0239218175e-02,  7.4736000970e-03,  5.1471877843e-02, -1.5715935826e-01, -1.1876531690e-01, -3.6199107766e-02, -1.4664755762e-01, -2.0340095460e-01, -3.4527608752e-01, 
	-1.0185538977e-01, -2.2023035586e-01, -3.4611093998e-01, -2.4812767282e-02, -1.4488564432e-01, -1.9496689737e-01,  5.9756353498e-02,  8.8079616427e-02, -6.6527128220e-02,  1.1504819989e-01, 
	-3.7479203194e-02, -1.6988311708e-01,  9.3021921813e-02,  2.1724279970e-02, -3.5957567394e-02,  1.4576122165e-02,  2.2591659799e-02, -3.5296969116e-02, -5.1954168826e-02, -5.3971927613e-02, 
	 1.3455661014e-02, -9.7339905798e-02, -7.6258674264e-02, -8.3546869457e-02,  2.0278362557e-02,  1.1221034080e-01,  5.1267318428e-02,  7.9222738743e-02,  9.6217334270e-02, -3.5934664309e-02, 
	 1.4369198680e-01,  1.2013886124e-01,  4.5878905803e-02, -3.4542164207e-01, -1.8601404130e-01, -1.1732630432e-01, -2.5484347343e-01,  5.2668810822e-03,  5.8598257601e-02, -5.3663779050e-02, 
	 1.0667657852e-01,  1.1719945818e-01,  3.9650145918e-02,  4.1557677090e-02,  9.6532538533e-02,  4.4255055487e-02, -5.2787996829e-02,  1.2530001998e-01,  2.6261607185e-02,  4.2067885399e-02, 
	 4.9611724913e-02, -1.0033743829e-01, -3.1829047948e-02,  9.0526137501e-03, -1.2250246480e-02,  1.7620231956e-02,  7.0185311139e-02,  1.0531087965e-01, -9.7857356071e-02,  1.4756857418e-02, 
	-9.3263961375e-02, -1.1597266048e-01, -2.6062831283e-02, -1.5869183838e-01, -2.1398736537e-01, -6.0429520905e-02, -2.3300622404e-01, -2.4270026386e-01, -5.4191950709e-02, -9.0195350349e-03, 
	-4.9562782049e-02,  2.0161761343e-01, -7.5225368142e-02, -7.4299402535e-02,  2.0676070452e-01, -3.3612012863e-01, -2.0709581673e-01,  5.3137283772e-02, -6.3677234575e-03,  2.6405949146e-02, 
	 3.0774775892e-02, -4.6787951142e-02, -5.5963903666e-02,  6.9538094103e-02,  5.1511518657e-02, -2.7251549065e-02,  1.2732673436e-02, -4.7239875793e-01, -3.1260994077e-01,  2.4923977256e-01, 
	-3.6301094294e-01, -3.2654964924e-01,  3.3018723130e-01, -2.9442158341e-01, -2.3758387566e-01,  2.4473612010e-01, -7.0267464034e-03, -1.0928978026e-01,  5.6975960732e-02, -1.7133235931e-02, 
	-7.3426805437e-02,  6.3056841493e-02, -4.8338759691e-02, -1.2964347377e-02,  1.5067607164e-02,  1.3586105779e-02, -1.8128542230e-02, -3.3478248864e-02,  3.1295858324e-02,  2.0685197785e-02, 
	 4.8404596746e-02, -4.7635033727e-02,  2.2656274959e-02,  5.7648692280e-02, -2.6514291763e-02, -1.8099606037e-02, -6.2582984567e-02, -3.3880218863e-02, -2.4428471923e-02, -7.5408443809e-03, 
	 4.8693127930e-02,  1.2687309086e-01,  2.0094089210e-01,  7.4412673712e-02, -4.8630248755e-02, -1.0564482212e-01,  3.9808351547e-02, -6.4634434879e-02, -1.9919209182e-01,  5.2756626159e-02, 
	-1.1643131822e-01, -2.1157376468e-01,  2.2200448811e-01,  5.3312234581e-02, -7.4825525284e-02,  1.5911403298e-01,  7.9049058259e-02, -8.6661167443e-02, -1.2432031508e-04,  3.6725208163e-02, 
	-4.3162610382e-02,  4.4177085161e-02, -2.4019766599e-02,  5.3285077214e-02, -2.9881730676e-02,  9.8825529218e-02,  9.1895423830e-02, -3.8480993360e-02,  3.7139493972e-02,  1.0538693517e-01, 
	 6.6645309329e-02,  8.2974405959e-03, -8.2682289183e-02, -1.4735923149e-02,  7.9268522561e-02,  1.0429473966e-01,  8.2207389176e-02,  8.2862995565e-02, -3.9882794023e-02, -4.3889693916e-02, 
	-4.5445930213e-02,  1.0904990137e-01, -1.7000680789e-02,  4.1539669037e-02, -3.8129016757e-02,  1.8423706293e-02, -4.1691966355e-02,  1.7286868766e-02, -3.7722731940e-03,  1.6611134633e-02, 
	 1.7666764557e-02, -2.1533332765e-02,  1.3255115598e-02, -1.7919337377e-02, -1.7751513049e-02, -3.7856884301e-02,  5.7300493121e-02, -1.9966801628e-03, -2.3659521714e-02,  7.9310983419e-02, 
	-9.3429200351e-02, -9.6778571606e-02,  1.5414108336e-01, -1.4305254817e-01, -2.1893869340e-01,  6.2436763197e-02, -6.0566850007e-02, -1.2932845950e-01, -1.1298191547e-01, -4.3195795268e-02, 
	-1.1692124605e-01, -5.6499700993e-02, -5.1741130650e-02, -6.1933070421e-02, -2.4575160816e-02,  4.9521598965e-02,  1.0236561298e-01,  1.0040546954e-01,  1.2420520931e-01, -3.3398613334e-02, 
	 6.9945320487e-02,  1.4146271162e-02, -4.7445707023e-02,  8.5236072540e-02, -9.8279841244e-02, -5.9085953981e-02,  2.7408905327e-02, -1.4072127640e-01, -8.3786085248e-02,  1.0749306530e-02, 
	-4.6587131917e-02, -6.6813655198e-02, -3.7402857095e-02, -4.7591265291e-02, -4.8847917467e-02, -2.2576789558e-01, -3.2684158534e-02,  6.8335128017e-03, -2.9997417331e-01, -2.2767503560e-01, 
	-1.3466115296e-01, -3.2812893391e-01,  8.4868915379e-02,  1.1420144886e-01,  1.2610979378e-01,  5.1399119198e-02,  6.6916942596e-02,  1.5587315895e-02, -3.3860150725e-02, -1.1531216651e-01, 
	-1.0168402642e-01, -2.8836213052e-02, -4.7298055142e-02,  5.8378759772e-02, -1.9760733470e-02, -4.0589515120e-02,  8.4023259580e-02, -1.8401646987e-02, -9.5869079232e-02,  9.3083046377e-02, 
	-4.9339044839e-02, -8.4432423115e-02, -1.4641135000e-02, -2.9971092008e-03, -6.7818306386e-02, -7.6398842037e-02, -2.1246036515e-02, -8.2140274346e-02, -9.8772540689e-02, -1.7249616981e-01, 
	-2.1565021574e-01, -2.2720190883e-01, -1.6645281017e-01, -1.0505150259e-01, -6.2337098643e-04, -7.2599448264e-02, -1.0912203044e-01,  1.7443334684e-02,  3.1969815493e-02,  3.6885477602e-02, 
	 6.3013754785e-02, -2.7181070298e-02,  2.3054152727e-02,  1.3089415431e-01, -9.7640492022e-03, -6.1737038195e-02,  5.4813325405e-02, -1.0512324423e-01, -1.1315335333e-01,  1.8492216244e-02, 
	-6.2534414232e-02, -9.9159270525e-02,  4.0511503816e-02, -1.5028758347e-01, -1.3879518211e-01,  7.1641444229e-03, -4.0885273367e-02, -6.8576678634e-02,  8.9820802212e-02, -5.0111547112e-02, 
	 3.9915680885e-02,  7.9803951085e-02,  1.2009435147e-01,  2.2650497034e-02,  1.0914669186e-01, -3.9239522815e-01, -1.6044180095e-01, -1.3280715048e-01, -3.1811231375e-01, -1.9264364243e-01, 
	 3.4299965948e-02, -4.0078751743e-02,  7.8793931752e-03,  1.1342588067e-01,  1.6552475095e-01,  8.3952941000e-02,  6.4711235464e-02,  1.4638315141e-01,  5.8876842260e-02,  1.6425026953e-01, 
	 1.5118105710e-01,  8.2136929035e-02,  8.5308901966e-02, -2.0105144009e-02,  2.6015259791e-03, -2.5654736906e-02, -6.9435410202e-02, -2.0944595337e-02,  7.9416334629e-02, -1.3601633906e-01, 
	-9.0051203966e-02, -4.1885208338e-02,  1.5257014334e-01, -8.4984935820e-03, -5.0440322608e-02,  1.7168472707e-01,  4.9197006971e-02,  2.9842952266e-02,  3.4355041385e-01,  1.9520328939e-01, 
	 9.0530700982e-02,  5.2602048963e-02,  2.1971546113e-02, -2.1518189460e-02, -5.2601969801e-03, -1.5646366775e-01, -1.4742894471e-01, -2.2039598227e-01, -2.0327800512e-01, -2.7626377344e-01, 
	-8.8155090809e-02, -1.0980417952e-02,  8.5279993713e-02, -5.5562257767e-02,  8.5463702679e-02,  1.4575369656e-01,  4.4976886362e-02,  7.6819241047e-02,  1.0759522766e-01,  1.5105226636e-01, 
	 2.0616945624e-01,  1.5416981280e-01, -1.4745625854e-01, -9.1032333672e-02, -1.2732859701e-02, -2.9123824835e-01, -2.2927331924e-01, -2.1417336166e-01,  1.2494905293e-01,  3.3185142279e-01, 
	 3.8573133945e-01,  1.6963782907e-01,  2.5090312958e-01,  2.0948168635e-01,  2.4145897478e-02,  9.8104998469e-02,  8.9916758239e-02, -4.3880950660e-02,  5.5677356431e-04, -1.9351767376e-02, 
	-6.9330339320e-03, -1.5605767258e-03,  2.7731271461e-02, -1.0963955522e-01, -1.0643938184e-01, -5.8360204101e-02, -5.0985734910e-02, -4.3476793915e-02,  3.2160665840e-02, -2.3461954668e-02, 
	-9.1937310994e-02,  8.8525615633e-02,  4.3308973312e-02, -7.6718598604e-02, -4.7365832143e-03,  2.6539346576e-01,  1.6155022383e-01,  2.1147452295e-01,  1.2206171453e-01,  1.4764598012e-01, 
	 1.9426383078e-01,  1.8337497115e-01,  1.8293966353e-01,  1.5464337170e-01,  3.0455040932e-01,  5.8456953615e-02, -9.2140927911e-02,  9.4061776996e-02,  3.0939467251e-02, -5.7402465492e-02, 
	-1.3516670465e-01, -1.2768033147e-01, -1.1741171777e-01, -5.8829709888e-02, -1.3079331815e-01, -3.9879288524e-02, -4.4777300209e-03, -1.9893486053e-02, -1.0316231847e-01, -7.2918392718e-02, 
	-2.9011452571e-02, -3.7685785443e-02,  9.2879466712e-02,  1.2907215953e-01, -6.9475448690e-03,  9.7808226943e-02, -2.2032156587e-02, -8.2408055663e-02,  9.2989452183e-02,  2.8361801058e-02, 
	-2.6636615396e-02, -1.3168276846e-01, -9.9543407559e-02, -1.8745722249e-02,  2.3450879380e-02, -1.0043893009e-01, -5.4370008409e-02,  1.4116328955e-01,  1.3146577775e-01, -1.9708603621e-02, 
	 3.0935977120e-03, -3.0570490286e-02,  1.0383877903e-02, -7.5133614242e-02, -1.4205051586e-02, -4.2175459675e-03, -1.0862321593e-02, -8.0511458218e-02, -2.4642478675e-02, -7.7324725688e-02, 
	-5.1283787936e-02, -9.2150442302e-02,  1.1924550869e-02,  7.9597560689e-03,  4.7653537244e-02,  9.5251113176e-02,  1.2424255162e-01,  2.1006528288e-02,  3.4554132819e-01,  3.1514006853e-01, 
	 1.8071061373e-01,  1.9112586975e-01,  1.2011058629e-01,  3.2304849476e-02, -3.9558741264e-03, -1.3072390854e-01, -9.6497833729e-02, -5.5924106389e-02, -3.0300188810e-02, -8.1210285425e-03, 
	-1.3312013447e-01, -1.1435167491e-01, -1.3094548881e-01, -2.0964056253e-01, -2.3115603626e-01, -1.6203020513e-01,  5.0999265164e-02,  1.6793254018e-01,  1.7138448358e-01,  1.5857717395e-01, 
	 5.5468659848e-02,  1.4917749166e-01,  9.5562621951e-02,  1.6244426370e-01,  1.4585030079e-01,  1.7622271180e-01,  3.7675056607e-02,  6.4501002431e-02,  7.6415680349e-02,  1.0012035072e-01, 
	 1.4001666009e-01,  9.8530231044e-03, -1.0027026758e-02,  1.3226863742e-01,  4.0365718305e-02, -9.5227546990e-03, -5.5971711874e-02, -1.9180221483e-02, -1.4477175474e-01, -1.9742922485e-01, 
	-3.2936945558e-01, -3.3335712552e-01, -3.4266188741e-01, -8.8884411380e-03,  1.0229095817e-02, -1.1496122926e-02,  2.7366043068e-03,  5.7430204004e-02, -1.5796596184e-02,  7.4123889208e-02, 
	 3.0897000805e-02,  4.5938123018e-02, -9.6211232245e-02, -3.4566741437e-02, -8.9676141739e-02,  2.8528360650e-02, -1.8121365458e-02,  1.2018433772e-02,  9.4331949949e-02,  1.0453531146e-01, 
	 8.8502742350e-02,  3.5221323371e-02,  4.6660904773e-03, -2.5458502769e-01,  8.6720660329e-04, -7.5337417424e-02, -2.4937112629e-01, -1.5461054631e-02, -1.7742697895e-01, -4.0541729331e-01, 
	 1.9991146028e-01,  8.5130155087e-02, -1.1010881513e-02,  9.3548797071e-02,  3.5400312394e-02,  4.0578246117e-02, -1.5470509231e-01, -1.8101981282e-01, -7.3649153113e-02,  7.7042236924e-02, 
	 3.3280987293e-02, -5.4621037096e-02,  7.8256212175e-02,  5.0323687494e-02, -4.7779779881e-02,  6.9303981960e-02, -2.7956752107e-02, -2.6512453333e-02,  1.1980264634e-01,  5.9197347611e-02, 
	 5.8695771731e-03,  9.4892330468e-02,  8.0807127059e-02, -4.9009189010e-02,  9.8837457597e-02,  8.0719798803e-02, -4.2062830180e-03, -2.2044666111e-02,  1.3303694129e-01, -2.0766083151e-02, 
	 8.7286785245e-02,  1.6889125109e-01,  7.3878206313e-02,  7.8655168414e-02,  1.7792302370e-01,  1.3531611860e-01,  5.4832294583e-02,  1.3915561140e-01, -4.8604983836e-02, -6.1789721251e-02, 
	 2.4800696410e-03, -5.9652671218e-02,  2.8343377635e-02, -6.5260075033e-02, -2.9349811375e-02, -1.5281873941e-01, -2.2303812206e-01,  7.9155609012e-02, -1.7444717884e-01, -1.6295243800e-01, 
	 2.7897027135e-01, -1.2621659040e-01, -8.0879703164e-02,  1.8205064535e-01,  4.3713813648e-03,  2.1187575161e-01,  9.2658631504e-02, -1.2767221034e-01,  6.1628889292e-02,  1.0262142867e-01, 
	-1.4052666724e-01,  4.9714823253e-03,  1.7203082144e-01, -1.1062460393e-01,  7.8234456480e-02,  5.0933107734e-02, -5.6662123650e-02, -2.1531753242e-02, -5.9503853321e-02,  1.6767603159e-01, 
	 2.9007327557e-01,  4.5131847262e-02, -1.0156039149e-01, -8.8688924909e-02, -2.6795998216e-01, -1.6629929841e-01, -1.7931695282e-01, -2.0119982958e-01, -1.0414434969e-01, -1.3788372278e-01, 
	-2.1831166744e-01, -4.1351582855e-02,  1.6254822910e-01,  2.6624551415e-01,  8.4401898086e-02,  1.1499163508e-01,  1.3915011287e-01,  8.5939802229e-02,  9.3681968749e-02,  1.7341051996e-01, 
	-1.7422556877e-01, -1.1992494017e-01, -6.0113675892e-02, -1.8432247639e-01, -2.4309301749e-02,  2.2178981453e-02, -9.2614971101e-02, -3.0434301123e-02, -5.9244625270e-02, -1.9229063764e-02, 
	-3.7295475602e-02, -1.5712544322e-02, -5.1647461951e-02, -1.0661689937e-01, -1.6958765686e-02, -7.4351921678e-02, -1.0291374475e-01,  2.6420205832e-02, -2.3187316954e-02,  7.5785413384e-02, 
	 7.7678143978e-02, -1.1754627526e-01, -1.3986158371e-01, -7.0632770658e-02, -3.8376441598e-01, -4.1577729583e-01, -2.6329705119e-01, -3.3832675219e-01, -3.5031646490e-01, -2.3356887698e-01, 
	-3.4476250410e-01, -1.7357246578e-01, -2.0629387349e-02, -1.2094299495e-01, -1.0472570360e-01,  1.2597486377e-01, -1.7384131253e-01,  4.2450319976e-02,  1.7321103811e-01, -4.2882721871e-02, 
	 1.4101727307e-01,  3.1849503517e-01,  9.0016156435e-02,  1.2870995700e-01,  3.1919544935e-01, -1.5188951977e-02, -3.6261018366e-02,  7.8487835824e-02, -2.5677399710e-02, -1.2871455401e-02, 
	 8.5792325437e-02, -2.1825779229e-02, -5.4624490440e-02,  4.7584418207e-02, -8.2224562764e-02, -2.2345662117e-01, -5.2390035242e-02, -1.3620275259e-01, -1.6125421226e-01,  1.5258683264e-01, 
	-2.0373305678e-01, -1.9045665860e-01,  2.4961404502e-01, -5.6978955865e-02, -1.2159106880e-01, -2.6579055190e-01,  4.0033966303e-02,  3.3024806529e-02, -2.1639627218e-01, -2.6797601953e-02, 
	 7.0726312697e-02, -1.8363909423e-01, -3.9848748595e-02,  1.5647927299e-02, -7.2917765938e-03, -5.7856518775e-02,  5.5300677195e-03,  1.4680590481e-02, -1.0344562121e-02,  2.8232619166e-02, 
	-3.1270008534e-02, -1.6810312867e-01, -8.6522698402e-02, -1.3965823688e-02, -1.4646179974e-01, -6.0903906822e-02,  6.8035731092e-03,  4.1964706033e-02,  1.5230646729e-01,  7.3520325124e-02, 
	 1.2132330984e-01,  5.7169612497e-02,  1.2402634323e-01,  1.6902749240e-01,  1.5181982517e-01,  2.4190950394e-01,  2.4423867464e-01,  2.0865130424e-01,  2.3141200840e-01, -3.4044604748e-02, 
	-5.7873256505e-02, -1.0768689960e-01,  1.7253734171e-02,  1.3820387423e-02, -6.0591362417e-02,  1.9678902626e-01,  1.2456525117e-01,  1.2246847153e-01,  1.0469688103e-02, -1.0536083020e-02, 
	-4.1057899594e-02,  1.0206157342e-02,  7.8010030091e-02,  3.2612018287e-02,  4.5324984938e-02, -2.0482240245e-02, -4.6134237200e-02,  1.6432989389e-02,  1.3804641366e-01,  6.1577860266e-02, 
	 3.4580074251e-02,  1.8362369388e-02,  2.6188571006e-02,  1.8936207891e-01,  1.3059715927e-01,  9.1386903077e-03, -1.9545519724e-02, -9.1050319374e-02,  3.5684257746e-02, -8.5383757949e-02, 
	-2.8718771413e-02, -2.9777225107e-02, -2.1717768908e-01, -1.9034664333e-01, -8.2212105393e-02, -9.7402833402e-02, -2.9873570427e-02,  4.9323558807e-02,  2.0370377228e-02, -6.9906197488e-02, 
	 5.4737636819e-03, -7.3701977730e-02,  1.9951112568e-02,  4.6353474259e-02,  1.1433012784e-01,  4.2780190706e-02,  1.1834705621e-01, -7.8306443989e-02,  1.5667300671e-02,  2.9466424137e-02, 
	-2.3977994919e-01, -2.6096412539e-01, -2.2920052707e-01,  1.5487751365e-01,  1.5389138460e-01,  3.3224231005e-01,  2.0148517564e-02,  1.1812487245e-01,  2.4820289016e-01,  1.8924135715e-02, 
	 3.7601664662e-02,  1.3798329234e-01, -5.4842062294e-02,  5.9954728931e-02,  2.9321104288e-01, -1.9007621706e-01, -2.3792553693e-02,  1.4038056135e-01, -1.6534754634e-01, -4.3276909739e-02, 
	 6.0983061790e-02, -3.1943194568e-02, -1.4580866694e-01, -8.5378825665e-02, -1.3546974957e-01, -7.3807209730e-02, -6.5681703389e-02, -2.6449477673e-01, -1.4576208591e-01, -1.7603005469e-01, 
	-1.7504967749e-01, -1.2526027858e-02,  9.3784322962e-03, -1.1247270554e-01, -1.2281786650e-01, -6.1025556177e-02, -5.4245885462e-02, -1.8555492163e-01, -1.0123547167e-01, -5.6419815868e-02, 
	-4.8317648470e-03, -4.1253857315e-02, -2.1954049170e-01, -1.2607127428e-01, -1.5877901018e-01, -3.0839514732e-01, -2.2958564758e-01, -1.7913474143e-01,  2.5423541665e-02, -7.6850034297e-02, 
	 5.8166474104e-02,  6.5880127251e-02,  3.1142141670e-02,  1.4467479289e-01,  1.1343809217e-01,  3.9897758514e-02,  8.3483092487e-02,  9.1774106026e-02,  2.7937470004e-02,  9.1132856905e-02, 
	-3.0868299305e-02, -2.7805745602e-01, -2.3016373813e-01, -2.7760994434e-01, -4.0337020159e-01, -4.6369838715e-01,  7.6154835522e-02, -6.2660016119e-02,  3.1035728753e-02,  2.2951232269e-02, 
	 1.2453676760e-01,  1.0217999667e-01,  7.0750504732e-02,  1.3799495995e-01,  1.6741186380e-01,  5.2632980049e-02, -4.1496953927e-03,  5.7203050703e-02, -1.3766929507e-02,  8.8206017390e-03, 
	 4.1832090938e-04, -2.2876766324e-01, -9.5634467900e-02, -6.5468296409e-02, -1.3881462812e-01, -2.7751147747e-01, -1.4474141598e-01,  1.8324322999e-02, -1.1548503302e-02,  1.0197272897e-01, 
	 1.3741227984e-01,  1.6858279705e-01,  1.2106866390e-01, -2.9393780231e-01, -2.4370366335e-01, -3.0587205291e-01, -2.5337129831e-01, -2.0451408625e-01, -2.8704011440e-01, -1.1699035764e-01, 
	-1.1849160492e-01, -2.2074797750e-01, -2.6659050584e-01, -1.9823706150e-01,  1.0082192719e-02, -2.0375178754e-01, -8.8579311967e-02,  5.9226047248e-02, -1.7515870929e-01,  8.8285416365e-02, 
	 2.0898608863e-01,  9.7518056631e-02,  6.2703795731e-02,  2.6183048263e-02,  1.0905755311e-01,  1.4482790232e-01,  7.4060678482e-02,  1.0914938152e-01,  4.6326167881e-02,  5.8754481375e-02, 
	 8.3680421114e-02, -1.0025025345e-02, -6.4992025495e-02, -8.1660240889e-02, -3.0646353960e-02, -2.3803152144e-02, -8.8864266872e-02, -2.8299391270e-02, -1.4011187851e-01,  3.6145996302e-02, 
	 1.0088783503e-01,  5.9464401565e-03, -1.1197231710e-01, -1.2338598073e-01, -1.2971676886e-01, -3.1735472381e-02, -1.0996028036e-01, -1.4436736703e-01,  6.4373873174e-02,  1.0764309019e-01, 
	 1.1786052026e-02,  2.5913028046e-02, -1.5899153426e-02,  7.0175126195e-02, -1.1271162331e-01, -5.8115452528e-02, -8.0293774605e-02,  5.0700977445e-02, -1.8359826878e-02, -5.0144668669e-02, 
	 1.8962252885e-02, -5.3813621402e-02, -5.6068491191e-02, -4.3798953295e-02, -8.4918841720e-02, -9.8318167031e-02,  2.3794826120e-02,  1.6362832859e-02, -2.2461684048e-01,  4.6811677516e-02, 
	-9.4521544874e-02, -1.6240580380e-01, -5.8644849807e-02, -1.7005397007e-02, -3.8612365723e-02, -1.8251733482e-01, -3.2240785658e-02,  1.0581032373e-02, -7.3621496558e-02, -2.8397571295e-02, 
	-1.6670340672e-02,  1.7645116150e-01,  1.5690322220e-01,  5.6258570403e-02,  2.2306319326e-02,  6.8454439752e-03, -2.8637858108e-02,  6.3300475478e-02, -1.3731393032e-02,  3.2286755741e-02, 
	 7.3503084481e-02,  7.4015017599e-03,  4.8801388592e-02,  4.8252969980e-02,  1.0243473947e-01,  3.5806398839e-02, -1.8013607711e-02,  6.0469917953e-03,  1.4715928584e-02,  3.6861490458e-02, 
	-1.2572233565e-02,  7.9182535410e-04, -1.2534643710e-01, -1.3451668620e-01, -1.5463942289e-01, -6.4163632691e-02, -8.6637236178e-02, -6.4455844462e-02, -1.4671538770e-01, -6.3424077816e-03, 
	-2.4345757440e-02, -3.6932134628e-01, -2.3820936680e-01, -7.5664743781e-02, -1.4510130882e-01, -5.3653396666e-02,  2.1557387710e-01, -2.8150849976e-03,  1.7625524104e-01,  1.7590279877e-01, 
	-5.7355068624e-02, -3.6426424980e-02, -1.3068081439e-01, -4.7890082002e-02, -1.1896800995e-01, -1.6159778833e-01,  2.2378435358e-02, -3.9702117443e-02, -4.1987024248e-02, -2.0809155703e-01, 
	-1.3281676173e-01, -5.2736628801e-02, -7.8368522227e-02, -7.9826526344e-02, -2.2939562798e-01, -1.3588829339e-01, -1.0559304804e-01, -1.4814142883e-01, -7.2029784322e-02, -5.9751007706e-02, 
	-1.4980308712e-01, -1.6809143126e-01, -2.8138844296e-02, -9.4355426729e-02, -2.5870847702e-01, -1.6170722246e-01, -1.2866136432e-01,  5.7490258478e-03,  6.2753491104e-02, -4.8869573511e-03, 
	 8.1460207701e-02,  2.3303210735e-02,  1.0946865194e-02,  8.2371063530e-02,  3.7416115403e-02,  6.4272888005e-02, -2.7328273654e-01, -7.6036415994e-02,  1.2242437899e-01, -1.5105599165e-01, 
	-2.9606577009e-02,  1.4456656575e-01,  3.3245861530e-02,  1.0542719066e-01,  1.5044322610e-01, -1.1076533794e-01, -5.9355802834e-02, -2.1025179327e-01, -3.7894006819e-03,  2.2303398699e-02, 
	-8.7455578148e-02,  3.1079534441e-02,  1.8073923886e-02, -1.6199348867e-01, -9.4452649355e-02, -1.1004365236e-01, -3.2318092883e-02, -6.5991237760e-02, -4.9934804440e-02,  1.6553204507e-02, 
	-2.5174925104e-02, -3.7082169205e-02, -4.7113891691e-02, -9.1024383903e-02, -3.2787267119e-02, -3.6123476923e-02, -8.2371860743e-02,  2.7387919836e-03, -4.7497581691e-02, -3.7098522298e-03, 
	-9.5467597246e-02, -6.0252707452e-02, -2.3305749521e-02,  3.8267336786e-02,  1.5138348565e-02, -6.8186961114e-02,  3.7224475294e-02, -3.3530727029e-02, -3.2054293901e-02, -2.4503866211e-02, 
	 3.3730018884e-02,  1.7967876792e-01,  4.4514708221e-02, -1.4949537814e-01,  9.8502732813e-02, -1.0308005847e-02, -9.8892584443e-02,  1.3738583028e-01,  3.9734598249e-02, -6.0534741729e-02, 
	-1.5266512334e-01, -6.1650719494e-02, -1.0162467510e-01, -1.6490416229e-01, -1.4971537888e-01, -1.9363276660e-01, -7.2225578129e-02, -1.3944286108e-01, -1.9720354676e-01, -1.7823946476e-01, 
	-1.5856994689e-01, -1.7631053925e-01, -5.8724391274e-03, -1.0108309984e-01,  2.5453718379e-02,  1.5002064407e-01,  9.3224659562e-02,  5.0139445812e-02,  8.5032796487e-03,  1.3544823043e-02, 
	-9.0115949512e-02, -7.1306437254e-02, -1.9684454426e-02,  6.8633630872e-03, -1.1974351853e-01, -1.1170861870e-01, -1.4850879088e-02, -3.1417094171e-02, -1.0602978617e-01, -8.6546294391e-02, 
	-9.1935573146e-03, -6.7128208466e-03, -1.2512207031e-01, -8.9192405343e-02, -2.7594778687e-02, -1.1171365529e-01, -2.1874250844e-02, -5.7707652450e-02, -8.1441640854e-02, -9.6552751958e-02, 
	-5.9519270435e-03, -6.9226123393e-02, -1.2971370481e-02, -1.2759407051e-02, -5.2394155413e-02, -2.5600397959e-02, -1.1411241256e-02, -6.1902791262e-02, -8.0779306591e-02, -2.8526219539e-03, 
	 1.3877534308e-02, -1.7079800367e-01, -1.8325558305e-01, -1.6950473189e-01,  3.5238720477e-02, -6.0396017507e-03,  1.9816923887e-02,  6.3196294010e-02, -5.9428356588e-02, -8.8766038418e-02, 
	-1.9316375256e-02, -1.3405816630e-02, -7.6990075409e-02,  6.7764595151e-02,  7.7453561127e-02, -2.6945861056e-02,  9.2218048871e-02,  1.1255241185e-01, -1.5777092427e-02,  2.2633964196e-02, 
	 4.6225413680e-02, -5.8137744665e-02,  7.2453834116e-02,  4.0687634610e-03,  1.4964375645e-02, -4.7882962972e-02, -1.5477693081e-01, -8.4548108280e-02, -2.0946379006e-01, -1.2644678354e-01, 
	-1.4011032879e-01, -2.2652266547e-02,  1.9968839362e-02,  4.4800266623e-02,  5.6245406158e-03,  2.1894143894e-02,  9.5504103228e-03, -6.7546240985e-02, -2.6641706005e-02,  9.1675385833e-02, 
	 5.6086879224e-02,  1.6690407693e-01,  9.7205027938e-02,  1.2350250781e-01,  1.7893502116e-01,  1.1569356918e-01,  1.1020912230e-01,  6.1781238765e-02, -2.4105424061e-02, -1.2185794860e-01, 
	-1.6894735396e-01, -2.7419778705e-01, -1.7395058274e-01, -1.7353296280e-01, -2.7967306972e-01, -1.9907309115e-01, -2.1990622580e-01, -2.5946873426e-01, -2.6413613930e-02, -1.2928285636e-02, 
	-1.7376989126e-01, -1.7210043967e-02, -7.4527353048e-02, -1.4212614298e-01, -1.8563637137e-01, -1.7709437013e-01, -2.3497736454e-01,  2.6934584975e-01,  2.2102488205e-02, -1.5318503976e-01, 
	-1.8073357642e-03, -1.8901267648e-01, -3.9912039042e-01, -3.4859895706e-01, -5.7738572359e-01, -7.1867555380e-01,  6.1259925365e-02, -2.3343909532e-02, -1.5049899928e-02, -5.3640931845e-02, 
	 2.9023507610e-02, -8.5465330631e-03,  6.1647512019e-02, -4.2088743299e-02,  2.9849406332e-02,  2.2414777428e-02,  1.2510482967e-01,  1.4960131049e-01, -6.1941768974e-02,  1.6324125230e-02, 
	 4.5179910958e-02, -1.4116545022e-01, -1.6837605834e-01, -1.7034905031e-02,  1.6321749985e-01,  1.3017727435e-01,  1.3011574745e-01,  1.7938850448e-02,  6.4204268157e-02, -7.4398040771e-02, 
	-1.5662169456e-01, -1.6078463197e-01, -6.6389366984e-02,  1.5026369691e-01,  1.9382296503e-01,  8.3605095744e-02,  9.9115364254e-02,  8.8283158839e-03, -6.3122749329e-02,  1.0720822960e-02, 
	-5.6822065264e-02, -2.3000192642e-01,  4.8293735832e-02, -4.6801153570e-02, -4.9132592976e-02,  5.5965343490e-03, -6.3659235835e-02, -9.4833359122e-02, -3.6783017218e-02, -4.2741529644e-02, 
	-7.9979486763e-02,  1.5502797067e-01,  1.8053883314e-01, -1.0606283695e-01,  6.6891081631e-02, -6.1654467136e-02, -3.3019351959e-01, -1.2019106001e-01, -2.2209505737e-01, -4.4400456548e-01, 
	-6.1434455216e-02, -4.2012367398e-02, -3.8773279637e-02,  1.0832099617e-01,  6.5593771636e-02, -7.2773046792e-02,  2.8761562705e-01,  7.1205668151e-02, -1.0486911982e-01, -1.1800397187e-03, 
	 8.3531811833e-02,  4.8901461065e-02,  3.0123986304e-02,  8.7668329477e-02,  8.0506995320e-02,  3.1056506559e-02,  2.8273481876e-02,  6.7406356335e-02,  1.5504117310e-01,  6.7956343293e-02, 
	 2.0267065614e-02, -1.1075703427e-02, -4.1160780936e-02,  5.2064180374e-02, -1.3142420352e-01, -2.4086624384e-01, -5.7439908385e-02,  3.3966630697e-01,  2.2245129943e-01,  2.3222863674e-01, 
	 3.9955225587e-01,  3.5638093948e-01,  2.7636489272e-01,  3.2721212506e-01,  2.9829844832e-01,  2.9166609049e-01,  5.2226308733e-02,  5.6501902640e-02,  1.1520022154e-01,  3.3708270639e-02, 
	 1.6800609231e-01,  3.0824357271e-01,  1.7904551327e-01,  3.4742984176e-01,  4.2325583100e-01, -2.6435244828e-02, -1.9454879686e-02, -1.2973134220e-01, -5.1000542939e-02, -1.8565975130e-02, 
	-6.7483894527e-02, -7.8974097967e-02, -1.1401883513e-01, -1.4102959633e-01, -4.8334155232e-02,  4.1394438595e-02, -1.5016012825e-02, -7.4758246541e-02,  5.9659834951e-02,  2.4533767253e-02, 
	 8.5982326418e-03,  1.6505803913e-02,  6.3813589513e-02,  1.3506585732e-02, -1.8040601164e-02, -9.6945546567e-02, -1.5471003950e-01, -8.6695075035e-02, -8.2102254033e-02, -1.9597172737e-01, 
	-1.9999751449e-01, -9.8445653915e-02,  6.0415394604e-02,  1.9382789731e-01,  4.8326846212e-02,  9.2225506902e-02,  1.2844622135e-01,  4.6574510634e-03,  3.0064521357e-02,  8.7551809847e-02, 
	-1.4369192533e-02, -1.8415492028e-02, -3.5249266773e-02, -8.2286424935e-02, -1.5235500038e-01, -1.3712342083e-01, -4.4015888125e-02, -2.7028945088e-01, -1.0516920686e-01, -6.6928312182e-02, 
	 3.3871237189e-02,  1.9884997606e-01, -8.9012831450e-02,  4.0100254118e-02, -5.9420593083e-02, -2.2638218105e-01, -9.6501328051e-02, -1.1775515974e-01, -2.1614964306e-01, -2.0965902507e-01, 
	-1.9208846986e-01, -3.2047343254e-01, -1.3814777136e-01, -2.8724982403e-03, -1.2575115263e-01, -6.8676203489e-02,  2.2773796320e-01,  1.5765427053e-01,  3.5937897861e-02,  7.2759978473e-02, 
	-5.8004567400e-03,  3.5340037197e-02, -6.6418267787e-02, -1.6427376866e-01,  1.6014413908e-02, -8.0541603267e-02, -4.2832139879e-02, -3.4797856212e-01, -2.6603782177e-01, -4.1970238090e-01, 
	-2.9485832900e-02, -6.2436558306e-02, -1.7612503469e-01, -8.8814578950e-02, -8.5907191038e-02, -2.3303857446e-01,  1.8840114772e-01,  1.6370847821e-01,  8.9483208954e-02,  2.9266871512e-02, 
	 8.8681198657e-02,  8.5090184584e-03, -2.9626458883e-01, -5.6441251189e-02, -9.5585726202e-02,  6.5006531775e-02,  2.8993848246e-03,  2.9041593894e-02, -1.6172491014e-02,  1.9541831687e-02, 
	-1.4756543562e-02, -5.3213634528e-03,  9.1965310276e-03, -4.5202914625e-02,  1.2007354200e-01, -2.5750601664e-02, -8.6921155453e-02,  1.3303048909e-01, -2.2859867662e-02, -2.8586331010e-01, 
	 1.0455808789e-01,  5.2407566458e-02, -2.3371169344e-02, -1.1667332798e-01, -3.9504554123e-02, -1.0303740948e-01, -1.8307043612e-01, -8.3428934216e-02, -1.5038166940e-01, -2.8335237503e-01, 
	-3.4481051564e-01, -2.9828163981e-01, -6.6218048334e-02, -4.1930312291e-03, -1.1300434172e-01,  9.5764743164e-03,  3.0874202028e-02,  3.4177422523e-02,  2.3370342329e-02,  6.3368871808e-02, 
	 7.1831628680e-02,  7.5515478849e-02,  8.5558004677e-02,  9.3327082694e-02,  9.8429478705e-02,  1.1238206178e-01, -2.3211533204e-02,  2.3070638999e-02,  8.6783468723e-02,  3.6477707326e-03, 
	 1.0528993607e-01, -3.6010183394e-02, -1.7830973491e-02,  1.0261318088e-01, -7.3584192432e-03, -5.8443993330e-02,  8.6707554758e-02, -8.5971122608e-03, -1.4022508264e-01,  2.0262533426e-01, 
	 3.7259999663e-02,  1.7771638930e-02,  1.0726357251e-01, -6.1682235450e-02, -1.8326851726e-01, -1.0915277153e-01, -2.4837172031e-01, -3.2303756475e-01, -7.6487742364e-02, -4.1035950184e-02, 
	-4.3307606131e-02, -6.3091568649e-02, -5.8522429317e-02, -6.7724645138e-02, -6.7602269351e-02, -6.7608557642e-02, -9.1399073601e-02,  4.2459197342e-02,  2.8127152473e-02, -8.6570054293e-02, 
	-2.8213383630e-03, -1.4667640440e-02, -1.9097378850e-01, -6.4719028771e-02, -6.2241684645e-02, -9.8056502640e-02,  4.1716247797e-02,  2.5618010759e-01,  1.0036276281e-01,  1.9745242596e-01, 
	 1.6666410863e-01,  1.6697183251e-01,  1.9591096044e-01,  2.8756332397e-01,  1.4043033123e-01,  7.1125634015e-02,  7.4443325400e-02,  1.3637582958e-01, -9.6846841276e-02, -1.0197387077e-02, 
	 5.3094349802e-02, -1.5015399456e-01, -1.3367386535e-02,  6.0259187594e-03,  1.5803074837e-01,  9.6880011261e-02,  1.1088439077e-01,  1.7918166518e-01,  1.8241448700e-01,  1.1311672628e-01, 
	 1.8123175204e-01,  2.6886484027e-01,  1.2914372981e-01,  1.3064973056e-01, -1.3928469270e-02, -1.2529486418e-01,  1.5833115578e-01, -2.9906226322e-02, -1.3896441460e-01,  1.3996352255e-01, 
	-3.5402525216e-02, -2.4693052471e-01, -2.7630940080e-01, -2.9037854075e-01, -2.3077043891e-01, -1.9954855740e-01, -1.4847013354e-01, -1.4367827773e-01,  3.9615500718e-03, -8.5882246494e-03, 
	-1.7221441492e-02, -1.6685257852e-01, -9.9302507937e-02, -8.7249100208e-02, -1.4462944865e-01, -1.1523213983e-01, -8.5484378040e-02, -7.6135687530e-02, -1.0574447364e-01, -9.3324162066e-02, 
	-9.3859538436e-02,  9.3830088153e-03,  4.2737424374e-02,  1.4989358373e-02, -1.1006894708e-01,  4.1745495051e-02, -8.0991066992e-02, -1.1269226670e-01, -2.1013289690e-02,  3.4817841649e-01, 
	 4.2125102878e-01,  5.3239482641e-01,  1.8380369246e-01,  9.9817983806e-02,  3.3665797114e-01, -1.2080924585e-02, -3.2146312296e-02,  1.0141208768e-01,  8.0519899726e-02,  1.0693109035e-01, 
	 2.6136851311e-01,  8.5636980832e-02,  1.1047328822e-02,  3.1702697277e-02,  8.0536626279e-02, -1.0728914291e-01, -2.7410741895e-02,  2.9415247962e-02, -6.2177427113e-02,  5.5637296289e-02, 
	-1.0551659018e-01, -4.9535319209e-02, -7.9348064959e-02, -1.2581764162e-01, -5.3440261632e-02, -2.5555972010e-02, -2.4853635579e-02, -6.2190011144e-02,  7.0898383856e-02, -7.9622022808e-02, 
	-5.7665817440e-02, -3.1643711030e-02, -8.7317928672e-02, -2.1223258972e-01, -2.0524045825e-01,  1.2539477646e-01,  1.1653027683e-01,  2.5556594133e-01,  1.5886425972e-02,  7.3014278896e-03, 
	 1.6728971899e-01, -1.3908280432e-01, -3.9340320975e-02,  9.1051839292e-02,  7.1431204677e-02,  2.4551682174e-02,  4.6301450580e-02,  6.6445924342e-02,  6.8353943527e-02,  4.4962242246e-02, 
	 5.1855631173e-02, -1.1323560961e-02,  1.1323919520e-02,  3.2713901252e-02,  7.0577725768e-02, -4.6673078090e-02,  9.5151714981e-02, -5.9417609125e-02, -1.0278611630e-01,  4.8367828131e-02, 
	 2.5151649490e-02, -4.0935762227e-03,  2.0087296143e-02,  8.2119464874e-02,  1.1542620510e-01,  7.1477621794e-02,  1.1537434161e-01,  1.9008205831e-01,  2.6714304090e-01,  3.0068114400e-01, 
	 2.1475078166e-01,  3.5941321403e-02, -6.0616247356e-03, -6.2880232930e-02,  1.7384508252e-01,  8.2942962646e-02, -5.5188130587e-02,  1.0700909793e-01,  4.7930184752e-02, -1.0869874619e-02, 
	-2.9071073979e-02,  4.3879240751e-02, -1.6524061561e-02,  9.5998622477e-02, -3.8425349630e-03,  8.3126112819e-02,  1.2780557573e-01,  3.2091423869e-02,  4.8974722624e-02, -9.7393028438e-02, 
	-1.4847490005e-02,  1.0341900401e-02, -2.9499361292e-02, -1.1746521294e-01, -1.3811025023e-01,  4.6623535454e-02, -1.8429352343e-01, -7.2329811752e-02, -1.2375287712e-02,  8.8385995477e-03, 
	-4.0467675775e-02, -1.3963703811e-01, -1.0443684459e-01, -1.8480395898e-02, -1.6911584139e-01, -1.2898842990e-01, -8.7106719613e-02, -1.6737805307e-01, -9.8662108183e-02, -8.1960208714e-02, 
	-1.1180580407e-01, -8.6343206465e-02, -7.7043913305e-02, -1.4096188545e-01, -1.4185877144e-01, -7.1979671717e-02, -9.4927296042e-02, -1.7344625667e-02,  8.8658943772e-02, -7.8230127692e-02, 
	-1.1370107532e-01, -6.9786652923e-02, -1.4928236604e-02, -4.5452639461e-02,  8.4382100031e-03, -1.1234758794e-01, -1.4828845859e-01, -2.1315230429e-01, -1.2489958853e-01, -1.4135088027e-01, 
	-9.3857116997e-02, -9.2922709882e-02, -1.5172412992e-01, -7.6517060399e-02,  2.0154651999e-01,  1.1704096198e-01, -5.8079431765e-03,  2.5726872683e-01,  2.4228563905e-01,  1.2653225660e-01, 
	 2.4827371538e-01,  3.1404042244e-01,  2.5288245082e-01,  3.7687085569e-02,  1.1866375804e-01,  3.8502678275e-02, -6.2586933374e-02, -4.0377687663e-02, -3.0972504988e-02, -4.5617308468e-02, 
	-2.6819830760e-02, -3.3113509417e-02, -1.2131925672e-01, -1.9224025309e-01, -1.0140727460e-01, -2.3603773117e-01, -9.2147849500e-02, -1.1044859141e-01, -2.5006234646e-01, -1.2912951410e-01, 
	-8.1117898226e-02,  2.0459170640e-01,  2.1280197799e-01,  1.4042443037e-01,  1.0929470509e-01,  7.4899151921e-02, -3.5310067236e-02, -2.1118324995e-01, -1.9703768194e-01, -1.6443499923e-01, 
	 4.8634726554e-02,  1.5033504367e-01,  9.1535434127e-02,  6.9912649691e-02,  8.7771244347e-02,  1.2917792797e-01,  1.1248973757e-01,  9.3577643856e-03,  1.2592159212e-01,  2.2621488199e-02, 
	 9.4982452691e-02, -6.2344139442e-03,  2.2443704307e-02,  3.5056885332e-02,  1.8912790343e-02, -6.7002303898e-02,  1.8792831106e-03, -9.3137308955e-02,  9.1211743653e-02,  1.7261901870e-02, 
	-1.7811741680e-02,  9.9136196077e-02,  9.9890874699e-03, -9.5500677824e-02,  1.3072055578e-01,  1.5322684310e-02, -1.6435658559e-02, -4.0355298668e-02, -9.9336747080e-03, -4.6486757696e-02, 
	 1.1164635420e-01,  6.7622147501e-02,  1.4825290442e-01,  2.2846949100e-01,  3.7978917360e-02,  1.0704662651e-02,  6.4433634281e-02,  1.5880332887e-01,  2.1208645403e-01,  4.1567131877e-02, 
	 6.6321422346e-03,  8.8295759633e-03,  1.6392711550e-02,  4.1645437479e-02, -3.0651080888e-03, -2.9147133231e-01, -2.7487134933e-01, -3.8749411702e-02, -3.5251566768e-01, -1.1012704670e-01, 
	 6.0691788793e-02, -1.1825883389e-01,  6.8332669325e-03,  6.6054768860e-02,  5.0810363144e-02, -6.0504850000e-02,  4.3802175671e-02,  6.4594931901e-02, -1.8868645653e-02,  1.3775457442e-01, 
	 3.9891809225e-02,  1.1070320383e-02,  9.0540759265e-02, -9.4222098589e-02, -1.1932853609e-01,  2.3380594328e-02, -3.4227002412e-02, -1.2230815738e-01,  2.0216196775e-02, -3.0039481819e-02, 
	-8.2851983607e-03,  4.0090918541e-02, -2.4616998434e-01,  1.6154441983e-02,  1.7459297553e-02, -3.0618773773e-02,  8.1029921770e-02,  5.7899095118e-02,  4.2577721179e-02,  7.9489737749e-02, 
	-3.6571301520e-02,  1.6219323874e-01,  2.3829603195e-01,  2.2658364475e-01,  2.5546348188e-03,  3.3407170326e-02,  8.4886692464e-02, -1.5944969654e-01, -2.0330075920e-01, -1.4340035617e-01, 
	-5.8626506478e-02,  2.3428341374e-02,  1.1163590848e-01, -1.4882124960e-01, -7.6189726591e-02,  1.1245266348e-01, -1.9050070643e-01, -1.3042181730e-01,  8.8993735611e-02, -1.1932497472e-01, 
	-4.2091693729e-02,  4.0713209659e-02, -8.4790408611e-02, -9.3408003449e-02,  1.8403755501e-02, -2.3035478592e-01, -1.5331153572e-01,  1.6700372100e-02, -2.2724473383e-03,  1.3244614005e-01, 
	 1.0991844535e-01,  3.3261727542e-02, -2.9548043385e-02, -3.3763226122e-02,  7.5979232788e-02, -5.3588751704e-02, -7.9304322600e-02,  2.0542326570e-01,  1.3493730128e-01,  8.0013655126e-02, 
	 8.9557416737e-02,  6.1612285674e-02,  1.8060451746e-01,  1.3528782129e-01,  6.0934782028e-02,  1.4585860074e-01,  1.1735890061e-01,  1.1306969821e-01,  3.5034481436e-02,  1.4180453122e-01, 
	 7.9592168331e-02, -3.7329257466e-03,  1.1535654217e-01,  4.6489600092e-02,  1.2157770246e-01, -9.1489441693e-02, -2.3012129590e-02,  9.6104405820e-02, -1.4619038999e-01, -8.1927292049e-02, 
	-7.7695094049e-02, -2.2866064310e-01, -2.4677614868e-01, -2.0210281014e-01, -3.6959829926e-01, -4.1142088175e-01, -4.0579584241e-01, -3.0706077814e-01, -2.3942840099e-01, -1.9148458540e-01, 
	-1.3387465477e-01, -5.2702754736e-02, -1.3633228838e-01, -4.6689201146e-02, -1.5458327532e-01, -2.7914771438e-01,  1.6986361146e-01,  3.0574072152e-02, -1.1733060330e-01,  1.4682401717e-01, 
	 9.4051353633e-02, -9.5618039370e-02, -3.7683509290e-02, -4.7497667372e-02, -5.7688321918e-02,  6.6289186478e-02, -7.2321579792e-03,  6.5302558243e-02,  6.8216430955e-03,  1.0603303462e-01, 
	 3.1245404854e-02,  1.7502417788e-02,  3.6183107644e-02,  1.4020045102e-01, -9.2757992446e-02, -1.2139498256e-02,  7.6728574932e-02, -1.1882124096e-01, -1.3568259776e-01,  8.9763216674e-02, 
	 3.2153335214e-01,  1.5712715685e-01, -5.1259987056e-02,  1.9798287749e-01, -1.7277397215e-02, -1.5948280692e-01, -8.3178140223e-02, -2.2727362812e-01, -3.2810944319e-01,  6.4788356423e-02, 
	 3.9574718103e-03, -1.0435193544e-03,  5.8344930410e-02, -4.0161710232e-02, -4.7695156187e-02,  1.1287943460e-02,  4.9382977188e-02,  3.1418904662e-02,  3.5990715027e-02,  6.7512723035e-05, 
	-1.5109770931e-02, -4.6625662595e-02,  8.1697717309e-02,  2.7029126883e-02, -4.8868838698e-02, -8.8147306815e-03,  1.3728673756e-01, -1.3334499300e-01, -8.2095190883e-02, -6.9025665522e-02, 
	-1.0016900301e-01,  1.4570967294e-02, -5.6114345789e-02,  6.4927235246e-02, -1.0081861168e-02,  8.6007848382e-02, -1.2664352357e-01, -1.1250867695e-01, -9.4123832881e-02, -3.2577183098e-02, 
	-1.1006333679e-01, -1.7649573088e-01, -1.0645236820e-01, -1.6873431206e-01, -7.3978036642e-02,  1.8128810823e-01,  1.7003734410e-01,  9.3168295920e-02,  6.6424027085e-02,  8.6194545031e-02, 
	 1.1359205842e-01,  1.3868428767e-01,  1.6466325521e-01,  8.1177733839e-02,  1.5391999856e-02,  1.3831121032e-04,  1.2780010700e-01, -1.0964063555e-01,  4.0445536375e-02,  2.0504382253e-01, 
	-9.9402770400e-02,  6.2743254006e-02,  1.8741877377e-01,  1.7629726231e-01,  1.1418325454e-01,  1.2944363058e-01,  2.4818538129e-01,  2.3200944066e-01,  2.4729621410e-01,  2.8284639120e-01, 
	 1.4980788529e-01,  2.0933356881e-01, -2.2943853401e-03, -4.5622497797e-02, -4.9427468330e-02,  8.4453903139e-02,  4.8951894045e-02,  5.4814543575e-02,  1.0358051956e-01,  2.4075301364e-02, 
	 7.0767082274e-02, -4.1030086577e-02, -7.2908997536e-02, -1.1077278107e-01, -1.8674863875e-01, -5.7099841535e-02,  3.4111384302e-03, -4.7883155942e-01, -8.5714444518e-02,  1.1925905943e-02, 
	 1.5174919367e-01,  1.5290109813e-01,  2.5053134561e-01, -4.9070034176e-02,  8.9625909925e-02,  2.7001249790e-01, -7.7928692102e-02,  6.8336009979e-02,  2.0501428843e-01,  3.8328785449e-02, 
	 3.2181581482e-03, -2.3616084363e-03,  4.0324840695e-02,  6.0770377517e-02, -1.4813892543e-02, -5.4284036160e-03,  8.3814688027e-02,  1.9337852299e-01, -9.3679502606e-02, -1.0444717109e-01, 
	-1.7925250530e-01, -1.2308068573e-01, -9.0652465820e-02, -9.6191219985e-02, -7.8932836652e-02, -3.8616530597e-02, -7.7998302877e-02, -1.3043446839e-01, -2.1990275383e-01, -1.4187441766e-01, 
	-1.4042142779e-02, -2.9867783189e-02, -1.1067069322e-01, -7.1254998446e-02, -9.8429337144e-02, -9.0358406305e-02, -2.6604312658e-01, -2.5044897199e-01, -1.7225299776e-01, -1.5523423254e-01, 
	-4.8834148794e-02,  1.1522952467e-02, -7.0610627532e-02,  1.1213806272e-01,  8.7114900351e-02, -7.4023105204e-02, -4.4123832136e-02,  3.3985927701e-02,  1.2240580283e-02, -5.5381301790e-02, 
	 1.9138421339e-04, -5.5614363402e-02,  5.2934829146e-03,  3.6452330649e-02, -2.5972914696e-01, -4.3044596910e-01, -3.7888339162e-01, -1.6990062594e-01, -2.9219371080e-01, -2.3168382049e-01, 
	 1.4973917603e-01,  7.0904545486e-02, -7.0452079177e-02, -2.8704868630e-02,  1.3422222435e-01,  4.6054288745e-01, -1.7849810421e-01, -9.5493569970e-02,  2.6511120796e-01, -2.7108737826e-01, 
	-2.2505249083e-01,  7.2112321854e-02, -1.3747625053e-01,  1.4639993198e-02,  3.1836637855e-01, -1.7185741663e-01, -5.9181414545e-02,  3.5555380583e-01, -1.8871007860e-01,  1.5460366383e-02, 
	 3.4870132804e-01, -3.7641546130e-01, -1.5934942663e-01, -1.5794484317e-01, -2.5298026204e-01, -2.0473964512e-01, -9.6719138324e-02,  5.7831659913e-02,  3.1055020168e-02,  9.6233375371e-02, 
	-2.6537093520e-01, -1.7879295349e-01,  2.1605755389e-01, -2.0701080561e-01, -2.5871470571e-01,  2.4440485239e-01, -1.6542351246e-01, -2.2738237679e-01,  2.3673795164e-01, -2.2866098583e-01, 
	-1.7184324563e-01, -1.5485347807e-01, -1.9619777799e-01, -2.6696702838e-01, -2.0582117140e-01, -1.7139434814e-02, -1.6596913338e-01, -1.6434742510e-01, -4.0227477439e-03, -6.1694171280e-02, 
	-4.6094585210e-02, -8.0112572759e-03, -2.2702954710e-02, -3.8244675845e-02, -4.5428536832e-02, -8.4719685838e-03, -1.1376896501e-01,  5.3963307291e-02,  4.0287561715e-02,  4.8030309379e-02, 
	-7.2498787194e-03,  4.2682774365e-02, -2.5259147515e-04, -8.6706884205e-02, -7.7141776681e-02, -1.3542518020e-01,  1.7791636288e-01,  1.3828460872e-01,  1.9460815191e-01,  8.2129426301e-02, 
	 7.6537214220e-02,  1.3255937397e-01, -7.5579151511e-02,  2.7563208714e-02,  8.0922447145e-02,  3.1302750111e-02,  8.4079153836e-02,  4.7269277275e-03,  6.0875922441e-02,  5.7692199945e-02, 
	 1.3003083877e-02,  1.6803210974e-01,  8.7093085051e-02, -2.9915176332e-02,  1.8263520673e-02,  6.5466143191e-02,  2.8551597148e-02,  3.3238328993e-02,  3.2398059964e-02,  1.0474664159e-02, 
	 5.1770176739e-02,  4.8412401229e-02,  1.8917774782e-02,  2.0291925967e-01,  1.4618456364e-01,  1.4871974289e-01,  6.7966707051e-02,  9.9450446665e-02,  1.7774218321e-01,  3.6643691361e-02, 
	 5.9939648956e-02,  7.5197346509e-02,  1.5520219505e-01,  1.8629327416e-02,  1.2184442580e-01, -8.9516013395e-04,  4.1523028165e-02,  9.4956248999e-02, -1.8127083778e-01, -1.3341940939e-01, 
	 4.2951974319e-04,  3.1455654651e-02, -1.1450470984e-01, -2.9428786039e-01, -4.8650437966e-03,  3.8016443141e-03, -1.6029974818e-01,  1.7075117677e-02,  5.3026173264e-03, -3.1553633511e-02, 
	 2.2592999041e-02,  2.5155693293e-02,  2.4929698557e-02,  1.3237369421e-04, -3.5811826587e-02, -1.6142092645e-02,  9.5582446083e-03,  3.0649274588e-02, -4.2917829007e-02,  2.5734889507e-01, 
	 1.0408075899e-01,  2.3819178343e-02,  6.1976920813e-02,  9.7808450460e-02, -1.3097947836e-01, -8.8193133473e-02, -1.3694395125e-01, -2.7576127648e-01, -5.0067669153e-01, -2.4584716558e-01, 
	-1.5455023944e-01, -2.8953087330e-01, -1.8354082108e-01, -1.7022065818e-01,  1.5985829756e-02,  3.9264410734e-02,  2.5939086452e-02, -9.5017747954e-03, -7.6291583478e-02, -2.2311040759e-01, 
	 4.8609007150e-02,  8.6875461042e-02,  8.7051168084e-03,  4.9165263772e-02,  1.0982440412e-01, -2.4309912696e-02, -3.9174750447e-01, -2.9685288668e-01, -3.0075952411e-01, -8.0484248698e-02, 
	 3.3113202080e-03, -1.4736372232e-01,  1.7425419390e-01,  3.0505868793e-01,  4.6436671168e-02, -2.0116914809e-01, -1.0064823925e-01, -1.5143488348e-01, -7.9664252698e-02, -2.2857366130e-02, 
	 3.7338577211e-02, -4.5612449758e-03,  1.8066687882e-01,  1.2161396444e-01, -9.3461750075e-03, -4.5343697071e-02, -7.7688947320e-02, -1.0882485658e-03, -6.9969118340e-04, -2.3674553260e-02, 
	-2.0741313696e-02,  2.1680903155e-03, -3.7635145709e-03,  1.8936254084e-01,  6.5233312547e-02,  6.5359890461e-02,  2.6108911261e-02,  2.3246753961e-02, -2.2341290116e-01, -8.3987042308e-02, 
	-1.4309479296e-01, -3.1325933337e-01, -1.6742615029e-02,  7.7232889831e-02,  5.0052765757e-02, -1.1867602915e-01,  6.3201654702e-03,  1.3682577014e-01, -2.5031870604e-01, -1.8583752215e-01, 
	 8.1437215209e-02, -1.2332836539e-01, -1.0743585229e-01, -3.0599797145e-02, -2.2258453071e-02,  5.5815812200e-02,  1.4974300563e-01,  3.6123108119e-02,  8.6363144219e-02,  2.4618959427e-01, 
	-1.0115873069e-02, -1.1717751622e-01, -7.8438974917e-02,  5.6161899120e-02,  7.1224831045e-02, -6.5788673237e-03,  1.0587770492e-01,  1.0185538977e-01,  6.1994135380e-02,  1.4025487937e-02, 
	 1.1898928136e-01,  2.5421917439e-01, -1.9553899765e-02,  6.2506429851e-02,  2.1016997099e-01, -4.7215394443e-04,  9.8010122776e-02,  1.6947156191e-01,  4.3118692935e-02,  1.1253195256e-01, 
	 2.5275167823e-01,  5.1478568465e-02, -8.3157882094e-02,  6.1519015580e-02, -4.2675878853e-02, -1.9354590774e-01, -1.2679272890e-01,  9.0407930315e-02,  1.4234143496e-01,  6.9246217608e-02, 
	 7.7730797231e-02,  1.0364236683e-01,  6.7197857425e-03,  9.2044204473e-02,  2.9922502115e-02,  9.3804620206e-02, -6.1975635588e-02, -4.1176892817e-02, -2.2112971172e-02, -3.1445849687e-02, 
	-4.7947783023e-02, -9.1576322913e-02,  2.1247662604e-02, -6.6545680165e-02, -3.3763881773e-02, -3.8692634553e-02,  4.1035201401e-02,  8.7057232857e-02, -1.2444507331e-02,  9.0560898185e-02, 
	 4.0828548372e-02,  1.4416323602e-01,  1.4324262738e-01,  2.2854560614e-01, -5.3057808429e-02,  3.8368254900e-02, -4.3778385967e-02, -3.7139926106e-02,  7.3178291321e-02, -1.9437810406e-02, 
	 1.1787004769e-01,  2.8111988679e-02,  2.6771452278e-02,  6.2283057719e-02,  8.3396121860e-02,  3.6576230195e-04, -2.3515583947e-02,  2.0407622680e-02,  1.5899907798e-02, -1.9785687327e-02, 
	-4.4418036123e-04,  1.3079675846e-02, -7.4848175049e-02, -6.3716031611e-02, -1.4967697859e-01, -4.1564114392e-02, -8.8143192232e-02, -6.8875111639e-02,  9.9755100906e-02,  1.5854084864e-02, 
	-1.9271712750e-02, -4.7906253487e-02,  7.1907892823e-02,  7.1621567011e-02, -4.2178645730e-02, -4.9056697637e-02,  1.6921069473e-03, -1.1967337132e-01, -3.4505419433e-02, -2.0884746686e-02, 
	-3.9195969701e-02,  6.2933504581e-02,  3.3533658832e-02, -1.2830836698e-02,  4.2664390057e-02,  7.8240521252e-02,  4.2164061219e-02,  3.2800640911e-02,  7.4866764247e-02, -1.7807954550e-01, 
	-4.9705754966e-02,  2.9453860596e-02, -8.4391720593e-02, -7.1021877229e-02, -7.7615037560e-02,  2.0240839571e-02,  1.2951982021e-01,  3.2266974449e-02, -4.0882989764e-02, -5.6376781315e-02, 
	-2.7801552787e-02, -1.1838728189e-01, -8.8541403413e-02, -9.9067993462e-02, -1.0543441027e-01, -1.6309289634e-01, -1.6487303376e-01,  5.4958194494e-02, -3.3834535629e-02, -1.0782647878e-01, 
	 2.3760512471e-02, -7.2937798686e-03, -6.7700602114e-02, -5.1007516682e-02, -9.3786440790e-02, -8.3080463111e-02,  6.9290161133e-02,  1.1942894757e-01,  1.0121753067e-01,  5.0846993923e-02, 
	 5.2425380796e-02, -1.1783851311e-02, -1.5446775593e-02, -2.0131148398e-02, -4.5735545456e-02,  2.7960134670e-02, -2.9927827418e-03, -3.9765085094e-03,  1.0772307869e-03, -4.7248698771e-02, 
	 3.8781918585e-02,  6.5783694386e-02,  6.8533055484e-02,  9.1773793101e-02,  4.9185071141e-02,  1.0229995847e-01,  2.1864460409e-01, -5.4916013032e-02,  1.5202417970e-01,  2.2129684687e-01, 
	-2.1953095496e-01,  1.0822177865e-02,  2.8713250160e-01,  4.6359285712e-02,  4.7201711684e-02,  1.2344214320e-01,  3.7731733173e-02,  1.0824473202e-01,  2.9634812847e-02,  4.9432031810e-02, 
	 3.0449161306e-02,  2.3240180686e-02,  1.8824149668e-01,  5.7363029569e-02, -2.0765103400e-01, -3.1456205994e-02, -2.9365276918e-02, -2.7032986283e-01, -3.1444090605e-01, -2.1579739451e-01, 
	-3.8473197818e-01, -6.1544996500e-01, -4.8723134398e-01, -2.8805437684e-01, -5.7694697380e-01, -3.8008657098e-01, -2.2002056241e-01, -4.7051730752e-01, -2.4013683200e-01,  1.6027752310e-02, 
	-3.3101251721e-01, -2.3188471794e-01, -1.4713063836e-01, -1.3003264368e-01,  6.0333544388e-03, -9.9689409137e-02,  6.7957043648e-02,  1.8550978601e-01,  5.2978809923e-02,  6.1097044498e-02, 
	 8.2171022892e-02,  6.2610723078e-02,  5.3946491331e-02, -5.3515015170e-03,  4.6938635409e-02,  6.4230215503e-04, -1.5254900791e-02,  3.1990218908e-02,  7.2470463812e-02,  1.6048766673e-01, 
	 2.3321595788e-01,  2.8551217169e-02,  7.6003447175e-02,  1.5939015150e-01, -7.5387731194e-02,  3.4305101726e-03,  7.4690803885e-02, -5.8841085993e-03, -1.1981650442e-01,  8.1657618284e-02, 
	-3.1644158065e-02, -3.4614525735e-02,  1.4985495806e-01, -5.7828761637e-02, -7.6288329437e-03,  5.7300820947e-02,  4.2157024145e-02,  3.2214876264e-02, -3.6882933229e-02,  1.4703228371e-03, 
	 4.2898036540e-02,  1.5866061673e-02,  6.8254262209e-02, -5.0018571317e-02, -5.1939126104e-02,  5.2375514060e-02,  4.9904108047e-02,  3.9042904973e-02, -4.5248717070e-02,  3.5401921719e-02, 
	 5.3366567940e-02,  5.5584393442e-02,  2.3372365162e-02,  1.0067360848e-01,  2.1750079095e-01,  1.1326143146e-01,  1.2016989291e-01, -6.7022413015e-02, -4.8722218722e-02, -7.1471154690e-02, 
	-2.1517255902e-01, -1.1311711371e-01, -1.6519512236e-01,  5.2499964833e-02, -1.0068085045e-01, -1.0981832445e-01,  1.4147299528e-01,  1.2751830742e-02, -9.9825315177e-02,  1.9615902007e-01, 
	 1.9128416479e-01,  4.1473701596e-02,  6.3945397735e-02,  8.7462440133e-02,  9.3440845609e-02,  4.6255592257e-02,  5.7489864528e-02,  2.8415758163e-02,  1.0384630412e-02,  4.6322021633e-02, 
	-1.8049499020e-02,  1.0227873921e-01, -2.1268422902e-01, -2.4834288657e-01,  1.6670139134e-01, -1.1384660751e-01, -1.6427555680e-01,  3.4717656672e-02, -1.4106416702e-01, -9.4154030085e-02, 
	-2.6613578200e-02, -1.8834935129e-01, -1.1177340895e-01,  1.8154826015e-02,  3.4280437976e-02,  6.9285362959e-02,  1.9767855108e-01,  1.0474128276e-01,  5.2059888840e-02,  7.0682100952e-02, 
	 1.1819708161e-02,  6.2364870682e-03, -2.6646150276e-02, -1.3859749772e-02,  3.5294961184e-02, -2.3719970137e-02,  9.2796489596e-02,  7.0509575307e-02,  4.8169344664e-03, -4.5983143151e-02, 
	 9.0022478253e-03,  3.0420344323e-02, -1.0256270878e-02, -1.9380031154e-02,  5.5934768170e-02, -3.8429003209e-02, -1.4259062707e-01, -2.4195939302e-01, -2.9552599788e-01, -2.9485908151e-01, 
	-1.0322795808e-01, -1.8489976227e-01, -1.3515548408e-01,  7.7059537172e-02, -1.9427385181e-02, -1.0532705113e-02, -1.0514454544e-01, -1.7095476389e-01, -2.8010439873e-01,  1.8455895782e-01, 
	 2.9964165762e-02, -6.1193741858e-02,  3.5249087214e-01,  1.7084978521e-01, -7.0663481951e-02, -6.2990322709e-02, -5.2662283182e-02, -1.5343819745e-02, -1.1602310091e-01, -6.1781913973e-03, 
	-2.8044005856e-02, -4.4830042869e-02, -2.0296219736e-02, -5.7634513825e-02,  9.1369092464e-02, -3.9371907711e-02, -1.2683777511e-01,  8.5387296975e-02, -1.6120216250e-01, -2.0809727907e-01, 
	 5.1865700632e-02, -8.2120716572e-02, -2.1901282668e-01,  7.8836545348e-02,  3.7134338170e-02,  7.1150958538e-02,  2.0025315881e-01,  1.0883551091e-01,  8.0225057900e-02,  2.8825062513e-01, 
	 1.6440083086e-01,  1.5595203638e-01, -6.5721973777e-02, -1.4359770343e-02, -5.7276017964e-02, -1.4953199029e-01, -1.2745246291e-01, -3.3290222287e-02, -1.0214132816e-01, -9.2013567686e-02, 
	-1.0249417275e-01, -8.2764483988e-02, -3.5892434418e-02,  4.2314145714e-02, -4.0406674147e-02,  3.7175644189e-02,  6.4878486097e-02,  1.6929644346e-01,  3.1736917794e-02,  7.1560077369e-02, 
	-9.2587746680e-02,  1.3070306182e-01,  2.4468126893e-01, -5.1363162696e-02,  5.5509787053e-02,  3.1606814265e-01, -1.0607543588e-01,  7.5397036970e-02,  2.6444378495e-01,  9.0859502554e-02, 
	 1.5695384145e-01,  2.7402970195e-01, -3.4681808203e-02,  6.2777072191e-02,  1.6197422147e-01, -1.3358055055e-01, -1.4425832033e-01, -5.6318853050e-02,  1.1032843590e-01,  1.3320992887e-01, 
	 1.1539185792e-01,  6.7000925541e-02,  5.5558560416e-03,  1.1379833519e-01, -8.0865481868e-03,  1.3580249622e-02,  7.0817068219e-02, -4.8444755375e-02,  8.0797284842e-02, -1.6976919770e-01, 
	-1.6110686958e-01, -5.3048267961e-02, -1.9108943641e-01, -2.0877981186e-01, -1.5699240565e-01, -2.1674118936e-01, -3.0366938561e-02, -9.3898639083e-02,  3.5120990127e-02,  6.2736228108e-02, 
	 4.7406695783e-02,  4.0320154279e-02,  2.3220856488e-01,  9.4062991440e-02, -1.1048375629e-02, -6.5102599561e-02, -8.7524235249e-02,  1.7333801836e-02, -4.9329701811e-02, -4.8034418374e-02, 
	 2.2210720927e-02, -3.7156920880e-02, -6.4516797662e-02, -6.0222890228e-02,  4.9044199288e-02, -1.4156804979e-01, -1.1314176768e-01,  3.3468030393e-02, -5.5302806199e-02,  4.6274896711e-02, 
	 1.8547803164e-02, -4.9458444118e-02,  3.6242377013e-02,  3.0176120996e-01,  3.7225961685e-01,  5.4060423374e-01,  1.3665530086e-01,  2.1260522306e-01,  4.7916272283e-01,  1.1577724665e-01, 
	 1.3505616784e-01,  2.5808247924e-01,  3.3769447356e-02,  7.2643637657e-02,  8.5159622133e-02, -1.1082267761e-01, -1.3544410467e-01, -1.9843514264e-01, -2.2569307685e-01, -2.7882874012e-01, 
	-2.5260573626e-01,  4.4750355184e-02,  1.3239853084e-01,  1.6941235960e-01,  9.4483651221e-02,  1.3381451368e-02,  7.2790116072e-02,  2.9286118224e-02, -6.9230787456e-02,  1.3883414678e-02, 
	-1.6492319107e-01, -2.9294586182e-01, -4.3304386735e-01,  5.2671629936e-02, -4.1561517864e-02, -3.6824218929e-02,  1.1367513239e-01,  7.3508568108e-02, -2.8510268778e-02, -1.6331811249e-01, 
	-1.4677400887e-01,  3.8697936106e-03, -1.2107102573e-01,  2.6794297621e-02,  1.2958581746e-01, -7.2889298201e-02,  2.7299882844e-02,  2.3972517252e-01,  2.5448542088e-02,  2.0723842317e-04, 
	 2.7542021126e-02, -8.9055128396e-02, -4.3016057462e-02, -3.6032088101e-02, -9.9947027862e-02, -6.1039380729e-02, -2.4961011484e-02, -2.3938836530e-02, -8.0841809511e-02, -1.1241926998e-01, 
	 6.3889853656e-02, -4.3933853507e-02, -9.0565875871e-04, -5.6534174830e-02,  2.6884295046e-02, -5.0279442221e-02, -8.5950970650e-02, -3.3544015139e-02,  6.5510168672e-02, -8.9875869453e-02, 
	-6.6460095346e-02,  5.8907024562e-02,  1.3274042308e-01,  7.6269596815e-02,  9.9190533161e-02,  1.4326699078e-01,  1.1525797099e-01,  6.5485991538e-02,  1.1686728895e-01,  1.0800831020e-01, 
	 5.8332569897e-02,  1.5306133032e-01,  7.5823612511e-02,  1.8538169563e-02, -1.5704502165e-01, -1.1902631819e-01, -7.8269690275e-02, -8.2509256899e-02, -1.3026319444e-01, -1.5979033709e-01, 
	-1.7854785919e-01, -6.0063760728e-02, -1.3267458975e-01,  1.3986347616e-01,  2.2899601609e-02, -9.3627832830e-02,  8.4647372365e-02,  2.6045607403e-02, -5.4430261254e-02,  6.9465443492e-02, 
	-8.3767823875e-02, -1.3960094750e-01,  3.3260449767e-01,  3.3315360546e-01,  3.3517593145e-01,  1.1671537161e-01,  1.1986389756e-01,  2.7233234048e-01, -1.5952320397e-01, -8.3955358714e-03, 
	 7.1899957955e-02,  6.9861061871e-02,  6.4044147730e-02,  5.6456964463e-02, -4.3938118964e-02,  1.8026703969e-02,  5.4965461604e-03,  7.8127172310e-04, -1.7290988937e-02, -1.9216680899e-02, 
	 6.8472772837e-02,  6.8426311016e-02, -9.9896423519e-02,  2.1471083164e-02,  1.7056576908e-02, -5.0261650234e-02,  9.3888595700e-02,  5.0838507712e-02, -9.3248844147e-02,  1.5294969082e-01, 
	 1.1795531213e-01,  1.4145284891e-01,  6.2475636601e-02,  1.2119992077e-01,  1.0002505779e-01,  6.7132577300e-02,  3.5629913211e-02,  1.1622003280e-02,  1.0294980556e-01,  1.2494758517e-01, 
	 9.5721185207e-02,  1.4027243480e-02,  6.8953186274e-02, -1.5506218188e-02, -2.3561390117e-02,  1.6720732674e-02,  2.9001461342e-02, -5.4980567656e-03,  1.6015609726e-02,  1.2677193619e-02, 
	 1.2193541043e-02, -5.0157953054e-02, -3.1871642917e-02, -7.4483521283e-02, -2.5779033080e-02, -8.5439205170e-02, -3.4329138696e-02,  1.5733158216e-02,  3.4393146634e-02,  5.5744003505e-02, 
	 3.7046458572e-02,  2.5049513206e-02,  1.1233896017e-01,  7.3854789138e-02,  4.7063343227e-02, -7.8221894801e-02, -8.9349567890e-02,  1.6656208783e-02, -3.4448459744e-02, -3.0809946358e-02, 
	-3.6032378557e-04, -7.0555679500e-02,  5.2953258157e-02,  2.9665689915e-02, -1.1984494328e-01, -2.1631224081e-03, -4.5107342303e-02, -3.4151546657e-02, -1.4528691769e-01, -5.2019771188e-02, 
	-9.0916059911e-02, -1.1582497507e-01, -6.7025624216e-02, -6.7468672991e-02,  9.2193119228e-02,  1.5489710867e-01, -1.9355104864e-01,  5.4211750627e-02,  7.6923534274e-02, -9.3943543732e-02, 
	 4.8114485107e-03,  2.8659526259e-02, -5.6017185561e-03,  7.9703899100e-03, -5.3349051625e-02, -4.6303581446e-02, -9.1393835843e-02, -1.0500196368e-01, -1.2627178431e-01, -1.3867942989e-01, 
	-6.7547149956e-02, -5.5444791913e-02, -2.1626091003e-01, -2.8881224990e-01, -7.7784191817e-03, -1.9050921500e-01, -2.2630710900e-01, -2.9097069055e-02, -8.9747227728e-02, -1.4653743804e-01, 
	-6.0275800526e-02,  6.9640263915e-02, -2.6075543836e-02, -7.4635207653e-02, -3.7597391754e-02, -1.8130226061e-02, -1.0095137358e-01, -1.4448423684e-01, -5.2008438855e-02, -6.0418512672e-02, 
	-1.0421588272e-01,  1.4684899710e-02, -1.1063045263e-01, -1.0820453614e-01,  1.4716435224e-02, -1.4802588522e-01, -9.2126131058e-02,  4.9910295755e-02, -7.2830624878e-02, -1.9941475987e-01, 
	-1.2185684592e-01,  4.9049705267e-02, -1.4325909317e-01, -2.2594326735e-01,  1.2648698688e-01,  5.7090654969e-02, -1.3566824608e-02, -7.1396775544e-02, -4.3929088861e-02, -3.6772523075e-02, 
	 4.0538194589e-03,  2.4590410292e-02,  4.5573730022e-03, -1.6278659925e-02, -5.8668524027e-02,  1.4758687466e-02, -7.4625506997e-02,  5.3563512862e-02,  1.3051661663e-02,  7.2081923485e-02, 
	-8.6398683488e-02,  8.8951792568e-03,  1.5647125244e-01, -3.3022966236e-02, -6.4217217267e-02,  1.7974130809e-01,  1.4635874331e-01,  1.6931070387e-01,  2.6157464832e-02,  1.0477360338e-01, 
	 2.1056266129e-01,  2.5234503672e-02,  4.5375298709e-02,  4.1316781193e-02,  1.0449653864e-01,  1.0401463509e-01,  1.6210028529e-01, -4.6267196536e-02,  8.0783523619e-02,  2.2737417370e-02, 
	-2.4762464687e-02, -4.3945144862e-02,  2.1113965660e-02, -8.5811458528e-02, -1.0920010507e-01, -5.6413840503e-02, -5.6692194194e-02, -4.9381468445e-02,  2.8707996011e-02, -9.1434456408e-02, 
	-1.9123442471e-02, -6.0954730958e-02, -1.9523907453e-02, -1.0093712807e-01, -2.0742534101e-01,  2.2010749672e-03, -8.1985466182e-02, -1.9090786576e-01, -1.4863827825e-01, -1.1314401776e-01, 
	-1.8319900334e-01,  8.9479379356e-02, -4.0112297982e-02, -2.9259536415e-02,  1.4634502120e-02, -3.0980767682e-02, -1.8614916503e-01, -1.3099429011e-01, -1.3362042606e-01, -1.9046030939e-01, 
	-1.6639767215e-02, -4.8482161015e-02, -6.7900188267e-02, -6.0160163790e-02, -6.4394518733e-02, -1.3646944426e-02, -1.4449140429e-01, -6.4491190016e-02, -8.4147080779e-03, -1.8930278718e-01, 
	-6.7376218736e-02,  1.2145530200e-03, -3.9704870433e-02,  1.1689838953e-02,  8.0881848931e-02,  5.4061930627e-02,  5.2907466888e-02,  6.3901662827e-02, -3.5593908280e-02, -5.3837254643e-02, 
	 5.6347422302e-02, -8.0347768962e-02, -3.3618517220e-02,  1.1737437919e-02, -2.9140975676e-04,  7.8873381019e-02,  9.9702753127e-02,  2.3177007213e-02,  4.1497323662e-02, -5.4605409503e-02, 
	 1.6011670232e-01,  1.0742285848e-01,  4.0760170668e-02,  2.4845899642e-01,  2.1464392543e-01,  1.9462721050e-01, -1.3922470808e-01, -1.0416432470e-01, -5.4213333875e-02, -1.1013549566e-01, 
	-4.3129295111e-02,  1.9229566678e-02, -9.4464249909e-02, -1.0062629730e-01,  3.6683615297e-02, -2.1712970734e-01, -1.7286679149e-01, -1.7833083868e-01,  5.5338744074e-02,  2.2737314925e-02, 
	 4.2197037488e-02,  2.6328861713e-01,  2.0419207215e-01,  2.4256606400e-01, -7.0592634380e-02,  1.0325886309e-01,  1.9195817411e-01, -5.8088269085e-02, -9.1232312843e-03,  2.1735446155e-01, 
	-8.0388970673e-03,  1.3915666938e-01,  2.0632809401e-01, -4.2407013476e-02, -2.1386411041e-02, -1.2348343432e-01, -4.3455351144e-02, -6.2136352062e-02, -7.8609585762e-02, -1.0312760249e-02, 
	-9.4766691327e-02, -1.3709032536e-01, -1.6837657988e-01,  3.0555473641e-02, -6.6680327058e-02, -4.3609727174e-02, -1.4723584056e-01, -2.7348163724e-01,  1.1235103011e-01,  1.0751377791e-02, 
	-2.0162801445e-01,  4.2163038254e-01,  2.7639243007e-01,  2.9086405039e-01,  4.3211871386e-01,  3.1467455626e-01,  1.8563088775e-01,  4.2999833822e-01,  3.7816086411e-01,  1.2185937911e-01, 
	-1.7686945200e-01, -1.5783250332e-01, -1.8492874503e-01, -1.8806441128e-01, -1.2188830227e-01, -1.2214199454e-01, -1.2391580641e-01, -6.2086846679e-02, -1.7957733944e-02,  8.6272805929e-02, 
	 5.2557632327e-02, -1.1006290093e-02,  4.1759032756e-02,  3.2593578100e-02,  3.7733498961e-02,  9.5527783036e-02,  2.7585616335e-02,  4.6129856259e-02, -3.6902345717e-02, -1.7859676480e-01, 
	-1.0367779434e-01,  7.2082921863e-02,  4.2176950723e-02,  2.1002646536e-02,  1.9151476026e-01,  9.0889520943e-02,  3.3478047699e-02, -1.7922246456e-01, -1.1870685220e-01, -2.7236294746e-01, 
	-1.6705638170e-01, -2.2045050561e-01, -4.1879591346e-01, -1.1869054288e-01, -1.2245117873e-01, -3.1026011705e-01,  1.5233261883e-01,  5.2204232663e-02, -2.7886701282e-03,  2.7167245746e-02, 
	 7.3479861021e-02,  1.0335682891e-02,  6.2375903130e-02,  8.8292628527e-02,  2.5837387890e-02, -1.8516186625e-02,  2.7173513081e-03, -2.5855317712e-02, -1.5785232186e-01,  4.3812584132e-02, 
	-2.1969255060e-02, -2.4159555137e-01, -1.2498874217e-01, -9.4940647483e-02,  2.8247126937e-01,  7.6554037631e-02,  1.4587895572e-01,  7.6246082783e-02,  8.3623751998e-02,  5.9595238417e-02, 
