#ifndef PARAMS_CONV2D_27_H
#define PARAMS_CONV2D_27_H
#include "params.h"

const float layer_27_conv2d_weight[UNET_PAR_27_CONV2D_KERNEL_Y*UNET_PAR_27_CONV2D_KERNEL_X*UNET_PAR_27_CONV2D_IN_FILTER*UNET_PAR_27_CONV2D_OUT_FILTER] = {
	-7.4757151306e-02,  7.0028088987e-02,  5.5174324661e-02,  3.0711691827e-02,  1.3441692293e-01,  9.7026303411e-02,  7.3038585484e-02, -9.1930050403e-03,  1.0407841764e-02,  8.5516072810e-02, 
	 4.4187877327e-02, -2.3677125573e-03, -5.8322247118e-02,  8.1263571978e-02, -3.9914172143e-02, -6.9487430155e-02,  6.7499764264e-03,  7.2246395051e-02,  1.0577627271e-01,  2.1877749264e-01, 
	 7.0157120936e-03, -1.0932828486e-01,  5.4882384837e-02, -5.0861604512e-02, -1.4748287201e-01,  3.3665925264e-02, -1.7946778238e-01, -1.1913838238e-01, -6.9916374981e-02,  1.2440919876e-01, 
	-1.8004027009e-01,  9.0861126781e-02,  1.1478989571e-01, -1.0504829139e-01,  5.4783705622e-02,  1.4233353734e-01, -1.1961306632e-01, -4.6023633331e-02, -2.2932024300e-01, -4.9907997251e-02, 
	-1.3221760094e-01, -1.8694530427e-01, -1.2536737323e-01, -8.9157313108e-02, -1.4104731381e-01,  1.0515696555e-01,  1.0440512002e-01, -1.0434271535e-03,  1.0030774772e-01, -3.0365442857e-02, 
	-6.5698310733e-02,  6.9915562868e-02,  8.6392537924e-04, -1.8573975563e-01, -1.0823939741e-01,  1.1563588679e-01,  1.0946651548e-01, -2.7158236504e-01,  4.1925143450e-02, -1.2627691031e-02, 
	-9.3684801832e-03,  1.2595444918e-01,  1.8372869119e-02,  1.5864686668e-01,  2.0766843855e-01,  1.3176664710e-01,  8.6391314864e-02,  1.3928380609e-01,  6.7735761404e-02,  1.8151108921e-01, 
	 1.1234061420e-01,  1.2389419973e-01,  3.7173699588e-02,  4.3552707881e-02, -1.4409644902e-01,  5.1404707134e-02,  9.2952281237e-02, -2.2943428159e-01,  7.6029032469e-02,  8.3749532700e-02, 
	-1.2109678239e-01,  1.0865824670e-01,  1.1213888228e-01,  5.7313315570e-02, -1.4346162789e-02,  3.6974251270e-02, -5.6639794260e-02,  3.8261611015e-02, -5.4935205728e-02, -1.2149211019e-01, 
	-2.9462702572e-02, -1.3620636426e-02,  1.1943893880e-01,  2.4387735873e-02, -2.3016944528e-02,  2.9518062249e-02,  9.4883307815e-02,  4.2687091976e-02, -1.1666376889e-01,  3.9811108261e-02, 
	-5.3452033550e-02, -1.2293828279e-01,  9.4589263201e-02,  4.2694266886e-02, -1.0482660495e-02,  1.6257118434e-02, -4.4288754463e-02, -2.8140383959e-01,  1.5614959411e-02, -1.2171994150e-01, 
	-2.6667088270e-01,  1.0969317704e-01, -1.0139321908e-02, -1.3313397765e-01,  2.9308286309e-01,  1.1607111245e-01,  2.9856150970e-02, -3.1524837017e-01,  1.0698887706e-01,  1.7258656025e-01, 
	-2.1483519673e-01,  4.0077492595e-02,  2.6718908548e-01, -1.5428125858e-01,  5.8084864169e-02,  1.3106349111e-01,  1.5024748445e-01,  1.5553924441e-01,  7.4199847877e-02,  2.4533301592e-01, 
	 1.6358067095e-01,  1.9737415016e-01,  2.3378109932e-01,  2.8189134598e-01,  2.3107676208e-01, -1.3003241271e-02, -5.6954119354e-02, -4.0976904333e-02, -6.9839279167e-03,  1.2328045815e-01, 
	 4.7946132720e-02,  3.4720405936e-02, -9.0153455734e-02, -2.7225423604e-02,  1.0093460232e-01,  1.8369653821e-01,  2.3201511800e-01,  1.4817470685e-02,  5.5417045951e-02,  2.3803463578e-01, 
	-3.1746007502e-02,  2.5958821177e-02,  6.2921822071e-02,  1.1333964765e-01, -2.5611417368e-02,  4.1625924408e-02, -4.0875628591e-02,  3.5561658442e-02,  6.6616022959e-03,  2.8822114691e-03, 
	 6.0345776379e-02, -3.9204597473e-02,  1.0388971120e-01,  6.5004043281e-02, -6.0124907643e-02,  3.1306579709e-02,  8.1368377432e-03, -2.9808091000e-02,  6.8253926001e-03,  1.1191349477e-01, 
	 8.1336610019e-03,  7.5481534004e-02,  1.0961703956e-01, -4.9763061106e-02, -1.4618821442e-02, -4.3682474643e-02, -2.6929643005e-02,  1.1442658305e-01,  4.2575960979e-03, -2.2465638816e-02, 
	 2.4861162528e-02, -1.5576514415e-02, -1.0527195036e-01,  2.7364036068e-02, -3.8479164243e-02,  1.0332768783e-02, -4.4988919981e-03,  1.2079115212e-01,  5.8815281838e-02, -7.2004973888e-02, 
	-2.3346187174e-01, -5.0994548947e-03, -6.6040307283e-02, -1.5411171317e-01, -2.7356516570e-02, -1.2344598770e-01, -1.3369125128e-01, -4.2255800217e-03,  1.1569138616e-01, -2.3114740849e-02, 
	-8.0138169229e-02,  5.1718936302e-03, -6.0460433364e-02, -9.2054314911e-02, -2.1662879735e-02, -2.4091236293e-02,  1.9382995367e-01,  1.0037280619e-01, -1.1581471190e-02,  1.0804326087e-01, 
	 1.9759172201e-01, -3.5510927439e-02, -1.4011608437e-02,  1.3890825212e-01,  1.2199692428e-01,  7.8238531947e-02,  3.9750788361e-02,  8.2966722548e-02, -1.3953204267e-02, -1.0738789290e-01, 
	-2.4389933050e-01, -2.2372452915e-01,  7.1050345898e-02,  4.6244636178e-02,  1.3630224764e-01,  7.0863559842e-02,  1.6589975357e-01,  3.1446212530e-01, -3.9376955479e-02,  7.6519705355e-02, 
	 1.0502333939e-01, -5.8303497732e-02,  6.3982218504e-02,  1.5774063766e-01,  5.4663531482e-02, -1.2054903060e-01, -6.4461179078e-02,  3.8407649845e-02,  2.0872205496e-01,  1.4139014482e-01, 
	 1.5814122558e-01,  1.2439121306e-01, -4.6448539943e-02,  1.1971738189e-01, -3.0773447827e-02,  4.5703178644e-01, -5.0050519407e-02, -2.7825504541e-01, -2.5688137859e-02,  2.6115924120e-02, 
	-2.9766401649e-01, -1.8519856036e-01,  1.0601854324e-01,  1.1022300459e-02,  8.0170042813e-02, -1.2349963188e-01, -1.1326141655e-01, -1.2249764800e-01, -8.6525373161e-02, -1.9714567065e-01, 
	-1.3208027184e-01,  2.7665503323e-02,  2.8427084908e-02,  1.4567671344e-02, -7.1145877242e-02, -1.0940914601e-01, -1.3374011032e-02,  2.3083775304e-03, -5.8610537089e-03,  5.7050134987e-02, 
	 6.1746925116e-02, -3.9129588753e-02, -2.5615161657e-01,  2.6555231214e-01,  1.8830226362e-01,  5.9701837599e-02,  2.1142184734e-01,  1.3825251162e-01,  7.9001322389e-02, -4.7464303672e-02, 
	 8.4083750844e-03, -1.3881176710e-01, -3.1924024224e-02,  1.6625708342e-01,  1.5348237753e-01,  5.5797185749e-02,  2.5145551190e-02, -1.3906258345e-01, -1.5189358592e-01, -9.1878689826e-02, 
	 4.6767417341e-02, -5.8147508651e-02,  7.1662753820e-02,  1.9695074856e-01,  1.9811980426e-02, -4.4113293290e-02,  2.0996695384e-02,  1.5022826195e-01,  3.0169644952e-01,  1.8746824563e-01, 
	 4.7315455973e-02, -2.9561636969e-02, -2.7381461114e-02, -1.1543817073e-01, -1.1883892119e-01, -3.4541606903e-01,  1.4155337214e-01, -1.1981946230e-01, -1.5415284038e-01,  1.5383389592e-01, 
	-2.8770923615e-01, -2.5722059608e-01,  8.4645733237e-02, -8.4826678038e-02, -2.7610373497e-01, -8.6998477578e-02,  1.1741761118e-02,  6.4731433988e-02, -3.4000579268e-02,  8.6617521942e-02, 
	 4.6590617858e-03,  7.8373000026e-02,  4.3042418547e-03,  6.5630581230e-03, -5.5029042065e-02, -7.0262692869e-02, -4.2907389998e-01, -2.2534234449e-02,  3.2924374100e-03, -2.4011233449e-01, 
	-6.1079319566e-03, -2.4528518319e-02,  6.1174038798e-02, -1.8379837275e-01, -2.2778466344e-01, -2.2504435480e-01, -9.8491676152e-02, -1.2539651990e-01, -1.5595437586e-01, -3.4438658506e-02, 
	-6.5307691693e-02, -1.3070674241e-01,  1.3506846130e-01, -1.1566827446e-01, -2.4887166917e-02, -5.2333228290e-02, -1.0696019232e-01, -2.6104274392e-01, -1.7767208815e-01, -7.6282314956e-02, 
	-2.3024095595e-01, -5.3355913609e-02, -1.1977066100e-01,  1.1752936244e-01,  2.3249255493e-02,  1.3595996797e-01,  5.6279700249e-02,  3.6803763360e-02, -9.9603990093e-03,  5.8398108929e-02, 
	 1.1592856050e-01,  4.2443614453e-02,  4.7094572335e-02,  1.0522768646e-01,  8.9482471347e-02,  1.6817007214e-02,  1.1909219623e-01,  5.6786052883e-02, -7.8813493252e-02, -3.2788667083e-01, 
	-1.3577352464e-01, -1.6519574821e-01,  3.2659288496e-02, -5.3109724075e-02, -1.6445548832e-01,  4.8162177205e-02, -1.1323086172e-01, -2.6400941610e-01,  8.8078826666e-02, -4.2158048600e-02, 
	 6.4613096416e-02, -4.0798526257e-02, -1.2016404420e-01, -8.9020192623e-02, -1.1453326792e-01, -1.9985392690e-01, -2.6049691439e-01, -3.8792192936e-02,  4.0464524180e-02,  7.4185527861e-02, 
	-3.8636039943e-02,  8.3899265155e-04,  1.2271112204e-01, -2.1829979494e-02, -5.7608138770e-02, -4.8188164830e-02,  3.0418670177e-01,  1.0312547535e-01,  1.6516800225e-01,  1.6685327888e-01, 
	 1.7276635766e-01,  2.2545194626e-01,  4.4351932406e-01,  2.4737322330e-01,  1.3202248514e-01,  2.0241902769e-01,  5.3191386163e-02, -9.1003566980e-02,  2.2814841941e-02,  3.7893686444e-02, 
	-2.8082445264e-01,  1.1555697024e-01,  2.2238029167e-02, -2.8646188974e-01,  1.3161827624e-01,  6.2276951969e-02,  1.9144067541e-02,  3.8135424256e-02, -2.1656934172e-02, -2.5418741629e-02, 
	-4.4351045042e-02,  1.3967261650e-02, -2.2419399023e-01, -2.1512979269e-01, -1.5943463147e-01,  1.2350177020e-01, -1.7895463109e-01,  1.3081841171e-01,  2.9223501682e-01,  4.5226506889e-02, 
	 1.4956399798e-01,  1.8119318783e-01,  2.1592336893e-01, -2.7817847207e-02, -2.3814317584e-01,  1.3713741302e-01, -6.6670425236e-02, -2.8918230534e-01,  1.0203517973e-01, -9.4719417393e-02, 
	 8.5835225880e-02,  4.8117740080e-03, -1.3081839681e-01, -2.4781996012e-01, -7.8402318060e-02, -2.5014448166e-01, -3.4715443850e-01, -1.3776372373e-01, -1.6951858997e-01, -1.3287122548e-01, 
	 1.8482686952e-02,  8.3729714155e-02, -1.6677494347e-01,  3.1791433692e-02, -5.8071920648e-03, -1.3217058778e-01, -4.7938898206e-02,  1.2893530540e-02,  8.6664455011e-03, -1.8602570519e-02, 
	 2.4862164631e-02, -1.8285675347e-01,  1.5452222433e-03, -1.2189755589e-01, -3.4814462066e-01, -2.1022555232e-01, -3.0589383841e-01, -1.4605821669e-01,  4.1912756860e-02, -1.4072019607e-02, 
	-5.6608402729e-01, -5.5607926100e-02, -1.4078949392e-01, -4.9079188704e-01, -5.1897037774e-02, -4.0567245334e-02,  2.4781430140e-02,  1.1652214080e-01,  2.2376964986e-01,  3.7832651287e-02, 
	 2.0838832855e-01,  7.0732243359e-02,  1.3177201152e-01,  1.7992731929e-01,  1.3936816156e-01,  1.0543549806e-01, -2.7248000726e-02, -2.6979365945e-01, -3.9448395371e-01, -3.0723012984e-02, 
	-4.7380391508e-02, -5.6761275977e-02,  2.1351004019e-02,  1.3103346527e-01,  2.8443169594e-01,  1.7908105254e-01,  3.0203363299e-01,  4.5808225870e-02,  1.7936025560e-01,  4.3109431863e-02, 
	-7.0296362042e-02,  2.4511596188e-02,  4.9514188431e-03,  4.5412365347e-02,  4.5187440701e-03,  9.6854092553e-03, -1.9849176705e-01,  9.2218503356e-02,  2.2822534665e-02, -1.4252802730e-01, 
	 1.6731677949e-01,  4.3702948838e-02,  1.5581451356e-01, -4.7340758145e-02, -1.1580075324e-01, -1.7334336042e-01, -1.8789185211e-02,  1.1072065681e-01, -9.5937885344e-02, -4.5240432024e-02, 
	-3.2442722470e-02, -6.6222481430e-02, -3.3959731460e-01, -2.0901608467e-01,  2.5716483593e-02,  6.0928631574e-03, -1.0393032432e-01, -1.0476550460e-01,  7.7804967761e-02,  7.4617080390e-02, 
	 5.3613256663e-02, -4.9964662641e-02,  1.0432039946e-01,  1.6578136012e-02, -4.9029458314e-02, -5.4005440325e-02, -1.4594583772e-02, -9.0497039258e-02, -2.3819196969e-02,  7.3312520981e-02, 
	-4.4248139858e-01, -4.4116833806e-01, -4.3613472581e-01, -3.4260809422e-01, -4.7032818198e-01, -3.3521318436e-01, -2.4031271040e-01, -1.6058258712e-01, -1.5769824386e-01,  1.2502282858e-01, 
	 1.3098663092e-01,  6.3809722662e-02,  4.0459088981e-02,  1.1348871887e-01,  6.2793632969e-04,  1.5841214359e-01,  1.7001384497e-01,  1.6428284347e-01,  2.0541830361e-01,  1.3535383344e-01, 
	-4.1273999214e-01,  2.1336925030e-01,  6.9243796170e-02, -2.0228028297e-01, -1.3029247522e-01, -3.7602908909e-02,  1.9026165828e-02, -2.6571597904e-02, -9.8471656442e-02,  1.9509475678e-02, 
	 9.8738066852e-02,  4.3561235070e-02,  2.0509348810e-01,  1.6711214557e-02, -2.8449766338e-02,  3.0031416565e-02, -7.7028997242e-02,  6.3657775521e-02,  1.8069395795e-02,  4.0159024298e-02, 
	 5.7362385094e-02,  8.1051271409e-03,  1.6821742058e-02,  5.1986031234e-02, -1.3199745119e-01,  1.8193838000e-01,  4.5562177896e-02,  1.0499154031e-01,  1.1455079168e-01,  4.4094376266e-02, 
	 1.6541063786e-01,  1.0850550234e-01,  6.3081510365e-02,  1.2422137707e-01, -8.4794156253e-02, -1.1949858814e-01,  1.1666286737e-01, -5.1494184881e-03, -2.2403037176e-02,  2.6094201207e-01, 
	 1.3648320921e-02, -9.9577985704e-02,  4.5184001327e-02, -1.0905577242e-01, -1.1189760268e-01, -4.0225379169e-02,  9.7150262445e-03, -2.0042918622e-02,  7.9354025424e-02, -1.3973684609e-01, 
	-1.2092041224e-01, -1.4156149328e-01, -8.0110080540e-02, -1.8767423928e-01, -2.0069704950e-01, -9.9221728742e-02, -1.8206812441e-02,  8.0298401415e-02, -2.2747166455e-02,  3.7114955485e-02, 
	 2.5606624782e-02,  1.0870032758e-01,  1.6003589332e-01,  2.9764658213e-01,  1.5048357844e-01,  2.8343638778e-01,  2.1004980803e-01, -2.7401624247e-02, -3.1340855360e-01, -3.4847384691e-01, 
	-1.0381475836e-01, -1.3017633557e-01, -7.4938595295e-02,  3.8391545415e-02, -7.5697779655e-02, -8.0587126315e-02,  7.1070834994e-02, -7.6069667935e-02,  1.1166707613e-02, -2.0278136432e-01, 
	-1.4395610988e-01, -2.6674125344e-02, -2.4988488853e-01, -1.8533062190e-02, -5.2111886442e-02, -6.6407804843e-04,  4.2506493628e-02,  5.3047772497e-02,  1.9089551270e-01,  2.1429428831e-02, 
	 8.7375333533e-03,  1.1581712216e-01, -9.5549397171e-02, -9.0759798884e-02,  1.6860909760e-01, -2.4322220997e-04, -2.1490836143e-01, -2.0129209757e-01, -2.4154251814e-01, -1.8418686464e-02, 
	-1.9840586465e-03,  3.4560907632e-02,  1.7516624182e-02,  1.3908062875e-01,  1.5511734784e-01,  1.2072546035e-01,  1.3500849716e-02,  6.7772939801e-02,  8.5540741682e-02,  1.0554779321e-01, 
	-5.5589884520e-02,  1.0798792541e-01,  2.3696364462e-01,  1.2785418332e-01,  2.5868576765e-01, -6.2017500401e-02,  2.0038917661e-01,  3.4899264574e-01, -4.7986026853e-02, -3.1278794631e-03, 
	 1.0239760578e-01, -8.6307302117e-02, -3.0878879130e-02,  1.0335753113e-01,  1.0477039218e-01, -4.0775135159e-02,  1.5935128927e-01, -1.6704560816e-01, -3.4516364336e-01, -1.4081211388e-01, 
	-4.2618609965e-02, -6.9673351943e-02,  1.4155988395e-01, -4.1337322444e-02, -7.8526027501e-02,  1.6770945489e-01,  1.5963839367e-02,  3.3178396523e-02,  1.8675319850e-01,  7.2728499770e-02, 
	 5.5869191885e-02,  7.9773157835e-02,  5.8918759227e-02,  2.2631974891e-02, -7.1962527931e-02,  4.0881246328e-02, -1.1784927547e-01, -5.2637406625e-03, -5.3505025804e-02, -5.1093418151e-02, 
	-1.1807228625e-01, -1.5644693375e-01, -8.4342062473e-02, -2.3300626781e-03, -7.8314326704e-02,  5.2401114255e-02,  1.0010115802e-01,  3.6839134991e-02,  8.1568770111e-02,  1.9693057984e-02, 
	-1.2810453773e-01, -9.9012173712e-02, -7.1109749377e-02,  7.3194287717e-02,  7.3378890753e-02,  8.0285564065e-02,  9.1849930584e-02,  7.1540206671e-02,  1.0452882946e-01, -1.4771558344e-01, 
	-8.0493636429e-02,  9.3641892076e-02, -2.2722296417e-01, -6.0495845973e-02,  1.2450583279e-01, -1.1357026547e-01, -8.4166310728e-02, -4.1196145117e-02,  6.3827395439e-02, -1.3930942863e-02, 
	 2.1598999202e-01,  6.0416813940e-02,  4.2951099575e-02,  1.1050409079e-01,  2.3588179052e-01, -1.9171670079e-02, -2.6634458452e-02, -4.7447014600e-02, -1.7583408952e-01,  3.7942662835e-02, 
	 9.3232415617e-02,  3.2001737505e-02,  1.6783061624e-01, -3.3035535365e-02,  8.3079941571e-02,  4.4091276824e-02, -8.8676162064e-02, -1.0995294899e-01,  1.3593639433e-01,  2.1748710424e-02, 
	-1.1163155735e-01,  1.6395398974e-01, -4.5202068985e-02,  1.5102197416e-02,  1.0041522980e-01,  6.8967930973e-02,  4.9399849027e-02,  4.4410936534e-03,  3.8711293600e-03, -3.7910502404e-02, 
	 4.0052324766e-04,  9.2361181974e-02, -5.3008813411e-03, -4.2718429118e-02, -1.3318354264e-02, -2.1274365485e-02, -1.2802372873e-01,  1.6867160797e-01,  7.4311167002e-02,  3.8991194218e-02, 
	 1.4442236163e-02,  1.1979029328e-01,  1.6086761653e-01, -1.2305831909e-01,  1.7010033131e-01,  6.0032729059e-02, -2.0649565756e-01,  6.7816558294e-03,  2.2457927465e-01, -2.2347477078e-01, 
	-3.0840778723e-02,  3.2203677297e-01,  5.0663612783e-02, -5.9599190950e-02, -1.7570689321e-02, -2.3211382329e-02, -1.4369730838e-02,  4.8101261258e-02, -6.5971307456e-02, -1.2397552282e-01, 
	 8.5066698492e-02, -1.1248234659e-01,  1.6378512979e-01,  1.7867179215e-01, -3.7650477141e-02, -9.3264169991e-03,  9.0420521796e-02, -3.8418933749e-02,  3.0596410856e-02, -1.2933790684e-02, 
	 9.5698051155e-02,  2.0281806588e-01,  4.5339375734e-02, -4.8693940043e-02,  1.4622813463e-01,  2.7569961548e-01, -4.3155458570e-01, -3.1041303277e-01, -1.6646802425e-01, -9.2803679407e-02, 
	 9.1853037477e-02,  6.9071345031e-02, -1.2243176810e-02, -7.9242654145e-02, -5.3499795496e-02, -2.1228667349e-02, -2.8131641448e-02, -5.0959952176e-02,  1.7152808607e-02, -1.1736611836e-02, 
	-9.6797244623e-03, -7.9971164465e-02,  7.3716111481e-02,  1.0312782973e-01,  1.2426844798e-02, -3.4369222820e-02, -7.2086537257e-03, -2.0402705669e-01, -1.8512248993e-01, -3.4976519644e-02, 
	-1.0638795793e-01, -1.1883088201e-01, -6.6548503935e-02, -4.9426667392e-02, -9.6816811711e-03, -7.2315402329e-02, -4.8386815935e-02, -4.0413279086e-02,  3.5969074816e-02, -4.1334837675e-02, 
	-7.1696057916e-02,  6.1098121107e-02, -6.3548319042e-02, -4.6699348837e-02, -1.6573183239e-02, -3.8343787193e-02,  2.0122954622e-02, -4.8697851598e-03, -1.1328180553e-03,  4.9476012588e-02, 
	 2.0458230749e-02, -4.7024276108e-02,  1.8637530506e-02,  3.1471177936e-02, -2.0076049492e-02,  6.9044299424e-02,  9.5014430583e-02, -1.3402365148e-01, -1.2684348226e-01, -1.1001095921e-01, 
	-1.5391619503e-01, -1.4051912725e-01, -6.6088333726e-02, -2.7825462818e-01,  3.1566146761e-02,  3.3576495945e-02,  5.4657507688e-02,  3.9736364037e-02,  3.7294719368e-02,  6.1234924942e-02, 
	 1.5291717649e-01,  2.2569526732e-01,  6.1609022319e-02,  1.9644699991e-02, -1.0966880620e-01,  1.0955394246e-02, -3.5011343658e-02, -1.5390816331e-01, -1.7468629405e-02,  7.4365630746e-02, 
	-5.6400269270e-02,  1.5731463209e-02, -3.2588876784e-02, -2.2139531374e-01,  3.5451419652e-02,  8.3032876253e-02, -7.8386582434e-02, -1.0972966254e-01, -1.1091743410e-01, -1.1993287504e-01, 
	-4.1160553694e-02, -2.7343904972e-01, -3.2107788324e-01,  1.9848856330e-01, -3.6109026521e-02, -1.8022389710e-01,  3.4506005049e-01,  1.8887105584e-01, -1.4433642849e-02,  2.9249357060e-02, 
	 3.7367220968e-02,  8.8854447007e-02,  1.1329940706e-01, -5.4955970496e-02, -1.4540721662e-02, -5.2799664438e-02, -6.5391875803e-02, -4.8428863287e-02,  5.5524684489e-02,  7.8829035163e-02, 
	-8.8173653930e-03,  7.0881865919e-02, -2.1898210049e-02,  3.8322515786e-02,  6.1109591275e-02,  6.8648986518e-02,  5.6487815455e-03, -2.3962751031e-01, -2.7081027627e-01, -5.2067931741e-02, 
	-2.3413859308e-01, -2.0073543489e-01, -2.2725911438e-01,  3.9378672838e-02,  1.0706580430e-01,  2.4603298306e-01, -4.8588755727e-01, -2.1244738996e-01, -3.1436890364e-01, -1.2539619207e-01, 
	-8.2855805755e-02, -2.8305229545e-01, -5.1107086241e-02,  1.0423005372e-01,  1.9161076844e-01, -1.6845405102e-02, -1.5903601423e-02,  9.4102725387e-02,  1.3822652400e-01,  6.4238801599e-02, 
	 1.2177340686e-01,  3.1613301486e-02,  9.2400327325e-02,  5.5022068322e-02, -8.5683390498e-03,  4.1239250451e-02, -3.4130439162e-02,  2.5131464005e-02, -8.7509127334e-03,  6.2053758651e-02, 
	-4.5728612691e-02,  1.4116707025e-03,  3.5587139428e-02, -1.0382194072e-01,  4.8519488424e-02,  3.3295154572e-02, -1.4225965366e-02,  7.0610307157e-02,  9.7682967782e-02, -2.9646005481e-02, 
	-7.7124632895e-02,  2.2912914865e-03, -1.2610711157e-01, -3.8506861776e-02, -1.1198109388e-01, -2.5707997382e-02,  8.4620237350e-02,  1.1538698524e-01,  7.8726246953e-02, -3.1121065840e-02, 
	 1.8277606368e-01, -4.1650217026e-02, -4.5828763396e-02, -7.8959710896e-02, -1.4819589257e-01, -7.9661393538e-03,  4.3377839029e-02, -7.2226665914e-02, -1.9973303378e-01, -1.0406862199e-01, 
	-1.1544556916e-01, -8.1468395889e-02,  7.1221500635e-02, -2.4747297168e-02,  6.3666231930e-02,  2.0093978941e-01,  1.5367466211e-01,  2.0473769307e-01,  2.9334220290e-01, -3.2114017010e-01, 
	-1.5209950507e-01,  2.1677863598e-01, -2.2683143616e-01, -3.0187861994e-02,  2.7034747601e-01, -1.9979818165e-01, -1.0985330492e-01,  1.1544099450e-01,  9.7680695355e-02,  5.8683793992e-02, 
	 5.6705422699e-02,  1.1182582378e-01,  8.9016094804e-02,  8.3211891353e-02,  1.7400713637e-02,  1.3570058346e-01,  1.4598424733e-01, -1.1467342079e-01,  5.9200767428e-02,  4.8455346376e-02, 
	 3.6027550697e-02,  6.5167471766e-02,  4.3296754360e-02, -1.9448724389e-01, -1.0030777007e-01, -2.5497296825e-02,  2.6851791143e-01,  1.2457579374e-01,  1.5108177066e-01,  1.7319175601e-01, 
	 2.3269901052e-02,  1.2559437752e-01, -1.0695804656e-01, -3.3966626972e-02,  5.0099462271e-02, -1.1240616441e-01, -1.1929044127e-01, -1.4757720754e-02, -5.0101159140e-03,  2.3852262646e-02, 
	 8.4162786603e-02, -1.1378464103e-01,  4.4892143458e-02,  1.1580931395e-01, -6.8240970373e-02, -4.4379558414e-02, -1.4304845035e-01,  3.3499304205e-02, -1.3105638325e-01,  1.3391654007e-02, 
	-4.1271232069e-02, -1.1046698689e-01, -1.0207957029e-01,  1.2241036445e-01,  1.0086002946e-01,  7.5383879244e-02,  1.4724680781e-01,  1.0617529601e-01,  1.1584748328e-01,  9.1513715684e-02, 
	 1.2240406871e-01,  8.9731596410e-02,  9.1792657971e-02, -7.9021081328e-02,  6.0870226473e-02,  1.7101372778e-01,  8.7219014764e-02,  2.6909407973e-01, -4.4694401324e-02, -5.1317114383e-02, 
	 7.3653809726e-02,  1.5749337152e-02,  7.3065415025e-02,  8.0102354288e-02,  4.3169397861e-02, -1.1864924431e-01, -4.0131174028e-02, -1.0189758986e-01, -1.8333195150e-01,  6.7415013909e-02, 
	-4.0739998221e-02,  1.5838019550e-02, -1.9339146093e-02, -5.1922062412e-03, -4.8409007490e-02,  8.7629221380e-03, -3.0078833923e-02,  4.9678873271e-02,  1.1598223820e-02, -4.0850820951e-03, 
	-3.3173939586e-01, -2.9100809246e-02,  2.3099225014e-02, -3.2563498616e-01, -1.7848601937e-01,  3.4584796429e-01,  1.4761136472e-01,  3.7352669239e-01,  1.5477803349e-01,  1.0566918552e-01, 
	 7.7676363289e-02,  1.6561536118e-02, -1.2951979041e-01, -3.2418712974e-02, -7.9671047628e-02, -2.0024402440e-01,  1.0656856000e-01,  1.5522485599e-02,  9.8110750318e-02,  1.1613599956e-01, 
	-1.6744328663e-02, -3.0949226022e-01, -2.1182964742e-01,  7.6401181519e-02, -1.0163517296e-01,  5.6176479906e-02,  1.4202597737e-01,  9.5065124333e-02, -3.1617376953e-02,  3.6021184642e-03, 
	-4.3616789579e-01, -4.4410765171e-01,  3.5084184259e-02, -2.0974250138e-01, -2.6924088597e-01,  2.8629681095e-02, -1.1694035679e-01,  4.5977789164e-01,  2.3451057076e-01, -7.0361477137e-01, 
	-2.5879120827e-01,  3.1207737327e-01, -1.5879988670e-01,  1.4285208285e-01, -4.2533960193e-02,  1.2229126692e-01,  6.2280677259e-02, -1.0687435046e-02,  1.2077949196e-01,  1.0703176260e-01, 
	 9.4837039709e-02,  7.8952625394e-02,  1.5019063652e-01,  4.0614709258e-02, -2.2229529917e-01,  5.3642261773e-03,  1.3347636163e-01,  1.5228549019e-02,  9.8489724100e-02,  8.5015542805e-02, 
	-2.2119495273e-01, -1.0186001658e-02,  6.4427874982e-02,  2.7067884803e-02,  1.0038276762e-01,  1.1883162707e-01,  5.8000314981e-02,  6.7844249308e-02, -2.1556874737e-02,  7.0187792182e-02, 
	 6.5564438701e-02, -6.3599869609e-02, -5.0410673022e-02, -6.4480677247e-02,  1.9257007539e-01,  3.1961381435e-02, -1.0904683173e-01, -6.3032716513e-02, -7.3462821543e-02, -1.9328178465e-01, 
	-5.8569069952e-02, -8.6637862027e-02, -7.9008638859e-02,  2.4242077023e-02, -1.1281455308e-01, -5.8934178203e-02,  1.9191926345e-02,  1.2076127343e-02,  1.1595883220e-01,  7.7980138361e-02, 
	 1.2366008013e-01,  1.8320454657e-01,  1.2437744439e-01,  1.9546416402e-01,  1.0245265067e-01, -8.6525812745e-02, -7.4146203697e-02, -4.9101211131e-02, -1.7617184669e-02,  4.5141171664e-02, 
	-1.8962498009e-01,  1.2406913936e-01,  1.3109290041e-02,  3.9608206600e-02, -1.8124233931e-02,  7.3073081672e-02,  9.4956986606e-02,  4.8263192177e-02, -1.0321098566e-01, -2.9611003399e-01, 
	 2.5287330151e-02, -6.1642326415e-02, -2.3650944233e-01,  2.8525445610e-02,  8.3071038127e-02, -2.0000124350e-02,  1.0311354697e-01,  1.0113743693e-01, -1.3078801334e-01, -2.9628857970e-02, 
	-2.9117600992e-02,  1.6990371048e-02, -2.0060043037e-01,  5.8906529099e-02,  9.5329925418e-02, -1.1380394548e-01, -1.9517908990e-01, -2.1008095145e-01, -8.8278681040e-02, -1.4365342259e-01, 
	-5.0385560840e-02,  8.9604847133e-02,  2.0478032529e-01,  3.5816472769e-01,  2.5788542628e-01,  2.6891073585e-01, -8.9311309159e-02, -1.2013488263e-01, -1.5082570910e-01, -2.6440110803e-01, 
	-2.8367427876e-04,  7.8331269324e-02,  1.7724117637e-01,  5.3920734674e-02, -1.3363712467e-02, -1.6972361505e-01, -9.3196198344e-02, -3.8553565741e-02, -2.1438215673e-01, -1.5054476261e-01, 
	-6.5867558122e-02, -2.1493957937e-01,  1.6817280650e-01, -5.5751362815e-03, -1.0417857021e-01,  2.0432548225e-01,  4.6952798963e-02, -5.5300731212e-02,  2.0909498632e-01,  2.0320674777e-01, 
	 1.1801307648e-01, -2.5168403983e-02, -4.7934606671e-02,  6.7174717784e-02,  2.1163329482e-02,  1.0371486098e-01,  2.6082417369e-01,  4.0894977748e-02,  1.2719081342e-01,  2.3730141111e-03, 
	-2.2033415735e-01, -1.7278538644e-01, -2.4753868580e-01, -4.0204999968e-03, -1.0557466745e-01, -2.5316311046e-02,  1.1269451119e-02,  2.9136429075e-03, -2.9775992036e-02, -1.7082658410e-01, 
	 8.1719264388e-02,  1.0563373566e-01, -6.3875816762e-02, -5.0263788551e-02, -7.1375414729e-02,  5.2854239941e-02,  1.0549777746e-01, -1.0166405886e-01, -2.1294833720e-01, -2.4389734864e-01, 
	-4.2312470078e-01, -7.5891681015e-02, -1.9478411973e-01, -1.7178894579e-01, -2.2387701273e-01, -3.4460663795e-01, -1.1767829210e-01,  1.5190801024e-01,  1.8741762638e-01,  1.1956000701e-02, 
	 3.0150383711e-01,  1.6510847211e-01,  1.3125513494e-01,  8.3545692265e-02, -2.4432195723e-01, -2.3858565092e-01, -1.1294212891e-03, -1.5409651212e-02,  7.6112277806e-02,  1.1908313632e-01, 
	 5.1395889372e-02,  1.3539458811e-01,  1.4290814102e-01,  2.0638588071e-01,  2.3010444641e-01, -2.7192631364e-01, -4.6054109931e-01, -2.8535714746e-01,  1.9782797992e-01, -2.7340111136e-01, 
	-8.3599582314e-02,  1.9300685823e-01, -7.2917975485e-02, -7.9797632992e-02, -1.9180884957e-01, -5.9776894748e-02,  2.0503112674e-01,  4.4203538448e-02,  6.8781577051e-02,  3.5376745462e-01, 
	-9.5447115600e-03, -8.1902094185e-02,  2.3283517361e-01,  9.4993220409e-04, -2.0553585887e-01, -2.0902600884e-01, -7.2301641107e-02, -1.5219022334e-01, -1.9013687968e-01,  1.2889891863e-01, 
	 1.3336983323e-01, -5.8874003589e-02,  3.3743262291e-02,  1.7774696648e-01,  5.7395290583e-02, -1.7883361876e-01, -4.6558506787e-02,  3.1635729829e-04,  3.5702966154e-02,  1.3698290102e-02, 
	 1.9620908424e-02, -2.7516797185e-01, -2.8242272139e-01, -7.8729927540e-02, -1.7043799162e-01, -2.0073375106e-01, -2.8077006340e-01, -1.6324207187e-01, -1.6129413247e-01, -2.9981419444e-01, 
	 1.7497386038e-01,  9.8875932395e-02,  1.8769918382e-01,  2.3326000199e-02, -2.1413855255e-02, -1.1555924080e-02,  1.5095151030e-02,  9.5834665000e-02,  6.4625844359e-02,  7.5487293303e-02, 
	-8.2095734775e-02, -1.5868075192e-01,  8.1898018718e-02, -3.5575736314e-02, -1.5405584872e-01,  1.7918039858e-01,  2.0837327838e-01,  6.3222378492e-02,  7.1688750759e-03, -2.4726410210e-01, 
	-4.4148424268e-01,  1.3759019971e-01, -2.6690667868e-01, -4.5356884599e-01,  2.6524433494e-01,  2.4295260012e-01,  1.4839400351e-01, -2.2049115598e-01, -6.4001623541e-03,  2.9769966006e-01, 
	-2.8635364026e-02,  1.4154626429e-01,  4.7874394804e-02, -2.6656569913e-02,  1.1536929756e-01,  5.3016845137e-02,  1.1704768240e-01, -1.6563679278e-01, -1.1175993085e-01,  7.4257431552e-03, 
	-1.4257368445e-01, -2.6697543263e-01, -4.2956735939e-02, -9.0565726161e-02, -1.4745201170e-01,  1.7144544423e-01, -2.3301078007e-02,  1.0308435187e-02, -2.3661607876e-02, -6.8130664527e-02, 
	 3.7723992020e-02, -4.8196684569e-02, -7.5657166541e-02, -8.2574538887e-02,  2.8464251757e-01,  1.1956180632e-01,  3.0681070685e-01,  1.8093422055e-02,  8.7239496410e-02,  1.5754741430e-01, 
	-5.3244680166e-02, -1.9844949245e-02, -1.1116383225e-01,  7.0039533079e-02,  1.3491706550e-01,  1.5508866869e-02,  1.0551770031e-01,  1.5433461964e-01, -1.0341647267e-01,  6.3270993531e-02, 
	-2.0819822326e-02, -2.2554148734e-01,  7.4068829417e-02, -1.1185009032e-01,  7.4313156307e-02,  1.2200038135e-01, -1.6560339928e-01, -2.5091800094e-01,  4.3882161379e-02, -3.8173577189e-01, 
	-2.5436568260e-01,  2.8160119057e-01,  6.5383911133e-02, -3.9567835629e-02,  2.0136784017e-01, -1.8909672275e-02, -1.7005228996e-01,  1.8148388714e-02,  9.9502868950e-02,  4.2758710682e-02, 
	-2.1753389388e-02, -4.4348414987e-02,  3.9639890194e-02,  1.1717574298e-01,  8.5070438217e-04,  1.8299646676e-01,  1.0174258798e-01, -8.4568277001e-02,  1.5344816446e-01,  8.4075957537e-02, 
	 1.1455134302e-01,  1.4901494980e-01, -9.0042548254e-03,  1.0521953553e-01,  8.7311126292e-02,  1.1574320495e-01,  1.3548140414e-02,  1.0978105664e-01,  4.3210700154e-02, -7.8969150782e-03, 
	 3.1176872551e-02, -6.8202301860e-02, -6.5357893705e-02, -7.7329725027e-02, -2.1673974115e-03,  6.5067045391e-02,  6.0079167597e-03, -5.2203591913e-02,  1.2883749604e-01,  2.7562290430e-01, 
	-3.0409015715e-02,  5.6879129261e-02,  1.9960503280e-01,  6.0926992446e-02, -3.9537832141e-02,  1.8404510617e-01,  3.8449060172e-02,  1.0069475975e-03, -1.7765474319e-01,  4.3601255864e-02, 
	 8.5306853056e-02, -1.5647552907e-01,  1.3082194328e-01,  7.5672917068e-02,  2.7515044436e-02,  1.3219065964e-01,  1.6751314700e-01,  1.9489347935e-01,  1.5040265024e-01,  4.1963826865e-02, 
	-7.6663768850e-03,  5.7775814086e-02,  7.3889784515e-02, -8.4896162152e-02,  9.2887291685e-03, -1.1731195264e-02, -7.9299904406e-02,  8.2628369331e-02, -2.7419064194e-02,  9.3141436577e-02, 
	 7.3178030550e-02, -2.9416849837e-02, -5.5689413100e-02,  4.9388095737e-02,  6.8828374147e-02, -4.9395862967e-02, -2.9243024066e-02,  1.1523807794e-01,  9.1032341123e-02,  2.7007125318e-02, 
	-4.7213220969e-03, -1.2240467593e-02, -1.2050046772e-01,  8.1516914070e-03, -7.1187242866e-02,  5.6153144687e-02, -5.5268533528e-02,  2.1332841367e-02, -2.4371067993e-03,  8.2673788071e-02, 
	 6.1399813741e-02,  5.8188423514e-02, -9.8908029497e-02, -1.1979867518e-01,  5.1627743989e-02,  1.5411117673e-01,  1.4333716035e-01, -1.3865925372e-01, -1.0393958539e-01, -4.5247245580e-02, 
	 1.6603204608e-01,  7.1212798357e-02,  1.6076867282e-01,  1.7016373575e-01,  7.4895329773e-02,  2.0976246893e-01,  1.0130858421e-01,  1.6583028436e-01,  1.5282006562e-01, -3.3198770881e-01, 
	-1.9967621565e-01, -3.8460448384e-02, -1.3011454046e-01, -5.4568145424e-03,  6.0723636299e-02, -2.4826975539e-02,  1.5041251481e-01,  2.0148424804e-01, -1.1110428721e-01, -1.7427161336e-02, 
	-7.0461463183e-03,  4.3012257665e-02, -1.2304721400e-02,  7.5927153230e-02,  1.4073566534e-02,  4.1513148695e-02,  2.7669282630e-02,  4.7710143030e-02, -5.8229625225e-02, -3.5710141063e-01, 
	 1.4028179646e-01,  1.3971994817e-01, -3.3035290241e-01,  1.5893296897e-01,  1.6007183492e-01,  5.5835936219e-03,  1.1220853031e-01,  5.4222781211e-02, -1.6041344404e-01,  9.1154813766e-02, 
	-1.0469670594e-01, -1.9701597095e-01,  1.2849768996e-01,  1.4371460676e-01,  3.0825231224e-02,  9.1527119279e-02, -5.9220138937e-03, -1.6366294026e-01,  1.2768983841e-01, -4.3792765588e-02, 
	-6.7455247045e-02,  1.2946675718e-01,  1.7457500100e-01,  3.6890257150e-02,  6.9816909730e-02,  2.7912450954e-02,  2.1704450250e-02,  1.3391390443e-01, -1.2919941917e-02, -3.7055980414e-02, 
	-2.0583933219e-02, -1.0894279182e-01, -2.0549601316e-01, -1.5188474208e-02, -2.6430966333e-02, -5.4335702211e-02, -4.0939871222e-02,  5.2896697074e-02,  1.6198174655e-01, -5.6535098702e-02, 
	 1.0566280037e-01,  1.0673718899e-01,  2.5895050168e-01,  1.5627199411e-01,  2.2317020223e-02, -2.9924038798e-02,  8.3181999624e-02, -8.0253705382e-02, -1.6019633040e-02, -2.6700295508e-02, 
	 1.3177418150e-02,  8.2341670990e-02, -2.3002406582e-02, -2.3086380959e-01, -7.3035527021e-03,  5.1858168095e-02, -1.2468125671e-01,  4.2141094804e-02,  2.0463359356e-01,  1.1559789628e-01, 
	 6.5922066569e-02,  9.0048015118e-02,  2.8866961598e-01, -1.7200613022e-01, -2.5755858049e-02,  1.2583987415e-01, -1.3998769224e-01, -1.5427596867e-01,  4.5471712947e-02, -1.1347630620e-01, 
	-4.0875740349e-02, -2.3529620841e-02, -2.3010963202e-01, -7.5844712555e-02, -3.6869727075e-02,  9.7069173353e-04, -1.8814552575e-02,  1.3030405343e-01, -3.5122487694e-02,  1.5034748614e-01, 
	 2.9895203188e-02, -1.8712903559e-01, -1.1969652772e-01, -2.1692848206e-01, -3.3732345700e-01, -2.1332010627e-01, -3.5031872988e-01,  1.8757674843e-02, -7.5945675373e-02, -7.9024471343e-03, 
	 5.9849202633e-02,  9.3042798107e-04,  9.9916212261e-02,  2.0600998774e-02, -2.4974646047e-02,  2.3562816903e-02,  9.3539349735e-02,  2.1409583092e-01,  1.3515284657e-01, -2.4220611900e-02, 
	 6.3810817897e-02,  3.3718168736e-02, -2.5782489777e-01, -6.7561201751e-02,  3.2065801322e-02,  1.8521761894e-01,  2.8365737200e-01,  1.9938100874e-01,  1.0836902261e-01, -1.0784756392e-01, 
	-4.4385346770e-01,  1.0607066005e-01,  2.3204723373e-02, -2.8132095933e-01, -9.6864841180e-04, -5.8481760323e-02, -2.2435629740e-02, -1.9759075344e-01, -1.3289776444e-01, -1.7311468720e-01, 
	-2.9582074285e-01, -2.2477300465e-01, -2.5018137693e-01, -6.5205797553e-02, -1.2916572392e-01, -3.1988319755e-01,  4.3958436698e-02, -3.0259415507e-01, -8.0206178129e-02, -6.7889183760e-02, 
	-3.2174593210e-01, -8.6938276887e-02, -3.1051009893e-01,  8.6851879954e-02,  5.2759036422e-02, -2.5725698471e-01,  6.9223329425e-02,  1.8857264519e-01, -3.6424630880e-01,  6.4424432814e-02, 
	 1.8385364115e-01, -1.0867691040e-01,  6.6725969315e-02,  6.4480841160e-02, -5.2851069719e-02, -3.1183965504e-02,  3.7150386721e-02,  4.4804435223e-02, -6.9956406951e-02, -3.5723902285e-02, 
	 8.4182836115e-02, -6.0913093388e-02,  7.1279667318e-03,  2.9953852296e-02,  6.8086326122e-02,  1.2966709211e-02, -1.0415557772e-01,  1.1497589760e-02, -1.5573608875e-01,  3.4587595612e-02, 
	 2.2368296981e-01, -1.3403351605e-01,  1.7279895023e-02,  2.5126399472e-02, -8.3366498351e-02, -1.3529942930e-01, -1.1648119241e-01, -1.5529038012e-01,  2.1229183767e-03, -4.0274016559e-02, 
	 7.1823954582e-02,  1.3024212793e-02,  1.1435855180e-01,  6.0804836452e-02, -3.5973668098e-02,  8.8655678555e-03,  7.1965130046e-03, -2.1558528766e-02,  1.3384242356e-01,  3.5184431821e-02, 
	 7.5720809400e-02,  2.7148883790e-02,  2.7830315754e-02,  6.2133431435e-02, -6.6163301468e-02, -8.2525871694e-03,  1.4275622368e-01,  1.3701045513e-01,  1.6439919174e-01,  9.1826923192e-02, 
	 1.0400918871e-01,  1.9744443893e-01,  4.5919589698e-02,  5.8592215180e-02,  9.8902881145e-02,  2.3314912617e-01, -1.8337966176e-03, -2.3321421817e-02,  1.1411279440e-01, -2.9074177146e-02, 
	 4.3721083552e-02, -9.0236226097e-03, -1.4937750995e-01, -9.0782895684e-02,  1.6744762659e-01,  7.2745829821e-02,  7.9634182155e-02,  1.5141360462e-01,  5.6966338307e-02,  2.6261252165e-01, 
	 2.6069438457e-01,  1.6650089622e-01,  1.4459551871e-01, -6.9683894515e-02,  1.4061994851e-01,  7.0091299713e-03, -1.1151900887e-01,  5.8467760682e-03, -3.4155827016e-02,  2.1652773023e-02, 
	 1.4471967518e-01, -1.8472248688e-02,  9.6600860357e-02,  1.5496219695e-01,  1.0026621819e-01, -1.3896714151e-01, -5.9364610352e-03,  9.6515707672e-02, -2.2693821788e-01, -1.1503565311e-01, 
	 3.8974948227e-02,  4.5006256551e-02, -9.1719701886e-02, -4.0468230844e-02, -1.1755174398e-01, -6.6516026855e-02,  1.5608808398e-01, -1.7362263054e-02, -9.9066495895e-03,  1.1039523035e-01, 
	 2.7311662212e-02, -5.1847272553e-03,  4.6639880165e-03,  4.7717997804e-03,  3.8314875215e-02, -1.2159087509e-01,  1.4468349516e-01,  6.4487949014e-02, -1.8795017153e-02,  2.1077376604e-01, 
	-7.6240032911e-02, -3.2410722226e-02, -7.2870459408e-03, -1.1280190200e-01, -1.1534825712e-01,  1.4803923666e-01,  1.1777033657e-01,  1.1892280728e-01,  1.2718386948e-01,  6.1194844544e-02, 
	 3.7252902985e-02, -1.0042458028e-01,  7.4137054384e-02,  9.1384097934e-02, -9.6838414669e-02,  1.4102235436e-02,  9.5049701631e-02, -9.6938639879e-02,  9.6804723144e-03, -6.8361848593e-02, 
	 3.6885697395e-02, -7.4739560485e-02,  9.6993602812e-02,  5.7443078607e-02, -2.7566373348e-02,  1.4080278575e-01, -1.5576571226e-01,  1.5506410599e-01, -8.9651616290e-03, -9.1555491090e-02, 
	-8.0615296960e-02, -5.2472099662e-02, -3.2404836267e-02, -2.3913912475e-02,  4.9921486527e-02, -6.5424323082e-02, -1.0792987049e-01,  3.0430233106e-02,  2.1262450609e-03, -1.5328487754e-01, 
	 5.4548878223e-02,  1.5579161048e-01,  1.3381634653e-01,  2.1193945408e-01, -2.0472399890e-01, -1.0286704451e-01,  4.6834502369e-02, -5.7434216142e-02, -3.9844155312e-02, -8.1242792308e-02, 
	 2.0950157940e-01, -7.3127031326e-02, -1.5433086455e-01,  6.2357399613e-02, -5.5214226246e-02, -1.6065467894e-01,  1.1275403202e-01,  8.2480400801e-02,  8.0674558878e-02,  5.2311591804e-02, 
	-1.0059492663e-02, -3.3073436935e-03, -1.1893808842e-01,  8.7770111859e-03,  1.8612106144e-01, -6.9359354675e-02, -5.2989698015e-03,  8.8497839868e-02,  1.3624274731e-01, -4.2986974120e-02, 
	 6.7874372005e-02, -1.7587028444e-02, -1.4129725099e-01, -1.9071564078e-01,  4.3054293841e-02,  3.6269351840e-02,  1.4504615963e-01,  2.4254411459e-01,  5.5164363235e-02,  5.2313644439e-02, 
	 1.1965655535e-01,  1.4580959082e-01,  1.4184968174e-01, -8.7876589969e-03,  9.2362999916e-02,  1.1272236705e-02, -2.5525152683e-02,  3.7062607706e-02, -8.2495165989e-03,  2.9006443918e-02, 
	-1.4842668548e-02, -1.0637708753e-01, -4.2611278594e-02,  2.2650402039e-02,  1.1063218117e-02, -4.0006905794e-02,  3.6754243076e-02,  3.4239001572e-02, -8.2870155573e-02,  2.5769367348e-03, 
	 2.2261617705e-02, -1.3051726855e-02, -2.2596761584e-02, -2.7689332142e-02, -7.2641178966e-02, -1.4463861287e-01,  1.6955418512e-02,  3.9766881615e-02, -2.7281966060e-02,  2.2127177566e-02, 
	 5.3482320160e-02,  6.5498024225e-02,  1.3330946863e-01, -5.2165243775e-02, -1.3698223978e-02,  4.3925203383e-02,  4.3668605387e-02,  1.1489482224e-01,  1.5346026421e-01,  2.1945232525e-02, 
	 6.6602334380e-02,  1.0953227431e-01, -6.4392760396e-02, -1.1622227728e-01, -5.9296838939e-02, -3.7586417049e-02,  7.6619572937e-02,  1.1997273564e-01,  3.3721890301e-02, -2.6131542400e-02, 
	-3.1150713563e-02,  2.3789968342e-02,  4.5775998384e-02,  3.5963132977e-02,  5.4206077009e-02, -4.6426165849e-02,  9.4118773937e-02, -7.4442610145e-02, -5.8769113384e-03,  7.1990139782e-02, 
	-4.2981211096e-02, -8.4730409086e-02,  9.7127348185e-02,  1.0670595616e-01,  9.9288560450e-02, -5.0316330045e-02, -1.8653927371e-02, -7.7664792538e-02, -2.1707871556e-01, -4.8612258397e-03, 
	-1.1514005810e-01, -1.6470876336e-01,  3.9712868631e-02,  5.1118269563e-02, -2.8103508055e-02,  3.2089736313e-02,  3.1413007528e-02,  5.6234952062e-02, -4.1059613228e-02,  6.0552448034e-02, 
	-4.1176714003e-02, -1.2494777143e-01, -1.6779266298e-01, -3.7770651281e-02, -6.3417114317e-02, -1.0376175493e-01, -1.8213777244e-01,  1.0651870817e-01,  9.8737537861e-02, -2.1349923685e-02, 
	 6.4110450447e-02, -1.7517674714e-02, -2.9316380620e-01,  1.0531876236e-01, -3.9825476706e-02, -1.6973522305e-01,  2.3393144831e-02,  2.4301916361e-02, -1.5740001202e-01,  3.6734831333e-01, 
	 2.3647606373e-01,  1.3772492111e-01,  1.3271291554e-01, -4.9675386399e-02, -1.4452843368e-01, -1.0314992396e-03, -1.2461896241e-01, -3.4592661262e-01,  7.4055127800e-02,  2.6444237679e-02, 
	-1.0948874056e-01,  1.1539611220e-01,  1.1337190121e-01,  6.2284205109e-02,  2.5595089793e-01,  1.6212452948e-01,  1.2286618352e-01, -9.3826286495e-02, -1.9359008968e-01, -2.4539616704e-01, 
	 1.0175797343e-01, -5.3777992725e-02,  1.3248138130e-03, -7.5702145696e-02, -5.0522036850e-02, -5.9038061649e-02, -4.1612267494e-02,  3.3289613202e-03,  2.7208054438e-02, -1.5864759684e-01, 
	 9.3591958284e-02, -3.5927582532e-02, -2.1634261310e-01, -7.4551352300e-03, -1.9343191758e-02, -5.9452001005e-02, -5.1228992641e-02, -2.7541171759e-02,  2.0982490852e-02,  5.0332915038e-02, 
	-4.7481469810e-02,  1.9941728562e-02,  1.6389634460e-02, -2.3211210966e-02, -1.3140565157e-01, -2.4809909984e-02,  1.2226798385e-01, -1.4791332185e-01, -1.3578781486e-01, -4.4346179813e-02, 
	 2.9755726457e-02,  6.1927881092e-02,  1.1557336897e-01, -3.7149474025e-02,  6.4530752599e-02, -5.5621657521e-03, -4.6661790460e-02,  5.8006260544e-02, -5.5303327739e-02,  3.6234855652e-03, 
	 5.2670978010e-02, -1.1661823839e-02,  3.0219888315e-02,  1.9048760831e-01,  1.9984433055e-01,  1.9424509257e-02,  3.2315619290e-02,  4.4416654855e-02, -1.3496243954e-01, -6.3043102622e-02, 
	-9.1240108013e-02, -5.9425532818e-03,  2.9758333694e-03, -3.6644570529e-02, -5.8593317866e-02,  9.2665940523e-02,  2.4787811935e-01, -7.4239723384e-02, -2.7782306075e-02,  1.1375236511e-01, 
	 2.7760917321e-02,  2.2170387208e-01,  8.9034363627e-02,  8.2795940340e-02,  4.5368414372e-02,  3.8298390806e-02, -2.5957944989e-01, -2.7047276497e-01, -1.1394678056e-01, -5.1574502140e-02, 
	 3.3840287477e-02, -3.4219790250e-02,  8.0134838820e-02,  8.5220731795e-02,  6.6319540143e-02,  1.2070392817e-01,  1.6206316650e-01,  1.2404055893e-01, -4.1803866625e-02,  6.7870490253e-02, 
	 1.1939883977e-01,  2.0149422809e-02, -8.0994121730e-02, -8.0142490566e-02,  9.9259078503e-02,  1.2092248350e-01, -1.1515466124e-01,  1.3529856503e-01,  7.2221964598e-02,  1.5268741548e-01, 
	 4.4086772949e-02,  1.1434206367e-01,  1.2760081887e-01,  2.5297623128e-02,  3.1411267817e-02, -8.2395616919e-03,  2.3395046592e-02, -2.3928333074e-02,  1.6040220857e-01,  1.3356800377e-01, 
	 3.0050682835e-03,  5.7404890656e-02,  9.1995283961e-02, -7.7699288726e-02, -1.5795704722e-01, -3.5559166223e-02, -4.1322158650e-03, -5.3159654140e-02, -5.6890394539e-02,  2.4448297918e-02, 
	 4.8405367881e-02,  4.3403595686e-02,  6.6691778600e-02, -4.7880593687e-02, -1.5050369501e-01, -9.4741433859e-02, -1.7541661859e-01,  1.4811690152e-01,  1.0343854874e-01,  7.4286617339e-02, 
	 8.8811352849e-02, -4.3378878385e-02, -1.7626684904e-01, -1.9888128340e-01, -8.5368730128e-02,  1.8737104535e-01,  2.6679657400e-02,  1.1022031307e-02, -4.2669098824e-02,  1.5866075456e-01, 
	-1.1916927062e-02, -1.3601557910e-01, -1.2317541242e-01, -1.0090136901e-02,  1.8141816556e-01, -1.9379898906e-01, -1.2440330535e-01,  4.5007348061e-02, -2.6560205221e-01, -2.4553677440e-01, 
	-2.2299854457e-01,  5.9897501022e-02,  7.3484174907e-02, -5.9588171542e-02,  1.8380838633e-01,  1.2409736216e-01, -3.1536139548e-02,  4.8454101197e-03, -1.1115309596e-01, -1.8192604184e-01, 
	 1.8535996974e-01,  5.6914381683e-02, -1.7063425481e-01,  8.9607529342e-02, -4.4943872839e-02, -1.3648065925e-01, -9.0519882739e-02, -2.2655839100e-02, -1.7718981206e-01, -1.6576159745e-02, 
	-1.1733429879e-01, -9.6083305776e-02,  1.4882975817e-01,  1.0593038052e-01, -7.3469184339e-02,  5.3674075752e-02, -3.9036560804e-02, -1.5929752588e-01, -1.7959590256e-01,  1.1035864800e-01, 
	 2.1857932210e-01, -2.0571394265e-01,  8.3686344326e-02,  2.7821135521e-01, -2.2179366648e-01, -2.4685017765e-01, -1.2685088441e-02,  1.3296641409e-01,  1.3102994300e-02,  1.6317481175e-02, 
	 1.6076430678e-01,  8.2301132381e-02,  7.4944049120e-02,  2.4748483300e-01,  1.4333148301e-01,  9.0320155025e-02, -1.7714819312e-01, -7.5450971723e-02,  9.4233796000e-02, -1.2507785857e-01, 
	-2.1097688377e-01,  3.6037005484e-02, -2.3934314027e-02, -6.0510117561e-02, -1.0284330696e-01,  8.7527558208e-02,  3.6918066442e-02, -1.3352639973e-01,  7.9178839922e-02,  3.9481800050e-02, 
	 9.0837758034e-03,  1.9215686619e-01,  2.5780579448e-01,  1.0098467767e-01, -1.8160685431e-03,  3.1795237213e-02,  2.0912591368e-02,  1.0783826560e-01, -9.4365961850e-02,  7.0981029421e-03, 
	 4.8777427524e-02, -8.4980450571e-02, -1.0572563112e-01, -2.2974802414e-04,  1.8560603261e-01,  8.4152661264e-02, -1.0900341906e-02,  1.4626125805e-02,  5.9707444161e-03, -2.0370036364e-02, 
	-1.2514999509e-01, -2.0035649836e-01, -1.8843787909e-01,  1.7670647800e-01,  3.4497898817e-01, -9.7885251045e-02,  1.3146404922e-01,  2.3054675758e-01, -2.0688454807e-01, -6.3226311468e-03, 
	 2.9450181872e-02, -2.2677078843e-02, -6.9890342653e-02, -1.9064013660e-01,  9.3431092799e-02, -1.5094120987e-02, -2.6590409875e-01, -1.4834447764e-02,  6.1092127115e-02, -7.3771566153e-02, 
	 5.8588694781e-02,  1.4177884161e-01, -1.8272592127e-01,  7.8562185168e-02, -7.1786627173e-02, -2.9744660854e-01, -1.8033957109e-02,  2.0579671860e-01,  3.9826653898e-02, -4.6189125627e-02, 
	 1.0989417881e-01,  1.4567457139e-01, -6.1967339367e-02,  2.3300001025e-01,  1.8217419088e-01, -2.1728467196e-02,  4.2814448476e-02, -8.4924772382e-02,  7.7776841819e-02,  1.6824771464e-01, 
	 1.5522006154e-01,  2.8933823109e-01,  2.2198189795e-01,  1.6258114576e-01,  1.1617127061e-01,  2.2285684943e-01,  1.2549172342e-01, -2.3550668266e-04,  2.2317647934e-02, -4.5652221888e-02, 
	-4.6691805124e-02, -4.7044031322e-02, -5.5978368968e-02, -9.9535889924e-02,  8.9654967189e-02,  8.8832482696e-02, -5.1018134691e-03,  2.8168734163e-02,  9.0374894440e-02,  7.3685057461e-02, 
	 1.6625089943e-01,  2.6371833682e-01, -3.1728208065e-01, -8.3943910897e-02,  1.3560625911e-01, -1.2065697461e-01, -1.2568232417e-01,  3.9895307273e-02,  1.3888779283e-01, -6.9449390285e-03, 
	-3.1725529581e-02, -7.9535901546e-02,  7.1979418397e-02,  9.4277732074e-02,  5.4186820053e-03, -1.0129369050e-01, -2.1760155261e-01,  1.6400967538e-01,  3.6531534046e-02,  1.4241030440e-02, 
	 7.4467971921e-02,  8.6413420737e-02, -5.7113864459e-03, -5.6054208428e-02,  9.6899688244e-02, -1.1846040934e-01,  1.6407763958e-01,  2.1646741033e-01,  8.6855888367e-02,  2.6081416756e-02, 
	-3.9036937058e-02, -1.2420839816e-01, -4.6232281602e-04,  1.6210995615e-01, -1.9687895477e-01,  3.6428190768e-02,  8.0971322954e-02, -6.7661806941e-02, -9.6519939601e-02,  1.2383406982e-02, 
	-1.3873375952e-01, -5.7785894722e-02,  3.2985493541e-02,  8.7828911841e-02, -5.0207160413e-02,  2.0789541304e-02, -5.8735817671e-02, -9.1773748398e-02, -1.7896990478e-01, -3.6275249720e-01, 
	-1.1845573783e-01, -2.9263606295e-02,  1.7798700929e-01,  3.0381524935e-02,  7.2275660932e-02, -1.3186043501e-01, -5.1620252430e-02,  1.1326020211e-01, -8.9113347232e-02,  2.2112454474e-01, 
	 4.6536561847e-01,  2.4048747122e-01,  1.1171633750e-01,  1.8923978508e-01,  1.1873055995e-01, -2.0616564155e-01,  6.1067327857e-02, -1.3953953981e-01,  1.0615544766e-01,  1.2809999287e-01, 
	-3.4143894911e-02,  2.5424376130e-01,  2.1384428442e-01,  1.0190287605e-02,  9.9849976599e-02, -4.0597207844e-02, -1.3896068931e-01, -1.5912136436e-01,  8.2015365362e-02, -5.0821308047e-02, 
	 1.6706699505e-02,  1.4408060908e-01, -8.6543723941e-02, -5.1724940538e-02, -1.1543794721e-01, -1.9512318075e-01, -2.2031210363e-02, -7.7008269727e-02,  1.5709260106e-01,  1.9186862046e-03, 
	-8.3431839943e-02,  9.2333722860e-03,  8.8950447738e-02,  8.8192142546e-02, -1.6450838745e-01, -2.2075600922e-01,  5.8720629662e-02,  1.9634775817e-01,  3.4403979778e-02,  1.8579871953e-01, 
	 2.3407530785e-01, -5.6414008141e-02, -6.1309680343e-02, -3.2528859377e-01, -1.8354623020e-01, -2.7841430902e-01, -1.5491098166e-01, -1.3316616416e-01, -2.3498946428e-01, -3.3753901720e-01, 
	-7.5879865326e-03, -1.4795331657e-01, -1.3006864488e-01, -8.5984561592e-03, -3.3255908638e-02,  6.5802648664e-02,  2.0514426287e-03, -3.7349585444e-02, -3.2589681447e-02,  5.5480170995e-02, 
	-1.2686734088e-02, -2.7246460319e-02,  1.3762749732e-01,  7.6826394070e-04,  1.6724842787e-01,  2.8709384799e-01,  2.7199518681e-01,  2.4858108163e-01,  3.4743964672e-01,  2.8050690889e-01, 
	 9.9473148584e-02, -1.7114706337e-01, -3.2364193350e-02,  1.6991299391e-01,  3.0788506847e-03, -1.3388749957e-01,  1.1105491966e-01, -9.8566278815e-02, -1.6073960066e-01,  3.3774316311e-01, 
	-4.9223147333e-02, -3.8964316249e-02, -4.5023523271e-02,  1.8150191009e-01,  3.0744904652e-03, -4.2025186121e-02,  2.5095891953e-01,  1.0136435926e-01,  1.9825595617e-01,  1.7051210999e-01, 
	 7.2377718985e-02, -1.3720186055e-01,  2.5505486131e-01,  2.6560170576e-02, -2.7076208591e-01, -3.3410426695e-03, -4.6325635165e-02, -1.7927215993e-01,  5.6572705507e-02,  1.6458828747e-01, 
	 1.7822724581e-01,  4.1494976729e-02,  4.7587372363e-02,  8.8730916381e-02, -9.8109327257e-02, -2.5811156631e-01, -2.0848847926e-01, -1.1634729058e-01, -1.1529632658e-01, -1.8027069047e-02, 
	 5.3046192974e-02,  1.3477555476e-02,  1.9172944129e-01,  2.5440888479e-02,  8.9040495455e-02,  8.2519270480e-02, -2.6727460325e-02,  1.0589581914e-02, -9.1020852327e-02, -1.6850022599e-02, 
	-3.4101884812e-02, -1.4683434740e-02, -1.0961306840e-01, -4.1632834822e-02,  1.1125521362e-01, -2.3130287230e-01, -2.8005585074e-01, -3.1764325500e-01, -3.9729282260e-02, -9.1393999755e-02, 
	-9.7498282790e-02,  6.2880322337e-02, -1.0676490143e-02,  5.4620016366e-02, -8.6597025394e-02, -4.3154162169e-01, -1.7313523591e-01,  1.4116989076e-01, -3.3939361572e-01, -3.2564710826e-02, 
	 2.1497355402e-01, -1.1801834404e-01,  8.8405199349e-02, -7.7640324831e-02, -9.0558983386e-02, -2.5717392564e-01,  3.0182888731e-02,  1.0402920097e-01,  1.5034478158e-02,  1.0891509056e-01, 
	-5.6629918981e-04,  3.7887766957e-02, -2.4845874310e-01, -1.5915742517e-01,  1.5833939612e-01, -7.1667678654e-02, -1.1056736112e-01,  1.3613049686e-01, -1.5210041404e-01, -1.3858413696e-01, 
	-1.2288836762e-02, -2.6597130299e-01, -5.7777363062e-01, -4.1677668691e-01,  6.4961090684e-02, -1.8916163594e-02, -1.2674625032e-02,  1.3172076643e-01,  1.3285419904e-02, -2.9101977125e-03, 
	-8.6359269917e-02, -4.7927051783e-02,  3.3972330391e-02,  1.4147648588e-02,  6.5542325377e-02,  5.7731874287e-02, -1.4929731376e-02, -2.0991748199e-02,  6.6415563226e-02, -5.9656430036e-02, 
	 4.7479849309e-02, -1.0184156150e-01, -2.7669584379e-02,  4.0444552898e-02,  1.4457046986e-02,  1.0878636688e-01,  6.0335375369e-02, -9.1678807512e-03,  2.3176150024e-01,  3.7466037273e-01, 
	 2.1348291636e-01, -2.7875933796e-02,  1.2958571315e-01,  8.3071082830e-02, -2.9199141264e-01, -1.5814660490e-01, -2.1245525777e-01,  3.8665473461e-02,  1.6305014491e-01,  1.6247877851e-02, 
	 2.6655368507e-02,  1.3896903396e-01, -6.7375063896e-02, -2.1175342798e-01, -3.7455447018e-02, -5.0885088742e-02, -2.3801116645e-01, -1.7919321358e-01, -9.9135302007e-02,  6.2333296984e-02, 
	 1.2124635279e-02, -3.0124876648e-03, -4.9590107054e-02, -1.2298233062e-01, -1.4443299174e-01,  1.9769063219e-02,  4.0341090411e-02,  4.5946203172e-02,  6.1766654253e-02, -5.1347361878e-03, 
	 5.1008824259e-02,  7.7894382179e-02, -9.2343203723e-02,  9.7526423633e-02, -2.4496939778e-01,  5.6502064690e-03, -2.6270503178e-02, -3.0462273955e-01, -4.5259624720e-02,  1.3945306838e-01, 
	-3.0597007275e-01, -1.4317211509e-01, -8.1030577421e-03,  1.1719256639e-01,  5.7859886438e-02,  2.0655071363e-02,  1.5649525821e-01, -2.0174311101e-01, -1.9311130047e-01,  9.1731615365e-02, 
	-1.8392296135e-01, -1.5948387980e-01,  6.4965799451e-02, -1.2450898066e-02, -1.9030603766e-01,  1.5485993586e-02,  2.4097244442e-01, -1.2675803900e-01, -2.2421741858e-02, -2.6434216648e-02, 
	-2.1112713218e-01,  2.4707998335e-01,  1.4012593031e-01, -4.7692652792e-02,  7.7282950282e-02, -1.5628609061e-01, -1.2852318585e-01, -1.7344051600e-01, -3.5756915808e-01, -2.6076552272e-01, 
	 8.1925310194e-02, -1.3871985674e-01, -2.6170231402e-02,  2.3581904173e-01, -2.0930936933e-01, -4.1677537560e-01,  1.6054223478e-01, -1.9212388992e-01, -2.9925304651e-01,  1.6585612297e-01, 
	-7.4547715485e-02, -1.9601587951e-01,  2.3598897457e-01, -6.7509114742e-02, -3.2605350018e-01,  1.1873670667e-01,  2.2052241489e-02,  4.6356674284e-02,  3.6447253823e-01,  1.3268183172e-01, 
	 1.1589678377e-01,  2.8414928913e-01, -1.9557805359e-01, -1.9096429646e-01, -1.4559031464e-02, -4.4743517041e-01, -2.1709167957e-01, -7.6839476824e-02,  5.0732153468e-03, -3.4777066112e-01, 
	 1.9045323133e-01,  8.2881063223e-02,  2.2359389812e-02, -7.7224843204e-02, -2.7616634965e-02,  2.0617726445e-01,  3.7360858172e-02,  5.4721657187e-02,  9.0100206435e-02,  2.3703789338e-02, 
	 2.7411784977e-02, -8.2118056715e-02,  1.5642260015e-01,  7.9875461757e-02,  2.1268056706e-02,  3.5724930465e-02,  1.4359015040e-02,  5.8132234961e-02, -5.1392521709e-02, -4.0192037821e-02, 
	 1.0343236476e-01,  2.8649885207e-02, -3.4162006341e-03, -3.6009177566e-02, -1.3112661429e-02, -4.2608659714e-02, -5.0889283419e-02, -8.2692643628e-03, -9.9249348044e-02,  6.6062070429e-02, 
	-3.5803362727e-02, -3.2413315028e-02,  6.8781308830e-02,  1.4867249131e-01,  1.7218749225e-01,  2.5360521674e-01, -3.7255652249e-02, -1.0205402039e-02,  3.7248365581e-02, -5.6083317846e-02, 
	-1.7104035616e-01, -8.2358755171e-02,  7.0687927306e-02, -3.4939259291e-02, -3.5806421191e-02, -3.0198542401e-02,  3.1366821378e-02, -1.6960999370e-01, -2.2524479777e-02,  7.8345157206e-02, 
	 4.7964896075e-03,  7.1583382785e-02,  1.4867514372e-01,  1.8221081793e-01,  2.7915446088e-02, -4.3418575078e-02,  6.8603418767e-02, -6.9734126329e-02, -1.8419991434e-01, -8.6014702916e-02, 
	 1.3274118304e-01,  1.1907650530e-01,  2.2001858801e-02,  3.6694359034e-02,  1.4871026389e-02, -1.4639294147e-01,  6.5362498164e-02,  1.3509885408e-02,  1.1124131829e-01,  1.1426295340e-01, 
	 8.7861537933e-02,  4.7442350537e-02,  1.0132742673e-01,  9.6724167466e-02,  1.1761969328e-01,  1.5155783296e-01,  1.2787415087e-01,  1.0160752386e-01,  6.6336899996e-02, -9.6121586859e-02, 
	 4.5624502003e-02, -3.3675882965e-02,  2.9543811455e-02, -3.1657267362e-02, -6.9291621447e-02,  3.7451259792e-02,  3.4957364202e-02, -8.1116259098e-03, -3.0068488792e-02, -1.6766505316e-02, 
	 1.3534358144e-01, -8.9570097625e-02, -3.9204332978e-02,  2.2986523807e-02, -6.7737750709e-02, -1.6218626872e-02, -3.3154990524e-02,  7.1482092142e-02,  5.5317033082e-02, -3.0819093809e-03, 
	-7.6169967651e-02,  2.6312908158e-02,  3.9213802665e-02, -2.9686518013e-02,  8.2476004958e-02, -1.3161605224e-02,  1.0317052901e-01,  1.4908382297e-01,  5.8565299958e-02,  1.2951831520e-01, 
	 1.2695594132e-01,  1.4493381977e-01,  4.3885376304e-02,  9.8115235567e-02, -7.4084639549e-02, -4.4650472701e-03,  6.1699993908e-02, -5.5391237140e-02,  4.9440588802e-02,  6.3600897789e-02, 
	 9.6220768988e-02,  2.3066710681e-02,  4.4996391982e-02,  1.5541180968e-02, -4.9119625241e-02, -1.0113447905e-01, -1.9085072563e-04, -6.8495638669e-02, -1.0196884722e-01,  1.1230598390e-01, 
	 7.1921981871e-02,  4.2771272361e-02,  4.8688683659e-02, -2.2116208449e-02,  4.9098171294e-02,  3.6669008434e-02,  7.3801472783e-02,  8.7017573416e-02,  1.3374675810e-01,  1.0653514415e-01, 
	 1.8460617959e-01,  4.9790985882e-02,  3.5378888249e-02,  5.5795393884e-02, -9.6639469266e-02,  1.3364601182e-03,  2.1926023066e-02, -1.5617833473e-02, -4.5374422334e-03,  3.1101494096e-03, 
	 7.8090071678e-02, -1.5359868109e-01, -1.2939135730e-01,  1.0649704933e-01,  6.3242390752e-02, -1.5706183016e-01,  8.1463605165e-02,  3.5803161561e-02,  3.0139181763e-03, -5.6170221418e-02, 
	 6.4027297776e-04, -1.4174002223e-02, -3.0531367287e-02, -5.0501175225e-02, -8.7509276345e-03,  1.0033410043e-01,  4.7688614577e-02,  8.0012284219e-02,  7.0408925414e-02,  1.6693468392e-01, 
	-2.1870588884e-02,  1.6270153224e-01,  9.1575525701e-02,  5.9066567570e-02,  1.5598186851e-01,  1.8479120731e-01,  2.3811037838e-01,  1.1665603146e-02,  5.6238055229e-02, -5.3741622716e-02, 
	 1.0642780364e-01, -2.3282120004e-02,  4.2754821479e-02,  1.9947065040e-02,  7.0780254900e-03, -2.9584752396e-02,  1.1472223699e-01, -3.0388738960e-02, -1.1010266095e-01, -5.0491679460e-02, 
	 9.4596091658e-03, -8.8358148932e-02,  1.1402601004e-01,  1.5825755894e-01, -1.9596131518e-02,  1.2414718419e-01,  1.1568248272e-01,  1.4271289110e-01, -5.9893324971e-02, -4.5625664294e-02, 
	 5.9228036553e-03, -8.3989702165e-02,  4.4447451830e-02, -9.4158366323e-02,  8.2543633878e-02,  1.8032060936e-02, -1.0679449886e-01,  3.4996610135e-02, -5.9862982482e-02, -7.7239163220e-02, 
	 5.1737874746e-02, -2.3293765262e-02,  7.6460935175e-02,  1.3753300905e-01,  1.1400601268e-01, -5.2994251251e-02,  1.8600539863e-01,  6.1677582562e-03, -1.0596087202e-02,  2.7393287420e-01, 
	 1.7499651015e-01, -9.2199228704e-02,  3.8642585278e-02, -2.0587909967e-02, -9.5533933491e-03,  6.0207191855e-02, -9.5556154847e-02, -1.4452697337e-01,  2.1733215451e-01, -3.7927608937e-02, 
	-1.5208417177e-01, -2.7591191232e-02,  3.2170400023e-02, -3.1473178416e-02, -8.3672694862e-02, -1.3479900360e-01, -6.6408380866e-02, -1.6860753298e-01, -2.3892113566e-01, -2.1419160068e-01, 
	 7.6832756400e-02,  1.2999957800e-01,  7.0341423154e-02, -2.2141475230e-02,  1.5572632849e-01,  8.3826147020e-02, -5.7995937765e-02,  1.4705109596e-01, -1.1585900933e-01, -7.1924090385e-02, 
	 4.5922253281e-02,  3.2063266635e-01,  2.4576481432e-02,  1.1975865811e-01,  3.3179175854e-01,  1.8875917792e-01,  8.1724531949e-02,  1.9933721051e-02,  8.4346462972e-04, -9.4681560993e-02, 
	 4.1277166456e-02,  6.6829943098e-03,  7.5871944427e-02,  6.2203556299e-03, -7.0751078427e-02, -4.2044460773e-02, -9.6350833774e-02,  6.6270418465e-02,  1.7848420888e-02,  1.0338267684e-01, 
	-1.2438635528e-01, -7.3504857719e-02, -1.5132222325e-02, -2.2759807110e-01, -1.2842456996e-01, -7.2970263660e-02, -1.5537640452e-01, -2.1303404868e-01, -3.4936290979e-01, -3.0541551113e-01, 
	-1.4376465976e-01, -3.4680423141e-01, -8.7842745706e-03, -7.4638247490e-02, -5.2784711123e-01,  1.7889955640e-01, -1.1357689649e-01, -2.5852665305e-01,  2.0711351931e-01,  2.9039243236e-02, 
	-1.0065863281e-01,  1.2726451457e-01,  1.8115396798e-01, -7.9404354095e-02,  3.7831109017e-02,  1.2546190619e-01,  1.7911428213e-01, -1.4268057048e-01,  1.1084531993e-01,  1.2878869474e-01, 
	-1.8755936995e-02, -5.1670514047e-02, -5.7493910193e-02, -3.1225001812e-01, -2.6125302911e-01, -3.2974001765e-01, -5.3418804891e-03, -1.5648072958e-01, -9.4014316797e-02, -2.0354667678e-02, 
	-6.1943564564e-02,  4.1063656099e-03, -6.2793634832e-02,  5.5429317057e-02,  2.0071677864e-01,  1.4864489436e-02,  1.0383254290e-01,  8.7007619441e-02, -1.7472396791e-01, -4.6663019806e-02, 
	-2.0325866342e-01,  1.3385173678e-01,  2.2703979909e-01,  2.6451823115e-01, -1.1479163170e-01,  2.5197172537e-02,  2.3526953533e-02, -2.1011075377e-01, -1.3129280508e-01, -8.5309468210e-02, 
	 7.6306238770e-02,  3.6278951913e-02, -4.1732363403e-02, -3.9026007056e-02,  1.3511338271e-02, -5.8892279863e-02,  7.7403299510e-02, -1.3717966154e-02, -3.2828882337e-02,  5.6189827621e-02, 
	 1.8704235554e-01,  2.6340535283e-01,  1.5007296205e-01,  5.8120783418e-02,  6.5862879157e-02,  2.0227450132e-01,  1.5098409355e-01, -1.2759196572e-02,  4.3060649186e-02,  1.1419244856e-01, 
	 1.7013663054e-01, -7.2557412088e-02, -1.5135197341e-01,  5.7087324560e-02, -3.5454299301e-02, -9.5912821591e-02,  5.7313037105e-03,  1.8582624197e-01,  2.3289035261e-01,  3.4149214625e-01, 
	-8.4542043507e-02, -2.9055166990e-02,  1.0998667032e-01, -1.9332398474e-01, -2.0300035179e-01, -1.8764615059e-01, -1.4411741495e-01, -1.1565297842e-01,  1.0138572194e-02, -2.8597086668e-02, 
	-1.2662412599e-02,  6.0712610139e-04, -1.1450711638e-01, -7.4180448428e-04,  2.0651330054e-01,  2.7499058843e-01, -5.9036675841e-02, -2.4528171122e-01,  5.5629465729e-02, -9.7270168364e-02, 
	-7.0925757289e-02,  5.4486710578e-02, -2.9590865970e-01, -2.5743013620e-01, -2.4014472961e-01,  1.6265489161e-02, -1.4153248072e-01, -1.0047563165e-01,  1.0102637857e-01, -1.0234012455e-01, 
	-1.4456561208e-01, -1.4245404303e-01, -2.1405377984e-01, -6.6427662969e-02, -1.4305204153e-01, -2.6354581118e-01, -1.1876817048e-01,  9.0131843463e-03,  7.3171474040e-02,  1.5940155834e-02, 
	 5.7265330106e-02,  1.4837037027e-01,  1.9798003137e-01,  4.7139564157e-01,  8.7640821934e-02,  1.8518291414e-01,  3.4684994817e-01,  3.5880833864e-02, -1.0515573435e-02, -1.2936238945e-01, 
	-2.0813186467e-01,  2.3451808095e-01,  1.5459428728e-01, -1.8220070004e-01,  9.0452596545e-02, -1.3182977214e-02, -2.7195906639e-01, -1.9493290782e-01, -2.2467876971e-01, -4.6881523728e-01, 
	 3.1696304679e-02,  2.7967393398e-01,  1.9814753532e-01,  1.1301945895e-01,  1.5184767544e-01,  3.1071856618e-02,  4.4171124697e-02, -2.6769893244e-02, -2.5714811683e-01, -2.6500526071e-01, 
	-4.3696008623e-02, -4.1122265160e-02, -4.2955588549e-02,  7.1223728359e-02,  1.4334161766e-02, -5.7774808258e-02, -9.8233945668e-02, -1.5364801884e-01,  4.3168842793e-02,  6.4437732100e-02, 
	-6.3168086112e-02,  4.3041130900e-01, -2.4127453566e-01, -3.2491397858e-01,  3.8100868464e-01, -3.1874939799e-01, -1.1045879871e-01, -8.7033599615e-02,  2.2779181600e-02,  4.3981816620e-02, 
	-5.1510959864e-02, -1.3089346886e-01, -6.5818198025e-02, -1.5008965135e-01, -2.7152127028e-01,  1.7654685304e-02,  2.1365968511e-02, -2.1395521238e-02, -9.7602866590e-02, -1.3051915914e-02, 
	-2.6236126199e-02,  7.4169628322e-02,  5.9588715434e-02, -3.1962238252e-02, -5.4970789701e-02, -7.2624884546e-02, -7.3613777757e-02,  3.5433135927e-02,  3.1787595153e-01,  2.7255335823e-02, 
	 5.9879079461e-02,  1.2520989776e-01,  1.9256034866e-02,  2.1201454103e-01, -1.0754355788e-01, -1.2041856349e-01,  2.3822346702e-02,  9.5262460411e-02,  5.0142157823e-02, -5.8600872755e-02, 
	-4.4746670872e-02, -1.5712630749e-01,  1.0308880359e-01,  5.2692536265e-02,  1.3757021725e-01,  3.0925658345e-01, -3.1147781760e-02, -1.5866430104e-01,  1.5344837308e-01, -9.9908612669e-02, 
	-2.1243721247e-01,  8.4829308093e-02,  1.6313752532e-01, -3.3169917762e-02, -3.3656907082e-01, -1.2034372985e-01, -2.0300203562e-01, -6.1333125830e-01, -7.9866178334e-02, -2.1376176178e-01, 
	-7.0981949568e-02,  3.9379224181e-03, -1.3415910304e-01,  2.0484612882e-01,  3.5269204527e-02, -3.5904809833e-02,  2.1477517486e-01,  1.4172436297e-01,  3.5195119679e-02,  1.4176525176e-01, 
	 1.2475861609e-01,  1.3095185161e-01,  1.2626338005e-01,  5.3360041231e-02,  1.0428827256e-01,  1.4134065807e-01,  1.5631771088e-01,  1.6885930300e-01,  9.2123232782e-02,  5.0216257572e-02, 
	-3.8141325116e-02,  8.8053114712e-02, -3.1463917345e-02, -1.6329088807e-01,  5.3032722324e-02,  4.3718036264e-02, -1.0593484342e-01,  4.2056035250e-02, -3.3095452935e-02, -1.0444914550e-01, 
	-2.7556616068e-01, -2.6365768164e-02,  9.7058437765e-02,  1.1630131863e-02, -3.7192508578e-02,  7.6841344126e-03, -1.3323867694e-02,  9.2244572937e-02,  9.9979832768e-02,  1.5678249300e-02, 
	 4.7264683992e-02,  8.0072112381e-02, -1.5316720121e-02, -1.1585859209e-01, -7.2890080512e-02, -1.2078792602e-01, -1.0165147483e-01, -5.2736423910e-02, -6.1802279204e-02, -8.9988663793e-02, 
	-1.0974001139e-02, -1.8263693899e-02, -3.0135447159e-02, -1.0111458600e-01, -9.1793864965e-02, -9.6110157669e-02,  8.2435132936e-03,  1.8783366680e-01, -1.0124786198e-01, -9.7896970809e-02, 
	 9.9183149636e-02, -9.4102852046e-02, -7.6076380908e-02,  8.2417443395e-02, -4.0819887072e-02, -5.8031346649e-02, -2.9080903530e-01,  1.8458744884e-01,  1.7295433581e-01,  1.4647957683e-01, 
	 2.0477272570e-01,  1.0872498155e-01,  7.5762770139e-03,  1.4857956767e-01,  1.8271689117e-01,  1.3756458461e-01, -5.0806421787e-02,  1.8858943367e-03,  5.5460713804e-02, -1.9591589272e-01, 
	-7.4254259467e-02, -7.5943462551e-02, -1.8943254650e-01, -3.3197575808e-01, -1.7435340583e-01, -1.0325958580e-01,  1.2208178639e-02,  1.0211752355e-01, -9.5729297027e-03, -4.8755388707e-02, 
	 1.3593005016e-02, -2.1524403989e-01, -1.3481874764e-01,  1.0519372672e-01, -4.4706454873e-01, -2.0236083865e-01, -1.2329459190e-02, -6.4943969250e-01, -4.2566695809e-01, -1.9005259871e-01, 
	-6.4614310861e-02, -2.1341014653e-02, -9.9691905081e-02, -1.3908953965e-01, -4.3412294239e-02, -7.2032712400e-02, -1.1449842900e-01,  2.8734353185e-01,  3.4982979298e-01,  7.2083532810e-02, 
	 5.9293076396e-02,  1.8361039460e-01, -2.1526053548e-01, -3.5959571600e-02, -2.1772067994e-02, -1.8366308510e-01, -5.7559125125e-02, -1.1014324427e-01,  2.4923872948e-01,  2.4307860434e-01, 
	 2.7148765326e-01,  1.3866352849e-02, -1.6571532935e-02,  1.3995131850e-01, -1.5128348768e-01, -1.4553019404e-01,  6.5197244287e-02, -6.1921052635e-02, -5.9918809682e-02,  9.3862645328e-02, 
	-5.7896472514e-02, -2.1231209394e-03,  5.3115379065e-02,  3.6459855735e-02,  1.5650413930e-01,  1.2954947352e-01, -3.2664358616e-02, -7.0577926934e-02, -4.7400102019e-02, -3.1828548759e-02, 
	-3.2222971320e-02,  8.8812209666e-02,  5.9147261083e-02,  2.8486252995e-04,  1.0930999368e-01,  3.6144465208e-02, -3.7844650447e-02, -5.1548551768e-02, -6.2781393528e-02,  2.3030407727e-02, 
	 1.2570302188e-01, -4.0475122631e-02, -5.4156705737e-02, -1.1912595946e-03, -7.0226438344e-02, -5.1335934550e-02, -8.2292303443e-02,  6.6161289811e-02,  1.6509190202e-02,  2.7185129002e-02, 
	 6.5750949085e-02,  1.0014082491e-01,  6.6974394023e-02,  3.0848564580e-02,  1.4833139256e-02, -6.3976235688e-02,  2.1259821951e-02, -6.4409546554e-02, -1.1849039048e-01, -6.9590150379e-03, 
	 8.1635840237e-02, -2.4177676067e-02, -7.9014539719e-02, -5.2840568125e-02, -5.1030949689e-03,  7.4440084398e-02,  5.2317943424e-02,  2.3077331483e-02,  4.1474696249e-02,  1.3350774348e-01, 
	 1.0351588577e-01,  6.6102877259e-02,  1.0840582661e-02, -2.2186454386e-02,  1.3902941346e-01,  1.5591213107e-01,  1.2491602451e-01,  1.1123275757e-01,  1.0350590944e-01,  1.1411040276e-01, 
	-7.4428441003e-03, -7.8615872189e-03,  1.2170512229e-01, -3.5575713962e-02,  7.5444996357e-02,  1.3865180314e-01,  1.3182368875e-01,  1.7423725128e-01,  2.0048008859e-01, -5.4171655327e-02, 
	 9.6528127789e-02,  8.2628026605e-02,  1.7394699156e-02,  8.5334740579e-02,  7.8628152609e-02, -1.2140160054e-01,  5.4699290544e-02,  3.9512366056e-02,  1.2896294720e-05, -6.2805749476e-02, 
	 2.0814074203e-02,  5.3155031055e-03,  7.1996614337e-02,  3.6910854280e-02,  6.5776251256e-02, -8.1072136760e-02, -1.1486133933e-01,  1.9183331169e-03,  1.0343168676e-01, -1.6646645963e-02, 
	 1.7534433305e-01,  9.1929525137e-02,  9.5685638487e-02,  1.8750086427e-01,  1.7595635355e-01,  1.5159603953e-01,  3.6685660481e-02,  9.3946389854e-02,  3.3193943091e-03, -1.7183506861e-02, 
	 1.2653207779e-01,  8.9950814843e-02, -7.3046535254e-02, -1.2734827586e-02, -6.5021261573e-02,  4.4387890957e-03,  8.6405470967e-02, -5.0227283500e-03, -6.5446913242e-02,  3.6482822150e-02, 
	 3.0488805845e-02, -4.2411986738e-02, -7.8964859247e-02, -6.8749338388e-02,  1.4019146562e-01,  9.3959890306e-02,  3.3553000540e-02,  8.3977036178e-02, -1.2078468688e-02,  1.4481533319e-02, 
	 2.6168068871e-02, -5.3094536066e-02, -8.3242371678e-02,  1.0693968832e-01,  1.8290834129e-01,  1.1096573621e-01, -1.6087713838e-01,  7.7440537512e-02,  1.1791778356e-01, -4.0642391890e-02, 
	-7.7596902847e-02,  6.0418471694e-02,  1.2458735146e-02,  1.5576735139e-01,  1.1162532121e-01,  1.4183650911e-01,  1.3266330957e-01,  1.0039566457e-01,  1.0445791483e-01, -6.6481675021e-03, 
	 1.0865747929e-01, -6.8724863231e-02,  3.5899959505e-02,  9.2050254345e-02,  2.3050920572e-03,  5.0281617790e-02, -1.0991731286e-01,  4.0292743593e-02, -8.8822087273e-03, -6.4089193940e-02, 
	 8.7599650025e-02,  6.1278585345e-02,  2.0969270170e-01,  1.0066270083e-01,  1.3539840281e-01,  8.8047660887e-02, -3.8648214191e-02,  3.2121319324e-02,  3.5934891552e-02, -5.6689254940e-02, 
	 9.3702919781e-02,  2.0770454779e-02,  4.0671408176e-02, -3.2144557685e-02, -5.4672278464e-02, -6.1859339476e-02,  6.0196373612e-02,  2.3609042168e-02, -1.0319445282e-01, -1.0300652683e-01, 
	-4.0798094124e-02, -7.4573978782e-02, -1.4559659362e-01, -1.6122521460e-01, -1.1179520935e-01, -1.4573496580e-01, -4.4005988166e-03,  2.5158378482e-01,  8.4322161973e-02,  3.9288739208e-04, 
	 1.8308037892e-02,  2.7331985533e-02, -1.0002663732e-01, -8.8094219565e-02, -1.8167897360e-03, -7.2054065764e-02, -9.1817051172e-02, -2.0670688152e-01, -2.3541875184e-01,  4.0433221147e-04, 
	-1.0220449418e-01, -1.1157165468e-01,  1.7472045124e-01,  1.0563994199e-01,  8.2700282335e-02, -1.5522620641e-02, -1.3983353972e-01,  6.9649107754e-02, -1.4142544568e-01, -7.1607627906e-03, 
	-1.9563645124e-01, -1.2914563715e-01, -7.6800011098e-02, -1.6403566301e-01,  1.2026096880e-01, -7.0611543953e-02, -4.9832750112e-02,  2.3646552116e-02, -8.4990225732e-02, -8.3938822150e-02, 
	-5.8347970247e-02, -3.1464140862e-02,  3.1001502648e-02,  6.5993845463e-02, -1.2160616368e-01,  2.6927167177e-01,  1.6401036084e-01, -7.4052728713e-02, -1.7870260775e-01,  2.9265362024e-01, 
	 2.0704990625e-01,  2.2197261453e-01, -7.8194200993e-02, -8.7812289596e-02,  7.5385831296e-02, -1.3264308870e-01,  1.3702615164e-02, -2.5015708804e-01, -5.7905851863e-03,  9.9751763046e-02, 
	 1.4630347490e-01,  2.1110173315e-02, -1.0054469109e-02,  2.5224485993e-01, -4.3914012611e-02, -4.8692855984e-02,  5.1939602941e-02,  2.6246508583e-02, -8.3640567958e-02, -8.8892385364e-02, 
	 2.4128928781e-01,  5.1381383091e-02, -2.2756397724e-01,  1.0884678364e-01,  1.4910767972e-01, -1.9804015756e-01,  9.7512446344e-02,  2.5500223041e-01, -5.2957419306e-02, -6.2914468348e-02, 
	-5.2764356136e-02,  3.0107340217e-01, -1.5916300938e-02, -9.6870377660e-02,  7.7990055084e-02, -9.1410435736e-02, -7.5276248157e-02,  1.8586805090e-03,  1.0295177996e-01,  6.2567017972e-02, 
	 8.0899562454e-04, -6.5383143723e-02, -2.1931128576e-02, -1.1566900648e-02,  3.8641564548e-02, -6.9641597569e-02, -8.6839780211e-02,  3.0857576057e-02,  5.3602084517e-02,  2.7965146000e-04, 
	-4.5487567782e-02,  1.2675314210e-02, -4.4237855822e-02, -5.8444194496e-02,  6.2266062945e-02, -5.7976715267e-02,  1.0903508961e-01, -1.6763353487e-03,  8.9036442339e-02, -1.8725812435e-02, 
	-1.4663821086e-02, -1.1700505763e-01,  1.4698979259e-01,  9.2714056373e-02, -1.0752312839e-01,  2.8497973457e-02,  1.1582459509e-01,  1.0254269838e-01, -2.3035222664e-02,  3.8996770978e-02, 
	-9.2538833618e-02,  1.4906344004e-02, -4.3683286756e-02, -9.9523276091e-02,  1.6483229399e-01,  1.2933392823e-01, -1.5211788006e-02,  5.5921163410e-02, -4.6735666692e-02,  2.6375442743e-02, 
	-1.1822424829e-02, -5.8850631118e-02, -6.6238611937e-02,  2.1578269079e-02,  5.8947589248e-02,  1.7101092637e-01,  7.2759024799e-02, -3.5656154156e-02, -9.5371585339e-03, -7.8370258212e-02, 
	-5.5152185261e-02, -1.2035980076e-01, -3.0948132277e-02, -1.1712449789e-01,  9.4744674861e-02,  7.6451227069e-02, -3.9292804897e-02,  1.2580177188e-01,  8.7409332395e-02,  1.1161974072e-01, 
	 4.4104803354e-02,  5.6801913306e-03, -4.6854477376e-02,  1.8444813788e-02, -4.5677372254e-03, -1.2163623422e-01,  2.1727919579e-02, -2.0363615453e-01, -7.5922600925e-02, -9.3022502959e-02, 
	-7.5395852327e-02,  4.1378863156e-02, -3.0838629231e-02, -1.7767179757e-02,  8.3463825285e-02,  5.3177122027e-02, -4.2960774153e-03,  7.0225838572e-03, -2.8513360769e-02,  1.6540037096e-01, 
	 2.6405736804e-01,  1.8670107424e-01, -3.3556941152e-01, -5.0049107522e-02,  9.5895893872e-02, -5.9072351456e-01, -2.8230315447e-01, -2.1877031028e-01, -1.4449560083e-02,  6.8565495312e-02, 
	 1.4198493958e-01, -1.1139102280e-01, -7.7734038234e-02,  9.0613095090e-03,  1.7778918147e-01,  5.7125598192e-02,  5.4861079901e-02,  1.0079992563e-01,  1.6498236358e-01,  3.6948870867e-02, 
	 1.2788104825e-02,  1.8054338172e-02,  1.2864071131e-01,  6.5232352354e-03,  8.2183316350e-02,  1.2723955512e-01,  4.7472842038e-02,  8.2076201215e-03,  3.8928616792e-02, -8.9692391455e-02, 
	-3.8879137486e-02,  2.0734751225e-01, -1.9795162976e-01, -1.0956975073e-01, -1.3110996783e-01, -6.5748013556e-02,  3.0304916203e-02,  3.6078892648e-02,  9.0844288468e-02, -1.4668117464e-01, 
	-1.6234324872e-01,  1.5353910625e-01,  4.7591280192e-02,  1.2154142372e-02, -1.8072736263e-01, -1.2723886967e-01,  1.2902666628e-01, -1.6522565484e-01, -1.5127006173e-01, -1.0684628971e-02, 
	-1.6577266157e-01, -1.8707388639e-01, -7.4054308236e-02, -8.7265044451e-02, -9.4588577747e-02,  8.6286395788e-02,  2.4557944853e-03,  6.1055283993e-02,  9.0302839875e-02, -3.2066844404e-02, 
	 2.9650345445e-02, -8.0211453140e-02,  1.3776648045e-01,  3.2616102695e-01,  4.4768744707e-01,  1.4288553596e-01,  2.4349050224e-01,  3.2517877221e-01,  1.1315968633e-01,  5.8558586985e-02, 
	 2.3970177770e-01, -2.8324139118e-01, -1.6735577956e-02, -6.6388413310e-02, -2.6383239031e-01,  5.8687669225e-03,  1.1713012308e-01, -1.4641411602e-01, -2.4560015649e-02,  7.7202402055e-02, 
	-1.8025746569e-02,  1.1158423871e-01,  2.2324384749e-01,  4.9891199917e-02,  1.4292724431e-01,  3.1357684731e-01, -3.0778191984e-02, -8.3316206932e-02,  1.3006150723e-02, -7.2925694287e-02, 
	 8.9135512710e-02,  4.4365122914e-02,  8.2816958427e-02,  1.2621746957e-01,  3.3547183871e-01,  1.4482846856e-01,  1.6464644670e-01,  2.3433421552e-01, -5.9012949467e-02, -9.5787495375e-02, 
	-1.7385038733e-01, -2.2498670220e-01, -6.8147525191e-02, -3.0013030767e-01, -3.0332180858e-01, -7.0882119238e-02,  1.2110605836e-01,  1.2418244034e-01,  1.1594078690e-01, -1.8841080368e-02, 
	 1.0573803633e-01,  1.3281184435e-01, -5.7682398707e-02, -7.7601769008e-03,  9.8623283207e-02,  3.0050432310e-02, -4.3295081705e-02,  3.0912708491e-02,  1.3831540942e-01, -8.4828965366e-02, 
	 2.0436109975e-02, -3.9485443383e-02, -2.2661142051e-01,  8.1125266850e-02, -4.4809758663e-02,  1.9393706322e-01, -4.7699449351e-04, -2.1908044815e-01,  1.5399818122e-01, -4.5284960419e-02, 
	-6.1700541526e-02,  7.9830251634e-02,  6.0748104006e-02,  1.5408051014e-01, -1.0309486836e-01, -3.0412666500e-02,  7.5471359305e-03, -9.3821831048e-02, -3.4777596593e-02, -5.9068938717e-03, 
	 8.7934285402e-02,  4.3040860444e-02, -1.1519103497e-01,  1.1792796664e-02, -1.6712576151e-01, -1.7217956483e-01,  1.5377791598e-02, -4.6057209373e-02, -1.8946078420e-01, -1.6369001567e-01, 
	-1.4645986259e-01, -9.8409190774e-02, -3.7627719343e-02, -3.5054195672e-02, -1.6944822669e-01,  1.3839808106e-01,  2.6086566970e-02, -2.9883554578e-01,  1.0918979347e-01,  6.4556421712e-03, 
	-8.1197060645e-02,  2.4030105770e-01,  2.5026053190e-01,  4.8420306295e-02,  1.8216085434e-01, -1.7663718760e-01, -3.4248110652e-01,  4.5583162457e-02, -1.6944442689e-01, -5.2608210593e-02, 
	-2.8116303682e-01, -1.0765173286e-01, -1.5282402933e-01, -1.8825754523e-01, -8.5342936218e-02, -5.0003252923e-02, -1.8219906092e-01, -5.6880813092e-02, -1.2558925897e-02,  3.6920569837e-02, 
	-2.1119462326e-02,  1.0843651369e-02, -1.1030633934e-02, -9.5932767726e-04,  1.5650020912e-02, -9.3476064503e-02, -8.5635473952e-03,  1.5602403879e-01, -3.0260378122e-01, -2.7793157101e-01, 
	-7.0521943271e-02,  2.7402217966e-03,  1.4185179770e-01,  3.2204531133e-02,  3.7632022053e-02, -7.6045572758e-02,  4.9892690033e-02, -3.3791610599e-01, -4.1551914811e-01, -1.0492866486e-01, 
	-1.6001889110e-01, -1.5021462739e-01,  1.4067599177e-01, -3.8545336574e-02,  1.0476291180e-01,  1.0242280550e-02,  1.6238421202e-01,  1.0828908533e-01,  1.1815274507e-01,  8.9989535511e-02, 
	 1.9774144888e-01,  1.7099110782e-01,  9.0286061168e-02,  1.2064644694e-01, -5.6307660416e-03, -1.8218193948e-01, -1.2777332962e-01,  7.5690925121e-02,  1.3740682602e-01,  6.4395330846e-02, 
	 2.0528742671e-01,  2.5334724784e-01,  2.3120465875e-01,  9.4128921628e-02,  1.3547447324e-01,  1.3616743684e-01,  3.8903051615e-01, -9.7033502534e-03,  1.4175994694e-01,  2.2745417058e-01, 
	-2.4592712522e-01, -2.7832823992e-01, -1.9177424908e-01, -7.0353858173e-02,  1.0434978642e-02, -5.0863269717e-02, -3.5439822823e-02, -9.8356388509e-02, -3.4495033324e-02,  6.5006606281e-02, 
	-2.2449463606e-02,  1.3349093497e-02,  3.2345995307e-02, -3.3943422139e-02,  6.6757395864e-02, -1.3851206750e-02, -8.0435343087e-02,  1.0566175729e-01,  2.0850067958e-02,  3.4018244594e-02, 
	-6.2912240624e-02,  6.8040378392e-02, -9.4250582159e-02, -3.9150817320e-03,  3.6908383481e-03, -4.7763787210e-02,  4.0711384267e-02, -3.5352881998e-02, -1.3022165745e-02,  6.9287016988e-02, 
	 3.4620210528e-02, -1.4405167103e-01, -1.4428495429e-02,  4.0514133871e-02,  8.3577625453e-02,  1.5737624466e-01, -9.0499810874e-02, -1.1903752387e-01,  1.0366684198e-01, -5.4490003735e-02, 
	-5.2437949926e-02, -1.3200533576e-02,  3.5294611007e-02,  8.6366251111e-02,  1.0030364618e-02,  7.9404175282e-02,  4.5607138425e-02,  8.8615797460e-02,  1.1405397207e-02, -3.4797668457e-02, 
	 8.2854203880e-02,  8.0450840294e-02,  4.0218476206e-03,  6.8621985614e-02,  1.3425660133e-01, -1.4577457681e-02,  1.1277840286e-01,  4.2208561301e-01, -1.0804793239e-01, -6.1444199085e-01, 
	 1.1994872987e-01, -2.3004271090e-01, -5.6671404839e-01,  1.1450080574e-01,  3.1754277647e-02, -2.1759846807e-01,  3.3611882478e-02, -3.3243663609e-02, -3.2296422869e-02, -6.8504296243e-02, 
	 4.3802447617e-02,  8.8235490024e-02,  3.6331567913e-02,  3.4187566489e-02, -1.2837655842e-01,  4.3748240918e-02, -2.2410897538e-02,  8.4300518036e-02, -7.4877222069e-03, -1.4932632446e-02, 
	-1.2473276816e-02,  3.4553226084e-02,  3.9760775864e-02, -1.8525235355e-02,  3.3800530434e-01,  9.7707785666e-02,  1.3912768662e-01,  1.9484037161e-01,  1.0541660013e-03,  2.2412404418e-01, 
	 1.2075460702e-01, -3.4544251859e-02, -3.7539385259e-02, -4.6997711062e-02, -1.1818279326e-01,  2.0849356055e-01, -1.8376578391e-01,  3.1209830195e-02,  1.3529613614e-01, -8.7924204767e-02, 
	 4.6498622745e-02, -1.2226604670e-01,  1.2386837043e-02, -8.8580213487e-02, -2.3581681773e-02, -1.6514496505e-01, -5.3825542331e-02,  4.0760450065e-02, -8.7540678680e-02,  2.0263891667e-02, 
	-6.2170330435e-02, -1.9047963619e-01, -1.7448017001e-01,  1.0847871006e-01, -1.2642674148e-01, -1.1207909137e-01,  5.2404996008e-02,  5.9359528124e-02,  1.0792176425e-01,  1.5318274498e-01, 
	 2.2255685925e-01,  1.3687063754e-01,  2.1155351400e-01, -3.6699894816e-02, -6.3488565385e-02, -3.2534461468e-02, -1.9479078054e-01, -1.3236603141e-01, -2.6855382323e-01, -2.7920070570e-03, 
	 4.8548523337e-02,  1.5828914940e-01,  4.2348612100e-02, -1.2503613252e-03,  1.0639993846e-01, -1.9352657720e-02, -1.3127225637e-01,  2.8922315687e-02,  6.4594157040e-02, -3.1889759703e-04, 
	 2.6107262820e-02,  2.8518676758e-02, -8.9382370934e-03,  1.4043080807e-01,  1.7682110192e-03, -1.4610763174e-03,  1.9762368873e-02, -6.4602389932e-02, -7.1892909706e-02,  1.8430469558e-02, 
	-3.1035574153e-02, -6.2722511590e-02, -1.0521904379e-01, -7.3254100978e-02, -6.1003506184e-02, -2.1793337166e-01,  6.8689391017e-02,  2.0061770082e-01,  1.6125431657e-01,  3.2828897238e-02, 
	 2.5618012995e-02, -4.9511987716e-02, -1.1590503901e-01, -4.0929652750e-02, -5.6745603681e-02,  8.4945596755e-02, -2.6983285323e-02, -6.5246438608e-03,  2.2718247026e-02,  2.3369924165e-03, 
	 2.2140476853e-02,  1.4013361186e-02,  2.8986299410e-02,  4.1375488043e-02,  1.0512757301e-01,  2.5216296315e-01,  1.4205591381e-01,  1.3010718860e-02, -3.3338394016e-02, -7.2669595480e-02, 
	-1.8117637932e-01, -1.7835354805e-01, -1.1883616447e-01, -1.7059387639e-02, -2.3519894481e-01, -2.1175909042e-01, -3.4420859069e-02, -6.2729142606e-02, -5.0610706210e-02, -1.2177607417e-01, 
	 3.6766752601e-02,  6.7602671683e-02, -7.5638033450e-02,  8.5915938020e-02,  1.6863593459e-01, -1.2646719813e-01,  5.2614090964e-03,  2.5084404275e-02, -1.2371878326e-01, -1.3861952722e-01, 
	 2.4678288028e-02,  6.1362665147e-02,  1.2443299405e-02, -7.0482157171e-02,  1.1710812151e-01,  1.2620918453e-01, -6.3008889556e-03, -1.8964095041e-02,  5.1242977381e-02, -1.6902492940e-01, 
	-2.2629760206e-02, -1.6546282172e-01, -1.2749895453e-01, -1.7794284225e-01, -3.5230925679e-01, -3.4199690819e-01, -1.0313932598e-01, -9.2435128987e-02, -2.6326695085e-01,  1.2163132429e-01, 
	 1.5630837530e-02,  5.5947531015e-02, -5.5260065943e-02, -9.2886380851e-02, -1.3030914962e-01, -1.4818809927e-01,  2.0947244018e-02,  1.2625838816e-01, -2.6430740952e-01, -1.0973815620e-01, 
	-5.9799686074e-02, -2.3232860863e-01, -1.8168319762e-01, -8.6535491049e-02, -2.6160055399e-01, -8.9608713984e-02,  1.9230321050e-01,  2.1390396357e-01, -3.2475508749e-02, -1.1391520500e-02, 
	 1.4384065568e-01, -5.7745136321e-02, -3.8822595030e-02,  1.4202857018e-01,  1.3380989432e-01,  5.8798111975e-02,  7.7806942165e-02,  3.3741205931e-01,  2.6960417628e-01, -7.4126452208e-02, 
	 4.4062029570e-02,  8.9527502656e-02, -3.7745022774e-01, -2.8684958816e-01, -4.1893493384e-02, -1.0350572318e-01, -5.5164728314e-02,  6.5997190773e-02, -3.4556582570e-02, -6.6705964506e-02, 
	-5.1785472780e-02, -9.1430626810e-02, -3.0246993527e-02, -1.1354766041e-01, -3.5812433809e-02, -2.4701361544e-03, -1.0792328976e-03,  4.7458149493e-03,  6.6212549806e-02, -8.6868382990e-02, 
	-2.4338064715e-02,  4.5519340783e-02, -1.7921250314e-02, -1.4775217511e-02,  1.3960753381e-01,  1.5617156029e-01, -3.8701537997e-02,  5.2461497486e-02,  3.4528750926e-02, -4.0519751608e-02, 
	 1.3076796196e-02,  7.2306856513e-02,  9.2526279390e-02,  1.1184944957e-01,  2.1745672822e-01,  6.9919042289e-02,  2.7686605230e-02,  1.5945886075e-01, -1.2647248805e-01, -1.1371075362e-01, 
	-8.2596972585e-02, -2.9196040705e-02, -2.7007178869e-03,  3.4512273967e-02, -1.2528999150e-01, -4.9891594797e-02,  1.0650648922e-01, -1.5908443928e-01, -1.7894995213e-01, -1.4266194403e-01, 
	-1.4103700221e-01, -2.1586423740e-02, -1.4803217351e-01, -8.4887921810e-02,  1.3915787451e-02, -6.8149484694e-02, -2.0680862665e-01, -1.1393593252e-01, -3.8617823739e-03, -1.5461759269e-01, 
	-1.2367093004e-02, -1.9840879738e-01, -2.2768136859e-01, -2.0036375523e-01, -1.2878507376e-01, -3.0290741473e-02, -1.4316824265e-02, -3.4534782171e-01,  5.7109825313e-02, -3.9469923824e-02, 
	-5.9170752764e-02, -3.9227128029e-02,  6.3018170185e-03,  4.7699794173e-02,  1.3494773209e-01,  3.9145842195e-02,  9.9505998194e-02, -4.0510009974e-02, -4.8351541162e-02,  7.3254399002e-02, 
	-1.2091244757e-01, -1.0061429441e-01, -6.9328635931e-02,  1.4634230733e-01,  2.8002215549e-03,  7.4624240398e-02,  4.5886624604e-02,  4.6337940730e-03,  1.3369929790e-01, -5.1851198077e-02, 
	 5.7886306196e-02,  1.5401299298e-01,  4.5988921076e-02,  3.9377570152e-02,  6.4431801438e-02, -1.1627896130e-01,  4.0760900825e-02,  7.7593691647e-02, -1.0494583845e-01, -5.6838374585e-02, 
	 1.0949413478e-01,  3.9298921824e-02,  5.4121096618e-03,  1.2815363705e-01, -3.5867407918e-02, -5.6836564094e-02, -7.4993818998e-02,  8.6639881134e-02, -8.3237830549e-03,  8.8383004069e-02, 
	 1.1923798919e-01,  1.2997817993e-01,  1.9556716084e-02,  1.0739962757e-01,  1.0756944865e-01,  5.2765838802e-02, -1.0364877060e-02,  8.7573761120e-03,  3.4164819866e-02, -4.0811125189e-02, 
	 1.9209893420e-02,  5.3256768733e-02, -2.1248709410e-02, -2.0658902824e-01, -3.8208168745e-01, -8.4916450083e-02, -1.4404143393e-01, -1.1612012982e-01, -6.1839334667e-02,  1.4558088034e-02, 
	-1.5396467410e-02, -2.0533399284e-01, -2.3613654077e-01, -1.7764751613e-01, -1.3839396834e-01, -7.9241283238e-02, -2.2266016901e-01, -2.4176511168e-01, -1.1134359986e-01, -1.4913532138e-01, 
	 3.0181401968e-01,  5.8275049925e-01,  6.6515105963e-01, -1.0038762540e-01,  2.2737155855e-01,  4.5373067260e-01, -1.0386412591e-01,  7.8116387129e-02,  2.0907421410e-01,  5.6731766090e-03, 
	 5.9010125697e-02,  7.3203042150e-02, -4.8717908561e-02, -5.0425410271e-02, -6.1472073197e-02, -1.9275817275e-01, -5.7907585055e-02, -1.5703213215e-01, -2.1517069638e-01, -1.1592702568e-01, 
	-2.3814405501e-01, -4.4363059103e-02, -1.1390075088e-01, -2.1817016602e-01, -1.6396090388e-01, -1.1944830418e-01, -1.6660769284e-01, -2.8816112876e-01, -3.0916315317e-01, -1.7577321827e-01, 
	-1.5141925216e-01, -1.1055804789e-01, -9.5519796014e-02, -2.4046316743e-01, -1.6300109029e-01, -1.2778498232e-01, -2.3697385192e-01, -1.0346480459e-01, -1.0183691233e-01, -2.1419721842e-01, 
	-1.8686792254e-01, -9.5743216574e-02, -2.3905794322e-01, -1.6359046102e-01, -1.7205482721e-01, -9.0539656579e-02, -4.7139104456e-02, -1.9841024280e-01, -1.7706784606e-01, -1.2664826214e-01, 
	-8.1694692373e-02, -2.1858501434e-01, -6.7419588566e-02, -6.4714342356e-02,  8.0609939992e-02,  1.9518946111e-01,  1.1867699772e-01,  8.8835079223e-03,  7.8761614859e-02, -4.5651435852e-02, 
	-1.8101535738e-01, -5.2821643651e-02, -4.4109571725e-02, -1.2666119635e-01,  9.5478542149e-02,  8.8943615556e-03, -5.2579112351e-02,  6.6362656653e-02, -4.7851949930e-02,  1.8935991451e-02, 
	 9.7785882652e-02, -3.1376141310e-01,  2.4000119418e-02,  9.3677535653e-02, -8.6127430201e-02,  7.2716005147e-02,  1.1334449798e-01, -7.2908684611e-02,  2.3211555555e-02,  1.9963320345e-02, 
	-1.7716762424e-01, -1.0691498965e-01, -1.0464245826e-01, -9.0055204928e-02, -5.0648316741e-02, -2.2467512637e-02, -1.2488079816e-01,  1.0806495696e-01,  1.0301749408e-01,  1.6742227972e-01, 
	 9.4078578055e-02,  2.0740953088e-01,  2.0429022610e-01, -1.4917704463e-01,  4.5322864316e-03, -8.5630334914e-02, -2.5325435400e-01, -1.2807025015e-01, -1.8270838261e-01,  1.7118112743e-01, 
	 1.8427543342e-01, -3.1840682030e-02,  1.3919983804e-01,  4.8263791949e-02, -2.0567551255e-01,  1.7663033307e-01,  8.5345201194e-02,  1.0350632481e-02,  7.0860907435e-02,  2.3541370034e-01, 
	 8.3254687488e-02,  1.2900540233e-01,  1.4274543524e-01,  1.4129912853e-01, -1.6134119034e-01, -1.8320865929e-01, -1.2990595400e-01, -5.2332609892e-02,  1.0151439160e-01, -5.3342565894e-02, 
	-1.7372678220e-01, -7.5269654393e-02,  7.6416754164e-03, -1.3371829689e-01, -9.6606686711e-03, -1.0075127333e-01,  9.5680937171e-02, -6.9813512266e-02,  8.9154958725e-02, -1.5526142716e-01, 
	-2.4541072547e-02,  1.2249158695e-02, -1.7097687721e-01, -6.4270317554e-02,  1.1209962517e-01, -4.6806789935e-02,  1.1383875459e-01,  8.0067634583e-02, -1.0566573590e-01, -9.9314853549e-02, 
	 5.2672136575e-02, -2.7024054527e-01, -1.3733811677e-01, -1.5334640443e-01, -1.9900989532e-01, -3.2899650931e-01, -2.0164501667e-01, -1.3121401891e-02, -1.0742197186e-01, -1.1270205677e-01, 
	-7.0225767791e-02, -2.0221794024e-02, -1.6540274024e-02, -5.4147170158e-04, -2.1827891469e-02,  1.4168143272e-01, -4.5208148658e-02,  2.4685185403e-02,  4.7000635415e-02,  3.4239318222e-02, 
	-9.0511329472e-02, -1.1862434912e-03, -1.9783906639e-01, -3.0050262809e-01, -4.6571412683e-01, -1.8966881931e-01, -1.1044184864e-01, -4.0316092968e-01, -2.6342934370e-01, -1.3125552237e-01, 
	-2.4445119500e-01,  1.6148772836e-01,  7.4964322150e-02,  6.6899150610e-02,  7.3021903634e-02,  2.2389616352e-03,  9.9553428590e-02,  2.9119487852e-02,  1.2260552030e-03,  7.6925799251e-02, 
	-5.9326022863e-02, -6.8546541035e-02, -1.3408412039e-01, -3.4434475005e-02, -5.8362118900e-02, -1.6617168486e-01, -1.5727443993e-01, -7.9986732453e-03, -1.1982840300e-01,  4.2469415814e-02, 
	-8.5756309330e-02, -4.9342703074e-02, -7.1873404086e-02,  9.7995199263e-02,  6.0298878700e-02,  1.0055170208e-01,  1.0772927850e-01,  3.5445563495e-02,  1.4554974437e-01,  1.1918431520e-01, 
	 1.2361345813e-02,  1.9378632307e-01,  1.6342338920e-01,  7.8025862575e-02,  3.1474214792e-01,  2.8238552809e-01,  8.7527692318e-02, -2.4296398461e-01, -2.1444806457e-01, -1.1899396032e-01, 
	-2.1832479537e-01, -1.6486974061e-01, -1.5383686125e-01, -2.2425162792e-01, -6.2480371445e-02, -4.5688346028e-02, -8.1560932100e-02, -1.4632235980e-03,  9.1103324667e-03, -4.5786619186e-02, 
	 5.1438108087e-02,  5.5086407810e-03,  3.6914367229e-02,  2.6997115929e-03, -7.6193371788e-03, -1.3010628521e-01, -9.1705799103e-02, -8.7402962148e-02, -6.9962829351e-02, -1.3755691051e-01, 
	-1.0975100100e-01,  4.9947466701e-02, -5.6341965683e-03, -7.6086364686e-02, -3.0171308666e-02,  5.0335028209e-03,  6.2377668917e-02, -1.0571793467e-01,  2.6034258306e-02,  6.0412932187e-02, 
	-1.0541997850e-01, -4.7688458115e-02,  3.3635243308e-03, -2.1681863815e-02,  8.8549911976e-02,  5.2721410990e-02,  3.3525124192e-02,  5.4040476680e-02,  9.7135156393e-02,  1.9776153564e-01, 
	 1.9575692713e-01, -2.9589822516e-02, -6.0040291399e-02, -2.1198689938e-02, -5.2700862288e-03,  4.4836059213e-02, -9.3599475920e-02, -1.2081840634e-01,  1.5366925299e-01,  7.3539793491e-02, 
	 2.8868682683e-02,  5.4806657135e-02, -5.0164390355e-02,  2.1197170019e-01, -6.7629583180e-02, -9.0285271406e-02,  7.8422375023e-02, -1.4775010059e-03,  8.5350297391e-02,  1.3637362421e-01, 
	-5.0948861986e-02, -1.0533721745e-01,  9.2428207397e-02, -2.5726560503e-02,  5.1026637666e-03,  6.2400091439e-02,  1.3078171015e-01,  4.3035354465e-02, -1.9970415160e-02,  6.7375980318e-02, 
	 6.9810591638e-02,  1.0514374822e-01,  2.4677857757e-02,  9.9538154900e-02,  1.7591711134e-02,  1.3644488156e-01,  3.7768094335e-03, -1.6985514760e-01,  4.8425197601e-02,  2.6633808389e-02, 
	 6.0787241906e-02, -7.7435746789e-02, -5.4976347834e-02,  8.1032164395e-02, -2.0479090512e-02,  7.3120333254e-02,  3.6628741771e-02,  3.9483193308e-02,  1.1835242808e-01,  5.5409171619e-03, 
	 3.1695391983e-02, -4.0676217526e-02, -6.6543363035e-02,  1.8804524839e-01,  1.0808642209e-01, -2.1542919800e-02,  5.2381068468e-02,  1.0439659655e-01,  2.1668589115e-01,  1.2791369110e-02, 
	 8.5707426071e-02,  2.4950112402e-01, -7.4097938836e-02, -1.0523171723e-01,  3.0843323097e-02,  1.0394473793e-03,  8.5416600108e-02,  1.1500056088e-01, -5.1114715636e-02,  4.1440907866e-02, 
	-3.6329295486e-02,  7.4587471783e-02, -5.6125346571e-02, -1.0857960582e-01,  2.2160340846e-01, -6.4158186316e-02,  1.0265175998e-01,  1.1648731679e-01,  1.1306800880e-02,  8.4814637899e-02, 
	 4.7426581383e-02, -1.2848721445e-01, -2.0401400328e-01, -7.7854812145e-02, -1.7507137358e-01,  1.9539882243e-01, -7.4861757457e-02, -1.0104879737e-01,  1.4795452356e-01,  1.2128521502e-01, 
	-3.2119434327e-02, -5.2219942212e-02, -5.7747397572e-02,  1.2032793835e-02,  8.5988231003e-02, -6.8061947823e-02, -4.7105673701e-02,  2.0503380895e-01, -2.3576559126e-01, -7.6905235648e-02, 
	 8.7142623961e-02, -2.2778612375e-01, -2.2217990458e-01, -1.3366417587e-01, -5.1297605038e-02, -5.3629372269e-02,  8.3023883402e-02,  1.5831241012e-01,  1.9177410752e-02,  3.0171997845e-02, 
	-2.5955799222e-01, -2.6432189345e-01, -4.4907879084e-02, -1.5536573529e-01, -1.4667093754e-01,  1.7689761519e-01, -8.7858945131e-02,  3.1161818653e-02,  2.8429079056e-01, -4.4808197767e-02, 
	-9.5984451473e-02, -2.5204041973e-02,  7.7471628785e-02,  3.5913664848e-02,  5.7038463652e-02, -4.1741106659e-02,  1.7784446478e-01,  6.6550374031e-02,  2.2254073992e-02, -9.4648022205e-03, 
	 8.1863373518e-02,  3.5133384168e-02, -1.1313647032e-01,  3.2001823187e-02, -4.0303092450e-02,  6.5111160278e-02,  4.6425681561e-02, -1.9025754929e-01, -1.6407880187e-01, -9.6314251423e-02, 
	-3.8677978516e-01, -3.4545359015e-01, -1.6407531500e-01, -4.5695659518e-01, -3.0128741264e-01, -2.5210261345e-01,  6.0734558851e-02,  4.6950586140e-02,  1.0185204446e-02, -3.8960784674e-02, 
	-1.5895675123e-01, -1.4556360245e-01,  6.6072560847e-02, -2.5677953381e-03,  1.4418573678e-01, -6.5011680126e-02, -4.8543620855e-02,  9.9960155785e-03, -5.3478591144e-02, -8.8591627777e-02, 
	-7.3570370674e-02,  2.9887164012e-02, -1.9813580438e-02,  1.4636863768e-01, -1.6522806883e-01,  5.8186650276e-02,  3.4388625622e-01, -2.5294730067e-01, -5.8934286237e-02,  2.8134661913e-01, 
	-4.7568440437e-01, -3.9746928215e-01, -8.7361074984e-02, -6.4013910294e-01, -4.8033204675e-01,  1.6118530929e-01, -3.1135395169e-01, -2.5855460763e-01,  2.1638153121e-02, -3.1787192822e-01, 
	-3.5227876902e-01, -8.4116734564e-02, -8.0287260935e-03,  1.1278565973e-01,  1.7221580446e-01,  5.7548131794e-02, -8.6163217202e-03,  1.0901156068e-01, -4.0126174688e-02,  1.2122544646e-01, 
	 9.7156781703e-03,  6.6395299509e-03,  2.2074736655e-02,  3.0237628147e-02, -1.0039242357e-01, -6.5478496253e-02,  1.5734635293e-01, -2.8925932944e-02, -1.9830733538e-02,  2.7708152309e-02, 
	 1.9240712747e-02,  4.1066240519e-02, -1.5466566198e-02, -7.2931326926e-02,  1.0523924604e-02,  3.1114708632e-02, -1.0243672132e-01, -9.6945986152e-02, -1.8844091892e-01,  1.5086802654e-02, 
	-4.9128327519e-02,  9.6352994442e-03, -1.4562243596e-02,  2.7635185048e-02,  1.1762839556e-01, -1.0960400105e-01, -5.4338976741e-02, -7.4923016131e-02, -9.1186821461e-02,  7.5660273433e-02, 
	 9.9887832999e-02, -1.5211440623e-01, -1.5693861991e-02, -2.0347135141e-02, -2.1100579202e-01, -2.0403347909e-01, -1.1071256548e-01,  1.1916816235e-01, -1.4374695718e-01, -3.4134395421e-02, 
	-4.5810885727e-02, -1.3372479379e-01,  3.9753918536e-03,  1.5279658139e-01,  1.6317321360e-01,  9.7691036761e-02, -2.7377739549e-01, -2.8361970186e-01,  2.7068350464e-02, -2.6971459389e-01, 
	-6.9663301110e-02,  2.2445321083e-01, -1.0542672873e-01,  5.6965291500e-02,  3.4166219831e-01,  6.0995951295e-02,  3.6926724017e-02, -2.5240896270e-02,  1.3639380038e-01,  5.0057135522e-02, 
	-2.6598991826e-02,  1.1714712530e-01,  1.8524822593e-01,  8.0270744860e-02,  9.5965526998e-02,  7.9244688153e-02,  1.8766527064e-03, -1.7003731802e-02,  2.2257996723e-02, -7.2030641139e-02, 
	-3.0561165884e-02,  1.6618419439e-02,  2.9610453174e-02, -1.5608578920e-01, -1.9269046187e-01, -2.5995427743e-02,  1.4740636572e-02,  2.2999385372e-02, -8.1780806184e-02,  1.8930545449e-01, 
	 1.6627384722e-01,  9.0316064656e-02,  2.6692177635e-03,  2.3235701025e-02,  9.2921257019e-02,  2.3965841159e-02,  2.9096452519e-02, -7.4706107378e-02, -2.9404653236e-02,  5.1372136921e-02, 
	-1.1649185419e-01,  3.2294563949e-02, -6.0777842999e-02, -9.0722851455e-02,  6.3865542412e-02, -3.0150715262e-02, -8.8798850775e-02,  1.2336604297e-01,  8.8373742998e-02, -1.1230745353e-02, 
	 1.4621248841e-01,  2.0623279735e-02, -5.3148448467e-02,  8.2211382687e-02, -7.7064810321e-03, -5.8688361198e-02,  1.0067690909e-01,  6.0656677932e-02,  4.3275528587e-03,  1.7729179561e-01, 
	 1.0947848856e-01,  8.1661053002e-02,  5.7589568198e-02,  1.7058584094e-01,  6.8582691252e-02, -1.8566544354e-01, -1.0465876013e-01, -5.2741752006e-03,  3.5500120372e-02,  1.4355033636e-01, 
	 2.6354378089e-02,  2.1900843829e-02,  7.0626929402e-02,  1.4070045948e-01,  8.0156601965e-02,  1.0712252557e-01,  9.0561278164e-02,  5.1741119474e-02, -1.1121718213e-02, -1.3568413258e-01, 
	-2.9933905229e-02, -8.0992626026e-03,  5.3966190666e-02, -7.2730012238e-02,  2.2566465661e-02,  8.8977441192e-02, -3.3522661775e-02,  5.7371612638e-02,  9.5784090459e-02, -6.8501114845e-02, 
	 2.9590681195e-02,  4.1084378958e-02,  5.8040101081e-02,  1.5636868775e-01, -3.0401663389e-03,  2.9260680079e-02, -2.9546568170e-02,  2.0955651999e-01,  3.4590322524e-02,  1.4945514500e-01, 
	 2.8704065830e-02,  1.1252989620e-01,  7.3886342347e-02,  8.2569532096e-03,  2.3275145888e-01,  7.7101446688e-02,  8.0696552992e-02,  5.5849906057e-02,  8.4145650268e-02,  8.0003425479e-02, 
	 1.5745653212e-01,  1.3600540161e-01,  1.2825307250e-01, -1.8968071043e-01, -1.8995647132e-01, -1.4748416841e-01, -1.1116872728e-01,  3.7276686635e-03,  4.7939170152e-02, -2.0504843444e-02, 
	 9.6703860909e-03, -1.1877009645e-02, -8.3066463470e-02, -1.5273350477e-01, -7.8862726688e-02, -1.6383992136e-01, -1.6116759181e-01, -1.2308997661e-01, -2.4379080534e-01, -8.2284644246e-02, 
	-1.0870593041e-01, -1.9227795303e-02, -1.4418825507e-02,  1.3675871491e-01, -6.0783039778e-02, -1.3372734189e-01,  1.5642320737e-02, -1.7294324934e-01, -1.2646116316e-01, -1.5530561097e-02, 
	-3.4748196602e-02, -1.3358460367e-01, -1.0432320647e-02, -4.0153291076e-02, -6.2005788088e-02,  5.1501512527e-02,  8.4823660553e-02,  8.2964643836e-02, -6.6421506926e-03,  3.8775525987e-02, 
	 7.6339982450e-02,  6.2393534929e-02,  8.5172429681e-03,  8.6383074522e-02, -1.3182218187e-02,  1.8760299683e-01, -6.3021376729e-02, -2.0441119373e-01,  1.2879489362e-01, -4.9756623805e-02, 
	-1.4335480332e-01,  3.8079591468e-03, -2.9027797282e-02, -2.6347339153e-02,  1.0089415126e-02,  7.1577377617e-02,  1.3610367477e-01,  1.6130129993e-01,  1.4135804772e-01,  9.7581848502e-02, 
	-8.4402756765e-03,  4.1232734919e-02,  1.6090410948e-01, -4.9362643622e-03, -6.5609455109e-02, -6.5160952508e-02, -5.5171795189e-02, -3.7827989459e-01, -6.3877815008e-01,  1.4855994284e-01, 
	-2.1243968606e-01, -5.0156915188e-01,  1.0110347718e-01,  9.1221831739e-02,  1.6039712355e-02,  2.9032109305e-02,  4.8527311534e-02, -8.4501892328e-02, -1.5782628208e-02,  8.7270841002e-02, 
	-1.2610113248e-02, -6.1916608363e-02, -2.4045668542e-03, -6.8132556975e-02, -9.3970865011e-02, -6.4966626465e-02,  1.0333918966e-02,  7.7254459262e-02,  8.0669388175e-02,  6.8907216191e-02, 
	 1.5919515491e-01,  1.3538600504e-01,  9.8650097847e-02, -4.2366825044e-02,  4.9328465015e-02, -5.2774868906e-02, -5.5146232247e-02,  7.7975817025e-02,  2.4311775342e-02, -1.0516276211e-01, 
	 4.8923440278e-02, -9.2803850770e-02, -3.8139089942e-02, -8.3736076951e-02, -5.3028911352e-02, -1.9003745914e-01, -8.5588470101e-02, -1.6214776039e-01, -7.3278881609e-02, -8.7109923363e-02, 
	 1.1551325023e-01,  2.8005674481e-02,  1.7658793926e-01,  1.3469041884e-01, -2.0736558735e-01, -3.5071138293e-02,  2.6625145227e-02, -1.0018295050e-01, -1.2960252352e-02,  6.7673206329e-02, 
	-1.3441200554e-01, -9.5105528831e-02, -1.8668164313e-01, -1.3308115304e-01, -2.5940503925e-02, -1.2235305272e-02, -6.3802152872e-02, -5.0147738308e-02, -2.6771249250e-03, -1.2573966384e-01, 
	-1.2881110609e-01, -9.5178380609e-02, -1.3070969284e-01, -4.9015535042e-03,  1.4222568274e-01, -5.7174745947e-02,  8.6191959679e-02,  2.6155790687e-01,  1.1095110327e-01,  6.2544777989e-02, 
	 6.7751310766e-02,  1.2649165094e-01,  1.0991739482e-01,  2.7447901666e-02,  1.3701617718e-01,  5.6254215539e-02,  1.5914440155e-01,  3.4109216183e-02,  5.7844081894e-03, -1.0165269673e-01, 
	-8.3092659712e-02,  1.4073536731e-02, -1.1681758612e-01, -9.4240047038e-02, -2.5865750387e-02, -1.0741134174e-02,  9.7012827173e-03, -2.6312552392e-02, -1.0182747990e-01, -7.0376858115e-02, 
	 9.5169022679e-02, -3.1406503171e-02, -2.9419485480e-02,  5.8820553124e-02, -3.8153927773e-02,  6.2422972172e-02,  4.3038327247e-02, -5.4721496999e-02,  6.4000882208e-02,  1.2272462994e-01, 
	 1.1664554477e-01,  4.6776004136e-02,  1.3357611001e-01,  7.5079828501e-02, -5.1918931305e-02,  6.0056239367e-02,  6.4686886035e-03,  3.5184353590e-02,  1.4437296987e-01,  6.1579935253e-02, 
	 2.2131880745e-02,  3.4486763179e-02,  3.4904684871e-02,  9.9442631006e-02,  7.8299932182e-02, -2.8489637189e-03,  6.3819132745e-02,  5.7631254196e-02,  1.0756487399e-01,  9.0773187578e-02, 
	 1.5101416409e-01,  5.8499582112e-02, -4.0668329597e-01, -2.0420908928e-01, -1.5455053747e-01, -4.0539942682e-02, -8.0183357000e-02,  2.2431472316e-02,  8.8151991367e-02,  9.9461637437e-03, 
	-3.7354689091e-02, -1.4897882938e-01, -2.6777216792e-01, -3.2292652130e-01, -4.3753214180e-02, -6.2226820737e-02, -2.6300342754e-02, -2.9616745189e-02, -8.6552023888e-02, -4.1557069868e-02, 
};

const float layer_27_conv2d_bias[UNET_PAR_27_CONV2D_OUT_FILTER] = {
	 5.9378091246e-02,  1.1645340919e-01, -1.2123962492e-01,  1.7894275486e-01,  4.2091149092e-01, -1.1256875843e-01,  1.1555903405e-01, -8.2510352135e-02,  2.2553870082e-01, -7.7277548611e-02, 
	-1.4495484531e-01,  3.0809717253e-02,  9.4418779016e-02, -3.8654178381e-02,  1.0097448528e-01, -3.7339672446e-02,  9.7629800439e-02,  1.2563209236e-01, -1.1422523111e-01, -6.7703224719e-02, 
	 1.3354392350e-01,  4.0026936680e-02,  2.7062422037e-01, -8.3343237638e-03, -2.9687643051e-01, -3.5648021847e-02,  6.2052965164e-01,  1.3169727288e-02,  1.7465195060e-01, -5.0551217049e-02, 
	 3.9097003639e-02,  1.5442076325e-01, -3.2268879004e-03, -1.4446283877e-01,  3.0863836408e-01, -3.3778868616e-02,  2.6301726699e-02,  9.3266051263e-03,  2.8920808434e-01, -4.4059406966e-02, 
	 1.9642667472e-01,  1.7025382817e-01,  2.5550164282e-02, -5.4225072265e-02,  6.8989612162e-02, -4.5441620052e-02,  1.5567183495e-01, -1.9350695610e-01,  2.4475614727e-01,  1.5718506277e-01, 
	-2.0910356939e-01,  1.3128452003e-02, -5.4060861468e-02, -1.0230734944e-02,  1.2090412900e-02,  1.5942271054e-01, -4.5751605183e-02, -7.6248787344e-02, -6.1124816537e-02, -1.4322446287e-01, 
	 1.0451976955e-01,  4.7082029283e-02,  1.5655882657e-01,  6.9373168051e-02,  3.0508717895e-01,  2.0417699590e-02, -1.7681637779e-02, -2.1401122212e-01,  2.0696905255e-01,  7.4331350625e-02, 
	 1.9767731428e-03,  9.5764175057e-02,  7.3885910213e-02,  5.3060721606e-02,  5.9760631993e-03,  1.3454420492e-02,  2.6097750291e-02,  1.9081878662e-01,  4.1021741927e-02, -2.0503279567e-01, 
};


#endif
