#ifndef PARAMS_CONV2D_0_H
#define PARAMS_CONV2D_0_H
#include "params.h"

const float layer_0_conv2d_weight[UNET_PAR_0_CONV2D_KERNEL_Y*UNET_PAR_0_CONV2D_KERNEL_X*UNET_PAR_0_CONV2D_IN_FILTER*UNET_PAR_0_CONV2D_OUT_FILTER] = {
	-1.2062037736e-01,  3.3214852214e-01, -4.8060644418e-02,  2.9035970569e-01, -8.4859162569e-02, -2.0584674180e-01, -8.8645942509e-02,  2.3103985935e-02,  9.8367772996e-02, -1.5907952189e-01, 
	 3.6865404248e-01,  1.1893352121e-01,  5.8137670159e-02,  2.6643840596e-02, -2.8123372793e-01,  9.4769462943e-02, -5.5708911270e-02,  2.3110309243e-01,  5.0455074757e-02, -9.6367530525e-02, 
	-6.0801494867e-02,  1.8018662930e-01,  3.1746447086e-01, -1.2271498144e-01,  1.0670395195e-01,  6.0986898839e-02,  3.5175669193e-01, -8.6699157953e-02,  1.7992998660e-01, -5.9675076045e-03, 
	 6.8055339158e-02, -6.6345008090e-03, -4.7241512686e-02,  4.8579469323e-02,  2.2818937898e-01,  2.7562813833e-02,  4.1774038225e-02, -6.8633379415e-03,  2.7815688401e-02, -5.9380710125e-02, 
	 5.9552458115e-03, -4.3549660593e-02,  8.4748446941e-02,  8.0601021647e-02,  5.8926388621e-02, -1.8621635437e-01,  9.4346970320e-02,  2.8562817723e-02,  2.2572480142e-02, -1.1278950423e-01, 
	 1.5941089392e-01,  5.1316525787e-02,  4.7466073185e-02, -7.6541551389e-03,  2.7039651759e-03, -9.7578112036e-03,  4.8124238849e-02,  4.3344132602e-02, -1.6183290631e-02, -7.5290627778e-02, 
	-8.4838815033e-02,  5.5102150887e-02,  2.0272271335e-01, -2.0601001382e-01,  1.0183937103e-01, -4.8326435499e-03, -1.3484095037e-01,  9.8207160830e-02,  8.4302105010e-02, -5.2979532629e-03, 
	-1.5734547377e-01, -1.2098727375e-01,  1.1712732911e-01,  2.5416073203e-01,  3.4819841385e-02, -3.1648871303e-01,  3.8591247052e-02,  7.6387524605e-02, -2.6767399162e-02, -6.7897039652e-01, 
	-7.9242095351e-02, -2.5622233748e-01, -1.3294094801e-01,  1.4964352548e-01, -1.4417925477e-01,  1.0216042399e-01,  2.7887064219e-01,  1.1115542054e-01,  9.8881153390e-03,  1.2883096933e-01, 
	-5.5846173316e-02,  3.9104517549e-02, -5.6430837139e-03, -4.4556576759e-02,  2.1922022104e-02,  6.0179863125e-02, -2.4721287191e-03, -1.9201350212e-01, -4.7096028924e-02, -1.0350841284e-01, 
	 1.2200763077e-01, -3.0915867537e-02,  6.5585426055e-03, -6.7353174090e-02, -2.4306213483e-02,  2.3180790246e-02, -2.1812710166e-01,  4.8249304295e-02, -8.6724132299e-02, -5.6206691079e-03, 
	 9.9773872644e-03, -1.7356705666e-01,  4.8902034760e-02,  1.1066199839e-01,  4.5901894569e-02, -8.2931421697e-02, -6.5721988678e-02, -3.2010573894e-02, -7.0981800556e-02,  1.1379269511e-01, 
	-5.4754205048e-02, -4.9812655896e-02,  2.3874618113e-02,  6.4048446715e-02, -2.9264974594e-01, -3.1074807048e-02, -3.3256541938e-02, -2.9877547175e-02, -5.6052569300e-02,  1.1790042371e-01, 
	 7.1076795459e-02,  2.5079107285e-01,  1.7861245573e-01,  2.1079637110e-01, -7.4463691562e-03, -2.9656398296e-01, -9.4838244841e-03, -7.7500447631e-02,  2.3109301925e-01, -1.4903695881e-01, 
	 1.2345778942e-01,  1.3376754522e-01,  2.5401455164e-01,  1.9555680454e-02,  1.2053672969e-01,  4.2845273018e-01,  2.8126877546e-01,  1.4323677123e-01,  6.1144369841e-01,  5.8186137676e-01, 
	-3.7149265409e-01,  1.9356729090e-01,  3.6228674650e-01, -2.3064583540e-02,  1.7253056169e-01, -2.0164323971e-02,  2.9639441520e-02,  4.4413480908e-02,  5.4482769221e-02, -7.7018395066e-02, 
	 1.1523922533e-01,  4.4811375439e-02,  5.3391277790e-02,  2.0476941019e-02, -2.3019732907e-03, -1.3094440103e-01, -1.3627883792e-01,  2.1681177616e-01,  2.0664894581e-01,  5.3198669106e-02, 
	-1.0930113494e-01,  1.0289322585e-02, -3.2744515687e-02, -8.9516989887e-02,  4.1785635054e-02, -1.2462077290e-01,  1.7523220181e-01,  4.1432239115e-02,  1.9234019518e-01, -4.7269329429e-02, 
	-4.5533545315e-02,  1.0455305129e-01,  1.4262826741e-01,  7.8394360840e-02, -7.5008295476e-02, -2.8273563832e-02,  3.2802179456e-02,  4.6751528978e-02,  6.7408340983e-03,  2.0999929309e-01, 
	-2.1548064053e-01, -1.2173592299e-01,  1.5574547648e-01,  1.5029324591e-01,  1.2191596627e-01, -1.6609442234e-01,  1.9162529707e-01, -2.7277353406e-01,  2.9100561142e-01,  8.7126046419e-03, 
	 1.4625333250e-01,  1.9364556670e-01, -1.1147157103e-01,  1.2507982552e-01,  1.5342916548e-01,  2.1959672868e-01, -2.3252150416e-01,  4.5801583678e-02, -2.2521747276e-02, -1.1738390476e-01, 
	-1.5697650611e-01,  2.4508960545e-01,  2.1417203546e-01, -1.6474662721e-01,  3.1422758102e-01,  5.8464246988e-01,  2.4304245412e-01, -9.9428832531e-02, -1.2038150430e-01, -2.7680577710e-02, 
	 1.2503843755e-02,  5.4189704359e-02,  1.7180567607e-02,  2.5162810087e-01,  6.5466493368e-02, -5.8662630618e-02,  4.0050663054e-02, -1.3862310350e-01,  8.8191375136e-02,  1.2516929209e-01, 
	-5.8251012117e-02, -6.0523193330e-02,  8.9892089367e-02, -3.3336788416e-02,  2.4510631338e-02, -4.4401887804e-02,  3.3172476105e-03,  8.8673450053e-02,  6.3323132694e-02, -6.7111313343e-02, 
	 7.2285365313e-03,  9.5330737531e-02, -5.9475142509e-02,  9.4327270985e-02, -7.2041407228e-02,  1.0590094142e-02,  3.8047693670e-02,  3.7575552706e-03, -1.3913771510e-01,  2.9676644132e-02, 
	-6.6963158548e-02,  7.3611088097e-02, -5.0671014935e-02,  5.1864078268e-03,  3.6371815950e-02,  1.1262924969e-01, -8.5702441633e-02, -8.3385579288e-02, -1.6015780857e-03, -1.1193739623e-01, 
	-1.9628711045e-01, -1.6620633006e-01, -2.4467042089e-01, -1.2303113192e-01, -1.8181169871e-03,  5.0995811820e-02,  5.7066325098e-02, -1.0103072971e-01,  8.3158165216e-02, -2.6291510463e-01, 
	 2.1189562976e-01,  1.6227284074e-01, -3.1968259811e-01,  2.5923508406e-01,  3.8347581029e-01, -3.9031046629e-01, -5.1541286707e-01, -1.3580793142e-01, -3.0469715595e-01,  5.7146407664e-02, 
	 4.4426020235e-02, -8.1705443561e-02,  2.8411045671e-02, -2.3613922298e-02,  9.7455829382e-03, -9.6528455615e-02,  5.9161271900e-02, -1.4422410727e-01,  4.4138900936e-02, -6.0443181545e-02, 
	-2.7315000072e-02,  7.9810716212e-02,  5.3750567138e-02, -2.7910251170e-02, -1.6750486195e-01,  4.4726453722e-02, -1.8008472025e-01,  1.1280079372e-02,  3.7707146257e-02, -1.3952380978e-02, 
	 2.6774683967e-02,  5.8216072619e-02, -1.7575199902e-01, -1.3553535938e-01,  8.4335692227e-02, -2.7925211191e-01, -7.3038220406e-02,  1.2526929379e-01, -9.0949535370e-02,  1.0595609248e-01, 
	-1.9259983674e-02,  1.0912096128e-02, -8.9656159282e-02, -2.3419223726e-03, -1.4412501454e-01, -1.2538817525e-01,  1.5590611100e-01,  1.7299146950e-01,  2.4064080417e-01,  9.8208352923e-02, 
	-3.9814967662e-02, -1.0120829195e-01,  1.0270605236e-01, -1.7770069838e-01,  1.4681492746e-01,  1.0403176397e-01,  1.3159906864e-01, -5.6561212987e-02, -1.9172105193e-01,  2.2926746309e-01, 
	 7.0765219629e-02,  1.9498233497e-01, -1.0943273455e-01, -3.8278404623e-02,  2.3085467517e-01,  5.5293165147e-02, -2.9604265094e-01,  2.5697715580e-02, -3.9947699755e-02,  1.2094904482e-01, 
	-2.4198980629e-01, -5.6237989664e-01,  5.7605996728e-02,  7.8965269029e-02, -1.0925190523e-02, -2.7147676796e-02,  6.1425674707e-02,  4.1819464415e-02,  2.3706309497e-01,  8.4146797657e-02, 
	-3.2610844821e-02, -3.4891969990e-03,  2.1535886917e-03,  1.4133329690e-01, -2.0413340535e-03, -1.2775684893e-01, -2.7720319107e-02, -2.3670453578e-02,  1.6904442012e-01,  1.2121327966e-01, 
	-3.3478915691e-02,  1.2827479281e-02,  3.2164510339e-02,  2.4125643075e-01,  1.1930271052e-02,  7.0267342031e-02,  4.7055199742e-02, -2.8787404299e-02,  1.1975412816e-01,  5.4026599973e-02, 
	-1.1626089364e-01,  1.5993133187e-01, -1.6129501164e-01,  2.5103929639e-01, -7.3847226799e-02,  4.3611228466e-02, -3.3688805997e-02, -3.0542811146e-04,  1.1615874618e-01, -8.1572964787e-02, 
	 7.0535227656e-02, -1.2073221803e-01,  4.2105693370e-02, -6.0370736755e-03, -2.3956046999e-01, -1.0617528856e-01,  1.8630164862e-01,  5.9940516949e-02,  2.9376916587e-02,  2.9202994704e-01, 
	 7.7306598425e-02, -1.3574180007e-01, -1.9734914601e-01, -1.8283975124e-01,  8.0574706197e-02, -6.7509062588e-02, -1.0761720687e-01,  8.3436362445e-02, -4.1904628277e-01,  4.3037869036e-03, 
	 6.3953459263e-02,  2.1782507002e-01,  2.7748343349e-01, -9.5912225544e-02,  1.2087866664e-01,  8.0080658197e-02, -3.1304764561e-03, -7.9205922782e-02,  5.3112339228e-02,  2.9145604372e-01, 
	 1.2845700979e-01,  2.8331303596e-01, -1.0574356467e-01,  2.1851938963e-01, -6.7505603656e-03,  6.1460364610e-02, -6.5318480134e-02, -1.0290860385e-01, -2.4041691795e-03,  9.9305868149e-02, 
	-1.5355852433e-02,  5.4042834789e-02, -3.1442135572e-02, -8.0485474318e-03,  7.7968135476e-02,  1.0209234804e-01,  1.4826077223e-01,  8.6008712649e-02,  6.3789218664e-02, -1.0242310911e-01, 
	-6.7340888083e-02, -2.9670184478e-02, -8.8228970766e-02,  7.3382206261e-02,  5.3603649139e-02,  8.8573858142e-02,  5.0307944417e-02, -8.9403353631e-02, -7.0897944272e-02, -9.0395539999e-02, 
	 8.2621708512e-02, -3.4118735790e-01, -1.4539642632e-01, -6.0338597745e-02, -1.4455278218e-01,  1.9239597023e-01, -1.3551363349e-01, -1.0254823416e-01,  1.5061421692e-01, -9.0926647186e-02, 
	-5.3681141138e-01, -9.8302409053e-02, -2.1126648411e-02, -4.3956182897e-02, -1.3129374385e-01, -1.0892080143e-02,  3.0039070174e-02,  6.3804320991e-02, -5.1635168493e-02, -4.8529440165e-01, 
	-2.8352150321e-01, -3.0737680197e-01,  2.5198712945e-01,  4.5220822096e-02,  1.3930725865e-02, -3.9318144321e-01, -4.4627476484e-02, -1.4403817058e-01, -3.9905956388e-01,  2.7875769883e-03, 
	-6.5824754536e-02,  2.9269807041e-02, -8.2203634083e-02,  9.3416780233e-02, -1.1078036577e-01,  5.8402147144e-02, -5.4331816733e-02, -1.7646469176e-01,  4.3361792341e-03,  2.4588523433e-02, 
	 9.0263690799e-03, -5.8152608573e-02,  1.1115889996e-01, -2.4668641388e-02,  8.5949517787e-02, -9.7951799631e-02, -1.4930430055e-01, -9.1082587838e-02, -3.0776506290e-02,  3.5174190998e-02, 
	-5.9295292944e-02,  5.8292135596e-02,  3.7864367478e-03,  2.7844594792e-02, -3.6770004779e-02, -1.5198984742e-01, -6.7810386419e-02,  1.6953969374e-02,  6.4200609922e-02, -2.5447908789e-02, 
	-1.3586424291e-02, -7.9707041383e-02,  8.4024459124e-02, -2.5676989928e-02,  4.4672273099e-02, -9.6140809357e-02,  3.5584561527e-02, -6.1270795763e-02,  2.1932554245e-01,  2.8118936345e-02, 
	 8.5774520412e-03,  1.4723853767e-01, -2.3755358160e-01,  1.6033767164e-01, -7.1262312122e-03, -4.4505828619e-01,  2.9070428014e-01,  9.3302048743e-02,  4.8223804682e-02, -3.6742049456e-01, 
	-4.5345887542e-02, -1.0105533898e-01, -1.0319428891e-01,  9.8738074303e-02, -7.2959505022e-02, -2.9615077376e-01, -2.3488660157e-01, -9.2862248421e-02,  2.6064762473e-01, -4.9589853734e-02, 
	-8.7017782032e-02, -9.9123656750e-02, -1.7991006374e-02, -2.4111862481e-01,  1.9623838365e-02, -1.2319011241e-01, -7.8648207709e-03, -1.2248083204e-01, -1.7414791882e-01,  1.1644165218e-01, 
	-7.2955375072e-04,  2.6357199997e-02, -2.5623151660e-01, -7.8115701675e-02, -1.2875963748e-01,  3.2603852451e-02, -5.4420571774e-02, -2.8945909813e-02,  9.5461048186e-02,  1.2642779388e-02, 
	 1.5170727856e-02, -8.6356289685e-02, -6.2705986202e-02, -9.9258534610e-02,  6.6176265478e-02, -1.0642784834e-01, -6.9677188993e-02,  1.1224737763e-01,  1.3485202193e-01, -1.2794850767e-01, 
	-9.1950282454e-02, -1.4455132186e-01,  9.1443188488e-02,  4.8322983086e-02, -3.2016426325e-02, -6.4674079418e-02,  8.9353457093e-02, -7.2388187051e-02,  1.4746171236e-01,  4.5152824372e-02, 
	-1.6266219318e-01,  3.4175828099e-02,  2.1708188951e-01, -1.5740162134e-01, -1.8891045451e-01,  1.1273454130e-01,  3.8921806216e-01,  2.8555673361e-01,  2.2485998273e-01,  8.3657503128e-02, 
	 7.9834178090e-02,  3.1168133020e-01, -4.0619891137e-02, -2.3421180248e-01,  9.6345596015e-02,  1.7232440412e-02,  2.1064835787e-01, -6.6428206861e-02,  3.9757174253e-01, -4.8510368913e-02, 
	-1.0052894242e-02,  1.9021058083e-01, -3.0596238375e-01, -5.6705914438e-02, -7.4293389916e-02,  1.3246758282e-01, -1.1682703346e-01, -3.3825837076e-02,  4.1327647865e-02, -7.1098357439e-02, 
	 3.0025165528e-02,  8.2943171263e-02,  1.7684787512e-01,  1.1519211531e-01, -4.3031055480e-02,  1.2586079538e-01, -1.7100033164e-01,  3.2134719193e-02,  7.3240965605e-02, -4.3702647090e-02, 
	 1.2815226801e-03,  6.3537299633e-02,  1.5443569422e-01, -1.1482118815e-01,  3.9875026792e-02, -1.1017474346e-02, -9.3505285680e-02,  3.1038203835e-01, -9.7767196596e-02,  2.2532497346e-01, 
	-4.5991607010e-02,  4.8810839653e-02,  2.2384589538e-02,  1.6167322174e-02,  5.2848211490e-03, -4.9105480313e-02,  5.0513140857e-02,  7.1570232511e-02, -2.4986089766e-01,  8.1425800920e-02, 
};

const float layer_0_conv2d_bias[UNET_PAR_0_CONV2D_OUT_FILTER] = {
	 1.4546047896e-03,  1.0392033728e-03, -2.7580957976e-04, -1.0377395665e-03,  3.6656585871e-04, -2.9739679303e-04, -1.0741585866e-03, -1.1899335077e-03,  5.5434409296e-04,  5.8624037774e-04, 
};


#endif
