#ifndef PARAMS_CONV2D_8_H
#define PARAMS_CONV2D_8_H
#include "params.h"

const float layer_8_conv2d_weight[UNET_PAR_8_CONV2D_KERNEL_Y*UNET_PAR_8_CONV2D_KERNEL_X*UNET_PAR_8_CONV2D_IN_FILTER*UNET_PAR_8_CONV2D_OUT_FILTER] = {
	-7.9698555171e-02,  3.2923940569e-02,  1.7290151119e-01, -1.2254537083e-02, -4.4308837503e-02,  8.7074479088e-03, -1.4324645698e-01, -6.1473473907e-02, -1.0372874327e-02,  1.4616049826e-02, 
	 1.3553859293e-01,  2.2069892287e-01, -2.2287088633e-01,  2.4180732667e-01,  1.9551599026e-01, -2.9775299132e-02,  8.5551934317e-03,  1.1657527089e-01, -1.8703395128e-01,  2.8179526329e-02, 
	-1.1156787723e-01, -1.0129997134e-01,  3.2781727612e-02,  1.3529209793e-01, -4.8201225698e-02, -3.4212008119e-02,  4.3578166515e-02,  1.2102954835e-01,  1.8406920135e-01,  6.4746528864e-02, 
	 2.2584196925e-01, -1.2664835155e-01,  1.3369983993e-02,  1.0413711891e-02, -1.4156758785e-01,  8.7089531124e-02, -1.2234327942e-01, -1.3040409982e-01,  6.5175138414e-02, -9.3445606530e-02, 
	-5.3047593683e-02,  1.3989804685e-01, -4.7083042562e-02, -3.4638065845e-02, -9.4631962478e-02, -8.6003290489e-03,  8.5302159190e-02, -5.3246770054e-02,  1.0983947664e-01, -1.7693559825e-01, 
	-7.0317707956e-02, -9.8866432905e-02, -3.6829188466e-02, -3.5140786320e-02, -1.2794038653e-01, -9.6016481519e-02,  2.4514904246e-02, -4.0577456355e-02, -2.1021752059e-01, -1.0947353393e-01, 
	-4.9133706838e-02, -1.6891698539e-01, -1.6623556614e-01,  1.0997097194e-01,  5.4796624929e-02, -1.6887444258e-01,  5.3469140083e-02,  7.4252210557e-02,  7.9671978951e-02, -2.3027101159e-01, 
	-5.7635109872e-02, -1.0750594735e-01, -1.1738121510e-01, -1.3725162484e-02, -6.1996467412e-02, -1.5893657692e-03, -1.3116985559e-01, -5.7148713619e-02, -4.1482634842e-02, -1.0927075148e-01, 
	-7.2373136878e-02,  1.2658353150e-01, -1.8127483130e-01, -1.0258507729e-01,  1.6997349262e-01,  2.8722697496e-01, -1.4953987300e-01, -1.2356886268e-01,  9.6823936328e-03, -1.0185392946e-01, 
	 1.4680568874e-01,  1.1994740367e-01,  1.5108093619e-01,  3.2077458501e-01,  2.4657154083e-01,  3.2126124948e-02, -1.5273815393e-01, -1.1590965837e-01, -9.0893283486e-02, -2.4312929809e-01, 
	-9.5086343586e-02, -9.6487067640e-03, -1.4954060316e-01, -1.3630706072e-01,  8.3106756210e-02,  9.0290956199e-02, -9.9178977311e-02,  1.2596116960e-01,  1.5829910338e-01,  1.9477571547e-01, 
	-8.2799896598e-02, -1.8005149066e-01, -1.4937923849e-01, -1.7838169634e-01, -1.7063747346e-01, -8.5675328970e-02, -1.1415591091e-01, -2.2104548290e-02,  1.2576188147e-01,  1.0657420754e-01, 
	 1.0021872818e-01,  7.4231192470e-02,  1.2391699851e-01,  2.6885071397e-01,  2.0631423593e-01,  1.1681938171e-01, -1.7522911727e-01,  3.0853293836e-02,  1.4242671430e-02, -5.7864110917e-02, 
	-6.4067855477e-02,  2.2924249992e-02,  9.1960795224e-02,  7.2834133171e-03,  3.6739151925e-02,  1.5499408543e-01, -3.2899606973e-02, -5.6579656899e-02,  8.4034211934e-02, -1.5097174048e-01, 
	-1.0364108533e-01, -6.0788463801e-02, -3.1988758594e-02, -5.3735960275e-02, -1.8842266500e-01, -6.1164963990e-02,  2.2202845663e-02, -4.4828295708e-02, -3.6716930568e-02,  3.4435980022e-02, 
	 7.1476712823e-02,  7.5578801334e-02, -9.1055788100e-02,  9.5293611288e-02,  4.4809557498e-02, -8.6906597018e-02,  2.1609969437e-02,  4.1970629245e-02, -4.1193522513e-02,  4.1572924703e-02, 
	-1.4958851039e-01, -1.5881474316e-01, -4.4334270060e-03, -6.1678200960e-02, -1.2096684426e-01,  3.7091705948e-02, -2.7068366762e-03,  6.5211869776e-02, -7.7794231474e-02,  4.7434577718e-03, 
	 6.5133742988e-02, -1.1832211912e-01,  1.0202373564e-01,  9.2633619905e-02, -6.1474632472e-02, -1.5625287592e-01, -8.4996350110e-02, -1.3361452520e-01, -1.4230428636e-01, -1.0815695673e-01, 
	 2.1566631272e-02, -5.9563525021e-02,  2.5397916324e-03,  6.1977338046e-02, -1.2584430166e-02,  6.2626846135e-02,  7.1789100766e-02,  1.2748934329e-01,  9.6981249750e-02, -5.3486889601e-01, 
	-3.3868265152e-01, -2.1386034787e-01, -2.8484505415e-01,  4.5228369534e-02, -1.0722804815e-01, -1.5562194586e-01, -1.8865985796e-02,  6.0261465609e-02, -3.2059986144e-02,  1.2132964097e-02, 
	-1.8141187727e-02,  5.2719507366e-03, -1.9291762263e-02, -8.5537746549e-02, -3.6139089614e-02, -2.7194283903e-02,  6.1581537127e-02, -6.2424268574e-02,  5.9836152941e-02,  1.2425958365e-01, 
	 1.2371458113e-01,  1.4639026485e-03,  2.6898136362e-02, -5.9066601098e-02, -6.4958781004e-02, -4.5875158161e-02, -8.7333090603e-02,  1.1695504934e-01,  1.4799800515e-01, -6.5805323422e-02, 
	-1.7459344864e-01,  1.7464566231e-01, -1.3473562896e-01, -7.6184526086e-02, -3.3818382770e-02,  8.9710541070e-03,  5.4536703974e-03, -6.0852379538e-03,  1.7627714574e-01,  8.7622620165e-02, 
	 1.4947873354e-01, -7.8238032758e-02, -9.1660849750e-02,  2.1302787587e-02, -3.9739511907e-02,  1.8683822826e-02,  1.2924023904e-02, -6.7429967225e-02, -4.7428131104e-02,  1.1681359261e-01, 
	 2.6797676459e-02, -3.6138903350e-02, -1.9304306805e-01,  1.6760361195e-01,  1.4451552927e-01, -5.9214331210e-02,  1.6557340324e-01,  1.3939374685e-01, -2.5102414191e-02,  6.6600744613e-03, 
	-4.4063098729e-02, -6.7521974444e-02, -6.0709215701e-02, -5.3406182677e-02,  2.8697673231e-02,  7.8705318272e-02,  9.9444448948e-02, -7.1450620890e-02,  8.4169253707e-02, -8.0831997097e-02, 
	-1.5197512507e-01, -4.1285711341e-03, -5.5233467370e-02, -1.8192566931e-01,  1.1511142552e-01,  1.8347916007e-01,  1.2459802628e-01,  1.4472842216e-01,  1.5356934071e-01, -3.3696301281e-02, 
	 1.0140459985e-02, -1.2442572415e-01, -8.0449134111e-03,  6.0307003558e-02, -3.7260591052e-03, -1.1692629755e-01,  1.4230041206e-01,  1.6038025916e-01, -1.0076426715e-01,  3.5292848945e-02, 
	-9.8637320101e-02, -1.0402446240e-01,  2.2301459685e-02,  1.5548958909e-03,  7.3074772954e-02, -1.8614348024e-02,  4.4985916466e-02,  5.4012112319e-02,  1.0596156120e-01,  8.0013237894e-02, 
	-7.7882222831e-02,  2.8053658083e-02, -6.3395954669e-02,  7.4395877309e-03, -7.0093676448e-02,  1.3091021776e-01,  1.9812392071e-02, -2.0120451227e-02, -5.3877368569e-02,  1.2227956951e-01, 
	-6.6294640303e-02, -6.2873579562e-02, -7.0948787034e-02, -9.9704913795e-02, -7.6982975006e-02,  1.1612014472e-01,  7.8220300376e-02,  2.1878030151e-02, -7.0761114359e-02,  4.5279204845e-02, 
	 2.6237040758e-02, -1.3476742804e-01, -1.5807603300e-01, -1.1762647331e-01, -1.2140910327e-01,  2.7561713010e-02,  1.4259262383e-01, -3.1516600400e-02, -4.4543143362e-02, -8.4353119135e-02, 
	-1.4020544291e-01,  8.3998344839e-02, -7.0988640189e-02, -7.7800042927e-02, -7.4379786849e-02,  4.0932865813e-03, -7.1294859052e-02,  5.7408519089e-02, -9.9168591201e-02,  9.4988435507e-02, 
	 6.1129398644e-02, -1.5500862896e-01, -1.5458570421e-01,  8.2596361637e-02, -9.8299786448e-02,  1.7560632527e-01,  1.0302048922e-01, -1.8807803094e-01, -1.0419654846e-01,  2.8158163652e-02, 
	 6.8365912884e-03,  4.3301723897e-02,  1.0605604947e-01, -1.0572026484e-02,  9.5768392086e-02,  3.8014579564e-02,  1.8244417384e-02,  3.4184712917e-02, -9.9531272426e-03, -8.2281805575e-02, 
	 9.2460691929e-02, -9.2384241521e-02, -2.6134285145e-03,  1.1741852015e-01, -4.2450919747e-02,  1.1799328774e-01,  7.0600941777e-02,  9.8335906863e-02,  1.5494652092e-01,  1.5229645371e-01, 
	-1.1463859677e-01, -2.0813222229e-01, -1.0043878853e-01, -4.3576978147e-02, -4.2994987220e-02, -7.6925985515e-02, -1.3568127155e-01, -6.0047458857e-02, -1.3269551098e-01, -2.4062928557e-01, 
	 1.5835955739e-01,  9.5760203898e-02,  3.2931399345e-01,  2.8038531542e-01,  1.3170002401e-01,  6.8910844624e-02,  5.5517058820e-02,  9.3401804566e-02, -1.7496789992e-01, -4.2732715607e-02, 
	-4.8858530819e-02,  6.1824113131e-02,  7.0174723864e-02, -1.9872683287e-01, -1.9617641345e-02, -1.7388600111e-01, -1.5452842414e-01,  4.3568495661e-02, -3.5141028464e-02, -2.8507668525e-02, 
	-5.6573379785e-02, -9.2701297253e-03, -6.5644867718e-02,  2.0899841562e-02,  1.1537069082e-01,  5.7159117423e-03, -1.3370675966e-02, -2.6492100209e-02, -2.1603174508e-02, -8.5550189018e-02, 
	 5.1206044853e-02,  1.6337659955e-01,  1.5827517211e-01, -8.3193413913e-02,  8.5945241153e-02,  2.4309325218e-01,  6.8630196154e-02, -1.2325397879e-01, -2.1693453193e-02,  1.6277043521e-01, 
	 1.1954092234e-01, -9.3918420374e-02,  2.0007705688e-01, -3.9581961930e-02, -1.3493511826e-02, -7.7124610543e-02, -1.1184497178e-01, -9.2845842242e-02,  4.5603062958e-02, -1.4012965560e-01, 
	-6.8198621273e-02, -5.5727068335e-02,  1.3994364068e-02,  1.3090093434e-01,  8.9496798813e-02, -1.6033492982e-01,  5.7200610638e-02, -6.2433209270e-02,  7.5945178978e-03, -2.4315881729e-01, 
	-1.5965442359e-01,  1.0275811702e-01,  7.8488849103e-02, -9.6529871225e-02,  8.9554809034e-02, -2.9046705458e-04,  1.0923288018e-01, -6.4109340310e-02, -2.0560469478e-02, -3.9797209203e-02, 
	-7.1090683341e-02, -3.0994638801e-01, -2.2040458024e-01, -2.3243078962e-02, -5.3124852479e-02,  2.7444899082e-01, -9.4805777073e-02, -6.8723596632e-02, -1.5529061854e-01,  7.6225943863e-02, 
	 8.9124795049e-03,  2.3780420423e-01,  1.1230136454e-01, -1.2320479751e-01, -5.7766372338e-03, -8.4446899593e-02, -3.0006745458e-01,  1.7200088501e-01,  1.3528241217e-01,  1.3608788140e-02, 
	 3.1473193318e-02, -1.0254552215e-01, -1.3306106627e-01, -7.0147052407e-02, -1.7165426910e-01,  3.1853679568e-02,  7.8741498291e-02, -1.4968778193e-01,  1.5082848072e-01,  2.3448206484e-01, 
	-4.5120894909e-02,  6.3992083073e-02,  1.2499846518e-01, -1.9473163411e-02, -1.4413529634e-01,  2.1420206130e-01,  1.4795254171e-01, -9.2074885964e-02,  1.1475838721e-01,  1.0932399333e-01, 
	 1.6782332957e-01,  5.6260507554e-02,  1.0149480402e-01, -6.3018508255e-02, -3.6155257374e-02,  8.3933569491e-02, -8.0843515694e-02,  3.3121898305e-03, -1.5536343679e-02, -1.5428932384e-03, 
	 7.6896041632e-02,  1.3640694320e-01, -1.5751545131e-01, -2.1645763516e-01, -3.9113409817e-02, -2.8649354354e-02,  3.4399067517e-03, -1.1079130322e-01, -1.4562684298e-01,  1.9525042176e-01, 
	-5.2274860442e-02, -5.1600160077e-03,  6.9010443985e-02,  1.6178748338e-03, -1.5901032090e-01, -1.4240990579e-01, -5.0062362105e-02, -1.4175456762e-01,  1.1882599443e-01, -6.2225729227e-02, 
	-1.5779604018e-01, -1.0455006361e-01, -3.7556603551e-02,  2.8743278235e-03, -1.0041487217e-01, -1.4411057532e-01, -1.1113291979e-01, -2.3519594967e-01, -5.9876095504e-02,  5.2562262863e-02, 
	-2.3384151980e-02,  4.4341385365e-02, -4.3828051537e-02, -6.0791797005e-03, -1.6541619599e-01,  1.3069839776e-01,  1.9824327528e-01, -5.7010110468e-02,  9.3732774258e-02, -6.8059615791e-02, 
	-1.0879294574e-01,  3.7338905036e-02,  3.1268246472e-02, -1.1338513345e-01, -1.0933805257e-01, -1.1000259966e-01, -1.8086166680e-01, -4.1884407401e-02,  2.2701243870e-03, -2.6297584176e-01, 
	-1.5110979974e-01, -9.3074493110e-02, -1.9071505964e-01,  2.0580478013e-02,  6.0378368944e-02, -1.8132986128e-01,  1.7329767346e-01,  1.5592096746e-01,  7.9354599118e-02,  9.5747336745e-03, 
	-2.7973294258e-02, -1.4748968184e-01, -2.2513392568e-01,  9.1217346489e-02,  1.5091663599e-01,  7.4519090354e-02,  4.0433768183e-02,  7.2922684252e-02, -7.9264655709e-02, -1.0035710037e-01, 
	 1.9183178246e-01,  1.0830796510e-01,  4.1281983256e-02, -5.0697036088e-02, -1.5369071066e-01, -5.8770727366e-02, -5.2383143455e-02, -5.2138820291e-02, -4.2920061387e-03, -1.9288731739e-02, 
	 6.6300973296e-02, -2.1986837685e-01,  1.5705883503e-02, -9.7652241588e-02, -5.6680761278e-02,  8.0941133201e-02,  2.3334253579e-02,  5.1808949560e-02, -1.9207152724e-01, -1.0013149679e-01, 
	 4.7710463405e-02,  6.5202289261e-03, -4.5394968241e-02, -1.2259259075e-01, -2.9532745481e-02, -2.5794094801e-01, -1.5729960799e-01, -9.6004240215e-02, -1.1228103191e-01, -3.1187123060e-01, 
	-1.6168984771e-01,  3.4868758172e-02,  8.1306649372e-03, -9.3917004764e-02,  1.2823919952e-01,  1.2722263113e-02,  3.3054155111e-01,  9.2894263566e-02, -2.5912359357e-01, -2.5239390135e-01, 
	-9.1938532889e-02, -1.1458775401e-01, -2.5740047917e-02, -1.1765813828e-01, -1.5016455436e-03,  1.1311520636e-01, -1.1551401764e-01, -7.6046966016e-02, -1.3272175193e-01, -2.5681100786e-02, 
	-1.1819645762e-01,  3.2212439924e-02, -1.5148809180e-02, -1.1374823004e-01,  3.1525690109e-02,  2.0986668766e-02,  3.1326021999e-02, -4.1466608644e-02, -1.7366865650e-02, -5.3564477712e-02, 
	 1.1351814866e-01, -8.3003029227e-02,  4.8301078379e-02,  3.8793087006e-02, -5.3097523749e-02, -1.7699089646e-01,  5.8327160776e-02, -8.8839503005e-03,  7.6887376606e-02,  5.8510888368e-02, 
	 1.8522394821e-02, -1.9151663408e-02, -5.7480228133e-03, -1.3450567611e-02, -2.7242993936e-02,  2.7577150613e-02,  2.9569614679e-02,  3.9358511567e-02,  2.3142950237e-01,  1.5513743460e-01, 
	 6.8558625877e-02,  1.8609235121e-04,  5.0462152809e-02,  1.1829440296e-01,  1.5986575186e-01,  4.3678555638e-02,  2.1329849958e-02, -4.9158658832e-02, -8.9934863150e-02, -8.2532584667e-02, 
	 1.4890700113e-03, -8.3486191928e-02,  5.3860250860e-02, -4.3946482241e-02, -5.8737840503e-02,  9.3294434249e-02, -4.1554059833e-02,  8.4917411208e-02,  1.2398866564e-01, -6.5779648721e-02, 
	-1.7339146137e-01,  2.4565786123e-02, -3.5041041672e-02,  4.1822426021e-02, -1.1272630095e-01, -8.3099836484e-03, -8.7463995442e-03,  4.3619193137e-02, -3.6510143429e-02, -8.5889525712e-02, 
	-2.4881420657e-02, -1.1381805874e-02, -1.4053162932e-01, -1.1962284893e-01, -1.0177065618e-02, -7.1511799470e-03, -6.7947588861e-02, -5.7369153947e-02, -1.9445627928e-01, -2.3948797584e-01, 
	-1.1434232444e-01, -1.8202267587e-01, -9.3784360215e-03, -3.0366517603e-02,  8.8094957173e-02, -1.2252441049e-01, -8.9913299307e-03, -5.5531118065e-02,  8.6876124144e-02,  9.2218846083e-02, 
	 7.3123075068e-02, -8.5747390985e-02, -5.3935911506e-02, -9.9259294569e-02,  8.5528641939e-02,  5.8993991464e-02,  1.9066220522e-01,  3.5778295249e-02, -3.4624740481e-02,  2.4461286142e-02, 
	 8.3415776491e-02, -3.2429113984e-01, -1.5751132369e-01, -1.3640056551e-01, -7.5810119510e-02, -2.3236483335e-01, -1.1140894145e-01, -2.2670541704e-01, -9.2020884156e-02, -6.3482895494e-02, 
	-4.8589032143e-02, -3.1525644660e-01,  3.5158064216e-02,  5.0753686577e-02, -1.2124630623e-02, -9.0100415051e-02,  2.7687948197e-02,  1.1878456175e-01,  1.5134006739e-01,  1.2452954054e-01, 
	 2.7655158192e-02,  3.8267425261e-03, -9.1974735260e-03, -2.0192282274e-02,  2.2079376876e-01,  9.7624488175e-02, -1.6480483115e-01,  1.6516308486e-01, -1.0078240186e-01,  4.6544630080e-02, 
	 1.1675920337e-01, -1.9210743904e-01,  8.0377317499e-04,  1.1394213140e-01,  1.1094367504e-01, -3.2702330500e-02,  7.9134881496e-02,  4.2047962546e-02,  6.6747069359e-02, -1.0613388149e-03, 
	-5.4112095386e-02,  1.0013603419e-01, -1.9807590544e-01, -1.1323259026e-01,  5.3828883916e-02,  3.2450154424e-02, -7.4432087131e-03, -6.4474254847e-02, -2.2156035528e-02,  7.8416660428e-02, 
	-1.5123496950e-01, -1.4259658754e-01, -2.5186825544e-02, -1.6246093810e-01, -8.9546404779e-03, -2.0854845643e-01, -2.0911347866e-01, -1.1626241356e-01, -1.7237977684e-01, -7.0570677519e-02, 
	-4.3487396091e-02, -1.4202709496e-01,  4.3309766799e-02, -1.1304413900e-02,  1.4765624702e-01, -4.1210450232e-02,  6.2097199261e-02, -1.1747077107e-02, -9.6989259124e-02,  4.8099145293e-02, 
	-1.2106777728e-01,  9.2599138618e-02,  1.0123856366e-01, -1.0539144278e-03, -4.0992204100e-02, -1.2140934169e-01, -2.7867999673e-01, -1.4348822646e-02, -7.9431548715e-02, -2.2502617538e-01, 
	 1.0529377311e-01,  1.0110150278e-01,  1.4517624676e-01, -1.5033555031e-01, -1.8224345520e-02,  1.8039229512e-01, -1.2368052453e-01, -1.8484054506e-01, -5.6581022218e-03, -1.1685053259e-01, 
	-8.5800610483e-02, -1.8261866271e-01, -9.5005102456e-02, -2.1222338080e-01,  2.6745352894e-02,  8.7235413492e-02, -1.8542073667e-01, -1.0397714376e-01, -3.2827671617e-02,  7.7125601470e-02, 
	 4.7614417970e-02, -2.5882658362e-01, -3.5031229258e-01, -6.6313199699e-02, -1.4091768861e-01, -2.1950940788e-01, -1.1617419869e-01,  1.7718744278e-01, -1.1024283618e-01,  1.5177637339e-01, 
	 6.3889786601e-02,  1.5192826092e-01,  3.8757279515e-02,  1.8530389667e-01, -1.4485979453e-02, -2.4999380112e-01,  3.1843829155e-01, -8.1029988825e-02, -6.0406580567e-02,  7.0976428688e-02, 
	-1.3663206995e-01, -1.0811560601e-01,  1.1474622786e-01, -9.8482064903e-02, -7.1237668395e-02,  1.0527078062e-02, -8.6005955935e-02, -3.9235912263e-02, -7.0177234709e-02, -1.5663769841e-01, 
	-5.9999588877e-02, -1.1906746030e-01, -2.4279335141e-01, -1.0361039639e-01, -8.0776177347e-02, -5.2307009697e-02, -1.1124660075e-01,  8.7353520095e-02, -2.1501144767e-01, -5.9505496174e-02, 
	-1.7769840360e-01, -1.2733501196e-01, -1.1701954901e-01, -1.0089135915e-01,  9.6215777099e-02,  1.2892945111e-01, -6.5009646118e-02, -1.1605242640e-01, -1.7365039885e-01, -1.2172240764e-01, 
	 6.4207702875e-02, -4.0701016784e-02,  1.5414062655e-03,  1.5746855736e-01, -2.4581672624e-02, -1.5334083699e-02, -1.8572975695e-01,  1.8130879849e-02, -4.6780329198e-02,  5.9248421341e-02, 
	-4.1751496494e-02, -5.9349063784e-02,  1.7472141981e-01,  8.4445767105e-02,  1.2332423031e-01,  1.3988390565e-02, -1.4814470708e-01,  1.1219890416e-01, -1.2576948106e-01, -1.5737059712e-01, 
	 4.5591473579e-02, -4.8328363337e-03, -6.3076294959e-02, -7.5849398971e-02, -6.8876515143e-03,  1.6965486109e-01,  3.6296725273e-02,  6.0449972749e-02,  1.2788473070e-01,  5.5341865867e-02, 
	-2.3172213137e-01, -5.9859342873e-03, -2.0241518319e-01,  8.8784890249e-03,  3.9293456823e-02, -1.1320953816e-01, -2.7662450075e-01, -1.3515204191e-01, -1.5149895847e-01, -1.7498633265e-01, 
	-2.5906533003e-01,  8.3256617188e-02,  4.2710673064e-02, -2.6493117213e-01,  1.1954734800e-03, -2.1539951861e-01, -8.3704665303e-02, -4.2530328035e-02,  1.0000180453e-01, -1.9890111685e-01, 
	-2.0741282031e-02,  7.0978954434e-02,  1.4723765850e-01,  9.0848185122e-02,  4.9290239811e-02,  1.1884450167e-01, -3.7582218647e-02, -1.0628154874e-01,  1.1029048264e-01,  9.3517161906e-02, 
	-1.4171613753e-01, -6.9713324308e-02,  5.0222404301e-02, -2.4426817894e-02,  9.1544151306e-02,  1.2880739570e-01, -7.9073794186e-02, -7.7563405037e-02, -1.6977770254e-02, -4.6402819455e-02, 
	 7.0510305464e-02,  1.0829260945e-01, -1.2654945254e-01,  1.7447549617e-03,  9.8764009774e-02, -6.9658726454e-02,  1.6329759965e-03,  1.3446749747e-01,  1.7451906204e-01, -5.1484428346e-02, 
	-1.9907619059e-01,  7.0524320006e-02,  1.6891635954e-01, -2.2131083906e-01, -2.1416006982e-01, -6.1353433877e-02, -1.2822271883e-01, -5.5964622647e-02,  1.1067757756e-01, -1.0722453147e-01, 
	 7.6425693929e-02,  7.1204409003e-02,  5.0828203559e-02,  1.3774654269e-01,  1.3712589443e-01, -8.0215275288e-02, -1.1882032454e-01,  1.1200477183e-01, -2.7027449012e-01, -1.8059150875e-01, 
	-1.6229379177e-01, -2.8006428480e-01, -1.9857248664e-01,  6.1624251306e-02, -1.2239892036e-01,  2.4806134403e-02, -4.4591352344e-02,  8.0339811742e-02,  4.4472806156e-02, -1.0338304937e-01, 
	 1.8836373091e-01,  2.0276844501e-01, -2.1380018443e-03,  3.0096299946e-02,  1.3479527552e-03,  1.1433105171e-01, -9.0823778883e-03,  9.6514463425e-02,  1.0285535827e-02, -2.6543083787e-01, 
	-3.1611841172e-02, -1.8566280603e-02,  1.2629443407e-01, -1.2078807503e-01, -8.4055244923e-02,  3.9588805288e-02, -2.6362987235e-02, -1.8861323595e-02,  4.5445565134e-02, -4.7040019184e-02, 
	 1.1525608599e-01, -8.9584901929e-02,  8.3093278110e-02, -1.0727609508e-02,  1.8360117078e-01,  1.3073609769e-01,  3.1721923500e-02,  1.4766626060e-01, -3.1644929200e-02,  1.8396712840e-01, 
	 9.2431895435e-02, -4.2104147375e-02,  7.9955272377e-02,  5.9345345944e-02, -4.1489038616e-02,  2.1078271791e-02, -1.3716070354e-01,  2.8814624995e-02, -6.2714524567e-02, -5.6966096163e-02, 
	 9.0194404125e-02,  2.5680147111e-02, -1.2636862695e-01,  4.1501153260e-02,  5.5666379631e-02, -1.2289001793e-01, -1.5789411962e-01,  9.3540266156e-02,  6.5268866718e-02, -5.4388318211e-02, 
	 3.4985437989e-02, -1.8331971765e-01, -2.4451804161e-01,  1.7321610451e-01,  2.7708100155e-02, -7.9677037895e-02, -8.6792044342e-02, -1.1693678796e-02,  1.9477901980e-02, -1.5487803146e-02, 
	-1.9280853868e-01,  6.4726397395e-02, -8.7393365800e-02, -1.2040318549e-01,  7.4889078736e-02,  6.1347056180e-02, -1.8341517448e-01,  4.5320313424e-02, -2.6068484411e-02,  1.0899437219e-01, 
	-9.8408356309e-02,  1.5928806737e-02, -1.8382067978e-01,  1.4512909576e-02, -2.0463949069e-02, -6.7575737834e-02, -1.0998068005e-01,  3.0086953193e-03, -1.4719390869e-01, -1.5319831669e-01, 
	-1.0500030965e-01, -2.8544418514e-02, -2.4830734730e-01, -1.8614077568e-01, -1.2588812411e-01, -9.3432217836e-02, -4.4337559491e-02, -4.5926224440e-02, -7.3576904833e-02,  1.0574511439e-01, 
	 2.2935256362e-02,  7.2333507240e-02, -6.0294855386e-02,  3.3081096411e-01,  7.4964575469e-03, -5.1714170724e-02, -6.1060089618e-02, -1.4267419465e-02,  1.2021306157e-01,  1.5145728830e-03, 
	 9.4389282167e-02,  1.2068319321e-01, -1.7341086641e-02,  2.8466088697e-02, -4.7343247570e-03, -1.5578489006e-01,  2.9869614169e-02,  1.0227995366e-01, -7.7181555331e-02,  2.7165969834e-02, 
	 1.9009132683e-01, -2.2509111091e-02, -1.5389545262e-01,  4.1713312268e-02, -7.5458161533e-02,  8.9375324547e-02, -2.7428720146e-02,  9.5184482634e-02,  1.5660505742e-02, -3.9848875254e-02, 
	-1.7841747403e-01,  1.2996943668e-02,  8.1078901887e-02,  1.1219118536e-01,  9.2797197402e-02,  1.6501641273e-01,  7.0528849959e-02,  7.5332477689e-02,  2.9857879877e-01, -4.9255728722e-01, 
	 3.0710436404e-02, -1.2794683687e-02,  9.0422881767e-03,  6.8153329194e-02, -4.8721462488e-02, -1.5022145212e-01, -1.4037093520e-01,  1.4349406958e-01,  2.6730878279e-02, -2.5782339275e-02, 
	 3.8971688598e-02, -8.6521551013e-02, -3.8727272302e-02, -7.0135141723e-03,  1.0257623345e-01,  6.6420629621e-02,  2.3892136291e-02,  4.0059965104e-03,  3.6178179085e-02,  6.7134670913e-02, 
	-1.7027242482e-01, -8.5366711020e-02,  8.0316729145e-04, -4.9179293215e-02,  3.0720906332e-02,  4.3702729046e-02, -3.8591597229e-02,  1.2305179238e-01, -4.0580630302e-02, -1.8367391312e-03, 
	 3.6974404007e-02,  1.0972625762e-01,  5.3506556898e-02, -1.7604336143e-01, -1.4331094921e-01, -1.7454321682e-01,  6.6140711308e-02,  1.6313670576e-01, -1.1973235756e-01, -6.3247092068e-02, 
	 1.3599947095e-01, -8.4406457841e-02, -8.3005182445e-02,  2.3372516036e-01,  1.5402325988e-01,  5.5196333677e-02,  6.8987101316e-02, -3.5211652517e-02, -5.7425912470e-02, -7.3597922921e-02, 
	 1.2548223138e-01, -1.3334713876e-01, -9.7290657461e-02, -2.1380137652e-02,  6.2832646072e-02,  1.7223808169e-01, -1.2190893292e-02,  1.2354102731e-01,  2.3717492819e-01, -1.1161105940e-03, 
	 1.6973187029e-01,  2.7024427056e-01,  1.1479957402e-01,  1.3039425015e-01,  1.9767818972e-02,  1.1105477810e-01,  1.3900198042e-01,  5.0725668669e-02,  7.3200687766e-02, -9.4200879335e-02, 
	 3.3470276743e-02,  1.3091403246e-01,  1.0954588652e-01,  2.1362644434e-01,  1.0908477008e-01, -9.3947909772e-02, -1.1101339012e-02, -1.6658402979e-01, -3.9463618398e-01, -2.8448128700e-01, 
	 1.5271592140e-01, -2.4897862971e-01,  7.8552424908e-02, -2.2997330129e-01, -2.6628842950e-01, -4.9432452768e-02, -1.7260678113e-01, -2.7483633161e-01,  1.1527340859e-01, -4.0314234793e-02, 
	 1.0328407586e-01, -3.2766602933e-02, -5.1758121699e-02,  1.1809697002e-01, -3.8055453449e-02,  1.7710185051e-01, -3.8212332875e-02,  1.9695136696e-02, -4.8232518137e-02, -3.6458861083e-02, 
	-4.7967705876e-02, -4.1992157698e-02, -1.0796929151e-01,  4.9617271870e-02, -3.7965945899e-02,  6.7657835782e-02,  3.9824098349e-02, -6.0106821358e-02,  8.7372414768e-02,  8.7616173550e-03, 
	-9.0524397790e-02, -2.1451624110e-02,  1.1835096776e-01,  1.2058243155e-01,  1.6150370240e-01, -4.0454000235e-02,  1.3037414849e-01, -9.2867180705e-02, -8.8157355785e-02,  9.8396033049e-02, 
	 1.4371865988e-01, -6.0127768666e-02, -8.2002349198e-02, -1.1985362321e-01, -4.6229255386e-03, -1.0682804883e-01, -1.1435119063e-01,  2.6595255360e-02, -1.2938074768e-01, -1.0251364112e-01, 
	 2.6090631261e-02, -6.1875311658e-03, -1.3578899205e-01, -4.4572949409e-02, -3.7535104901e-02,  5.1936477423e-02, -1.2065039575e-01,  7.3080569506e-02,  8.3476215601e-02,  2.5935135782e-02, 
	-1.3102123141e-01,  4.0715184063e-02,  1.6065662727e-02, -2.2219009697e-02,  7.0049531758e-02,  8.4763400257e-02,  7.9367153347e-02,  1.4851127565e-01,  1.9426908344e-02, -4.8683028668e-02, 
	-9.4018086791e-02,  5.2730571479e-02, -5.7487916201e-02,  1.3405588269e-01,  5.1208380610e-02, -5.5378999561e-02,  1.7843175679e-02,  2.1143372357e-01, -3.1326413155e-02,  1.2460383028e-01, 
	 2.7823743224e-01, -1.4801663160e-01,  4.9986794591e-02, -2.3187639192e-02, -5.2848119289e-02,  7.8108847141e-02, -9.1258985922e-03,  7.3147853836e-03,  2.6433983445e-01, -1.6300669312e-01, 
	-9.0584695339e-02, -3.3211368322e-01, -4.6212533489e-03,  6.2691651285e-02,  1.0025092959e-01,  9.7648203373e-02,  5.5099345744e-02, -5.6191049516e-02, -2.6383161545e-01, -1.5331472456e-01, 
	-6.5540179610e-02,  3.3431462944e-02, -2.4070839584e-01, -8.8279210031e-03,  5.1656026393e-02,  1.3963635266e-01, -4.6276643872e-02, -2.3516607285e-01, -1.2444620579e-01, -1.4286059141e-01, 
	-2.1293301880e-01,  6.2394384295e-02, -2.4194630980e-01, -2.2156685591e-02,  4.1868012398e-02,  8.9051634073e-02, -1.2758946419e-01,  3.7497021258e-02,  1.1936277896e-01,  1.0889568925e-01, 
	-2.2898624837e-01,  6.2952421606e-02,  8.3332195878e-02, -7.4889495969e-02, -4.4180519879e-02,  8.2341069356e-04,  1.4765720069e-01,  6.2400147319e-02, -3.0390750617e-02, -5.1384493709e-02, 
	 1.4034929872e-01,  6.7083485425e-02,  4.8182238825e-03,  1.4318142831e-01,  1.7051510513e-02,  1.1143468320e-01,  1.2543505058e-02, -7.8410454094e-02,  1.7286945879e-01, -8.7402043864e-03, 
	-5.6504316628e-02,  6.9548130035e-02, -3.0757313594e-02, -1.7797283828e-02, -1.3395120914e-04, -8.0820560455e-02, -9.3835711479e-02,  1.2425086647e-01, -4.9772232771e-02, -1.1858396232e-02, 
	 2.0795095712e-02, -1.4376878738e-02,  1.3011708856e-01, -3.5876799375e-02,  2.9095469043e-02,  1.1427720077e-02,  1.1189544946e-01, -2.1331284195e-02,  1.4635060914e-02, -7.3339645751e-03, 
	-4.6085309237e-02,  1.1762522161e-01,  2.0069241524e-01,  4.7280948609e-02,  5.9963028878e-02,  2.6719379425e-01,  6.7291018786e-04,  1.1184065044e-01,  2.5800796226e-02, -9.1993354261e-02, 
	-8.1043213606e-02,  1.6068557277e-02, -5.2961740643e-02,  4.5715272427e-02,  9.9420815706e-02,  8.6202502251e-02,  8.4769479930e-02,  1.7954184115e-01,  7.3535196483e-02, -5.4701492190e-02, 
	 1.7250719666e-01, -3.7753503770e-02, -2.9651453719e-02, -1.3220351934e-01, -5.8407723904e-02, -1.7894378304e-01, -3.9126630872e-02, -6.8154096603e-02, -6.0543972999e-02,  2.0670142770e-01, 
	 1.5807716548e-01,  1.0551237315e-01, -7.5862884521e-02, -7.1076266468e-02, -1.0961497203e-02,  7.4689514935e-02, -2.8316281736e-02,  8.9885607362e-02,  5.4253965616e-02,  3.1906377524e-02, 
	 1.7698182166e-01, -1.4206201769e-02,  1.1510615051e-01,  2.5879964232e-01,  6.6521763802e-02,  1.1179342866e-01,  1.0367011279e-01, -8.5896715522e-02, -7.6178669930e-02,  1.1345718056e-01, 
	 1.0961804539e-01, -1.5479898453e-01, -2.4350328743e-01,  3.7394657731e-02, -1.4902114868e-01,  5.5396698415e-02,  2.6515251398e-01,  4.7465782613e-02,  1.0244520009e-01, -5.1728095859e-02, 
	-4.2330037802e-02, -2.6967586949e-02,  1.3333487511e-01,  1.3004605472e-01, -7.8033254249e-04, -7.5534611940e-02, -2.8253007680e-02, -1.3901726343e-02, -6.6434577107e-02, -9.3811087310e-02, 
	-1.3102310896e-01,  3.9522375911e-02,  1.3328389823e-01, -1.1266875267e-01,  6.4666420221e-02,  2.0062367618e-01,  8.1790499389e-02,  2.2103710473e-01, -2.0004445687e-02,  5.6671794504e-02, 
	-7.8745834529e-02,  7.6737292111e-02, -9.8263852298e-02, -6.8437568843e-02, -2.3088812828e-01,  7.2350269184e-03, -1.4858637750e-01,  4.1811186820e-03,  5.1233518869e-02,  1.4327494800e-01, 
	-2.6639619842e-02,  2.3335123062e-01,  7.1173906326e-02, -1.4984563459e-03, -1.5166332014e-02,  5.4688256234e-02, -4.2584173381e-02,  1.2598414719e-01,  3.6284193397e-02, -7.1655511856e-02, 
	 3.3122457564e-02,  1.0373757780e-01, -1.5527631342e-01,  5.7968512177e-02,  7.5015872717e-02,  5.5041927844e-02, -3.0203625560e-01,  7.7107533813e-02, -2.0181046799e-02, -2.3345055059e-02, 
	 1.5148855746e-01, -4.1722502559e-02, -3.6841902882e-02, -7.0390790701e-02, -2.1248240769e-01, -2.1405382454e-01, -8.6336396635e-02,  5.9415962547e-02,  5.0315730274e-02,  1.5857689083e-01, 
	-8.7900452316e-02, -5.3102090955e-02, -2.5933107361e-02,  7.7139750123e-02,  8.6308114231e-02,  4.0858905762e-02, -9.0555027127e-02, -1.8164372072e-02, -9.3804113567e-03,  7.4839495122e-02, 
	 3.3789720386e-02, -7.3630459607e-02, -4.0375094861e-02, -8.4191702306e-02, -3.4423703328e-03,  5.2528474480e-02,  6.8575017154e-02,  2.1576154232e-01, -6.5495304763e-02, -2.6658060029e-02, 
	 2.7804964781e-01,  1.0637900978e-01,  1.5879893675e-02,  8.4413655102e-02, -2.5597408414e-01, -1.5231150389e-01,  1.8663499504e-02,  4.5356400311e-02, -3.9927739650e-02,  7.8006722033e-02, 
	-6.9818031043e-03, -8.5006780922e-02, -5.3154285997e-02, -2.5906845927e-02,  4.2948149145e-02, -7.4755124748e-02, -6.1047349125e-02, -1.0360709578e-01,  1.4526446164e-01, -2.0704065263e-01, 
	-2.4548925459e-01,  1.7416502535e-01, -1.5948702395e-01, -1.9287611544e-01, -4.6116814017e-02, -4.1873097420e-02, -2.1902625263e-01,  1.3699242473e-01, -3.4434642643e-02, -1.7377088964e-01, 
	-2.2617531940e-02,  9.6250914037e-02,  1.0466339439e-01,  1.7846456170e-01, -1.1076899618e-01, -1.3870295882e-01, -1.0434251279e-02, -3.5105951130e-02, -1.1700050533e-01, -1.0530744493e-01, 
	-9.7075283527e-02,  7.2345617227e-03, -8.6971558630e-02,  9.3752354383e-02,  1.1890948564e-01, -8.3896480501e-02, -1.9108062983e-01, -6.0614034534e-02, -1.0482051969e-01,  1.1168199778e-01, 
	-5.7999044657e-02, -7.2384715080e-02,  8.5365071893e-02, -1.9749635458e-01,  2.1263811737e-02,  5.2278690040e-02, -2.6362594217e-02, -4.2675878853e-02,  3.0706140399e-01, -1.7445541918e-01, 
	 4.7241698951e-02,  5.7261541486e-02, -1.3618498109e-02, -1.4303293824e-01,  1.4130473137e-01,  2.1407561004e-01, -2.1230055019e-02, -4.4051192701e-02, -2.7079220861e-02, -1.2433084846e-01, 
	-1.2267173827e-01,  1.4387910068e-01,  7.5829990208e-02, -1.1876881868e-01, -1.1583654583e-01, -9.5928780735e-02, -1.5114328265e-01, -4.9132592976e-02, -9.2585021630e-03,  1.0485979915e-01, 
	-4.3390214443e-02,  3.4169767052e-02,  1.7856800556e-01, -1.3292364776e-01, -2.5707960129e-01, -7.0767790079e-02, -1.1171530001e-02,  8.6150422692e-02,  1.0168489814e-01, -4.7305680811e-02, 
	-1.2422038615e-01, -6.3962109387e-02,  1.3685333543e-02, -1.5509039164e-02,  5.9255901724e-02,  2.0792519674e-02, -1.3720293343e-01, -3.8672339171e-02, -1.7475880682e-02, -1.7328720540e-02, 
	 7.7322281897e-02, -3.6629758775e-02, -1.2520378828e-01, -3.1053137500e-03, -8.7679527700e-02,  1.2589958310e-01,  5.8168210089e-02, -9.9412817508e-04,  2.7156462893e-02, -2.2000955418e-02, 
	-9.5018215477e-02,  5.7132340968e-02, -7.1698375046e-02, -1.5918960795e-02,  8.0864742398e-02, -9.2720471323e-02, -2.4449503049e-02, -2.8622984886e-02, -3.0745016411e-02,  3.1311336905e-02, 
	-9.0396083891e-02, -6.8019472063e-02, -1.2900495529e-01,  3.2313894480e-02, -8.5268266499e-02, -1.6767084599e-01,  1.1631176621e-01,  1.2010660022e-01,  3.7856310606e-02, -8.4435574710e-02, 
	 3.1006367877e-02, -5.7728115469e-02,  3.5738494247e-02, -7.3142252862e-02, -1.8985588849e-01,  1.1635914445e-01, -1.2818039954e-01, -2.3583105206e-01, -3.0719082803e-02, -5.1502320915e-02, 
	-1.4022216201e-01, -1.8567180261e-02,  1.2412703037e-01, -4.0491119027e-02, -3.0003352091e-02, -5.7348348200e-03, -1.1716613173e-01,  9.0042404830e-02,  8.5376650095e-02, -1.0371384211e-02, 
	 1.8609368801e-01,  1.1358165182e-02,  1.7159299925e-02,  6.4147695899e-02, -8.2970708609e-02,  9.1953195632e-02,  1.5261223912e-01,  4.8527754843e-03,  1.5151453018e-01, -2.0815214142e-02, 
	-6.8492241204e-02,  6.3064120710e-02, -1.7676275969e-01, -1.0936476290e-01, -2.6091709733e-02, -1.2544129789e-01, -2.0069615915e-02,  5.7607937604e-02, -1.5302483737e-01,  1.1694107950e-01, 
	-7.2378225625e-02,  8.1365220249e-02,  1.1632377654e-01, -3.9625186473e-02,  2.4571977556e-02,  2.9260493815e-02,  1.7059488595e-01,  6.4544074237e-02,  5.6607160717e-02, -9.3190491199e-02, 
	-5.1309298724e-03, -1.9932937622e-01, -1.7937649041e-02, -5.1415637136e-02, -8.1103714183e-03, -3.5168647766e-02, -9.4383575022e-02,  3.8035482168e-02,  1.0615481436e-01, -1.2609836995e-04, 
	-3.7842316087e-03,  1.9331933558e-01,  1.2383759022e-01,  2.5708591565e-02,  1.5954977274e-01,  6.2250848860e-02,  1.1306121200e-01, -2.7472713962e-02,  3.8849940896e-01,  7.2761714458e-02, 
	 2.3128017783e-02,  5.6537497044e-01,  3.5077917576e-01,  2.2931687534e-02, -3.1998178363e-01, -2.0136293769e-01, -1.0550094396e-01, -1.3535234332e-01,  9.5778450370e-02, -8.4059489891e-03, 
	 6.6461436450e-02, -2.2772455588e-02, -1.7544701695e-02,  7.7190943062e-02, -3.0359681696e-03, -1.2954638898e-01,  5.0874307752e-02,  3.5531381145e-03, -1.0464327037e-01,  2.1063303947e-01, 
	 1.4789246023e-01,  2.1424524486e-02,  3.8862176239e-02, -1.1394867301e-01, -4.5108690858e-02,  1.1250695586e-01,  6.1391364783e-02, -8.2672737539e-02, -4.4880565256e-02, -9.4402529299e-02, 
	-4.9370132387e-02,  1.0397065431e-02, -3.0470356345e-01,  4.8789720982e-02,  1.4608295262e-01,  9.8687104881e-02,  4.1241273284e-02,  5.7063158602e-02, -6.1703335494e-02, -7.1403533220e-02, 
	-1.3816548884e-01,  2.2712080181e-01,  8.1347152591e-02, -1.6262392700e-01,  6.4756222069e-02, -2.1411961317e-01, -9.5998875797e-02,  1.4362637699e-01,  1.3686008751e-02, -1.4523354359e-02, 
	-6.3955835998e-02,  8.6238265038e-02,  6.6960461438e-02, -5.1718480885e-02, -1.0966850817e-01, -5.2185557783e-02,  8.8433720171e-02,  1.1905192584e-01,  2.0400322974e-01,  1.4455996454e-01, 
	-2.1097485442e-03,  2.7893170714e-01, -1.3474373519e-01, -1.9251587987e-01,  2.8049236536e-01,  2.2496649623e-01,  9.5490761101e-02,  1.6759882867e-01,  8.1256784499e-02,  1.1605258286e-01, 
	 1.9433317706e-02,  4.0768291801e-02, -9.6162743866e-02,  5.4895009845e-02,  3.0996864662e-02,  6.5642525442e-04, -6.3274540007e-02, -4.7554921359e-02, -8.6737625301e-02,  1.4559461176e-01, 
	 2.1803628653e-02,  3.6239612848e-02, -4.3842114508e-02, -1.3944691978e-02, -4.2883742601e-02,  4.0708176792e-02,  2.3172816262e-02, -5.7741209865e-02,  1.0760418326e-01, -5.5181350559e-02, 
	 1.2935554609e-02,  1.8385566771e-01,  2.8329011798e-01,  1.5222847462e-01, -9.8128616810e-02,  3.4038331360e-02,  3.2383587211e-02,  1.5993253887e-01,  8.2856886089e-02,  4.8643544316e-02, 
	 1.0065253079e-01,  4.1118212976e-03,  3.4233234823e-02,  8.8288694620e-02,  4.3446436524e-02, -3.0167108402e-02, -6.4363516867e-02, -3.4032218158e-02, -1.2633831799e-01, -2.6378217340e-01, 
	-7.5335785747e-02, -1.3952764869e-01,  7.1563482285e-02,  6.0050912201e-02,  9.7675107419e-02,  1.6408945620e-01,  2.5162799284e-02,  1.1947900057e-02,  3.2933682203e-01,  3.8005061448e-02, 
	-2.8830120340e-02, -1.2834264338e-01, -3.1421311200e-02, -4.0871586651e-02, -1.4376924932e-01,  5.0975307822e-03, -4.5660015196e-02,  9.1729171574e-02,  6.3061371446e-02,  9.7121328115e-02, 
	-3.4588549286e-02,  2.6433378458e-02, -1.0878860950e-01,  8.7440043688e-02, -6.3307546079e-02,  1.5199492872e-01, -3.2486453652e-01, -2.9752761126e-01,  4.2914424092e-02, -3.5404071212e-02, 
	-1.1101680994e-01,  1.2581138313e-01,  6.4479909837e-02, -1.1476670951e-01, -4.2054224759e-02, -9.2133022845e-03,  6.5470616391e-05,  1.0898536444e-01,  1.7444939911e-01,  2.8591814637e-01, 
	 4.8005387187e-02,  2.4856407940e-01, -2.8555479646e-01,  5.3157456219e-02,  2.9959121719e-02, -1.8524946272e-01,  1.2317460030e-02,  1.4589121938e-01, -1.2866595760e-02, -4.2998258024e-02, 
	-1.3126753271e-01, -3.8617134560e-03, -5.7521104813e-02,  6.2590122223e-02,  9.0005934238e-02,  1.3205076754e-01, -3.3491127193e-02, -1.8370509148e-02, -1.1334141344e-01,  1.9919730723e-01, 
	-1.4100143313e-01,  1.2923135422e-02, -1.2431784719e-01,  3.6671701819e-02, -1.9364995882e-02,  2.2220778465e-01,  8.0448351800e-02,  7.6040238142e-02,  1.2448669970e-01, -1.1681862175e-01, 
	-1.6166993976e-01,  4.5408271253e-03, -4.1802950203e-02, -1.2600220740e-02,  6.9137201644e-03, -2.8803221881e-02,  1.1586775631e-01,  1.8483999372e-01,  2.6601308957e-02,  1.6503350437e-01, 
	-2.1692080423e-02, -3.8528282195e-02, -5.2360989153e-02, -4.7004397959e-02,  5.2760331891e-03, -3.5629484802e-02,  3.0614532530e-02, -5.6615874171e-02,  1.2655549683e-02, -2.7362190187e-02, 
	-2.1595578641e-02,  1.4509595931e-01,  6.7893162370e-02,  6.9391787052e-02,  1.5352833271e-01,  1.7062908411e-01, -7.8349255025e-02,  1.0325849988e-02,  1.6017439961e-01, -2.5430334732e-02, 
	 1.4469936490e-01,  1.6007007658e-01, -1.8673250079e-01, -2.8534365818e-02, -1.2237536907e-01,  1.9462293014e-02,  2.7985918522e-01, -5.2136462182e-02, -1.5285150707e-01, -3.2177269459e-01, 
	-6.3368394971e-02,  1.2302362174e-01, -1.3610754907e-01, -1.0048056953e-02, -2.2368739545e-01, -2.0263391733e-01,  3.7762771826e-03,  1.3066172600e-01, -9.1789148748e-02,  8.5781551898e-02, 
	 1.0070248693e-01,  1.1253672838e-01,  9.1091714799e-02, -9.6746839583e-02,  5.6173376739e-02, -8.4378227592e-02, -2.2858839482e-02,  4.4834744185e-02, -4.5143667608e-02, -3.1428158283e-02, 
	 4.0190655738e-02, -1.9065160304e-02,  1.0276466608e-02,  1.0664717108e-01, -3.4349370748e-02, -4.2645689100e-02,  1.0192383081e-01,  1.5083945356e-02,  1.3811849058e-01,  2.1508364007e-03, 
	-1.4273212850e-01,  2.7270773053e-01, -1.2515108287e-01,  5.1725443453e-02,  1.5006536245e-01,  7.4915982783e-02,  2.1274068952e-01, -2.4850969017e-01, -1.2098339945e-01, -1.1216554791e-01, 
	-1.2824639678e-01, -2.8484693170e-01,  2.8672466055e-02, -1.9405668601e-02,  8.5032328963e-02, -5.4511945695e-02,  7.0079877973e-02,  6.8180225790e-03,  1.9151605666e-02,  5.8702904731e-02, 
	 6.8898290396e-02,  2.1658845246e-02, -1.3392344117e-01, -4.1262663901e-02,  2.5718325377e-01,  1.1309595406e-01,  7.2809611447e-03, -1.6664145514e-02,  4.2890314944e-03,  1.2180581689e-01, 
	 1.0780788958e-01,  2.8084792197e-02,  7.6135434210e-03, -1.0928665847e-01,  9.2513240874e-02, -1.0150560178e-02,  1.0655079782e-01, -8.7279729545e-02, -5.1335431635e-02, -1.4453122020e-01, 
	-2.2210235894e-01, -1.4768399298e-01,  1.4712543786e-01,  1.0127139091e-01,  8.0817610025e-02,  1.1182282865e-01,  3.9817627519e-02,  5.3276244551e-02, -1.5559558570e-01, -4.5204855502e-02, 
	-4.8650160432e-02,  7.2844341397e-02, -1.4600270987e-01, -1.9269070029e-01,  1.1708743870e-01, -8.2657828927e-02, -7.8211419284e-02,  1.0704300366e-02, -1.6465274617e-02, -3.4514077008e-02, 
	-7.6492384076e-02,  4.5153155923e-02,  5.8041594923e-02,  3.3268179744e-02, -5.1323793828e-02, -9.2469722033e-02,  1.3080878556e-01, -1.2832125649e-02,  3.0559010804e-02,  1.6150085628e-01, 
	-2.5005202740e-02,  1.9093015790e-01,  2.2682756186e-01, -4.3084216118e-01, -7.6692722738e-02,  1.0923449695e-01, -3.2054153085e-01,  9.8932296038e-02,  5.7291172445e-02,  3.9827466011e-02, 
	-2.7370058000e-02,  1.0328570753e-01, -7.9127773643e-02, -7.8029967844e-02,  7.8380666673e-02,  1.2248580158e-01,  8.3199134097e-03, -9.9151946604e-02, -6.8413890898e-02, -1.2737941742e-01, 
	 5.6862015277e-02,  5.2354458719e-02,  1.2594050169e-01,  6.9578841329e-02,  6.4104609191e-02,  3.9125196636e-02,  9.2480786145e-02, -5.3589526564e-02, -5.5518768728e-02, -5.1236622036e-02, 
	 7.7019810677e-02,  5.0513677299e-02, -1.0383467190e-02, -1.1368749663e-02, -4.1611500084e-02, -1.2616501749e-01, -1.2902511656e-01, -9.5017962158e-02,  1.1206731200e-01,  2.5148130953e-02, 
	 1.9879290462e-01,  3.1450584531e-02,  2.8547015786e-01,  2.5890254974e-01, -1.9866846502e-02,  5.3160347044e-02, -1.2789832056e-01,  5.2219808102e-02,  1.6038052738e-01, -4.1212264448e-02, 
	 6.3912570477e-02, -9.4770304859e-02, -5.1809962839e-02, -1.2855099142e-01,  5.1639739424e-02, -1.9795676693e-02, -8.8088802993e-02,  1.3170009851e-01, -2.5937387720e-02, -5.4529711604e-02, 
	 4.3782450259e-02,  2.5619381666e-01,  2.7666162699e-02,  1.1758816987e-01, -4.6728339046e-02, -1.6346137971e-02,  4.1980493814e-02, -1.2121766061e-01, -3.1829096377e-02, -1.6147166491e-02, 
	 6.7474640906e-02,  6.2643028796e-02, -7.8663110733e-02,  5.1200413145e-03,  1.8605034053e-01, -1.6987523437e-01,  1.1400264502e-01,  2.1763691679e-02, -5.9934429824e-02, -1.8932336569e-01, 
	-6.9112658501e-02,  3.7214852870e-02, -9.8993957043e-02, -5.9985119849e-02,  1.1380013166e-04,  3.4350559115e-02,  3.0278768390e-02,  1.0813045315e-02,  4.0752761066e-02,  9.8213972524e-03, 
	-8.4172517061e-02,  5.2166931331e-02,  4.1507292539e-02, -2.1510304883e-02, -1.3379663229e-02,  9.7113735974e-03,  9.8417028785e-02, -7.7838912606e-02,  7.4642099440e-02, -7.5279369950e-02, 
	-4.8641119152e-02, -6.3051968813e-02,  3.5113678314e-04,  1.3677474856e-01,  1.7842988670e-01,  1.8440003693e-01,  6.5806470811e-02, -8.5709527135e-02,  9.8162116483e-03,  3.2854858786e-02, 
	-3.6635372788e-02,  8.0390535295e-02, -2.7331899852e-02,  2.7676530182e-02,  3.8348253816e-02, -8.3125635982e-02, -9.6455723047e-02, -1.4164598286e-01, -6.7089684308e-02, -1.3800853491e-01, 
	 3.7295412272e-02, -7.0420257747e-02,  6.1347145587e-02,  1.2340964749e-02, -1.6896184534e-02, -9.0310156345e-02, -1.9553879276e-02,  1.3039802015e-01,  1.4112380147e-01,  1.7750602216e-02, 
	 3.1447853893e-02, -7.2895959020e-02,  1.2875552475e-01,  2.1984891966e-02, -1.2496698182e-03, -8.6847908795e-02, -7.9335264862e-02, -9.6078619361e-02,  3.8868368138e-03,  1.0828150809e-01, 
	 8.0151483417e-02,  1.2779359519e-01,  3.7147425115e-02, -4.1225511581e-02,  1.1499029398e-01,  1.1110360175e-01,  8.9941293001e-02, -1.0437350720e-01, -7.9740010202e-02,  2.9487093911e-02, 
	-5.8207470924e-02, -1.3358052075e-01, -6.8251825869e-03, -4.2084168643e-02, -5.3245984018e-02, -2.7754904702e-02,  4.6486724168e-02,  1.6389198601e-01,  5.5251803249e-02,  2.0308150351e-01, 
	 2.7186630294e-02,  6.2428746372e-02,  3.4010726959e-02,  1.3512263540e-03, -8.8875517249e-02,  1.3367907703e-01, -8.1009462476e-02,  6.2207214534e-02, -1.6314794123e-01,  7.4624963105e-02, 
	-5.7726856321e-03, -2.8674197383e-03, -8.7241485715e-02,  2.5035627186e-02, -4.8958331347e-02, -2.2381154820e-02,  1.2992659584e-02, -8.8235050440e-02, -2.2009323537e-01, -1.7871474847e-02, 
	-7.9029770859e-05, -7.6912902296e-02, -1.0293276608e-01,  5.5683385581e-02, -2.1733874455e-02,  1.1678436399e-01, -1.8850472569e-01,  3.9784513414e-02,  3.9305482060e-02, -6.8974360824e-02, 
	-3.1921926886e-02, -1.3836574554e-01,  3.4884493798e-02,  8.5232608020e-02, -2.4417854846e-01,  9.0569719672e-02,  1.0301700234e-01,  2.7609810233e-02, -2.4624150246e-02,  3.1045695767e-02, 
	-1.0406783223e-01,  1.1205823720e-01, -3.5525068641e-02,  9.2445343733e-02, -1.1789029464e-02,  6.2664628029e-02, -7.9447895288e-02, -8.9012123644e-02, -2.9327061772e-01,  7.8576974571e-02, 
	-1.9346827269e-01,  5.1693532616e-02,  2.7581432462e-01, -1.0309334844e-01, -1.2750841677e-01,  1.7701981589e-02,  9.3941815197e-02, -5.1376700401e-02,  3.4149289131e-02,  1.1376604438e-01, 
	-8.2274334272e-04,  1.4928443730e-01,  3.6246206611e-02, -7.7184706926e-02,  1.2717339396e-01, -1.5215393901e-01,  3.2327243686e-01, -5.4942339659e-02, -3.2282806933e-02,  2.1530377865e-01, 
	 1.9320282340e-01,  5.2362345159e-02, -4.1570212692e-02, -4.5380577445e-02,  8.3884358406e-02, -1.2132735923e-02,  1.7954776064e-02, -5.9383023530e-02, -1.2533809990e-02,  1.3376499712e-01, 
	 1.2197982520e-01,  1.6753498465e-02, -1.0808683932e-01,  1.1743661761e-01, -9.5426507294e-02,  1.0772778094e-01,  7.3526832275e-03,  6.2239687890e-02, -1.0093785822e-01,  1.7096461356e-01, 
	-1.3876851648e-02, -5.4192341864e-02,  5.8191277087e-02, -1.2355728447e-01, -2.5009715557e-01,  1.1371096969e-01,  4.6847231686e-02,  4.2451415211e-02, -2.5716498494e-02, -1.2775546312e-01, 
	 1.1393175274e-01, -9.5244176686e-02,  7.1207813919e-02, -1.3686424494e-01,  1.3680003583e-01, -4.7404717654e-02, -1.0475885868e-01, -2.6253744960e-01, -4.3769713491e-02,  4.0054880083e-02, 
	 8.2459360361e-02,  4.4719621539e-02,  1.3778753579e-01,  7.9224310815e-02, -4.3026074767e-02, -8.0093175173e-02,  8.2517988980e-02, -7.5168423355e-02,  8.1227473915e-02,  1.0732135922e-01, 
	-1.3070594519e-02,  2.5182994083e-02, -8.5804730654e-02, -3.9042349905e-02,  1.4373934269e-01,  6.0289483517e-02,  1.6926649213e-01, -1.2277906388e-01, -1.4743407071e-01, -4.7957196832e-02, 
	 1.2412916869e-01,  7.7914446592e-02,  1.2389581650e-01, -2.6068955660e-01, -2.0506756380e-02,  9.4975136220e-02, -4.6192184091e-02,  1.2576964498e-01,  2.2839264944e-02,  5.5905602872e-02, 
	-6.2881144695e-03, -1.5555386245e-01,  7.9680547118e-02,  6.5535657108e-02,  3.7181038409e-02, -1.1910407990e-01,  1.1694509536e-01, -3.5800572485e-02, -2.2956855595e-02,  6.3813924789e-02, 
	 1.2265629321e-01,  6.8198919296e-02, -5.2873663604e-02, -9.3836940825e-02,  3.4792769700e-02,  8.9664846659e-02, -9.5681101084e-02, -6.0796689242e-02,  1.1400582641e-01, -1.3964273036e-01, 
	-3.0050031841e-02, -7.0397421718e-02,  1.5784068406e-01, -3.2725000381e-01,  2.0710423589e-01, -6.5836213529e-02, -7.9516477883e-02, -1.5078620985e-02, -9.0505659580e-02,  1.0177472723e-04, 
	-5.2754532546e-02,  9.4075180590e-02, -6.3285306096e-02,  3.5578745883e-03,  1.1249987036e-01,  1.6845400631e-01, -9.0621545911e-02, -7.3055517860e-03,  1.7606504261e-01,  6.0177732259e-02, 
	 1.5363229811e-01, -4.3430306017e-02,  9.2073027045e-03,  2.6409122348e-01,  8.7632229552e-03,  7.2588333860e-03, -4.6711780131e-02,  1.8542248756e-02, -3.6776074767e-01,  4.0707360953e-02, 
	-1.2241420150e-01,  5.6095775217e-02,  3.7682909518e-02, -1.0632830858e-01, -1.3094167411e-01, -3.0879283324e-02, -2.3362033069e-02,  7.0639982820e-02, -1.2056450546e-01,  1.6361732781e-01, 
	 2.2125389427e-02,  1.0081943870e-01, -5.4413825274e-02, -9.1847926378e-02, -1.1974832416e-01,  1.7970921472e-02,  2.4382641912e-01, -2.6015682146e-02, -3.2838960178e-03,  1.2485428154e-01, 
	 1.7519249022e-01,  1.1824537069e-01, -1.4482884668e-02,  3.5784527659e-02,  1.3967595063e-02,  1.2722876854e-02,  1.1407021433e-01,  1.9224565476e-03, -6.7857474089e-02,  8.0667778850e-02, 
	-1.2887661159e-01, -1.1411777884e-01, -3.3505815268e-01,  1.5784075484e-02, -3.1068360433e-02, -6.7126797512e-04, -5.9134081006e-02,  6.8498879671e-02,  1.3987466693e-01,  1.4323630929e-01, 
	-3.3227764070e-02,  7.9038254917e-03, -1.5573065728e-02, -3.2858662307e-02,  4.2017370462e-02, -1.0263880342e-01, -1.0729964077e-01, -1.2552492321e-01,  3.6943178624e-02,  4.3473802507e-02, 
	-1.9159433246e-01, -1.4153093100e-01, -2.2289271653e-01, -7.7414453030e-02, -5.9972871095e-02, -2.2731559351e-02,  4.4147834182e-02, -2.1240409464e-02,  2.8664905578e-02, -8.0040924251e-02, 
	 6.0971535742e-02,  9.8609015346e-02,  7.1774095297e-02, -8.9052051306e-02, -1.9502951205e-01, -3.6039754748e-02, -1.3302791119e-01, -1.6523741186e-01, -1.3367411494e-01, -1.1964073777e-01, 
	-7.0265375078e-02, -1.1270138621e-01,  8.9551089332e-03, -1.2092560530e-02,  8.8446177542e-02,  1.1444107443e-01,  9.7906455398e-02, -1.2025673874e-02, -1.6695389152e-01,  1.4237125218e-01, 
	 2.4211002514e-02,  1.5471051633e-01,  9.2624910176e-02,  7.6565548778e-02,  1.1451637000e-01,  1.8718715012e-01,  1.3042789698e-01, -1.7664904892e-01,  6.2031589448e-02, -1.1189059913e-01, 
	 7.4995279312e-02,  1.7289255559e-01,  3.1318427064e-03, -6.7225582898e-02,  4.5638728887e-02, -7.9030789435e-02,  7.8526236117e-02, -4.0443077683e-02,  1.6878686845e-02,  9.4285063446e-02, 
	 5.3347725421e-02,  1.8539774418e-01,  2.3806331679e-02,  1.8834801391e-02,  1.2106932700e-01,  7.8803271055e-02, -7.1899496019e-02, -2.8779038694e-03, -3.6859497777e-04, -1.8014846742e-01, 
	-6.5246678889e-02,  7.7373310924e-02, -5.9703789651e-02, -1.8576763570e-01, -1.8721596897e-01, -1.1385358125e-01, -1.3362011872e-02, -5.8752365410e-02, -3.9397716522e-02, -4.2217228562e-02, 
	-1.9933809340e-01, -2.3422329128e-01, -1.6678154469e-01, -1.4836564660e-01, -1.1316411942e-01, -1.6216003895e-01, -3.9643878117e-03,  9.2434532940e-02,  1.2851626612e-02, -6.2531448901e-02, 
	-7.5135596097e-02,  1.6439758241e-01, -5.4321037605e-03, -9.9148601294e-02, -2.2466441989e-01,  1.1338432878e-01,  1.5349431895e-02, -1.3572807610e-01,  1.1471808888e-02, -1.3675218821e-01, 
	 3.9618976414e-02, -9.3753069639e-02, -2.4264058471e-01, -5.9453874826e-02,  1.1582896113e-01,  6.6647306085e-02, -1.1714380234e-01, -1.3402013481e-01, -9.2105962336e-02, -8.5474148393e-02, 
	 6.2768571079e-02,  9.9929064512e-02,  1.2768308818e-01,  2.0837259293e-01, -4.5120187104e-02,  1.8046984449e-02, -1.6586786509e-01,  7.8227460384e-02, -1.7968218774e-02, -1.0508739948e-01, 
	-1.3352961838e-01,  1.0001920909e-01, -5.0852384418e-02, -1.9419878721e-01, -2.4191658199e-01, -7.3791429400e-02, -3.7834923714e-02, -1.0427761078e-01, -9.2634439468e-02,  6.4172842540e-03, 
	-2.2183073685e-02,  6.3260421157e-02,  1.0436600447e-01,  2.2551508248e-01, -3.9346098900e-02,  7.9032622278e-02,  1.0491273552e-01,  1.1258663237e-01,  9.1115295887e-02, -7.3497623205e-02, 
	-1.0962555185e-02,  2.8373161331e-02,  1.8180704117e-01, -1.5230520070e-01, -5.8250635862e-02,  1.7873625457e-01, -1.0327726603e-01,  1.3486996293e-01,  3.2492645085e-02, -2.1752943099e-01, 
	-3.4049332142e-01,  4.7350056469e-02, -1.1306932569e-01, -3.1161895394e-01,  5.4182168096e-02, -1.1478959769e-01,  1.6679581255e-02,  1.1130979657e-01, -2.0424129441e-02,  1.3681633770e-01, 
	-1.6817934811e-02, -5.0297655165e-02,  5.9657834470e-02, -1.0733846575e-02,  9.7540440038e-05, -1.5513533726e-02, -4.7788922675e-03,  1.0247690976e-01, -7.1019776165e-02,  6.7135356367e-02, 
	 1.4404422045e-01, -6.1680827290e-02, -3.5907920450e-02,  1.2272550166e-01,  9.0733505785e-03,  4.8429369926e-02,  9.7518213093e-02, -3.7315431982e-02,  2.2518983111e-02, -7.3425233364e-02, 
	-3.4404385835e-02, -7.6184600592e-02,  2.6701791212e-02, -1.2039036304e-01, -2.8503473848e-02,  6.6837683320e-02,  1.2542732060e-01,  1.9271647930e-01,  1.3165053679e-03,  7.6333634555e-02, 
	-8.3892449737e-02, -1.1196484417e-01, -2.0745907724e-01,  5.0572600216e-02, -1.1747629382e-02,  7.6223395765e-02, -1.2075922638e-01,  2.0111186313e-04,  1.6768543422e-01, -3.8052842021e-02, 
	-6.1368647963e-02, -3.2113473862e-02,  2.4024849758e-02,  4.8095311970e-02,  1.3804997504e-01,  1.1563549191e-01,  5.5114500225e-02,  2.3764224723e-02,  1.0062580556e-01, -3.2874546945e-02, 
	-6.8681418896e-02, -1.0175624490e-01,  2.5700619444e-03,  4.8798475415e-02, -1.2005684525e-01, -8.3964139223e-02, -9.8040945828e-02, -1.2434019148e-01,  8.8715292513e-02,  1.5732829273e-01, 
	-5.0149854273e-02,  8.2723490894e-02,  5.3578030318e-02,  1.8962782621e-01,  5.3402125835e-02, -9.5710374415e-02, -4.4335935265e-02,  8.2582801580e-02,  9.8439477384e-02, -1.2972331047e-01, 
	 2.5047125295e-02, -3.3166557550e-02,  7.3760405183e-02, -6.8933911622e-02,  5.1259305328e-02,  5.5942106992e-02,  1.2945156777e-03, -2.3908372968e-02, -1.3221779466e-01,  7.8942157328e-02, 
	 1.7727543414e-01,  2.7073573321e-02,  4.7331750393e-02, -3.5647958517e-02,  7.3667680845e-03, -1.1472751945e-01,  5.7216942310e-02, -9.2391148210e-02, -3.3315461129e-02, -4.9207769334e-02, 
	 8.8507831097e-02, -3.0165018514e-02, -2.0783770829e-02, -9.0256094933e-02, -1.2983500957e-01, -1.6425842047e-01, -1.4064085484e-01, -1.1220221408e-02,  1.6786986962e-02, -1.3084460795e-01, 
	 1.8617948517e-02, -7.7149383724e-02, -1.7152786255e-01, -1.5917858109e-02, -1.1838447303e-01, -1.1397150159e-01, -3.7428453565e-02, -8.9697919786e-02, -3.0247397721e-02, -1.5311022103e-01, 
	-1.6680701077e-01, -1.6257275641e-01, -3.5319507122e-02, -1.8264110386e-01, -1.1537770927e-01,  9.9891133606e-02,  8.5849419236e-02,  6.4917407930e-02, -5.4547961801e-02, -1.4939004183e-01, 
	-1.2024135143e-01, -1.9503076375e-01, -1.7573499680e-01, -7.1350023150e-02, -1.1707010865e-01, -1.1705640703e-01, -5.7952050120e-02,  4.6779278666e-02, -5.9662815183e-02,  1.0070770979e-01, 
	-2.5910617784e-02,  1.2344765663e-01, -2.7151716873e-02,  7.0166185498e-02,  8.8715538383e-02, -1.9184403121e-02,  1.4604520798e-01,  1.0512883961e-01, -2.3452226073e-02,  8.2326397300e-02, 
	 4.9706395715e-02,  1.0404073633e-02, -6.0138445348e-02,  1.5006163716e-01,  1.0563813895e-01,  9.7378470004e-02,  1.2733933330e-01,  1.6243014485e-02,  4.6300157905e-02,  3.3219575882e-02, 
	-1.0077380389e-01, -3.4604441375e-02, -1.1158643290e-02, -4.5530915260e-02, -2.7977198362e-01, -3.4824844450e-02, -7.1018777788e-02, -3.1682509929e-02,  7.8757904470e-02,  7.1638196707e-02, 
	 1.4823961537e-03, -8.6081713438e-02, -1.0115769506e-01,  3.3118229359e-02, -1.6774933040e-01,  1.1845604330e-01, -4.3376646936e-03,  7.9075708985e-02, -2.6739265770e-02,  2.1530458704e-02, 
	-7.4109636247e-02,  2.2655417025e-01, -7.8286744654e-02,  1.2685841322e-01, -1.1923976243e-01,  8.7597062811e-03,  1.1664683372e-01, -6.8205818534e-02,  8.2464516163e-02, -3.3236078918e-02, 
	-1.1910506338e-01, -5.8941837400e-02, -5.3907483816e-02, -1.0505000502e-01, -1.6166843474e-02,  4.0907122195e-02,  9.0311639011e-02,  8.9126983657e-03, -1.4949680865e-01, -6.6100716591e-02, 
	-1.1305988766e-02, -1.8032275140e-01,  7.3290437460e-02, -5.5916301906e-02,  4.1101630777e-02,  4.5889638364e-02, -1.4088599943e-02,  1.4432154596e-01, -2.2572226822e-01, -1.8214884400e-01, 
	-1.2914280593e-01, -5.0647743046e-02,  3.7646681070e-02,  1.1395717971e-02,  5.1722126082e-03, -8.4182091057e-02, -9.4665832818e-02,  9.8906971514e-02,  1.1159177125e-01, -1.0150527209e-01, 
	-1.5799954534e-01,  6.3470989466e-02, -4.7797005624e-02, -1.4411938190e-01,  1.0411439091e-01,  1.8581992388e-01,  1.6482986510e-01, -4.0834374726e-02,  1.4816080220e-02,  1.1336115748e-01, 
	 2.3584617674e-01,  3.1708049774e-01, -4.6794135123e-02, -1.7435921729e-01,  2.5623228401e-02,  1.3959330507e-02,  1.2363064289e-01, -1.2996834517e-01, -1.8922846764e-02, -1.5664954484e-01, 
	-2.7665352449e-02, -6.0377702117e-02, -4.5388128608e-02, -1.2442653626e-01,  8.5717037320e-02,  2.6643976569e-02, -7.1074098349e-02,  4.9222454429e-02, -8.3610236645e-02,  7.8404977918e-02, 
	-5.7394776493e-02,  3.2730355859e-02, -9.0892247856e-02, -4.2228650302e-02,  1.8862621486e-01, -1.4843063429e-02, -1.7231932282e-01,  1.1516650021e-01, -9.2912398279e-02, -2.4485579133e-01, 
	-1.6796006262e-01, -1.5368683636e-01, -2.8554296494e-01,  1.3306795061e-01,  1.3425382972e-01, -1.6324940324e-01,  1.8561708927e-01,  1.2530948222e-01, -3.0459004641e-01,  9.8444119096e-02, 
	-1.3073366880e-01,  2.2020766512e-02, -8.7738119066e-02,  1.1869890988e-01,  1.2769758701e-01, -1.3270072639e-01, -4.6583123505e-02,  1.4481222257e-02,  5.1807292039e-04,  8.7405271828e-02, 
	 1.4396613836e-01,  1.1962217279e-02, -6.8805262446e-02, -2.5374356657e-02, -1.4294460416e-01,  8.0405928195e-02, -1.3073225319e-01, -3.0195808038e-02,  9.4440370798e-02, -1.6096927226e-01, 
	 3.6360997707e-02,  3.0806861818e-02,  7.1871705353e-02,  1.0325950384e-01, -8.8476389647e-02, -4.5469921082e-02, -5.1284458488e-02,  3.4110426903e-02, -1.1440968141e-02,  1.9534221292e-01, 
	 1.9277806580e-01,  1.8917733431e-01, -7.2573997080e-02, -1.9736146927e-01, -4.5489702374e-02, -1.4442861080e-01, -6.9398239255e-02,  8.0358304083e-02,  5.5853977799e-02, -2.3325918242e-02, 
	-3.9920020849e-02,  3.9350144565e-02,  8.4688186646e-02, -3.1004582997e-03, -9.5564484596e-02,  1.4424949884e-01, -6.1360731721e-02, -6.2293872237e-02,  2.5121544604e-04,  1.1097844690e-01, 
	-1.0739933699e-01, -3.9129726589e-02,  1.0073099285e-01, -6.0595870018e-02, -1.2805332243e-01,  1.5993849933e-01,  6.5500132740e-02,  4.9134537578e-02,  1.5636768937e-01, -1.7929704487e-01, 
	 7.2637058794e-02, -1.7228432000e-02, -1.4222857356e-01,  2.2440160811e-01,  2.7886286378e-01,  6.3317298889e-02,  2.1350493655e-02,  7.7267758548e-02, -4.4668156654e-02, -2.8920942545e-01, 
	-6.2579818070e-02,  1.8355578184e-01, -1.8476441503e-01, -9.5798604190e-02, -9.6420720220e-03, -2.1815377474e-01,  4.6652100980e-02,  2.9227310792e-02, -4.2839501053e-02,  5.5048063397e-02, 
	-1.1609601974e-01,  5.3388494998e-02, -1.1521700025e-01, -2.0194460452e-01, -7.9479686916e-02, -2.8486544266e-02, -9.1553471982e-02, -3.6529060453e-02,  8.6798615754e-02, -1.0750578716e-02, 
	-9.2400297523e-02,  1.3442157768e-02, -2.7959448099e-01,  4.1095852852e-02,  1.0392931849e-01,  1.0608961806e-02,  6.4115603454e-03, -2.8375203256e-03, -8.8610911916e-05, -2.2459421307e-02, 
	-3.8600094616e-02, -4.5272085816e-02,  7.1329837665e-03,  1.6174858902e-03,  5.4956924170e-02,  4.4494967908e-02,  2.5630050804e-03,  6.3612438738e-02,  1.8781246245e-01,  1.0060654581e-01, 
	-7.7649839222e-02, -1.0372948833e-02,  3.4902580082e-02, -1.1119868606e-02, -7.3590002954e-02, -2.7518650517e-02, -3.1723793596e-02,  4.1878689080e-02, -1.9327778369e-02,  7.6342962682e-02, 
	 9.9279254675e-02, -6.9400541484e-02, -1.5670442954e-02, -9.1831341386e-02, -2.0833941177e-02,  1.2099356949e-01,  1.0726186633e-01,  3.5265829414e-02,  1.1618898809e-01, -4.7622706741e-02, 
	-1.5429808199e-01, -1.3284775615e-01, -1.7683318257e-01, -2.5659069419e-01, -5.1368549466e-02, -5.9026360512e-02, -1.1261282116e-01,  1.2660387158e-01, -9.5600992441e-02,  5.9699337929e-02, 
	 6.7851446569e-02,  1.0511431098e-01, -8.3194807172e-02,  8.4911882877e-02,  9.0908512473e-02,  5.6764729321e-02,  5.4548159242e-03, -8.0047994852e-03, -1.2613982894e-02, -1.1406517029e-01, 
	-2.0561161637e-01, -1.0107376426e-01,  3.0528824776e-02, -1.1229526252e-01, -1.3608679175e-01,  6.9364272058e-02, -1.6689965501e-02,  8.9680753648e-02,  3.0393023044e-03,  8.0438241363e-02, 
	-6.6235974431e-02,  3.4105166793e-02,  2.5745006278e-03,  1.0650198907e-02,  1.0202822089e-01,  1.3005239889e-02,  1.3507077098e-01, -4.5764943934e-04, -4.9102097750e-02, -1.1933740228e-02, 
	 7.4696592055e-03,  6.3268202357e-03,  6.6867776215e-02, -6.6242199391e-03, -9.5273077488e-02,  5.7629372925e-02,  1.8827036023e-02, -8.8326027617e-03,  8.0315314233e-02, -5.8003894985e-02, 
	 4.3939329684e-02,  7.5758114457e-02, -1.5248063207e-01, -2.1548373625e-02, -1.1146385968e-01,  4.5269370079e-02,  1.3713967986e-02, -1.9622694235e-03, -7.7856518328e-02, -1.7429212108e-02, 
	 1.3040918112e-01,  5.0049707294e-02, -1.7338618636e-01, -9.1654218733e-02, -1.2825618498e-02, -1.0314447433e-01, -8.6702801287e-02,  4.5981563628e-02, -8.7155081332e-02, -1.0774268210e-01, 
	-1.0199620575e-01, -9.1525651515e-02, -2.5075010955e-02, -4.7370791435e-02,  8.2089446485e-02,  4.9169730395e-02,  7.5537219644e-02, -2.7918487787e-02,  9.1227605939e-02,  6.7581817508e-02, 
	-6.9305777550e-02, -8.9403931051e-03, -8.1182688475e-02, -1.0661831498e-01, -3.3012472093e-02,  3.3080514520e-02, -1.7800228298e-01,  8.7267369032e-02, -3.4697556403e-03, -4.6323273331e-02, 
	-7.3051005602e-02, -1.1773786694e-01, -5.3773142397e-02, -6.0172632337e-02,  4.4717073441e-02,  1.2064842507e-02, -4.0495861322e-02, -8.2685440779e-02, -1.4503312111e-01,  1.7934755888e-03, 
	-8.0674432218e-02,  4.6745808795e-03, -8.1808134913e-02,  2.5514148176e-02,  3.2884590328e-02,  3.6359538790e-03, -1.3809305616e-02,  6.5379723907e-02,  6.2493331730e-02,  7.5756013393e-02, 
	-5.5496510118e-02,  1.5773724299e-03, -5.9127118438e-02,  1.9280748069e-01,  8.0049363896e-03, -9.3550011516e-03, -1.2633801997e-01, -5.1988631487e-02,  3.4885786474e-02, -1.9355890155e-01, 
	-1.2306411564e-01,  1.9381200895e-02, -9.6893914044e-02, -7.1264482103e-03, -7.1843132377e-02,  3.3810108900e-02,  6.5965210088e-03,  1.1100374395e-03,  3.3834274858e-02, -5.9004392475e-02, 
	-1.0231252015e-01,  9.4944000244e-02,  8.6650401354e-02,  5.5537871085e-03,  2.7765406296e-02, -1.5061215963e-03,  1.1832818389e-01, -2.7774419636e-02, -1.2419117242e-01, -9.8360076547e-02, 
	-5.0486538559e-02, -2.4685305357e-01,  3.7165096402e-01, -6.8696074188e-02,  1.1072639376e-01,  1.5947715938e-01, -1.6234007478e-01, -7.6365485787e-02,  5.9872705489e-02, -2.5648425799e-03, 
	 4.5849636197e-02, -7.0017099380e-02,  5.8914292604e-02,  4.0823306888e-02,  4.7365609556e-02, -1.6534039378e-01, -1.9629265368e-01, -1.9371730089e-01, -1.3790902495e-01, -1.7653839290e-01, 
	-1.5451404452e-01, -2.8761163354e-01, -2.3304213583e-01,  2.0567397773e-01, -1.3822958805e-02,  7.8046768904e-02, -7.3592856526e-02, -1.3952917419e-02,  1.6532370448e-01, -1.7387726903e-01, 
	-1.1167273670e-01,  5.4768521339e-02, -4.9842678010e-02, -1.7222680151e-01, -1.1347192526e-01, -2.5980132818e-01, -6.4440518618e-02, -5.0827782601e-02, -2.4613606930e-01, -1.0546745360e-01, 
	-1.1414655298e-01, -6.3575319946e-02,  5.2561700344e-02, -1.4672821760e-01, -8.3391956985e-02,  8.5359131917e-03, -1.5150001645e-01, -2.2952947021e-01, -7.7878169715e-02,  1.1494031549e-01, 
	-1.6347679496e-01, -1.3831733167e-01,  2.7163145132e-03, -1.9155898690e-01, -1.0150615871e-01, -1.0383350402e-01, -1.5789642930e-01, -3.9607491344e-02,  8.2417577505e-02,  1.4243447781e-01, 
	-2.1602338180e-02, -4.1936658323e-02,  1.3178646564e-01,  4.0628384799e-02,  7.6467921026e-03, -9.4882780686e-03, -1.0399009287e-01, -1.5262949467e-01, -1.7037957907e-01,  2.1107366309e-02, 
	-3.3553309739e-02,  4.4789132662e-03, -4.5173440129e-02, -9.9424257874e-02,  7.6937898993e-02, -1.9072952867e-01, -8.3634354174e-02,  2.2578766569e-02, -1.4995592833e-01,  7.3015326634e-03, 
	 4.2351051234e-03,  2.6970976964e-02,  1.0383833945e-01,  8.2051888108e-02, -9.5625169575e-02, -5.4528977722e-02, -5.0186205655e-02,  3.7806082517e-02, -3.8056340069e-02,  9.4423405826e-02, 
	 1.9109019637e-01, -4.0569160134e-02, -1.4021678269e-01, -6.7297562957e-02,  4.7829885036e-02, -1.5495292842e-01, -1.0020047426e-02,  6.5346390009e-02, -2.7978086472e-01, -2.0784270763e-01, 
	-1.6533368826e-01,  3.7074856460e-02,  6.2905862927e-02,  1.8469098955e-02,  1.1411191523e-01,  7.8931294382e-02,  1.0820704699e-01, -1.5421914868e-03,  1.6868887178e-04, -2.4304774124e-03, 
	 6.2600255013e-02,  7.9502044246e-03, -6.7022696137e-02,  7.6491206884e-02, -8.2519680262e-02, -1.4419022202e-01,  4.9351073802e-02,  1.3160796463e-01,  5.6740749627e-02, -1.2016449124e-01, 
	-1.7887267470e-01, -1.7956116796e-01, -5.0026811659e-02, -1.5980882943e-01, -1.5141768754e-01, -1.0344618559e-01,  5.0986889750e-02, -1.9603976607e-01,  1.7538687587e-01, -6.1110593379e-02, 
	 5.6814435869e-02,  2.8656747937e-01,  1.2516608834e-01, -7.6123185456e-02,  9.1994903982e-02,  2.0414194092e-02,  2.6527492329e-02,  5.0740644336e-02, -1.2311213464e-01,  6.2851056457e-02, 
	 9.1709299013e-03, -1.6373711824e-01, -1.4330456033e-02, -9.7443275154e-02, -8.1881666556e-03,  1.6025361419e-01,  1.0841550678e-01, -1.9370557368e-01,  1.4320703223e-02, -8.2792945206e-02, 
	-2.2724777460e-01,  1.3557304442e-01, -1.4595392346e-01, -1.4262983203e-01, -9.8180480301e-02,  3.4188255668e-03, -1.2966865301e-01,  7.1517147124e-02,  9.3621321023e-02, -5.1978554577e-02, 
	 4.3719273061e-02,  1.1278527230e-01,  3.9052236825e-02,  1.3280060887e-01, -6.7622236907e-02,  8.8229529560e-02,  1.7632390559e-01, -1.2095008045e-01, -2.8685250878e-01, -1.8264722824e-01, 
	-1.1076897383e-01, -1.9197465479e-01, -2.6975405216e-01, -4.7299854457e-02, -4.9485966563e-02, -2.1477802098e-01, -1.6202939674e-02,  2.0149135590e-01, -3.9314016700e-02,  2.8626509011e-03, 
	-3.4493558109e-02, -1.1697305366e-02, -2.8731731698e-02,  5.6055489928e-02,  1.5142349526e-02,  5.5891983211e-03,  7.5793795288e-02,  2.7215799689e-01,  2.5240001082e-01, -1.2655200064e-01, 
	 1.8492111564e-01, -1.6013790667e-01, -2.5555251166e-02,  5.7901117951e-02,  6.6327616572e-02,  2.2787848115e-01, -8.4559738636e-02,  2.2875225544e-01,  9.9986582994e-02,  4.9124318175e-03, 
	-1.5661783516e-01, -2.9584573582e-02, -1.5628935397e-01, -1.8391948938e-01, -1.0321872681e-01, -1.7586907372e-02, -3.5111844540e-02,  4.8715494573e-02,  7.2479754686e-02, -1.6918767989e-01, 
	 1.9924908876e-02,  2.5732403994e-01,  1.6501419246e-02,  1.7171514034e-01, -9.3506902456e-02,  5.1562730223e-02, -1.7221207917e-01, -2.2969956696e-01, -8.3072632551e-02, -1.5514680743e-01, 
	-3.5443473607e-02,  1.0506530851e-01, -8.9852921665e-02, -8.9972034097e-02,  6.0310702771e-02, -8.0268844962e-02,  2.6120174676e-02, -2.7406844497e-01, -8.5061304271e-02,  1.0132079944e-02, 
	 4.3192699552e-02, -1.8748125434e-01, -1.0045235604e-01,  1.8952578306e-01,  1.1398186535e-01, -1.1543995142e-01,  6.1390619725e-02, -8.4127672017e-02, -1.4979101717e-01,  2.2824764252e-01, 
	 1.6778754070e-02,  4.0654547513e-02, -3.0194360297e-03, -1.6743145883e-02, -1.1799407005e-01, -4.4608149678e-02, -8.7296187878e-02, -1.2579133734e-02, -2.8391506523e-02,  7.9884149134e-02, 
	 7.0335142314e-02,  1.1409159750e-01, -3.9082553238e-02,  8.3607368171e-02,  6.6591843963e-02,  2.2148817778e-01,  2.7337431908e-02, -1.4689818025e-01,  2.1298419684e-02,  1.8726615608e-01, 
	-4.7313799150e-03,  5.4901096970e-02, -3.2217107713e-02,  2.3047289252e-01,  1.5334838629e-01, -6.2229301780e-02, -1.4616052806e-01,  1.3413952291e-01,  6.3147326000e-03,  1.3352879882e-01, 
	-1.3695190847e-01,  7.6196387410e-02,  5.9820655733e-02,  1.5362501144e-01,  1.4608500898e-01,  3.9925955236e-02,  1.2685307860e-01,  3.3174324781e-02, -7.3719806969e-03, -1.6231220961e-01, 
	-2.0724444091e-01, -9.6895672381e-02, -2.4748690426e-01, -1.6480526328e-01,  3.5994231701e-02,  4.0961865336e-02, -1.1974509805e-01,  3.9092414081e-02,  2.3194719851e-01, -8.2771301270e-02, 
	-1.7339095473e-01, -5.2794031799e-02, -6.4500376582e-02,  6.9356545806e-02, -4.7728158534e-02, -4.0205991827e-03, -1.1394206434e-02,  6.5065503120e-02,  6.9692283869e-02,  7.3663540184e-02, 
	 4.1814758442e-03,  1.3233792270e-03,  2.4541324377e-01,  1.3695615530e-01,  9.3171611428e-02,  4.6092905104e-02, -9.9696531892e-02, -1.0312898457e-01, -6.2463209033e-02, -6.2758766115e-02, 
	-7.8985370696e-02,  1.1245269328e-02, -3.3846564591e-02, -8.0545730889e-02, -1.0109636188e-01,  1.2188736349e-02, -1.4601525664e-01,  1.0810513794e-01, -2.7430018410e-02, -1.0210050642e-01, 
	-1.0019709915e-01, -1.7073284090e-01,  5.9634063393e-02, -1.1843003333e-01,  5.7623792440e-02,  4.4935822487e-02, -8.7572596967e-02,  7.6527679339e-03,  4.0033429861e-02, -1.0430825502e-01, 
	 4.1152935475e-02, -7.3271654546e-02,  1.9942522049e-01, -1.4861369133e-01, -1.5015898645e-01,  4.2256403714e-02, -1.6191700101e-01, -1.1033001542e-01,  1.2169219553e-01, -9.1360360384e-03, 
	 9.7445942461e-02,  1.9993080199e-01,  2.3872669041e-01, -7.0222519338e-02, -1.1116115749e-01,  2.8104517609e-02,  5.2864950150e-02, -1.1351086432e-03,  6.0742031783e-02,  4.4732350856e-02, 
	 1.3892480731e-01,  1.3441987336e-01,  1.8828626722e-02,  1.9500340521e-01, -4.7977652401e-02, -1.0587061197e-01,  4.8671979457e-02,  1.9830161333e-01,  1.5109284222e-01,  4.7914065421e-02, 
	-1.4378175139e-01, -1.7001254857e-01, -1.1699595302e-01, -4.6071775258e-02,  8.7291464210e-02, -9.0317100286e-02, -9.8307058215e-02, -1.1713571101e-01,  6.2424816191e-02,  2.7073049545e-01, 
	 1.5555410646e-02,  1.6367809474e-01,  1.0633849353e-01, -1.1986197531e-01, -4.9126997590e-02, -1.4557297528e-01, -2.4378141761e-01, -7.9614222050e-02, -9.0233691037e-02,  1.6966108978e-01, 
	 1.8608652055e-01, -2.3790711537e-02,  8.6731925607e-02, -7.6076716185e-02, -2.3748435080e-02, -2.5275185704e-02, -9.7744174302e-02,  1.7739430070e-02,  1.4128969610e-01,  2.1102525294e-02, 
	 1.0048502684e-01,  1.5794631839e-01, -2.1147280931e-02, -2.4004608393e-01,  8.5605911911e-02, -8.0051042140e-02, -4.9171157181e-02, -1.2804226577e-01, -1.4084354043e-01, -2.3902253807e-01, 
	-2.0261038840e-01, -9.5893315971e-02, -1.2546129525e-01, -1.3658002019e-01, -1.6779793799e-01, -2.0208483934e-01,  2.1999131888e-02, -3.1746100634e-02, -5.4133430123e-02, -8.7583377957e-02, 
	 1.5816825628e-01,  1.1596317589e-01, -2.0360246301e-02, -1.8692058325e-01,  1.6474342346e-01,  1.3075494766e-01, -9.3519657850e-02, -8.1608876586e-02,  1.6471995413e-01,  4.2652487755e-02, 
	 4.2457837611e-02,  6.4146667719e-02,  1.6948018968e-01,  5.9021975845e-02,  1.1756413430e-01, -8.7599707767e-03,  7.2150155902e-02, -5.1092397422e-02,  1.0536342859e-01,  3.0597369187e-03, 
	 3.8601562381e-02, -4.0893763304e-02,  5.7131890208e-02, -4.4480152428e-02, -6.1995502561e-02, -7.8951440752e-02, -4.2177964002e-02, -4.5271539129e-03,  3.0505063012e-02,  1.9220272079e-02, 
	-3.7166155875e-02,  4.1358470917e-02,  2.2408869117e-02,  2.0032234490e-02,  7.0204794407e-02, -9.1885291040e-03,  6.4912527800e-02,  1.3665786386e-01,  3.5058450699e-01,  1.3988805935e-02, 
	 1.8838958442e-01,  2.3729293048e-01, -6.4340956509e-02, -9.2659398913e-02, -3.1947303563e-02, -1.4537291229e-01, -7.8104734421e-02,  1.4921887219e-01, -3.2256357372e-02, -7.3255605996e-02, 
	 2.5906488299e-01, -2.9307541251e-01, -2.3118039966e-01, -1.2926697731e-01,  7.4471146800e-03, -2.0336748660e-01, -1.8244428933e-01,  5.1447525620e-02, -1.0851196945e-01, -2.6493138075e-01, 
	 4.7273833305e-02, -1.2030722573e-02,  2.0298803225e-02,  1.6450011730e-01, -3.4041114151e-02,  1.6405329108e-01,  9.2608116567e-02,  5.8552596718e-02,  1.1437667161e-01, -1.7748389393e-02, 
	 6.8915329874e-02,  6.7330142483e-03, -8.7772451341e-02,  1.4869557321e-01,  2.1296222508e-01,  2.2666778415e-02, -1.6561363637e-01, -1.3835316896e-01,  2.4966258556e-02, -3.2005384564e-02, 
	-7.5607247651e-02, -2.2502792999e-02, -1.0148462653e-01, -1.2337657064e-01, -1.0519320518e-01,  8.8518381119e-02, -9.7210019827e-02,  9.3347229064e-02,  6.1932705343e-02, -5.1222532988e-02, 
	-7.7080226038e-04, -9.5828942955e-02, -1.2488788366e-01, -5.8172192425e-02,  4.1864439845e-03,  1.4881144464e-01,  5.9608731419e-02,  7.5094448403e-03,  9.5867075026e-02, -1.1083862185e-01, 
	-6.9447711110e-02, -9.1227397323e-02, -2.5570465252e-02, -2.0230296254e-01, -1.2988412380e-01, -2.7903504670e-02, -1.7918969691e-01,  8.4375284612e-02, -1.3857842423e-02, -8.3860941231e-02, 
	 2.1543959156e-02, -1.3855907321e-01,  3.3519381285e-01, -2.5469467044e-02, -1.6524326056e-02,  1.3786432333e-02,  2.5400328636e-01, -8.2873225212e-02, -5.1019176841e-02, -8.7358117104e-02, 
};

const float layer_8_conv2d_bias[UNET_PAR_8_CONV2D_OUT_FILTER] = {
	-8.4495768533e-05,  7.1569767897e-05,  4.4184660510e-05,  3.0021651764e-04,  2.2863985214e-04,  1.5724070545e-04,  4.8888072342e-05, -8.1391081039e-05, -2.0226216293e-04,  7.9466219177e-05, 
	-9.6321680758e-05,  3.1101045897e-04,  7.6820373351e-07,  2.9198703487e-05, -3.2008949347e-05, -1.9762500597e-04, -1.6874815628e-04, -1.9107968546e-04,  2.8688487873e-05, -2.9250536500e-06, 
};


#endif
