#ifndef PARAMS_CONV2D_6_H
#define PARAMS_CONV2D_6_H
#include "params.h"

const float layer_6_conv2d_weight[UNET_PAR_6_CONV2D_KERNEL_Y*UNET_PAR_6_CONV2D_KERNEL_X*UNET_PAR_6_CONV2D_IN_FILTER*UNET_PAR_6_CONV2D_OUT_FILTER] = {
	 4.4767659158e-02,  1.1292570084e-01,  9.1331139207e-02,  2.2966924310e-01,  2.0899286866e-01, -3.1160358340e-02,  5.7931222022e-02,  1.6131214797e-02,  7.5869418681e-02, -4.4183038175e-02, 
	 1.0617588647e-02,  9.8624369130e-03, -6.6866397858e-02,  7.4760846794e-02,  3.0365949497e-02,  1.4872993529e-01,  1.1990947276e-01,  1.2827051803e-02,  1.0723391920e-01,  1.6091147065e-01, 
	 1.8422634900e-01,  2.5078377128e-01,  6.7727208138e-02, -1.5061189234e-01,  1.2698532641e-01, -1.7332279682e-01, -3.0659538507e-01,  2.8224866837e-02, -1.4164012671e-01, -7.0510126650e-02, 
	 1.3325224817e-01,  1.6144073009e-01,  1.3472446799e-01, -8.4618598223e-02, -6.3605628908e-02, -2.2263665497e-01,  4.7071233392e-02, -9.0949516743e-03,  1.6780737042e-01,  1.0267357528e-01, 
	 2.8322926164e-01,  2.3739855736e-02, -5.3671836853e-02,  1.8935914338e-01, -9.4258375466e-03,  2.2651529312e-01,  2.3503181338e-01,  1.5397328138e-01,  9.1087587178e-02,  3.3899357915e-01, 
	 3.3757194877e-01,  5.6667607278e-03,  2.9768049717e-01,  5.1939499378e-01,  1.6881819069e-01,  1.8302047253e-01,  2.8877696395e-01,  2.2543606162e-01,  3.9019510150e-02,  1.1049145460e-01, 
	 8.7245717645e-02,  3.7406913936e-02,  5.9908967465e-02,  3.5640805960e-01,  2.5717785954e-01,  4.3473866582e-01,  8.9303210378e-02,  1.2251555920e-01,  1.6649799049e-01,  3.6038377881e-01, 
	-1.0253588110e-01, -2.4034208059e-01, -1.6326111555e-01, -1.4400176704e-01, -5.8240775019e-02, -1.0170515627e-02, -1.2805573642e-02, -3.3635407686e-02,  1.7195960879e-01,  1.3831190765e-01, 
	-1.9471269846e-01,  3.1021419168e-01,  4.0239781141e-01,  1.8191254139e-01,  2.2919405252e-02,  3.1533977389e-01,  2.3648478091e-01, -2.1610152721e-01, -2.4582795799e-01, -7.2621397674e-02, 
	 6.4978867769e-02, -3.5689212382e-02,  1.3715049624e-01, -1.3184708357e-01,  6.0757747851e-03,  2.4222105742e-01,  5.4373200983e-02, -2.5239732862e-01, -8.4399603307e-02,  2.6052239537e-01, 
	 2.4073061347e-01,  1.0182026774e-01,  7.4441805482e-02,  4.9517977983e-02, -2.1126586944e-03,  4.2384203523e-02, -1.3344309991e-04, -2.6752871275e-01,  1.2719590962e-01,  2.7448555827e-01, 
	 4.2719861865e-01,  4.1103005409e-01,  1.8359409273e-01,  2.6774835587e-01,  2.2393263876e-01, -1.6792158782e-01, -4.5882338285e-01,  1.4091333747e-01, -2.3989944160e-01, -3.0110338330e-01, 
	-1.7313919961e-01, -1.6028477252e-01, -3.2930585742e-01, -4.9652725458e-02, -1.1305184662e-01, -2.1454463899e-01,  6.7536786199e-02,  6.8138249218e-02, -1.5144943260e-02, -1.6228382289e-01, 
	-1.5241946280e-01, -1.0440297425e-01, -1.5318144858e-01,  1.2224530429e-01,  2.8173433617e-02, -7.5482450426e-02,  1.8179441988e-01, -1.1143510789e-01,  3.8304697722e-02,  1.2424309552e-01, 
	-2.8257450089e-02,  1.0774914175e-02, -1.8501181901e-01,  1.0131997615e-01, -2.6208373904e-01, -1.2275977433e-01, -1.8661083281e-01, -3.7682777643e-01, -2.1445326507e-01, -2.6107233763e-01, 
	-1.8410915136e-01, -2.6861566305e-01, -2.3957626522e-01, -2.6207265258e-01, -1.2555247545e-01, -3.6772856116e-01, -6.2523327768e-02,  3.2735973597e-02, -1.5229015052e-01, -4.4355425984e-02, 
	-1.1731939018e-01, -1.4998942614e-01, -2.0198638085e-03,  2.3133459687e-01, -3.2535240054e-02, -1.1173548549e-01, -1.6783408821e-01, -1.6131554544e-01,  6.8568917923e-03, -1.4994367026e-02, 
	 1.9179368392e-02, -7.0465445518e-02,  1.0931473970e-01,  2.2521393374e-02, -8.2862034440e-02,  2.2251490504e-02,  5.6317549199e-02, -1.3647218049e-01, -2.6879066229e-01, -1.3087184727e-01, 
	-1.3413967192e-01,  1.0885410011e-01, -2.5853109360e-01, -1.6389921308e-01, -2.5446385145e-01, -9.4403654337e-02, -2.0323263109e-01, -6.2014341354e-02, -1.2910774350e-01, -5.6003708392e-02, 
	-2.5146526098e-01, -2.4495565891e-01, -5.4106032476e-03, -1.4728873968e-01, -1.0298550874e-01, -1.1269255728e-01, -6.0564495623e-02, -1.9041767716e-01,  5.4971218109e-02,  1.0735913366e-01, 
	 1.1988033354e-01, -9.8789751530e-02,  3.5216495395e-02, -1.1576532573e-01,  2.0088998973e-01,  6.6093929112e-02, -1.0940081626e-01, -2.7051573992e-01, -1.7921112478e-01, -2.4947148561e-01, 
	-2.9208025336e-01, -1.0228803009e-01, -3.8106960058e-01, -3.0790966749e-01, -3.0955937505e-01, -1.6056105494e-01,  4.0995655581e-03, -2.9593694955e-02,  1.6007992625e-01,  6.6649846733e-02, 
	-1.0656023771e-01, -8.4661528468e-02, -1.5699933469e-01,  9.0229220688e-02,  1.0374263674e-01,  5.1310833544e-02,  3.2118771225e-02,  3.7118367851e-02, -1.4824952185e-01,  7.7182799578e-02, 
	-1.3126128912e-01, -3.4561105072e-02,  5.2466869354e-02, -3.3234886825e-02,  1.2305294722e-01,  4.8828694969e-02, -9.4969728962e-03,  3.2726800442e-01, -6.9458335638e-03,  1.7869547009e-01, 
	 2.8870493174e-01,  2.0812316239e-01,  1.3222745061e-01, -6.6431291401e-02, -1.1841175705e-01,  3.2069724053e-02,  1.4465452172e-02,  1.1629595608e-01,  9.4331577420e-02,  7.3300637305e-02, 
	 2.8325954080e-01,  7.6672360301e-02,  1.2257933617e-01, -7.3085643351e-02, -4.7976635396e-02,  4.3968345970e-02,  4.2458008975e-02,  8.3505012095e-02, -1.1044926941e-02, -8.0189861357e-02, 
	-1.1713978648e-01,  5.8988671750e-02,  5.0849739462e-02,  1.4686049521e-01, -2.6847422123e-01,  9.4756670296e-02,  6.5258719027e-02, -1.3732089102e-01, -5.0515193492e-02,  9.8475411534e-02, 
	-1.2601788342e-01,  1.9407810643e-02,  2.2005613893e-02, -1.6518406570e-01,  3.6605760455e-02,  1.8124381080e-02, -5.0845330954e-01, -4.2508490384e-02,  1.6975319386e-01,  1.0780514032e-01, 
	 6.2774149701e-03, -5.9264365584e-02,  6.1741773970e-03, -6.5070927143e-02, -3.5775389522e-02, -5.1354497671e-01, -4.0439859033e-01, -8.5331492126e-02,  7.2866111994e-02, -1.5356419608e-02, 
	-6.4017765224e-02, -1.1615019292e-01,  1.1865976453e-01,  1.2792737782e-01,  3.5795144737e-02, -4.2814977467e-02,  1.9467210397e-02,  3.8316395134e-02, -3.1449478120e-02, -1.4789347351e-01, 
	-2.0976956934e-02,  1.2227312475e-01,  2.6707041264e-01, -1.8788445741e-02,  1.4758692682e-01,  1.8523518741e-01,  1.3476048410e-01, -1.9867752492e-01, -3.3605855703e-01,  1.2117974460e-01, 
	-6.1729043722e-02, -3.0595643329e-04,  7.5462348759e-02,  3.0144327879e-01,  1.8738281727e-01,  5.2073039114e-03, -1.3417594135e-01, -1.4783449471e-01,  2.4860700592e-02, -7.1942083538e-02, 
	-7.7126145363e-02, -1.3276879489e-01, -2.3236658890e-03, -3.4390553832e-02, -8.3410665393e-02,  1.1189224198e-02, -1.7926095054e-02, -2.0147269964e-01,  5.3701974452e-02,  6.2614649534e-02, 
	-4.5616149902e-02,  1.5521879308e-02,  6.1603616923e-02,  1.9871234894e-01,  2.8911176324e-01,  6.1469364911e-02, -1.5943212435e-02, -1.2378524989e-01,  4.2227939703e-03,  1.7561067641e-01, 
	 5.4378874600e-02,  6.0208025388e-03,  1.1509861052e-01,  9.7963988781e-02,  7.7987283468e-02, -1.3507144153e-01,  1.3275476173e-02,  8.0427445471e-02,  1.1198502034e-01,  1.0754527897e-01, 
	 3.1926106662e-02,  2.7783247828e-01, -1.7304349691e-02, -3.1868819147e-02, -3.9506971836e-02,  3.3832848072e-02,  1.6306978464e-01,  1.4773125947e-01,  3.2567359507e-02,  1.6497887671e-01, 
	 3.0601844192e-01,  4.8694214225e-01,  1.9927842915e-01,  3.6240324378e-01,  5.2775835991e-01,  4.0700769424e-01,  3.8478678465e-01,  3.2775148749e-01,  6.1492973566e-01,  2.0462501049e-01, 
	 2.3147390783e-01, -7.0255324244e-02,  5.3900133818e-02,  4.5288160443e-02,  6.6579334438e-02, -1.7720660567e-01, -6.3174493611e-02, -1.3158523478e-02, -8.3307158202e-03, -8.1979908049e-02, 
	 9.5816731453e-02,  6.8927384913e-02,  4.2050957680e-02, -1.5040276572e-02,  2.2870507836e-01,  1.5815183520e-01,  1.7984759808e-01, -4.5467454940e-02,  4.2641296983e-02, -1.4482088387e-01, 
	 1.0207535699e-02,  1.0870940983e-02,  3.5968299955e-02, -1.2992845476e-01, -1.9123081118e-02,  3.8721345365e-02, -9.1313302517e-02,  6.8461275660e-03,  2.4419970810e-02,  7.1975558996e-02, 
	-7.6685145497e-02, -9.6948429942e-02, -1.5678299963e-01,  5.1464840770e-02,  1.3484752178e-01, -1.3376157731e-02, -2.7154475451e-02,  2.4327246845e-01, -7.1178875864e-02,  1.3854598999e-01, 
	 1.9675078988e-01, -3.6265790462e-02, -2.0129131153e-02,  2.5677925348e-01,  1.8071873486e-01,  4.8770271242e-02,  2.9902616516e-03, -1.2127720565e-01, -3.4882225096e-02, -1.5278477967e-01, 
	-2.1963674575e-02, -2.5132145733e-02,  2.8552254662e-02,  2.0787093788e-02,  3.1568995118e-01,  2.3293991387e-01,  1.3528056443e-01,  2.4552182853e-01,  5.2010986954e-02, -5.6597352028e-02, 
	-7.1613498032e-02,  6.4366847277e-02, -5.0394284725e-01, -5.7744276524e-01, -4.4189301133e-01, -4.7960406542e-01, -3.9668354392e-01, -1.2053341419e-01, -3.6165815592e-01, -4.8991027474e-01, 
	-1.6157224774e-02,  1.4623177238e-02, -1.6722182930e-01, -2.0783275366e-01,  1.5135756135e-01, -4.5213565230e-02, -2.0328918472e-02,  1.5460373461e-01, -3.8275513798e-02,  4.3306183070e-02, 
	 2.7220211923e-02, -1.3239558041e-01, -1.2732445262e-02,  1.2918861210e-01,  2.9273901135e-02,  3.4075960517e-02,  1.1819463968e-01,  4.5470729470e-02, -7.5968906283e-02,  4.5380152762e-02, 
	-8.7203353643e-02, -2.3322600126e-01, -3.0880339444e-02, -2.0990082622e-01, -2.9151955247e-01, -2.0737941563e-01, -4.5502994210e-02, -3.7746590376e-01,  9.2125363648e-02,  6.8053742871e-03, 
	 1.3647606969e-01, -1.1166997999e-01, -1.9067895412e-01,  1.2698066235e-01,  9.8494380713e-02,  1.9161920249e-01,  2.7109783888e-01,  5.4215032607e-02,  5.4478861392e-02,  1.0036372393e-01, 
	 1.4397077262e-01,  2.1897677332e-02,  1.1135838926e-01,  3.2117864490e-01,  3.5127961636e-01,  4.5562785864e-01,  1.5211854875e-01, -3.2793667167e-02,  2.1955706179e-02,  1.4132110775e-01, 
	 7.4344359338e-02, -3.7822492421e-02,  3.8668388128e-01,  1.0634776950e-01, -6.6770859063e-02, -1.0959314555e-01, -1.3420492411e-01, -4.0340431035e-02, -1.4960810542e-01, -1.1210861057e-01, 
	-3.6325108260e-02,  1.6918327659e-02, -4.6440053731e-02, -6.1031617224e-03, -8.2835204899e-02, -2.2822582722e-01, -5.1278062165e-02, -1.7703568563e-02, -3.5024277866e-02,  4.0418808348e-03, 
	-5.0351057202e-02,  5.9202495962e-02, -2.6032623649e-01, -1.0233438015e-01, -1.6997732222e-01,  7.8909881413e-02,  9.6639193594e-02,  1.1764348298e-01, -7.2726242244e-02, -1.1177781224e-01, 
	 6.8009093404e-02, -5.7456620038e-02,  1.1559440196e-01,  1.1782482266e-01,  1.0158725828e-01,  4.0752035379e-01,  1.2953248620e-01,  8.8590145111e-02,  2.4592788517e-01,  2.2388616204e-01, 
	 1.2205327302e-01,  2.3317342997e-01,  1.7826338112e-01,  3.0070694163e-02,  1.1713384837e-01,  3.0616787076e-01,  2.5684285164e-01,  2.9532602429e-01,  2.8597128391e-01,  4.4703444839e-01, 
	 9.5274999738e-02, -8.7469495833e-02,  1.1380950920e-02, -1.0897663981e-01,  1.5406601131e-01,  1.0281144083e-01,  6.8297684193e-02, -3.9205081761e-02,  4.7227688134e-02, -1.6546224058e-01, 
	-9.2931790277e-03, -6.6582433879e-02, -2.9893483967e-02, -3.9495904930e-03, -1.4119682834e-02, -1.2545993924e-01,  6.4679771662e-02,  8.0995552242e-02,  6.8480692804e-02, -2.0485593379e-01, 
	-1.5138535202e-01,  2.5871573016e-02,  2.0877715200e-02, -7.8212670982e-02,  2.7620804310e-01,  2.0863603055e-01,  5.4168581963e-02,  3.8842950016e-02,  1.5801000595e-01, -5.3113413742e-04, 
	-1.3634568080e-02,  3.8840170950e-02, -1.1514414102e-01,  2.1383315325e-01,  1.3821257651e-01,  1.2390736490e-02,  4.9063067883e-02,  1.5053619444e-01, -6.0947984457e-02, -4.7648455948e-02, 
	 3.4735299647e-02,  9.5060713589e-02, -2.1524809301e-02, -5.9353429824e-02,  2.5978997350e-02,  1.0440053046e-01,  1.3112775981e-01, -8.4684513509e-02, -7.6589643955e-02,  7.4073687196e-02, 
	 6.1320587993e-03,  2.8512099385e-01,  2.2108328342e-01,  1.7741824687e-01, -3.1893208623e-01, -2.4940861762e-01,  1.3988455757e-02, -2.5952768326e-01, -7.8225798905e-02, -2.8309160471e-01, 
	 3.5988941789e-01, -1.0181143135e-01, -2.5067940354e-01,  2.7922838926e-01,  1.1339190602e-01,  4.8867493868e-02,  2.9612371325e-01,  8.9472673833e-02, -1.1095822603e-01,  3.0147024989e-01, 
	 1.7472389340e-01, -1.4601317048e-01, -9.5813471079e-01, -5.7564324141e-01, -7.9724729061e-01, -7.1647709608e-01, -1.7917855084e-01, -3.8746881485e-01,  1.8253418803e-01,  6.3136160374e-02, 
	-5.7692211121e-02,  1.3508315384e-01,  2.6436686516e-01,  1.3496439159e-01, -1.0130990297e-02,  1.5096901357e-01, -6.3412971795e-02,  1.3533926010e-01,  4.8109423369e-02, -1.9451090693e-01, 
	-1.7404966056e-01, -2.1247348189e-01, -1.4446057379e-01,  5.3900320083e-02, -1.2338709831e-01, -2.2410269827e-02,  2.0831840113e-02, -1.8454760313e-01, -2.3106984794e-01,  1.1513146572e-02, 
	-7.2995737195e-02, -2.3849215358e-02, -4.0128953755e-02, -6.9740355015e-02, -3.4265350550e-02, -5.2816148847e-02,  1.4123619534e-02,  6.3789889216e-02,  5.9340097941e-03,  2.3394225538e-01, 
	-6.2291909009e-02,  3.7640273571e-02,  5.8524843305e-02, -6.3324339688e-02,  2.2528244555e-01, -3.3179819584e-02, -8.1860469654e-03,  7.2576813400e-03,  8.3397954702e-02, -1.0701674223e-01, 
	 9.7001850605e-02,  1.3983499259e-02,  1.1066359282e-01, -9.6354246140e-02,  1.0836250149e-02, -1.0721042752e-01,  2.7857840061e-01,  2.2392253578e-01,  4.0385421365e-02,  2.6578351855e-01, 
	 1.7785535753e-01,  1.7625717819e-01,  3.2510053366e-02,  1.0040742904e-01,  5.7224661112e-02, -3.0319818854e-01, -2.6564130187e-01, -5.2517449856e-01, -4.3408039212e-01, -4.9940365553e-01, 
	-4.5595008135e-01, -7.4092197418e-01, -6.3212531805e-01, -8.0356568098e-01,  8.5844092071e-02, -6.7363180220e-02, -1.6484767199e-01, -1.4010239393e-02, -1.1833550036e-01,  1.3060161471e-01, 
	 2.0639630966e-03,  8.0317631364e-02, -1.0036911815e-02, -2.9453106225e-02,  1.1191064864e-01,  3.9671193808e-02, -1.2151291221e-01, -5.3473860025e-02, -8.2173533738e-03, -9.2198222876e-02, 
	-1.4490623772e-01,  1.3346438110e-01, -4.8662163317e-02,  6.1631742865e-03,  7.0035241544e-02,  2.4283751845e-01, -7.9038605094e-02, -1.3861180842e-01, -1.0356035084e-01,  7.8191876411e-02, 
	 6.6827416420e-02, -4.4593587518e-01, -4.0008971095e-01, -2.3371158540e-01, -4.0141198039e-01, -2.9309597611e-01, -8.9380063117e-02, -5.0105547905e-01, -2.1251998842e-01, -2.6225972176e-01, 
	-2.8321832418e-01, -4.3621167541e-02, -8.1775635481e-02, -1.0734777898e-01, -1.2375032902e-01, -7.5110696256e-02, -2.1066413820e-01, -1.2182240188e-01, -2.4080955982e-01,  4.6890196204e-01, 
	 3.0840399861e-01,  4.2881956697e-01,  3.4877741337e-01,  4.7991746664e-01,  2.4118901789e-01,  1.8031920493e-01,  3.5998475552e-01,  1.2011894584e-01, -1.4107340015e-02, -1.1967812479e-01, 
	-1.4996729791e-01,  1.2306302786e-01,  1.7854325473e-02, -1.6730515286e-02, -1.0864037275e-01,  8.5632242262e-02,  1.1124698818e-01,  7.5589902699e-02, -6.3056856394e-02,  1.3944396377e-01, 
	 2.6063010097e-01,  6.6448450089e-02,  3.0887522735e-03, -4.3037325144e-02, -5.5366497487e-02, -1.6093137860e-01,  2.9743643478e-02, -2.7637660503e-01, -1.1511316895e-01,  8.2758456469e-02, 
	-2.4622902274e-02, -2.4961097538e-01, -4.0644239634e-02,  1.1704527587e-01, -1.9455100596e-01,  1.0060860217e-01, -5.9499636292e-02, -3.5160128027e-02, -4.2636517435e-02, -8.5568457842e-02, 
	 8.7727997452e-03,  1.2829580903e-01,  2.1427890286e-02, -7.3564834893e-02,  3.5915471613e-02, -2.1705863997e-02,  1.8887631595e-01,  2.6048412919e-01, -1.3577614445e-03, -1.4361737296e-02, 
	 3.4232991934e-01,  2.1533089876e-01,  3.3843126893e-01,  2.4262031540e-02, -4.0016464889e-02, -6.9356694818e-02,  1.7374465242e-02,  1.0502158105e-01, -1.2211953849e-01, -2.0437695086e-02, 
	-1.2408153713e-01,  6.5528161824e-02, -7.5392842293e-02,  2.8732195497e-03, -1.7194101214e-01, -1.7227590084e-01,  8.0374859273e-02, -1.9397602975e-01, -6.4063020051e-02, -2.1473778412e-02, 
	-1.7582814395e-01,  4.2852913029e-03, -1.0428501666e-01, -1.0355737060e-01,  5.7351306081e-02, -1.4468462765e-01,  5.5777121335e-02,  3.4709312022e-02,  9.7831487656e-02, -1.0169786215e-01, 
	-1.0003799200e-01, -1.4045257866e-01,  2.4367915094e-01,  1.2272305042e-01,  5.4717995226e-02,  4.7755059786e-03, -6.0012668371e-02,  5.2150975913e-02,  5.1943156868e-02, -2.6936603710e-02, 
	 5.2158150822e-02, -8.8912591338e-02,  8.9270345867e-02,  2.1273237467e-01,  1.0459404439e-01,  1.6575402021e-01,  1.9629654288e-01,  4.6840701252e-02,  2.2864103317e-01,  1.7499519885e-01, 
	-1.4784632623e-01,  1.6864706576e-01,  1.5071187913e-01,  8.3137407899e-02,  1.3521020114e-01, -3.5557929426e-02, -4.5399446040e-02,  5.2868671715e-02,  1.4863985591e-02,  1.4920805395e-01, 
	-3.9507269859e-02, -1.5705411136e-01, -2.3084860295e-02,  2.4968484417e-02, -9.0909041464e-03,  4.7931488603e-02,  8.1521518528e-02, -1.1516154557e-01,  1.3295446336e-01, -3.8231469691e-02, 
	-1.7587972106e-03, -1.3534113765e-01, -4.9220353365e-02,  9.7906485200e-02, -7.7624837868e-03, -9.8828421906e-03, -6.2698744237e-02, -1.3622747362e-01,  1.1995980144e-01,  8.3576321602e-02, 
	 6.5328732133e-02, -8.5726335645e-02, -7.4295960367e-02, -3.2453883439e-02, -3.2640278339e-01, -4.2099806666e-01, -1.1249577999e-01, -1.3473491371e-01, -3.4905299544e-01, -1.6104544699e-01, 
	 9.3076182529e-03, -1.3652011752e-01, -1.0938017815e-01, -2.2674445808e-01, -1.7084710300e-01, -3.6297628284e-01,  3.1577881426e-02, -1.5427969396e-01, -2.5596055388e-01,  2.3218725622e-01, 
	 2.3789533973e-01, -3.2665185630e-02,  4.4199973345e-01,  4.8244076967e-01,  2.5481751561e-01,  3.3735090494e-01,  2.5571945310e-01,  5.0417929888e-01,  1.8841260672e-01,  2.1079879999e-01, 
	 3.8120484352e-01,  8.1716902554e-02, -6.0579348356e-02, -9.4109959900e-02,  6.8495213054e-03, -2.7384044603e-02, -1.1374133825e-01,  1.1932168901e-01,  6.9424510002e-02,  1.3933858275e-01, 
	-2.6318565011e-01, -6.7959286273e-02, -5.1902216673e-01,  5.5127169937e-02,  1.2700754218e-02, -2.2255507112e-01, -2.2470428050e-01, -1.9513819367e-02, -1.4477664232e-01, -1.3181937858e-02, 
	 1.1651208252e-01,  1.0089762509e-01, -6.6136337817e-02, -1.3055437244e-02,  2.5893917680e-01, -1.2129752338e-01,  9.5688126981e-02,  1.3776260614e-01, -2.3029477894e-01,  4.8983641900e-03, 
	-1.6490122676e-01, -2.4538145959e-01, -1.0511865839e-02, -8.1422135234e-02, -2.6166731492e-02, -5.9701215476e-02,  1.6699829698e-01,  1.1900511384e-01,  2.1732214093e-01, -7.9326756299e-02, 
	 2.3145880550e-02,  1.5504020452e-01,  1.1502844095e-01, -1.5890592709e-02,  1.9061569870e-01, -1.4590455592e-01,  1.5174929798e-01,  7.8765839338e-02, -1.0065468960e-03,  4.1130412370e-02, 
	-2.6472171303e-03,  1.5529584885e-01, -5.8007292682e-04,  1.3484969735e-01, -7.8737514559e-04,  2.1288384497e-01,  2.0485165715e-01,  1.3025659323e-01,  3.8157531619e-01,  2.0921610296e-01, 
	 2.3226287961e-01,  3.1751763821e-01,  3.8020360470e-01, -1.1129506165e-03,  1.5258871019e-01,  1.2519324198e-02,  3.9337091148e-02,  8.9565396309e-02,  1.7032051086e-01,  1.5829437971e-01, 
	 2.6313662529e-01,  7.8339062631e-02,  3.4547147155e-01, -1.1968120933e-01, -1.5949760377e-01, -7.2809547186e-02, -2.4309533834e-01,  1.3345857151e-03,  2.5650379062e-01, -3.0095577240e-01, 
	-1.0382513702e-01,  1.8556080759e-02,  2.2620171309e-01,  4.2514115572e-02,  1.0315667838e-01,  1.8946582079e-01, -5.8477539569e-02,  2.6587137580e-01, -3.6116208881e-02,  1.7480896413e-01, 
	 1.7668932676e-01,  1.3055725954e-02, -3.1117660925e-02, -1.6288807988e-01, -1.4744213223e-01, -1.7920511961e-01, -1.9662304223e-01, -1.1875276268e-01, -9.8657794297e-02, -3.1032827497e-01, 
	 1.9871611893e-01, -6.7655593157e-02,  1.2982062995e-01,  3.3027654886e-01,  2.0518723130e-01,  1.6551189125e-01,  1.1682099104e-01, -6.7896838300e-04, -8.3279035985e-02,  3.4895801544e-01, 
	-2.4200906977e-02, -3.1072998047e-01,  2.2679777443e-01,  2.6139950752e-01,  3.2431129366e-02,  4.3937634677e-02,  4.0681302547e-02,  1.9042412937e-01, -1.3556140661e-01, -2.4142579734e-01, 
	-1.6701909900e-01, -2.0216344297e-01, -3.0009511113e-01, -9.2470921576e-02, -2.8863629699e-01, -2.5643974543e-01, -1.0475815833e-01, -7.6659001410e-02, -2.0208742935e-03,  2.7016330510e-02, 
	 3.0093519017e-03,  8.7232373655e-02, -1.6369925439e-01, -1.1128131300e-01,  1.6167391092e-02,  8.8914871216e-02, -1.9513002038e-01, -1.0485836118e-01, -5.0782930106e-02,  3.3692371100e-02, 
	-3.0427381396e-02, -9.4967141747e-02, -1.7800951004e-01, -9.4590507448e-02, -3.4589726478e-02,  1.4268474281e-01, -4.1643153876e-02,  1.6579648852e-01, -5.3273905069e-02, -2.9311930761e-02, 
	 2.1356926858e-01,  2.2140447795e-01, -4.4249169528e-02,  2.0901776850e-01,  2.2012560070e-01,  2.3268350959e-01,  5.6698143482e-01,  3.2679638267e-01,  3.2566297054e-01,  3.9429259300e-01, 
	 4.8838856816e-01,  2.6514381170e-01,  4.9620682001e-01,  1.7290405929e-01, -2.1193318069e-02,  9.4054564834e-02,  2.3546519876e-01,  1.0582426935e-01,  8.4764130414e-02,  8.4873408079e-02, 
	 2.5083728135e-02,  1.2445678562e-01,  2.4952592328e-02,  4.3178044260e-02,  1.3565078378e-01,  3.5096913576e-02, -5.2207771689e-02,  1.8469250202e-01, -7.1768417954e-02, -4.3207250535e-02, 
	 9.7669333220e-02, -1.3289512694e-01, -1.9860740006e-01, -3.2572087646e-01, -3.6350473762e-01, -4.2434716225e-01, -1.9414022565e-01, -2.5054118037e-01, -3.7175473571e-01, -2.4560646713e-01, 
	-1.2701687217e-01,  9.8346211016e-02,  4.8364214599e-02,  1.0324642062e-01,  1.3344040513e-01,  1.0009474307e-01,  3.4784033895e-02, -1.2172102928e-01, -2.0177252591e-02,  9.9035352468e-02, 
	 3.2746326178e-02, -1.5003973246e-01,  2.3507775739e-02, -7.5536631048e-02, -1.1913786829e-01,  9.7256712615e-02, -8.0229163170e-02,  3.5357095301e-02,  7.8682005405e-02, -1.4756146073e-01, 
	-3.6145347357e-01, -7.9416848719e-02, -1.3366638124e-01, -4.4537150860e-01,  4.5519478619e-02, -2.3377870023e-01, -2.8506711125e-01, -2.8140297532e-01, -2.5969192386e-01, -1.0111939162e-01, 
	-3.7869003415e-01, -4.6272534132e-01, -4.4514110684e-01, -3.2532656193e-01, -2.2735573351e-01, -5.0650324672e-02, -6.2414772809e-02, -6.6444180906e-02, -1.6571912169e-01, -1.3462202251e-01, 
	-5.6206371635e-02, -1.6457122564e-01, -1.0367091745e-01, -2.5744724274e-01, -2.0974877477e-01,  7.5054563582e-02, -3.0493506789e-01, -4.7263383865e-01,  1.9908769429e-01,  1.9853303209e-02, 
	-3.6216408014e-01, -7.1021422744e-02,  1.2526436150e-01, -1.8441872299e-01, -4.6049620956e-02, -9.2946268618e-02,  6.2227237970e-02, -1.5333862044e-02, -1.3179486990e-01, -3.9676171541e-01, 
	-8.9176595211e-03, -3.2078364491e-01, -2.0836977661e-01,  2.4244433641e-01,  6.6511511803e-02,  5.6003596634e-02,  1.3942515850e-01, -3.9732665755e-03,  1.3097745180e-01,  3.6601066589e-01, 
	 1.8742890656e-01,  4.5393310487e-02,  2.9991620779e-01,  2.9713720083e-01,  4.5400652289e-01,  8.8964149356e-02,  2.0280423760e-01,  8.7774820626e-02,  1.6648384929e-01,  9.4815164804e-02, 
	 2.4073991179e-01, -2.4047983810e-02, -5.8151785284e-02, -9.3868367374e-02,  3.3514212817e-02,  1.8919611350e-02, -1.0383712500e-01, -4.5795362443e-02,  6.0389377177e-02, -5.0726728514e-03, 
	 1.7933490872e-01,  2.0747149363e-02,  2.6492226124e-01,  2.5970673561e-01,  1.5011903644e-01,  1.1436709762e-01,  2.3105581105e-01,  8.8204577565e-02,  2.7825859189e-01, -1.4642538130e-01, 
	-9.3050666153e-02,  3.7555274367e-01, -1.3834182918e-01, -1.5144494176e-01, -5.9571359307e-02, -3.1335093081e-02,  8.5044704378e-02, -5.4550174624e-02, -2.7258165181e-02, -7.1230843663e-02, 
	 6.9552220404e-02,  4.7963365912e-02, -3.8668204099e-02, -7.7032215893e-02,  2.0448084176e-01, -4.2901333421e-02,  2.9412186705e-03,  2.2939153016e-01,  1.4258013666e-01,  2.6909315586e-01, 
	 1.4474330842e-01,  1.4751915634e-01,  2.3137171566e-01,  3.0435267091e-01,  7.0784889162e-02,  3.3231252432e-01,  1.9143104553e-02,  1.3653612696e-03, -5.0459027290e-02, -1.8543202430e-02, 
	-3.4004491754e-03,  8.8515840471e-02,  1.1875374243e-02, -1.9206076860e-02, -1.2595601147e-03, -6.7443720996e-02, -4.8176039010e-02, -5.4020220414e-03, -1.4494766295e-01,  3.7394855171e-02, 
	 1.2827225029e-01, -2.8310447931e-01, -2.4018310010e-01, -2.0279943943e-01, -2.5952959061e-01, -4.4322613627e-02,  1.3103941455e-02, -2.8036255389e-03, -4.6328552067e-02,  4.6307023615e-02, 
	-2.0650470629e-02,  3.8761235774e-02,  8.1224009395e-02, -5.7986620814e-03, -6.7170816474e-03,  1.5432609618e-01,  1.2005856261e-02, -5.0893887877e-02,  2.9393321276e-01, -3.8663532585e-02, 
	-2.6871141046e-02,  4.0800552815e-02,  5.6372743100e-02,  1.5161353350e-01,  1.0432524607e-02,  1.8373647332e-01,  1.0461267084e-01,  7.0508442819e-02, -3.4114762675e-03, -1.4970827103e-01, 
	 7.5899437070e-03,  3.3000197262e-02,  2.0078688860e-02, -1.5620422363e-01,  4.9780629575e-02,  2.4531181902e-02, -7.6426826417e-02,  2.1132299304e-01,  1.1508603394e-01,  2.0607654750e-01, 
};

const float layer_6_conv2d_bias[UNET_PAR_6_CONV2D_OUT_FILTER] = {
	-1.2424665503e-02,  1.3230758905e-01,  6.5753450617e-03, -7.7062852681e-02,  1.9718503579e-02,  1.0572510771e-02,  2.0921289921e-01,  1.4457246661e-01, -2.9632419348e-02,  5.8336351067e-02, 
	-6.9119003601e-03,  2.3633863777e-02,  1.1734775454e-01,  1.1467425525e-01, -1.5811917186e-01, -6.1756178737e-02,  3.9984023571e-01, -2.5186032057e-01,  2.2360483184e-02,  1.2556229532e-01, 
};


#endif
