#ifndef PARAMS_CONV2D_20_H
#define PARAMS_CONV2D_20_H
#include "params.h"

const float layer_20_conv2d_weight[UNET_PAR_20_CONV2D_KERNEL_Y*UNET_PAR_20_CONV2D_KERNEL_X*UNET_PAR_20_CONV2D_IN_FILTER*UNET_PAR_20_CONV2D_OUT_FILTER] = {
	 1.5593151748e-01, -1.6732811928e-01,  1.1106497794e-01, -1.2165330350e-01, -2.5542395189e-02, -4.4822439551e-02, -4.4012349099e-02, -9.2306107283e-02,  6.6749855876e-02,  3.0439453200e-02, 
	-6.4789004624e-02,  5.1827285439e-02, -2.0603182912e-01, -1.2023206055e-01, -5.3787704557e-02, -1.0082108527e-01,  9.3561820686e-03,  1.9343991578e-01, -3.6777537316e-02,  7.1518763900e-02, 
	 4.5767489821e-02, -5.9178505093e-02, -5.9901814908e-02,  8.9387796819e-02, -6.2860488892e-02,  6.0355473310e-02, -1.9413198531e-01, -5.6212734431e-02,  7.8063361347e-02,  1.6814298928e-02, 
	 7.2738684714e-02,  1.5536215901e-01,  1.2611102313e-02, -4.0739562362e-02,  1.1645743251e-01,  1.7188856006e-01,  1.6931784153e-01, -1.4668494463e-01,  2.1113455296e-01, -2.4922644719e-02, 
	 1.9395269454e-01,  8.7079569697e-02, -4.7775688581e-03, -1.4127332717e-02,  5.2667174488e-02,  5.2357956767e-02, -6.0876805335e-02,  2.0948646590e-02,  8.1394247711e-02, -1.1410847306e-01, 
	 1.9133845344e-02, -1.0214286298e-01, -1.7316640913e-01, -1.4226292074e-01,  6.7697301507e-02,  9.0977720916e-02, -3.7607356906e-02, -1.3887594640e-01, -2.9215335846e-02,  6.3589036465e-02, 
	 7.6754733920e-02,  1.8715638667e-02, -6.5544962883e-02, -7.5426891446e-02, -5.2117131650e-02, -9.3102902174e-03,  2.3776384071e-02, -5.9652097523e-02,  8.1017404795e-02, -6.0747161508e-02, 
	 2.0068267360e-02,  6.7772775888e-02, -9.4291515648e-02,  4.0209386498e-02,  1.0626213998e-01, -1.2973517179e-02,  1.6654675826e-02, -6.7148946226e-02,  4.9851529300e-02, -2.7330962941e-02, 
	-1.0013671964e-01, -9.6466369927e-02,  1.6650967300e-01, -1.3852210343e-01, -9.3718454242e-02, -9.2063946649e-03, -1.0459005088e-01, -1.0805147141e-01, -8.9967094362e-02, -2.2860062122e-01, 
	-2.2164871916e-02,  9.3964815140e-02, -7.4023269117e-03,  1.0246597230e-02, -1.6795009375e-01,  1.7903745174e-01,  3.9780169725e-02,  1.9051998854e-01, -4.8139091581e-02, -9.0943276882e-02, 
	-1.0123891383e-01,  1.1934021115e-01, -5.2352983505e-02, -2.1625930071e-01, -1.0509280860e-01,  6.1304952949e-02,  1.2187337130e-01, -1.8815433607e-02, -1.7173092812e-02,  8.9580066502e-02, 
	 4.5377504081e-02,  2.9520284384e-02, -2.2995978594e-02, -8.6652174592e-02, -1.5601760149e-01, -9.2989290133e-03, -2.6172089577e-01,  1.6946159303e-02,  3.9192043245e-02, -1.2132359296e-01, 
	 6.6561520100e-02, -4.8251312226e-02, -8.6363464594e-02, -1.7419151962e-01, -1.8180046976e-01, -2.1594555676e-01, -1.8208423257e-01,  7.5285553932e-02,  1.4249807596e-01, -5.9750385582e-02, 
	 5.6918663904e-03,  4.1306532919e-02, -2.4284863472e-01,  1.9046010077e-01,  2.2143201903e-02,  9.0493142605e-02, -2.1005931497e-01,  4.5786406845e-02,  1.0211576521e-01,  3.5810530186e-02, 
	-3.0743250623e-02, -2.8160536662e-02, -1.7673696578e-01,  7.4038974941e-02,  9.9218957126e-02,  1.3657547534e-01,  1.0378554463e-01, -5.6748542935e-02,  1.6752064228e-01,  9.2159159482e-02, 
	-1.1042037606e-01, -3.9110172540e-02, -1.4418883622e-01,  8.7057622150e-03, -5.6196302176e-02, -1.4205226302e-01, -8.9653223753e-02, -9.5038630068e-02, -8.1742748618e-02, -5.4211835377e-03, 
	 4.5663535595e-02,  6.5152041614e-02,  5.0457030535e-02,  7.8246816993e-02, -7.2846285999e-02, -1.2216901034e-01,  8.9604452252e-02, -3.0342163518e-02,  8.5300005972e-02, -1.5960919857e-01, 
	 1.7525100708e-01, -1.4947579801e-01,  2.0346557721e-02, -2.7660429478e-02, -1.1674624868e-02,  1.2966519594e-01, -2.8194043785e-02, -1.0483094491e-02,  1.1727674305e-01,  7.3915027082e-02, 
	-5.4556023329e-02, -3.1314153224e-02,  2.1479036659e-02, -8.7457463145e-02,  1.9885484874e-01, -1.0286263376e-01,  1.6709735617e-02, -1.1709760875e-01, -3.8665443659e-02, -7.7347390354e-02, 
	-1.2058295310e-01,  7.8934048361e-05,  4.1107013822e-02, -2.5751598179e-02, -1.3524264097e-01, -4.8263575882e-02, -9.9278673530e-02, -3.4233409911e-02, -1.0499989241e-01,  7.8380726278e-02, 
	 6.3307464123e-02,  1.8581670523e-01,  9.4969317317e-02,  7.4493736029e-02,  5.0499565899e-02, -1.4552347362e-01,  7.2794184089e-02,  4.1357930750e-03,  3.0941845849e-02,  8.7544605136e-02, 
	-3.4112215042e-02,  3.5667091608e-02,  1.4260651171e-01, -1.5754473209e-01,  1.0389007628e-01,  3.5920958966e-02,  9.7537063062e-02, -1.5638588369e-01, -2.2774105892e-02,  9.7741238773e-02, 
	 2.5811642408e-01,  1.6361775994e-01,  1.6597278416e-02,  3.0130991712e-02,  1.2872250378e-01, -1.4088095725e-01,  1.3282258064e-02, -9.4426468015e-02,  1.6380149126e-01, -3.0885864049e-02, 
	 1.1505892128e-01,  3.7836808711e-02, -1.2646190822e-01, -1.9913500175e-02, -1.6794200242e-01, -2.2948125005e-01, -1.6171349585e-01,  1.2339346111e-01, -8.0263828859e-03, -1.8772442639e-01, 
	 4.8973370343e-02, -7.5605157763e-03,  1.6485065222e-01,  2.0404828247e-03,  1.7762582004e-01,  1.2188239954e-02,  7.7722869813e-02, -1.2804715335e-01,  1.7813129351e-02,  1.3044124842e-01, 
	-2.4142898619e-01, -1.4740753174e-01, -1.0587754659e-02, -8.6395859718e-02,  4.9645576626e-02, -9.0042185038e-03,  1.5377506614e-01,  1.3538679481e-01,  1.0579791665e-01,  1.5011391602e-02, 
	-2.5944080949e-01,  1.4409601688e-01, -1.4467646368e-02,  1.4747667313e-01,  1.5293189883e-01,  3.2824773341e-02,  5.6166913360e-02,  3.1989078969e-02, -3.0931344256e-02, -6.9748997688e-02, 
	 1.2940987945e-02,  8.0614918843e-03, -1.5130212903e-01, -6.0682848096e-02,  2.8372596949e-02, -2.0625810325e-01,  6.8500138819e-02, -5.8716025203e-02,  6.5732561052e-02, -5.6962724775e-02, 
	 1.3802651316e-02,  1.1305774748e-01, -1.6146676242e-01,  7.6105326414e-02, -2.3923551664e-02,  2.2663136479e-03, -9.8138651811e-04, -1.0953939706e-01,  1.7691753805e-01, -1.2339551002e-01, 
	 5.7968318462e-02, -1.7563695088e-02,  1.3665912673e-02,  4.9743219279e-03, -8.0312296748e-02, -4.6248253435e-02, -8.5193835199e-02,  1.7844641209e-01,  2.1410591900e-01,  7.4459031224e-02, 
	-5.8338079602e-02, -2.1797075868e-01,  1.6342630982e-01, -6.1067081988e-02,  9.4679534435e-02, -2.0569114387e-01, -3.4624260664e-01, -6.9829449058e-02, -5.6711103767e-02, -1.1103808880e-01, 
	 3.2299719751e-02,  1.2570194900e-01, -6.3539914787e-02,  7.8625269234e-02, -4.2215464637e-03, -1.9001497328e-01,  1.4343595505e-01, -8.3332113922e-02,  4.6639487147e-02, -2.2070376575e-01, 
	-2.0701099932e-01, -4.0915226564e-03, -2.0304210484e-01, -1.0658728331e-01,  1.1174406111e-01, -9.7236752510e-02,  1.5204162896e-01, -8.3038121462e-02,  1.9521170855e-01,  7.6827883720e-02, 
	 4.5825064182e-02,  1.6569803655e-01,  2.4762924016e-01,  9.0029492974e-02, -9.9307864904e-02, -1.5029788017e-01, -6.4136707224e-03,  5.7878598571e-02, -1.9346475601e-01, -7.9076036811e-02, 
	 1.9574640319e-03, -2.3920862377e-01,  5.5326309055e-02,  4.2923502624e-02,  2.5688398629e-02,  1.6548399627e-01,  1.0800323635e-01,  5.7394847274e-02, -3.8703970611e-02,  2.8342509642e-02, 
	 9.5998629928e-02, -1.2747570872e-01,  5.5974140763e-02, -1.1200122535e-01,  4.8353713006e-02,  7.4398614466e-02,  3.6988448352e-02,  8.6610920727e-02, -1.7496694624e-01, -1.2118235230e-01, 
	-4.0035407990e-02, -6.3787326217e-02, -1.3939455152e-01,  1.8407095224e-02,  5.8940734714e-02, -7.5809761882e-02, -1.5059140511e-02, -2.4579789024e-03, -2.8895738721e-01,  1.3765713573e-01, 
	-1.5860077739e-01,  4.4737372547e-02, -1.1721932888e-01,  6.6851638258e-02,  7.5896233320e-02,  9.5933862031e-02, -6.0394093394e-02, -5.7172071189e-02, -7.5892299414e-02,  9.8938748240e-02, 
	-1.2366932631e-01,  3.9604403079e-02, -6.5895430744e-02,  2.3064111173e-01, -1.1849129200e-01, -5.5657725781e-02,  1.9664032757e-01, -5.3929588757e-03,  1.7837646604e-01, -1.1432701349e-01, 
	-2.5486549735e-01,  8.7585017085e-02,  2.0204970613e-02, -4.2505796999e-02, -1.0865601152e-01,  1.0960766673e-01,  1.3274661265e-02, -1.5686954558e-01, -4.5154750347e-02, -5.1121674478e-02, 
	 2.2740468383e-01,  9.9695295095e-02, -7.8444980085e-02, -1.7232930660e-01, -2.3966431618e-01, -4.8664823174e-02, -2.4393463135e-01, -1.1018529534e-01, -2.9240939021e-01,  9.5225058496e-02, 
	-2.4288028479e-01, -1.0775006562e-01, -5.6973520666e-02,  2.7966836095e-01, -4.4104073197e-02, -3.5635504872e-02,  1.9520331919e-01, -1.4717859030e-01,  2.9694832861e-02,  1.6195258498e-01, 
	 9.9137589335e-02, -1.1393122375e-01,  1.5289109945e-01, -7.4224166572e-02, -1.6273288429e-01,  5.2234966308e-02,  2.8302394785e-03, -1.3048467226e-02,  3.1882859766e-02, -7.0816196501e-02, 
	 5.8405706659e-03, -6.2683001161e-02, -8.0045387149e-02, -1.4654457569e-01, -4.1922263801e-02,  3.8206784520e-03, -3.1489126384e-02, -8.7609700859e-02, -1.5824181959e-02, -2.3161161691e-02, 
	 1.1246275902e-01,  1.0580801219e-01,  3.9369642735e-02,  1.1888410896e-01, -2.4828264490e-02, -8.3204679191e-02,  1.5694260597e-02,  1.0966236889e-01,  8.9877136052e-02, -9.2442296445e-02, 
	 3.0724199489e-02,  6.3108749688e-02, -4.8726655543e-02,  2.4141713977e-01,  1.2148141861e-01, -1.5833857656e-01,  8.5309766233e-02, -1.1429450387e-04, -3.0580490828e-02, -4.7237356193e-03, 
	-6.7970855162e-03,  6.4121801406e-03, -1.0924936086e-01,  5.9021875262e-02, -1.0082828999e-01, -2.3924359679e-01,  1.0760694742e-02, -4.5317471027e-02, -4.5562934130e-02, -3.6253298167e-03, 
	-9.7453661263e-02,  1.5604916215e-01,  1.8588356674e-01,  9.2914775014e-02, -8.0787166953e-02,  6.3350819983e-03, -2.1228644252e-01,  1.2356282026e-01,  1.0962658376e-01, -3.6429814994e-02, 
	 6.6261820029e-04, -3.3711247146e-02,  3.7952691317e-02, -1.1371687800e-01, -1.0340715945e-01,  3.1296249479e-02,  9.9413678050e-02,  2.2719695698e-03, -2.5219899416e-01, -4.1491951793e-02, 
	-1.5549558401e-01, -1.0375144333e-01,  6.2771297991e-02, -2.3329173028e-01,  1.1248397827e-01,  1.4254984260e-01,  1.8972119316e-02, -4.0071539581e-02, -2.4775683880e-01, -2.9563587159e-02, 
	-1.4414966106e-01,  1.1083964258e-02, -8.2358568907e-02,  1.5230476856e-01, -1.7948338762e-02,  3.5151965916e-02, -1.8673147261e-01, -5.4435472935e-02, -2.2746954113e-02, -6.0966093093e-02, 
	 2.7778647840e-02, -2.3341491818e-01, -1.5853011608e-01,  7.4365884066e-02, -3.3305298537e-02, -2.6811689138e-01, -2.4467785656e-01, -2.8781143948e-02, -1.3962262869e-01, -8.1751886755e-03, 
	 6.0237787664e-02, -1.9456893206e-01, -8.5038654506e-03,  1.0366331786e-01, -2.6622293517e-02, -9.6661478281e-02,  2.0705316961e-01,  2.8940176964e-01,  1.4370006323e-01,  4.1768266819e-03, 
	-4.5285280794e-02,  1.7086297274e-01, -6.6972337663e-02, -5.0035689026e-02,  7.9530999064e-03,  3.3777069300e-02,  8.0498173833e-02, -3.8092922419e-02,  1.9807780627e-03,  8.9065507054e-02, 
	-6.7463494837e-02, -2.2743883729e-01, -2.2324871272e-02, -6.5725095570e-02, -1.5759158134e-01,  8.5099861026e-02,  3.8950067014e-02, -1.0443096608e-01, -7.8629605472e-02,  3.3404763788e-02, 
	-2.6411818340e-02, -1.5809723735e-01,  6.0995761305e-02,  4.7615922987e-02, -2.2501420230e-02,  4.2572077364e-02,  7.9846903682e-02,  1.1990717798e-01, -9.7003452480e-02, -6.7976801656e-03, 
	 1.0472182184e-01,  2.5593133643e-02, -7.7856197953e-02,  5.3435120732e-02, -3.7841722369e-02,  7.4859887362e-02,  1.2929379940e-01, -1.6246173531e-02, -1.6908491030e-02, -1.2279924005e-01, 
	 1.6899293289e-02, -8.0471262336e-02,  1.1435056105e-02,  6.2904104590e-02, -7.4008703232e-02, -9.9708154798e-02,  1.3656719029e-01,  1.7745798826e-01, -5.0321508199e-02, -1.2161360681e-01, 
	-1.0696527362e-01,  7.2222374380e-02,  2.1009819210e-01, -2.1731020510e-01, -2.5451853871e-01, -4.2736839503e-02,  7.7429972589e-02,  1.4585725963e-01,  5.0327725708e-02,  2.4013588205e-02, 
	-2.9144175351e-02,  1.2813912705e-02,  1.1871409416e-01, -5.3733929992e-02,  1.0098948330e-01, -7.4177153409e-02, -5.0792496651e-02, -1.6823099554e-01, -4.0840465575e-02, -5.7951793075e-02, 
	 1.6445254907e-02,  2.2254779935e-02, -1.6085369885e-01, -8.9735984802e-02, -8.4969490767e-02, -6.6782377660e-02, -3.3625181764e-02, -3.3273711801e-02, -2.7165921405e-02, -4.5016054064e-02, 
	-1.8635490537e-01,  1.0455046594e-01, -2.7938088402e-02,  1.6821400821e-01, -1.9551488757e-01,  1.6875395179e-01, -6.5856747329e-02, -9.4201445580e-02,  5.7795785367e-02,  6.3201084733e-02, 
	 1.7599290609e-01, -1.6075089574e-01, -2.2904744744e-01,  4.8444945365e-02,  8.2074239850e-02, -1.3141986728e-01,  6.4384631813e-02, -7.2392694652e-02, -4.0173055604e-03, -1.5719761141e-03, 
	 7.5364649296e-02, -2.4136932194e-01, -1.3473421335e-01,  8.0033250153e-02,  2.8322585858e-03,  2.5253316388e-02,  8.5413902998e-02,  8.7618313730e-02,  1.1861808598e-01,  1.2834353745e-01, 
	 6.6686928272e-02, -6.0316167772e-02,  2.3729138076e-02,  1.5940709412e-01,  9.8071265966e-03, -1.7792573199e-02,  1.4506892860e-01, -8.1087872386e-02,  5.3273823112e-02, -1.9960813224e-02, 
	-2.6257061958e-01,  5.7299930602e-02,  6.0179956257e-02, -9.6721991897e-02,  7.0393189788e-02,  5.0961498171e-02, -8.5286401212e-02,  3.2994788140e-02, -1.8658016622e-01, -1.0445825011e-01, 
	-3.2362870872e-02,  1.3417851925e-01, -2.9927045107e-02, -1.9266709685e-01, -2.1441897377e-02,  2.1769812331e-02,  1.2145169079e-01,  1.2918505818e-02, -8.7854452431e-02,  6.2334220856e-02, 
	-6.8483151495e-02,  8.1675738096e-02,  1.3021954894e-01, -7.4081376195e-02, -1.2180929631e-01, -2.4705626070e-01,  1.1452000588e-02, -9.5936201513e-02, -1.6850043833e-01,  5.6399438530e-02, 
	 1.4973469079e-01, -9.8350591958e-02,  8.0346763134e-02,  1.4089433849e-01, -4.5501757413e-03,  2.5252545252e-02,  2.3636698723e-02,  1.7682217062e-01,  7.0420958102e-02, -1.2289315462e-01, 
	 1.1145146936e-01,  4.1135091335e-02,  3.7580285221e-02, -4.9133729190e-02, -1.1691840738e-01,  8.0226264894e-02, -8.7098166347e-02, -5.2244618535e-02, -5.5289790034e-03,  9.4880707562e-02, 
	 1.8826147541e-02,  2.2449998185e-02,  3.5359762609e-02,  8.9780882001e-02, -3.6225230433e-03,  7.7265202999e-02, -3.1082468107e-02, -2.6468608528e-02, -7.0041574538e-02, -1.3104128838e-01, 
	-5.7449586689e-02, -2.4650141597e-02, -3.3517513424e-02, -3.2393075526e-02,  2.6702849194e-02,  1.1106489692e-03, -4.0317997336e-02,  3.8245818578e-03,  1.8024800718e-01, -3.1709164381e-02, 
	-9.1505475342e-02, -1.3194741681e-02, -1.0318073630e-01, -1.5994653106e-01, -1.2741027772e-01, -5.3524849936e-03, -1.2079368532e-01,  6.2582701445e-02,  4.9305227585e-03, -2.0130765438e-01, 
	-6.0754895210e-02,  1.7263731360e-01, -5.5424999446e-02, -2.5880295038e-01,  5.3826004267e-02, -2.2332741320e-01,  6.6468194127e-02,  1.3339929283e-01,  8.3459228277e-02, -1.2269207835e-01, 
	-6.8542510271e-02, -2.0539490506e-02,  1.1869972199e-01,  2.3793731630e-01,  7.9573668540e-02,  7.9736441374e-02,  2.3976949975e-02,  3.1654529274e-02,  6.9248780608e-02,  1.6965785623e-01, 
	 8.0868758261e-02,  4.8521594144e-03, -4.5614037663e-02, -2.7345559001e-01,  1.7732916772e-01, -4.5447915792e-02, -4.9858789891e-02, -1.0547332466e-01,  2.1265256405e-01,  5.5933189578e-03, 
	-1.3210512698e-01, -3.7057930231e-01, -8.9154452085e-02, -9.8008275032e-02, -1.5756057203e-01,  1.9815813005e-01,  1.4651135541e-02,  2.5634959340e-02,  6.7147925496e-02,  1.0359579464e-03, 
	-5.3172842599e-03,  4.8064839095e-02, -1.6990672052e-01,  7.8228302300e-02, -2.5313892961e-01, -1.0764814913e-01,  6.3502147794e-02,  4.8831324093e-03, -1.6008585691e-01, -1.4258787036e-01, 
	 2.4242347106e-02, -4.5130942017e-03,  3.9014427457e-03,  1.2746806443e-01, -1.9383269548e-01, -1.7515850067e-01,  8.9885778725e-02, -2.3203318939e-02, -5.5475803092e-03,  3.9961971343e-02, 
	-1.5774314106e-01, -1.6664369032e-02,  1.6816550493e-01, -1.7785786092e-01, -7.2835378349e-02, -9.1183647513e-02, -1.0346877575e-01,  1.2180767953e-01, -1.0089193471e-02,  2.8846438974e-02, 
	 9.3142241240e-02,  3.0606146902e-02, -4.8865359277e-02,  1.7765404284e-01,  1.1783108115e-01, -2.4388477206e-02, -1.9405755401e-01,  8.9570082724e-02, -2.1664550900e-01, -1.5463489294e-01, 
	-8.7580442429e-02,  1.9552260637e-01,  2.8649296612e-02, -9.3853406608e-02,  2.2230722010e-02,  7.7416196465e-02,  1.4626802877e-02, -1.6586868465e-01,  2.9474121332e-01, -6.2525838614e-02, 
	 2.0056776702e-01,  8.7904393673e-02, -7.0991061628e-02, -1.9666977227e-01,  9.9916301668e-02, -2.0543967187e-01,  5.6750323623e-02,  1.4704351127e-01,  4.0101006627e-02, -7.2834029794e-02, 
	-5.4379541427e-02,  1.6908571124e-02,  5.8446846902e-02, -1.1449775659e-02,  1.2414676137e-02, -1.0067976266e-01,  8.6450189352e-02,  1.4630277455e-01, -1.9385026395e-01, -1.1817386746e-01, 
	-7.5045740232e-03,  1.1458285153e-01,  2.0438797772e-02,  1.5138291754e-02, -3.2120801508e-02, -1.1184940487e-01, -3.9672166109e-02,  1.0014365427e-02, -1.2073323131e-01, -1.3137806952e-01, 
	 4.0275521576e-02,  6.5542936325e-02,  9.3769744039e-02,  1.5342400968e-01, -2.1599499881e-01, -7.7778734267e-02,  5.9431117028e-02, -6.0245767236e-02,  9.5068097115e-02, -1.1836890876e-01, 
	 4.5995891094e-02,  2.5725618005e-02, -1.1181298643e-01,  1.7311705649e-01, -4.2407240719e-02, -4.4616214931e-02,  1.8205089495e-02,  1.8390163779e-01,  2.7146389708e-02, -4.2826913297e-02, 
	-6.4310178161e-02,  3.8585208356e-02,  1.6899289191e-01, -3.6262381077e-01, -2.1721360087e-01, -1.5271370113e-01,  4.9106538296e-02,  6.6864830442e-03,  1.4026458561e-01, -5.6627448648e-02, 
	 1.0156515986e-01,  2.5139194727e-01, -7.6157629490e-02, -2.2204573452e-01, -2.2473870218e-01,  2.2975648940e-01,  8.8509500027e-02,  4.7546509653e-02, -7.8569486737e-02,  3.0086407438e-02, 
	-1.3470812142e-01,  8.3073943853e-02, -1.2878468633e-01, -1.5438236296e-01, -8.5884831846e-02, -1.0853049904e-01, -1.5966400504e-01, -6.2347821891e-02,  1.1151421070e-01,  1.2899297290e-02, 
	-2.9914585873e-02,  9.6844740212e-02, -1.4453913271e-01, -1.4698837698e-01, -1.2083210796e-01,  1.1682010442e-01, -1.7112115165e-03, -2.4202796817e-01,  2.9623085260e-01,  9.3450531363e-02, 
	-1.9256366417e-02,  3.8068260998e-02, -6.0020214878e-03, -3.6762461066e-02,  2.5586241856e-02,  1.3528862968e-02, -4.0950726718e-02,  1.0659205914e-01,  3.0023669824e-02,  3.6597322673e-02, 
	-8.8422425091e-02,  1.1952300370e-01, -7.7966138721e-02, -5.3881630301e-02,  6.7377045751e-02, -1.5743996203e-01,  3.6236770451e-02,  3.9523728192e-02, -2.3461669683e-02, -1.9501596689e-02, 
	 7.8065671027e-02, -1.4150264859e-01, -2.9398517217e-03, -1.8542501330e-01, -2.6090012863e-02,  5.3385689855e-02,  6.5166659653e-02, -5.1166888326e-02,  6.8000063300e-02, -6.8550951779e-02, 
	 3.1310897321e-02, -7.6301157475e-02,  3.9822164923e-02,  5.4960336536e-02,  6.1853200197e-02, -4.5454870909e-02, -6.8723261356e-02,  4.8421215266e-02, -4.8622772098e-02,  6.4764663577e-02, 
	 2.4970946833e-02, -4.5645572245e-02, -7.6817050576e-02,  1.5992693603e-02,  1.0352264345e-01, -8.2030044869e-03, -1.9486358762e-01, -1.6607965529e-01, -1.8941253424e-01,  7.0939168334e-02, 
	 1.5165808797e-01,  3.5724807531e-03,  4.9235429615e-02,  6.2951818109e-03,  7.6567381620e-02, -1.5901952982e-01,  1.0729996860e-01, -4.2732592672e-02,  6.0178812593e-02, -1.2226542458e-03, 
	 1.2467101961e-01, -1.9909852743e-01,  1.3042648137e-01, -8.7772428989e-02,  5.9383243322e-02,  2.8294017538e-02, -1.2992793927e-03, -4.1370276362e-02,  6.3168592751e-02, -3.4068398178e-02, 
	 1.1323764920e-02, -3.4430125356e-01, -2.6188781485e-02, -7.7725157142e-02,  1.2032713741e-01,  2.9878081754e-02,  2.0346359909e-01, -5.5819056928e-02,  2.9682960361e-02, -1.0214611888e-01, 
	 5.3750281222e-04,  5.8834338561e-03,  2.9306668788e-02,  5.4670544341e-03, -7.6708972454e-02, -2.7056169510e-01,  1.5257586539e-01,  6.2602646649e-02, -1.6448071599e-01,  1.6388501972e-02, 
	-1.2874953449e-01, -1.0923453420e-01,  6.4850062132e-02,  8.4494752809e-03,  1.3121372089e-02,  1.1341572739e-02,  8.9902371168e-02,  2.4674819410e-01,  2.2722221911e-01,  1.3574396074e-01, 
	-1.1838359758e-02,  7.2168484330e-02,  1.1028529704e-01, -2.5955456495e-01, -9.7173601389e-02,  1.5467798710e-01,  1.0041657090e-01, -6.9888681173e-02, -1.8872626126e-01, -6.3946612179e-02, 
	 1.2122393399e-01, -8.2546673715e-02, -1.1737079173e-01, -1.0734573752e-01,  1.0241817683e-01, -1.2798970938e-01,  1.2668020790e-03,  1.3491824269e-01,  4.2147975415e-02, -4.7372259200e-02, 
	-1.4751590788e-01, -2.7653928846e-02, -7.3561541736e-02,  1.2454617769e-01, -1.6168713570e-01,  9.6056722105e-02, -3.7446998060e-02,  7.6777361333e-02,  1.1159705371e-01,  1.7523515224e-01, 
	-1.3153880835e-01, -1.0789606720e-02,  3.6255218089e-02,  9.5214091241e-02, -6.0140475631e-02,  1.2492306530e-01, -2.0369458199e-01,  8.0202035606e-02, -1.1912939698e-01,  2.5554277003e-02, 
	-1.6783416271e-01, -9.7246915102e-02, -5.2872043103e-02,  1.2084005773e-01,  1.7523048818e-01,  1.0540317744e-01, -5.0833761692e-02, -5.9097944759e-03, -4.2895723134e-02,  9.9419914186e-02, 
	 1.5534493327e-01, -1.0572866350e-01,  4.1802238673e-02, -8.0591805279e-02,  8.4670983255e-02,  2.3803311586e-01, -1.9324034452e-01,  5.1658537239e-02, -9.4699814916e-02,  1.0846094228e-02, 
	-1.6540947556e-01,  3.8764405996e-02,  7.2923758999e-03,  3.8634937257e-02, -1.1709233373e-01,  8.9858867228e-02, -3.7616536021e-02,  1.7764721811e-01, -7.2012342513e-02,  6.5004222095e-02, 
	-1.9984643161e-01,  1.5754389763e-01,  1.9636319950e-02, -2.1729661524e-01, -7.9287052155e-02, -1.7921371385e-02, -1.2630213797e-01,  3.2834289595e-03, -2.1752450615e-02, -1.3057740033e-01, 
	 1.0353931040e-01, -2.5455138087e-01,  2.8289578855e-02, -3.8610145450e-02, -2.2411413491e-01, -2.5754633825e-03,  5.5241402239e-02, -9.6354737878e-02,  1.6788457334e-01, -1.2828664482e-01, 
	 6.9293126464e-02,  5.7830274105e-02, -9.4140227884e-03,  6.6251769662e-02, -1.3598369062e-01, -9.6246592700e-02,  8.9543219656e-03,  1.4054156840e-01,  6.4821802080e-02, -6.1004865915e-02, 
	 1.1230301112e-01,  5.6376803666e-02,  5.1658444107e-02,  8.7414041162e-02,  8.9556217194e-02,  1.1352621019e-02, -8.4003821015e-02, -2.2484943271e-01, -2.6594927907e-01, -1.0890547931e-01, 
	 6.2155324966e-02, -1.2608306110e-01, -2.6724826545e-02, -2.1708913147e-01, -1.0184495896e-01, -1.7312008142e-01,  1.3626915216e-01,  2.4258087575e-01,  1.0496862233e-01, -4.1137393564e-02, 
	 5.6310735643e-02,  9.9444381893e-02, -1.6968600452e-01, -1.3532583602e-02, -2.1812452003e-02, -1.6351191327e-02, -3.3166158944e-02,  5.6846704334e-02, -6.6793337464e-02,  4.9947224557e-02, 
	 1.4694903791e-01,  8.9651480317e-02,  1.3568081893e-02,  1.3558399677e-01,  2.3233616725e-02, -8.4255672991e-02,  2.1278235316e-01,  2.0841743052e-01, -1.7772838473e-01,  1.5270245075e-01, 
	-6.0150153935e-02, -1.1169334501e-01,  1.9792881608e-01,  1.1291363277e-02, -8.6589008570e-02, -8.2253664732e-03,  1.4666798711e-01, -7.7378198504e-02, -2.2934047878e-01, -2.0968692005e-01, 
	 8.1759423018e-02,  1.8685141206e-01, -2.3207617924e-03, -3.6280751228e-02,  1.0137303919e-01, -1.0005727410e-02,  1.1951340735e-01, -8.2384653389e-02,  9.0129517019e-02,  3.1080406159e-02, 
	 1.6541447490e-02,  9.1196291149e-02, -1.6937023401e-01,  2.2557021584e-03, -1.5948602231e-03,  4.2282432318e-02,  8.7937355042e-02, -9.3531034887e-02,  9.8421007395e-02,  8.3294421434e-02, 
	-1.3122797245e-03,  1.6502416134e-01, -1.7583377659e-01, -5.3565658629e-02,  2.0134931803e-01, -9.3040958047e-02,  2.8885325789e-01,  3.2134603709e-02, -8.6384527385e-02, -6.0650095344e-02, 
	-5.9879727662e-02, -1.5813729167e-01,  1.6538242996e-01, -2.7217382193e-01, -2.2122834623e-01, -5.4697625339e-02,  1.0311425477e-01,  1.9172418863e-02, -7.8671418130e-02,  3.8205947727e-02, 
	-1.0956094414e-01,  7.4633628130e-02, -1.8683220446e-01, -1.1641938239e-01,  8.5605248809e-02, -4.2163629085e-02,  1.2758703530e-01,  8.9508764446e-02, -1.4965516329e-01,  1.8333904445e-02, 
	-8.7678879499e-02,  1.5313719213e-01,  1.2241969258e-01,  3.5231612623e-02, -1.0567558557e-01, -1.2824198604e-01,  5.4048549384e-02,  2.9233371839e-02, -1.6848863661e-01,  1.3050355017e-01, 
	-3.6718107760e-02,  1.4190645516e-01,  1.8159818649e-01,  4.6630639583e-02, -8.4183961153e-02,  1.3380025327e-01, -2.6920345426e-01,  2.5869497657e-01,  2.7667226270e-02, -6.6383406520e-02, 
	-2.7140507102e-01,  1.4141753316e-01, -5.7479612529e-02, -6.3714988530e-02, -8.8578108698e-03,  1.2410978228e-01,  1.8738092855e-02, -1.1196150444e-02,  8.4204815328e-02,  8.6484469473e-02, 
	-1.8749243021e-01, -4.4246070087e-02, -1.0072927177e-01, -2.3540185392e-01,  1.9496065378e-01,  5.3393527865e-02,  1.9606871530e-02, -4.3083891273e-02, -1.2109005824e-02, -7.8692384064e-02, 
	 1.0119165480e-01, -1.1290240102e-02,  9.5626808703e-02,  4.5875038952e-02, -4.4862229377e-02,  2.2838132456e-02,  4.6919502318e-02, -1.0431257635e-01, -3.5727161914e-02,  3.5472966731e-02, 
	-7.9750502482e-03, -2.8890334070e-03,  1.5946593881e-01,  7.0482224226e-02, -1.3041341305e-01,  1.8076708540e-02, -1.3784925640e-01,  1.6298195347e-02, -3.0573037267e-01,  1.4639449120e-01, 
	-1.2025925517e-01,  2.8528191149e-02,  3.0039498582e-02,  8.4276288748e-02,  5.0596270710e-02,  4.2937587947e-02, -8.1842869520e-02, -5.8723078109e-03,  3.8133159280e-02,  1.7400730401e-02, 
	 2.3018430173e-01,  7.8344248235e-02, -1.4382791519e-01, -7.2698947042e-04,  6.9949232042e-02,  1.3773413002e-01, -1.0834533721e-01, -1.2200698256e-02, -5.6805916131e-02, -8.5263893008e-02, 
	 2.0854954422e-01,  4.3471377343e-02, -4.4067479670e-02, -6.0756091028e-02,  8.1057980657e-02,  1.0562759638e-01,  2.9414115474e-02,  1.3706950471e-02, -1.1818681657e-01, -2.1752776206e-01, 
	-2.8715673089e-01, -6.1227470636e-02, -7.0105142891e-02,  2.5560199283e-03, -3.9316389710e-02,  6.4322038088e-04, -1.5438236296e-01,  1.5839980543e-01, -6.5392896533e-02, -9.8748579621e-02, 
	-7.2786957026e-02,  6.8982407451e-02, -3.5261809826e-02,  1.0837809183e-02,  1.5671825409e-01, -2.0792007446e-01, -1.0439313948e-01, -1.6980636120e-01,  1.1686533689e-01,  3.6224762443e-03, 
	 5.5578086525e-02, -2.5534616783e-02,  1.9903298467e-02, -4.7571673989e-02,  2.7815677226e-02,  2.0145303011e-01,  2.4892120063e-01, -2.5292443112e-02,  1.1308498681e-01,  6.1608459800e-02, 
	-6.4423508942e-02,  4.8495691270e-02,  5.7354196906e-02,  9.8460987210e-02,  4.4381052256e-02,  3.4268442541e-02, -8.8897556067e-02, -2.3138251901e-01, -5.1886487752e-02,  5.8496292681e-02, 
	 2.8991086408e-02,  2.1101722121e-01,  6.9394141436e-02, -1.6390547156e-01, -1.1480809189e-02,  2.4702435359e-02, -1.3181446493e-01,  1.8373132916e-03,  9.0249933302e-02,  1.0560718924e-01, 
	 1.4083880186e-01, -6.7047446966e-02, -6.9685302675e-02, -2.2970452905e-01, -2.3373786826e-03,  1.8679950386e-02, -2.6435929537e-01, -7.7367641032e-02, -4.8951771110e-02, -1.6385349631e-01, 
	-6.7265718244e-03,  1.3831730187e-01, -2.2303234786e-02,  4.6325929463e-02,  5.7376477867e-02, -2.0312322676e-01, -8.9075997472e-02,  1.9610469043e-01, -1.4973656833e-01,  3.5352349281e-02, 
	-5.1615233533e-03, -1.5161818266e-01, -6.0626983643e-02,  4.9570091069e-02, -7.8950300813e-02, -1.0015782714e-01, -1.0449419916e-01, -2.4387581274e-02,  1.5920788050e-01, -5.3454287350e-02, 
	 1.2259287387e-01,  1.5980912372e-02, -1.0704946704e-02,  4.3103974313e-02, -1.5530419350e-01,  1.0096782446e-01, -5.5467706174e-02,  1.8138516694e-02, -1.2823624909e-01,  8.1749878824e-02, 
	-5.3554784507e-02,  8.0926727969e-04, -9.8219268024e-02,  1.1274607852e-02, -2.3615002632e-01, -1.8519933522e-01,  9.2694856226e-02, -1.6067119315e-02, -1.1752004176e-01,  1.2809997797e-01, 
	-1.0778717697e-02, -2.1592979133e-01, -9.0826556087e-02,  2.2042268515e-01, -6.1733305454e-02, -7.6648011804e-02,  1.1210834980e-01,  8.2936584949e-02,  2.3652474582e-01,  2.4140225351e-01, 
	-1.0580901802e-01, -5.0188034773e-02,  1.8579290807e-01,  2.1888227761e-01,  8.9872680604e-02, -1.2243463099e-01, -8.7548121810e-02, -3.2771103084e-02, -1.1711166054e-01,  1.0443723947e-01, 
	-1.1671686172e-01, -9.1193802655e-02,  1.3167804480e-01,  5.5030960590e-02,  1.1341506243e-01, -5.9893649071e-02, -1.7069686204e-02,  7.4997036718e-03, -3.7587720901e-02, -2.0845913887e-01, 
	 1.2059750408e-01,  2.1471403539e-02, -7.3734559119e-02, -1.5138094127e-01, -1.3518178463e-01, -1.2744496763e-01,  1.7894859612e-01,  3.1343240291e-02,  1.0423740000e-01,  6.7608259618e-02, 
	 1.0997696221e-01, -1.6318812966e-01, -1.0204520077e-01,  2.3972637951e-01, -7.1572951972e-02,  9.5222987235e-02,  6.1134278774e-02, -2.5371586904e-02,  7.6638072729e-02,  3.6968678236e-02, 
	-4.4189810753e-02,  8.7808713317e-02,  6.9732859731e-02,  1.1858875304e-01, -1.1557201296e-01, -2.0941726863e-01,  1.6220496595e-01, -2.6375206653e-03,  1.3992831111e-01, -1.1619719118e-01, 
	 2.3066768423e-02, -1.6802141070e-01, -1.2866197526e-01,  1.6227243841e-01,  6.8500116467e-02, -5.5424058810e-03, -2.4087695777e-01, -5.4214097559e-02,  2.8496184945e-01,  3.8309887052e-02, 
	-8.2532763481e-02, -8.2608267665e-02,  2.0037684590e-02,  1.9711868465e-01, -7.3058135808e-02,  6.6681519151e-02,  1.3528014533e-02,  2.6633545756e-01,  1.5190294012e-02,  8.6791120470e-02, 
	-7.3265984654e-02,  1.2055332214e-01,  1.9510224462e-02, -1.0615676641e-01, -1.5413518250e-01, -7.6628006995e-02,  8.0959182233e-03,  2.5000128895e-02,  2.0856265724e-01, -1.7282795906e-01, 
	 1.3802216388e-02,  1.5479238331e-01,  1.9776800275e-01,  4.0023267269e-02, -1.6340509057e-02, -2.1397405863e-01,  1.3448458910e-01,  4.5430973172e-02,  1.0009671561e-02, -1.8148594245e-04, 
	 8.4672734141e-02, -2.7410462499e-02,  1.1474520713e-01, -2.3880491033e-02,  5.7663250715e-02, -2.2209189832e-01, -3.7829112262e-02,  2.4922583252e-02, -1.0314072669e-01, -5.0422348082e-02, 
	 3.0015943572e-02, -8.8019870222e-02,  1.3783304393e-01,  3.1114202738e-01, -1.4635881782e-01, -1.7070096731e-01,  5.9147071093e-02, -2.7188960463e-02,  2.2041265666e-01,  9.3246884644e-02, 
	-1.1548273265e-02,  8.8348403573e-02, -1.7523562908e-01,  2.0679043606e-02,  8.8253460824e-02,  1.6196098924e-01,  9.7218751907e-02, -6.6802300513e-02,  1.5479728580e-02, -5.8516375721e-02, 
	 1.5451531112e-01, -1.3871738315e-01, -6.6650368273e-02,  1.0302627459e-02,  1.4013811946e-01, -3.3729991317e-01, -1.5740847588e-01, -3.3649794757e-02,  3.0975012109e-02, -8.1012196839e-02, 
	-9.7866053693e-05, -4.1327428073e-02, -6.5702833235e-02,  2.1893429756e-01,  6.2209457159e-02, -1.7550964653e-01, -2.8317781165e-02, -1.0249717534e-01, -1.0251624882e-01, -3.9096489549e-02, 
	-1.9861684740e-01, -5.1151446998e-02,  8.2953423262e-02, -3.6926500499e-02, -1.3283044100e-01,  6.1378076673e-02,  1.7979165912e-01,  1.6349139810e-01,  2.2277942300e-01,  1.1255993694e-01, 
	-9.2637933791e-02,  6.3760809600e-02,  7.2700321674e-02, -5.3611464798e-02, -2.6148188859e-02,  1.1435242742e-01, -3.7560049444e-02,  2.5909885764e-02,  7.8108653426e-02,  4.5151878148e-02, 
	-6.4708739519e-02,  2.3683518171e-02,  2.0877303183e-01,  8.7746404111e-02,  1.0442567617e-01,  9.2184975743e-02,  9.3887019902e-03,  1.5737189353e-01, -1.1155261844e-01,  1.3954075053e-02, 
	 5.3996138275e-02, -3.1896668673e-01,  9.7410857677e-02,  7.0248410106e-02,  2.9437953606e-02, -5.9734247625e-03, -1.0825429857e-01, -5.2355825901e-03, -1.6859263182e-01,  2.1133798361e-01, 
	-9.4257749617e-02, -7.3272392154e-02, -7.9306617379e-02, -9.4135478139e-02,  4.2089689523e-02, -1.2278936803e-01, -1.1610151827e-01, -1.3407398760e-01, -1.8610177934e-01,  1.6719549894e-01, 
	 3.8978427649e-02, -6.9272369146e-02,  3.8320536260e-03, -2.1686781943e-01, -5.6245694868e-03,  2.0651182160e-02,  4.8324670643e-02,  2.7124792337e-02,  6.9523282349e-02,  1.4491114020e-01, 
	-2.9393887520e-01, -1.4405068755e-01,  3.8908556104e-02, -4.1973084211e-02, -1.1174222827e-01,  1.1744293571e-01,  1.2279230356e-01, -9.4300761819e-02, -7.8241050243e-02, -1.0125581321e-04, 
	 1.1002339423e-02,  7.0820130408e-02, -1.3774846494e-01,  6.8263374269e-02,  3.2955881208e-02, -1.7617714405e-01,  8.4816694260e-02, -1.1752146296e-02,  8.0880679190e-02,  1.9760309160e-01, 
	-1.3252591016e-03, -1.7881251872e-01, -6.8589508533e-02,  5.0468527479e-04, -1.9106484950e-01,  1.1235514656e-02, -2.5100126863e-01, -5.7631316595e-03,  8.9525915682e-02, -6.6565327346e-02, 
	-2.7450090647e-01, -9.7575984895e-02, -1.0388579220e-01,  2.0849775523e-02,  1.5829496086e-01,  2.0880450308e-01,  1.2848791480e-01, -2.0875193179e-01, -2.6395263150e-02,  1.1417695135e-01, 
	 6.9570489228e-02, -2.0770069212e-02, -2.7747356892e-01, -7.9860098660e-02,  8.8902376592e-02,  1.2957192957e-01,  1.1176226288e-01, -5.4836306721e-02, -1.3216079772e-01, -5.8741766959e-02, 
	 2.5838477537e-02,  3.0675839633e-02,  3.0554762483e-01,  2.1243421361e-02, -1.4500127733e-01, -2.2861158848e-01,  1.2233631685e-02,  8.6758956313e-02, -4.0561452508e-02, -2.3140501231e-02, 
	-1.6448315978e-01,  6.4538866282e-02,  7.2634592652e-02, -7.3253847659e-02, -3.4331537783e-02, -1.9430495799e-01,  8.0829948187e-02,  1.3251002133e-01, -2.8014026582e-02, -1.5872965753e-01, 
	 1.1730934680e-01, -3.4907910973e-02, -1.0322165489e-01, -7.7310599387e-02,  5.9897389263e-02, -7.2405196726e-02, -6.2916688621e-02, -1.5041467734e-02, -1.0275704414e-01, -6.4127907157e-02, 
	-1.3102639467e-02, -8.2201518118e-02,  2.2889213637e-02, -7.5380757451e-02, -2.5287616253e-01,  1.8385538831e-02, -1.4056666754e-02,  3.9775766432e-02, -6.3797138631e-02,  3.8206409663e-02, 
	-2.5358265638e-01, -2.8620284051e-02,  3.3191759139e-02,  1.7426764965e-01, -1.8939690292e-01, -8.4874205291e-02, -8.1304050982e-02,  1.4050577767e-02, -1.3971477747e-01, -7.1342512965e-02, 
	-3.2578465343e-01, -7.8466907144e-02,  1.3388955034e-02, -1.3460786641e-01, -2.4545451626e-02,  1.6540420055e-01,  2.9851656407e-02, -3.4762446303e-03, -8.8907584548e-02, -1.1193541437e-01, 
	 7.5135715306e-02, -9.9522605538e-02,  1.3425672427e-02,  2.5245231390e-01, -1.4413401484e-01,  4.6840757132e-02,  1.4436995983e-01,  4.7513823956e-03, -1.0047426820e-01, -9.4946529716e-03, 
	 8.4784783423e-02, -6.6173136234e-02, -6.5511189401e-02, -8.7215371430e-02, -5.8224271983e-02,  8.3793669939e-02, -4.6775691211e-02,  1.5774235129e-01, -6.5102860332e-02,  7.8092864715e-03, 
	 1.3827531040e-01,  1.2309425324e-01,  1.0434494168e-01, -1.5682719648e-02,  1.4071480930e-01,  2.6419715956e-02, -2.0701245964e-01,  7.6678558253e-04, -4.7985613346e-02, -1.9530910254e-01, 
	-1.4060340822e-01,  1.6378474236e-01, -1.4784763567e-02, -1.4285017550e-01,  6.2136542052e-02, -5.9394836426e-03, -2.4714468047e-02,  3.5495102406e-02, -1.2429655343e-01,  6.0876640491e-03, 
	 2.7427449822e-01,  4.4141220860e-03, -9.1769322753e-02, -1.8221828341e-01, -2.1284148097e-01, -6.8747498095e-02, -6.2305979431e-02,  1.4232032001e-02,  6.2138263136e-02, -1.0442840867e-02, 
	 1.9254848361e-01, -5.6916303933e-02,  9.3125842512e-02, -1.1463735998e-01, -2.5863513350e-02,  1.0801847279e-01,  2.3689806461e-02,  1.3753175735e-01, -5.3279817104e-02,  1.6415877640e-01, 
	 1.7776088789e-02,  6.5171122551e-02,  8.1681102514e-02,  1.1934164912e-02,  6.9162026048e-02, -5.0772256218e-03, -1.0891313665e-02, -1.0090358555e-01, -1.9584281743e-01,  3.8317048457e-03, 
	 1.3925495557e-02,  6.7366220057e-02,  1.5200573206e-01, -5.2802097052e-02, -1.6487270594e-02, -1.2376229465e-01, -1.6402101517e-01,  1.5347100794e-01,  4.6764742583e-02,  2.3595722020e-01, 
	 3.3307336271e-02, -1.1646711826e-01,  7.5155630708e-02,  2.8094058856e-02,  1.1339434981e-01, -1.1053434014e-01, -8.4058910608e-02,  1.5762066469e-02,  1.3934174553e-02, -1.5059839189e-01, 
	 2.2310815752e-01, -7.1885377169e-02,  1.3273743913e-02, -2.2991934419e-01, -3.1834524125e-02,  1.2487538159e-01,  1.6373865074e-03,  2.2268599272e-01,  2.3792666197e-01,  7.5467266142e-02, 
	-1.8428233266e-01, -1.0764756054e-01, -5.9599187225e-02,  2.9122002423e-02, -8.8299244642e-02, -3.7248793989e-02, -9.3662030995e-02,  4.8743110150e-02, -1.2555104494e-01, -1.7220695317e-01, 
	 2.0655686036e-02, -1.1370993406e-01, -2.0098257810e-02, -1.6615813971e-01, -1.1698896438e-01,  5.0852008164e-02, -5.1092080772e-02, -1.8273614347e-01, -5.5549696088e-02,  1.1995111406e-01, 
	 2.5742901489e-02,  2.1364325657e-02,  2.3603897542e-02, -1.1504499614e-01, -6.1323001981e-02, -8.3691976964e-02,  9.4010300934e-02,  2.1501703188e-02,  2.8205975890e-01,  1.2295871228e-01, 
	 9.2130638659e-03, -1.7476622015e-02, -1.5084546804e-01,  8.1777691841e-02,  5.0729468465e-02,  6.9399930537e-02,  1.1249801517e-01,  1.2672422826e-01,  2.1659676731e-01,  8.4101766348e-02, 
	-3.5037919879e-02, -8.8801443577e-02, -3.5657480359e-02, -3.5753938556e-01, -5.6514613330e-02,  1.5081563592e-01,  1.0443070531e-01, -6.7647889256e-02,  7.4824362993e-02, -2.5871655345e-01, 
	 2.9591593891e-02,  7.6676980825e-04, -2.5331813842e-02,  1.2353462726e-01, -7.5550764799e-02,  6.0076467693e-02,  1.9837658852e-02,  1.0652055498e-03, -2.3838760331e-02, -8.6610447615e-03, 
	-1.3475254178e-01, -1.4411292970e-02, -1.1216448247e-01, -6.2719970942e-02,  5.4817926139e-02,  7.1000382304e-02,  8.5672862828e-02, -7.9792857170e-02,  8.0973304808e-02, -3.8287352771e-02, 
	-1.1091717333e-01, -1.4580354095e-01,  4.7470614314e-02, -5.2823554724e-02,  4.5237205923e-02,  2.1472653747e-01,  2.1223202348e-02, -5.3415354341e-04, -3.0489226803e-02,  7.9377412796e-02, 
	-4.5435801148e-02,  2.5620713830e-01,  6.5519973636e-02,  4.5621398836e-02,  7.8357733786e-02,  1.6300823539e-02, -1.8561553955e-01, -4.0053747594e-02, -5.2744966000e-02,  1.4688315988e-01, 
	-1.8135671318e-01, -6.1820045114e-02, -1.0175203532e-01, -1.1310760863e-02, -1.2164615840e-01, -1.1582230777e-01, -8.9976266026e-02, -1.0594476759e-01,  2.1483168006e-01, -1.5819673240e-01, 
	-5.8857321739e-02,  4.4751516543e-03, -1.1148267239e-01, -7.2622984648e-02,  1.2774269283e-01,  3.9081852883e-03,  6.9288879633e-02, -1.8292260170e-01, -6.4281396568e-02, -1.1387401819e-01, 
	-2.6804685593e-02, -1.4032076299e-01, -3.7390012294e-02, -9.4533145428e-02,  4.2334053665e-02,  4.6778682619e-02,  5.0158925354e-02, -2.6025974751e-01, -7.1164466441e-02, -4.3600264937e-02, 
	 1.4866897464e-01,  7.6114863157e-02, -5.4238390177e-02, -2.7275052667e-01,  1.4701845124e-02,  4.0332801640e-02,  6.8249881268e-02, -2.2444272041e-01,  1.6285656393e-01,  1.4315329492e-01, 
	-2.7678880095e-01, -1.4219219983e-01,  1.8445509672e-01,  5.4612785578e-02, -9.0778982267e-03,  1.4472633600e-01,  1.2466959655e-01,  2.0892526954e-02,  1.5976561606e-01,  2.0676074922e-01, 
	 1.8009640276e-01,  2.8513025492e-02,  9.4988206401e-03, -4.4392503798e-02, -6.3569605350e-02,  1.3908051886e-02, -1.7769952118e-01,  5.4900974035e-02, -6.1137169600e-02, -1.2285819650e-01, 
	 1.6131129861e-01,  9.8056584597e-02, -1.3218070567e-01,  6.1771613546e-03,  5.8460362256e-02, -1.6902500391e-01,  1.0639110953e-01, -1.0278499126e-01, -2.2662693635e-02, -1.6969378293e-01, 
	-8.9760266244e-02,  8.3929114044e-02, -2.7515915036e-01, -5.7863213122e-02, -5.9605073184e-02, -7.4147529900e-02, -5.9168297797e-02, -1.4137987792e-01,  1.1438153684e-01, -1.7192432284e-01, 
	-5.2731566131e-02,  1.1127160490e-01,  1.6290958226e-01, -9.6784001216e-03, -9.5086090267e-02, -2.8387749568e-02, -2.5347110629e-01,  6.8653576076e-02,  1.1796494015e-02, -8.5423067212e-02, 
	 1.0142280906e-01, -8.4406137466e-02, -7.3336347938e-02, -1.7335876822e-01, -1.6470228136e-01,  5.7271435857e-02,  1.8423819914e-02, -1.3422218151e-02, -1.1770062149e-01, -7.0724993944e-02, 
	-1.2357012928e-01,  9.4489850104e-02, -4.9736797810e-02,  6.8840958178e-02, -1.5931886435e-01,  8.8033720851e-02, -1.2371794879e-01,  1.3605143130e-01,  1.0145707428e-01, -1.3694074936e-02, 
	-1.9534741342e-01, -3.5535756499e-02, -7.6261095703e-02, -9.1473773122e-02, -9.6142977476e-02,  1.3274604455e-02, -8.7599858642e-02,  1.0310736299e-01, -4.0746487677e-02,  2.9906097800e-02, 
	 8.9407749474e-02, -1.2608762085e-01,  1.8258678913e-01, -1.1819355935e-01, -1.3012292981e-01,  7.3747590184e-02, -8.1221126020e-03, -5.8199432679e-03,  4.9788944423e-02, -2.3322306573e-01, 
	-5.8613024652e-02, -1.0061495006e-01, -1.1678857356e-01,  1.5814507380e-02, -8.4297293797e-03, -2.1793088317e-01, -8.4581032395e-02,  7.2257697582e-02,  4.4077850878e-02, -1.9210113585e-01, 
	-6.2127828598e-02, -5.5226247758e-02, -9.9757485092e-02,  1.8850475550e-01,  8.0614842474e-02,  1.2733134627e-01,  2.1825069562e-02,  1.2404482812e-01, -2.9418036342e-01,  1.4113909006e-01, 
	 1.2522006035e-01, -1.2718625367e-01,  1.9942519069e-01,  5.5751698092e-03, -3.0489513278e-01, -1.0417821258e-01, -2.5591628626e-02,  8.1863798201e-02,  1.2377806008e-01,  2.6930630207e-02, 
	 1.1330318451e-01, -6.1815615743e-02,  1.9874127582e-02,  9.0118758380e-02, -1.4908626676e-01,  1.2724515796e-01, -1.5681642294e-01, -1.8908070028e-01,  2.1625120193e-02, -1.6911333799e-01, 
	-8.7854573503e-03,  8.2267127931e-02, -1.2914517522e-01, -8.4432885051e-02, -3.2357655466e-02,  1.7854574323e-01,  4.7013379633e-02, -2.7016015723e-02, -1.5208201110e-01, -7.1699813008e-02, 
	-2.1685840189e-01,  2.9188039899e-01,  1.8115168810e-01, -3.4798181150e-03,  1.1155457795e-01,  7.9662494361e-02,  8.2221459597e-03,  5.9473779052e-02, -1.0433788598e-01, -2.8756070882e-02, 
	 2.0822998881e-01,  1.3423401117e-01,  2.0723766088e-01,  3.7395298481e-02, -8.9544877410e-02,  3.1257721782e-01, -1.5489821136e-01, -1.5920980275e-01, -1.0717979819e-01, -3.5109542310e-02, 
	 2.0779000595e-02,  9.8218753934e-02, -1.4100303873e-02,  8.2749910653e-02,  5.2293673158e-02,  6.5195612609e-02,  1.7648208141e-01,  6.7655391991e-02, -1.6622339189e-01,  1.0422697663e-01, 
	 7.3078453541e-02,  1.0910246521e-02, -5.9651903808e-02, -1.3934211805e-02,  4.5295476913e-02,  8.5059322417e-02, -1.2972403318e-02,  7.0082224905e-02, -1.0609547049e-01, -1.8119980395e-01, 
	-7.2770811617e-02,  1.7827324569e-01,  3.4753032029e-02,  4.6781968325e-02, -7.9930447042e-02, -1.4594644308e-01, -3.3742941916e-02, -1.7158429325e-01, -1.1943498999e-01,  3.0929127708e-02, 
	-1.3600404561e-01,  3.9098776877e-02, -6.1884157360e-02, -1.7066572607e-01, -1.0110066831e-01,  4.6147100627e-02, -1.3881257176e-01, -4.5014466159e-03,  1.7598763108e-01,  1.6066771746e-01, 
	 6.9427214563e-02, -8.5709959269e-02,  1.1958627403e-01, -1.1247688532e-01,  8.0012865365e-02, -1.7226023600e-02, -1.7385773361e-02,  1.8522804976e-01, -2.0843768492e-02,  4.2337011546e-02, 
	 8.5461989045e-02,  2.5475297123e-02,  7.1070335805e-02,  1.5616296232e-01, -4.3660800904e-02, -9.9179362878e-03, -1.2541154027e-01, -8.6560726166e-02, -5.7403642684e-02, -2.3329209536e-02, 
	 2.5636106730e-01,  1.1616659164e-01, -1.7465065420e-01, -2.5906691328e-02, -8.0459136516e-03,  4.8343613162e-04, -1.1113027483e-01, -2.2289127111e-02, -8.7591044605e-02,  2.8780605644e-02, 
	-2.0604792982e-02, -2.1895440295e-02, -3.2798823668e-04,  1.0476642102e-01,  1.3475649059e-01,  2.9626430478e-04, -1.8828022480e-01, -1.1208012700e-01,  1.6724146903e-01,  6.9727785885e-02, 
	 2.3717740551e-02,  7.7406644821e-02, -1.3997021317e-01, -2.4443839490e-01, -9.2190742493e-02,  1.5774753690e-01, -4.0565188974e-02,  4.5671146363e-02,  1.3881492615e-01, -1.0490053892e-01, 
	-1.4274893701e-01,  4.0241580456e-02,  8.1362418830e-02, -1.2412647903e-01, -1.8101304770e-01,  4.2592022568e-02, -5.1861233078e-03, -2.6360595226e-01, -7.6774440706e-02,  1.6919265687e-01, 
	-1.6937689483e-01, -1.4096929133e-01, -2.1336920559e-01,  1.7533031106e-01,  1.2650787830e-01, -6.0219280422e-02,  9.5490496606e-03, -1.6361647844e-01, -1.0073370486e-01,  4.5215092599e-02, 
	-7.6615765691e-02,  4.9143299460e-02, -1.6679824889e-01, -3.1298744678e-01, -2.4386429787e-01, -8.5322838277e-03,  9.2436864972e-02, -3.3529497683e-02,  1.6823206097e-02, -4.0423113853e-02, 
	 6.2283992767e-02,  9.8066724837e-02,  6.5915189683e-02,  1.5411442518e-01,  1.6351029277e-01, -9.2420525849e-02, -1.0121326149e-01, -2.2408880293e-01, -3.4697715193e-02,  1.6018477082e-01, 
	 7.6310724020e-02, -3.6912262440e-02, -3.8386281580e-02,  8.0668469891e-03,  1.1145073920e-01,  2.4056835100e-02,  8.2309469581e-03,  6.0182258487e-02,  5.2692387253e-02, -1.5822640061e-01, 
	 6.1000376940e-02, -1.1414650828e-01, -2.0387299359e-01, -1.6429547220e-02,  1.6957886517e-02,  1.0259701312e-01,  9.7794339061e-02,  1.2125414796e-02, -8.9140847325e-02, -3.5597730428e-02, 
	-1.1185406148e-01, -3.1394872814e-02,  9.2676267028e-02,  2.0891772583e-02,  3.6854416132e-02,  1.3253936172e-01,  7.4253664352e-03, -3.4706633538e-02,  1.4096985757e-01, -9.9695503712e-02, 
	 8.0717392266e-02,  5.2162803710e-02, -1.2272261828e-01,  5.2731864154e-02,  2.8076564893e-02,  7.9121440649e-03, -2.1770890057e-01, -2.2906892002e-02, -7.2143087164e-03, -5.4328043014e-02, 
	-3.8664232939e-02,  9.6173331141e-02, -4.8954233527e-02, -1.2206986547e-01,  1.5339896083e-01,  2.2689573467e-02, -6.5765373409e-02,  8.3671379834e-03, -1.2174827605e-01, -1.5232971311e-01, 
	-8.7042145431e-02, -6.0357466340e-02, -1.9532056153e-01,  8.2266427577e-02, -1.1436918378e-01,  5.0516225398e-02, -1.2057144940e-01, -2.3654369637e-02, -1.1032963172e-02, -7.9240120947e-02, 
	-3.2413911074e-02, -8.5699997842e-02,  4.0257550776e-02,  3.0151234940e-02, -2.4654518068e-01,  1.9474837184e-01, -1.3900269568e-01, -2.9849126004e-03, -1.4997935295e-01,  1.6888832673e-02, 
	 2.0415787399e-01,  5.8923482895e-02, -1.4861901104e-01,  1.5115519054e-02,  1.6583470628e-02,  1.0226038098e-01, -2.1022646129e-01, -4.9062285572e-02, -2.2685952485e-02, -4.9471501261e-02, 
	-2.0020309091e-01,  1.3093772531e-01, -2.0377939939e-01, -1.1047904193e-01,  1.4522215724e-01,  9.9058859050e-02,  2.9213074595e-02,  2.0303291082e-01,  2.9686121270e-02,  3.3984158654e-03, 
	 7.8704811633e-02, -3.7280064076e-02, -1.7689654231e-01, -2.8056735173e-02,  4.8064902425e-02, -8.7191492319e-02,  4.2047850788e-02, -9.9248237908e-02, -1.0610323399e-01, -6.3188455999e-02, 
	 1.7259145156e-02, -2.6686993241e-01, -1.6558633745e-01,  7.6217941940e-02,  9.0674221516e-02, -1.6969087720e-01, -1.0053621233e-01, -1.3665978611e-01, -1.0061737895e-01,  1.4764320850e-01, 
	 2.1305176616e-01, -6.6252149642e-02,  8.1218346953e-02, -8.0687180161e-02, -3.2627947628e-02,  1.0714536905e-01, -1.1896249838e-02, -3.8406111300e-02, -3.7439513952e-02,  8.6882844567e-02, 
	-2.2512777150e-01,  3.6098949611e-02,  4.9064988270e-03, -6.7139610648e-02, -4.8311468214e-02,  2.7642305940e-02,  8.6734801531e-02,  7.1216739714e-02,  5.2826918662e-02,  1.5319037437e-01, 
	 1.1752995849e-01,  1.2863826752e-01, -7.6525956392e-02,  2.5252565742e-02,  5.2535396069e-02, -3.2329060137e-02, -5.5398106575e-02, -2.1713562310e-02,  1.6646076739e-01, -1.0622187704e-01, 
	 1.0340590961e-02,  6.5979927778e-02, -2.7943214402e-02, -1.0852672905e-01, -4.2303122580e-02,  1.2789475918e-01, -3.7844747305e-02,  6.2788121402e-02, -9.1596998274e-02,  4.1640117764e-02, 
	 4.3393496424e-02,  6.1040937901e-02,  9.5739543438e-02, -3.5525746644e-02,  3.2807584852e-02, -2.6540845633e-02,  7.3232571594e-04,  1.9824606180e-01,  1.1109550297e-01,  1.5769435465e-01, 
	 1.5822800994e-01, -1.4388386905e-01,  5.8130607009e-02, -8.9118659496e-02,  1.6036769375e-03,  6.2969684601e-02, -1.8034134805e-01, -2.1660992503e-01, -3.8084648550e-02, -6.5342873335e-02, 
	 4.4338521548e-03,  1.1695964634e-01,  1.1778672226e-02, -3.5803675652e-02,  1.7824366689e-01,  8.4523642436e-03,  9.8863571882e-02, -4.9044642597e-02, -1.2619926035e-01, -5.0586569123e-03, 
	-3.4250921011e-01, -4.1420977563e-02, -1.5134521760e-02, -4.2919903994e-02, -3.4983396530e-01, -1.1778367683e-02,  7.6508834958e-02, -7.8571781516e-02, -4.9080695957e-02, -6.8028770387e-02, 
	-4.6094570309e-02,  7.8130222857e-02,  1.7041094601e-01, -3.4830708057e-02,  1.5320676565e-01, -4.7265656292e-02,  5.9048753232e-02,  3.5475455225e-02, -1.0243000835e-01,  7.8633777797e-02, 
	-4.6717856079e-02,  4.7405987978e-02, -3.8981477264e-03, -8.8514424860e-02, -6.0911945999e-02,  5.1856942475e-02, -4.3876834214e-02, -3.3065307885e-02, -2.2767657042e-01, -1.7139525712e-01, 
	-4.9271797761e-03, -7.5885988772e-02,  1.8022483587e-01, -1.9538725913e-01, -4.1684735566e-02, -5.7878404856e-02,  1.6549563035e-02,  8.7218411267e-02,  1.1992752552e-01, -1.1221567402e-03, 
	 6.8651244044e-02,  9.5079138875e-02, -6.9479276426e-03,  1.2538476288e-01,  1.2790126493e-03, -3.6759223789e-02,  7.3580443859e-02, -5.4533455521e-02, -8.1292517483e-02,  8.6885131896e-02, 
	 1.7451012135e-01,  9.4001665711e-02,  1.6003313661e-01,  7.8365616500e-02, -1.1723002791e-01, -1.5420322120e-01,  1.0670477152e-01,  9.1098546982e-02, -1.5457946062e-01, -1.0229723901e-01, 
	-1.1699531460e-03, -1.5775306523e-01, -1.7446271377e-03, -1.3812246732e-02, -2.2822646424e-02, -3.6417052150e-02, -1.2033855170e-01,  3.0504774302e-02, -2.3269423842e-01,  1.8937268853e-01, 
	 5.7266674936e-02, -7.1168772876e-02,  1.2562754750e-01,  8.7688788772e-02,  6.9592066109e-02,  2.4477387965e-01, -5.2638512105e-02, -5.6631609797e-02, -6.8514905870e-02,  7.2577722371e-02, 
	 1.2018594146e-01,  6.7947834730e-02, -1.4199264348e-01,  4.3429411016e-03,  1.6162963212e-01, -2.3211296648e-02,  1.4616601169e-01,  2.2040206939e-02,  9.6036810428e-03, -6.9018371403e-02, 
	 1.3403125107e-01, -3.1873080879e-03,  8.7672792375e-02,  4.0987085551e-02, -4.0424305946e-02,  2.7357465588e-03, -1.2497160584e-01,  7.5821960345e-03, -3.1905978918e-02,  7.3159486055e-02, 
	-1.2008073181e-01, -2.8574606404e-02, -1.4694783092e-01, -2.3483797908e-02,  6.0521759093e-02, -2.7144515514e-01,  5.6068273261e-03, -4.6973330900e-03, -2.0734600723e-01,  1.4645819552e-02, 
	-5.6998547167e-02, -2.2846601903e-01,  1.6226646304e-01,  1.8493226171e-01,  1.6214202344e-01,  2.1061925590e-01, -2.9137998819e-02, -7.4861198664e-02, -1.6816917062e-01,  7.3627792299e-02, 
	-1.1097359657e-01, -2.0351269841e-01, -3.4421492368e-02, -1.1569157988e-01, -9.6249033231e-04, -1.0767120868e-01, -5.0479926169e-02, -9.3007944524e-02,  1.0446303338e-01, -5.5967383087e-02, 
	 3.8713254035e-02,  1.2835435569e-01, -1.0609660298e-01, -9.1531999409e-02, -3.3475175500e-02, -3.0390447006e-02,  2.5905912742e-02,  3.6632418633e-01,  1.0573334247e-01,  1.5396264195e-01, 
	 8.1351511180e-02, -1.8924537301e-01,  5.3613100201e-02,  5.8323178440e-02,  9.5870189369e-02,  3.1615957618e-02,  7.8612409532e-02, -6.2403455377e-02,  1.6375134885e-01, -7.1362674236e-02, 
	 8.2143865526e-02,  1.1106239259e-01, -9.9708139896e-02,  1.2264165096e-02,  5.2232529968e-02,  1.5587247908e-01, -2.1803228557e-01,  1.1968301237e-01,  5.3352590650e-02, -5.7326301932e-02, 
	-9.2464208603e-02, -9.4722837210e-02, -9.5076091588e-02,  1.4066284895e-01, -1.4184689522e-01, -1.7517431080e-01,  3.1857065856e-02, -2.0155997947e-02,  1.3053802773e-02, -9.4239890575e-02, 
	-2.5098937750e-01,  1.6241425648e-02, -2.1957729757e-01,  1.0545364581e-02, -1.2686055899e-01, -1.5513329208e-01, -1.3263161480e-01,  1.8941545486e-01,  1.2645408511e-01,  1.0267176479e-01, 
	-1.2529550493e-01, -2.2728422657e-02, -2.8086248785e-02, -1.7169542611e-02,  5.2005007863e-02, -1.3598424196e-01,  3.2100539654e-02,  1.9372451305e-01,  1.0292841122e-02,  1.0994755477e-01, 
	 2.2272633016e-01,  7.1665115654e-02, -2.4752944708e-02,  3.0228065327e-02,  1.3089905679e-01,  2.9841603711e-02, -1.1329271644e-01,  6.6992580891e-02,  1.3997795992e-02,  4.3745551258e-02, 
	 5.7933689095e-03, -2.6302523911e-02,  3.7545572966e-02,  7.6181776822e-02,  1.5152154863e-01, -1.4943380654e-01,  5.3414281458e-02, -2.6265859604e-01, -5.0419151783e-02,  8.8746957481e-02, 
	-2.0207883418e-01, -1.4985390939e-02, -3.3421564847e-02, -7.6006324962e-03, -6.5002450719e-04, -1.3023655117e-01,  2.1306889132e-02,  5.6691881269e-02, -1.4114493132e-01,  4.0724594146e-03, 
	 1.0010762513e-01,  1.6117863357e-02,  1.0171782970e-01, -6.2494702637e-02, -7.2974666953e-02, -1.0269279778e-01,  7.7621705830e-02, -1.2167545035e-02, -3.6711898446e-01,  3.1379569322e-02, 
	-3.3508542925e-02, -5.5358640850e-02, -7.0163019001e-02,  1.0689403862e-01, -7.6689226553e-03, -2.4193944037e-01,  4.9919161946e-02, -9.0429879725e-02, -2.0409190655e-01,  8.7269455194e-02, 
	-5.7879943401e-02, -1.0607694834e-01,  9.7446769476e-02, -1.4699479938e-01,  7.2074986994e-02,  4.4540870935e-02,  1.4813151956e-01,  1.0911902040e-01,  6.4284294844e-02, -6.0141526163e-02, 
	 1.3069610298e-01,  2.1288311481e-01,  6.8661116064e-02,  2.3808789253e-01,  1.1459375173e-01,  1.0118507594e-01, -2.7865020558e-02,  6.1266843230e-02,  6.6099823453e-03, -4.5148663223e-02, 
	-6.8536311388e-02,  1.6301336884e-01, -2.2430120409e-01, -1.7136278749e-01,  1.0854004323e-01, -1.1733083986e-02,  1.2059282511e-02, -4.2917627841e-02,  1.4732505381e-01,  7.2959013283e-02, 
	 1.6547571868e-02, -1.2394151092e-01,  1.6227085888e-01, -4.7101527452e-03, -1.4572708867e-02,  1.0084969550e-01, -3.1291317195e-02, -9.1413326561e-02, -1.1425129324e-01, -1.8865092099e-01, 
	 1.4122650027e-01, -1.3673610985e-01,  1.1812971532e-01,  8.5146851838e-02,  5.6072324514e-02,  1.5266931057e-01, -1.0190267861e-01,  5.5304355919e-02, -1.3690625131e-01,  9.3131540343e-03, 
	-1.1666036397e-01, -9.5252953470e-02,  8.1771286204e-03, -1.5607490204e-03, -2.4264064431e-01,  1.2316782959e-02, -1.0370529443e-01, -2.9149705078e-03, -1.2113150954e-01,  1.3648894615e-02, 
	 1.0742504150e-01, -7.4834316969e-02, -6.3472814858e-02,  1.1014581472e-01,  7.3428906500e-02,  6.6859535873e-02, -2.4467723444e-02, -2.3808404803e-02,  7.7257089317e-02, -4.4389221817e-02, 
	 1.1217806488e-01,  6.6830173135e-02,  9.4534739852e-02, -7.5098134577e-02,  1.3310141861e-01,  9.2292413116e-02,  2.0680229366e-01,  5.3010801785e-03, -2.1247212589e-01, -4.8706173897e-02, 
	 5.3665325046e-02, -2.0156724751e-01,  2.3899500072e-01,  7.5988255441e-02,  1.2290963531e-01, -1.2278002501e-01,  3.8956247270e-02,  6.7223630846e-02,  9.5830701292e-02, -3.4696243703e-02, 
	 9.4110168517e-02,  1.3674750924e-01,  4.1055295616e-02, -9.2176295817e-02,  8.3358995616e-02,  1.3137166202e-01,  4.3613355607e-02,  4.5287478715e-02, -6.1639439315e-02, -4.5900814235e-02, 
	 1.0692860931e-01, -7.5533412397e-02,  4.0654741228e-02,  5.8727283031e-02,  8.3977185190e-02, -3.2067078352e-01,  1.0759654641e-01,  7.1467146277e-02,  7.4526213109e-02,  1.3328590989e-01, 
	-4.9702681601e-02, -7.4461214244e-02,  4.9561336637e-02,  4.4865395874e-02,  5.0173673779e-02,  2.0690428093e-02,  8.5177838802e-02, -4.7780364752e-02, -1.3182172179e-01, -1.3584403694e-01, 
	 2.2249376401e-02, -2.8536495566e-01, -1.9261623919e-01, -1.4477662742e-01, -6.5461888909e-02, -4.3873786926e-02, -1.4529708028e-01,  1.1435780674e-01, -7.7435215935e-03, -1.5382418409e-02, 
	-2.2836706042e-01, -6.4060404897e-02,  1.8261143565e-01,  1.2644597329e-02,  7.6891146600e-02,  2.1565784514e-01,  6.7685782909e-02,  5.0706587732e-02,  2.1245861053e-01,  2.2248373926e-01, 
	-4.0296927094e-02,  6.4976401627e-02,  2.5825759768e-01,  6.9174177945e-02,  8.7788105011e-02,  9.8385006189e-02,  4.1045770049e-02, -6.1594653875e-02, -9.6590004861e-02, -8.9139984921e-03, 
	-3.9497163147e-02,  9.7835838795e-02,  1.5572485328e-01,  9.2739388347e-02,  7.1145944297e-02,  2.3310722783e-02,  1.4175814390e-01,  1.6413022578e-01,  2.6096899062e-02, -8.3255700767e-02, 
	-1.8709133565e-01,  1.9870104268e-02,  9.2647068202e-02, -1.5004828572e-01, -4.0997941047e-02, -2.1042634547e-01,  1.8369135261e-01,  6.3845179975e-03, -1.0645793378e-01, -1.5803167224e-01, 
	 9.1595709324e-02,  5.3084008396e-02,  1.0629045218e-01,  1.6355264187e-01,  8.4655225277e-02, -1.9789040089e-01,  8.9691571891e-02, -5.9143513441e-02, -8.3977058530e-02, -6.2966652215e-02, 
	 1.9223164767e-02,  2.2062988579e-01,  1.1766342819e-01, -1.1019177735e-01,  1.8082493916e-02,  5.5214297026e-02,  2.6738515124e-02,  7.4347532354e-03, -4.2260095477e-02,  2.0106106997e-02, 
	-9.8639555275e-02,  5.8600008488e-02, -7.2639705613e-03,  9.3025565147e-03,  9.1272398829e-02, -6.8838126957e-02, -1.8242746592e-01, -1.2840801477e-01, -1.0838616639e-02, -1.7820772529e-01, 
	-3.7117451429e-02,  1.8569821492e-02, -2.0397582650e-01, -2.1359881386e-02, -2.8985397890e-02,  4.9808643758e-02,  8.6108580232e-02, -1.8481673300e-01, -3.1758561730e-01, -5.2801135927e-02, 
	 1.6709178686e-02, -2.3286554217e-01, -1.1687255651e-01, -8.4939591587e-02, -3.1012496352e-01, -3.3950906247e-02,  9.7778357565e-02, -4.0082406253e-02,  6.6819548607e-02, -2.1420647204e-01, 
	-6.7527480423e-02, -1.2661045790e-01,  9.7890406847e-02, -1.0148968548e-01,  1.7530968785e-01,  1.8211580813e-01,  2.1962757409e-01,  1.6482036561e-02, -1.7655577511e-02,  2.4800050259e-01, 
	-6.7062117159e-02,  1.0147503763e-01, -1.0501675308e-01, -7.2976112366e-02,  1.5618145466e-01,  1.3509446383e-01,  1.1724955589e-01,  8.4003351629e-02, -2.0367801189e-01,  5.4946929216e-02, 
	 2.8950087726e-02, -7.8152611852e-02, -8.9225091040e-02,  1.5328882635e-01, -9.3902796507e-02, -2.7100270614e-02,  3.6814268678e-02, -2.7943477035e-03,  1.8902795389e-02,  6.4704000950e-02, 
	 1.2693080306e-01,  1.4407589333e-03, -8.2461405545e-03, -2.9575115442e-01,  1.7290680110e-01,  5.0163730979e-02,  1.3915064931e-01, -3.0513131991e-02, -8.0307029188e-02,  2.3925215006e-02, 
	 2.3501552641e-01, -1.2055583298e-01,  1.5496031940e-01,  4.9773216248e-02, -1.2319736928e-01,  6.7297674716e-02,  1.9086219370e-01, -1.0828394443e-01, -1.9004240632e-01,  2.2310329601e-02, 
	-3.4531414509e-02, -1.3434219360e-01,  2.4956448376e-01,  5.1570661366e-02, -1.8118205667e-01,  8.3433222026e-03,  1.2708427012e-01, -6.0489058495e-02,  1.7375603318e-01, -1.3088639081e-01, 
	-1.1861420423e-01, -6.9505624473e-02,  4.5118625276e-03,  1.0480624437e-01, -8.0650135875e-02,  1.0568350554e-01, -4.6693775803e-02, -2.1612441540e-01,  8.7643397273e-04, -2.9336446896e-02, 
	 1.3836067915e-01,  1.9145204127e-01, -8.7529897690e-02, -4.1674260050e-02,  6.0708016157e-02, -1.5439699590e-01,  1.6116705537e-01, -9.3017488718e-02, -1.4927542070e-03,  9.5508776605e-02, 
	 4.0496233851e-03,  1.6247434542e-03,  1.3202707469e-01, -9.1932788491e-02,  8.7818456814e-03, -1.1910840124e-01, -1.9412353635e-01, -2.3023273051e-01, -5.8874920011e-02, -8.8145032525e-02, 
	-3.9744105190e-02, -2.2168632597e-02, -1.5837424994e-01,  2.4663319811e-02,  4.0571399033e-02,  8.9626133442e-02, -1.2123198807e-01,  1.7067040503e-01,  1.7291529104e-02, -1.4256334305e-01, 
	-1.0278411210e-01,  1.5462622046e-01,  1.6944777966e-01, -5.8918088675e-02, -1.0718473792e-01,  1.3777652383e-01, -6.1993841082e-02,  3.0434753746e-02,  2.4093894660e-01, -3.0256029218e-02, 
	 8.0719895661e-02, -9.5623761415e-02,  1.1712498963e-01, -7.3653675616e-02, -1.6025799513e-01, -2.6504790783e-01, -1.8757830560e-01,  4.0432635695e-02, -4.8437900841e-02,  1.9823367894e-01, 
	 6.3427641988e-02,  1.2166674249e-02, -1.2897799723e-02,  9.5523096621e-02,  2.7468116954e-02,  1.1556140333e-01, -8.6868718266e-02,  2.0605841279e-01, -7.7337682247e-02, -6.0296291485e-03, 
	-3.5820007324e-02, -8.5122995079e-03, -3.5764522851e-02, -1.0217058659e-01, -1.7619492114e-01,  4.7005210072e-02, -2.0984547213e-02, -2.0426869392e-01, -2.4954749271e-02,  1.1228939891e-01, 
	 1.7120254040e-01,  1.0645706207e-02, -1.0495989770e-01, -4.6926554292e-02,  5.7927072048e-02,  1.2933474779e-01, -2.4203911424e-01,  1.7805539072e-01, -2.1811868995e-02, -6.3808195293e-02, 
	 1.9266626239e-01,  9.2551289126e-03, -4.7419708222e-02,  6.4391568303e-02,  1.0766624659e-01,  7.2633154690e-02,  4.2464639992e-02, -1.0768464953e-01,  7.0441469550e-02,  2.2654710710e-01, 
	-1.6318966448e-01,  8.2712881267e-02, -3.5464990884e-02, -2.7527210116e-01, -4.7833900899e-02, -1.3835936785e-01,  1.0281862691e-02, -1.0173042305e-02, -3.0211754143e-02,  5.5959685706e-03, 
	-2.2294698656e-01,  1.0286796838e-01, -3.0543306842e-02, -3.2037252188e-01, -1.1485293508e-02,  9.7665011883e-02,  1.2822604179e-01,  9.2099994421e-02, -1.8524434417e-02, -4.0521129966e-01, 
	-2.0443159342e-01, -7.2207942605e-02,  1.1053950340e-01,  7.1768254042e-02,  2.2869102657e-01,  1.7339910567e-01, -1.7847185954e-02,  1.1693786830e-01,  6.2384121120e-02, -1.6684886813e-01, 
	 3.8064971566e-02, -1.4773681760e-02,  1.7020282103e-03,  1.8479248881e-01,  2.7229927946e-03,  3.1253907830e-02,  3.2595500350e-02,  5.8329641819e-02, -2.6593863964e-01, -1.0727730393e-01, 
	 3.4602642059e-02,  1.3990603387e-01, -1.5693427622e-01, -7.8391753137e-02, -3.0411276966e-03, -8.3946004510e-02, -1.4411936700e-01,  1.9834330678e-01, -8.4028892219e-02,  7.5480602682e-02, 
	-2.0939481258e-01, -5.8571193367e-02, -6.8476386368e-02, -1.7648962140e-01, -1.3062310219e-01,  1.8941560993e-03,  7.0347845554e-02,  1.6184303164e-01, -1.3026190922e-02, -2.2631125525e-02, 
	-1.0466107726e-01, -5.0335165113e-02, -6.8425074220e-02,  5.0202896819e-03, -2.0510785282e-01,  1.1086992919e-01, -8.5466079414e-02,  1.0314415395e-01, -8.9385300875e-02, -3.8434695452e-02, 
	 8.0132663250e-02,  1.0594996065e-01, -2.1752081811e-01, -4.6361848712e-02, -1.0964784771e-01, -4.0244180709e-02, -3.2268311828e-02,  1.0221173614e-01,  9.2664457858e-02,  3.5146098584e-02, 
	-1.2372951955e-02,  7.4904263020e-03,  8.0704614520e-02, -1.6166338325e-01,  2.0294454694e-01, -1.1131462455e-01, -3.5747192800e-02,  5.4461836815e-02,  3.9323255420e-02,  1.2038368732e-02, 
	 4.4880803674e-02, -1.4309151471e-01, -1.0183376819e-01, -2.5864529610e-01,  6.6742800176e-02, -9.1315947473e-02, -1.4813041687e-01, -4.6038899571e-02, -4.5881710947e-02, -2.1711102128e-01, 
	-2.2851747274e-01,  5.9352301061e-02,  1.8275356852e-03, -1.9519800320e-02,  4.4807322323e-02, -2.8189385310e-02,  9.2938162386e-02, -1.7182934284e-01, -7.6272062957e-02,  1.3803856075e-01, 
	-1.0483127832e-01,  1.7929835618e-01, -8.3554945886e-02,  5.3108200431e-02, -9.6529640257e-02,  3.1334247440e-02,  1.1305503547e-01, -1.2631763518e-01, -4.9786916934e-03,  3.0195157975e-02, 
	 6.5320529044e-02,  1.2966859341e-01, -4.7257136554e-02,  3.0696579814e-01, -6.4229972661e-02,  1.2369955331e-01,  1.1026333086e-02, -1.9888739288e-01, -2.0751772821e-01, -1.6720549762e-01, 
	-2.0258856937e-02, -2.7561299503e-03,  1.0440018028e-01, -1.1601510458e-02, -1.3617467880e-01,  9.0348564088e-02,  1.4307850599e-01,  1.1640197039e-01, -1.0902255774e-01, -6.7461910658e-03, 
	-2.6305386797e-02, -3.1841348857e-02, -1.9588261843e-01,  1.7358396947e-01, -9.4681836665e-02, -8.7827682495e-02,  1.0605108738e-01,  7.1894548833e-02,  2.8977781534e-02, -3.5140711814e-02, 
	-2.7430438995e-01, -8.6520694196e-02, -1.6702249646e-02, -9.2782467604e-02, -9.9780879915e-02,  1.8561422825e-02,  4.9154136330e-02, -1.3367724605e-02,  4.8625905067e-02,  1.5583313070e-02, 
	-5.1796521991e-02, -2.1460080519e-02, -2.8831671923e-02,  3.9059866685e-03, -5.3440712392e-02,  1.9335892051e-02,  6.3746005297e-02,  1.2225721031e-02, -1.5578973293e-01, -3.8519281894e-02, 
	 4.3505490758e-03,  8.9606627822e-02, -2.3900641501e-01,  1.5828159451e-01,  1.9766451418e-01,  6.4344249666e-02, -1.3658042252e-01,  9.6676327288e-02,  7.4686467648e-02,  8.2023426890e-02, 
	-2.7936644852e-02,  7.5106255710e-02, -9.8311513662e-02, -1.6260044277e-01,  1.0722792149e-01,  1.1956271529e-01,  2.8610811569e-04,  1.2899388373e-01, -1.3824344613e-02,  1.7164079845e-01, 
	 1.4955410361e-01,  2.2040218115e-01,  1.1586406268e-02,  7.3030717671e-02, -5.6325599551e-02,  3.3170912415e-02, -3.1377130747e-01, -7.0547267795e-02, -6.5763458610e-02, -6.8533137441e-02, 
	 8.4842197597e-02,  4.7751076519e-02, -3.5191211104e-01,  4.0159143507e-02, -1.2326986343e-01, -8.9209638536e-02,  6.5691918135e-02, -9.5526687801e-02,  2.2237094119e-02, -1.1980335414e-01, 
	-4.1171301156e-02,  8.5947483778e-02, -4.0785461664e-02, -2.6082217693e-01,  3.1903576106e-02,  1.6964069009e-01,  1.5240855515e-01,  1.4085346460e-01, -1.3983504474e-01, -2.5001259521e-02, 
	-1.1299491674e-01, -4.2892482132e-02,  1.6997293569e-03, -5.3702082485e-02, -1.4278097451e-01,  4.1890159249e-02, -1.0688541457e-02,  8.7918564677e-03,  4.9889378250e-02, -1.9662380219e-02, 
	-7.2316780686e-02,  2.8313947842e-02,  7.6349116862e-02, -7.7480055392e-02,  8.2660309970e-02, -1.1871980131e-01,  1.1704637669e-02, -1.4374668896e-01,  2.7317537460e-03, -2.6817822829e-02, 
	-2.9484149814e-01,  6.3971243799e-02, -2.2657653317e-02,  7.4702478945e-02, -1.4071586728e-01,  2.0184291527e-02,  1.1343128979e-01,  8.3586331457e-03,  1.5590166673e-02, -1.6792012751e-01, 
	 3.3278580755e-02,  6.0581129044e-02,  1.2018465996e-01,  7.7572755516e-02,  5.5479623377e-02,  1.9854202867e-02,  1.2176124007e-01,  4.4345755130e-02,  3.5177040845e-02,  9.4915986061e-02, 
	-5.9364233166e-02,  3.4030269831e-02,  6.3317388296e-02,  8.8554345071e-02,  1.7704048753e-01,  1.7474739254e-01,  2.1167768538e-01,  2.5503501296e-02,  4.0749363601e-02,  2.9104273766e-02, 
	-2.4144689739e-01, -6.4726449549e-02,  6.8612329662e-02, -3.6719173659e-03,  4.2886827141e-02,  1.4092846215e-01, -6.8111360073e-02, -4.6164181083e-02, -7.5287097134e-03,  7.8536242247e-02, 
	-4.3725587428e-02,  1.5304797888e-01, -7.6118786819e-03, -2.8996989131e-02,  4.3376866728e-02, -7.5025588274e-02,  1.8570758402e-01,  9.7056239843e-02, -1.2410888821e-01, -9.1125510633e-02, 
	-4.3758465908e-03, -4.2136833072e-03, -4.5968811959e-02, -7.0047840476e-02, -8.6373925209e-02, -3.2693665475e-02,  1.3997233473e-02, -4.7139804810e-02, -3.8687843829e-02, -8.1583015621e-02, 
	-1.6638667881e-01,  7.3830612004e-02, -5.5188003927e-02, -3.6699708551e-02, -1.8880773336e-02, -1.1311975867e-01, -6.6015176475e-02,  1.8311594427e-01,  9.2262253165e-02,  4.9756594002e-02, 
	 1.5408983454e-03, -1.3302239776e-01,  4.6661764383e-02,  1.0770818591e-01,  2.3656935990e-01, -1.3044589758e-01, -2.1874988079e-01,  1.9398333132e-01, -3.0761314556e-02,  7.2858673520e-03, 
	-7.6767437160e-02,  9.9551908672e-02, -1.9406571984e-01, -1.8133975565e-02,  5.3949426860e-02, -3.9817865938e-02,  1.5855158865e-01,  1.1590873450e-01,  3.0082363635e-02,  2.9884733260e-02, 
	 1.4750096202e-01,  1.0566796362e-01,  9.8737761378e-02,  5.5779468268e-02,  2.0216163248e-02, -2.2779433429e-01,  2.2151282057e-02, -5.1380164921e-02, -4.9628954381e-02, -8.7332867086e-02, 
	 6.8517938256e-02, -1.3248544931e-01, -7.9387538135e-02, -3.4269627184e-02, -9.1744683683e-02,  4.6300463378e-02, -1.2778198719e-01, -3.2657779753e-02, -7.6443918049e-02,  9.1890610754e-02, 
	-1.3820077479e-01, -1.7000977695e-01, -8.4963105619e-02,  1.4234037697e-01,  6.6398195922e-02,  2.3981741071e-01,  2.6100086048e-02,  2.9086196795e-02, -1.1694205552e-01,  1.3361839950e-01, 
	-5.6947860867e-02,  8.6346089840e-02,  7.7750876546e-02, -4.0711745620e-02,  3.8671430200e-02, -1.1301137507e-01,  1.1229877174e-01,  9.2804506421e-02,  5.6069295853e-02, -1.8533335626e-01, 
	-8.7955862284e-02,  1.0257934034e-01,  1.6854204237e-02, -5.2270416170e-02, -7.7446088195e-02, -2.9208060354e-02,  1.4630085230e-01, -2.4665856361e-01, -2.2821740806e-01, -1.3470184058e-02, 
	 1.2749674916e-01,  2.7314996719e-01, -5.9318210930e-02, -8.4489874542e-02, -5.4071426392e-02, -2.3537902161e-02,  2.2014146671e-02, -9.1629484668e-03, -1.0105222464e-01,  6.8068556488e-02, 
	-1.3483798504e-01,  1.0867095739e-01,  1.0365953296e-01,  7.5211510062e-02,  2.1786527708e-02,  2.4816024303e-01, -6.1684448272e-02, -4.2151673697e-03,  8.9302081615e-03,  1.0988945514e-01, 
	-7.4135050178e-02,  5.8126412332e-02, -3.2469704747e-02,  8.6597867310e-02, -9.7037866712e-02,  6.8398408592e-02, -2.1437974274e-01, -1.0562428832e-01,  7.2909310460e-02,  3.6803837866e-02, 
	-1.0262426920e-02,  2.7511343360e-03, -1.1764188856e-01, -1.2607142329e-01, -7.2044230998e-02, -1.0973212123e-01,  1.9628556911e-03, -8.0234847963e-02, -6.4438655972e-02,  4.8833955079e-02, 
	-1.1234568059e-01, -2.8803586960e-02,  2.2028432786e-01,  9.3064479530e-02,  1.4775420725e-01, -3.4027497750e-03, -2.8063361533e-03, -3.4121081233e-02,  5.4815113544e-03, -1.4101682603e-01, 
	-5.4358677007e-03,  1.0808435827e-01,  8.7487958372e-02,  8.9999057353e-02, -1.0120648146e-01,  1.5382884443e-01, -1.3054206036e-02,  1.1749548465e-01, -6.1495866627e-02, -9.2825051397e-03, 
	-1.7917655408e-01, -3.0972424429e-03, -9.4802575186e-03,  8.4977641702e-02, -7.0984582417e-03,  1.3082276285e-01,  2.6735818014e-02,  1.6094049439e-02, -9.1536164284e-02, -3.1038558111e-02, 
	 5.4208695889e-02, -2.2756775841e-02,  2.0954771340e-01,  1.7974974588e-02, -6.8527422845e-02, -1.4363531023e-02, -8.4302254021e-02, -5.8859150857e-02, -6.8385213614e-02,  7.1975715458e-02, 
	-1.0171461850e-01, -3.0053159595e-01,  1.6538206488e-02,  4.2121339589e-02,  6.3423225656e-03, -1.3973307610e-01, -3.2582262065e-03, -1.5930178761e-01,  1.1595635675e-02,  1.3828354422e-03, 
	 4.0419973433e-02,  6.7590244114e-02,  1.7193399370e-02,  7.9309277236e-02, -5.8275062591e-02,  1.3770906627e-01,  1.4903925359e-01, -4.2667025700e-03,  6.8781770766e-02,  5.5761437863e-02, 
	 1.0615620762e-02, -4.0085844696e-02,  7.7708616853e-02,  2.1190749481e-02,  6.9888785481e-02, -3.8190539926e-02,  5.3455896676e-02,  8.8587133214e-03, -1.0083996505e-01,  1.4312462509e-01, 
	-1.8593233824e-01, -7.1104057133e-02, -4.8130787909e-02, -2.1331474185e-01,  1.0655188560e-01, -5.5033981800e-02, -2.2140301764e-02, -1.6475370526e-01,  7.0242963731e-02, -1.7123726010e-01, 
	-1.6748461872e-02, -1.3906981051e-01, -2.2034206986e-01,  8.1140831113e-02,  6.6063545644e-02,  1.2648351490e-01,  2.1238704026e-01, -1.4262992144e-01,  1.0148841143e-01, -2.4628345855e-03, 
	-1.2218993902e-01, -1.4110265672e-01,  6.0822937638e-02, -5.7821758091e-02, -6.3590228558e-02, -1.8814237416e-01, -1.9349446893e-01,  2.0103555918e-01, -1.2650054693e-01,  1.2007998303e-02, 
	 9.1913715005e-02, -2.3847916722e-01,  1.6715201735e-01, -2.1664485335e-01,  1.0790270567e-01, -7.2776913643e-02, -1.0197462887e-01, -2.7907514945e-02,  1.6279368103e-01,  1.1571012437e-01, 
	-2.6658363640e-02, -8.8233053684e-02,  1.7347395420e-01,  2.9127964750e-02,  4.3026145548e-02, -1.7774757743e-01, -8.7558075786e-02, -7.2007045150e-02,  4.8953950405e-02, -1.4908653498e-01, 
	-2.2419352899e-04, -5.0052776933e-02,  5.8477088809e-02,  1.5831732750e-01,  2.5088542700e-01,  5.7327248156e-02,  1.1141624302e-01,  1.8389841914e-01, -1.8189479411e-01, -7.2363526560e-03, 
	 1.5041860752e-02,  2.5743247941e-02, -1.9035893679e-01, -5.8688703924e-02,  3.0710596591e-02, -2.0669409633e-01,  7.7334620059e-02, -9.4333104789e-02,  1.2447047234e-01,  1.0212977976e-01, 
	-1.9700169563e-02, -1.2080124021e-01,  4.8138722777e-02, -1.5336592915e-03,  5.6111916900e-02, -5.9336896986e-02, -1.4517965913e-01,  2.5564283133e-02,  2.0586755872e-01, -1.0059150308e-01, 
	-1.2237562798e-02,  1.2726475485e-02, -2.3568578064e-02, -5.2139434963e-02, -6.3265927136e-02, -5.5345697328e-03, -7.3307648301e-02, -1.6506936401e-02,  8.5733100772e-02, -6.7581191659e-02, 
	-1.2894241512e-01,  1.0036982596e-02,  2.2365137935e-01,  7.2431951761e-02,  8.3354398608e-02, -1.3029690087e-01,  1.9328857958e-01,  1.0064329207e-01,  6.7723460495e-02, -5.0186734647e-02, 
	-1.5899451077e-01,  1.0561832041e-01, -2.5890749693e-01, -3.3180817962e-02, -7.2619937360e-02, -2.1828254685e-02, -1.3642752171e-01,  1.3225191273e-02, -1.4136559330e-02, -3.7740193307e-02, 
	 4.3126519769e-02,  3.6828562617e-02,  7.7999666333e-02,  4.0123254061e-02,  1.3805520535e-01, -5.6907065213e-02, -3.0741250515e-01, -6.4633764327e-02, -6.9699950516e-02, -1.3750308752e-01, 
	-2.3624500260e-02, -4.6839967370e-02,  3.9195291698e-02,  3.5036772490e-02,  6.8189073354e-03,  8.6633265018e-02,  1.6332924366e-01,  1.5720267594e-01, -1.9640702754e-02,  8.4495320916e-02, 
	 7.8607648611e-03,  1.4990398288e-01, -2.0142756402e-03,  2.4533007294e-02,  9.2919796705e-02, -2.8101541102e-02,  5.5800769478e-02,  5.7984542102e-02, -1.3642588258e-01, -7.7352754772e-02, 
	 5.2178092301e-02,  2.4859804660e-02,  1.0016553104e-02,  1.2713184953e-01,  1.4716085792e-01,  3.9272595197e-02,  7.8012146056e-02, -8.6494460702e-02, -7.6096072793e-02,  3.4638680518e-02, 
	 4.5735862106e-02,  1.1211209930e-03, -8.0712229013e-02, -1.0285726190e-01,  1.3946695626e-01, -6.3993581571e-03, -7.9289376736e-02, -2.6479173452e-02, -7.2773054242e-02, -1.7542424798e-01, 
	-9.5639698207e-02, -1.6664588824e-02,  2.4681630731e-01, -1.5057286620e-01, -1.3391675055e-01, -5.2470382303e-02, -5.0225030631e-02,  1.1988585815e-02, -1.4835210750e-03,  7.1809247136e-02, 
	-1.6492079198e-01, -1.5093745291e-01, -1.4628748409e-02, -6.4339071512e-02,  2.5581797585e-02,  2.7342397720e-02,  3.4388016909e-02,  6.5918043256e-02, -7.0728883147e-02, -1.2725310028e-01, 
	 1.2920002639e-01,  1.3849037886e-01,  9.5801763237e-03,  4.3853260577e-02,  8.2576416433e-02,  8.7888903916e-02, -6.2603503466e-02, -8.7477289140e-02, -2.0892059803e-01,  3.6837399006e-02, 
	 1.2576198578e-01,  1.3360239565e-01,  9.1125711799e-02, -1.0618802160e-01, -9.6176385880e-02,  2.8191745281e-02, -9.0161979198e-02, -7.1509100497e-02, -1.8998618424e-01,  1.5148575604e-01, 
	 1.0771580040e-01,  1.9998436794e-02,  2.3120334744e-01,  4.4547162950e-02,  1.8959829584e-02,  1.5058785677e-01, -1.3156952336e-02,  8.3816470578e-03,  1.2940132618e-01,  2.6590490714e-02, 
	-1.2608216703e-01,  1.5722174942e-01,  2.0958927274e-01,  8.7961755693e-02, -4.7861598432e-02,  1.9015449286e-01,  3.9581201971e-02,  1.2706027925e-01,  4.7982245684e-02,  1.4785933495e-01, 
	-3.4601204097e-02, -3.8227885962e-02, -5.0721384585e-02, -6.8888971582e-03, -1.5273588896e-01,  6.0636464506e-02, -2.8495925944e-03, -5.2247438580e-03, -4.8957992345e-02,  1.0093362629e-01, 
	 3.8275163621e-02, -3.4190025926e-01,  2.6066830382e-02, -2.2749075666e-02, -7.0829592645e-02,  2.7227151394e-01, -3.8011949509e-02, -1.5073856339e-02,  5.3718369454e-02, -1.1122337729e-01, 
	-4.3859686702e-02, -1.9630996883e-01, -1.9635127485e-01, -8.6268961430e-02, -1.1719376594e-01, -5.6236576289e-02, -1.0951649398e-01, -1.0274421424e-01, -1.4433285594e-01, -1.8440018594e-01, 
	-1.2222416699e-01,  1.1004869640e-01,  1.2335397303e-01,  7.8883141279e-02, -4.7574855387e-02, -1.6843843460e-01,  6.2640413642e-02,  1.3460852206e-01, -4.5045814477e-03, -1.0711261630e-01, 
	 4.9975551665e-02,  1.2378547341e-01,  1.4834576845e-01,  1.8323009834e-02,  4.7829661518e-02, -9.7653992474e-02,  1.3311995566e-01, -1.3572780788e-01, -1.0948356241e-01, -5.6589618325e-02, 
	 2.3933006451e-02,  3.4738648683e-02,  3.9761919528e-02,  3.2579258084e-02, -3.0818527564e-02,  1.1156746000e-01, -4.7213006765e-02,  3.7184286863e-02,  1.5240874887e-01,  1.7338973284e-01, 
	-6.9299235940e-02,  4.9622729421e-02, -1.4651189744e-01, -1.3485470414e-01, -3.8346403837e-01, -2.7115313336e-02,  6.5790995955e-02, -1.0793233663e-01, -7.1884058416e-03,  5.2930418402e-02, 
	-1.6957141459e-01, -3.2500877976e-01, -6.5407931805e-02,  7.5417838991e-02,  1.6539332271e-01,  1.5575327910e-02,  2.3917671293e-02,  7.9273141921e-02,  2.5767015759e-03,  6.4648784697e-02, 
	 1.2457642704e-01,  2.0360861719e-01,  4.9122225493e-02, -1.2445231527e-01,  2.1780718118e-02,  5.9744663537e-02,  2.2411376704e-03,  1.2252283096e-01, -2.0950308442e-01,  2.4985948205e-01, 
	 6.5095171332e-02, -6.0199044645e-02,  1.7608860135e-01,  1.2528233230e-01, -6.5575994551e-02,  5.9381913394e-02, -5.3954407573e-02, -5.0156027079e-02, -4.0806561708e-02,  8.1004053354e-02, 
	-3.8369126618e-02, -1.1908623390e-02,  6.2073199078e-03, -1.3092331588e-01, -1.3879530132e-01,  8.0888941884e-02,  8.3856604993e-02,  8.3470620215e-02,  2.8852485120e-02, -2.8623947874e-02, 
	-2.4706633389e-01, -1.5821379423e-01,  4.9808111042e-02, -1.6572557390e-02,  5.6970532984e-02, -8.7886713445e-02,  1.6118550301e-01,  1.1781541258e-01,  2.0463209599e-02, -2.4832189083e-03, 
	-6.9811850786e-02,  1.7880974337e-02,  1.0260535032e-01, -4.8379194923e-03,  4.6899588779e-03, -1.7357690632e-01, -4.1018570773e-03, -9.0812452137e-02,  6.2994047999e-02, -1.5177999437e-01, 
	-8.7524928153e-02, -1.1980108172e-01,  2.2401763499e-01, -1.4511243999e-01,  1.6013881564e-01,  2.0446497202e-01, -4.8948675394e-02, -6.9931179285e-02,  6.0971030034e-03,  2.5113346055e-02, 
	-2.2668606043e-01, -9.5835998654e-02,  3.1806346029e-02,  1.0225740261e-02,  1.1936321110e-01, -2.6155643165e-02,  2.2690817714e-01, -7.3249608278e-02,  1.5871554613e-01, -4.6681772918e-02, 
	 5.0548769534e-02,  5.2157840692e-03,  1.0807200521e-01, -1.5235013328e-02, -1.1417689174e-01,  2.8186852112e-02,  5.4316326976e-02, -2.3470703512e-02,  2.9537560418e-02,  3.7308305502e-02, 
	 1.5986923128e-02,  2.8063669801e-02, -1.1653131805e-02,  4.2951181531e-02, -9.1239348054e-02, -6.6653303802e-02, -2.4761064351e-01, -7.9841613770e-02, -1.0383027047e-01,  2.8364012018e-02, 
	 1.4496778604e-03, -5.3498666734e-02,  1.3038046891e-03,  4.3248668313e-02, -7.9811982810e-02,  5.0710439682e-02,  6.8125091493e-02,  1.3811999559e-01,  1.1460847408e-01,  5.8024977334e-03, 
	 2.8235966340e-02, -6.5146312118e-02, -1.4474911988e-01, -3.0882881954e-02, -1.5025380068e-02,  2.9231470823e-01,  5.1766362041e-02,  1.7378844321e-02, -3.1357355416e-02,  5.3632352501e-02, 
	 1.5859882534e-01, -1.0304357857e-01,  5.4317083210e-02,  1.1534241587e-01,  6.7832931876e-02,  7.8854970634e-02,  2.4437393248e-01, -6.5724946558e-02,  1.1051978916e-01,  1.8063107133e-01, 
	-1.7817394435e-01, -3.0989333987e-01,  1.4170776308e-01,  2.2826250643e-03,  2.0723941922e-01,  6.2886990607e-02,  1.0895760357e-01, -1.0501089692e-01, -1.5090303123e-01, -4.8339232802e-02, 
	 5.4035611451e-02, -2.2462022305e-01, -4.0552482009e-01,  2.1490211785e-01, -2.6700809598e-02, -1.9555640221e-01, -5.6246977299e-02,  2.8113879263e-02,  1.5061083250e-02, -1.2086004019e-01, 
	 8.1155337393e-02, -9.8923496902e-02,  3.0134862289e-02, -4.2692076415e-02,  1.9588860869e-01, -3.0197586864e-02, -1.0214520991e-01, -4.5412164181e-02,  1.1968647689e-01, -5.6502971798e-02, 
	 5.2377048880e-02,  7.7764876187e-02, -1.5830038115e-02,  1.7431981862e-02,  1.6084648669e-01,  1.3603520347e-04, -5.3642529994e-02, -9.9858313799e-02, -2.3815278709e-01,  1.7274725437e-01, 
	-1.0889296979e-01,  3.3067889512e-02, -5.0381325185e-02, -9.7514636815e-02, -3.3985670656e-02, -1.3089779019e-01, -1.5251134336e-01,  1.0083361529e-02,  6.4848567126e-04, -7.8665595502e-03, 
	-4.6519596130e-02,  2.1338897943e-01, -1.3578166254e-02, -8.4279343486e-02, -2.0425237715e-02, -4.7023659572e-03,  3.0002895743e-02, -1.8168009818e-01,  9.7196593881e-02, -3.6714542657e-02, 
	 1.4328874648e-01,  2.6374091394e-03, -8.0572366714e-02,  3.3173099160e-02,  7.4835292995e-02,  6.1092700809e-02, -1.0462378711e-01, -8.1877537072e-02,  1.2495802343e-01, -1.1694278568e-02, 
	-1.6267015040e-01,  7.5647413731e-02,  7.8294090927e-03,  3.0230466276e-02, -1.9792860374e-02, -8.3236627281e-02,  1.8971709535e-02, -7.1569614112e-02, -7.9754829407e-02, -1.3195636868e-01, 
	 4.1317794472e-02, -2.2292166948e-01,  7.6333910227e-02, -5.4952423088e-03,  1.9427739084e-01,  8.4487684071e-02, -9.0186454356e-02,  6.0819052160e-02,  5.0046987832e-02, -1.6894419491e-01, 
	-9.4627156854e-02, -5.4548434913e-02,  2.5703014806e-02,  2.0109099150e-01,  1.6262489557e-01,  1.2755107880e-01,  2.4750461802e-02,  1.0647855699e-01,  1.3200194575e-02, -2.2662518919e-01, 
	-2.7484706044e-01,  3.7032991531e-04, -7.7912546694e-02, -8.7386824191e-02, -1.9820904359e-02, -3.2874528319e-02, -1.9022215903e-01, -1.4725364745e-01,  9.7658783197e-02,  7.0334590971e-02, 
	-1.3254119083e-02, -3.0472632498e-02,  1.6506981850e-01, -4.0481094271e-02,  3.8849818520e-03,  5.0475142896e-02,  1.0380097479e-01, -2.6413932443e-01,  1.6788095236e-01,  2.6009920985e-02, 
	-2.9540729523e-01,  1.3505104184e-01, -3.4956213087e-02,  1.7798911035e-01, -2.1536719054e-02, -7.7727978351e-04,  1.3434106112e-01, -2.4138564244e-02, -4.4488616288e-02, -1.1434724182e-01, 
	-4.3850176036e-02, -7.3299363256e-02,  1.6633808613e-02,  5.0413791090e-02, -2.3992057145e-01,  3.5103883594e-02,  6.4656049013e-02, -1.0331092635e-03,  1.6103531420e-01, -1.5540145338e-01, 
	 4.3599079363e-03, -3.5246185958e-02,  1.0944493115e-02, -2.3468354717e-02,  1.2111910433e-01, -3.1052717939e-02, -2.8397701681e-02,  8.2548543811e-02, -2.2468468174e-02,  2.9472827911e-02, 
	-6.2104366720e-02, -1.0076657683e-01, -4.7566190362e-02,  3.0485692620e-01, -3.7334844819e-04,  4.7496590763e-02,  2.2092102095e-02, -7.4137099087e-02,  1.0496005416e-02, -1.4596752822e-01, 
	-3.2950225472e-01,  2.7693975717e-02,  6.4746074378e-02,  7.3834016919e-02,  8.8478609920e-02,  5.4421432316e-02, -1.0507879406e-01,  1.3726644218e-01,  9.9442087114e-02,  1.4835289121e-01, 
	 1.0931675881e-01, -4.0505725145e-01,  6.7753638141e-03, -1.5428407490e-01,  3.2406967878e-01,  1.2626840174e-01,  2.1751222666e-03, -8.0113165081e-02,  9.2970862985e-02,  1.8054589629e-02, 
	-1.1903931201e-01, -1.1821921915e-01, -2.0209223032e-01, -1.1350370944e-01, -1.1009321362e-01,  8.2043536007e-02,  1.6068832576e-01,  4.3947521597e-02,  1.4911825955e-01, -1.2757435441e-01, 
	-1.1273206770e-01, -1.5989062190e-01,  9.1904178262e-02,  6.4150691032e-02,  2.5403499603e-02, -3.4076268785e-03, -2.3780038953e-01, -1.5346036293e-02, -1.1407321319e-02,  2.5694064796e-02, 
	 6.8186551332e-02, -1.4138212427e-02,  1.6380566359e-01,  1.0463521630e-01, -1.0081145912e-01, -2.0209354162e-01,  6.5818168223e-02, -3.6297351122e-02, -4.7311846167e-02, -2.6008484885e-02, 
	-4.2110338807e-02,  4.1083704680e-02, -4.7279592603e-02, -8.6897745728e-02, -9.2612877488e-02,  1.3237030804e-01, -1.9507950172e-02, -1.5176010132e-01, -1.8153658602e-03, -4.3982248753e-02, 
	-1.4137908816e-01,  4.5039817691e-02,  1.8553344533e-02, -6.7450739443e-03,  7.7293545008e-02,  5.0641279668e-02, -1.8898166716e-01,  2.5782156736e-02, -1.2329941243e-01, -1.0539884120e-01, 
	 2.1150512621e-02,  2.5951791555e-02, -5.3898345679e-02,  3.8897648454e-02,  4.0931824595e-02,  2.2984933108e-02,  7.2452671826e-02, -3.8190271705e-02, -5.8224622160e-02,  7.3537722230e-02, 
	-2.2122159600e-01,  1.3891649246e-01,  4.7021042556e-03,  1.9854342937e-01, -1.3255049288e-01, -4.3794441968e-02,  1.0351410508e-01, -6.4733892679e-02,  1.0042000562e-01, -8.4916472435e-02, 
	-1.1225862801e-01,  2.5394145399e-02, -2.7378652245e-02,  4.1958659887e-02, -1.3273815624e-02,  3.9148878306e-02,  1.0465013236e-01,  1.9340071082e-01,  3.3359233290e-02,  3.5456698388e-02, 
	 1.9352708757e-01,  2.0198793709e-01,  1.1976530403e-01, -7.2957172990e-02,  1.9412986934e-01, -3.0742457509e-01,  7.6932370663e-02, -7.5093351305e-02,  3.7341691554e-02, -3.9582032710e-02, 
	 2.3819386959e-01,  1.7478208989e-02,  8.1268117356e-05,  7.7524125576e-02,  4.1940137744e-02,  1.9643129781e-04,  9.3622401357e-02, -7.6472968794e-03,  1.4351970516e-02, -9.0532183647e-02, 
	-5.1756903529e-02, -1.6780031845e-02, -1.4476311207e-01, -7.0178784430e-02, -1.1109786481e-01,  3.6165431142e-02,  9.7227320075e-02, -1.5849658847e-01, -1.8596953154e-01,  1.8760627508e-01, 
	 1.2785084546e-01, -6.3018113375e-02,  7.0268154144e-02, -2.3147445172e-02, -1.4434398618e-03,  1.1903909035e-02, -6.2417414039e-02, -2.4973653257e-01,  8.2757011056e-02,  4.6036522835e-02, 
	 7.0334047079e-02, -1.6986325383e-02, -7.6246857643e-02,  7.3737382889e-02, -1.4108011127e-01, -5.5480565876e-02,  2.0302990079e-01, -3.7661805749e-02,  9.0998291969e-02,  1.2768448889e-01, 
	 8.4998525679e-02,  3.9214469492e-02,  1.3708411157e-01,  2.9819837213e-01, -1.4581283927e-01, -9.0045988560e-02, -7.1435704827e-02,  1.1869186163e-01,  1.7052063346e-01, -1.6782818362e-02, 
	-2.1264273673e-02, -1.1191143095e-01, -3.7209749222e-02,  6.2086123973e-02,  1.7204183340e-01,  1.5250104666e-01, -3.5005161166e-01,  1.1001223326e-01,  1.1047791690e-01, -2.0531554520e-01, 
	-3.2041225582e-02,  2.6917662472e-02,  6.7327186465e-02,  1.0323660821e-01, -4.4302586466e-02, -5.0337072462e-02, -1.5517167747e-02,  6.3119240105e-02, -2.1251915023e-02, -9.8433315754e-02, 
	 1.9564291835e-01, -1.8441431224e-01,  9.4475045800e-02, -5.8781061321e-02, -2.2528906167e-01, -1.0683637112e-01, -1.4279191196e-01, -3.8565725554e-03, -2.9030072689e-01,  4.7599721700e-02, 
	 1.8645745516e-01, -1.5479123592e-01,  2.4282170460e-02,  4.6096209437e-02, -4.4368680567e-02,  2.5208640099e-01,  1.2780088186e-01, -1.2871828675e-01, -1.4367714524e-01,  1.1724381149e-01, 
	 9.7499407828e-02, -1.5136580169e-01,  3.0863335356e-02,  1.2924660742e-01, -3.9811141789e-02, -1.4513908327e-01, -9.6144430339e-02,  2.4918392301e-02,  2.2601571679e-01,  2.6960290968e-02, 
	 5.6657437235e-02, -1.1140163243e-01, -5.0560272939e-05, -1.1708389223e-01, -1.5480673313e-01, -4.7632902861e-03,  1.8045759201e-01,  5.3720433265e-02,  3.1934171915e-01, -1.1434470117e-01, 
	-2.1710501984e-02, -8.7949767709e-02,  7.7152051032e-02,  6.2613219023e-02,  1.7954222858e-01, -8.2514882088e-02,  1.9206608832e-01,  2.1608358622e-01, -7.0115670562e-02, -3.6926623434e-02, 
	 1.5153818764e-02,  1.4970411360e-01,  1.0065878183e-01, -1.6199102998e-01, -1.8395212293e-01, -1.8430368975e-02,  6.6090710461e-02, -3.0200134963e-02,  1.2641480565e-01, -2.1052634344e-02, 
	-3.2358903438e-02,  4.4937998056e-02,  2.7526140213e-02,  1.7870734632e-01,  1.1176015250e-02,  6.7848749459e-02,  1.2431124598e-01, -7.0218443871e-02,  3.8847122341e-02,  6.6262885928e-02, 
	 5.9952128679e-02,  2.2683961317e-02, -3.1808039546e-01,  1.5964791179e-01, -1.2231569272e-03, -5.1480814815e-02, -7.8308001161e-02, -1.0618934408e-02, -5.0494585186e-02, -1.0996099561e-01, 
	 8.7852582335e-02,  1.1120406538e-01, -8.4805831313e-02, -1.2166623026e-01,  9.9750801921e-02, -4.6298626810e-02,  1.0907768458e-01,  8.0486193299e-02, -1.2701995671e-01, -2.7789455652e-01, 
	-2.3882265668e-03,  1.7711916566e-01,  1.0156174004e-01, -6.8116523325e-03, -3.3811740577e-02, -7.0784166455e-02,  8.9729748666e-02,  1.2530899048e-01,  9.4722561538e-02, -6.3544042408e-02, 
	-3.3552777022e-02, -6.4156949520e-02, -6.1902552843e-02,  1.5140281618e-01, -9.8424248397e-02,  9.3334384263e-02, -1.5825723112e-01, -6.2258993275e-03, -6.0613472015e-02,  7.0240288973e-02, 
	-6.6358745098e-02,  3.6285206676e-02,  9.9730931222e-02,  9.8565883934e-02,  7.5773805380e-02, -8.2958817482e-02,  8.1794381142e-02,  2.2756181657e-02,  1.0101436824e-01,  1.6513378918e-01, 
	-1.6864709556e-02, -8.4290757775e-02, -4.8232026398e-02,  5.1130980253e-02, -4.5442000031e-02,  1.7453409731e-01,  1.4804323018e-01,  8.0800655996e-04,  2.0556174219e-02,  2.4534942582e-02, 
	-8.3073303103e-02,  1.4151501469e-02, -5.3864948452e-02,  6.5477766097e-02,  1.2417787313e-01, -1.5989400446e-01, -1.6720363498e-01,  2.3650148883e-02,  6.0644205660e-02, -1.7654362321e-01, 
	-1.5409508348e-01, -1.1407624185e-01,  4.7055028379e-02, -5.1053199917e-02, -2.6227692142e-02,  9.2659085989e-02,  4.5006368309e-02, -3.1326759607e-02,  4.9622156657e-03,  1.6838413477e-01, 
	 2.2785194218e-01, -3.4701950848e-02,  2.0852446556e-01,  1.6402502358e-01, -6.5678790212e-02, -2.2513456643e-01,  2.1484585479e-02,  1.1543704569e-01,  2.1813690662e-02, -6.9863229990e-02, 
	 7.8163612634e-03,  6.9532543421e-03, -8.3037428558e-02,  1.1351071298e-01,  3.5751499236e-02, -1.6906860471e-01, -1.6630227864e-01, -1.7754329368e-02, -1.2484809756e-01,  1.7071056366e-01, 
	 1.3085015118e-02, -3.2216772437e-02,  1.0524160415e-01,  2.4292589724e-01, -1.5638515353e-01,  8.9124135673e-02,  9.7631648183e-02,  7.0406489074e-02,  4.0644686669e-03, -6.0560118407e-02, 
	-2.7801975608e-02,  8.4509300068e-03,  6.5652062185e-03,  1.1344771832e-01,  1.6168285906e-01,  1.1183316819e-02, -9.0751506388e-02, -1.5053369105e-01,  2.9637401924e-02, -1.0810462385e-01, 
	-9.5870889723e-02,  4.8765171319e-02,  1.9859918952e-01,  6.2269508839e-02, -6.8362630904e-02,  4.8778261989e-03,  9.9127888680e-02, -6.4505085349e-02,  9.6469067037e-02,  5.2225757390e-02, 
	 2.3727485538e-01,  6.6800795496e-02, -6.6879689693e-02, -2.5507536530e-01, -1.2343034893e-01,  4.3675340712e-03,  2.1662262082e-01, -1.9471350312e-01,  1.0407443345e-01, -2.0396086574e-01, 
	 3.4576542675e-02, -1.2367732823e-01,  1.8119606376e-01,  3.2794076949e-02,  9.7916170955e-02,  7.2694763541e-02,  2.4242121726e-02,  1.0983081162e-01, -8.8982637972e-03,  1.3025638461e-01, 
	-2.2026462853e-01, -1.8078671396e-01,  7.1475263685e-03,  9.9346987903e-02, -1.5110982955e-01, -1.6088071465e-01, -8.1470170990e-03, -1.1220576242e-02, -2.6679137349e-01, -4.4880546629e-02, 
	 8.2812709734e-03,  1.8626510864e-03,  1.9578527659e-02, -7.5565055013e-02, -4.7594565898e-02,  1.5029966831e-01,  1.2045381218e-01,  1.9992509857e-02, -2.2974634171e-01,  7.6922044158e-02, 
	-8.4049589932e-03,  9.5110656694e-03, -1.4619773626e-01, -4.9131195992e-02,  3.8120783865e-02,  7.1313776076e-02,  1.2457215041e-01, -6.6976775415e-03, -1.4537166059e-01,  1.7443422228e-02, 
	-5.5180780590e-02,  2.2189445794e-02,  2.3269457743e-03, -2.5614676997e-02,  4.0109239519e-02, -2.3705168068e-01,  7.1715697646e-02,  1.1474907398e-01,  1.3931597583e-02, -1.9644850492e-01, 
	 9.6545169072e-05,  5.2028942853e-02, -7.0591911674e-02, -1.8702144921e-01,  3.2933775336e-02, -2.9637191445e-02, -4.3107010424e-02, -9.5322795212e-02,  3.2436692715e-01, -1.7650096118e-01, 
	-1.1264114082e-01, -1.0021411814e-02, -1.0417623073e-01, -5.5368002504e-02,  1.4684721828e-01,  1.0628353059e-01, -3.5401757807e-02,  5.0659060478e-02, -1.3984197378e-01, -9.5339879394e-02, 
	-3.5202805884e-03, -8.2177750766e-02,  2.0596748218e-02, -2.4203902110e-02,  8.7716214359e-02, -5.2067082375e-02,  1.0582685471e-01, -1.0537877679e-01,  4.8910770565e-02, -1.6649504006e-01, 
	 3.2804675400e-02, -7.5036813505e-03, -5.6239958853e-02,  7.9972945154e-02,  1.0006727278e-01, -3.9792422205e-02,  1.1687303334e-01, -1.9646060467e-01,  9.2799358070e-02, -1.0546792299e-02, 
	-2.3976949975e-02, -3.7799570709e-02,  3.8725849241e-02, -2.2349566221e-02,  1.7590411007e-01, -7.4341014028e-02, -4.1520565748e-02, -1.1264856905e-01,  4.4575013220e-02, -2.2800620645e-02, 
	 3.3312629908e-02,  1.8365021050e-01,  8.5060119629e-02, -4.7207180411e-02, -2.0428108051e-02,  9.9912412465e-02,  8.3371445537e-02,  1.2194526196e-01,  4.9377683550e-02,  1.2319796532e-01, 
	 1.3326534629e-01, -8.2874059677e-02,  1.4292968810e-01,  1.8110574782e-01, -2.3176531494e-01, -2.2984442115e-01,  3.2612898946e-01, -1.0203248262e-01,  1.8518233672e-02, -5.9859767556e-02, 
	-1.8826626241e-01, -9.9203564227e-02, -7.3639906943e-02, -7.4983760715e-02,  8.2764469087e-02,  2.9396122694e-01,  5.4526843131e-02, -7.2634719312e-02, -1.2561380863e-01,  1.2228277326e-01, 
	 8.3596587181e-02,  6.7856661975e-02, -1.8640461564e-01, -9.6715703607e-02, -1.3346470892e-01, -7.1879081428e-02, -1.1121399701e-01, -1.1960384250e-01, -9.3774579465e-02, -1.7180943489e-01, 
	-1.1388906278e-02, -1.3977595605e-02,  7.8474543989e-02, -1.0719016939e-01,  1.4590951800e-01,  2.2485136986e-01,  1.1227987707e-01, -1.1578506231e-01,  9.0999595821e-02, -3.8966350257e-02, 
	-3.4935429692e-02,  8.8016152382e-02, -2.8475466371e-01,  1.4223052561e-01, -3.0791191384e-02,  6.5308339894e-02,  5.5973406881e-02,  1.2261337787e-01,  2.0977193117e-01,  1.0088073462e-01, 
	-5.0211720169e-02, -1.4623549581e-01, -1.7949467525e-02, -1.7951758206e-01,  2.2110845894e-02, -4.1773241013e-02,  3.5522099584e-02,  1.2149757892e-01, -8.2772290334e-03, -1.1857683957e-01, 
	 1.1845446378e-01,  5.1418069750e-02,  1.1792866141e-01, -1.6756241024e-01, -2.8231564164e-01, -5.5119816214e-02, -2.0887467265e-01, -4.2803003453e-03,  1.1153482832e-02,  2.4094799533e-02, 
	 6.9595971145e-03,  8.6642690003e-02,  4.1836608201e-02, -1.5434330702e-01,  7.0839270949e-02, -7.0783987641e-02,  2.5781422853e-02,  8.6195468903e-02,  1.0018736124e-01, -1.2723201513e-01, 
	 1.2259094417e-01,  4.7967117280e-02,  9.9526904523e-02,  6.8191669881e-02, -1.0353020579e-01,  6.5184481442e-02,  6.6783241928e-02, -3.2463289797e-02,  1.8589016050e-02, -1.4837890863e-01, 
	-1.3305096328e-01,  3.1192168593e-02,  1.6805511713e-01, -4.7133294865e-03, -9.3156814575e-02, -1.9520576298e-01, -6.9824643433e-02, -3.2973998785e-01, -4.7134347260e-02,  6.5322034061e-02, 
	 1.3236359693e-02, -1.3824050128e-01,  3.5055052489e-02,  7.7192746103e-02, -1.2460739911e-01, -1.8059998751e-01, -3.5987678915e-02, -1.6100122035e-01,  1.7870073020e-01,  2.6602650061e-02, 
	-2.6074426249e-02, -2.4869482219e-01,  1.0491859168e-01, -6.5821178257e-02, -1.1811533570e-01,  8.5251837969e-02,  2.9391717166e-02, -1.6736747324e-01, -2.4051949382e-01,  8.9352138340e-02, 
	 1.6626362503e-01, -1.7362127081e-02, -1.3165178895e-01, -3.5132110119e-02,  1.5755032003e-01,  1.4906184375e-01,  6.0168899596e-02,  3.9276711643e-02, -9.8190344870e-03, -9.1763913631e-02, 
	-1.2133850157e-01,  7.6351851225e-02,  7.9325035214e-02, -2.2847136483e-02, -4.7459237278e-02,  8.4672775120e-03, -1.5363569558e-01,  7.3185674846e-02,  1.0002332181e-01, -4.2078197002e-02, 
	 7.6795652509e-02, -1.8982160091e-01, -3.8634959608e-02, -4.0495336056e-02,  8.2039818168e-02, -1.6554374993e-01,  1.4585144818e-02, -2.7778044343e-02,  1.1782232672e-01, -8.0495335162e-02, 
	-1.9581088796e-02,  1.8770111725e-02,  4.1893597692e-02, -6.4828563482e-03, -2.8549650684e-02, -1.0388225317e-01, -7.2835117579e-02, -8.5312118754e-03, -7.5381658971e-02,  2.0308262110e-01, 
	 2.0425449312e-01, -7.6046533883e-02, -1.0596367717e-01, -1.0201179236e-01,  5.8433111757e-02,  2.9570514336e-02, -1.3395728171e-01, -1.3471363485e-01,  5.8527109213e-03,  1.4267903566e-01, 
	 4.3514914811e-02, -4.2261481285e-03, -8.5536465049e-02,  9.6251275390e-03,  2.2238634527e-02,  8.7742418051e-02, -1.5537877381e-01, -1.5515035391e-01, -1.3648858666e-01, -9.4182088971e-02, 
	 1.1082350463e-01,  4.5649964362e-02, -1.4821120538e-02, -1.1949253967e-03, -1.2876450084e-02, -6.0983899981e-02, -4.6123407781e-02,  9.3690499663e-02, -1.3811741769e-01, -1.8630187213e-01, 
	 2.7857236564e-02,  7.7844813466e-02, -8.8057167828e-02, -1.5727970749e-02,  1.3464073837e-01,  7.1869686246e-02, -1.1634907871e-01, -3.9091583341e-02, -3.0135795474e-02,  6.8030371331e-03, 
	-2.7645722032e-02,  6.1621248722e-02,  7.6339165680e-03, -1.0775036365e-01,  1.0814103484e-01,  2.1494941786e-02, -1.7095737159e-01, -9.2532113194e-03, -2.1257315576e-01, -9.2185206711e-02, 
	-1.0755525529e-01,  1.1289292574e-01,  2.8784878552e-02,  2.2255634889e-02, -8.5071109235e-02,  9.4096206129e-02, -1.0476181656e-01,  7.2457000613e-02, -4.3178621680e-02,  1.1970655993e-02, 
	-3.2166130841e-02,  7.6340809464e-02,  1.8226630986e-02,  2.2719342262e-02, -1.2459818274e-01, -1.3034603558e-02, -1.4393433928e-01,  8.0905184150e-02, -8.4492042661e-02, -7.5104990974e-03, 
	 8.2159321755e-03,  2.3315146565e-01,  2.3169126362e-02,  3.4335609525e-02, -2.3285201751e-03, -1.2144308537e-01, -2.0377410576e-02,  4.1068620980e-02, -2.0233341493e-03,  1.5493968129e-01, 
	-1.5305054188e-01,  3.6992255598e-02, -9.4213567674e-02,  1.1945421994e-01, -2.1368154883e-01, -1.4368166029e-01,  6.7658886313e-02, -1.2163364887e-01,  9.1070130467e-02,  4.9661386758e-02, 
	 8.5552791134e-03,  1.6873065382e-02,  6.5343938768e-02, -9.3124806881e-02,  3.1388502568e-02, -5.6008063257e-02, -1.1312867701e-01,  4.8035919666e-02, -9.2342920601e-02,  7.8271843493e-02, 
	-3.3423911780e-02, -2.5382438302e-01,  1.1412790045e-02, -1.4027291536e-01, -3.2814919949e-02,  1.1692409217e-01, -8.0031804740e-02,  6.6270619631e-02,  7.6971650124e-02,  1.6405281425e-01, 
	 9.9993295968e-02, -1.6139486432e-01, -3.2477222383e-02, -3.9769981056e-02,  1.5514977276e-01, -9.4592750072e-02,  8.7143257260e-02,  1.2607843615e-02,  3.9511866868e-02, -9.8662830889e-02, 
	 7.2247043252e-02,  1.2161485851e-02, -9.2399949208e-03, -2.3712402210e-02,  2.0724924281e-02, -1.0127373785e-01,  5.9907305986e-03,  6.3742464408e-03, -1.7032116652e-01, -9.3809351325e-02, 
	 1.3219964504e-01,  1.5895816684e-01, -1.1023299396e-01,  7.1063071489e-02,  1.1681707948e-01,  3.9954289794e-02, -1.2864851952e-01,  1.2135764956e-01, -4.0525447577e-02, -1.9761960953e-02, 
	 3.4787204117e-02, -4.5490536839e-02, -1.2762628496e-01,  2.1852316335e-02, -3.6273662001e-02,  5.8568441309e-03,  1.0759068280e-01,  1.1336272582e-03,  5.7848617435e-02, -4.6073183417e-02, 
	-1.5469436347e-01, -7.6020859182e-02, -2.6902180910e-01,  2.2261595726e-01, -8.2050025463e-02, -6.9651424885e-02, -8.7675191462e-02, -1.0271400213e-01, -2.0019989461e-02, -7.0045031607e-02, 
	-9.0020336211e-04,  3.9576906711e-03,  7.5418561697e-02,  5.5680785328e-02, -1.4471291564e-02, -9.5118373632e-02,  7.6964616776e-02, -1.4356560074e-02, -1.6729618609e-01, -2.6336759329e-01, 
	-1.2513339520e-01, -3.4727424383e-02, -8.8234573603e-02,  2.2125702351e-02, -2.3848447204e-01, -8.1861115992e-02,  5.3894132376e-02, -7.1015179157e-02,  1.5285381675e-01, -1.3800072670e-01, 
	-1.9785626233e-01, -5.3238522261e-02, -5.2525378764e-02, -9.1457337141e-02, -2.1272358298e-01, -1.1060092598e-01, -1.3048109412e-01, -1.3693277538e-01, -1.0940310359e-01, -1.7900474370e-01, 
	 2.6741983369e-02, -3.9011817425e-02, -3.4124370664e-02, -7.7409632504e-02, -1.7507739365e-01, -7.9976543784e-03,  3.1428897637e-04,  2.2012971342e-02,  5.4583530873e-02,  8.8665244402e-04, 
	-1.9171278179e-01, -1.2953881919e-01,  2.4446098506e-01,  1.3532455266e-01, -8.7558925152e-02, -1.9086446613e-02, -4.5400876552e-02,  3.3773234487e-01, -9.4768263400e-02, -5.7987146080e-02, 
	 8.2006983459e-02, -4.0497422218e-02,  8.0349773169e-02,  1.6824892163e-01, -2.9356717132e-03, -1.3878241181e-01,  4.4695440680e-02,  1.8195945304e-03, -8.4711043164e-03, -8.0278016627e-02, 
	-7.5891926885e-02, -1.3437177241e-01,  1.0103604291e-03,  1.3946649432e-01, -9.7988657653e-03, -1.2149529904e-01,  8.2963027060e-02,  3.0895959586e-02, -7.4073307216e-02,  1.1505893432e-02, 
	 4.8727225512e-02,  1.4193053544e-01,  7.4188955128e-02,  7.7419228852e-02, -2.6099633425e-02,  1.0193144530e-01,  2.5657047518e-03,  9.4437241554e-02, -9.1079302132e-02, -5.4401151836e-02, 
	 2.8225043416e-01, -2.1628774703e-01, -1.7263358459e-02, -9.5496967435e-02,  3.2845195383e-02, -2.0627906919e-01, -9.2779472470e-02, -1.4762727916e-01,  9.9641174078e-02, -2.0153971389e-02, 
	 6.7565351725e-02, -1.1201119982e-02,  1.2582119554e-02,  2.7462309226e-02,  2.3344075307e-03,  7.8015863895e-02,  1.4120303094e-01,  3.1650252640e-02, -7.3442198336e-02, -9.5844529569e-02, 
	-8.6104452610e-02, -5.1257614046e-02,  7.9576618969e-02,  9.8653873429e-03, -9.1268181801e-02,  1.2741410732e-01,  3.9876800030e-02, -5.2558798343e-02, -2.2359870374e-02,  1.4275059104e-01, 
	 1.1896506883e-02,  1.1372408271e-01, -1.1295493692e-01,  1.6080409288e-01,  6.2165178359e-02, -3.1458004378e-03,  1.0980934650e-01, -2.5212617591e-02, -1.4820411801e-02,  1.8948022276e-02, 
	-7.0558138192e-02, -6.0908153653e-02, -1.1611331254e-01,  2.1625382826e-02,  1.5858640894e-02, -2.4166835845e-01, -5.1867622882e-02,  9.6682131290e-02, -1.7505936325e-01, -1.8949989974e-01, 
	 1.6493673623e-01,  1.8451650441e-01, -6.1047222465e-02,  4.6299759299e-02, -7.0585213602e-02,  1.1557248235e-01, -1.2530291080e-01, -1.6110043228e-01, -6.7222021520e-02, -1.4639332891e-01, 
	-1.2320267409e-01,  3.3280480653e-02,  2.4798840284e-02,  1.5258052945e-01, -7.4347957969e-02, -6.1181575060e-02, -2.0929729939e-01,  1.1160821468e-01,  2.4008767679e-02,  8.7611474097e-02, 
	-5.9661999345e-02,  6.0853242874e-02, -1.3892260194e-01, -7.1678884327e-02, -1.5039373934e-01,  4.2632140219e-02,  4.3059553951e-02, -2.8124274686e-02,  1.0512387380e-02, -2.7103001252e-02, 
	 4.9263867550e-03, -2.1103944629e-02,  7.1626581252e-02,  1.5861400962e-01, -1.3426604867e-01,  9.4052411616e-02, -9.5895543694e-02,  2.0546108484e-02,  5.2452709526e-02, -1.5765851736e-01, 
	 1.1012209579e-02,  3.6722831428e-02,  4.5789867640e-02, -4.4526122510e-02,  5.0770170987e-02, -2.3212939501e-01,  4.2185917497e-02, -8.3386331797e-02,  6.9255329669e-02, -1.5873485804e-01, 
	-3.4008372575e-02, -5.0362057984e-02, -1.1681932956e-01,  5.1237759180e-03, -2.0587711036e-01, -1.5327116847e-01,  1.5351203084e-01, -7.9063907266e-02, -2.3357820511e-01,  5.0067435950e-02, 
	-3.8129386306e-01,  7.2942115366e-02,  7.2211603401e-04, -1.8398554996e-02,  1.0571876168e-01,  9.6318908036e-02, -2.9125701636e-02, -1.6464772820e-01,  9.6631594002e-02, -1.7403636873e-01, 
	 1.1597773433e-01, -4.7252900898e-02,  3.9600726217e-02,  1.5187636018e-01, -8.7945856154e-02, -7.4154339731e-02, -1.2089844793e-01,  2.7740588784e-01,  1.5604451299e-01,  6.3101485372e-02, 
	 8.2864716649e-02,  4.3085534126e-02, -5.7040341198e-02, -6.5928615630e-02, -1.8801590800e-01, -2.8649538755e-01, -1.4498722553e-01,  1.2432978302e-01,  2.3950767517e-01, -4.9687094986e-02, 
	-1.4500303194e-02,  1.7605775967e-02,  1.9535574317e-01, -6.9025650620e-02, -2.9719455168e-02, -5.8623813093e-02,  2.5369662046e-01, -7.5900100172e-02,  8.6335815489e-02,  3.6093618721e-02, 
	-1.9243450835e-02, -1.1925599538e-02,  8.1727460027e-02,  8.1996500492e-02,  1.6137209535e-01, -1.1312032491e-01,  1.1521203071e-01, -5.6145917624e-02,  6.8050630391e-02, -1.3496302068e-01, 
	-5.4822623730e-02,  1.3061098754e-01,  9.9144391716e-02,  1.7394483089e-02, -9.0567566454e-02,  1.7450146377e-01, -7.0399053395e-02, -4.5881967992e-02, -1.1724036932e-01,  1.9945950806e-01, 
	 6.4383400604e-03,  6.7577987909e-02, -4.7618307173e-02,  7.3765423149e-03, -7.3908634484e-02,  1.1513109505e-01, -5.3831283003e-02,  4.6176739037e-02,  9.8772004247e-02,  6.2048442662e-02, 
