#ifndef PARAMS_CONV2D_37_H
#define PARAMS_CONV2D_37_H
#include "params.h"

const float layer_37_conv2d_weight[UNET_PAR_37_CONV2D_KERNEL_Y*UNET_PAR_37_CONV2D_KERNEL_X*UNET_PAR_37_CONV2D_IN_FILTER*UNET_PAR_37_CONV2D_OUT_FILTER] = {
	-1.8862070516e-02, -1.6794726253e-01, -7.3542281985e-02, -2.2218570113e-01, -8.8729418814e-02, -7.0249058306e-02, -3.3064821362e-01, -3.3224049211e-01, -1.1134293675e-01,  1.0747952014e-01, 
	-1.5703943372e-01,  9.0933881700e-02,  8.0140847713e-03, -1.4956016093e-02,  4.0823563933e-02, -3.5106223077e-02, -2.9449686408e-02, -6.1601042747e-02,  3.6300778389e-02, -2.5586122274e-01, 
	-7.3913043737e-01,  2.0546308160e-01,  2.3454096913e-01,  6.8787969649e-02,  1.5976484120e-01,  1.8841493130e-01,  3.6549158394e-02,  7.7048704028e-02,  9.9049955606e-02, -2.3140920699e-01, 
	-7.1940787137e-02,  2.5197550654e-01,  1.6330699623e-01, -2.8213477135e-01, -5.2143320441e-02,  2.0488190651e-01,  2.3165875673e-01, -3.9620127529e-02, -5.0395261496e-02, -2.8616450727e-02, 
	 2.1586011350e-01,  2.2436389327e-01, -1.0622359067e-01, -6.5595626831e-02,  2.0628920197e-01, -7.2547964752e-02,  1.8257671595e-01, -1.9876535237e-01,  4.4839631766e-02,  3.4960827231e-01, 
	 4.1194383055e-02, -1.9690690935e-01, -1.1069690436e-01, -2.3790016770e-01, -7.0145398378e-02, -4.8240043223e-02, -9.8535738885e-02, -1.5300769359e-02,  1.6604016721e-01,  4.3431948870e-03, 
	 1.1174441874e-01, -3.7691015750e-02,  1.0396683216e-01,  1.1064645648e-01,  1.1391923763e-02,  6.9888152182e-02, -2.5058597326e-02,  9.5225907862e-02, -7.4410378933e-02,  2.2676047683e-01, 
	 8.1595934927e-02,  6.2225487083e-02, -9.5919007435e-03, -5.2099812776e-02,  1.3786938787e-01, -3.2667770982e-02,  7.6834470034e-02, -6.8560585380e-02, -2.0004003309e-03,  9.2147611082e-02, 
	 7.0680454373e-02, -1.0115470737e-01,  3.3572304994e-02,  1.3809126616e-01, -5.4533905350e-03, -6.1793876812e-03, -5.7206552476e-02, -8.2264401019e-02,  3.9911083877e-02,  3.6435309798e-02, 
	-4.7243941575e-02, -2.5007896125e-02, -9.9908232689e-02, -3.6939095706e-02,  2.1725721657e-01, -4.4035542756e-02,  6.4873747528e-02,  6.5504526719e-03, -5.2529737353e-02, -5.8928508312e-02, 
	-1.0493411124e-01,  2.0172189176e-01, -6.7304819822e-02, -2.5300431997e-02,  9.5350958407e-02, -6.6151015460e-02, -3.0983880162e-02,  4.3080624193e-02, -4.7113113105e-03, -1.4421451837e-02, 
	-3.3418569714e-02, -5.9087909758e-02,  1.1438450217e-01, -1.6038461030e-01,  1.3611143827e-01,  3.6776039749e-02, -1.9309859723e-02, -1.1835835129e-01,  1.1206758767e-01,  1.0208482295e-01, 
	 6.3490472734e-02, -1.6785243526e-02, -3.9232641459e-02, -1.4005800709e-02,  1.9231568277e-01, -7.5720727444e-02, -1.1329656094e-01, -1.9134293497e-01, -2.6998135448e-01,  4.4954296201e-02, 
	-1.5551945567e-01, -4.2548783123e-02, -1.9381467998e-01,  5.8709528297e-02, -1.3491445780e-01, -4.7396253794e-03,  1.0999870487e-02, -6.0353185982e-02,  3.9500650018e-03, -4.1602097452e-02, 
	 3.6187298596e-02,  4.6421315521e-02, -2.6002410799e-02,  7.7871731482e-03,  4.4692963362e-02,  1.2131090276e-02,  1.7049412429e-01, -9.4480469823e-02, -6.6337943077e-02,  2.8740102425e-02, 
	 6.8316602847e-04,  1.7172174528e-02,  3.2817059755e-01, -1.4330053702e-02,  1.9317710400e-01, -3.2236418128e-01,  7.6512902975e-02,  7.7842853963e-02, -4.7457650304e-02,  3.4987162799e-02, 
	-4.7501653433e-02, -1.2315814197e-01,  2.2874386981e-02,  1.0553652048e-01, -4.0726605803e-02,  5.1983028650e-02,  2.1632285416e-01, -7.0962221362e-03,  1.5217077732e-01,  2.2828160226e-01, 
	-8.5133954883e-02,  4.4938690960e-02, -4.5220211148e-02, -1.6789899766e-01, -8.4082214162e-03,  3.1093835831e-01, -1.5530449152e-01, -1.4792750776e-01, -9.1798268259e-03,  1.0274969041e-01, 
	 1.9002273679e-01, -6.5671481192e-02, -3.4307848662e-02,  1.3455122709e-01, -3.1344985962e-01,  2.8867372870e-01, -8.2571044564e-02, -2.5620064139e-01,  2.0157846808e-01, -2.9499741271e-02, 
	 2.7786602732e-03, -3.8956210017e-01,  1.7434261739e-01,  3.5656005144e-02, -1.8500843644e-01,  1.2160808593e-01,  1.2091314793e-01,  1.0922002047e-01,  7.5253196061e-02, -3.0503157526e-02, 
	 1.8692154437e-02, -1.1861401796e-01,  6.9914877415e-02, -5.8968015015e-02,  5.4545931518e-02, -7.7605642378e-02,  4.8167116940e-02,  2.1039536223e-02,  6.7684218287e-02, -3.7634145468e-02, 
	-7.6661251485e-02,  1.0536353104e-02, -5.2579086274e-02,  1.5591317415e-01,  7.0118889213e-02,  1.7914708704e-02,  9.3439549208e-02,  4.9174614251e-02, -5.9724777937e-02, -1.2117934972e-01, 
	-1.6756838188e-02,  6.4240656793e-02,  1.5967171639e-02,  1.2806721963e-02,  4.4683739543e-02,  7.1741148829e-02,  1.9416218996e-01, -9.0439394116e-02,  9.4213575125e-02, -1.7480814457e-01, 
	-1.0565634072e-01,  1.8920022249e-01, -1.6601791605e-02,  1.7526714504e-01,  7.2157301009e-02, -5.4591856897e-02, -5.6575056165e-02, -6.3537187874e-02,  1.3412798941e-01,  3.0645409133e-03, 
	 3.2133132219e-02, -2.8034498915e-02,  8.2023829222e-02,  2.1080482751e-02, -8.8419400156e-02, -2.2054757178e-01,  2.2235518694e-01,  2.2548240423e-01,  1.3065794110e-01, -1.5905778110e-01, 
	-1.5513817966e-01, -7.9163335264e-02, -2.7254286408e-01, -1.4652918279e-01, -2.4713037908e-01, -1.4936253428e-01,  4.8072077334e-02, -1.8527220935e-02, -6.6391684115e-02, -1.5374234319e-01, 
	 1.6525973380e-01, -5.5087633431e-02,  2.3428494111e-02, -4.3574739248e-02, -1.1522819102e-01,  3.5911645740e-02,  1.7246237025e-02,  8.3123184741e-02, -3.7931360304e-02, -2.8314035386e-02, 
	-8.1889957190e-02,  6.2326386571e-02, -2.0391833782e-01, -5.3215626627e-02,  2.1360835433e-01,  1.0241024196e-01,  1.0855469853e-01,  1.7276856303e-01,  4.1433474422e-01,  5.8020692319e-02, 
	-5.2133023739e-02,  6.9827124476e-02,  8.3749175072e-02, -1.1033410579e-01, -2.3210160434e-02, -3.4837778658e-02, -1.4246687293e-01, -5.3340315819e-02,  2.2847184911e-02,  1.3012276590e-01, 
	-1.2902434170e-01, -4.4147372246e-02, -2.7198754251e-02, -2.7504763007e-01, -1.0922507942e-01, -1.3371762633e-01,  6.0767278075e-02, -3.3572858572e-01, -1.1105355620e-01, -1.9287392497e-01, 
	 1.4755110443e-01,  1.5588481724e-01,  8.7039217353e-02,  7.7705793083e-02,  1.1357434839e-01,  9.4004280865e-02, -2.1832334995e-01, -4.3102029711e-02, -2.3837883770e-01, -5.0037030131e-02, 
	 2.7103519440e-01, -3.9052170515e-01, -3.9858903736e-02,  2.3291426897e-01, -1.5763317049e-01, -1.9225163758e-01, -2.0218023658e-01, -3.7117801607e-02,  8.1190340221e-02, -2.9087230563e-01, 
	-1.5436589718e-01,  1.6191776097e-01, -2.8857094049e-01, -2.4395157397e-01,  6.4306676388e-02,  1.8543966580e-03, -1.3926847605e-03,  2.2604452446e-02, -9.1042608023e-02,  8.1711441278e-02, 
	-1.4528200030e-01,  1.1026291549e-01,  2.6274314150e-03, -3.5508617293e-03, -5.5995423347e-02,  1.1918879300e-01,  5.1909351349e-01, -8.7482362986e-02,  5.3046584129e-01,  4.6563223004e-01, 
	-5.2729003131e-02,  1.8858675659e-01, -3.7523686886e-01, -2.8352686763e-01, -6.8464383483e-02, -2.0822907984e-01, -2.9437476397e-01, -2.5765158236e-02,  1.7634978890e-01, -1.9147233665e-01, 
	-7.1676746011e-02, -2.8340393305e-01, -2.0224907994e-01, -1.6224473715e-01,  9.5523975790e-02, -1.6834926605e-01,  6.9908291101e-02,  1.5205202997e-01, -1.6999675333e-01, -9.7285248339e-02, 
	-4.5627984405e-01, -4.3556722999e-01,  1.0586213320e-01, -4.4448906183e-01, -2.5288128853e-01,  2.3063400388e-01, -1.0754580051e-01, -5.1984512806e-01,  2.8744229674e-01, -2.5335428119e-01, 
	-5.8678958565e-02,  2.2112766746e-03,  6.3446372747e-02, -1.6279210150e-01,  2.7385514975e-01,  2.3882539943e-02, -2.9307121038e-01,  1.0305538028e-01,  1.8723707646e-02, -1.5216720104e-01, 
	-9.7181424499e-02,  5.6338412687e-03, -5.7454954833e-02,  2.6106049772e-03, -1.9129621983e-01, -4.1583187878e-02,  1.3550888002e-01,  7.6831109822e-02,  1.5400226228e-02, -4.0269754827e-02, 
	-1.3484545052e-01, -4.7093234956e-02,  9.5807358623e-02,  6.7189544439e-02, -3.7275366485e-02, -1.3446983881e-02,  1.3299678266e-01,  8.8567785919e-02,  2.6684683561e-01,  6.9807791151e-03, 
	-1.6722662747e-01,  1.0893756151e-01,  5.1418230869e-03, -8.2049161196e-02,  2.9386265669e-03, -4.2595859617e-02, -1.8071492016e-01,  2.1491166949e-01, -5.5683434010e-02,  8.1930354238e-02, 
	 1.3921989501e-01,  3.7529175170e-03,  4.0291145444e-02, -1.7713421583e-01, -8.8189244270e-02, -1.9843439758e-01,  1.5613119304e-01, -1.3737070560e-01, -1.3327996433e-01,  9.6871629357e-02, 
	-3.8860421628e-02,  1.3906345703e-02,  9.6084102988e-02, -1.4754666388e-01,  6.9368198514e-02,  9.8950088024e-02, -3.7795137614e-02,  5.4584057070e-03,  4.7367382795e-02, -1.0781491548e-01, 
	-6.9478109479e-02,  4.2035415769e-02,  9.9345944822e-02, -8.7416797876e-02,  1.3430236280e-01,  6.3153028488e-02, -8.2997135818e-02, -5.7487696409e-02, -1.2276042253e-02,  1.1698303372e-01, 
	-1.0626533628e-01, -2.6844653487e-01, -1.0392670333e-01, -1.1609191447e-01, -8.2955241203e-02, -3.8679365069e-02,  4.8875650391e-03, -1.2434124202e-01, -1.4226022363e-01,  7.3633655906e-02, 
	 4.3323971331e-02, -4.1467014700e-02, -5.4121613503e-03, -1.0444100015e-02, -4.4650364667e-02,  1.2979616225e-01,  7.1401312947e-02,  5.6113682687e-02, -1.7884448171e-01, -2.8272783756e-01, 
	 3.9589736611e-02,  2.6019716263e-01, -2.3397651315e-01, -1.5629148111e-02,  2.9992625117e-01, -1.7824873328e-01, -1.1645684391e-01, -8.6368985474e-02, -6.0210242867e-02,  1.8287604908e-03, 
	-1.3336372375e-01, -2.9643394053e-02,  3.0968001112e-02,  1.9887167215e-01, -8.8734745979e-02, -1.9918523729e-01,  3.2329622656e-02, -4.7550059855e-02,  8.4418490529e-02, -9.7960315645e-02, 
	 5.3011834621e-02, -6.6080242395e-02,  9.5939807594e-02, -1.7944690585e-01, -1.6460458934e-01, -1.7338631675e-02, -2.5037932396e-01, -2.2972788662e-02, -3.4752402455e-02,  6.5386436880e-02, 
	 5.6632113410e-04,  2.1041610837e-01, -5.5733986199e-02,  4.4571124017e-02,  1.3226433098e-01, -5.4181200266e-01, -1.7241770029e-01,  4.3288141489e-02, -2.9587566853e-01, -6.9494806230e-02, 
	 4.3615052104e-01, -2.6227650046e-01,  2.2333069146e-01,  4.5897918940e-01,  1.3663633168e-01, -1.5332655050e-02, -7.1362271905e-02, -1.8238392472e-01,  1.5114979818e-02, -2.2347788513e-01, 
	-4.7299033403e-01, -3.4213432670e-01, -4.7895267606e-01,  1.1284688860e-01,  3.6777697504e-02, -6.1003547162e-02,  3.2203659415e-02,  4.3441139162e-02, -1.5005600452e-01, -5.0846632570e-02, 
	 1.3976703398e-02, -2.4760764092e-02,  9.5512559637e-03,  2.8834031895e-02, -1.2604077160e-01, -1.8302749097e-01,  3.1936994195e-01,  1.5154425800e-01, -8.1635698676e-02,  1.3440570235e-01, 
	 5.7533279061e-02,  4.2598936707e-02,  6.7530241795e-03, -5.9336747974e-02, -9.6743525937e-03,  4.9141734838e-02,  1.7025753856e-01, -2.3378384113e-01, -3.9269965142e-02, -1.2893395126e-01, 
	 1.5580484271e-01,  1.1583552510e-01, -1.1912263930e-01, -1.6914491355e-01,  3.1686364673e-03, -7.6938733459e-02, -3.1133860350e-01, -3.4058767557e-01, -1.4343275130e-01, -1.9704572856e-02, 
	 4.8921573907e-03, -4.6652190387e-02, -2.2923123091e-02,  3.7435474992e-01, -1.5074834228e-01, -1.2495849282e-01,  1.3359118998e-01, -1.5813073516e-01, -8.0322587490e-01, -2.3497152328e-01, 
	-2.7107596397e-01, -2.6066032052e-01,  1.1755891889e-01,  4.8385102302e-02,  7.9164713621e-02,  4.8742452264e-01,  8.2124471664e-02,  1.4124891162e-01, -4.6857558191e-02,  7.9081825912e-02, 
	 1.6337583959e-01,  2.8242954984e-02, -4.6272814274e-02,  8.0223672092e-02,  7.4975036085e-02,  9.3692608178e-02, -5.0656277686e-02, -2.6954665780e-02,  2.0440238714e-01, -4.3994497508e-02, 
	 1.2200181186e-01, -8.2910478115e-02,  1.1021492071e-02,  1.2996201217e-01,  1.6420876980e-01, -2.3131145164e-02,  9.5541864634e-02,  4.4454136491e-01, -3.4786352515e-01, -1.5520513058e-02, 
	 1.3688847423e-01, -1.4640125632e-01, -4.7089558095e-02, -3.1054278836e-02,  3.4272566438e-02, -1.2532411516e-01, -2.7660200000e-01,  3.5214748234e-02, -4.3140244670e-03,  7.6895281672e-02, 
	-1.0621440597e-02, -3.1239163131e-02,  2.8101253510e-01,  6.1881616712e-02, -1.0729597881e-02,  2.9267677665e-01,  1.5696296096e-01,  2.0564077795e-01,  3.9719857275e-02,  2.3545499891e-02, 
	-4.3339580297e-02,  2.9219308496e-01,  3.1251579523e-02, -1.6707861796e-02,  7.4332371354e-02,  5.2207607776e-02, -7.6390527189e-02,  7.5301259756e-02, -1.6618677974e-01, -8.8318679482e-03, 
	 8.4682200104e-03, -4.5369852334e-02,  2.1693691611e-02,  2.0215807483e-02,  3.5814639181e-02, -9.3116670847e-02,  5.9605274349e-02,  2.4506552517e-01, -1.8440706655e-02,  4.6964921057e-02, 
	 1.1655501276e-01,  1.4111407101e-01,  1.0893680155e-01, -9.1373650357e-03, -1.3769410551e-01,  1.8944865093e-02, -1.5778023005e-01, -3.8297403604e-02,  1.0088334233e-01, -8.7831340730e-02, 
	 1.0576175153e-01,  1.8366450071e-01, -7.4688956141e-02,  5.3343631327e-02, -7.0219621062e-02,  7.4635073543e-02,  1.2356315553e-01,  2.7106332779e-01, -1.4344207942e-01,  1.6080868244e-01, 
	 1.9015799463e-01,  4.3698381633e-02, -7.9613697017e-04,  2.7599045634e-01, -5.3668197244e-02, -1.0971762985e-01,  5.0534032285e-02, -1.7849344015e-01, -1.3113953173e-02, -3.8183663040e-02, 
	 1.3179376721e-01, -1.2097494304e-01, -9.9766880274e-02,  1.8248464167e-01, -6.5940506756e-02, -7.8153751791e-02,  3.2839715481e-02,  2.2003406286e-01,  3.6555659771e-01, -1.2279408425e-01, 
	-9.4858556986e-02,  6.9078549743e-02,  1.1512692086e-02, -1.4057186246e-01,  3.6033861339e-02, -1.3783783652e-02,  7.3918186128e-02,  5.5675201118e-02,  2.3477582261e-02, -1.9084125757e-01, 
	-8.4817841649e-02,  4.3958965689e-02, -3.0395093560e-01, -3.8823619485e-01, -2.8199604154e-01,  1.1529213190e-01,  1.7262127995e-01,  4.2667565867e-03,  1.6385731101e-01,  6.1076447368e-02, 
	 2.8964111209e-01,  1.3026712835e-01, -2.3431070149e-01,  3.0490258336e-01,  1.8582805991e-01, -5.1788026467e-03, -4.7385081649e-02,  2.3995903134e-01,  3.3180803061e-02, -2.5244843960e-01, 
	-1.1086992174e-01, -1.8491117517e-03, -1.0095023364e-01,  6.0352224857e-02,  1.2102761865e-01, -1.6575955087e-03,  3.6898188293e-02,  2.2633062676e-02,  3.8710325956e-02,  6.9857411087e-02, 
	 1.5129001439e-01,  7.3922194541e-02,  1.3270123303e-01, -1.7175190151e-02, -5.0036173314e-02, -1.2225450575e-01,  7.4143543839e-02, -1.5535458922e-01, -1.2943713367e-01,  1.1578571796e-01, 
	 2.1701397002e-01,  8.9014014229e-03, -2.4519000947e-01, -1.1036525667e-01, -1.3995436020e-02,  8.0558191985e-03,  1.9231489301e-01, -1.2410748005e-01, -4.0786922909e-03,  7.5603581965e-02, 
	 2.6725759730e-02,  3.6621838808e-02,  7.3724314570e-02,  2.6559861377e-02,  1.6341894865e-01, -4.3226808310e-02, -1.8661959469e-01, -3.5220421851e-02,  3.6199221015e-01, -5.3591416217e-03, 
	-1.4452427626e-01, -1.3209102675e-02,  5.9080550272e-05,  2.9625445604e-01, -2.3717878759e-01, -2.5050497055e-01, -2.6745551825e-01, -1.2253849208e-01,  8.1867627800e-02, -1.0690399259e-01, 
	-6.1975266784e-02,  6.6994957626e-02,  1.8160943687e-01,  1.7852883041e-01,  7.3395669460e-02,  3.1010914594e-02,  1.2436066568e-01,  1.2548005581e-01, -3.2652789354e-01, -1.0455697775e-01, 
	-1.7828380689e-02, -1.0068812966e-01, -4.8315620422e-01, -1.4356349409e-01, -1.8360538781e-01,  1.1146731675e-02,  1.0152572766e-02,  1.8750083400e-03, -9.7506623715e-03, -5.5129598826e-02, 
	 5.9120599180e-03,  3.5568300635e-02, -5.8521993458e-02, -1.8427848816e-02,  9.5510430634e-02, -4.0908765048e-02, -1.6744485497e-01,  1.9005398452e-01,  4.3837685138e-02,  2.7113595977e-02, 
	 4.3509891629e-01,  3.7871199846e-01,  2.7059042454e-01,  2.0418253541e-01,  4.1490122676e-02, -5.1506668329e-01, -5.4537408054e-02,  1.3042353094e-01, -3.6402055621e-01, -1.3533444703e-01, 
	-4.2203333229e-02,  9.0538866818e-02,  2.5407674909e-01,  2.4734079838e-01, -2.8699952364e-01, -2.2056214511e-01,  1.3790087402e-01, -2.0951308310e-01, -4.1559660435e-01, -6.6766321659e-02, 
	 2.4930197746e-02,  2.7176988125e-01,  6.3097700477e-02,  1.3860785961e-01, -2.0295816660e-01,  6.2533996999e-02,  1.1490387470e-01, -2.1614423394e-01,  1.8192763627e-01,  1.7137114704e-01, 
	 5.5227339268e-02,  9.9421516061e-02,  2.3135441542e-01, -1.1478526145e-01, -6.9456823170e-02, -3.3341723680e-01, -2.4754850566e-01, -1.3766819239e-01, -6.4503408968e-02, -1.4742177725e-01, 
	 7.7463313937e-02, -2.2480909526e-01,  1.2101808935e-01, -1.7822675407e-02, -1.9631494582e-01, -9.1918475926e-02, -3.1186042354e-02, -1.7481835186e-01,  1.0005447082e-02, -5.8321624994e-02, 
	 4.8113130033e-03, -4.6877615154e-02, -5.1063331775e-03,  3.8810174912e-02,  6.3332527876e-02, -6.6961564124e-02, -9.1591358185e-02,  1.5539109707e-01,  1.3781378977e-02, -1.9224292040e-01, 
	 4.0833255649e-01,  1.0368607193e-01,  2.4720290676e-02,  2.5939109921e-01, -2.7397138998e-02,  5.0521291792e-02,  4.4875491410e-02, -4.7415732406e-03, -8.9400745928e-02,  1.0958005488e-01, 
	 2.1059298515e-01, -1.1838085949e-01, -2.4995544925e-02,  1.3600918651e-01, -3.0869001150e-01, -7.1940706111e-03,  7.1683138609e-02,  8.8983409107e-02,  2.5602129102e-01, -4.0296379477e-02, 
	 1.7404982448e-01, -3.4296307713e-02, -5.5454663932e-02,  4.0973734111e-02, -2.7489387989e-01, -5.5900211446e-03, -3.8683820516e-02, -5.5043414235e-02,  1.9445624948e-01, -8.0139853060e-02, 
	-2.5542637333e-02,  9.9621266127e-02,  1.0741230845e-01, -1.6242662072e-01,  1.0082843900e-01,  6.4905188046e-03, -2.1486535668e-02,  4.2284713127e-03, -7.6561301947e-02,  2.2541439533e-01, 
	 7.9129956663e-02, -1.5354061127e-01,  1.0991344601e-01, -5.8989800513e-02,  1.4102138579e-01, -7.2998747230e-02,  9.3005754054e-02, -1.5476277471e-01,  1.0677300394e-01, -1.3374006748e-01, 
	 1.2334840745e-01,  2.9588206671e-03, -4.4420976192e-02,  1.3638692908e-02, -6.4286440611e-02,  7.1509487927e-02, -3.5540029407e-02,  7.5883299112e-02, -1.2385267764e-01,  3.0939666554e-02, 
	 3.3651527017e-02, -1.2502287328e-01, -3.3881552517e-02,  1.0226051509e-01, -4.0249843150e-02, -2.1932577714e-02,  1.2273921072e-01,  8.2434434444e-03, -2.4102654308e-02, -1.3213779032e-01, 
	 1.0501604527e-02,  9.5992431045e-02, -1.8398806453e-02,  9.3906529248e-02, -1.3920953870e-01,  3.0063683167e-02, -1.2905102968e-01,  1.3313934207e-01,  5.1981832832e-02, -7.1245856583e-02, 
	-3.1911954284e-02,  1.0072197020e-01, -1.4899440110e-01,  6.2348628417e-03, -3.7562556565e-02,  2.7601970360e-03, -2.0681429654e-02,  4.1912604123e-02, -1.7759812996e-02, -2.4515975267e-02, 
	-4.2240832001e-02,  2.8396386653e-02,  7.1548679844e-03, -3.2664723694e-02,  7.2642669082e-02,  4.0433984250e-03, -1.4354169369e-01,  8.1504859030e-02, -1.5351612121e-02,  1.5697120130e-01, 
	-3.6867048591e-02, -2.7344396221e-04, -2.0343062282e-01,  3.1511437148e-02,  9.4474881887e-02, -1.9807759672e-03,  1.6874335706e-01,  7.9885713756e-02, -1.8854558468e-01,  1.2848182023e-01, 
	-4.7774173319e-02, -1.2530931830e-01, -9.3635283411e-02,  1.2480370700e-01,  2.8194669634e-02, -6.5870851278e-02,  1.5702463686e-02,  4.4929381460e-02,  1.7169348430e-03, -1.7952630296e-02, 
	-1.0438259691e-01,  3.3742398024e-02,  8.0352593213e-03, -2.6764336228e-01, -1.4606752992e-01,  6.5188474953e-02, -6.2344193459e-02,  4.5630950481e-02, -2.2652734071e-02,  1.3715611398e-01, 
	 7.8158982098e-02,  5.0400570035e-02, -5.4665118456e-02, -2.4139206856e-02, -8.1730291247e-02,  5.0281506032e-02,  2.1857026219e-01, -6.7604630021e-04, -1.0580009222e-01, -5.7772994041e-02, 
	 8.9728143066e-03,  5.4214891046e-02,  3.8108162582e-02,  5.7644475251e-02, -2.7288323641e-01, -1.2449926883e-01,  9.3858495355e-02,  1.5276059508e-01,  5.5227391422e-02,  1.0957570374e-01, 
	-6.1754982919e-02,  9.0350352228e-02,  3.8610440679e-03,  6.2252316624e-02,  1.3846682012e-01, -2.2817753255e-02, -1.3810846210e-01,  1.0149566084e-01, -1.0809281468e-01,  2.4652293324e-01, 
	-1.7551440001e-01,  7.0065587759e-02, -6.3403196633e-02,  1.3296448626e-02, -2.1614326537e-01,  2.1300503612e-01, -1.0052931309e-01, -1.9807463512e-02, -2.3157477379e-01, -1.0398471355e-01, 
	-2.2287486494e-01, -2.1546018124e-01, -1.6040611267e-01, -2.4291253090e-01, -4.0027230978e-01, -3.1581077725e-02, -1.4747202396e-01,  8.4795961156e-03,  1.0196093470e-01, -1.1509631574e-01, 
	 8.1437854096e-03, -1.5459635854e-01,  4.4295500964e-02, -4.3370883912e-02,  8.5192553699e-02,  6.0327984393e-02, -3.0884243548e-02,  2.4410043657e-01,  2.2623997927e-01, -8.7242260575e-02, 
	-5.6317690760e-03,  6.2390871346e-02, -1.5498390794e-01,  8.9178815484e-02,  1.0090040416e-01, -9.9528022110e-02, -9.2555746436e-02, -5.1135286689e-02, -1.1492834240e-01, -1.0077141970e-01, 
	-1.2214216590e-01, -6.7759789526e-02, -1.1898554862e-01, -1.7126393318e-01,  2.4012451991e-02, -1.1445791274e-01, -1.7701947689e-01, -2.4841341376e-01, -1.3185338676e-01, -5.4107688367e-02, 
	-1.0428833216e-01, -2.6755854487e-02, -2.5712060928e-01,  1.8672788516e-02,  1.1543293297e-01, -8.1074379385e-02, -5.6699119508e-02,  9.5864564180e-02,  6.5108455718e-02, -8.9062251151e-02, 
	 7.6603600755e-03, -1.2362348288e-01,  2.6586037874e-01,  7.8604839742e-02,  2.3734331131e-01,  4.7148775309e-02, -1.4941160381e-01,  8.6814619601e-02,  3.1851541251e-02,  1.4525428414e-01, 
	 5.7601232082e-02, -1.7136959732e-01, -1.7820967361e-02, -1.7507371306e-01, -8.2208625972e-03, -1.3196314871e-01, -2.2705951333e-01, -3.6010432243e-01, -3.0632495880e-01, -2.3898039758e-01, 
	 6.3122756779e-02, -8.2444988191e-02,  1.6507061198e-02, -4.9871850759e-02,  3.5723466426e-02,  1.2599714100e-01,  3.6760050803e-02,  1.3729227707e-02, -9.0332858264e-02,  7.2534404695e-02, 
	 2.0658233762e-01, -2.5832620263e-01,  1.2313081324e-01,  2.7032724023e-01, -1.7242738605e-01,  1.3914874196e-01,  1.1304942518e-01, -6.0356143862e-02,  4.6945840120e-02, -1.3408224285e-01, 
	-2.2775050253e-02,  2.1710185707e-01,  1.0417420417e-01,  1.9372010604e-02,  2.4336909875e-02, -5.9357400984e-02, -3.1777415425e-02, -1.2497882545e-01,  3.3357992768e-02, -2.0401757956e-01, 
	-1.0126429051e-01,  1.6997575760e-01, -2.8823718429e-01, -1.6260099411e-01, -3.6054331064e-01, -1.1458548903e-01, -1.4743763208e-01,  4.7842636704e-02, -1.4378000796e-01, -9.2161841691e-02, 
	 1.2199104577e-01, -1.7192839005e-04, -7.9143650830e-02, -1.1240935326e-01, -6.2519632280e-02,  1.2887951732e-01,  1.0000382364e-01, -1.1223778874e-01, -1.0019066930e-01,  1.4680191875e-01, 
	 1.1983389035e-02,  1.6668559983e-02,  5.6949682534e-02,  1.1668792367e-01, -1.7960105836e-01,  4.9697306007e-02, -1.0456052423e-01, -2.0217411220e-01, -1.0651588440e-01, -1.0838033259e-01, 
	-2.7695244551e-01, -4.7267366201e-02, -2.1000820398e-01,  7.9163752496e-02, -2.3619230837e-02, -2.8619324788e-02,  2.4767793715e-02, -9.9626459181e-02,  5.2640743554e-02, -6.8858735263e-02, 
	 5.5019870400e-02, -1.7230416834e-01,  1.6165217757e-01,  1.8365904689e-01,  8.6008124053e-02, -1.0689894669e-02,  1.1038523912e-01,  4.1843947023e-02,  1.9378665090e-01, -3.3679202199e-02, 
	-2.2899273783e-02, -8.4070168436e-02, -1.5609067678e-01, -1.3125023246e-01, -1.1523566395e-01, -5.7297907770e-03,  6.0261338949e-02, -1.7655810714e-01, -4.7145642340e-02,  4.2434357107e-02, 
	-5.4652221501e-02,  2.6250487193e-02, -1.5177232027e-01, -1.2203628570e-01, -6.1201829463e-02, -1.4818644524e-01, -5.2730355412e-02, -6.3345722854e-02, -8.0769307911e-02, -9.9945984781e-02, 
	-1.4071013778e-02, -3.0722594261e-01,  2.7268469334e-01,  1.3681413233e-01,  2.4583940208e-01, -1.7706993222e-01,  2.8924406506e-03,  1.5019249916e-01, -2.8747780249e-02,  7.7102936804e-02, 
	-1.1712017655e-01, -4.5163840055e-02,  1.4654539526e-01,  6.4822040498e-02, -1.9739422947e-02, -2.6498358697e-02,  1.4224566519e-02,  1.4010868967e-01,  1.5879301727e-01,  1.3227048516e-01, 
	 1.2095377594e-01,  1.6309763491e-01, -4.4918537140e-02,  1.9591107965e-02,  3.1053150073e-02,  4.4374871999e-02,  2.0329705148e-04, -2.4116437882e-02,  2.5273961946e-02,  1.2288175640e-04, 
	 3.5922911018e-02, -3.2280314714e-02, -2.2010922432e-02,  2.1696479991e-02, -1.1720117182e-03, -9.7623318434e-02, -1.1862309650e-02, -8.7473489344e-02,  8.7821863592e-02, -2.7555223554e-02, 
	-6.7405596375e-02,  4.5737307519e-02,  2.7049122378e-02, -9.7323849797e-02,  6.4248584211e-02, -1.3520100713e-01,  1.4589360356e-01,  5.6230027229e-02, -6.5152496099e-02, -3.2843269408e-02, 
	-9.7194828093e-02,  1.2531764805e-01,  1.2003477663e-02,  1.4763094485e-01,  9.1015651822e-02, -1.0469193757e-01, -1.8527198583e-02, -1.2683732808e-01, -2.4590553716e-02, -6.5141409636e-02, 
	 2.9341356829e-02,  5.9431940317e-02,  1.2265295535e-01,  4.0229741484e-02, -6.2001813203e-02, -2.1636882424e-01,  5.5038746446e-02,  7.0211537182e-02, -8.0657973886e-02, -2.5883696973e-02, 
	 1.6397434473e-01,  1.1609493196e-01,  2.1412612870e-02, -4.6340670437e-02, -5.9097394347e-02,  4.6871241182e-02, -7.0157840848e-02,  1.0069256648e-02, -3.5975113511e-02, -8.5975904949e-04, 
};

const float layer_37_conv2d_bias[UNET_PAR_37_CONV2D_OUT_FILTER] = {
	 1.8378095329e-01, -8.3633340895e-02,  5.6195758283e-02, -1.8254915252e-02,  2.8283002973e-01, -3.1647333503e-01,  1.9433125854e-01,  4.8391127586e-01, -7.9908120632e-01, -1.0932824761e-01, 
	 1.1605567485e-01,  1.5980668366e-01,  1.4843809605e-01, -9.4823874533e-02, -4.9688346684e-02,  4.0634822100e-02, -1.2205158919e-01, -1.2233639136e-02,  5.7677894831e-02,  7.8059099615e-02, 
};


#endif
